solver_type L2R_L2LOSS_SVC_DUAL
nr_class 2
label 0 1
nr_feature 2999
bias 1.000000000000000
w
0 
0 
0 
0 
0 
0 
0 
-0.01198740407990833 
-0.001155405790880877 
-2.032879073410321e-20 
0 
0 
-0.005963761392925556 
-0.008237534601609487 
-0.01946669067718667 
-0.01373309049337827 
-0.02321545334779938 
-0.03654341843917643 
-0.04342806898901341 
-0.03020498603358586 
-0.02639255364191916 
-0.01530673099795826 
-0.02229309454279610 
-0.01445870048436015 
-0.03143315770384707 
-0.1094654423704348 
-0.05838276973199631 
-0.01968842906656597 
0.02921478440272415 
0.06620661183464864 
0 
0.2445570197915528 
-0.06800823289094851 
-0.006465611034281967 
-0.07952435418535042 
-0.06336796141089732 
-0.007221145258991210 
-0.05330235625524758 
-0.009561596316103597 
-0.01442864523706558 
-0.01053978631885367 
-0.004155399623320687 
-0.003651907815279777 
-0.004927352852292013 
-0.0002731205295172593 
0 
0 
0 
0 
0 
0 
0 
-0.01111263958125109 
0 
0 
0 
0 
0 
0 
0 
0 
0 
0 
0 
0 
0 
0 
-0.009223549230957367 
-0.0007477852751725687 
4.077101391894814e-05 
-0.001809993549544161 
-0.0001841765688095473 
-0.008476610558710402 
-0.007979522102553484 
-0.01746122445101516 
-0.01488909011083671 
-0.02450698018516137 
-0.03605220214519973 
-0.04338993298885859 
-0.03088139347385181 
-0.03374369159194413 
-0.02771502583793922 
-0.03575883793751731 
-0.02830798528598727 
-0.02753825596943389 
-0.09612473121962886 
-0.03413234615009680 
0.01330954846667736 
0.03188984013253928 
0.05242370569996665 
0 
0.2377426557901006 
-0.02549619080344940 
0.008654484990576989 
-0.08628953781198925 
-0.05779942597003942 
-0.01172821403250812 
-0.05113888192749425 
-0.02022684191786876 
-0.02526668333432166 
-0.02231518304032418 
-0.01146715183978758 
-0.008615763546257281 
-0.01000267563293551 
-0.002772328471334379 
-0.002225508996992011 
-0.001495950435812406 
-0.0006096807944554595 
-7.002647494896535e-05 
-0.0002248887362460949 
-5.856398093954051e-05 
0 
-0.008593757848861166 
0 
0 
0 
0 
0 
0 
0 
0 
0 
0 
0 
0 
0 
0 
-0.006578124494568277 
-0.0004355362411186599 
7.625603440072081e-05 
-0.003581233139230497 
-0.0003736008608551039 
-0.01090397372008388 
-0.007793894554306564 
-0.01564128649151630 
-0.01597743090108332 
-0.02563776160983090 
-0.03556777327319672 
-0.04342782087460484 
-0.03146873381897053 
-0.04087168915727549 
-0.03914201661158877 
-0.04267523798617443 
-0.03843570022392490 
-0.02300497747654521 
-0.08157433180988650 
-0.01179450991053745 
0.04345112028950782 
0.03472941641345045 
0.03934510154793140 
0 
0.2272360145082324 
0.01388747424152726 
0.02275336678428182 
-0.09282143928310703 
-0.05262067373834586 
-0.01621197693017164 
-0.04926814773082203 
-0.03098512641692528 
-0.03617156973099826 
-0.03376059038109603 
-0.01871344125742355 
-0.01351765343216154 
-0.01488475793683501 
-0.005180516940977851 
-0.004375511296342789 
-0.002974568577142838 
-0.001202388697905466 
-0.0001428184877019209 
-0.0004399489995277088 
-0.0001123744289191081 
0 
-0.006179069093475651 
0 
0 
0 
0 
0 
0 
0 
0 
0 
0 
0 
0 
0 
0 
-0.004169559983302941 
-0.0003140301703735468 
0.0001011690680081417 
-0.005274964809201189 
-0.0005735205993726787 
-0.01316036487263463 
-0.007753036907677803 
-0.01419240506536277 
-0.01693045403690623 
-0.02644705220911559 
-0.03509691924514091 
-0.04361775653215331 
-0.03187793997379451 
-0.04755340595321961 
-0.04839619949205472 
-0.04540558077557807 
-0.04291721105678541 
-0.01672896503006253 
-0.06460455588226977 
0.003658561903769431 
0.06787988069151256 
0.03789803379655330 
0.02767510136118946 
0 
0.2093448186655332 
0.04701438520145850 
0.03480982011567819 
-0.09888677644318247 
-0.04822148792498072 
-0.02064912807612839 
-0.04798289379631195 
-0.04192948871056471 
-0.04721015272651576 
-0.04454601896047056 
-0.02585315214467229 
-0.01833353752790077 
-0.01938035928724653 
-0.007416020271206006 
-0.006374500200411085 
-0.004418522129509319 
-0.001761150819344568 
-0.0002211415760628571 
-0.0006353523168803601 
-0.0001566778109787297 
0 
-0.003972766292098943 
0 
0 
0 
0 
0 
0 
0 
0 
0 
0 
0 
0 
0 
0 
-0.002116285809723241 
-0.0004786385445916292 
0.0001102241213040358 
-0.006852434599598405 
-0.0007891835075982813 
-0.01516029801195128 
-0.007929334113476278 
-0.01330010843922721 
-0.01768050069109365 
-0.02677410657032297 
-0.03464642748300616 
-0.04403576384740507 
-0.03201994484317666 
-0.05329394766661458 
-0.05435748061185737 
-0.04450890603917446 
-0.04578369060239062 
-0.008596788301326390 
-0.04400571517784255 
0.01413661494721874 
0.08453484675218230 
0.04156021283294407 
0.01811800712238679 
0 
0.1803767909815869 
0.07075616503382220 
0.04380263075361213 
-0.1042522671366947 
-0.04407249882300716 
-0.02501636159452508 
-0.04757586025504517 
-0.05315296769607819 
-0.05844928062029477 
-0.05434147939774916 
-0.03283065540948914 
-0.02300903516839806 
-0.02329623920742607 
-0.009394437078579180 
-0.008151487484413335 
-0.005814930685614140 
-0.002268994267767314 
-0.0003137532051703081 
-0.0008076900072811237 
-0.0001867205941584326 
0 
-0.002079042421735459 
0 
0 
0 
0 
0 
0 
0 
0 
0 
0 
0 
0 
0 
0 
-0.0003918900151602613 
-0.0004476418010008206 
9.813520085122810e-05 
-0.008274888550564330 
0.001416140565386839 
-0.01574103559474070 
-0.006580172258231707 
-0.01219009555787909 
-0.01529137564960297 
-0.02215789962712217 
-0.02973194759106507 
-0.04130904334442850 
-0.02787964960226771 
-0.05322462456033830 
-0.05777739830269840 
-0.03064458168543466 
-0.03928186760403542 
0.001782928499777182 
-0.01896223440865827 
0.02154003398760739 
0.09016458521137534 
0.04561983904322282 
0.01166490758472492 
0 
0.1388664267627060 
0.08236438121528258 
0.04883925693517202 
-0.1068500356825944 
-0.04187666019445199 
-0.02833940445305224 
-0.04789464797585761 
-0.06385857672358868 
-0.06944306772253073 
-0.06249451205509583 
-0.03954050816255812 
-0.02728029621712498 
-0.02626216946490871 
-0.01098094347224072 
-0.009585712561832794 
-0.007101874938002228 
-0.002708946152168250 
-0.0003634079263093353 
-0.0008828374162284044 
-0.0001977492454982436 
0 
-0.0006020904593895930 
0 
0 
0 
0 
0 
0 
0 
0 
0 
0 
0 
0 
0 
0 
0.0003867342351855600 
-0.0003432826698111911 
0.0002310755626736279 
-0.009288713649980108 
0.004875427222690594 
-0.01478422357977193 
-0.003491419806536117 
-0.01053936973735272 
-0.008742416300070540 
-0.01253576846281761 
-0.02118844937606100 
-0.03427612435556748 
-0.01682838019641253 
-0.04634620206087138 
-0.05635015427758566 
-0.008145448702050910 
-0.02432526299794141 
0.01562588344039444 
0.006606584289889232 
0.02317392544321213 
0.08523824040792266 
0.04873030326530652 
0.01125880642073231 
0 
0.09805092168664777 
0.08300456191353339 
0.05056600264839148 
-0.1073349397041637 
-0.04336100898731319 
-0.03174414596082980 
-0.04830290614848939 
-0.07412786160396538 
-0.08006072620650671 
-0.06877319694774098 
-0.04590011763352649 
-0.03127518684835915 
-0.02831506101001757 
-0.01212960370935702 
-0.01061424389608789 
-0.008233965903152275 
-0.003027232048242617 
-0.0003988152226758051 
-0.0008828753546921192 
-0.0001815449902378342 
0 
0 
0 
0 
0 
0 
0 
0 
0 
0 
0 
0 
0 
0 
4.266175524603864e-06 
5.006872526902556e-06 
0.0004095142752730269 
-0.0001930257060832439 
0.0004309327542575497 
-0.009606781176047555 
0.008178514105413223 
-0.01264707721309644 
-4.058775092045373e-05 
-0.007461532790883668 
0.0007063407234970151 
0.001525826929472219 
-0.01255693529269961 
-0.02571989330866184 
-0.002088741651675412 
-0.03241300021067701 
-0.04999047446629103 
0.01713115644491796 
-0.003366655484165182 
0.03594926504580074 
0.02618106819697727 
0.01636780545855954 
0.07725657868217753 
0.04899646782841086 
0.01740996268948963 
0 
0.07172072459971865 
0.07426364721798348 
0.04914342321091350 
-0.1052589172830477 
-0.04720489350509044 
-0.03592720554735683 
-0.05211758500457964 
-0.08467610225512859 
-0.09057327223065541 
-0.07339980949327506 
-0.05173831366162210 
-0.03491471644684758 
-0.02927742565869396 
-0.01237671446718351 
-0.01139747695702330 
-0.009228575083140268 
-0.003968247385098989 
-0.0009749071199905928 
-0.001612447297097061 
-0.0001294739465262072 
6.804568030137019e-05 
6.627975264914348e-05 
9.349744991474930e-05 
0 
0 
0 
0 
0 
0 
0 
0 
0 
0 
0 
6.953600023470748e-06 
8.160889939899388e-06 
0.0002545708105470627 
-4.908518296500505e-06 
0.0006158505850984409 
-0.009480899070864614 
0.009963417691707147 
-0.009396313778728396 
0.002684822026530931 
-0.002981936556379454 
0.01165086760058211 
0.01766082869214153 
-0.004257557724147269 
-0.01715808342763818 
0.01404732791152369 
-0.01283730361721372 
-0.04044195407145599 
0.04093326960378187 
0.01937638584875413 
0.05797244269284477 
0.03988189938077802 
0.007310202818813476 
0.07197954623189161 
0.04996565417300480 
0.02976609819251803 
0 
0.06559302823638610 
0.06066960262226610 
0.04597388887332626 
-0.09957082550169497 
-0.05331204028247061 
-0.03998420515425268 
-0.05808576199985439 
-0.09520740201537005 
-0.1008514397481767 
-0.07742019134895302 
-0.05752717430330337 
-0.03866736820170936 
-0.02944432817593669 
-0.01210046733329260 
-0.01203214866916684 
-0.009999376127898097 
-0.005230443749578951 
-0.001875238649265614 
-0.002706415341962625 
-3.940511416015040e-05 
0.0001661639594804745 
0.0001416965840576093 
0.0002334167106263320 
0 
0 
0 
0 
0 
0 
0 
0 
0 
0 
0 
8.073561808327074e-06 
9.475300436944875e-06 
0.0001630446834026647 
0.001681540373667666 
0.0006196822614304454 
-0.009022743255661018 
0.009036133175614280 
-0.005398978726225979 
0.003676392970919654 
0.004726994297797657 
0.02226894824633919 
0.03318833461640006 
0.003155275917479098 
-0.01024242148656730 
0.02945251750462671 
0.01083411383323770 
-0.02803470292829677 
0.05944600603261575 
0.04150136207173275 
0.08098926489160717 
0.04707090989826573 
-0.002329580552643486 
0.07349082837547345 
0.05296047390126041 
0.04556798193376508 
0 
0.09982696170056266 
0.04945255859252732 
0.04323735099078265 
-0.09091093624186866 
-0.06336746455206713 
-0.04138347746045509 
-0.06359207389492509 
-0.1025875858160853 
-0.1073955608959580 
-0.07870675979735649 
-0.06197277154562222 
-0.04239922926955825 
-0.02879757825721243 
-0.01179860464349513 
-0.01263391543512067 
-0.01082764628108371 
-0.006757982453216919 
-0.003128649505104375 
-0.003870384565498861 
-0.0001944346656646983 
0.0002484398870007844 
2.767534807178002e-05 
0.0003524134650632857 
0 
0 
0 
0 
0 
0 
0 
0 
0 
0 
0 
6.450463843664896e-06 
7.570398831075500e-06 
0.0001890592340012346 
0.004727126173497645 
0.0003252336935358074 
-0.008332430122832583 
0.005804381257128331 
-0.001218210120550941 
0.002981619917606051 
0.01521107733556024 
0.03087122583727517 
0.04714700159350034 
0.009203290453169440 
-0.005934029623030922 
0.04359551254929841 
0.03707200005747950 
-0.01398650710707234 
0.07138328627546034 
0.06046038134958606 
0.1031096657790218 
0.04836382879482509 
-0.01130623297824401 
0.08225467898129254 
0.05988121397184731 
0.06018762644738577 
0 
0.1428659035630943 
0.04058641534587211 
0.03949086511313350 
-0.07953873569477395 
-0.07630873927321510 
-0.04028930677238879 
-0.06802468862458748 
-0.1058781721050614 
-0.1090478181672250 
-0.07775760534186324 
-0.06486900050872480 
-0.04585441842326025 
-0.02757399312678420 
-0.01183243806660784 
-0.01343924559764288 
-0.01164251556752148 
-0.008409322678991650 
-0.004594973484987189 
-0.004908035286092113 
-0.0005512917259169953 
0.0002851562482977469 
-0.0002814125496379525 
0.0004086427006763514 
0 
0 
0 
0 
0 
0 
0 
0 
0 
0 
0 
0 
0 
0.0001666746206954884 
0.007598440199491008 
6.467044878621802e-05 
-0.007626641172077731 
0.002053220383882922 
0.003842307870111500 
0.001301612373144582 
0.02559691638754801 
0.03588858677315118 
0.05912141570762002 
0.01374953098941614 
-0.004468177149089842 
0.05658041253367149 
0.06394486748931562 
0.002074210786789518 
0.07867713974464564 
0.07410677225046532 
0.1210850934662001 
0.04625668792510321 
-0.01864039654657482 
0.09583420872770035 
0.07353863419737824 
0.06716652043380299 
0 
0.1739358528362041 
0.03379211167085548 
0.03353784449619666 
-0.06697925391558365 
-0.09185695413995450 
-0.04061665375055693 
-0.07206547002140548 
-0.1061707022732175 
-0.1059034513215189 
-0.07665160616904197 
-0.06700289237231520 
-0.04914825973639064 
-0.02655087732355689 
-0.01327167533023068 
-0.01518692573271828 
-0.01249515961597736 
-0.01042690646481754 
-0.007042925639432367 
-0.005785082198007036 
-0.001649797227696837 
9.604401106637934e-05 
-0.0008354503220399808 
0.0003602594049162718 
0 
-2.456395547037471e-20 
0 
0 
0 
0 
0 
0 
0 
0 
0 
0 
0 
-5.876787008261152e-05 
0.009503121937181804 
4.814855026809248e-05 
-0.005240933937837347 
-0.0002624742321240726 
0.007471290069430187 
-0.0004587321333760474 
0.03340196185199259 
0.03567218315984156 
0.06603256886136286 
0.01579112679442472 
-0.002118053812838736 
0.07316251010276427 
0.09012885688546937 
0.02015359455051073 
0.08195562791788459 
0.08116730927035078 
0.1324824206148629 
0.04499361010192234 
-0.02331250664026019 
0.1097645549688776 
0.09043281786516034 
0.06379857612477150 
0 
0.1808089440163253 
0.03108569325522776 
0.02474828466060915 
-0.05508354588935960 
-0.1103471886896170 
-0.04172490303787776 
-0.07492581382403053 
-0.1071391712217897 
-0.09979847715051282 
-0.07655770775457113 
-0.06864448628587638 
-0.05216669867390281 
-0.02649551379183278 
-0.01599161445802361 
-0.01822451845403479 
-0.01340846446066466 
-0.01255716448247720 
-0.009787266355468793 
-0.006484931196710088 
-0.002896627437169216 
-0.0002180721617367681 
-0.001711454813523531 
0.0001654185652337878 
0 
9.317362419797304e-20 
0 
0 
0 
0 
0 
0 
0 
0 
0 
0 
0 
0.0009586761831026818 
0.009531431855156602 
8.471273967649326e-05 
-0.002069382141953858 
0.0002830985590804357 
0.008935126086993546 
0.0008739388309208075 
0.03708667000119242 
0.03115234451469563 
0.06992248519315782 
0.01736691158386118 
0.001887779579089381 
0.09320838402378441 
0.1144722296721593 
0.03915749618010498 
0.08482332815876507 
0.08235075124267394 
0.1336968622197969 
0.04684803349667796 
-0.02620851457875995 
0.1162428642024585 
0.1138599196480182 
0.04822603379374642 
0 
0.1793745474715571 
0.03415096281490756 
0.01153728565626943 
-0.04726496972042919 
-0.1281233777668692 
-0.04632441694003166 
-0.07836126783692643 
-0.1080620023172969 
-0.09049446451361952 
-0.07799388074919718 
-0.06981261172300976 
-0.05293801818887087 
-0.02600244125006364 
-0.01866821390199315 
-0.02116003082243336 
-0.01422206114439761 
-0.01466684078145004 
-0.01255351844787596 
-0.006705268096947481 
-0.004246190718070757 
-0.0005359546962453945 
-0.002520019617813080 
0 
0 
3.726944967918922e-20 
0 
0 
0 
0 
0 
0 
0 
0 
0 
0 
0 
0.003939266281069256 
0.007672721679933269 
0.0001181674430531959 
0.001372956449312147 
0.003716284517985126 
0.008599344389822131 
0.005618414453157190 
0.03691120832913259 
0.02457837619338116 
0.07248183110141282 
0.02028601891931790 
0.008466458969951450 
0.1132890933322207 
0.1357553280704185 
0.05783283273152436 
0.08792663278824593 
0.07811679820677593 
0.1254805421548027 
0.05245722566039655 
-0.02514002100204062 
0.1145556447199097 
0.1381530478079659 
0.02331548556118957 
0 
0.1661332342397416 
0.04082918613013793 
-0.004040614863790870 
-0.04501595491684044 
-0.1428849756884553 
-0.05746458278228053 
-0.08351252644421530 
-0.1088768205410113 
-0.07895000274738512 
-0.08112625673584489 
-0.07071761349862968 
-0.04994518452615234 
-0.02324413100625377 
-0.02009304129098254 
-0.02316099539083420 
-0.01481357351084745 
-0.01671804230847671 
-0.01506602071556748 
-0.006240782028122519 
-0.005635403147915382 
-0.0007570877518662939 
-0.003161753353861182 
0 
0 
1.660184576618429e-19 
0 
0 
0 
0 
0 
0 
0 
0 
0 
0 
0 
0.007298565549787354 
0.004775936658010848 
0.0003312529648881431 
0.004668509030044441 
0.008221898583963032 
0.007433928073070786 
0.01124842856943215 
0.03470728057034338 
0.01883258315032138 
0.07406618760283346 
0.02438695877097551 
0.01682970129678786 
0.1311766761291346 
0.1526910716188069 
0.07429255819465883 
0.08819271765993240 
0.06940612237651762 
0.1108706238358562 
0.06136413320148113 
-0.01971097912339885 
0.1053519908309271 
0.1584241472786613 
-0.003596663214151799 
0 
0.1405374835842850 
0.04718843398175848 
-0.02150089821746232 
-0.04883662683735878 
-0.1558284871509480 
-0.07257801761127945 
-0.09006841946342872 
-0.1106402085499629 
-0.06693626569451779 
-0.08523570940441572 
-0.07218438912160129 
-0.04570083961161280 
-0.01970686973484350 
-0.02120307731623295 
-0.02501425874864451 
-0.01549274085430910 
-0.01876658524953444 
-0.01732536225009642 
-0.005309068817539118 
-0.007029206245197779 
-0.0009865090587120328 
-0.003748843687704082 
0 
0 
5.421010862427522e-20 
0 
0 
0 
0 
0 
0 
0 
0 
0 
0 
0 
0.009955869701293838 
0.001713020575634910 
0.002203681239139521 
0.007429945054096670 
0.01340826325201061 
0.006134875758499765 
0.01719223297264667 
0.03232651807508079 
0.01691594895872146 
0.07549948668793463 
0.03050235834481319 
0.02691280237909571 
0.1439853290288384 
0.1640196532210086 
0.08702211875975924 
0.08451170305696816 
0.05999997459815168 
0.09301527508151140 
0.07605250898078651 
-0.008950541424118845 
0.09080164517166044 
0.1713627562552769 
-0.02639324099107485 
0 
0.1122821458851764 
0.04983344052759671 
-0.04047603291429752 
-0.05870302968458917 
-0.1670845009112602 
-0.08932166958537771 
-0.09756784413354058 
-0.1112523510562132 
-0.05495268269404470 
-0.08963579726181371 
-0.07483214248141078 
-0.04110999459325634 
-0.01619202583246752 
-0.02189861587011829 
-0.02660354378376896 
-0.01594060472276397 
-0.02033858416735591 
-0.01925475375512304 
-0.004044699058637046 
-0.008374016894182662 
-0.001216447120455785 
-0.004293060258020657 
0 
0 
5.421010862427522e-20 
0 
0 
0 
0 
0 
0 
0 
0 
0 
1.146747335967145e-05 
1.345846578191537e-05 
0.01080842875260605 
0 
0.005041238451460501 
0.009433108872631601 
0.01696484865855117 
0.006458477996332648 
0.02283808105476844 
0.03244614335885407 
0.02102803265496352 
0.07640682428736566 
0.04047954681224975 
0.03741387771535090 
0.1481570051389869 
0.1692839991332480 
0.09630731127962529 
0.07424583639398542 
0.05067286819785005 
0.07678925934222895 
0.09808695939475866 
0.007947118203390799 
0.07584381154717981 
0.1757621014668893 
-0.04698341525568835 
0 
0.08838583682000074 
0.04821517338545221 
-0.05680558873489337 
-0.07396674501522511 
-0.1762818662656474 
-0.1052802077317928 
-0.1056789584032495 
-0.1126997738756620 
-0.04766646588469323 
-0.09474709116923764 
-0.07958771917211103 
-0.03706926641953510 
-0.01419485517889033 
-0.02190024481928014 
-0.02763562860616332 
-0.01602846533358686 
-0.02184987382221287 
-0.02029262552310346 
-0.002357287009290365 
-0.009743348417192049 
-0.001427615206802237 
-0.004825922590559167 
0 
0 
-9.486769009248164e-20 
0 
0 
0 
0 
0 
0 
0 
0 
0 
5.274931312795417e-05 
6.190769348100320e-05 
0.009660314216701658 
0 
0.009446105973579361 
0.01086573177086506 
0.01859385777230812 
0.008729645774015098 
0.02744348648249724 
0.03641770059933847 
0.03123299020644519 
0.07499359578104516 
0.05460422842705156 
0.04661768633187817 
0.1419026962198015 
0.1700285294142123 
0.1041274043461263 
0.06111251084161987 
0.04124129720745208 
0.06526049826163415 
0.1197960970253422 
0.03220944594721510 
0.06227328003353667 
0.1724476542171254 
-0.05783661691207669 
0 
0.07265633683436203 
0.04380880005089947 
-0.06748914518637682 
-0.09442493475432293 
-0.1836491173632917 
-0.1186131132113376 
-0.1117283699571460 
-0.1181517363922128 
-0.05004985067645799 
-0.1019352760458530 
-0.08707142765612132 
-0.03420163168708061 
-0.01534236591958988 
-0.02066898709440842 
-0.02725433775067977 
-0.01486455783951484 
-0.02355920866483473 
-0.01936399687345240 
0.0001710696989175430 
-0.01127920942302114 
-0.001593818515834306 
-0.005341745486594600 
0 
0 
-3.252606517456513e-19 
0 
0 
0 
0 
0 
0 
0 
0 
0 
9.136646628241884e-05 
0.0001072295894229736 
0.007495659783157600 
0.0001740709700797915 
0.01372322350357602 
0.01167732121156649 
0.01904081945456245 
0.01162351626514945 
0.02970160866835172 
0.04295630012721072 
0.04284773340754450 
0.07382550715918366 
0.06938627320159314 
0.05498807343938350 
0.1289387921739577 
0.1677599294259641 
0.1089035816487557 
0.04297850259216393 
0.02917530925665252 
0.05763718898407066 
0.1394186750954467 
0.05881192719756113 
0.05240326237289174 
0.1617768952177479 
-0.05689835887471203 
0 
0.06382167237393715 
0.03828190318850016 
-0.07346558745451119 
-0.1157303010264521 
-0.1884272200767364 
-0.1292119813488018 
-0.1156744194592125 
-0.1266556287058037 
-0.05784656975692871 
-0.1091673865355183 
-0.09555773920764070 
-0.03187575698715828 
-0.01699790976904073 
-0.01708084972732618 
-0.02447664971568579 
-0.01340887149825246 
-0.02470059960158525 
-0.01804499346419033 
0.001976241752385590 
-0.01268208202182825 
-0.001482232108343265 
-0.005544813120110012 
0.0003778328572351397 
0 
-3.388131789017201e-20 
0 
0 
0 
0 
0 
0 
0 
0 
0 
0.0001106254549188529 
0.0001298323399529448 
0.005770265144785051 
0.001049683862240652 
0.01704132138645243 
0.01239175248126826 
0.02068892794075991 
0.01588120932880861 
0.02807838497579880 
0.05070399185464536 
0.05067100787417368 
0.07587948755662878 
0.08319044627509135 
0.06217181659351442 
0.1124173433748377 
0.1651690788829929 
0.1121108256237573 
0.02126920669062116 
0.01264371402366462 
0.05211875375138506 
0.1538179703805354 
0.08379207500218747 
0.04814929572962742 
0.1443894308776230 
-0.03575079588225184 
0 
0.06709383877706873 
0.02592743932610152 
-0.07199754338654950 
-0.1349788714302163 
-0.1930897701979520 
-0.1359939470444685 
-0.1152234370669078 
-0.1375162509007775 
-0.07344872865279740 
-0.1132330833218509 
-0.1012354040721068 
-0.02776327946174959 
-0.01539254197922555 
-0.005702999605382445 
-0.01474996973145070 
-0.01180344905615409 
-0.02467822188450526 
-0.01798022135896045 
0.001080302247111133 
-0.01383904439138481 
-0.0003210609981774746 
-0.004717471003706282 
0.002278410079993265 
0 
-3.523657060577889e-19 
0 
0 
0 
0 
0 
0 
0 
0 
0 
9.383280113304371e-05 
0.0001101241314160346 
0.005172804223731638 
0.002164413966626483 
0.01855974810944449 
0.01338231692477604 
0.02315071238635374 
0.02067756327463064 
0.02483235896327635 
0.05695073290502906 
0.05255148240042177 
0.07623051500296837 
0.09143931702027659 
0.06428983622372851 
0.09601611923538529 
0.1651262173913952 
0.1158136097983645 
-0.001604811566140753 
-0.007704088956184287 
0.04805945040538680 
0.1625506249308274 
0.1042290278375508 
0.04677168596545912 
0.1241392814614491 
-0.01265480572795423 
0 
0.07155233403797667 
0.01356635863198055 
-0.06614658413465963 
-0.1512043541228174 
-0.1981880864477215 
-0.1396844157965819 
-0.1124249605191199 
-0.1457176320527821 
-0.09334700999653096 
-0.1168048252766601 
-0.1060442726543503 
-0.02490347309687654 
-0.01300957227311332 
0.007998899925207328 
-0.004089476971983253 
-0.009650307222884350 
-0.02223888245977201 
-0.01938823422138586 
-0.002078733696817599 
-0.01468774345218929 
0.001099862868127790 
-0.003515063522427654 
0.004559079500073821 
0 
-3.388131789017201e-20 
0 
0 
0 
0 
0 
0 
0 
0 
0 
2.429502702077881e-05 
2.851315015736147e-05 
0.006482722109823000 
0.003736385319327186 
0.01806410484161810 
0.01488092183902534 
0.02760265192733198 
0.02591983559931713 
0.02141205430235678 
0.06103785406881961 
0.04790675820152566 
0.07575648408084848 
0.09340634969270109 
0.06346272499486677 
0.08351546369303373 
0.1698380146312874 
0.1192385905343797 
-0.02299919634415286 
-0.03032485610497874 
0.04272613371667640 
0.1662104596490158 
0.1176364481552792 
0.04702977871551298 
0.1018165122788798 
0.006639859977549375 
0 
0.07988971226198643 
0.01327735108805950 
-0.04306398348015057 
-0.1634398373850940 
-0.2009157005487942 
-0.1410321155581520 
-0.1090520961561528 
-0.1563727254322569 
-0.1163216334118078 
-0.1204301476634064 
-0.1095406600627386 
-0.02413053644565895 
-0.009547784302867740 
0.02197065358617896 
0.006741386269949773 
-0.007878818140564752 
-0.01840041783520227 
-0.02244653395293756 
-0.007595774401625148 
-0.01520715745121092 
0.002542890357247860 
-0.002098543203271039 
0.006896239687095871 
0 
5.421010862427522e-20 
0 
0 
0 
0 
0 
0 
0 
0 
0 
0 
0 
0.008020736826869651 
0.006572019067099214 
0.01605831695820023 
0.01704005355936812 
0.03155925137793614 
0.02930674277533327 
0.01938170503941967 
0.06372836858052269 
0.03871162697280969 
0.07588256672305797 
0.09047109908100619 
0.06299493672926890 
0.07572959062907471 
0.1758680719517438 
0.1198192361759440 
-0.03946128012742924 
-0.05240129645453077 
0.03463630928970847 
0.1656175246598403 
0.1223975915575519 
0.04718249091433199 
0.08313095640147096 
0.02102665067864465 
0 
0.08272494777469154 
0.01023605568390933 
-0.01764244603311439 
-0.1677012903727158 
-0.2010210226610518 
-0.1373274952101260 
-0.1093169391760814 
-0.1703972007102853 
-0.1368941648290036 
-0.1251703778374798 
-0.1104811429108361 
-0.02500942326675809 
-0.007200317911667322 
0.03323244485569459 
0.01540508307471213 
-0.007555723637007595 
-0.01506923907752279 
-0.02709397405795443 
-0.01579070006737009 
-0.01507057697809791 
0.003883936585340624 
-0.0006407725713230637 
0.008966289210678489 
0 
-2.303929616531697e-19 
0 
0 
0 
0 
0 
0 
0 
0 
0 
0 
0 
0.009491420260421723 
0.009944606160946796 
0.01298315721513669 
0.01956526827486073 
0.03459649508251263 
0.03140870625879109 
0.01928884336474098 
0.06518233822953448 
0.02891855996689839 
0.07690123769734536 
0.08425433551631122 
0.06520072385717025 
0.07320691909369809 
0.1798017474788867 
0.1166253519445400 
-0.04869304799973049 
-0.07083230694026446 
0.02416691487793081 
0.1609417842767827 
0.1199344086918121 
0.04671580104645317 
0.06742039270605059 
0.02789494784469566 
0 
0.07787369599033216 
0.005680694655352406 
0.003288827275362645 
-0.1602732683560750 
-0.2000378938768854 
-0.1296949568308337 
-0.1112646761556533 
-0.1873783897149534 
-0.1533238504634384 
-0.1304154800836948 
-0.1092677269509099 
-0.02637724487661661 
-0.006872101360695310 
0.04009763762447420 
0.02089205496075049 
-0.009009986876941859 
-0.01271365185783891 
-0.03217584988494199 
-0.02499435658612587 
-0.01436558920631396 
0.004879485729057480 
0.0007117396519348480 
0.01044562664044073 
0 
-1.490777987167569e-19 
0 
0 
0 
0 
0 
0 
0 
0 
0 
0 
0 
0.01050082784125241 
0.01305315194272086 
0.009454812281352221 
0.02199112638384989 
0.03624157392229694 
0.03174411792842999 
0.02097384061787572 
0.06579635442065968 
0.02198451390322307 
0.07842260878513481 
0.07669674466331326 
0.07129866617443874 
0.07440733372535684 
0.1835120457030975 
0.1080727660300541 
-0.04901597214270307 
-0.08241303923656058 
0.01235520484988709 
0.1520409268492479 
0.1130789463027838 
0.04625251742805602 
0.05715412278719129 
0.02562366716264174 
0 
0.06724837468571040 
0.0003889386299608517 
0.01408123120456089 
-0.1465834100135666 
-0.1951986733286860 
-0.1196842665518189 
-0.1171381035085736 
-0.2060392222972541 
-0.1646882549734350 
-0.1350661500770058 
-0.1068839223541842 
-0.02746137458356501 
-0.009033076055815381 
0.04091244549308563 
0.02221168852310189 
-0.01255086455358787 
-0.01176148800517607 
-0.03651170465717082 
-0.03336390858004552 
-0.01322419252128783 
0.005282660716980129 
0.001798559238588261 
0.01101065054600169 
0 
1.287490079826537e-19 
0 
0 
0 
0 
0 
0 
0 
0 
0 
0 
0 
0.01112729339092088 
0.01549654978019606 
0.007334365920262203 
0.02376131860397586 
0.03715743007394886 
0.03095548417475148 
0.02612819922030712 
0.06817362803858873 
0.02233778610814862 
0.08348232090856096 
0.07550489134260745 
0.08652828710011204 
0.08066546578450520 
0.1886601271385993 
0.09193184828265690 
-0.03712360610662779 
-0.08384768069862131 
0.001762542452431621 
0.1408135496202250 
0.1061090455417346 
0.04672006291098528 
0.06127007939899363 
0.02232393472816894 
0 
0.06192026649008291 
-0.002854520751970967 
0.01312228939802135 
-0.1185308139359377 
-0.1769686274464687 
-0.1021401024236884 
-0.1221098411105352 
-0.2214781608252078 
-0.1683843703881137 
-0.1326951482735967 
-0.09831737358468612 
-0.02504043162462081 
-0.01243257782527779 
0.03352387609518560 
0.02315477208822997 
-0.01667485707183514 
-0.01662899494845849 
-0.03735906825130068 
-0.03798808494896481 
-0.01160944819441983 
0.004944542016545602 
0.001827751567121689 
0.01044562664044072 
0 
4.065758146820642e-20 
0 
0 
0 
0 
0 
0 
0 
0 
0 
0 
0 
0.01072993893322586 
0.01672772924560024 
0.005152699102693992 
0.02457122196988286 
0.03535508823835287 
0.02746345405971143 
0.03146378730570368 
0.06761122259366276 
0.02533440973213881 
0.08416274731351060 
0.07275749353502213 
0.1007821885796825 
0.08864049128026255 
0.1932335544226816 
0.07224386701616357 
-0.02039249358711362 
-0.07734647783977504 
-0.01069014173419293 
0.1227949865691599 
0.09531931614780201 
0.04696251254401871 
0.07175445831698181 
0.01348279478353576 
0 
0.05499888090992496 
-0.007186163050077472 
0.002913179018881833 
-0.08325443100702654 
-0.1495356133758861 
-0.08255393884008187 
-0.1294214765217616 
-0.2326674128150901 
-0.1661071183542199 
-0.1279057679607754 
-0.08890754117585184 
-0.02397745516997481 
-0.01759393900498476 
0.02038820221154158 
0.02176080304411034 
-0.02162410062527199 
-0.02376286272425151 
-0.03744893655903209 
-0.04113388314767875 
-0.009772089091689112 
0.004010455399393311 
0.001328806025156447 
0.008966289210678463 
0 
7.115076756936123e-20 
0 
0 
0 
0 
0 
0 
0 
0 
0 
0.0001038036593732545 
0.0001218261384958272 
0.009433451393802693 
0.01641580147068998 
0.003537206260373961 
0.02395910381428774 
0.03117145913565809 
0.02164408758413240 
0.03544774725750065 
0.06393759166237376 
0.03010916344102872 
0.07993100202244748 
0.06812338500897770 
0.1102549816695952 
0.09554596521129068 
0.1960576712787188 
0.05243759237189869 
-0.0008477903376596572 
-0.06285658267172664 
-0.02092034919160621 
0.1010266629141661 
0.08146008410732714 
0.04625103078673812 
0.08528996194145881 
0.003375301291594948 
0 
0.04726153492547602 
-0.01187056334975390 
-0.009625381278721772 
-0.04504774451229766 
-0.1145704426620986 
-0.06095514940779145 
-0.1379609513318173 
-0.2357686914073641 
-0.1589021989398247 
-0.1210060071219286 
-0.07964687378247569 
-0.02460254099066448 
-0.02317796431290032 
0.002681031702413382 
0.01781478787003191 
-0.02704303664231652 
-0.03323179728361259 
-0.03791401837568630 
-0.04293098896630632 
-0.007916717844049076 
0.002803523951994523 
0.0004835772822851850 
0.006896239687095842 
0 
-1.524659305057741e-20 
0 
0 
0 
0 
0 
0 
0 
0 
0 
0.0007004992212759854 
0.0008221204884552983 
0.007484655225457756 
0.01447668140499204 
0.003067816436729314 
0.02185358625770570 
0.02523708832786330 
0.01418924995825476 
0.03699135756067351 
0.05733487059196925 
0.03562003890007669 
0.07087641760628767 
0.06133598462323124 
0.1112897158994247 
0.09885708271143746 
0.1945263216983064 
0.03539008128463318 
0.01907881394963751 
-0.04140706641906033 
-0.02865932289293789 
0.07656188220932411 
0.06555136671490415 
0.04401016551087910 
0.09868422522552879 
-0.005193535125042965 
0 
0.03723282464977015 
-0.01805120656519427 
-0.01846718960691823 
-0.006601154852850108 
-0.07400354738767273 
-0.03082680465372080 
-0.1459763827665166 
-0.2252188814594890 
-0.1456350028937877 
-0.1120359660979418 
-0.06989166907733863 
-0.02889710826712507 
-0.02656625216441801 
-0.02136959992489407 
0.008069757882678651 
-0.03440523188369771 
-0.04863301726978806 
-0.04217287056498988 
-0.04517989204589981 
-0.006225693670256245 
0.001933343519625112 
-0.0004984350993804069 
0.004559079500073789 
0 
4.065758146820642e-20 
0 
0 
0 
0 
0 
0 
0 
0 
0 
0.001415446782761531 
0.001661197850165665 
0.005369745621320122 
0.01141924277845625 
0.002454379354448160 
0.01875409150116517 
0.01885797810755687 
0.006808015095623662 
0.03729723819148926 
0.04978791569829881 
0.04110986031269616 
0.05998582510401904 
0.05617239283718167 
0.1095022423351448 
0.1017898050294419 
0.1918369550196994 
0.02255089153166375 
0.03763677608756354 
-0.01614789468586542 
-0.03397847370460655 
0.04923583152218171 
0.04596732360759315 
0.03844154834110376 
0.1064285012974822 
-0.01190204779275450 
0 
0.02666547000339089 
-0.02233927274950705 
-0.02173368906648204 
0.03089511237964562 
-0.03121374005987720 
-0.0002621973573393148 
-0.1512358480402930 
-0.2039323997688247 
-0.1300102477869412 
-0.1034167678361055 
-0.06079531655073145 
-0.03436517950540770 
-0.02840534141908169 
-0.04402443356953780 
-0.002238368652137478 
-0.04020324562769274 
-0.06449482178035007 
-0.04767671929885489 
-0.04611621992203394 
-0.004834731405060929 
0.001242600968149504 
-0.001418574139200829 
0.002278410079993238 
0 
0 
0 
0 
0 
0 
0 
0 
0 
0 
0 
0.002122034543105686 
0.002490463974990959 
0.003277127182178030 
0.007829754900975690 
0.001894538003310790 
0.01489425649876788 
0.01318634580843443 
0.001283394542137672 
0.03638580088849795 
0.04172004894572389 
0.04397976179494802 
0.04848694607111083 
0.05150088237124374 
0.1040450147195995 
0.1033853343447238 
0.1861849889107589 
0.01612822748872420 
0.05200293587970016 
0.009561604496320060 
-0.03726331765920660 
0.02161355676296606 
0.02312298659631263 
0.03280841988858040 
0.1076893397597421 
-0.01617738382489576 
0 
0.01637836471212853 
-0.02948325522301687 
-0.01918041003726692 
0.06475846821848108 
0.007824556328737936 
0.02611573935896956 
-0.1551546619938150 
-0.1722503491339290 
-0.1137676058037912 
-0.09716587839795544 
-0.05579608848198802 
-0.04138332681678539 
-0.02914882571603725 
-0.06382224116057433 
-0.01335279338680348 
-0.04577202725667675 
-0.07763021612540918 
-0.05519621867256581 
-0.04615493839543341 
-0.004234493615053576 
0.0008224862043766603 
-0.002078787461945409 
0.0003778328572351182 
0 
0 
0 
0 
0 
0 
0 
0 
0 
0 
0 
0.002693650701584251 
0.003161324614295209 
0.001878258395030596 
0.004722380961303685 
0.002235730625870800 
0.01082588272379004 
0.009173420710026726 
-0.001489422738132955 
0.03316953978732676 
0.03407539940933971 
0.04393167961203135 
0.03814398502331345 
0.04787131681658587 
0.09365083456942401 
0.1009817525406145 
0.1762746870462860 
0.01526943076835628 
0.05923229813380750 
0.03135502902330630 
-0.03711723295642631 
-0.003444229048735503 
0.0009439425848167142 
0.02419379139287031 
0.09964962625922079 
-0.01401033075055229 
0 
0.008900755959421096 
-0.03531766149046015 
-0.01069993657020953 
0.09289357328196408 
0.03883952623259132 
0.04308793490423696 
-0.1599020548387792 
-0.1325415447506847 
-0.09355764928929180 
-0.09271326860680489 
-0.05692220332601120 
-0.04948007953721025 
-0.02723828691111023 
-0.07197076844223792 
-0.02230519265488319 
-0.05098230496454725 
-0.08599912100433325 
-0.06345238489230912 
-0.04360609130733723 
-0.003674568321103361 
0.001320518595545647 
-0.003490297647410310 
0 
0 
0 
0 
0 
0 
0 
0 
0 
0 
0 
0 
0.003003683457473018 
0.003525185519442445 
0.0008102372099926601 
0.002055704890776060 
0.003339421398669606 
0.007109882578079554 
0.007027881504652600 
-0.002536177002339732 
0.02897436254346395 
0.02736514917900680 
0.04101946225342806 
0.02904028874397661 
0.04469306899041254 
0.08233845288431664 
0.09834107724935738 
0.1633666556844210 
0.02023742043207030 
0.05878704674270285 
0.04589794717051689 
-0.03621259209281189 
-0.02587702279192846 
-0.01717309718539806 
0.01676127491305882 
0.08549240485566391 
-0.01613897525657699 
0 
0.004425227355511299 
-0.03819456660042998 
-0.002216821360561250 
0.1128619659018853 
0.05942173361439045 
0.04603038361634895 
-0.1660507450495204 
-0.09031155407450908 
-0.07100685524059125 
-0.09138347918139297 
-0.06496736309947909 
-0.05681958799632318 
-0.02665474851289158 
-0.07369627828798120 
-0.03166403093950117 
-0.05587482703806956 
-0.08972967538257103 
-0.07130633039803845 
-0.03899560979880529 
-0.003261347072372699 
0.001823627238013457 
-0.005948278319507779 
0 
0 
0 
0 
0 
0 
0 
0 
0 
0 
0 
0 
0.002938014268420196 
0.003448114790252734 
0.0003595889355428302 
0.0008930998903950553 
0.005300606595986160 
0.005481838079108174 
0.008192371707244702 
-0.0006211142705700905 
0.02549740980326650 
0.02341553060950064 
0.03471620045409561 
0.02245552719567719 
0.04251172162656159 
0.07339772118779980 
0.09672475430550374 
0.1502303599084494 
0.03139584237806163 
0.05343362988091015 
0.05217192584105898 
-0.03207853395481236 
-0.03747253189246794 
-0.02499313550064611 
0.01426173604989587 
0.06812265392028927 
-0.02440760627981706 
0 
0.002733525837440917 
-0.03934330402206863 
0.002271293719688936 
0.1239870948639426 
0.06767528393613088 
0.03133084322628489 
-0.1732452049101596 
-0.05203546975600879 
-0.04779631989778044 
-0.08974452300598476 
-0.07705744005748650 
-0.06238885879618475 
-0.02901700775016036 
-0.07020732349037893 
-0.04055353458635298 
-0.06078801212253070 
-0.08911592896521098 
-0.07746492117520969 
-0.03400952310363567 
-0.003376924536628866 
0.001954405246242001 
-0.009008306834903330 
0 
0 
0 
0 
0 
0 
0 
0 
0 
0 
0 
0 
0.002527758720653259 
0.002966630327347431 
0.0001463343833020972 
0.0003245106269186858 
0.007293967551534244 
0.004498500549227534 
0.01040135683935507 
0.002093009073825392 
0.02212439764758527 
0.02053878837091318 
0.02728026831314471 
0.01766754183981319 
0.04094356311519742 
0.06644587188881584 
0.09600195319696911 
0.1372824736482596 
0.04442387980392940 
0.04578396735931654 
0.05120522158960598 
-0.02590326549774744 
-0.04383399715556640 
-0.02628717802897392 
0.01689568533162241 
0.05580058265356535 
-0.04132520164153129 
0 
0.003094494015994377 
-0.03979335368225307 
-0.0001129354094708101 
0.1254815483612627 
0.06390199719773391 
0.001569035157300717 
-0.1789113445570748 
-0.02104164772892875 
-0.02695297661857166 
-0.08781533153043690 
-0.09261829643802832 
-0.06580055722015957 
-0.03392452852158961 
-0.06256221861137552 
-0.04868049193361354 
-0.06615503801489189 
-0.08434662896583676 
-0.08134430626464777 
-0.02852167713339667 
-0.003725888656847485 
0.001738952512607445 
-0.01203386596284391 
0 
0 
0 
0 
0 
0 
0 
0 
0 
0 
0 
0 
0.001897731838192756 
0.002227217644768117 
1.847766728080654e-05 
0 
0.008893891399229954 
0.003429802651891023 
0.01229773473604237 
0.004531633002775213 
0.01877962502552012 
0.01786797368632768 
0.02088721367102782 
0.01451017103831022 
0.04084644193815202 
0.06246834324966112 
0.09715228604142710 
0.1249251216904650 
0.05600550872011146 
0.03732983956989505 
0.04338009071976928 
-0.01882606559908067 
-0.04669630424523809 
-0.02233656398835004 
0.02792332203941079 
0.04903587007292300 
-0.05624378905251565 
0 
0.009944275147482945 
-0.04044455092741647 
-0.009895693605748612 
0.1178683233907142 
0.04989942295856731 
-0.03687349583795547 
-0.1793268939043124 
0.001705841608042146 
-0.01068944357577552 
-0.08536031996257291 
-0.1101711544897472 
-0.06647433478844274 
-0.04062416308142954 
-0.05273917290823062 
-0.05610428900697465 
-0.07178679516106910 
-0.07683568848318091 
-0.08261355591173422 
-0.02292176782221064 
-0.004092542658816957 
0.001297458613853296 
-0.01446236436955751 
0 
0 
0 
0 
0 
0 
0 
0 
0 
0 
0 
0 
0.001174310302355789 
0.001378195050113366 
0 
0 
0.009777592709256029 
0.002375905813302339 
0.01333655244966310 
0.006121335504475300 
0.01549542019768022 
0.01525132912550176 
0.01487267098683536 
0.01271305890468023 
0.03998765999498113 
0.05915344881266702 
0.09694083895434878 
0.1140069610998415 
0.06319932818203428 
0.03006896574925642 
0.03087940577805768 
-0.01158590410662627 
-0.04421760352049239 
-0.01730329745008269 
0.03999266493336522 
0.04788768823641092 
-0.07088552823178948 
0 
0.02352415681464337 
-0.04271011045625672 
-0.02495140751689142 
0.1054674161568033 
0.02880472543231715 
-0.07857607837880097 
-0.1719543533492510 
0.01557412844049706 
-0.001607084149165793 
-0.08233637906902609 
-0.1277338869001653 
-0.06635421620769030 
-0.04770611368303578 
-0.04250435151932687 
-0.06250012846571548 
-0.07656428451414869 
-0.06815255264878525 
-0.08089920101815476 
-0.01802739188674799 
-0.004417156623251001 
0.0007516812881292128 
-0.01584132733408698 
0 
0 
0 
0 
0 
0 
0 
0 
0 
0 
0 
0 
0.0004838707944594588 
0.0005678808509817570 
7.653117792370197e-05 
7.620980962365965e-05 
0.009680614328758580 
0.001762439797343802 
0.01321203356678949 
0.006253157796206285 
0.01288925100803488 
0.01307756276312297 
0.01064320548334638 
0.01224781138971224 
0.03780772232755595 
0.05640790429688250 
0.09506219187943211 
0.1066460825852700 
0.06779418536485987 
0.02908183184518472 
0.01577270057208432 
-0.003235129549484835 
-0.03376385604114645 
-0.01270711775586505 
0.04885567535476474 
0.05395008409369956 
-0.07804113275405723 
0 
0.04781054018201755 
-0.04470520491094097 
-0.04088923155127065 
0.09291432630220638 
0.004074409341576324 
-0.1155265277151763 
-0.1553370284223452 
0.01945151829910871 
0.0006789143875655094 
-0.07920800011738531 
-0.1423865904687978 
-0.06556598886355391 
-0.05159404928677012 
-0.03214953684294702 
-0.06687799700313880 
-0.07966946588421817 
-0.05910803470927713 
-0.07530729191497887 
-0.01537832876802713 
-0.003881477759693169 
0.0003361875000242416 
-0.01561981380529718 
0.0001654185652337918 
0 
0 
0 
0 
0 
0 
0 
0 
0 
0 
0 
0 
0 
0.0001822293601456791 
0.0002072026875706026 
0.008686156739687553 
0.001476436314824709 
0.01193242931982810 
0.005430110000437574 
0.01092481248317371 
0.01108363893424650 
0.007758247989588188 
0.01237056311648458 
0.03433200509323815 
0.05389073088835666 
0.09083846799701498 
0.1013036497986028 
0.06806616089209548 
0.03293813538879731 
0.001228444448834104 
0.005760338150784752 
-0.01761213656164061 
-0.01181640665572961 
0.05216953538175288 
0.06329538617967234 
-0.07624527484945312 
0 
0.08204419329769286 
-0.04773062015764080 
-0.05149402820746641 
0.08249919667445140 
-0.02065521688202324 
-0.1431496046882772 
-0.1321988865430576 
0.01611275261236346 
-0.003092427847580134 
-0.07719427956593698 
-0.1522161205130449 
-0.06521207700335112 
-0.05349956906418202 
-0.02389547750188207 
-0.06995406688161694 
-0.08021146182118674 
-0.05042245459783314 
-0.06617304286486941 
-0.01406413649409509 
-0.001977407415108605 
0.0001273972714315929 
-0.01389290431723442 
0.0003602594049162735 
0 
0 
0 
0 
0 
0 
0 
0 
0 
0 
0 
0 
0 
0.0002994744208703875 
0.0004809216938021156 
0.007204769126766210 
0.001469676353427421 
0.01012073734967971 
0.004707898774697781 
0.009551802118544570 
0.009164213859885605 
0.005296008485130119 
0.01227350041144305 
0.03069468031774942 
0.05157549239254080 
0.08398292697514576 
0.09456716133259219 
0.06147861179442513 
0.04091446577133436 
-0.008849019045449819 
0.01405671097810701 
0.001149660435122446 
-0.01733236104236713 
0.05196369332330759 
0.07097135762297538 
-0.07160288851151324 
0 
0.1275145089858494 
-0.05527596508309526 
-0.05681402604777003 
0.07473863489727953 
-0.04362319760644399 
-0.1611880889020911 
-0.1034017787398667 
0.01007995839816800 
-0.01252499517068373 
-0.07743263604601203 
-0.1559547047520798 
-0.06620111671623587 
-0.05505511393954196 
-0.02123134661912737 
-0.07282943699715708 
-0.07524344704479811 
-0.04239194340966965 
-0.05453576097152333 
-0.01266786847423745 
0.0006095603510398452 
0.0002786789190696463 
-0.01121630307961855 
0.0004086427006763512 
0 
0 
0 
0 
0 
0 
0 
0 
0 
0 
0 
0 
0 
0.0003012430916677690 
0.0005286560380515975 
0.005284340819358806 
0.001159880516336458 
0.007475183139819468 
0.003559107025867187 
0.008077857632431813 
0.006889905849887528 
0.003376127057073009 
0.01161188321766043 
0.02613842308463913 
0.04878025443928075 
0.07521949495662396 
0.08821822719274604 
0.05378669556664847 
0.04914871011886496 
-0.01394820854175892 
0.02259074486386172 
0.02650981349095735 
-0.02664157408835889 
0.04862605575200062 
0.07498285040381744 
-0.06863613404909277 
0 
0.1733599039096766 
-0.06608803900565041 
-0.05784165143391058 
0.07059000683206544 
-0.06537076932532732 
-0.1705803766445260 
-0.07551529047444806 
0.002182478734763279 
-0.02562542685750547 
-0.08079456571577037 
-0.1555349171783912 
-0.06818244354511381 
-0.05443309964981923 
-0.02086422578763589 
-0.07414013188695223 
-0.06571314596128344 
-0.03636061177454819 
-0.04219305789890671 
-0.01130813331125857 
0.003111792080767857 
0.0002403326998056619 
-0.008085911961662955 
0.0003524134650632838 
0 
-1.016439536705160e-20 
0 
0 
0 
0 
0 
0 
0 
0 
0 
0 
0 
0.0002270182059064546 
0.0004214285734938107 
0.003193266287893590 
0.0007000348832385748 
0.004473144066423658 
0.002185137924624332 
0.006810719818906415 
0.004820628502728918 
0.002013326091230700 
0.01066310384574227 
0.02106377726393708 
0.04534246763856950 
0.06509942183273398 
0.08158931854727305 
0.04600312929400023 
0.05768989819993234 
-0.01493177301456002 
0.03222738342744193 
0.05124880952497198 
-0.03599586107175586 
0.04531426856927075 
0.07680117658834565 
-0.06489008579951004 
0 
0.2124869076574749 
-0.07894067614386358 
-0.05407970150426504 
0.06833057740116945 
-0.08474285019089499 
-0.1729187909106867 
-0.05131441451201518 
-0.006132833713998078 
-0.04059063656922166 
-0.08550558050354586 
-0.1508706267078755 
-0.07038146219936670 
-0.05120781601678474 
-0.02179038021960408 
-0.07488775033478857 
-0.05435434752695610 
-0.03139602653406420 
-0.02990326366113418 
-0.009846026076177471 
0.005376330376660249 
0.0001591813985725807 
-0.004842246139193406 
0.0002334167106263295 
0 
-1.058791184067875e-21 
0 
0 
0 
0 
0 
0 
0 
0 
0 
0 
0 
0.0001220282731443828 
0.0002502112406420052 
0.001234605806921048 
0.0002495737139829743 
0.001671026660715378 
0.0008599038138421444 
0.005915094285247407 
0.003307787620663484 
0.001263495262270478 
0.009625610136505152 
0.01604454826375450 
0.04129141723544821 
0.05451351874074189 
0.07435075665733468 
0.04128324194762979 
0.06534042331768002 
-0.01206476429024172 
0.04304237524280612 
0.07222544928842078 
-0.04200594218376087 
0.04457724256591641 
0.07734703297873630 
-0.05673805387668279 
0 
0.2362830091977162 
-0.09226416213282963 
-0.04656624815230701 
0.06458055110140824 
-0.1008850565821364 
-0.1692762844536058 
-0.03349025090678068 
-0.01388725600567489 
-0.05483330680181325 
-0.08862559886173604 
-0.1429720865037704 
-0.07209203653102744 
-0.04660784059552158 
-0.02301821584964614 
-0.07453335996654217 
-0.04249923706678700 
-0.02713777078336368 
-0.01877127883158933 
-0.008205701050464236 
0.007099903473591744 
6.376173668313432e-05 
-0.001908751674531195 
9.349744991474670e-05 
0 
-1.694065894508601e-21 
0 
0 
0 
0 
0 
0 
0 
0 
0 
0 
0 
5.692953443010811e-05 
0.0001508413669930882 
2.647746291303955e-05 
7.313112789523770e-05 
0.0001050602746599439 
-6.494681070398193e-06 
0.005496452320193630 
0.002424080497839343 
0.001228603078864036 
0.008884868232433877 
0.01235037079372980 
0.03688259681628426 
0.04512096922308222 
0.06637165819636458 
0.03873654689924445 
0.06923518338360456 
-0.006694143040898973 
0.05424547520046824 
0.08640384805820320 
-0.04470767165862082 
0.04795714269490933 
0.07603137310011410 
-0.04562778736732876 
0 
0.2396924691182386 
-0.1038590566695437 
-0.03552040757744644 
0.05896301768893027 
-0.1143985140299342 
-0.1637814628310074 
-0.02521510869753855 
-0.02079360360977774 
-0.06591706119419283 
-0.08945473485537330 
-0.1323761843183473 
-0.07228032055468701 
-0.04106282964010212 
-0.02294805443690630 
-0.07251262682582453 
-0.03132431103895120 
-0.02340578063934293 
-0.009921268863358014 
-0.006168737726055076 
0.008078260064197250 
0 
-0.0001278301841243084 
0 
0 
-9.317362419797304e-21 
0 
0 
0 
0 
0 
0 
0 
0 
0 
5.974742135194412e-05 
7.012081917283455e-05 
5.285524633025277e-05 
0.0001410113658029867 
1.430774850233813e-05 
0.0001132967469474320 
4.131677021474921e-06 
-0.0003704024819512427 
0.005497000770178011 
0.002137441417437538 
0.001917850508366560 
0.008735624756045004 
0.01195087422936719 
0.03428477590624022 
0.03914168677828304 
0.05804687431115690 
0.03862415541853266 
0.06990917806390726 
-0.0003756799089917330 
0.06308346996631216 
0.08993635629187946 
-0.04239368774899022 
0.05637367018331322 
0.06886774832981662 
-0.02876927212944175 
0 
0.2144539183477394 
-0.1105063409106903 
-0.01974282930526996 
0.04914279568751807 
-0.1255050722451800 
-0.1574123826060985 
-0.02603693802842383 
-0.02649878429873767 
-0.07034795802924747 
-0.08473556112561739 
-0.1185047180895954 
-0.06873704968654061 
-0.03461155814845993 
-0.02079441131424977 
-0.06922436685733771 
-0.02283077619236704 
-0.02119176666462400 
-0.005706384930160281 
-0.004232009238535535 
0.008198886825520668 
5.999626197528078e-05 
-0.0001415616656969078 
0 
0 
-1.567010952420456e-20 
0 
0 
0 
0 
0 
0 
0 
0 
0 
0.0001211551920972506 
0.0001421902590047915 
5.690955463699708e-05 
0.0001522023877735974 
2.901310180516522e-05 
0.0001699767637239079 
5.420760252176363e-06 
-0.0004666400119690622 
0.005442257160491049 
0.001832550737684460 
0.002699300557581212 
0.008647113707706340 
0.01159812657412697 
0.03105168655256347 
0.03404173335989966 
0.05021730647845057 
0.04001744459445131 
0.06694168282841444 
0.007200500423235779 
0.07036832753124583 
0.08388764103543354 
-0.03657843388560009 
0.06824709021071229 
0.05738757707959970 
-0.007103869807797784 
0 
0.1619388727124421 
-0.1147213356161219 
-0.003120764904926999 
0.03163272468312984 
-0.1334479868210161 
-0.1568475903027200 
-0.03692407362468868 
-0.03010541943671331 
-0.06696493462329720 
-0.07346491918077370 
-0.1025392115892164 
-0.06005043274059725 
-0.02647579307864129 
-0.01904014427191060 
-0.06376887392126618 
-0.01658384376270763 
-0.01798551893050905 
-0.003067407111363691 
-0.002758247049557023 
0.007543752907229515 
0.0001216597884938777 
-0.0001361823224004246 
0 
0 
8.893845946170154e-21 
0 
0 
0 
0 
0 
0 
0 
0 
0 
0.0001336581261654273 
0.0001568639630590664 
5.121362456187821e-05 
0.0001371312129900696 
3.200718643912782e-05 
0.0001737638697230760 
5.299564392880626e-06 
-0.0004493321910481702 
0.005253155396761355 
0.001445928322108432 
0.003314323953559906 
0.008392196656572773 
0.01098148388343551 
0.02709866313147217 
0.02869272506363169 
0.04192460074615782 
0.04088080592781084 
0.06004861190072390 
0.01614856604754478 
0.07537676558800503 
0.07079240548002896 
-0.02831898865708152 
0.08314974624379400 
0.04287756306831417 
0.01846537498660510 
0 
0.08784174687864832 
-0.1168037518219084 
0.01394621118715289 
0.008634598576538420 
-0.1404879557812719 
-0.1611537801509299 
-0.05684022434841999 
-0.03371953077328195 
-0.05611043431690524 
-0.05988012484471128 
-0.08622417409441697 
-0.04884982242314649 
-0.01761035091913826 
-0.01736564229000582 
-0.05613664423500913 
-0.01168067081089389 
-0.01349146214508226 
-0.0003001458597175542 
-0.001153717883078390 
0.006232190024396370 
0.0001342147957367065 
-0.0001155143192086756 
0 
0 
5.505714157152952e-21 
0 
0 
0 
0 
0 
0 
0 
0 
0 
0.0001094824327257564 
0.0001284908652800795 
3.820501570036203e-05 
0.0001034248160564841 
2.621781957144557e-05 
0.0001378812926392613 
4.120659216087568e-06 
-0.0003468653569232401 
0.004963285017499590 
0.0009980071046651810 
0.003804527359611621 
0.008012475103343023 
0.01016691991615565 
0.02260568915981988 
0.02315692560895020 
0.03328454158917542 
0.04126341649222893 
0.05011495377606448 
0.02565472893824516 
0.07854976484008191 
0.05235062093620837 
-0.01831431029370450 
0.1002525392427093 
0.02609512063029490 
0.04695112824225711 
0 
-0.002301164038260048 
-0.1172617148295555 
0.03133654120549443 
-0.01721882824208990 
-0.1472012234996715 
-0.1624842602809376 
-0.08152555665539128 
-0.03736245378228795 
-0.04097429109123124 
-0.04462216818180310 
-0.06965322339295778 
-0.03576371707706553 
-0.008220613343909701 
-0.01575756783691731 
-0.04687186198611298 
-0.007884459593390607 
-0.008078284185539720 
0.002563327966565743 
0.0005488865165253397 
0.004428305418156728 
0.0001099384135227087 
-8.337982109547723e-05 
0 
0 
-7.411538288475128e-21 
0 
0 
0 
0 
0 
0 
0 
0 
0 
6.085432094752038e-05 
7.141989961225131e-05 
2.032128764791409e-05 
5.501176739462803e-05 
1.457281836933065e-05 
7.555226016679368e-05 
2.236614494292936e-06 
-0.0001876258473289584 
0.004606448606464282 
0.0005025193235865954 
0.004211709830844811 
0.007549550548715821 
0.009220408431150160 
0.01775500046351058 
0.01749659871532639 
0.02441291348239981 
0.04132552654401939 
0.03815423752009258 
0.03553295667320629 
0.08049913822237038 
0.03034447040011035 
-0.007146143173755111 
0.1188220902188473 
0.007797725907786500 
0.07737793755090049 
0 
-0.1031412650105775 
-0.1166367090384433 
0.04894244050801039 
-0.04551504994117686 
-0.1536966903901666 
-0.1642699440225378 
-0.1103237935459386 
-0.04102458457291898 
-0.02298371925270261 
-0.02824876996766441 
-0.05291166388705891 
-0.02142061504523088 
0.001518654508469299 
-0.01419377840303961 
-0.03651871136212399 
-0.004826222865427690 
-0.002047577165047112 
0.005490943509273814 
0.002316874404879136 
0.002296206329646081 
6.110777167082650e-05 
-4.360099303464577e-05 
0 
0 
-3.705769144237564e-21 
0 
0 
0 
0 
