solver_type L2R_L2LOSS_SVC_DUAL
nr_class 2
label 0 1
nr_feature 1799
bias 1.000000000000000
w
0 
0 
0 
0 
0 
0 
0 
0 
0 
0 
0 
0 
0 
0 
-0.01376941551671280 
-0.0008218087605094530 
-0.04942312309881270 
-0.03678953387564840 
-0.08773422899382800 
-0.03616443241692730 
-0.03583424438498180 
0.05046668365387480 
0.1096983066858630 
-0.003840059411174040 
-0.09744609007625330 
0.07045612331393280 
0.4425834191854450 
0.06952332368273090 
-0.1164621283156920 
-0.06709229347299940 
0.1819317935319890 
-0.1280978551234450 
-0.1019477984214720 
-0.09719353468635060 
0.04803616736251580 
0.07652453053318300 
-0.1102278845792680 
0.03253653985881220 
-0.007283873020152420 
-0.02538204009714230 
-0.06875326662021410 
-0.04314379916148080 
0 
-0.005992175757603800 
0 
-0.006733482573756920 
0 
0 
0 
0 
0 
0 
0 
0 
0 
0 
0 
0 
0 
0 
0 
0 
0 
0 
0 
0 
0 
0 
0 
0 
0 
-0.002520875337444270 
0 
-0.004405419790332730 
-0.01700197098452940 
-0.007663998232041950 
-0.05531443072159960 
-0.05237869897312300 
-0.1020407565907840 
-0.03986952547789910 
-0.05108338688100550 
0.05412388126803390 
0.04868928364206910 
-0.04898387164576540 
-0.1138259273460890 
0.07383844383816930 
0.2367793767808570 
0.05094837771547380 
-0.04136593772115030 
-0.001603570086765010 
0.1945548520382160 
-0.08709002645205190 
-0.09284872693063880 
-0.1874242931367280 
-0.01189394353184010 
0.06836539347689340 
-0.1208603390310860 
-0.01196791065091030 
0.01852720626701580 
-0.05022672038908570 
-0.03934019917533510 
-0.01122024688135320 
0.0004264776235979490 
-0.01388042522173940 
-0.004290684891951320 
-0.004601072455994210 
-0.002867079321251920 
-0.004522776762379530 
-0.002548680047369110 
0 
0 
0 
0 
0 
0 
0 
0 
0 
0 
0 
0 
0 
0 
0 
0 
0 
0 
0 
0 
0 
0 
-0.004809551897207120 
0 
-0.008575031581266680 
-0.01779745175173890 
-0.01337679534123510 
-0.05972980943904710 
-0.06522840609486420 
-0.1138220979599660 
-0.04675170947584650 
-0.06412366561998270 
0.05783058757028020 
0.001802150976120280 
-0.08880175953379020 
-0.1258550358159300 
0.08496064559320400 
0.06520807045102150 
0.03717860377190710 
0.03574501555744230 
0.05177662458469150 
0.2023939766348810 
-0.05445793809565090 
-0.08588233497536670 
-0.2816574567788470 
-0.07009315800403440 
0.05243081825272660 
-0.1231013253504610 
-0.05595249377413200 
0.04396220482031510 
-0.06383566275811570 
-0.02077780339486350 
0.01270786655802630 
0.001369559693604250 
-0.02146963412776200 
-0.008818552635530510 
-0.002665090738984330 
-0.005603263221530810 
-0.008757613354909170 
-0.005115406366357880 
0 
0 
0 
0 
0 
0 
0 
0 
0 
0 
0 
0 
0 
0 
0 
0 
0 
0 
0 
0 
0 
0 
-0.006633830901607130 
0 
-0.01227302737340310 
-0.02218623645174250 
-0.02013834261766250 
-0.06119333034581560 
-0.07419653157342020 
-0.1205530668736000 
-0.05978781501681020 
-0.06998492006080790 
0.06295999500759060 
-0.01861917899718830 
-0.1150496951482860 
-0.1278821702452310 
0.1098380708935460 
-0.04865530851560940 
0.03261011253753660 
0.1149280630264240 
0.08195214532209920 
0.2003990259074650 
-0.03847632062843480 
-0.08236047668407570 
-0.3762473255234570 
-0.1243480012271740 
0.02099376887448810 
-0.1052408361882950 
-0.1023691803258980 
0.06858175290891290 
-0.05404303842336300 
-0.02244263364262530 
0.02201632290185560 
0.003983871331206950 
-0.02854091389995990 
-0.01382078608236540 
-0.001121965823480120 
-0.007296525152459880 
-0.01241656960773910 
-0.007061956880681330 
0 
0 
0 
0 
0 
0 
0 
0 
0 
0 
0 
0 
0 
0 
0 
0 
0 
0 
0 
0 
0 
0 
-0.007761513572962880 
0 
-0.01450198021377570 
-0.02229969495404580 
-0.02254817580264920 
-0.05665268115310130 
-0.07434165526767860 
-0.1152763337002740 
-0.07539707604827140 
-0.06314314543217400 
0.07089467527161080 
-0.001105441896412210 
-0.1255982603892460 
-0.1160560818436570 
0.1462553702389070 
-0.07952797416045290 
0.04430938107349870 
0.1836346525432040 
0.08717931220777830 
0.1905857200935180 
-0.04465587201136800 
-0.07967335654843320 
-0.4497904654463510 
-0.1642281167251330 
-0.02422187425447700 
-0.05822210092989990 
-0.1487278626040460 
0.08913059224961470 
-0.01741426706626910 
-0.04920982409547850 
0.01095056594386140 
0.009244249775549940 
-0.03521751961723110 
-0.01952886961025140 
0 
-0.007493687313094320 
-0.01521170535101930 
-0.009134705325844560 
0 
0 
0 
0 
0 
0 
0 
0 
0 
0 
0 
0 
0 
0 
0 
0 
0 
0 
0 
0 
0 
0 
-0.007960401133592960 
0 
-0.01514225660036730 
-0.02057019188617710 
-0.02336768280228380 
-0.03589273909168630 
-0.05900197504648560 
-0.09126501454013550 
-0.08108099812076790 
-0.03525485325017670 
0.08610532001951890 
0.03536973081354850 
-0.1190702033440880 
-0.08587085907304920 
0.1796375922437490 
-0.02679724915492270 
0.08378028660396070 
0.2260310181199080 
0.08729520512138840 
0.1530167539181400 
-0.06697168746307850 
-0.07716218359077740 
-0.4799071161150620 
-0.1749447155083710 
-0.07885253074315480 
0.02006400498026410 
-0.1983116070077330 
0.08923160080331570 
0.02014033681569340 
-0.09247614759172270 
-0.01778174127165060 
0.01648588762819390 
-0.03988011462265570 
-0.02882688031962570 
-0.006100162912444650 
-0.01568059264408300 
-0.01685508041490010 
-0.01004871270521210 
0 
-0.007136272379115710 
-0.007556446061099760 
0 
0 
0 
0 
0 
0 
0 
0 
0 
0 
0 
0 
0 
0 
0 
0 
0 
0 
0 
-0.007103127165359870 
-0.002599445467999620 
-0.01386610178502440 
-0.01706247404383270 
-0.02386504293972210 
-0.01485680990608770 
-0.03591858436809680 
-0.06064745160877380 
-0.08114911080730230 
-0.005836326932624360 
0.1012051742432930 
0.06218298081815130 
-0.09131025940608800 
-0.04745938044649060 
0.1946358918389860 
0.07086027261485000 
0.1518956057130790 
0.2377817046105100 
0.1060798538570770 
0.09745413706138500 
-0.08661786136381110 
-0.07379220923229600 
-0.4446845964994300 
-0.1657779712455750 
-0.1267350878688270 
0.1104676681952780 
-0.2448302342075540 
0.06812579764412360 
0.02678189859644450 
-0.1211374542749800 
-0.05125675226940200 
0.01838021815229310 
-0.04697775354854340 
-0.04104248439717870 
-0.01311437084128450 
-0.02419685643600740 
-0.01705875462953140 
-0.01371588279779990 
0 
-0.01627675927907200 
-0.01561428890038530 
0 
0 
0 
0 
0 
0 
0 
0 
0 
0 
0 
0 
0 
0 
0 
0 
0 
0 
0.0007921584933490670 
-0.005481654688301860 
-0.005241038361047970 
-0.01029862587375930 
-0.01149601131223710 
-0.02501218470286800 
0.007761962532085290 
-0.008762963826515610 
-0.02863208442304460 
-0.06301278655742340 
0.02227316718953210 
0.1075247096754650 
0.05523421906633230 
-0.06140531217858760 
-0.008947487694604120 
0.2082401929496090 
0.1560747964647430 
0.2296058623211950 
0.2537759286015660 
0.1589230916584370 
0.04917932466843120 
-0.06762128373857770 
-0.06248586613388270 
-0.3464308129482140 
-0.1605859208497200 
-0.1655279990098900 
0.1796736584242280 
-0.2807671576582010 
0.02635753971769620 
-0.008350537502362960 
-0.1255100569504080 
-0.07136744852957730 
0.007701056269818120 
-0.04448144182236930 
-0.05375329812158730 
-0.02349767842254330 
-0.03465214585767070 
-0.01583209851378750 
-0.01837561074211420 
0 
-0.02409431747943290 
-0.02179879153112770 
0 
0 
0 
0 
0 
0 
0 
0 
0 
0 
0 
0 
0 
0 
0 
0 
0 
0 
0.004949373290934900 
-0.001628953030923740 
-0.003823605492496230 
0.002026527091745480 
0.004267609386956050 
-0.01537736908087370 
0.02830734175225500 
0.01863793335708360 
0.001360709279542510 
-0.04043671072713830 
0.04617137124408150 
0.1075432122171430 
0.02804193612515410 
-0.03888287445550000 
0.01834063168868430 
0.2266927968991570 
0.2045956254094380 
0.2837569491651610 
0.2484421554615370 
0.2006663783687830 
0.01086694901966590 
-0.03190247625334670 
-0.03426810649232630 
-0.2288223793299270 
-0.1873281396545940 
-0.1940629539208270 
0.1814362627731780 
-0.3086514615624300 
-0.03328383939753180 
-0.06281610064043910 
-0.1181876994600120 
-0.07818625769934940 
-0.01129212579984950 
-0.04347997601967450 
-0.06122686292927220 
-0.03271072123757330 
-0.04043604695255550 
-0.01341752567380680 
-0.02203779422763220 
0 
-0.02766778251154190 
-0.02331531102816450 
0 
0 
0 
0 
0 
0 
0 
0 
0 
0 
0 
0 
0 
0 
0 
0 
0 
0 
0.01440028255511210 
0.005672349434906040 
0.007147449686826750 
0.02280405322704290 
0.03309932303848100 
0.004275772573942360 
0.04379287224752430 
0.04396401441109080 
0.02742791502029370 
-0.01484927074056000 
0.06935319001393640 
0.1088595444367580 
0.002650346382015870 
-0.02999828884903490 
0.02562195043988180 
0.2485895152665980 
0.2234599312092760 
0.3019349931814870 
0.2209076461405000 
0.2090596598323610 
-0.02016732100064650 
0.01997946324616740 
0.01071344069579130 
-0.1360139112951880 
-0.2409941697801120 
-0.2038910066639130 
0.08896524684167050 
-0.3320424827766800 
-0.1175590602148550 
-0.1032284719785410 
-0.1190182346465910 
-0.08563115624872750 
-0.03660725833210680 
-0.05168743385674070 
-0.06567750520313770 
-0.04069570635454380 
-0.04332206517926370 
-0.01040841085274270 
-0.02478884837982670 
0 
-0.02642084422105060 
-0.01985212050511330 
0 
0 
0 
0 
0 
0 
0 
0 
0 
0 
0 
0 
0 
0 
0 
0 
0 
0 
0.02474281781927160 
0.01403474782448950 
0.02022599365939140 
0.04669163392825600 
0.06429707739931360 
0.02318201457131220 
0.05541410282190240 
0.06702137178722200 
0.05060491189194060 
0.01677618431041230 
0.09233024607606080 
0.1181572128232900 
0.001785541768089400 
-0.02571551748009260 
0.01863086448295150 
0.2530356539838270 
0.2236828318260100 
0.2890642763374260 
0.2237041703530030 
0.1846238104032830 
-0.04809042722884850 
0.09729589535756430 
0.07219589134631530 
-0.09177090189978110 
-0.2891458209282170 
-0.1770655197117140 
-0.07919207909641700 
-0.3530023528756260 
-0.2202819492127780 
-0.1049043900756430 
-0.1390210850297080 
-0.1048922792982360 
-0.06262730696526540 
-0.07673571401889790 
-0.04604603320901300 
-0.04903773078941570 
-0.04616011430161860 
-0.007402078433023180 
-0.02730941827566410 
0 
-0.02212204676791890 
-0.01358040911437130 
0 
0 
0 
0 
0 
0 
0 
0 
0 
0 
0 
0 
0 
0 
0 
0 
0 
0 
0.03448300912371100 
0.02592183275435780 
0.03354936625576820 
0.07073393872675410 
0.09057216599675680 
0.03418679809107700 
0.06543015779285040 
0.08500813747689240 
0.06601417012836780 
0.05266498765390840 
0.1061685487688220 
0.1375373674454570 
0.02897638016898840 
-0.001461822267657600 
0.01031507269611190 
0.2393329882722950 
0.1986544668088440 
0.2611241190220430 
0.2263954417381530 
0.1259197608316520 
-0.07710140740983620 
0.1549725687099650 
0.1317452524911070 
-0.05993597863771530 
-0.3101093976390970 
-0.1064977301392310 
-0.2460812967220670 
-0.3716014060074790 
-0.3168468892050440 
-0.07782339911980440 
-0.1681501276294860 
-0.1223925277183390 
-0.08815000238488840 
-0.1085136464639340 
-0.02203423357288990 
-0.05675029977435910 
-0.05242713861014950 
-0.009714505892688750 
-0.03342458404077080 
-0.001554187555675020 
-0.01574063471199530 
-0.005744955240625180 
0 
0 
-0.001803164746451620 
0 
0 
0 
0 
0 
0 
0 
0 
0 
0 
0 
0 
0 
0.005463521168222870 
0 
0.03929162447937580 
0.03970255193227170 
0.04330377945997460 
0.09127801122430250 
0.1097758102729130 
0.03524086755481470 
0.07319077491062010 
0.09629836052525690 
0.07565899397586010 
0.09461808608132230 
0.1132177939378160 
0.1512367688598180 
0.07303233625922130 
0.04483500215121050 
0.01038926624135840 
0.2028815009395040 
0.1344666261694810 
0.2297505834898120 
0.2152333596564980 
0.05348668323975400 
-0.09686646530616300 
0.1678422884547190 
0.1637302756373470 
-0.01054719555241370 
-0.2910857781551040 
-0.04390363829700560 
-0.3148496005984070 
-0.3738597266319580 
-0.3711602296607390 
-0.05317223955828410 
-0.1899884069235080 
-0.1374119607693870 
-0.1132657574093140 
-0.1383767567495630 
-0.01195391387375240 
-0.06456870903792640 
-0.06048869201354180 
-0.01421080456087480 
-0.03983343255722940 
-0.003509604539669710 
-0.01678996361057720 
-0.006065925439187040 
0 
0 
-0.004071834931898180 
0 
0 
0 
0 
0 
0 
0 
0 
0 
0 
0 
0 
0 
0.01512266727228430 
0 
0.03959807000209590 
0.05259055067475820 
0.04927416723644170 
0.1053268228437600 
0.1207965326639800 
0.03009227589812150 
0.07655124696094020 
0.09997587140408330 
0.07899904173818160 
0.1341531776109040 
0.1162285565363580 
0.1631235909236440 
0.1080854058597450 
0.1002004743540680 
0.01628473783715040 
0.1441488429670970 
0.04879555311657500 
0.2026886068873990 
0.1824865561994600 
-0.008629083117393350 
-0.09429082666282300 
0.1237514700963910 
0.1426760294882950 
0.08503059027867770 
-0.2488279146374460 
-0.005968729250652630 
-0.2483638565120750 
-0.3605514924462730 
-0.3519217539163270 
-0.04994023208822890 
-0.1884198369074300 
-0.1352331430668010 
-0.1359576768927180 
-0.1522285087910000 
-0.02559854569540100 
-0.06949320456904600 
-0.07207323962835600 
-0.02088087096695390 
-0.04591718411894110 
-0.008637890117593050 
-0.01677982731181630 
-0.007963145990474780 
-0.0008738831827798410 
-0.0007660323229827830 
-0.006308401293965780 
0 
0 
0 
0 
0 
0 
0 
0 
0 
0 
0 
0 
0 
0.02498730921935900 
0 
0.03778205057461890 
0.06152498155628220 
0.05267475817458920 
0.1108566207763630 
0.1243475182641300 
0.02978098497701410 
0.07414649101602770 
0.09919143536059600 
0.07836561341386280 
0.1626474636270990 
0.1216721302162610 
0.1736484955216510 
0.1267442577293910 
0.1260641819078800 
0.01556746965399680 
0.07136618801009460 
-0.03717559094421090 
0.1712123251222030 
0.1442750422984040 
-0.04967861721012360 
-0.07478481379888970 
0.05052539050954990 
0.08880082634573060 
0.1887688529702270 
-0.1784879484629430 
0.002824968678166600 
-0.1164247337848640 
-0.3353980848477900 
-0.2827308651849190 
-0.06526104648618400 
-0.1708866493056660 
-0.1387053699126180 
-0.1580472124518090 
-0.1575566724021750 
-0.05581581557405730 
-0.06998325922499720 
-0.08746662028900300 
-0.02883692082084190 
-0.05030245922917550 
-0.01509010326197030 
-0.01717060623755100 
-0.009770750542948120 
-0.002013627863075450 
-0.001732907760000370 
-0.008015254570280530 
0 
0 
0 
0 
0 
0 
0 
0 
0 
0 
0 
0 
0 
0.03189324844649210 
0 
0.03696385723766330 
0.06469955861922470 
0.05542022401893340 
0.1059273147908640 
0.1198168037243120 
0.03442998322646760 
0.06617825142140820 
0.09500919239322820 
0.07722348345641940 
0.1747830340606220 
0.1321865112199040 
0.1795868035224840 
0.1373184934281110 
0.1365711982253640 
0.002715257937304240 
0.001424890897774500 
-0.09110017791550560 
0.1331478599018360 
0.1279788799041940 
-0.05705975724223390 
-0.04804508484177330 
-0.008511262440367530 
0.05617166719243330 
0.2258642751371330 
-0.1054610345421090 
-0.004081186009828540 
-0.02259006078230510 
-0.3019680449990740 
-0.2066203046914730 
-0.08088969974804730 
-0.1533447180113370 
-0.1494747964234360 
-0.1741092715587500 
-0.1547624903336120 
-0.08596976489001430 
-0.06587906695219400 
-0.09877884159167430 
-0.03552065535044690 
-0.05202041579352620 
-0.02105290345366540 
-0.01666066063656140 
-0.01065072092675240 
-0.003286900530469520 
-0.002749841359178600 
-0.008694785498468530 
0 
0 
0 
0 
0 
0 
0 
0 
0 
0 
0 
0 
0 
0.03359103964238480 
0.008834214128083840 
0.03992981191107000 
0.06138882161585050 
0.06095208190377360 
0.09007303316017900 
0.1062252970039030 
0.04170371034551080 
0.05331376147541570 
0.08640655394825780 
0.07862043354538700 
0.1576205492360420 
0.1494809259665990 
0.1791168263395310 
0.1557169000754360 
0.1504929083467370 
-0.02099538036958780 
-0.04402850865272670 
-0.08621382317783170 
0.09109728910325040 
0.1539770072715150 
-0.01005551969489230 
-0.02117482750113810 
-0.01358255080497680 
0.06325382192726320 
0.1620952869116670 
-0.03444354700094940 
-0.01536240888921010 
-0.03966718499423460 
-0.2617722287999140 
-0.1628431214206490 
-0.08877359615457820 
-0.1409283071376860 
-0.1510925961204000 
-0.1589823609768090 
-0.1317048013391110 
-0.09907050353425960 
-0.05386625247844260 
-0.1089563714287370 
-0.04669080407939270 
-0.05336266309145240 
-0.03319871821696070 
-0.01713157592178090 
-0.01069952355137270 
-0.006800175820123750 
-0.004313217885401070 
-0.008015254570280520 
0 
0 
0 
0 
0 
0 
0 
0 
0 
0 
0 
0 
0 
0.03086248680573010 
0.01955138092452530 
0.04142658606719850 
0.05243288427271870 
0.06359945896103740 
0.06881995169211440 
0.08479370885582840 
0.04509999432174740 
0.04043518856000330 
0.07544264003150430 
0.08729690336024830 
0.1230598556620730 
0.1660655585777610 
0.1712506304357510 
0.1698567741155110 
0.1511730944105630 
-0.05548244950140120 
-0.08519508314566480 
-0.05300213037463660 
0.06889279164326280 
0.1890936090559290 
0.05861096141073100 
-0.003959469131236280 
0.01759349632753650 
0.1032183671723430 
0.04083109488754590 
0.02213696344582850 
-0.02921299059735490 
-0.1218234606339220 
-0.2145342111546860 
-0.1511344272638460 
-0.09451571999087920 
-0.1375232588795580 
-0.1598849840476930 
-0.1326836995998700 
-0.1026091383920090 
-0.1102184265751280 
-0.03888687544384060 
-0.1114190091516580 
-0.05760812472772230 
-0.05278216467737070 
-0.04546807977986840 
-0.01686277708045100 
-0.009138376387263730 
-0.01065949880827850 
-0.005794515028637120 
-0.006308401293965780 
0 
0 
0 
0 
0 
0 
0 
0 
0 
0 
0 
0 
0 
0.02526624385193880 
0.02827704465179640 
0.03935987593694580 
0.03970168924605740 
0.06250624627894620 
0.04692446433540670 
0.06027386865643040 
0.03883549894492640 
0.02740487011786890 
0.06172530365408710 
0.09893864169045000 
0.08512081418899100 
0.1736514412954080 
0.1557709660483870 
0.1755048802406220 
0.1374061126575880 
-0.08766443331760910 
-0.1156737623329740 
-0.03296487724545420 
0.08901437145122260 
0.2105876108909550 
0.1195820717115950 
-0.0005753651059733250 
0.05042971898259610 
0.1520636671321290 
-0.06897514513946310 
0.06335493286664100 
-0.04833061574664950 
-0.1954300612902320 
-0.1587750830534330 
-0.1573805076197980 
-0.1153618934454080 
-0.1361789952338290 
-0.1759260349817750 
-0.1028470817807350 
-0.08077959939927930 
-0.1128344839726360 
-0.02376410090449490 
-0.1071258071915390 
-0.06775954009250450 
-0.05307401880986220 
-0.05573331029216540 
-0.01597759580694850 
-0.006814959997678440 
-0.01368472622719060 
-0.006864231513556510 
-0.004071834931898180 
0 
0 
0 
0 
0 
0 
0 
0 
0 
0 
0 
0 
0 
0.01844397028802860 
0.03076242803162800 
0.03284115614553400 
0.02627629270535450 
0.05624599459401080 
0.03166850136489640 
0.04190887126601430 
0.02901811064396690 
0.01908617451997460 
0.04795400164284460 
0.1089788654213190 
0.05628441247833190 
0.1730274514671730 
0.1479054723314350 
0.1624982987097580 
0.1240310031445170 
-0.09424141644686930 
-0.1293089540559470 
-0.04795311724312230 
0.1556833450056550 
0.2096631211494400 
0.1531321389150770 
0.002032804755944160 
0.08540870368959330 
0.2010983649093020 
-0.1100589363694430 
0.08883406696694150 
-0.08842682674375560 
-0.2147086649335360 
-0.1058441806380890 
-0.1644121006725000 
-0.1494669959000210 
-0.1169499285361780 
-0.1932418245679900 
-0.08809628072622580 
-0.07286624875895430 
-0.1145164712480030 
-0.01499149595110520 
-0.1001469689927720 
-0.07511225056347030 
-0.05381667980672200 
-0.06165152181973830 
-0.01758672530195730 
-0.004986851893468300 
-0.01473178021743170 
-0.007242517250061470 
-0.002500995114197450 
0 
0 
0 
0 
0 
0 
0 
0 
0 
0 
0 
0 
0 
0.01173914750910240 
0.02535189431188660 
0.02279716397357700 
0.01621638064717780 
0.04567747598667850 
0.02509243283229560 
0.03362559678579020 
0.02066763761187970 
0.01665668220215380 
0.03493065614644480 
0.1095422190806280 
0.04108131673397470 
0.1540252924148500 
0.1483401488171810 
0.1314008763425900 
0.1124479829444340 
-0.07746914730016740 
-0.1283229199908760 
-0.09286983334985060 
0.2455944062080240 
0.1909025454096510 
0.1423324243035530 
0.03096298424175450 
0.1051374934521060 
0.2661243691096470 
-0.08886186230622400 
0.1051507130971410 
-0.1293215249773780 
-0.1808877466048110 
-0.06444051248773150 
-0.1714493207889060 
-0.1726577224217010 
-0.1086716324381290 
-0.2005971271630320 
-0.08637023379178470 
-0.07887323058802830 
-0.1130902393808270 
-0.01585671336080920 
-0.08966346785496220 
-0.07775677330277840 
-0.05447532813035900 
-0.06223857163963910 
-0.02041541763339060 
-0.004245498505027290 
-0.01343876359529890 
-0.006848126888984340 
-0.001588337078658970 
0 
0 
0 
0 
0 
0 
0 
0 
0 
0 
0 
0 
0 
0.005784795516815650 
0.01547739341683000 
0.01409000042678240 
0.01102619200515270 
0.03294581917509320 
0.02272717834467710 
0.02601714821508270 
0.01800686318237320 
0.01581336754153250 
0.02516639422921070 
0.09749145365746770 
0.03604953126885320 
0.1207105433893710 
0.1523059578458470 
0.09144159820695020 
0.1059499893517820 
-0.03605615674428130 
-0.1044944616377510 
-0.1353616450021950 
0.3093896149379670 
0.1728531886997230 
0.09048438772638930 
0.09359234082034650 
0.1070384809400920 
0.3495073008537770 
-0.08058039418973600 
0.06758317033131050 
-0.1481801476969730 
-0.1340785919455940 
-0.03628804328779840 
-0.1768505410296320 
-0.1705324036813870 
-0.1121843553235670 
-0.1955814538904000 
-0.09593464377511560 
-0.09447900670331940 
-0.1093645740426240 
-0.02126348381948940 
-0.07664503947837150 
-0.07337604114652430 
-0.05383086729513190 
-0.05877088589629330 
-0.02296271585770190 
-0.003207557127878290 
-0.01075568267033700 
-0.005708264710470730 
-0.002542075035317430 
0 
0 
0 
0 
0 
0 
0 
0 
0 
0 
0 
0 
0 
0 
0.005158771185949830 
0.005576349201201060 
0.006655140026351440 
0.02151871753416720 
0.01962956995631200 
0.01939920143880770 
0.01556501502235820 
0.01661041890005420 
0.01977805712664810 
0.07897634679153390 
0.03480362493074170 
0.08174922815019710 
0.1542556504975210 
0.05621673502190580 
0.08951550593431290 
-0.007245150366520320 
-0.08401934573097620 
-0.1513227347163440 
0.3177875751443600 
0.1681135590714390 
0.01786660856587100 
0.1957823138620270 
0.09961696191015770 
0.4268272212905320 
-0.1247779546277580 
0.007054804929616790 
-0.1335518095227760 
-0.09281583018382520 
-0.007639021558321630 
-0.1823007191177660 
-0.1377993687636550 
-0.1188746269730990 
-0.1743123979604740 
-0.09735878375134750 
-0.1074672769669380 
-0.1025225088244600 
-0.02733753305150960 
-0.06496209761764230 
-0.06287370330498230 
-0.04972236973066130 
-0.05105912423440880 
-0.02377472625225640 
-0.002041607255602970 
-0.007779755838814100 
-0.004085328770989450 
-0.003429599140299190 
0 
0 
0 
0 
0 
0 
0 
0 
0 
0 
0 
0 
0 
0 
0.0009741250136297160 
0.001588068979317310 
0.004535133023067450 
0.01474762561429300 
0.01697069413368410 
0.01403168677854980 
0.01377545646041980 
0.01589915757193290 
0.01994323959708830 
0.05712294801685740 
0.03335694224793010 
0.06052319157101350 
0.1489793354765700 
0.03708690141856440 
0.06703753711190380 
-0.002296282340804620 
-0.06883035425451500 
-0.1395281081824490 
0.2600208779667570 
0.1863256335345620 
-0.02551052432090440 
0.2643151817697770 
0.09397706931798860 
0.4603502439098990 
-0.1889373956288980 
-0.04998087456182990 
-0.09229139650694820 
-0.06573161342603390 
-0.001147861087907530 
-0.1851071814474140 
-0.1057041054408010 
-0.1292469055368180 
-0.1605820827571780 
-0.1030842628566790 
-0.1089148632107390 
-0.09679291802145440 
-0.03519708206937970 
-0.05733152769799820 
-0.05235803259591310 
-0.04286803126280470 
-0.04104752875706260 
-0.02209698630737230 
-0.0009162283817829980 
-0.006226706755891370 
-0.002300515571090110 
-0.004121464296182260 
0 
0 
0 
0 
0 
0 
0 
0 
0 
0 
0 
0 
0 
0 
0.0006034456540105680 
0.0004568986757982910 
0.003237132903097820 
0.01207366618301000 
0.01448424716213220 
0.01279046362046280 
0.01211514937193190 
0.01457228973667650 
0.02076648297778220 
0.03944854198237420 
0.03331939481763860 
0.06066696267655980 
0.1362782938146840 
0.03576587262116530 
0.04965287754478160 
-0.02237548778011440 
-0.05161738839656680 
-0.1101836614932200 
0.1549144451005610 
0.2358390130615250 
-0.004392008881485770 
0.2484945653449940 
0.07908566984388340 
0.4163518738359930 
-0.2203019433045740 
-0.1049707583937880 
-0.03995148457024890 
-0.05315097700355060 
-0.01337587044117460 
-0.1814287704457880 
-0.07738248513419970 
-0.1405250452746060 
-0.1512915509409830 
-0.1036517531835940 
-0.09217292495185670 
-0.09222279698766250 
-0.04321467863045730 
-0.05313802374013130 
-0.04378006132051780 
-0.03512489135055570 
-0.02896861871055020 
-0.01761765150800850 
0 
-0.005532516239775760 
-0.0006750216113223130 
-0.004488225405544610 
0 
0 
0 
0 
0 
0 
0 
0 
0 
0 
0 
0 
0 
0 
0.0002200608106460050 
0.0001666189694316630 
0.001597944958466320 
0.009308092911871980 
0.01170908077515420 
0.007784715440213580 
0.01019110945837030 
0.01206371843398510 
0.01831547976753190 
0.02688681629755830 
0.03309435771600100 
0.06227449447297910 
0.1195635492644440 
0.04100688983608390 
0.04519041073156520 
-0.04173013371297500 
-0.02934938608593640 
-0.08130070558242360 
0.04575840269412200 
0.2980883653173570 
0.07170079046870480 
0.1572753731425510 
0.02582447669971530 
0.2802168348352620 
-0.2075787238933840 
-0.1261244388708080 
0.006182383773746650 
-0.05407657848713920 
-0.01925645815648240 
-0.1680742706868310 
-0.04056298851202180 
-0.1475160970017240 
-0.1428227178384510 
-0.09834987649575540 
-0.06575835544802010 
-0.08747503796353170 
-0.04982625008944630 
-0.05277004025257260 
-0.03728567470344030 
-0.02912750251081020 
-0.01893800515416090 
-0.01242887254807670 
0 
-0.004744470088769350 
0 
-0.004434637918977450 
0 
0 
0 
0 
0 
0 
0 
0 
0 
0 
0 
0 
0 
0 
0 
0 
0 
0.006774901289160960 
0.009196526884038730 
0.005620415943538670 
0.008450495023012730 
0.008967237065169770 
0.01476880290224570 
0.01740506612938240 
0.03254115314028000 
0.06171256816483340 
0.1019433002119340 
0.04202751629017240 
0.04784703807907210 
-0.05815021674307680 
-0.006218216198035910 
-0.05867811993006060 
-0.03896646559734730 
0.3247865532082980 
0.1317375682159260 
0.04704441186625030 
-0.02660012825902630 
0.1183262206874950 
-0.1647630293623620 
-0.1110947140701550 
0.03443630943105000 
-0.05907155755548430 
-0.02334116650628410 
-0.1470150785098980 
-0.01199862884241240 
-0.1323895170225250 
-0.1281154714179300 
-0.08881512670287510 
-0.03862185098570790 
-0.08386998031051830 
-0.05233698401283060 
-0.05597642213439950 
-0.03627027665263790 
-0.02637911998499410 
-0.01322032954021610 
-0.008209522422116500 
0 
-0.003883311271059550 
0 
-0.004002259479124680 
0 
0 
0 
0 
0 
0 
0 
0 
0 
0 
0 
0 
0 
0 
0 
0 
0 
0.005338916546717200 
0.007145620915632630 
0.004381269907685470 
0.007135815673801460 
0.006469298392677650 
0.01220999936795710 
0.01425339635341160 
0.03314368335806580 
0.06167169410602660 
0.08728442100643110 
0.03714640569162120 
0.04557845399327400 
-0.05319032123026070 
0.01073743027678770 
-0.03843833183086640 
-0.05695642976211410 
0.2800455517303390 
0.1264924575479810 
-0.006842027168892700 
-0.03343937126232400 
0.03130541117226580 
-0.1225376708859160 
-0.08194766909073980 
0.04019580266718200 
-0.06224315474159890 
-0.02709611999327300 
-0.1243142324234300 
0.003487017194950060 
-0.1175055397956270 
-0.1067629109226890 
-0.07701105002701920 
-0.02732001077388010 
-0.07146310347959170 
-0.05151217056254270 
-0.05397368672957950 
-0.03520106515160840 
-0.02622785714508600 
-0.01223601684532560 
-0.007404702966941430 
0 
-0.002963662319987030 
0 
-0.003266848276643430 
0 
0 
0 
0 
0 
0 
0 
0 
0 
0 
0 
0 
0 
0 
0 
0 
0 
0.003849758049000170 
0.004881950016423460 
0.003219412025268170 
0.005498921835106320 
0.005428144468165480 
0.01169248677122720 
0.01032215485976390 
0.03330784449555630 
0.05795667593760400 
0.07560951781487430 
0.02519530196548560 
0.03128162533104770 
-0.05314895569836840 
0.01583271415939710 
-0.01687784800541780 
-0.05534128246832770 
0.1767301418842900 
0.05978467212709050 
0.01743362438977610 
0.05053502372877680 
0.07814198408709580 
-0.07706838075140810 
-0.05112492022189860 
0.02087426406729480 
-0.05772558209858250 
-0.02544575436760150 
-0.09617783260912880 
0.009722263545975290 
-0.09424245262295740 
-0.07892281581997080 
-0.06266279701155770 
-0.02311594310198740 
-0.05185516842308340 
-0.04560694552636950 
-0.05036098720860620 
-0.03261590489886780 
-0.02691656519311290 
-0.01385513317327860 
-0.006537464933498830 
0 
-0.002000145768892480 
0 
-0.002304162502190820 
0 
0 
0 
0 
0 
0 
0 
0 
0 
0 
0 
0 
0 
0 
0 
0 
0 
0.002325150381100950 
0.002476435830012240 
0.002109079578474800 
0.003616569336048100 
0.004471437992046760 
0.01049550131072000 
0.006189143050813860 
0.03317936152030620 
0.04916706480873680 
0.06416756059808840 
0.006265415529679260 
0.007323926074049470 
-0.05185338487037250 
0.01309824840258540 
0.004498082777963630 
-0.05250004853284090 
0.03674194398884090 
-0.06073123220222580 
0.07833650630599230 
0.2064608201133440 
0.2304352534378550 
-0.02056202962382550 
-0.02532758383611940 
-0.01643175012521410 
-0.04719820282997750 
-0.02148173806341680 
-0.06336270883913630 
0.006905397219065290 
-0.06653508566266660 
-0.04398627404693470 
-0.05031265632666260 
-0.02574216609380110 
-0.02915436608953580 
-0.03769053020673700 
-0.04568285025588350 
-0.02897912294829730 
-0.02818478410774980 
-0.01729767124745180 
-0.005628614514544550 
0 
-0.001007384151116570 
0 
-0.001189960346423970 
0 
0 
0 
0 
0 
