solver_type L2R_L2LOSS_SVC_DUAL
nr_class 2
label 0 1
nr_feature 1799
bias 1.000000000000000
w
0 
0 
0 
0 
0 
0 
0 
0 
0 
0 
0 
0 
-0.01914508822219630 
0 
0 
0 
0 
-0.01811014465093770 
0 
-0.03966714111358630 
-0.04067576634855390 
0 
-0.02119147190364120 
-0.04141489184994380 
-0.05362722520596730 
0.02063662897625200 
-0.03179313714566300 
0.003121079530355490 
0.02745691333510380 
0.05641290106745950 
0.1056425157617800 
-0.02732135119040070 
-0.1029170817546730 
-0.08623019845679570 
-0.004485728939785850 
-0.01958916377431390 
-0.04440711003849480 
-0.008717274422097670 
-0.02084896655821040 
-0.07642010934376620 
-0.05740548257206340 
-0.02607861083905780 
0 
0 
0 
0 
0 
0 
0 
0 
0 
0 
0 
0 
0 
0 
0 
0 
0 
0 
0 
0 
0 
0 
0 
0 
0 
0 
0 
0 
0 
0 
-0.01592081225334700 
0 
0.0001235484261770120 
-0.004041237737698870 
-0.002188944549455090 
-0.02056480709936650 
0.0004071234975908140 
-0.03253070889757260 
-0.03735788445248890 
-0.007264031702899590 
-0.02736658895119720 
-0.05963149572699650 
-0.04034668166006120 
0.01560641100395860 
-0.01912332252594490 
0.01064837901023190 
0.03634377155047740 
0.06290268157131450 
0.08496802686233170 
-0.01642516162187310 
-0.08584098309741230 
-0.07814284164899280 
-0.01207887446046370 
-0.01750111650030560 
-0.04783207698177800 
-0.01532764218164490 
-0.02287676888228780 
-0.07287340295116390 
-0.06820258374058420 
-0.02230991336493330 
-0.0004909249505066630 
0 
0 
-0.001562994571571030 
0 
0 
0 
0 
0 
-0.0003814043751148610 
0 
-0.004470228758054120 
0 
0 
0 
0 
0 
0 
0 
0 
0 
0 
0 
0 
0 
0 
0 
0 
0 
0 
-0.01276946995391570 
0 
0.0002336798286967920 
-0.008015491793540720 
-0.004385634680814220 
-0.02288328042471590 
0.0007700344886559280 
-0.02559490800111020 
-0.03411313408732700 
-0.01419336875858090 
-0.03336673496514700 
-0.07698200090184240 
-0.02742464217048190 
0.01091028213915410 
-0.006723894324326790 
0.01803647233030960 
0.04503067267363580 
0.06939104531023040 
0.06577353799402020 
-0.005858712256310320 
-0.06931347413674100 
-0.07038367255333890 
-0.01948446656467720 
-0.01555505846143150 
-0.05120514465887960 
-0.02183599360740500 
-0.02492031963964110 
-0.06956614484231940 
-0.07845812196842680 
-0.01857287736001240 
-0.0009285367842162180 
0 
0 
-0.003237814081629010 
0 
0 
0 
0 
0 
-0.0007213892705792380 
0 
-0.008759105887065200 
0 
0 
0 
0 
0 
0 
0 
0 
0 
0 
0 
0 
0 
0 
0 
0 
0 
0 
-0.009763994993320100 
0 
0.0003169771839021080 
-0.01185577848566850 
-0.006597815975981400 
-0.02492937550390620 
0.001044520466669640 
-0.01906036974375050 
-0.03101464678397090 
-0.02045331651982580 
-0.03901693891188440 
-0.09260030867227440 
-0.01521961079355610 
0.006882331489327010 
0.005134761041091660 
0.02514615333078980 
0.05331765961236360 
0.07587657551926750 
0.04953904918798290 
0.004048256703322420 
-0.05388314456924850 
-0.06328087888198250 
-0.02651495183596190 
-0.01389297889282580 
-0.05447441380361770 
-0.02814031236559090 
-0.02699536726354600 
-0.06673778330099020 
-0.08763053431491310 
-0.01489916429349880 
-0.001259522384331580 
0 
0 
-0.005136283468660860 
0 
0 
0 
0 
0 
-0.0009785352067426510 
0 
-0.01268527975799010 
0 
0 
0 
0 
0 
0 
0 
0 
0 
0 
0 
0 
0 
0 
0 
0 
0 
0 
-0.006977321040978190 
0 
0.0003600234681357280 
-0.01549511413222520 
-0.008833234016860630 
-0.02656690321385840 
0.001186368925106260 
-0.01312772544504500 
-0.02813555407332370 
-0.02570918033941580 
-0.04414222975780280 
-0.1056203203360860 
-0.004090091585610430 
0.003856648161966160 
0.01618225715221050 
0.03183821585187390 
0.06100477527444520 
0.08235785543348620 
0.03774456047535660 
0.01296600505406020 
-0.04009858409152450 
-0.05716264834707250 
-0.03298277685785350 
-0.01265686702962280 
-0.05758798514981110 
-0.03413858212241530 
-0.02911766018727840 
-0.06462776661093370 
-0.09517825783936480 
-0.01132043563459610 
-0.001430568634055610 
0 
0 
-0.007370227671153520 
0 
0 
0 
0 
0 
-0.001111422703954620 
0 
-0.01606739874178580 
0 
0 
0 
0 
0 
0 
0 
0 
0 
0 
0 
0 
0 
0 
0 
0 
0 
0 
-0.004482381766307860 
0 
0.0003494016577404190 
-0.01886651505135380 
-0.01109963438535600 
-0.02765967443149280 
0.001151367357440080 
-0.007997606424544940 
-0.02554898748628840 
-0.02962626557013280 
-0.04856763646929660 
-0.1151759371910710 
0.005605411397028100 
0.002167321264560350 
0.02614820759092970 
0.03797345373376300 
0.06789206256766580 
0.08883346828794770 
0.03187007188727840 
0.02056479259293800 
-0.02850838240015820 
-0.05235716866075790 
-0.03870038821388740 
-0.01198871210695670 
-0.06049395943127780 
-0.03972878654409130 
-0.03130294684411420 
-0.06347554305590810 
-0.1005597296011030 
-0.007868352852507960 
-0.001388362416591250 
0 
0 
-0.01005147162759390 
0 
0 
0 
0 
0 
-0.001078632282564650 
0 
-0.01872411120940940 
0 
0 
0 
0 
0 
0 
0 
0 
0 
0 
0 
0 
0 
0 
0 
0 
0 
0 
-0.002352110838726970 
0 
0.0002716947290589510 
-0.02190299756119720 
-0.01340476266337150 
-0.02807150003373000 
0.0008953032571454090 
-0.003870644001801840 
-0.02332807855376790 
-0.03186987756475860 
-0.05211818801275900 
-0.1204010605350210 
0.01350839409803300 
0.002148439904598370 
0.03476222593914970 
0.04341266081665840 
0.07377956439980960 
0.09530199731771190 
0.03339558345488500 
0.02651487911699100 
-0.01966112919173910 
-0.04919262753518770 
-0.04348023248759940 
-0.01203050335996170 
-0.06314043738183630 
-0.04480890929683160 
-0.03356697566732910 
-0.06352056091967060 
-0.1032333866594510 
-0.004574577416437980 
-0.001079590615141370 
0 
0 
-0.01329184027646900 
0 
0 
0 
0 
0 
-0.0008387444629222740 
0 
-0.02047406553181750 
0 
0 
0 
0 
0 
0 
0 
0 
0 
0 
0 
0 
0 
0 
0 
0 
0 
0 
-0.0006594419276534240 
0 
0.0001134856584340880 
-0.02453757797989850 
-0.01575636443281110 
-0.02766619089749050 
0.0003739641176965400 
-0.0009474694963670090 
-0.02154595880666510 
-0.03210532167607490 
-0.05461891335458410 
-0.1204295916657300 
0.01926035246107730 
0.004134093189568840 
0.04175392577877040 
0.04801663094076160 
0.07846732367866170 
0.1017620257578400 
0.04380109520931380 
0.03048652442325420 
-0.01410541416285680 
-0.04799721268251020 
-0.04713475626252510 
-0.01292423002377210 
-0.06547551973530500 
-0.04927693404684910 
-0.03592549509019910 
-0.06500226848597880 
-0.1026576660737290 
-0.001470770795589800 
-0.0004509401129088930 
0 
0 
-0.01720315855626570 
0 
0 
0 
0 
0 
-0.0003503397653769990 
0 
-0.02113591007996730 
0 
0 
0 
0 
0 
0 
0 
0 
0 
0 
0 
0 
0 
0 
0 
0 
0 
2.930676468620240e-05 
3.359136781784140e-05 
0 
-0.001222048808301240 
-0.02619875507404850 
-0.01772790419193960 
-0.02601832947388420 
0 
0 
-0.01915647561869370 
-0.03001717881614770 
-0.05590341082202510 
-0.1144462174276130 
0.02252510131335480 
0.008431159990146520 
0.04622899287161760 
0.05165250827904690 
0.08176274502369570 
0.1082027322353730 
0.06438917953360520 
0.03130725463017940 
-0.01235816009101830 
-0.04907732883002920 
-0.04948588989407300 
-0.01480046869453090 
-0.06745433269714960 
-0.05278342967660400 
-0.03810414744621180 
-0.06811072617591650 
-0.09828981651208450 
0 
0 
-0.0005980352124131300 
0 
-0.02188495108298690 
-0.002622084365190170 
-0.004246534066039710 
-0.003086630508509890 
-0.001307637567513210 
-0.0009633536906559980 
0 
-0.001081481228984870 
-0.02053851647841370 
0 
0 
0 
0 
0 
0 
0 
0 
0 
0 
0 
0 
0 
0 
0 
0 
0 
9.689175263601590e-05 
0.0001110571752344960 
0 
-0.004177470841647230 
-0.02662442912401430 
-0.01906237131478210 
-0.02305297354368980 
0 
0 
-0.01561300618012610 
-0.02573336776058360 
-0.05600237404210170 
-0.1028036922373800 
0.02347978980303460 
0.01472068373028270 
0.04956791504007820 
0.05433349465827100 
0.08364255242324900 
0.1143969893929030 
0.09398884972727870 
0.03087936154919970 
-0.01420795061483270 
-0.05223837205360960 
-0.05057369049072140 
-0.01752730527158210 
-0.06919358832073340 
-0.05551205593518010 
-0.04032571781735340 
-0.07263942323494940 
-0.09034453568139590 
0 
0 
-0.002093932701395840 
0 
-0.02715383505549790 
-0.009132560183013800 
-0.01460373423381170 
-0.01062767170544010 
-0.004539389324956650 
-0.003320930745000660 
0 
-0.003696952420544770 
-0.01874589118446600 
0 
0 
0 
0 
0 
0 
0 
0 
0 
0 
0 
0 
0 
0 
0 
0 
0 
0.0001644767405858300 
0.0001885229826511510 
0 
-0.007549895311949080 
-0.02632365793942200 
-0.02006600058598770 
-0.01931707982678560 
0 
0 
-0.01188563057655020 
-0.01982514514852910 
-0.05514359194160070 
-0.08702283808403630 
0.02281490139925980 
0.02205787238720530 
0.05136023032384630 
0.05621884955897270 
0.08425278923452070 
0.1199013638885720 
0.1290178575575980 
0.02966270430474530 
-0.01871503023401220 
-0.05678472977767710 
-0.05065634191402010 
-0.02071033495747120 
-0.07097158450731630 
-0.05773343763080430 
-0.04278785268711920 
-0.07801393469672100 
-0.07982438823563620 
0 
0 
-0.003944620761384380 
0 
-0.03254352025552730 
-0.01705189068653480 
-0.02667531944086080 
-0.01945378398379460 
-0.008428058352833310 
-0.006091674225314980 
0 
-0.006681459860857800 
-0.01605717548818780 
0 
0 
0 
0 
0 
0 
0 
0 
0 
0 
0 
0 
0 
0 
0 
0 
0 
0.0002177073948117890 
0.0002495358752182500 
0 
-0.01102160607676430 
-0.02539333298144240 
-0.02068948981353840 
-0.01512266133912540 
0 
0 
-0.008028579352115670 
-0.01288304317841580 
-0.05356342280816840 
-0.06867526250321010 
0.02124323845469450 
0.02947072370132820 
0.05102309351943290 
0.05747418279446460 
0.08374686052639860 
0.1242630177725050 
0.1657289866539840 
0.02665987022381330 
-0.02490797652918620 
-0.06199900644181160 
-0.05000151179739190 
-0.02394374031575220 
-0.07307364462980570 
-0.05938155962645480 
-0.04529363616981880 
-0.08361617912496010 
-0.06773683401927540 
0 
0 
-0.006096124774935440 
0 
-0.03757541614231930 
-0.02604461015868070 
-0.03953594047721120 
-0.02891860435342540 
-0.01277558277979590 
-0.009081992365910280 
0 
-0.009753833074683450 
-0.01278173393324100 
0 
0 
0 
0 
0 
0 
0 
0 
0 
0 
0 
0 
0 
0 
0 
0 
0 
0.0002422293815900400 
0.0002776429380862400 
0 
-0.01427488699365020 
-0.02393034571124630 
-0.02088353680541640 
-0.01078173109666300 
0 
0 
-0.004096083050972310 
-0.005497594048674650 
-0.05149822492945060 
-0.04933257303052820 
0.01947760332200270 
0.03598723541306530 
0.04914841558375910 
0.05826510417805860 
0.08227817136777240 
0.1270291130948240 
0.2003750206458590 
0.02329486410424450 
-0.03181536708098410 
-0.06716380648559400 
-0.04887686777425820 
-0.02682170390997930 
-0.07578509206110890 
-0.06039040678510960 
-0.04764615237976150 
-0.08882807508339400 
-0.05508933287678500 
0 
0 
-0.008494470124605730 
0 
-0.04177093217511850 
-0.03577525288237900 
-0.05226024813288710 
-0.03837576982418480 
-0.01738390073449700 
-0.01209829340109790 
0 
-0.01263290158678130 
-0.009228931063287060 
0 
0 
0 
0 
0 
0 
0 
0 
0 
0 
0 
0 
0 
0 
0 
0 
0 
0.0002236883671967280 
0.0002563912564055650 
0 
-0.01699202192016420 
-0.02203158759000450 
-0.02059883936960400 
-0.006606302115352070 
0 
0 
-0.0001423722172698220 
0.001740670042263240 
-0.04918435659309370 
-0.03056637720161790 
0.01823079835384840 
0.04063540526283020 
0.04587629851810740 
0.05875722352306720 
0.08000012682752970 
0.1277468119056520 
0.2292087431626430 
0.02017079436992450 
-0.03846577947003530 
-0.07156173434860470 
-0.04755007747804160 
-0.02893840830370650 
-0.07939125017413360 
-0.06069396396974660 
-0.04964848543125680 
-0.09303154113575070 
-0.04288934465263460 
0 
0 
-0.01108568219295190 
0 
-0.04465147781316860 
-0.04590835314055730 
-0.06392289319791290 
-0.04717891740592540 
-0.02205495034558920 
-0.01494698556518910 
0 
-0.01503749492191090 
-0.005708131421987820 
0 
0 
0 
0 
0 
0 
0 
0 
0 
0 
0 
0 
0 
0 
0 
0 
0 
0.0001477300179080000 
0.0001693279153266700 
0 
-0.01885529471386390 
-0.01979395007888780 
-0.01978609531408320 
-0.002908387411146490 
0 
0 
0.003778322604842070 
0.008241216895966720 
-0.04685817608674400 
-0.01394828255210660 
0.01821562590289580 
0.04244323099103690 
0.04134684432376040 
0.05911615064280240 
0.07706613197455980 
0.1257046301463920 
0.2484829378337580 
0.01789076944473940 
-0.04388779127696920 
-0.07447539447042410 
-0.04628880854216430 
-0.02988803606048790 
-0.08417744234178760 
-0.06016824339941000 
-0.05102015175392700 
-0.09560849584575890 
-0.03214432919129530 
0 
0 
-0.01381578636253060 
0 
-0.04573846251571430 
-0.05610844521614320 
-0.07359852646231250 
-0.05468168410849900 
-0.02659066974172530 
-0.01743447709249520 
0 
-0.01668644260483160 
-0.002528699553004910 
0 
0 
0 
0 
0 
0 
0 
0 
0 
0 
0 
0 
0 
0 
0 
0 
0 
0 
0 
0 
-0.01954698923230650 
-0.01731432463906720 
-0.01839600244683630 
0 
0 
0 
0.007611770871213610 
0.01341351431400460 
-0.04475604169804730 
-0.001049896617621460 
0.02014488832180860 
0.04043871033809960 
0.03570015500200060 
0.05950749535057640 
0.07362959187775120 
0.1212256681933320 
0.2544503882886240 
0.01705789775257530 
-0.04710998008241520 
-0.07518739129063270 
-0.04536072860004830 
-0.02926476974387780 
-0.09042899193697800 
-0.05892114786887990 
-0.05181493851614300 
-0.09594085777714630 
-0.02386174633723720 
0 
0 
-0.01663080801589860 
0 
-0.04455329574199970 
-0.06604006339206400 
-0.08036179871611080 
-0.06023770694175810 
-0.03079299705155790 
-0.01936717621732760 
0 
-0.01729857416030300 
0 
0 
0 
0 
0 
0 
0 
0 
0 
0 
0 
0 
0 
0 
0 
0 
0 
0 
0 
-0.0002502030048085970 
0 
-0.01778515991692360 
-0.01077989873167710 
-0.01308295986397770 
0.002302126717503260 
0.003513154616762580 
0.003407217211583280 
0.01129318612411930 
0.01683538242659230 
-0.04301177631894430 
0.006990133389498440 
0.02450514348812950 
0.03399026738237400 
0.02909723378349210 
0.06004370592126810 
0.06983112059742160 
0.1132746827110540 
0.2440313345627370 
0.01804077715682370 
-0.04707069296885660 
-0.07110383744493800 
-0.04496577211345940 
-0.02588678668533570 
-0.09731272579609020 
-0.05677071867488620 
-0.05164649862330210 
-0.09337376103505560 
-0.01853506139506580 
-0.005716188705195380 
-0.004231748061173150 
-0.01947412286803430 
0 
-0.04081902965603740 
-0.07538079371734450 
-0.08354337852098740 
-0.06336431787886560 
-0.03448284379027290 
-0.02059716816451560 
-0.003272714162938830 
-0.01668644260483170 
0 
0 
0 
0 
0 
0 
0 
0 
0 
0 
0 
0 
0 
0 
0 
0 
0 
0 
0 
-0.0003788498939207090 
0 
-0.01451891802911130 
-0.003088034967101310 
-0.006372245701522210 
0.005280111043574110 
0.008043812098064600 
0.008151025665530930 
0.01471555825153060 
0.01875805067853310 
-0.04134906125855230 
0.01076500155006640 
0.03087797137891720 
0.02382803155398860 
0.02178268881642730 
0.06062458447602160 
0.06576016815960230 
0.1026251465615270 
0.2198310437971940 
0.02026996327890460 
-0.04523027392700380 
-0.06503443158601460 
-0.04503294085753720 
-0.02137329008081670 
-0.1056228545997150 
-0.05399878515211010 
-0.05070784310014690 
-0.08849219893793130 
-0.01607398827468600 
-0.01280668697122030 
-0.009663157742699870 
-0.02227850796360260 
0 
-0.03506528724091390 
-0.08386042930539490 
-0.08349800552524610 
-0.06423362874622830 
-0.03755701501918950 
-0.02115924612096090 
-0.007387624412104130 
-0.01503749492191090 
0 
0 
0 
0 
0 
0 
0 
0 
0 
0 
0 
0 
0 
0 
0 
0 
0 
0 
0 
-0.0004102518904756350 
0 
-0.01013565612385650 
0.005295988794765880 
0.001247254904821170 
0.008741255036601510 
0.01328310011267450 
0.01378023873644860 
0.01776132122784320 
0.01960110084327640 
-0.03938904243028370 
0.01130086226818460 
0.03861870749610800 
0.01102255862101350 
0.01402202947837970 
0.06109677159754830 
0.06149339358175400 
0.08998541943862020 
0.1853215917032260 
0.02294150117974360 
-0.04115701213641310 
-0.05760386411822180 
-0.04542350343576440 
-0.01625570920871800 
-0.1147530512633020 
-0.05088717835685360 
-0.04916968713188210 
-0.08193608262977440 
-0.01597158365289770 
-0.02081392994551360 
-0.01589449716102060 
-0.02497409067969040 
0 
-0.02802333418448450 
-0.09122181503572350 
-0.08083643714884610 
-0.06318144633356320 
-0.03993128918615990 
-0.02113388026408320 
-0.01194434244420790 
-0.01263290158678130 
0 
0 
0 
0 
0 
0 
0 
0 
0 
0 
0 
0 
0 
0 
0 
0 
0 
0 
0 
-0.0003687202176126680 
0 
-0.005022766756146480 
0.01390689469403030 
0.009286656819343550 
0.01249286075497450 
0.01892214632936080 
0.01984366979894160 
0.02031290902745280 
0.01978411469427190 
-0.03675286574755010 
0.009623869947954810 
0.04708268734163910 
-0.003355595648481030 
0.006080765146923150 
0.06130690786855910 
0.05710745588133750 
0.07606386103620490 
0.1439750539920590 
0.02525143592026620 
-0.03586065622704730 
-0.04943682544591930 
-0.04599872845162400 
-0.01106547334743680 
-0.1240969887023050 
-0.04771772934541820 
-0.04720274590371240 
-0.07434532325458570 
-0.01772090420650100 
-0.02928035277551440 
-0.02252603443257580 
-0.02749099839338440 
0 
-0.02042443617460400 
-0.09720779578783780 
-0.07616943081174700 
-0.06054357743058780 
-0.04152144473903630 
-0.02060154077130210 
-0.01654247995596220 
-0.009753833074683470 
0 
0 
0 
0 
0 
0 
0 
0 
0 
0 
0 
0 
0 
0 
0 
0 
0 
0 
0 
-0.0002785660984711090 
0 
0.0004323575190317910 
0.02227940487079760 
0.01725707490633600 
0.01634223025708190 
0.02465207841689180 
0.02589013222761570 
0.02225275562475500 
0.01972667400496930 
-0.03306167712376350 
0.006760178993478910 
0.05562524641744670 
-0.01823587548642440 
-0.001775594800368470 
0.06110163387176490 
0.05267901407581320 
0.06156883104815140 
0.09926350637492040 
0.02639581256139820 
-0.02999058996626720 
-0.04115800597346690 
-0.04661988450859870 
-0.006334011775370300 
-0.1330483398321720 
-0.04477226917410510 
-0.04497773460084260 
-0.06635983195636630 
-0.02081500661229620 
-0.03774839060866170 
-0.02915803767380600 
-0.02975935848177130 
0 
-0.01299985889912710 
-0.1015612164412450 
-0.07010774393390830 
-0.05665582882701960 
-0.04224326012567140 
-0.01964269782003730 
-0.02078164864407890 
-0.006681459860857790 
0 
0 
0 
0 
0 
0 
0 
0 
0 
0 
0 
0 
0 
0 
0 
0 
0 
0 
0 
-0.0001641007561902530 
0 
0.005842324146691220 
0.02994824146517380 
0.02466962403008970 
0.02009666560131280 
0.03016402404403610 
0.03146843939707630 
0.02346329499414550 
0.01984836054881820 
-0.02793662247233610 
0.003735943808858720 
0.06360172022546810 
-0.03254772512474630 
-0.009281540985921420 
0.06032759018987670 
0.04828472718264220 
0.04720868916832990 
0.05465902456303780 
0.02557067616406540 
-0.02419619712143420 
-0.03339209610522360 
-0.04714824021017150 
-0.002592753770915700 
-0.1410007775683570 
-0.04233262889921600 
-0.04266536840847740 
-0.05861951987911680 
-0.02474694754708350 
-0.04576047859239440 
-0.03539077500115170 
-0.03170929832193790 
0 
-0.006480868045909120 
-0.1040249218754550 
-0.06326213393528910 
-0.05185400731257570 
-0.04201251379391750 
-0.01833782158770860 
-0.02426146020527020 
-0.003696952420544750 
0 
0 
0 
0 
0 
0 
0 
0 
0 
0 
0 
0 
0 
0 
0 
0 
0 
0 
0 
-4.963541390939790e-05 
0 
0.01081974057184470 
0.03644812661726450 
0.03103541905489570 
0.02356346884605600 
0.03514911087956210 
0.03612740468192890 
0.02382696111002020 
0.02056875609926840 
-0.02099884770667970 
0.001577318798196230 
0.07036744426763970 
-0.04522058879537640 
-0.01617156403216180 
0.05883141740560570 
0.04400125421928440 
0.03369179509061130 
0.01363368426763860 
0.02197207178919360 
-0.01912686145990910 
-0.02676378624554950 
-0.04744506415982550 
-0.0003731286124700820 
-0.1473479748263100 
-0.04068063957705230 
-0.04043636251182150 
-0.05176429816683850 
-0.02900978368766320 
-0.05285905187415150 
-0.04082451453105320 
-0.03327094529097110 
0 
-0.001598729302804830 
-0.1043417569699720 
-0.05624335823584910 
-0.04647391967697370 
-0.04074498419162670 
-0.01676738225173560 
-0.02658152633624800 
-0.001081481228984860 
0 
0 
0 
0 
0 
0 
0 
0 
0 
0 
0 
0 
0 
0 
0 
0 
0 
0 
0.0003893613022595440 
0.0004462853152941760 
0 
0.01398034469241020 
0.04076704007634500 
0.03515078111434840 
0.02624498530583730 
0.03930765189716250 
0.03934446395414590 
0.02258256901096440 
0.02158148967271010 
-0.01188400542602150 
0.001282400032784880 
0.07529723385214470 
-0.05521522736324490 
-0.02218850319356450 
0.05556931190757710 
0.03990302991129250 
0.02170645716151290 
-0.02043718275259910 
0.01482384744890090 
-0.01541371810713780 
-0.02005800872732930 
-0.04737573638971170 
0.0003446596056391180 
-0.1508814614857320 
-0.03938525409907100 
-0.03759541391153720 
-0.04600105085769420 
-0.03266828039958490 
-0.05860052226352480 
-0.04507173711536630 
-0.03437725217283900 
0 
0 
-0.1022669590110410 
-0.04964738633588410 
-0.04084458383496900 
-0.03836143525898440 
-0.01501057591039050 
-0.02735468995639020 
0 
-0.0002706939757039800 
0 
0 
0 
0 
0 
0 
0 
0 
0 
0 
0 
0 
0 
0 
0 
0 
0 
0.001388781787782890 
0.001591819511694440 
0 
0.01580862687781670 
0.04313709357901460 
0.03733220868515400 
0.02827149108010090 
0.04255122208378590 
0.04105206226970680 
0.02013273273514010 
0.02344697963220980 
-0.0005614020033417280 
0.003203941929335560 
0.07821393983081340 
-0.06221268425230340 
-0.02726721626172070 
0.05107114055634500 
0.03601333027032990 
0.01147980273844320 
-0.03152382939637360 
0.003989319032726290 
-0.01326818342451070 
-0.01263801656141760 
-0.04690019979135110 
-0.0003817759511998270 
-0.1512438823119100 
-0.03807993318410620 
-0.03368442034394230 
-0.04129174928184050 
-0.03524817382460800 
-0.06286276479962160 
-0.04802581652049680 
-0.03502615610978520 
0 
0 
-0.09784079063977530 
-0.04373006558343290 
-0.03513887357719210 
-0.03489729725983410 
-0.01311729484155070 
-0.02649811210639620 
0 
-0.0006480653802568230 
0 
0 
0 
0 
0 
0 
0 
0 
0 
0 
0 
0 
0 
0 
0 
0 
0 
0.002646580280335620 
0.003033506175386690 
0 
0.01754085915572980 
0.04441204404845600 
0.03860734906689870 
0.03005696170664390 
0.04500265843963670 
0.04154320829451930 
0.01732462953095130 
0.02680127590557080 
0.01266600241462690 
0.007049357249974540 
0.07938844859912680 
-0.06661428544552430 
-0.03153457956533830 
0.04644702235394480 
0.03230427259417080 
0.002777778189700310 
-0.04046847851682240 
-0.01002872969236870 
-0.01248195500936330 
-0.005928523345756860 
-0.04607296011563470 
-0.002765680504858900 
-0.1493348026254270 
-0.03724330691526940 
-0.02943521988719960 
-0.03778330651833960 
-0.03719243950614300 
-0.06584511775106510 
-0.04986101942740050 
-0.03528057860232880 
0 
-0.001232525911054460 
-0.09138853985216610 
-0.03840712117427620 
-0.02937351857014950 
-0.03050266678167750 
-0.01110812750269920 
-0.02423327194828580 
0 
-0.0008334174128817150 
0 
0 
0 
0 
0 
0 
0 
0 
0 
0 
0 
0 
0 
0 
0 
0 
0 
0.004119693778746150 
0.004721986561822270 
0 
0.01919304984406500 
0.04477440865687420 
0.03912725012442600 
0.03164156971008630 
0.04679398326984380 
0.04102064407704140 
0.01421797055312550 
0.03139624410714960 
0.02748074099533630 
0.01249800042402050 
0.07911112635881030 
-0.06885267355887970 
-0.03512581806517380 
0.04171794844223810 
0.02874574988868130 
-0.004653721463770350 
-0.05035767071796620 
-0.02669971200823070 
-0.01282848181711570 
0.0001888874113614530 
-0.04495263454212210 
-0.006530809222534760 
-0.1455328058450610 
-0.03679725951820590 
-0.02490418035616730 
-0.03527557943179940 
-0.03860701540143770 
-0.06776089604863020 
-0.05076382525244890 
-0.03520626655787010 
0 
-0.005233849599243030 
-0.08324788705093710 
-0.03357949038453170 
-0.02355845960538530 
-0.02533262590434850 
-0.009002388272171120 
-0.02079487986674510 
0 
-0.0008587533022333210 
0 
0 
0 
0 
0 
0 
0 
0 
0 
0 
0 
0 
0 
0 
0 
0 
0 
0.005765059281842940 
0.006607901926452500 
0 
0.02078120726073790 
0.04440670457647360 
0.03904295972257930 
0.03306548761504810 
0.04805721887953600 
0.03968711166573110 
0.01087246695639010 
0.03698374985130260 
0.04356534690623820 
0.01922922588079200 
0.07767233931159040 
-0.06936049120834320 
-0.03817615672198350 
0.03690490996308600 
0.02530765515972750 
-0.01106880120102320 
-0.06100249738366570 
-0.04549304119670630 
-0.01408121280318790 
0.005832632201645820 
-0.04359784025037230 
-0.01140091727142410 
-0.1402164753895880 
-0.03666367521856100 
-0.02014766956570310 
-0.03356842488682780 
-0.03959783946774020 
-0.06882341462309290 
-0.05092071341201260 
-0.03486896688380950 
0 
-0.01069317362977620 
-0.07375651263881270 
-0.02914811049031690 
-0.01770363747444400 
-0.01954225670768190 
-0.006819391528301880 
-0.01641764624646000 
0 
-0.0007560762769662930 
0 
0 
0 
0 
0 
0 
0 
0 
0 
0 
0 
0 
0 
0 
0 
0 
0 
0.007539613788454420 
0.008641893524728730 
0 
0.02232133972366420 
0.04349144897945890 
0.03850552572620220 
0.03436888794614950 
0.04892438757384190 
0.03774535310904650 
0.007347829895472430 
0.04331565875238600 
0.06060235331478450 
0.02692238804960760 
0.07536245365919270 
-0.06857038100988800 
-0.04082082049652390 
0.03202889805835000 
0.02195988141317550 
-0.01672156600111270 
-0.07221404989778220 
-0.06587813053964230 
-0.01601359692299990 
0.01112112751680470 
-0.04206719441994440 
-0.01709975981872350 
-0.1337643946777860 
-0.03676443824197990 
-0.01522205533066510 
-0.03246169974803280 
-0.04027084966229860 
-0.06924598840522890 
-0.05051816332246300 
-0.03433442648754750 
0 
-0.01724599791706790 
-0.06325209701851640 
-0.02501391876774930 
-0.01181899296886990 
-0.01328664127151200 
-0.004578451649426760 
-0.01133628147211680 
0 
-0.0005573895657352880 
0 
0 
0 
0 
0 
0 
0 
0 
0 
0 
0 
0 
0 
0 
0 
0 
0 
0.009400294297409020 
0.01077460261210230 
0 
0.02382945555075920 
0.04221115903803500 
0.03766599600013820 
0.03559194322801090 
0.04952751165789030 
0.03539811045544580 
0.003703770525099960 
0.05014383642475690 
0.07827429338842710 
0.03525684135978610 
0.07247183560334330 
-0.06691498557948670 
-0.04319503434955170 
0.02711090386989120 
0.01867232165489130 
-0.02186612084309330 
-0.08380341964417650 
-0.08732439331888510 
-0.01839908313197190 
0.01617278984854660 
-0.04041931423039820 
-0.02335109203162950 
-0.1265551471284300 
-0.03702143281410840 
-0.01018370546591130 
-0.03175526088002210 
-0.04073198394236090 
-0.06924193232581360 
-0.04974265440017110 
-0.03366839227648470 
0 
-0.02452782237553200 
-0.05207232059277210 
-0.02107785249294670 
-0.005914466880207140 
-0.006720861675673190 
-0.002298883013881030 
-0.005785495928401480 
0 
-0.0002946963971949700 
0 
0 
0 
0 
0 
0 
