solver_type L2R_L2LOSS_SVC_DUAL
nr_class 2
label 0 1
nr_feature 2999
bias 1.000000000000000
w
0 
0 
0 
0 
0 
0 
0 
0 
0 
0 
0 
0 
0 
0 
0 
0 
0 
0.003460690617123664 
0.01379517200808314 
0.007071900034811957 
0.03963761108368415 
0.03624711046868045 
0.04153148854360862 
0.03128256515109618 
0.09106052358315368 
0.1531010076896640 
-0.1998029758333252 
-0.5063457544120593 
-0.2075903769750303 
0.04785400141281870 
0 
-0.1785113095932756 
-0.05459387979401416 
-0.1196192109706619 
-0.1041377286020779 
0.1607162286661221 
0.06756793334536987 
-7.271380252308112e-05 
0.01494717214355180 
0.02324872269545529 
0.01344859532564086 
0.01323041159860137 
-0.0008019914251102613 
0 
0 
0 
0 
0 
0 
0 
0 
0 
0 
0 
0 
0 
0 
0 
0.004920682044736792 
-0.003621652889128843 
0 
0 
0 
0 
0 
0 
0 
0 
-1.423015351387225e-19 
0 
9.153171719151775e-06 
0.0006217779264982746 
-1.860200058731053e-06 
0.0006400901127043058 
0.0007290425160516943 
0.0002975776489245847 
0.0002349631373445376 
0.003582380855461516 
0.008427821341056524 
-0.0004202099407303008 
0.03213662293113032 
0.02564054389839420 
0.01203398925382630 
0.01803266118828535 
0.006110747456283708 
0.08080252307741981 
-0.1133846959486930 
-0.3134534649844362 
-0.09870214102336416 
0.08900281586578035 
0 
-0.02415185276087880 
-0.001159250526999352 
-0.3320070181447949 
-0.1249900214491884 
0.1742155598186678 
0.1318552463888171 
-0.0006820614276733123 
0.004588301355387302 
0.01136242370902449 
0.009495689625352183 
0.006890923646768575 
-0.002547124860774348 
0 
0 
0 
-6.718301749267048e-06 
0 
0 
0 
0 
0 
0 
0 
0 
0 
0 
0 
0.002736094706944662 
-0.002183988583904718 
0 
0 
0 
0 
0 
0 
0 
0 
-1.897353801849633e-19 
0 
1.204107081770767e-05 
0.0003478995541121295 
-3.152722419841784e-06 
0.0003671531214786231 
0.001077320467808198 
0.0001356451295161986 
0.0002242043077670409 
0.002058450907391690 
0.002824225304362547 
-0.006488906867700390 
0.02537390528417536 
0.01999678751835684 
0.005079061333741394 
0.01255910283087662 
-0.03582256899625001 
0.02882025887570937 
-0.04928117233761634 
-0.1328518764438685 
-0.01641238616432249 
0.1235343157202338 
0 
0.08053807486407633 
0.02256535964882988 
-0.5030557514346349 
-0.1447361676316606 
0.1448197017413808 
0.1663887270571492 
-0.005144334288068880 
-0.004848446342186941 
0.001318560621194039 
0.005309493550922162 
0.001824783548224700 
-0.003788062304562785 
0 
0 
0 
-1.175702806121733e-05 
0 
0 
0 
0 
0 
0 
0 
0 
0 
0 
0 
0.0009206009640419176 
-0.0009371164109264249 
0 
0 
0 
0 
0 
0 
0 
0 
8.131516293641283e-20 
0 
0 
1.058791184067875e-21 
-3.309889385711873e-06 
6.352747104407253e-22 
0.0007093454305127476 
0.001912721026054082 
0.003750301649879101 
0.0007856495454161832 
0.005855379549483103 
0.001699149459715720 
0.03129439698907820 
0.03764448487009064 
0.03240966130425519 
0.02329637651713020 
-0.005704914748975330 
0.02924219995270895 
-0.002151282002091278 
0.02109529473901683 
0.01776727856420167 
0.1407918639205101 
0 
0.08672701640143092 
-0.01144393192397094 
-0.5907583084102372 
-0.1603345946975769 
0.03363928238999533 
0.1439298309917132 
-0.01558035806443376 
-0.01102596529543388 
-0.003946815963751188 
0.0009033640718738262 
-4.419907922454304e-06 
-0.003895595539585670 
0 
0 
0 
-1.343660349853410e-05 
0 
0 
0 
0 
0 
0 
0 
0 
0 
0 
0 
0 
-7.182850243979468e-05 
0 
0 
0 
0 
0 
0 
0 
0 
0 
0 
0 
0 
-1.764023258720989e-06 
5.850484373990134e-06 
0.0003994078809286760 
0.009305966868764762 
0.01749876571064533 
0.001797438154346689 
0.01926604420767676 
0.03483839954868220 
0.05308027561678370 
0.08067232287037107 
0.1102600098720663 
0.06033311617645026 
0.07032720163683070 
0.04158686326767154 
-0.01763656615143964 
0.1023489577345737 
0.02041753331044400 
0.1212886669967911 
0 
-0.004010140183635685 
-0.08514105248945322 
-0.5374155157275438 
-0.1682326739886815 
-0.1256168397442072 
0.06500628451334092 
-0.03034418559939934 
-0.01876754037392470 
-0.007546362835647374 
-0.002702947796508223 
-1.681949845116394e-05 
-0.002868364188724794 
0 
0 
0 
-1.007745262390058e-05 
0 
0 
0 
0 
0 
0 
0 
0 
0 
0 
0 
0 
0 
0 
0 
0 
0 
0 
0 
0 
0 
5.421010862427522e-20 
0 
0 
0.003149593698327960 
-1.184721381219510e-07 
0.003180515672063010 
3.535646075922588e-05 
0.01513878589448961 
0.02688305062512480 
0.007103047633846833 
0.02720347286768165 
0.06892252354941171 
0.06746288562214488 
0.1177495537411287 
0.1714445232656550 
0.09362568934768381 
0.1148456149382152 
0.009069608718650589 
-0.06223868556373569 
0.08987457247810042 
0.01181227399128421 
0.04674781641476453 
0 
-0.1181682321281763 
-0.1422474707022948 
-0.3663298185722352 
-0.1683362173581922 
-0.2300030862772916 
-0.03367723612403350 
-0.04285694836995008 
-0.02607019487398118 
-0.008568441599657441 
-0.004031052243358346 
0 
-0.001504912201754330 
0 
0 
0 
0 
0 
0 
0 
0 
0 
0 
0 
0 
0 
0 
0 
0 
0 
0 
0 
0 
0 
-5.619820553348145e-06 
0 
0 
-5.140634962939091e-05 
-9.486769009248164e-20 
0 
0 
0.01171570569349303 
-2.554259297909126e-07 
0.01183032913173755 
0.0003401660275824607 
0.01802208018056551 
0.02683715580357647 
0.02616483764726132 
0.03625049714360191 
0.09593142300724387 
0.08375156995036702 
0.1324363298320600 
0.1916435302481100 
0.1073426658822019 
0.06453644341044390 
-0.05086925578196276 
-0.08694216291824836 
0.005242932139043587 
-0.01980173499211315 
-0.04073086891791794 
0 
-0.1640246384671091 
-0.1272319642837533 
-0.1488256944678568 
-0.1446405595476342 
-0.1750608899551259 
-0.08287327714235986 
-0.04779480162469491 
-0.02637704949145549 
-0.005772312758103179 
-0.001307749908540189 
0.0002507121860982029 
-0.0003284512059805754 
0 
0 
0 
0 
0 
0 
0 
0 
0 
0 
0 
0 
0 
0 
0 
7.260855343843913e-05 
0 
0 
0 
-6.667363711788589e-06 
0 
-1.123964110669629e-05 
0 
0 
-0.0001028126992587818 
-1.355252715606881e-20 
0 
6.719260148377330e-05 
0.01497654896182610 
-2.900197941225192e-07 
0.01522782435069309 
0.004526708456572976 
0.01552188021963867 
0.01862675779222920 
0.04206100568022596 
0.03698918035085679 
0.09971684432318609 
0.1140784745104635 
0.1289044275993210 
0.1894818557029994 
0.1239562115512416 
-0.04241432244863361 
-0.02944667498223823 
-0.08494483108375564 
-0.07633313390034081 
-0.09118994908202980 
-0.1113744811026343 
0 
-0.1803152151795703 
-0.1314621743699859 
-0.06699839633107933 
-0.1280001212066171 
-0.1388510843344259 
-0.1241910012244951 
-0.05194972608497755 
-0.02280359090462386 
-0.003822551043218290 
4.980196053718762e-05 
0.0001260843034889951 
-0.0002025467784285487 
0 
0 
0 
0 
0 
0 
0 
0 
0 
0 
0 
0 
0 
0 
0 
9.459322772455678e-05 
-6.771526816683857e-05 
0 
0 
-8.334204639735738e-06 
0 
-1.404955138337036e-05 
0 
0 
-0.0001285158740734774 
-1.355252715606881e-19 
0 
0.0001385090249853996 
0.008717044748957146 
-1.198938037794072e-07 
0.008942130952272942 
0.01025489584438181 
0.007138251348648142 
0.01653131727889216 
0.04541538093032253 
0.02898368033105451 
0.08533862871599790 
0.1481946281290372 
0.1167534968967508 
0.1972088510711565 
0.1412576445779251 
-0.1272017440342823 
0.1224961781659351 
-0.09595677229126909 
-0.1206983656830273 
-0.1625333537913914 
-0.09116796717963534 
0 
-0.1829837208433904 
-0.1533437016072550 
-0.06594000786454964 
-0.1180574326177478 
-0.1152825751401173 
-0.1553994183399150 
-0.05355546069475324 
-0.01594908893910273 
-0.003112935827166040 
0.0002195389646271827 
2.032797511185755e-06 
-0.0002172397342888910 
0 
0 
0 
0 
0 
0 
0 
0 
0 
0 
-7.508845305452101e-06 
0 
0 
0 
0 
2.299084575760969e-05 
-6.547914704107649e-05 
0 
0 
-6.667363711788585e-06 
0 
-1.123964110669630e-05 
0 
0 
-0.0001028126992587818 
1.270549420881451e-21 
0 
7.982104160966210e-05 
0.0005206190420593490 
2.202285662861181e-20 
0.0005982766990310500 
0.01619440189333942 
0.001108401966639811 
0.02578321178698700 
0.04642718167312170 
0.02521079231934495 
0.07432722785881898 
0.1574076073423723 
0.09790323947799166 
0.1991806357724562 
0.1443916293237391 
-0.1413637854632907 
0.2645440716773873 
-0.1569091676505806 
-0.1490767380144534 
-0.1963890905193348 
-0.04633260984054257 
0 
-0.1928705266654931 
-0.1773950817487663 
-0.06726465268350897 
-0.1191337201091850 
-0.09074676964577448 
-0.1740990781014513 
-0.05187702805650551 
-0.009046201488130310 
-0.003654857805150980 
0.0002063001033118751 
-7.261311496590770e-06 
-2.753075447275156e-05 
0 
0 
0 
0 
0 
0 
0 
0 
0 
0 
-9.135333201239250e-06 
0 
0 
0 
0 
0 
-1.692140687094871e-05 
0 
0 
0 
-2.183756817139993e-22 
0 
0 
-5.246579234961340e-06 
0 
0 
0 
0 
2.710505431213761e-19 
-1.535416762909972e-05 
8.724406522616898e-05 
0.02450871936885355 
0.002428334052367418 
0.03180787887807714 
0.05416547582592293 
0.03281461934981494 
0.06575018297699033 
0.1162221640031828 
0.07447221707377885 
0.1705162213237361 
0.1250877265054915 
-0.09335266393271646 
0.2187899212397760 
-0.2657386009612903 
-0.1943427154406896 
-0.1896360539491919 
0.04634154701760706 
0 
-0.1123724401302241 
-0.1893624318382081 
-0.08331674688199221 
-0.09952999284999406 
0.1173351383831169 
-0.1778238563764311 
-0.04551825734922412 
-0.005855072712452388 
-0.007483427159625510 
-2.798064730443721e-05 
0 
-8.855771925748769e-05 
0 
0 
0 
0 
0 
0 
0 
0 
0 
0 
0 
0 
0 
0 
0 
0 
-7.794929949153670e-06 
0 
0 
0 
4.764560328305439e-22 
0 
0 
-1.107953656858565e-05 
7.528333329008686e-06 
0 
0 
0 
-1.823995761729673e-05 
-3.242437674307892e-05 
0.0001009768263681753 
0.03120884341813669 
0.006290592072141280 
0.03125869107214195 
0.05524339646640394 
0.03363494949367068 
0.06463897285646132 
0.05188560245330464 
0.06346410313383985 
0.1451984801491590 
0.1169333471842076 
0.009996517809130178 
0.009575799973755710 
-0.3966070924607881 
-0.2268845275513277 
-0.1736369296661099 
0.09837909715878980 
0 
-0.007652388178150899 
-0.1854328926407162 
-0.1039439673304027 
-0.07143499003414125 
0.3362610572475455 
-0.1758150215008626 
-0.03845721326340879 
-0.007170141768723053 
-0.01057345696686962 
-0.0003625820298193164 
-8.341675943401863e-05 
-9.727534727678657e-05 
0 
0 
0 
-6.046471574340333e-05 
0 
0 
0 
0 
0 
0 
0 
0 
0 
0 
0 
0 
-9.021900641462658e-06 
0 
0 
0 
-5.293955920339377e-23 
0 
0 
-1.340326108558122e-05 
2.131371789397486e-05 
0 
0 
0 
0.0004936470922616481 
-3.922478023647247e-05 
0.001440696814147211 
0.03279311117137494 
0.009393815076879320 
0.03159243424301215 
0.05451086557480962 
0.03924194763787035 
0.06781812833342236 
0.01077093762485904 
0.07796713117957481 
0.1741184054049432 
0.1378396589491887 
0.1194270679392944 
-0.1703761438792837 
-0.4809007078962012 
-0.1937235629902118 
-0.1272652675732010 
0.05360489964206570 
0 
0.02973579175312710 
-0.1708157284094821 
-0.1015852601323418 
-0.05593161560362615 
0.3100888089082292 
-0.1586830864666303 
-0.02915881325969843 
-0.01021318749704934 
-0.01167419854481542 
-0.0003288533556118018 
-0.0002006402020182190 
-3.018011155926540e-05 
0 
0 
0 
-0.0001226090069241235 
0 
0 
0 
0 
0 
0 
0 
0 
0 
0 
2.040464396718984e-05 
7.320455210439351e-06 
0 
0 
0 
0 
-3.308722450212111e-23 
0 
0 
-8.532176611699771e-06 
0 
0 
0 
0.0006127865972238518 
0.0003115937532287994 
-2.586922666024914e-05 
0.002859083133510028 
0.02824518041175242 
0.01776978677902443 
0.03582684937987249 
0.05781372694560918 
0.05534206934747097 
0.06887841095297127 
-0.0002678161965973294 
0.1058680796290033 
0.2373445780993577 
0.1643964468131438 
0.1421083632627940 
-0.2367458777786660 
-0.4485758368885304 
-0.1152627635921307 
-0.06229568215932136 
-0.04330437995968596 
0 
-0.002254507841517446 
-0.1538400941018802 
-0.08930244018440758 
-0.06518382375182900 
0.08698268854118642 
-0.1339661043870771 
-0.02036342641085069 
-0.01393451533858272 
-0.01119736914557133 
-0.0001252249215508536 
-0.0002569792513789930 
0 
0 
0 
0 
-0.0001545209402331421 
0 
0 
0 
0 
0 
0 
0 
0 
0 
0 
0 
0 
-3.836844599630010e-06 
0 
0 
0 
0 
-1.588186776101813e-21 
0 
-8.391961167123463e-06 
0 
-4.235164736271502e-22 
0 
0.002208532261196202 
-1.558540622947913e-19 
-2.932043251952186e-06 
0.004370105997519253 
0.02057318256714538 
0.02821695939398049 
0.03287626935312080 
0.05550665557711972 
0.06174522497360012 
0.07066188829909467 
0.01793120499466919 
0.1289239432438812 
0.2808884764241874 
0.1801890350915095 
0.03921954243199965 
-0.2233478350693238 
-0.3078833105455589 
-0.09939966922396566 
-0.009604265930534290 
-0.1041802613536205 
0 
-0.02597458664254213 
-0.1350388611583963 
-0.08661334174713620 
-0.08602103597514453 
-0.03306069612260353 
-0.1046461771061613 
-0.01358768364234205 
-0.01619980562382789 
-0.009458938907817536 
1.069664638161911e-06 
-0.0002062539525603157 
-0.0004821647348908490 
0 
0 
0 
-0.0001242885823614400 
0 
0 
0 
-6.582764724729143e-06 
0 
0 
-5.143044729761693e-05 
0 
0 
0 
0 
0 
-5.234910247295742e-06 
0 
0 
-9.264422860593910e-23 
0 
3.494010907423989e-21 
0 
-7.414156318308837e-06 
0 
8.470329472543003e-21 
0 
0.003544266947987127 
-5.421010862427522e-20 
-4.063594337582484e-06 
0.005444137926516027 
0.01513335253878055 
0.03987840358055827 
0.01966576449260615 
0.04707202404189417 
0.05220933050218871 
0.07149868428215353 
0.03782169672817651 
0.1314402481566266 
0.2744702768774702 
0.1807119420646215 
-0.1020017989866965 
-0.1814072375075099 
-0.1563571713863780 
-0.1763579403247968 
0.001708340334278504 
-0.08703886984808289 
0 
-0.02352778208261207 
-0.09834731055063103 
-0.08258086521877116 
-0.09743383821605264 
-0.02167687452055638 
-0.07371028806916300 
-0.008383955245761836 
-0.01505055955158705 
-0.007792582476794355 
-1.953302539365032e-05 
0 
-0.002217414252154901 
-8.654532832262718e-06 
0 
-3.882790667994838e-06 
0 
0 
0 
0 
-9.123223350554732e-06 
0 
0 
-0.0001229509130708659 
0 
0 
0 
0 
0 
-2.476573906409614e-05 
0 
0 
-4.467133686898372e-05 
0 
-7.530559541486536e-05 
0 
0 
-0.0006738370669452661 
-1.694065894508601e-20 
0 
0.003731597317052766 
-5.421010862427522e-20 
-2.840867094453829e-06 
0.006655803621985082 
0.01513349611402165 
0.03821646122120805 
0.008905028766170211 
0.03586231031300948 
0.03241726434712377 
0.05800941891293911 
0.04028228732328637 
0.1159436475687941 
0.2304173682951881 
0.1716507927053698 
-0.1469346530752725 
-0.1097639457753051 
-0.09205392059812409 
-0.2503599555672762 
-0.004285434498585112 
-0.04411256146707130 
0 
0.01264201877095897 
-0.05056617893621713 
-0.06948235953234830 
-0.09269831557784278 
-0.01260675223862410 
-0.04712295151261015 
-0.005514278382136686 
-0.01140127168869842 
-0.005378439807925422 
-0.0001463470436525625 
-7.703397432398433e-05 
-0.004158457887202316 
-1.368347771762507e-05 
0 
-6.138988737745551e-06 
0 
0 
0 
0 
-6.378064063195943e-06 
0 
0 
-0.0001059467214330917 
0 
0 
0 
4.088794426364659e-05 
0 
-0.0001172703650947512 
0 
0 
-9.067614648032496e-05 
0 
-0.0001528591190510698 
0 
0 
-0.001352913431108653 
-5.082197683525802e-21 
0 
0.002602150138668894 
-3.896154114436845e-05 
-1.761828530288945e-19 
0.007651845139113094 
0.01754921009972911 
0.02275228523804282 
0.007740228511383344 
0.02484847216661171 
0.01318083622876623 
0.04132214345825705 
0.03185203795103035 
0.08882743923113716 
0.1675516219082497 
0.1430075039574290 
-0.09803576779262113 
-0.04380303301732475 
-0.1169867166544283 
-0.2096970972809078 
0.01531667503520095 
-0.01577815880090700 
0 
0.04566069358138009 
-0.004777830174984524 
-0.04163942897850295 
-0.06083523337519447 
0.006475187421070258 
-0.02158637612769928 
-0.003170969103959484 
-0.005682875397731125 
-0.002288324205440285 
-0.0005423220981038806 
-0.0001563674702695798 
-0.005785193206596664 
-1.316616092454173e-05 
0 
-5.906898472966253e-06 
0 
0 
0 
0 
0 
0 
0 
0 
0 
0 
0 
0.0002555658575080556 
0 
-0.0001161208565188126 
0 
0 
-0.0001143452876571744 
0 
-0.0001927598449798415 
0 
0 
-0.002300296352639565 
-2.329340604949326e-21 
0 
0.0009866316009861482 
-0.0003338832229746398 
0 
0.007582061330329814 
0.01876618524677481 
0.009350281492369389 
0.007502481765004290 
0.01801615811547131 
0.002337100547969825 
0.01890959983000654 
0.02103357469897816 
0.05746761866643139 
0.1097812348685057 
0.1060519572053733 
-0.02418740564567285 
-0.009178591629281765 
-0.1319080860472487 
-0.07560072103024068 
0.04522698263427942 
0.005826838504602938 
0 
0.05965631021752511 
0.02598151490144928 
-0.01167406975131901 
-0.02122888538520092 
0.0004167973009791190 
-0.002825647436248239 
-0.002381743292076778 
-0.001250000085918657 
-7.092821575956655e-05 
-0.002530511605131269 
-0.0001973197282748306 
-0.006578659140444868 
-8.526278132395427e-06 
0 
-2.646977960169689e-22 
0 
0 
0 
0 
0 
0 
0 
0 
0 
0 
0 
0.0002018894161842806 
0 
0 
0 
0 
-9.200961922268232e-05 
3.705769144237564e-22 
-0.0001551070472724082 
0 
-8.301703906181312e-05 
-0.003191716264134936 
0 
0 
0 
-0.0004065620997022087 
-0.0001960272868049842 
0.005736086350188702 
0.01693621234905954 
0.007637886969372152 
0.006048785530377056 
0.01755285312615679 
0.001763576514588024 
-0.004955010920120507 
0.01426967544062222 
0.03404104681582087 
0.08849662886112489 
0.08523971524985763 
0.005867627227980408 
0.006427598873694567 
-0.07740119024205301 
0.07008834200615605 
0.04565780844055016 
0.03344402461437985 
0 
0.07335449963855893 
0.03453176098251242 
0.0003842893125412068 
0.002552795173613179 
0.002122519107632686 
-0.0006106014249963338 
-0.004235040637302421 
0.002878657345316731 
-0.0002025325398720147 
-0.004256801743586022 
-0.0001466447818247239 
-0.006166789385896217 
2.264588795462027e-05 
0 
-1.058791184067875e-21 
0 
0 
0 
0 
0 
0 
0 
0 
0 
0 
0 
0 
0 
0 
0 
0 
0 
-3.917527381051139e-21 
0 
0 
-0.0002496854817847871 
-0.003462697293679184 
0 
0 
0 
3.049318610115481e-20 
-0.0005015219649663619 
0.003072109297207375 
0.01032983617124553 
0.005930853763840250 
0.002613205672895022 
0.01774771901525161 
0.001096959775716612 
-0.02241767797407735 
0.01583961993053322 
0.01606210975775315 
0.09252122939145231 
0.07671616473664017 
0.01621857241487532 
0.01530428114801119 
0.02019978507128471 
0.1707715692565800 
0.009194269023769727 
0.06247479341425261 
0 
0.08686142399229940 
0.03127810242963065 
-0.001137538816023453 
0.01062820568770838 
0.009350528244154030 
-0.003191842935474126 
-0.006689332406504079 
0.008565891194368121 
-0.0002038425920947581 
-0.004718486569303000 
3.896637734989083e-06 
-0.004784908155304903 
5.189777768525044e-05 
0 
-1.238434595877523e-05 
0 
0 
0 
0 
0 
0 
0 
-7.746524347647736e-06 
0 
0 
0 
0 
0 
0 
0 
0 
0 
-5.505714157152952e-21 
0 
0 
-0.0003081038168612272 
-0.003191610815212613 
0 
0 
0 
1.355252715606881e-20 
-0.0008063568177581197 
0.001006784224882256 
0.003957638787080793 
0.003956833135170317 
0.0004135427218774966 
0.01575315408955842 
0.0002007468104164712 
-0.02697018947750828 
0.02566190560176832 
0.01494433373476232 
0.08428550223755635 
0.06216113852039124 
0.04342496396188338 
0.01874218021703403 
0.09741051530226687 
0.2093709762462944 
-0.04717245015481059 
0.06529065412863119 
0 
0.07186126663983253 
0.02269904137020479 
-0.004513807961067578 
0.006188771269989012 
0.01672489316487594 
-0.009587173952905799 
-0.009609911228627909 
0.009302948842075002 
-8.554415931055138e-05 
-0.004234270702080606 
-0.001430517554796631 
-0.002923072074875101 
3.515819278936609e-05 
0 
-1.179231333264840e-05 
-0.0008735658468977571 
0 
0 
0 
-8.544656719881090e-06 
0 
0 
-0.001210893669914992 
0 
0 
0 
0 
0 
-0.0005113389760713103 
0 
0 
0 
2.435219723356114e-21 
0 
0 
-0.0001304183007161719 
0.0009051948233896502 
0 
0 
3.087272034749318e-05 
0 
-0.001051389421925509 
1.310383588967893e-05 
0.0004486652575890708 
0.001479507572353231 
5.362801265360159e-05 
0.01224878563271856 
0.009286587112365060 
-0.01929387255277332 
0.04186633766036878 
0.02376681961070720 
0.05633520024879209 
0.04081869731582965 
0.06700444239561018 
0.01638087800315689 
0.1276156456610460 
0.1956751935369234 
-0.09050439108733829 
0.03679794692201512 
0 
0.04398308378854914 
0.01865219978276723 
0.003669505462580084 
-0.001788725447746347 
0.02047231048701117 
-0.008872586171752830 
-0.01230181035060386 
0.004039336234948564 
0.005822297145782539 
0.001319437256061120 
-0.003217640080928535 
-0.001073896148383656 
-1.811221332921637e-05 
1.175741848015951e-05 
2.117582368135751e-22 
-0.001974994094791484 
0 
0 
-1.131165713143409e-05 
-7.137563097718146e-05 
0 
0 
-0.002611740967566548 
0 
0 
0 
0.003270483132620270 
0 
-0.002150834845485736 
0 
0 
-5.823351512373315e-22 
0 
-6.564505341220828e-21 
0 
0 
0.005580101191655441 
0 
0 
0.0001405345970023357 
0 
-0.001133595536716679 
-1.609362599783171e-20 
0.0003185405536986611 
0.0002722569697222621 
0.0001178853558237218 
0.007657164302801842 
0.01598631453701236 
-0.005597827498850313 
0.04176430970941284 
0.02778932529654934 
0.02023322305480054 
0.02003109884302800 
0.05120643001047084 
-0.0007462340404122374 
0.1212399413081479 
0.1677902787398946 
-0.09953803885121802 
0.03005592073542401 
0 
0.03573555615476207 
-0.004865237961740712 
0.01392178689585314 
-0.009662649634325920 
0.01984057037927021 
-0.005173880243474056 
-0.01454569503129352 
-0.002344219821807064 
0.01184544235138778 
0.006481381772388698 
-0.005013293053252441 
-4.901086859956033e-05 
-0.0001321694823418040 
1.498322760211430e-05 
-8.403195351622191e-06 
-0.003061866022228466 
0 
2.911675756186657e-22 
-9.377316966661824e-06 
-0.0001211993889785580 
0 
0 
-0.003526772182603057 
0 
0 
0 
0.006892671237483946 
0 
-0.003504481863551432 
0 
0 
-4.658681209898652e-21 
0 
1.016439536705160e-20 
0 
0 
0.007290990284050005 
8.809142651444724e-20 
0 
9.050882347973490e-05 
-0.002390010877378775 
-0.001014656703073159 
5.515766826109693e-05 
0.0009069570681764935 
-0.0001877845260027646 
0.0001912881499453094 
0.003815004551615903 
0.01260775159242891 
0.002686246674075645 
0.02310678455330151 
0.01820312405480409 
-0.002896300459985778 
0.004240493621538397 
0.007855105864369860 
-0.02978485337864810 
0.09038878555538432 
0.1546840734642738 
-0.07243301058961260 
0.09458918877872036 
0 
0.07794200521948554 
-0.06741752764051698 
0.001039536625499682 
-0.03060173451097431 
0.007754318979853307 
-0.001801331603887211 
-0.01480340106683769 
-0.004841081232229515 
0.01221669825066560 
0.006033531978713542 
-0.006476118276201225 
-0.0002675721492734226 
-6.850255388379102e-05 
-3.602393953745507e-06 
-7.483307138978617e-05 
-0.003887048282933834 
0 
-5.293955920339377e-22 
0 
-0.0001125596166706251 
0 
0 
-0.003338906733858020 
0 
0 
0 
0.007665847592038698 
0 
-0.003552630223215395 
0 
0 
2.265813133905253e-20 
0 
-7.453889935837843e-20 
0 
0 
0.004954728488760098 
2.710505431213761e-20 
0 
0 
-0.007705020992772657 
-0.0007549749042456479 
-4.073263529282252e-05 
0.0009868540581124220 
-0.0005145363111622971 
0.0001223748865808395 
0.002589426742976280 
0.005768640557910265 
0.004957699063166364 
0.006027756307485875 
0.0002866482786559694 
-0.01255960344181322 
-0.002101806110574966 
-0.02204891474369405 
-0.05311387661237717 
0.05695134795606769 
0.1480201882169219 
-0.03142325778271653 
0.2028982699196597 
0 
0.1831659154062066 
-0.1237895268073455 
-0.03130380494476933 
-0.07389895282968517 
-0.01792563323413571 
-0.001760831572051726 
-0.01185922655014684 
-0.003311748654079023 
0.005447479814230568 
0.001483939902329132 
-0.007104957098495992 
-0.0005255406350786373 
8.742374961152505e-05 
-2.021439536591199e-05 
-0.0002596715135681775 
-0.004195676408227701 
0 
1.279913395360871e-05 
1.738529942792427e-05 
8.075677707642673e-06 
1.999251872537793e-05 
0 
-0.002289730827153321 
0 
0 
0 
0.004743399123051270 
0 
-0.002248694393374022 
0 
0 
-0.0006551511424736999 
0 
-0.001090839505673945 
0 
-0.001265887093994751 
0.0009443075430430845 
8.131516293641283e-20 
0 
0 
-0.01384703183748147 
-0.0004291340862333810 
7.758716822362766e-05 
0.0007811153096691341 
-0.001936438375225861 
6.355269009828175e-05 
0.004131361704966279 
0.003996982998727491 
0.001935905547826892 
0.002327405284930139 
-0.01222635397335603 
-0.009369800243883283 
-0.002411578948970808 
-0.01756382026663636 
-0.04535959071894895 
0.04078679127288258 
0.1293378287536420 
0.007630043021128694 
0.2692230868204441 
0 
0.2921816518381459 
-0.1080263700916161 
-0.07112520187345314 
-0.1208125842059375 
-0.04460213660243909 
0.0001058095884185521 
-0.01296647209339637 
-0.005667413971096980 
-0.003414343060259942 
-0.004119541504890685 
-0.007502037547520731 
-0.0007157488889006828 
1.910880390236520e-05 
-2.269232642109979e-06 
-0.0001450685169914640 
-0.003871856300755775 
6.321295974381119e-06 
9.582209649059395e-06 
1.301569188461166e-05 
0 
1.496761472562786e-05 
0 
-0.0008006845245345556 
0 
0 
0 
0.0009040308831699930 
0 
-0.0005967717835894266 
0 
0 
-0.001527487552323303 
0 
-0.002466235948961635 
0 
-0.002707193382770915 
0 
2.710505431213761e-20 
0 
0 
-0.01965042750962269 
-0.0001264216299313389 
7.229432494740234e-05 
0.001011453947709423 
-0.003761085948071836 
2.170380153385106e-05 
0.003764360816049072 
0.001434227968550085 
-0.0009524595882667729 
-0.002059253372511645 
-0.01283311831583594 
-0.003766284859004094 
-0.007519073872999006 
0.003066491962978143 
-0.01708249779135623 
0.03939863930979700 
0.09723966507260780 
0.03834918908452589 
0.2538310490097500 
0 
0.3221809568665623 
0.01307275968898278 
-0.1033272262989911 
-0.1406210651322840 
-0.05148140392139273 
0.007863564784786172 
-0.01563598753758732 
-0.009155483366514078 
-0.004234273477778320 
-0.005421162061651014 
-0.006860062998089316 
-0.0007310916853077234 
-0.001167185037190009 
9.631303830397143e-05 
-1.132680446115575e-05 
-0.003057235855456690 
2.267598913522695e-05 
4.542094857265055e-06 
-5.584243046654729e-05 
0 
0 
0 
0 
0 
0 
0 
0 
0 
0 
0 
0 
-0.002485824742983767 
1.355252715606881e-20 
-0.003823475019651960 
0 
-0.004311549721288392 
0 
-2.439454888092385e-19 
0 
0 
-0.02354186702539906 
-3.423153440980306e-05 
7.278006158878989e-06 
0.002099580936590808 
-0.004676246981518298 
5.188487836535824e-06 
0.0008241117931500006 
0.0005395716747315225 
-0.002724990304742224 
-0.006071665538486299 
-0.009240694142942953 
-0.0007998826089624570 
-0.01071235716840362 
0.004199924545804108 
-0.002136589743096184 
0.03480120238165248 
0.04627395083071918 
0.04035144059975366 
0.1741985196228992 
0 
0.2560484723825240 
0.1729462640368544 
-0.1208421552266884 
-0.1243073277227376 
-0.04182822050476157 
0.006908021850759271 
-0.01856004738972885 
-0.01208765887800553 
-0.0009107703154150681 
-0.004235661592283253 
-0.005788094583550158 
-0.0009228296230833549 
-0.003047798311827759 
0.0002086467304373585 
0 
-0.001966083821360900 
6.091871690928884e-05 
1.616303321853177e-05 
-0.0001532342548995982 
0 
0 
0 
0 
0 
0 
0 
0 
0 
0 
0 
0 
-0.003398978227890047 
-7.453889935837843e-20 
-0.004859842407533792 
0 
-0.005247920494268925 
3.432395631848681e-05 
2.303929616531697e-19 
0 
9.530753926212256e-06 
-0.02506004349521106 
-3.813007336454901e-06 
-0.0007683219501352212 
0.002722180343568837 
-0.003944546397956139 
3.814199713366536e-06 
-0.002223161017618748 
0.0001509835613725746 
-0.003168371634116468 
-0.008838893644891252 
-0.007414540522953195 
0.0004061874203720996 
-0.006806915498742358 
-0.01360487362362432 
-0.009828709718898362 
0.02132270488972728 
-0.003987077017435785 
0.02126309564139712 
0.08145624314380831 
0 
0.1639435171804510 
0.2611190833543903 
-0.08430172113409268 
-0.07713589604329225 
-0.01726009102368475 
0.005791597163079829 
-0.01233749927374784 
-0.009665179309761213 
0.002648650776150751 
-0.002461609338682202 
-0.005401971980768167 
-0.0009454240469069662 
-0.004905289712525738 
0.0002668735794459619 
-0.001037181256719679 
-0.0008310276371203051 
0.0001040014795896689 
2.380920371881471e-05 
-8.346106817498200e-05 
1.483975608654712e-05 
0 
0 
-0.0006804891192534945 
0 
0 
0 
3.285996895089271e-05 
0 
0 
0 
0 
-0.004135763520477092 
-7.115076756936123e-20 
-0.005272623802396007 
0 
-0.005342487320193353 
0.0003016392153266747 
2.032879073410321e-19 
0 
8.002969642213346e-06 
-0.02354936163151629 
0 
-0.003041196302355186 
0.001977122388825281 
-0.002201725052268018 
1.000562723311264e-05 
-0.003584190648261900 
-5.981645503536934e-05 
-0.004416469855214931 
-0.009388044238732667 
-0.009983064351043633 
0.0003530276221708705 
-0.003066685154052280 
-0.02494743144661986 
-0.02202621772660156 
0.01625006129517026 
-0.02018789516459913 
0.01359150369417098 
0.02067209013522118 
0 
0.1157984943667833 
0.2022687197467684 
0.02644247512190438 
0.002981304762518195 
0.02956925272107098 
0.02863345885722846 
0.01280502862610155 
0.006932329168612281 
0.01262770898604957 
0.003465365039208389 
-0.005151149711376127 
-0.0006818789772950997 
-0.002018547657567306 
0.0001377695372060344 
-0.003952879939072325 
0.0002093313807887862 
5.144490480407983e-05 
8.022415828076649e-05 
0.0001286670151347842 
-0.0006524718490114616 
0.0001164790639565439 
0 
-0.002699104117862384 
0 
0 
0 
0.0002887736820905947 
0 
-0.0001101606757478311 
0 
0 
-0.004590441219717243 
-2.710505431213761e-20 
-0.004860002973835295 
0 
-0.005030319654332101 
2.897067894640534e-05 
1.016439536705160e-20 
0 
0 
-0.01730673548091919 
0 
-0.004192158458538747 
0.0006126364445129003 
-0.0004152129546803395 
4.339885359217735e-06 
-0.003065832449316625 
-2.266480279444558e-05 
-0.004950706896656260 
-0.006725655402166193 
-0.01212944831883177 
-0.0004941357479430775 
0.0007834472779038143 
-0.02470958501108669 
-0.03036791685046258 
0.01607852628059157 
-0.01459707892185813 
0.01568763962357592 
-0.004260578299993563 
0 
0.09304198492216965 
0.05088092171500734 
0.1499122559082485 
0.09791514751426417 
0.06162584207560967 
0.05688511699905613 
0.04593393129037169 
0.01803673618335959 
0.01866307028148320 
0.004785237162604286 
-0.004283344921327313 
-0.0003319388236436453 
0.002466787069174704 
9.754381605748293e-05 
-0.005215515733665455 
0.0004147815351589669 
7.886194812156595e-05 
0.0001853092103282312 
0.0002767841157211079 
-0.001680361673761600 
0.0002894569172336529 
0 
-0.003845927795919044 
0 
0 
0 
0.0001252539841664936 
0 
-0.0001211556303449235 
0 
0 
-0.004759052266732339 
3.726944967918922e-19 
-0.003823756010679596 
-8.460386474544282e-06 
-0.005085477439856473 
-0.0001265914312411975 
0 
0 
0 
-0.007847331880650690 
-8.608587481675093e-06 
-0.002901020543885245 
-2.243840116529184e-05 
1.451243649746919e-05 
1.246452771735944e-06 
-0.001671194493477309 
-2.418775004311574e-05 
-0.003154215568385154 
-0.003373196447920543 
-0.008143885932956810 
-0.0007337790067280732 
0.007222272850004690 
-0.01520926775727706 
-0.02728000396900196 
0.01719563367835763 
0.005862560240573157 
0.02696772058046872 
0.01313591777078137 
0 
0.04481874205846832 
-0.07388632767035670 
0.1961809234082894 
0.2091797968831260 
0.06974695142170217 
0.08532944924091330 
0.06846712100293818 
0.02061842719269617 
0.02306254199012333 
0.007791481050886207 
0.002304313263700922 
0.001144254001444737 
0.004625989828639789 
0.0003154647096646239 
-0.003658674654163350 
0.0002629281213660853 
0.0001308447229300130 
0.0001083417518997604 
0.0001510366946362495 
-0.002761964520462425 
0.0001692321145670542 
0 
-0.002623169257888337 
0 
0 
0 
0 
0 
-3.030550444462666e-05 
0 
0 
-0.004663082688181598 
8.131516293641283e-20 
-0.002466557081564649 
-6.288205482811296e-06 
-0.004452826784658790 
-0.0001003873740454971 
0 
0 
0 
0.008937000959475448 
-3.597743420441144e-05 
-0.0006981889552121367 
4.043847668541083e-05 
-6.706566327372707e-06 
1.205292277620505e-06 
-0.0001593625141848232 
7.792162954077751e-07 
-0.0009327548039871835 
-0.0003813329963293091 
0.008629302352921328 
-0.0005266065217879708 
0.01247267707170817 
0.005515934196717966 
-0.009753829238045910 
0.01010326103218908 
0.01797549097338996 
0.03011016965308308 
0.05961961690902308 
0 
-0.05825813675554157 
-0.1162725879650051 
0.1467796497831618 
0.3073457579319983 
0.09136470402492887 
0.1050010567115928 
0.07800991137226651 
0.03169361019233682 
0.02980819135513244 
0.02328691481920619 
0.02008448239832008 
0.003281862117622888 
0.005532257416585041 
0.001666913523508086 
-0.001438235714517599 
0.0001204998956178309 
0.0005567037396536885 
0.0001304627052421916 
-0.001020880650319817 
-0.003429046660382795 
0 
0 
-0.0005320454693390661 
0 
0 
0 
0 
0 
0 
0 
0 
-0.004324018510724247 
4.743384504624082e-20 
-0.001091080355126201 
0 
-0.003196199906287328 
-4.945554456653109e-05 
0 
0 
0 
0.01700960403057026 
-4.023190477771240e-05 
-7.528959094948198e-05 
4.129159242152297e-05 
-2.041479992498970e-05 
0 
0.0001926516944771323 
-1.364999152190796e-05 
-0.0001808506996025658 
0.0002260975080089802 
0.01922415793502234 
-0.0004099764300036507 
0.01419192449394782 
0.01431604805565760 
0.003554721179085315 
0.0007446717922619045 
0.01536879680645679 
0.02911630724543229 
0.08544915320402590 
0 
-0.1531644563693416 
-0.1224245178182604 
0.07029529833620554 
0.3525471951101339 
0.1446050361598742 
0.09773421923686089 
0.07885687916753696 
0.05860567301492723 
0.02960161371167363 
0.04428628735298417 
0.03894030025566837 
0.006840112543740833 
0.007406555450435908 
0.005056419241337636 
-0.001353010862377673 
0.0001550142158354657 
0.001265107511917505 
0.0003576780445204160 
-0.003030721244895253 
-0.003297459493048770 
0 
0 
0 
0 
0 
0 
0 
0 
0 
0 
0 
-0.003763345761019504 
-5.082197683525802e-20 
0 
0 
-0.001808761886633553 
2.091124570745111e-05 
0 
0 
0 
0.01237738998831944 
-2.771269655706574e-05 
-4.235164736271502e-22 
0.0001265584851883811 
-0.0001202340365087448 
0 
7.284109407153995e-05 
1.758131159025277e-05 
3.849165663576403e-05 
9.404420534142747e-06 
0.01465035581915907 
-0.0002654576059190186 
0.01413995271065236 
0.007217664655038722 
0.005539777441517338 
0.0008036868915689974 
0.01425318587416931 
0.03727215602004360 
0.07045721809769416 
0 
-0.1799728519094118 
-0.1570630327429350 
0.01797354244636293 
0.3381376507998537 
0.2144757684436107 
0.05927872196119970 
0.07688145673105971 
0.08805419809128569 
0.02273157025085138 
0.05799987727738189 
0.04448048147246023 
0.01410617798962146 
0.01152496229451619 
0.009662522697691092 
-0.001308436142747997 
0.0002905880164191570 
0.0006091986891233212 
0.0001873172607616498 
-0.004544304001026905 
-0.002520676126213413 
0 
0 
0 
0 
0 
0 
2.001933804761422e-05 
0 
0 
0 
0 
-0.003015447550831727 
8.893845946170154e-21 
0 
-3.045220550620748e-05 
-0.0004874992413978096 
1.394415960262410e-05 
-8.609238465288216e-06 
0 
0 
0.002719986455621564 
-8.483375366303868e-06 
-8.920477895337803e-05 
6.697756281932499e-05 
-0.0001341857497265813 
0 
8.411453119715758e-06 
-5.005120886216077e-06 
-7.991517491032599e-05 
-0.0003354481635113482 
0.003068196744679402 
-0.0001148153298216267 
0.01258704946640739 
-0.006927447283863826 
0.001816518136944238 
0.002095066641896359 
0.005155838000607892 
0.03729413029483915 
0.03122385466787250 
0 
-0.1482887152292148 
-0.2127416877450738 
0.001049850392652540 
0.2735289235396320 
0.2419286535828033 
0.004789544359610961 
0.06699468574320294 
0.09502881057028777 
0.02082245079527629 
0.05684635500067101 
0.03901150124877988 
0.02567748411668901 
0.01951043480930532 
0.01502408469246348 
0.003299110763720601 
0.002942965399262432 
0.0003518877793759959 
0.001413302082623179 
-0.002299244479524535 
-0.0005241712735674435 
0.002092934969136138 
0 
-7.722154258636688e-05 
0 
0 
0 
1.334941250177880e-05 
0 
-8.707193185834430e-06 
0 
0 
-0.002166295332345837 
0 
4.129285617864714e-21 
-0.0001335327614947608 
-3.913275447359266e-05 
0 
-8.736516838014012e-06 
0 
0 
-0.0003372777344238108 
-1.000613233078535e-05 
-0.0001447819088986494 
0 
-6.364364446093308e-05 
0 
-7.677621035748600e-05 
1.525748739014223e-05 
-0.0001936882094778183 
-0.0004503263316240993 
-0.0001867722464831999 
-0.0001785685785440168 
0.007629165134682006 
-0.01114453287796601 
-8.471023060358268e-05 
-0.005495885165917346 
-0.008724163620590560 
0.01991089583780734 
0.01655150127922016 
0 
-0.1248244131591871 
-0.2566646591260967 
0.003381298420196799 
0.1785176181387507 
0.1772260145834743 
-0.01884006370859089 
0.05135672546105091 
0.07004683933363470 
0.02977621642427364 
0.05510800729920096 
0.04166273912832982 
0.04040010472315821 
0.03463276091898693 
0.02305124241484464 
0.01232784079620211 
0.008484465430790010 
0.001648310525561650 
0.004394557379004871 
0.003464786811855960 
0.002967121066768153 
0.005719810298635490 
0 
-0.0001250642225417261 
0 
0 
0 
0 
0 
-8.117477272287620e-06 
0 
0 
-0.001314757642851879 
0 
0 
-3.021196220165679e-05 
0 
0 
-6.776263578034403e-21 
0 
0 
-0.0006863107921830903 
0 
-0.0005906317191852238 
-2.562308405025648e-06 
-0.0001229626776460908 
0 
-0.0001540329290858704 
7.478190250160020e-06 
-0.0001418000766687060 
-0.0003709843398096281 
-3.711443395645293e-05 
-0.0002700399170390947 
0.0008315703799869970 
-0.009990758727820598 
0.0005344415983046330 
-0.01987628586028194 
-0.02461597612815976 
-0.01051769432423064 
0.01901838167259374 
0 
-0.1581849169675663 
-0.2678733600430887 
-0.01180354517598631 
0.06738297605901965 
0.06035635495826556 
0.02065005592940632 
0.03485644385325566 
0.03687906220078321 
0.04347142496319321 
0.06407048807294428 
0.05396891904339812 
0.06020114982036289 
0.05358596115627387 
0.03311749334382132 
0.01913813228887686 
0.01493929488538345 
0.005737557010702721 
0.008822849262105005 
0.009522169101954170 
0.007370178363462533 
0.008047405720182560 
0 
-1.860383733988667e-05 
0 
0 
0 
0 
0 
0 
0 
0 
-0.0005597030196399139 
0 
2.646977960169689e-21 
0 
0 
0 
-1.270549420881451e-20 
0 
0 
2.216604691393868e-05 
0 
-0.002084411958261070 
-1.271853298562065e-05 
-0.0002635616105654963 
0 
-9.364437684908235e-05 
-0.0001237685514133573 
-0.0001224516237375914 
-0.0002140935908821838 
-0.0001769830388219221 
-0.001110501394487422 
-0.005075709754563856 
-0.01629217303742190 
-0.0009472644896551574 
-0.03689588189209864 
-0.04750427948484136 
-0.03289761430633778 
4.883656979285392e-05 
0 
-0.2161294457253246 
-0.2590256927035586 
-0.09539170007323748 
-0.04475967030733864 
0.01321398939954118 
0.1032963619672589 
0.03274761240193020 
0.04205344943962841 
0.04935744626823604 
0.08004447009115959 
0.07700942930651207 
0.07718591488712609 
0.07585654113479140 
0.04621807010838799 
0.02118530158191598 
0.01880793017388065 
0.01874736994299741 
0.01590055678308097 
0.01429539524734232 
0.01284575234400011 
0.007117808603800110 
0 
-5.703506537969510e-06 
0 
0 
0 
0 
0 
0 
0 
0 
-2.456395547037471e-20 
0 
-1.270549420881451e-21 
0 
0 
0 
1.694065894508601e-21 
0 
0 
0.0004947836371422300 
0 
-0.003345542321802575 
2.425724435247630e-06 
-1.156795101557425e-05 
0 
-7.276082502382411e-06 
-0.0001313739931096728 
-5.842219607298817e-05 
-2.408313177285210e-05 
-0.001241964826523560 
-0.002406156067522530 
-0.008761449933147493 
-0.02764066646712211 
-0.006667028957068178 
-0.04817601733494827 
-0.07120236356478207 
-0.04503152705532813 
-0.04188447471227736 
0 
-0.2320845763345776 
-0.2490571287534664 
-0.2385926594124726 
-0.1514490980190784 
0.1007440589996562 
0.1725047635562347 
0.04738119733503831 
0.09471855966483467 
0.05479203729607440 
0.09622105025753015 
0.1024022801709762 
0.08913451334946107 
0.09191348227963968 
0.06054766040433825 
0.02752225640135612 
0.02120207076319678 
0.03292843028194212 
0.02283822806260282 
0.01820157246900356 
0.01775262952332550 
0.003815931397466818 
0 
0 
0 
0 
0 
0 
0 
0 
0 
0 
0 
-7.808584982500581e-22 
-0.0001565521439861282 
-0.0008711280055467810 
-2.657665805695517e-05 
-7.381424562169023e-06 
-0.0001199112230024390 
0 
0 
0 
-5.667400924367656e-05 
-0.003587707851165476 
4.788458449152741e-06 
-5.856320174876294e-06 
0 
0 
-8.686280313214444e-06 
-4.483422263173143e-05 
-0.002380393106824104 
-0.002721520830005474 
-0.003354963144086581 
-0.01248729296968419 
-0.03760287716854774 
-0.02079559427784479 
-0.04381599693422950 
-0.09124164548876140 
-0.05477344129505882 
-0.07271193332884346 
0 
-0.1982565592446066 
-0.2459064174638929 
-0.3692251472844711 
-0.2598901723778362 
0.2429990838532824 
0.1864142865111005 
0.08649096535935889 
0.1528032100814328 
0.06666081470840977 
0.1002139737345403 
0.1215237034926216 
0.1041946952094368 
0.08970001058744666 
0.07222881686788962 
0.03152429617920129 
0.02250057199508827 
0.03941588692528463 
0.02434653363602368 
0.01996206501591068 
0.01910429563362307 
0.0004323333659301516 
0 
-8.286784151419865e-06 
0 
0 
0 
0 
0 
0 
0 
0 
0 
-1.482307657695026e-21 
-0.0001956901799826585 
-0.002902301042349134 
-0.0001760489807352080 
-9.226780702711198e-06 
-0.0001216839820445840 
0 
0 
0 
-0.0001332682660449251 
-0.002593185393937771 
0 
-1.029913226015222e-05 
0 
0 
-1.085785039151796e-05 
-5.126351663799890e-05 
-0.004635255364224236 
-0.003555697664592011 
-0.002913223564112004 
-0.01158365248882106 
-0.03530905289337277 
-0.03675318225005110 
-0.04256496005611655 
-0.1088489475642114 
-0.05625258565944444 
-0.07163731007054602 
0 
-0.1595268089404203 
-0.2391601862708471 
-0.4274870891964545 
-0.3521057471088016 
0.3258917884470447 
0.1666113382085040 
0.1148297356583625 
0.1711147449852164 
0.09730973892777317 
0.1043577505064170 
0.1209543682290068 
0.1245250411534419 
0.08566244838604552 
0.08618333723355008 
0.03018580006751956 
0.02709340993185292 
0.03864095609652174 
0.01847545859015797 
0.01967500361221449 
0.01494395969210653 
0 
0 
-7.049307268040863e-06 
0 
0 
0 
0 
0 
0 
0 
0 
0 
-6.352747104407253e-21 
-0.0001565521439861263 
-0.003735828947113744 
-0.0001886662856656828 
-7.381424562168951e-06 
0 
0 
0 
0 
-3.069628558765817e-06 
-0.0009337298946383436 
-4.462846458031628e-05 
-0.001358902967832066 
0 
0 
-0.0002453187610104822 
-3.538063185445479e-05 
-0.004420923420165852 
-0.003798973412415380 
-0.001464335254879718 
-0.006811057124492708 
-0.02373369856754231 
-0.04879910130788178 
-0.04723945605943958 
-0.1223506348027590 
-0.06998533548285778 
-0.06353705239218574 
0 
-0.1543703050508581 
-0.2271379989286349 
-0.3962966577166225 
-0.3488761125419359 
0.3488271979749278 
0.1561022767484994 
0.1128727628217273 
0.1477356998189459 
0.1351020626328308 
0.1078380851019932 
0.1025550023632135 
0.1314732935309552 
0.08563334551995858 
0.08487349467114216 
0.02518381140731193 
0.03137977312572835 
0.03499000914942163 
0.009240364623682835 
0.01760882671184553 
0.007315336413649741 
0 
0 
0 
0 
0 
0 
0 
0 
0 
0 
0 
0 
-2.646977960169689e-21 
-7.827607199306290e-05 
-0.002359987068217445 
-0.0001236368888573949 
-3.690712281084459e-06 
0 
0 
0 
4.813662775974561e-06 
-2.120497984019644e-06 
0 
-0.0001142498999909661 
-0.004751250350322763 
0 
-7.308580911280911e-06 
-0.002571917092907950 
-1.769031592722745e-05 
-0.002080609708893133 
-0.003886428177260311 
-0.0001384214253229638 
-0.001968298218856602 
-0.01190011431932348 
-0.04817909738302991 
-0.04427896153348884 
-0.1269772986293664 
-0.09899334465525415 
-0.07108399077535100 
0 
-0.1822806895462850 
-0.2068593760149592 
-0.2949071473134327 
-0.2426769628642047 
0.3562069205565397 
0.1544971236282378 
0.06055220237153913 
0.1095509420971819 
0.1618908862681714 
0.1122923230548477 
0.07828577408578737 
0.1080411457510536 
0.08009302653814726 
0.06314406450173522 
0.02333974051784073 
0.03237648258869202 
0.02821019265625089 
0.001135377157592470 
0.01418357612290919 
0.0004600536626940757 
0 
0 
0 
0 
0 
0 
0 
0 
0 
0 
0 
0 
-1.826414792517085e-21 
0 
-0.0003518053088921737 
-3.551151449258611e-05 
0 
0 
0 
0 
-2.934726041803206e-05 
-1.184721381219377e-07 
0 
0 
-0.006575449559922394 
0 
-8.564743255406973e-06 
-0.004390083804737965 
-2.117582368135751e-22 
-1.793956710551226e-05 
-0.004634560801278403 
-3.893410953137134e-06 
-0.0002864337292659951 
-0.005964410988654707 
-0.03793252547577845 
-0.08651719980814042 
-0.1231371195855459 
-0.1416138461965437 
-0.1065931989112906 
0 
-0.2097260143508388 
-0.1678440888633418 
-0.1726005461683403 
-0.1544938460195454 
0.3217195759117725 
0.1320602361569045 
-0.009564750705692078 
0.08116015543765050 
0.1735543256818691 
0.1210354528487248 
0.05798841399050522 
0.06962827299559916 
0.06765946572236956 
0.03905160064712122 
0.02037875394340281 
0.02786770377881645 
0.02169497395722414 
0.0001128635220744135 
0.01053710268407806 
-5.160073848418497e-05 
0.0002913930350478227 
0 
0 
0 
0 
0 
0 
0 
0 
0 
0 
-8.826604225862822e-05 
0 
-1.720535674110298e-22 
0 
0 
0 
-0.002006427172788618 
0 
0 
-2.000906099659061e-05 
-0.001297955206164078 
-0.001256496007852761 
0 
-0.004820618396135769 
0 
-3.654290455640124e-06 
-0.003683822746016571 
-4.016264451792320e-06 
-1.466385075645814e-05 
-0.004819102420042232 
-0.001979633622420850 
-0.003184678363293663 
0.001108165691388071 
-0.02689912374109688 
-0.01447474418598660 
-0.09891387560586990 
-0.1557296952581662 
-0.09572892737348375 
0 
-0.1964560976008939 
-0.1060421238027178 
-0.09839254904252602 
-0.2170937611144535 
0.1955328925118316 
0.07767344552051948 
-0.05198256299910058 
0.07138914472651198 
0.1709115134627387 
0.1298012374753597 
0.04989971722491782 
0.05438922973852652 
0.06337006793786526 
0.03587265933990193 
0.01797109299116317 
0.02025724836477632 
0.01570971037627561 
0.0001918041099499388 
0.007339352848028769 
0.0008629635126602039 
0.0002208834892165113 
0 
0 
0 
0 
0 
0 
0 
0 
0 
0 
-0.0001176880563448378 
0 
-6.352747104407253e-22 
0 
0 
0 
-0.004385073545544496 
0 
0 
0 
-0.003230777040564611 
-0.003157583370644199 
-3.547086447551906e-07 
-0.001414704810373718 
0 
0 
-0.001306717345867723 
-7.839171637540949e-06 
-9.346180610808810e-06 
-0.004269024112995645 
-0.004494071105661375 
-0.007426468050853562 
0.004980824972425524 
-0.02011731487106642 
0.08490009473578738 
-0.06886674111105552 
-0.1435552233349876 
-0.06259620653869408 
0 
-0.1616955674947481 
-0.02334908209249010 
-0.08313979705260935 
-0.3648596196165372 
0.01826891566871324 
0.005512665031435360 
-0.06897159043947793 
0.07153942342742114 
0.1471510389709345 
0.1269985466864577 
0.04303960186868172 
0.05186066170230123 
0.05766186601689329 
0.03863424640184739 
0.01787966208403105 
0.01510975850154099 
0.01107760278493096 
6.153117507407280e-05 
0.006716719885237608 
0.003102681668689610 
1.038418815805516e-05 
0 
0 
0 
0 
0 
0 
0 
0 
0 
0 
-0.0001029770493017335 
0 
-5.558653716356346e-22 
-0.0001074521081017585 
0 
0 
-0.005711094774515661 
0 
0 
0 
-0.003813274014352800 
-0.003847325209865238 
-0.0006652773314186316 
-2.375285941864566e-06 
0 
0 
0 
-7.501158796581206e-06 
0.001963639299209766 
-0.003267149631590680 
-0.006471352388237548 
-0.008559957195810175 
0.005405267158171757 
-0.01573101750118883 
0.1275807200717480 
-0.03922150644353245 
-0.1046860297283487 
-0.02115140161870552 
0 
-0.09204751746085181 
0.09450112127633206 
-0.1052746429638540 
-0.4566215858988906 
-0.1235363452717241 
-0.06197512852591931 
-0.06543632842530703 
0.07768814052356862 
0.1015272590987409 
0.09871535570191206 
0.03288935977903354 
0.05997147193654625 
0.05178126152341423 
0.04031282789992836 
0.02440032602676995 
0.01817987091545717 
0.01377526276142657 
0.0008040100218314566 
0.01040989463175937 
0.006705207955941839 
0 
0 
0 
0 
0 
0 
0 
0 
0 
0 
0 
-5.884402817241958e-05 
0 
-2.911675756186657e-22 
-0.0001503015561015635 
0 
0 
-0.005615893395484060 
0 
0 
0 
-0.002426746344571050 
-0.002467886638834326 
-0.002760765496113044 
-1.401489398734066e-06 
0 
0 
0 
-4.433092709756736e-06 
0.007206665096343925 
-0.001762380656502953 
-0.007258754748204972 
-0.005389482473419454 
0.003205036107629229 
-0.007720715522348868 
0.08954962768992522 
-0.005514559469826364 
-0.04201685006146131 
0.03100464981199172 
0 
0.007639896219630555 
0.2473724049989795 
-0.1388106576855411 
-0.4376055763650271 
-0.2094482723898594 
-0.1042202181251320 
-0.04776343936739312 
0.07917744649464405 
0.03040815442094357 
0.04670054118478921 
0.008724057266934331 
0.06716006499481256 
0.04055765550467155 
0.03774385108024981 
0.03129460854982840 
0.02287996484544648 
0.01758714542114444 
0.0006697485844589832 
0.01486779271227223 
0.009926489511891870 
0 
0 
0 
0 
0 
0 
0 
0 
0 
