solver_type L2R_L2LOSS_SVC_DUAL
nr_class 2
label 0 1
nr_feature 2999
bias 1.000000000000000
w
0 
0 
0 
0 
0 
0 
0 
0 
0 
0 
0 
0 
0 
0 
0 
0 
0 
0 
0 
-0.009327725152812827 
-0.01814939355042634 
-0.008668911899136907 
-0.04598057207645202 
-0.07478104254387695 
-0.04208606393503517 
-0.1251525385931679 
-0.09041038688485660 
0.03377316833245395 
-0.2082604104189329 
-0.5387214634261176 
0 
0.07438144955525867 
-0.3511889213799312 
-0.3342519636104256 
-0.3008950875398380 
0.01207149224614723 
0.1107903520689460 
0.03296752354172815 
-0.04968062913366729 
-0.004336980857732746 
0 
0 
-0.03377852702168758 
0 
-0.02088653439209201 
0 
0 
0 
0 
-1.355252715606881e-19 
0 
0 
0 
0 
0 
0 
0 
0 
0 
-0.01339522643845257 
0 
0 
0 
-3.242449983443998e-05 
0 
0 
0 
0 
0.004867478830946390 
0 
0 
-1.039510629166629e-05 
2.202940854380816e-05 
-4.254932020065852e-05 
0 
-0.0002914879302566040 
0 
-0.0003504410157422994 
-0.002269488139924159 
-0.01396634708715113 
-0.01200913981098904 
-0.01868328315825849 
-0.01692382815253976 
-0.03799545622362364 
0.01976199288201946 
-0.05311014684203400 
0.02422551627076501 
0.1543241269577267 
0.01584021347560702 
-0.6972824409076430 
0 
-0.04305296022451902 
-0.2868036252512475 
-0.5172439111724991 
-0.3123469830888050 
-0.04570101859276140 
0.1377952622930748 
0.02318978996093219 
-0.02442856271944296 
-0.004146936853196902 
-0.008200061955849340 
0.004461637595084148 
-0.03095601519469392 
0 
-0.01615222176110039 
0 
8.642134761972665e-06 
0 
0 
3.388131789017201e-20 
0 
0 
0 
0 
0 
0 
-0.0004481630249221082 
0 
0 
-0.008077809363844392 
0 
0 
0 
-5.833461069842200e-05 
0 
0 
0 
0 
0.009191928483920806 
0 
0 
-1.548437708029458e-05 
3.733609720413389e-05 
-7.331739134794518e-05 
0 
-0.0004341955627780662 
0 
-0.0005202086242356780 
-0.003332458327860712 
-0.01646510430406239 
-0.006601603489387224 
-0.02407713464328581 
0.005828130160535995 
-0.01410323586361511 
0.06421898346408504 
0.01028408225219511 
0.1015046858528094 
0.2401274367341097 
0.1710632407341421 
-0.7740684102938921 
0 
-0.1387425037068666 
-0.2243809120070862 
-0.6515020422424315 
-0.3074555215686003 
-0.08070759798955690 
0.1587452616643047 
0.01576982161029674 
-0.002047767146895742 
-0.002632115830532579 
-0.01466739099309699 
0.008104279463864095 
-0.02730942425342989 
0 
-0.01161374290854686 
0 
1.512373583345217e-05 
0 
0 
-7.792703114739563e-20 
0 
0 
0 
0 
0 
0 
-0.0008062858555026930 
0 
0 
-0.003466065608117656 
0 
0 
0 
-7.121594362148810e-05 
0 
0 
0 
0 
0.01243031978095127 
0 
0 
-9.961976862846844e-06 
3.919734609749472e-05 
-8.052296438848809e-05 
0 
-0.0002793425998292456 
-2.169703846532972e-06 
-0.0003314519609164009 
-0.001984187740163255 
-0.01475949917377967 
-0.003295049344878372 
-0.01975997965231630 
0.01666179995154151 
-0.01194793858690555 
0.08608425799356989 
0.05055838742222953 
0.1579845294583605 
0.2423716753690347 
0.1911601833848338 
-0.6904835654248477 
0 
-0.1916413188729847 
-0.1765225718553560 
-0.6886243453768917 
-0.2701189822935705 
-0.07058915402624276 
0.1877410508515894 
0.01280602897408956 
0.01438124522012756 
0.001435490967885574 
-0.01766925419314124 
0.01010892988003563 
-0.02201467508362517 
0 
-0.007466931612869476 
0 
1.728426952394534e-05 
0 
0 
-5.082197683525802e-20 
0 
0 
0 
0 
0 
0 
-0.0009843282974002319 
0 
0 
-0.0002656684901537961 
0 
0 
0 
-6.455410963318029e-05 
0 
0 
0 
0 
0.01403962354406579 
0 
0 
0 
2.089043534040829e-05 
-6.391740126459070e-05 
0 
0.0007248793690008403 
-4.615206782596081e-05 
0.0003009025030687070 
-0.004338963253040713 
-0.02046522955786745 
-0.01966171340382437 
-0.02538276008602766 
-0.001043669883769418 
-0.02419565712970755 
0.04696116616659607 
0.04213894714301839 
0.1526293057664749 
0.1360412898206018 
0.05339645685555281 
-0.4246571789608284 
0 
-0.1856370799497462 
-0.1209181519918467 
-0.5900554572696770 
-0.1887187022455543 
-0.006363072111036950 
0.2025505709498077 
0.01511186498725923 
0.01647373165494938 
0.008823188193496917 
-0.01570081574430774 
0.009685505667733390 
-0.01458969053320941 
0 
-0.003907621652506343 
0 
1.296320214295901e-05 
0 
0 
-3.811648262644352e-21 
0 
0 
0 
0 
0 
0 
-0.0008922501562732013 
0 
0 
0 
0 
0 
0 
-3.183471976304071e-05 
0 
0 
0 
0 
0.01349973565937852 
0 
0 
0 
-1.943156985693600e-05 
-4.491083966818787e-05 
0 
0.006830342632159481 
-6.088454671393544e-05 
0.003532838114911360 
-0.01446805408802640 
-0.04242799224399983 
-0.05087287609289189 
-0.04011096117782430 
-0.02483176594932120 
-0.04429833073871924 
-0.05875573058057484 
0.03533348980747113 
0.03365178272607391 
-0.05635824551575215 
-0.1602703283137357 
-0.09203749586319522 
0 
-0.1258151998028680 
-0.09275624292048197 
-0.3781295219281769 
-0.07398144826394447 
0.1134051162816973 
0.1611192054796740 
0.03258905733068193 
0.01653228399614797 
0.02340634582204349 
-0.009949419719663710 
0.006999108650775027 
-0.006480450159260979 
0 
-0.001131646805895519 
0 
0 
0 
0 
0 
0 
0 
0 
0 
0 
0 
-0.0004400112377800779 
0 
0 
0 
0 
0 
-8.576663224848025e-05 
0 
1.476282750376444e-05 
0 
0 
6.612691982266916e-05 
0.01096228672699365 
0 
0 
0 
-4.189446461155401e-05 
-1.638949618489072e-05 
0 
0.01362348028139338 
0 
0.007124062777643944 
-0.02415297146560242 
-0.06597240239066815 
-0.07484015712704777 
-0.04309781711227343 
-0.01238305578936897 
-0.03210287376310064 
-0.1564943012815849 
0.03746939520110074 
-0.09966344884196464 
-0.2600205328092655 
-0.3539095145243279 
0.1696130179951857 
0 
-0.04720546027136033 
-0.07840827746806492 
-0.1371038829342268 
0.06366228607722808 
0.2339613768513616 
0.08916261282623555 
0.05599708595780121 
0.01556213742721961 
0.03556841497579803 
-0.003362531393041495 
0.003449900774230476 
-0.0005528355834023487 
0 
0 
0 
0 
0 
0 
0 
0 
0 
0 
0 
0 
0 
0 
0 
0 
0 
0 
0 
-0.0002805654389133198 
0 
2.757611797568883e-05 
0 
0 
0.0001322538396453383 
0.007297043082172504 
0 
0 
0 
-4.756848300977928e-05 
0 
0 
0.01867016182039044 
0 
0.009513909469445518 
-0.03332946670786492 
-0.09158797759845855 
-0.09226251619425094 
-0.05062316951519892 
0.01080713600768872 
-0.01154493193134988 
-0.2326765225713331 
0.03315842764104626 
-0.1722190564369807 
-0.3915353369585337 
-0.4788007416522130 
0.3040328205939962 
0 
0.01054014460038477 
-0.07631111777136448 
0.02591069292146441 
0.1706212074364867 
0.3008766712631092 
0.004308564247012339 
0.07231664406936403 
0.01041620636441445 
0.03620272079237859 
0 
0.0003714878568464264 
0.0003831857590578890 
0 
0 
0 
0 
0 
0 
0 
0 
0 
0 
0 
0 
0 
0 
0 
0 
-0.0002504550762327550 
0 
0 
-0.0004678347690747392 
0 
3.250991640385726e-05 
0 
0 
0.0001653172995566730 
0.003419498806097411 
0 
0 
-8.493977477312446e-05 
-1.966474869521920e-05 
-8.534442988848253e-05 
0 
0.01707782618780069 
0 
0.006779775016435691 
-0.05319865654049541 
-0.1123955746290560 
-0.1074477496975005 
-0.05899300662484750 
0.03725112676607233 
-0.003654255291904415 
-0.2942797996999927 
0.01334909493225955 
-0.1533863558588417 
-0.3952400622785461 
-0.5188679945473398 
0.3187369891992823 
0 
0.03000990646326999 
-0.05516378494342813 
0.1068245115132718 
0.2349609548175969 
0.3167503131947015 
-0.04518409517743512 
0.08495901881865847 
0.006381000674756342 
0.02766158986503289 
0 
5.974537336317517e-05 
0.0003472264006428574 
0 
0 
0 
0 
0 
0 
0 
0 
0 
0 
-5.588343225583569e-05 
0 
0 
0 
0 
0 
-0.0002421844468432567 
0 
0 
-0.0005556945404604153 
0 
2.187517244434779e-05 
0 
0 
0.0001322538396453382 
0.0002451479799506976 
0 
0 
-0.0001697248604645277 
0 
-0.0001705334337527644 
0 
0.009583287806053003 
-9.033304797296774e-05 
0.001013180307917424 
-0.07489349781899104 
-0.1294638334374461 
-0.1264476731882612 
-0.06114698809281636 
0.05494029608027427 
-0.01457235992375852 
-0.3169316664006990 
-0.01049725484802747 
-0.05707206838151688 
-0.2727725543020867 
-0.4822483151429245 
0.2689232934331339 
0 
0.02178573578335829 
-0.01342844395891802 
0.1327478973064755 
0.2331161930457169 
0.2827431652801320 
-0.05854222554180118 
0.08463395603544441 
0.004086596967464259 
0.01329867755978950 
-2.505818789590761e-05 
4.779629869054020e-05 
4.154278233282462e-05 
0 
0 
0 
0 
0 
0 
8.470329472543003e-22 
0 
0 
0 
-6.798831955097822e-05 
0 
0 
0 
0 
0 
-6.258636143014459e-05 
0 
0 
-0.0004661230013504375 
2.386971394488888e-06 
0 
0 
5.319121609707618e-06 
0 
0 
0 
0 
-0.0001430874005921323 
0.0001818316422279249 
-0.0001437690723854415 
-4.220973623090700e-05 
0.0002363989271019474 
-0.0007822468902193458 
-0.006022713783432610 
-0.09157295023199631 
-0.1397732480569077 
-0.1439474653953460 
-0.05592190602849683 
0.05267083738271346 
-0.03625451961433243 
-0.2990818498755345 
-0.03602021794718199 
0.03730784782219831 
-0.09902230503621737 
-0.3786410580144707 
0.2441497222593974 
0 
0.04218344445193340 
0.03948311909028600 
0.1129638954750167 
0.2034219783339260 
0.2272154637571157 
-0.04498397130444853 
0.07213676347825955 
0.003981788791314591 
-0.002543162920937969 
-0.0001840509746034490 
0 
-0.0003275440078445237 
-1.014358403379580e-05 
0 
0 
0 
0 
0 
2.117582368135751e-22 
0 
0 
0 
0 
0 
0 
0 
0 
0 
-4.193424722225303e-06 
0 
0 
-6.566507781524474e-05 
5.040719994692384e-06 
0 
0 
8.393907495487882e-06 
0 
0 
0 
0 
-6.352747104407253e-22 
0.0003839854959142958 
-3.357372065521902e-05 
-5.317732906416508e-05 
-0.006952544803524982 
-0.001468236620740468 
-0.01333158570235998 
-0.09100799994365000 
-0.1380116186447243 
-0.1454921452214832 
-0.03988673630117425 
0.04376465894906977 
-0.03139822201566506 
-0.2351964316019241 
-0.01791996254673036 
0.07214388820375083 
0.02400303585883569 
-0.2697582402784034 
0.2463063743451162 
0 
0.08417709236953434 
0.05213947465664139 
0.08404835486004655 
0.1547205869559847 
0.1590853385803130 
-0.04680635625176860 
0.05258702238860626 
-0.001701116475119581 
-0.01316767592742248 
-0.0005398496393426020 
0.0003372108227149283 
-0.0003707404349837394 
-1.174024755811548e-05 
0 
0 
7.777921285775387e-05 
0 
0 
3.070494433796839e-21 
0 
0 
0 
0 
0 
0 
0 
0 
0 
-4.853495982408090e-06 
0 
0 
0 
-0.0002451126499136412 
0 
0 
2.017282540380647e-05 
0 
0 
0 
0 
2.117582368135751e-22 
0.0004645192353449384 
-0.0004161708202238527 
-3.017360103388541e-05 
-0.007445381502326013 
-0.001670679915181155 
-0.01613448830566707 
-0.07393466060192291 
-0.1220902317481973 
-0.1263127166706077 
-0.01718049609863903 
0.03819489757090684 
0.006987561191565163 
-0.1386783229204982 
0.06984408209210013 
0.1007024587596107 
0.05528362728213971 
-0.2348910683035713 
0.2210513153972855 
0 
0.1206898762236515 
0.01646924843553752 
0.02725216134031682 
0.09396547446789376 
0.08314745459559902 
-0.07339062560153843 
0.02802476213751703 
-0.009447876437369591 
-0.01630674638656520 
-3.683534869131384e-05 
0.0007430774677431148 
-0.0004389351634390547 
0 
-0.0003081973310036375 
-1.089077864513559e-05 
0.0001577189594060011 
0 
0 
-1.058791184067875e-22 
0 
0 
0 
0 
0 
0 
-0.003563477425102235 
0 
0 
0 
0 
-8.354795147284926e-06 
-7.547491375761065e-06 
-0.0005584243706622195 
0 
0 
2.264373796726588e-05 
0 
0 
0 
0 
0 
0.0001481300686121703 
-0.0007871982850324921 
0 
-0.003877504207475086 
-0.001195114554694036 
-0.01246018346081674 
-0.05030354838282269 
-0.09519857143421515 
-0.09070401010018417 
0.01085068216296605 
0.04131307043924318 
0.07200790840339183 
-0.03441019916891380 
0.2142656613749575 
0.1906801260672894 
-0.009324862073822354 
-0.3020221984477765 
0.1546511198989007 
0 
0.1442256160529993 
0.005203870029171653 
-0.01305227691266523 
0.01031380673137577 
0.02143988090627708 
-0.08833220379166863 
0.006327681490509944 
-0.01350703739460829 
-0.01418239506731437 
0.0002436877339138454 
0.0007807195876456717 
-0.0004478926576035969 
0 
-0.0004377781878158871 
-1.508993844857416e-05 
0.0001987690995253713 
0 
0 
0 
0 
0 
0 
0 
0 
0 
-0.008648234818934702 
0 
0 
-1.419114525731388e-05 
0 
-8.961751654523810e-06 
-8.095799134729445e-06 
-0.0007843717507145634 
1.138571816755790e-05 
0 
-3.103892712461445e-05 
0 
0.0002649989107726398 
0 
0 
0 
-0.0004809080360753394 
-0.0008703822031980068 
0 
-0.0007947107519008934 
-0.0004373041959519968 
-0.01313244020795663 
-0.03379730748536547 
-0.06345013889063972 
-0.04675724334488084 
0.03617697950391194 
0.06054036087956077 
0.1404072894773360 
0.06267851481343813 
0.3555872766514301 
0.3567179590447021 
-0.1280354327311264 
-0.4160897940494321 
0.06354745607049474 
0 
0.1310445776287530 
-0.01013163762867714 
-0.03025981010081940 
-0.09190608226203240 
-0.01453816536420794 
-0.09032079881643786 
-0.006368074413496172 
-0.01432375131756856 
-0.01052280852171940 
2.637546263132613e-05 
0.0004920557730947961 
0.0003586411229937609 
0 
-0.0004015144165393581 
-6.161795274948392e-06 
0.0001598794930964940 
0 
0 
0 
-3.104340747244749e-05 
0 
0 
-0.0003827632346290100 
0 
0 
-0.01397588910455387 
0 
0 
-1.936210075736154e-05 
0 
0 
3.757218574956984e-06 
-0.0007936339786540413 
4.850403601158988e-05 
0 
-2.742236922592544e-05 
0 
0.0007604554295358972 
0 
0 
-0.001005693802949499 
-0.0006665028460929045 
-0.001796291181452228 
0 
-0.0003598866207691692 
0 
-0.02034189214283116 
-0.02363996081045878 
-0.04055775210824972 
-0.01403548936004021 
0.05452312081558275 
0.08641646299116022 
0.1934279687474061 
0.1352681379479643 
0.4237517421721354 
0.5294059117796848 
-0.2469699922972832 
-0.5007320392447573 
-0.03784040650037981 
0 
0.08500968744691655 
-0.02662332612363495 
-0.02841005599690543 
-0.1619815844785461 
-0.02826181354154952 
-0.08494456755819531 
-0.009684160536163406 
-0.01086665890775436 
-0.007776023322611378 
-2.563784355109280e-06 
2.898085601913547e-05 
0.003251564930357501 
-9.259326773314800e-06 
-0.0002659397502571650 
1.010541893206492e-05 
0 
0 
2.117582368135751e-22 
0 
-4.302385878527224e-05 
0 
0 
-0.0009150433577849800 
0 
0 
-0.01861573635006418 
0 
0 
-1.332318098212512e-05 
0 
0 
0.0001916420790657728 
-0.0004663194431198526 
0.0002232522425999199 
0 
-6.790777326039815e-05 
0.0009217348459937386 
0.001072853937052757 
0 
0 
-0.002791858459183339 
-0.0004659534999134365 
-0.003266878993205010 
0 
0.0003067940708896879 
0 
-0.02746972333877055 
-0.01257476791510203 
-0.02257921269645438 
0.001396524516884403 
0.05790054710930980 
0.1091314157183031 
0.2199334110418141 
0.1627899408206069 
0.4195817047349512 
0.6126370457408445 
-0.3156590127078459 
-0.4654123225668811 
-0.1490212527851402 
0 
0.05301484995705109 
-0.02776465771803880 
-0.01554443751604803 
-0.1600369097281116 
-0.01823473489800696 
-0.06121158145670330 
-0.004641862857898408 
-0.005336382743086405 
-0.004003466853356937 
-0.001320350128551499 
0.0003353637804176010 
0.006430819944618737 
-0.0001162896599390567 
-9.758792205242203e-05 
1.597743950646317e-05 
0 
0 
4.235164736271502e-22 
0 
-3.007806748057710e-05 
0 
0 
-0.0007884922633357672 
0 
0 
-0.02163707262357006 
0 
0 
-6.308773156147606e-05 
0 
0 
-0.0004507610160115353 
0 
0.0003712916480276452 
0 
-0.0002627760143448258 
0.002083725182136351 
0.001037242624455364 
0 
0 
-0.004326372823466992 
0 
-0.004351376244505423 
-0.0001047957889656133 
0.001039778223597270 
3.740351221123122e-05 
-0.03043705548905755 
-0.005214819209857421 
-0.01069778696053011 
0.005720643531971081 
0.04627702074323836 
0.1102605632764744 
0.2052904297905022 
0.1292173466639283 
0.3515998591514936 
0.5715485960766729 
-0.3090874239339434 
-0.3401902375800748 
-0.2245709899779048 
0 
0.04127926845536353 
-0.009307101425601337 
0.005880130919943551 
-0.09911140878010577 
-0.005666221545398618 
-0.03297368038964438 
0.0002992703609884926 
-9.542284938078697e-06 
-0.0009910372612211204 
-0.003993812591231300 
0.0006645862911637878 
0.008957858582606053 
-0.0001485092954039369 
0 
-1.092594361348425e-05 
0 
0 
2.117582368135751e-22 
0 
0 
0 
0 
0 
0 
0 
-0.02212069485370680 
0 
0 
-6.246933245947073e-05 
0 
-3.119149866108969e-05 
-0.003669350091719714 
0 
0.0003928153211006889 
0 
-0.0002717497635282748 
0.003230274599906694 
0.0005608058580018104 
0 
0 
-0.004844170981249446 
0 
-0.005101981633731560 
-0.0004765421398912943 
0.0004638676602559378 
0.0001347266349635969 
-0.02948730829499430 
5.359872598411803e-05 
-0.0007982054629218938 
0.01232383199129983 
0.02933225380364558 
0.09094814654259690 
0.1528628829171417 
0.06796623519168286 
0.2567545254507394 
0.4639422803980995 
-0.2361131652573141 
-0.1974195054052993 
-0.2412135318667247 
0 
0.02687358895633937 
0.01429994782724244 
0.02157422314019187 
-0.02239608604004780 
0.003770351963970316 
-0.007353724707044541 
0.007144859890846192 
0.003452288747436209 
0.0001490282880173501 
-0.001172600425991320 
0.0007974411990221122 
0.009971636894106484 
-4.588670825878299e-05 
0 
-4.133406632451140e-05 
-1.408399089893627e-06 
0 
0 
-1.323488980084844e-23 
0 
0 
0 
0 
0 
0 
-0.01983745160095775 
0 
0 
0 
0 
-0.0001246976663461300 
-0.007965723396298400 
2.950246915017569e-05 
0.0003018773797319982 
0 
0.0001048919424434490 
0.004105686690783623 
0.0003374505819451040 
0 
0 
-0.003958256420689360 
0.002321452021513776 
-0.006265631876912149 
-0.0007283897112986052 
-0.0003513751480847283 
0.0001994954518072481 
-0.02624389674921818 
0.006939322771081501 
0.01638515095803127 
0.03023749507424846 
0.01282189818305995 
0.07615854979866143 
0.07631659608917793 
0.02670893830757199 
0.1790490738170761 
0.3502035460305388 
-0.1375533630070997 
-0.08610902405902840 
-0.1514385191367062 
0 
0.01403094750040605 
0.01252922682756870 
0.01075025264369522 
0.01848515135273064 
0.007286542254636833 
0.001089588898457059 
0.01605181101857518 
0.001538451859781598 
-0.0003125036509883244 
0.004903113573641565 
0.0006444024665603464 
0.009303792327438215 
0 
0 
-0.0001353503829600659 
-1.714975931118666e-06 
0 
0 
1.720535674110298e-22 
0 
0 
0 
0 
0 
0 
-0.01562777145517096 
0 
0 
0 
0 
-0.0001133812696096719 
-0.01285808865041539 
6.729933237239513e-05 
0 
0 
1.620122784671978e-05 
0.004454265046245997 
0 
0 
0 
-0.002273692696504395 
0.005939270998343073 
-0.006852266281727994 
-0.0005955620317511485 
0.001843691020695801 
0.0001882293695152719 
-0.01893582695683322 
0.006425448909740149 
0.03065040968924168 
0.04908397284425316 
-1.366040516531353e-05 
0.06126124864250872 
0.009880874093017189 
0.01577785409034256 
0.1447196403374308 
0.2733669650788810 
-0.05873888159510912 
-0.01820716634166675 
-0.003361231259465042 
0 
-0.0003865220558024634 
-0.009822465833226416 
-0.01764640623140177 
0.006460173155184203 
0.001131374243005677 
-0.003220695195977064 
0.02462542260171445 
-0.001858910266040894 
0.0002115538382979496 
0.01059657860752479 
0.0002710186200478161 
0.007223021449735096 
0 
0 
-0.0002282816873939861 
0 
0 
0 
0 
0 
0 
0 
-1.130199502735381e-05 
0 
0 
-0.01042408989044083 
0 
0 
0 
0 
0 
-0.01724189291745965 
8.503900540481210e-05 
0 
0 
4.783126966869731e-05 
0.004105551045819878 
0 
0 
0 
-0.0005562972826745901 
0.008878718426305728 
-0.006666702381396701 
0 
0.005454413148910523 
0 
-0.01709407576037575 
0.001121677144028000 
0.02894862895067552 
0.05787749158632047 
-0.005933107879426075 
0.04412857756637326 
-0.03672960872746684 
0.03277111434990061 
0.1388514644352585 
0.2237438440967086 
-0.01539236229120202 
0.01925142286030172 
0.1329865993141512 
0 
-0.006501480115580115 
-0.05062633871001285 
-0.03783277530917794 
-0.003729262769566489 
-0.001695018753843810 
0.001372921202160172 
0.03251799475168025 
0.002413076878050973 
0.001872370575549444 
0.01154270973819405 
0.003421704736270897 
0.004416743178323826 
-0.0006269909899584992 
0 
-0.0001365075946874045 
0.001123717578355398 
0 
0 
0 
-4.029541862114319e-05 
0 
0 
-0.008967756305640333 
0 
0 
-0.005158842380861804 
0 
0 
-0.0002750841274625715 
0 
0 
-0.02125933909304774 
5.933480448611683e-05 
0 
0 
5.825663739730475e-05 
0.003230037221220138 
0 
0 
0 
0 
0.006431096709944234 
-0.005958895464182128 
0 
0.004105872422494088 
-2.267918504844055e-05 
-0.01284057811838378 
-0.004123098343813273 
0.02302924750037124 
0.05901752992653091 
-0.01572606653257757 
0.02862619017040155 
-0.04596143988118767 
0.04980526611682026 
0.1197921654566547 
0.1910101301109196 
0.01672873015121204 
0.04555227732605580 
0.1746732429551134 
0 
-0.008408258366210028 
-0.09410646752491476 
-0.04426458443749382 
-0.01131079570805139 
-0.003526865166561388 
0.005648928432879021 
0.03532027710927049 
0.01093862299095221 
0.002724204764618087 
0.005381612272631450 
0.007010984964277977 
0.001590236899558850 
-0.002850693251233835 
0 
-2.875641263902157e-05 
0.002540547560721029 
0 
0 
-8.450989594831441e-07 
-0.0003365975982255479 
0 
0 
-0.01943748252808202 
0 
0 
-0.0007644644005283038 
0 
0 
-0.001157080829887740 
0 
0 
-0.02439282457438776 
-0.003067444196585274 
0.0001165153970616975 
0 
-0.003474162491687570 
0.002083453892208858 
0.0007328643873523393 
0 
0 
0 
0.001182551198683345 
-0.007287832486744769 
0 
-0.0002307805886354396 
-1.880095058343080e-05 
-0.007818048430440900 
-0.004510917558418693 
0.01751219393343179 
0.04532470934133859 
-0.02929535974579147 
0.01558774970759044 
-0.02911659919517575 
0.05401188871726623 
0.06165318977890817 
0.1700979766380812 
0.05516724673985470 
0.05977713643433160 
0.1286275377147083 
0 
0.01324281056515753 
-0.1075972518748415 
-0.03201601415754261 
-0.01299441543136555 
-0.004653258399514295 
0.007623630433371776 
0.02827139440417486 
0.01855572730237710 
0.003347564365414551 
-0.005356905216851469 
0.009971804735984370 
0.0004054666870777767 
-0.005019662620185749 
0 
-0.0002843448139368603 
0.003938652917769055 
0 
8.470329472543003e-22 
-7.005835413139725e-07 
-0.0005715595459972706 
0 
0 
-0.02624746233687354 
0 
0 
0 
0 
0 
-0.001885299929706536 
0 
-0.0006142186586208112 
-0.02699741256628674 
-0.008100871830917799 
0.0006772497829693357 
0 
-0.006833106015525070 
0.0009215313785481150 
0.004228942605652052 
0 
0 
5.421010862427522e-20 
-0.005381388618996181 
-0.01012460127129880 
0 
-0.004582989550945949 
-3.127378929318270e-06 
-0.003104477635072707 
-0.002637986842896336 
0.01497543456111548 
0.03088362616744475 
-0.03975099407267532 
0.01039294260922790 
0.007640145783031099 
0.03845817434426747 
-0.02061868449117669 
0.1373650134529263 
0.1083541380498805 
0.08541457069014230 
0.03742785078630667 
0 
0.08252733972096661 
-0.05410660246423853 
0.005084136455560130 
-0.004153793206222882 
0.007700207326189131 
0.004247736815188979 
0.01870309249995831 
0.02101678078620891 
0.005566491523028207 
-0.01158720832409310 
0.01267781225772975 
0.002746846744912960 
-0.004846156595268318 
-4.419395577974672e-05 
-0.0003413652234882208 
0.004996533396215350 
0 
5.082197683525802e-21 
0 
-0.0005308155754256402 
0 
0 
-0.02473402860454503 
0 
0 
0 
0 
0 
-0.001911202217869033 
0 
-0.002314435923291912 
-0.02946824488213875 
-0.01348948876863958 
0.001320477657612593 
0 
-0.008391288434614190 
0 
0.008214412594952649 
0 
0 
-5.421010862427522e-20 
-0.01060609698185151 
-0.01396457915155101 
0 
-0.007639625354220097 
-4.177297649083252e-06 
0.0004631378654403407 
-0.0001654130793571852 
0.01305849531420993 
0.01712621043296205 
-0.04242054676523571 
0.007825882255096775 
0.02143553742660066 
0.007625384872360076 
-0.09482828496408541 
0.08366447920833620 
0.1635349738340192 
0.1203292122062990 
-0.02797580067982721 
0 
0.1613860160592032 
0.02498391383061729 
0.02412919829081159 
-0.01161053644296264 
0.02498447458450715 
-0.009601379554967556 
0.009232214206004409 
0.01617059160201794 
0.005554788418960171 
-0.01327924543787325 
0.01384630003015873 
0.005573046087325633 
-0.002453266753055849 
-5.136867045168578e-05 
-0.0001095979768886278 
0.005408240319546617 
0 
6.776263578034403e-21 
0 
0 
0 
0 
-0.01628070785654017 
0 
0 
0 
0 
0 
-0.001209726158338073 
0 
-0.003656492867599159 
-0.02773251663619201 
-0.01829307092307692 
0.004001198340111182 
0 
-0.01151517930876468 
0 
0.01403059177677000 
0 
0 
-0.0001678077448225835 
-0.01231543685615288 
-0.01900763299060984 
-0.005194703042582915 
-0.01244828325727282 
0.001854083457024461 
0.0002388923813418704 
0.0005240935274397973 
0.005908733187040207 
0.001897204592473721 
-0.03243490231864514 
0.01314312307391318 
0.008344667618047074 
-0.01634585426994459 
-0.1250746861348335 
0.02355699170451260 
0.1860773410746477 
0.1673559774924666 
-0.03357543706292681 
0 
0.2437282412953685 
0.08974339575856723 
0.03216568079320332 
-0.04881655026870858 
0.03067590344173404 
-0.03424754027443537 
-0.003853176747638785 
0.01085315505545373 
-2.808458013024364e-05 
-0.01353410891154502 
0.01667362048200339 
0.008100806241130848 
-0.0002982887253342931 
-2.205770505077405e-05 
-0.001702656279824895 
0.004986290155738418 
0 
1.694065894508601e-20 
0 
0 
0 
0 
-0.005626602803794113 
0 
0 
0 
0 
0 
-0.0003210442643044021 
0 
-0.003606936870313722 
-0.02263260165100112 
-0.02157139420755614 
0.006982133779074452 
0 
-0.01348712328198006 
0 
0.01889142258186180 
0 
0 
-0.0001522197243406738 
-0.01074490002523101 
-0.02219718981714672 
-0.01162803027512561 
-0.01478221292664630 
0.004029696918242068 
-0.002298524018895011 
0.001267443850246879 
-0.002892215760011464 
-0.01045992969796747 
-0.01648462140961253 
0.01547365284548899 
-0.02170293121667044 
-0.02741148295117243 
-0.1197473202724543 
-0.02790705517467560 
0.1613786557770433 
0.2080453615911073 
0.02833395039231962 
0 
0.2996415944714760 
0.1299659595291153 
0.02494685824622798 
-0.07002451765516488 
0.03649245240838941 
-0.05404740003447713 
-0.01242375220663870 
0.008983866208692010 
-0.006413005001985390 
-0.01428368908840597 
0.01941857987994142 
0.009662519704998778 
-0.001668875641596153 
0 
-0.003817236632236668 
0.003938652917769030 
0 
0 
-4.492353074822992e-06 
0 
0 
0 
0 
0 
0 
0 
0 
0 
0 
0 
-0.002213715410207947 
-0.01460762356099170 
-0.02201770708672860 
0.009527624481376435 
0 
-0.01106893458984441 
0 
0.02123916734312649 
0 
0 
-5.418605121719436e-05 
-0.005614589748600069 
-0.02270295141188075 
-0.01729134727563219 
-0.01182321056962791 
0.005840779452009074 
-0.01219766293874061 
0.002037418113622380 
-0.009095914597881070 
-0.01671694589178071 
0.0009184937590954166 
0.01607312978879979 
-0.04215601930010248 
-0.01599848702958508 
-0.09167347557666078 
-0.04641931424135662 
0.1129349836586379 
0.2277645520119636 
0.1394825933630605 
0 
0.2836637133151532 
0.1349071978114128 
-0.01950637981179946 
-0.04467024203543678 
0.05401314466623791 
-0.04245972554601724 
-0.005122489063741320 
0.01760583936243670 
-0.01158584269681059 
-0.01224684418363324 
0.02693343483740419 
0.009816049428222551 
-0.004849918558154000 
0 
-0.005455210533258393 
0.002540547560721005 
0 
0 
-1.232722806681560e-05 
0 
0 
0 
0 
0 
0 
-0.0001789212767584221 
0 
0 
0 
0 
-0.0005262881869079054 
-0.005262654843950755 
-0.01934001450614013 
0.01110448544296076 
0 
-0.005118607319366667 
0 
0.02076354505384596 
0 
0 
-6.505213034913027e-19 
-0.0006254020531567422 
-0.02163592977412999 
-0.02017601962210675 
-0.005966863400530376 
0.006980375365875710 
-0.02203357543628386 
0.002155775434808197 
-0.01796913608302510 
-0.01906609277171004 
0.002364909960731002 
0.01582199892776738 
-0.04658911885115755 
-0.002015753834744586 
-0.07976010172716472 
-0.04327074034930278 
0.08279402532353888 
0.2133574011570008 
0.2383536871620122 
0 
0.1675313184869583 
0.1466978287286780 
-0.09751744602269788 
0.02379139101795084 
0.06382143478361714 
-0.009393490639113680 
0.0002328181107240266 
0.02186953786351257 
-0.01814245844599870 
-0.008643871623016055 
0.03444290291831700 
0.007957141972879300 
-0.01220500650065223 
0 
-0.01077004405682892 
0.001123717578355375 
0 
0 
-8.228120285164116e-06 
0 
0 
0 
-0.0009928174619765748 
0 
0 
-0.0006910337891859108 
0 
0 
0 
0 
0 
0.003024962753267004 
-0.01460811963845939 
0.01129046966708504 
0 
0.003747519145496458 
0 
0.01783776997996268 
0 
0 
4.336808689942018e-19 
0 
-0.02080691783675716 
-0.01866087910796422 
-0.002323422869194956 
0.006660405217389781 
-0.02687496439205068 
0.002071858684711565 
-0.02595413291345618 
-0.01782377714089498 
-0.006031069099806735 
0.01297202293637811 
-0.03581268424023056 
0.008671105656498965 
-0.08032748775928479 
-0.03870021449637583 
0.06645594861945064 
0.1679891617592673 
0.2922664326979015 
0 
-0.02282257476517215 
0.1833021407235857 
-0.1745337953022332 
0.1097963581280568 
0.06114761881299206 
0.02318664451712401 
-0.008949736730191763 
0.01114531277962660 
-0.02572774539821133 
-0.006838918857578927 
0.03781835330943008 
0.004116153348138247 
-0.02027518904773001 
0 
-0.01894798984000484 
0 
0 
0 
0 
-0.003391160200780446 
0 
0 
-0.003937928798694593 
0 
0 
-0.0008147036683323429 
0 
0 
-5.926294451794992e-05 
0 
0 
0.009851938208859712 
-0.008939541509431216 
0.009860839547760748 
0 
0.01173094548254186 
0.0001310330349716902 
0.01306157094811224 
0 
0 
2.168404344971009e-19 
0 
-0.01727686907397466 
-0.01370063292667071 
0.0008368476737259222 
0.004890003654082659 
-0.02255207366714922 
0.002125855924399258 
-0.02641831503251441 
-0.01049187234264559 
-0.01264448102412340 
0.01310431556395896 
-0.01059276874420055 
0.01109349605965708 
-0.07385998085076930 
-0.03512559664415017 
0.05002634104040196 
0.1224317551757228 
0.2540292336871682 
0 
-0.1504010980180840 
0.2503486182399476 
-0.2022312284098417 
0.1701506774551698 
0.04396646941282346 
0.02861368418898855 
-0.02592004601757467 
-0.0004889862342764804 
-0.02960025893377762 
-0.005041222584010895 
0.03668364780549865 
-5.092917853371556e-05 
-0.02270794981514427 
0 
-0.02282905964027572 
-0.0002261312337811205 
0 
0 
0 
-0.008545441061374372 
0 
0 
-0.006371777907829713 
0 
0 
-0.0006728704103178743 
0 
0 
-6.517788085835901e-05 
0 
0 
0.01522140586810162 
-0.003451443723917918 
0.007441992259778980 
-1.234350291480411e-05 
0.01322471471760383 
0.0001628417789684397 
0.008318955932116774 
0 
0 
-1.626303258728257e-19 
0.0001019471479579991 
-0.01010792207179510 
-0.007300796647886527 
0.0004421014492406472 
0.002605786351401422 
-0.01256159223951150 
0.001894538254472462 
-0.01843342595363536 
-0.004976874610191290 
-0.01080846288859864 
0.009399139787653495 
0.01005159871267814 
0.01438250937492905 
-0.04658713323071544 
-0.02415135464483333 
0.03930598481291038 
0.08237656916030356 
0.1990818055529167 
0 
-0.1411253221846603 
0.2752190101470307 
-0.1755537856316741 
0.1698612821324190 
0.02046185457755157 
-0.01236062541726041 
-0.03606473882936604 
-0.01157681172081356 
-0.02565115657943431 
-0.01140052641126033 
0.02509407638531877 
-0.003192201387812497 
-0.01690371567566060 
-2.187808026164118e-05 
-0.01713267896689737 
-0.0004907253010827209 
0 
3.388131789017201e-21 
0 
-0.01334741296381267 
0 
0 
-0.004451823119931978 
0 
0 
-0.0003884735112626583 
0 
0 
-1.630339879724055e-05 
0 
-0.0001195156987816901 
0.01900261720251420 
0.0008351958895731067 
0.004800541315408021 
-9.174342441625799e-06 
0.01155468247416972 
0.0001291340054793449 
0.005366236655340361 
0 
0 
-1.130215011128821e-05 
0.0004260625585549158 
-0.002511026573478522 
-0.001469985570995263 
0.0003677435047024955 
-0.001671542750897125 
-0.002483862727616442 
0.004396224035979954 
-0.005818494281348946 
8.163783304639466e-05 
-0.003552217746390769 
0.006024655770554661 
0.02029437767014243 
0.01482846960814965 
-0.009741558277886985 
-0.01874119757741911 
0.01940057773449473 
0.04747086627075246 
0.1461759596460139 
0 
0.01412160728570965 
0.2276582285055498 
-0.1023347965867037 
0.1372058484607237 
-0.009879773165980580 
-0.07724906528091250 
-0.02881567908331957 
-0.01284944243098660 
-0.01780443135516605 
-0.02374987209103672 
0.008215631584125254 
-0.003162365506737702 
-0.004123815747118450 
-0.0001690136586107371 
-0.005699184999158739 
-0.0006626529453059435 
0 
1.355252715606881e-19 
-8.183770282808724e-05 
-0.01617090951472192 
0 
0 
-0.0009187554103688346 
0 
0 
-8.445246728685489e-05 
0 
0 
0 
0 
-0.0001206988137261344 
0.01922895608685984 
0.001454135619745795 
0.002123517173943052 
0 
0.008414560002866871 
6.361748799350006e-05 
0.002373752239249163 
0 
0 
-1.162030715195437e-05 
-2.315035025473895e-05 
-0.0003096837927053731 
0 
-0.0004057192777850617 
-0.006420000680581628 
0 
0.007972956880453484 
0.0001456768813609640 
0.001004805245896200 
0.001269280145743567 
0.002104351916577620 
0.01731891185129776 
0.008891824436406941 
0.01492446142468336 
-0.02420787140094126 
-0.004413150148715933 
0.01323461632055560 
0.07950761220247203 
0 
0.2131578941676453 
0.1448416446830110 
-0.05132933410720057 
0.08086846226916325 
-0.05076879908711528 
-0.1389865114034387 
-0.02429457244928455 
-0.008151547952032122 
-0.01382123682340516 
-0.03839835805029093 
-0.01025730066484783 
-0.002607596983064289 
0.009852318986706328 
-0.0002963144033434030 
0.002722100578694146 
-0.0006237358855731310 
0 
2.168404344971009e-19 
-0.0002392297555424585 
-0.01555036264353425 
0 
0 
0 
0 
0 
0 
0 
0 
0 
0 
-2.548977590094792e-05 
0.01760197548169786 
0.0007759284680768979 
0 
0 
0.004144310394701946 
0 
0 
0 
0 
-4.983662917705005e-06 
-0.0003864384884760894 
-2.768153286292609e-05 
0 
-0.001189044715710489 
-0.009289975089985995 
0 
0.01128177074608446 
0.0004402803463255437 
0.0001077003223439534 
0.001500538278401043 
-0.0008161070841109170 
0.008072512222748213 
0.003276316737543131 
0.02040443522372887 
-0.03281541281521852 
-0.01752385906217956 
-0.01344629556041726 
0.01648581701296911 
0 
0.3119310574067621 
0.07464428235382044 
-0.04555178996512647 
-0.002282654333762508 
-0.09384595960498632 
-0.1739411316219084 
-0.03157371287868396 
-0.005765933024416915 
-0.01000657619924436 
-0.04518718182208965 
-0.02189682863557788 
-0.001842183005611382 
0.02025911314122792 
-0.0003141315996578591 
0.005746094909611971 
-0.0004063509337655643 
0 
2.168404344971009e-19 
-0.0003461741797777404 
-0.01188715978229545 
0 
0 
0 
0 
0 
0 
0 
0 
0 
0 
0 
0.01487674877417915 
0.0001686138132979664 
0 
-4.442904453112859e-05 
0.0005512652471835994 
0 
-5.346914551052609e-06 
0 
0 
0 
-0.0004151664172986716 
-0.0001463629759815262 
0 
-0.001033377520369787 
-0.008443782072344688 
-0.0001428495559952809 
0.01335807556803969 
-2.420931970316019e-05 
-0.0002026509108349240 
-0.001459290607123744 
-0.001043148111241353 
0.0007418896553377938 
0.001761882808325849 
0.02584579129239044 
-0.03871270582802298 
-0.01790185228803056 
-0.02264030734019355 
-0.02592368598075575 
0 
0.2619017264639486 
0.04570041339589610 
-0.05146016398105090 
-0.09642365668899855 
-0.1276657732902779 
-0.1709611126951189 
-0.04495808762922810 
-0.001411280245983036 
0.001360697038895106 
-0.03464437527117015 
-0.02332566788575902 
-0.0007890622328275193 
0.02636296872404710 
-0.0001328165327523253 
0.006208591996941358 
1.987227342297811e-05 
0 
-1.084202172485504e-19 
-0.0003146423219440853 
-0.006787175784092471 
0 
0 
-0.0001126643964632635 
0 
0 
0 
0 
0 
-4.684193367335413e-06 
0 
0 
0.01128492225984475 
0 
5.121216044066623e-05 
-0.0001948211273435008 
-0.0001447383621184723 
0 
0.0003114964977286376 
0 
0 
0 
-0.0001608571464046459 
-0.0002277165734588034 
0 
-0.0001078375105603850 
-0.004692275820571111 
-0.001302931230337087 
0.01303813859757918 
-5.004440245353020e-05 
-0.0001776647344884239 
-0.005007702959452721 
0.0003260221653684678 
-0.002838718210138616 
-0.02074799871902662 
0.02725956535270685 
-0.06774500867800277 
-0.02699213464550758 
-0.02973217329698997 
-0.04946302196094658 
0 
0.1448513069894708 
0.06026028654429460 
-0.03826932645004772 
-0.1598855568185287 
-0.1580529038667853 
-0.1465218728244525 
-0.06672542162456466 
-0.004681288781917836 
0.01001425338451957 
-0.01190215057275260 
-0.01547405859835871 
0.002383030344837728 
0.02658867339171423 
0 
0.003344743966603629 
0.0001987690995253711 
0 
1.084202172485504e-19 
-0.0001748492022576105 
-0.001876360292362935 
0 
0 
-0.0002102634787547154 
0 
0 
0 
0 
0 
-4.366944936998285e-06 
0 
0 
0.007297091266952184 
0 
8.044957205898501e-05 
-4.407853525606105e-05 
-1.539839466594460e-05 
0 
0.0004978559021667600 
0 
0 
0 
0 
-0.002168831493457259 
-0.0004202648450222224 
0.0002919583207800505 
-0.0005388268148572472 
-0.002522630457267929 
0.01053476284839425 
-0.0004904885164535364 
-0.0001842819388103598 
-0.007001778582586375 
0.001440676693391735 
0.003678689507071697 
-0.05148441315931720 
0.02844468460917229 
-0.09313382012764507 
-0.05626081322554965 
-0.03644815073715574 
-0.06983559841687612 
0 
0.008844844245187570 
0.08660951139605472 
0.03194726244879839 
-0.1317118928080092 
-0.1971046020457168 
-0.1167231329419000 
-0.08626352363772463 
-0.01249708805746517 
0.002740696336300231 
0.005747135819761062 
0.001132100139188120 
0.008097086268041044 
0.01913594746276719 
0 
-0.007596897641508477 
0.0001577189594059997 
0 
-1.626303258728257e-19 
-2.566789447811614e-05 
0 
0 
0 
-8.370690396623254e-05 
0 
0 
0 
0 
0 
0 
0 
-9.285659715476734e-06 
0.003419528522251042 
-9.396548116722707e-05 
6.650202289303143e-05 
0 
-2.101032711842878e-05 
0 
0.0004115425819673665 
0 
0 
-3.388131789017201e-21 
0 
-0.007802548961300415 
-0.0007457605248866958 
0.0001613768519997381 
0.0002643571082448635 
-0.002575867436321565 
0.006646734920472993 
-0.0008790169073676888 
-0.0001418791486827218 
-0.007125559300114054 
-0.001710589235461426 
0.01254455846587194 
-0.09085791049483348 
0.03194324805413164 
-0.1181418915054138 
-0.1021139751726460 
-0.04228859995673334 
-0.07820951603812393 
0 
-0.04270053567274231 
0.1028978986004182 
0.1468789327561994 
0.004884693730230652 
-0.2484979424475551 
-0.09781282447881164 
-0.09496308675709714 
-0.01760021600296072 
-0.01596601056412559 
0.003470326942315713 
0.01368036055565637 
0.01333845992751724 
0.009505319941661245 
0 
-0.02080163044325301 
7.777921285775183e-05 
0 
1.084202172485504e-19 
0 
0 
0 
0 
-4.244747471410912e-05 
0 
0 
0 
0 
0 
0 
0 
-8.022818016990054e-06 
-4.267666357427720e-05 
-0.0006670131759875077 
3.149122079553304e-05 
0 
-8.604894597136129e-06 
0 
0.0001948809637917919 
0 
0 
0 
0 
-0.01303442439958974 
-0.0005879069003261636 
0.0001693601282326278 
0.0002098346044480117 
-0.001851423389415768 
0.002706773074805261 
-0.0006078990172921755 
-2.336334862629372e-05 
-0.005457315061160382 
-0.007167202512713284 
0.01874601125578531 
-0.1126986546702534 
0.03788928251958118 
-0.1237639364349588 
-0.1614423761777025 
-0.03412849392142715 
-0.06845222395220475 
0 
0.01147859259549828 
0.1002574393055635 
0.2444543586082867 
0.2034348927570835 
-0.2979788144727410 
-0.09622437856635939 
-0.09727454656572765 
-0.01108866528883942 
-0.03677400618645186 
-0.008185309838817520 
0.01663483284843258 
0.01574238611157773 
0.001661311800723664 
0 
-0.03223554845979010 
0 
0 
1.355252715606881e-19 
0 
0 
0 
0 
0 
0 
0 
-4.750458707477168e-05 
0 
0 
0 
0 
0 
-0.0006606283232924714 
-0.0008251393918256985 
0.0003046899019034180 
-0.001270955069013367 
3.729656092716007e-05 
9.495147461716680e-06 
0.0002661216189443578 
0 
0 
0 
-8.268603336239889e-05 
-0.01395421965028428 
-0.0002264005312598428 
4.774883325125612e-07 
8.080644383893461e-05 
-0.001233916103202829 
6.024788625808314e-05 
-0.0001032952977462272 
-0.001473632520832646 
-0.003057831307223576 
-0.01045014893261123 
0.01494786626328368 
-0.1002739638009203 
0.03578470299590808 
-0.1229668465949542 
-0.2287274571353055 
-0.01436687798198657 
-0.07256020285090373 
0 
0.1173524950223330 
0.1243399609739173 
0.3052078241869849 
0.3978193040421729 
-0.3352883356098201 
-0.1086556358486297 
-0.09071890858681175 
0.007842618114059940 
-0.03842215565807221 
-0.02444770899738625 
0.001805660682787920 
0.01572922074508508 
-0.009897490636697147 
-0.0001479507042537237 
-0.03871891215815475 
-2.390718415520950e-05 
0 
0 
0 
0 
0 
0 
-1.209022124877734e-05 
0 
0 
-5.945792879746170e-05 
0 
0 
0 
0 
0 
-0.0005689861839682718 
-0.0006430757389352638 
0.0003808623773792688 
-0.004234388285176447 
0.0004095480972744540 
1.186893432714576e-05 
0.0003501692495380686 
0 
0 
0 
-0.0001804218290818459 
-0.01000374563824215 
0 
-6.005420298189540e-05 
-0.0003277800923841356 
-0.0005062313231633754 
3.578479653617456e-05 
0.0001711427842273301 
-0.002789802644576111 
0.0006783257062989285 
-0.008986058805472687 
0.006621989265503536 
-0.07121941846984907 
0.01560418849504796 
-0.1164031233544794 
-0.2561473149001969 
0.005147071863091754 
-0.07480116882401240 
0 
0.1903349550687296 
0.2040643987271877 
0.3453460234282360 
0.5301513453608735 
-0.3574509294195908 
-0.1740965979554247 
-0.1087361095640464 
0.02036564652986040 
-0.03684521589842647 
-0.04979799196214340 
-0.02426648246917383 
0.009843233425793910 
-0.02328648525134400 
-0.002292947124917461 
-0.03652278112021299 
-1.965066227535816e-05 
0 
0 
-1.221413443302582e-05 
-0.0002462620451194043 
0 
0 
-1.028477186854507e-05 
0 
0 
-5.120994486660478e-05 
0 
0 
0 
0 
0 
-0.0003490846358274776 
-0.0003573143649223753 
0.0003046899019034143 
-0.005450485700228248 
0.0004727281401870968 
9.495147461716594e-06 
0.0003405945314663307 
0 
0 
0 
-1.465098213084310e-05 
-0.003890334811086167 
-2.771726995572780e-05 
-0.0009132853594569186 
-0.0002634003778448202 
0 
-0.0003166133316009256 
0.0001656444181634930 
-0.002764213935486626 
0.005481328018182454 
-0.004515728509463002 
-0.001008766306862907 
-0.04202641647193135 
-0.01105604077577195 
-0.1208069817449995 
-0.2107562935971823 
0.01335638572990495 
-0.05777597630146884 
0 
0.2105913990776297 
0.2798567063057447 
0.3895573336230812 
0.5700753643896181 
-0.3575200131035288 
-0.2553793595364410 
-0.1312148432079709 
0.01730548777108758 
-0.03999397212957310 
-0.07767989065904932 
-0.04906073860471538 
0.003427245123229260 
-0.03266529979715399 
-0.004943417344513321 
-0.02890289740820361 
-4.492060640000094e-06 
0 
0 
-9.815140392773064e-06 
-0.0005957010735694253 
0 
0 
0 
0 
0 
-3.141834627657799e-05 
0 
0 
0 
0 
0 
-9.711823548253590e-05 
-6.648087514405762e-05 
0.0001523449509517067 
-0.003443165077989083 
0.0003281227571562297 
4.747573730858274e-06 
0.0001702972657331640 
0 
0 
4.235164736271502e-22 
-1.980735948896156e-05 
-0.0001215199129405548 
-7.095685119898133e-05 
-0.002998530464992158 
-2.342795907618271e-05 
-5.599744380245168e-05 
-0.003731715493294688 
8.242654562362149e-05 
-0.001408641747031878 
0.009948981255822479 
-0.0002265467094020869 
-0.001793335126397423 
-0.02994115435967955 
-0.03188055881363316 
-0.1485048846417091 
-0.1046121365576443 
0.01465026337127938 
-0.003213570962505312 
0 
0.2198132753604334 
0.2653168049655286 
0.4449207700711961 
0.5155662167344255 
-0.3244357162792744 
-0.3372458374319422 
-0.1387994816343296 
-0.009815249248314109 
-0.05790055672420665 
-0.1067248211986036 
-0.06731277860695108 
-0.008886835183119349 
-0.03369211944082395 
-0.007463254649800414 
-0.01701153353308630 
0 
0 
0 
-8.730006742220099e-07 
-0.0005246452265586851 
0 
0 
0 
0 
0 
0 
0 
0 
0 
0 
0 
0 
1.615623541982251e-05 
0 
-0.0005132755895750044 
9.424481765745943e-05 
0 
0 
0 
0 
8.470329472543003e-22 
-1.943156985693502e-05 
0 
0 
-0.004105912714188541 
0 
-6.562200445599547e-05 
-0.006405027997605310 
-2.755554619696224e-05 
-2.848763903506351e-05 
0.01203260476168590 
-1.522908191673719e-05 
-0.003247467175798885 
-0.02154812978713302 
-0.03614271087088224 
-0.1952070074968636 
0.02345062462065548 
0.02571925392263188 
0.08155187482141801 
0 
0.2429335246843057 
0.1116348138078572 
0.4743409518227959 
0.3914185939963031 
-0.2669840815826063 
-0.4136360732855338 
-0.1296038709021643 
-0.04983946224005486 
-0.08565644210766914 
-0.1332525088641609 
-0.08371956365862948 
-0.02821671388633475 
-0.02544446553719307 
-0.009216352327537840 
-0.003591401803153233 
0 
0 
0 
0 
-0.0002433419418175647 
0 
0 
0 
0 
0 
0 
0 
0 
0 
0 
0 
0.0004213160332483635 
0 
3.617991366953356e-06 
0 
0 
0 
-0.001223736197877868 
0 
0 
-2.117582368135751e-22 
-0.001893685816691307 
-0.001833197831096209 
0 
-0.002977362931704166 
0 
-2.799872190122332e-05 
-0.005063521601512718 
-6.698990421072997e-06 
9.247520828076475e-07 
0.01258529528362864 
-0.001159971082927774 
-0.007609202937077232 
-0.01480862319983377 
-0.02842482831011669 
-0.2171187056933206 
0.1493432980058169 
0.05286936045637397 
0.1787350125101639 
0 
0.2943241810317819 
-0.1087606902200457 
0.4298070192632557 
0.2501858147721445 
-0.1994900000163363 
-0.4687932037967089 
-0.1080893741376542 
-0.07886939300014330 
-0.1056870834165250 
-0.1402399282020795 
-0.08809479867066441 
-0.04321393787425993 
-0.01109194629785721 
-0.009593876668889943 
0.007671888876466473 
1.296320214295895e-05 
0 
8.470329472543003e-21 
0 
0 
0 
0 
0 
0 
0 
0 
0 
0 
0 
0 
0 
0.0005912874198544927 
0 
6.788544971770094e-06 
0 
0 
0 
-0.002681414419207843 
0 
0 
0 
-0.004713626964593193 
-0.004677473847989700 
-5.817862257474423e-05 
-0.0008475462357495122 
2.076500250044493e-05 
-5.618119196304481e-05 
-0.001314639881084934 
-3.013951911421801e-05 
1.819002142654329e-05 
0.01133409105497801 
-0.002641931076474436 
-0.01078125191586695 
-0.01209433618205667 
-0.01685884918691338 
-0.1886951317558249 
0.2180559457124286 
0.07847804723235564 
0.2515898504848054 
0 
0.3205348770224976 
-0.3066210149596425 
0.2986765028196090 
0.1584694608983602 
-0.1508212852503624 
-0.4956468902876396 
-0.09411804049830629 
-0.08905020269864929 
-0.1188705591676839 
-0.1353178433373996 
-0.08476627724301013 
-0.05358564627556059 
-0.0006914477661403601 
-0.008498236533710470 
0.01161666434275170 
1.632529028619227e-05 
0 
1.016439536705160e-20 
0 
0 
0 
0 
0 
0 
0 
0 
0 
0 
0 
0 
0 
0.0005252870393878624 
0 
6.466197336682466e-06 
-0.0001567700735121968 
0 
0 
-0.003506957368385211 
0 
0 
0 
-0.005563476213850616 
-0.005967771170549125 
-0.0004749270382436472 
2.812931016537722e-05 
-6.619775492032580e-06 
-8.732511359473554e-05 
0.0005646439468451300 
-3.432153091263874e-05 
-8.773045274507071e-05 
0.008269712875161829 
-0.004248575049997237 
-0.009713809647864063 
-0.01138360402641606 
-0.01224547955292114 
-0.1270285805561246 
0.2153173739270043 
0.08287980698152003 
0.2748922390050101 
0 
0.2944138439301316 
-0.4040345804472443 
0.09875480381478768 
0.1482362511940833 
-0.1262676171961919 
-0.4929868106020554 
-0.09830698370541058 
-0.09527397996058892 
-0.1328707605139274 
-0.1328398471435336 
-0.07839586809355163 
-0.05739208815936209 
0.0007208004371068534 
-0.006285885799636964 
0.008650912647636101 
1.297023859779648e-05 
0 
0 
-1.071000827138307e-06 
0 
0 
0 
0 
0 
0 
0 
0 
0 
0 
0 
0 
0.0003019721475393922 
0 
3.815248874991891e-06 
-0.0002192864003815117 
0 
0 
-0.003464236114179493 
0 
0 
0 
-0.003540565276519058 
-0.003870153103805965 
-0.001752425039908201 
1.659713017942256e-05 
-1.009678812525221e-05 
-5.862385248318064e-05 
0.0003333492196130640 
-2.142932090726701e-05 
-0.0001209211750755151 
0.004344395192019447 
-0.004739864803197045 
-0.005635353759460098 
-0.004590385825697950 
-0.01300609861153274 
-0.02222254409142925 
0.1749569308318692 
0.07286628226522389 
0.2854716410090682 
0 
0.2311126923140171 
-0.4196210389545575 
-0.1419845568900581 
0.1992398795957667 
-0.1228687090860251 
-0.4702437308260190 
-0.1168450927772528 
-0.09269260761728332 
-0.1378635302259712 
-0.1260194194860348 
-0.07053394435215747 
-0.05556637482981551 
0.0003820275614367936 
-0.003329061332967443 
0.004597397249558497 
7.111132820998780e-06 
0 
0 
-8.809459928581922e-07 
0 
0 
0 
0 
0 
0 
0 
0 
0 
0 
