solver_type L2R_L2LOSS_SVC_DUAL
nr_class 2
label 0 1
nr_feature 2999
bias 1.000000000000000
w
0 
0 
0 
0 
0 
0 
0 
0 
0 
0 
0 
0 
0 
0 
0 
0 
0 
0 
0 
0 
0 
-0.01652790669834962 
-0.008631276281944659 
-0.006901121621042042 
0.003042706987572390 
-0.01619218774712670 
0.01440487289594374 
0.1152287058164920 
0.08064635902835733 
0.2939444081816317 
0 
-0.2246365074452663 
0.1478598571808561 
0.06449695437744014 
0.1109370983694408 
0.06916581443473652 
0.04845109266656989 
-0.02156944832895684 
-0.004332704599644901 
-0.001185545377869166 
0 
0 
0 
0 
0 
0 
0 
0 
0 
1.355252715606881e-20 
0 
0 
0 
0 
0 
0 
0 
0 
0 
0 
0 
0 
0 
0 
0 
0 
0 
0 
-0.001155950444516618 
0 
0 
0 
8.493575441933605e-06 
0 
0 
0 
0 
4.021020991881030e-06 
-9.290340882914929e-05 
-0.0005576831825089258 
0.001774782946377502 
-0.01004457430829259 
-0.001792753643097145 
-0.001080199917454165 
0.009494908077570738 
0.003389805930818797 
-0.01038049593206032 
0.1406116036291126 
0.08847845346462360 
0.3782405975444066 
0 
-0.1911485538856117 
0.07536769734546099 
0.07712151147925608 
0.1002053266415181 
0.08291504526379564 
0.06364421103118880 
-0.01563877358042491 
0.002438413591515523 
0.0007846824539852801 
0 
-0.001488471322174400 
0 
0 
0 
0 
-1.111730743271269e-21 
0 
0 
-4.065758146820642e-20 
0 
0 
0 
0 
0 
0 
0 
0 
0 
0 
0 
0 
0 
0 
0 
0 
0 
0 
-0.002182939913246074 
0 
0 
0 
1.439516443122165e-05 
0 
0 
0 
0 
6.567440058046779e-06 
-0.0001378750783930541 
-0.001080961361119876 
0.003176579388922651 
-0.005081829399881873 
0.003950208133889166 
0.005809003672788514 
0.01656594298230589 
0.01205528549944328 
-0.03042051585090328 
0.1629311827747192 
0.09578361392415480 
0.4437430612977764 
0 
-0.1594708065238815 
0.01070723953892623 
0.08818274676786293 
0.09116914387667338 
0.09644254371963470 
0.07716049687732025 
-0.009548435520349488 
0.008539560070325017 
0.002547621914805521 
0 
-0.002705025783205977 
0 
0 
0 
0 
1.720535674110298e-21 
0 
0 
6.437450399132683e-20 
0 
0 
0 
0 
0 
0 
0 
0 
0 
0 
0 
0 
0 
0 
0 
0 
0 
0 
-0.002952007430401206 
0 
0 
0 
1.511278051521856e-05 
0 
0 
0 
0 
6.164655272781953e-06 
-8.698326942647052e-05 
-0.001535429531934878 
0.003832402823803097 
-0.003628826905134280 
0.006753755337961846 
0.01553211654522059 
0.02367468427538138 
0.01800539030600403 
-0.04096983795142393 
0.1838550878231255 
0.1020349064302153 
0.4716580738323334 
0 
-0.1314134715579991 
-0.03828981420988785 
0.09611733843005175 
0.08552413903798466 
0.1095265774290327 
0.08732311768647584 
-0.003138770837187041 
0.01330076312443268 
0.003895984633557353 
0 
-0.003377746521951908 
0 
0 
0 
0 
-1.455837878093329e-21 
0 
0 
1.694065894508601e-20 
0 
0 
0 
0 
0 
0 
0 
0 
0 
0 
0 
0 
0 
0 
0 
0 
0 
0 
-0.003334192020194852 
0 
0 
0 
8.054437241278795e-06 
0 
0 
-0.0003402051967812433 
0 
-0.0003000710494614214 
1.425328741909199e-05 
-0.001899145654558021 
0.001892304596729334 
-0.006055803649711999 
0.006578763200001395 
0.02692326685437056 
0.03311549555227104 
0.008606340071151599 
-0.03721088050801431 
0.2006168031292212 
0.1062557119416701 
0.4432124418031140 
0 
-0.1087391919035521 
-0.06416177646513192 
0.09877518792136579 
0.08478727089984592 
0.1218910424355024 
0.09188533618458339 
0.003263561337315874 
0.01596665252632722 
0.004282689783935301 
-8.476698632410776e-06 
-0.003244490401800059 
0 
0 
0 
0 
1.720535674110298e-21 
0 
0 
1.905824131322176e-21 
0 
0 
0 
0 
0 
0 
0 
0 
0 
0 
0 
0 
0 
0 
0 
0 
0 
0 
-0.003205977052658557 
0 
0 
0 
0 
0 
0 
-0.003183006253977045 
0 
-0.002857292787277725 
0.0001516192442780463 
-0.0008743994342110840 
-0.004461259586552700 
-0.01589371593234097 
0.006139152830355492 
0.03150502009793495 
0.04808365530158933 
-0.009119379908751779 
-0.01587094109701217 
0.2107004813615265 
0.1011051070514813 
0.3473393166645958 
0 
-0.09203482172228511 
-0.06455590224967585 
0.09253350314616222 
0.08821924197912404 
0.1336272904865666 
0.09093018295686985 
0.007787791079365160 
0.01663115826607012 
0.001220714767531215 
-1.986726241971280e-05 
-0.002366009185448410 
2.829480460108970e-05 
0 
0 
0 
0 
0 
0 
0 
0 
0 
0 
0 
0 
0 
0 
0 
0 
0 
0 
0 
0 
0 
9.585470375788811e-06 
0 
0 
-5.399835038746165e-21 
-0.002600468838336574 
0 
0 
0 
0 
0 
0 
-0.006348878646337910 
0 
-0.005830303219896145 
0.001010207918296775 
0.001412637651608023 
-0.01146383461851647 
-0.02401937465835126 
0.009062358747523520 
0.04392172646566460 
0.06110564995251997 
-0.002396143974339866 
0.01225569701661866 
0.2078072347567188 
0.07857779726189848 
0.2055506622700128 
0 
-0.08528685627402995 
-0.04882205450732675 
0.08271630576040640 
0.09390783692266709 
0.1431898107785580 
0.08360950418451997 
0.01156203778232209 
0.01559017327164976 
-0.002795893448259795 
-1.695339726482163e-05 
-0.001149803644240672 
0.0001048652554684017 
0 
0 
0 
0 
0 
0 
0 
0 
0 
0 
0 
0 
0 
0 
0 
0 
0 
0 
0 
9.669353594469677e-06 
0 
1.744865810033898e-05 
0 
0 
1.524659305057741e-20 
-0.001727126937532852 
0 
0 
0 
0 
0 
0 
-0.008726194010202783 
0 
-0.008333344802825564 
0.002049318633600606 
0.003796989469090719 
-0.01751985670266149 
-0.02702721277940777 
0.01251785449954997 
0.05863602239584973 
0.07364795629071980 
0.03104776553967046 
0.02895748119048260 
0.1841320911257307 
0.03849566872136232 
0.05652441959209370 
0 
-0.08114229186109347 
-0.03082187160511776 
0.07110574531668172 
0.09917363352573733 
0.1463062877959514 
0.07195398510096629 
0.01353106022632291 
0.01281610634236571 
-0.006369990947639845 
0 
-9.274768241733463e-05 
0.0001562858563805268 
0 
0 
0 
0 
0 
0 
0 
0 
0 
0 
0 
0 
0 
0 
0 
0 
0 
0 
0 
1.208669199308710e-05 
0 
2.007909252651898e-05 
0 
0 
-1.397604362969596e-20 
-0.0008048187401260745 
0 
0 
0 
0 
0 
0 
-0.009187739646396229 
0 
-0.009189903775296509 
0.002370272650855598 
0.005247747182761000 
-0.02091207787473669 
-0.02311169205037182 
0.01519253552459988 
0.07321751893530051 
0.08708784687635746 
0.09267351806608204 
0.02159731874992715 
0.1322279673324239 
-0.02069281401989111 
-0.06256787927005344 
0 
-0.07995533160152826 
-0.01637642151851014 
0.06070907851857847 
0.1012015722508287 
0.1403163872164495 
0.05734240389648559 
0.01348676479121758 
0.008710573857457654 
-0.008074293463419770 
0 
2.084302789925796e-05 
0.0001416194994193369 
0 
0 
0 
0 
0 
0 
0 
0 
0 
0 
0 
0 
0 
0 
0 
0 
0 
0 
0 
9.669353594469673e-06 
0 
1.241226257466997e-05 
0 
0 
-1.694065894508601e-20 
-5.241163599492692e-05 
0 
0 
0 
0 
0 
0 
-0.007377125772257606 
0 
-0.007347921674531156 
0.001206966927633900 
0.006386665745299094 
-0.02024240444421390 
-0.01398467178500695 
0.01889033436177758 
0.08595718541820141 
0.1041448091826957 
0.1675738447964105 
-0.01266810258847087 
0.05508247476705555 
-0.1000121157154834 
-0.1216451068241390 
0 
-0.08269520988963609 
-0.007517489509594781 
0.05345271123254546 
0.09832249437259996 
0.1250273430364486 
0.04162222014950918 
0.01188662338135278 
0.003765273280870340 
-0.007297019755468598 
0 
1.667442231940639e-05 
1.700706388556162e-05 
0 
0 
0 
0 
0 
0 
3.388131789017201e-21 
0 
0 
0 
0 
0 
0 
0 
0 
0 
0 
0 
0 
0 
2.108725997295366e-06 
0 
0 
4.382109995395453e-06 
0 
0 
0 
0 
0 
7.010632028192369e-05 
0 
0 
-0.004345589110181189 
0 
-0.004280222333299717 
-0.0001394910095178676 
0.01101506114507060 
-0.01165605922318232 
-0.001231382732009312 
0.02727173039020762 
0.09390628610192622 
0.1286364112894849 
0.2351756643382411 
-0.06174841916925293 
-0.03174225093803662 
-0.1848656101991850 
-0.1224192521280899 
0 
-0.08126341973339582 
-0.0005386582225670303 
0.04814128448405937 
0.09771442091588500 
0.1039911641623190 
0.03333167192657359 
0.01020108333328687 
0.002555890004635802 
-0.004353915915239258 
0 
0 
0 
0 
0 
0 
0 
0 
0 
0 
0 
0 
0 
0 
0 
0 
0 
0 
0 
0 
0 
0 
0 
4.453131412649560e-06 
0 
0 
9.253981645415163e-06 
0 
0 
0 
0 
0 
0.0001480479955542451 
0 
0 
-0.001267786802204402 
0 
-0.001188409077847909 
-0.001423678084486192 
0.01748184819170844 
0.002901042613389989 
0.007961000137695382 
0.03906165495163690 
0.09209141479697877 
0.1591153149824894 
0.2804601151980421 
-0.1058951876245376 
-0.1116681870585893 
-0.2779625534468626 
-0.08680459610671290 
0 
-0.07551686603201332 
0.006246794611695252 
0.04217478331464994 
0.08965678269721206 
0.07814607175360666 
0.02293423773606442 
0.008557844782635982 
0.001408690289470670 
-0.001224310609105645 
-0.0001694216278402642 
6.384860418209458e-05 
0 
0 
0 
0 
2.329340604949326e-21 
0 
0 
2.117582368135751e-21 
0 
0 
0 
0 
0 
0 
0 
0 
0 
0 
0 
0 
0 
5.387092014423891e-06 
0 
0 
1.119483033490357e-05 
0 
0 
0 
0 
0 
0.0001790982795468874 
0 
0 
0.0001172423662060874 
0 
0.001792327163411825 
-0.002493511069250960 
0.02264575393747708 
0.01740010218806859 
0.01428832223292061 
0.05155270914406952 
0.09065875610362450 
0.1905690103520224 
0.3077252289338830 
-0.1438482251549357 
-0.1724090195569958 
-0.3501236800779676 
-0.06095770602525639 
0 
-0.06838776261354480 
0.01414549785109561 
0.03884397510685735 
0.07721537164669966 
0.05470241115783898 
0.01383703216229690 
0.005033163229528879 
0.001862393352730747 
8.063016443233016e-05 
-0.0002785981803876470 
0.0001094285178144138 
0 
0 
0 
0 
-1.228197773518736e-20 
0 
0 
4.764560328305439e-22 
0 
0 
0 
0 
0 
0 
0 
0 
0 
0 
0 
0 
0 
3.429286365240494e-06 
0 
0 
7.126345517372977e-06 
0 
0 
0 
0 
0 
0.0001140094296595851 
0 
0 
0.0004014552203796593 
0 
0.006732168682509205 
-0.002845945056684487 
0.02524072284924487 
0.02824446995841575 
0.01990772401583480 
0.05989434409386354 
0.09295237316725884 
0.2154223499654981 
0.3214505155963248 
-0.1710010568642343 
-0.2189453943396476 
-0.3803982599186900 
-0.05754862125940291 
0 
-0.06048734219776332 
0.02416110276233625 
0.03423705179297348 
0.06026330927827923 
0.03425224850619454 
0.007036608995141123 
0.001636985822224225 
0.005791491362226341 
6.880031860776820e-05 
-0.0001275697676407715 
0.0002359002263459953 
0 
0 
0 
0 
2.816384549620549e-20 
0 
0 
0 
0 
0 
0 
0 
0 
0 
0 
0 
0 
0 
0 
0 
0 
0 
1.005850340445681e-05 
0 
0 
0 
-6.293311575522416e-05 
0 
0 
0 
0 
0 
0 
0.0005484843289022553 
0 
0.01177521667449397 
-0.002312905233449968 
0.02459611136754438 
0.03306800791344232 
0.02532688069782111 
0.06041870398227091 
0.1013468574692325 
0.2263192057510483 
0.3248776583977437 
-0.1865724085931972 
-0.2614012796705341 
-0.3593907646678594 
-0.06970488315884747 
0 
-0.05256050592786574 
0.02704159053488221 
0.02631031902930582 
0.04084237539197298 
0.01804714210541983 
0.003137128862249000 
0.0001678896067761181 
0.01053295333527804 
0.0001028797302342625 
1.231905643971013e-05 
0.0002590082837108962 
0.0003142101202606832 
0 
0 
0 
1.672890070827243e-20 
0 
0 
0 
0 
0 
0 
0 
0 
0 
0 
0 
0 
0 
0 
0 
3.319245678781730e-06 
0 
4.284999893486005e-05 
0 
0 
0 
-0.0001805963256004918 
0 
0 
0 
0 
0 
0 
0.0003415802312724649 
0 
0.01495133186266144 
-0.001031183412450193 
0.02110815137312081 
0.03511955040194852 
0.03507646619794352 
0.05415237006086249 
0.1151288491339879 
0.2185019285207745 
0.3175250923371082 
-0.1927845429912992 
-0.3019077074843319 
-0.3142562052966813 
-0.08950464088527334 
0 
-0.04707335316636849 
0.02262979391544016 
0.01658785276194451 
0.02070848670879347 
0.006834869481986069 
0.001145405534605010 
9.917695287385344e-05 
0.01395820939039992 
0.0002576076694295268 
-4.919382003020128e-06 
1.793329108288900e-05 
0.001439471722646747 
7.228541327845978e-06 
0 
6.640170154757028e-07 
0 
0 
0 
0 
0 
0 
0 
0 
0 
0 
0 
0 
0 
0 
0 
0 
7.003265013116942e-05 
0 
0.0001509112818187129 
0 
0 
-3.388131789017201e-21 
-0.0002158779163445218 
0 
0 
0 
0 
0 
0 
-0.0001086460202158611 
0 
0.01424739675655295 
-0.0005550243966951554 
0.01739832128194888 
0.03621782244544890 
0.04181311116518564 
0.04477589681593477 
0.1209437013176638 
0.1893392897941822 
0.2923678601925300 
-0.1797909396846766 
-0.3361986522631864 
-0.2596057556470111 
-0.1155917805769870 
0 
-0.04407880721833941 
0.01117485969371057 
0.006328965669344678 
0.003842471630551439 
0.0006018859996983954 
0.0006626127292817704 
0.0002075655409780148 
0.01368538756979662 
5.427812063067504e-05 
-2.106950781886663e-05 
0.0001039845299645971 
0.002674049288212087 
1.142887618633622e-05 
0 
1.049861640308798e-06 
0 
0 
0 
0 
0 
0 
0 
0 
0 
0 
0 
0 
0 
0 
0 
0 
0.0001365527850550945 
0 
0.0002339945740462741 
0 
0 
1.829591166069289e-19 
-0.0001673511541476397 
0 
0 
0 
0 
0 
0 
-0.0002135791673917045 
0 
0.01052483778526485 
0.0002506421972004087 
0.01332157212605609 
0.03654173587865633 
0.04369664633333292 
0.03542453214846271 
0.1188355101035082 
0.1475442931426161 
0.2533259695457849 
-0.1585156546451078 
-0.3560452319363159 
-0.2077209747561441 
-0.1140664973624715 
0 
-0.04630608132213688 
-0.005610451590614774 
-0.002421256791927976 
-0.01170967265950394 
-0.003569532622696235 
0.0003453453586543762 
-0.0003320444442205454 
0.01033746752686649 
-9.984265283734504e-05 
-0.0007749622994913679 
0.0002193304389043727 
0.003670486364500045 
1.099679673261324e-05 
0 
1.010170629868799e-06 
0 
0 
0 
0 
0 
0 
0 
0 
0 
0 
0 
0 
0 
0 
0 
0 
0.0001658294141451550 
0 
0.0002284682722030798 
0 
0 
3.794707603699266e-19 
-3.358930517016993e-05 
0 
0 
0 
0 
0 
0 
-0.0001889055756730726 
0 
0.006060946972419405 
0.001861243800643492 
0.01052092293604417 
0.03738270805631676 
0.04095581298461392 
0.02703093774046987 
0.1084112081755382 
0.1045895053026675 
0.2094745920196315 
-0.1448980557592816 
-0.3550290215364800 
-0.1736670427391746 
-0.08689823232354767 
0 
-0.05358808044842040 
-0.02212548996030450 
-0.007582348853230578 
-0.02360369450797610 
-0.005515118947361081 
-0.0003739322742886982 
-0.002486711329108578 
0.005347065750310911 
-0.0001789603905028782 
-0.003755549212364105 
0.0002859663427778192 
0.004081326499053971 
0 
0 
0 
0 
0 
0 
-4.896909226313924e-22 
0 
0 
0 
0 
0 
0 
0 
0 
0 
0 
0 
0 
0.0001334370796036812 
2.606341400865482e-05 
0.0001712892235304448 
0 
5.416196660350587e-05 
-2.574980159653073e-19 
0 
0 
0 
0 
0.0008950502615785633 
0 
0 
-3.517266716202310e-05 
0 
0.002225545807214103 
0.002963198320193404 
0.009987865177411580 
0.03900362723059452 
0.03445023321712098 
0.02398889449011986 
0.08866383922621526 
0.06757843235767505 
0.1649201868706700 
-0.1393922879300457 
-0.3324500773937514 
-0.1537279501616777 
-0.04169164111982363 
0 
-0.05983845745087607 
-0.03193494183510404 
-0.01091450736238232 
-0.02541535710504700 
-0.004213739310334673 
0.0001004870347985500 
-0.003997971717957095 
0.0009568243555061557 
0.0003723037337710097 
-0.006642123357168011 
0.0002224083614721029 
0.003804967911566191 
0 
0 
0 
0 
0 
0 
3.044024654195142e-22 
0 
0 
0 
0 
0 
0 
0 
0 
0 
0 
0 
0 
0 
5.945435797929993e-05 
0 
0 
0.0001235511568146221 
6.098637220230962e-19 
0 
0 
0 
0 
0.002289922863530261 
0 
0 
0.002996602037712465 
0 
0.001977322282593868 
0.003418087903774513 
0.01007637229006309 
0.03999345304162974 
0.02973069181061922 
0.02189176546242529 
0.06515077147106943 
0.04627675190489560 
0.1264654149115938 
-0.1505038611624322 
-0.2944939192953595 
-0.1459191560369361 
-0.01077898496609981 
0 
-0.06321846845412155 
-0.03132021769727084 
-0.01231144405029190 
-0.02547589728590925 
-0.002305661196185962 
0.001113404800763886 
-0.005311854563056273 
-3.532486369557381e-05 
0.001134666428859183 
-0.007889386576180213 
0.0002717711877472987 
0.002949313191247276 
0 
0 
0 
0 
0 
0 
0 
0 
0 
0 
0 
0 
0 
0 
0 
0 
0 
0 
0 
0 
7.512614600044943e-05 
0 
0 
0.0001561184505366515 
-2.100641709190665e-19 
0 
0 
0 
0 
0.003664372747049129 
0 
0 
0.007936469180471544 
0 
0.002137867832594023 
0.003337312276286669 
0.009681427807219171 
0.03887584272181474 
0.02406148308122209 
0.02103236791930168 
0.04249244939001286 
0.03059812155158021 
0.08936483595385476 
-0.1625198689035175 
-0.2475184160497845 
-0.1442441955057560 
-0.02754976254563779 
0 
-0.06505259058683481 
-0.02661835009391083 
-0.01407109461951401 
-0.02456403522818005 
-0.003221763994816490 
-0.002042710678687882 
-0.006284583923096563 
-0.004334245591716515 
0.001819707666150733 
-0.006471895232909197 
0.002214821547043478 
0.001800286567846201 
-6.771343786108698e-06 
0 
0 
-5.421010862427522e-20 
0 
0 
0 
0 
0 
0 
0 
0 
0 
0 
0 
0 
0 
0 
0 
0 
5.241824223499079e-05 
0 
0 
0.0001089295164633186 
-2.710505431213761e-20 
0 
0 
0 
0 
0.004644289313626732 
0 
0 
0.01237035956443952 
0 
0.001832205549715169 
0.002679166039809823 
0.009017649637168742 
0.03476679784327202 
0.01635319252295966 
0.01880653657483428 
0.02446938962846047 
0.01615997588413000 
0.04995388517955492 
-0.1660612133360447 
-0.1957477031708364 
-0.1429745032157467 
-0.07231480353178182 
0 
-0.06097077310068159 
-0.01906431878777746 
-0.01603949515635936 
-0.02529565543106888 
-0.007154040708387170 
-0.006871924345918057 
-0.006455324420416398 
-0.009109117408920910 
0.002313960371122447 
-0.003490107852112828 
0.004271544806354123 
0.0006622096443953272 
-9.057240882541552e-06 
0 
0 
3.320369153236857e-19 
0 
0 
0 
0 
0 
0 
0 
0 
0 
0 
0 
0 
0 
0 
0 
7.940918851344165e-06 
0 
0.0001029333855598233 
0 
0 
-6.776263578034403e-21 
-0.0001740438826244719 
0 
0 
0 
0.004858091649458111 
0 
0 
0.01466668702703606 
0 
0.001232115766500446 
0.001709424472495653 
0.007743584171476667 
0.02960603924710203 
0.01075262433750606 
0.01838298566842257 
0.01440374513290741 
0.006579785972129527 
0.01364137646677490 
-0.1520381440397559 
-0.1441343744172897 
-0.1377853873622742 
-0.1301434157718422 
0 
-0.05391057474121872 
-0.01671933429407419 
-0.01662101539399754 
-0.02626877091342843 
-0.01182118794332364 
-0.01019176472325492 
-0.005236533703350227 
-0.01235663167817398 
0.002663829784099363 
-0.0005336862091966218 
0.005697937401433993 
0.0002106111748938086 
2.193526663784037e-05 
0 
1.588585403458183e-06 
2.371692252312041e-19 
0 
0 
0 
0 
0 
0 
0 
0 
0 
0 
0 
0 
0 
0 
0 
4.304234991804923e-05 
0 
0.0005983038704642225 
0 
0 
-5.929230630780102e-20 
-0.001004308031862212 
0 
0 
0 
0.004181171021419716 
0 
0 
0.01400549320718482 
0 
0.001023309437794364 
0.0009118250443238412 
0.004829145821642720 
0.02306945189340366 
0.006674979249190100 
0.01891911101284948 
0.01059108365516867 
0.003073833184935078 
-0.01390259534042589 
-0.1167352710692261 
-0.09630058984051078 
-0.1257951997641898 
-0.1947807561393340 
0 
-0.04217528804520754 
-0.01729382890207227 
-0.01084829347166896 
-0.01548297633865805 
-0.01282471424019781 
-0.006775183132197600 
-0.003389756442139841 
-0.01207030928639874 
0.003702996568854587 
0.0001078638361839921 
0.007082705713420547 
0.001140422744312854 
0.0001057256478935654 
0 
1.412198435435886e-05 
-6.708500942254059e-19 
0 
0 
0 
0 
0 
0 
0 
0 
0 
0 
0 
0 
0 
0 
0 
7.155275153217920e-05 
0 
0.001166551711463473 
0 
0 
0 
-0.001950795107768800 
0 
0 
0 
0.002939671033739290 
0 
0 
0.01088928997924449 
0 
0.0004984750317533965 
0.0005231338965166677 
0.002127327310185263 
0.01591060721550259 
0.003730192680126938 
0.01793656284663317 
0.009767627514874866 
0.001692569345619004 
-0.03175040467755636 
-0.07405541622973227 
-0.05420240784668408 
-0.1078960828261397 
-0.2508421935410335 
0 
-0.04240852803814903 
-0.02000255277105345 
-0.006426686034479084 
-0.002927061922964231 
-0.01129128002687928 
0.0009052185253050996 
-0.001446915250741470 
-0.009458923194980122 
0.004552267021893184 
-0.0001156719219118810 
0.007620077621122202 
0.002203279134278015 
0.0001558251698202975 
0 
2.347610759107356e-05 
1.029992063861229e-18 
0 
0 
0 
0 
0 
0 
0 
0 
0 
0 
0 
0 
0 
0 
0 
0.001022491792986507 
0 
0.002863862812270216 
0 
0 
0 
-0.002768442354117797 
0 
0 
0 
0.001507705607984828 
0 
0 
0.006854840961661820 
0 
0.0002545003867241961 
0.0008478699100150257 
0.002099972688800600 
0.009687667847324102 
0.001185719661482830 
0.01201166323113743 
0.01046682198291981 
0.002211176705868989 
-0.03455458573359524 
-0.03409066984644125 
-0.02187474208211380 
-0.08688263565233746 
-0.2829990028289987 
0 
-0.06899344614128437 
-0.01952182082338386 
-0.002859725788717859 
0.003165993509429654 
-0.008036264959996582 
0.008183578393907270 
-0.002074854030149345 
-0.005257350141637022 
0.004678191466503289 
-0.0003177017594675905 
0.008608216629249469 
0.003149182127230829 
0.0001575786554468556 
0 
2.374028196852460e-05 
-2.846030702774449e-19 
0 
0 
0 
0 
0 
0 
0 
0 
0 
0 
0 
0 
0 
0 
0 
0.002239584652387951 
0 
0.004651375993522390 
0 
0 
0 
-0.003212187014682772 
0 
0 
0 
0.0002593886657243140 
0 
0 
0.003660124572535831 
0 
0 
0.001190011089604507 
0.001611164604674240 
0.004380076310038628 
-0.0001974281356797275 
0.007423034894514881 
0.01273856897241067 
0.001993976206737393 
-0.02776557552824431 
-0.006317471770851030 
-0.003611977046812313 
-0.06705774656266743 
-0.2840714055382898 
0 
-0.1151992635600918 
-0.01095040618974377 
-0.001942631540047893 
-0.004660695922133452 
-0.004381959535459417 
0.01115502467948100 
-0.006128814401545423 
-0.002589208610977592 
0.003857587019121516 
-0.0005857197117603712 
0.009483575182862466 
0.003690299855826511 
4.235793143571942e-07 
0 
4.869967774791789e-06 
-2.710505431213761e-19 
0 
0 
0 
0 
0 
0 
0 
0 
0 
0 
0 
0 
0 
0 
0 
0.003605070827513585 
0.0003268401524377124 
0.006065371243652100 
0 
0.0006792013285419092 
0 
-0.003068494245632633 
0 
0 
0 
0 
0 
0 
0.003499044206106490 
0 
0 
0.001742720355564601 
0.0007740792500083040 
0.002067428545633748 
-0.0003023554825427343 
0.005935410284240482 
0.01496561216275085 
0.002689718693854151 
-0.01010757496213246 
0.003781953449647294 
-0.0002546024284863502 
-0.04878299091032474 
-0.2510895663530419 
0 
-0.1725648800420388 
0.004204017005511084 
-0.003266048314141326 
-0.02763268060364153 
-0.003970231201418797 
0.01051897122853874 
-0.01104011413320974 
-0.003428762576202256 
0.003439688904138229 
-0.0004480582160096831 
0.01481815331775044 
0.003694244681950288 
-0.0002305239156932346 
0 
0 
5.183841637196318e-19 
0 
0 
0 
0 
0 
0 
0 
0 
0 
0 
0 
0 
0 
0 
0 
0.004929372952500317 
0.0009042229755315130 
0.006821000916246716 
0 
0.001879051400810258 
0 
-0.002420080739335587 
0 
0 
0 
0 
0 
0 
0.002760767334618141 
0 
0 
0.002206530841270354 
0.0002023632213439509 
0.0008398810604068735 
-1.029632817420593e-05 
0.004306740272595864 
0.01395795288965456 
0.004232998440395132 
0.005459367266663673 
0.002085733451993605 
-0.003736350428526564 
-0.03559145940598382 
-0.2035554471264711 
0 
-0.2233851900339754 
0.01004679936304692 
-0.009687439781225058 
-0.05594147956604127 
-0.003560444946524093 
0.006074287603860790 
-0.01364353630631070 
-0.005116042873633083 
0.003006009508887699 
0.0003201386857027130 
0.02063671669368599 
0.003067009663449908 
-0.0002807038845344460 
0 
0 
2.202285662861181e-20 
0 
0 
0 
0 
0 
0 
0 
0 
0 
0 
0 
0 
0 
0 
0 
0.005997896858678188 
0.001487307928481028 
0.006731423508013359 
0 
0.003090750978546750 
0 
-0.001511982674632777 
0 
0 
0 
0 
0 
0 
0.001725245949806979 
0 
6.310624859821573e-05 
0.002132974909698147 
0.0001636910257638955 
0.0001526350800762656 
0.0001514444836028686 
0.002143947991177384 
0.006940843544496141 
0.001731433460568666 
0.008446828437883705 
-0.008378577424694018 
-0.01084487009930339 
-0.02961189513188449 
-0.1551438361607055 
0 
-0.2508108972272985 
-0.005318373920908544 
-0.02394525112871846 
-0.08179039404040425 
-0.004187568890789729 
-0.0005097205652009444 
-0.01385432802051395 
-0.007151794442211445 
0.003029767967310258 
0.001199030576677893 
0.02458635946632817 
0.002028141734365249 
0 
0 
0 
0 
0 
0 
0 
0 
0 
0 
0 
0 
0 
0 
0 
0 
0 
0 
0 
0.006657293831082677 
0.001919364288522016 
0.005722226056321354 
0 
0.003988600436626249 
-1.164670302474663e-20 
-0.0005908988351205677 
0 
0 
0 
0 
0 
0 
0.0008425599968189307 
0 
7.718078008169222e-05 
0.001644054080487413 
0.0005826067595620042 
0.0002691119553025502 
7.011820427625773e-05 
0.0001653824763331284 
-0.0006428844316489730 
-0.0004231766736759332 
0.006091454858215858 
-0.01957394484151988 
-0.01679749003241922 
-0.03123503509058900 
-0.1144960088750836 
0 
-0.2387557919379573 
-0.04455619301826713 
-0.04472046473258714 
-0.08763149984739024 
-0.003726064876452097 
-0.005668449186789397 
-0.007619998042593518 
-0.01063246209302890 
0.003120628596849870 
0.002143070011100038 
0.02491216368983017 
0.0009511210929642152 
8.106278182462126e-05 
0 
0 
0 
0 
0 
0 
0 
0 
0 
0 
0 
0 
0 
0 
0 
0 
0 
0 
0.006973725119653337 
0.002043975322935049 
0.004222684975034601 
0 
0.004247552647647632 
1.799945012915388e-20 
-1.355252715606881e-20 
0 
0 
0 
3.930635679797273e-05 
0 
0 
0.0005198216744294288 
0 
8.983648769750723e-05 
0.001445486636555299 
0.0005688590254912063 
0.0003192251135464067 
-1.774950065236116e-05 
-0.0007006720550012224 
-0.005998496696547753 
-0.003445968771896270 
0.0005852008528997293 
-0.02087765987870529 
-0.01924095080083364 
-0.03476118297609421 
-0.08961379773931917 
0 
-0.1929161305762857 
-0.1053983409724862 
-0.06966011072870898 
-0.06720809307903614 
0.0008955115038499778 
-0.009187740060935952 
0.009919001862126546 
-0.007209001147481769 
0.007100101277214871 
0.002626813781543354 
0.01964332394036995 
0.0001883289813482446 
0.0003211460475163994 
0 
2.357380060010695e-05 
0 
0 
0 
0 
0 
0 
0 
0 
0 
0 
0 
0 
0 
0 
0 
0 
0.007353926006894153 
0.001789697854879021 
0.002723890724015387 
0 
0.003719142680776014 
7.835054762102278e-21 
0 
0 
0 
0 
0.0001642710686886132 
0 
0 
0.0004372892698203394 
0 
4.419963144157101e-05 
0.004539827215460693 
0.0004506232591209278 
0.0005857889851631058 
9.369211142796905e-05 
-0.0001224473217290829 
-0.005852878339768647 
-0.004616533087525015 
-0.004912400120854933 
-0.01469882501132063 
-0.01552850174137212 
-0.04017478710886316 
-0.07924719601423307 
0 
-0.1301642119749487 
-0.1677006026765022 
-0.08188847784568981 
-0.02136177730545068 
0.01033023694611063 
-0.008143880806655422 
0.03104660904138241 
-0.0001754195549875365 
0.01350870563017053 
0.003275231347613433 
0.01137628389471893 
0.0002374994043627695 
0.001495200473183198 
0 
0.0001892785336657765 
0 
0 
0 
0 
0 
0 
0 
0 
0 
0 
0 
0 
0 
0 
0 
0 
0.007474826387778410 
0.001284629380993381 
0.001204911769809281 
0 
0.002669567908798945 
-3.070494433796839e-21 
-2.032879073410321e-20 
0 
0 
0 
0.0001707255076809218 
0 
0 
0.0001614597625121780 
0 
0 
0.008823207228947890 
0.0002725778462480028 
0.0005459613142678048 
0.0001518354053269553 
0.0002384039665756131 
-0.004196823932168071 
-0.007296914578235834 
-0.01472583146013922 
-0.007166640399421431 
-0.01554401410941399 
-0.04714915818261289 
-0.07436726302874350 
0 
-0.07197976069546844 
-0.2053879640212845 
-0.06588135448572535 
0.03519894697600924 
0.01757346405732590 
-0.004512024093471889 
0.04724202871132147 
0.005077940082624867 
0.01691702286948558 
0.003362188715232412 
0.002664240019307560 
0.0001911132182515280 
0.001143552895573806 
0 
0.0003653061884266532 
0 
0 
0 
0 
0 
0 
0 
0 
0 
0 
0 
0 
0 
0 
0 
0 
0.007207461284142337 
0.0006854797407514298 
0 
0 
0.001424484559606424 
0 
0 
0 
0 
0 
0.0001079805545067021 
0 
0 
0 
0 
0 
0.01279207890797640 
6.087310011864144e-05 
0.0003141838717891872 
0.0001503164043229643 
0.0003637863222671458 
-0.002134065413849066 
-0.01061058880297668 
-0.02532531929416095 
-0.004138963513968802 
-0.02260290398449375 
-0.05499006694623709 
-0.06985215650900980 
0 
-0.03750877115770471 
-0.2003934894399700 
-0.01381623326005597 
0.08070236615072397 
0.02202408353619898 
0.001977249492139624 
0.05273798341941192 
0.004150030498715769 
0.01499174840081151 
0.002826331720259953 
-0.002578529526645238 
0 
-0.0009648879812846251 
0 
0.0004819679283372215 
0 
0 
0 
0 
0 
0 
0 
0 
0 
0 
0 
0 
0 
0 
0 
0 
0.006441569733623670 
0.0001489587736264698 
0 
0 
0.0003095488610884387 
0 
0 
0 
0 
0 
2.534708989775964e-05 
0 
0 
0 
0 
0 
0.01512250422425851 
2.329461568446590e-05 
0.0001774180350796855 
2.558289102861166e-05 
0.0002060930748307522 
-0.0004816515088536622 
-0.01184295962534609 
-0.03292568097451479 
-0.008817682418332416 
-0.03302720215837571 
-0.06148919638241095 
-0.06655866414657591 
0 
-0.03717978655273874 
-0.1544951834285856 
0.06309711216816744 
0.1032425330390499 
0.01274670657461450 
0.005327098796569269 
0.04126016432982485 
-0.006756968093604768 
0.006038147184895727 
-0.001010230824048497 
-0.003048278855968725 
8.470329472543003e-20 
-0.002825431784220527 
0 
0.0004695749168519650 
-3.811648262644352e-21 
0 
0 
0 
0 
0 
0 
0 
0 
0 
0 
0 
0 
0 
0 
0 
0.005155448860785429 
0 
4.524244167660758e-05 
0 
0 
0 
-7.526415050406035e-05 
0 
0 
0 
0 
0 
0 
8.589560368717688e-05 
0 
0 
0.01472304654054476 
1.318272693938639e-05 
0.0001375407673730962 
1.050358811776746e-06 
0.0002476076356039266 
-0.0006833904973999885 
-0.01038780585267186 
-0.03315153361730197 
-0.01688832591136210 
-0.03964234269365601 
-0.06436409228911262 
-0.06526374895820175 
0 
-0.06627307734386326 
-0.09448863233613235 
0.1328700641993523 
0.1092288994807052 
0.006366378304423184 
0.01323164437667253 
0.02348444136544158 
-0.01636837454585135 
-0.001506285607579353 
-0.001175066610226529 
-0.002115094000405487 
0.0007093262968621552 
-0.003401939323824512 
0 
0.0004028570541367111 
-2.011703249728963e-20 
0 
0 
0 
0 
0 
0 
0 
0 
0 
0 
0 
0 
0 
0 
0 
0.003524786178552804 
0 
7.107169548145935e-05 
0 
0 
0 
-0.0001182330260495438 
0 
0 
0 
0 
0 
0 
0.0001349340566560890 
0 
3.197219880436289e-06 
0.01187959434495461 
2.333651760187704e-05 
0.0001154962536063108 
3.052768152598502e-05 
0.0002706761216689031 
-0.004981755939555146 
-0.006872296388045891 
-0.02670995515788146 
-0.02598407752145894 
-0.04034343638044106 
-0.06324873393235350 
-0.06610266264373811 
0 
-0.09573979714564128 
-0.04484565953725896 
0.1676652374113486 
0.1086763380628725 
0.01129476576128807 
0.02716948115293400 
0.005984083964132415 
-0.01985445014619848 
-0.003846490660584293 
0.003844638582718993 
-0.001485042626729527 
0.002014729500902096 
-0.002243504949794971 
0 
0.0003236932493637906 
1.016439536705160e-20 
0 
0 
0 
0 
0 
0 
0 
0 
0 
0 
0 
0 
0 
0 
0 
0.001850229468016154 
0 
5.874998957718754e-05 
0 
0 
0 
-9.773495624431885e-05 
0 
0 
0 
0 
0 
0 
0.0001357580443177968 
0 
5.634714049592849e-06 
0.007680400214160179 
1.929066355587058e-05 
6.486999499084169e-05 
2.607214334681159e-05 
0.0001838998991420312 
-0.009762406899815728 
-0.003118454995746083 
-0.01627823163153986 
-0.02933950255920802 
-0.03468599147090527 
-0.05611849481410827 
-0.06423280767816318 
0 
-0.1246842169682456 
-0.01868766991704077 
0.1504710882437473 
0.1183347194646423 
0.03321102757541745 
0.04447526830164456 
-0.006581911639748549 
-0.01579297274740124 
-0.0007013026444091982 
0.01039930189667499 
1.736734347732780e-05 
0.003287399905354053 
-0.0003961996819994640 
0 
0.0002077564013087471 
-5.293955920339377e-22 
0 
0 
0 
0 
0 
0 
0 
0 
0 
0 
0 
0 
0 
0 
0 
0.0004349906196478992 
0 
2.782034008929895e-05 
0 
0 
0 
-4.628119495676336e-05 
0 
0 
0 
0 
0 
0 
9.087537269758154e-05 
0 
4.472578784145263e-06 
0.003249832357571495 
5.978324755363974e-06 
9.097110247010962e-06 
1.262772686025236e-05 
5.418947061144369e-05 
-0.01235051967952636 
-0.0002569805234456830 
-0.005362638760110880 
-0.02701203095275908 
-0.02461513290132002 
-0.04445539273695567 
-0.05315848976271665 
0 
-0.1478993526010783 
-0.01743544588926229 
0.08785905647430463 
0.1428760351951254 
0.07038075673648261 
0.06296624289205235 
-0.01330060074688287 
-0.008257346920342596 
0.004459717626318758 
0.01614480708270830 
0.002376737913251646 
0.004224797210032877 
0.0009473079053624769 
0 
8.702012474247972e-05 
0 
0 
0 
0 
0 
0 
0 
0 
0 
0 
0 
0 
0 
0 
0 
0 
0 
8.578981960749953e-06 
0.0001728850858614760 
0 
1.782784612545085e-05 
-5.029258124322408e-22 
8.470329472543003e-22 
0 
0 
0 
0 
0 
0 
2.602976092939088e-05 
0 
0 
2.994639976152252e-05 
3.329184961401298e-05 
1.062231533256058e-05 
5.382221385494849e-05 
-5.094552504688502e-05 
-0.01068021265397587 
-9.226487823696420e-05 
0.0001080729858033700 
-0.02201514153135985 
-0.01371003168617180 
-0.02968993305582549 
-0.03685327277742456 
0 
-0.1546607245439530 
-0.03029094937711693 
0.009667546204505023 
0.1732723044067601 
0.1133954757862717 
0.08129212665687328 
-0.01198682215900120 
-0.002836515145268219 
0.01278733451053480 
0.01999525806255156 
0.006831618111498435 
0.005872933122007478 
0.001177985420996751 
0 
6.214466576902370e-05 
0 
0 
0 
0 
0 
0 
0 
0 
0 
0 
0 
0 
0 
0 
0 
0 
0 
6.710940990769589e-05 
0.0002161063573268429 
0 
0.0001394589986175493 
0 
0 
0 
0 
0 
1.150053238938183e-05 
0 
0 
0 
0 
0 
3.956312251918454e-06 
4.130619174875906e-05 
4.402505946810323e-05 
0.0009580814041912907 
-1.663899283392798e-05 
-0.006167513789009461 
3.463095864196368e-05 
0.001172064608413309 
-0.01218140889462779 
-0.004195453870821542 
-0.01467386626837921 
-0.02457673299168289 
0 
-0.1405028680289252 
-0.04457261567123300 
-0.05160415455545805 
0.2023492974484027 
0.1507662310588371 
0.09449307328305631 
-0.001055513144901225 
-0.0004247303343489327 
0.01807945067014339 
0.01884309224070525 
0.01032771201943208 
0.007092649949119753 
0.002683415281059223 
0 
0.0009631210167115725 
0 
0 
0 
0 
0 
0 
0 
0 
0 
0 
0 
0 
0 
0 
0 
0 
0 
7.405937488565940e-05 
0.0001728850858614738 
0 
0.0001539016104299154 
-5.691002614364830e-22 
-2.541098841762901e-21 
0 
0 
0 
1.269154714340919e-05 
0 
0 
0 
0 
0 
3.165049801534756e-06 
3.573852838767808e-05 
4.669384520735674e-05 
0.002072680577913175 
3.859776565751304e-06 
-0.001402880961180088 
-2.748113812293414e-05 
-0.001689192579289576 
-0.004439295652182647 
0.004645042730224958 
0.003445142029968989 
-0.02867136648363252 
0 
-0.1122226863668368 
-0.05300544670001393 
-0.07335209965194045 
0.2205990553527312 
0.1740433149073321 
0.09901888009105851 
0.008897979023769893 
-1.612676589582491e-06 
0.02109635974676713 
0.01475745956704047 
0.01248995390039880 
0.007776213772579365 
0.004211435008811859 
0 
0.002076414709758594 
0 
0 
0 
0 
0 
0 
0 
0 
0 
0 
0 
0 
0 
0 
0 
0 
0 
4.969263020388291e-05 
8.644254293073663e-05 
0 
0.0001032654654010156 
-5.558653716356346e-22 
-6.352747104407253e-22 
0 
0 
0 
8.515820716638385e-06 
0 
0 
0 
0 
0 
1.582524900767363e-06 
1.936263138559761e-05 
3.033999876480568e-05 
0.003118801033440919 
1.160227227902199e-05 
-0.0001478937458825561 
-0.0003083450609031743 
-0.004769406460296412 
0.001054795302069208 
0.01044648563215227 
0.02153956727541234 
-0.05697131700451601 
0 
-0.08027533496351837 
-0.05050512991434834 
-0.05235564058774869 
0.2259840916771286 
0.1824503415554679 
0.09835392410454534 
0.01430490028253433 
0.001268602044545736 
0.02096453193205649 
0.009647001774626853 
0.01111528976260609 
0.007898916498282173 
0.005221067179156378 
0 
0.003134837837375725 
0 
0 
0 
0 
0 
0 
0 
0 
0 
0 
0 
0 
0 
0 
0 
0 
0 
1.427292917161205e-05 
0 
0 
2.966034736931573e-05 
0 
0 
0 
0 
0 
0 
0 
0 
0 
0 
0 
-1.191140082076360e-22 
2.093802279122463e-06 
1.607679407926268e-06 
0.003866197180834374 
2.652472063568180e-06 
-4.252123224842591e-05 
-0.0003382653732471718 
-0.005583219481197850 
0.004975781841826964 
0.01285184303641874 
0.03557641550917168 
-0.1030426173704931 
0 
-0.05680597852196891 
-0.03804197997640058 
-0.0007766063826877199 
0.2219720597140198 
0.1791270352144473 
0.09431611887453714 
0.01536984683585225 
0.003725826326373869 
0.01906092641748412 
0.004815428976317210 
0.008421469863527762 
0.007436050032124081 
0.005839119312679032 
0 
0.003871202492028606 
0 
0 
0 
0 
0 
0 
0 
0 
0 
0 
0 
0 
0 
0 
0 
0 
0.0001760563848256879 
0 
3.196247961370472e-06 
0 
0 
0 
-5.317195065032649e-06 
0 
0 
0 
0 
0 
0 
6.068276556297785e-06 
0 
0 
0.0003512899703506672 
6.868430885607152e-07 
7.740944308880137e-06 
0.004025067751379741 
1.390294494218827e-05 
4.453833083335551e-05 
-9.971246276022682e-05 
-0.002681907823656812 
0.008591735468866603 
0.01702354469986590 
0.04224226013541029 
-0.1479071455787195 
0 
-0.04461309662740087 
-0.01947914646311400 
0.06621122920345081 
0.2105439220897111 
0.1701220466334392 
0.08782016695373933 
0.01265654439184684 
0.005148407530164705 
0.01807316739198702 
0.003234742631179094 
0.007096089723028605 
0.006824394079368834 
0.005949606071709011 
0 
0.004039388534700442 
-1.919059021123024e-21 
0 
0 
0 
0 
0 
0 
0 
0 
0 
0 
0 
0 
0 
0 
0 
0.0002608319751556962 
0 
5.997215257305414e-06 
0 
0 
0 
-9.976811485054453e-06 
0 
0 
0 
0 
0 
0 
1.138608805975538e-05 
0 
0 
0.0006660178953749901 
1.288744146222279e-06 
1.032125907850688e-05 
0.003565624838272413 
2.261841151195497e-05 
-0.0001712760510591459 
-0.0002392241722203286 
0.005677751758806111 
0.01914562101614969 
0.02568115200351682 
0.04344512488549787 
-0.1783219256700701 
0 
-0.04734722962366568 
-0.0007355450760776410 
0.1342464204042783 
0.1939414603292126 
0.1555876844828344 
0.07777730850388550 
0.007545476989494182 
0.004855997107827506 
0.01568362265083257 
0.008407345645136994 
0.006206904365122280 
0.005832869738727043 
0.005292989502557672 
0 
0.003587603295086172 
1.588186776101813e-22 
0 
0 
0 
0 
0 
0 
0 
0 
0 
0 
0 
0 
0 
0 
0 
0.0002352164055973356 
0 
5.712443165002434e-06 
0 
0 
0 
-9.503072031121960e-06 
0 
0 
0 
0 
0 
0 
1.084543044104261e-05 
0 
0 
0.0006351691122762269 
1.227549349768058e-06 
9.031101693693577e-06 
0.002637475618247124 
2.088427567716696e-05 
-0.0004898168671842966 
-0.0007326931354118181 
0.01924168020318055 
0.03570885607955665 
0.03775931877621599 
0.04028995161153067 
-0.1913971191401878 
0 
-0.05958852630605619 
0.01410887564531722 
0.1989305629433138 
0.1745682826057932 
0.1431586162962102 
0.06628492470597197 
0.0007575272565053501 
-0.0009826780550558085 
0.01337688169549383 
0.01758017940316521 
0.004763731017387288 
0.004228853244484902 
0.003882106753433650 
0 
0.002657479289134031 
-1.747005453711994e-21 
0 
0 
0 
0 
0 
0 
0 
0 
0 
0 
0 
0 
0 
0 
0 
0.0001360067294467291 
0 
3.370511480540809e-06 
0 
0 
0 
-5.607095327886606e-06 
0 
0 
0 
0 
0 
0 
6.399126740882969e-06 
0 
0 
0.0003749317107459779 
7.242906505699848e-07 
0 
0.001396855526943201 
7.925762963526404e-06 
-0.0003575982835355985 
-0.001360211226359434 
0.03710419258043857 
0.05609295080990202 
0.05219331432474607 
0.03429347256765601 
-0.1923504756880311 
0 
-0.07782568767091290 
0.02607426935699447 
0.2612318750069917 
0.1533437519068965 
0.1308377407757715 
0.05399770510118478 
-0.006323515477043236 
-0.008617609127778115 
0.01145988914915467 
0.02915735216298250 
0.003312310115357649 
0.002216508647842533 
0.002047087502235391 
0 
0.001408462772289978 
-1.574951886300965e-21 
0 
0 
0 
0 
0 
0 
0 
0 
0 
0 
0 
0 
0 
