solver_type L2R_L2LOSS_SVC_DUAL
nr_class 2
label 0 1
nr_feature 2999
bias 1.000000000000000
w
0 
0 
0 
0 
0 
0 
0 
0 
0 
0 
0 
0 
0 
0 
0 
0 
0 
0 
0 
-0.005708521743297570 
0.001053647714496524 
0.01639078597070993 
-0.003761816301108770 
-0.001392943309648573 
-0.01523275386705782 
0.01339070401812355 
0.07078460892318736 
0.1450840973060985 
0.2394724830577512 
-0.1798102537488731 
0 
0.1509808721781129 
0.1401323127883986 
0.1444329842620221 
0.1035634706252798 
0.06214005046495277 
-0.01681687297653254 
0.02133581382203223 
-0.01370504208394541 
0.003906622536996754 
0 
0 
0.01562780103747154 
0 
0.006214065539832323 
0 
0 
0 
0 
0 
0 
0 
0 
0 
0 
0 
0 
0 
0 
0.009961499945609157 
0 
0 
0 
9.646787891426307e-06 
0 
0 
0 
0 
0 
0 
0 
9.548080028149670e-06 
0 
1.914520726036554e-05 
0 
-0.0001783891742647297 
0 
-0.0002001247676543488 
-0.0002184102794488424 
0.0001774282032307836 
0.002098938993839083 
0.01003072787712723 
-0.003956779467654519 
-0.008335625498517340 
-0.01956622489055093 
0.005130588595790560 
0.03871271020557903 
0.1162599334567066 
0.2100240363438520 
-0.3343326708347342 
0 
0.1899489306247190 
0.1513569985498640 
0.3043774007353119 
0.1484200007112465 
0.09268910594002133 
-0.01959944534137173 
0.02318870935987279 
-0.004866819991359618 
0.007385198852219010 
0.002962575415793162 
0 
0.01568028387327309 
0 
0.004805534645105406 
0 
0 
0 
0 
0 
0 
0 
0 
0 
0 
0 
0.0001333353995984084 
0 
0 
0.006007147240720533 
0 
0 
0 
1.735544477200798e-05 
0 
0 
0 
0 
0 
0 
0 
1.422266087526461e-05 
0 
3.147468298435496e-05 
0 
-0.0002657255408318368 
0 
-0.0002926544366266461 
-0.0002964850207417800 
0.004695759034083526 
0.003186758403155891 
0.005225513513614529 
-0.002794745243503348 
-0.01270210989833056 
-0.02067715058345309 
0.01006859821114462 
0.01261119053076093 
0.08522168294410043 
0.1445951708788429 
-0.4246460410010960 
0 
0.2207564613221694 
0.1591893070848880 
0.4281298100668585 
0.1811225653994216 
0.1174133140374817 
-0.01558012349332686 
0.02426898491868194 
0.002370325769364790 
0.009877493162833451 
0.005299148004379850 
0 
0.01503094452208098 
0 
0.003455267314418483 
0 
0 
0 
0 
0 
0 
0 
0 
0 
0 
0 
0.0002398824551683643 
0 
0 
0.002577575864460745 
0 
0 
0 
2.118783963090038e-05 
0 
0 
0 
0 
0 
0 
0 
9.150243360310084e-06 
0 
3.017269563559212e-05 
0 
-0.0001709562920036992 
1.721329827849037e-06 
-0.0001625748003791569 
-7.531177383279867e-05 
0.006416381283819376 
0.004233258828429345 
0.002835876523797082 
-0.003811217546706203 
-0.01537320721263401 
-0.01856221817518565 
0.03400463671975519 
-0.02027445729877301 
0.05337073014946287 
0.01154282530704509 
-0.3922519306488805 
0 
0.2350681740218748 
0.1656329749149038 
0.4789766224993264 
0.1892432114171873 
0.1299177258351409 
-0.009462441665577276 
0.02375257864699892 
0.006361229256083056 
0.01036642826735368 
0.006383714938553594 
0 
0.01297796079690155 
0 
0.002221527111811552 
0 
0 
0 
0 
0 
0 
0 
0 
0 
0 
0 
0.0002928528226814152 
0 
0 
0.0001975671454586346 
0 
0 
0 
1.920584145725886e-05 
0 
0 
0 
0 
0 
0 
0 
0 
0 
1.901641091517364e-05 
0 
0 
3.661464263552937e-05 
0.0001885913066212866 
-3.630896965370106e-05 
0.002099436105076491 
0.004446459992119105 
0.003863550597844785 
-0.009588441803244440 
-0.01129311954204133 
0.008821124287198908 
0.08255643545373830 
-0.03204843720119383 
0.02192358202602300 
-0.1590625796716469 
-0.2631226191449640 
0 
0.2217298164103945 
0.1500222735625910 
0.4346223697951114 
0.1671407720625802 
0.1244187401715537 
0.008430138339095868 
0.02110090574038502 
0.005500981503722910 
0.007842701310537234 
0.005671294858057441 
0 
0.009073843839371832 
0 
0.001162577601324610 
0 
0 
0 
0 
0 
0 
0 
0 
0 
0 
0 
0.0002654581581091092 
0 
0 
0 
0 
0 
0 
9.471319240238795e-06 
0 
0 
0 
0 
0 
0 
0 
0 
4.102645279930453e-06 
1.744975359507104e-05 
0 
4.687481039030284e-06 
4.830262272025359e-05 
0.0003158061979425140 
0.002642637440809735 
-0.002882881751701572 
0.006545597471422441 
0.007416247665193724 
-0.006433557298541747 
0.01082062586155426 
0.05918078599669103 
0.1386203764867201 
-0.01010220475538510 
-0.01620109574787258 
-0.2890448183980954 
-0.1550475677458378 
0 
0.1833504767692195 
0.1327417460403400 
0.3261799342511032 
0.1251451208220067 
0.09659778659733854 
0.04608199198095607 
0.01737925428396102 
0.005011809445072965 
0.003861080463696735 
0.003596516279020948 
0 
0.004356322450741993 
0 
0.0003366823469976496 
0 
0 
0 
0 
0 
0 
0 
0 
0 
0 
0 
0.0001309101174229930 
0 
0 
0 
0 
0 
2.551689351224012e-05 
0 
0 
0 
0 
0 
0 
0 
0 
0 
8.845303223530058e-06 
9.879946379932990e-06 
0 
1.010620912014931e-05 
0 
0.0001317231429935498 
0.007279441352343647 
-0.003628256067821353 
0.008079798718348321 
0.005912146234007601 
0.005217429368816389 
0.04501380542708322 
0.1222049482506527 
0.1690093737563886 
0.02359335466687021 
-0.06455955564630816 
-0.3311267071902633 
-0.1130122414989408 
0 
0.1349353002137401 
0.1154302252788138 
0.2120876111542277 
0.07729034432336520 
0.06140522766392013 
0.07939884147624046 
0.01303402887929373 
0.005354812168566431 
0.0005163323472240655 
0.001222867162399719 
0 
0.0006023255141312441 
0 
0 
0 
0 
0 
0 
0 
0 
0 
0 
0 
0 
0 
0 
0 
0 
0 
0 
0 
9.171867090574909e-05 
0 
0 
0 
0 
0 
0 
0 
0 
0 
1.004327564526974e-05 
0 
0 
1.147495358354616e-05 
0 
-0.0001138997989764552 
0.01201584685062935 
0.008284875477202806 
0.007721341346224886 
0.002948574361862923 
0.02200717882090179 
0.06851977266493675 
0.1762745090877903 
0.1504123406066677 
0.04280437269142535 
-0.1109599719001270 
-0.3257756845050137 
-0.1201338293243605 
0 
0.09832845340162516 
0.1105526492350504 
0.1456728214613610 
0.04017044582715300 
0.03699642487045896 
0.09495311421746280 
0.009095327595302480 
0.005541919648266978 
-7.269863940785097e-05 
0 
0 
0 
0 
0 
0 
0 
0 
0 
0 
0 
0 
0 
0 
0 
0 
0 
0 
0 
0.0001862535314153556 
0 
0 
0.0001494957130771461 
0 
0 
0 
0 
0 
0 
0 
0 
7.801861225382423e-05 
4.151877023289614e-06 
7.839029478566486e-05 
0 
-0.001535690476441706 
0 
-0.002038533677835133 
0.01056928569835840 
0.03056625019927046 
0.005793242331395080 
0.0006310289997306384 
0.02976075789139420 
0.07423596677571813 
0.2114426532379286 
0.1113299694585106 
0.05823125861331865 
-0.1204131018478214 
-0.3088094789795041 
-0.1129178663327504 
0 
0.07136355720560090 
0.1052666629288483 
0.09821732505143440 
0.01745026688380526 
0.02069264730612122 
0.08191818058568041 
0.005065174281964860 
0.003950355627016009 
-0.001819236076232761 
0 
0 
0 
0 
0 
0 
0 
0 
0 
0 
0 
0 
0 
-4.309951689425297e-05 
0 
0 
0 
0 
0 
0.0001801029915501140 
0 
0 
0.0001735738143600957 
0 
0 
0 
0 
0 
0 
0 
0 
0.0001558951399834199 
0 
0.0001566378281530347 
0 
-0.003754739162279771 
7.166552714779656e-05 
-0.004002957332095858 
0.007245640576994972 
0.05226850012748281 
0.004492842202734217 
0.001097404969812895 
0.02916613155310956 
0.07054894024862084 
0.2236982659896153 
0.05744316104361286 
0.07361158778470414 
-0.09647732408451642 
-0.2737394445876901 
-0.07384953667619228 
0 
0.05861105580448206 
0.08600695955614760 
0.05871530423736673 
0.01656341800171983 
0.01449479575892236 
0.05221320860276590 
0.001861781465520574 
0.001904463159004021 
-0.004334944279265508 
6.797102303277621e-06 
0 
0 
0 
0 
0 
0 
0 
0 
0 
0 
0 
0 
-5.243528553658690e-05 
0 
0 
0 
0 
0 
4.654300088519313e-05 
0 
0 
0.0001386787690882620 
0 
0 
0 
-1.150608934793334e-06 
0 
0 
0 
0 
0.0001314281849112860 
0 
0.0001320543119226727 
8.911867460519538e-06 
-0.005521909593206459 
0.0006325459858296081 
-0.002901932584100562 
0.004125464332756256 
0.06696007854131965 
0.006960794874482593 
0.01073569530369375 
0.02095612950832692 
0.07902015056824324 
0.2276386767440982 
-0.01265281070469002 
0.07876923066343773 
-0.06245141658127296 
-0.2128315995359161 
-0.03378860155509499 
0 
0.03752705130487978 
0.04907724048006221 
0.03413381642261546 
0.008887932304651371 
0.008404195563006608 
0.01878028515883043 
0.0001772264240827319 
0.0001791152995544959 
-0.006151475308337768 
-9.132646404708485e-06 
0 
0.0002435815199780045 
0 
0 
0 
0 
0 
0 
0 
0 
0 
0 
0 
0 
0 
0 
0 
0 
3.326844383273895e-06 
0 
0 
1.953637159530946e-05 
0 
0 
0 
-2.809409206876288e-06 
0 
0 
0 
0 
0 
0 
1.960491320880851e-05 
1.122748803574054e-05 
-0.005908098522148602 
0.001179880032231737 
-0.001744586266707258 
0.005178830010297917 
0.06821071383103038 
0.01980275900461523 
0.03139340524003127 
0.01232304231912210 
0.1053267730327024 
0.2216356263966575 
-0.07836411810705891 
0.05794715745054181 
-0.05206850213650088 
-0.1513995866233948 
-0.02511212329136267 
0 
0.01769112313138239 
0.01228472893599989 
0.01268153849059989 
0.003104030708025777 
0.004156855241751180 
-0.0006007797717918204 
0.0001232339807242368 
-0.0003075551556612174 
-0.006566611634107427 
0.0001598801965007819 
0 
0.0002757049938569213 
-4.235164736271502e-22 
0 
0 
0 
0 
0 
0 
0 
0 
0 
0 
0 
0 
0 
0 
0 
3.850510481978609e-06 
0 
0 
0 
7.473901094220065e-05 
0 
0 
-2.059006102178838e-06 
0 
0 
0 
0 
0 
0 
0.0001738861677839995 
6.370642350133530e-06 
-0.004617560634631685 
0.001333974239689680 
-0.0004008448294379958 
0.009882377474390717 
0.05495146103591982 
0.03658539280224459 
0.05342426945415658 
0.002844986559139025 
0.1221409500034251 
0.1844735881025683 
-0.1005512058936672 
0.02189090403349134 
-0.07167834864271946 
-0.1195820241521751 
0.0001359302500054808 
0 
0.01454996789552659 
0.01081434879298432 
0.01258244908782782 
0.001214587965525060 
0.004967754659356089 
-9.254527216130597e-06 
0.0002470075989965919 
-0.002100229146396381 
-0.005136965133078127 
0.0001255328331233380 
0 
0.0001859663672393640 
0 
9.169345081887354e-05 
6.565199310327450e-06 
0 
0 
0 
0 
0 
0 
0 
0 
0 
0 
0.001060189395406938 
0 
0 
0 
0 
-2.117582368135751e-22 
3.176373552203626e-22 
0.0001672947365197589 
0 
0 
0 
0 
0 
0 
0 
0 
3.115712931390412e-05 
0.0003040414186409305 
0 
-0.002443182774407436 
0.0009481415327619935 
-0.0004584260244054563 
0.01427370147112295 
0.02935679799094995 
0.04517857918166038 
0.06383957433077997 
-0.007887371330345004 
0.1049633682419691 
0.1175201956728088 
-0.06771802205900859 
-0.001769070609003128 
-0.1126991108849445 
-0.1339501271137297 
0.03352124677202457 
0 
0.02828149308213195 
0.01848922647526459 
0.02075754822279554 
0.02095626242979288 
0.007320197333366724 
0.002122753888849689 
0.0003461768506342259 
-0.003407856415772781 
-0.002717441820844711 
1.323061211974987e-05 
0 
0.0001332549611587171 
0 
0.0001302457506797743 
9.096544583587886e-06 
0 
0 
0 
0 
0 
0 
0 
0 
0 
0 
0.002572983002343715 
0 
0 
1.055339328218139e-05 
0 
6.352747104407253e-22 
-4.235164736271502e-22 
0.0002333626716157732 
0 
0 
2.308242210643301e-05 
0 
0 
0 
0 
0 
0.0001015355475039432 
0.0002875736226960113 
0 
-0.0002928364251062660 
0.0003469343327839618 
-0.005601760780193131 
0.01310530252515804 
0.001549631915833913 
0.03769079245974687 
0.06261269687770539 
-0.01109027832204589 
0.06577151147240600 
0.05014209409348949 
-0.01677049621583055 
-0.002373266485226425 
-0.1590306278087530 
-0.1812747561275270 
0.06858918231124998 
0 
0.05513104708102516 
0.04837270460909512 
0.03500646128896589 
0.07601211963695899 
0.01033870339465318 
0.006134861949234131 
0.0005827113554400253 
-0.002823039511329323 
-0.0003671585139894410 
-1.658079898442715e-05 
0 
0.0001224955500357727 
0 
0.0001194567204269067 
3.714464815382028e-06 
0 
0 
0 
0 
1.051052151638953e-05 
0 
0 
-0.0002952021705085807 
0 
0 
0.004158042174100841 
0 
0 
1.439882830854313e-05 
0 
0 
0 
0.0002361183270241961 
0 
0 
2.039293107941573e-05 
0 
0 
0 
0 
0.0009237466789612570 
0.0001407207331016146 
0.001161936881251233 
0 
0.0001836075284971806 
0 
-0.01416571548984702 
0.009474783151992064 
-0.01649491757900778 
0.02176903945213247 
0.05259795230139956 
0.001647306474049676 
0.03447916234924232 
0.01628545459729153 
0.006835159656738641 
0.01633078787045063 
-0.1924003970317380 
-0.2193195823601778 
0.09157289291096725 
0 
0.08075273520703873 
0.07857749853438514 
0.04788940967643000 
0.1267609845720254 
0.01225252998249419 
0.01251816329162752 
0.0005806905717496253 
-0.001358964431099336 
7.237304691962646e-05 
2.049779464293322e-05 
0 
8.141847911517926e-05 
0 
7.912116997113477e-05 
0 
0 
0 
0 
0 
1.456680275456425e-05 
0 
0 
-0.0007057176888720783 
0 
0 
0.005538468162307287 
0 
0 
1.056991665614144e-05 
0 
0 
0 
0.0001387372135389779 
0 
0 
-9.080330941106077e-06 
0 
0 
0 
0 
0.002564368968205727 
9.837815169650769e-05 
0.002713954507569576 
0 
0.0001124020453311142 
0 
-0.02027562658437637 
0.005238318756148564 
-0.02128459490618619 
0.008570224611786040 
0.03853337841180075 
0.02237523725453981 
0.02150217941683661 
0.01859568958371106 
0.03713077056437319 
0.04808031679850902 
-0.1806034065899323 
-0.2068370957373856 
0.06355038681693671 
0 
0.08833945169136331 
0.08169621065662469 
0.04800648976752785 
0.1388662662557649 
0.01078849115905418 
0.01450938235961453 
0.0002993514787498718 
0.0001534701801493578 
1.915919767744176e-05 
-6.527824597191374e-05 
0 
4.239408247011941e-05 
6.776263578034403e-21 
2.903390922332230e-05 
0 
0 
0 
0 
0 
1.018368153388470e-05 
0 
0 
-0.0006081164712476813 
0 
0 
0.006437362218592029 
0 
0 
5.005051462743562e-05 
0 
0 
0.0002479563139898077 
0 
0 
0 
-3.513726130418354e-05 
0 
0 
0 
0 
0.003973846230239277 
0 
0.003992777728574514 
2.212584737732326e-05 
0 
0 
-0.02071145723504786 
0.002077120285326483 
-0.01302320964620330 
0.007110376769588559 
0.02589920040376170 
0.03331926137706368 
0.01734321983120926 
0.04509134514875447 
0.07091968902458859 
0.07181355365931132 
-0.09992100623302276 
-0.1385877509344197 
-0.01150307695001039 
0 
0.07665211857015931 
0.05864550655889157 
0.03591760463909936 
0.1044114239631211 
0.006521223833133054 
0.01161614352060130 
-5.056563125776236e-05 
0.001253419138193055 
4.706592457989153e-05 
-0.0008203534748147389 
0 
2.139324601497823e-05 
-8.898376197223611e-06 
0 
-7.235707284922292e-06 
0 
0 
0 
0 
0 
0 
0 
0 
0 
0 
0.006581247277653204 
0 
0 
4.955990904478999e-05 
0 
-4.235164736271502e-22 
0.001224726079627100 
0 
0 
0 
-3.633719186376376e-05 
0 
0 
0 
0 
0.004449452550195707 
0 
0.004600545492708976 
0.0001006137628255043 
-4.806722849551790e-05 
2.805267799465894e-05 
-0.01342202033051490 
0.0006193301442270739 
0.002957855542094522 
0.01561097576264612 
0.01909552789955742 
0.03256631462758083 
0.01850438942065510 
0.07532556981613554 
0.08847682001511577 
0.06423796279690000 
0.02200257626545187 
-0.04841556783989565 
-0.09288892777903512 
0 
0.05349707169758928 
0.02757253247883106 
0.01943735129193720 
0.04993086127516909 
0.001629791448253910 
0.006802619137471602 
-0.0003965644818372949 
0.001022916507654325 
5.445379295590180e-05 
-0.001833440595350720 
4.700944139905385e-06 
1.036652559040559e-05 
-3.228297824922808e-05 
0 
1.039050938375165e-06 
0 
0 
0 
0 
0 
0 
0 
0 
0 
0 
0.005901947258338638 
0 
0 
0 
0 
6.776263578034403e-21 
0.002450207344920909 
0 
0 
0 
4.997844111849071e-05 
0 
0 
0 
0 
0.003635725120673211 
0 
0.005018481639688839 
0.0001537870914707625 
-0.0001589221048798516 
4.798168310581009e-05 
-0.003267964194756938 
0.001358583850861861 
0.01773521189222136 
0.02312943828525465 
0.01935334838911050 
0.02948950964888401 
0.03019239254981308 
0.09556366789621706 
0.08504528795638004 
0.04741284319647210 
0.1245366108591076 
0.01108390761458969 
-0.1243904098412980 
0 
0.03324065437365923 
0.004455462079889548 
0.005927509758857035 
0.01329256898249604 
0.0002925670780405675 
0.003440083454400788 
-9.545812198577585e-06 
6.869505194829550e-05 
-7.524493402373123e-05 
-0.001721563606837637 
1.946156678342388e-05 
0 
0 
0 
8.159216799974888e-05 
0 
0 
0 
0 
0 
0 
0 
0 
0 
0 
0.004649502604928146 
0 
0 
0 
0 
6.776263578034403e-21 
0.003795006163784417 
0 
0 
0 
0.0002798979288055346 
0 
0 
0 
0 
0.002088424996966862 
0 
0.004820539802497377 
0.0001257427874566444 
0.0001397568136923050 
1.930809458152646e-05 
0.004869083053671510 
0.006283453670130874 
0.02562897372613764 
0.02406887121211272 
0.02141870517887460 
0.02140197480672226 
0.05083911848892787 
0.1018926452636604 
0.05817352458352972 
0.03669988867768517 
0.1511049084091276 
0.02405708010198986 
-0.09649389211368362 
0 
0.01973057259725291 
-0.01197773522071231 
-0.007049392375141600 
0.007293844099988588 
0.0001237374449794578 
-0.004532736904395616 
7.823490846926467e-05 
-0.004829481585996759 
-0.0003002179099664265 
-0.001249849012317434 
4.502830972138050e-05 
0 
0 
0 
9.319656796562742e-05 
0 
0 
0 
0 
0 
0 
0 
-2.096992258903541e-05 
0 
0 
0.003101327226254833 
0 
0 
0 
0 
0 
0.005129728590130818 
0 
0 
0 
0.0003333310512426496 
0 
0 
0 
0 
0.0005109684139235254 
0.0001320430001453053 
0.004165421388783457 
0 
0.0004755321630187554 
0 
0.005174443767694609 
0.01049328513142206 
0.02238438090651415 
0.01474996446856595 
0.02449940457569691 
0.01230672884812328 
0.06224458158328735 
0.1036861222698495 
0.03621838664786104 
0.04149593783405198 
0.1167218372783909 
0.003936367608868859 
-0.05521508354772908 
0 
0.0007978851864960956 
-0.02956523430173116 
-0.02650805975723466 
-0.006112330648591830 
-0.002856723322920370 
-0.01445367420706900 
-0.0001852772907013939 
-0.009893534400652037 
-0.0002867912375683584 
-0.0001178682674412459 
3.474239750246944e-05 
0 
-2.710505431213761e-20 
0 
3.999647264144538e-05 
0 
0 
0 
0 
1.364302114081221e-05 
0 
0 
-0.006927956543892960 
0 
0 
0.001534835031151810 
0 
0 
0.0002182373942534997 
0 
0 
0.006324980677873302 
0 
0 
0 
-3.849184543437808e-05 
0 
0 
0 
0 
0 
0.001185425073755359 
0.003592152376472695 
0 
0.001354408479719581 
-4.599505455833278e-07 
0.004427058561348678 
0.01174706751833664 
0.01738076727739596 
0.006366256922851353 
0.02687072493859959 
0.006946348817799924 
0.06123122114301341 
0.1048990335479471 
0.03947927376224107 
0.05547875923440288 
0.06154117900463325 
-0.006410503444110174 
-0.02912373994527384 
0 
-0.007869575743188363 
-0.03477050434828490 
-0.04205262247461655 
-0.02284520643213520 
-0.01285855115272177 
-0.02016907418738919 
-0.003390866239520944 
-0.009454643003728462 
2.039695989132481e-05 
-0.001083026855423554 
6.404188681948582e-06 
9.890981508862657e-06 
-0.0001654684404331235 
0 
-7.911718583680960e-06 
0 
0 
0 
8.745518940560223e-06 
0.0001139635299911790 
0 
0 
-0.01499095658200799 
0 
0 
0.0002274399284521850 
0 
0 
0.0009179675599048705 
0 
0 
0.007259915132467177 
0.0009126118732543842 
0 
0 
-0.0004645498394820415 
0 
0 
0 
0 
0 
0.002410645624386239 
0.003465991107505698 
0 
0.002754285317185249 
-3.812970995149930e-07 
0.002971530465807713 
0.008700765593302543 
0.01107482039756905 
0.001854538040612069 
0.02571621176857074 
0.005921863435770540 
0.04731238274356212 
0.1038523620867697 
0.07667934793919780 
0.06243572921014302 
0.02636714439427274 
0.005933942742035006 
-0.05285275638187020 
0 
0.01614919909373680 
-0.03865926187628004 
-0.04792738321590657 
-0.03885731183864588 
-0.03170357658606875 
-0.02119492336556586 
-0.01073701852277622 
-0.003879920440508448 
6.581652109599435e-05 
-0.005919458666110420 
1.957040151428622e-05 
1.742701322308974e-05 
-0.0004218585607913233 
0 
-8.488299398039324e-05 
0 
0 
0 
7.249999022307764e-06 
0.0001935157701819297 
0 
0 
-0.02024308280208070 
0 
0 
0 
0 
0 
0.001495698598972934 
0 
-4.065758146820642e-20 
0.007881559524676101 
0.002410134086493735 
0 
0 
-0.0009136931016528309 
0 
0 
0 
0 
0 
0.003425823865149569 
0.003493624669826280 
0 
0.003914178125391889 
2.481099271969383e-06 
0.001336873004484765 
0.004025180294885531 
0.004166242123424532 
-0.003471494046609585 
0.02110484767302158 
0.008435759817351434 
0.02929102286747767 
0.09120649438530104 
0.1246922991746511 
0.06252211121323381 
0.02167158788774145 
0.02077014276390141 
-0.1079438162550451 
0 
0.05034400993053727 
-0.03786778899638529 
-0.06117260517577799 
-0.06853167520575673 
-0.04936416102259963 
-0.01952507771917167 
-0.01733937848746478 
0.0001811689048761566 
-0.0005520276249003409 
-0.006990374665475569 
3.445950282328631e-05 
2.672861728900458e-05 
-0.0001326324885096784 
9.244653578956592e-06 
-0.0002182928701867435 
0 
0 
0 
0 
0.0001797208805669172 
0 
0 
-0.01910633705840501 
0 
0 
0 
0 
0 
0.001516248122952852 
0 
2.710505431213761e-20 
0.008169309064777473 
0.004013330585800569 
0 
0 
-0.001122046451389210 
0 
0 
0 
0 
0 
0.003849079009156974 
0.003585391256733908 
0 
0.004397768669256886 
3.314050004870741e-06 
1.428389494417258e-05 
5.764150016756543e-05 
-0.0007849728861114628 
-0.006758460057126740 
0.01423223691346538 
0.01271087082131247 
0.01662822071179795 
0.06456586961007597 
0.1551680373839228 
0.06080384020430910 
0.03597720644367800 
0.02356077646055043 
-0.1630173924498403 
0 
0.06817130027741888 
-0.02159052981992128 
-0.08993962392120863 
-0.1118811932538380 
-0.06048035926455645 
-0.01768640324428743 
-0.02020296524101940 
0.0001887987838680597 
-0.005683084641153520 
-0.002391544073793973 
3.091484305519678e-05 
4.432489888958530e-05 
2.795208725939191e-20 
8.793488971460829e-06 
-0.0005963033802129862 
0 
0 
0 
0 
0 
0 
0 
-0.01275731348735663 
0 
0 
0 
0 
0 
0.0009597336167348252 
0 
1.084202172485504e-19 
0.008102758301860207 
0.005442470230190027 
0 
0 
0.002568179569200870 
0 
0 
0 
0 
0.0001541342370105302 
0.003425823865149543 
0.005390747121247228 
0.001096773141604200 
0.007796790730980573 
0 
3.526851854488071e-06 
2.795341039088510e-05 
0.0009574376802428468 
-0.0008919150467070563 
0.009822498308607056 
0.01797375165109244 
0.01932203982172764 
0.03283367011268143 
0.1457124036375357 
0.06477881564370369 
0.05051635285159875 
0.01501444585133050 
-0.1881708829408564 
0 
0.04894587876473070 
0.01694972409934242 
-0.1053040827604961 
-0.1484728097725614 
-0.05422549522821528 
-0.01796134372037404 
-0.02250522324029602 
-0.001884144516318276 
-0.009504214262419530 
0.003142753921321013 
0.0004527432550168216 
4.003214733656656e-05 
-4.108109794183357e-20 
0 
0.0007871813869624038 
0 
0 
0 
0 
0 
0 
0 
-0.004427325590040141 
0 
0 
0 
0 
0 
0.0002546997688601919 
0 
2.168404344971009e-19 
0.007661501785013180 
0.006417821878677265 
0 
0 
0.006981692956500767 
0 
0 
0 
0 
0.0001398163779270658 
0.002410645624386202 
0.006521195634844027 
0.002455060701444263 
0.01107581376137256 
-2.444992062209481e-06 
-0.001718664496693102 
3.377056539731403e-05 
0.002475289688030369 
0.006071087031443870 
0.005723099007949721 
0.01941068188741576 
0.02924283767712646 
0.003991042408698921 
0.1127813807437086 
0.06522136652809593 
0.04472923378012070 
0.004792437367676822 
-0.1755151702953308 
0 
0.0003149266512125184 
0.04707138864231675 
-0.07548359184281137 
-0.1660738569021968 
-0.03247252492268445 
-0.02078730581419032 
-0.02249353613167533 
-0.004535649567700891 
-0.009958266208638204 
0.003876469683538816 
0.0007084720347978293 
6.265905615086762e-05 
-0.003627239593235450 
0 
0.002345791277369284 
0 
0 
0 
4.648918148896629e-05 
0 
0 
0 
0 
0 
0 
0 
0 
0 
0 
0 
-1.626303258728257e-19 
0.006825463720966950 
0.006660677577607066 
0 
0 
0.009583888138054907 
0 
0 
0 
0 
4.977079973159741e-05 
0.001185425073755319 
0.006644990069574914 
0.003650773705176939 
0.01212526738551527 
-6.709173181717834e-06 
-0.008942724168061751 
5.710684763167853e-05 
0.003282811831453336 
0.01250541197501330 
0.002541885523287857 
0.01640989908767284 
0.03858878514570426 
-0.009171021984937760 
0.07038651192430980 
0.06151751876413261 
0.02423157584389639 
0.005738388256886199 
-0.1253068188555271 
0 
-0.05097852120927523 
0.04344933583625042 
-0.01510163131244770 
-0.1439288497069500 
-0.008450551337251009 
-0.01993821461529846 
-0.02211865913679823 
-0.006091952046963310 
-0.009604870010054702 
0.003109399429407236 
0.0003137920898863415 
0.0001442770500379935 
-0.009875380122104257 
0 
0.003288520095543007 
0 
0 
0 
0.0001275684999173067 
0 
0 
0 
0 
0 
0 
5.323183441424680e-05 
0 
0 
0 
0 
6.776263578034403e-21 
0.005628096476014395 
0.006058469415976536 
0 
0 
0.008246624482952963 
0 
0 
0 
0 
0 
0.0001320430001452751 
0.003997416795350006 
0.004259823178458961 
0.009381765989973279 
-4.478207400232858e-06 
-0.01620585385694045 
0.0003870101971983617 
0.001226172206617610 
0.01406773958356500 
-0.002493707672892404 
0.009751242636712952 
0.03749515673811728 
-0.004173258777677484 
0.04279257263317685 
0.06178572828159108 
0.01270298543413189 
0.02545048970141396 
-0.05902469469241422 
0 
-0.08976416682964156 
0.004461009866204443 
0.04654730356076439 
-0.07626465828199178 
-0.003005725423472799 
-0.01279345186850440 
-0.02842152759255201 
-0.008292693568222365 
-0.01286442163993041 
0.001354177864038582 
-4.299991421982953e-06 
9.630136764460063e-05 
-0.01645251984116069 
0 
-0.0005721229337577212 
0 
0 
0 
8.514882309536886e-05 
0 
0 
0 
-0.001842091177026991 
0 
0 
0.0002055931910784467 
0 
0 
0 
0 
0 
0.004215100843429046 
0.004847024768529344 
0 
0 
0.004516431689376860 
0 
0 
0 
0 
0 
0 
-0.003312115942800379 
0.003939927044253447 
0.005055490280721850 
0 
-0.01941601914741354 
0.0003335537273050196 
-0.005697516776222208 
0.01140863505143679 
-0.01363731608222852 
0.003465631157705700 
0.02464845261918131 
0.01132973212069344 
0.03372929897737206 
0.06457378640829896 
0.01270678283099787 
0.05694687616976362 
-0.001448567825722058 
0 
-0.1025254636727597 
-0.05417486437961604 
0.08840185469310739 
0.01593370922064405 
-0.01482138889197416 
-0.003087939527537782 
-0.03978586327626784 
-0.01584781388742164 
-0.01917041882521041 
0.0005246889866222822 
0.0002314021421137295 
4.022126890874094e-05 
-0.02040625255110240 
0 
-0.01150091218462642 
0 
0 
0 
0 
0.001148162046562107 
0 
0 
-0.007306503132402562 
0 
0 
0.0002423868840814389 
0 
0 
4.701612814482311e-05 
0 
0 
0.002746311687870008 
0.003306040166767995 
0 
0 
0.0007010535431617806 
0 
0 
0 
0 
0 
0 
-0.008004581103452124 
0.002892655478816184 
0.0007847277712748677 
0 
-0.01620036939671362 
8.295377918052101e-05 
-0.01042207404688562 
0.006347794084935798 
-0.01896874790908088 
-0.0008367458860289666 
0.01144567704186017 
0.02068768363842937 
0.03626557609824557 
0.06529447449959137 
0.01700002133185174 
0.07573739423189420 
0.01929114730082199 
0 
-0.07799344490942944 
-0.1226393279604719 
0.1019803740869521 
0.08745977331068606 
-0.01664210153941820 
-0.002421426707353900 
-0.04651005086403508 
-0.02527590868693091 
-0.02579646260686582 
-0.001944993604227168 
0.0004361524818745954 
9.656284165500248e-05 
-0.01948976725153592 
0 
-0.01843640236906807 
0 
0 
0 
0 
0.002893272660945190 
0 
0 
-0.01079652685744655 
0 
0 
0.0002001893062313024 
0 
0 
5.170873002633967e-05 
0 
0 
0.001381563873996402 
0.001715212142195020 
0 
-2.290235484748565e-05 
-3.633719186376405e-05 
0 
0 
0 
0 
0 
0 
-0.005818933728120829 
0.001541438963897831 
0 
0 
-0.009075470702897477 
2.356510078705114e-05 
-0.008157376828771560 
0.003160852768211619 
-0.01339669382757370 
-0.0003098036019873188 
0.005482345001858784 
0.02012090672895265 
0.03392659204083320 
0.05395093692884096 
0.03251358526350810 
0.07559149555654140 
0.05375330298499895 
0 
-0.01351854514352986 
-0.1912962752353759 
0.07969093235425637 
0.1115505389281163 
0.01359419635950870 
-0.007689067746289583 
-0.03008116945118965 
-0.03040168224844029 
-0.02628308091745538 
-0.007970580066505920 
0.002877081236106734 
0.0001195705722081646 
-0.01247744443064465 
4.235164736271502e-22 
-0.01433816656834034 
0 
0 
0 
0 
0.004519100271734093 
0 
0 
-0.007417582232653932 
0 
0 
0.0001155768503361156 
0 
0 
1.293426597821253e-05 
0 
-5.082197683525802e-21 
0.0002806922664673451 
0.0003542372263129241 
0 
-1.702223813942336e-05 
-3.513726130418321e-05 
0 
0 
0 
0 
1.038121503762344e-05 
0 
-0.0008343152834897618 
0.0003103624364274880 
-6.642311011996772e-06 
-4.454069626128304e-05 
-0.001805326222413981 
9.247254740602545e-06 
-0.002683644572959902 
0.0004539173596077776 
-0.003784135568650331 
-6.040830225839576e-05 
0.005008827520995915 
0.01256937845309541 
0.02285699593005063 
0.03576164472632241 
0.04086283396916528 
0.05886733926578665 
0.07760825047306102 
0 
0.04234850851469453 
-0.2323634151953847 
0.04099666847860423 
0.1073572746305994 
0.06771080184547791 
-0.004025084639426320 
0.001973605088821647 
-0.02495501404139013 
-0.01722887162399346 
-0.008424327731951153 
0.008738684669594888 
0.001131235337003527 
-0.003751319014862597 
3.388131789017201e-21 
-0.004217510732198024 
0 
0 
0 
0.0008468986644743950 
0.005475065601124000 
0 
0 
-0.001512489328117062 
0 
0 
2.512590920395856e-05 
0 
0 
0 
0 
-3.388131789017201e-21 
-3.388131789017201e-21 
0 
0 
0 
-9.080330941105625e-06 
0 
0 
0 
0 
1.067344763251624e-05 
9.837815169651056e-05 
0.0002178113029007805 
0 
9.539757574055448e-05 
-0.0001302023335217639 
0 
-1.469725508244490e-05 
-0.0003353530961509682 
-0.0001865619942934968 
-0.0002907946908432753 
5.702465961716161e-05 
0.002846518255744148 
0.0007029425458400284 
0.003788607278561594 
0.01197148685390756 
0.03489531253204067 
0.03831502415759146 
0.07125895642047417 
0 
0.03545809378589129 
-0.2305901448403228 
0.02365492539652471 
0.1049110192947593 
0.1126986558896099 
0.01801787580948346 
0.02630399525641241 
-0.01146217143262637 
-0.004075976267039234 
-0.001247395883697074 
0.01428065199790405 
0.002976366700048233 
-0.0008424404789418001 
-1.694065894508601e-20 
-0.0003683091112360403 
0 
0 
0 
0.002475672623619995 
0.005264963947581775 
0 
0 
0 
0 
0 
0 
0 
0 
0 
0 
2.117582368135751e-21 
4.235164736271502e-22 
0 
0 
0 
0.0002840368913139544 
0 
0 
0 
0 
4.577578240803312e-06 
0.0001407207331016143 
4.599385932853879e-06 
0 
0.0004787187070126740 
-0.0001884075244312359 
0 
-8.426794410194828e-06 
4.317410689622196e-05 
0.0002270573793903742 
0.0001053963823223082 
0.0005678968395047034 
0.001254587253102830 
-0.009688305484060270 
-0.009455292846341166 
-0.01427156001272198 
0.01859954401211160 
0.02414963944959857 
0.05435406905848515 
0 
-0.02587355885995306 
-0.2129849188284294 
0.05437526317761203 
0.1094209030569793 
0.1304333937410416 
0.05292308661028358 
0.03504689844821669 
0.001050968561323476 
0.01053963927252350 
0.008891665311364861 
0.01617397325353361 
0.003990063093621766 
-0.0001756316181671665 
3.388131789017201e-21 
0 
0 
0 
0 
0.003582388561726199 
0.004024695058732423 
0 
0 
0 
0 
0 
0 
0 
0 
0 
0 
0 
0 
0 
0 
-8.243443943017827e-05 
0.0003214966692907317 
0 
-8.526753732307060e-06 
0 
0 
0 
0.0001015355475039410 
-0.0002374208464617366 
0 
0.0004758784269531385 
-0.0001712461079472833 
0 
2.514071137938052e-05 
-0.0001644714482642288 
0.0002098010988001897 
-0.001189796447369022 
0.0004861754818882691 
-0.0007771555623993570 
-0.01023342104340182 
-0.01587043870849132 
-0.02486555525669913 
0.006749070380376267 
0.01608611658210840 
0.04219456369011728 
0 
-0.09001184570774166 
-0.2172167944506679 
0.1147168294564271 
0.1047783365964022 
0.1210118098531807 
0.08960147237429696 
0.03454790615437892 
0.005536855231746140 
0.02433212961368655 
0.01487091839400722 
0.01567815711494410 
0.003914319948373173 
0.001251861386730947 
3.388131789017201e-21 
-0.0002824550531825997 
0 
0 
0 
0.003256080669826846 
0.002297968004238475 
0 
0 
-0.0002090395250269535 
0 
0 
0 
0 
0 
3.716194620519855e-06 
0 
0 
0 
0 
0 
-0.0003614745847272196 
0.0001076361936093765 
0 
-8.652812656572820e-06 
0 
0 
0 
6.505988712747467e-06 
-0.0003819897071819469 
0 
0.0001560817148088076 
-9.516280320873098e-05 
-0.0003535601197490615 
0 
-0.0003116000190505577 
9.002798581332826e-05 
-0.003025017117594299 
9.447643110224626e-05 
-0.004953333503732580 
0.01139063245811092 
-0.01418673815838429 
-0.006230294845099968 
0.01161209798990456 
0.02156951345401234 
0.04446505641984353 
0 
-0.1251241503383985 
-0.2413150928829296 
0.1507945822552490 
0.07955185864636004 
0.09007399548807504 
0.1171691242558813 
0.03256493895236520 
0.004216140025604328 
0.02902760715985810 
0.01734079192086290 
0.01503398609346154 
0.003162233513815228 
0.003165957362312202 
0 
-0.002164534119117954 
0 
0 
0 
0.001809429526479352 
0.0006352886757964108 
0 
0 
-0.0003526401509804802 
0 
0 
0 
0 
0 
3.464506268282202e-06 
0 
0 
0 
0 
0 
-8.178409828712205e-05 
-2.059006102178880e-06 
0 
0 
0 
0 
0 
0 
0.001564460925740671 
8.873176976669646e-05 
-9.251545769378892e-05 
-1.396991670230593e-05 
-0.0007117045876895279 
0 
-1.347837702407019e-05 
0.0002483845964111783 
-0.003648373673571657 
4.812969967129724e-06 
-0.006077992329433884 
0.03556837988715526 
-0.004385107199131867 
0.02264234811797027 
0.03179909066365075 
0.03237521505894767 
0.05529943859127160 
0 
-0.1313597530898773 
-0.2423032589848231 
0.1195415002696922 
0.04315658190286108 
0.05110834226784262 
0.1324394749865764 
0.03661733722627649 
0.005864878989961935 
0.01907391036594135 
0.02071127784789655 
0.01503971916184717 
0.002506913463738911 
0.003363330258577953 
0 
-0.009324668176352791 
0 
0 
0 
0.0002656245813625847 
0 
0 
0 
-7.903184857134795e-05 
0 
0 
0 
0 
0 
0 
0 
0 
2.212209908825756e-05 
2.795617729076711e-05 
0 
0 
-2.809409206876273e-06 
0 
0 
0 
0 
0 
0 
0.005760938222268166 
0.0001482548485755652 
-0.0002368417082804024 
0 
-0.0004204136190248960 
-0.0003350427657125044 
4.046509068701838e-05 
0.0001650639674919705 
-0.002348104970170243 
5.550388848000449e-05 
-0.0009295045315705845 
0.05886446793938856 
0.009934669122503308 
0.05409248312352814 
0.07285555831718286 
0.04365480425027581 
0.07014855452657973 
0 
-0.1101815312255715 
-0.2046783296095092 
0.02572750137370919 
0.003816364265257003 
0.02463683004974810 
0.1350751966998806 
0.04831458568192363 
0.01194161474747086 
0.003753756511955741 
0.02201863885742080 
0.01604803470272443 
0.003590104421867417 
0.001977837360878189 
0 
-0.01823823287930652 
0 
0 
0 
0 
0 
0 
0 
-3.273717414463350e-05 
0 
0 
0 
0 
0 
0 
0 
-6.352747104407253e-22 
0.0001570335339006966 
0.0001984466888430949 
0 
0 
-1.150608934793301e-06 
0 
0 
0 
0 
0 
0 
0.009398536251402686 
0.0001241265367347938 
0 
0 
1.082532187551676e-05 
-0.0003556307760859032 
7.365924896277663e-05 
4.918634092841013e-06 
0.0005317957693630107 
8.371213577603740e-05 
0.006060733257614514 
0.07081176709050344 
0.01910540060213833 
0.07240221294543399 
0.1228168834324388 
0.05103968159118492 
0.07923835413484684 
0 
-0.05304305898993854 
-0.1371605517769738 
-0.07691787575136758 
-0.02529800704861906 
0.02985778504290318 
0.1331747106405523 
0.05965405137740215 
0.02166992001487636 
0.0007325604895492126 
0.02684476159265627 
0.01809468280495026 
0.006640249544114072 
0.0004359511687098426 
0 
-0.02579981996213356 
0 
0 
0 
0 
0 
0 
0 
0 
0 
0 
1.413334601057938e-05 
0 
0 
0 
0 
0 
0.0001965470968684611 
0.0002483808369232412 
0 
-0.002358152640029305 
1.439046712264835e-05 
0 
-0.0001187623588780825 
0 
0 
0 
-0.0001534171369397492 
0.009763762865252993 
4.780061918751233e-05 
1.610804096621548e-05 
0 
0 
0 
1.848193663198375e-05 
-0.002318845001032298 
0.002860009550456141 
2.102948906935060e-06 
0.004817128579190955 
0.06395856294118324 
0.01915642659150072 
0.07695183154847640 
0.1467007306884499 
0.06119853552925628 
0.07327807689042004 
0 
0.03477593362489044 
-0.06876032371541269 
-0.1348081134982606 
-0.03831904529348316 
0.07678265288394949 
0.1365094007492093 
0.05989300918859166 
0.02833537958481737 
0.01216134636293270 
0.02680096002632326 
0.01065902996578559 
0.008521439321701968 
-0.009118563072048040 
-6.776263578034403e-21 
-0.03003480570260341 
0 
0 
0 
0 
0 
0 
0 
-2.243241153951668e-05 
0 
0 
1.768964920049160e-05 
0 
0 
0 
0 
0 
0.0001692821495449535 
0.0002139255305728600 
0 
-0.007856559336396948 
2.497097920607837e-05 
0 
-0.0001205181331942473 
0 
0 
0 
-0.0003494638481246792 
0.006611320543666567 
0 
3.269512061627960e-05 
-6.647621243947811e-06 
0 
0 
-1.905120025363782e-05 
-0.004564082861185169 
0.002632383169145085 
3.766433538475441e-06 
-0.0002744558526025419 
0.03938926957583518 
0.01925486483160484 
0.08311240817591534 
0.1369310712127909 
0.07585188656420470 
0.06957779115440449 
0 
0.1132017721921139 
-0.01131081815721499 
-0.1340542103093516 
-0.01889151101854087 
0.1448817017275606 
0.1702367744027462 
0.05987001030408456 
0.03549207706138149 
0.03341454845054284 
0.02187624550885546 
-0.0001730750440689516 
0.009409895581177680 
-0.01981034783437806 
8.131516293641283e-20 
-0.03054585632951682 
0 
0 
0 
0.0001263981487942024 
8.337817058887191e-05 
0 
0 
-1.908254864803061e-05 
0 
0 
1.523574699940485e-05 
0 
0 
0 
0 
0 
0.0001038580534835762 
0.0001312476788336052 
0 
-0.01011292810957744 
1.211375976858133e-05 
0 
0 
0 
0 
0 
1.004327564526980e-05 
0.002698214277300399 
-4.420088123492419e-05 
-0.001315638077094079 
-5.341953303781102e-06 
0 
-0.0006405666050452552 
0 
-0.004571606442290038 
0.001375506416024904 
7.007599765660980e-05 
-0.002794023491539275 
0.01095338277226153 
0.02970662730899458 
0.09575045442207603 
0.1071058606954608 
0.09107955383390966 
0.06899056711715446 
0 
0.1442198964136288 
0.01668027984015415 
-0.1002419952577114 
0.02325892110083464 
0.2009633849013552 
0.2076295971172836 
0.06121017441847878 
0.04001107205125108 
0.05107016217346085 
0.01519348938737991 
-0.01306025957218340 
0.008016912103498284 
-0.02736905848323915 
-1.626303258728257e-19 
-0.02737949970274841 
0 
0 
0 
0.0001015721238868318 
0.0002016894877485611 
0 
0 
0 
0 
0 
9.347441717747197e-06 
0 
0 
0 
0 
0 
2.889417023773184e-05 
3.651419074713200e-05 
0 
-0.006388509725225599 
0 
0 
0 
0 
0 
0 
8.845303223529938e-06 
3.615404495698585e-05 
-0.0001131552767520031 
-0.004695333580680140 
-4.751362333337054e-07 
-4.195003274738535e-05 
-0.006950449597072340 
-3.344243520055929e-06 
-0.002315472453464681 
0.0001036754777233602 
1.689915185561979e-05 
-0.0009099366862272478 
-0.004349740144291350 
0.04532697962933734 
0.1117038266203524 
0.07507111486633010 
0.1026108251404685 
0.07027409927819180 
0 
0.1182880265726662 
-0.01005125968253728 
-0.07008780835615006 
0.08590810623513830 
0.2099548312983706 
0.2325856059019308 
0.07227094421355451 
0.03794367220562520 
0.05606078740178305 
0.01020958464263511 
-0.02709858987994995 
0.002697229755597039 
-0.03138323547281603 
0 
-0.02077529316721819 
0 
0 
0 
9.034260243557563e-06 
0.0001776317547327987 
0 
0 
0 
0 
0 
0 
0 
0 
0 
0 
0 
0 
0 
0 
-0.0009523406579262514 
0 
0 
0 
0 
0 
0 
4.102645279930245e-06 
0 
0 
-0.006507628923892504 
0 
-4.916019462584024e-05 
-0.01188400286545119 
-8.261471146382575e-06 
1.607569044031514e-05 
-0.0001376656996284155 
6.216503445940535e-06 
0.003066650655615154 
-0.008498705927957820 
0.04847817678513536 
0.1521620135586235 
0.05740839889553184 
0.1205718302117709 
0.07514512582363919 
0 
0.08615911592857184 
-0.08730645521431991 
-0.05531114950599110 
0.1491231899603271 
0.1824426094147463 
0.2416859103275236 
0.09025716981632954 
0.02979981193338490 
0.04944099557053172 
0.005985941090589751 
-0.03024973500839264 
-0.003145913591512094 
-0.02695946241965798 
-3.252606517456513e-19 
-0.01222425251243813 
0 
0 
0 
0 
8.238949662931042e-05 
0 
0 
0 
0 
0 
0 
0 
0 
0 
0 
0 
0 
0 
0 
0 
0 
0 
-0.001987203682782984 
0 
0 
0 
-0.003513578345049811 
-0.003401347860748061 
0 
-0.004773115968810058 
0 
-2.097501637369077e-05 
-0.009972146778206724 
-4.718952318813596e-06 
6.858961254534150e-06 
-0.0001026629166991165 
-0.001948886293267137 
0.004214400896972202 
-0.003973523492135461 
0.03807015062300498 
0.1947678040475024 
0.05218473101374316 
0.1411122435130146 
0.07881166924106353 
0 
0.08196029372928443 
-0.1733168426156971 
-0.03346254359650926 
0.1961748043173413 
0.1400330730707251 
0.2310989467071704 
0.1030829874115165 
0.01620892419867680 
0.03315252919071405 
-0.002228174658988637 
-0.02504251142306543 
-0.007919680966534717 
-0.01452251697533387 
-2.168404344971009e-19 
-0.004062449857279871 
0 
0 
0 
0 
0 
0 
0 
0 
0 
0 
0 
0 
0 
0 
0 
0 
0 
0 
0 
0 
0 
0 
-0.004343060349840217 
0 
0 
0 
-0.008745747305841111 
-0.008375491353287832 
1.228342604619420e-05 
-0.001398680781377403 
0 
0 
-0.003537297549050706 
1.050437664086784e-05 
0 
-4.583303465397798e-06 
-0.004432019786574083 
0.002764274553043190 
0.006234348495425657 
0.03106280457358151 
0.2112356378353022 
0.05311382947755725 
0.1506216209869679 
0.07375940962208180 
0 
0.08652933933002735 
-0.2078233350040939 
0.03285406573029989 
0.2180881416794065 
0.1130675639372792 
0.2116249368344782 
0.1032688927879983 
0.007785072825449888 
0.01767221919974588 
-0.009351032131398809 
-0.01364218471519053 
-0.008016632206121030 
-0.003088364626590998 
-1.084202172485504e-19 
0 
0 
0 
0 
0 
0 
0 
0 
0 
0 
0 
0 
0 
0 
0 
0 
0 
0 
0 
0 
-0.0002908739826793098 
0 
0 
-0.005656377028061625 
0 
0 
0 
-0.01032257271818166 
-0.009550637404608268 
-0.0006454430770835803 
0 
-5.828990903784026e-07 
0 
0 
1.119070911241934e-05 
-0.0001652859908076092 
0.0001314405399081719 
-0.006253016811761176 
0.0008445840795961669 
0.01024289063329652 
0.03571210965787474 
0.1853002569140118 
0.05010131449518807 
0.1397193215360348 
0.06022439797263979 
0 
0.06973305938263642 
-0.1630849813752082 
0.1668298580280047 
0.2170265688285099 
0.1197329918973159 
0.1972750820539829 
0.08701201254137603 
0.008423577359329960 
0.01121892646814987 
-0.01594951179858048 
-0.003081809102362616 
-0.001271153520429258 
-2.168404344971009e-19 
2.168404344971009e-19 
0 
0 
0 
0 
1.108326772147747e-05 
0 
0 
0 
0 
0 
0 
0 
0 
0 
0 
0 
0 
0 
0 
0 
-0.0004068678874569613 
0 
0 
-0.005562087769232123 
0 
0 
0 
-0.006569227785920804 
-0.006023729172498279 
-0.002726073461925464 
0 
-4.794605241170611e-07 
0 
0 
6.851691961761801e-06 
-0.0001928336559422154 
0.0001081157119557188 
-0.007068629445304545 
8.829395268519010e-05 
0.01030402426059625 
0.05027331477975863 
0.1142159643107289 
0.04856672781443180 
0.1111196301507506 
0.03636107546653423 
0 
0.02889555777200657 
-0.05872400698905401 
0.3542107982543491 
0.2029092548863449 
0.1501073673389833 
0.1876867179296900 
0.06043185175727334 
0.01611029183823651 
0.01461994136000268 
-0.02099253836367064 
0.005917724702719202 
0.009207131456303919 
0 
0 
0 
0 
0 
0 
9.116482489652881e-06 
0 
0 
0 
0 
0 
0 
0 
0 
0 
0 
