solver_type L2R_L2LOSS_SVC_DUAL
nr_class 5
label 0 1 2 3 4
nr_feature 1799
bias 1.000000000000000
w
0 0 0 0 0 
0 0 0 0 0 
0 0 0 0 0 
0 0 0 0 0 
0 0 0 0 0 
0 0 0 0 0 
0 0 0 0 0 
0 0 0 0 0 
0 0 0 0 0 
0 0 0 0 0 
0 0 0 0 0 
0 0 0 0 0 
0 0 0 0 0 
0 0 0 0 0 
0 0 0 0 0 
0 0 0 0 0 
0 0 0 0 0 
0 0 0 0 0 
0 0 0 0 0 
0 0 0 0 0 
0 0 0 0 0 
0.04085288019023760 -0.01365571045254530 -0.02376770305533270 -0.004906543497148420 -0.001490792884777620 
0.04179719702516830 -0.01397136303843960 -0.02431709497135600 -0.005019958551462860 -0.001525252653879200 
0.06388998321078430 -0.02135622035659900 -0.03717040615234230 -0.007673363057782780 -0.002331456972817280 
0.03281009095480570 0.04053880988047960 -0.04995663258693080 -0.03157858535668880 -0.01521238846074530 
-0.01005805704585680 0.09723513909165630 -0.02945397751330310 -0.08218869488561140 -0.04161820420132250 
0.0005059990686498190 0.01938315372013200 -0.03572256409886250 0.01809088338994870 -0.07205129866311910 
-0.02697486190467350 -0.1346095868827050 0.09777743418886780 0.07188912957676170 -0.1006526561447980 
0.01062162751128270 0.01533562214423440 -0.08597812485156110 0.006549187518560910 -0.09991832102398830 
0.08359326817474020 0.4976479759692250 -0.3794788675252850 -0.3412325685274340 -0.1678215045513480 
-0.2065684609039890 -0.9386131139916220 -0.1925898157124350 0.4193680972965090 0.3610967478249080 
-0.1613529617608050 -0.1950520678366670 0.1734325030659180 -0.03931139788385320 -0.01777202117344830 
-0.1743212139409580 0.08007201421561000 -0.1358879784602540 0.1091881068284580 -0.1279385891471290 
-0.03481944039145440 0.1435462068017360 -0.1203626962275300 -0.06378538151487280 -0.01564364164031980 
0.006980033288207690 0.02031735705737700 -0.07804530888810670 -0.005421782829225770 0.007052056243149220 
0.01566311072137200 0.01667837099046270 -0.05411215496349490 0.03036971032434500 -0.04228821065941800 
0.05763526813399260 -0.01926548458340260 -0.03353148987646060 -0.006922154539714030 -0.002103211505438450 
0.05144993982692600 -0.01719794241692840 -0.02993294196949500 -0.006179279563912020 -0.001877498082364010 
0.04546014631596090 -0.01519576079655340 -0.02644815380111030 -0.005459888855995400 -0.001658920065199680 
0 0 0 0 0 
0 0 0 0 0 
0 0 0 0 0 
0 0 0 0 0 
0 0 0 0 0 
0 0 0 0 0 
0 0 0 0 0 
0 0 0 0 0 
0 0 0 0 0 
0 0 0 0 0 
0 0 0 0 0 
0 0 0 0 0 
0 0 0 0 0 
0 0 0 0 0 
0 0 0 0 0 
0 0 0 0 0 
0 0 0 0 0 
0 0 0 0 0 
0 0 0 0 0 
0 0 0 0 0 
0 0 0 0 0 
0 0 0 0 0 
0 0 0 0 0 
0 0 0 0 0 
0 0 0 0 0 
0 0 0 0 0 
0 0 0 0 0 
0 0 0 0 0 
0 0 0 0 0 
0 0 0 0 0 
0 0 0 0 0 
0 0 0 0 0 
0 0 0 0 0 
0 0 0 0 0 
0 0 0 0 0 
0 0 0 0 0 
0 0 0 0 0 
0 0 0 0 0 
0 0 0 0 0 
0 0 0 0 0 
0 0 0 0 0 
-0.01886399424478490 -0.01272125537723900 0.03067001727530860 -0.02483415524300090 0.01700949016910150 
0.03728822394842110 0.009574802759856820 -0.03490200963771390 -0.01630445929726460 -0.007357637618365710 
0.01545830901996100 -0.01066405824948740 -0.02376541073182860 0.02466402461546700 -0.03283087243458740 
0.05092550415082050 -0.03886163758409110 -0.04730277685385260 0.04808901132528320 -0.03043202398361750 
0.03278859938162580 0.01765846916251050 -0.03120086968464670 -0.03716322102613960 -0.005685615421461520 
0.03717319626428890 0.02614639965252040 -0.04855610169926650 -0.05785734127164350 0.01932185127678140 
-0.001035690657932760 -0.02732567920400700 0.03000143178121840 -0.09171588803745280 0.06049085612703740 
-0.1360655573926510 -0.09039551198767990 0.2095484577790080 -0.1880060846906070 0.09777983699449720 
-0.2302460155850020 -0.1266560246582490 0.2052152272078270 -0.02098895758882370 -0.03464001352745620 
0.08066697153256770 0.6450862849677180 -0.4962664844144950 -0.4322272153284950 -0.1289098077658330 
-0.05696610463405250 -0.8268311415632650 -0.2966016206184680 0.7406776608315560 -0.006654272093482450 
-0.04376937825789480 -0.1862437985879820 0.02483771788792780 -0.01226399281388710 0.03983153157123700 
-0.1923228294642240 0.07131394766240030 -0.02643951796500770 0.07594398613425640 -0.1908602623829330 
-0.02503751946318170 0.06448947189215370 -0.09489556007133320 -0.01290318183182510 -0.03814945156444250 
-0.02684549313735090 0.04573277964535830 -0.06099742766483230 -0.01184279174588140 -0.03645650284194190 
-0.03189100238515480 0.06907819582616900 -0.03334192450926010 -0.04446133172723780 -0.03806394957562250 
0.008064078099072330 0.008751591986177030 -0.01729375467316680 -0.002205773266141630 -0.03942307520758630 
0.04207622985905940 0.01548713215234590 -0.04219010691033090 -0.02091085342040020 -0.009576633072016770 
0.04378900009067860 -0.02952664100898630 -0.03752640339550570 0.03169715175431800 -0.02107901513019820 
0 0 0 0 0 
0 0 0 0 0 
0 0 0 0 0 
0 0 0 0 0 
0 0 0 0 0 
0 0 0 0 0 
0 0 0 0 0 
0 0 0 0 0 
0 0 0 0 0 
0 0 0 0 0 
0 0 0 0 0 
0 0 0 0 0 
0 0 0 0 0 
0 0 0 0 0 
0 0 0 0 0 
0 0 0 0 0 
0 0 0 0 0 
0 0 0 0 0 
0 0 0 0 0 
0 0 0 0 0 
0 0 0 0 0 
0 0 0 0 0 
0 0 0 0 0 
0 0 0 0 0 
0 0 0 0 0 
0 0 0 0 0 
0 0 0 0 0 
0 0 0 0 0 
0 0 0 0 0 
0 0 0 0 0 
0 0 0 0 0 
0 0 0 0 0 
0 0 0 0 0 
0 0 0 0 0 
0 0 0 0 0 
0 0 0 0 0 
0 0 0 0 0 
0 0 0 0 0 
0 0 0 0 0 
0 0 0 0 0 
-0.006515895025795060 -0.003217467115202330 0.01130491099563090 -0.003068639063481180 -0.001652889774114090 
-0.03008715009669200 -0.02070267793652960 0.04866766593486690 -0.04154259386458370 0.02977104853085940 
0.01628057440555080 0.02549136969602050 -0.02180095054386220 -0.03269055309372740 -0.01071671190608340 
-0.02853720292279210 -0.01609792488276140 0.02034096494556030 0.02741094452553650 -0.06202413439419480 
-0.02672057031351690 -0.08816672129175120 0.07124433612362470 0.04392791772307340 -0.06166487234759260 
-0.05231785906169140 -0.03945046270805570 0.08295050407071080 -0.07239084949454900 -0.002593916150427330 
-0.02778142999109840 -0.06963100500303030 0.1250521167663310 -0.1263997980007400 0.02877239108352230 
0.03438059536284820 -0.1163634441817570 0.08295224107850370 -0.1646262925164800 0.1076294629930870 
-0.06923434866948510 -0.1016576232042950 0.1768113557993230 -0.3847949309131410 0.2521950427465600 
-0.2396780175861800 -0.2101004497993760 0.2465726289639020 0.01495137597941840 -0.04467520821445830 
0.07883070793653900 0.6978801835823760 -0.5449813731060160 -0.4574081120340200 -0.1131619305328120 
0.02401860917750880 -0.6066818665037740 -0.3452039443193110 0.8305155184105660 -0.2404404858145540 
0.01779964660229510 -0.1578417119983200 -0.06917942577627710 0.03551415730646330 0.04104846613446290 
-0.1533962851957410 0.08657568797678650 -0.03222851035368350 0.06946143233323450 -0.2006336551709920 
-0.02885563763335090 0.02489351516209920 -0.08334043739592130 0.03477602475074610 -0.05108107916609950 
-0.05340001411194050 0.07959148281730300 -0.06445238824447790 0.001873916821603630 -0.06948126333158850 
-0.06688479345918670 0.1298284153969090 -0.04496528003424260 -0.07329292871243430 -0.04538283826842630 
-0.02750632049103540 0.03994896782178590 -0.02409998792065560 0.01349398555469420 -0.06332425534890670 
0.02138218871524200 0.04054172699390600 -0.04102043062769940 -0.02815785313474210 -0.01375672764392870 
0.02956436861250490 -0.03283553267599670 -0.03577687534008120 0.05342000099318400 -0.03111029645954250 
0 0 0 0 0 
0 0 0 0 0 
0 0 0 0 0 
0 0 0 0 0 
0 0 0 0 0 
0 0 0 0 0 
0 0 0 0 0 
0 0 0 0 0 
0 0 0 0 0 
0 0 0 0 0 
0 0 0 0 0 
0 0 0 0 0 
0 0 0 0 0 
0 0 0 0 0 
0 0 0 0 0 
0 0 0 0 0 
0 0 0 0 0 
0 0 0 0 0 
0 0 0 0 0 
0 0 0 0 0 
0 0 0 0 0 
0 0 0 0 0 
0 0 0 0 0 
0 0 0 0 0 
0 0 0 0 0 
0 0 0 0 0 
0 0 0 0 0 
0 0 0 0 0 
0 0 0 0 0 
0 0 0 0 0 
0 0 0 0 0 
0 0 0 0 0 
0 0 0 0 0 
0 0 0 0 0 
0 0 0 0 0 
0 0 0 0 0 
0 0 0 0 0 
0 0 0 0 0 
0 0 0 0 0 
0 0 0 0 0 
-0.03092816310833410 -0.01984174662423050 0.04531697919790620 0.003517135470425430 -0.01584500148685640 
-0.02147164540771700 -0.04627654784739150 0.04300523396303130 -0.01647591886383160 0.01247792833024150 
-0.02743028753376230 0.01132443762646990 0.02971750841020820 -0.07250984495999470 0.01255619246998350 
-0.07826281359874230 -0.02459429733995790 0.08774452195487190 -0.02459805377136110 -0.04866905792250330 
-0.1519722820786490 -0.1196030447622150 0.2565285600232350 -0.08187076969083000 -0.03499569610487260 
-0.2561760247355810 -0.1282727968107590 0.3238124370577600 -0.1386833340457400 -0.03674604232850060 
-0.2130655702189730 -0.1583794289676970 0.4373528904207100 -0.2527843802706790 -0.04760918904561130 
0.1082836537699660 -0.2428754665746690 0.1044217789555930 -0.1977867491960380 0.07799839523316660 
0.1889805301222090 -0.1864865022269490 -0.01661439702999650 -0.4605464282628140 0.3179856555957810 
0.006480238660292330 -0.1937712230345350 0.004247164475461940 0.1053696838572760 -0.1566270810778040 
0.1040344191881110 0.5736410359790680 -0.4998318271049750 -0.3566569721112830 -0.1237304609452410 
0.04169138304249980 -0.2915360469403770 -0.2800302658356130 0.5498543103228240 -0.2246657636152230 
0.001402569657784120 -0.09259938481188340 -0.09609137711370950 0.1072111876864190 -0.03415397893722280 
-0.06597112052455340 0.1068772921067940 -0.1337696904298160 0.08668914664038520 -0.1427192418301580 
-0.04980546379903370 0.03851713775117220 -0.07873997893512720 0.06090047273525930 -0.04997006445128350 
-0.06699630379080960 0.1064045309593570 -0.07668271009680880 0.03440114284448290 -0.08328842203353000 
-0.08563416004605540 0.1818646117743590 -0.08021031722098420 -0.04078933532497270 -0.06927847408256210 
-0.04313941302634370 0.06210816119170350 -0.04691887555510040 0.03888490503752790 -0.06695016961444290 
-0.006636735390679080 0.04586007054556690 -0.02229370683668850 -0.02262087197518270 -0.01163294365952490 
0.004261404723402790 -0.01981238865955230 -0.01736114270166260 0.04512785206326620 -0.02421389392606260 
0 0 0 0 0 
0 0 0 0 0 
0 0 0 0 0 
0 0 0 0 0 
0 0 0 0 0 
0 0 0 0 0 
0 0 0 0 0 
0 0 0 0 0 
0 0 0 0 0 
0 0 0 0 0 
0 0 0 0 0 
0 0 0 0 0 
0 0 0 0 0 
0 0 0 0 0 
0 0 0 0 0 
0 0 0 0 0 
0 0 0 0 0 
0 0 0 0 0 
0 0 0 0 0 
0 0 0 0 0 
0 0 0 0 0 
0 0 0 0 0 
0 0 0 0 0 
0 0 0 0 0 
0 0 0 0 0 
0 0 0 0 0 
0 0 0 0 0 
0 0 0 0 0 
0 0 0 0 0 
0 0 0 0 0 
0 0 0 0 0 
0 0 0 0 0 
0 0 0 0 0 
0 0 0 0 0 
0 0 0 0 0 
0.004226352007200290 -0.001412723876801530 -0.002458839598253100 -0.0005075965234525630 -0.0001542269595573190 
0.01428311804338950 -0.004774354303828540 -0.008309742343225740 -0.001715441839803080 -0.0005212159008708570 
0 0 0 0 0 
0.009222479362608950 -0.003082757133497230 -0.005365525023050980 -0.001107645187645980 -0.0003365443647978420 
0.01607842972493180 -0.005374465149894990 -0.009354232590668940 -0.001931063720449110 -0.0005867299568771470 
-0.01952413014252270 -0.03388615755355360 0.02505828375368060 0.03045528757550640 -0.02660060764855270 
-0.02440424585103580 -0.08877327648369250 0.05607126405552980 0.03410183894164450 -0.04083756417651710 
0.01654295084885830 0.002509789189855590 -0.02268626437133190 -0.05680431698309520 0.007827923745322750 
-0.09074922138657810 0.003568151506811980 0.07059562011218120 -0.04568586927371670 -0.03240579631101140 
-0.2073273109043410 -0.03765113237162420 0.2586001311066840 -0.2163138759720920 0.02021595032800500 
-0.4945842921332000 -0.2094950103315970 0.6287797355029630 -0.1588570623129170 -0.2043454844563690 
-0.3434197258926590 -0.1359264701976470 0.5403234648058110 -0.3504868217178880 -0.1100873726641200 
0.07023011033757260 -0.2751185241380820 0.05799526614955300 -0.2098400942895070 0.1006759508394000 
0.3537475129353020 -0.2566722149994660 -0.1535745228053010 -0.4014132832831870 0.2670666437681340 
0.1841542618837900 -0.1183733382993730 -0.2010595618018290 0.1279019630744710 -0.2370178194533750 
0.1506837171093830 0.3009625809392740 -0.3697778021021750 -0.1736446948385850 -0.1365572008903370 
-0.001047024930498050 0.07291298523162770 -0.1625216855440070 0.06100855382081510 -0.08388086975360600 
-0.04625596316868190 -0.005977421298235130 -0.1036635496097160 0.1487067274385910 -0.1017121082954520 
-0.04513062666081540 0.07352178748523750 -0.1070030204566610 0.07610337889000450 -0.08845175670212880 
-0.05667310088174320 0.05583405337593800 -0.06039595747016930 0.04949717931703740 -0.04944077762508020 
-0.05857150283295210 0.08630002998864370 -0.05688905225265230 0.04163715791493340 -0.07321522128812660 
-0.08871767651429310 0.1787247703707850 -0.07890465504115330 -0.01246119547364520 -0.08352954425063460 
-0.04177515783307000 0.04937376375051050 -0.04241805411554300 0.04885695183940980 -0.05916241613050730 
-0.009334592795915090 0.02457716401454680 -0.007428605868013510 -0.01039260962226390 -0.005497913339753150 
-0.002378579964027960 -0.005442118286442400 -0.003664118269917950 0.01576665538275540 -0.008073811471845490 
0 0 0 0 0 
0 0 0 0 0 
0 0 0 0 0 
0 0 0 0 0 
0 0 0 0 0 
0 0 0 0 0 
0 0 0 0 0 
0 0 0 0 0 
0 0 0 0 0 
0 0 0 0 0 
0 0 0 0 0 
0 0 0 0 0 
0 0 0 0 0 
0 0 0 0 0 
0 0 0 0 0 
0 0 0 0 0 
0 0 0 0 0 
0 0 0 0 0 
0 0 0 0 0 
0 0 0 0 0 
0 0 0 0 0 
0 0 0 0 0 
0 0 0 0 0 
0 0 0 0 0 
0 0 0 0 0 
0 0 0 0 0 
0 0 0 0 0 
0 0 0 0 0 
0 0 0 0 0 
0 0 0 0 0 
0 0 0 0 0 
0 0 0 0 0 
0 0 0 0 0 
0 0 0 0 0 
0 0 0 0 0 
0.02901597019044240 -0.009699039225025170 -0.01688113445459390 -0.003484897984876680 -0.001058843383952350 
0.04546191920698150 -0.01940574421245370 -0.02985596967557150 0.004987782885356820 -0.007166459391790960 
0 0 0 0 0 
0.04316491815856140 -0.01442854509489360 -0.02511281829880840 -0.005184225628880960 -0.001575163184655190 
0.07431949043940710 -0.02804114878028690 -0.04582697041721830 -0.0009866593596806720 -0.006897161361974730 
0.01083628430657120 -0.06046770215262400 0.006261254251155150 0.02557924733671250 -0.01689411409720420 
0.01394345264859870 -0.1296591085331420 0.03635927142332010 0.08459875009066650 -0.08670770754261520 
0.1225309244690940 0.005706555614701520 -0.1389589758283470 0.0006888074807445790 -0.04630444312901120 
-0.03540114342936000 0.03605186147956550 -0.04787347927259110 0.0009036890712038160 -0.06607663126517830 
-0.2603113389272360 0.04228241366622120 0.2190042498678190 -0.2672798056970330 0.02845387205037610 
-0.5269830023647780 -0.2071686819138310 0.7018785923159130 -0.1050813841653600 -0.4003274065607280 
-0.3326678629970340 -0.004794578602631310 0.3521373478951820 -0.4086684905950950 -0.07594922939120940 
-0.06340442981550770 -0.1802563320622490 -0.02257799431192340 -0.3046820285522760 0.2669576601529670 
0.3180432230403880 -0.2301749452109420 -0.1580480834853960 -0.2743428061826750 0.1372267303570780 
0.1720588018508920 -0.06252099744224990 -0.2427384410243730 0.08517661378974980 -0.1949973842943890 
0.1644353847043060 0.04145570177107900 -0.2102374440994090 -0.009821477810008560 -0.1310217637858920 
-0.05248484443465480 0.2555813099427150 -0.1202206845459440 -0.1586233570760700 -0.02012412964258490 
-0.08226074437568630 0.06167748244150460 -0.1025068163624760 0.1256646951134570 -0.1035598665715160 
-0.04027696982878020 0.04722389634899960 -0.05024431788322090 0.04876805161951300 -0.05508084754699060 
-0.05005069224753110 0.06584259926406190 -0.05014290665018370 0.03816248874014760 -0.05639960800856980 
-0.03705690022973600 0.05617129873034720 -0.03575469429980080 0.02387101684538360 -0.04542593270282910 
-0.07239273810920230 0.1475819692033460 -0.06412144900952210 -0.01291255508045980 -0.06716482299114230 
-0.02676389090688760 0.02634115901430630 -0.02797641413679220 0.03962502887011080 -0.04091964771893660 
0 0 0 0 0 
0 0 0 0 0 
0 0 0 0 0 
0 0 0 0 0 
0 0 0 0 0 
0 0 0 0 0 
0 0 0 0 0 
0 0 0 0 0 
0 0 0 0 0 
0 0 0 0 0 
0 0 0 0 0 
0 0 0 0 0 
0 0 0 0 0 
0 0 0 0 0 
0 0 0 0 0 
0 0 0 0 0 
0 0 0 0 0 
0 0 0 0 0 
0 0 0 0 0 
0 0 0 0 0 
0 0 0 0 0 
0 0 0 0 0 
0 0 0 0 0 
0 0 0 0 0 
0 0 0 0 0 
0 0 0 0 0 
0 0 0 0 0 
0 0 0 0 0 
0 0 0 0 0 
0.02018175483536310 -0.006746065373423370 -0.01174149665406120 -0.002423884374550350 -0.0007364674502943690 
0 0 0 0 0 
0.02220736448361850 -0.007423156895921890 -0.01291997142503350 -0.002667165675675940 -0.0008103854809667240 
0.01390895397056220 -0.004649284144356750 -0.008092058289236860 -0.001670503703499140 -0.0005075620009521020 
0.01725946445265070 -0.005769244372339710 -0.01004134406422340 -0.002072909246057380 -0.0006298279749497960 
0.02469385405287490 -0.008254304698547420 -0.01436658046354120 -0.002965799925451010 -0.0009011218241733670 
0.02204014565962960 -0.007367261403805430 -0.01282268557063780 -0.002647082234077130 -0.0008042833742892330 
0.01205163273632730 -0.004028445641074510 -0.007011491646980680 -0.001447434304682830 -0.0004397851081638810 
0.08435501655179670 -0.02819697597542400 -0.04907671075563190 -0.01013126996154780 -0.003078261750092410 
0.03187663683546700 -0.02857053244529480 -0.03304479354120400 0.04063798253566840 -0.02460318176813850 
0.02564974935152630 -0.008573827565981670 -0.01492270858729980 -0.003080605585167340 -0.0009360041116200740 
0.05853947010904350 -0.04107164594660610 -0.004110146127935640 -0.02237986393435580 -0.009671501956801930 
0.1201490975232240 -0.07835740448578330 -0.05378252285542210 0.0008684600771948460 -0.02142336499517160 
-0.03064326864128660 -0.1060385816955200 0.1114630591755190 -0.01032599240720350 -0.03591102841994570 
0.1258904405895920 -0.1206900959189750 -0.09098374102067470 0.1134061818168930 -0.08748527682023110 
0.1778546520773970 -0.001431011246519850 -0.1836336313228100 0.001336483104220890 -0.08354870093444360 
0.1354886555590570 -0.001404372268595910 -0.2157019739627770 0.05619988387988770 -0.1645683175239730 
-0.4477205858411470 0.02937752452505120 0.3937715884802050 -0.2298154098163580 -0.09441075269845910 
-0.2024681229955930 -0.1059097224173370 0.2661452140575180 -0.06298918630691170 -0.3154843383247170 
-0.2211995040763040 0.1622041760828300 0.002455474038425580 -0.3681591382143830 -0.007039450672022400 
-0.1311444371723580 -0.01261494253009150 -0.1464170285543110 -0.3648711597104020 0.3619456062511500 
0.1787685822225800 -0.1163461579678460 -0.1177821074604350 -0.1628404042195630 0.02222292528410510 
0.04614739864256650 -0.05305951127758210 -0.1676386556840030 0.09103702007875370 -0.1116629948255810 
0.1015058018769020 -0.05761591008555200 -0.1002447795492560 0.06988222698679250 -0.08008642037292560 
-0.09335655723804070 0.2191175886324870 -0.1193679805816730 -0.04744162772271540 -0.07108791196133480 
-0.08044425379375680 0.08283583855320440 -0.08470606650103620 0.07879062436760940 -0.08348274677711000 
-0.03182453723593430 0.05533904102344130 -0.01992096535344220 -0.004494101229591390 -0.02811824184476550 
-0.04818686954345570 0.06796319885555460 -0.04726213206587340 0.03903140649203980 -0.06196509286647430 
-0.02595063693899340 0.05137105450279520 -0.02321755838116140 -0.002217427160935660 -0.02495036722302160 
-0.05130084974498400 0.1160822257144280 -0.04369938053363900 -0.02724131400733530 -0.04104062663022840 
-0.01197943583725680 0.01273908718795320 -0.01237857103618960 0.01624320816236720 -0.01777456040517030 
0 0 0 0 0 
0 0 0 0 0 
0 0 0 0 0 
0 0 0 0 0 
0 0 0 0 0 
0 0 0 0 0 
0 0 0 0 0 
0 0 0 0 0 
0 0 0 0 0 
0 0 0 0 0 
0 0 0 0 0 
0 0 0 0 0 
0 0 0 0 0 
0 0 0 0 0 
0 0 0 0 0 
0 0 0 0 0 
0 0 0 0 0 
0 0 0 0 0 
0 0 0 0 0 
0 0 0 0 0 
0 0 0 0 0 
0 0 0 0 0 
0 0 0 0 0 
0 0 0 0 0 
0 0 0 0 0 
0 0 0 0 0 
0 0 0 0 0 
0 0 0 0 0 
0 0 0 0 0 
0.04303818517281230 -0.01438618262375040 -0.02503908660697720 -0.005169004648029510 -0.001570538476861230 
0 0 0 0 0 
0.04391839848879460 -0.01468040761164740 -0.02555118388438330 -0.005274720693055610 -0.001602658996698320 
0.04340480927616720 -0.01450873243118200 -0.02525238399949620 -0.005213037213220450 -0.001583917230136990 
0.05496683688646000 -0.01837351994567950 -0.03197902940807790 -0.006601668592965600 -0.002005835792910580 
0.06683751665047490 -0.02234147924199890 -0.03888524484214840 -0.008027369946986090 -0.002439017611359120 
0.04440652032199770 -0.01484356992453080 -0.02583516716126300 -0.005333345470436440 -0.001620471414144900 
0.04850961141927390 -0.01621509192552320 -0.02822229507868070 -0.005826138018912840 -0.001770200368013760 
0.1409307812132250 -0.04710830504818870 -0.08199179454750990 -0.01692617521432520 -0.005142810125025990 
-0.008904864817261720 -0.02037405863717600 -0.01371762915753490 0.05902678780074770 -0.03022652204430820 
0.06603086127411860 -0.02207184213922380 -0.03841594266898580 -0.007930488413227130 -0.002409581349094620 
0.06987177921603460 -0.03918644555290230 -0.01860391849548740 -0.01969147604761320 -0.008097063201585760 
0.06256539545598180 -0.1591989956863480 0.08240997116374100 -0.04624085831835380 -0.03059779565747330 
-0.1155730071886210 -0.1485852440538420 0.2712418044460650 -0.04291939882177680 -0.07996867674321430 
0.2351360656450050 -0.1249823207618560 -0.1666764732098120 0.07576585499924060 -0.06593510055126360 
0.1953464917434040 -0.04056907970446400 -0.1425817690409440 -0.08131186555485350 -0.09113834446215900 
0.2200822180439620 -0.08662122265109810 -0.2232840136377680 0.06027965696696220 -0.2820020930173630 
-0.4965600278589770 0.01240592864930270 0.4322390413070540 -0.1062001567057560 -0.2538931708144660 
0.05041741775677810 -0.04637799399083680 -0.1218451279721450 -0.09468353540104980 -0.06992078453556170 
-0.1673427066771250 0.2190819490504480 -0.1871372136116730 -0.2351854950930500 0.001877511462472190 
-0.1175650257478350 0.1273982637632870 -0.2580333155218150 -0.2786399716367840 0.2760022342708180 
0.04914016542502860 -4.172144832151560e-05 -0.1154712048978610 -0.07016252008648680 -0.02558669687483180 
-0.04860958941765680 -0.05197507386581050 -0.08493232003967340 0.09259557683596150 -0.02569468036276370 
-0.005986766222783620 -0.03518746228755570 -0.02458442317686680 0.04960320868164100 -0.002659317820770170 
-0.1140203186508090 0.07929781069948200 -0.1245684786617830 0.2087899802461240 -0.1802963604917050 
-0.06391143634898030 0.08154378593981550 -0.06435016523795420 0.05455345155196190 -0.07545291842878950 
-0.02948027026962070 0.07761896565286690 -0.02346083150101240 -0.03282167172895570 -0.01736336814240070 
-0.04479882050443460 0.06032555406569980 -0.04437175522230510 0.04078527480337530 -0.05923827000451550 
-0.02141616127824050 0.05638687405064270 -0.01704329528026990 -0.02384354718393240 -0.01261374773942670 
-0.03145844379781750 0.08282732303006340 -0.02503509101085870 -0.03502405866678140 -0.01852847805847320 
-0.001853106734533660 0.004879067480161050 -0.001474729520953100 -0.002063144617173260 -0.001091447742662910 
0 0 0 0 0 
0 0 0 0 0 
0 0 0 0 0 
0 0 0 0 0 
0 0 0 0 0 
0 0 0 0 0 
0 0 0 0 0 
0 0 0 0 0 
0 0 0 0 0 
0 0 0 0 0 
0 0 0 0 0 
0 0 0 0 0 
0 0 0 0 0 
0 0 0 0 0 
0 0 0 0 0 
0 0 0 0 0 
0 0 0 0 0 
0 0 0 0 0 
0 0 0 0 0 
0 0 0 0 0 
0 0 0 0 0 
0 0 0 0 0 
0 0 0 0 0 
0 0 0 0 0 
0 0 0 0 0 
0 0 0 0 0 
0 0 0 0 0 
0 0 0 0 0 
0 0 0 0 0 
0.02401964878106780 -0.008028941102773860 -0.01397433613158630 -0.002884826014267160 -0.0008765188973439900 
0 0 0 0 0 
0.01604573065096160 -0.005363534975960510 -0.009335208671750870 -0.001927136471550030 -0.0005855367106094020 
0.07058946481142940 -0.02359562625636770 -0.04106808211955240 -0.008477989261096740 -0.002575932746751260 
0.09153713545617050 -0.03059771089881670 -0.05325517916795300 -0.01099386223513790 -0.003340349801422170 
0.08398946254486850 -0.02807478386436260 -0.04886403593204790 -0.01008736591788680 -0.003064922046502540 
0.01839717155906840 -0.006149540663634130 -0.01070324806079250 -0.002209551004940920 -0.0006713448925161990 
0.1022981223508840 -0.03419473809821000 -0.05951578894393160 -0.01228628641735690 -0.003733036990700390 
0.1530368350891870 -0.05115494180141700 -0.08903494774395140 -0.01838014564785710 -0.005584581155537820 
-0.004756925505537040 -0.01088370022132380 -0.007327875420240460 0.03153175687237910 -0.01614682722387040 
0.07589220349491160 -0.02536814911717810 -0.04415315024258630 -0.009114862790780780 -0.002769438934377640 
0.02524879465412760 -0.008439802223661400 -0.01468943807755760 -0.003032449821020190 -0.0009213725750621440 
-0.09926328619503910 -0.2210262731936960 0.3254115984528260 -0.09127905902598320 -0.07079053009226800 
-0.1712584460477680 -0.1713063594981390 0.3627917597134570 -0.06876216405172350 -0.09092922160939390 
0.3045028801371530 -0.1345098876132550 -0.1515656175913020 -0.04652859331097450 -0.04652809950551680 
0.2545147086866290 -0.08808461066522100 -0.1067698710692730 -0.1610786923554060 -0.1441687329967450 
0.05293490879219410 -0.1136087163856060 -0.02761687772290200 0.04124685635956410 -0.3444808986797590 
-0.2437926343927890 0.01922290253402510 0.1426811479316300 0.0004181343329120330 -0.2973754865712200 
-0.05087978048454470 -0.02616149901986640 -0.1104924385081120 -0.01192242448741650 -0.06020904630253930 
-0.1876320731250090 0.07696160075802010 -0.1201774795481270 -0.04028177620670200 -0.03859074936299230 
-0.07927940867122790 0.1243303645834330 -0.2747315258172630 -0.1337049747230960 0.1671185882529270 
0.005055288259152940 0.02489612286656060 -0.1632944307869950 -0.006841512004033910 0.01976879372902390 
0.01061334146029110 -0.03841687087464550 -0.09599868334526780 -0.04267357280005450 0.1091074205119010 
-0.01320003534971230 0.002204227640987610 -0.01755825552683870 -0.02623616804332080 0.04163746959494120 
-0.08776907238711120 -0.01061790535054510 -0.1064239801660940 0.2825552803108730 -0.1894914316100910 
-0.05044928099231850 0.06898619278558470 -0.04980918754091810 0.04427473374494250 -0.06611034314006460 
-0.03933123044346500 0.07500672452348500 -0.03562052635225280 0.001126434368020720 -0.03944120528557220 
-0.03423137185691980 0.03937185773171990 -0.03492250565077570 0.04174285203939180 -0.04909793371781880 
-0.01702238557819040 0.04481844804811620 -0.01354666412969510 -0.01895176490518180 -0.01002589001908140 
-0.01733706513437140 0.04564697171630140 -0.01379709073626470 -0.01930211139109690 -0.01021123082263870 
0 0 0 0 0 
0 0 0 0 0 
0 0 0 0 0 
0 0 0 0 0 
0 0 0 0 0 
0 0 0 0 0 
0 0 0 0 0 
0 0 0 0 0 
0 0 0 0 0 
0 0 0 0 0 
0 0 0 0 0 
0 0 0 0 0 
0 0 0 0 0 
0 0 0 0 0 
0 0 0 0 0 
0 0 0 0 0 
0 0 0 0 0 
0 0 0 0 0 
0 0 0 0 0 
0 0 0 0 0 
0 0 0 0 0 
0 0 0 0 0 
0 0 0 0 0 
0 0 0 0 0 
0 0 0 0 0 
0 0 0 0 0 
0 0 0 0 0 
0 0 0 0 0 
0 0 0 0 0 
0 0 0 0 0 
0 0 0 0 0 
0.004666224818085600 -0.001559758203718640 -0.002714752187587130 -0.0005604264602837370 -0.0001702786859869200 
0 0 0 0 0 
0.08339170619306460 -0.02787497450885600 -0.04851626864115070 -0.01001557373268060 -0.003043108874164380 
0.09407762361037670 -0.04199323092550690 -0.04004588465564050 -0.01882675829966190 -0.007128645798859500 
0.05919662516446710 -0.03252609459524960 -0.01669933465502100 -0.01620233577304320 -0.006624019980615370 
0 0 0 0 0 
0.1120056857265850 -0.04813680097943380 -0.05026614837718970 -0.02108763237741830 -0.007835727441325260 
0.1106090870628010 -0.03697280728595800 -0.06435100595816280 -0.01328445618341490 -0.004036318595337990 
-0.01718357781724720 -0.01504145596637540 0.03894385696637880 -0.01277240495946890 -0.006656433309342710 
0.04302535857892340 -0.03987858246992470 0.01047629730983900 -0.02336654393231780 -0.01050449114411180 
-0.05429609025165070 -0.03239579525906520 0.1019803621195980 -0.02955708457006800 -0.01573040293742030 
-0.1613547320928960 -0.1840459608508460 0.3548914954070110 -0.05954612297261180 -0.09566263258018390 
-0.07740318188430260 -0.1736572869240940 0.2583959363565940 -0.07131604899574050 -0.05986204014557500 
0.3280842080219050 -0.05956883245896620 -0.1874754694607480 -0.1576488490386770 -0.02366540077039320 
0.3054042579202540 -0.05666143582112260 -0.1679800161975220 -0.1442861482427480 -0.2054038974735640 
0.003009883357458650 -0.01655415116211480 -0.1034492311932700 0.08638409065313800 -0.2878629399632660 
-0.08094231572503480 0.02633300915901630 -0.05859064065621400 0.04009700420068640 -0.2568220479414530 
-0.2207483487301340 0.03852973596269720 -0.05415541219292820 0.2162219859848940 -0.2394654171582120 
-0.1048262930018600 -0.1181455794216390 -0.1027072274880600 0.1607298454992690 -0.03177879870421620 
-0.07229642707859600 -0.009307041067171170 -0.1475774056388990 -0.03047849367973530 0.1066314379098220 
-0.02485415758711430 -0.02498805997636780 -0.1461680389177400 -0.01272486453754580 0.1104339599265710 
0.05797089472106330 0.001063816511557430 -0.09721129213239280 -0.2368290515185220 0.2317261095206340 
-0.05482569892534810 0.05005675424788330 0.02814167892524390 -0.09553590599896600 0.02583879385827070 
-0.05881473938596170 -0.02532088104769180 -0.07407051288385750 0.2179852918667890 -0.1373587984171890 
-0.04283019389134900 0.05224017303632100 -0.04324426116293230 0.04754295395186140 -0.05973330774021940 
-0.04538971099140060 0.05165704370817120 -0.04638917752450970 0.05621309449302450 -0.06541516422767340 
-0.02022794687357870 0.005339341472047060 -0.02334902568362940 0.05286963997905540 -0.03923262632851550 
-0.007988720141278290 0.02103359937290780 -0.006357540668017950 -0.008894190847420150 -0.004705217677144840 
-0.006469341749591350 0.01703320934529040 -0.005148397057473110 -0.007202600561851880 -0.003810330143170790 
0 0 0 0 0 
0 0 0 0 0 
0 0 0 0 0 
0 0 0 0 0 
0 0 0 0 0 
0 0 0 0 0 
0 0 0 0 0 
0 0 0 0 0 
0 0 0 0 0 
0 0 0 0 0 
0 0 0 0 0 
0 0 0 0 0 
0 0 0 0 0 
0 0 0 0 0 
0 0 0 0 0 
0 0 0 0 0 
0 0 0 0 0 
0 0 0 0 0 
0 0 0 0 0 
0 0 0 0 0 
0 0 0 0 0 
0 0 0 0 0 
0 0 0 0 0 
0 0 0 0 0 
0 0 0 0 0 
0 0 0 0 0 
0 0 0 0 0 
0 0 0 0 0 
0 0 0 0 0 
0 0 0 0 0 
0 0 0 0 0 
0.04010567193693500 -0.01340594447503430 -0.02333298648694660 -0.004816801726698310 -0.001463525951766200 
0.04600925242559210 -0.01537930805211850 -0.02676761697968690 -0.005525838013041600 -0.001678957905308250 
0.07423956307634760 -0.02481572835925380 -0.04319166438056730 -0.008916376122005670 -0.002709131201713060 
0.06594910661197160 -0.04459122767898480 -0.006968733945634090 -0.02401411050156970 -0.01030730367301940 
0.02104568728689390 -0.03426859431150800 0.02568291177354390 -0.02196660632928520 -0.01031110596065800 
0.03909609754978100 -0.01306847853757580 -0.02274562852994550 -0.004695549060518820 -0.001426684820712180 
0.06579142270387260 -0.04486098891742240 -0.006427908694355550 -0.02422534522237770 -0.01041454766260140 
0.03409293063863850 -0.01139609219991330 -0.01983484757823390 -0.004094654926281480 -0.001244110529799180 
0.005881393537070250 -0.05155639708121460 0.05429131238735610 -0.01963182358048920 -0.02252921402946860 
0.01059531591002390 -0.05805036598651200 0.06974725451025180 -0.04017987468541110 -0.01948731154187900 
-0.03298749820602940 -0.1106298580008900 0.1703260146449750 -0.05632873068393210 -0.04938362538380800 
-0.08774256010208640 -0.09376545555433030 0.1799420762847200 -0.01559447951712930 -0.05843629773265630 
0.1429342745561330 -0.1740384213534200 0.02400510290372560 -0.03811762075819510 -0.04550526244212830 
0.2377952546414820 0.008779491944457110 -0.1693549166339560 -0.1451915887008080 -0.04382934439632990 
0.1994528402627430 0.004494802444701800 -0.1652855690632490 -0.07985133986767220 -0.1891574065039310 
0.09762614353792680 0.08967982512189500 -0.3058762146171170 0.1028511299794360 -0.1670684397487230 
-0.1605087833107080 0.05937252452955410 -0.05238599889623970 0.09062614508878380 -0.2258054265330340 
-0.2480592397735120 0.03614876643435930 -0.06401936844927290 0.3413065532506770 -0.3059170871569700 
0.01947853565598020 -0.1961494119039060 -0.1512225649704300 0.1777385985363430 0.05757495386051810 
-0.08197948727938640 -0.1210859904503990 0.005504643291435600 0.01504003945629320 0.05064470283700780 
-0.08117507069078880 -0.02541881505498710 -0.06589262078605330 -0.06156013654738640 0.1257233736914320 
-0.001633601331533520 0.04693411755483490 -0.05540980593523310 -0.2727036004864230 0.2232109811889090 
-0.02793322668867580 0.01691240930418130 0.05637556017690930 -0.1156501648601830 -0.02501683203069440 
-0.04183560057763580 -6.657431637969620e-05 -0.04997177142509770 0.1268237167712140 -0.08747473595239320 
-0.004984385365646430 0.01565415534312320 -0.06131044479513650 0.05764859868598780 -0.05282478759554740 
-0.04067354011780320 0.02783863036367060 -0.04436125271164740 0.07940105718156180 -0.06913722965072680 
-0.01226158493107290 -0.02805413170182320 -0.01888853771727410 0.08127714307625420 -0.04162051584419230 
-0.003509152491824030 -0.009916224778207160 -0.006179638089738130 0.01182970727659940 0.002610548741586900 
0 0 0 0 0 
0 0 0 0 0 
0 0 0 0 0 
0 0 0 0 0 
0 0 0 0 0 
0 0 0 0 0 
0 0 0 0 0 
0 0 0 0 0 
0 0 0 0 0 
0 0 0 0 0 
0 0 0 0 0 
0 0 0 0 0 
0 0 0 0 0 
0 0 0 0 0 
0 0 0 0 0 
0 0 0 0 0 
0 0 0 0 0 
0 0 0 0 0 
0 0 0 0 0 
0 0 0 0 0 
0 0 0 0 0 
0 0 0 0 0 
0 0 0 0 0 
0 0 0 0 0 
0 0 0 0 0 
0 0 0 0 0 
0 0 0 0 0 
0 0 0 0 0 
0 0 0 0 0 
0 0 0 0 0 
0 0 0 0 0 
0 0 0 0 0 
0.04488366373403390 -0.01500306252942820 -0.02611276332778230 -0.005390651709179740 -0.001637883209846210 
0.05734579741952360 -0.01916872449591620 -0.03336307937632770 -0.006887388309155040 -0.002092648213952700 
0.04429908842790440 -0.01480765914339920 -0.02577266460708340 -0.005320442603884680 -0.001616551036865100 
0.06088396560954950 -0.03089772747284750 -0.02073423274290780 -0.01484010341668780 -0.005917348803490410 
0.03553263945065860 -0.02461603080867950 -0.002931930889092500 -0.01336021973874350 -0.005760476837581690 
0.07694919541571520 -0.02572146510258630 -0.04476809513725610 -0.009241810433429420 -0.002808010413976230 
0.06185587915158700 -0.03137344110151420 -0.02108961798816560 -0.01506449724866100 -0.006005670961025980 
0 0 0 0 0 
0.03496639402675680 -0.05072049062914500 -0.006164299904457300 0.02625434193859370 -0.03243359010577270 
0.02392814836469650 -0.03349502579847640 0.02158679529090010 -0.02107290407721050 -0.009807594591707190 
0.1353135373699860 -0.1149444555142420 -0.02493365850179960 -0.003173622264152980 -0.04820268004223400 
0.08115209960835850 -0.05822183671092940 -0.01585848187009680 -0.01459806183262990 -0.01905662890569350 
0.2619749557056740 -0.1612852864998180 -0.1108161272367720 -0.0004911315506544290 -0.05637313307111350 
0.05911764892946860 -0.03176232183295310 0.01277668320225540 -0.07545332151473460 -0.08993361409059020 
0.007066018651781210 -0.03675665703477610 0.01134240698769680 -0.03978463145628680 -0.1266736219457280 
0.05573111233094350 0.05630545071763960 -0.1593293164483260 0.0001670912121210530 -0.09793743019393630 
-0.1137723621423750 0.05738840541747150 -0.1015399281722310 0.1240485006830090 -0.2175317642920650 
-0.1652254775434560 -0.09499933326179000 -0.01414654541794280 0.2963372373298640 -0.2351489984286270 
0.001036435929780820 -0.09517779993545370 -0.1056616130260520 -0.01044191359124630 0.1055620243558670 
-0.02188830775569790 -0.1019640825004460 -0.01041742265132030 0.01762420396310120 -0.01122837106109760 
-0.1194438028334060 0.08403871811411630 -0.06513525547486650 -0.1001761254198570 0.05162113139803680 
-0.07344687447049910 0.07173206709589440 -0.04290951128702550 -0.1672511367861010 0.1404426520262110 
0.002701181559741790 -0.04862108456186360 0.04699791008704730 -0.08885166046492840 -0.003710416972665670 
-0.06334392447853740 0.02781948388507650 -0.002315162009657920 0.04968702317642130 -0.06779617057382770 
0.004059061885774150 -0.01776350918193970 -0.06145311068028810 0.06955229383629060 -0.03665008056395640 
-0.02790228366412270 0.005432974396219860 -0.03249984742740810 0.07596770092994990 -0.05521867907519910 
-0.01654446796272320 -0.03785323722601490 -0.02548616748020900 0.1096666619597520 -0.05615826133791660 
-0.008562894662298590 -0.02423015938769740 -0.01509283137258230 0.02866663044773130 0.006623921056772560 
0 0 0 0 0 
-0.02092852345848750 -0.01033424199298050 0.03631045221439920 -0.009856218427622800 -0.005308947163036890 
0 0 0 0 0 
0 0 0 0 0 
0 0 0 0 0 
0 0 0 0 0 
0 0 0 0 0 
0 0 0 0 0 
0 0 0 0 0 
0 0 0 0 0 
0 0 0 0 0 
0 0 0 0 0 
0 0 0 0 0 
0 0 0 0 0 
0 0 0 0 0 
0 0 0 0 0 
0 0 0 0 0 
0 0 0 0 0 
0 0 0 0 0 
0 0 0 0 0 
0 0 0 0 0 
0 0 0 0 0 
0 0 0 0 0 
0 0 0 0 0 
0 0 0 0 0 
0 0 0 0 0 
0 0 0 0 0 
0 0 0 0 0 
0 0 0 0 0 
0 0 0 0 0 
0 0 0 0 0 
0 0 0 0 0 
0.01036825551520380 -0.003465750628947410 -0.006032123491407270 -0.001245256061212860 -0.0003783557359394150 
0.01354784974785960 -0.004528579442865560 -0.007881972295366770 -0.001627134091186770 -0.0004943846777533130 
0.008416698572798360 -0.002813412374874650 -0.004896731673580210 -0.001010868694141440 -0.0003071400177225240 
0.05678526285208790 -0.01898135710062110 -0.03303696726161200 -0.006820066562830860 -0.002072193329476650 
0.06113848049088190 -0.02043648778750200 -0.03556961572341660 -0.007342899998266360 -0.002231049837306260 
0.07709255329501170 -0.02576938470290940 -0.04485149898760640 -0.009259028109812390 -0.002813241793145520 
0.08280587580262180 -0.02767915159137900 -0.04817543972784030 -0.009945213888300640 -0.003021730900966600 
0 0 0 0 0 
0.007380939363525290 -0.02346934798130400 -0.02129180407247210 0.05124175728454740 -0.02774810147390790 
0.01121407730166880 -0.003748479713326170 -0.006524212200081380 -0.001346841588764440 -0.0004092212488525850 
0.1994450776398790 -0.08690312374746630 -0.1324118849404890 0.02627146999882560 -0.03375379029757930 
0.2432616558668390 -0.08131399111287370 -0.1415266383781970 -0.02921639527350180 -0.008877042304404420 
0.2204279520061620 -0.1250030139225480 -0.1014598417593580 0.001754724297134820 -0.04547006192602830 
-0.04360033745262180 -0.09583690260107510 0.1431557371679100 -0.02435259443303640 -0.08198662337253040 
-0.06920078535815030 -0.1082264486946150 0.1383668303696560 -0.005316463613538030 -0.07816643178719220 
-0.008127398429525940 -0.04052000938640200 0.06388608510466550 -0.07479945020804050 -0.09249326633049440 
0.08758542667118860 0.002720264866147820 -0.1646790747560450 0.05494409929720300 -0.2043634152928780 
0.1284570854553600 -0.2432888245639770 -0.06120289610252020 0.1727737884291330 -0.1613331020646580 
-0.05770702947165030 0.05330166716991340 -0.04359445072428930 -0.1472705735271440 0.009730028858754580 
0.08104146038087220 -0.03134610489462290 -0.1258626496689000 -0.004107536643200140 -0.06698251284770280 
-0.1198219140388220 0.2046208404519270 -0.1852532876077780 -0.06331960240373310 -0.04109498965967570 
-0.1609388904673440 0.05103749274680690 -0.01149326029908990 -0.06696235149544560 0.05533331113116720 
-0.01862306222833630 -0.09683068235433660 0.05365434004329910 -0.1534993146702060 0.1620365987876650 
-0.07632427713666160 0.03333387959325760 0.01002317923135870 0.03038314704955280 -0.06060039364646530 
-0.01480743919582410 -0.03417154410604650 -0.03655207224596010 0.07491712591685010 -0.02015687969202370 
-0.01607625038380140 -0.01818541636833580 -0.02195078080591260 0.07730537784341170 -0.04396703495307560 
-0.01973285036172070 -0.04724441915364560 -0.03125731614379180 0.1181050869851300 -0.05085181459904460 
-0.01076767305971260 -0.02767455750430010 -0.01783311686630680 0.05297209893135590 -0.01317117377936540 
0 0 0 0 0 
-0.02680225836681410 -0.01323461850858450 0.04650123185214530 -0.01262243432227270 -0.006798939915743230 
0 0 0 0 0 
0 0 0 0 0 
0 0 0 0 0 
0 0 0 0 0 
0 0 0 0 0 
0 0 0 0 0 
0 0 0 0 0 
0 0 0 0 0 
0 0 0 0 0 
0 0 0 0 0 
0 0 0 0 0 
0 0 0 0 0 
0 0 0 0 0 
0 0 0 0 0 
0 0 0 0 0 
0 0 0 0 0 
0 0 0 0 0 
0 0 0 0 0 
0 0 0 0 0 
0 0 0 0 0 
0 0 0 0 0 
0 0 0 0 0 
0 0 0 0 0 
0 0 0 0 0 
0 0 0 0 0 
0 0 0 0 0 
0 0 0 0 0 
0 0 0 0 0 
0 0 0 0 0 
0 0 0 0 0 
0 0 0 0 0 
0 0 0 0 0 
0 0 0 0 0 
0.02951694084060900 -0.009866496454773520 -0.01717259301509570 -0.003545065940584840 -0.001077124677150600 
0.04053169728363880 -0.01354835007172530 -0.02358084279199400 -0.004867968544919110 -0.001479072360064550 
0.04277031730584400 -0.01429664362395830 -0.02488324437772640 -0.005136832978990570 -0.001560763510976890 
0.05410429311321090 -0.01808520127719670 -0.03147721205323410 -0.006498074708717190 -0.001974360065520470 
0 0 0 0 0 
-0.003795124403038140 -0.008683128684108820 -0.005846254854612930 0.02515636199005850 -0.01288210588070440 
0 0 0 0 0 
0.09075737653659750 -0.05821689167761980 -0.03442181763797550 -0.001124603651993780 -0.02197684148471340 
0.1788597821364950 -0.05978666339038140 -0.1040584206196940 -0.02148155275360280 -0.006526905553300020 
0.1331529867127850 -0.08476073520374140 -0.03966951227745560 -0.01822186211668010 -0.02690794404920120 
-0.002205363589324210 -0.07768337377719310 0.08209056071666290 -0.01448529902873730 -0.03975664749383950 
0.02985189474563060 -0.09976652786464420 0.06401739977927810 -0.004311201725923790 -0.05154584692057420 
0.008802937128580560 -0.09889216872870220 0.1078837844364300 -0.04581768537041480 -0.1035148953373050 
0.1140373986648510 -0.008028408225682840 -0.06096318664147200 -0.07886802211985230 -0.1492178602548970 
0.4125670027221350 -0.2522007418280990 -0.1804826175841140 0.01346201913769990 -0.09844807124581740 
0.002806178743906220 0.05632565727029150 -0.03360779124593770 -0.1394312605194300 -0.1343810465161380 
0.1420089862001220 0.009802110156486400 -0.1953973802250030 -0.02745023518055860 -0.1082791707688220 
-0.1201190841490580 0.2467114010414300 -0.3085969434335250 0.06522470975606930 -0.1339675982012550 
-0.2557192638546840 0.06798146710266320 0.02428855427382580 -0.04761232006826680 -0.04695806873541110 
-0.03630251461723360 -0.1033060256695670 0.05290731394692300 -0.2651330619085420 0.3114012800617100 
-0.04834309185593830 -0.01319977736574040 -0.03115987769664530 0.08184421708748000 -0.04123848989384190 
-0.01437281143984020 -0.03761342099796840 -0.02407984984436570 0.06663103974798340 -0.01240199490877800 
-0.01342971508196400 -0.03072677779791840 -0.02068800088111670 0.08902021070897660 -0.04558559700837670 
-0.02062706912039200 -0.05241898010842710 -0.03391769771280720 0.1050839163447100 -0.02981495366964060 
-0.009897325129127750 -0.02264477750871150 -0.01524647915033420 0.06560541032128520 -0.03359531248754650 
0 0 0 0 0 
-0.006192220887856050 -0.003057640891677020 0.01074334465570330 -0.002916205806102700 -0.001570783222270230 
0 0 0 0 0 
0 0 0 0 0 
0 0 0 0 0 
0 0 0 0 0 
0 0 0 0 0 
0 0 0 0 0 
0 0 0 0 0 
0 0 0 0 0 
0 0 0 0 0 
0 0 0 0 0 
0 0 0 0 0 
0 0 0 0 0 
0 0 0 0 0 
0 0 0 0 0 
0 0 0 0 0 
0 0 0 0 0 
0 0 0 0 0 
0 0 0 0 0 
0 0 0 0 0 
0 0 0 0 0 
0 0 0 0 0 
0 0 0 0 0 
0 0 0 0 0 
0 0 0 0 0 
0 0 0 0 0 
0 0 0 0 0 
0 0 0 0 0 
0 0 0 0 0 
0 0 0 0 0 
0 0 0 0 0 
0 0 0 0 0 
0 0 0 0 0 
0 0 0 0 0 
0 0 0 0 0 
0 0 0 0 0 
0 0 0 0 0 
0 0 0 0 0 
0 0 0 0 0 
0 0 0 0 0 
0 0 0 0 0 
-0.02041843356489170 -0.01683441010421020 0.04482868291186570 -0.01443548170562810 -0.007545569726326580 
0.01115680934829780 -0.003729337009413910 -0.006490894409414710 -0.001339963549740040 -0.0004071314413037970 
0.07382902192338260 -0.04391679292832610 -0.01616063620833470 -0.02259901970479610 -0.009435536022841290 
0.06920027522729250 -0.04234762544240230 -0.01349823875828650 -0.02202743628358830 -0.009258937951386070 
0.1637037927963340 -0.07755630824792180 -0.06343865332757340 -0.03596104119136590 -0.01397583252793370 
0.09358202010736910 -0.1039327128137850 0.001337736985605690 0.0005643555100275450 -0.07035700911946580 
0.06174953817070960 0.01422830808008520 0.01319666845567810 -0.1529132382761530 -0.05472137598092420 
0.4690122809369820 -0.1872653802508920 -0.2075939995782560 -0.1273766675681160 -0.03598757088093800 
0.05541697255556350 -0.06983564280795640 0.03355755028506210 -0.09424184717725840 -0.1769025759391110 
0.1088746605889550 0.01078807495487940 -0.1405387837821690 -0.05816485248247950 -0.1256212966714480 
-0.09809073347644070 0.1675766268917280 -0.2816432182426800 0.1453326449028730 -0.2182535207592750 
-0.2379036309018500 0.1879935173178710 -0.09925392313322740 -0.03550812038134400 -0.1720033573841970 
-0.05396441086730810 -0.07544376922822010 0.02953686487973520 -0.2067323343348900 0.2122491326583550 
-0.03206960713410440 -0.08560818101844100 -0.05441852865024410 0.1384814874627240 -0.01472651179660560 
-0.01494834837629020 -0.03861463220753110 -0.02483703445096900 0.07235748652628810 -0.01678387370806740 
-0.01566043308441240 -0.03993225594388540 -0.02580620435560630 0.07896485559167640 -0.02159850657974570 
-0.01998649120010940 -0.05189391898119300 -0.03331658145449750 0.09514123180938510 -0.02040372195118650 
-0.009058256020130870 -0.02231945307386790 -0.01460771299237190 0.05038676540827880 -0.01847925674681950 
-0.0001869514509235870 -0.002536515787496720 -0.001152682668022970 -0.01153266513573590 0.01559075487074160 
0 0 0 0 0 
0 0 0 0 0 
0 0 0 0 0 
0 0 0 0 0 
0 0 0 0 0 
0 0 0 0 0 
0 0 0 0 0 
0 0 0 0 0 
0 0 0 0 0 
0 0 0 0 0 
0 0 0 0 0 
0 0 0 0 0 
0 0 0 0 0 
0 0 0 0 0 
0 0 0 0 0 
0 0 0 0 0 
0 0 0 0 0 
0 0 0 0 0 
0 0 0 0 0 
0 0 0 0 0 
0 0 0 0 0 
0 0 0 0 0 
0 0 0 0 0 
0 0 0 0 0 
0 0 0 0 0 
0 0 0 0 0 
0 0 0 0 0 
0 0 0 0 0 
0 0 0 0 0 
0 0 0 0 0 
0 0 0 0 0 
0 0 0 0 0 
0 0 0 0 0 
0 0 0 0 0 
0 0 0 0 0 
0 0 0 0 0 
0 0 0 0 0 
0 0 0 0 0 
0 0 0 0 0 
0 0 0 0 0 
0 0 0 0 0 
0 0 0 0 0 
0.007545484804527100 -0.002522195625740120 -0.004389870222305180 -0.0009062335195972710 -0.0002753479070852560 
0.03371143947576840 -0.01126857284666080 -0.01961290071340800 -0.004048836786270710 -0.001230189251579290 
0.07743045653012440 -0.02588233411353080 -0.04504808693235340 -0.009299611219575670 -0.002825572471822350 
0.1771045468384900 -0.05919994869868680 -0.1030372463191070 -0.02127074415706590 -0.006462853954460640 
0.1893221844273730 -0.07964709327988420 -0.1233885465744740 0.01787605613515530 -0.02831796106961330 
0.1430646801437070 -0.01775117231366800 -0.07491113878043510 -0.1158976694609110 -0.004176976790708620 
0.2748405730463180 -0.09018952106576880 -0.1187739956194530 -0.1448082148087970 -0.02357510838768590 
-0.08803263035479940 -0.1021762468385220 0.1758469799727640 -0.04658299431356530 -0.1289512113092180 
0.006915792404320010 0.01970116873582420 -0.02548425492016680 -0.07925061392591280 -0.1161067173955130 
0.08566103828745940 0.007298420379686090 -0.2198541791727100 0.08157855136057890 -0.2356546311906340 
-0.2146018540172990 0.3125856741979880 -0.2010225512408460 -0.007221417570869630 -0.2579117148428840 
-0.07690433770840180 -0.05035999581217570 -0.04326760235006590 0.03307127870217130 -0.05570143444244830 
-0.01620984123545470 -0.1313531562255170 -0.09314611818781660 0.1678521740340090 0.004641767104828820 
-0.02332443273408350 -0.06585676626068500 -0.04105239177990810 0.07895501440484900 0.01693750003755020 
-0.01795000891089410 -0.05179681366544350 -0.03205019658417970 0.05401042481404550 0.02161213838265320 
-0.01847130940843850 -0.04843704535136450 -0.03098652251433530 0.08503824652768560 -0.01518508822928480 
-0.01016100979009460 -0.02907708800424940 -0.01804282412778860 0.03204964501539800 0.01035916946232220 
0.001633072251052130 -0.01861410748276060 -0.01359096808349400 0.002259537701013810 0.02099427607480440 
-0.006137506462491510 -0.01404242727081630 -0.009454611533375490 0.04068307593900180 -0.02083304779944210 
0 0 0 0 0 
0 0 0 0 0 
0 0 0 0 0 
0 0 0 0 0 
0 0 0 0 0 
0 0 0 0 0 
0 0 0 0 0 
0 0 0 0 0 
0 0 0 0 0 
0 0 0 0 0 
0 0 0 0 0 
0 0 0 0 0 
0 0 0 0 0 
0 0 0 0 0 
0 0 0 0 0 
0 0 0 0 0 
0 0 0 0 0 
0 0 0 0 0 
0 0 0 0 0 
0 0 0 0 0 
0 0 0 0 0 
0 0 0 0 0 
0 0 0 0 0 
0 0 0 0 0 
0 0 0 0 0 
0 0 0 0 0 
0 0 0 0 0 
0 0 0 0 0 
0 0 0 0 0 
0 0 0 0 0 
0 0 0 0 0 
0 0 0 0 0 
0 0 0 0 0 
0 0 0 0 0 
0 0 0 0 0 
0 0 0 0 0 
0 0 0 0 0 
0 0 0 0 0 
0 0 0 0 0 
0 0 0 0 0 
0 0 0 0 0 
0.06555078715230700 -0.02191136989901240 -0.03813664145157760 -0.007872830188163080 -0.002392062606679650 
0 0 0 0 0 
0.03927814054398760 -0.007790558144507820 -0.02605111871857270 -0.007582180239506510 -0.002886036845542870 
0.09712628376333730 -0.02507872876844400 -0.06093412606490220 -0.01562910445619600 -0.005554416688979430 
0.1574141944156580 -0.05261814222279930 -0.09158164154261570 -0.01890587856651460 -0.005744318635677030 
0.2143013606741280 -0.04806308208122700 -0.1355035860331490 -0.06804421520980190 0.0009844811071643390 
0.07963701877654160 -0.01981752666853020 -0.05446976490527470 -0.04150077262564550 -0.05928305279941040 
-0.1515476592199500 -0.01607143219205980 0.1432419438420670 -0.0002201191785941730 -0.07503817339751370 
-0.0007570705720681660 0.03472136280241190 -0.02102004398261810 -0.05571935087776440 -0.09223233016532070 
0.2969814406729010 -0.1095278162116270 -0.2188863437185770 0.002289025145050810 -0.1701091817790120 
-0.1829627536971360 0.2643693022461590 -0.1302285909790940 0.01236558988098610 -0.2698171235224220 
-0.06661589853028350 -0.009760144468586390 -0.1654525601987350 0.2306983618563840 -0.2531557703443510 
-0.1349670138327370 -0.09799339086130840 -0.04585683393276250 0.1481201550976010 -0.05267713270029010 
-0.05938566201360570 -0.05901457537920870 -0.09114112987584210 0.02004970051955020 0.1095302568871530 
-0.04249238280361880 -0.06092358198871660 -0.01813240548283670 0.02745898967330600 0.04784386599569230 
-0.02503319077011770 -0.01746132867769170 -0.03459671974049000 0.04258139236731060 0.003489697304409430 
-0.01690206013066410 -0.04136210519134480 -0.01810883192014430 0.03185205511294790 0.02359006668351020 
-0.01455196804155440 -0.03113353998688570 -0.009491440961797330 0.02438137717790960 0.01430608776692750 
-0.02455909560762530 -0.003714471574047790 -0.01715199171917780 0.06209517148453420 -0.04446468189131820 
0 0 0 0 0 
0 0 0 0 0 
0 0 0 0 0 
0 0 0 0 0 
0 0 0 0 0 
0 0 0 0 0 
0 0 0 0 0 
0 0 0 0 0 
0 0 0 0 0 
0 0 0 0 0 
0 0 0 0 0 
0 0 0 0 0 
0 0 0 0 0 
0 0 0 0 0 
0 0 0 0 0 
0 0 0 0 0 
0 0 0 0 0 
0 0 0 0 0 
-0.008376592839116690 0.02205483416267940 -0.006666215450325060 -0.009326026452882520 -0.004933667972320540 
0 0 0 0 0 
0 0 0 0 0 
0 0 0 0 0 
0 0 0 0 0 
0 0 0 0 0 
0 0 0 0 0 
0 0 0 0 0 
0 0 0 0 0 
0 0 0 0 0 
0 0 0 0 0 
0 0 0 0 0 
0 0 0 0 0 
0 0 0 0 0 
0 0 0 0 0 
0 0 0 0 0 
0 0 0 0 0 
0 0 0 0 0 
0 0 0 0 0 
0 0 0 0 0 
0 0 0 0 0 
0 0 0 0 0 
0 0 0 0 0 
0.03308322683247120 -0.01105858300213710 -0.01924741432684330 -0.003973386716521810 -0.001207264676019530 
0 0 0 0 0 
0.01133451025763320 -0.003788736301550410 -0.006594278612097030 -0.001361305918676490 -0.0004136160575663970 
0.02830702724631710 -0.009462064022119790 -0.01646868017228440 -0.003399751983514000 -0.001032972818844240 
0.05227465825693230 -0.01990580821634660 -0.02702556625245750 -0.008014384878588400 -0.002759869558596890 
0.1362095538060020 -0.04094045304226560 -0.08717919010116890 -0.01166314904697920 -0.01203524588946320 
0.03911645619333600 0.008225866396276320 -0.05812751506675370 0.01196047794030060 -0.06318131892417070 
-0.01649265423588800 0.02674318376460020 -0.002306484481014970 -0.01447171467055840 -0.04263211134352210 
0.1010515552105500 0.01274313538046360 -0.09255233376998010 -0.03281586621179150 -0.06047404786890740 
0.2532643959848080 -0.1320667203475110 -0.1105433727157920 -0.02606891005775260 -0.07984433426146080 
-0.06660142589744280 0.1218333067274500 -0.04879542340521350 -0.01943302579709320 -0.1780744934328390 
-0.05567463778181940 0.04876152509329910 -0.2039730984226020 0.2305567761384180 -0.2916024707225520 
-0.2528414451034010 -0.01900022064486050 -0.08678731483252270 0.2177541420721600 -0.1680759978777200 
-0.05504922609245400 -0.09102205610715950 -0.1059462899057570 -0.05430103404109220 0.1221711108276020 
-0.06103239730114860 -0.08422823189374200 0.0009702310401048240 -0.01235818323712510 0.05735199753355190 
-0.01815059325939050 0.01086478653540280 -0.03840699495519200 -0.04971205306256250 0.05825022538297640 
-0.01831367609338320 -0.05190411176291260 -0.03231322919594530 0.06081057560188230 0.01480125734670350 
-0.01298110010153640 -0.03574073776588620 -0.02247374411303590 0.04946272918962850 0.002413019438098760 
-0.02964000530608020 0.01905013997016780 -0.03251449130486910 0.05980754917958060 -0.05108737110104000 
0 0 0 0 0 
0 0 0 0 0 
0 0 0 0 0 
0 0 0 0 0 
0 0 0 0 0 
0 0 0 0 0 
0 0 0 0 0 
0 0 0 0 0 
0 0 0 0 0 
0 0 0 0 0 
0 0 0 0 0 
0 0 0 0 0 
0 0 0 0 0 
0 0 0 0 0 
0 0 0 0 0 
0 0 0 0 0 
0 0 0 0 0 
0 0 0 0 0 
-0.01650633534456190 0.04345973305015900 -0.01313598378428140 -0.01837722365407070 -0.009721945377308670 
0 0 0 0 0 
0 0 0 0 0 
0 0 0 0 0 
0 0 0 0 0 
0 0 0 0 0 
0 0 0 0 0 
0 0 0 0 0 
0 0 0 0 0 
0 0 0 0 0 
0 0 0 0 0 
0 0 0 0 0 
0 0 0 0 0 
0 0 0 0 0 
0 0 0 0 0 
0 0 0 0 0 
0 0 0 0 0 
0 0 0 0 0 
0 0 0 0 0 
0 0 0 0 0 
0 0 0 0 0 
0 0 0 0 0 
0 0 0 0 0 
0 0 0 0 0 
0 0 0 0 0 
0 0 0 0 0 
0 0 0 0 0 
0 0 0 0 0 
0.03703588043410950 -0.01237981893095860 -0.02154701956022850 -0.004448111307181980 -0.001351503903165170 
0.04136165909735660 0.01753722613447720 -0.05382548857268600 -0.006652533246356950 -0.02234674764601860 
0.05455556162475650 0.01021878063522400 -0.03092754563075310 -0.04997878157595260 -0.02375230852531350 
0.1240805062237690 -0.007396627736036810 -0.09551727938223820 -0.02961565060852470 -0.02134383733152720 
0.07952354592856040 -0.07894105790578720 0.02665196450439020 -0.04692396989793540 -0.02124935664072460 
0.02497887831113940 0.03254915470491810 -0.02817456128165980 -0.07283831237911010 -0.02860890731693400 
-0.09487162428072110 0.07440428836721960 -0.1163849858079120 0.1373597959755820 -0.2222245514312800 
-0.2162140451453650 0.03473832079642800 -0.2485962564253720 0.3310082230087150 -0.2656707886687940 
-0.1564798004042500 -0.05799137444792210 0.009436868858861480 -0.09014668833014170 -0.002560611670323380 
-0.1364367463926690 -0.06763301465802480 0.03891893630268750 -0.08137857799081540 0.06961524490791890 
0.04164237500389620 -0.007534324209130690 -0.04176151966033830 -0.1752424232977740 0.1273611240988660 
-0.02243837591961690 -0.04477461472939030 -0.04750533718573770 0.08580012557644880 -0.01109964253047050 
0.02448482732881060 -0.05658386678458900 -0.05097914384046970 0.06507609790372980 -0.009273793486875350 
-0.01848381195931570 0.01003126680920110 -0.03873238043293920 0.02910369750518920 -0.01452986889928980 
0.004432799419614380 -0.005460529595449340 -0.004510088999597780 -0.01822202150052010 0.02369554592559270 
0.01846780113703990 -0.006173149698338010 -0.01074433948025510 -0.002218033811903100 -0.0006739222890621590 
0.01971671019771860 -0.006590616971998290 -0.01147093940562380 -0.002368031231954450 -0.0007194971599824970 
0.006204391837633320 -0.002073914447997780 -0.003609638834498550 -0.0007451645583601960 -0.0002264090845699140 
0 0 0 0 0 
0.007241402517760440 -0.002420551393008010 -0.004212958889184940 -0.0008697123989373480 -0.0002642514138297580 
0.009630150321579450 -0.003219027490683520 -0.005602702971141130 -0.001156607593317220 -0.0003514209894601320 
0 0 0 0 0 
0 0 0 0 0 
0 0 0 0 0 
0 0 0 0 0 
0 0 0 0 0 
0 0 0 0 0 
0 0 0 0 0 
0 0 0 0 0 
0 0 0 0 0 
0 0 0 0 0 
0 0 0 0 0 
-0.01650637449918690 0.04345983614085210 -0.01313601494410640 -0.01837726724662380 -0.009721968438704030 
0 0 0 0 0 
0 0 0 0 0 
0 0 0 0 0 
0 0 0 0 0 
0 0 0 0 0 
0 0 0 0 0 
0 0 0 0 0 
0 0 0 0 0 
0 0 0 0 0 
0 0 0 0 0 
0 0 0 0 0 
0 0 0 0 0 
0 0 0 0 0 
0 0 0 0 0 
0 0 0 0 0 
0 0 0 0 0 
0 0 0 0 0 
0 0 0 0 0 
0 0 0 0 0 
0 0 0 0 0 
0 0 0 0 0 
0 0 0 0 0 
0 0 0 0 0 
0 0 0 0 0 
0 0 0 0 0 
0 0 0 0 0 
-0.002735244895889030 -0.006258156753581810 -0.004213547977068980 0.01813084458505770 -0.009284468864918160 
0 0 0 0 0 
-0.004533136898729520 0.006916921503025360 0.006942790851204350 -0.01424215003929420 -0.007223063096268430 
0.0008580616621663140 0.002964595862081320 -0.002030600923382220 -0.004548970042804030 -0.02122404073694810 
0.03061510444355050 0.002313547904194050 -0.02533110928281220 -0.01040970385917890 -0.004531339610718210 
-0.01408150589391010 -0.03078608542678480 0.04225928433016240 -0.001346827775163110 -0.01860684003818400 
-8.500873104270050e-05 0.001573606161516260 -0.008458135095082950 -0.04126196729097450 0.03065003765985460 
-0.1193406443563180 0.04624716286642260 -0.05561856865076370 0.1296205783268010 -0.1359646282815760 
-0.1166757309286290 0.03701935399706680 -0.2816528421869380 0.2930376430189650 -0.2800807811632640 
-0.2364558001811160 0.1373904368874880 0.02054093780286180 -0.1293447748145390 -0.09643775675323800 
-0.2285499131653360 0.002395943635988910 0.04021906651976950 -0.1490086096342080 0.09891834892222710 
0.1475147150386980 -0.02346390180681910 -0.09528621579094890 -0.2111681722453150 0.1067051783889670 
-0.05125633563355270 -0.02785202271879980 -0.004919966792087970 0.03436926145248500 -0.03333019061977330 
0.1114407257259690 -0.1627480874339990 -0.04528348197308310 0.01508588463706280 0.003379563218426030 
0.02594716853226960 -0.07432012877739880 -0.005756777613557400 0.009709354741544340 -0.01209933757861930 
0.02800278234666270 -0.04500980821802590 0.01257541738253800 -0.03709092947243970 0.02008736821318440 
0.07949768791202760 -0.03676560588784680 -0.04664616184492160 0.0004730413845201550 -0.008517287180447390 
0.08181819206669850 -0.03663761859042090 -0.04355929087279760 -0.003548036644352850 -0.01010997174423670 
0.05253014682037980 -0.01755901840135670 -0.03056139310780270 -0.006309015400764260 -0.001916916720472980 
0.03455591492496350 -0.01249973590581190 -0.02056475450307530 -0.008368974250545630 0.004428607086082880 
0.03931098451333590 -0.01314030784656620 -0.02287064712144880 -0.004721357577047950 -0.001434526420981420 
0.04729701915165480 -0.01580976410465730 -0.02751682381668510 -0.005680502345793260 -0.001725950760243510 
0 0 0 0 0 
0 0 0 0 0 
0.005097682803779730 -0.001703979744467820 -0.002965769135157950 -0.0006122457534190620 -0.0001860233407617620 
0 0 0 0 0 
0 0 0 0 0 
0 0 0 0 0 
0 0 0 0 0 
0 0 0 0 0 
0 0 0 0 0 
0 0 0 0 0 
0 0 0 0 0 
-0.008376671148366720 0.02205504034406550 -0.006666277769974880 -0.009326113637988850 -0.004933714095111300 
0 0 0 0 0 
0 0 0 0 0 
0 0 0 0 0 
0 0 0 0 0 
0 0 0 0 0 
0 0 0 0 0 
0 0 0 0 0 
0 0 0 0 0 
0 0 0 0 0 
0 0 0 0 0 
0 0 0 0 0 
0 0 0 0 0 
0 0 0 0 0 
0 0 0 0 0 
0 0 0 0 0 
0 0 0 0 0 
0 0 0 0 0 
0 0 0 0 0 
0 0 0 0 0 
0 0 0 0 0 
0 0 0 0 0 
0 0 0 0 0 
0 0 0 0 0 
0 0 0 0 0 
0 0 0 0 0 
0 0 0 0 0 
-0.003526134742159270 -0.02000793273401680 -0.01509547843501020 0.05300952438139980 -0.02759140562814980 
0 0 0 0 0 
-0.02793831370948440 -0.01379558836638930 0.04847225877694300 -0.01315745580266690 -0.007087123542289340 
-0.01086900393754300 -0.02486794893527560 -0.01674331597240900 0.07204628056601130 -0.03689356254807690 
0 0 0 0 0 
-0.01139567365283280 -0.02607295315285110 -0.01755463203291170 0.07553736349241670 -0.03868128129350000 
-0.01441247038299280 -0.03558593252093320 -0.02327237741430500 0.07972305098119970 -0.02883466508090350 
-0.03697528592427380 -0.04672898887007080 -0.08827673580522270 0.1906575850923030 -0.09619285586808030 
-0.1154532014390650 0.06324223043163850 -0.1247563373849420 0.1209881718692680 -0.2108522201376860 
-0.1934727401358540 0.3617553315946310 -0.08479307178296420 -0.2172809440992010 -0.1007999476855250 
-0.2427731754694800 0.05086980631655830 -0.009473676356042900 -0.1662483781413510 0.1291268924924380 
0.1157713805942470 0.06040504897607390 -0.1148582445618190 -0.1562675115860640 -0.0007537280402401300 
-0.07595765810515150 -0.02127499788938620 0.06603154223532550 -0.09409211075269970 -0.009656627511659210 
0.06377601756076850 -0.2849101209574910 0.07755359171593120 -0.04898483398323900 0.03902320728338820 
0.1562905815084180 -0.2249953609731050 0.006292495573470500 0.006849806147560300 -0.06300434189744310 
0.1336582148463270 -0.1427704682752500 0.009718856165207940 -0.05351337909313380 -0.01764249255520000 
0.06167745627118460 -0.07473421406120930 -0.01587432530473010 0.008103983330605130 -0.01623054067398510 
0.06724939048109190 -0.06110821892460830 -0.02073499495021670 0.01573786611434230 -0.03139387320900270 
0.1576461090261460 -0.05269566328755140 -0.09171656660960270 -0.01893373215036690 -0.005752781604495440 
0.1056218520635970 -0.04118800129334070 -0.06430449294471540 -0.03883782768293550 0.03141632039384680 
0.06960680320432960 -0.02326715633412730 -0.04049638168686150 -0.008359968893970560 -0.002540073710003130 
0.06780379522556170 -0.02266447288103830 -0.03944741382838500 -0.008143422666817540 -0.002474278802681350 
0.02119477099989380 -0.007084681778488600 -0.01233085699479350 -0.002545550407677980 -0.0007734341778106320 
0 0 0 0 0 
0 0 0 0 0 
0 0 0 0 0 
0 0 0 0 0 
0 0 0 0 0 
0 0 0 0 0 
0 0 0 0 0 
0 0 0 0 0 
0 0 0 0 0 
0 0 0 0 0 
0 0 0 0 0 
0 0 0 0 0 
0 0 0 0 0 
0 0 0 0 0 
0 0 0 0 0 
0 0 0 0 0 
0 0 0 0 0 
0 0 0 0 0 
0 0 0 0 0 
0 0 0 0 0 
0 0 0 0 0 
0 0 0 0 0 
0 0 0 0 0 
0 0 0 0 0 
0 0 0 0 0 
0 0 0 0 0 
0 0 0 0 0 
0 0 0 0 0 
0 0 0 0 0 
0 0 0 0 0 
0 0 0 0 0 
0 0 0 0 0 
0 0 0 0 0 
0 0 0 0 0 
0 0 0 0 0 
0 0 0 0 0 
0 0 0 0 0 
-0.009558174632092750 -0.02186881153334660 -0.01472402981029470 0.06335731730338830 -0.03244410579487500 
0 0 0 0 0 
-0.009765120980994610 -0.004821894077166910 0.01694223481420210 -0.004598851206668020 -0.002477122260038780 
-0.03184564233424680 -0.03953578233063020 0.01178263082656920 0.07922133563037730 -0.04975907027950350 
0 0 0 0 0 
-0.02701662686911210 0.001397723073180830 -0.03205279409895880 0.07963366462334390 -0.05566814984860020 
0.01924658206413680 -0.05985006960057950 -0.05442905854577330 0.1302706766927520 -0.07059144998907430 
0.03263082478640840 -0.1487440848268350 -0.08851669947192520 0.2106119409379160 -0.08937767011469920 
-0.1372254346537560 0.08872253701819530 0.01663986253649340 -0.01343931272982220 -0.1093157869302870 
-0.1623665328477490 0.4362895909747560 -0.1094096734042430 -0.2824515182262450 -0.07586961336511830 
-0.1460778544960820 0.03508067879576860 -0.06505121204551270 -0.07763381019613860 0.08191113748019710 
-0.04261156340815250 0.1761238335641900 -0.1327564921644880 -0.1323942306585420 -0.01318619278637090 
-0.02148445117649050 0.006390384750964710 0.006453551237670660 -0.2452286084836180 0.1101940384300500 
-0.02970248774698510 -0.2931404547292460 0.09891539593012170 0.02319212633561300 -0.007833415802870930 
0.3056443160875890 -0.3362439711928800 -0.07839263726173090 0.02633548912405450 -0.09197665546898790 
0.2460060773008970 -0.2005448498686640 -0.05084211869784580 -0.09811574853528520 -0.01685788023094700 
-0.04641259841858880 -0.08815097639651860 0.1034350111151310 -0.01276108983086210 -0.04186063468132050 
0.008395776709013440 -0.08238862893808980 0.03721044403148370 0.04194535955468000 -0.05809611971105880 
0.2148154199198240 -0.07180539441789590 -0.1249769682966210 -0.02579992394138930 -0.007838989517158140 
0.1696183233681090 -0.06347242994595670 -0.1019700893412090 -0.05049251442394920 0.03443318302500340 
0.06853348178614080 -0.02558547544718650 -0.03614368645261870 -0.01014192152495280 -0.003438999951926480 
0.07732425456713750 -0.02584683445599660 -0.04498629993695890 -0.009286856071139370 -0.002821696976874800 
0.04472455115540160 -0.02752879375569260 -0.008502184476958080 -0.01435014807626990 -0.006039917668953040 
0 0 0 0 0 
0 0 0 0 0 
0 0 0 0 0 
0 0 0 0 0 
0 0 0 0 0 
0 0 0 0 0 
0 0 0 0 0 
0 0 0 0 0 
0 0 0 0 0 
0 0 0 0 0 
0 0 0 0 0 
0 0 0 0 0 
0 0 0 0 0 
0 0 0 0 0 
0 0 0 0 0 
0 0 0 0 0 
0 0 0 0 0 
0 0 0 0 0 
0 0 0 0 0 
0 0 0 0 0 
0 0 0 0 0 
0 0 0 0 0 
0 0 0 0 0 
0 0 0 0 0 
0 0 0 0 0 
0 0 0 0 0 
0 0 0 0 0 
0 0 0 0 0 
0 0 0 0 0 
0 0 0 0 0 
0 0 0 0 0 
0 0 0 0 0 
0 0 0 0 0 
0 0 0 0 0 
0 0 0 0 0 
0 0 0 0 0 
0 0 0 0 0 
-0.005378258385508550 -0.01230529086750690 -0.008285016736334390 0.03565032406147470 -0.01825586900931190 
0 0 0 0 0 
0 0 0 0 0 
-0.02980988004921890 -0.02950415324163140 0.03670476411091660 0.02708202801076570 -0.02823200568480030 
0.005152170796345240 -0.001722193203253350 -0.002997469578831640 -0.0006187899114894380 -0.0001880117026898380 
-0.02691553742281330 0.03975418590498640 -0.02612779675493220 0.01898186375508080 -0.03358980815131780 
0.01518944522420590 -0.03809722375077520 -0.02466418375140610 0.06431747226882580 -0.03901618820308450 
-0.01260700070712650 -0.1590899649550440 -0.05408363604207120 0.2118454024203830 -0.08002016316827290 
-0.03486871877505330 0.03692704888198560 0.008128061196633890 -0.05020538321002170 -0.03012064145766390 
-0.1724212770205840 0.3907889656035100 -0.09528405819602700 -0.2630008006246950 -0.02782025127641540 
-0.01896017402714610 0.01516275871812400 -0.08590353201225700 0.02762756667855140 -0.02690827839098540 
-0.1085006652270820 0.1708437704197530 -0.2238890160580120 -0.2028168370181970 0.1595101434268530 
0.02673618963690860 0.04552883400140750 -0.09138934418038490 -0.3629335155762220 0.2531818193284560 
-0.05975069814492430 -0.2061190792598210 -0.03725012462891850 0.2169442577589580 -0.1502618925146750 
0.2072268916891170 -0.3150492542420020 -0.08644756812491840 0.06239736704032910 -0.07866404447802640 
0.1699289471305720 -0.1598141499701410 -0.05366479060583460 -0.1319027413650090 0.03397087889574240 
-0.1106687605332060 -0.09376863516335060 0.1967558112897090 -0.05218453181589660 -0.07476308237431450 
0.04089629720571990 -0.1195960604633060 0.02442279196429860 0.06360103814189100 -0.08181124410727270 
0.06017715540095100 -0.03261060916606480 -0.01760854693573220 -0.01614647771595200 -0.006574565285606240 
0.1510101488495620 -0.05261411134375980 -0.08889287250460210 -0.02763609616402270 0.007300789907042990 
0.03297831075589530 -0.01102351317213090 -0.01918637544434160 -0.003960786006587240 -0.001203436105310940 
0.1035176705130180 -0.04069280114946590 -0.05174350698162240 -0.01677998341664670 -0.005911711262074490 
0.02216587369004020 -0.03809286196403790 0.02983559855199590 -0.02456356933052110 -0.01156085484090410 
0.06634665336092590 -0.02217740055470320 -0.03859966661969650 -0.007968415913142960 -0.002421105153386740 
0.08997470748293280 -0.03007544505351670 -0.05234617779668300 -0.01080621032966260 -0.003283334078304640 
0.04967640779421050 -0.01660511175714880 -0.02890112285377020 -0.005966273479112550 -0.001812778803748030 
0 0 0 0 0 
0.02637617495970940 -0.008816646621198060 -0.01534533406845770 -0.003167851302663770 -0.0009625126496461990 
0.02100452906546750 -0.007021090453706600 -0.01222017657801360 -0.002522701827066330 -0.0007664919176588780 
0 0 0 0 0 
0 0 0 0 0 
0 0 0 0 0 
0.03262573936368450 -0.01090566070191420 -0.01898125374626660 -0.003918441210732510 -0.001190570159986240 
0 0 0 0 0 
0 0 0 0 0 
0 0 0 0 0 
0 0 0 0 0 
0 0 0 0 0 
0 0 0 0 0 
0 0 0 0 0 
0 0 0 0 0 
0 0 0 0 0 
0 0 0 0 0 
0 0 0 0 0 
0 0 0 0 0 
0 0 0 0 0 
0 0 0 0 0 
0 0 0 0 0 
0 0 0 0 0 
0 0 0 0 0 
0 0 0 0 0 
0 0 0 0 0 
0 0 0 0 0 
0 0 0 0 0 
0 0 0 0 0 
0 0 0 0 0 
0 0 0 0 0 
0 0 0 0 0 
0 0 0 0 0 
0 0 0 0 0 
0 0 0 0 0 
0 0 0 0 0 
-0.02420006950954070 -0.01194969033790680 0.04198650082765200 -0.01139694214562260 -0.006138841596867080 
-0.006524187890740560 -0.003221562027742720 0.01131929890392840 -0.003072544560610770 -0.001654993428579400 
0 0 0 0 0 
-0.01930032420997380 0.05081606064809100 -0.01535948110596930 -0.02148789341782130 -0.01136755638467820 
-0.02576376589908610 -0.01272182397290330 0.04469947401675630 -0.01213335975293330 -0.006535505103855250 
-0.05301777449332370 -0.1143387443312520 -0.05705840089086020 0.2396982599614630 -0.08837570475137990 
0.08080846830783010 -0.02227120694350850 -0.05214107351152250 -0.05704886162677930 0.03280133866264940 
-0.1456050060444790 0.2799714226876480 -0.1105088262357580 -0.1582178184753570 0.006198635334753560 
0.008167320364815530 0.04806979223269690 -0.08677362182975810 -0.01379908651112280 -0.01116410999078180 
-0.1074215599752110 0.03434304662749880 -0.2620878394326510 -0.2910092957691140 0.4127673201198860 
-0.01283420125934070 0.07926909217219840 -0.1075907945554130 -0.3141953120449140 0.2251388373920600 
-0.05920269224931350 -0.03294093567371930 -0.2080173870384880 0.2894500885636410 -0.2247584781948540 
-0.04815419728271990 -0.1704816096558820 -0.02058404009058670 0.07842432274094270 -0.07071796543505850 
0.009768881559727380 -0.08037306957268330 -0.006442272398058980 -0.1035591173180450 0.02660195826171030 
-0.06320372335215460 -0.1120292896273670 0.1964164430512460 -0.09412545827196230 -0.1000257164429720 
0.1250915309922750 -0.1283001365215350 -0.05082075299172140 0.06439210379835710 -0.09524917004691740 
-0.08325724513102200 -0.03236922363479930 0.1401423752244270 -0.04537037113730310 -0.02423036943086460 
0.1134226022010090 -0.06007396889341880 -0.03512580981817780 -0.02944027905560310 -0.01190442967635030 
0.04192526687570550 -0.004241112911931530 -0.03024869836820220 -0.01027953221472940 -0.004189229342409100 
0.1030979539420230 -0.05137694967734370 -0.02923814916516690 -0.03578253828973850 -0.01532859956210110 
0.001447839585602910 -0.04005454035750150 0.05426556728228100 -0.02841866059075170 -0.01391895660404280 
0.1761560428363940 -0.05888289648705860 -0.1024854183607440 -0.02115682621243550 -0.006428241388322770 
0.1715282014214930 -0.05733596853270380 -0.09979299716487450 -0.02060100970465500 -0.006259363379695560 
0.1033596741221460 -0.03454957828453810 -0.06013338670349550 -0.01241378171061200 -0.003771774867198970 
0 0 0 0 0 
0.08387790185336860 -0.02803749296849650 -0.04879913129433650 -0.01007396717138790 -0.003060851002200780 
0.05391118027594240 -0.01802065030849810 -0.03136486138050330 -0.006474881324762300 -0.001967313041114400 
0 0 0 0 0 
0 0 0 0 0 
0 0 0 0 0 
0.05845849891197950 -0.01954066227191470 -0.03401043541435400 -0.007021026824888900 -0.002133252633031850 
0 0 0 0 0 
0 0 0 0 0 
0 0 0 0 0 
0 0 0 0 0 
0 0 0 0 0 
0 0 0 0 0 
0 0 0 0 0 
0 0 0 0 0 
0 0 0 0 0 
0 0 0 0 0 
0 0 0 0 0 
0 0 0 0 0 
0 0 0 0 0 
0 0 0 0 0 
0 0 0 0 0 
0 0 0 0 0 
0 0 0 0 0 
0 0 0 0 0 
0 0 0 0 0 
0 0 0 0 0 
0 0 0 0 0 
0 0 0 0 0 
0 0 0 0 0 
0 0 0 0 0 
0 0 0 0 0 
0 0 0 0 0 
0 0 0 0 0 
0 0 0 0 0 
0 0 0 0 0 
-0.02527718755381210 -0.01955871041767150 0.03093530063400690 0.01609996198791920 -0.01880061863284820 
-0.004115086659420770 -0.009415192551107220 -0.006339145388892210 0.02727726383408590 -0.01396818033487780 
-0.007531419288238140 -0.01723165722878510 -0.01160188491864440 0.04992276663240720 -0.02556452184423630 
-0.01623493426604100 0.01334290549262260 -0.01736927983890420 0.02818302773023830 -0.02632435291983360 
-0.02301967545826620 -0.01709101220882710 0.02948853685658440 0.01180946271223360 -0.01585958796441120 
-0.03500073453989760 -0.08130538788099110 -0.05441960502326190 0.2245879628122550 -0.1093822285282990 
0.04663241881004930 -0.02385148595314150 -0.03114110457436850 -0.04234165474633180 0.04784940275524650 
-0.07175007097326440 0.1485486255127110 -0.09703918285489230 -0.1044868537462040 0.04118061475789600 
-0.09072716271581300 0.1170708136757730 -0.09973201293862120 -0.1776762497280830 0.1677335879212560 
-0.1506102003475950 -0.1105451807590180 -0.1439765462823190 -0.3164498506488060 0.5626731280904850 
-0.1717963840943530 0.07518603768850490 0.007047402337758730 -0.1338641316741050 0.04725911729626090 
-0.1315095336061490 0.1671334897925050 -0.1791834907370520 0.07686341546640050 -0.1606870767697870 
-0.2350424630018050 0.03089787179379400 0.01751551906543260 0.03217078492822930 -0.08221361196318170 
-0.1026256548380210 -0.06812884561538490 0.1022014624594970 -0.06137100904292760 -0.07330149457288570 
0.04996014983621390 -0.1572747151525600 0.1507834840882210 -0.1380099047565720 -0.1155102052269960 
0.1485225842285200 -0.07818670965411720 -0.09260135514877840 0.02189312466533250 -0.09965754514801180 
0.09492628596861240 -0.1245054621122710 0.07922732902981870 -0.08896215876462330 -0.07004464675791990 
0.1360171770897000 -0.1249190779527910 0.03151728396353450 -0.07304832748636040 -0.03280510175160540 
0.1206046432017220 -0.04096555131782130 -0.04204651091235440 -0.05783940068812570 -0.02598253025666460 
0.08716970327156000 -0.02150076224408860 -0.05695380319559700 -0.01474370366040610 -0.03129801166487850 
0.04696053869539760 -0.03522761727270540 -0.0001221844221255940 -0.01958048851607490 -0.008557390798800390 
0.2381262175399080 -0.09236702625637050 -0.1207552910618040 -0.03771435243190730 -0.01316431245692310 
0.1055566785761520 -0.04319660761549370 -0.05039204224407580 -0.01832555362261200 -0.006624657093977780 
0.09245145618650990 -0.03090333682032160 -0.05378711971938660 -0.01110367467462480 -0.003373714960325220 
0.04306379477875600 -0.01439474303275810 -0.02505398596062380 -0.005172080432280780 -0.001571473016069850 
0.1478052265230520 -0.04940619528838010 -0.08599126224803060 -0.01775181504129380 -0.005393670630012650 
0.07616168968828000 -0.02545822906773390 -0.04430993399422550 -0.009147228825280330 -0.002779272955816240 
0.03868845316392780 -0.01293221706286720 -0.02250846604176810 -0.004646589846352200 -0.001411809165749310 
0 0 0 0 0 
0 0 0 0 0 
0.02741275191664500 -0.009163138587487250 -0.01594840178832760 -0.003292347051890310 -0.001000339151589960 
0.03097892489499160 -0.01035518735832600 -0.01802315735020230 -0.003720654254592620 -0.001130475026398500 
0 0 0 0 0 
0 0 0 0 0 
0 0 0 0 0 
0 0 0 0 0 
0 0 0 0 0 
0 0 0 0 0 
0 0 0 0 0 
0 0 0 0 0 
0 0 0 0 0 
0 0 0 0 0 
0 0 0 0 0 
0 0 0 0 0 
0 0 0 0 0 
0 0 0 0 0 
0 0 0 0 0 
0 0 0 0 0 
0 0 0 0 0 
0 0 0 0 0 
0 0 0 0 0 
0 0 0 0 0 
0 0 0 0 0 
0 0 0 0 0 
0 0 0 0 0 
0 0 0 0 0 
0 0 0 0 0 
0 0 0 0 0 
0 0 0 0 0 
0 0 0 0 0 
-0.008068210856079930 -0.01845981993575290 -0.01242879333484760 0.05348094327163130 -0.02738659803422140 
-0.01145440685285700 -0.02620733292006810 -0.01764510844930900 0.07592668238785590 -0.03888064427111930 
-0.01667375562964980 -0.03814904345789850 -0.02568533055634060 0.1105236582014170 -0.05659711320087140 
-0.01731767871152310 -0.03962231979584880 -0.02667727127912320 0.1147919668050540 -0.05878283478435390 
-0.01245982076679530 -0.02850768923738170 -0.01919391300774500 0.08259116915635940 -0.04229340420144400 
-0.02445323970006340 -0.05740336102708350 -0.03826600333315080 0.1532779005089530 -0.07180787086324130 
0 0 0 0 0 
0.005421550264466200 0.04927695372558430 -0.1024693715952840 -0.08505709807415080 0.07148005309808980 
-0.1158688666993520 0.1135743172861120 -0.1810579814142620 -0.3671490237906980 0.4217191990891590 
-0.1278310996074580 -0.1785294760219590 -0.05821387515873690 -0.06950494791568810 0.2949623523451810 
-0.2885489820131120 0.04622740335299070 0.07316632549888220 -0.06148292327140620 0.006412253919714800 
-0.2132280645227530 0.2943276521936720 -0.04798994715140000 -0.1973626054624750 -0.04879122251391010 
-0.2818339888360140 0.2079252522411890 -0.006220579310005340 -0.02744081172463490 -0.1241261136868340 
-0.1618479962040290 -0.08006262662250770 0.2115480327408730 -0.06381571357793030 -0.1578175316817650 
0.07324056495933250 -0.1582263296987610 0.1238714402576530 -0.1588438929682700 -0.1018637946311610 
0.1109955778583050 -0.03702769653072840 -0.04947115307561620 -0.04548361694104920 -0.09648293134057590 
0.2628590845901450 -0.1817077636073100 -0.02251552536853500 -0.1043169380121270 -0.1028855018619910 
0.1369346768185840 -0.1800429684802530 0.1073245841264850 -0.1122860609193870 -0.05204735068355860 
0.1354784229903080 -0.08195788162659210 0.009913533221289550 -0.1018060049007750 -0.04734698417568000 
0.08087156247750930 0.006617394346341090 -0.09624678836305170 0.01232332488369080 -0.04467886673594430 
0.08450749609495160 -0.02824794463373060 -0.04916542147778520 -0.01014958317489850 -0.003083825994692810 
0.2112260575419090 -0.09791421057662880 -0.08485741977252560 -0.04486123397128040 -0.01727735518934980 
0.03049226055936030 -0.03343249288695880 0.01462510051607470 -0.02025048741632360 -0.009256352739829270 
0.06375475425206340 -0.02131101797438030 -0.03709173160796760 -0.007657121687163390 -0.002326522232144450 
0.08852572362495430 -0.02959109966776120 -0.05150317681589450 -0.01063218337507020 -0.003230458128908330 
0.1530469555755490 -0.05115832473135380 -0.08904083571839790 -0.01838136114616030 -0.005584950469745020 
0.08577103195575370 -0.02867030114277410 -0.04990053109550280 -0.01030133731395460 -0.003129934623072830 
0.06692835147159640 -0.02237184219341070 -0.03893809142347750 -0.008038279459334140 -0.002442332332484960 
0 0 0 0 0 
0 0 0 0 0 
0 0 0 0 0 
0.04037014491012920 -0.01349434867879300 -0.02348685360876930 -0.004848565659639040 -0.001473177032052780 
0 0 0 0 0 
0 0 0 0 0 
0 0 0 0 0 
0 0 0 0 0 
0 0 0 0 0 
0 0 0 0 0 
0 0 0 0 0 
0 0 0 0 0 
0 0 0 0 0 
0 0 0 0 0 
0 0 0 0 0 
0 0 0 0 0 
0 0 0 0 0 
0 0 0 0 0 
0 0 0 0 0 
0 0 0 0 0 
0 0 0 0 0 
0 0 0 0 0 
0 0 0 0 0 
0 0 0 0 0 
0 0 0 0 0 
0 0 0 0 0 
0 0 0 0 0 
0 0 0 0 0 
0 0 0 0 0 
0 0 0 0 0 
0 0 0 0 0 
0 0 0 0 0 
-0.007049578610010670 -0.01612922047837500 -0.01085962640348690 0.04672883746546830 -0.02392897002159050 
-0.01108608558921340 -0.02536462512193890 -0.01707772257549940 0.07348522802355700 -0.03763042082322030 
-0.01964558530550940 -0.04494849895982740 -0.03026332901553970 0.1302227286821840 -0.06668464142871990 
-0.02235410572282950 -0.05114551092293970 -0.03443570887900330 0.1481764273859790 -0.07587839717702540 
-0.01551355791593560 -0.03549454653570940 -0.02389808703128450 0.1028331715225440 -0.05265895776684850 
-0.01997823812381110 -0.05380444278100310 -0.03409500891792530 0.08340099562117000 -0.005530475978068170 
-0.02603611083252980 0.008922285820007520 -0.01429723706263310 0.04283460942308470 -0.03843934036502520 
-0.007208356919953870 -0.0003585534046167070 -0.1117070036840620 -0.01252207725169810 0.02847862575230860 
0.008838946820638220 -0.01343181074050870 -0.2720607330065890 -0.4907820067796760 0.6067085979167310 
-0.03888028586836020 -0.1833341284289230 -0.1624998627367130 0.3854970773292920 -0.2377266503704060 
-0.2323328951884830 0.07770107023838470 -0.04975085195192640 -0.1335122009287110 0.1193280576935590 
-0.1732855161856190 0.2677560985642890 -0.04721069280917980 -0.2358571576877530 -0.001686952149099600 
-0.2217789557603720 0.2935876176397330 -0.06864636848960390 -0.05745313631554920 -0.1752294747384770 
-0.1247656901880680 -0.04330808864211210 0.1970121331989860 -0.1191822232984000 -0.1521037052920090 
-0.02987984072811730 -0.08049059451989650 0.1202526955226300 -0.1295195550938740 -0.07492218892922970 
0.03489483127467590 -0.04993236507627820 0.08314759111929840 -0.1143853553612090 -0.09148798508055250 
0.2124599155204130 -0.1310040252159970 -0.02933798388896190 -0.09097875898495300 -0.09325870933999460 
0.1002589738009870 -0.1427324361363420 0.1077982024487270 -0.1121026364751890 -0.05293475940886200 
0.09599015260703490 -0.06591015909308160 0.01886274840086230 -0.07917784553360760 -0.03701551656815060 
0.06740381064702110 -0.004563169522809920 -0.05979571136667720 -0.007506226432948670 -0.05083587480939950 
0.04580481649308470 -0.03550734864013020 0.001477773304046740 -0.01991709731436390 -0.008748610184026800 
0.1333665681874820 -0.05737277058879380 -0.05977498663402110 -0.02514905104489190 -0.009349609850922110 
0.04328034773973160 -0.04518852581800520 0.01760413089105170 -0.02712647293467220 -0.01234461244071920 
0.05185794734247220 -0.01733432527338350 -0.03017031572206000 -0.006228282390955500 -0.001892386988563030 
0.1040606467051250 -0.03478388927029370 -0.06054120392775450 -0.01249797044963550 -0.003797354579920890 
0.08395299449839850 -0.02806259385276380 -0.04884281927130150 -0.01008298600500360 -0.003063591263851570 
0.07974491946335890 -0.02665597933810810 -0.04639461299057830 -0.009577584596276970 -0.002910031262900980 
0.05974915629646040 -0.01997208457197870 -0.03476132400085430 -0.007176038333682950 -0.002180350973136880 
0 0 0 0 0 
0 0 0 0 0 
0 0 0 0 0 
0.01244903692065060 -0.004161284169189990 -0.007242696511899860 -0.001495163642424780 -0.0004542870803041860 
0 0 0 0 0 
0 0 0 0 0 
0 0 0 0 0 
0 0 0 0 0 
0 0 0 0 0 
0 0 0 0 0 
0 0 0 0 0 
0 0 0 0 0 
0 0 0 0 0 
0 0 0 0 0 
0 0 0 0 0 
0 0 0 0 0 
0 0 0 0 0 
0 0 0 0 0 
0 0 0 0 0 
0 0 0 0 0 
0 0 0 0 0 
0 0 0 0 0 
0 0 0 0 0 
0 0 0 0 0 
0 0 0 0 0 
0 0 0 0 0 
0 0 0 0 0 
0 0 0 0 0 
0 0 0 0 0 
0 0 0 0 0 
0 0 0 0 0 
0 0 0 0 0 
-0.002267521626617090 -0.005188020203541670 -0.003493036830871110 0.01503049407650540 -0.007696836935696840 
-0.003896734470072140 -0.008915609413054280 -0.006002781567465720 0.02582989449036200 -0.01322700936819730 
-0.01660913467002020 -0.03800119267658930 -0.02558578425460630 0.1100953117020810 -0.05637776491194710 
-0.01985002683071890 -0.04541625492333360 -0.03057826395108050 0.1315778897962310 -0.06737859427307220 
-0.01206985740008800 -0.03076075547452390 -0.01988289482918330 0.06095667744632190 -0.01676923846165980 
-0.01452958053936010 -0.06323360542409520 -0.04192584775943660 0.06962982605452940 0.01805542515634260 
-0.04417267649865340 -0.03162100369202330 -0.08073624818962720 0.04190902413238060 0.04963845066545280 
-0.1326192320721930 -0.01664454896553590 -0.07381523738855990 0.1282392401002780 -0.08333019061322450 
0.1112064193352990 -0.1615975947843210 -0.2229042321543130 -0.4494317132126560 0.5230957200086740 
-0.1072028600678810 -0.1933558009573390 -0.2595860369703840 0.5906821370003270 -0.4334085629960190 
-0.1039402147336650 0.1033242346745160 -0.1078613015658160 -0.2374453352137700 0.1071634797818040 
-0.03647154411364180 0.08227321061153090 -0.08205620426833880 -0.1135226849957860 -0.07121219086209210 
-0.2015124304383340 0.2806630705934450 -0.04308642950209400 -0.1085598668956680 -0.1774866988327330 
-0.04079633496266500 -0.01441169832972650 0.1594941372199010 -0.2235721324184090 -0.09713335666556680 
-0.1750208106653690 -0.04576952128038510 0.2361750941425420 -0.1055586406038530 -0.1100274007932300 
-0.03026324047320180 -0.08672498633307870 0.2105711356817480 -0.1577587283461900 -0.08526755913198860 
0.1695523244409360 -0.07787560336972630 -0.03499682042269650 -0.09153658256945590 -0.06249184106296750 
0.09400978417067190 -0.06346913738412640 0.02086801019870660 -0.08291965607965750 -0.03893339459738080 
0.07354516273952790 -0.04056039253818290 -0.01244882244803290 -0.03298567839409110 -0.01462946208771950 
0.07628920149447340 -0.01386275253383180 -0.03767286633173450 -0.03904185089593500 -0.03686700239736370 
0.02661919783150610 -0.03978634175930500 0.02753004485217870 -0.02524467047870610 -0.01179515986370230 
0.05512300022096600 -0.01842571996852710 -0.03206988331471510 -0.006620424239809720 -0.002011534465485460 
0.04190734426943860 -0.03684005984379690 0.007415602269802940 -0.02133017431823950 -0.009529903920271020 
0.03209254513900060 -0.01072743224131740 -0.01867104790657820 -0.003854403114920000 -0.001171112972325010 
0.06910601587403050 -0.02309976038189520 -0.04020502977960330 -0.008299822955483710 -0.002521799106466740 
0.02285253882657530 -0.007638816452305720 -0.01329532591976940 -0.002744652892298620 -0.0008339290185445420 
0.04806150569200570 -0.01606530561828600 -0.02796159267989000 -0.005772319286135020 -0.001753848208099230 
0.03212997101534040 -0.01073994242244410 -0.01869282182095790 -0.003858898065810240 -0.001172478707859300 
0 0 0 0 0 
0 0 0 0 0 
0 0 0 0 0 
0 0 0 0 0 
0 0 0 0 0 
0 0 0 0 0 
0 0 0 0 0 
0 0 0 0 0 
0 0 0 0 0 
0 0 0 0 0 
0 0 0 0 0 
0 0 0 0 0 
0 0 0 0 0 
0 0 0 0 0 
0 0 0 0 0 
0 0 0 0 0 
0 0 0 0 0 
0 0 0 0 0 
0 0 0 0 0 
0 0 0 0 0 
0 0 0 0 0 
0 0 0 0 0 
0 0 0 0 0 
0 0 0 0 0 
0 0 0 0 0 
0 0 0 0 0 
0 0 0 0 0 
0 0 0 0 0 
0 0 0 0 0 
0 0 0 0 0 
0 0 0 0 0 
0 0 0 0 0 
0 0 0 0 0 
0 0 0 0 0 
-0.01327766134004660 -0.03037888348201340 -0.02045376747202600 0.08801230726039510 -0.04506946836675180 
-0.02253898777986710 -0.02067061356417560 -0.03004490372047320 0.1007907666377370 -0.05889102809264190 
-0.01766504085510730 -0.01063775509931880 -0.02450950493816570 0.01705733406261930 0.01462391174924210 
0.01316864636362170 -0.08046166080038520 -0.06464010801412580 0.08928780011915080 0.003239459960231610 
-0.02925849208466660 -0.1128040778336020 -0.1456252252757020 -0.01692530653133050 0.2111075332055820 
-0.2560988882230060 -0.04568578916434740 0.01195349864803850 0.2007765402454030 -0.1375002901185430 
0.08552708115035340 -0.2405520076660720 -0.04163902614679740 -0.3172744258900740 0.2598755534369520 
-0.2780458043188410 -0.1494444743259110 -0.2318020984003640 0.4531757748068420 -0.3068752971883640 
-0.07054168773728430 0.08834765728788830 0.01576345993284430 -0.3031709887033010 -0.04380230971537310 
0.06495201050653020 -0.09885455254871830 -0.02452471455090080 -0.06397470346358890 -0.1659612833873620 
-0.2468051508376780 0.2100770421572530 0.08202798790842180 -0.1768555977411590 -0.1528970549571360 
0.004733579674117120 -0.03154845748430470 0.1653518082835220 -0.2832376998422390 -0.06461612954787960 
-0.2940242529229200 -0.08373724689344390 0.4319714033710370 -0.1220806287138690 -0.1739288289229400 
-0.05658314050875740 -0.1006715129856060 0.2487006243043140 -0.1561706442750840 -0.07847829440981590 
0.1788390060380020 -0.06911421576689680 -0.05169487213305430 -0.09016413255499480 -0.04067584441324900 
0.1054213423823510 0.006002173782312800 -0.07767522008084110 -0.04798891176673810 -0.02163960520457160 
0.06189991687709350 -0.02069100973968070 -0.03601261004447130 -0.007434350606690100 -0.002258835979715050 
0.1017273876875130 -0.004992881138344610 -0.07190940639699180 -0.03513113949510070 -0.01526367758506450 
0.05735424316513510 -0.02657614285033090 -0.02305599508882950 -0.01217367042337550 -0.004687637373493790 
0.005847961654933920 -0.001954772117057450 -0.003402272139594590 -0.0007023563111333810 -0.0002134023252468530 
0.005336654684283940 -0.006391991330875980 0.003312707086314130 -0.003930148866080450 -0.001809502074490260 
0.004553132317749310 -0.001521955276929760 -0.002648956362341490 -0.0005468437393221490 -0.0001661517433077760 
0.01001866054915030 -0.003348893075456370 -0.005828733441449840 -0.001203268742342370 -0.0003655984055989430 
0 0 0 0 0 
0.006733128268370940 -0.002250652821650820 -0.003917251184516200 -0.0008086672608345540 -0.0002457035995513740 
0.004282880433576320 -0.001431619382316300 -0.002491727141212960 -0.0005143857432468050 -0.0001562897804756150 
0 0 0 0 0 
0 0 0 0 0 
0 0 0 0 0 
0 0 0 0 0 
0 0 0 0 0 
0 0 0 0 0 
0 0 0 0 0 
0 0 0 0 0 
0 0 0 0 0 
0 0 0 0 0 
0 0 0 0 0 
0 0 0 0 0 
0 0 0 0 0 
0 0 0 0 0 
0 0 0 0 0 
0 0 0 0 0 
0 0 0 0 0 
0 0 0 0 0 
0 0 0 0 0 
0 0 0 0 0 
0 0 0 0 0 
0 0 0 0 0 
0 0 0 0 0 
0 0 0 0 0 
0 0 0 0 0 
0 0 0 0 0 
0 0 0 0 0 
0 0 0 0 0 
0 0 0 0 0 
0 0 0 0 0 
0 0 0 0 0 
0 0 0 0 0 
-0.002842340649490050 -0.006503188565791910 -0.004378525195970460 0.01884073950787720 -0.009647992873816960 
0.01091052801623200 -0.01322575669502740 -0.01331378713625810 0.005652203600759680 0.004795079116423000 
0.004452493437763020 -0.03748651226847610 -0.03096536104880480 0.07257371572249060 -0.03013864666112090 
-0.02750207945712820 0.01325657601597290 -0.03887859598300880 0.05569852459847660 -0.05439157821499550 
-0.03184881526283950 0.02704036626156540 -0.03678358514864330 0.01227775758578600 -0.02788627602379050 
0.06033137942191470 -0.1011111141546620 -0.09673807405951620 0.1108454745328870 -0.02079123865445010 
0.007051716308836670 -0.2121594509213750 -0.1036013968975110 0.03573231652436400 0.1399843186474580 
-0.1931772631907310 -0.1243166757837520 0.02534590056667110 0.1073922518912860 -0.03238976519152160 
-0.007496848369795260 -0.1949855938653520 0.06954636070671210 -0.1987464621731880 0.05860519815031020 
-0.2796407179515220 0.05938203270937110 -0.2700387862654140 0.2667856332334140 -0.2508340021511540 
-0.1244659325073270 0.1507993552424690 0.05110917742895270 -0.2701616128568510 -0.1439727566474740 
0.01879448271147530 -0.07408907089296720 0.05781498851975730 -0.1260191557520760 -0.1715250662185710 
-0.2274899509126850 0.1484981975038580 0.1248831140850970 -0.1831185156935380 -0.1511654775862480 
-0.006367573044343890 -0.03036229189558370 0.1360910735054400 -0.2207446519242190 -0.06289166801705800 
-0.2427772275399530 -0.06807393537837730 0.3633401768973130 -0.1095656985355800 -0.1495549966693160 
-0.04763946501228980 -0.07086225964151500 0.1721740721036960 -0.09605717118294560 -0.07303974261385350 
0.1186263100800160 -0.06028772840231030 -0.01924728964251950 -0.06212268735135870 -0.02806216418415300 
0.05217266113201440 0.03541058845685660 -0.06202702178577140 -0.03462527950790180 -0.01628467731963480 
0.02053437311732670 -0.01387164419029350 -0.002187368372060730 -0.007468213452582990 -0.003204941778253600 
0.06612622800682300 -0.004168037807095550 -0.04922046258342880 -0.01756617128922870 -0.007293459139212490 
0.04398909039519580 -0.01470403748059800 -0.02559231156575940 -0.005283210985833940 -0.001605238667717440 
0 0 0 0 0 
0 0 0 0 0 
0 0 0 0 0 
0 0 0 0 0 
0 0 0 0 0 
0 0 0 0 0 
0 0 0 0 0 
0 0 0 0 0 
0 0 0 0 0 
0 0 0 0 0 
0 0 0 0 0 
0 0 0 0 0 
0 0 0 0 0 
0 0 0 0 0 
0 0 0 0 0 
