solver_type L2R_L2LOSS_SVC_DUAL
nr_class 5
label 0 1 2 3 4
nr_feature 1799
bias 1.000000000000000
w
0 0 0 0 0 
0 0 0 0 0 
0 0 0 0 0 
0 0 0 0 0 
0 0 0 0 0 
0 0 0 0 0 
0 0 0 0 0 
0 0 0 0 0 
0 0 0 0 0 
0 0 0 0 0 
0 0 0 0 0 
0 0 0 0 0 
0 0 0 0 0 
0 0 0 0 0 
0 0 0 0 0 
0 0 0 0 0 
0 0 0 0 0 
0 0 0 0 0 
0 0 0 0 0 
0 0 0 0 0 
0 0 0 0 0 
0.04087790093117200 -0.01366207691638790 -0.02377718364937930 -0.004912283358651790 -0.001487423454875430 
0.04182279612206610 -0.01397787666348500 -0.02432679470991630 -0.005025831090217440 -0.001521805339397860 
0.06392911324790190 -0.02136617689494140 -0.03718523289140310 -0.007682339650213360 -0.002326187507876790 
0.03283383944896300 0.04059242310964140 -0.04997560604515390 -0.03162629874422350 -0.01521149039036440 
-0.01005160882805460 0.09736075904477250 -0.02946030278278510 -0.08228954855525610 -0.04163012450540420 
0.0005127794849860960 0.01941087953778790 -0.03571806935494230 0.01808661820217290 -0.07207117659431840 
-0.02698278280969860 -0.1347306210760040 0.09785110016270890 0.07199291741074720 -0.1006956556404310 
0.01064814638703350 0.01537573530056330 -0.08597642841854880 0.006541210408276720 -0.09993239868894220 
0.08369860578236220 0.4982622903463130 -0.3796061987449140 -0.3417124296325150 -0.1678299642404960 
-0.2065792061810450 -0.9396188319867340 -0.1925034177704680 0.4202968140830350 0.3614279581652770 
-0.1614014375102780 -0.1951989042735260 0.1735561776003940 -0.03919055652646900 -0.01776439612774710 
-0.1743956432170620 0.08012787918830390 -0.1358754221700400 0.1092688579573340 -0.1279438093490260 
-0.03482336567904140 0.1437005919740180 -0.1204009385494590 -0.06387833076607780 -0.01562698442695580 
0.006993264928571140 0.02033983514906170 -0.07806807859217860 -0.005427246442210900 0.007073210493998360 
0.01567362484710800 0.01669267217113500 -0.05412287827517440 0.03037478678770790 -0.04229581144906960 
0.05767056741046810 -0.01927446639445050 -0.03354486510428810 -0.006930252339802020 -0.002098457911690180 
0.05148145083935640 -0.01720596031383280 -0.02994488178844900 -0.006186508320552620 -0.001873254636983630 
0.04548798882152010 -0.01520284525122220 -0.02645870358831050 -0.005466276041979870 -0.001655170641030770 
0 0 0 0 0 
0 0 0 0 0 
0 0 0 0 0 
0 0 0 0 0 
0 0 0 0 0 
0 0 0 0 0 
0 0 0 0 0 
0 0 0 0 0 
0 0 0 0 0 
0 0 0 0 0 
0 0 0 0 0 
0 0 0 0 0 
0 0 0 0 0 
0 0 0 0 0 
0 0 0 0 0 
0 0 0 0 0 
0 0 0 0 0 
0 0 0 0 0 
0 0 0 0 0 
0 0 0 0 0 
0 0 0 0 0 
0 0 0 0 0 
0 0 0 0 0 
0 0 0 0 0 
0 0 0 0 0 
0 0 0 0 0 
0 0 0 0 0 
0 0 0 0 0 
0 0 0 0 0 
0 0 0 0 0 
0 0 0 0 0 
0 0 0 0 0 
0 0 0 0 0 
0 0 0 0 0 
0 0 0 0 0 
0.0005589582486661510 -0.0001868131780832990 -0.0003251256211332460 -6.716982135964030e-05 -2.033880386280130e-05 
0.001784067962224370 -0.001619860597093180 -0.001864816611215240 0.002324315502888510 -0.001402445146526430 
0 0 0 0 0 
0.001307965313306180 -0.0005012783415259690 -0.0008126179061660170 1.887716301493280e-06 -0.0001313972289089100 
0.002028682587287000 -0.001445879310700620 -0.001800459581111040 0.001660648546177580 -0.001077177174980500 
0.001902626130981640 -0.0008912981255537790 -0.001230772398844730 -0.001364391739264720 0.001462874064774500 
-0.01887085958449230 -0.01272696248293790 0.03068166186344490 -0.02483679968964070 0.01701443302964890 
0.03731262483809990 0.009594120243849490 -0.03491552354295570 -0.01632814192184200 -0.007355335822945100 
0.01546889614017190 -0.01067349115901170 -0.02376549799701530 0.02467865755841110 -0.03283844658458540 
0.04853837888027930 -0.04009553649404270 -0.04312010721906820 0.04698775115382870 -0.03104822859021660 
0.03218251463046150 0.01624751302074450 -0.03218364520367300 -0.03301907880363640 -0.007823163167472120 
0.03720349814964410 0.02619156664552630 -0.04857813385442910 -0.05790942749717910 0.01933921744294200 
-0.001021506778311820 -0.02732413907674490 0.03000909075972860 -0.09174931446462490 0.06051878706460140 
-0.1361083376316030 -0.09042473861399870 0.2096371421433840 -0.1880321834432530 0.09781122484760610 
-0.2303440910386140 -0.1267551383613600 0.2053464575999230 -0.02088026498837230 -0.03465170239220970 
0.08078033318075490 0.6458565648922290 -0.4964499014980950 -0.4328232080880100 -0.1288863086623710 
-0.05866799216558690 -0.8232689123585980 -0.2979037558394040 0.7397326660149340 -0.007509957836163560 
-0.04375769416595030 -0.1863982037337740 0.02488680340079130 -0.01214586109914340 0.03987976845815670 
-0.1924073228829900 0.07138487003075080 -0.02637976926183550 0.07599436275010200 -0.1909107070959460 
-0.02503609576790390 0.06456244945558090 -0.09491265643246080 -0.01293039577537890 -0.03814109990383660 
-0.02684764057325300 0.04578751216953010 -0.06100364563875090 -0.01186244359155600 -0.03645394063842230 
-0.03189675096527310 0.06916416090774730 -0.03334290251144960 -0.04451564800428310 -0.03806962021685010 
0.008073810317269240 0.008770487496468750 -0.01729074017880600 -0.002216951141633570 -0.03943399953585010 
0.04210409613693980 0.01551426943183100 -0.04220638884959160 -0.02094149594365380 -0.009574200096280320 
0.04381434599719170 -0.02955586774661280 -0.03753476608306130 0.03172032002527600 -0.02108022757612190 
0 0 0 0 0 
0 0 0 0 0 
0 0 0 0 0 
0 0 0 0 0 
0 0 0 0 0 
0 0 0 0 0 
0 0 0 0 0 
0 0 0 0 0 
0 0 0 0 0 
0 0 0 0 0 
0 0 0 0 0 
0 0 0 0 0 
0 0 0 0 0 
0 0 0 0 0 
0 0 0 0 0 
0 0 0 0 0 
0 0 0 0 0 
0 0 0 0 0 
0 0 0 0 0 
0 0 0 0 0 
0 0 0 0 0 
0 0 0 0 0 
0 0 0 0 0 
0 0 0 0 0 
0 0 0 0 0 
0 0 0 0 0 
0 0 0 0 0 
0.0004114158499266860 -0.0001375020453174320 -0.0002393055904813520 -4.943970182038670e-05 -1.497018122136050e-05 
0 0 0 0 0 
0.0004585609518508940 -0.0001532587254318040 -0.0002667281763061000 -5.510511257653490e-05 -1.668564920741560e-05 
0.0002601578787269500 -8.694910620671160e-05 -0.0001513243468821700 -3.126308321076280e-05 -9.466360110825010e-06 
0.0002919083069476100 -0.0001216033334898950 -0.0001363058289775150 -5.223316901264880e-05 -1.904895962928020e-05 
0.0004442035912857490 -0.0001775009807754820 -0.0002179292160780990 -7.410056610241180e-05 -2.634240021496870e-05 
0.0004537148809350540 -0.0001516390876302950 -0.0002639093936504580 -5.452276189383220e-05 -1.650931531110460e-05 
0.0001774193147742460 -8.368306662447680e-05 -6.923282437009680e-05 -3.872041669694270e-05 -1.500358031873980e-05 
0 0 0 0 0 
-0.0002962985936708880 -0.0005756765799400040 -0.0002685457615577310 0.001557665951470130 -0.0008255440033792090 
0.0004334051871224010 -0.0002029766587784710 -0.0001711391436129410 -9.355506399784390e-05 -3.614405949379320e-05 
-0.0005910703203162790 -0.0003187744181951930 0.0009764283581936680 -0.0001718400055970690 -0.0001970531189808770 
-0.0004154055647360600 -0.0005627775736611630 0.0001121533726190730 0.0009111504992348000 -0.0004408441531803430 
-0.006519053117737030 -0.003219126598964390 0.01131007339461810 -0.003068051431858980 -0.001654830292224070 
-0.02754094947229150 -0.02156644004096530 0.04719859779573380 -0.04185459709499520 0.02968717528367330 
0.01629516392362480 0.02553027872031570 -0.02180828596145020 -0.03272787711711780 -0.01071716539195770 
-0.02857782700546120 -0.01650588216788450 0.02018690618137190 0.02563224683602260 -0.05960837120271050 
-0.02673051354555880 -0.08824623012306610 0.07129526229098390 0.04399668566645250 -0.06169195142041970 
-0.05232920303240150 -0.03945569221755080 0.08299632965700330 -0.07240309425637960 -0.002595384787158800 
-0.02777515733115790 -0.06964709468614580 0.1251061247262620 -0.1264361640590640 0.02877754305423310 
0.03442893402155310 -0.1164158141537460 0.08297970073707630 -0.1646637142785790 0.1076775418189370 
-0.06921295121314770 -0.1016445225413530 0.1768650568304780 -0.3849277426348880 0.2523041769229520 
-0.2397785535662240 -0.2102822202305800 0.2467318986423440 0.01512564546664940 -0.04469012588579900 
0.07894588642478890 0.6987031095605880 -0.5451873606875470 -0.4580399998231170 -0.1131251158527590 
0.02403830987537990 -0.6074443747800160 -0.3451699852339900 0.8313583454966180 -0.2404139479559980 
0.01783652324157140 -0.1579876642790120 -0.06917463847949190 0.03563516773439900 0.04110449906951270 
-0.1534639726339340 0.08666462951144490 -0.03217873632729740 0.06948540775509660 -0.2006935988354410 
-0.02885995464479560 0.02491641637496960 -0.08334738812174600 0.03479740781849300 -0.05107844157532710 
-0.05341847715707470 0.07967528854801140 -0.06445458476621750 0.001848227612659300 -0.06949275175121370 
-0.06690700252440270 0.1299777314535230 -0.04496989914667440 -0.07338630309092590 -0.04538993787223620 
-0.02751703368341570 0.03999190134972970 -0.02409355640432560 0.01348409674326620 -0.06334353351410490 
0.02139866731492910 0.04059276901728930 -0.04103591022786660 -0.02820076655609410 -0.01375663812552140 
0.02958020472543360 -0.03287467529586700 -0.03578096252716560 0.05346104701876860 -0.03111529466631120 
0 0 0 0 0 
0 0 0 0 0 
0 0 0 0 0 
0 0 0 0 0 
0 0 0 0 0 
0 0 0 0 0 
0 0 0 0 0 
0 0 0 0 0 
0 0 0 0 0 
0 0 0 0 0 
0 0 0 0 0 
0 0 0 0 0 
0 0 0 0 0 
0 0 0 0 0 
0 0 0 0 0 
0 0 0 0 0 
0 0 0 0 0 
0 0 0 0 0 
0 0 0 0 0 
0 0 0 0 0 
0 0 0 0 0 
0 0 0 0 0 
0 0 0 0 0 
0 0 0 0 0 
0 0 0 0 0 
0 0 0 0 0 
0 0 0 0 0 
0.001542067701918720 -0.0005153847696182820 -0.0008969645239376160 -0.0001853097477486490 -5.611119007068830e-05 
0.0001286100414440990 -4.298362289657660e-05 -7.480776911024610e-05 -1.545502464534820e-05 -4.679731292919140e-06 
0.001718776836955550 -0.0005744439125710120 -0.0009997497810223240 -0.0002065448240023130 -6.254110222755490e-05 
0.0009751230105889340 -0.0003259023890692670 -0.0005671934804712100 -0.0001171801983086110 -3.548178366058640e-05 
0.001144891223204520 -0.0004307271681210450 -0.0005989682888645660 -0.0001718904817188010 -5.851373109848100e-05 
0.001726276287468280 -0.0006350318039892750 -0.0009232163230326370 -0.0002488875756609840 -8.317232866279260e-05 
0.001700612807927840 -0.0005683731908354270 -0.0009891844280035510 -0.0002043620588532640 -6.188016802605740e-05 
0.0007164899163180580 -0.0002882360307780790 -0.0003488250083617400 -0.0001209003446986460 -4.316655958344480e-05 
0 0 0 0 0 
-0.0001144534055496130 -5.651741065652130e-05 0.0001985681652919980 -5.386502125933320e-05 -2.905344674004640e-05 
0.001747208220859270 -0.0007001969754620120 -0.0008543735956106440 -0.0002929072357825810 -0.0001043231397896840 
-0.001152182011898800 -0.0005689506887526690 0.001998950289740500 -0.0005422495579534950 -0.0002924758643641270 
-0.0004890163826206030 -0.0005353757371376690 0.0006709653303224600 -0.001605928946867330 0.001755989112217210 
-0.03094413946072600 -0.01985862690504220 0.04534086312031400 0.003533205022974430 -0.01585582771654370 
-0.02242041066960040 -0.04382632876878350 0.04227697826553250 -0.01750734183462330 0.01192751346622950 
-0.02743342034798260 0.01135987796517090 0.02973180502619270 -0.07255117845840500 0.01256250826530550 
-0.07829454796288670 -0.02459790241100900 0.08779968993068280 -0.02458863167739420 -0.04869215016239240 
-0.1520340912541750 -0.1196729835845370 0.2566581984914800 -0.08183544310726790 -0.03502831858423520 
-0.2562775182783660 -0.1283297336364810 0.3239869935582960 -0.1386490644460550 -0.03677490820621070 
-0.2131354418266990 -0.1584154753233000 0.4375631394407080 -0.2528300010873780 -0.04766237896942870 
0.1083942419720990 -0.2430076238305680 0.1044780247522120 -0.1978010925071970 0.07804592816802810 
0.1891693398992620 -0.1865081528219750 -0.01664336746669520 -0.4607272294000390 0.3181594595526670 
0.006512563218246760 -0.1939332554568270 0.004319207852296870 0.1055226175970070 -0.1566600675879690 
0.1041534289334520 0.5743205011099320 -0.5000143567966640 -0.3571750135355950 -0.1237037054951300 
0.04171048403508630 -0.2919334407448610 -0.2800326074567930 0.5503388531472310 -0.2246793631286890 
0.001416618588205130 -0.09270468133281150 -0.09609265404665360 0.1073359370960750 -0.03413367809684100 
-0.06599935080982270 0.1069684480632320 -0.1337802961262060 0.08670184837075620 -0.1427486192792450 
-0.04982813858318130 0.03853866134462900 -0.07874788051242200 0.06093552374294810 -0.04997084004638170 
-0.06702945048214640 0.1064995483432450 -0.07669080224297500 0.03438322030999050 -0.08330775487394360 
-0.08567280589421470 0.1820492983077670 -0.08022755026040610 -0.04088579164533640 -0.06929392991263970 
-0.04316237129667850 0.06215999783471250 -0.04692065526760990 0.03888480463744000 -0.06696871467601600 
-0.006637704359284720 0.04591086421232280 -0.02230179154579940 -0.02265646158184270 -0.01163502298657850 
0.004262195452688570 -0.01984071924638820 -0.01735990958703930 0.04516346322795620 -0.02421949996109580 
0 0 0 0 0 
0 0 0 0 0 
0 0 0 0 0 
0 0 0 0 0 
0 0 0 0 0 
0 0 0 0 0 
0 0 0 0 0 
0 0 0 0 0 
0 0 0 0 0 
0 0 0 0 0 
0 0 0 0 0 
0 0 0 0 0 
0 0 0 0 0 
0 0 0 0 0 
0 0 0 0 0 
0 0 0 0 0 
0 0 0 0 0 
0 0 0 0 0 
0 0 0 0 0 
0 0 0 0 0 
0 0 0 0 0 
0 0 0 0 0 
0 0 0 0 0 
0 0 0 0 0 
0 0 0 0 0 
0 0 0 0 0 
0 0 0 0 0 
0 0 0 0 0 
0 0 0 0 0 
0 0 0 0 0 
0 0 0 0 0 
0 0 0 0 0 
0 0 0 0 0 
0 0 0 0 0 
0 0 0 0 0 
0.004228940477295340 -0.001413382506428490 -0.002459820393915280 -0.0005081903292031710 -0.0001538783820087130 
0.01429186587694820 -0.004776580167810690 -0.008313056979629820 -0.001717448629019010 -0.0005200378697306330 
0 0 0 0 0 
0.009228127759143780 -0.003084194353618000 -0.005367665253618150 -0.001108940953183500 -0.0003357837208091680 
0.01608827711446480 -0.005376970793095970 -0.009357963859172410 -0.001933322752355390 -0.0005854038535120190 
-0.01953422404964640 -0.03392185036203970 0.02507860421470280 0.03049267456599400 -0.02661155261983780 
-0.02441050669183890 -0.08885295286864790 0.05611469801831780 0.03416907828429900 -0.04085216279995880 
0.01656577635933270 0.002536543192105440 -0.02269042269161570 -0.05683981791010760 0.007841074944517090 
-0.09078539835822300 0.003593354020404980 0.07064188460267630 -0.04569634797423200 -0.03241904430835570 
-0.2074027936376600 -0.03761096262297950 0.2587245800418670 -0.2163781112344540 0.02021104324564790 
-0.4947985705004220 -0.2095899576998630 0.6291298695512110 -0.1587667156233690 -0.2044677168658190 
-0.3435358020706790 -0.1358946680527410 0.5406041306888320 -0.3505779771152780 -0.1101648017892120 
0.07033962819686960 -0.2752734365824740 0.05805382330296820 -0.2098200651904820 0.1007578405775880 
0.3540339733012270 -0.2567522053325710 -0.1536439575569070 -0.4015625658805210 0.2672440721832260 
0.1842856258383400 -0.1184497292061600 -0.2010664844872240 0.1279822630821260 -0.2370612701293460 
0.1508098675813430 0.3013390798288350 -0.3698991362107960 -0.1739348658239620 -0.1365521916935260 
-0.001037523403158810 0.07297645945990240 -0.1625561574697500 0.06101475648855050 -0.08388229179093830 
-0.04627894926098160 -0.006015277030086580 -0.1036637221693370 0.1488144009502520 -0.1017261678541350 
-0.04515228354182340 0.07357596133159780 -0.1070176547943650 0.07612467247448920 -0.08846626853808370 
-0.05670256065953220 0.05587284337940090 -0.06040161099992750 0.04951540742841960 -0.04944749569279480 
-0.05860365582216680 0.08637204428234040 -0.05689378291212100 0.04163053008586150 -0.07323538968364850 
-0.08876225664213990 0.1788979088798280 -0.07891985760336740 -0.01254037766365710 -0.08355259203222460 
-0.04179913600312300 0.04940887635906500 -0.04241938935071530 0.04886976472421860 -0.05917870376625700 
-0.009338787788140650 0.02460308351066500 -0.007431171803821950 -0.01040925461682990 -0.005499436430969680 
-0.002380653824415790 -0.005451132091955050 -0.003662812562596520 0.01577927197890870 -0.008076028436820300 
0 0 0 0 0 
0 0 0 0 0 
0 0 0 0 0 
0 0 0 0 0 
0 0 0 0 0 
0 0 0 0 0 
0 0 0 0 0 
0 0 0 0 0 
0 0 0 0 0 
0 0 0 0 0 
0 0 0 0 0 
0 0 0 0 0 
0 0 0 0 0 
0 0 0 0 0 
0 0 0 0 0 
0 0 0 0 0 
0 0 0 0 0 
0 0 0 0 0 
0 0 0 0 0 
0 0 0 0 0 
0 0 0 0 0 
0 0 0 0 0 
0 0 0 0 0 
0 0 0 0 0 
0 0 0 0 0 
0 0 0 0 0 
0 0 0 0 0 
0 0 0 0 0 
0 0 0 0 0 
0 0 0 0 0 
0 0 0 0 0 
0 0 0 0 0 
0 0 0 0 0 
0 0 0 0 0 
0 0 0 0 0 
0.02903374130155410 -0.009703561039012680 -0.01688786809572200 -0.003488974751300580 -0.001056450228876240 
0.04548934634284430 -0.01941916239012040 -0.02986601120106140 0.004989684662406120 -0.007164073620184650 
0 0 0 0 0 
0.04309329751871870 -0.01465980005581140 -0.02527370404261690 -0.004540353522892180 -0.001904248839939930 
0.07436469166562860 -0.02805754340770660 -0.04584383095865360 -0.0009908023585444970 -0.006892068047415500 
0.01084719757012250 -0.06052321346418480 0.006275535287821920 0.02562267230245190 -0.01689539955822830 
0.01395774182719460 -0.1297805270715480 0.03640579755910690 0.08470306770140650 -0.08673654984791260 
0.1226101128480690 0.005732930678611670 -0.1390027665207810 0.0006579909328046880 -0.04629912066219630 
-0.03540689022858840 0.03609957579453480 -0.04786696558017560 0.0008947103479392820 -0.06608648728398290 
-0.2604060314463550 0.04240899194924950 0.2191176113941890 -0.2673949706794090 0.02846289425053560 
-0.5272142479612040 -0.2072427743503200 0.7022930273206040 -0.1049831395834940 -0.4005398477194160 
-0.3327616904766560 -0.004627755029515760 0.3523461493386660 -0.4088425924780220 -0.07597844056578130 
-0.06335082029183580 -0.1803300131331640 -0.02255938928384280 -0.3046949942610470 0.2671340424322440 
0.3182955943194880 -0.2302577020308470 -0.1580984523458160 -0.2744367760398520 0.1373465605875400 
0.1721870362353290 -0.06254162692890300 -0.2427696596722920 0.08521474379960580 -0.1950175346908230 
0.1645497616397740 0.04154128909683220 -0.2102901153893990 -0.009893168965637160 -0.1310360209530900 
-0.05249481158712610 0.2558673259050950 -0.1202691510018490 -0.1588304186492950 -0.02011542604816790 
-0.08230618238814070 0.06170364753695110 -0.1025115428371060 0.1257317212764470 -0.1035790256456450 
-0.04029897931620550 0.04725691340881710 -0.05024804134618930 0.04878313292369780 -0.05509327605947010 
-0.05007769052133050 0.06589532270387830 -0.05014726444764170 0.03816384188536180 -0.05641316353475870 
-0.03707710782368270 0.05621895711402100 -0.03575795032105140 0.02386456065214640 -0.04543844730734830 
-0.07242896528615050 0.1477255760985790 -0.06413414617710730 -0.01297967928243390 -0.06718335719747030 
-0.02677970714174660 0.02635659441833960 -0.02797638380125870 0.03964085796603720 -0.04093090934292280 
0 0 0 0 0 
0 0 0 0 0 
0 0 0 0 0 
0 0 0 0 0 
0 0 0 0 0 
0 0 0 0 0 
0 0 0 0 0 
0 0 0 0 0 
0 0 0 0 0 
0 0 0 0 0 
0 0 0 0 0 
0 0 0 0 0 
0 0 0 0 0 
0 0 0 0 0 
0 0 0 0 0 
0 0 0 0 0 
0 0 0 0 0 
0 0 0 0 0 
0 0 0 0 0 
0 0 0 0 0 
0 0 0 0 0 
0 0 0 0 0 
0 0 0 0 0 
0 0 0 0 0 
0 0 0 0 0 
0 0 0 0 0 
0 0 0 0 0 
0 0 0 0 0 
0 0 0 0 0 
0.02019411534598040 -0.006749210473887300 -0.01174618016777800 -0.002426719926832360 -0.0007348029162907890 
0.001453794546401870 -0.0004858824073919530 -0.0008456192497864710 -0.0001747019928741700 -5.289919632930940e-05 
0.02222096559842340 -0.007426617664963510 -0.01292512501534420 -0.002670285827692080 -0.0008085538804139240 
0.01391747264372170 -0.004651451699058630 -0.008095286094610520 -0.001672457922371250 -0.0005064148298053350 
0.01627408668919790 -0.006263736206332130 -0.008317452690139450 -0.002544055841910900 -0.0008812211989130690 
0.02350599080881800 -0.008852191407874890 -0.01228521750642560 -0.003535429368423350 -0.001204457670587520 
0.02205364435965110 -0.007370696113666120 -0.01282780035502400 -0.002650178891718190 -0.0008024655654716350 
0.01104882104616170 -0.004529159787559410 -0.005261678835781240 -0.001924552986782050 -0.0006952237165427630 
0.08440668059618750 -0.02821012176001280 -0.04909628674792420 -0.01014312190711110 -0.003071304387139160 
0.02993151163935920 -0.02957172896008970 -0.02964458208770080 0.03974499781971060 -0.02510462364618720 
0.02325766331524970 -0.009766800907516330 -0.01075131457227890 -0.004217386286574030 -0.001545095897731650 
0.05827197721786960 -0.04179361832739500 -0.004581008900951810 -0.02035678520554350 -0.01071258120499460 
0.1202255326800970 -0.07841017394019760 -0.05379579032932010 0.0008784320757577550 -0.02141886679259020 
-0.03064868239824480 -0.1061177198880360 0.1115265915120590 -0.01027919666733210 -0.03593077504487120 
0.1259650428006660 -0.1208069707863790 -0.09099187861619640 0.1135009979163200 -0.08749903013859750 
0.1779700614027220 -0.001397889991623370 -0.1836872900210940 0.001293197916532900 -0.08355010953197730 
0.1355885928560890 -0.001373366515978980 -0.2157384886606830 0.05619796795298390 -0.1645881524032890 
-0.4479158193498320 0.02949380005349200 0.3939900132809890 -0.2298755870644810 -0.09446871315253140 
-0.2025274641962650 -0.1059092290042790 0.2663532989251090 -0.06296678709127780 -0.3156125802832730 
-0.2212350564322240 0.1624949276678090 0.002510270764001900 -0.3683887384087890 -0.006994783919428720 
-0.1311258729579720 -0.01254377139237820 -0.1464641327085800 -0.3649646723670830 0.3621775376300980 
0.1789213593837850 -0.1163629588646520 -0.1178042867469930 -0.1629078768687530 0.02227868855284650 
0.04619763524790690 -0.05310182995533400 -0.1676515429789160 0.09111531509952970 -0.1116601767797630 
0.1015692330204960 -0.05766485664493110 -0.1002609924199260 0.06992589426971730 -0.08009753895340850 
-0.09452139092112410 0.2187827289340340 -0.1174477154433770 -0.04808485633573280 -0.07138279441594370 
-0.08048742496283610 0.08289318978429470 -0.08471233460649810 0.07881761707993730 -0.08349879036041090 
-0.03184052826986650 0.05539313074871690 -0.01992319244401920 -0.004518372355821130 -0.02812673611777600 
-0.04649155940055330 0.06675792319592320 -0.04731316930274320 0.03833468031156820 -0.06228490056951310 
-0.02489376436875100 0.05000396352188110 -0.02284010898828780 -0.004058877334852640 -0.02377641184127250 
-0.05067622656020150 0.1148644025169550 -0.04291051493133960 -0.02893542409769380 -0.04018460229718540 
-0.01116352755506510 0.01207497872895140 -0.01230407630653790 0.01586659423271450 -0.01794863902126030 
0.001317439021103360 -0.0004403101144863240 -0.0007663062152916450 -0.0001583161960860260 -4.793763025299970e-05 
0.001200628540517440 -0.0004012701018131650 -0.0006983618202567780 -0.0001442791206289350 -4.368724937137570e-05 
0 0 0 0 0 
0 0 0 0 0 
0 0 0 0 0 
0 0 0 0 0 
0 0 0 0 0 
0 0 0 0 0 
0 0 0 0 0 
0 0 0 0 0 
0 0 0 0 0 
0 0 0 0 0 
0 0 0 0 0 
0 0 0 0 0 
0 0 0 0 0 
0 0 0 0 0 
0 0 0 0 0 
0 0 0 0 0 
-3.735316123088700e-05 9.840709158397310e-05 -2.972310377103530e-05 -4.163480044910790e-05 -2.199657389644180e-05 
0 0 0 0 0 
0 0 0 0 0 
0 0 0 0 0 
0 0 0 0 0 
0 0 0 0 0 
0 0 0 0 0 
0 0 0 0 0 
0 0 0 0 0 
0 0 0 0 0 
0 0 0 0 0 
0.04306454432488360 -0.01439288964290000 -0.02504907433759070 -0.005175051546585950 -0.001566988809190750 
0.0003395412320710610 -0.0001134803481384860 -0.0001974987474303920 -4.080255360193670e-05 -1.235488077849600e-05 
0.04394529673601040 -0.01468725180218420 -0.02556137588321690 -0.005280891262268890 -0.001599036731525460 
0.04343139297071070 -0.01451549658459200 -0.02526245681136410 -0.005219135622749120 -0.001580337324348390 
0.05500050185645250 -0.01838208591160280 -0.03199178538180890 -0.006609391476383790 -0.002001302283817190 
0.06687845193290810 -0.02235189512041680 -0.03890075560563670 -0.008036760670161950 -0.002433505042205080 
0.04443371752414340 -0.01485049018338860 -0.02584547243693100 -0.005339584621147680 -0.001616808890065130 
0.04853932159918020 -0.01622265160517560 -0.02823355254525550 -0.005832953657120780 -0.001766199432596260 
0.1410170956309600 -0.04713026753207520 -0.08202449989213030 -0.01694597609891290 -0.005131186553171390 
-0.006976317135490340 -0.02105495199465360 -0.01483902278609790 0.05884133556056410 -0.03030527840027870 
0.06607130251267790 -0.02208213230943550 -0.03843126623460410 -0.007939765800693960 -0.002404135310592370 
0.06991701584736930 -0.03920518263132450 -0.01860942329506250 -0.01970225503692670 -0.008095417165023420 
0.06262167144169680 -0.1593032457392180 0.08246256095802370 -0.04621099757406350 -0.03060729707890740 
-0.1156208284648720 -0.1486851211228180 0.2713800562584570 -0.04286468810987840 -0.08002580656063490 
0.2352763693093800 -0.1250852432425250 -0.1667235013766530 0.07581709477147380 -0.06593051275488330 
0.1954897124650780 -0.04053176456053790 -0.1426107224575080 -0.08139220663426100 -0.09113999964388280 
0.2202472953484590 -0.08662983535165510 -0.2232914567988340 0.06028839468739540 -0.2820574823767210 
-0.4967897960160010 0.01249051248529300 0.4325058412979970 -0.1061864950870360 -0.2540211142454610 
0.05049896091881530 -0.04634698955366840 -0.1218408579282450 -0.09471845023227890 -0.06989680409301180 
-0.1673657680184810 0.2193713460353180 -0.1871621226988350 -0.2353630597985050 0.001946382310556860 
-0.1175585165045520 0.1275720509805550 -0.2581260258486250 -0.2787647201072640 0.2761997202740940 
0.04920030131954580 3.977608082336640e-06 -0.1154901758151800 -0.07020599313986940 -0.02556062649926230 
-0.04862350717374100 -0.05204485976006220 -0.08493040488386450 0.09270490265941770 -0.02567287452949370 
-0.005989493755090830 -0.03523480070149990 -0.02458475605768210 0.04965739909591160 -0.002651654258986480 
-0.1134130520872770 0.07904906105283390 -0.1248930222572650 0.2087850329209600 -0.1803845552553600 
-0.06440290935007150 0.08138195460017270 -0.06356289390525940 0.05434476934284130 -0.07558743710278730 
-0.02957980613276650 0.07750324639739560 -0.02360169465933260 -0.03230231616985090 -0.01766089584291630 
-0.04468222723830590 0.06032570364726170 -0.04445682862108530 0.04077136368711420 -0.05925973876659120 
-0.02133399847459230 0.05609946193496820 -0.01725619063854960 -0.02529885471447550 -0.01072380106618030 
-0.03138583776595600 0.08274407307155590 -0.02516299179062470 -0.03572029010449650 -0.01768730040372950 
-0.001986693586416700 0.004759044243518150 -0.001161889683595900 -0.002171462175292920 -0.001146344772175750 
7.298619800976850e-05 -2.439320582343770e-05 -4.245340867355720e-05 -8.770726424977690e-06 -2.655747490183070e-06 
1.118253595823640e-05 -0.0001475932649852210 -0.0001227434438319570 0.0003554454696496650 -0.0001883828528721590 
0 0 0 0 0 
0 0 0 0 0 
0 0 0 0 0 
0 0 0 0 0 
0 0 0 0 0 
0 0 0 0 0 
0 0 0 0 0 
0 0 0 0 0 
0 0 0 0 0 
0 0 0 0 0 
0 0 0 0 0 
0 0 0 0 0 
0 0 0 0 0 
0 0 0 0 0 
0 0 0 0 0 
0 0 0 0 0 
-3.786484837103610e-05 9.975513393443860e-05 -3.013026957611800e-05 -4.220514018128740e-05 -2.229789682653000e-05 
0 0 0 0 0 
0 0 0 0 0 
0 0 0 0 0 
0 0 0 0 0 
0 0 0 0 0 
0 0 0 0 0 
0 0 0 0 0 
0 0 0 0 0 
0 0 0 0 0 
0 0 0 0 0 
0.02403435984688940 -0.008032684296026420 -0.01397991029277580 -0.002888200793639400 -0.0008745378247129760 
0 0 0 0 0 
0.01605555801363100 -0.005366035523377020 -0.009338932351887380 -0.001929390909210930 -0.0005842133041713220 
0.07063269801074150 -0.02360662683388630 -0.04108446358535660 -0.008487907135913090 -0.002570110727534800 
0.09159319825863250 -0.03061197593620000 -0.05327642189104650 -0.01100672327400440 -0.003332800077634510 
0.08404090270217850 -0.02808787268145360 -0.04888352709141970 -0.01009916650282730 -0.003057994833408890 
0.01840843908442660 -0.006152407656781010 -0.01070751743211580 -0.002212135821881880 -0.0006698275458890300 
0.1023607758236740 -0.03421068011488250 -0.05953952893399410 -0.01230065938326810 -0.003724599731178380 
0.1531305639765100 -0.05117879087821740 -0.08907046250082800 -0.01840164744244880 -0.005571959110632190 
-0.004761073021922010 -0.01090172694398750 -0.007325264134282430 0.03155698882124890 -0.01615126093532560 
0.07593868440773160 -0.02537997606713200 -0.04417076229758190 -0.009125525704514580 -0.002763179560286810 
0.02526425852220740 -0.008443736965532370 -0.01469529748260240 -0.003035997296345480 -0.0009192901259592760 
-0.09928968261656480 -0.2211685402665250 0.3255769927587100 -0.09122190168021720 -0.07084389055244010 
-0.1713337327876810 -0.1714172030810010 0.3629711796480830 -0.06870392642657490 -0.09100128784038530 
0.3046975438861960 -0.1345721259888690 -0.1516135523086210 -0.04656557834060790 -0.04651541388294850 
0.2547100099551210 -0.08803924346499420 -0.1067711442214450 -0.1612083873915090 -0.1441896923885470 
0.05301321100273300 -0.1136302244910910 -0.02752510688389390 0.04128341800066050 -0.3445825333256000 
-0.2438882849939760 0.01929920619933370 0.1428330491307790 0.0004374931070556460 -0.2974855214350580 
-0.05086654512797560 -0.02615457895102920 -0.1104804211614910 -0.01188734928118330 -0.06018339382194700 
-0.1876892341853550 0.07705748094313710 -0.1201637343702320 -0.04027202580353180 -0.03854966911247970 
-0.07927518906341510 0.1244662337834550 -0.2748241796016570 -0.1337684232931110 0.1672613063585790 
0.005080784098805750 0.02492589663690160 -0.1633376720793350 -0.006836187968216080 0.01981886740498000 
0.01063962780449780 -0.03844842318215990 -0.09603365853603420 -0.04265304899239340 0.1091832210021480 
-0.01320140013758070 0.002208471625805410 -0.01756687140564110 -0.02624063248410500 0.04166153063553640 
-0.08855765429566690 -0.01105640094711820 -0.1051439451334670 0.2824040980630230 -0.1897284165153940 
-0.05070249261332420 0.06892995214077680 -0.04942190762624450 0.04417080651256080 -0.06618568010148020 
-0.03842107815924000 0.07464973406740460 -0.03622460279901030 0.0004644957490791330 -0.03878293892467200 
-0.03426792681972800 0.03916909581679390 -0.03502814934249390 0.04070880427891990 -0.04769693361182160 
-0.01703003548608910 0.04486571434741410 -0.01355134332134870 -0.01898211840014880 -0.01002866749920560 
-0.01734485646014660 0.04569511179078300 -0.01380185642848230 -0.01933302600743430 -0.01021405964787020 
-0.0007482194612330470 -0.0003694728553391840 0.001298105241511660 -0.0003521333156704930 -0.0001899319130122120 
-0.0005737504431655240 0.001511548435162900 -0.0004565515581258180 -0.0006395170963209110 -0.0003378708415921390 
-0.0002818378758213740 -0.0006453418274684890 -0.0004336284854129830 0.001868056771183310 -0.0009560947821823730 
0 0 0 0 0 
0 0 0 0 0 
0 0 0 0 0 
0 0 0 0 0 
0 0 0 0 0 
0 0 0 0 0 
0 0 0 0 0 
0 0 0 0 0 
0 0 0 0 0 
0 0 0 0 0 
0 0 0 0 0 
0 0 0 0 0 
0 0 0 0 0 
0 0 0 0 0 
0 0 0 0 0 
0 0 0 0 0 
0 0 0 0 0 
0 0 0 0 0 
0 0 0 0 0 
0 0 0 0 0 
0 0 0 0 0 
0 0 0 0 0 
0 0 0 0 0 
0 0 0 0 0 
0 0 0 0 0 
0 0 0 0 0 
0 0 0 0 0 
0 0 0 0 0 
0.004669082692530940 -0.001560485382596780 -0.002715835063091240 -0.0005610820685070660 -0.0001698938289741670 
0.002895488559272040 -0.0009677206144684930 -0.001684200060673570 -0.0003479498687769570 -0.0001053580907600000 
0.08344278024872490 -0.02788797017231420 -0.04853562108116440 -0.01002729033238790 -0.003036230962322360 
0.09413686986065570 -0.04201312038621890 -0.04006058193117180 -0.01884061712395500 -0.007123629121962340 
0.05923484653701130 -0.03254163515216350 -0.01670445397862220 -0.01621142700932730 -0.006622450319754420 
0.001444464828682950 -0.0004827642599778120 -0.0008401924933594950 -0.0001735808438903040 -5.255971605643900e-05 
0.1120759354686030 -0.04815955910758000 -0.05028490411239640 -0.02110401927395640 -0.007829271333770570 
0.1106768306661770 -0.03699004447340140 -0.06437667464657430 -0.01329999684634480 -0.004027195870975180 
-0.01746451637558290 -0.01567561194495350 0.03854091923584110 -0.01095765348989460 -0.007591479022726490 
0.04305564450672850 -0.03989792790180460 0.01048356208807590 -0.02337413832909080 -0.01050757296730240 
-0.05432154432963310 -0.03241239240883150 0.1020271582292190 -0.02955252728896160 -0.01574802541898640 
-0.1614237098140230 -0.1841691798126550 0.3550703070915500 -0.05947800931954250 -0.09573427552974890 
-0.07742376904172150 -0.1737683924125680 0.2585273188780350 -0.07127198594816830 -0.05990634549060950 
0.3279435021659270 -0.06035122822203000 -0.1881009075590610 -0.1554036982009670 -0.02486147647948320 
0.3056284008563050 -0.05657871960042600 -0.1679981902817820 -0.1444404871366900 -0.2054432033647970 
0.003045201641859320 -0.01652708103055480 -0.1034035111019040 0.08642416328256050 -0.2879385941540360 
-0.08095050122043850 0.02640311267802470 -0.05853031048867350 0.04011175953426920 -0.2568898794755490 
-0.2208608207223090 0.03852678489904650 -0.05409100551289840 0.2163799179666030 -0.2395308443743480 
-0.1048628932249450 -0.1182954043951560 -0.1026873860293120 0.1609381149438270 -0.03174150932632790 
-0.07230345096749940 -0.009316975051696740 -0.1476119717088330 -0.03043223720329860 0.1067272224557960 
-0.02703527507892800 -0.02610133731411350 -0.1424093399684730 -0.01370704563727630 0.1099678297878750 
0.05804100732662960 0.001119154504887860 -0.09727486404594140 -0.2369447929620340 0.2318529726113880 
-0.05484341814275700 0.05012976674362020 0.02815190628509050 -0.09560182803057050 0.02584993210721440 
-0.05846628429229640 -0.02552845316485360 -0.07428357186449190 0.2180930082307620 -0.1374107511977280 
-0.03912933552119000 0.05103327491587230 -0.04541277413097540 0.04710608955653880 -0.05988530621647230 
-0.04574161759697280 0.05153171751175470 -0.04582525950241100 0.05607660465280810 -0.06551584493910060 
-0.02021818642622920 0.005066567646230500 -0.02339920876780380 0.05192591953520020 -0.03799038864554180 
-0.008026196747375750 0.02098197661943850 -0.006221456616130470 -0.008965105112432900 -0.004735127570782990 
-0.006591623260236930 0.01699222556021850 -0.004943070052936940 -0.007270317252096090 -0.003841688281111040 
0 0 0 0 0 
-0.0005095036082473310 0.001443699126381320 -0.0004661514307536060 -0.0006223424576299650 -0.0003276023327049540 
-5.070131583023670e-05 -0.0001160939767857160 -7.800773663879390e-05 0.0003360546770676270 -0.0001719969800857890 
0 0 0 0 0 
0 0 0 0 0 
0 0 0 0 0 
0 0 0 0 0 
0 0 0 0 0 
0 0 0 0 0 
0 0 0 0 0 
0 0 0 0 0 
0 0 0 0 0 
0 0 0 0 0 
0 0 0 0 0 
0 0 0 0 0 
0 0 0 0 0 
0 0 0 0 0 
0 0 0 0 0 
0 0 0 0 0 
0 0 0 0 0 
0 0 0 0 0 
0 0 0 0 0 
0 0 0 0 0 
0 0 0 0 0 
0 0 0 0 0 
0 0 0 0 0 
0 0 0 0 0 
0 0 0 0 0 
0 0 0 0 0 
0 0 0 0 0 
0 0 0 0 0 
0.04013023504295980 -0.01341219449483910 -0.02334229367882210 -0.004822436604859790 -0.001460218149485370 
0.04603743123649020 -0.01538647807882480 -0.02677829419614270 -0.005532302348862400 -0.001675163192421950 
0.07428503181358610 -0.02482729776370730 -0.04320889291271600 -0.008926806838472760 -0.002703008132725270 
0.06599297717261160 -0.04461268302101520 -0.006968784782310240 -0.02402474644831000 -0.01030772766737750 
0.02106277961451620 -0.03428537563387230 0.02569645249203370 -0.02197121811708960 -0.01031645232836180 
0.03912004233222420 -0.01307457122651910 -0.02275470143320100 -0.004701042092692160 -0.001423460285268660 
0.06583524645276070 -0.04488257955587850 -0.006427704774260820 -0.02423597860919350 -0.01041506852073050 
0.03411381118319800 -0.01140140520132680 -0.01984275941293780 -0.004099445009604830 -0.001241298641398360 
0.005891343142079320 -0.05158709846806630 0.05432063336707370 -0.01962520070695420 -0.02254195452468320 
0.01061021686179610 -0.05807904076109130 0.06978167302454620 -0.04018467554524390 -0.01950061270356010 
-0.03299103139137130 -0.1106934101937630 0.1704113596020660 -0.05631462662292940 -0.04941851404680050 
-0.08778219481332560 -0.09383229467873210 0.1800349831603970 -0.01555042046561560 -0.05847678041593600 
0.1430367062718270 -0.1741496664389180 0.02403495188751860 -0.03809563780169860 -0.04551312025000340 
0.2379608595456410 0.008874637559578290 -0.1694145475822540 -0.1453427951119850 -0.04381475931491610 
0.1996039732122540 0.004592999877858530 -0.1653057659501700 -0.07996651978104170 -0.1891948320683020 
0.09769816868321550 0.08976961960555010 -0.3059480814246360 0.1028482457222880 -0.1670791685311910 
-0.1605727140201390 0.05943815582336790 -0.05232836643768070 0.09068060884473730 -0.2258645650470730 
-0.2482026145022460 0.03610586161225470 -0.06394786257552120 0.3415406159584770 -0.3060126908140100 
0.01950261495810200 -0.1963863566096660 -0.1512457745453860 0.1779762200376590 0.05765036118114740 
-0.08200035945615620 -0.1212021029244520 0.005537264521961190 0.01515285003269200 0.05069292706679890 
-0.08119196540595340 -0.02543854894939670 -0.06590670783542610 -0.06152861189999280 0.1258097372371910 
-0.001594895123002220 0.04704036056963840 -0.05545656923319640 -0.2728529470587300 0.2233276198984360 
-0.02792790243594610 0.01697852116478610 0.05640832609113100 -0.1157272878549220 -0.02502692028590080 
-0.04165132112884590 -0.0001685135321800240 -0.05008844820895740 0.1268823173654950 -0.08750651717341580 
-0.004986141370865180 0.01565864931092180 -0.06131828892772530 0.05767683271297750 -0.05283383959314380 
-0.04070962890871100 0.02769520989941230 -0.04442772034009650 0.07875791144478840 -0.06823033702302380 
-0.01213178034197090 -0.02814755377841900 -0.01896352780914230 0.08132529837971660 -0.04163705650508350 
-0.003432896235977970 -0.009955509444859610 -0.006225037572205520 0.01183530969681310 0.002611335741802490 
-0.0004658827420562430 -0.001167422500239240 -0.0007582305337765310 0.002479735815583330 -0.0008072674368455070 
-0.0005210897084438270 -0.001203636671512280 -0.0008060428711234860 0.003390619136143130 -0.001687342137592860 
3.811645456476870e-05 -5.195172712844120e-05 -5.083959377243450e-05 2.783138756486520e-05 1.575835992363600e-05 
0 0 0 0 0 
-1.051866097385950e-05 -2.408523650559380e-05 -1.618374043366050e-05 6.971900351836840e-05 -3.568305659181990e-05 
0 0 0 0 0 
0 0 0 0 0 
0 0 0 0 0 
0 0 0 0 0 
0 0 0 0 0 
0 0 0 0 0 
0 0 0 0 0 
0 0 0 0 0 
0 0 0 0 0 
0 0 0 0 0 
0 0 0 0 0 
0 0 0 0 0 
0 0 0 0 0 
0 0 0 0 0 
0 0 0 0 0 
0 0 0 0 0 
0 0 0 0 0 
0 0 0 0 0 
0 0 0 0 0 
0 0 0 0 0 
0 0 0 0 0 
0 0 0 0 0 
0 0 0 0 0 
0 0 0 0 0 
0 0 0 0 0 
0 0 0 0 0 
0.001379149883356570 -0.0004609349148668390 -0.0008022011725064630 -0.0001657319692737170 -5.018310230134560e-05 
0.04491115316726930 -0.01501005714574300 -0.02612317933255860 -0.005396957898912220 -0.001634181332328610 
0.05738091940686500 -0.01917766119619520 -0.03337638742763470 -0.006895445438382050 -0.002087918494929460 
0.04432621983234920 -0.01481456266019950 -0.02578294495138380 -0.005326666660331070 -0.001612897373463800 
0.06092288208238080 -0.03091244407018760 -0.02074122687980340 -0.01484929850573170 -0.005915069843682390 
0.03555636758533450 -0.02462788359418560 -0.002931558594881390 -0.01336598616607130 -0.005760858913033860 
0.07699632369344310 -0.02573345677289320 -0.04478595248490350 -0.009252621855351810 -0.002801663862184150 
0.06189541415922490 -0.03138838394038430 -0.02109673562696460 -0.01507383805785510 -0.006003351065664960 
0 0 0 0 0 
0.03498921183352150 -0.05076369901165880 -0.006156147312162780 0.02628409867192690 -0.03244202328841340 
0.02394673801905510 -0.03351139513549700 0.02159849188449940 -0.02107781530002060 -0.009812251494257990 
0.1354021899904940 -0.1150199407249320 -0.02492882257557640 -0.003156955204538830 -0.04821090609870810 
0.08120522620377320 -0.05825537446203960 -0.01585929303295530 -0.01460033643140390 -0.01905836911483050 
0.2621403029369610 -0.1613897944962250 -0.1108432977984500 -0.0004783651343843310 -0.05636996363372230 
0.05917395629790130 -0.03173292570820390 0.01280501063684530 -0.07551031256514520 -0.08996213322883640 
0.007097857073449650 -0.03673807817963350 0.01138818867851940 -0.03980426659313780 -0.1267097694016170 
0.05578261357303530 0.05638600178260270 -0.1593611990443980 0.0001265600045127730 -0.09794283786137310 
-0.1138167373252170 0.05743958779143670 -0.1015076082024880 0.1241149667254410 -0.2175843594374260 
-0.1653157510910640 -0.09514716587412850 -0.01406555644802520 0.2965945899583470 -0.2352183124391350 
0.001064213582599260 -0.09526708498200590 -0.1056859794577160 -0.01036547699594070 0.1056473573555120 
-0.02187875765338310 -0.1020494449219600 -0.01039015638331340 0.01770173407088700 -0.01120941890886490 
-0.1194801215606750 0.08414080138613610 -0.06514316962693480 -0.1002259567459400 0.05167246979764040 
-0.07346014082116700 0.07183069098347390 -0.04293502167857300 -0.1673410898586070 0.1405211045090980 
0.002724673987621820 -0.04862317045064150 0.04702894578772530 -0.08888199201880270 -0.003706389079362310 
-0.06285908201877340 0.02766244775639370 -0.002599191267959470 0.04965122027583920 -0.06783899173979120 
0.003953081007751740 -0.01784889567082240 -0.06127020348836500 0.06955394550626680 -0.03667814292386630 
-0.02793292062609980 0.005251945335104070 -0.03257247471521030 0.07525333904135060 -0.05420271108773020 
-0.01663683407878830 -0.03795442127763280 -0.02534186336802590 0.1097177367258930 -0.05619346666367940 
-0.008566606698763010 -0.02426258031907260 -0.01509324055126840 0.02870304738829100 0.006632868670586710 
-0.0001573816318077280 -0.0009839370513215100 -0.0007131707684554740 0.001883846754557820 -0.0006042896288337320 
-0.02225763254683560 -0.009066465761783540 0.03494285301613910 -0.007935616342006420 -0.007266237227348490 
-1.544449567289080e-05 -4.233802717871110e-05 -2.663312885402310e-05 6.023264733919150e-05 1.171902037691010e-06 
4.516484266542760e-05 8.223089777203260e-05 -8.454866810121590e-05 -5.767193420413460e-05 -2.809865591965900e-05 
0.0001015393213855010 -6.992148104919730e-05 -8.813873385050650e-05 7.704838881692670e-05 -5.071662999194070e-05 
0 0 0 0 0 
0 0 0 0 0 
4.161054603150580e-05 -1.390693913986730e-05 -2.420333657562150e-05 -5.000325069507450e-06 -1.514082199123850e-06 
5.589915269888280e-05 -1.868243002542920e-05 -3.251449779194730e-05 -6.717382040428200e-06 -2.034001476053720e-06 
0 0 0 0 0 
0 0 0 0 0 
0 0 0 0 0 
0 0 0 0 0 
0 0 0 0 0 
0 0 0 0 0 
0 0 0 0 0 
0 0 0 0 0 
0 0 0 0 0 
0 0 0 0 0 
0 0 0 0 0 
-0.0005193624472513730 0.001368262985722360 -0.0004132732921589150 -0.0005788948281622520 -0.0003058427740395670 
0 0 0 0 0 
0 0 0 0 0 
0 0 0 0 0 
0 0 0 0 0 
0 0 0 0 0 
0 0 0 0 0 
0 0 0 0 0 
0 0 0 0 0 
0 0 0 0 0 
0 0 0 0 0 
0.0006164135064094240 -0.0002060156843925420 -0.0003585452484591300 -7.407420001045560e-05 -2.242942730545670e-05 
0.01037460565340650 -0.003467366405449350 -0.006034529618491900 -0.001246712809192730 -0.0003775005915774070 
0.01355614725925120 -0.004530690723518550 -0.007885116300466670 -0.001629037574634180 -0.0004932672894605360 
0.008421853461108100 -0.002814724023083730 -0.004898684909239720 -0.001012051246850050 -0.0003064458322522010 
0.05682004153462110 -0.01899020644786550 -0.03305014523149870 -0.006828044936514330 -0.002067509841757640 
0.06117592534359120 -0.02044601553496120 -0.03558380393025690 -0.007351490002420530 -0.002226007308520510 
0.07713976937365710 -0.02578139871393620 -0.04486938960384710 -0.009269859673628560 -0.002806883417601400 
0.08285659106080280 -0.02769205595973180 -0.04819465621611480 -0.009956848178381510 -0.003014901306756680 
0 0 0 0 0 
0.007383382045762970 -0.02350209804589920 -0.02129097899090360 0.05128207809689130 -0.02775429719419410 
0.01122094547159160 -0.003750227301680680 -0.006526814614256570 -0.001348417175364450 -0.0004082963435041800 
0.1995652277064270 -0.08696465135739630 -0.1324557241979190 0.02628329595035280 -0.03374389672519190 
0.2433886984520150 -0.08165221174607780 -0.1417197886943360 -0.03061597756814270 -0.007010725446226000 
0.2205657351968480 -0.1250832835181560 -0.1014875528791660 0.001761835169452170 -0.04546652553508000 
-0.04361009067399440 -0.09589283876723230 0.1432392028529310 -0.02432503684791100 -0.08202959047606460 
-0.06922279738972880 -0.1083013289966550 0.1384546857146170 -0.005260801955065820 -0.07820286185657510 
-0.008106066334176090 -0.04050132586844380 0.06394175385348560 -0.07483523019812620 -0.09252598337324330 
0.08766062372942490 0.002760890238896330 -0.1646858558663020 0.05494385276628430 -0.2044051477634060 
0.1285455477005300 -0.2435131780856340 -0.06116533330818550 0.1729607263816850 -0.1613659429698000 
-0.05769987417267160 0.05340909961759270 -0.04358849577102760 -0.1473585164768070 0.009762698143670830 
0.08111182245178710 -0.03134317817564370 -0.1258804203982560 -0.004109246913497530 -0.06697451966228230 
-0.1198584210409880 0.2048339773639430 -0.1852935744064710 -0.06341220218825190 -0.04106638370346830 
-0.1610037137491550 0.05109373723173950 -0.01147861400990490 -0.06696676860395390 0.05537849172668500 
-0.01860403592322520 -0.09688396851407970 0.05366804300461040 -0.1535130985558470 0.1621149064445050 
-0.07517108821748030 0.03296196037781490 0.009351918776647160 0.03025574797954560 -0.06066561191721570 
-0.01481584384809620 -0.03422408258778850 -0.03655153698511260 0.07498795186007650 -0.02015356167204490 
-0.01633276376734700 -0.01834205773201190 -0.02152158544610700 0.07724898906476880 -0.04404107508250220 
-0.01974835877435050 -0.04731918524351770 -0.03124879312511780 0.1182056864620350 -0.05086255618786500 
-0.01082942334896530 -0.02778385511322430 -0.01767772414296670 0.05296794748391290 -0.01319856235136240 
0.0002584541118230760 -0.0002012877283551730 9.710151220705920e-06 -0.0001130460876972270 -4.968121110011570e-05 
-0.02742948654040690 -0.01143720876642080 0.04592230871845810 -0.01340451986324580 -0.007219200201565600 
-6.302755800675300e-05 -3.112318380951320e-05 0.0001093481360046630 -2.966255775138080e-05 -1.599924258182610e-05 
0.0001347667010031390 4.408482066594650e-05 -0.0001422104178307110 -0.0001120695774124790 2.606464056388650e-05 
0.0002005447735915540 -6.702541127541350e-05 -0.0001166495784516520 -2.409939677766470e-05 -7.297219113452370e-06 
5.833257182030650e-05 -1.949571931987410e-05 -3.392992891800800e-05 -7.009805183067590e-06 -2.122546254388660e-06 
-1.091305199929570e-06 -1.493395028366970e-05 -6.797725336894430e-06 -6.789918171570150e-05 9.181099843568920e-05 
7.240377002123790e-05 -2.419854866648240e-05 -4.211463156097630e-05 -8.700736253014390e-06 -2.634554693312830e-06 
9.726643320968420e-05 -3.250806576714590e-05 -5.657633568907550e-05 -1.168847397560460e-05 -3.539231976997970e-06 
0 0 0 0 0 
0 0 0 0 0 
0 0 0 0 0 
0 0 0 0 0 
0 0 0 0 0 
0 0 0 0 0 
0 0 0 0 0 
0 0 0 0 0 
0 0 0 0 0 
0 0 0 0 0 
0 0 0 0 0 
-0.0005270377543536100 0.001388483620979340 -0.0004193807792351550 -0.0005874499241449430 -0.0003103626179908900 
0 0 0 0 0 
0 0 0 0 0 
0 0 0 0 0 
0 0 0 0 0 
0 0 0 0 0 
0 0 0 0 0 
0 0 0 0 0 
0 0 0 0 0 
0 0 0 0 0 
0 0 0 0 0 
0 0 0 0 0 
0 0 0 0 0 
0 0 0 0 0 
0 0 0 0 0 
0.02953501877603250 -0.009871096339426170 -0.01717944291484100 -0.003549213093775490 -0.001074690203433530 
0.04055652131300070 -0.01355466648280900 -0.02359024885017590 -0.004873663279973820 -0.001475729420419220 
0.04279651239965390 -0.01430330889890090 -0.02489316994512170 -0.005142842241902950 -0.001557235936289730 
0.05413742980994110 -0.01809363282533300 -0.03148976785925800 -0.006505676404063060 -0.001969897696595600 
0.003172733819218660 -0.001060380608739530 -0.001845463513823240 -0.0003812663367383130 -0.0001154462091076610 
-0.003798433334537340 -0.008697510590028570 -0.005844171543648510 0.02517649230002030 -0.01288564314159270 
0 0 0 0 0 
0.09081491250072690 -0.05825422489195420 -0.03442917767103100 -0.001120199256658790 -0.02197719996563300 
0.1789667781378190 -0.05984941021718070 -0.1041158019677980 -0.02166523982582230 -0.006297758061717490 
0.1332386491261690 -0.08480980714557350 -0.03967778852424010 -0.01822618239109770 -0.02690795981960330 
-0.002197879370190930 -0.07773492199174580 0.08213695885148230 -0.01446356829688160 -0.03977804749854670 
0.02984295023037490 -0.1003291911554230 0.06383556748667320 -0.006524345192855750 -0.04853408985549030 
0.008800288584827910 -0.09932800679201890 0.1077776516509730 -0.04761228479916460 -0.1011309821032570 
0.1141222493517970 -0.008097838247637340 -0.06101495448439810 -0.07958983782090120 -0.1484002389463950 
0.4127960094323160 -0.2527758703750650 -0.1807121345288360 0.01163152953824760 -0.09593511233777870 
0.002850623237154000 0.05646705528562140 -0.03357826131236170 -0.1395552354117250 -0.1344110445370680 
0.1421191132323260 0.009863503153696360 -0.1954386120289340 -0.02750523372722580 -0.1082787774627780 
-0.1201616339263620 0.2469332488503170 -0.3086624178716650 0.06518803153993440 -0.1339575265769520 
-0.2558256552035700 0.06806463041040320 0.02435062518945690 -0.04759947900258850 -0.04694937502802150 
-0.03628023878815960 -0.1033521482695080 0.05290122386025950 -0.2651836083852630 0.3115479232388910 
-0.04836954875055680 -0.01323411182312420 -0.03115130304506720 0.08191518219285080 -0.04124353360416730 
-0.01438151596718000 -0.03766785847981780 -0.02407716923162050 0.06669809861401730 -0.01239813271230810 
-0.01203586462227690 -0.03164175372366130 -0.02094898207213970 0.08864118840311070 -0.04578747339548990 
-0.02044327299735330 -0.05256314075048450 -0.03402703920445990 0.1051594469072170 -0.02982229888119740 
-0.01105959622493810 -0.02045263543787790 -0.01568556602120030 0.06391089758122430 -0.03338913961237840 
-0.0005215651639174850 0.0005082046421835100 0.0002854161569385420 -0.0004031026811212070 -0.0002144077535271790 
-0.006195222103009370 -0.003059217941333860 0.01074825061485610 -0.002915647364815510 -0.001572627346020890 
-0.0001298382245356090 -6.411447715124270e-05 0.0002252596845589740 -6.110555375176650e-05 -3.295880907390120e-05 
0 0 0 0 0 
-3.880804676494460e-05 0.0001022399948584580 -3.088080267197920e-05 -4.325645352720660e-05 -2.285332861561940e-05 
-2.113205661339850e-05 5.567250968822580e-05 -1.681545258600660e-05 -2.355433733545890e-05 -1.244427056674510e-05 
-4.799172763915540e-07 -6.567421053586290e-06 -2.989398226592150e-06 -2.985964912502740e-05 4.037521704733850e-05 
-2.107416423399050e-05 5.551999192280280e-05 -1.676938577013360e-05 -2.348980899074190e-05 -1.241017883368360e-05 
-1.934942915976590e-05 5.097616867426430e-05 -1.539695896877540e-05 -2.156737462972350e-05 -1.139451479717910e-05 
0.0001064617772781040 -3.558130326402540e-05 -6.192493186582580e-05 -1.279347532389880e-05 -3.873822798235270e-06 
0 0 0 0 0 
0 0 0 0 0 
0 0 0 0 0 
0 0 0 0 0 
0 0 0 0 0 
0 0 0 0 0 
0 0 0 0 0 
0 0 0 0 0 
0 0 0 0 0 
0 0 0 0 0 
0 0 0 0 0 
0 0 0 0 0 
0 0 0 0 0 
0 0 0 0 0 
0 0 0 0 0 
0 0 0 0 0 
0 0 0 0 0 
0 0 0 0 0 
0 0 0 0 0 
0 0 0 0 0 
0 0 0 0 0 
0 0 0 0 0 
0 0 0 0 0 
0 0 0 0 0 
0 0 0 0 0 
0.001007799747171750 -0.001161423295127940 0.0005622990030815750 -0.0007094650203813650 -0.0003257043191511170 
0.001782952864312120 -0.001591911017973240 0.0003501718802705890 -0.0009249233550542980 -0.0004139943737757190 
0.002971885593711600 -0.0009932537787680620 -0.001728637428462980 -0.0003571304742478610 -0.0001081379482947510 
0.002959799289656700 -0.001825607791268910 -0.0005566817513471130 -0.0009524510022972530 -0.0004008655319275770 
0.0003680721020542530 -0.0001230158411878520 -0.0002140941136261560 -4.423109847908860e-05 -1.339303303764580e-05 
-0.001962721295653200 -0.0009691972461461300 0.003405175798709170 -0.0009237123509678100 -0.0004982273647077850 
-0.002407605818503540 -0.001188882463479080 0.004177017431948320 -0.001133087634876630 -0.0006111591619578040 
-0.02042728789994310 -0.01684295775923960 0.04484942801232970 -0.01443405056930520 -0.007553406475066620 
0.008977571489311720 -0.004998481958559790 -0.003043331859956330 -0.001627587542278920 -0.001289529757728830 
0.07386198927796670 -0.04414609728333710 -0.01625955158478270 -0.02355744895751880 -0.008154100592935130 
0.06923021974964180 -0.04257872273146170 -0.01359724420991720 -0.02299669478034390 -0.007962354467970530 
0.1638075787654410 -0.07759314086768290 -0.06346119421553820 -0.03598542931215680 -0.01396826916192630 
0.09364833589310910 -0.1039978020767160 0.001359460534780880 0.0005849077602862280 -0.07037664887449950 
0.06181220799430450 0.01431959534204930 0.01321374487399580 -0.1530383401004490 -0.05473751411462970 
0.4693127397095860 -0.1873315877327330 -0.2076700362100660 -0.1274767346467220 -0.03596039837096300 
0.05548977485066490 -0.06980842423813860 0.03362374598925360 -0.09429883062277960 -0.1769571129554990 
0.1089704339265480 0.01086382861830670 -0.1405543342361840 -0.05823627902544450 -0.1256343989607500 
-0.09812293136324950 0.1677193001316930 -0.2816776312356710 0.1453669684848990 -0.2182785807702360 
-0.2379924598169500 0.1882064399265160 -0.09921774528556700 -0.03556132567450910 -0.1720270969355260 
-0.05395305286446770 -0.07546747951479230 0.02954194407482050 -0.2067676398978370 0.2123594159385980 
-0.03208766763916330 -0.08572963523405330 -0.05441440092878720 0.1386278482338040 -0.01471175367087350 
-0.01413948684759650 -0.03965693194432980 -0.02431775480451260 0.07182172599472190 -0.01706110560247690 
-0.01476896576863340 -0.04029297417124060 -0.02632667136837690 0.07893159241586570 -0.02163094741116280 
-0.02094530724667010 -0.05251076270300740 -0.03156769160583210 0.09473721689922250 -0.02066595683072050 
-0.01070079780027810 -0.01804389287815490 -0.01590626213996770 0.04860826333554230 -0.01944525142351960 
-0.0006654843913513550 -0.003348554678886820 -0.001850103051666660 -0.008806471087259610 0.01413360253587900 
-0.0006081563173556980 -0.001586905808627050 -0.001015703099682670 0.002856547313952190 -0.0005701271718354630 
-3.985200569125110e-05 -0.0002325733517841730 -0.0001194875577835650 -0.0005897159627403610 0.0009502877863909440 
-3.728441033392650e-05 -8.537244836542450e-05 -5.736483194637620e-05 0.0002471257455403610 -0.0001264820424619110 
-0.0001247292200484320 0.0002036228881163170 -0.0001181042045894860 5.748297096702090e-05 -0.0001446023223105350 
-5.409851792186750e-05 0.0001425228182104250 -4.304791908003930e-05 -6.029960849490190e-05 -3.185759940907900e-05 
0 0 0 0 0 
-5.395031218958870e-05 0.0001421323694615370 -4.292998704390580e-05 -6.013441454918220e-05 -3.177032384164320e-05 
-4.953495342776080e-05 0.0001305000845428510 -3.941654501277600e-05 -5.521294137523520e-05 -2.917020213618660e-05 
1.473270725709850e-05 -3.461236566540220e-05 3.278047651457240e-05 -2.295335290765710e-05 -1.094228693298290e-05 
0 0 0 0 0 
0 0 0 0 0 
0 0 0 0 0 
0 0 0 0 0 
0 0 0 0 0 
0 0 0 0 0 
0 0 0 0 0 
0 0 0 0 0 
0 0 0 0 0 
0 0 0 0 0 
0 0 0 0 0 
0 0 0 0 0 
0 0 0 0 0 
0 0 0 0 0 
0 0 0 0 0 
0 0 0 0 0 
0 0 0 0 0 
0 0 0 0 0 
0 0 0 0 0 
0 0 0 0 0 
0 0 0 0 0 
0.0001058014904211790 -3.536062437345870e-05 -6.154086708997520e-05 -1.271412887837870e-05 -3.849796952104130e-06 
0.001711846792576620 -0.0005721277760478010 -0.0009957188270314730 -0.0002057120429420860 -6.228893882586990e-05 
0.002240946992370400 -0.0007489618957407360 -0.001303477110427740 -0.0002692938327918770 -8.154129839486180e-05 
0.001364667940466260 -0.0004560948077879730 -0.0007937775546626180 -0.0001639916791550830 -4.965614810270700e-05 
0 0 0 0 0 
0 0 0 0 0 
0 0 0 0 0 
0 0 0 0 0 
0 0 0 0 0 
0.002539712689980010 -0.0008488143795459470 -0.001477258217049620 -0.0003051964043787780 -9.241248052539740e-05 
0.001831892545839560 -0.0006122490708600160 -0.001065545062152180 -0.0002201379000090450 -6.665704151690930e-05 
0 0 0 0 0 
0.007269905774594880 -0.003164963752682040 -0.004822730285522050 0.0009499092789680440 -0.001225265235299570 
0.03373208637238170 -0.01127382639694920 -0.01962072401670780 -0.004053573269788370 -0.001227408827489570 
0.07747787956086890 -0.02589440078299250 -0.04506605596469060 -0.009310490259059700 -0.002819186226976010 
0.1772130162282630 -0.05922754845881500 -0.1030783463909890 -0.02129562748391420 -0.006448246872826450 
0.1894365177353220 -0.07970121709618160 -0.1234305045830210 0.01788167896240090 -0.02830764782121790 
0.1431681534662360 -0.01770709217729920 -0.07493870135476640 -0.1159927891907000 -0.004160931532850200 
0.2750291664535470 -0.09018157825442910 -0.1188139033488720 -0.1449190403702700 -0.02355604670036220 
-0.08805468424493200 -0.1022185602667600 0.1759624512532960 -0.04655901594065560 -0.1290092682074060 
0.006951292722918920 0.01978199828520970 -0.02545698624250960 -0.07931931168724960 -0.1161340096975650 
0.08574162201806780 0.007342647850677230 -0.2198675933335240 0.08159582299470840 -0.2356946086109330 
-0.2146838681693760 0.3129137412194950 -0.2010219783348510 -0.007334681512255290 -0.2579645064977980 
-0.07692017339550490 -0.05039817986184720 -0.04323731929236330 0.03314613243523830 -0.05569098176803320 
-0.01621483888466650 -0.1315257056721650 -0.09315067744455270 0.1680443022604730 0.004676890265866900 
-0.02333466019833470 -0.06594507839102250 -0.04105334808287310 0.07905448918955300 0.01696134809423480 
-0.01795697758348090 -0.05186476996411390 -0.03205216056886420 0.05408481491006920 0.02163455987557150 
-0.01848241684207370 -0.04850700541717040 -0.03098318537502790 0.08512423760169440 -0.01517976733597900 
-0.009107992097261320 -0.02946887813121890 -0.01865857866992050 0.03196518964449460 0.01033250549827470 
0.001636793771507140 -0.01863404690969610 -0.01359523249496980 0.002275476537087520 0.02100828398324590 
-0.004678960599914890 -0.01455494465500900 -0.01030273791879680 0.04053971482963390 -0.02089203508444790 
0.0004288664159568150 -0.0007225534982800110 -0.0007174788330975310 0.001385034353506350 -0.0007724687769580830 
0.002717580603541750 -0.001723137249841690 -0.002239157054510470 0.001694474103693920 -0.001163680675704390 
0.003037426963420890 -0.001550702056027090 -0.002199492150108880 0.0009632401244640900 -0.0008103152489813040 
0.0009205768436970510 -0.0003661520649569960 -0.0005827191286985550 3.441564096122830e-05 -0.0001099125084483300 
0.0006141870693892080 -0.0002052715719717280 -0.0003572502112701460 -7.380664983604920e-05 -2.234841398116080e-05 
0.001170304602546190 -0.0003911353355082960 -0.0006807234918277130 -0.0001406351033855900 -4.258385277920300e-05 
0.001551827330641370 -0.0005720369169940300 -0.0009457819903677200 -5.406466399905340e-05 -0.0001262312480701620 
0 0 0 0 0 
0.0002644072620584950 -8.836932105630840e-05 -0.0001537960581385990 -3.177373015076180e-05 -9.620982346608130e-06 
0.0003913082764470210 -0.0001307817585800170 -0.0002276097485599580 -4.702338159999830e-05 -1.423852730242170e-05 
0.0002118403109583190 -7.080056843371570e-05 -0.0001232197804500420 -2.545677763553260e-05 -7.708229630920930e-06 
0 0 0 0 0 
9.838587166720560e-05 -3.288220078781560e-05 -5.722747220005920e-05 -1.182299651175870e-05 -3.579964964261930e-06 
8.461104863920150e-05 -2.827842497175570e-05 -4.921516018271700e-05 -1.016768074486630e-05 -3.078740723489160e-06 
0 0 0 0 0 
0 0 0 0 0 
0 0 0 0 0 
0.0001437095055899200 -4.803011588807800e-05 -8.359057653978880e-05 -1.726952208182280e-05 -5.229155226510070e-06 
0 0 0 0 0 
0 0 0 0 0 
0 0 0 0 0 
0 0 0 0 0 
0 0 0 0 0 
0 0 0 0 0 
0 0 0 0 0 
0 0 0 0 0 
0 0 0 0 0 
0 0 0 0 0 
0 0 0 0 0 
0 0 0 0 0 
0 0 0 0 0 
0 0 0 0 0 
0 0 0 0 0 
0.0004288822117065230 -0.0001433395950117610 -0.0002494651359145900 -5.153862853513540e-05 -1.560572941710600e-05 
0.0006399932264458560 -0.0002138964204740510 -0.0003722607113604950 -7.690776689373710e-05 -2.328742215946460e-05 
0.0006363838855371150 -0.0002126901184871720 -0.0003701612894311540 -7.647403363254140e-05 -2.315608913594790e-05 
0.0008508660821756990 -0.0002843736492194860 -0.0004949177583991830 -0.0001022482857657120 -3.096044901417640e-05 
7.935749335637590e-05 -2.652259909216110e-05 -4.615935873679050e-05 -9.536362805301940e-06 -2.887579700756680e-06 
0 0 0 0 0 
0 0 0 0 0 
0.001747319909856000 -0.0005839834840390430 -0.001016352245209870 -0.0002099748352998540 -6.357969851403820e-05 
0.06555468236845560 -0.02202064248606450 -0.03821423615123720 -0.007738723333518180 -0.002386366694778690 
0 0 0 0 0 
0.03930257553158390 -0.007790592032701120 -0.02606141129858070 -0.007592166668930220 -0.002882984702036080 
0.09716645355742110 -0.02535694436545440 -0.06108187912503010 -0.01688335426917730 -0.003877522066375310 
0.1568079071789000 -0.05443231227118370 -0.09277367622356210 -0.01536178599005150 -0.006727736834082260 
0.2144389369076740 -0.04806055517900260 -0.1355583302881050 -0.06810972524491170 0.001009096241991660 
0.07969988739745480 -0.01979608525200900 -0.05447354256336120 -0.04153940633684310 -0.05929075067062110 
-0.1516238189139930 -0.01607694834319890 0.1433259266427210 -0.0001872906259466060 -0.07507993615193350 
-0.0007366843772634390 0.03479756469248580 -0.02100243117435560 -0.05577867696515790 -0.09225717513956670 
0.2971827426483090 -0.1095564873504740 -0.2189260356436200 0.002263485346786800 -0.1701281790892530 
-0.1830381820399290 0.2646484523977810 -0.1302090042477700 0.01226930735488020 -0.2698930339737000 
-0.06663760992071320 -0.009795488953014140 -0.1654306531771070 0.2308537501262360 -0.2532094345643140 
-0.1350246222184820 -0.09812083209644590 -0.04581719571138400 0.1483093902160820 -0.05266123412406180 
-0.05939998435803540 -0.05909090248574970 -0.09116234257789500 0.02014169116883750 0.1096115680709560 
-0.04250694471591400 -0.06099472094541130 -0.01812775250956770 0.02753305604366690 0.04787968583296200 
-0.02461665571618850 -0.01763538404254680 -0.03484858875119110 0.04257851515293090 0.003487304241121510 
-0.01690807896762520 -0.04141353018992990 -0.01810868074440580 0.03190556071862910 0.02360967365927790 
-0.01531681436826860 -0.02917196233867560 -0.01009335053070740 0.02357539069504040 0.01387164815538880 
-0.02457501418424290 -0.003732679577255380 -0.01714498958028430 0.06213870599640720 -0.04447787205159700 
-0.003106834464717540 0.0007486803446265430 0.003153817110175020 -0.001377437817609060 -0.001307706565126320 
-0.0009000606161017520 0.001034605145348090 -0.0004066120289199560 -0.0006903229264458630 0.0001897522949079170 
-0.0004926029225326050 -0.0003801270280799720 0.0006051410716728560 0.0003091956536294410 -0.0003642452834476270 
-0.0001961310012366640 -0.0001117967889785720 0.0003130292506552650 -3.322591881843250e-05 -7.590696640030430e-05 
-5.140217133439510e-05 -0.0001665888583707110 -0.0001414531205896820 -0.001188112562763670 0.001537575417744390 
0 0 0 0 0 
-9.365111323620480e-05 -4.624518073353950e-05 0.0001624777318207910 -4.407487205124440e-05 -2.377288484766560e-05 
0.0002346324045705730 -7.841806661544520e-05 -0.0001364771097949340 -2.819569572109720e-05 -8.537565136226420e-06 
0 0 0 0 0 
0 0 0 0 0 
0 0 0 0 0 
0 0 0 0 0 
0 0 0 0 0 
0 0 0 0 0 
0 0 0 0 0 
0 0 0 0 0 
0 0 0 0 0 
0 0 0 0 0 
-0.008380357303470410 0.02207809356673960 -0.006668518046698410 -0.009340963188242820 -0.004935034750203270 
0 0 0 0 0 
0 0 0 0 0 
0 0 0 0 0 
0 0 0 0 0 
0 0 0 0 0 
0 0 0 0 0 
0 0 0 0 0 
0 0 0 0 0 
0 0 0 0 0 
0 0 0 0 0 
0 0 0 0 0 
0 0 0 0 0 
0 0 0 0 0 
0 0 0 0 0 
0.0008450507676049060 -0.0003300705765515630 -0.0004251816976398610 -0.0001355413133142110 -4.744749622307540e-05 
0.001277375156146510 -0.0004844641587081810 -0.0006628553909563190 -0.0001945598464235160 -6.664980751620640e-05 
0.001339275285519860 -0.0004476081585939960 -0.0007790075736642700 -0.0001609402525044040 -4.873218601834200e-05 
0.001732296513722170 -0.0006272842848720060 -0.0009403111725563650 -0.0002426474920191960 -7.997052027188920e-05 
0.0001670085179534320 -5.581703477909770e-05 -9.714276202869520e-05 -2.006935642016150e-05 -6.076935975410830e-06 
-0.0004447670331167160 -0.0008147590678712800 -0.0003131103973788790 0.002143012471766360 -0.001152918888486120 
-0.0001390972345512350 -6.868660210299130e-05 0.0002413233798452290 -6.546310666980410e-05 -3.530916425173770e-05 
0.002123543967591900 -0.002546915084942370 -0.0004471068742394090 0.001003569487121320 -0.001490562446793670 
0.03298323584549360 -0.01112311998262940 -0.01904646158833450 -0.004034629471260970 -0.001235061743706430 
-0.001152997533807500 -0.001050273630484310 0.001130136382896260 0.001313317632400040 -0.001090710425512590 
0.009368057542911050 -0.002702244384676440 -0.006879443263497930 0.0001483384585330140 -0.002532109880945200 
0.02562041331181120 -0.008009708480614840 -0.01703465514146580 -0.0009912934250376050 -0.004124607190942710 
0.05230704971017010 -0.01991516043590120 -0.02703605198640240 -0.008021877300330150 -0.002756190585855550 
0.1362931992083650 -0.04095778765067880 -0.08721217891357730 -0.01168196072835490 -0.01202549420558260 
0.03914571245537740 0.008247093245646730 -0.05813480272028760 0.01195006968737190 -0.06319466345174640 
-0.01649591784403480 0.02678131584493420 -0.002297136111188550 -0.01449441890525840 -0.04264662734752430 
0.1011218257871030 0.01278980493859560 -0.09257654033868010 -0.03287071623973470 -0.06048118619453650 
0.2534291819570920 -0.1321310962725690 -0.1105665362742970 -0.02608752748416790 -0.07985019578568340 
-0.06661879189533470 0.1219854670679740 -0.04877161316590050 -0.01950557748261500 -0.1781307494395000 
-0.05569184812657050 0.04878502171671540 -0.2039650382018870 0.2306751817673460 -0.2916702431249580 
-0.2529588700176310 -0.01906489864521260 -0.08672715982585690 0.2179704913987930 -0.1680924154046400 
-0.05503694002253070 -0.09109317019087630 -0.1059586342479690 -0.05423071002054170 0.1222751185924040 
-0.06104522828369320 -0.08430422710294110 0.0009902468377474430 -0.01228843260030470 0.05739725422289620 
-0.01814836247579550 0.01088362035386480 -0.03842216768399970 -0.04972841161643010 0.05828803046973730 
-0.01832154837971760 -0.05197345070444380 -0.03231419516043280 0.06088830136175880 0.01482069479976280 
-0.01383287732264000 -0.03356282087859240 -0.02314594222183150 0.04857761437041670 0.001925156024210280 
-0.02968943685076150 0.01862887056361770 -0.03270615233917450 0.05790798684958820 -0.04848948436151440 
-0.0008197869971447360 0.001791496818933370 -0.0007749314720593440 -0.002292553796145990 0.001428904225345280 
-0.0005980124546966170 0.001575466826861900 -0.0004758576158373800 -0.0006665601624310920 -0.0003521582837237760 
0 0 0 0 0 
0 0 0 0 0 
-3.338195178593470e-05 8.794492027983720e-05 -2.656308554127360e-05 -3.720838760120450e-05 -1.965800336758630e-05 
-9.071453341619700e-05 -4.479508943380010e-05 0.0001573829837502350 -4.269283423703630e-05 -2.302744817857930e-05 
0 0 0 0 0 
0.001776496142993870 -0.0007974314161749910 -0.0007496149668196300 -0.0003588200737022980 -0.0001360398349916350 
-3.381578254587180e-05 -1.669832767001600e-05 5.866787332191910e-05 -1.591466708209740e-05 -8.583973822811260e-06 
0 0 0 0 0 
0 0 0 0 0 
0.0001363769929178630 -4.557946774240390e-05 -7.932552142581790e-05 -1.638837654461200e-05 -4.962347218193980e-06 
0 0 0 0 0 
0 0 0 0 0 
0.0001301890670792840 -4.351135962447690e-05 -7.572623071565210e-05 -1.564477561528340e-05 -4.737187270650930e-06 
0 0 0 0 0 
0 0 0 0 0 
0 0 0 0 0 
-0.01640146300075520 0.04346803712013910 -0.01320583631425260 -0.01842015084459470 -0.009728724561919460 
0 0 0 0 0 
0 0 0 0 0 
0 0 0 0 0 
0 0 0 0 0 
0 0 0 0 0 
0 0 0 0 0 
0 0 0 0 0 
0 0 0 0 0 
0 0 0 0 0 
0 0 0 0 0 
0 0 0 0 0 
0.0001059076083368790 -3.539609075244280e-05 -6.160259201010580e-05 -1.272688103197440e-05 -3.853658262817220e-06 
0.0001386416923528800 -4.633636810100580e-05 -8.064281446558760e-05 -1.666052470030400e-05 -5.044752796297380e-06 
8.442853552989720e-05 -2.821742604370990e-05 -4.910899896554360e-05 -1.014574820701210e-05 -3.072099622223740e-06 
-2.792953414480790e-05 -1.379168180385150e-05 4.845566915167640e-05 -1.314443151122500e-05 -7.089777965573390e-06 
-3.373555297151030e-05 -1.665871008258620e-05 5.852868096406270e-05 -1.587690876719310e-05 -8.563607931080020e-06 
0 0 0 0 0 
-2.832899032327800e-05 -1.398893437811500e-05 4.914869597855380e-05 -1.333242692684530e-05 -7.191177996008770e-06 
0 0 0 0 0 
-2.723427161684670e-05 -0.0003757952357668450 -0.0001948549537233760 0.0008123258879428730 -0.0004583716624611510 
4.581236115736560e-05 -7.122093031456800e-05 5.122339532032930e-05 -4.539722312444020e-05 -2.126408058066390e-05 
-0.0007250289300024030 -0.0005729232551304120 0.0008661691248424680 0.0005082073923218740 -0.0005595949218002030 
-5.837465100296180e-05 -2.882556536280060e-05 0.0001012756876351240 -2.747276764882000e-05 -1.481812450873880e-05 
0.0008650202573973690 -0.0009297342908390290 -0.0002314512999798200 0.0002582206711365460 -0.0004354950619034830 
-0.0004771697899036890 -0.0005486505128911310 0.0002719114611539280 0.0009092479902532960 -0.0005705629749796690 
-0.0006426597182031920 -0.0007610163726891170 0.0003062900477232950 0.001451203643673410 -0.0009384659039219360 
-0.001957945173150910 0.0006956226617782700 0.002052034420685800 -0.001263701039240050 -0.0006750615210600790 
0.03651046302465910 -0.01364061033714030 -0.02239890747995580 -0.0008204367708764820 -0.003207801667702160 
0.04088850421635330 0.01731655773817480 -0.05297446025308930 -0.006911322955396420 -0.02247428056174950 
0.05459606578486920 0.01025723425779470 -0.03093621292656300 -0.05003047347508420 -0.02375545445727670 
0.1241594534839770 -0.007376615543962790 -0.09555266354535450 -0.02966000461164810 -0.02133694886013040 
0.07898280518259060 -0.08034760071422990 0.02574959508275500 -0.04297784918528970 -0.02328343455642940 
0.02500832147227260 0.03261620291501010 -0.02817759134357830 -0.07290681845775230 -0.02861139303501720 
-0.09491143902304460 0.07446548168186220 -0.1163640011790890 0.1374189407629240 -0.2222819312701010 
-0.2163135715134360 0.03470248164965280 -0.2485766884851270 0.3312571105098890 -0.2657019402743980 
-0.1565134317112040 -0.05799884488131530 0.009497287893865370 -0.09011163244828930 -0.002519376069416850 
-0.1364757767272510 -0.06767172258112890 0.03896378832020360 -0.08133584021125080 0.06967015388378330 
0.04169505461568690 -0.007491352921635560 -0.04178926997048640 -0.1753320715067570 0.1274328249145550 
-0.02244955435024530 -0.04484183095880140 -0.04750635579551770 0.08588860395643590 -0.01108825252331060 
0.02450057792728450 -0.05665128347739200 -0.05098643796901240 0.06514410270670560 -0.009263203424825300 
-0.01849171616600600 0.01003271535901880 -0.03873794889857750 0.02912472535261760 -0.01452600496720540 
0.004438052690499090 -0.005462329543930280 -0.004514583273894730 -0.01822743221551570 0.02370745038234000 
0.01847911192016520 -0.006176027698313610 -0.01074862524235310 -0.002220628552354810 -0.0006723991171073530 
0.01918826009121160 -0.005169671665645220 -0.01190562864288820 -0.002973285489674860 -0.001036176453526900 
0.005913860506484570 -0.001299464116046080 -0.003845287463047610 -0.001074105533918660 -0.0003992235118218800 
0.004051260907875970 -0.001353999028104460 -0.002356470670553990 -0.0004868386361820250 -0.0001474131586732110 
0.006765438615966710 -0.001740665882511250 -0.004123993964920540 -0.001285848536838140 -0.0004839425503392720 
0.009366545900739110 -0.002510522548379070 -0.005819389557552940 -0.001458355099228630 -0.0005093316734675980 
-0.0005067755221460610 -0.0002502471652832250 0.0008792179242217210 -0.0002385029448710840 -0.0001286425298672960 
0.001470810461008380 -0.0005492503178200120 -0.0007751790453215500 -0.0002179025449624040 -7.373630265861020e-05 
0.002239204324106200 -0.0007820049733355920 -0.001255629990881680 -0.0002930764651714620 -9.326408872485290e-05 
0.001234209729530810 -0.0004124934957936140 -0.0007178947727848360 -0.0001483145606147560 -4.490916749934370e-05 
0 0 0 0 0 
0.0005732091286626070 -0.0001915760600856210 -0.0003334148381214550 -6.888234472943370e-05 -2.085735038002670e-05 
0.0004929551839491640 -0.0001647538519843600 -0.0002867340463349190 -5.923825567149040e-05 -1.793715151966840e-05 
0 0 0 0 0 
0 0 0 0 0 
0 0 0 0 0 
0.0008372706272133360 -0.0002798298212053770 -0.0004870097782418540 -0.0001006145245978540 -3.046575143602110e-05 
-0.01651379251025710 0.04350566962487350 -0.01314055229226080 -0.01840670061558260 -0.009724661723196070 
0 0 0 0 0 
0 0 0 0 0 
0 0 0 0 0 
0 0 0 0 0 
0 0 0 0 0 
0 0 0 0 0 
0 0 0 0 0 
0 0 0 0 0 
0 0 0 0 0 
0 0 0 0 0 
0 0 0 0 0 
6.086524790761450e-05 -2.034218194933640e-05 -3.540309419999520e-05 -7.314156001312550e-06 -2.214702694177650e-06 
7.967757093095320e-05 -2.662957436103440e-05 -4.634553618473710e-05 -9.574826417847090e-06 -2.899226357775780e-06 
4.852119527766390e-05 -1.621659348592000e-05 -2.822300912532060e-05 -5.830775423270480e-06 -1.765539870457320e-06 
0 0 0 0 0 
0 0 0 0 0 
0 0 0 0 0 
0 0 0 0 0 
0 0 0 0 0 
9.030027871657860e-05 -3.017986064094590e-05 -5.252437776218950e-05 -1.085135357532050e-05 -3.285754637230030e-06 
6.513351219638740e-05 -2.176870713004160e-05 -3.788578782042150e-05 -7.827071859476840e-06 -2.370011951015910e-06 
0 0 0 0 0 
-1.882780803647340e-05 -4.311121069186780e-05 -2.896797976038120e-05 0.0001247930718558390 -6.387065248466680e-05 
0.0008047042468168030 -0.0002689455932061230 -0.0004680671028635940 -9.670103381605530e-05 -2.928075913116280e-05 
0 0 0 0 0 
-9.790516616122470e-07 -1.339781835604300e-05 -6.098499564282930e-06 -6.091495457472390e-05 8.236716051434790e-05 
-0.003262097922855450 -0.004899573578452700 -0.004633632735879810 0.01751296889700110 -0.009529596826890270 
0.002150592223652700 -0.001456634934426010 -0.0005042206737755790 -0.001343338389891320 0.0006128166318974150 
-0.004545164954934520 0.006768758309741030 0.006873631320180320 -0.01498728186891450 -0.006235681435258740 
0.0008532877896404450 0.002859145764396230 -0.002078416586295730 -0.005079323206001640 -0.02052280609508810 
0.03062345466043110 0.002168580357619800 -0.02541130860458840 -0.01112697171977380 -0.003579403756836620 
-0.01409624591867380 -0.03094299013310340 0.04222148133150340 -0.001944204465607900 -0.01779101568817570 
-7.765158587777070e-05 0.001586062865261580 -0.008463185998604180 -0.04128172926820230 0.03066762331473980 
-0.1194039334875690 0.04626367367070780 -0.05559465122799110 0.1297013715948510 -0.1360006498364200 
-0.1167181686657360 0.03700851783229630 -0.2816540611447270 0.2932321173794830 -0.2801180316670280 
-0.2365420323864110 0.1375771575118290 0.02060374855898780 -0.1294309622610930 -0.09645059757161130 
-0.2286281218324820 0.002434732054842700 0.04026829905744410 -0.1490104089783840 0.09899208174794230 
0.1476344509811830 -0.02340824122532530 -0.09533458310385450 -0.2113003902913620 0.1067767559397300 
-0.05127554869534090 -0.02788100826088660 -0.004898769751478570 0.03441986134376360 -0.03333144326950010 
0.1115221105687070 -0.1628808959765270 -0.04528143943327190 0.01515797784174590 0.003404991509903580 
0.02597229439623100 -0.07437989433986880 -0.005744339535610340 0.009748851124432240 -0.01209332897731350 
0.02802720906422570 -0.04503495292807380 0.01258140227523420 -0.03709498035566920 0.02009893933840610 
0.07954669212416130 -0.03678908482536040 -0.04666204182575660 0.0004729765515949650 -0.008511873857394760 
0.08048495435835380 -0.03301353012454080 -0.04467533947088220 -0.005094270119082330 -0.01092076674185060 
0.04958083159117940 -0.01695838948410160 -0.02781097575526950 -0.007113570457894850 -0.003404332291750810 
0.03430383521064460 -0.01264061306098270 -0.02009849226353950 -0.008503852423793500 0.004364693707124700 
0.03858363029588470 -0.01116678629409160 -0.02347770723591320 -0.005564444810224160 -0.001873787510982870 
0.04546137067596660 -0.01483161963210300 -0.02649823196807340 -0.006012729589678660 -0.002867000177365450 
0 0 0 0 0 
0.003446617275191150 -0.001151917031999690 -0.002004771528247690 -0.0004141788178671510 -0.0001254120015538480 
0.005100804928834420 -0.001704774161240880 -0.002966952137703080 -0.0006129619818256180 -0.0001856028983158210 
0.002761393426362410 -0.0009229037824347400 -0.001606201813966910 -0.0003318357025682440 -0.0001004787735413820 
0 0 0 0 0 
0.001282485368529370 -0.0004286280202716870 -0.0007459749507810800 -0.0001541158276240440 -4.666577231783650e-05 
0.001102926975762850 -0.0003686166078195240 -0.0006415323844226580 -0.0001325383570445640 -4.013218427058450e-05 
0 0 0 0 0 
0 0 0 0 0 
0 0 0 0 0 
0.001873290698293380 -0.0006260850245204700 -0.001089624857132280 -0.0002251127018150420 -6.816339535469510e-05 
-0.008380435647912830 0.02207829996556820 -0.006668580387874250 -0.009341050512986420 -0.004935080885771450 
0 0 0 0 0 
0 0 0 0 0 
0 0 0 0 0 
0 0 0 0 0 
0 0 0 0 0 
0 0 0 0 0 
0 0 0 0 0 
0 0 0 0 0 
0 0 0 0 0 
0 0 0 0 0 
0 0 0 0 0 
0 0 0 0 0 
0 0 0 0 0 
0 0 0 0 0 
8.740309843968310e-05 -2.921157462620570e-05 -5.083919369109210e-05 -1.050320041341590e-05 -3.180334989970920e-06 
0.0001304259991320280 -4.359054627190290e-05 -7.586404544689330e-05 -1.567324765893820e-05 -4.745808513044400e-06 
0.0001296904415123880 -4.334471063584900e-05 -7.543619841442600e-05 -1.558485595163470e-05 -4.719043791007720e-06 
0.0001734003647376240 -5.795329668135230e-05 -0.0001008606661134070 -2.083746245970370e-05 -6.309515990778700e-06 
0 0 0 0 0 
0 0 0 0 0 
0 0 0 0 0 
0.0003560911828893150 -0.0001190116179906770 -0.0002071252500401130 -4.279135552520330e-05 -1.295708354486490e-05 
0.002889738287898750 -0.001003691461029850 -0.001711473527520820 -0.0002532779727506660 -0.0001546630886424740 
0 0 0 0 0 
0.0008791898817575400 -0.0002938399358838390 -0.0005113926792968970 -0.0001056519470636330 -3.199106660631140e-05 
0.002216139438856860 -0.0007556454140409580 -0.001296322519720080 -0.0003329019819540640 9.188708259777950e-06 
-0.003531243918717390 -0.02005093983814920 -0.01509741613656500 0.05299863950613580 -0.02752675882417870 
-1.164144720734680e-05 -0.0001593072165657270 -7.251441727264580e-05 -0.0007243113470149390 0.0009793895341210380 
-0.02796470339309580 -0.01397853132822980 0.04841435943378300 -0.01395435950314850 -0.006014490536481880 
-0.01088752377425650 -0.02503289018744130 -0.01679367983843650 0.07154127608259870 -0.03614288783604660 
-1.218439853915140e-05 -0.0001667372262423460 -7.589645377824170e-05 -0.0007580928694922060 0.001025067776906080 
-0.01141618461986410 -0.02626085396305250 -0.01761424917164960 0.07493983834460910 -0.03780221672388090 
-0.01305934762086260 -0.03609626334214830 -0.02406048409733310 0.07963057097434900 -0.02888818693051550 
-0.03699982172557760 -0.04682005162414920 -0.08827260735417000 0.1908082694558120 -0.09620853576748650 
-0.1154953392933910 0.06329943725942950 -0.1247309192713530 0.1210541189967310 -0.2108961868012550 
-0.1935445760230730 0.3621678520408470 -0.08480141618242340 -0.2175489863360080 -0.1008202066606310 
-0.2428572019948690 0.05095077019179290 -0.009448058239867010 -0.1662729396378190 0.1292208602987310 
0.1158647151183280 0.06053083254485220 -0.1149021486784000 -0.1564158691125810 -0.0007301026743991660 
-0.07597335698135990 -0.02125344238010760 0.06607922992014230 -0.09411757611741580 -0.009652706022848060 
0.06385050793952060 -0.2851297634031680 0.07761691791304630 -0.04887479921718560 0.03906187843720800 
0.1564028811151790 -0.2251611770277890 0.006327088151046920 0.006923196107979680 -0.06301109882013230 
0.1337537602062370 -0.1428559728658350 0.009735362209338630 -0.05351007027505530 -0.01763911627217170 
0.06172005468926270 -0.07479164588925580 -0.01587035248031820 0.008131401831664340 -0.01622809048850930 
0.06729246701523800 -0.06115407157878700 -0.02073340255649670 0.01575871147730410 -0.03139940029533970 
0.1574136357548100 -0.05347362015801710 -0.09225938063839030 -0.01677506159206220 -0.006855950287193730 
0.1056902938987230 -0.04120610103820110 -0.06433412775974080 -0.03885974607241570 0.03144209082598350 
0.06964943456305190 -0.02327800377483970 -0.04051253510960650 -0.008369748704065340 -0.002534332737934090 
0.06754493273776620 -0.02336286016186130 -0.03992532048706410 -0.006161929381559080 -0.003487715318718500 
0.02120775194204230 -0.007087984746176410 -0.01233577559585240 -0.002548528289520540 -0.0007716860931016820 
0 0 0 0 0 
0 0 0 0 0 
0 0 0 0 0 
0.001272033373933090 -0.0004251347891895780 -0.0007398954068378460 -0.0001528598150120830 -4.628545577616960e-05 
0 0 0 0 0 
0 0 0 0 0 
0.001214316540516490 -0.0004058448599235060 -0.0007063236304856890 -0.0001459240029021660 -4.418531438413670e-05 
0 0 0 0 0 
0 0 0 0 0 
0 0 0 0 0 
0.001047369160554090 -0.0003500482584816630 -0.0006092164301959180 -0.0001258619934134540 -3.811060303571920e-05 
0 0 0 0 0 
0 0 0 0 0 
0 0 0 0 0 
0 0 0 0 0 
0 0 0 0 0 
0 0 0 0 0 
0 0 0 0 0 
0 0 0 0 0 
0 0 0 0 0 
0 0 0 0 0 
0 0 0 0 0 
0 0 0 0 0 
0 0 0 0 0 
0 0 0 0 0 
0 0 0 0 0 
0 0 0 0 0 
0 0 0 0 0 
0 0 0 0 0 
0 0 0 0 0 
-1.168145460630380e-05 -2.674775787729870e-05 -1.797278472096650e-05 7.742614547807140e-05 -3.962766808697440e-05 
0 0 0 0 0 
-3.395974663703510e-05 -9.007077272854790e-05 9.858943833468240e-05 2.229950580976030e-05 -6.143393910186430e-05 
0.0005307837731732590 -0.0001773967980223240 -0.0003087375566103770 -6.378410428636110e-05 -1.931361972363760e-05 
-7.214460399541660e-05 -5.239495912823260e-05 9.459926841408180e-05 3.233122709675030e-05 -4.761937917956110e-05 
-6.628115728780870e-05 0.0003289555848886920 -0.0001714791050373260 -0.0001260834850857020 -0.0001668819499527690 
9.439442503355070e-05 0.0003931899323806090 -0.0003537040844021230 -0.0001852413311755980 -0.0002410328682660330 
-0.008941696027703140 -0.02228601162421250 -0.01484243524272600 0.06321009825664470 -0.03253609259406040 
-0.0006613005409562250 0.001498389849382660 -0.0005629974863337120 -0.0003537445136238100 -0.0005282328275311680 
-0.009818967203455430 -0.004936838905831850 0.01687440702838490 -0.004272441359358830 -0.002646640342351600 
-0.03186621590072600 -0.03959080482871130 0.01180463211074590 0.07929340417245910 -0.04977697141364370 
-0.0004447456202047090 -0.0002196166268194000 0.0007716006474566560 -0.0002093099123812220 -0.0001128965374812310 
-0.02703475535965750 0.001379688488159650 -0.03204854593205930 0.07968592678297440 -0.05568345409564900 
0.01925308505489670 -0.05993343954754090 -0.05442707004362850 0.1303731615144140 -0.07060716900771980 
0.03208970949352310 -0.1474521592015860 -0.08895330335380490 0.2101867632235250 -0.08971475106257080 
-0.1372864355398110 0.08882373331578520 0.01668160485983140 -0.01346613781095700 -0.1093518124451770 
-0.1624230289490310 0.4367857860304220 -0.1094458510128680 -0.2828048183940920 -0.07588461409524080 
-0.1461245404793080 0.03512637218239530 -0.06505213592707900 -0.07762947008852590 0.08198300069908260 
-0.04260692185356080 0.1763344718856980 -0.1327958460230980 -0.1325406629991120 -0.01316162348677880 
-0.02145060612272010 0.006475498999313330 0.006458145448811050 -0.2453533153536120 0.1102611020367940 
-0.02968041054953220 -0.2933889274969000 0.09900884843512150 0.02337220317669860 -0.007810034099193530 
0.3058533800759080 -0.3364925994932010 -0.07837633327422980 0.02644216392681850 -0.09197308131219040 
0.2461802319883230 -0.2006518128558500 -0.05084372425226630 -0.09813428106979520 -0.01683758353074290 
-0.04642529245789390 -0.08821288746640230 0.1034980262001530 -0.01272021786769260 -0.04188064857563800 
0.008405294492999590 -0.08246088238713340 0.03724499003320180 0.04200271035871620 -0.05811811852442680 
0.2149469856979400 -0.07183887099524810 -0.1250268198072550 -0.02583010567529370 -0.007821272149472960 
0.1692683529768540 -0.06229368218121340 -0.1023799391149420 -0.05103519438068890 0.03419700857586330 
0.06857586890604910 -0.02559748283690250 -0.03615777963199700 -0.01015171320552410 -0.003434043684569570 
0.07737161255346430 -0.02585888457507170 -0.04500424432335450 -0.009297720189164830 -0.002815319491265710 
0.04475388430855850 -0.02754199978581910 -0.008504053414773130 -0.01435719626557480 -0.006039500071557320 
-0.001205753192002340 -0.0005954042867974570 0.002091892311820190 -0.0005674616758569170 -0.0003060746508787420 
-0.0007029026296145810 -0.0003470952775822420 0.001219483901516460 -0.0003308059284528510 -0.0001784284531760250 
0 0 0 0 0 
0.0009326011452457000 -0.0003116908718016440 -0.0005424600626990360 -0.0001120703603094410 -3.393454130185870e-05 
0 0 0 0 0 
0 0 0 0 0 
0.0008902856006638870 -0.0002975483103768540 -0.0005178466541867100 -0.0001069853158055280 -3.239480633301110e-05 
0 0 0 0 0 
0 0 0 0 0 
0 0 0 0 0 
0.0007678868327232940 -0.0002566405987775940 -0.0004466517562715410 -9.227669777040890e-05 -2.794108453870380e-05 
0 0 0 0 0 
0 0 0 0 0 
0 0 0 0 0 
0 0 0 0 0 
0 0 0 0 0 
0 0 0 0 0 
0 0 0 0 0 
0 0 0 0 0 
0 0 0 0 0 
0 0 0 0 0 
0 0 0 0 0 
0 0 0 0 0 
0 0 0 0 0 
0 0 0 0 0 
0 0 0 0 0 
0 0 0 0 0 
0 0 0 0 0 
0 0 0 0 0 
0 0 0 0 0 
-2.124871121380620e-05 -4.865450424682740e-05 -3.269271893909820e-05 0.0001408391215914030 -7.208322110863520e-05 
0 0 0 0 0 
-1.966204709467700e-05 -4.502142008724340e-05 -3.025151845519610e-05 0.0001303225129109890 -6.670068946360970e-05 
0 0 0 0 0 
0.0001036330404112850 -7.920419674277630e-05 -9.629180965296530e-05 9.808412084672500e-05 -6.200813686197970e-05 
-9.272313110004370e-05 0.0001086493629391990 -9.424302641750430e-05 0.0001099087087793620 -0.0001318196711101270 
-0.0001307819244438430 0.0001446564434854810 -0.0001342213097907420 0.0001685260660436660 -0.0001908156104214100 
-0.005382947635897390 -0.01232567217728710 -0.008282064373388120 0.03567885171876800 -0.01826088183656440 
-6.428957396552320e-05 0.0003009626803878040 -0.0004354292560939350 0.0002744733507777810 -0.0004678200481248870 
-0.0007095483974231030 -0.001896506682623500 0.003384457184963330 -0.001437108628385680 -0.0007220550979998290 
-0.02982614153858280 -0.02953538687087880 0.03672939890771220 0.02711664112166610 -0.02824576198682890 
0.005155326293097110 -0.001722996111369810 -0.002998665226226660 -0.0006195137955014100 -0.0001875867662285270 
-0.02508566129009320 0.03809469867241860 -0.02570402362513640 0.01798913344667740 -0.03404340439012720 
0.01519673459474920 -0.03814428022931160 -0.02466096854901370 0.06437031588210340 -0.03902531711785380 
-0.01261273993106780 -0.1592858923676080 -0.05405846946649520 0.2120624496133200 -0.08002610313035420 
-0.03487639746078090 0.03698502696466790 0.008142018458248810 -0.05024814944222380 -0.03012876153795510 
-0.1724857442620250 0.3912275988146620 -0.09531903932484900 -0.2633094516901100 -0.02781553599583480 
-0.01895916453766310 0.01517537975090010 -0.08591617631771420 0.02765024300242630 -0.02689551232043840 
-0.1085093099319650 0.1710449532353170 -0.2239663011303080 -0.2029449550304750 0.1596395804114730 
0.02681103716084490 0.04566899483912000 -0.09144633541638820 -0.3631348413669660 0.2533259778183200 
-0.05976299680513540 -0.2063388650686240 -0.03718325369930430 0.2171977021673770 -0.1502816760692220 
0.2073826526551570 -0.3153001474383250 -0.08642377633429710 0.06254898214053410 -0.07864692062123630 
0.1700664833883550 -0.1598866416879130 -0.05366881133661800 -0.1319318714912680 0.03401741822172660 
-0.1107103557507690 -0.09381675593782360 0.1968653286936870 -0.05215766696237340 -0.07480623187863510 
0.04092627004115860 -0.1197004431150600 0.02445990430507940 0.06368040096220160 -0.08183830061400370 
0.06021593977162560 -0.03262618193587130 -0.01761405837136160 -0.01615569193689900 -0.006572851497883930 
0.1484022430175600 -0.05251786651342800 -0.08541906164844840 -0.02923083466794250 0.006477838079630570 
0.03299850864074530 -0.01102865247251890 -0.01919402861286150 -0.003965419484948430 -0.001200716147602520 
0.1035820107778160 -0.04071195264231860 -0.05176340958136570 -0.01679489781240000 -0.005904757233461460 
0.02218418446174850 -0.03811152816513070 0.02985121325954120 -0.02456854813339160 -0.01156700594918500 
0.06638728800939780 -0.02218773993757480 -0.03861506347014960 -0.007977737669644060 -0.002415633069247180 
0.09002981336129630 -0.03008946660399900 -0.05236705793223610 -0.01081885184618120 -0.003275913219152920 
0.04970683258982290 -0.01661285326894860 -0.02891265109495660 -0.005973253053120440 -0.001808681634268770 
0 0 0 0 0 
0.02639232930274300 -0.008820757052663460 -0.01535145510095610 -0.003171557175800550 -0.0009603372174073780 
0.02101739349210640 -0.007024363774319550 -0.01222505103025000 -0.002525652979768860 -0.0007647595235660990 
0 0 0 0 0 
0 0 0 0 0 
0 0 0 0 0 
0.03264572131278090 -0.01091074505799950 -0.01898882509469880 -0.003923025152538340 -0.001187879281368110 
0 0 0 0 0 
0 0 0 0 0 
0 0 0 0 0 
0 0 0 0 0 
0 0 0 0 0 
0 0 0 0 0 
0 0 0 0 0 
0 0 0 0 0 
0 0 0 0 0 
0 0 0 0 0 
0 0 0 0 0 
0 0 0 0 0 
0 0 0 0 0 
0 0 0 0 0 
0 0 0 0 0 
0 0 0 0 0 
0 0 0 0 0 
0 0 0 0 0 
0 0 0 0 0 
0 0 0 0 0 
0 0 0 0 0 
0 0 0 0 0 
0 0 0 0 0 
0 0 0 0 0 
0 0 0 0 0 
0 0 0 0 0 
0 0 0 0 0 
-0.0002496830940677730 -0.0005443309603067550 -0.0004855828507443150 0.001757691413108160 -0.0009498652091229150 
-1.156267808985710e-06 -1.582293017124330e-05 -7.202376550468960e-06 -7.194104644548900e-05 9.727627249359420e-05 
-0.02457706001057760 -0.01101439672730220 0.04170809011629410 -0.01187986837489740 -0.006253028764159350 
-0.007257921354860770 -0.001665244858561520 0.01068780869965050 -0.003309659476583830 -0.002295933819451090 
-0.0002716900417038750 0.0007157687846323100 -0.0002161924462886870 -0.0003028327535768780 -0.0001599931540553230 
-0.01998643054526270 0.05051066174349510 -0.01423409655791850 -0.02174439838275260 -0.01158543478549630 
-0.02700613770656460 -0.01153533936149750 0.04333735558511900 -0.01305877998475770 -0.005425413136553350 
-0.05385851358790430 -0.1123895117374910 -0.05767674569309900 0.2390216293976860 -0.08886284043629270 
0.08052629580982070 -0.02304320691328100 -0.05268669720506880 -0.05484023937245220 0.03167747807912550 
-0.1456629418111890 0.2802689215392490 -0.1105474290479440 -0.1584050598294530 0.006223006353350870 
0.006422138681770700 0.04725442547325490 -0.08374724599522900 -0.01465471777051280 -0.01159739311643030 
-0.1074049881776250 0.03441512662851880 -0.2621950671101680 -0.2910740695553970 0.4130295097836860 
-0.01278757929709260 0.07942247691396420 -0.1076486570540800 -0.3143757198434880 0.2252721721007740 
-0.05922643629617160 -0.03302433898998560 -0.2080139580502470 0.2896593094956230 -0.2247939172199500 
-0.04814801747709650 -0.1706329209368040 -0.02052901031185930 0.07858046277578560 -0.07070717596842210 
0.009810832207477540 -0.08039745389243370 -0.006421893071345830 -0.1035706448791190 0.02663843574662480 
-0.06320938737828700 -0.1120669952843030 0.1965309477942000 -0.09413111074870380 -0.1000761951879510 
0.1251725914444300 -0.1284025404337140 -0.05081149204093780 0.06445705721410730 -0.09526996810081230 
-0.08329671295481340 -0.03237970272474730 0.1402069460230080 -0.04537123365569520 -0.02425581830350710 
0.1134954887931640 -0.06010263107567360 -0.03513713882663020 -0.02945756160948530 -0.01190083780824690 
0.04195163767214410 -0.004236503429825640 -0.03026058321109720 -0.01029360145939540 -0.004186114527780940 
0.1031657480639340 -0.05139556467174600 -0.02924650050390630 -0.03580618270097510 -0.01532716873140810 
0.001454832833625610 -0.04007438376645680 0.05429200237060770 -0.02842126851041310 -0.01392912754913910 
0.1762639313057330 -0.05891034843346100 -0.1025262983164100 -0.02118157627373240 -0.006413712536613420 
0.1716332555246730 -0.05736269928185160 -0.09983280315254670 -0.02062510955062660 -0.006245216219244540 
0.1034229777525690 -0.03456568573216520 -0.06015737304439910 -0.01242830382537440 -0.003763250053892150 
0.001469838602917030 -0.0004912445989225320 -0.0008549514921363010 -0.0001766300016522480 -5.348299112866030e-05 
0.08392927368425570 -0.02805056440010310 -0.04881859656418410 -0.01008575208196440 -0.003053932990317130 
0.05394419869885080 -0.01802905176216150 -0.03137737237146370 -0.006482455887604040 -0.001962866599589630 
0.001402731175923930 -0.0004688161765144390 -0.0008159175500917050 -0.0001685657251275030 -5.104115437500860e-05 
0 0 0 0 0 
0 0 0 0 0 
0.05849430238409380 -0.01954977237425950 -0.03402400168665050 -0.007029240289542730 -0.002128431141539600 
0.0006820796084973990 0.0009851873796647990 -0.001123165838510730 -0.0007331844708055280 -0.0003545791882770580 
0 0 0 0 0 
0 0 0 0 0 
0 0 0 0 0 
0 0 0 0 0 
0 0 0 0 0 
0 0 0 0 0 
0 0 0 0 0 
0 0 0 0 0 
0 0 0 0 0 
0 0 0 0 0 
0 0 0 0 0 
0 0 0 0 0 
0 0 0 0 0 
0 0 0 0 0 
0 0 0 0 0 
0 0 0 0 0 
0 0 0 0 0 
0 0 0 0 0 
0 0 0 0 0 
0 0 0 0 0 
0 0 0 0 0 
0 0 0 0 0 
0.0001670623404100600 -5.583502314262740e-05 -9.717406858814550e-05 -2.007582424634620e-05 -6.078894412183870e-06 
0 0 0 0 0 
5.057522578298270e-05 -1.690308477126070e-05 -2.941776373438480e-05 -6.077607565811990e-06 -1.840279841958910e-06 
0.0001275444345857390 -4.262747929502410e-05 -7.418794447659100e-05 -1.532697103403390e-05 -4.640957075097410e-06 
0.0002244332523149530 1.162897898571560e-05 -0.0001824230125440560 -7.347754513202150e-05 -3.171661928330010e-05 
-4.871566958594450e-07 -6.666488784980840e-06 -3.034492472587180e-06 -3.031007367903680e-05 4.098426603701110e-05 
-0.02565057026020110 -0.01864048692766040 0.03066529754909690 0.01568913049235400 -0.01897686135827770 
-0.004765908692348130 -0.007725645400494090 -0.006851911311587060 0.02657766739030870 -0.01435315981983720 
-0.007846275729733190 -0.01657398795674380 -0.01174115377151310 0.04964502196176540 -0.02573959529826760 
-0.01624475465145950 0.01334875171240580 -0.01736882019880680 0.02819642561580590 -0.02633159601578020 
-0.02471986040049120 -0.01308279182336460 0.02802275447919410 0.008370040354544130 -0.01467608548602410 
-0.03582402054542280 -0.07934685238744120 -0.05503336128514620 0.2238864926125660 -0.1098778117349760 
0.04666625140329040 -0.02386105676590520 -0.03115912431774820 -0.04235815100724010 0.04787721480703960 
-0.07177125588647170 0.1487090035904450 -0.09707565590686700 -0.1045900535256740 0.04121933624148070 
-0.08897223845947800 0.1166142169476590 -0.1008134497671180 -0.1779947565456790 0.1677690084398210 
-0.1506156321334740 -0.1106226257135410 -0.1440523881353360 -0.3164292468483370 0.5629877561583710 
-0.1718569469155190 0.07529141810879690 0.007072120027567310 -0.1339206725411340 0.04730135283465410 
-0.1315640263153140 0.1672841359307750 -0.1791970828530860 0.07686239578408410 -0.1607092063082040 
-0.2351467236275330 0.03092580840360770 0.01758017876419540 0.03224067651474960 -0.08222086023180130 
-0.1026501610104590 -0.06814603427886370 0.1022853335831650 -0.06135351763908360 -0.07332124171851300 
0.05003007789623400 -0.1573213232631600 0.1508837519520260 -0.1380485799554370 -0.1155561691492080 
0.1486215671596580 -0.07822639769430290 -0.09261112312887730 0.02190183539706730 -0.09967517856268590 
0.09500438033534570 -0.1245532886490480 0.07927900109990370 -0.08899222108077490 -0.07007274578102340 
0.1361127432904230 -0.1249796649774950 0.03153947219590720 -0.07307226596253540 -0.03281454531066870 
0.1206863357358700 -0.04096256508522870 -0.04205841723166700 -0.05788717494561640 -0.02598287666390560 
0.08722694770679710 -0.02149905062581830 -0.05696944441239380 -0.01476515909634740 -0.03129946291128510 
0.04699231403757850 -0.03524461803483780 -0.0001198693504598460 -0.01958827326420200 -0.008558596502924680 
0.2382740308425640 -0.09241046632193050 -0.1208019130621320 -0.03774858529500350 -0.01314799323401850 
0.1056225488573990 -0.04321698026922080 -0.05041118521374140 -0.01834086522835930 -0.006618008767693750 
0.09250807897353150 -0.03091774434435090 -0.05380857462589600 -0.01111666417626640 -0.003366089825952190 
0.04309016961567780 -0.01440145404287800 -0.02506397963437470 -0.005178130929006810 -0.001567921236191580 
0.1478957512611950 -0.04942922907757740 -0.08602556292264890 -0.01777258179080480 -0.005381480073370700 
0.07620833565052130 -0.02547009801409290 -0.04432760858799890 -0.009157929602034310 -0.002772991355267100 
0.03871214828063080 -0.01293824622499840 -0.02251744434432670 -0.004652025604171630 -0.001408618251660680 
0 0 0 0 0 
0 0 0 0 0 
0.02742954112124470 -0.009167410557862170 -0.01595476337584390 -0.003296198564897360 -0.0009980782254183070 
0.03047763482832540 -0.008989378504566590 -0.01844433674347840 -0.004304905880396850 -0.001434293305449920 
0 0 0 0 0 
0 0 0 0 0 
0 0 0 0 0 
0 0 0 0 0 
0 0 0 0 0 
0 0 0 0 0 
0 0 0 0 0 
0 0 0 0 0 
0 0 0 0 0 
0 0 0 0 0 
0 0 0 0 0 
0 0 0 0 0 
0 0 0 0 0 
0 0 0 0 0 
0 0 0 0 0 
0 0 0 0 0 
0 0 0 0 0 
0 0 0 0 0 
0 0 0 0 0 
0 0 0 0 0 
0 0 0 0 0 
0 0 0 0 0 
0 0 0 0 0 
0 0 0 0 0 
0 0 0 0 0 
0 0 0 0 0 
0 0 0 0 0 
0 0 0 0 0 
-0.007975417558955810 -0.01852375916785580 -0.01248243058045050 0.05351174284102420 -0.02739775047811810 
-0.01095219765021900 -0.02651247801037670 -0.01798073957850700 0.07552321602990760 -0.03836676133964120 
-0.01606711423074580 -0.03850594236454910 -0.02607932639376710 0.1101545648946680 -0.05611874967106270 
-0.01671556770342970 -0.03998886288098990 -0.02707274936669870 0.1143888325755640 -0.05825375574689290 
-0.01053801437188630 -0.02920083722897200 -0.02031123688785960 0.08242501093982290 -0.04237534145582870 
-0.02249127253790260 -0.05815847365458910 -0.03940710393026340 0.1531665930718630 -0.07189747510452640 
0 0 0 0 0 
0.005444247301653480 0.04934335025604740 -0.1025105400274410 -0.08511363533517670 0.07153481295758970 
-0.1158684475550960 0.1137346638258980 -0.1811594251744460 -0.3673112543944220 0.4219566810742840 
-0.1278566670466130 -0.1787097255325530 -0.05822251883273700 -0.06935408889537270 0.2951400025806010 
-0.2886762254922170 0.04628254564663040 0.07323833474195800 -0.06145481790924830 0.006435396017821620 
-0.2133122297992100 0.2946623160821980 -0.04798647006841360 -0.1975723262575880 -0.04879166183459470 
-0.2819686048788110 0.2081317256167050 -0.006174159529362300 -0.02749370506320150 -0.1241587353348860 
-0.1619037353910160 -0.08007574166476190 0.2116907545236180 -0.06379730953651120 -0.1578867356606090 
0.07332838446957180 -0.1582658100773700 0.1239604808029900 -0.1588965809328190 -0.1018980683609610 
0.1110790167674930 -0.03700922431256780 -0.04946693467066970 -0.04553025000804930 -0.09650589400637220 
0.2630428744243310 -0.1817778746816090 -0.02249717127800340 -0.1043696746114360 -0.1029080583181360 
0.1370202731183750 -0.1803907596473860 0.1072653496342640 -0.1134950590410410 -0.05047325419220050 
0.1355777507374830 -0.08196658315987250 0.009928550708130170 -0.1018698808488750 -0.04735935862993660 
0.08092290302781100 0.006635648413376560 -0.09627503192556880 0.01230713809558210 -0.04468077824377160 
0.08455925352691090 -0.02826111418054860 -0.04918503285550550 -0.01016145654395650 -0.003076856055658520 
0.2113596392275400 -0.09796066649795010 -0.08488796293667430 -0.04489257079878750 -0.01726703548859160 
0.03051452221682240 -0.03344876637558030 0.01463374705666390 -0.02025618377479310 -0.009259881399170860 
0.06379380146689940 -0.02132095343880400 -0.03710652696488720 -0.007666079279819890 -0.002321263920505630 
0.08857994205916300 -0.02960489541033720 -0.05152372069051150 -0.01064462130822750 -0.003223156777843110 
0.1531406906612610 -0.05118217538531870 -0.08907635282390260 -0.01840286436268810 -0.005572327590130310 
0.08582356325245130 -0.02868366759750490 -0.04992043569785010 -0.01031338821078570 -0.003122860471177860 
0.06696934238669300 -0.02238227222741810 -0.03895362326670510 -0.008047682944873160 -0.002436812271532030 
0 0 0 0 0 
0 0 0 0 0 
0 0 0 0 0 
0.04039486999518000 -0.01350063991374860 -0.02349622217602120 -0.004854237696459350 -0.001469847416789850 
0 0 0 0 0 
0 0 0 0 0 
0 0 0 0 0 
0 0 0 0 0 
0 0 0 0 0 
0 0 0 0 0 
0 0 0 0 0 
0 0 0 0 0 
0 0 0 0 0 
0 0 0 0 0 
0 0 0 0 0 
0 0 0 0 0 
0 0 0 0 0 
0 0 0 0 0 
0 0 0 0 0 
0 0 0 0 0 
0 0 0 0 0 
0 0 0 0 0 
0 0 0 0 0 
0 0 0 0 0 
0 0 0 0 0 
0 0 0 0 0 
0 0 0 0 0 
0 0 0 0 0 
0 0 0 0 0 
0 0 0 0 0 
-0.0003301925624885050 -0.0007560625805592130 -0.0005080257589553680 0.002188557695992410 -0.001120131157640330 
-4.459101010772070e-05 0.0001174752409406220 -3.548249136116280e-05 -4.970229416952130e-05 -2.625880692904800e-05 
-0.006981444956347420 -0.01618076103369710 -0.01089896261028210 0.04675730401687840 -0.02393824343865010 
-0.01102620822278130 -0.02627571862349620 -0.01609452047128740 0.07261317815134650 -0.03739727325381810 
-0.01843324527422380 -0.04551605146523090 -0.03100761436245440 0.1298136831363310 -0.06625463005891700 
-0.02175457947847670 -0.05221810840963190 -0.03386403340273390 0.1473288904626340 -0.07562667573294310 
-0.01282397022155690 -0.03645676207866120 -0.02546187364463750 0.1025906271380720 -0.05277177539485330 
-0.02119659498064010 -0.05447636300047530 -0.03199805528162660 0.08292297550761460 -0.005826069189604310 
-0.02605173204437170 0.008920879826330530 -0.01429161560636500 0.04286054135175990 -0.03845108581600630 
-0.007191842306601210 -0.0003522908816383980 -0.1117330970088720 -0.01250734289365670 0.02852368567119440 
0.008939288265271810 -0.01335615457202570 -0.2722104071815270 -0.4909497202755350 0.6070549061917080 
-0.03889586801312740 -0.1835791712851410 -0.1624646131887600 0.3858341318911350 -0.2377670216150880 
-0.2324172356560470 0.07779435633157530 -0.04974293500863540 -0.1335327569690550 0.1194201120592470 
-0.1733445475036740 0.2680751754787590 -0.04721711201981900 -0.2360819097737890 -0.001668135861567740 
-0.2218813094461610 0.2938927363931290 -0.06862892522812820 -0.05759098717738880 -0.1752822828203840 
-0.1247982444054950 -0.04326782484735980 0.1971402246104500 -0.1192270598431800 -0.1521723561862810 
-0.02985889872301250 -0.08048815725822970 0.1203352989680360 -0.1295616962494200 -0.07494833295303680 
0.03494153546261340 -0.04990516236776630 0.08320411043443990 -0.1144557656862900 -0.09152603251349660 
0.2126101067280140 -0.1310418803622060 -0.02932571843615600 -0.09103402737887770 -0.09327921340746510 
0.1003364277129740 -0.1428563251534600 0.1078270688326590 -0.1124370698967780 -0.05255737654773900 
