solver_type L2R_L2LOSS_SVC_DUAL
nr_class 5
label 0 1 2 3 4
nr_feature 2999
bias 1.000000000000000
w
0 0 0 0 0 
0 0 0 0 0 
0 0 0 0 0 
0 0 0 0 0 
0 0 0 0 0 
0 0 0 0 0 
0 0 0 0 0 
0 0 0 0 0 
0 0 0 0 0 
0 0 0 0 0 
0 0 0 0 0 
0 0 0 0 0 
0 0 0 0 0 
0 0 0 0 0 
0 0 0 0 0 
0 0 0 0 0 
0 0 0 0 0 
0.003460690617123664 -1.626303258728257e-19 -0.005025328299586552 -0.0006903371388512160 0 
0.01379517200808314 0 -0.01835584365764634 0 -0.002558902786260242 
0.007071900034811957 -0.003001213388385121 -0.01600407922430253 -0.002451991626303253 0.008872616293807000 
0.03963761108368415 -0.01549030903572491 -0.02321633483359132 -0.01381143012675356 -0.002587834240636111 
0.03624711046868045 -0.04387459999293182 0.0001935718029062650 0.01268824361106027 -0.02835078840933902 
0.04153148854360862 -0.06003897800169596 -0.002989843496761986 -0.0002717835995913896 0.02416052324261466 
0.03128256515109618 -0.05276425538878345 -0.02931576196559677 -0.04289774644088688 0.04556757924018638 
0.09106052358315368 0.0005706874569372409 -0.2079259705356484 -0.06793381155573777 0.04714632514682094 
0.1531010076896640 -0.08874138993021387 -0.1493832200635052 -0.05818608510277846 0.02958766772736248 
-0.1998029758333252 -0.03083042167219594 0.1134956346464002 -0.07141645105494855 -0.01684203753801596 
-0.5063457544120593 0.06891616367987037 0.2931305302135958 -0.06165228936494793 -0.1492473214577667 
-0.2075903769750303 -0.04650761355767373 0.3601230767556143 -0.2603606620370946 -0.1260899179155502 
0.04785400141281870 0.1713391931790076 -0.1510045236909658 -0.7900282942614710 0.4430334346581539 
0 0 0 0 0 
-0.1785113095932756 -0.2056507415506690 0.2357612103161176 0.3931664701353599 -0.3315199132978647 
-0.05459387979401416 -0.05908812067286212 0.3822303443111592 -0.2744645733645167 0.005421278314731630 
-0.1196192109706619 -0.08847465771325824 0.3501892400437677 -0.2939020016003488 0.006291258481428161 
-0.1041377286020779 -0.03702970377876940 0.2902733313366867 -0.2689132058048159 0.004473519316997690 
0.1607162286661221 0.1114045728589687 -0.1222176093116686 -0.1206812650019823 -0.06051165182758560 
0.06756793334536987 0.01627918939680799 -0.1666669609369106 -0.06048547594328522 0.02326054370285078 
-7.271380252308112e-05 -0.005392233225050180 -0.007085771739029078 0.009083166388550305 -0.03348604630893048 
0.01494717214355180 -0.03480043741594249 -0.003508825261160170 -0.03390789084918438 0.03126310319352774 
0.02324872269545529 -0.01005400991195365 -0.02678807935562802 -0.01348886129109934 0.0006394743459095387 
0.01344859532564086 -0.0007718744264920442 -0.01378823379703814 -0.001437747462424089 0 
0.01323041159860137 -0.0007138311475692482 -0.01338717764847736 -0.002051918995974093 0 
-0.0008019914251102613 -0.01488184775117978 0.02706137201760650 -0.02246426155554545 -0.004120204439402005 
0 0 0 0 0 
0 -0.01103827405271974 0.01148713170183375 -0.01513860298631666 0 
0 0 0 0 0 
0 0 0 0 0 
0 0 0 0 0 
0 0 0 0 0 
0 0 -3.794707603699266e-19 0.0001187144122227055 0 
0 0 0 0 0 
0 0 0 0 0 
0 0 0 0 0 
0 0 0 0 0 
0 0 0 0 0 
0 0 0 0 0 
0 0 0 0 0 
0 0 0 0 0 
0.004920682044736792 -0.003989823313592824 0 0 0 
-0.003621652889128843 -0.003897617038576170 0.02097177918927017 -0.007546369327690569 -0.004414212247342631 
0 0 0 0 0 
0 0 0 0 0 
0 0 0 0 0 
0 -1.713594550805064e-05 1.783275736281648e-05 -2.350134401470286e-05 0 
0 0 0 0 0 
0 0 0 0 0 
0 0 0 0 0 
0 0 0 0 0 
-1.423015351387225e-19 -3.049318610115481e-20 -1.016439536705160e-20 0.005462856504251475 -0.004194932792603115 
0 0 0 0 0 
9.153171719151775e-06 0 -2.163395950460868e-05 0 0 
0.0006217779264982746 -0.0002931536271875367 -0.0002361314820887709 -2.185560692371585e-05 -4.560734546298572e-06 
-1.860200058731053e-06 1.843279221532172e-05 -1.964153139618373e-05 -9.330913210037534e-07 -1.451024435450268e-06 
0.0006400901127043058 -0.0003122959036881895 -0.0002371528923817838 -4.525213251793779e-05 -4.582461994586240e-06 
0.0007290425160516943 -0.0003645021696581550 -0.0002971155360015501 0 -2.770279475689647e-06 
0.0002975776489245847 -0.0002455913456534784 -0.0002447338429517737 -9.495867687389071e-05 0.0003468126582399203 
0.0002349631373445376 -1.093100082456893e-05 -0.0001587150408157663 1.270549420881451e-21 -0.0001239935582685306 
0.003582380855461516 -0.0009451556049957312 -0.003633421513137174 -0.0005304378007873916 0.0003335777945377543 
0.008427821341056524 -0.002464212983111780 -0.008855044469310690 -0.0002058944414432866 -0.0002950898301093982 
-0.0004202099407303008 -0.004171183383309689 0.002020064186242205 -0.003223796088682253 0.008534069916405493 
0.03213662293113032 -0.01448060409651358 -0.01746232274770145 -0.01081738640215140 -0.002949170586050966 
0.02564054389839420 -0.04092622076091056 0.007525339773214029 -0.006281350062584562 -0.009036847359632630 
0.01203398925382630 -0.03102609261876941 0.01205141153003654 -0.0007055073021895040 0.01156517000037614 
0.01803266118828535 -0.02242695347933637 -0.03464534658931723 -0.04518231519006722 0.04031337266901473 
0.006110747456283708 0.04890436742517317 -0.1451728814252762 -0.03954543253528330 0.03861251743455342 
0.08080252307741981 -0.02221909440885508 -0.1321294858589759 -0.05226333363524365 0.02094281481106786 
-0.1133846959486930 0.004946347822605918 -0.02342832326347209 0.003363597858013634 -0.04410731422702106 
-0.3134534649844362 0.1864472014988710 0.1189797638089906 -0.05285157366309730 -0.2216782946900676 
-0.09870214102336416 -0.01159324400377279 0.2616410396321662 -0.08678258160994588 -0.2891039082634686 
0.08900281586578035 0.07727238980484322 -0.2214899620157097 -0.8842565767564476 0.5821682149487912 
0 0 0 0 0 
-0.02415185276087880 -0.2646020294397923 0.09574509245531030 0.2639070173233257 -0.3069136651731411 
-0.001159250526999352 -0.1064452907666303 0.2990294782518962 -0.1991437843622030 -0.04354867185470960 
-0.3320070181447949 -0.2203640338400545 0.7296033305401777 -0.3564169136693915 -0.04596405175734317 
-0.1249900214491884 -0.07113612976784150 0.3585966946965321 -0.2326467017471796 -0.007572831894038255 
0.1742155598186678 0.1179340874030470 -0.01686606944723510 -0.1673444910449291 -0.1083734367355733 
0.1318552463888171 0.05947212877168039 -0.2758363353172058 -0.07634960933842454 0.01331679662399314 
-0.0006820614276733123 -0.001811905131079674 -0.005037924448215815 0.002976000750247856 -0.02260063082561499 
0.004588301355387302 -0.009351082159033396 -0.009781934133242152 -0.02512922746291713 0.01521444972845580 
0.01136242370902449 -0.004673975048306411 -0.01488510290933043 -0.01361373038027735 -0.001144826831275036 
0.009495689625352183 -0.004674370594960409 -0.002429582932115375 -0.001835126167554147 0.001281735605196326 
0.006890923646768575 -0.0003355668730293165 -0.008033143432641722 0.003829678078596379 -0.0003762667305464758 
-0.002547124860774348 -0.01291518674843763 0.02950890718900092 -0.02009564432005255 -0.004779227736468016 
0 0 0 0 0 
0 -0.008536248618958735 0.008883364523950643 -0.01170716347661886 -1.084202172485504e-19 
0 0 0 0 0 
-6.718301749267048e-06 1.217285087054991e-05 -7.833400959646839e-07 0 0 
0 0 0 0 0 
0 0 0 0 0 
0 0 1.084202172485504e-19 8.302842344941030e-05 0 
0 0 0 0 0 
0 0 0 0 0 
0 0 0 0 0 
0 0 0 0 0 
0 0 0 0 0 
0 0 0 0 0 
0 -0.0002368485932859734 0.0002464797459707636 -0.0003248294800889173 3.388131789017201e-21 
0 0 0 0 0 
0.002736094706944662 -0.002218500271043152 0 -5.421010862427522e-20 0 
-0.002183988583904718 -0.002350405015962323 0.01264674659214895 -0.004550735524952347 -0.002661930739985316 
0 0 0 0 0 
0 0 0 0 0 
0 0 0 0 0 
0 -3.082911734230524e-05 3.208274495369052e-05 -4.228104553616654e-05 -4.235164736271502e-22 
0 0 0 0 0 
0 0 0 0 0 
0 0 0 0 0 
0 0 0 0 0 
-1.897353801849633e-19 -6.098637220230962e-20 2.371692252312041e-20 0.01031626187786377 -0.007921867472603850 
0 0 0 0 0 
1.204107081770767e-05 0 -2.845964726274725e-05 0 0 
0.0003478995541121295 -0.0001640264342596930 -0.0001243287259692123 -2.438900808760820e-05 -6.793594167923895e-06 
-3.152722419841784e-06 3.124044481386179e-05 -3.328905195015252e-05 -1.581430940011405e-06 -2.459239396273849e-06 
0.0003671531214786231 -0.0001957771734717464 -0.0001157650901863900 -6.638200819104350e-05 -6.825959012769082e-06 
0.001077320467808198 -0.0005885610706747378 -0.0003981681831082500 0 -4.695152100033907e-06 
0.0001356451295161986 -0.0002607702772856092 -0.0002006531172079389 -0.0001382572170762362 0.0005166537038222207 
0.0002242043077670409 -1.209643841248253e-05 -0.0001458124771516364 0 -0.0001062801928015977 
0.002058450907391690 -0.001018662048884847 -0.001614992690550427 -0.0003338190865135267 0.0005140972168700304 
0.002824225304362547 -0.003264602850177345 -0.0008873727019833200 -0.0002801677416209719 0.001104884896902648 
-0.006488906867700390 -0.004753705187250578 0.01602310455038460 -0.003156799185997132 0.007824236150565808 
0.02537390528417536 -0.01357092555733625 -0.01243227236852210 -0.008084860114072195 -0.003754317230509487 
0.01999678751835684 -0.03837441786731168 0.009488934363701327 -0.01953340527643712 0.004175903266087830 
0.005079061333741394 -0.009529727982555617 0.007495319716515999 -0.002134120818876064 -0.0009890672596362103 
0.01255910283087662 -0.001697299190017251 -0.04037179853552763 -0.05053468629189774 0.03415259116069130 
-0.03582256899625001 0.08099512761334272 -0.1070518821928370 -0.01939347904252801 0.02443602305551967 
0.02882025887570937 0.02065893727804198 -0.1140150465820869 -0.03829380154802166 0.001271786962424626 
-0.04928117233761634 0.01938176845989158 -0.1202716052445788 0.05652889463075658 -0.05928425484401598 
-0.1328518764438685 0.2689425530962814 -0.03903011520992621 -0.05785601256076860 -0.2673001219316716 
-0.01641238616432249 0.01347683066363304 0.1345594853686330 0.02770374392163250 -0.3665530782738761 
0.1235343157202338 0.01595545569208816 -0.2510381098729549 -0.9248644898182339 0.6535450045174752 
0 0 0 0 0 
0.08053807486407633 -0.3060597941937038 0.008997894862332125 0.1505751748242434 -0.2822060265988899 
0.02256535964882988 -0.1418259961216511 0.2391369110850009 -0.1263294707989575 -0.08797396101910851 
-0.5030557514346349 -0.3163847597306751 1.022787666435850 -0.3985674089843062 -0.09101332150265168 
-0.1447361676316606 -0.09034259422238980 0.4038747545906803 -0.1958711176836952 -0.01841632823924695 
0.1448197017413808 0.1365758256698214 0.08384398841160750 -0.2013202003872018 -0.1452537386705803 
0.1663887270571492 0.1005042362721970 -0.3376788482425747 -0.08944129832679071 0.001991926383771953 
-0.005144334288068880 0.003572170075178263 -0.002044227154865978 -0.001899126930539227 -0.01338700065508031 
-0.004848446342186941 0.01303028809552802 -0.01461001058106450 -0.01729890213160354 0.001590512925190581 
0.001318560621194039 3.158732267137519e-05 -0.005572351168687564 -0.01264361305729437 -0.002817330017762969 
0.005309493550922162 -0.007672520762215202 0.007429242730398459 -0.002000042639067516 0.002292621491619271 
0.001824783548224700 -3.786671056959759e-05 -0.003754524022347834 0.008631140006792920 -0.0006834983101395170 
-0.003788062304562785 -0.01075611759235236 0.03009187012407932 -0.01729497212647400 -0.005100958517983776 
0 0 0 0 0 
0 -0.006137718905196050 0.006387301590455627 -0.008417664691381648 1.084202172485504e-19 
0 0 0 0 0 
-1.175702806121733e-05 2.130248902346234e-05 -1.370845167938201e-06 4.235164736271502e-22 0 
0 0 0 0 0 
0 0 0 0 0 
0 0 2.710505431213761e-20 4.998083611144015e-05 0 
0 0 0 0 0 
0 0 0 0 0 
0 0 0 0 0 
0 0 0 0 0 
0 0 0 0 0 
0 0 0 0 0 
0 -0.0004261120620010568 0.0004434393776208199 -0.0005843976425576549 0 
0 0 0 0 0 
0.0009206009640419176 -0.0007464483897672649 0 1.355252715606881e-20 0 
-0.0009371164109264249 -0.001008523180484799 0.005426527347107994 -0.001952651663862715 -0.001142194148620418 
0 0 0 0 0 
0 0 0 0 0 
0 0 0 0 0 
0 -3.763674182896781e-05 3.916719300067966e-05 -5.161746207115188e-05 0 
0 0 0 0 0 
0 0 0 0 0 
0 0 0 0 0 
0 0 0 0 0 
8.131516293641283e-20 5.421010862427522e-20 3.557538378468061e-20 0.01395076499019771 -0.01071280592739982 
0 0 0 0 0 
0 0 0 0 0 
1.058791184067875e-21 0 8.029351234902913e-06 -1.252994802171850e-05 -4.370703940202780e-06 
-3.309889385711873e-06 3.279781817883851e-05 -3.494855081969136e-05 -1.660267155026854e-06 -2.581835407844048e-06 
6.352747104407253e-22 -3.726552412299808e-05 4.684848344554713e-05 -6.369799109230272e-05 -4.391526078145150e-06 
0.0007093454305127476 -0.0005400882939957648 -0.0001372420775299127 0 -4.929211021687385e-06 
0.001912721026054082 -0.0001803580358982317 -0.001009372668948225 -7.823548393549140e-05 -0.0002755680775445973 
0.003750301649879101 -0.0001873582073170354 -0.002944750601680744 -1.766352027895359e-05 -0.0008640452103853447 
0.0007856495454161832 -0.0007487456202032159 -0.0002142855252577881 -0.0001177648496661256 0.0003401868189368122 
0.005855379549483103 -0.002994294285425735 -0.001216426668773060 -0.0001930944312900537 -0.0002617210375149202 
0.001699149459715720 -0.006622539696178968 0.01521672924161209 -0.001529058460703866 0.004980768978918327 
0.03129439698907820 -0.01656631668261064 -0.01430993565387068 -0.006748865204726448 -0.005914013533272266 
0.03764448487009064 -0.04117286462808727 -0.007743211771261293 -0.02110552613964431 0.005402511188739745 
0.03240966130425519 -0.002117338802572243 -0.02230117748530852 -0.006529592912113233 -0.008653102420221603 
0.02329637651713020 0.006261845204771978 -0.05199282054219343 -0.06423626118322302 0.02614626098850442 
-0.005704914748975330 0.08624200290247973 -0.1188547349581927 -0.01210512164818602 -0.001700124122187452 
0.02924219995270895 0.03068130071265656 -0.1185382017923849 -0.03276043258286947 -0.02923653189847966 
-0.002151282002091278 0.01413919718532204 -0.2103030616446888 0.08810027634257368 -0.05902870553355026 
0.02109529473901683 0.2773058820678653 -0.1417911584316525 -0.09676077066685630 -0.2601011285761835 
0.01776727856420167 0.01812708489839636 -0.04661891371742535 0.02656580600413087 -0.2788685394533150 
0.1407918639205101 0.02021062815003445 -0.2035918369954709 -0.8611892401536954 0.5958451068391316 
0 0 0 0 0 
0.08672701640143092 -0.3130440823021727 0.02798873264894746 0.06883469830516512 -0.2578532627657096 
-0.01144393192397094 -0.1575548815469544 0.2364345416210982 -0.06289699172939893 -0.1233366567612362 
-0.5907583084102372 -0.3407964920680592 1.142344068792575 -0.4004300952901120 -0.1213476845788264 
-0.1603345946975769 -0.07982737037375262 0.4017527208061867 -0.1583173209312951 -0.02712551824320325 
0.03363928238999533 0.1781513587675235 0.1725267540325209 -0.2103172880513693 -0.1598597812104212 
0.1439298309917132 0.1442584850706093 -0.3309455035872977 -0.08956363161937606 -0.01158522432456741 
-0.01558035806443376 0.01207170909769842 0.001919039291590297 -0.004677409471212678 -0.007675409142885958 
-0.01102596529543388 0.02880239995442535 -0.01727016976370599 -0.01157818128622443 -0.007199180255481073 
-0.003946815963751188 0.002965374698728644 -0.002082898380772955 -0.009584931624621122 -0.004170579273676449 
0.0009033640718738262 -0.008868097169440078 0.01395020922768854 -0.001711430910899807 0.002761807940495452 
-4.419907922454304e-06 5.692983665164031e-05 -0.002311482174112066 0.01119451786780781 -0.0008526595878256892 
-0.003895595539585670 -0.008212232129580888 0.02674134789020812 -0.01363019001672417 -0.004748104268399046 
0 0 0 0 0 
0 -0.003946180631429990 0.004106647145736772 -0.005412047355065595 0 
0 0 0 0 0 
-1.343660349853410e-05 2.434570174109983e-05 -1.566680191929372e-06 4.235164736271502e-22 0 
0 0 0 0 0 
0 0 0 0 0 
0 0 0 2.221005164412150e-05 -1.694065894508601e-21 
0 0 0 0 0 
0 0 0 0 0 
0 0 0 0 0 
0 0 0 0 0 
0 0 0 0 0 
0 0 0 0 0 
0 -0.0005202052815743599 0.0005413587806294613 -0.0007134431697860340 0 
0 0 0 0 0 
0 0 0 0 0 
-7.182850243979468e-05 -7.730171927992139e-05 0.0004159348062275708 -0.0001496676860702678 -8.754738924035577e-05 
0 0 0 0 0 
0 0 0 0 0 
0 0 0 0 0 
0 -3.411604529424224e-05 3.550333173184139e-05 -4.678895112641964e-05 0 
0 0 0 0 0 
0 0 0 0 0 
0 0 0 0 0 
0 0 0 0 0 
0 -5.421010862427522e-20 1.016439536705160e-20 0.01575691471061411 -0.01209975004438863 
0 0 0 0 0 
0 0 0 0 0 
0 0 0 0 0 
-1.764023258720989e-06 1.747977269347031e-05 -1.862601716258537e-05 -8.848482640540021e-07 -1.376002995534183e-06 
5.850484373990134e-06 -3.996384039007347e-05 3.515315621931513e-05 -4.632746359434768e-05 -1.317821114927791e-07 
0.0003994078809286760 -0.0002928301840421282 -9.777133330459556e-05 -8.030311734405890e-06 -2.733323350063387e-06 
0.009305966868764762 -0.0007775115773883187 -0.004673681832784663 0.001033444123010119 -0.003496239935423761 
0.01749876571064533 -0.0007688824123348382 -0.01425504380426915 -0.0001437913744482866 -0.003850509031984101 
0.001797438154346689 -0.001985528752337316 4.931769374140023e-05 0.0007244035060843183 -0.0006892815411291281 
0.01926604420767676 -0.004994233477237086 -0.01104361063932046 -0.004116715760652970 -0.0008895490259290848 
0.03483839954868220 -0.02079634857515342 -0.004614855943286316 -0.001393276330386958 0.006407566220655982 
0.05308027561678370 -0.03231374222622903 -0.01834967609856732 -0.01360414525935214 0.001303856053692725 
0.08067232287037107 -0.06313228218005736 -0.03233495681264544 -0.01363991254819220 0.002710321374609227 
0.1102600098720663 -0.01391129056948763 -0.1003975055135033 -0.02266268765753833 -0.003774208602388877 
0.06033311617645026 -0.002918717358412992 -0.07606094676786804 -0.08223281933984083 0.01050576628508080 
0.07032720163683070 0.04949876634560661 -0.1130827099453457 -0.03322933462279211 -0.03970178100108873 
0.04158686326767154 -0.01018971038300996 -0.09053473357411061 -0.03030318681187303 -0.06454647951189195 
-0.01763656615143964 -0.02485129135700282 -0.2070691258366075 0.08124806628155955 -0.04177117443353295 
0.1023489577345737 0.1932319714017962 -0.1483859089684466 -0.1709738458321949 -0.1863892916606262 
0.02041753331044400 -0.007346522114095700 -0.2425573380423994 -0.09976732553745951 -0.03489379778096971 
0.1212886669967911 0.1100156795302544 -0.1368353493375453 -0.6898435116737989 0.4195747057419823 
0 0 0 0 0 
-0.004010140183635685 -0.2766194466304977 0.1413070995658877 0.03018271444083047 -0.2322471898442308 
-0.08514105248945322 -0.1408418391303732 0.2411215719647610 -0.008408794441128001 -0.1387644512512525 
-0.5374155157275438 -0.2714507726925871 1.010425792181962 -0.3476061592724595 -0.1381421087975905 
-0.1682326739886815 -0.02812447964405370 0.3355829073665729 -0.1219178126223596 -0.03457699024988784 
-0.1256168397442072 0.2373239555435238 0.2137289905910485 -0.1911321801370732 -0.1482828188151590 
0.06500628451334092 0.1797313448134108 -0.2354205054348800 -0.08254342181936887 -0.02726841358846768 
-0.03034418559939934 0.02220992646486355 0.006054148186447166 -0.005261099337624611 -0.005182066679617244 
-0.01876754037392470 0.03521384403994270 -0.01173862035368047 -0.01060507761468037 -0.004799925287050943 
-0.007546362835647374 0.005533586605689648 -0.004627189908549513 -0.003244451040074065 -0.005125982638112288 
-0.002702947796508223 -0.007611797790215400 0.01524480811196967 -0.001012338818224335 0.002463780021029210 
-1.681949845116394e-05 4.269737748873007e-05 -0.002194819865887725 0.01075275053189946 -0.0008171570187229928 
-0.002868364188724794 -0.005190634722019914 0.01879898690831304 -0.008861914140549374 -0.003496074505017964 
0 0 0 0 0 
0 -0.002065129517658880 0.002149105434182163 -0.002832252192131289 0 
0 0 0 0 0 
-1.007745262390058e-05 1.825927630582488e-05 -1.175010143947031e-06 4.235164736271502e-22 0 
0 0 0 0 0 
0 0 0 0 0 
0 0 -1.270549420881451e-21 2.354471482779511e-06 0 
0 0 0 0 0 
0 0 0 0 0 
0 0 0 0 0 
0 0 0 0 0 
0 0 0 0 0 
0 0 0 0 0 
0 -0.0004715431274349932 0.0004907178406759814 -0.0006467047441538761 0 
0 0 0 0 0 
0 0 0 0 0 
0 0 0 0 0 
0 0 0 0 0 
0 0 0 0 0 
0 0 0 0 0 
0 -1.682425406433259e-05 1.750839137523333e-05 -2.307387020873074e-05 6.352747104407253e-22 
0 0 0 0 0 
0 0 0 0 0 
0 0 0 0 0 
0 0 0 0 0 
5.421010862427522e-20 1.084202172485504e-19 5.590417451878382e-20 0.01515098910829217 -0.01163445918839051 
0 0 0 0 0 
0 0 0 0 0 
0.003149593698327960 -0.001484959142939938 -0.001238556274469191 -4.447922413840062e-05 0 
-1.184721381219510e-07 -6.191354214267948e-06 1.835537356957038e-05 -8.736064851240472e-06 -3.388131789017201e-21 
0.003180515672063010 -0.001534951263254046 -0.001206652074867233 -6.765320341751251e-05 -1.738490711510415e-07 
3.535646075922588e-05 -6.579244004053454e-06 -4.311525512615215e-05 -1.405866900281145e-05 -1.401983103484978e-07 
0.01513878589448961 -0.004438580690265584 -0.007840796278751698 0.009717491964540930 -0.01164617195449989 
0.02688305062512480 -0.0009055648490307152 -0.02239782047314451 -0.0002650854489891859 -0.005944769894284096 
0.007103047633846833 -0.008473069062727863 -0.001469771346796217 0.007248289610782761 -0.005581620584922923 
0.02720347286768165 -0.01244911518689680 -0.01203796896805370 -0.01036446621023631 0.0009903205742184880 
0.06892252354941171 -0.04943759900561325 -0.01426799003541045 -0.007926570877857282 0.01583784291702290 
0.06746288562214488 -0.05712343648555498 -0.01111316842667253 -0.01952327992041044 0.01300168617237611 
0.1177495537411287 -0.1001097881576147 -0.04360194735767516 0.006519878060518741 -0.001081443954208226 
0.1714445232656550 -0.02903796945914159 -0.1591641007771198 -0.03474791875313234 -0.004599394519215368 
0.09362568934768381 -0.04735094821914632 -0.05800773847376991 -0.07328653811586626 -0.03165512390774406 
0.1148456149382152 -0.01734309950759509 -0.02918803119193241 -0.07906362339007220 -0.06775718746979315 
0.009069608718650589 -0.05796993542476072 -0.009920165829859714 -0.008978752099998016 -0.1200622361130993 
-0.06223868556373569 -0.09521528411763280 -0.08010275166222990 0.01912984949228748 -0.02819931236927364 
0.08987457247810042 0.05609153435480662 -0.07070147991319944 -0.2663208514302076 -0.06009186753967234 
0.01181227399128421 -0.04569209218737452 -0.3609839804651873 -0.2743325774575507 0.2471552855095923 
0.04674781641476453 0.2371123336688757 -0.1535372229202234 -0.4733078852828525 0.2386003010195345 
0 0 0 0 0 
-0.1181682321281763 -0.2090467741109426 0.2515594155520607 0.03289711803799750 -0.2090461963832841 
-0.1422474707022948 -0.1099121894586732 0.2465675752416298 0.01151876448839391 -0.1342269919665332 
-0.3663298185722352 -0.1385838447648557 0.6888791577330232 -0.2460040272786656 -0.1552602461139726 
-0.1683362173581922 0.05915532552226412 0.2216422528179849 -0.09337782433266494 -0.04206809090071776 
-0.2300030862772916 0.3001090499150925 0.1542695179767485 -0.1454531485689308 -0.1276694931857509 
-0.03367723612403350 0.1845922556171072 -0.07011293313192783 -0.08779046845843140 -0.04682097005527679 
-0.04285694836995008 0.03174155397464761 0.005416988883898433 0.004647110469961850 -0.01405433813491396 
-0.02607019487398118 0.03647854484520258 0.0001727363640523915 -0.007362566504193042 -0.003565400049820222 
-0.008568441599657441 0.004415943212008494 -0.01064522504044228 0.01307943353111479 -0.01252831543785234 
-0.004031052243358346 -0.004652936751417237 0.01154408788075228 -0.0002938650933139474 0.001570864183930691 
0 2.710505431213761e-20 -0.001575128739538118 0.007805244231894044 -0.0005910604881612817 
-0.001504912201754330 -0.002110889727846416 0.009047228487786193 -0.003875892510632756 -0.001781894290458629 
0 0 0 0 0 
0 -0.0005980612838810222 0.0006223807001798776 -0.0008202199270393032 1.355252715606881e-20 
0 0 0 0 0 
0 0 0 0 0 
0 0 0 0 0 
0 0 0 0 0 
0 0 0 0 0 
0 0 0 0 0 
0 0 0 0 0 
0 0 0 0 0 
0 0 0 0 0 
0 0 0 0 0 
0 0 0 0 0 
0 -0.0002325404750120659 0.0002419964434396711 -0.0003189210480410002 3.388131789017201e-21 
0 0 0 0 0 
0 0 0 0 0 
0 0 0 0 0 
0 0 0 0 0 
0 0 0 0 0 
0 -4.532660007473512e-05 4.716974974240112e-05 -6.216383104584153e-05 8.470329472543003e-22 
0 0 0 0 0 
-5.619820553348145e-06 2.139088890656866e-05 -1.144318041912258e-05 -5.107990563514487e-06 -6.683073256274557e-07 
0 0 0 0 0 
0 0 0 0 0 
-5.140634962939091e-05 9.314285829840752e-05 -5.993874100143611e-06 0 0 
-9.486769009248164e-20 5.421010862427522e-20 -8.184508076451613e-06 0.01229726916693428 -0.009441442028526467 
0 0 0 0 0 
0 0 0 0 0 
0.01171570569349303 -0.005523678909689776 -0.004607121484975512 -0.0001654516580208598 -1.016439536705160e-20 
-2.554259297909126e-07 -1.334855968596170e-05 3.957418541599375e-05 -1.883495581927446e-05 0 
0.01183032913173755 -0.005581864824110373 -0.004612063053150584 -0.0001666705935178179 -5.082197683525802e-21 
0.0003401660275824607 -6.064091077661012e-05 -0.0002359763688702805 -5.690949212338082e-06 -1.524659305057741e-20 
0.01802208018056551 -0.009580361902817629 -0.009622111572041112 0.01937709977598174 -0.01851291914742182 
0.02683715580357647 -0.0006104927669541833 -0.02287639987010940 -0.0004570141073395907 -0.006654076674678489 
0.02616483764726132 -0.02020539333236485 -0.01144733823249720 0.01436994099909835 -0.01110805286086435 
0.03625049714360191 -0.02329277429667699 -0.01150485041807039 -0.01567031123581849 0.003605165588803641 
0.09593142300724387 -0.08267389657066444 -0.01451434537814927 -0.01760396835262899 0.02448462837468344 
0.08375156995036702 -0.08212620148243220 -0.01006109060810377 -0.01759441166856159 0.01798298849511588 
0.1324363298320600 -0.1249425226426689 -0.05868965643666643 0.02690048332458234 -0.0002313496013218385 
0.1916435302481100 -0.03028280600434052 -0.1864610205152559 -0.02889469228431348 -0.02384505248588709 
0.1073426658822019 -0.07222918667111000 -0.03591414836948734 -0.05241834608436026 -0.09002452858594115 
0.06453644341044390 -0.08688979173412466 0.1149318406628267 -0.1194426660088031 -0.07961806172756490 
-0.05086925578196276 -0.06738687555531375 0.08925997702425004 0.002383392946001393 -0.1703688837788325 
-0.08694216291824836 -0.1562195435147928 0.04968955714960977 -0.04673722813537753 -0.03833224454014829 
0.005242932139043587 -0.07114713136049344 0.03652236160195210 -0.3471478054749453 0.07394220389602393 
-0.01980173499211315 -0.07571385384821233 -0.3349627317338780 -0.4137754902887262 0.4602661803616975 
-0.04073086891791794 0.3349025568750310 -0.2509602653598551 -0.2763314664254321 0.1070674940032303 
0 0 0 0 0 
-0.1640246384671091 -0.1417129896458997 0.2616027909194764 0.06511641373124859 -0.2014456154177177 
-0.1272319642837533 -0.07657813553483493 0.2002200741768647 0.001747115701319830 -0.1213316648874697 
-0.1488256944678568 0.0005620076786753998 0.3231429872274430 -0.1382551031353466 -0.1783366382253802 
-0.1446405595476342 0.1598218841153064 0.06738186230554744 -0.06650713189314639 -0.05338513059283503 
-0.1750608899551259 0.3415561121755468 -0.002901374239235810 -0.1000547521456837 -0.1263330203553185 
-0.08287327714235986 0.1647132759801823 0.04048249585443055 -0.1009935717218727 -0.06503159533884484 
-0.04779480162469491 0.04232664489587918 -0.003130758289193679 0.01491869393540705 -0.02800288253582538 
-0.02637704949145549 0.03402246986668166 0.007872336064856182 -0.005482870277322806 -0.003311622803622024 
-0.005772312758103179 0.001452666415977677 -0.01698348456100108 0.02784555834130074 -0.02076346668302817 
-0.001307749908540189 -0.001582382528348752 0.003805792183568199 -7.925989177064452e-05 0.0005298181299545011 
0.0002507121860982029 9.371804828552846e-06 -0.001053406232039704 0.003790738974066691 -0.0002923628913066234 
-0.0003284512059805754 1.715952302540115e-05 0.001043975674717730 -0.0004569918599835673 -0.0002800912914431383 
0 0 0 0 0 
0 0 0 0 0 
0 0 0 0 0 
0 0 0 0 0 
0 0 0 0 0 
0 0 0 0 0 
0 0 0 0 0 
0 0 0 0 0 
0 0 0 0 0 
0 0 0 0 0 
0 0 0 0 0 
0 0 0 0 0 
0 0 0 0 0 
0 0 0 0 0 
0 0 0 0 0 
7.260855343843913e-05 -5.887299700349381e-05 0 0 0 
0 0 0 0 0 
0 0 0 0 0 
0 0 0 0 0 
-6.667363711788589e-06 -0.0001345807476370092 0.0001427160429025506 -0.0002255276806247759 -3.530307582024221e-06 
0 0 0 0 0 
-1.123964110669629e-05 3.915071337934013e-05 -2.088449004746320e-05 -9.621446173349589e-06 -1.336614651254911e-06 
0 0 0 0 0 
0 0 0 0 0 
-0.0001028126992587818 0.0001862857165968150 -1.198774820028721e-05 6.776263578034403e-21 0 
-1.355252715606881e-20 -1.084202172485504e-19 -1.636901615290343e-05 0.008177805522466117 -0.006276459054975781 
0 0 0 0 0 
6.719260148377330e-05 0 -0.0001588129299997412 0 0 
0.01497654896182610 -0.007061089600972256 -0.005889425895286786 -0.0002115019719675063 -5.421010862427522e-20 
-2.900197941225192e-07 -1.515643511652793e-05 4.493395449830827e-05 -2.138588675583666e-05 0 
0.01522782435069309 -0.007113321754733434 -0.006057000913368693 -0.0002130602055309158 0 
0.004526708456572976 -0.0008825204559407315 -0.002899912735742280 -1.164670302474663e-20 9.486769009248164e-20 
0.01552188021963867 -0.01330779329337170 -0.008808289435373740 0.02644082146179714 -0.02203796886975863 
0.01862675779222920 -0.0004435566437923388 -0.01590964641469617 -0.0006459823445300515 -0.005321147724140951 
0.04206100568022596 -0.02898470027616832 -0.02150453229895730 0.01968590254985729 -0.01511635835842073 
0.03698918035085679 -0.03559143478970617 -0.004470913189504070 -0.01688958072462841 0.006591921360297607 
0.09971684432318609 -0.1110381389156228 0.01312298165692881 -0.03180342961869159 0.02411605628723200 
0.1140784745104635 -0.1135713238624901 -0.01734077850491735 -0.01333501374253648 0.01897052113018746 
0.1289044275993210 -0.1396749201633716 -0.06393025315030978 0.03062573004517994 0.007512859948384752 
0.1894818557029994 -0.04127115615483740 -0.1718256279379551 -0.01622336106729956 -0.05162353468328464 
0.1239562115512416 -0.09008003617431219 -0.04151101094527292 -0.03706290256806161 -0.1282300351936988 
-0.04241432244863361 -0.1502923222938545 0.2610774690178626 -0.1544195093826115 -0.06447303680894893 
-0.02944667498223823 -0.05919359562138784 0.1184252449322476 -0.004100435392404747 -0.1877485684878141 
-0.08494483108375564 -0.1759356885530537 0.1031031011359766 -0.07780385803304316 -0.06057290479180151 
-0.07633313390034081 -0.1323188132994919 0.1008046771370685 -0.3768348716359593 0.1622619188746891 
-0.09118994908202980 -0.08190838963877582 -0.2304767844068425 -0.4954371584460473 0.5921927292791704 
-0.1113744811026343 0.3535831421721970 -0.3571966626786648 -0.1246223012808965 0.04126955209685494 
0 0 0 0 0 
-0.1803152151795703 -0.09889045334890005 0.2211991937344663 0.1006320764425943 -0.2011082506528945 
-0.1314621743699859 -0.04859884353957950 0.1947230252127102 -0.01549197768232352 -0.1128065263977997 
-0.06699839633107933 0.08014303626230232 0.1478865248412943 -0.05636320964069200 -0.1975795325370155 
-0.1280001212066171 0.2385325572075443 -0.05180332190953738 -0.05182999754474262 -0.05957822117460235 
-0.1388510843344259 0.3691339820532359 -0.1043807822659604 -0.07150782504735761 -0.1155317423091901 
-0.1241910012244951 0.1310001422622689 0.1234107275558200 -0.1202501514105437 -0.06468281778257502 
-0.05194972608497755 0.05106469313064277 -0.01040303618623651 0.01849652616870853 -0.03781668285667842 
-0.02280359090462386 0.02729685126559184 0.01159683515109968 -0.005440165923506328 -0.001602398621087799 
-0.003822551043218290 -0.003583377919005376 -0.01348575873889558 0.03413454531935507 -0.02541567808104150 
4.980196053718762e-05 -1.694065894508601e-21 -8.140457697632529e-05 0 0 
0.0001260843034889951 4.299056883476984e-05 -0.0002691790940889263 0.0003329163888604028 -3.342297107475345e-05 
-0.0002025467784285487 0.0003768054149907757 -0.0002695655880025040 -1.040335043850998e-06 -1.964940920409658e-05 
0 0 0 0 0 
0 0 0 0 0 
0 0 0 0 0 
0 0 0 0 0 
0 0 0 0 0 
0 0 0 0 0 
0 0 0 0 0 
0 0 0 0 0 
0 0 0 0 0 
0 0 0 0 0 
0 0 0 0 0 
0 0 0 0 0 
0 0 0 0 0 
0 0 0 0 0 
0 0 0 0 0 
9.459322772455678e-05 -7.669877099397495e-05 0 1.694065894508601e-21 0 
-6.771526816683857e-05 -7.287506314342298e-05 0.0003921164438480324 -0.0001410970179512399 -8.253401836807436e-05 
0 0 0 0 0 
0 0 0 0 0 
-8.334204639735738e-06 -0.0002301266123996829 0.0002428128453535022 -0.0003668041940961216 -4.412884477530269e-06 
0 0 0 0 0 
-1.404955138337036e-05 4.528740936855144e-05 -2.409276066186483e-05 -1.142901148771315e-05 -1.670768314068640e-06 
0 0 0 0 0 
0 0 0 0 0 
-0.0001285158740734774 0.0002328571457460190 -1.498468525035903e-05 0 0 
-1.355252715606881e-19 -2.710505431213761e-20 -2.046127019112917e-05 0.003823021515173218 -0.002931594775807659 
0 0 0 0 0 
0.0001385090249853996 0 -0.0003273727107388579 0 0 
0.008717044748957146 -0.004109881000286600 -0.003359457047726387 -0.0002299392556341889 -3.726635921685339e-05 
-1.198938037794072e-07 -6.265650464839156e-06 1.857563805240520e-05 -8.840897629455347e-06 0 
0.008942130952272942 -0.004140286986254101 -0.003640378867128876 -0.0002313552407830360 -3.744389704207321e-05 
0.01025489584438181 -0.002164198087862664 -0.006103815632545536 9.560884392132915e-20 2.439454888092385e-19 
0.007138251348648142 -0.01373714567376298 -0.005537678123670017 0.02688870666506715 -0.01838785122298233 
0.01653131727889216 -0.001779163683937637 -0.01307040058882862 -0.001024465567758144 -0.003082666512313221 
0.04541538093032253 -0.03057339740115051 -0.02761440421583418 0.01979151665751991 -0.01171575102615471 
0.02898368033105451 -0.05357250899454831 0.01122508475419335 -0.01368274385584301 0.01854206141410826 
0.08533862871599790 -0.1298129720596665 0.06385642704369089 -0.04351343480455709 0.01226773119962413 
0.1481946281290372 -0.1476503308936290 -0.02798445398756126 -0.01199368976366633 0.02150846727819767 
0.1167534968967508 -0.1424735163789749 -0.06225486948808306 0.01951769724882818 0.01691889598351922 
0.1972088510711565 -0.06796936694060875 -0.1561994218513211 0.001714181150467789 -0.06802071407228814 
0.1412576445779251 -0.09827100150718483 -0.08378379313129447 -0.04333252333809842 -0.1276474480584397 
-0.1272017440342823 -0.1984516117280703 0.3539336364575743 -0.1883210866390711 -0.03361488884082327 
0.1224961781659351 -0.03745484384920153 0.05607074357167040 -0.04520453442554207 -0.1785950945508058 
-0.09595677229126909 -0.1534048679234605 0.1134741444785376 -0.04983349960342411 -0.09543802666690973 
-0.1206983656830273 -0.1179268133678329 0.1243827744297680 -0.3256166210584813 0.1546041110468105 
-0.1625333537913914 -0.08552181152279782 -0.1445312763212221 -0.5063712817275492 0.6326805778397767 
-0.09116796717963534 0.2688953741043714 -0.3937307082003232 -0.005514148157067991 0.002946719302457379 
0 0 0 0 0 
-0.1829837208433904 -0.08399650890016355 0.1743409567430812 0.1220797692895535 -0.1927055615961013 
-0.1533437016072550 -0.01907272443608070 0.1956674227146583 -0.01878399401243721 -0.1185070931796077 
-0.06594000786454964 0.1160437885491028 0.06071846938639330 -0.009133484107097620 -0.1903232420913784 
-0.1180574326177478 0.2789602853613880 -0.1197925616895254 -0.03866686933079325 -0.06637881983800968 
-0.1152825751401173 0.3629516867096483 -0.1429277088372561 -0.05010371542634795 -0.1015925189589393 
-0.1553994183399150 0.09902546408755458 0.1518195665008158 -0.1207805013257854 -0.05632971155018771 
-0.05355546069475324 0.05776379877478596 -0.01820532172189413 0.02117582431840755 -0.04429795592971524 
-0.01594908893910273 0.01868618313755050 0.009362542039298894 -0.004046224496998286 0.0001073587643144597 
-0.003112935827166040 -0.008083641538269994 -0.008046871551928970 0.03246299611860335 -0.02167164117304728 
0.0002195389646271827 -1.695328128883242e-05 -0.0001788713139541254 -3.157837119122622e-05 0 
2.032797511185755e-06 6.109444673468083e-05 -7.271694063853383e-05 -1.754372262477418e-05 -7.609846791328188e-06 
-0.0002172397342888910 0.0003414448081569216 -0.0001891828861793426 -9.427067269596216e-07 -1.780544676157016e-05 
0 0 0 0 0 
0 0 0 0 0 
0 0 0 0 0 
0 0 0 0 0 
0 0 0 0 0 
0 0 0 0 0 
0 0 0 0 0 
0 0 0 0 0 
0 0 0 0 0 
0 0 0 0 0 
-7.508845305452101e-06 -4.366782325747493e-05 -6.089730148803919e-06 -4.971673908439287e-06 7.026874846311215e-05 
0 0 0 0 0 
0 0 0 0 0 
0 0 0 0 0 
0 0 0 0 0 
2.299084575760969e-05 -1.864160528336565e-05 0 -4.235164736271502e-22 0 
-6.547914704107649e-05 -7.046855316941304e-05 0.0003791678151622984 -0.0001364376548391358 -7.980854644625945e-05 
0 0 0 0 0 
0 0 0 0 0 
-6.667363711788585e-06 -0.0002799830611919684 0.0002940309602147916 -0.0004249418179878631 -3.530307582024226e-06 
0 0 0 0 0 
-1.123964110669630e-05 2.853255110810091e-05 -1.503050720300346e-05 -7.882873716377327e-06 -1.336614651254913e-06 
0 0 0 0 0 
0 0 0 0 0 
-0.0001028126992587818 0.0001862857165968150 -1.198774820028721e-05 0 0 
1.270549420881451e-21 -2.752857078576476e-21 -1.636901615290328e-05 0.0002633404853410800 -0.0001989336990913221 
0 0 0 0 0 
7.982104160966210e-05 0 -0.0001886608527387205 0 0 
0.0005206190420593490 -0.0002454595990921241 -6.793169162064827e-05 -0.0002208283624811191 -7.446485036010111e-05 
2.202285662861181e-20 0 0 0 -3.388131789017201e-21 
0.0005982766990310500 -0.0002593235899548195 -0.0002163133642955006 -0.0002218995489075883 -7.507648749162215e-05 
0.01619440189333942 -0.003848120704599894 -0.008483266304688363 0 -2.071613931885302e-07 
0.001108401966639811 -0.01084006822976730 -0.003870924315587151 0.02026002156011198 -0.009847366272128611 
0.02578321178698700 -0.003771673615267132 -0.01979068494950115 -0.001727069624210499 -0.001705133816744328 
0.04642718167312170 -0.02846534293291000 -0.03123509271524205 0.01378623930664226 -0.004101067482046983 
0.02521079231934495 -0.07107091990964800 0.02840151571192480 -0.007928764687894538 0.02290655434832684 
0.07432722785881898 -0.1398146998963717 0.1142043764678839 -0.05389947604988703 -0.007549238099723459 
0.1574076073423723 -0.1673542094788644 -0.02302619374633370 -0.02049659289307893 0.02754384156471304 
0.09790323947799166 -0.1309287508689644 -0.04957958743244633 0.002945616836102252 0.02521234529227090 
0.1991806357724562 -0.09077870766490674 -0.1394032780198498 0.01446281210484487 -0.06688573626675334 
0.1443916293237391 -0.08632955790659738 -0.1406757089946244 -0.07299622252041045 -0.09764958357529770 
-0.1413637854632907 -0.2010486207805652 0.3468616814848327 -0.2149965873646807 -0.01299301869198698 
0.2645440716773873 0.01800766877506883 -0.05863792046564492 -0.1154281990755773 -0.1214937830978925 
-0.1569091676505806 -0.1159737468890433 0.1156542797833723 0.03161366831594455 -0.1341697277720836 
-0.1490767380144534 -0.06847284566077291 0.1208705470930331 -0.1907353473445647 0.06501766882031153 
-0.1963890905193348 -0.1231152387685100 -0.09483786523189493 -0.4224075231523223 0.5549384013419163 
-0.04633260984054257 0.1540764732091088 -0.3258900345362483 0.07225274166617793 -0.03923508226981602 
0 0 0 0 0 
-0.1928705266654931 -0.08227152028730818 0.1743728369106793 0.1312113570555034 -0.1811266900368605 
-0.1773950817487663 0.01307404078883798 0.1718768788594332 -0.006211009010441922 -0.1222131176671137 
-0.06726465268350897 0.1271595838223626 0.01479077054705431 0.01032315186573859 -0.1607516556581369 
-0.1191337201091850 0.2663415428930827 -0.1047909315370477 -0.02616734641978203 -0.07636367571362590 
-0.09074676964577448 0.3236427256916113 -0.1270170769348373 -0.04096575545907355 -0.09247052401932071 
-0.1740990781014513 0.07651409498895032 0.1384184316775084 -0.1050426530458589 -0.04894114829049634 
-0.05187702805650551 0.05901874355453437 -0.02108047510563161 0.01921678911667404 -0.04448655583841137 
-0.009046201488130310 0.009882583499997460 0.005360714730567514 -0.001094112135164496 5.012805484840601e-05 
-0.003654857805150980 -0.01000213874345047 -0.002995012821512821 0.02343657595540807 -0.01092893438975801 
0.0002063001033118751 -2.313010997638645e-05 -0.0001431262963240576 -4.374637572720716e-05 0 
-7.261311496590770e-06 4.887555738774473e-05 -5.011322978861889e-05 -6.964344501593481e-06 -6.087877433062559e-06 
-2.753075447275156e-05 4.126820220403844e-05 -2.164757233154032e-05 1.270549420881451e-21 -2.088768412398985e-06 
0 0 0 0 0 
0 0 0 0 0 
0 0 0 0 0 
0 0 0 0 0 
0 0 0 0 0 
0 0 0 0 0 
0 0 -2.117582368135751e-21 1.751724997768581e-06 0 
0 0 0 0 0 
0 0 0 0 0 
0 0 0 0 0 
-9.135333201239250e-06 -5.312669250759582e-05 -7.408824093707515e-06 -6.048586150592666e-06 8.548963319013911e-05 
0 0 0 0 0 
0 0 0 0 0 
0 0 0 0 0 
0 0 0 0 0 
0 0 0 0 0 
-1.692140687094871e-05 -1.821079097195149e-05 9.798620114438871e-05 -3.525881405575999e-05 -2.062447278595401e-05 
0 0 0 0 0 
0 0 0 0 0 
0 -0.0002463402177974743 0.0002563573355565287 -0.0003378469078578353 -3.388131789017201e-21 
-2.183756817139993e-22 4.445797537295024e-06 -2.451047728264665e-06 -7.279358659409692e-07 -2.646977960169689e-23 
0 0 0 0 0 
0 0 0 0 0 
-5.246579234961340e-06 1.434673587065747e-05 -1.183033152027358e-06 -8.498420523236312e-06 3.441058115842617e-08 
0 0 0 0 0 
0 0 0 0 0 
0 0 0 0 0 
0 0 0 0 0 
2.710505431213761e-19 1.694065894508601e-21 0.0001153284144764779 -0.0001799720795044968 -6.277796808521074e-05 
-1.535416762909972e-05 0.0001521450234441322 -0.0001621220062507429 -7.701774058497107e-06 -1.197681524159348e-05 
8.724406522616898e-05 -9.222183206265492e-05 0.0001158778417970552 -0.0001808294707889407 -6.504221566233962e-05 
0.02450871936885355 -0.008300287556622927 -0.01000921240099752 -9.918068568675771e-05 -2.536791118044261e-05 
0.002428334052367418 -0.007918651434313013 -0.006885367370186485 0.01031239414317042 0.0006378387884998273 
0.03180787887807714 -0.007176162375577800 -0.02188686129057437 -0.002259859446213229 -0.0001509184067743447 
0.05416547582592293 -0.03429751044333350 -0.02700246897548073 0.005230702282006888 0.002353707105471028 
0.03281461934981494 -0.08618082780225693 0.03908774810777470 -0.005643608212956567 0.02109586269162277 
0.06575018297699033 -0.1365129601778252 0.1525672322046659 -0.06314331197654492 -0.02808143865787680 
0.1162221640031828 -0.1489180177452885 0.006927434416364502 -0.04245404032882724 0.03270795076144944 
0.07447221707377885 -0.1018807256830188 -0.01865061994238915 -0.01533913127239582 0.02264727063444033 
0.1705162213237361 -0.08985950579345137 -0.1077127988309587 0.01117406764274609 -0.04871904291659126 
0.1250877265054915 -0.05695301897840994 -0.1659445994598273 -0.1102480074834427 -0.07462257758731386 
-0.09335266393271646 -0.1446656064080177 0.2716765228674072 -0.2381260845400815 -0.01929560748966978 
0.2187899212397760 0.1085330577438683 -0.1214225769952069 -0.1988014607941681 -0.0001982048584381471 
-0.2657386009612903 -0.09718878205283801 0.1348462869397221 0.1190344595564181 -0.1491674032250943 
-0.1943427154406896 -0.03470393547076012 0.1029278670257861 -0.02470589348009537 -0.04764108880276727 
-0.1896360539491919 -0.1936911609518412 -0.05849198831952274 -0.2540382758879243 0.3758759019932934 
0.04634154701760706 0.06615616781979554 -0.2779574504145593 0.1167429551824527 -0.09019314026571770 
0 0 0 0 0 
-0.1123724401302241 -0.09736811944974122 0.1084746864903249 0.1367153968876423 -0.1485858494631206 
-0.1893624318382081 0.04707973985421215 0.1107517333643679 0.01380279133436993 -0.1054668262488707 
-0.08331674688199221 0.1208334624534847 0.01895072181044395 0.01331864865091378 -0.1142142466833393 
-0.09952999284999406 0.2317704713885803 -0.09192916010473541 -0.02721097649526362 -0.06658855437509549 
0.1173351383831169 0.1750380156074930 -0.1728782700030395 -0.03920199424254875 -0.07245459764374095 
-0.1778238563764311 0.06164557902953385 0.1075740364425004 -0.08631167148424654 -0.03893787376916423 
-0.04551825734922412 0.05320797614391365 -0.01868245110604205 0.01302292655954463 -0.03779325237183176 
-0.005855072712452388 0.006966662291450211 0.0009389880168696009 -0.001133289638301182 -0.0004659234621713091 
-0.007483427159625510 -0.008753648830018567 0.002273280076650491 0.009902550813156424 0.001623753279152320 
-2.798064730443721e-05 -9.391130501430082e-06 5.960074168752808e-05 -0.0001445594252344436 0.0001307492634225664 
0 0 0 0 0 
-8.855771925748769e-05 -9.530567562438467e-05 0.0005128080991273977 -0.0001845260373629260 -0.0001079376132694934 
0 -1.878771517150082e-06 0 -2.905039728475929e-06 3.619157012434019e-06 
0 0 0 0 0 
0 0 0 0 0 
0 0 0 0 0 
0 0 0 0 0 
0 0 0 0 0 
0 0 1.058791184067875e-20 2.505589912751591e-06 0 
0 0 0 0 0 
0 0 0 0 0 
0 0 0 0 0 
0 0 0 0 0 
0 0 0 0 0 
0 0 0 0 0 
0 0 0 0 0 
0 0 0 0 0 
0 0 0 0 0 
-7.794929949153670e-06 -3.245531870952565e-06 1.618669184397581e-05 -1.138200522872966e-21 -4.419077398626176e-07 
0 0 0 0 0 
0 0 0 0 0 
0 -3.470317818222018e-05 3.611433964652699e-05 -4.759418314447392e-05 4.235164736271502e-22 
4.764560328305439e-22 9.388474696570779e-06 -5.176034082492462e-06 -1.537228675121202e-06 5.293955920339377e-23 
0 0 0 0 0 
0 0 0 0 0 
-1.107953656858565e-05 3.029691873508132e-05 -2.498286689809772e-06 -2.075035239160113e-05 2.831864624223274e-06 
7.528333329008686e-06 0 -1.001719366086637e-05 0 -1.396450375552293e-06 
0 0 0 0 0 
0 0 0 0 0 
0 0 0 0 0 
-1.823995761729673e-05 0 3.721817312179720e-06 0 -1.084202172485504e-19 
-3.242437674307892e-05 0.0003212943663834715 -0.0003423633983945373 -1.626432833711541e-05 -2.529220593109113e-05 
0.0001009768263681753 -0.0001497213938994472 5.754623964010930e-05 0 -2.274502167683315e-06 
0.03120884341813669 -0.01293972759415487 -0.01050320432051810 -0.0002931336114943536 -5.861531792732443e-05 
0.006290592072141280 -0.004719917891278568 -0.01078965191596765 0.0009899621317966906 0.008427501178323783 
0.03125869107214195 -0.009098101767058220 -0.01848412346130919 -0.002417872157399616 -0.0004472639510073797 
0.05524339646640394 -0.03995362324347224 -0.01723744528303990 -0.002301339351771827 0.006981289185860194 
0.03363494949367068 -0.08675597641662880 0.04352342283828425 -0.004733998562641645 0.009928355436573721 
0.06463897285646132 -0.1212187852646862 0.1592664148277916 -0.06723407798515636 -0.03874512061637524 
0.05188560245330464 -0.1014114027527618 0.04847227396694225 -0.06635866994546047 0.02105140230611263 
0.06346410313383985 -0.06740931059519864 0.01383820647268179 -0.02381044575509923 -0.001091381579137762 
0.1451984801491590 -0.07713127664792939 -0.08647332243336431 0.005717386194574928 -0.03130506395805705 
0.1169333471842076 -0.02443426928045070 -0.1688248159437673 -0.1186160723979423 -0.08708245717868984 
0.009996517809130178 -0.06532684492808977 0.1492881905944574 -0.2508786056421096 -0.04172910480663059 
0.009575799973755710 0.2066863745284964 -0.1146576795188568 -0.2519027837635548 0.1345038188409642 
-0.3966070924607881 -0.1062676190325021 0.1685967784164500 0.1744011839995412 -0.1200631712115907 
-0.2268845275513277 -0.06182658197795242 0.05571142028883994 0.1040666449542071 -0.1122788623525902 
-0.1736369296661099 -0.2873123885414571 -0.03037329843453477 -0.05317469254633993 0.2016871076780605 
0.09837909715878980 0.02779172713994979 -0.2613589183501473 0.1416659193491666 -0.1125884982658383 
0 0 0 0 0 
-0.007652388178150899 -0.1065997593249551 0.01350395912284778 0.1480633619942522 -0.1174091834012631 
-0.1854328926407162 0.06113929394525387 0.05822926713486252 0.01790522839370137 -0.07155938232296813 
-0.1039439673304027 0.1084177672654327 0.01754093087574372 0.01190003026423647 -0.06946273716447542 
-0.07143499003414125 0.1849209908014392 -0.07750387717421049 -0.03456359773117546 -0.05312740321667590 
0.3362610572475455 0.009560406161130734 -0.2179012874680198 -0.03780826458906407 -0.05084357886148137 
-0.1758150215008626 0.04173289249288145 0.09636225312805660 -0.07109153975081490 -0.02855329575377771 
-0.03845721326340879 0.04265976353035500 -0.01194657273227257 0.006150886563766216 -0.02763052233564338 
-0.007170141768723053 0.002627939524690814 0.004080803654661075 -0.002493562177403810 0.0004187505940924776 
-0.01057345696686962 -0.006384787429454629 0.005521462028110939 -0.001620794218221998 0.01009626458811690 
-0.0003625820298193164 -0.0002562842581843134 0.0005544688346921794 4.621418949366719e-05 0.0003048884676301099 
-8.341675943401863e-05 0.0002551048942980878 -0.0001837872053912839 8.422974959212812e-05 -2.389137048561810e-05 
-9.727534727678657e-05 -0.0001078745658329231 0.0005755966011064055 -0.0002088612880081442 -0.0001221724004599515 
0 -2.174501896271492e-06 0 -3.362311138236350e-06 4.188834945922472e-06 
0 0 0 0 0 
0 0 0 0 0 
-6.046471574340333e-05 0.0001095556578349490 -7.050060863682159e-06 -1.694065894508601e-21 0 
0 0 0 0 0 
0 0 0 0 0 
0 0 -1.270549420881451e-21 1.807775493451190e-06 -1.058791184067875e-22 
0 0 0 0 0 
0 0 0 0 0 
0 0 0 0 0 
0 0 0 0 0 
0 0 0 0 0 
0 0 0 0 0 
0 0 0 0 0 
0 0 0 0 0 
0 0 0 0 0 
-9.021900641462658e-06 -3.756398872014701e-06 1.873457830704167e-05 -3.970466940254533e-23 -5.114667800403688e-07 
0 0 0 0 0 
0 0 0 0 0 
0 0 0 0 0 
-5.293955920339377e-23 -0.0001214041338581306 0.0001318986422359628 -0.0001839375673329854 -3.229313111407020e-21 
0 0 0 0 0 
0 0 0 0 0 
-1.340326108558122e-05 3.665112790423957e-05 -3.022255359045887e-06 -1.520786010528275e-05 -6.311658992643318e-06 
2.131371789397486e-05 0 -2.836001415536854e-05 0 -3.953537663212903e-06 
0 0 0 0 0 
0 0 0 0 0 
0 0 0 0 0 
0.0004936470922616481 -0.0002469970253847158 -0.0001998432786513832 -7.398342308499038e-06 0 
-3.922478023647247e-05 0.0003886798198919426 -0.0004141676853018972 -1.967546546144059e-05 -3.059677067052407e-05 
0.001440696814147211 -0.0005725429323833283 0.0002224439245923676 -0.0001877354111480383 2.382280164152720e-22 
0.03279311117137494 -0.01574346307210101 -0.009590221744525852 -0.0005077032575203394 -8.846731403061394e-05 
0.009393815076879320 -0.003173356513071465 -0.01195245794082861 -0.002136658715074078 0.008778541014570275 
0.03159243424301215 -0.01307940632086664 -0.01352599294359624 -0.002286296790029202 -0.0005127572161894953 
0.05451086557480962 -0.04311750275286794 -0.008626186063508401 -0.005576889436601999 3.630713899597858e-05 
0.03924194763787035 -0.07656913665929005 0.03778704790721541 -0.003548717602908463 -0.006515185495692331 
0.06781812833342236 -0.09768031679881474 0.1303048050277021 -0.06354820506703987 -0.03408925928903184 
0.01077093762485904 -0.05453571475572975 0.07272244995908497 -0.07946305145161467 -0.002943806929393522 
0.07796713117957481 -0.04506533364243427 0.02859674777767924 -0.02426054275527471 -0.04166223121617477 
0.1741184054049432 -0.07656879764361121 -0.1103368039804406 0.005038492040745698 -0.02724158806685240 
0.1378396589491887 -0.002025328863606556 -0.1794327856930968 -0.1013579614769680 -0.1130224583456095 
0.1194270679392944 -0.004551783880150104 0.01305590256438371 -0.2527403718745845 -0.05252154524249821 
-0.1703761438792837 0.2816522549923284 -0.08826372267435896 -0.2485616737220015 0.1865380958189095 
-0.4809007078962012 -0.1239874619500727 0.1709810373119708 0.2329319241157260 -0.08135896993057648 
-0.1937235629902118 -0.1447453676505910 -0.03093464840901484 0.1572231008154575 -0.09613171297791528 
-0.1272652675732010 -0.3805844351128248 -0.01720165636695661 0.06581555006435898 0.1270957743937516 
0.05360489964206570 0.01475225367846681 -0.1683572140390335 0.1514494519111568 -0.1405787467590683 
0 0 0 0 0 
0.02973579175312710 -0.08270937766282727 -0.04143593430145320 0.1487478697687391 -0.1075884695869180 
-0.1708157284094821 0.05558151401008762 0.06496383624271526 -0.002349085320193278 -0.05069072957470003 
-0.1015852601323418 0.08638461087578547 0.03551643023517843 -0.01753071611959297 -0.04738236558295158 
-0.05593161560362615 0.1362466634696596 -0.04657428928639121 -0.04084808761254733 -0.04087292461183715 
0.3100888089082292 -0.03945460253030546 -0.1593954682992600 -0.04136651666696038 -0.03254489190045549 
-0.1586830864666303 0.01296094727522841 0.1121090227943185 -0.06794105525465706 -0.02004194205867946 
-0.02915881325969843 0.02606769755859672 -0.002613900844861212 0.0006579666430560399 -0.01713965865303324 
-0.01021318749704934 -0.0008973196713950358 0.007418758718192919 -0.005973449411127795 0.003278098613655268 
-0.01167419854481542 -0.005163538338101029 0.008124483632392985 -0.006441772044503942 0.01026886231241762 
-0.0003288533556118018 -0.0001849496232297970 0.0002663634932376487 0.0003944263310280691 0.0001223420731882947 
-0.0002006402020182190 0.0005194847594462202 -0.0003577865981028201 0.0002409936460045496 -5.345321335368337e-05 
-3.018011155926540e-05 -0.0002024907086399444 0.0003619450506658192 -0.0002981029229333721 -4.090268227203485e-05 
0 0 0 0 0 
0 -0.0001628784621743168 0.0001695017117216368 -0.0002233820579288152 0 
0 -1.157820380708625e-05 1.927080873928258e-05 0 0 
-0.0001226090069241235 0.0002221545283875356 -1.429595675135551e-05 0 0 
0 0 0 0 0 
0 0 0 0 0 
0 0 1.376428539288238e-21 5.546679740528953e-07 0 
0 0 0 0 0 
0 0 0 0 0 
0 0 0 0 0 
0 0 0 0 0 
0 0 0 0 0 
0 0 0 0 0 
0 -0.001883253567133248 0.001959833724936155 -0.002582815749928796 0 
2.040464396718984e-05 0 -2.715040119341846e-05 0 -3.784911146428359e-06 
7.320455210439351e-06 -5.935624898983955e-06 0 1.058791184067875e-22 0 
0 0 0 0 0 
0 0 0 0 0 
0 -2.204694562702338e-06 2.117582368135751e-22 -6.058928467964310e-06 3.531359526788384e-06 
0 -1.991660226832819e-06 0 -5.473468774775976e-06 3.190132744524379e-06 
-3.308722450212111e-23 -0.0002899419008004502 0.0003052699563359194 -0.0004087444467691626 -3.388131789017201e-21 
0 0 0 0 0 
0 0 0 0 0 
-8.532176611699771e-06 2.333117994943611e-05 -1.923891232468476e-06 6.782881022934827e-23 -1.354513553964012e-05 
0 0 0 0 0 
0 0 0 0 0 
0 0 0 0 0 
0.0006127865972238518 0 -0.001448350455566051 0 0 
0.0003115937532287994 -0.0001469091054461134 -0.0001225321216358201 -4.400392468827606e-06 -5.421010862427522e-20 
-2.586922666024914e-05 0.0002004041108058564 -0.0001242506119339918 -7.887007399980796e-05 -1.947712944198530e-05 
0.002859083133510028 -0.0006980751856570938 -0.0005540897181947959 -0.0004079744531570696 -1.723182652070467e-20 
0.02824518041175242 -0.01572179368907488 -0.007590839431555714 -0.0007103175735093925 -0.0001101032585258088 
0.01776978677902443 -0.006203343353423786 -0.01187746890692158 -0.001363681958495101 0.004545526440893660 
0.03582684937987249 -0.01779883021507874 -0.01184438069847513 -0.001898292108601753 -0.001258341774833929 
0.05781372694560918 -0.03860760535819286 -0.01166015205569899 -0.007588283991962538 -0.01171793707597560 
0.05534206934747097 -0.06376164100374526 0.02107747498973545 -0.003263910796304062 -0.02159088222994833 
0.06887841095297127 -0.06722476962423607 0.06862237456344333 -0.05460174936755744 -0.01535668784089860 
-0.0002678161965973294 -0.01881869473811082 0.06082653820008546 -0.07825120734743407 -0.02303011850067013 
0.1058680796290033 -0.03551878094815155 0.01646780374824931 -0.02010477801397861 -0.07988630287135826 
0.2373445780993577 -0.09185740226328958 -0.1669226102243940 0.01204035702858413 -0.03380307156558215 
0.1643964468131438 0.01368899123830631 -0.2128862515539536 -0.06593415173356610 -0.1211858109345940 
0.1421083632627940 0.03765726115840204 -0.06410097583489648 -0.2377518227234804 -0.04966272527029377 
-0.2367458777786660 0.3524656875153580 -0.08972511401422134 -0.1934349427121409 0.1131942836613022 
-0.4485758368885304 -0.1393301198385599 0.1035900636427765 0.3306335898571532 -0.08850776006126497 
-0.1152627635921307 -0.2498925825395275 -0.1143623966636979 0.1378083128614606 0.005842526302887963 
-0.06229568215932136 -0.4304265375804737 -0.04552787839976561 0.03861108602086925 0.1951711397944528 
-0.04330437995968596 0.01518913729077702 -0.03992713613651655 0.1314806124632931 -0.1579892155200174 
0 0 0 0 0 
-0.002254507841517446 -0.03515551788562790 -0.04099359311579138 0.1426999178039488 -0.1144197416340948 
-0.1538400941018802 0.05882159713089327 0.07243301393918021 -0.01534368395904038 -0.04842331113593656 
-0.08930244018440758 0.06555855592390018 0.05369786719729974 -0.04022111884584527 -0.04414341260426591 
-0.06518382375182900 0.08618222469197152 0.03436087927753053 -0.05725796085272115 -0.03762520552474634 
0.08698268854118642 0.01310718167763696 -0.03236377948684752 -0.04031108423340618 -0.01922497736256682 
-0.1339661043870771 -0.007537104549725539 0.1178530365010473 -0.06353253590725418 -0.01319831841177923 
-0.02036342641085069 0.01017516502358243 0.006383609820572787 -0.003021155230598796 -0.008486198886175194 
-0.01393451533858272 0.0009650361440934594 0.009743921724812546 -0.01087320467386595 0.004308116803378528 
-0.01119736914557133 -0.004619764444803841 0.009955050747555436 -0.006356329285193140 0.005491326338696392 
-0.0001252249215508536 -1.298671129497722e-05 -6.443195958888594e-05 0.0002877672264624957 -3.880814735501437e-05 
-0.0002569792513789930 0.0006983968665613829 -0.0004216016942085229 7.631356750594558e-05 -7.131444000437239e-05 
0 -0.0002367057075156201 0.0002463310499287441 -0.0003246335173016696 3.388131789017201e-21 
0 0 0 0 0 
0 -0.0002313603358364886 0.0002407683153762072 -0.0003173025288447619 0 
0 -1.604241427420943e-05 2.670105850144188e-05 0 0 
-0.0001545209402331421 0.0002799755700226477 -1.801682220718774e-05 -1.355252715606881e-20 0 
0 0 0 0 0 
0 0 0 0 0 
0 0 0 0 0 
0 0 0 0 0 
0 0 0 0 0 
0 0 0 0 0 
0 0 0 0 0 
0 0 0 0 0 
0 0 0 0 0 
0 -0.004570484706156788 0.004756337767126188 -0.006268258342842265 -5.421010862427522e-20 
0 0 0 0 0 
0 0 0 0 0 
-3.836844599630010e-06 -4.129206012750733e-06 2.221788232895492e-05 -7.994760207052253e-06 -4.676496324006132e-06 
0 0 0 0 0 
0 -2.364860513837748e-06 -4.235164736271502e-22 -6.499095581064743e-06 3.787904613340361e-06 
0 -2.136349727122715e-06 -4.235164736271502e-22 -5.871103597827125e-06 3.421888496055191e-06 
0 -0.0004145307297546225 0.0004313871049410430 -0.0005685142544397277 -6.776263578034403e-21 
-1.588186776101813e-21 2.120620209631918e-05 -1.169135864538927e-05 -3.472212793499262e-06 -4.235164736271502e-22 
0 0 0 0 0 
-8.391961167123463e-06 -9.031415166879166e-06 4.859503711416615e-05 -1.748617006915427e-05 -1.022845062660070e-05 
0 0 0 0 0 
-4.235164736271502e-22 1.694065894508601e-21 -1.270549420881451e-21 0.0002974129058620685 -0.0002283836580318754 
0 0 0 0 0 
0.002208532261196202 0 -0.005219971717931258 0 0 
-1.558540622947913e-19 0 -1.355252715606881e-20 0 0 
-2.932043251952186e-06 -0.0001532285871780751 0.0004542734693985850 -0.0002162071217903810 -1.084202172485504e-19 
0.004370105997519253 -0.0005160947360706047 -0.003772960100134899 -0.0005629068998418410 -3.252606517456513e-19 
0.02057318256714538 -0.01331874030507544 -0.005370561019981486 -0.0008670734812514025 -0.0001130905201974300 
0.02821695939398049 -0.01041793272338261 -0.01363805948322823 -0.0007868510750112812 0.0004633851623449065 
0.03287626935312080 -0.01633176497470572 -0.01149427070636481 -0.001282778357111954 -0.003501048178086226 
0.05550665557711972 -0.03228129201530854 -0.01796197116498804 -0.01048533679250435 -0.01079707689976047 
0.06174522497360012 -0.05271017037020721 0.003710263263548361 -0.003852976548655287 -0.02521173618566191 
0.07066188829909467 -0.03958073003449000 -0.007689891688716991 -0.04334398997897827 0.005503214675024978 
0.01793120499466919 0.004829480200642879 0.007062963704784759 -0.06269939039538991 -0.03240046455138034 
0.1289239432438812 -0.03300783963145827 -0.01022807555333135 -0.01157975150095847 -0.1035130052767371 
0.2808884764241874 -0.1016100886636289 -0.2138120979349454 0.02618002784357637 -0.05930490779584435 
0.1801890350915095 0.03185119891160849 -0.2508474335965653 -0.03098861725437704 -0.1124253123484753 
0.03921954243199965 0.09610700131258704 -0.05389001521309506 -0.1989287387680066 -0.06080564620557497 
-0.2233478350693238 0.4242614422067731 -0.1331311571902152 -0.1283308203971741 -0.02163054506227134 
-0.3078833105455589 -0.1412686628299272 -0.04232899072499637 0.4568418717159731 -0.1606109023706396 
-0.09939966922396566 -0.3290644048526575 -0.1260339023315041 0.08620026782750662 0.1667916926624210 
-0.009604265930534290 -0.4179765987551468 -0.1117490258042124 -0.09452400729218464 0.3368726310189343 
-0.1041802613536205 -0.01336291304309003 0.07167686674478621 0.1013279759886354 -0.1596494945838901 
0 0 0 0 0 
-0.02597458664254213 -0.01838541279497107 -0.004698814396890814 0.1212816543742137 -0.1302806489359349 
-0.1350388611583963 0.05329449121760142 0.1080132000470782 -0.02622516421218770 -0.06701178321846002 
-0.08661334174713620 0.04957186475386056 0.07796555686605560 -0.04713391345294932 -0.05248932734064465 
-0.08602103597514453 0.03231738681761762 0.1728383948549136 -0.08913748089018941 -0.05423032683142767 
-0.03306069612260353 0.03364187700250105 0.03684371187374934 -0.03454943508493909 -0.01262528925545068 
-0.1046461771061613 -0.01989479634387071 0.1132988137792329 -0.05709887966276633 -0.009335308820911433 
-0.01358768364234205 0.0003904337833574439 0.01118240344718313 -0.005037525681878286 -0.002751386304499587 
-0.01619980562382789 0.005178665762203717 0.01237160589593583 -0.01486581685819801 0.003094648794177932 
-0.009458938907817536 -0.003436923290117386 0.01013058139533729 -0.005457336691990438 0.0009225792866768227 
1.069664638161911e-06 3.021986366112414e-05 -6.263537276501788e-05 -1.382480646920528e-05 1.748312547667220e-05 
-0.0002062539525603157 0.0005842318801231738 -0.0003156937610721262 -0.0001177855400912939 -5.468014838650266e-05 
-0.0004821647348908490 0.0005399999977852479 -0.0001931659755711827 -0.0003004993378812891 -3.949875379995632e-05 
0 0 0 0 0 
0 -0.0002121953830481968 0.0002208240436823649 -0.0002910184730106921 0 
0 -6.550727347925569e-06 1.090305680642794e-05 0 0 
-0.0001242885823614400 0.0002251977411051727 -1.449179177534661e-05 3.388131789017201e-21 0 
0 0 0 0 0 
0 0 0 0 0 
0 0 0 0 0 
-6.582764724729143e-06 -2.488739466967858e-05 3.859267293712840e-05 -1.058791184067875e-22 4.235164736271502e-22 
0 0 0 0 0 
0 0 0 0 0 
-5.143044729761693e-05 -0.0002990946798457175 -4.171048047125957e-05 -3.405256101670731e-05 0.0004812927976925471 
0 0 0 0 0 
0 0 0 0 0 
0 -0.007386083836143471 0.007686429724551041 -0.01012975310134436 -1.084202172485504e-19 
0 0 0 0 0 
0 0 0 0 0 
-5.234910247295742e-06 -5.633802023524350e-06 3.031361235956047e-05 -1.090788303925729e-05 -6.380513438136457e-06 
0 0 0 0 0 
0 0 0 0 0 
-9.264422860593910e-23 6.997919257092567e-06 -3.858078095952226e-06 -1.145809356243436e-06 5.293955920339377e-23 
0 -0.0004194257022002870 0.0004364811253369526 -0.0005752275362562462 0 
3.494010907423989e-21 9.034005365421209e-05 -4.980608797925348e-05 -1.479189383553085e-05 -8.470329472543003e-22 
0 0 0 0 0 
-7.414156318308837e-06 -7.979103154708668e-06 4.293289664755987e-05 -1.544873668018675e-05 -9.036663817846992e-06 
0 0 0 0 0 
8.470329472543003e-21 6.776263578034403e-21 6.458626222814040e-21 0.0008534724101975819 -0.0006553822891619997 
0 0 0 0 0 
0.003544266947987127 0 -0.008377044589455394 0 0 
-5.421010862427522e-20 0 0.0008105889915045585 -0.001264938801827386 -0.0004412367071020044 
-4.063594337582484e-06 -0.0002123634495493906 0.0006295893134362639 -0.0002996470243975483 0 
0.005444137926516027 -0.0007158309154088317 -0.006619512493495612 -0.001840518967882283 -0.0004496502180916857 
0.01513335253878055 -0.01072053586674571 -0.003698192219460322 -0.0009076429848051341 -0.0001007527017959315 
0.03987840358055827 -0.01672780448998917 -0.01800377787850010 -0.0006823563661655350 -0.0002688026679405787 
0.01966576449260615 -0.008893394939242866 -0.007443255749405574 -0.0007583944482264717 -0.005167585549314662 
0.04707202404189417 -0.02913698749337827 -0.02175272081775980 -0.01356052999147006 0.005022862948632589 
0.05220933050218871 -0.04125251808341675 -0.008353905156193027 -0.005377838552650990 -0.02061829996689825 
0.07149868428215353 -0.02484017630080031 -0.06364209845646370 -0.03435822870441214 0.01909421208962552 
0.03782169672817651 0.01834782797860714 -0.04524504035663986 -0.04694423080459430 -0.03359459599699135 
0.1314402481566266 -0.02087250348688828 -0.03926670549176245 -0.01075351145582504 -0.1078364313904577 
0.2744702768774702 -0.09259986748457943 -0.2136825213426799 0.03710147261050388 -0.09772239680703230 
0.1807119420646215 0.06288928049309660 -0.2663861965945369 -0.01277321277315771 -0.1137871641531719 
-0.1020017989866965 0.1701050945184909 -0.002028478236797185 -0.1482829429054232 -0.09769318256998445 
-0.1814072375075099 0.4667783482019119 -0.2089424956027408 -0.1008727429566018 -0.1130635262081669 
-0.1563571713863780 -0.1319824952055954 -0.1809510705011177 0.5646784637456462 -0.2651765803480665 
-0.1763579403247968 -0.3690905950478158 -0.06464800439866807 0.04149263810030877 0.3320178897833986 
0.001708340334278504 -0.3716643362896263 -0.1570323837287752 -0.2230240928425797 0.4435434154193949 
-0.08703886984808289 -0.07807561127182679 0.1374299661952228 0.06393956370310158 -0.1308429520511035 
0 0 0 0 0 
-0.02352778208261207 -0.03967098554698233 0.04432670746902687 0.08834100847456369 -0.1423089392934396 
-0.09834731055063103 0.03544498033245061 0.1328410986978625 -0.03258876874386241 -0.08767972964576314 
-0.08258086521877116 0.03621903597123687 0.09302746119389418 -0.04182495170482534 -0.06168129140933489 
-0.09743383821605264 -0.01360145671855450 0.2847897848986961 -0.1068000061510551 -0.07311140403800244 
-0.02167687452055638 0.007874173930437104 0.03993618926056167 -0.02622158729034032 -0.008851443986828335 
-0.07371028806916300 -0.02671296340360996 0.1036027442581041 -0.04949004880786280 -0.007521560289263584 
-0.008383955245761836 -0.003323825773670908 0.01054136273266506 -0.005010595737308759 -7.144947873090964e-05 
-0.01505055955158705 0.009651969524051947 0.01195038663162441 -0.01637160937652682 0.0003305425413492982 
-0.007792582476794355 -0.002305170067688665 0.008160147447040337 -0.004388977748697794 -2.952464430092537e-05 
-1.953302539365032e-05 4.848424527699081e-06 2.622387332356354e-05 6.418766893774373e-06 -8.189147200872462e-06 
0 2.832915465275422e-05 -2.170171300880766e-05 2.126354642007258e-06 -1.500599566683882e-05 
-0.002217414252154901 0.003327646734201625 -0.001765499722338971 -0.0002072015849549301 -0.0001806615630962843 
-8.654532832262718e-06 1.769660464193787e-05 -1.951480916870488e-06 -9.229775810118607e-06 -2.240739788562761e-06 
0 -0.0001405458555135823 0.0001462609774608401 -0.0001927536766917024 -1.694065894508601e-21 
-3.882790667994838e-06 7.601274771842216e-06 -1.700353218330694e-06 0 -3.946617710020038e-06 
0 0 0 0 0 
0 0 0 0 0 
0 0 -9.511164139195966e-06 0 0 
0 0 0 0 0 
-9.123223350554732e-06 -3.449208192599127e-05 5.348658042989964e-05 -4.235164736271502e-22 0 
0 0 0 0 0 
0 0 0 0 0 
-0.0001229509130708659 -0.0007150232190061706 -9.971411737660521e-05 -8.140690368056617e-05 0.001150590594483750 
0 0 0 0 0 
0 0 0 0 0 
0 -0.009838185486769180 0.01023824303091493 -0.01349272390580342 0 
0 0 0 0 0 
0 0 0 0 0 
-2.476573906409614e-05 -1.031157380047347e-05 5.142770866880758e-05 -1.932293910923873e-21 -1.404011562288679e-06 
0 0 0 0 0 
0 0 0 0 0 
-4.467133686898372e-05 0.0002009590882591183 -0.0001858762586107033 -1.577563114577285e-05 -2.365306079956236e-05 
0 -0.0002464440348331537 0.0002564653741824993 -0.0003379892892554039 0 
-7.530559541486536e-05 0.0003340026203121638 -0.0001794516291361320 -7.620236833130449e-05 -8.955318163407934e-06 
0 0 0 0 0 
0 0 0 -6.706750529582333e-05 6.600308227654629e-05 
-0.0006738370669452661 0.001298306625793688 -0.0001403772109120173 -2.710505431213761e-20 -7.922315521780681e-06 
-1.694065894508601e-20 -1.016439536705160e-20 -0.0001096724082244525 0.001125067104492759 -0.0008419258319416531 
0 0 0 0 0 
0.003731597317052766 0 -0.008819808883920631 0 0 
-5.421010862427522e-20 0 0.002250237324935104 -0.003511536099629681 -0.001224896116106217 
-2.840867094453829e-06 -0.0001484637209747730 0.0004401471738994393 -0.0002094838462808641 -1.626303258728257e-19 
0.006655803621985082 -0.001903947625984948 -0.007973012728360936 -0.003862920783795001 -0.001266070538025186 
0.01513349611402165 -0.009813653070804269 -0.003881473372295988 -0.0007766385796766501 -9.432261146931631e-05 
0.03821646122120805 -0.01765744640767128 -0.01810176036433647 0.0002234212843318680 -0.0006878761020798566 
0.008905028766170211 -0.001995366512376734 -0.005221706925925693 -0.0008779590450693573 -0.005216204232746941 
0.03586231031300948 -0.02799597726749823 -0.02295205756297301 -0.01413812271807759 0.02250799687207769 
0.03241726434712377 -0.02688990510748213 -0.01829000713837703 -0.004580744741182860 -0.01552390426727467 
0.05800941891293911 -0.01571618396275505 -0.08148880394812864 -0.02586769957240989 0.01880309341666269 
0.04028228732328637 0.02301992410057218 -0.06490986941021827 -0.03989226372714161 -0.03011990303833968 
0.1159436475687941 -0.003901567350751128 -0.06051206231733403 -0.01685008734299666 -0.09603063547596366 
0.2304173682951881 -0.06198472177379046 -0.1772133505696670 0.03697789970351476 -0.1300915059312493 
0.1716507927053698 0.09353604314998129 -0.2591338657335279 -0.007288298639573028 -0.1309494428176762 
-0.1469346530752725 0.2094239137474133 0.003081887118397684 -0.1104186306258653 -0.1368491011661262 
-0.1097639457753051 0.4524878630965885 -0.2477563667042343 -0.09452823950531328 -0.1760272615887677 
-0.09205392059812409 -0.1050832301740453 -0.2132077776985099 0.5899844874271207 -0.3497775348346829 
-0.2503599555672762 -0.4027846916776512 0.03557120054010985 0.04058877192662858 0.4089283218883010 
-0.004285434498585112 -0.3002796642487411 -0.1655726250843794 -0.2572175764099614 0.4187898335673118 
-0.04411256146707130 -0.1369546247336764 0.1266141307969866 -0.002054473227858313 -0.02491858734578811 
0 0 0 0 0 
0.01264201877095897 -0.06785837996421207 0.05304329984401673 0.06721530431232275 -0.1369597501800145 
-0.05056617893621713 0.01644590638915067 0.1059422646828414 -0.02856950147944069 -0.08922649310907943 
-0.06948235953234830 0.02430804024741802 0.08386249261483870 -0.02714012605842582 -0.06204664858581922 
-0.09269831557784278 -0.02994445998418060 0.2974796831042018 -0.09060994547158688 -0.08083587786482044 
-0.01260675223862410 0.0009129178374969258 0.02627442931689845 -0.01374304156782226 -0.007625808211524664 
-0.04712295151261015 -0.01922205335759802 0.07668911945097928 -0.03677082725560676 -0.007420801760865891 
-0.005514278382136686 -0.001509363789151176 0.005849953915795929 -0.002480067602407877 -0.0005274641773441711 
-0.01140127168869842 0.01144575107250868 0.009081757781990005 -0.01412662441206269 -0.002356286926926171 
-0.005378439807925422 -0.001519832083257943 0.004967810390462383 -0.001972056712877580 -0.0007797355132315779 
-0.0001463470436525625 -2.261315559283681e-05 0.0003043941454760586 -0.001064897210012359 0.0009977382612132220 
-7.703397432398433e-05 0.0003274662344978903 -0.0003239491943541930 -6.576190551363370e-07 -4.439469900918335e-05 
-0.004158457887202316 0.006404278643200725 -0.003455004872728679 -9.656768513788388e-05 -0.0003400038484241795 
-1.368347771762507e-05 9.152310838913172e-06 -3.085440446054253e-06 -4.370469931036613e-05 3.272518449117458e-05 
0 -5.157400493678518e-05 5.367119753236272e-05 -7.073192615288928e-05 -8.470329472543003e-22 
-6.138988737745551e-06 1.201819624258734e-05 -2.688388365503153e-06 0 -6.239904168336785e-06 
0 0 0 0 0 
0 0 0 0 0 
0 0 -1.503787727076381e-05 0 0 
0 0 0 0 0 
-6.378064063195943e-06 -2.411348486646430e-05 3.739257753482922e-05 1.058791184067875e-22 0 
0 0 0 0 0 
0 0 0 0 0 
-0.0001059467214330917 -0.0006161350404821830 -8.592358977079538e-05 -7.014827569441760e-05 0.0009914631632466550 
0 0 0 0 0 
0 0 0 0 0 
0 -0.01143492418770983 0.01189991111992209 -0.01568259463658777 0 
4.088794426364659e-05 0 -5.440546242890537e-05 0 -7.584412462518982e-06 
0 0 0 0 0 
-0.0001172703650947512 -4.882721331890634e-05 0.0002435197332883501 1.016439536705160e-20 -6.648254997790209e-06 
0 0 0 0 0 
0 0 0 0 0 
-9.067614648032496e-05 -4.434981552710782e-05 8.757602052648470e-05 -0.0006341550397922096 -4.801218311552947e-05 
0 0 0 0 0 
-0.0001528591190510698 0.0005254772287874720 -0.0002801850154317966 -0.0001297100250344778 -1.817795925706681e-05 
0 0 0 0 0 
0 0 0 -0.0002595245122543962 0.0002554056194509176 
-0.001352913431108653 0.002935024342476862 -0.0005440789188935880 0 -4.951761200607471e-05 
-5.082197683525802e-21 -6.776263578034403e-21 -0.0002226186196794854 0.001003725624725021 -0.0007260761638055130 
0 0 0 0 0 
0.002602150138668894 0 -0.006150306413140422 0 0 
-3.896154114436845e-05 -1.754362615636442e-05 0.003487965612609958 -0.005442138868358967 -0.001898146824335195 
-1.761828530288945e-19 0 0 0 1.355252715606881e-20 
0.007651845139113094 -0.002936515664201259 -0.008059317181474440 -0.005468077882970080 -0.001968631579557167 
0.01754921009972911 -0.009500516127444590 -0.006673774970582101 -0.0005400252830119029 -8.187750497956622e-05 
0.02275228523804282 -0.01193646928400545 -0.01158793572992559 0.0008452127566883237 -0.0009188074444896275 
0.007740228511383344 -0.0002104840217335495 -0.007621468842289922 -0.0008951856622124312 -0.004057948361570054 
0.02484847216661171 -0.02514157364646165 -0.02218500676152055 -0.01259346306749647 0.02915419658137308 
0.01318083622876623 -0.01284671004334163 -0.02235947712732486 -0.004341458642348532 -0.01212627411593120 
0.04132214345825705 -0.01426889640602304 -0.06431933372604270 -0.01805613418730602 0.003641458194753504 
0.03185203795103035 0.02168801903179387 -0.05064149966049548 -0.04014743283752283 -0.02995585916047215 
0.08882743923113716 0.01240738234048368 -0.06810379540181768 -0.02895175541982939 -0.07794185611213601 
0.1675516219082497 -0.02165164323240552 -0.1290791658019410 0.01997705052610020 -0.1287904157756945 
0.1430075039574290 0.1156181126978102 -0.2286131823808665 -0.02461983536574954 -0.1413207478464928 
-0.09803576779262113 0.1846268060696809 -0.01943175301257974 -0.1047392320479250 -0.1563714403722700 
-0.04380303301732475 0.3889289442050435 -0.2302158248379523 -0.1073787897984551 -0.2067466777199474 
-0.1169867166544283 -0.08026800666315580 -0.1486006186476994 0.5280255410873597 -0.3624614599987366 
-0.2096970972809078 -0.4552155875696337 0.1358663786922888 0.09763082108466835 0.3284054565948794 
0.01531667503520095 -0.2255263833153500 -0.1403197386877283 -0.2044935015370787 0.2860076990669888 
-0.01577815880090700 -0.1481284871669380 0.04284595160216003 -0.07606486246951463 0.1187967529776283 
0 0 0 0 0 
0.04566069358138009 -0.08652063887906566 0.02799889597270055 0.06334367162666986 -0.1166477659092548 
-0.004777830174984524 -0.003017794222018329 0.04005742395144531 -0.007459659711800731 -0.07329915417603755 
-0.04163942897850295 0.01576938669566572 0.04761797843035174 -0.005883642782067333 -0.05752209252656473 
-0.06083523337519447 -0.03135162044629003 0.2090754471714262 -0.04125896642776798 -0.07046813638150770 
0.006475187421070258 -0.006672998331024168 0.006539500474157270 -0.001222972382794715 -0.005636055332592770 
-0.02158637612769928 -0.01003231597036737 0.04193773884868574 -0.02197144331482601 -0.006376214236420779 
-0.003170969103959484 -0.0001552456707258906 0.001592967653598138 0.0005834996825985541 -0.0009645742780953373 
-0.005682875397731125 0.01011662610981659 0.004596448882236199 -0.009195838626690649 -0.004174605818019019 
-0.002288324205440285 -0.0007968488140442570 0.001953707682664158 -0.0001201880531027338 -0.001210539843672772 
-0.0005423220981038806 -0.0001322185980906988 -0.0002012955582439686 -0.003132397367178274 0.004330150651363931 
-0.0001563674702695798 0.0006647075804733288 -0.0006426940073154625 -2.634236258800399e-05 -8.626472807967380e-05 
-0.005785193206596664 0.008879927814582703 -0.004755246420497948 -2.967194379202252e-05 -0.0004661664719189388 
-1.316616092454173e-05 8.014771611091705e-06 -2.968792457162768e-06 -7.470498840588007e-05 6.461898328894447e-05 
0 0 0 0 0 
-5.906898472966253e-06 1.156383698778670e-05 -2.586751305356281e-06 -2.555621478047380e-05 1.969659947710633e-05 
0 0 0 0 0 
0 0 0 0 0 
0 -2.117582368135751e-22 -1.446935612394511e-05 0 0 
0 0 0 0 0 
0 0 0 0 0 
0 0 0 0 0 
0 0 0 0 0 
0 0 0 0 0 
0 0 0 0 0 
0 0 0 0 0 
0 -0.01169051253061164 0.01216589264405749 -0.01603312502137813 0 
0.0002555658575080556 0 -0.0003400557036839753 0 -4.740558395844326e-05 
0 0 0 0 0 
-0.0001161208565188126 -4.834859879081208e-05 0.0002411327020754852 1.514071393217062e-20 -6.583087415777382e-06 
0 0 0 0 0 
0 -8.230929219490120e-06 0 -2.262019066470619e-05 1.318385358466166e-05 
-0.0001143452876571744 -0.001696887635078566 0.001803817440577443 -0.003039835456315473 -4.863484552711622e-05 
0 0 0 0 0 
-0.0001927598449798415 0.0005222182315663356 -0.0002759032764308796 -0.0001405757301620217 -2.292294126902174e-05 
0 0 0 0 0 
0 0 0 -0.0002683872232812547 0.0002641276710990118 
-0.002300296352639565 0.004549992803700951 -0.0005734005814013091 1.084202172485504e-19 -3.911743875423979e-05 
-2.329340604949326e-21 -6.882142696441190e-21 -0.0002807286270222916 0.0004271458423403588 -0.0002716557056514899 
0 0 0 0 0 
0.0009866316009861482 0 -0.002331951017267661 0 0 
-0.0003338832229746398 0 0.003972528810570420 -0.006092888132449163 -0.002125324871384259 
0 0 0 0 0 
0.007582061330329814 -0.003469934059866643 -0.006713979843555656 -0.006121914797008671 -0.002201230012556368 
0.01876618524677481 -0.009226500669258316 -0.009016357918100265 -0.0003925666090437000 -5.697874735490622e-05 
0.009350281492369389 -0.007331508513975865 -0.003052228788042604 0.0006133314265282555 -0.0004990742434107153 
0.007502481765004290 -5.187020954156383e-05 -0.008843180368981117 -0.0007609014385162257 -0.002505119350242358 
0.01801615811547131 -0.02262486360054378 -0.01576149527671827 -0.01020529482324461 0.02162261071084857 
0.002337100547969825 -0.0005495552952823548 -0.02112828965981945 -0.004995759975840691 -0.01295548606341082 
0.01890959983000654 -0.01071326588184332 -0.02669499570948701 -0.01216214796807869 -0.01847409289866273 
0.02103357469897816 0.02210933779432979 -0.02411482495047071 -0.04158400628808489 -0.03595994732667835 
0.05746761866643139 0.02210384651651398 -0.06068959078861189 -0.03975064426262238 -0.06302445961277990 
0.1097812348685057 0.01368709304453345 -0.09084106766075442 -0.006864018195491268 -0.09812320910607716 
0.1060519572053733 0.1153188911169622 -0.1795409692107740 -0.05870986168049289 -0.1324542178885461 
-0.02418740564567285 0.1276928698872278 -0.04785212516545002 -0.1183704845504569 -0.1575809086955440 
-0.009178591629281765 0.3034112073213898 -0.1828906787422072 -0.1261350152926079 -0.2045284987513195 
-0.1319080860472487 -0.08783513520892454 -0.1026317273690973 0.4361643462818229 -0.2977625039815515 
-0.07560072103024068 -0.4974534414341214 0.2077380810623728 0.1857955236554668 0.1288617169956837 
0.04522698263427942 -0.1577455827943931 -0.09309241750411082 -0.1117102152699909 0.1292304142503233 
0.005826838504602938 -0.1290527004220531 -0.07062142811772140 -0.1228507191539005 0.2279706994698683 
0 0 0 0 0 
0.05965631021752511 -0.1024390326041116 0.001178498396973549 0.05978555488338910 -0.08409508144997300 
0.02598151490144928 -0.02267216415999136 -0.02274691719136883 0.02051832761651138 -0.05193321149812891 
-0.01167406975131901 0.007858713847206869 0.007695560437833817 0.01029991796394190 -0.04781522886458322 
-0.02122888538520092 -0.02849983965976943 0.08460865745804542 0.01476559414846588 -0.04993748954917332 
0.0004167973009791190 -0.001598454710666608 -0.001076056117680930 0.007787833971375790 -0.002274493613428621 
-0.002825647436248239 -0.004243945307799738 0.01084162141991656 -0.007396115530498042 -0.005027534257381843 
-0.002381743292076778 0.0006519198683606140 -0.002690198873336980 0.006115582407034432 -0.001819672362258093 
-0.001250000085918657 0.006548896506386646 2.927629670941332e-05 -0.003450482146077242 -0.003558708521422877 
-7.092821575956655e-05 -0.0003958780633918074 0.0002420087396770096 0.0005372236403680729 -0.0007057440075037249 
-0.002530511605131269 -0.0002466806270596950 -0.002735079281530014 -9.412972027414777e-06 0.006429263381385789 
-0.0001973197282748306 0.0008311215545602550 -0.0007725194993935663 -7.144079297009961e-05 -0.0001044070979770228 
-0.006578659140444868 0.009908495269094965 -0.005204682845321303 -1.107516763613006e-05 -0.0005072611633602209 
-8.526278132395427e-06 -6.511599064760180e-06 -2.180907460014229e-05 -4.490867815403437e-05 6.328327273093828e-05 
0 0 0 0 0 
-2.646977960169689e-22 -1.502890975166107e-05 2.501417751922305e-05 -2.642895448653154e-05 2.657826854819775e-05 
0 -1.125921133531463e-05 0 0 -1.323488980084844e-22 
0 0 0 0 0 
0 0 0 0 0 
0 0 2.911675756186657e-22 1.766103826889926e-07 0 
0 0 0 0 0 
0 0 0 0 0 
0 0 0 0 0 
0 0 0 0 0 
0 0 0 0 0 
0 0 0 0 0 
0 -0.01048384682534225 0.01091015938265143 -0.01437822562659673 2.168404344971009e-19 
0.0002018894161842806 0 -0.0002686338783917114 0 -3.744899949690397e-05 
0 0 0 0 0 
0 0 0 0 0 
0 0 0 0 0 
0 -3.290568615130256e-05 -6.776263578034403e-21 -9.043121072319894e-05 5.270653370391585e-05 
-9.200961922268232e-05 -0.003990993169638743 0.004159092837279107 -0.006079609101780850 -1.104616581958563e-06 
3.705769144237564e-22 5.494913135314666e-05 -3.029443928640809e-05 -8.997135649725046e-06 8.470329472543003e-22 
-0.0001551070472724082 0.0003937492052917907 -0.0002074209994014468 -0.0001087836572860066 -1.844528218731771e-05 
0 0 0 0 0 
-8.301703906181312e-05 0.0001577676973541198 9.059673270215273e-05 -3.786134389014482e-05 -0.0001250931486455629 
-0.003191716264134936 0.005783051663117389 -0.0003721475185172014 1.084202172485504e-19 0 
0 0 -0.0002258924229100649 0.0002159781184631672 -0.0001205069490822433 
0 0 0 0 0 
0 0 0 0 0 
-0.0004065620997022087 5.421010862427522e-20 0.003273311804329971 -0.004978604938628404 -0.001736639943298965 
-0.0001960272868049842 0.001942441743967260 -0.002069818291971938 -9.832886475792191e-05 -0.0001529084905862666 
0.005736086350188702 -0.004668570582481575 -0.001708603817316831 -0.005002323131443769 -0.001789089432252641 
0.01693621234905954 -0.008457847940036322 -0.009507494224587640 -0.0003274701839187537 -3.562523404243981e-05 
0.007637886969372152 -0.006996068965975608 7.885418904920376e-05 -2.782764385820421e-05 0.0002655011713010311 
0.006048785530377056 -0.0003586383470645715 -0.007331673726400175 -0.0005190141930616816 -0.001096846145688736 
0.01755285312615679 -0.02339833006990353 -0.006623394414780205 -0.007536105345446307 0.01072494621892263 
0.001763576514588024 0.006116844389344823 -0.01641687647636838 -0.004173954039400380 -0.01706981164323788 
-0.004955010920120507 0.002186379040491433 0.004408021349133266 -0.004349715353047171 -0.03803723296637669 
0.01426967544062222 0.03152031925868627 -0.01260216945382505 -0.03626260234964866 -0.04243914139922306 
0.03404104681582087 0.01892063012018789 -0.03841638186161722 -0.04352328230052451 -0.05254771725269330 
0.08849662886112489 0.04110946596103689 -0.08395928056020163 -0.02907060245801273 -0.07120024203254596 
0.08523971524985763 0.08720959156942691 -0.1195932333873510 -0.09260009715826993 -0.1151598861867956 
0.005867627227980408 0.08186074085151114 -0.05672400056823419 -0.1191592974249147 -0.1556373134809962 
0.006427598873694567 0.2187666701243195 -0.1435839874147063 -0.1292178896243180 -0.1842592277171861 
-0.07740119024205301 -0.1316681342192636 -0.1077607753482198 0.3523644283330433 -0.2102915573473279 
0.07008834200615605 -0.4927220062435579 0.2243117913518255 0.2553669880216448 -0.07719934784897747 
0.04565780844055016 -0.09888775009397634 -0.04895249155984410 -0.02780583491182470 0.02446908256765777 
0.03344402461437985 -0.08815929755941722 -0.1526925203463369 -0.07702587580233053 0.1975232023537096 
0 0 0 0 0 
0.07335449963855893 -0.1061467456088946 -0.02695886981700838 0.04545394328717854 -0.05028285234461721 
0.03453176098251242 -0.04289998265744792 -0.04713484519314443 0.02770930543882373 -0.02862845434057899 
0.0003842893125412068 -0.005579596052795748 -0.008855067063654083 0.007810459601326228 -0.02518837506877926 
0.002552795173613179 -0.02312320561576143 0.006089085523338413 0.03866807762266374 -0.03318945815453275 
0.002122519107632686 0.0008405951976585159 -0.003966574882396708 0.009134360409616477 -0.002463013229070083 
-0.0006106014249963338 -0.002610886996373526 0.0003734834086926971 -0.003312201342583321 -0.002764369447359744 
-0.004235040637302421 0.003765573438809626 -0.005325404609332398 0.01159065845862298 -0.005205155384748397 
0.002878657345316731 0.001572578336696695 -0.002042490559905995 -0.0002515337943748124 -0.001753772346292869 
-0.0002025325398720147 0.0005392332128239823 -1.359243536336133e-05 -0.0003159644622102969 0.0002939780262453682 
-0.004256801743586022 -2.533768351743087e-05 -0.004903687962888849 0.005805787022786137 0.005248227624364868 
-0.0001466447818247239 0.0006579594027010909 -0.0006053770515027137 -5.428154644582832e-05 -9.512133287658380e-05 
-0.006166789385896217 0.009246234136798502 -0.004844042067227111 -1.355252715606881e-20 -0.0004673173945455979 
2.264588795462027e-05 -9.764170039150744e-06 -1.554998303004915e-05 0 -1.910975796351624e-06 
0 0 0 0 0 
-1.058791184067875e-21 -0.0001438936893624932 0.0002394972322733870 0 0 
0 -1.371008869716143e-05 0 0 -7.940933880509066e-23 
0 0 0 0 0 
0 0 0 0 0 
0 0 1.852884572118782e-22 1.541006755200817e-07 -1.323488980084844e-23 
0 0 0 0 0 
0 0 0 0 0 
0 0 0 0 0 
0 0 0 0 0 
0 0 0 0 0 
0 0 0 0 0 
0 -0.008259083145012340 0.008594928461644430 -0.01132704081871521 0 
0 0 0 0 0 
0 0 0 0 0 
0 0 0 0 0 
0 0 0 0 0 
0 -2.991947309467729e-05 -6.776263578034403e-21 -8.222451778428395e-05 4.792338047038683e-05 
0 -0.006768237993416393 0.007015332447529795 -0.009319610178876189 4.329265941548595e-05 
-3.917527381051139e-21 0.0001253467916765126 -6.910592900523992e-05 -2.052374733139125e-05 8.470329472543003e-22 
0 0 0 0 0 
0 0 0 0 0 
-0.0002496854817847871 0.0002949831199904716 0.0005559094646129715 -0.0002120376606289325 -0.0003588656590324365 
-0.003462697293679184 0.006274040574377600 -0.0004037433463930427 1.084202172485504e-19 0 
0 0 0 0 0 
0 0 0 0 0 
0 0 0 0 0 
3.049318610115481e-20 0 0.001832595830306936 -0.002859798983353556 -0.0009975567865936760 
-0.0005015219649663619 0.004969599978375960 -0.005295483877944957 -0.0002515674540522733 -0.0003912055709629660 
0.003072109297207375 -0.005507463219262522 0.004244611474530028 -0.002886150094614877 -0.0009849455807815696 
0.01032983617124553 -0.005358394879482393 -0.006876313287750681 -0.0002677533812564008 -1.130939829275843e-05 
0.005930853763840250 -0.001665734760718069 -0.001032689074094124 -0.001977662462432265 -0.001485436392561996 
0.002613205672895022 -0.0002617948735119826 -0.003352302195717091 -0.0002529270996993848 -0.0001085502089946345 
0.01774771901525161 -0.01976540718842488 -0.0008816212906658377 -0.005923615976558336 -0.0006262484417321535 
0.001096959775716612 0.007455261129107305 -0.001531494150095718 -0.006251668983158901 -0.01961841982093190 
-0.02241767797407735 0.01849210600419426 0.01699587536894271 0.0004187153611856196 -0.04802612514007044 
0.01583961993053322 0.03987334308638310 -0.01635070356708845 -0.02596009129103072 -0.04565726511470565 
0.01606210975775315 0.01260811660697360 -0.008711525747944135 -0.04142599717028386 -0.04355799741213937 
0.09252122939145231 0.04658486514937748 -0.09727141599653803 -0.04078319986391919 -0.05048167649801109 
0.07671616473664017 0.05032947198109514 -0.06096271334332123 -0.1051900872085502 -0.1097106337515244 
0.01621857241487532 0.05175861339588798 -0.05928612507565283 -0.1077438353554249 -0.1544113415265634 
0.01530428114801119 0.1538228632147712 -0.1479437199924960 -0.1110584839043370 -0.1522356585604037 
0.02019978507128471 -0.1973053802230518 -0.1390206799336772 0.3179586721837270 -0.1556890099321532 
0.1707715692565800 -0.4429425490173463 0.1612536111288404 0.2724824574994895 -0.1763238469860685 
0.009194269023769727 -0.05925656248301282 -0.02644934062224523 0.02997638468959892 -0.01588492142717395 
0.06247479341425261 -0.06351862972399837 -0.1529151569399607 0.05247906712360635 0.03518322356257647 
0 0 0 0 0 
0.08686142399229940 -0.1009463089341152 -0.04468494938119021 0.02264397401597584 -0.02594883164942930 
0.03127810242963065 -0.05203822839951923 -0.05220060838777399 0.007441833958911888 -0.0003915717406653487 
-0.001137538816023453 -0.01720948169957163 -0.01479884022070699 -0.01152471921534252 0.01076175437814964 
0.01062820568770838 -0.02669678293647582 -0.003846980602757947 0.02858429268190302 -0.02121400524249191 
0.009350528244154030 0.0005575365046347596 -0.005057353172703494 0.002633128844780260 -0.0008204699280870790 
-0.003191842935474126 -0.001792003427360417 -0.008752237980617514 -0.009726865226898807 0.01161818857685218 
-0.006689332406504079 0.007266254290088042 -0.007335691154412236 0.01664164184195566 -0.008712949634300300 
0.008565891194368121 -0.001566327415770895 -0.009574721783164833 -0.002006682082039365 0.002832195926007564 
-0.0002038425920947581 0.002004644542362185 -0.001041866084529084 -0.0009154799847376354 0.0006886718836915806 
-0.004718486569303000 7.238088734279850e-05 -0.006081804920108507 0.01093492452106103 0.002013253626974110 
3.896637734989083e-06 0.0003438639183632083 -0.0001162867251112005 -0.0001610312077462686 -0.0001973701286842496 
-0.004784908155304903 0.007172994986004233 -0.003762646535651937 -1.573778300861850e-06 -0.0003672240353888246 
5.189777768525044e-05 -2.227346197568941e-05 -3.579011512369819e-05 0 -4.403593123668087e-06 
0 0 0 0 0 
-1.238434595877523e-05 -0.0002329399059854328 0.0003402866146954457 -1.802062961705566e-05 4.444285793440342e-05 
0 0 0 0 0 
0 0 0 0 0 
0 0 0 0 0 
0 0 0 0 0 
0 0 0 0 0 
0 0 0 0 0 
0 0 0 0 0 
-7.746524347647736e-06 -5.916093741492033e-06 -1.981456911987972e-05 -1.127207254651574e-05 2.779942374138531e-05 
0 0 0 0 0 
0 0 0 0 0 
0 -0.005509002058495463 0.005733018757223037 -0.007555401742704090 0 
0 0 0 0 0 
0 0 0 0 0 
0 0 0 0 0 
0 0 0 0 0 
0 0 0 0 0 
0 -0.009112126293322540 0.009482659545796274 -0.01249695936674074 1.084202172485504e-19 
-5.505714157152952e-21 0.0001583874032489969 -8.732180934073679e-05 -2.593367569508127e-05 8.470329472543003e-22 
0 0 0 0 0 
0 0 0 0 0 
-0.0003081038168612272 0.0003806995919806920 0.0006596091688888554 -0.0002525161105053403 -0.0004444444018374561 
-0.003191610815212613 0.005782860600843941 -0.0003721352233908420 1.084202172485504e-19 0 
0 0 0 0 0 
0 0 0 0 0 
0 0 0 0 0 
1.355252715606881e-20 0 0.0004483754916431212 -0.0006996980752416567 -0.0002440690998167109 
-0.0008063568177581197 0.007753168973299857 -0.007883156752217128 -0.0006837313227561001 -0.0006260136773867109 
0.001006784224882256 -0.006486906801211431 0.009003252701218940 -0.0007151500029029656 -0.0002153448281660789 
0.003957638787080793 -0.002134915366763916 -0.003130826490526058 0 0 
0.003956833135170317 0.006474744492959665 -0.003316747629389504 -0.005044048680881149 -0.004495821688640538 
0.0004135427218774966 -0.0001493710570809221 -0.0002590688680174965 -0.0001363871061687628 -4.070222732451412e-07 
0.01575315408955842 -0.01949583801954975 0.001915914722899572 -0.004678466057759552 -0.0007005080812725826 
0.0002007468104164712 0.003181147879994556 0.01129664210792987 -0.008907983257263006 -0.01546606639952299 
-0.02697018947750828 0.02160688441839448 0.01527252067040696 -0.0002830052992345978 -0.04008805478168170 
0.02566190560176832 0.03556493721405023 -0.03082137087248811 -0.01374004986131293 -0.03704553863689690 
0.01494433373476232 0.003787857105849789 0.007404704011129567 -0.03143776131816285 -0.03414469821916857 
0.08428550223755635 0.03991292297028531 -0.1022078298020320 -0.04349227225212983 -0.03363793382708795 
0.06216113852039124 0.01594578629620254 -0.01943839764322944 -0.09494496049470924 -0.09868341865257685 
0.04342496396188338 0.02419995354848293 -0.06812890384900316 -0.07643991575448923 -0.1555792503232082 
0.01874218021703403 0.1063940865728709 -0.1614749464457900 -0.07595197388925908 -0.1295167346319603 
0.09741051530226687 -0.2411556263353279 -0.1568801989747302 0.2962788862261723 -0.1332314952451566 
0.2093709762462944 -0.3722664834808021 0.07691303952522400 0.2534619914427110 -0.1727417591773881 
-0.04717245015481059 -0.05452938801684084 -0.01425113979277069 0.07553463214363454 -0.01893601281977635 
0.06529065412863119 -0.06571141501848643 -0.1093673910493970 0.2013783384116859 -0.1415522048299454 
0 0 0 0 0 
0.07186126663983253 -0.09296227652269472 -0.05760498700338449 0.01253740763746374 -0.001455227480451900 
0.02269904137020479 -0.06107616096789238 -0.05294697695602988 -0.02625362569236846 0.03865218652098842 
-0.004513807961067578 -0.02239905434297945 -0.03646534866727129 -0.03064116179383662 0.05410038039430897 
0.006188771269989012 -0.02332208769517260 -0.01959923897850610 0.01746178006905938 0.003039928724410745 
0.01672489316487594 -0.0004392289643473479 -0.01450607496701871 -7.103996489602713e-06 0.001636616740343600 
-0.009587173952905799 0.001461779726920061 -0.02357691904605411 -0.007247272420585106 0.02666782481384713 
-0.009609911228627909 0.01110691584035543 -0.009204320055291223 0.02088389944105231 -0.01173322134861678 
0.009302948842075002 -0.004471210514605056 -0.01839307515054761 0.004048519323627134 0.006120338501331925 
-8.554415931055138e-05 0.003713687289172820 -0.002336135857198282 -0.0008135400738473810 0.0003916508058957222 
-0.004234270702080606 0.0002755323824574871 -0.004592433286664335 0.01144463110106947 -0.001073940288016804 
-0.001430517554796631 0.004450945194185194 -0.002281690030813946 -0.001359520060709270 -0.0005548266618562155 
-0.002923072074875101 0.004388312785524169 -0.002301820710136596 -6.104441493977551e-06 -0.0002273193973302106 
3.515819278936609e-05 -0.0001424486000825221 -2.389918706207667e-05 -0.0001669080091823070 0.0002291896336253420 
0 0 0 0 0 
-1.179231333264840e-05 -0.0001358391803742373 0.0001809386635925107 -1.715915492051871e-05 4.231827081586907e-05 
-0.0008735658468977571 0.001582808747917904 -0.0001018559719225197 5.421010862427522e-20 0 
0 0 0 0 0 
0 0 0 0 0 
0 0 0 0 0 
-8.544656719881090e-06 -3.230470068385314e-05 5.009462679284439e-05 0 0 
0 0 0 0 0 
0 0 0 0 0 
-0.001210893669914992 -0.007004710486445985 -0.0009949290742729720 -0.0008075929352522668 0.01128914306350395 
0 0 0 0 0 
0 0 0 0 0 
0 -0.002726384134665155 0.002837249145573813 -0.003739139543533872 0 
0 0 0 0 0 
0 0 0 0 0 
-0.0005113389760713103 -0.0002129033813677663 0.001061829482429034 6.988021814847978e-20 -2.898866990380991e-05 
0 0 0 0 0 
0 0 0 0 0 
0 -0.01123529670760545 0.01169216603728399 -0.01540881259856034 0 
2.435219723356114e-21 0.0001105126472270710 -6.092759975192981e-05 -1.809486799203477e-05 -1.694065894508601e-21 
0 0 0 0 0 
0 0 0 0 0 
-0.0001304183007161719 0.0003566279721092753 -2.940757519683995e-05 -0.0002843015374945912 7.274569347182465e-05 
0.0009051948233896502 0.004549658444722424 -0.004838357242208558 0 -0.0006336782088679340 
0 0 0 0 0 
0 0 0 0 0 
3.087272034749318e-05 0 -7.296915236467021e-05 0 0 
0 0 0 0 0 
-0.001051389421925509 0.008290115624281969 -0.005436362774709058 -0.003034427526913031 -0.0007934205477356406 
1.310383588967893e-05 -0.006335051619596908 0.01054403349194163 0 0 
0.0004486652575890708 -0.0002973202366759130 -0.0001289587943428357 -5.509629627335372e-06 0 
0.001479507572353231 0.01253201423781964 -0.001280192973628283 -0.009766054484209223 -0.006896696159297906 
5.362801265360159e-05 -5.014891969546718e-05 1.694065894508601e-21 -2.094229390304943e-05 1.504988310595352e-05 
0.01224878563271856 -0.01591477339237102 0.002181089897951860 -0.002946382649174555 3.020823186937113e-05 
0.009286587112365060 -0.004618986980015823 0.01286483224215360 -0.009806739054875474 -0.009311201965620958 
-0.01929387255277332 0.02045836176378388 0.005681220296553860 -0.002657968559169486 -0.02824209627967273 
0.04186633766036878 0.02758926525302446 -0.04557801271716340 -0.004413288171347751 -0.02725430938951731 
0.02376681961070720 -0.006032902899807731 0.01284700336276095 -0.02119311112978939 -0.02209656896419951 
0.05633520024879209 0.03148764802222503 -0.08692766694481510 -0.03759738477213300 -0.02158779810690869 
0.04081869731582965 -0.002428283982004551 -0.004857553092080329 -0.06775899675190966 -0.08263158325254040 
0.06700444239561018 0.0005818267427683637 -0.06153217238357305 -0.04070667991058231 -0.1546198222141574 
0.01638087800315689 0.06073965264302120 -0.1390758217323626 -0.04121183780517152 -0.1245200976141875 
0.1276156456610460 -0.2551687504539076 -0.1422354553484373 0.2839527140658734 -0.1365869614926646 
0.1956751935369234 -0.2941907268554098 0.01387731199346182 0.2281690914183481 -0.1341136519095339 
-0.09050439108733829 -0.07457931703442668 0.01283090932017679 0.1149886738915174 -0.04307940416343298 
0.03679794692201512 -0.09661449727800997 -0.02669154427997567 0.2760419945432122 -0.2316247066621610 
0 0 0 0 0 
0.04398308378854914 -0.08016103717947630 -0.04240692806051696 0.01298986741877233 0.007788368037027977 
0.01865219978276723 -0.06397449665966157 -0.04082830639718611 -0.06489376520519316 0.07053004312973564 
0.003669505462580084 -0.02181579468181351 -0.06094197411966162 -0.04133288995812502 0.08359671125163506 
-0.001788725447746347 -0.02117252502191116 -0.03904519563438241 0.01004113179245725 0.02972216277053344 
0.02047231048701117 -0.005182866769713504 -0.03199160481946138 3.754596789408228e-05 0.01167457123455754 
-0.008872586171752830 0.002055617615551780 -0.03339778235743416 -0.0001820585950367619 0.03437017760047977 
-0.01230181035060386 0.01355245854294592 -0.01295394830422517 0.02124228332483222 -0.009559969892733495 
0.004039336234948564 -0.005128839453599513 -0.01884168674900376 0.01403430692411312 0.004111580097070467 
0.005822297145782539 0.004586798787584960 -0.005388407209454288 -0.0008135968901886301 -0.001752691583722046 
0.001319437256061120 -0.0006501586014826295 -0.005863622987920297 0.005581179027591180 -0.0004226110905621984 
-0.003217640080928535 0.009128805883675721 -0.004790105295957602 -0.002640224120210119 -0.0007742571495803471 
-0.001073896148383656 0.001608257933164189 -0.0008369086852542762 -8.587357760643121e-06 -9.285800645543970e-05 
-1.811221332921637e-05 -0.0005702008943348326 -0.0001825336578132566 -0.0008818176724022071 0.001226025765870298 
1.175741848015951e-05 -5.076741223111565e-06 0 0 -2.117582368135751e-22 
2.117582368135751e-22 0 -4.235164736271502e-22 -2.794385834658428e-05 2.810173106873379e-05 
-0.001974994094791484 0.003578480021195280 -0.0002302802287665081 5.421010862427522e-20 0 
0 0 0 0 0 
0 0 0 0 0 
-1.131165713143409e-05 -1.002427130331584e-05 2.440715895118613e-05 0 -6.478159598178649e-06 
-7.137563097718146e-05 -0.0002698491549080150 0.0004184528077747570 -5.929230630780102e-21 -3.388131789017201e-21 
0 0 0 0 0 
0 0 0 0 0 
-0.002611740967566548 -0.01518862599062903 -0.002118141613532510 -0.001729257148848771 0.02444101078597051 
0 0 0 0 0 
0 0 0 0 0 
0 -0.0004040099423949639 0.0004204385028833139 -0.0005540853661750729 -6.776263578034403e-21 
0.003270483132620270 0 -0.004351701960089493 0 -0.0006066505292993445 
0 0 0 0 0 
-0.002150834845485736 -0.0008955312088387920 0.004466351984977485 -1.219727444046193e-19 -0.0001219344588836954 
0 0 0 0 0 
0 0 0 0 0 
-5.823351512373315e-22 -0.01287931357054835 0.01341122729118142 -0.01768922556646926 2.403455987834077e-20 
0 -0.001621106165709936 0.001687026426343934 -0.002223289848045222 0 
-6.564505341220828e-21 0.0002170130176297169 -0.0001196431595013229 -3.553278294469212e-05 -3.388131789017201e-21 
0 0 0 0 0 
0 0 0 -0.003431174372576398 0.003376718478187386 
0.005580101191655441 0.002934642217929973 -0.009768836825677100 -5.421010862427522e-20 -0.001335501632929989 
0 1.016439536705160e-20 -8.258571235729428e-21 0.0008225065016674322 -0.0006316035380553622 
0 0 0 0 0 
0.0001405345970023357 0 -0.0003321602471614920 0 0 
0 0 0 0 0 
-0.001133595536716679 0.006905114400560944 -0.0004491060233742578 -0.005666867912261543 -0.0008299460858636738 
-1.609362599783171e-20 -0.006124060219310101 0.009191734308226441 -0.002201361155044970 2.710505431213761e-20 
0.0003185405536986611 -0.0001458352936482236 -0.0002217128799461624 -2.508018634556696e-05 -1.330991515264127e-06 
0.0002722569697222621 0.01414225562676027 0.003306640230720899 -0.01393221051713126 -0.008101372577259014 
0.0001178853558237218 -2.391884513187743e-05 -6.527957842300257e-05 -2.095965243726067e-05 -4.221048519382748e-05 
0.007657164302801842 -0.009965122391212491 0.001680500597719326 -0.001484319216965282 0.0002642549813194446 
0.01598631453701236 -0.008235457237167123 0.006305512696923946 -0.007464739564724452 -0.007033279343917679 
-0.005597827498850313 0.01627328814393148 -0.009189556353676392 -0.003076404238913957 -0.01604103771686633 
0.04176430970941284 0.02261165538227566 -0.04496148734144702 -0.005393118933542715 -0.01584341318888721 
