solver_type L2R_L2LOSS_SVC_DUAL
nr_class 2
label 0 1
nr_feature 2999
bias 1.000000000000000
w
-1.490777987167569e-19 
9.215718466126788e-19 
0 
-0.01576491745462630 
2.439454888092385e-19 
0 
0 
-0.007619664699269095 
0.0004614999095816993 
0.006757919647021828 
0.005338964603688816 
0 
0.01502978685531289 
5.421010862427522e-20 
0.008683391744070412 
0.01090475925286117 
-2.710505431213761e-20 
1.355252715606881e-19 
-0.005089691542609812 
-0.006598585751497979 
-0.004809692327088649 
0.01885434636866823 
0.006170382647686001 
-0.01532607896897390 
-0.007571387496751379 
-0.004948921580797077 
-0.02232544845685701 
-0.01954529753317546 
-0.04685274503277051 
-0.1058376428075523 
0 
-0.5539642329893562 
-0.1624887757396551 
-0.1048221164631326 
-0.05922030376568087 
-0.02620794495138482 
-0.01305790899569669 
0.01881779257145546 
-0.002145568419432470 
-0.01048015316330162 
-0.006714971059051730 
-0.01284974492944243 
-0.01885110788223150 
-0.006858236681059560 
-0.003459157359554575 
-0.001971945677088131 
-0.009462924210350087 
-0.0002593911255891671 
-7.227181302389441e-05 
0 
-0.0007596184913693925 
0.002694597136142839 
0.008421487570227542 
0 
0 
-0.001144085033345274 
0 
0 
0 
0 
-5.112295433038622e-05 
-8.071832772983047e-07 
0.001947199204165114 
-0.01005695128567579 
-0.0001424897406336067 
-0.003342770467545810 
-0.003618186917390904 
-0.004776385829733500 
-0.009742621935249030 
0.001848721411340946 
0.009771474126571839 
0 
0.005406924539786848 
-0.0001877562244086640 
0.009136997253246360 
0.005171473806051630 
4.065758146820642e-20 
0.007395473766210257 
-0.005627701750513595 
-0.005776999214282235 
-0.003599538044029138 
0.0001875769052962324 
0.007550455975804276 
-0.01366338791428083 
-0.01171270211142794 
-0.007841055822774277 
-0.02077493327244911 
-0.03890986293582819 
-0.05617705395228956 
-0.1116579035964150 
0 
-0.3718078847994545 
-0.1806965224880645 
-0.04743484189610583 
-0.05655252105941970 
-0.05257603871392731 
-0.03718510551598318 
0.009400094338313066 
0.01298800721579788 
-0.008600260866987465 
-0.006010184931559785 
-0.004393343837512827 
-0.01704771531130030 
-0.004655799237305811 
-0.001034475870472540 
0.003398893949028168 
-0.006376473309814652 
-0.002289286067145935 
0.004723523345465278 
8.203059103940092e-05 
-0.002364392348688770 
0.0006284960850195453 
0.004477129920589717 
3.028650530938650e-05 
0.006792546014532374 
-0.0007446348908134717 
0 
-0.0003001968091231674 
0 
-0.001481662520864870 
-8.349793220005410e-05 
-1.318353671920526e-06 
0.002971926250324934 
-0.004974240561451951 
-0.0002122503428188078 
-0.006352843212672811 
-0.006471837109281534 
-0.002263859606645849 
-0.01720550046096948 
-0.0009285540419492750 
0.01300659624297118 
0 
-0.002966583406026412 
-0.0003285733927151614 
0.008794448912566219 
0.0006696811974126455 
1.016439536705160e-20 
0.01276334001287288 
-0.006472083845854583 
-0.004640010317864951 
-0.002474754064608329 
-0.01433804007810388 
0.007546303401061767 
-0.01238287621866943 
-0.01516007334290522 
-0.009912103925852137 
-0.01977771763171517 
-0.05496983221847952 
-0.06374839505053315 
-0.1153938650447848 
0 
-0.2429693633197504 
-0.1909674348649698 
-0.002101585752146370 
-0.05785407374580822 
-0.06238334169026207 
-0.05279712315264803 
0.006643029177433060 
0.02489716694326386 
-0.009288644706801213 
-0.007926327038350537 
0.0008794998494578564 
-0.01591703838859531 
-0.004542663567802962 
-0.0008880592709140290 
0.005933738344063287 
-0.004476235381478146 
-0.003620588447584418 
0.007577317450836910 
9.480570430387577e-05 
-0.003699956200501732 
-0.001055424841332164 
0.001280258293962801 
4.260079867693927e-05 
0.01122457762888146 
-0.0003855619391833477 
0 
-0.0005727422951767894 
0 
-0.002730209759515821 
-7.837695714828283e-05 
-1.237498301189088e-06 
0.002311916566363639 
-0.001142040726681426 
-0.0001365526681072034 
-0.008697520512962194 
-0.007796413850171615 
-0.0004128386764540894 
-0.02000372695444384 
-0.0004126228136733932 
0.01423753952749800 
0 
-0.008698420604688267 
-0.0003755124488173276 
0.006880382932045073 
-0.0005964639149657400 
5.251604272976662e-20 
0.01406854133579954 
-0.007783452916710051 
0.002434083943323220 
-0.001509088382734745 
-0.02021588710049154 
0.004872705265983027 
-0.01121174370980756 
-0.01721783561789730 
-0.009829007340514595 
-0.01990162337041290 
-0.05607651867205304 
-0.06779436288133017 
-0.1083747377924962 
0 
-0.1610343949331387 
-0.1614765679195500 
0.04497073168488368 
-0.04699289763371951 
-0.03372323604451339 
-0.03731911560770927 
0.03068171000771744 
0.03999808014807844 
-0.006438980775363678 
-0.007932383162547687 
0.008751344769764940 
-0.01229774289029538 
-0.0003724915418830267 
-0.001159648116565664 
0.004483904937321615 
-0.001800264351705598 
-0.002690569949226414 
0.006959981879593631 
0.0003621082351853739 
-0.004484085539779468 
-0.001817290077734071 
-5.416942368391153e-06 
1.897066816082452e-05 
0.01099117650068054 
-0.0001072433693565809 
0 
-0.0007899851350913209 
0 
-0.003512526433738936 
-1.701205271435621e-05 
-2.686042824286584e-07 
0.0005593061156524099 
-0.0001312192097430219 
0 
-0.01004459901025388 
-0.006929653763826555 
0 
-0.02002728506148759 
3.349203585146514e-05 
0.01066472979914756 
0 
-0.01016807554464067 
-0.0002816343366129951 
0.003601599166458420 
-0.0001396165344750157 
0 
0.01015404423263817 
-0.009343294635997973 
0.005896158551290701 
-0.0009969823049264360 
-0.01703135090578116 
-0.0003598052738479380 
-0.009954743502539975 
-0.01726866265237124 
-0.009004772632286131 
-0.02139392154318591 
-0.05291491722200102 
-0.06743432786504996 
-0.09969188735080253 
0 
-0.08693524026004240 
-0.06938920344403252 
0.1291411380595401 
-0.009797072914826377 
0.03953822676629671 
0.01636622253525129 
0.08175323547083375 
0.06426131589565329 
0.01119788555901350 
0.0007698806893316437 
0.01774742516309959 
-0.002457340405774645 
0.003020066046860922 
0.0005349379201931388 
0.001925016834940076 
0.004579294971415006 
-0.0005251146607526405 
0.003675342637526699 
0.0008680035574711940 
-0.004444563796519196 
-0.001905742170618692 
3.167844794916058e-05 
2.553161030982629e-05 
0.006341011276487057 
0 
0 
-0.0009242740057972164 
0 
-0.003595880499332505 
-0.0005022322740416225 
-9.517737073443995e-05 
-0.001423151546291806 
-0.001236822711837946 
0 
-0.01026845781100034 
-0.004398221159225248 
0 
-0.01721239928986564 
0.0001500150782746801 
0.004699600157941607 
-0.0006082614886695519 
-0.01078805565621851 
-8.318001365058065e-06 
0.0005516490151677612 
-0.001322846424417209 
-3.077039724586164e-06 
0.002214691757664321 
-0.009404381497367172 
0.001490853420902785 
-0.002261218905623327 
-0.01123099194153133 
-0.005822791712088992 
-0.01142222055682655 
-0.01504155239998761 
-0.01004589474390450 
-0.02292360950453235 
-0.05255792057526665 
-0.06171965746356742 
-0.09403058251609912 
0 
-0.006435110501152927 
0.01273298972994019 
0.2066498444551472 
0.01996617540387229 
0.04153526770825741 
0.06457522684501948 
0.1173366183315180 
0.07207139638949814 
0.02322284235149041 
0.004864307703005006 
0.01620721736487917 
0.006743429113792270 
-0.0006262009125906744 
0.004197240922446600 
-0.001142023759567491 
0.008699551748638270 
-0.0002176213018842962 
-0.0005362670876537467 
-0.0001341094114694865 
-0.003751905443040475 
-0.001693469932012697 
-0.0003760760355408041 
2.368423961950494e-05 
0.001012655731142605 
0 
-0.0005552036473514634 
-0.0009479575842249295 
0 
-0.002907685496449984 
-0.001241675313088619 
-0.0002353082382671470 
-0.002837445638438762 
-0.002465947648632918 
0 
-0.009757621697271724 
-0.001495830464839181 
-2.710505431213761e-20 
-0.01379818010836896 
-8.483638980754395e-06 
0.0001035387396012412 
-0.001608023112986057 
-0.01019015131013396 
-5.132707241150445e-05 
-2.536995965375761e-05 
-0.002351179542685660 
-5.920153438274182e-05 
-0.004441727047029298 
-0.007866319668798990 
-0.002105019204746679 
-0.004253584491677808 
-0.007844247152338892 
-0.006424071647212596 
-0.009427971922222715 
-0.01122367062415574 
-0.01074459596265649 
-0.02073575153013255 
-0.04810303442497289 
-0.04982536675945088 
-0.07699718195784354 
0 
0.07715157559506652 
0.08430687892526846 
0.2800357268596640 
0.06006889280374028 
-0.03673613975085726 
0.1094468646936740 
0.1282155564116053 
0.07028322938548083 
0.04748815357506919 
0.02848024772767110 
0.03141118022153667 
0.02352575140249415 
0.01837760453801902 
0.01726550148716050 
0.005636413853808779 
0.01945626579497551 
2.277735644928512e-05 
-0.0003903956320649622 
8.704545284696295e-05 
-0.002495631033847083 
-0.001193449314657445 
-0.001343269424008578 
1.107357027172813e-05 
0 
0 
-0.002099040521049728 
-0.0008458685490268650 
0 
-0.003464517228040124 
-0.001918941457427828 
-0.0003636560451233736 
-0.003848752265822801 
-0.003468637076178649 
0 
-0.008938399907593474 
0 
-7.903647212071158e-05 
-0.009460321082253809 
-1.264358511699746e-05 
0 
-0.002543207204874215 
-0.008072095543208273 
-8.169202223671921e-05 
-3.781010071559565e-05 
-0.003447195008669757 
-0.0001091416426122208 
-0.006102300027211005 
-0.005382236336074053 
-0.001100607505381353 
-0.006101785893547243 
-0.008787353769538830 
-0.003264483842716836 
-0.006978913628821952 
-0.006765990654516975 
-0.01072557512396436 
-0.01515718688661149 
-0.03670009379149034 
-0.03473506845823736 
-0.05281613909568857 
0 
0.07569063492274475 
0.1631824916665925 
0.3336180498020278 
0.1173673603094920 
-0.1247578150511535 
0.1391515379126762 
0.1362459145756323 
0.08445037267492762 
0.08684548621442005 
0.06183487056081934 
0.05401227251333027 
0.04214285272102841 
0.04369897937995874 
0.02383136710523843 
0.01719186491147613 
0.03020414084203466 
0.0001102302799003635 
2.416989790108131e-05 
0.0005926583189218482 
-0.0009718391920084521 
-0.0006383723330772981 
-0.002728331833222704 
0.0001084120219258848 
9.007676591753996e-05 
0 
-0.003744187069410882 
-0.0006527755857432060 
0 
-0.004358672889839056 
-0.002310222599280083 
-0.0004378072142622580 
-0.003989694916820909 
-0.003862313662660600 
-0.001253443035151031 
-0.008464770730229472 
0 
-0.0001608208696094651 
-0.006426029679502537 
-1.961062034492256e-06 
0 
-0.003075955861804622 
-0.005284896213618958 
-8.897199029883558e-05 
1.314183343861755e-05 
-0.004011153317464658 
-0.0001146039669426797 
-0.006383867957156821 
-0.003209676277158247 
-0.0002105746680487934 
-0.007348805148152307 
-0.01066732472922147 
-0.0001866060142414078 
-0.006260783095846169 
-0.003363140906416854 
-0.01027945080612092 
-0.009141553668804916 
-0.02206146877212875 
-0.02318595044958356 
-0.03494071430924600 
0 
-0.009545241355251416 
0.2133233515921139 
0.3541854090303138 
0.1621843449349684 
-0.1653789022140536 
0.1378513800292884 
0.1761461439811517 
0.1296170312673322 
0.1257620908467097 
0.08523329862376894 
0.06211569057192399 
0.04967148580216391 
0.05172026350953305 
0.02160607162781204 
0.02683964852495658 
0.04200904979876105 
0.003899646410043661 
0.003608684200708641 
0.005514069975304529 
7.231818841401366e-05 
-0.0002322971730016225 
-0.004257460661535296 
0.0003887322879270709 
0.0005176499200332268 
-2.139134456291857e-05 
-0.005072673856015537 
-0.0004159313816360868 
0 
-0.005739870686085917 
-0.002527134033591385 
-0.0004245356366363519 
-0.003267288227657585 
-0.003093371056709878 
-0.003233160800387637 
-0.008333416928145045 
0 
-9.701808686823663e-05 
-0.005062355277497215 
-2.379840294073735e-05 
0.0001505811665868414 
-0.002915844875942412 
-0.002372139996623243 
-5.261732897386682e-05 
0.0002145446346242103 
-0.003198982294488671 
-5.740837591460761e-05 
-0.004907062458048781 
-0.001465286945508424 
4.042601223551896e-05 
-0.006928731351573577 
-0.007791937943917394 
0.001851061611121422 
-0.006097593666467620 
-0.0006414228138913898 
-0.009939755253431944 
-0.004893353872528330 
-0.01368475831550618 
-0.01649090686099840 
-0.02593204341047763 
0 
-0.1315296221972324 
0.1919825397031550 
0.3301545256976509 
0.1581980635213941 
-0.1421158350671734 
0.1192767881466986 
0.2574444265721892 
0.2016509311801491 
0.1509676127962357 
0.08846342467727790 
0.05219628089200806 
0.03401023071456719 
0.03993663958666881 
0.01295438487576115 
0.03878828909859041 
0.04949898261357172 
0.01483836424317677 
0.01355932602043531 
0.01732720834423411 
0.0002596957933668726 
0.0001105460385855933 
-0.005302326372743565 
0.0006666156669744220 
0.0009817041929248893 
-2.199343406291624e-05 
-0.005666531444444295 
-0.0001825886239676408 
0 
-0.007248284237018637 
-0.002606950161329089 
-0.0003346795196168440 
-0.001928629617780957 
-0.001736122111588771 
-0.005262861911684034 
-0.007647389720320029 
0 
0 
-0.003357894372686142 
-4.654935415176623e-05 
0.0004975819154916392 
-0.002077020567305787 
-3.291528455716554e-05 
-2.798340773414057e-05 
7.880546551667008e-05 
-0.001850984322357939 
-6.427175518603028e-05 
-0.002539791432563030 
-5.091513246655775e-05 
-0.0001505140726350734 
-0.005416443695946177 
-0.005448986090567765 
0.0006276040082482681 
-0.005978142332120079 
-0.0008256087487407613 
-0.01023665542995680 
-0.006028187719876535 
-0.01712493924910568 
-0.01947146204744497 
-0.02590082540097719 
0 
-0.2244993938437395 
0.1126218698510016 
0.2373780945599284 
0.1106400971559636 
-0.1023056257303088 
0.1066482437646658 
0.3387569376262875 
0.2676712380106721 
0.1691853221975770 
0.07233101404280277 
0.02567737359620162 
0.006461303162434630 
0.02958278125518101 
0.009084914746303864 
0.05208707882798133 
0.04638011439572833 
0.01970074758141491 
0.01997657261545896 
0.02262837788014508 
-1.932255990520366e-05 
0.0004563832246763400 
-0.006204273542005423 
0.0004061847094745094 
0.0002181790562815984 
-9.432373001178630e-06 
-0.005213868775697561 
0 
0 
-0.007831331627800418 
-0.002474866332842539 
-0.0002064933119003745 
-0.0005626604618542138 
-0.0004889930661901806 
-0.006812218533168976 
-0.006368458775280961 
-0.0002544455572137941 
0 
-0.003122138817649434 
-3.358521729484882e-05 
0.0002350342570158150 
-0.001185435456432198 
-3.608004477817042e-05 
-0.001782580955684291 
-2.173223328578699e-05 
-0.0005623298101874170 
-4.016776320755910e-05 
-0.0007411946465441529 
-0.0001660440209867413 
-0.0002956454308200022 
-0.003479163882112508 
-0.003434078455112602 
-0.001069001400628306 
-0.002419435613979721 
-0.001455313778964489 
-0.01072203286322856 
-0.008263873434906407 
-0.02675465676190698 
-0.02551806548212751 
-0.02758906355311635 
0 
-0.2445987801382507 
-0.009197920334400212 
0.08146574560108238 
0.04434316481540543 
-0.1118765514323659 
0.1049393012768410 
0.3426136289108973 
0.3187372565665808 
0.2058426988280062 
0.07341122821052012 
0.01411987300847069 
0.001258225674566703 
0.05072201819160031 
0.02831602631180227 
0.07168826780536645 
0.04191035527177302 
0.01682334858705678 
0.02413816541825639 
0.01955277697629757 
-7.998614565475216e-05 
8.332670351493772e-05 
-0.006570286593188664 
0.0001844272015255093 
3.802876456149132e-05 
0 
-0.003960873134381268 
0 
0 
-0.007201779430207222 
-0.002166900297505497 
-8.046767450509559e-05 
6.832884660821913e-06 
-2.117582368135751e-22 
-0.007543707478960330 
-0.004790575521526042 
-0.0002089596525174368 
0 
-0.004374749199850261 
-1.030473336016777e-05 
-2.218151413928189e-05 
-0.0003328287626412271 
-3.193551098259777e-05 
-0.003982156714429821 
-3.454762046497293e-05 
-1.048977789836191e-05 
-5.054034742965041e-05 
-0.0001924221600489461 
-0.0004674495818477592 
-0.0004856832693946787 
-0.001650388450256737 
-0.001330388928104569 
-0.001749200193928569 
-0.001445080826809495 
-0.002263830363005356 
-0.01174976093915866 
-0.009695715083753956 
-0.03827245174285112 
-0.03142049255928124 
-0.03255465414886079 
0 
-0.2518426642806701 
-0.1417992440248346 
-0.09075649562546526 
-0.02129531753079408 
-0.1943463627643526 
0.09921440804869612 
0.2634745826559478 
0.3391840813271778 
0.2718655634593116 
0.1236833464484310 
0.03153110301137001 
0.02478781991327130 
0.08262645673634617 
0.06240401731589278 
0.09119639097553890 
0.03766488197809033 
0.01167780532272024 
0.02821001191877811 
0.01683676887573731 
0.001206745339312431 
-0.0001164895229129688 
-0.006451019879812695 
0.0002695887048295745 
2.117582368135751e-22 
0 
-0.002336610927773083 
0 
0 
-0.005728538372916463 
-0.001900127293892517 
-3.000121953939258e-05 
4.064561525575592e-06 
0 
-0.007459495821693310 
-0.003066230291211999 
-4.767164343930802e-05 
0 
-0.005608226389176180 
2.117582368135751e-22 
-1.564140590578023e-05 
0 
-1.296907127527116e-07 
-0.006147790255563480 
-5.384922081587738e-05 
-3.069988637920583e-05 
-7.777645047941676e-05 
-0.0003117000686214075 
-0.0006788063241924090 
-0.0006080229840768223 
-0.0008479000068989071 
-0.0009002714205802941 
-0.002093569851676846 
-0.001664140734202453 
-0.002569053018508391 
-0.01218626186206651 
-0.008605020766292968 
-0.04612674874751818 
-0.03450644049790413 
-0.03872459142221853 
0 
-0.2443478802762666 
-0.2347230565838491 
-0.2216789826159338 
-0.09247932327177497 
-0.2686214564989174 
0.05698261325586775 
0.1558379748962942 
0.3245544095655975 
0.3395060705004138 
0.2040621971057603 
0.06378383891194651 
0.05553390549736952 
0.09490701935163585 
0.08439032827568708 
0.09770822736511516 
0.03110886691724234 
0.009263231199838583 
0.02642707061729778 
0.02271836063565237 
0.003095556396923212 
-0.0002151081703678764 
-0.005023456718919665 
8.702962929959129e-05 
0.0005266898009527876 
0 
-0.0007702546415280865 
0 
0 
-0.003770514651121938 
-0.001509781270006920 
-2.383802363322209e-05 
0 
-1.034897356055591e-05 
-0.006596328225464576 
-0.001366818173660407 
1.694065894508601e-21 
-9.291279336724319e-06 
-0.006408438224077366 
-2.525130190742224e-05 
-7.705082249644153e-06 
0 
-0.0002120749332330050 
-0.007864481282940301 
-0.0001088507981696575 
-0.0002669936843065340 
-0.0002978296554737936 
-0.0006131606792110052 
-0.001095200186782219 
-0.0007004150526905270 
-0.0007257769285725170 
-0.001134472248902424 
-0.002536942593964749 
-0.001947667289116050 
-0.002979464348354711 
-0.01193816049338034 
-0.005326256774058303 
-0.04660456271955520 
-0.03680238759045836 
-0.04555348439457281 
0 
-0.2173932013178164 
-0.2570087730465903 
-0.2749477401229174 
-0.1487585679763341 
-0.2732962381628891 
-0.02498641666807699 
0.06690650353630548 
0.3163160763947609 
0.3869187529119024 
0.2592150861323972 
0.09894807696952436 
0.07689632731096964 
0.07520522694823889 
0.09503558251059244 
0.07908948880132556 
0.03298250324097428 
0.01026183764027079 
0.02144567852325149 
0.02753611978307823 
0.003577245939945584 
0.0003849542128710011 
-0.0009476362285660480 
0.003150780171323786 
0.004709797516754283 
0 
0 
0 
0 
-0.001701269689293209 
-0.0009156713222419274 
-1.445758736943849e-05 
-9.317362419797304e-21 
-2.088439224366241e-05 
-0.005017811542183792 
-2.880412742042961e-05 
0 
-1.078246761545285e-05 
-0.006629250827019722 
-0.0001075724902928842 
1.758514455152057e-05 
-1.267712257069558e-06 
-0.0002705046528499423 
-0.008731762726766365 
-0.0003259846391939721 
-0.0008772472844101707 
-0.0008648222735639964 
-0.001171928583069745 
-0.002048468357223408 
-0.001185980233496031 
-0.001305262410953017 
-0.001296459462464495 
-0.003703343228595325 
-0.002894670713395807 
-0.005057761744594675 
-0.01290247103488316 
-0.003227718296972747 
-0.03903798657838707 
-0.04228854714523351 
-0.05353584661358016 
0 
-0.1910024435846809 
-0.2400718034424320 
-0.2962885801909369 
-0.1933593623818984 
-0.2348435849410510 
-0.1191888307140022 
0.02128308682489537 
0.3575457676567669 
0.4200861263342663 
0.2358348124609352 
0.1248640929468060 
0.09296555310373318 
0.05358643806475716 
0.1026905501166761 
0.06354535065779286 
0.03992475232877882 
0.01751898591479091 
0.02094418405213871 
0.03144679294506998 
0.001794204486442448 
0.007072506507099092 
0.004144722571182325 
0.01323534225861405 
0.01114858153795975 
-1.395076299205302e-06 
2.710505431213761e-20 
0 
0 
-2.232935804225061e-05 
-0.0003119473239837612 
-4.925354307389950e-06 
-0.0001053044194003840 
-0.0001020369904475752 
-0.003051446756835397 
0 
0 
0 
-0.006037850072632623 
-0.0001700803269778892 
3.521475063161628e-05 
-0.001455531717852542 
-0.0001093346695623973 
-0.008271098474490719 
-0.0004217560690542972 
-0.001381504973234919 
-0.001239941672577723 
-0.001808176286677172 
-0.002933684378652311 
-0.001988267072319874 
-0.002461126966356938 
-0.001910710058342291 
-0.004525488936486601 
-0.003863275735604323 
-0.007820057633657321 
-0.01550516706278858 
-0.002344352420545261 
-0.02866930903429360 
-0.04873533785030908 
-0.05458593354223550 
0 
-0.1644278356177577 
-0.2098247682940937 
-0.2543370498612078 
-0.2160200304231860 
-0.2107722454553058 
-0.1807344429907692 
-0.05485877385509792 
0.4389421051357552 
0.4618312207588107 
0.1635896960580258 
0.1525387667774388 
0.1032497215669532 
0.05155992794725820 
0.09438680382830665 
0.04782228376036067 
0.02457760004402423 
0.02672682830172858 
0.02452056460265328 
0.03812917244969896 
-0.003282244761227415 
0.01254190921998544 
0.007374113211898416 
0.02277138954899287 
0.01521976523352303 
-1.653715209122310e-06 
1.084202172485504e-19 
-2.588376019024938e-05 
0 
0 
-3.471936457845403e-05 
-6.579620635598255e-06 
-0.0001497169447971790 
-0.0001301149678364407 
-0.001174518413649050 
0 
-9.298178042883391e-06 
0 
-0.004825292670522957 
-0.0001636502796511461 
1.552010800628027e-05 
-0.003389362915374387 
2.233861167633235e-05 
-0.006654276863423496 
-0.0003943790138189634 
-0.001500865814695030 
-0.001223156046951863 
-0.001935078813521068 
-0.003042429943695064 
-0.002451855025073983 
-0.003287322933052905 
-0.002547123703141287 
-0.004418199606940603 
-0.003952291632894970 
-0.01104578561157827 
-0.01968376306162847 
-0.005949176185487790 
-0.01915338895829604 
-0.05619844582912292 
-0.05100761308503483 
0 
-0.1369989583422755 
-0.1714152038042925 
-0.1972528891334459 
-0.2220801360843753 
-0.2151508871004433 
-0.1878764794869235 
-0.1225433009156965 
0.4432632000990671 
0.4668461527645226 
0.1255239444555908 
0.1948477656806662 
0.1184110673315667 
0.06422041222612260 
0.07632267554288166 
0.02765143988973212 
-0.02318577487716754 
0.03599138966175236 
0.03546960744888027 
0.04981400776056832 
-0.005947364255258824 
0.01187748729944195 
0.01330274219743604 
0.02799644265770003 
0.01430396418619468 
0 
1.084202172485504e-19 
-3.216615618791059e-05 
0 
0 
-8.349212788558844e-05 
-1.582248218583289e-05 
-9.698173794836034e-05 
-8.428421866988820e-05 
0 
0 
-1.891963341133154e-05 
0 
-0.003273958890695389 
-2.355282773239069e-05 
1.810427581432154e-06 
-0.005429766497669623 
5.133418086264617e-05 
-0.004154988613413071 
-0.0001362145231449954 
-0.0009860349190583503 
-0.0006689510353837031 
-0.001215893472272666 
-0.001604227064139082 
-0.001938267125702756 
-0.002872354760150301 
-0.002751367080508691 
-0.002276282576909977 
-0.003563208639127669 
-0.01465881495384465 
-0.02687827754889832 
-0.01601628812872651 
-0.01522725222926108 
-0.06864817783486502 
-0.04647046262726112 
0 
-0.09025997229282752 
-0.1190725563125700 
-0.1289702396720883 
-0.2162250156168488 
-0.2415560684002384 
-0.1622019886726361 
-0.1648800973361481 
0.2808714653227228 
0.3621007096954429 
0.1622293154032481 
0.2425369999009771 
0.1410387286112280 
0.07249775435179993 
0.06249425157698030 
0.005193547940204837 
-0.07531805706422438 
0.06134789033625060 
0.05963714433293117 
0.06011005492349115 
0.005543271440602257 
0.004754278097089913 
0.02040701686197724 
0.02377447242438527 
0.009840238504758105 
0 
0 
-2.550667209044714e-05 
0 
0 
-7.285071869435526e-05 
-1.380584287354737e-05 
-1.561009241902347e-05 
-1.356631125338984e-05 
0 
0 
-1.141360970310213e-05 
0 
-0.001720124902372590 
1.163380892824581e-05 
2.551474352194192e-06 
-0.006938143702669449 
8.933843244680287e-05 
-0.001885380543881172 
-8.672679959526634e-05 
-0.0008459843674520297 
-0.0005455120048290809 
-0.0009870658272388645 
-0.001311187377147114 
-0.002830039335437041 
-0.005995619049356021 
-0.007151104122311441 
-0.002770589091145355 
-0.006209797826623638 
-0.02019882065111868 
-0.03928795821788340 
-0.03497444081037133 
-0.02105912422749720 
-0.08633887076756020 
-0.05063259442472588 
0 
-0.03642681042094943 
-0.07030779182984984 
-0.05205866895652659 
-0.2058328180305584 
-0.2333092259586646 
-0.1374895448550384 
-0.1281492591874431 
0.06738700125579691 
0.1631108495022476 
0.2139834620211002 
0.2634757726187820 
0.1486552029245169 
0.05157192340319639 
0.05232178892546194 
-0.02420506212791432 
-0.09126711031598664 
0.08961234579641691 
0.07932118697984702 
0.06066929098589913 
0.02316843019835649 
-0.002731283924463420 
0.02262991965365035 
0.01303604320574861 
0.004534482466813661 
0 
-0.0001556894394613904 
-1.256479199532237e-05 
0 
0 
-3.322005247557299e-05 
-6.295487991723744e-06 
0 
0 
0 
-9.198892063988764e-06 
8.470329472543003e-22 
0 
-0.0004502570771010448 
2.001501773483137e-05 
1.385799784884340e-05 
-0.007518303317424961 
4.924571498115525e-05 
-0.0001660203022823356 
-0.0003066242475484892 
-0.0006399782844729072 
-0.0008761247158483202 
-0.001447166160347418 
-0.002004995127085299 
-0.004393895230895185 
-0.01069893784651632 
-0.01419005323862889 
-0.005616863404442505 
-0.01116459233486047 
-0.02693013244736859 
-0.05390715717330106 
-0.06268270029763731 
-0.04092564024625638 
-0.1085075642858218 
-0.06249614030328289 
0 
0.03474813957412043 
-0.04399615400959006 
-0.02143046174694450 
-0.1487129281842903 
-0.1877395760300033 
-0.1347206494130580 
-0.01609656569214731 
-0.03826648475463944 
-0.03555890032176465 
0.2154983008898407 
0.2365157867407819 
0.1292201473010188 
0.002198398351465700 
0.04438070333120408 
-0.06095939819248346 
-0.06221669516104877 
0.09821265209396265 
0.07641236955187551 
0.05072402326527219 
0.03445467572445506 
-0.004408287433522362 
0.01719132439751023 
0.003504980180979349 
0.002376248219465789 
0 
-0.0002061952234072214 
0 
0 
-7.131108382166476e-06 
-1.571630733860354e-05 
-2.481456838863149e-07 
0 
0 
0 
-0.0001872140221124379 
0 
0 
-0.0004011668558508195 
1.905820148058814e-05 
3.917843405341645e-05 
-0.006652248861711996 
0.0005248278563366539 
4.397614951497062e-05 
0.0005194260094765166 
0.001072059330161842 
-0.001247257646693285 
-0.002906824845884599 
-0.004518567741877717 
-0.008435793815661905 
-0.01728037146414756 
-0.02576479481311798 
-0.008007757751974043 
-0.02319497959320043 
-0.02903449613574200 
-0.05323890126152175 
-0.06334362556686568 
-0.05519668873808180 
-0.1319973333694724 
-0.06533087305166642 
0 
0.08299595349506630 
-0.05466626966202730 
-0.03838364752054122 
-0.03957883666025672 
-0.06778582134011304 
-0.1386398588901132 
0.1004580351939358 
-0.03919032167319433 
-0.1960267965146723 
0.1445525285015073 
0.1660289376554211 
0.08372698657339164 
-0.04361989682034070 
0.04136464250231439 
-0.09103019722189410 
-0.01240074790835376 
0.08037258354188036 
0.05912233278233238 
0.03884077770790835 
0.03738913355520673 
-0.002555983243632632 
0.008060376237213358 
0.0001245694329130271 
0.01002083236513288 
0 
-0.0001563175437915205 
0 
0 
-0.0002377876546741464 
-6.757685265037932e-05 
-1.066974827771662e-06 
2.911675756186657e-22 
0 
-0.0001146124951796572 
-0.0002252852858462906 
0 
0 
-0.0002074104411958512 
0 
3.563432542941479e-05 
-0.005097503554997823 
0.0008658190945100765 
0.0008806131282911701 
0.001364820406828625 
0.0006907303610973025 
-0.001794935469387906 
-0.005399581379013536 
-0.007160908965869212 
-0.01438532422023384 
-0.02440337173221986 
-0.03827350960370613 
-0.01302145714454621 
-0.03875273448539390 
-0.03526578439060771 
-0.04111971394076016 
-0.05995413539714243 
-0.05066697018174613 
-0.1475202336336657 
-0.05604491111870288 
0 
0.1205889759741889 
-0.06231982121709617 
-0.04846400663588309 
0.05021423407139932 
0.05461690843641746 
-0.1248857837750582 
0.1357662426923293 
-0.05675131869117570 
-0.3190073075455479 
0.02442353793824026 
0.05262098099644688 
0.01915955667250559 
-0.06605225547133342 
0.02721616989336033 
-0.09922380323183959 
0.02294118529542490 
0.05039858482512388 
0.03701484851104749 
0.01955801987332509 
0.03176469876394539 
-0.001881287937422975 
0.001210779113326641 
0 
0.02043349495642595 
0 
-6.287598801233330e-05 
0 
0 
-0.0002897902945748363 
-6.517716124287894e-05 
-1.029085961602217e-06 
6.617444900424221e-22 
0 
-0.0001613391808987788 
-0.0001833517051224546 
0 
0 
-8.520479874959337e-06 
-9.617164608239281e-05 
0.0001070999360300449 
-0.002974503289052337 
0.0007188755689479545 
0.0008901012287181951 
9.658440979194960e-05 
-0.003705516836951922 
-0.003997870414219215 
-0.008335458365372273 
-0.01163655076032170 
-0.02338405383004701 
-0.03038102408249853 
-0.05017337675192565 
-0.02071109357027627 
-0.05864012149880590 
-0.05131040843168750 
-0.02744939701104477 
-0.06331698192986397 
-0.02143142921428143 
-0.1446679762400967 
-0.02636502558800887 
0 
0.1011913617534608 
-0.02811427056483892 
-0.04844938891638292 
0.05969659908218350 
0.1201811543922355 
-0.08806245616046177 
0.08567359886765724 
-0.09330595978875654 
-0.3911527252664598 
-0.08286663763666816 
-0.08480690049465348 
-0.04750558207171782 
-0.08264627496581718 
0.004358761228494068 
-0.09230374502763662 
0.02905741715101709 
0.01511766339047711 
0.01727516788970084 
0.005822376758373294 
0.02609263363004878 
-0.002491146992325869 
-5.029878527388478e-05 
0.0003835483195195815 
0.02458142277753883 
0 
-1.050195361962856e-05 
0 
0 
-0.0002258464207713408 
-3.411796604858986e-05 
-5.386905356032366e-07 
-9.580072800917221e-06 
-8.325783471274728e-06 
-9.209082597397243e-05 
-9.629670622865908e-05 
0 
-1.058791184067875e-22 
0 
-0.001163494514772815 
0.0002331663287687555 
-0.0005166530096412891 
0.0009823760584448953 
-0.002670518673354353 
-0.004863146652639495 
-0.01402270255946920 
-0.01163559776779838 
-0.01879515306060973 
-0.03205748096020495 
-0.03859873897503219 
-0.04340980679803824 
-0.06731036118796602 
-0.04286443425225508 
-0.07595006544561940 
-0.07452264346820432 
-0.03021437898632578 
-0.07712736364496303 
0.01317326167423525 
-0.1270095688329820 
0.01553254547377168 
0 
0.02771225761719169 
-0.01648572063032186 
-0.09456377599457895 
-0.02166386538622064 
0.1146412901075420 
-0.06245674256063107 
-0.01907073987646399 
-0.1180018668749900 
-0.4081830676231994 
-0.1460973079448612 
-0.1974557844302100 
-0.09604268531774753 
-0.1039693821048656 
-0.03223260779357913 
-0.09724429530717214 
0.005743631073432620 
-0.01653113311817591 
0.003979790871213313 
0.004026666142665779 
0.01581202926689578 
-0.003710386585771828 
2.374678564735941e-05 
0.0008422932518907510 
0.02012927925103352 
0 
-1.157740339351211e-05 
0 
0 
-0.0001112538070642341 
0 
0 
-1.009872240820485e-05 
-8.776527888094311e-06 
0 
0 
0 
0 
0 
-0.002600264569741544 
0.0003094939834443399 
0.0008515506945786363 
0.001249725409690000 
-0.007207581430586476 
-0.009381636324542992 
-0.02450343634895293 
-0.01357613291297817 
-0.02563660769301022 
-0.04941933213922632 
-0.04313878048295491 
-0.04322371381336706 
-0.07047080830995260 
-0.04589549942111446 
-0.05680444986235695 
-0.08540430179733012 
-0.05316951227680734 
-0.08477657002650807 
0.01256166152641909 
-0.1119719740023849 
0.05386489126660538 
0 
-0.003033800920852005 
-0.06008161649680318 
-0.1695368871918365 
-0.1044538604182726 
0.05982533586990729 
-0.08268349185989840 
-0.1178687595125274 
-0.1307873648953116 
-0.3951134345115147 
-0.1724085646191262 
-0.2449714234919480 
-0.1232493943172734 
-0.1121913895796154 
-0.07044063286836216 
-0.1191765288207644 
-0.02682702832048595 
-0.04268597052479551 
-0.007934915865172323 
0.007622891587443262 
0.003900800678390057 
-0.004061845137347113 
0.0001372329688071242 
0.0007127969223063830 
0.009941846875214250 
0 
0 
0 
0 
0 
-5.409068145741133e-06 
-1.025065315082455e-06 
-5.155982937135337e-06 
-4.480926023032509e-06 
0 
-7.422571690686544e-06 
0 
0 
-0.0001926590488336388 
-0.004021846323227270 
9.395344433942234e-05 
-0.0003187598638241104 
0.009447136149919093 
-0.01152656218419726 
-1.161934432194560e-05 
-0.01656253689432276 
-0.01181939324746016 
-0.03015576337581775 
-0.06762596614154631 
-0.05886387574976318 
-0.05611827515771276 
-0.08621174308081160 
-0.01560056383560255 
-0.02912707094723165 
-0.09655391618636226 
-0.08227424130239361 
-0.06439002642779923 
-0.009788914510307488 
-0.09597712504090991 
0.06763892852366330 
0 
0.1439411008665827 
-0.1284624601216911 
-0.2131928230971249 
-0.09329951912915549 
0.004173121274872664 
-0.1291871300968963 
-0.1620335394198721 
-0.1418019472253198 
-0.3373809305205014 
-0.1902346499773499 
-0.2486970096208630 
-0.1369282652285442 
-0.09357683715479210 
-0.08659127246016939 
-0.1384666461056915 
-0.05654235228744341 
-0.05580268485817985 
-0.01817858264185512 
0.007537731964066335 
-0.002117210486143035 
-0.002048468186310590 
0.0003645549721142934 
0.0002517991884773286 
0.002715942018832541 
0 
1.151964808265849e-19 
-1.858376759790672e-06 
0 
0 
-5.824253614203009e-06 
-1.103746561385781e-06 
0 
0 
0 
-1.417968911838723e-05 
0 
0 
-0.0002394209538903458 
-0.004839732664744168 
1.436300787640397e-05 
-0.002933846207721272 
0.02101952604427183 
-0.006024245385770450 
0.02145021486891016 
0.005712259742924422 
0.0006829872244206300 
-0.03252958848837317 
-0.08609523476241768 
-0.08941053505396718 
-0.08108120209128877 
-0.1230647537101490 
0.05305006357854074 
-0.03487231045952396 
-0.07863971425253855 
-0.08392162518826926 
-0.02364836552002280 
-0.04681077914140059 
-0.08928318797408552 
0.04765180850236793 
0 
0.2659864851249180 
-0.1666386128841999 
-0.2196159719662268 
-0.07303212716571227 
-0.05197427490313354 
-0.1678129727233665 
-0.1669008599472209 
-0.1435653768466529 
-0.2619907576678099 
-0.2077573425321210 
-0.2303887781906723 
-0.1411221647771015 
-0.08006046814533498 
-0.08780477273916135 
-0.1358143977678908 
-0.07927367364860637 
-0.05118652626582906 
-0.02253128317385673 
0.003146810382671981 
-0.003577042416365648 
-0.0002975841125421193 
0.0001301139769541633 
0 
2.609984196588378e-06 
0 
5.844527336054672e-20 
-2.309439080128201e-06 
0 
0 
-3.429965944452129e-06 
-6.500082873498678e-07 
0 
0 
0 
-1.470175662623104e-05 
0 
0 
-0.001061984310854084 
-0.004053223061626505 
0.001010974307715254 
-0.003450136189925210 
0.03162135528577661 
0.01690810397764776 
0.04687607039120806 
0.03692033592874655 
0.02502344191928264 
-0.03255115893655735 
-0.09852181357708953 
-0.1222941188739046 
-0.1432422495549540 
-0.1850580372017051 
0.1075110872881305 
-0.09760506801937326 
-0.01851282105036441 
-0.05325141973900791 
0.03500860439421590 
-0.07778782646597288 
-0.08966996883516058 
0.05564504115598586 
0 
0.2141664821276505 
-0.1894425835568707 
-0.2571772842939845 
-0.1322875704206360 
-0.1215740411184997 
-0.1837259716983269 
-0.1790970207130842 
-0.1592799040534253 
-0.2031011043434187 
-0.2127201399315261 
-0.1883133328720823 
-0.1319146970823204 
-0.07355017186460029 
-0.07508673763473948 
-0.1117791070737086 
-0.08234915227507694 
-0.03949970838559445 
-0.02191253814475562 
-0.002653238306356336 
-0.003346475540024295 
1.762476351306481e-05 
-6.331583484132990e-05 
1.190479276063309e-05 
0.0001714122366104437 
0 
-1.035001018188554e-05 
-1.831313020570403e-06 
0 
0 
-7.831004310314618e-06 
0 
0 
0 
-6.679932112793621e-06 
-3.527482045776875e-05 
-6.005450366220513e-06 
0 
-0.002515483353162469 
0.002207398735246413 
0.005277822878712587 
0.002968762160484923 
0.04025819028218274 
0.05164142602822042 
0.06987496313711790 
0.06629776246519731 
0.05553118745240478 
-0.01520159688510541 
-0.07443647704084747 
-0.1268154186624178 
-0.2025361077565882 
-0.2216327401205659 
0.1152510427165222 
-0.1606401792544584 
0.04570605006740422 
-0.01009104084732839 
0.1008096179479316 
-0.06283528470056862 
-0.07158453033776607 
0.07977592641910024 
0 
0.06038931722221765 
-0.2266249499750385 
-0.3134829282588401 
-0.2247403883174085 
-0.1994986165652935 
-0.1872226317475074 
-0.1961413973584017 
-0.1827940638806685 
-0.1630418450121488 
-0.1958888682088037 
-0.1392610879440885 
-0.1063937180039611 
-0.06911170204287730 
-0.05811788545148350 
-0.08033273616447854 
-0.06742651004793052 
-0.02815475985511084 
-0.01784888900326873 
-0.006046856983549075 
-0.003400846233668143 
0.0001993275119829804 
0 
2.869842630786206e-05 
0.0004132168899989374 
0 
-5.263429229196330e-05 
0 
0 
0 
-1.446401364147593e-05 
-6.527667928056259e-08 
0 
0 
-1.177012600874558e-05 
-0.0001263561364166805 
-7.921664772159589e-06 
0 
-0.003972147077555307 
0.01174532066779063 
0.01227096188797176 
0.01295929423493877 
0.04744785126214842 
0.07442274558248636 
0.08202974828252574 
0.08869407792887693 
0.07193241270563971 
-0.005243673434819807 
-0.05538557294828866 
-0.1250452617462493 
-0.2430258310483529 
-0.2657974317464177 
0.04629226971876700 
-0.1707042061442895 
0.03478535255853624 
-0.003946023753888415 
0.1327725357267053 
0.003272947899271570 
-0.02221543043515696 
0.1165881522611808 
0 
-0.06754746274243653 
-0.2657794937240641 
-0.3331309234065424 
-0.2503490681397925 
-0.2381755998527174 
-0.1821779729869920 
-0.1920396805259807 
-0.1873838165784630 
-0.1314152137368428 
-0.1589547415555902 
-0.09520307117228671 
-0.07711690404904434 
-0.06166544909157828 
-0.04278136420777898 
-0.04938922783584649 
-0.04631815940760984 
-0.01759134076056625 
-0.01433946064705524 
-0.009258506429983129 
-0.003602053454693240 
7.911513048767853e-05 
2.191760014238652e-05 
3.105778843216726e-05 
0.0006283550090092491 
0 
-0.0001471428770882080 
0 
0 
0 
-1.285590591596153e-05 
-7.983528002262979e-08 
0 
0 
-7.578453233132739e-06 
-0.0001690835352288224 
-1.450671108662033e-05 
-8.936567536031030e-06 
-0.005112292986060343 
0.01526479415854567 
0.01816829345374750 
0.03950974828587597 
0.06297088590210695 
0.08663368304273131 
0.09325533367743857 
0.09767533720779266 
0.07179199239292476 
-0.01095323356211948 
-0.07703756033857834 
-0.1398323801296279 
-0.2484590790884595 
-0.3313109926890872 
-0.04993811192055903 
-0.1036871588713597 
-0.05308306824184383 
-0.01371079317143028 
0.1302623408821011 
0.06941486555425967 
-0.02515347801897963 
0.1362038381611468 
0 
-0.1428292325483767 
-0.2573146541395670 
-0.3076202272974731 
-0.2301322147720263 
-0.2306865228066812 
-0.1499612669074517 
-0.1632840795652726 
-0.1612566659686760 
-0.09444931305856323 
-0.1033469274991385 
-0.05304251200755895 
-0.04877143327511158 
-0.04115580057996961 
-0.02664312401771189 
-0.02603774659713216 
-0.02659832475170358 
-0.01029957930172190 
-0.01093957731980462 
-0.009886291948758045 
-0.003738298665639182 
-5.339623397315812e-05 
3.795758654180206e-05 
4.245639674124254e-05 
0.0005450799470649116 
0 
-0.0001676396951503915 
0 
0 
-1.645554702557838e-05 
-3.308081101559365e-06 
-5.223148349113283e-08 
0 
0 
0 
-5.071146087427705e-05 
-9.770707581688594e-06 
-1.024194480094129e-05 
-0.005437332703728573 
0.009157745044801963 
0.02119548359057515 
0.06775382502615016 
0.07452507133709059 
0.09041460421671696 
0.09851925490278593 
0.09323063867126263 
0.07214943534533827 
-0.01826002976001971 
-0.1285252985848054 
-0.1785602319953804 
-0.2283986982838330 
-0.3517813333757427 
-0.09898703040130716 
0.01619494223490888 
-0.1183772702977891 
-0.008757008141140860 
0.1122143863914242 
0.1010727106306584 
-0.07793695914705324 
0.08286030968436799 
0 
-0.1725217022999687 
-0.2009692578983677 
-0.2617112371024798 
-0.1960603681783151 
-0.1901289321402668 
-0.1145970747235232 
-0.1186493623752815 
-0.1209645640459134 
-0.06916904954148068 
-0.05868309230097907 
-0.02941817615076304 
-0.02958113331693383 
-0.02749909041952527 
-0.01765280970711200 
-0.01372612090214809 
-0.01416171588575449 
-0.006211928601369978 
-0.008214808118789569 
-0.007887269544725120 
-0.003542322041067179 
-0.0001823976137554184 
3.706542860420779e-05 
2.786115769824683e-05 
0.0001559844181549321 
0 
-3.750237809990750e-05 
0 
0 
-2.045019068758456e-05 
0 
0 
0 
0 
0 
-1.246198552233414e-05 
0 
0 
-0.004758280376231871 
0.001150905550567768 
0.02071267292608539 
0.07603437353647668 
0.07849740533265186 
0.08234938188895909 
0.08988828821692780 
0.08295509749510596 
0.08979539778063586 
-0.02932423512414055 
-0.1758289915295745 
-0.2153858224286850 
-0.1839169400857596 
-0.2922992987940190 
-0.09166439917132160 
0.1344268526877464 
-0.08235357023100814 
-0.01488177435397885 
0.09242971384098200 
0.09450394977135770 
-0.06726380149615822 
-0.02373659673547392 
0 
-0.1572312852291380 
-0.1485958405627812 
-0.2114649827107122 
-0.1720865286467050 
-0.1453038569180468 
-0.09217859397158497 
-0.08090691525358798 
-0.08043204157075870 
-0.04973072885560516 
-0.03495109287162886 
-0.01822538961701370 
-0.01829113711981824 
-0.01769456744110568 
-0.01164246131597800 
-0.007039137329938809 
-0.006965806014570301 
-0.003474983877941433 
-0.005054996201062726 
-0.005028284779134970 
-0.002374949983548212 
-0.0002250846919905735 
-2.363985129192513e-05 
0 
0 
0 
0 
0 
0 
-1.621706083680169e-05 
0 
0 
0 
0 
0 
-6.612105739100253e-05 
0 
0 
-0.003421210476267909 
0.001847818987755568 
0.02166275631013014 
0.05860675564602180 
0.07490980106941346 
0.07144858772364682 
0.07703660318981799 
0.08223398572666515 
0.1263298155666731 
-0.05610592821892424 
-0.1863849817107454 
-0.2354228521188324 
-0.1248610301305518 
-0.1360781905510178 
-0.03826253200163871 
0.2213325009743728 
0.03358191837169441 
-0.07224016866177768 
0.04138266755123300 
0.04907524052146269 
-0.002867045463396125 
-0.07987653652019723 
0 
-0.1244432147578248 
-0.1026722983412953 
-0.1483251269637653 
-0.1416865347903156 
-0.09701665844629291 
-0.07378507081332522 
-0.05646890033123889 
-0.04164215750904832 
-0.03760512548700198 
-0.01952466810131234 
-0.01177623212648365 
-0.009802367102178435 
-0.007908328329230710 
-0.004884825323850837 
-0.002330011435123899 
-0.002123197325556025 
-0.001001839125570007 
-0.001716803955916748 
-0.001630551383987372 
-0.0008220158889871057 
-0.0001299411987714316 
-2.442155755518606e-05 
0 
2.670499532745433e-05 
0 
-2.646977960169689e-22 
0 
0 
-7.989287324012489e-06 
0 
0 
0 
0 
0 
-0.0001719444716667082 
0 
0 
-0.001828345943445702 
0.008117437625751940 
0.02594059779051075 
0.03406072567375924 
0.06039985754628057 
0.07097204982394010 
0.07755561524717045 
0.08870408271065235 
0.1592411661479388 
-0.07000729200016774 
-0.1621810588132518 
-0.2487857581241804 
-0.07280474178829406 
0.04466915576065785 
0.04116982869505574 
0.2811530498388214 
0.1340611432306665 
-0.1591861432317166 
-0.05995093455266565 
-0.02731221843350968 
0.008338402519676222 
-0.06202414445374457 
0 
-0.09866476708264332 
-0.07353098634610158 
-0.09560725723852309 
-0.1159282779942963 
-0.06052036055851709 
-0.06068183781200941 
-0.03856959492726755 
-0.01740750014304196 
-0.02666407285441232 
-0.01114011827601662 
-0.01009915369715531 
-0.004425563360099509 
-0.002807294308220767 
-0.001814630067038634 
-0.0004933837966178681 
-0.0005934850422872176 
-0.0002946551383309781 
-0.0002827059997924978 
-1.454001062654745e-06 
-9.862212310638215e-05 
-4.408560461649548e-05 
-1.268156551306006e-05 
0 
2.390419144720277e-05 
0 
-1.376428539288238e-21 
0 
0 
0 
0 
0 
0 
0 
0 
-0.0005332649515033176 
0 
0 
-0.0004095054908329098 
0.01120940955865259 
0.03152286012350816 
0.02783294969207417 
0.03847866827839069 
0.08505989368358455 
0.09675637980321490 
0.08961501788376110 
0.1663286273982414 
-0.04423173469241230 
-0.1386151171570508 
-0.2590115524655145 
-0.03857684525539799 
0.1681323079183554 
0.1477643247508855 
0.3356126580455762 
0.1383472721184700 
-0.2530634860480567 
-0.1818368112917441 
-0.1018328088909007 
-0.04923899130072656 
-0.04711925758766723 
0 
-0.09102298406737776 
-0.06067635402351120 
-0.06611360694063767 
-0.09449691971234314 
-0.03566884564399351 
-0.05195069228935674 
-0.03020026420224014 
-0.01042842042942987 
-0.01685837376259363 
-0.007799955248588071 
-0.01003261152787745 
-0.002065662510050056 
-0.001378038189546265 
-0.002044765569287475 
-0.0008315629001057155 
-0.001196791431490189 
-0.001044313876131071 
-0.0004421046846107390 
-1.696781779663532e-05 
8.146267099523783e-05 
-1.121948821877856e-05 
0 
0 
3.670222193910532e-05 
0 
-0.0003391429249338939 
0 
0 
0 
-3.780789008543906e-05 
0 
0 
0 
0 
-0.001927800071785946 
-2.899416196982068e-05 
0 
-1.720838106086859e-05 
0.007327030240787472 
0.03348470058489957 
0.02972600356708891 
0.02380271745044491 
0.1033716888531095 
0.1061050646703662 
0.07904132656551038 
0.1478243780934166 
-0.0005939406042722927 
-0.1321346541882069 
-0.2452922523792966 
-0.01445343413299674 
0.2094376450795121 
0.2375977317960213 
0.3875681775458104 
0.05033347494894693 
-0.3411269305217265 
-0.2722625725175950 
-0.1623693693862676 
-0.09059104307273594 
-0.04175737938275068 
0 
-0.08954800439527491 
-0.05921794014470096 
-0.04835810358249045 
-0.06999807065721192 
-0.02120219084539065 
-0.04348531912129065 
-0.02511477524349407 
-0.007179316701309901 
-0.01025710096571228 
-0.006737649761225941 
-0.008715697385260603 
-0.002328224630149277 
-0.001125591462073548 
-0.001806941833710407 
-0.001091062742741335 
-0.001227440069216650 
-0.0009817452672896200 
-0.0002665305662456138 
-2.369478785186040e-05 
0.0001340676417202046 
0 
0 
0 
3.421647436487804e-05 
0 
-0.001933962066563382 
0 
0 
0 
-0.0001038049172053410 
0 
0 
0 
0 
-0.003361928846591359 
-0.0001102922278760878 
-3.216616535565718e-05 
-1.365447627655864e-05 
0.001235571667843841 
0.02754083012802083 
0.03279107091867801 
0.02186280146154426 
0.1167227183850446 
0.09035024537566073 
0.06952563123563621 
0.1262606600120323 
0.03990241972008335 
-0.1214360291416214 
-0.1910401132177161 
0.008490656215851402 
0.2058240043070277 
0.2386276068468981 
0.3804352932218297 
-0.09502563994426996 
-0.3799813825087741 
-0.3294478553969842 
-0.2116258241175492 
-0.1173093912511415 
-0.04714866481999399 
0 
-0.08695322009742433 
-0.06129807688755494 
-0.04250234307676937 
-0.04614314378744518 
-0.01243920949436398 
-0.03433840588737917 
-0.02284233730922882 
-0.004963404190435149 
-0.005134764254261032 
-0.004887634170658319 
-0.005438179290937525 
-0.002301677858045138 
-0.0008107825203593353 
-0.001096437404478719 
-0.0009752136791352172 
-0.0009854379057528680 
-0.0005733078279984435 
-4.809734278078282e-05 
-5.695790522590270e-05 
-2.096947774642980e-05 
0 
0 
0 
0 
0 
-0.003602652165297456 
0 
0 
0 
-0.0001430091144117810 
0 
0 
0 
0 
-0.004301536768384957 
-0.0002096835072623194 
-0.0001048360607939268 
-6.733714328165793e-06 
-0.0001474885143662772 
0.01799227238578083 
0.03245756343941515 
0.01353535451884328 
0.1084218681244468 
0.06334064508361403 
0.06730419995019185 
0.1049870149134287 
0.06620344766194179 
-0.09006250040497316 
-0.1295858715247325 
0.01617165115783505 
0.1702715255326917 
0.1537946335454880 
0.2658100715405187 
-0.2452331631340197 
-0.3088549658588036 
-0.3554280823342633 
-0.2478338835847311 
-0.1398017882886120 
-0.05317730223609761 
0 
-0.08867171893505348 
-0.06108222192780537 
-0.04423861655336024 
-0.02596073508415880 
-0.009626728117044730 
-0.02576471559340514 
-0.02116394397750528 
-0.003984698931913448 
-0.002053095130683184 
-0.003058436409087153 
-0.002960069783844231 
-0.001690195361320962 
-0.0008414631191616160 
-0.0008967191124727749 
-0.0008596882137899973 
-0.0009670486910531331 
-0.0003395722308995410 
-0.0001042760016649122 
-0.0003030870601795329 
-0.0001100598844360959 
-7.687006755744425e-06 
-4.235164736271502e-22 
0 
0 
0 
-0.004609538589265788 
0 
0 
0 
-0.0001157741575719749 
0 
0 
0 
0 
-0.004020362398803915 
-0.0002274030777211689 
-0.0001453035387244910 
-5.122386487847688e-05 
-6.984138479793716e-05 
0.007665175652734839 
0.02006734508284913 
0.007713175145430524 
0.08652993495553254 
0.05598180778459733 
0.06473243680510242 
0.09232179835238667 
0.09346061770063141 
-0.02971540597931687 
-0.07832082366297431 
0.01590151876652205 
0.09190445786719942 
0.05091186276447399 
0.1133611041885543 
-0.3023364322113886 
-0.2128392122845856 
-0.3695417964707699 
-0.2605022857854291 
-0.1536122194243014 
-0.06625995569852401 
0 
-0.08917736833096492 
-0.05561117290824202 
-0.05015315962140252 
-0.01145316173265945 
-0.01360926874060971 
-0.01827428289900268 
-0.01889136273679949 
-0.002855099213988836 
-0.002106278647878212 
-0.001428197087313839 
-0.001375117598905373 
-0.0009272894182284926 
-0.0009735453911675357 
-0.0007549725817467070 
-0.0006146847233799815 
-0.0007871577351331552 
-0.0001831463241723081 
-0.0001568179389795624 
-0.0004101211100147804 
-0.0001729540668742783 
-1.207977899765995e-05 
-1.694065894508601e-21 
0 
0 
0 
-0.004308231364270723 
0 
0 
0 
0 
0 
0 
0 
0 
-0.002733730404408986 
-9.691158841363750e-05 
-0.0001015855945749699 
-0.0001422259954889967 
0.0002928765047198343 
0.002367538644044832 
0.006110031074225259 
0.008752220570277617 
0.05791195828922297 
0.06747117773804012 
0.05919317276927028 
0.08471705103466860 
0.1002443715674148 
0.02894425302582202 
-0.05029772814898883 
0.01187573712424073 
0.0006364596636752852 
0.01219296852238691 
0.04670460285113820 
-0.1929320557676054 
-0.1859148226258582 
-0.3874159896248672 
-0.2457857792250180 
-0.1513451734354760 
-0.09132681481241580 
0 
-0.08655169277451003 
-0.04837320266994006 
-0.05546692964713720 
-0.006512664370769725 
-0.01940441430908278 
-0.01381151628033241 
-0.01672674669848133 
-0.002380097973606629 
-0.003603485550369378 
-0.0005497005311302466 
-0.0002487947980972019 
-0.0003621472208849378 
0.001785572458218866 
-0.0004075046049312233 
-0.0002807931871870566 
-0.0003810414143694395 
-0.0001165964574140345 
-0.0001259829219831036 
-0.0002642965004827499 
0.002505016945489342 
-8.262240579535297e-06 
-4.235164736271502e-22 
0 
0 
0 
-0.002929472993091166 
0 
0 
0 
0 
0 
0 
0 
0 
-0.001552451117512823 
0 
0 
-0.0002944246554373350 
0.0003129334045983168 
3.970417194444576e-05 
-0.002235143112141875 
0.01028221495590673 
0.03579120410821629 
0.06350267817648766 
0.05215120640284618 
0.06560325734886328 
0.07610878098387913 
0.05335108177416272 
-0.03510031066925492 
0.01391594008394998 
-0.03943305090176872 
0.02287265404786992 
0.06269334238285850 
-0.005833309949694819 
-0.2107833301153803 
-0.3795579930067527 
-0.2214107216407549 
-0.1206644317034182 
-0.1233855336477733 
0 
-0.07898882276346529 
-0.04470926779658431 
-0.05862919194499244 
-0.003434989154897432 
-0.02168459133601727 
-0.009985830771347992 
-0.01448194480211529 
-0.002222061292786128 
-0.005940190915484230 
-0.0007441114907092495 
-0.0001609086961977671 
-0.0004746588792312175 
0.004329223067759768 
-0.0001994991071424481 
-7.219464927361715e-05 
-8.597971407551077e-05 
-5.889795305547700e-05 
-0.0004153008857535535 
-5.487075163974790e-05 
0.005140269907052574 
-5.090528663164512e-06 
0 
0 
0 
0 
-0.001201857229688932 
0 
0 
0 
0 
0 
0 
0 
0 
-0.002153988087571262 
0 
0 
-0.0001967163487096857 
0.0001073021423400234 
7.535725280612702e-05 
-0.004990929779337502 
0.004858965487556250 
0.01988725278305425 
0.03909836262076494 
0.04283845049886354 
0.03153559641438138 
0.04044262464927317 
0.03450986530058404 
-0.02155631524072927 
0.008392507833978368 
-0.002513661561725974 
0.07029362953489790 
0.05377665649637698 
0.1214621038742392 
-0.2100652122453049 
-0.2912716380352533 
-0.1786902422833151 
-0.05382101863561419 
-0.1519941795302522 
0 
-0.07045673116202374 
-0.04633424968577572 
-0.05890644276309463 
-0.004129059909775855 
-0.01975288301507150 
-0.007514896350171564 
-0.01224378843521496 
-0.001869737438558766 
-0.006879467186538544 
-0.0009736833902929522 
-0.0004279234189123209 
-0.0005071657647162909 
0.004440378387154079 
-0.0002213108763303258 
-6.361480095475803e-05 
-6.677034947069940e-05 
-7.051971395903266e-05 
-0.002568686543597530 
3.483422995583310e-20 
0.005161491424220170 
-5.617712495908284e-06 
0 
0 
0 
0 
0 
0 
0 
0 
0 
0 
0 
0 
0 
-0.004094543389165650 
0 
0 
-0.0001319934550700821 
3.049894355299045e-05 
0.0004707277062491490 
-0.006996438610845457 
-0.0009772607324094727 
0.009166398619328586 
0.005306746181386486 
0.02812265677145100 
-0.0006546489284787567 
0.01814998127953891 
0.007462328076654958 
-0.006132907413333406 
-0.008713799533147064 
0.03963155703709191 
0.09075764059709440 
-0.0005811656798728529 
0.1503483904169585 
-0.1551532567724658 
-0.1470613492070165 
-0.1154818129453198 
0.01472823015793044 
-0.1807218730160134 
0 
-0.06229267248815388 
-0.05370818784053291 
-0.05692539346149751 
-0.005943505415371308 
-0.01436949909958743 
-0.006158499586335733 
-0.008529794441025000 
-0.001221433923658448 
-0.005706690409753199 
-0.002142074849746452 
-0.0005169615455072924 
-0.0003896461860875195 
0.002143894253335113 
-0.0002078080990064023 
-6.451929507767520e-05 
-7.644992978005399e-05 
-6.951928262017335e-05 
-0.005600494549698620 
8.046812998915853e-21 
0.002617377898842972 
-3.769393275083683e-06 
0 
0 
0 
0 
0 
0 
0 
0 
0 
0 
0 
0 
0 
-0.005702132639558244 
0 
0 
-3.791172307849293e-05 
1.270549420881451e-21 
0.0008007453154581009 
-0.007474955768593779 
0.0001751868503664708 
0.0001958128938279301 
-0.01058353257939657 
0.01442634500594869 
-0.02158356770426425 
0.009029927441417679 
-0.007871193781383950 
-0.0008834867034617826 
-0.02053766534981926 
0.03194737346578244 
0.06225832624569087 
-0.05122090005980776 
0.1158758132600248 
-0.1090555308056653 
-0.01652706344102002 
0.01043520218427061 
0.06233935829066659 
-0.1505503192319257 
0 
-0.05537850020042296 
-0.06104111250298919 
-0.05461430016496446 
-0.006497663139542119 
-0.007503758866640910 
-0.004926342389185719 
-0.003869059217654305 
0.004552444014840854 
-0.003068775360704939 
-0.003242655404425299 
-0.0003126436297238210 
-0.0001513570106561252 
6.009681318674539e-07 
-9.538589452292986e-05 
-2.697014817837681e-05 
-3.905828964615383e-05 
-2.820333174534793e-05 
-0.008323954081013179 
-2.488159282559507e-21 
-4.228051300855647e-06 
0 
0 
0 
0 
0 
0 
0 
0 
0 
-0.0004553896268829242 
0 
0 
0 
0 
-0.006426995806451245 
-0.0004794874099058028 
-0.0001365399168206762 
0 
1.661949103143412e-05 
0.0005226584057417703 
-0.007123508533208613 
0.0001218049680794623 
-0.006760214439990132 
-0.01096508082818115 
0.001815938530419689 
-0.02442239076414865 
-0.005474132936205930 
-0.02268603529720390 
-0.01784551816098504 
-0.04246431832081860 
-0.01440340342030484 
0.01426221134981488 
-0.05397092208194913 
0.05314065864008535 
-0.08846956391952743 
0.04309833813371742 
0.1749426577283610 
0.09718069463549026 
-0.06766688567595432 
0 
-0.05031600433211189 
-0.06742024103261564 
-0.05253568403875485 
-0.008989499365447273 
-0.003424020154548835 
-0.005298243817189168 
-0.0006708319379552082 
0.01127213399569579 
-0.0007409908532007818 
-0.004303710649657818 
-0.0001991421973693788 
-9.919378568221254e-05 
4.491358270382253e-05 
-4.210817995272478e-05 
-4.523700249504273e-05 
-4.230557985306428e-05 
-3.351483075752903e-05 
-0.009787703388673482 
-2.723712946601806e-06 
0 
0 
0 
0 
0 
0 
0 
0 
0 
0 
-0.001637298711605432 
0 
0 
0 
0 
-0.006072074539683802 
-0.002484351859737372 
-0.001287999717240493 
-0.0005824006175696673 
-1.739828418581776e-06 
-4.512743442741337e-05 
-0.006588778793933007 
-0.004010964350091683 
-0.01026876972833229 
-0.01044578506004528 
-0.008620533378506618 
-0.02268960825783354 
-0.02806009635482336 
-0.03987875610978642 
-0.04267116346280862 
-0.06097659611926264 
-0.04965745190987633 
-0.02245470020970898 
-0.02965057916923493 
-0.02498722763437861 
-0.08260477731409825 
0.01222299277767385 
0.3001089861504626 
0.1310342406080274 
-0.01754232751644921 
0 
-0.04950305496122982 
-0.06948971463058277 
-0.05214012381150575 
-0.01300873599244996 
-0.003092579353598088 
-0.006003348688093056 
-0.001024621333370924 
0.01502976534687112 
-0.0001968483733166298 
-0.005974338095212814 
-0.0003265799481474764 
-0.0001888196247625416 
-0.001418253605874603 
-0.0001105854186422772 
-0.0001089034187296238 
-0.0001033046135041275 
-5.749838982109743e-05 
-0.009309682827318456 
-3.183823438112629e-05 
-1.196296961472236e-05 
0 
0 
0 
0 
0 
-0.0001333812599966991 
0 
0 
0 
-0.003169289874318739 
0 
0 
0 
0 
-0.004695375924709672 
-0.005195584634016896 
-0.002898476050865744 
-0.002093849837420886 
-6.503386420205083e-06 
-0.0001213458553086814 
-0.004767063222227348 
-0.004427649473089797 
-0.008141506131834678 
-0.005722877327805895 
-0.008728081320374975 
-0.01444544579958277 
-0.02853970617011513 
-0.03260444187412457 
-0.03461921615902329 
-0.05271040109295313 
-0.04411100325075047 
-0.02764979866989834 
-0.01179917562156179 
-0.05728118065438557 
-0.08305531872755424 
-0.05946160094399414 
0.2952729370103609 
0.1686169774801514 
-0.03212373035299674 
0 
-0.03977123967639683 
-0.06559041146394426 
-0.04051556025813616 
-0.01279187396822674 
-0.002867175395092277 
-0.005053179507506138 
-0.001102693775669655 
0.01355764281972030 
-0.0001914145507230808 
-0.007491203436747052 
-0.0003143759405209168 
-0.0001854827601133747 
-0.004011864655611367 
-0.0001155171760413855 
-0.0001002887101349548 
-0.0001036541172961116 
-5.501414942234157e-05 
-0.007145195259423175 
-3.806589328418404e-05 
0.0001716376124420936 
0 
0 
0 
0 
0 
-0.0002073208715166152 
0 
0 
0 
-0.004934669089025911 
0 
0 
0 
0 
-0.002541885831830940 
-0.008377729624595051 
-0.004814963406627953 
-0.004043847399383180 
-1.379196059185706e-06 
-0.0001063814430610767 
-0.002449062280803246 
-0.001987900287201418 
-0.004705151954021838 
-0.001888349951544482 
-0.004414588459439644 
-0.005770613758376657 
-0.01456310671144287 
-0.01162914470315671 
-0.008139558756184447 
-0.02847438916409903 
-0.03295339938750378 
-0.03595065620845143 
-0.006651302248355231 
-0.07060968538138900 
-0.08674859063182305 
-0.1349660527309090 
0.1534003373169058 
0.2040225623559537 
-0.09885285549475352 
0 
-0.01838228903996627 
-0.05712358575399702 
-0.01716136507073479 
-0.009751062704545597 
-0.002272694718672327 
-0.002836785576606863 
-0.0006648818607369528 
0.007843479691041431 
-0.0001137619659151384 
-0.008762390631706985 
-0.0001861847627872366 
-0.0001106222831381916 
-0.004639940477098024 
-6.463763303718552e-05 
-4.567628574773128e-05 
-6.226237113606377e-05 
-3.251164157365472e-05 
-0.003854219642074837 
-2.408506775112565e-05 
0.0002080847788699989 
0 
0 
0 
0 
0 
-0.0001391804452139545 
0 
0 
0 
