solver_type L2R_L2LOSS_SVC_DUAL
nr_class 2
label 0 1
nr_feature 2999
bias 1.000000000000000
w
0.006994922898257710 
0.006465167322545942 
0 
-0.01447152293360043 
0.009169528470892313 
0 
0 
-0.006652676647035106 
-0.004879870039751496 
0.004133252440585197 
-0.01128199115613702 
0 
0.007135450497592918 
5.421010862427522e-20 
0 
-0.005720677947635121 
0.007227672561058902 
0.001641982749639939 
0.009880856787177183 
0.01244746279112533 
0.005869202427858282 
-0.02481905182466536 
-0.003657587182227182 
0.001418382065137464 
0.004125383997559843 
-0.0009597149017601828 
0.005850494680931006 
-0.05013308168685676 
-0.02195534128621373 
-0.06597530171544905 
0 
-0.1677172802218737 
0.2087371494224009 
0.1162384859369459 
0.06950011126041114 
-0.01986906010907923 
-0.001619285579835746 
-0.001008727623265620 
-0.009182603292699864 
-0.008093310225921016 
0.001223953749079086 
-0.01336664802561736 
-0.004081716198977937 
0.001434066133810480 
2.710505431213761e-20 
0 
-0.001504622969185148 
-0.005298465468675743 
-5.677127276498912e-06 
0 
-0.002406562987838540 
0.006462399070892583 
0 
0 
0 
0.006872966476724757 
0 
0 
-0.01050214431793039 
0 
0.004552689264156170 
0.004161763643095643 
0 
-0.01313799732659877 
0.005823430262759452 
-0.002380252748897181 
0.001314101194143014 
-0.002485238548378976 
-0.004793356607523630 
0.003037870989765407 
-0.01318814135616423 
0 
0.003793108336471543 
-0.0003122004942586808 
0 
-0.003726946939295887 
0.004446057556333208 
0.001148413064743155 
0.007819496784765352 
0.009772108974675140 
0.006409822236766266 
-0.01551453543313928 
-0.003912796363531034 
-0.001414769791646648 
0.008041111954366664 
-0.004700934347232463 
0.003697804153280133 
-0.02609034452151294 
-0.01698894568184485 
0.006510528781850026 
0 
-0.07984782360061801 
0.2156592748845476 
0.1122558264665191 
0.1018220303051139 
-0.008570937755749537 
0.005433092368578384 
0.003767639671930696 
-0.002862877014951751 
-0.008573809241340987 
0.0002586512353223162 
-0.01022563009742605 
-0.002537964124024805 
0.001253995246939546 
0.0007125852959073635 
0.002476544437393273 
-0.001196226971642748 
-0.003692504614454630 
-0.0001552978917007425 
1.521548180853142e-06 
-0.005508352907038983 
0.004691456263696828 
1.202764398500323e-05 
0 
2.710505431213761e-20 
0.004473313165365107 
0 
-0.003219312358798292 
-0.007602547437968472 
-0.003718933824747475 
0.002357321316584628 
0.002103446723003217 
0 
-0.01191542415047048 
0.002894243043661105 
-0.004707317974087014 
0.002422816754964538 
0.001257247809334118 
-0.004642362289218534 
0.002003705257367268 
-0.01471393450915945 
0 
0.0007317464782979384 
-0.0005463508649526914 
0 
-0.001937231026616060 
0.001998282508731424 
0.0006913300796704302 
0.005835979336840939 
0.007362430963000899 
0.006686329035971316 
-0.007026900075643306 
-0.004146191598146531 
-0.004281472553945548 
0.01138502458159467 
-0.007864497937420547 
0.003324002713882896 
-0.004329802788487259 
-0.01154585791598600 
0.06794507678545375 
0 
-0.01410928064424248 
0.2112843034653303 
0.1088830046993497 
0.1302448738763309 
0.004535018995779702 
0.01188622473651807 
0.008439787078032416 
0.002976816799658715 
-0.008897315855703997 
-0.0003710235121695614 
-0.007440354236870873 
-0.001357075782732897 
0.001006483403524791 
0.001180797839712124 
0.004464949428232378 
-0.0009135544404260182 
-0.002243222121099173 
-0.0003284194805484943 
2.391810544117708e-06 
-0.008236102666356397 
0.003024546809847346 
1.791617801932772e-05 
0 
2.032879073410321e-20 
0.002316221439380028 
0 
-0.006142091765248017 
-0.004882734015086212 
-0.007022037439584185 
0.0006556847420730766 
0.0005353033216265250 
0 
-0.01091475583608893 
0.0007988778026317637 
-0.006928008151862152 
0.003120761049143084 
0.004149830685161144 
-0.004362406198758980 
0.001091970961812438 
-0.01547901356809069 
0 
-0.001767654773980123 
-0.0006244009885173620 
0.0001204175639792960 
-0.0005555453052550490 
0.0002181873753774538 
0.0003037882840682989 
0.004008146997891367 
0.005544101773808377 
0.006434609815770518 
-0.0001730267862074928 
-0.004342927256213374 
-0.007215194659334558 
0.01362492667576237 
-0.009872749817040212 
0.006606547300897278 
0.01286645293475370 
-0.005118425375393269 
0.1073120353875946 
0 
0.007367868078136729 
0.1873982151095022 
0.1077866086692070 
0.1545611036703983 
0.01870470620273767 
0.01734893605598722 
0.01288696034447663 
0.007907217771691260 
-0.008871135345289792 
-0.0001993067701439105 
-0.005362881710475151 
-0.0009131251353169767 
0.0005919104760030128 
0.001153317013977006 
0.005477075525963133 
-0.0006823288418606173 
-0.001107296349475023 
-0.0005485427182432630 
1.959501272205057e-06 
-0.01021577210590779 
0.001565704062690396 
1.152649215229477e-05 
0 
1.016439536705160e-20 
0.0006442528841441003 
0 
-0.008471805267000617 
-0.002522487506363274 
-0.009493480634599375 
-1.355252715606881e-20 
-1.535085821023971e-05 
0.0009115603951765186 
-0.01092268104386479 
3.300646365121814e-05 
-0.008989135758515256 
0.003183662127815541 
0.005612080134659905 
-0.003889007450067727 
0.0003638838215225753 
-0.01510302148592595 
0 
-0.003425604860122414 
-0.0004683007413880207 
0.002876979275345450 
-2.752857078576476e-21 
-0.0002448190413485832 
2.945986125500615e-05 
0.004629850212335560 
0.005328405633350903 
0.005669307746522342 
0.003622596968122193 
-0.004489880099037443 
-0.008477451693904889 
0.01423884846872115 
-0.009762913894323951 
0.01481987643316776 
0.02262171487072149 
0.003622925705988102 
0.1145290144388446 
0 
-0.03042204873647060 
0.1400164163377998 
0.1088130533324620 
0.1720703908599083 
0.03811959474629849 
0.03025072776746675 
0.02653732066636724 
0.01391821654168327 
-0.003717267026974794 
0.001320846814360643 
-0.003941686356678392 
-0.001256759122477365 
8.350217603753173e-05 
0.0004729397063621308 
0.005112684682715091 
-0.0005009112461540172 
-0.0004251287307780679 
-0.0007772855642911353 
2.053609055667916e-05 
-0.01107332106581014 
0.0004326079587381348 
0 
0 
-2.117582368135751e-22 
0 
0 
-0.009911919911707501 
-0.0007015913688793124 
-0.01071743319988229 
-0.0004254783709128037 
-0.0002280381826824526 
0.003627531435126416 
-0.01049286751704972 
0 
-0.01083751327033897 
0.002526834917008253 
0.005467375348674645 
-0.003104397804233960 
0 
-0.01330209596567195 
0.001895420434002025 
-0.003761417483946495 
-0.0009555547180699662 
0.005705934706693561 
-8.890391705730644e-06 
0 
-1.159052639667400e-05 
0.007619269775794368 
0.005387281236215679 
0.004163593781349395 
0.004118082837970619 
-0.004314877922688752 
-0.007805851504039694 
0.01255674320872597 
-0.008344404820653168 
0.02230088023298277 
0.02246029652721034 
0.01003066766318941 
0.08984680607500434 
0 
-0.1018140710832360 
0.07255456564436980 
0.1101190148048335 
0.1757711770023341 
0.07007256457829955 
0.04948734098756202 
0.05169506907587737 
0.02143706054182347 
0.01316470142041709 
0.006579829366131919 
-0.003062000435513359 
-0.0009662841313458885 
-2.779681739859773e-05 
-0.0003362644924511506 
0.004641462544433439 
0.0002657704272348143 
0.0001211192828906538 
-0.0005670732214410285 
0.0002008589451183642 
-0.01043797124218775 
-0.001034445438633666 
5.221168851471203e-05 
0 
0 
0 
2.333213511718437e-05 
-0.01016590274702013 
0 
-0.01029569628899503 
-0.001051915650828540 
-0.0005637817331009035 
0.006233516441651461 
-0.008496956225552837 
0 
-0.01240146893095623 
0.001465957623874863 
0.004427393077332703 
-0.002854681005874506 
-1.372333298971049e-05 
-0.01077182447455483 
0.004512791567849389 
-0.003578748014577613 
-0.002388160927791124 
0.006726893101666533 
-5.390851492496839e-05 
-4.402454228868090e-05 
-6.767670346318987e-05 
0.009749531300088135 
0.004313555533460085 
0.001967649502644410 
0.003061597244776584 
-0.003598799091093032 
-0.004643395382039214 
0.008776975960053716 
-0.007342855959459698 
0.02482672639684686 
0.01740047908065187 
0.01241428286969125 
0.04963838529257998 
0 
-0.1555207099369950 
0.001671811106331045 
0.1057963736087566 
0.1551319073503308 
0.1007282527477010 
0.06467548341665505 
0.07224529931431854 
0.02699285709886382 
0.03190339015119058 
0.01075864138247212 
-0.002688896653366511 
-0.0004753054147873721 
0.0001803973391297668 
-0.001361927528594589 
0.004644642131139598 
0.001161877548958890 
0.0003183620786759946 
-2.450552861492422e-05 
0.0003529740262368926 
-0.008244318663306185 
-0.003910894503062572 
0.0002034184026390679 
0 
0 
0 
5.030408331264952e-05 
-0.009071099328986212 
0 
-0.01113406797532239 
-0.001625678251644514 
-0.0008712939116883464 
0.007575032346084597 
-0.005658801971148261 
0 
-0.01353539405331090 
0.0001877807704268183 
0.002905004044188820 
-0.002279636362283940 
-2.045255923052900e-05 
-0.007134906476893636 
0.006890686714543635 
-0.002932205222374332 
-0.003692151391892580 
0.005012336880361678 
-0.0001207401822397670 
-7.606881763528698e-05 
-0.0001056312570005994 
0.009501277078963736 
0.002592561897099723 
7.570924337532058e-05 
0.001616305031329106 
-0.002506629431529315 
0.0005874322074421814 
0.004626712715388444 
-0.005889213834002121 
0.02028244234744408 
0.01203162124635174 
0.01180408295700884 
0.01591481125802202 
0 
-0.1548234386904980 
-0.05421351458083275 
0.09745463466931371 
0.1238960956348345 
0.1245066632844109 
0.07836542456504501 
0.1005702160550324 
0.02980748707389286 
0.04553667737968065 
0.01235578636948327 
-0.002370330051476590 
7.232531312523894e-05 
0.0006402060167591848 
-0.002759096118194423 
0.004798756420027492 
0.001496094776506555 
0.0004119749624249889 
0.0002004566989841747 
0.0003662479055810724 
-0.005303042432234431 
-0.006976101929120448 
0.0003834241835026650 
0 
0 
0 
5.711706676686737e-05 
-0.007000369247238328 
0 
-0.01174095766952933 
-0.001826375215991519 
-0.0009280733984249590 
0.006743184336977383 
-0.002888239458161201 
-0.001842414244434029 
-0.01407519571767718 
0 
0.001304162127867565 
-0.001528499418602744 
-1.853322666012369e-05 
-0.003309444085457642 
0.008277701249272736 
-0.001908725374802916 
-0.004436521259728334 
0.002034469580290531 
-0.0001810785334973962 
5.155080248930437e-05 
-0.0001067391373450911 
0.006970672299517234 
0.0007648194695102915 
-2.164343820813383e-05 
-5.422094581377607e-05 
-0.001279617366645175 
0.003277963240385894 
0.001397263848956254 
-0.004522229505892818 
0.01139187606442047 
0.005126876113956418 
0.008032384305993923 
-0.0001786593716698356 
0 
-0.1028372397184181 
-0.08229182449088984 
0.08622485197714645 
0.09617556664272973 
0.1360713434687441 
0.09746141576411389 
0.1260110041095895 
0.02745791783245353 
0.04868878264851537 
0.01110349387357473 
-8.623547125644927e-05 
0.001359057826351165 
0.001771997294766718 
-0.003897213078442364 
0.006188218051052968 
0.001189720092869651 
0.0004572096345959209 
0.0002759634152179976 
0.0001679142136670989 
-0.002478849912420505 
-0.009350326195162928 
0.0006646342760808946 
0 
0 
0.0001285061772402698 
2.361212073859048e-05 
-0.004460450599805405 
0 
-0.01210571836629140 
-0.001741271069759295 
-0.001163488385508940 
0.004344675505068436 
-0.0004274296440391684 
-0.004945500219345997 
-0.01385678100432920 
0 
-5.022319520517040e-06 
-0.0007556835338029227 
-2.757036181465581e-05 
-0.0002321257007960957 
0.008000754031583419 
-0.001237568374739973 
-0.004223576455385532 
0 
-0.0001213957300303982 
0.0001031772796251236 
-1.583841672594254e-05 
0.003304467120216021 
0.0002478732921254466 
2.456556947429967e-05 
-0.001237647048741944 
0.001080325757899422 
0.004078904475850291 
0.0001859261198000266 
-0.002108722297978905 
0.002937818384683209 
-0.001559472465931823 
0.001535467717716662 
0.003435204684741457 
0 
-0.03614444137263977 
-0.09044382186040867 
0.07327387880653130 
0.07588250746819832 
0.1295733283834947 
0.1205347825762841 
0.1338372230902025 
0.02527621239631954 
0.03846217119473549 
0.005951363225345465 
0.004641810197263890 
0.005634729329514137 
0.005765553098483986 
-0.002308291681312642 
0.007731943080427099 
0.0005359437113615292 
0.0005422581316390527 
0.0002432159483997045 
4.427999400255960e-05 
-0.0001942417522451071 
-0.01035598648326439 
0.0009227160344515943 
0 
-6.352747104407253e-22 
0.0001321231644648751 
9.722168173718427e-06 
-0.001958081484716340 
0 
-0.01221770306028413 
-0.001373724276782412 
-0.001541628332916146 
0.001563796138629045 
-9.491345192519767e-05 
-0.008227991991706090 
-0.01271605699354114 
0 
-8.433898166421666e-05 
-0.0001144814945479934 
6.249615208455160e-05 
-2.658500348874771e-05 
0.006370322560692822 
-0.001379567580604861 
-0.003214675751360252 
-8.914862878785996e-06 
-5.082303107225612e-05 
-0.002206614913574016 
3.760496630064202e-05 
0.0001074390346780375 
-5.400204241219067e-06 
-8.952954131977444e-05 
-0.001283395561451101 
0.003748895395320207 
0.002375874699520954 
0.002063677850297827 
0.0008940718389068166 
0.002128792468271198 
-0.005106883238087271 
-0.002605140742425896 
0.01860416905354275 
0 
0.02178442422097116 
-0.09201547312926160 
0.05167217310012774 
0.05477980965071921 
0.09407889186683900 
0.1389182949907176 
0.1055493390120004 
0.03295132041610428 
0.02351113825976770 
0.003507626003615589 
0.01923495188723938 
0.01797834874769458 
0.01087629618844278 
0.006029258146556498 
0.01011608003877562 
0.001166615163661886 
0.002670258794963138 
0.002135284465225850 
0.0002407374310507151 
-2.622312881507308e-05 
-0.009426760499268905 
0.001005894107722126 
0 
0 
6.039254553968974e-05 
1.421426086375310e-05 
0 
-0.0001783662712033088 
-0.01302191505290045 
-0.0008164411404127773 
-0.001801160976951765 
2.371692252312041e-20 
-2.286988957586611e-20 
-0.01075048270123113 
-0.01058945440328638 
-7.034461083391030e-06 
-6.085031848957466e-05 
-0.002030471688470926 
9.745763724437780e-05 
-0.0001893993628499892 
0.003638392541535282 
-0.002412001606925820 
-0.004770701891714742 
-4.445900153607601e-05 
-6.990931015947243e-06 
-0.005342371929734332 
-1.023655480735151e-05 
6.788143381938015e-05 
-0.0003870865611847689 
-0.0002713058446209279 
-0.001272095488019279 
0.006100729132188164 
0.001375520759544436 
0.004484301443850107 
0.003216960475407749 
0.006625486664191042 
-0.006919372938800359 
0.002535676788579968 
0.03656643695308943 
0 
0.07051232850986683 
-0.1021613284022823 
0.01861893088942540 
0.02898809353238514 
0.04356649312324604 
0.1385052124029874 
0.04616246082129650 
0.04881722993433639 
0.01775933020870676 
0.009254513036180148 
0.04634118446094642 
0.03494526125250261 
0.01727489554597032 
0.01769407953440883 
0.01204091020887107 
0.002829836881683799 
0.005348748658307252 
0.005129187618921504 
0.0005553890113643979 
-9.164554536340994e-06 
-0.007227891599895672 
0.0009002660011109494 
0 
0 
4.697410514171413e-06 
9.045291251499991e-06 
0 
-0.0002203255287766521 
-0.01197509752198100 
-0.0002255675894820336 
-0.001835942124966216 
0 
-5.293955920339377e-23 
-0.01192514646539713 
-0.007815498502335308 
0.0001271704229775351 
-1.867030668318834e-05 
-0.005005312978427184 
8.266353653771183e-05 
-0.0002174182185625972 
0.001005602464895899 
-0.003137021741122511 
-0.007120264112925550 
2.603653266363496e-05 
-2.805847403582175e-05 
-0.008309788548645940 
-9.958001677456808e-05 
4.013225948970511e-05 
-0.0006315446533946195 
-0.0003791016640725785 
-0.001172574097037125 
0.007439559665120304 
0.001426168575062448 
0.006077259391466340 
0.004188055915014278 
0.01217128950532464 
-0.008360513469462108 
0.01234639760134175 
0.05113729200796147 
0 
0.1171183803120252 
-0.1181494632010759 
-0.01976272726751544 
-0.01866935342217519 
-0.004159542656536991 
0.1110196563362846 
-0.001674888413284493 
0.07213312803031390 
0.03490425424669723 
0.02761481516543881 
0.08576247847739665 
0.05560196890496307 
0.02751594461918941 
0.03275511039395103 
0.01466251792100517 
0.006681415536903722 
0.008479695190212244 
0.009726325700210113 
0.0005167315680096626 
9.269426440195590e-06 
-0.004235330488087403 
0.0009029417000402124 
0 
1.058791184067875e-22 
2.665380026438754e-06 
-3.726944967918922e-20 
0 
-0.0001599259835077996 
-0.009408915892481837 
-1.537364799266555e-19 
-0.001714583487349313 
0 
0 
-0.01179971296194789 
-0.004833238197157490 
0.0001277336994916146 
0 
-0.007928642812978618 
3.328737568231780e-05 
-0.0001677385295617814 
0 
-0.003169502762537062 
-0.01022220307620217 
0.0001695378431258402 
-5.206214109519638e-05 
-0.01032093422160194 
-0.0001638829491460704 
-4.332120817228037e-05 
-0.0004285865677601088 
-0.0004199856817550278 
-0.0009276276560514350 
0.007122255546551304 
0.001115540490196955 
0.006134062639502128 
0.004107274649207199 
0.01426915211189606 
-0.01131015300316488 
0.01882115652368206 
0.05636178006582557 
0 
0.1655894357192120 
-0.1392034344202043 
-0.06174556510290839 
-0.08541194974425556 
-0.03987842934572981 
0.05662719113634669 
-0.007883162175928415 
0.09574549970553804 
0.07066015670353838 
0.06219484749790920 
0.1261799046632348 
0.07956622373187584 
0.04211051205894033 
0.04861659299060446 
0.02170071684617109 
0.01527835243191242 
0.01206367331774005 
0.01477753411833956 
0.001396661801462978 
0.001205482379741582 
-0.001386682958581933 
0.0008451776060544155 
0 
0 
0 
0.0001799093553003444 
0 
-5.824833899060939e-05 
-0.006063951523152368 
-2.024408743937778e-19 
-0.001362354008272862 
0 
-0.0001548206736606883 
-0.01043432177238066 
-0.002081722394222525 
2.832926779246867e-05 
7.555061197764168e-05 
-0.01008459576459558 
-4.084709701643295e-05 
-0.0002743253898517316 
0 
-0.002588707511298697 
-0.01301812943043145 
-3.125646995622745e-05 
-0.0002050023051301767 
-0.01071276895153223 
-0.0002712017085602975 
-4.473748869254950e-05 
-4.315398296069109e-05 
-0.0002900155433649520 
-0.0005401341095444183 
0.004977168192618035 
9.403861344333505e-05 
0.004077262544213503 
0.002401932216728386 
0.01079680462319977 
-0.01794763134811307 
0.01596440697362532 
0.04979755547830905 
0 
0.1992010130252183 
-0.1601382543781414 
-0.08699433962053192 
-0.1496872211707905 
-0.06152527081896096 
-0.007468187765744573 
0.01913939254415936 
0.1036396446995567 
0.1194468557913344 
0.1092473919727148 
0.1539448957734101 
0.1067851113479903 
0.05999817713064842 
0.06455167962474292 
0.03699449092259006 
0.03129795998245395 
0.01623509920498357 
0.01949367056349888 
0.004440374481139892 
0.004160589509275643 
-2.710505431213761e-20 
0.0007240678814631250 
0 
0 
0 
0.0006507686314809114 
0 
0 
-0.002829156693772123 
8.529480646726280e-06 
-0.0008183742574714983 
0.0002223022122726942 
-0.0003758659653921693 
-0.007928212465025421 
0 
0 
0.0001825914106079996 
-0.01089412954910614 
-0.0001740117782204796 
-0.0004533907272634843 
-3.682033166949976e-06 
-0.001626903550226491 
-0.01428813261790519 
-0.0004454791823350383 
-0.0007788269304870852 
-0.009546746983705320 
-0.0006105231558967753 
-0.0007262460105195570 
-7.957620908505801e-05 
-0.0003754278809095507 
-0.0005209825337324651 
0.001647958777687345 
-0.001407718678306488 
-0.001179037941280778 
-0.001072833996225257 
0.002566417955317516 
-0.02466870513873239 
0.0002042550400272180 
0.03565676984406103 
0 
0.1994306894029856 
-0.1707455862704128 
-0.09869789324738137 
-0.1918908713083673 
-0.06920113495612985 
-0.04864043407506347 
0.03849708374082253 
0.08911243654287238 
0.1532737631164061 
0.1624444396568544 
0.1630429374041632 
0.1364240103465907 
0.08224617502941547 
0.08517840259008219 
0.06095430696672499 
0.05545741029784278 
0.02236136558251597 
0.02229400291731801 
0.007444871635017428 
0.007193230609905781 
0.001195710749613402 
0.001713924335989953 
0 
0 
8.380769223835842e-06 
0.001139765780319131 
0 
0 
-0.0003509201286923362 
1.011079600409007e-05 
-0.0002721412007411415 
0.0002635157300473853 
-0.0003539961124726145 
-0.004816045488814653 
0 
0 
0.0001757812642922002 
-0.01003971923100056 
-0.0002751259179476378 
-0.0004276749075127628 
-0.002423924095078067 
-0.0005832037787112158 
-0.01337150359993967 
-0.0007205104278962745 
-0.001351116811199262 
-0.007190336723332906 
-0.001152904975196020 
-0.001814072175639359 
-0.0006778082245528152 
-0.001167459803903763 
-0.001139867593178302 
-0.001911506327606661 
-0.003887412804581110 
-0.008867260504563506 
-0.008378351917441936 
-0.006299810002956229 
-0.03092205209018393 
-0.02292675552909999 
0.01911122158875387 
0 
0.1509417910037979 
-0.1763713077625196 
-0.1072215220751189 
-0.2082952994824540 
-0.07556790096775745 
-0.04708962509296521 
0.04124373900497730 
0.06293745940659527 
0.1761391382911577 
0.2142358657467474 
0.1659449520323034 
0.1653397025526654 
0.1118485284098588 
0.1076052254641269 
0.08849298593424555 
0.08215513667596093 
0.02929871720305204 
0.02300011366266426 
0.01097271463310468 
0.009611840760437291 
0.003319355415390041 
0.003584248215703132 
0 
0 
9.934514361326657e-06 
0.001551306890819203 
-0.0002775775975635120 
0 
-0.0003310163277680892 
-2.941335999992717e-05 
-1.576430112435192e-05 
0.0001317138526937701 
-0.0001924229744424419 
-0.001857897702586977 
0 
-3.241949297804087e-06 
0.0001002632145384276 
-0.007931945113895430 
-0.0002647245228853684 
-0.0002439398827702976 
-0.005347942739541206 
-2.523692834049705e-05 
-0.01069450104558906 
-0.0006831690290757660 
-0.001317468957866325 
-0.004078077484665672 
-0.001389122887510987 
-0.002179986385505213 
-0.001151365130773484 
-0.001705950276792298 
-0.001428262666204858 
-0.003199254977659443 
-0.005669777141805250 
-0.01563587039547439 
-0.01620540383559177 
-0.01288922416644364 
-0.03396456468461650 
-0.04740633685665249 
0.004969085839048478 
0 
0.07956751550917520 
-0.1718814500220662 
-0.1213046814754863 
-0.1929424649920759 
-0.07680295932379469 
-0.02027359638899797 
0.02511246579812721 
0.02545378303621144 
0.1973622516667630 
0.2601727756987483 
0.1806850849919841 
0.1974437067773272 
0.1468860132365808 
0.1272105309889594 
0.1152440827117956 
0.1038831136302315 
0.03622302388077428 
0.02071542638765787 
0.01687864857121259 
0.01027238724476793 
0.005143802692910230 
0.005172413790825439 
0 
0 
9.257118580250180e-06 
0.001713829101659149 
-0.0003449500494466950 
0 
-0.0001888071588310154 
-7.073240090870698e-05 
-3.790953727068244e-05 
-2.117582368135751e-21 
-2.490831400041706e-05 
2.475835540709373e-06 
0 
-6.596614086081363e-06 
7.033871766331145e-06 
-0.005188694147988626 
-6.612226671062182e-05 
-3.684741653667257e-05 
-0.008197453208594541 
1.257561506443529e-05 
-0.006898910057654401 
-0.0001482737603608011 
-0.0002188231426137845 
-0.0008045002710407802 
-0.001031403673754175 
-0.001154323567700145 
-0.001404248627641403 
-0.001742752807406881 
-0.001214514824414782 
-0.001853182952995003 
-0.006602654457435992 
-0.01953877355252884 
-0.02219987842346926 
-0.02026045559460349 
-0.03388161004606272 
-0.06954157080111356 
-0.006144500952152463 
0 
0.008902910352845019 
-0.1486978440909378 
-0.1266817345083898 
-0.1580865034952344 
-0.06456597567597790 
-0.01822520073933084 
0.006164833245152834 
0.005824132017480478 
0.2257501189299943 
0.2938534262277647 
0.2103084115508409 
0.2389816308783851 
0.1847997101330764 
0.1449129452985137 
0.1324103997162730 
0.1158639292260540 
0.04334103468266264 
0.01588635931224167 
0.02118188241474629 
0.008679456391454060 
0.005759434231629761 
0.005624791233003881 
0 
-2.646977960169689e-23 
4.209527063064910e-05 
0.001473932357371455 
-0.0002735337025481220 
0 
-2.444026245471180e-05 
-6.171727049809702e-05 
-3.307781350745002e-05 
1.058791184067875e-22 
1.085260963669572e-21 
2.160280293213591e-06 
0 
1.012322894181362e-05 
-5.187079490138438e-06 
-0.002456243484945720 
1.804560064996593e-05 
-6.826685903766514e-06 
-0.01056899336186207 
-3.987691079708953e-06 
-0.003199973489856008 
-0.0001000326085737855 
0.0001085485815534622 
-0.0005056708535783941 
-0.001189393469559391 
-0.0001860648290373825 
-0.003750032677913436 
-0.004477126359027890 
-0.003892654149494957 
-0.0007560733729346522 
-0.006839002808723869 
-0.02169796216311725 
-0.02618243170585150 
-0.03020863837425173 
-0.03626491257066915 
-0.08506739851602459 
-0.01046926279936080 
0 
-0.03751285711110505 
-0.1119518280257706 
-0.1029517709671878 
-0.1088866246170540 
-0.03999838239881207 
-0.07636854905031565 
0.003821910278892687 
-0.001712815102169932 
0.2577885933422098 
0.3101611887820088 
0.2727655388951563 
0.2816036189439248 
0.2215895601540038 
0.1602992814313776 
0.1396139070912225 
0.1198426068726252 
0.04695056757934520 
0.01440135486924507 
0.02138836937623081 
0.005603119354921637 
0.004522361142818574 
0.004579895355911107 
0 
-2.646977960169689e-23 
6.434218394345887e-05 
0.0008821860712038225 
-0.0001347449037663654 
-1.201627889009766e-05 
0 
-2.814318103295221e-05 
-1.508353960246991e-05 
0 
0 
0 
0 
1.139087954956915e-05 
0 
-0.0003203013778176757 
3.022307217121265e-05 
-4.244898924051774e-06 
-0.01165702293954270 
-2.346043325970419e-05 
-0.0002687577830730816 
-0.0002101456386293509 
0.0001166600219865807 
-0.0006547356411962420 
-0.001390296167888550 
0.001015610335523686 
-0.006864670498980724 
-0.008207302980851330 
-0.008469489199912281 
0.0002088421360171993 
-0.006517140890764742 
-0.02175623672385436 
-0.02633510852875768 
-0.04271181093623407 
-0.04022282120542420 
-0.09435192402002349 
-0.01758594247962153 
0 
-0.05065016926521824 
-0.04622605566340057 
-0.05259854503012996 
-0.04901187479010889 
-0.008495553709494863 
-0.1825018426817151 
0.02379745859680883 
-0.001260489033196064 
0.2815814022718848 
0.3148386489837572 
0.3445193088205991 
0.3128043570269063 
0.2473467103260814 
0.1689548372688039 
0.1389147139849562 
0.1155462381167727 
0.04809976193228348 
0.01493610063328899 
0.01742128852583772 
0.002417360354310443 
0.002581956754342019 
0.002630773127041608 
0 
0 
5.260887297317034e-05 
0.0003251515436165138 
0 
-1.591436977895738e-05 
2.646977960169689e-23 
0 
-1.418163989933231e-05 
0 
0 
0 
-0.0002928471219209712 
0 
0 
-0.0003600370558085101 
1.888576548772561e-05 
-1.222113168376594e-05 
-0.01086433013865454 
-4.420905695111789e-05 
-0.0002608397540589724 
-0.0005934350731262200 
-0.0004039069470941135 
-0.0007234609862569526 
-0.003163280847601688 
0.0004677576645225119 
-0.01218499094094070 
-0.01500368552673738 
-0.01900098519989911 
-0.004249022274473111 
-0.01197618946044483 
-0.02334537063653067 
-0.02773680625605769 
-0.06018470185659866 
-0.05278430242241223 
-0.1021804974088576 
-0.03417292338147675 
0 
-0.07288669916153034 
0.03172116609455321 
0.01129378672325910 
0.02057512570318877 
0.01505762610842653 
-0.2734110835412841 
0.05046263758974122 
0.01500501873020269 
0.2888774679128005 
0.3129866504841194 
0.4016715965149719 
0.3207600507496486 
0.2586641966478370 
0.1702147907630934 
0.1356109304129560 
0.1044432089739266 
0.05052663304043719 
0.01727287037978303 
0.01595885789886744 
0.0004197104185537830 
0.0007825257133498922 
0.0006436630350955317 
0 
0 
0 
-1.905824131322176e-21 
0 
-1.206475665987467e-05 
-0.0003810885178419903 
3.176373552203626e-22 
-6.097810186391240e-05 
1.386680536150713e-05 
0 
-0.0001812983849444124 
-0.0003639257808055344 
0 
0 
-0.0002337642897351709 
0 
-1.518739491502333e-05 
-0.008534941797712527 
-0.0001492941247661921 
-0.0002429173099519894 
-0.001038317869719816 
-0.001680340291544832 
-0.001561777139856908 
-0.005729328939596490 
-0.001829925795282984 
-0.01753579352772045 
-0.02213616957912058 
-0.03259888466679203 
-0.01337763101178969 
-0.02456073624899661 
-0.03009314899082397 
-0.03406491450057101 
-0.08600579759369759 
-0.07008539328780848 
-0.1072715868279277 
-0.05353993077879297 
0 
-0.08858432871710440 
0.1089177651405282 
0.06493777005942918 
0.1004078865175497 
0.01569387151200397 
-0.2908862394496697 
0.07486420929618462 
0.05857455633723276 
0.2936376187414380 
0.3047037751997529 
0.4310138479230846 
0.3056547665067707 
0.2594671131463745 
0.1673553682150439 
0.1342469642699559 
0.08980623154968621 
0.05238486660756998 
0.02266329344574438 
0.01843011826952767 
0.0005319482340536579 
0.0003960849741712256 
5.421010862427522e-20 
0 
0 
0 
-3.176373552203626e-22 
0 
0 
-0.0004735847684004113 
-1.085260963669572e-21 
-5.881273574593751e-05 
1.952020166039850e-05 
0 
-0.0002552124258297689 
-0.0002788766041524913 
0 
0 
-5.863738732901836e-06 
-0.0004180075123630233 
-2.275388194693686e-05 
-0.005576261057262145 
-0.0002495737526657131 
-0.0007871320642061290 
-0.002434750354968320 
-0.005813039527664884 
-0.004969607996786833 
-0.01017846489755177 
-0.008838166468009443 
-0.02336781246132234 
-0.02928837489434092 
-0.04724970601763241 
-0.02868553062171700 
-0.04773907459634149 
-0.04405178210164479 
-0.04810178561397222 
-0.1129407937012306 
-0.09009874074327040 
-0.1090201400597473 
-0.06576925173222496 
0 
-0.08113406815274989 
0.1697154786655361 
0.09823450675644504 
0.1812973457023263 
-0.007124922350667846 
-0.2190540311200029 
0.09004338023833212 
0.1283439908275651 
0.3101175863044905 
0.2966846702960149 
0.4338100590284435 
0.2800102101412187 
0.2501583600185575 
0.1640407531975917 
0.1343847777500405 
0.07664372245784193 
0.05141821372274628 
0.02642348494652812 
0.02223101883461456 
0.0005564367547511832 
0.0005368614014543913 
6.716080827353190e-06 
0 
0 
0 
1.039912723118921e-05 
0 
0 
-0.0003755367600378371 
1.614656555703510e-21 
-3.078641172982713e-05 
1.114194012930072e-05 
-2.511281780497678e-05 
-0.0001456727557593698 
-0.0001314592795288197 
0 
1.308519342111093e-05 
0 
-0.002429683150609736 
-3.183620796388004e-05 
-0.002542212903983792 
-0.0003615154298959175 
-0.003751550252694161 
-0.007292193152741278 
-0.01567504830179262 
-0.01360944261466792 
-0.01983080579541938 
-0.02513478179349292 
-0.03387074316352982 
-0.03730772005134740 
-0.06618180276202969 
-0.05651912857313057 
-0.07728810183735689 
-0.07200024708903766 
-0.06711739592300543 
-0.1408433179494047 
-0.1090816307493072 
-0.1136767206141358 
-0.06612217312749555 
0 
-0.05919598115028008 
0.2126227292927971 
0.1245983596661137 
0.2553836231985583 
-0.03900485452816102 
-0.09980534619080225 
0.09974644481224901 
0.2052359036080304 
0.3402983641838013 
0.2927220236384702 
0.4174757786639362 
0.2603216890006029 
0.2341359634583314 
0.1666916011978865 
0.1320185362024649 
0.07025288680610936 
0.04881986813396756 
0.02544997683757825 
0.02076408268059820 
0.002068724632585536 
0.0004620557816216294 
1.996253806280145e-05 
0 
0 
-1.162108059688110e-06 
0.001399521238584534 
0 
0 
-0.0002096334245499065 
0 
0 
3.705769144237564e-22 
-2.483337028120822e-05 
0 
0 
0 
1.293958551171747e-05 
0 
-0.004737310215724635 
-3.148194467288749e-05 
0 
-0.0003092433931753707 
-0.006913142831959461 
-0.01197453046844155 
-0.02480982025272695 
-0.02205028151293081 
-0.03101782743590503 
-0.04493361912569042 
-0.04763536584317665 
-0.04845779350222447 
-0.08698018024599985 
-0.08771612491158469 
-0.1098406668633643 
-0.1040938957415579 
-0.08812255474622746 
-0.1673423514729118 
-0.1198551248014682 
-0.1177796152417043 
-0.05404098877334094 
0 
-0.02905492956096755 
0.2407216165192196 
0.1485565746346940 
0.3004408477555952 
-0.06200738287128196 
0.01226842669978330 
0.1057708068938819 
0.2621664803709711 
0.3732951917746404 
0.2973627842906659 
0.3948468151622786 
0.2497210519218855 
0.2187915207139012 
0.1661328680873496 
0.1258787682929160 
0.06675267797911907 
0.04324587044352696 
0.02011064285889940 
0.01508984342249160 
0.004091598853005946 
0.0003248592296862479 
1.974040122920884e-05 
0 
0 
-1.685452205998763e-06 
0.003248449025255398 
0 
0 
-2.436672700117761e-05 
-4.582424550867369e-06 
-2.455983284455604e-06 
-3.970466940254533e-22 
-1.312176449564139e-05 
0 
0 
0 
7.783770092187013e-06 
-0.0003203528962020072 
-0.006572688957368770 
-5.396855871062066e-05 
0.0001456228759150385 
-0.0004152756680428690 
-0.01078903007259984 
-0.01765820537826767 
-0.02980169461761871 
-0.02962749983528645 
-0.04725704816497923 
-0.06878382967800870 
-0.07167904709887904 
-0.06806444225451627 
-0.09284824663488883 
-0.1105103150337398 
-0.1453151923445817 
-0.1298721200066796 
-0.1173588276822236 
-0.1653885671065093 
-0.1426839582814482 
-0.1229560168287433 
-0.04163715830603183 
0 
0.003866060507621005 
0.2559156871033471 
0.1790774619360767 
0.3067709759528998 
-0.06000933244954804 
0.07104101939194000 
0.1059331637388468 
0.2705893551869223 
0.3820642006854549 
0.3093779408007014 
0.3688237646809616 
0.2444096758668274 
0.2045258442649166 
0.1576499319527173 
0.1156945804877295 
0.06460537344431748 
0.03646592746911222 
0.01282775222178645 
0.009539482169053107 
0.006097631844988760 
0.0003661281230563115 
0.0002060365102247152 
0 
0 
0.0004571013017270654 
0.004865770600350036 
-1.992924337727720e-05 
0 
-1.465773387443516e-05 
-4.934159088606744e-06 
-2.644497931159420e-06 
0 
3.470484389873054e-06 
0 
0 
0 
0 
-0.0003981084535325889 
-0.007539246520231617 
-6.692077384002223e-05 
0.0003032145782113003 
-0.0002737226850923411 
-0.01356879862934476 
-0.02183539828547983 
-0.02967359671208030 
-0.03437342587796240 
-0.06356626625459388 
-0.09111154708990772 
-0.09938464865533535 
-0.09572642578805914 
-0.09132894482416498 
-0.1279405224699125 
-0.1821696978875438 
-0.1534930161758866 
-0.1341354203125394 
-0.1582917292769876 
-0.1681568673629478 
-0.1292728203859573 
-0.03166177018048352 
0 
0.02587770786345273 
0.2546955468074484 
0.2011297959312976 
0.2696361330774490 
-0.03405536727412593 
0.08925223067715043 
0.1034458807219385 
0.2482835432662849 
0.3639465354881455 
0.3141472413005357 
0.3379834204891969 
0.2327308028919368 
0.1836133562253879 
0.1396173291977712 
0.1003651755108610 
0.06081288349692342 
0.02933661422246326 
0.004901846101402200 
0.004589809014764051 
0.006682359945784441 
0.0002096449992757098 
0.0001783164189122382 
0 
0 
0.001026010987387511 
0.005459847688045616 
-2.476643837176182e-05 
0 
0 
-2.905779651689493e-06 
-1.557373432697290e-06 
0 
3.598260614112156e-06 
0 
0 
0 
0 
-0.001719037337301884 
-0.007278580446765702 
-6.938466154094045e-05 
0.0003163824809170070 
-4.857735123992855e-05 
-0.01537761592601068 
-0.02384412582694580 
-0.02466604996141595 
-0.03717933038129971 
-0.07551327867073258 
-0.1074091061430013 
-0.1321361858749127 
-0.1272485861461653 
-0.08160607438277220 
-0.1271072643156655 
-0.1981674529489523 
-0.1669715044974258 
-0.1217837433922332 
-0.1577484610370377 
-0.1995383012878974 
-0.1384920764641807 
-0.03688447967194243 
0 
0.03005730829412243 
0.2358773504532075 
0.1970653315845151 
0.2045603535489159 
0.01033605952930472 
0.07916811700683760 
0.09507054314454202 
0.2083849149000608 
0.3125550931712746 
0.2984243617446176 
0.3008240523445267 
0.2101414748202757 
0.1565573459834715 
0.1177095859112709 
0.08388783842230975 
0.05440333224814072 
0.02403855303596120 
0.001382292125294580 
0.002362346060307362 
0.005590248948421669 
4.514007360258751e-05 
6.269589888811948e-05 
0 
0 
0.001527428284311467 
0.004652627914291592 
-1.963901167760794e-05 
0 
0 
-4.118362830041666e-06 
0 
0 
0 
-1.056656956721377e-05 
3.492943877718890e-05 
-1.737298785496348e-05 
0 
-0.004045787449524591 
-0.005905174507481396 
-1.613674834789925e-05 
-0.0007025697976614678 
-0.0003143670078748581 
-0.01685155305971033 
-0.02599945498120890 
-0.01824864607507267 
-0.03952613069007263 
-0.08586598943937003 
-0.1232596666405207 
-0.1711277292004455 
-0.1625644584947653 
-0.07018351462235682 
-0.1164553818414279 
-0.1748105592966507 
-0.1672982209986274 
-0.07595761550052585 
-0.1735654228610722 
-0.2252545574793415 
-0.1559156437293261 
-0.06338450755681976 
0 
0.02140385718132682 
0.2079324876156123 
0.1709246189138894 
0.1520234854407982 
0.06502356196961698 
0.06147569993635631 
0.08426989440721537 
0.1729132005725556 
0.2592310168870702 
0.2703494779881892 
0.2617517860723825 
0.1813146624365750 
0.1282241141990979 
0.09966137965108852 
0.06959542648528322 
0.04550304785811067 
0.01768024102632123 
3.745041552908823e-05 
0.0006294786232462129 
0.003474914875044933 
-2.763787905142945e-05 
0 
0 
0 
0.001782245336027601 
0.003005581327422291 
0 
0 
0 
-5.432446820844321e-06 
-3.730592226642393e-06 
0 
0 
-1.861843102388499e-05 
0.0001251189623026573 
-2.291634723216162e-05 
0 
-0.006397093901382252 
-0.003690234332385291 
0 
-0.002804993773662868 
-0.001672821458763712 
-0.01880223709540721 
-0.03052084084703440 
-0.01395325122374470 
-0.03915717520937709 
-0.09279032036716925 
-0.1405910021356802 
-0.2115549186534797 
-0.2008902211406765 
-0.05728275037477628 
-0.08812426722158156 
-0.1078650387441669 
-0.1533296470583674 
-0.01144508532112549 
-0.1916488741790776 
-0.2324017511731407 
-0.1770136997360238 
-0.09856270340046724 
0 
0.009243070741411908 
0.1792561866931820 
0.1342195961488666 
0.1312590908863587 
0.1135591724653270 
0.04396773112711949 
0.07332381105465598 
0.1376110690739189 
0.2016617377155422 
0.2272793186628860 
0.2210011561125338 
0.1512736247325849 
0.1047454803798631 
0.08888015840009487 
0.06019647286207130 
0.03588453652953342 
0.01203760983673017 
1.589583833022396e-05 
0.0003855207685953792 
0.001302367684274903 
-2.187244311590866e-05 
0 
0 
0 
0.001648405650830315 
0.001253314724041649 
0 
0 
0 
-4.101814709697319e-06 
-4.562622951209599e-06 
2.423450298293873e-06 
0 
-1.198788429996238e-05 
0.0001338800874373851 
-1.730318091817127e-05 
0 
-0.008253315028126321 
-0.001442382735720475 
0 
-0.005308165385501240 
-0.002961584605592944 
-0.02307237948151127 
-0.03912321610742411 
-0.01676382441942891 
-0.03987936183322499 
-0.09915271513013806 
-0.1569428834700085 
-0.2475705483321599 
-0.2289899241543984 
-0.05396080079058310 
-0.04551097140469335 
-0.01355098942521316 
-0.1279831933435892 
0.03490320854080862 
-0.1992548441140699 
-0.2229890011120734 
-0.2072583496259340 
-0.1301280317697399 
0 
0.003054708114076007 
0.1606600456696058 
0.1052141997504642 
0.1308236077949562 
0.1410136724807885 
0.03020268956025247 
0.05718574514236858 
0.09804927596424073 
0.1416357534426693 
0.1710664737337923 
0.1775936602883898 
0.1210824316684799 
0.08361778742855240 
0.08033379766215791 
0.05127165758985534 
0.02605660711738337 
0.008739689809829436 
0.0001645484894708948 
0.0006556789887785115 
0 
0 
0 
0 
0 
0.001210243129791093 
0.0001659983067920226 
0 
0 
-2.736223489188079e-05 
0 
-2.985053290785951e-06 
2.777447166697535e-06 
0 
0 
8.523134156623357e-06 
0 
0 
-0.008786059579083474 
0 
0 
-0.006820207623284268 
-0.003894469403269671 
-0.02773631284125612 
-0.04500364748568467 
-0.02383769458107477 
-0.03977638328883014 
-0.09883602704790014 
-0.1633416784648840 
-0.2644701114241770 
-0.2415403401028782 
-0.07319670819491735 
-0.02616063617822191 
0.07394744668367251 
-0.09487799562885821 
0.03724363624975884 
-0.1821424196592069 
-0.2072758689389526 
-0.2400244417356543 
-0.1412521573723137 
0 
0.01652216581196573 
0.1609675059161048 
0.09882124575752572 
0.1469097617994244 
0.1419200338774189 
0.02387440493842452 
0.04206073224467372 
0.06437062454271360 
0.09487825429300736 
0.1188601536664252 
0.1326343520197666 
0.09277018542143597 
0.06457855813512650 
0.06956790821069472 
0.04185009493350593 
0.01789263315838877 
0.007445410576923692 
0.0004656245651916879 
0.0005861653900224136 
4.502076781568362e-06 
4.343694462614715e-06 
0 
0 
0 
0.0006449146570379367 
3.713518602902524e-05 
0 
0 
-3.400451655041680e-05 
0 
0 
0 
0 
0 
-2.072175264373135e-05 
0 
0 
-0.007685399493183994 
0.002065504730102172 
0 
-0.006769832479078084 
-0.007452323083087490 
-0.03140283337125300 
-0.04432611274640986 
-0.03478149685287422 
-0.03795064780858039 
-0.09367863905077736 
-0.1530850883886192 
-0.2567051964190242 
-0.2408873125520399 
-0.1099717045932366 
-0.03158928047652408 
0.1418052438453126 
-0.05844012968090362 
0.007762537421579895 
-0.1523707583988094 
-0.1894122978699134 
-0.2746346590680163 
-0.1327841189082648 
0 
0.04450306955230256 
0.1583273130085663 
0.1113132951051001 
0.1528398089207205 
0.1269983343827414 
0.03163223819321047 
0.03597410834628979 
0.04404399545576138 
0.06593767671585211 
0.08043090024411034 
0.09429291279100567 
0.07154919037775131 
0.05018531554224214 
0.05553121327769862 
0.03189521533845680 
0.01322453682790308 
0.005732036749969170 
0.001018527212906927 
0.0002479458611190998 
1.881530175965214e-05 
3.159097393003166e-05 
1.447024512478284e-05 
0 
0 
0.0001298509308081507 
0 
0 
0 
-2.696568076301262e-05 
0 
0 
0 
1.618315434150183e-05 
0 
0 
0 
-1.714457733628003e-06 
-0.005510809883942913 
0.005041665876360487 
-0.0003203011007129204 
-0.005317960709388313 
-0.01185581563137421 
-0.03402489556638477 
-0.03837902531478740 
-0.04456774538116789 
-0.03443739923314459 
-0.08792090609253961 
-0.1308279916820557 
-0.2328096247528682 
-0.2308489013404833 
-0.1614508983155955 
-0.05667505761097439 
0.1748930988229758 
-0.02795303057706445 
-0.02135122373085074 
-0.1307670617640323 
-0.1764885685072902 
-0.2985231072168756 
-0.1040527235314865 
0 
0.08055547683763313 
0.1540838996093628 
0.1272614343177690 
0.1417766184748992 
0.1019836828138228 
0.04100119015330188 
0.03300955211739582 
0.03755401047510151 
0.04941222871497308 
0.05693170729122658 
0.06427782724280601 
0.05394502883938594 
0.03695401675401014 
0.03832329096097205 
0.02255812115248665 
0.008092415506195112 
0.003805238471132128 
0.0008933294878759432 
0.0001763173377028207 
3.866914473945270e-05 
3.268251560273702e-05 
1.489310543273114e-05 
0 
0 
-5.564943165111679e-06 
2.883948115474231e-06 
0 
0 
-1.328456331707222e-05 
0 
0 
0 
4.208347586905003e-05 
0 
0 
0 
-1.446318771805371e-06 
-0.002937817830392050 
0.007419966331437156 
-0.0009401745160178902 
-0.003232554388019377 
-0.01601289531771488 
-0.03475081938012067 
-0.03047136349551302 
-0.05298359362866368 
-0.03123968046198383 
-0.08343362024554128 
-0.1042170783981515 
-0.1988184341494573 
-0.2098770705501812 
-0.2165824297152414 
-0.08520908289282855 
0.1728508349166915 
-0.01379878989798534 
-0.02436808645888063 
-0.1278143721492188 
-0.1650451526425554 
-0.2929694877826786 
-0.06586223050705571 
0 
0.1083759204796622 
0.1368254419385616 
0.1272977247820871 
0.1154152398969786 
0.07420523710967300 
0.04539921389876377 
0.03010789684463997 
0.03487975979108021 
0.03638599050479262 
0.03785453080225913 
0.03906169715602516 
0.03601574980487120 
0.02329454931347550 
0.02154809462708222 
0.01341305138642271 
0.004205662865566655 
0.002172278052744317 
0.0004676091802518523 
0.0001919565962249370 
0.0001528079237017190 
1.785807283462159e-05 
6.682073945559579e-06 
0 
0 
-1.516519221231222e-05 
0.0001013204631143761 
0 
0 
0 
0 
0 
0 
5.305772336885865e-05 
0 
0.0003133832221745327 
0 
0 
-0.0006630509390944726 
0.007942037541982866 
-0.001550170780551961 
-0.001712739344247549 
-0.01866277801069030 
-0.03416270670688196 
-0.02394774368655157 
-0.05965276796010666 
-0.03039993644960741 
-0.08023074079022860 
-0.08116979112986969 
-0.1605964770892519 
-0.1734928265423843 
-0.2609933011141736 
-0.09902269036206873 
0.1369780268317730 
-0.01413143936331098 
-0.005783606396542447 
-0.1239768485443693 
-0.1576810535462121 
-0.2438866437849180 
-0.03263227933981179 
0 
0.1163085514665332 
0.1083479136356652 
0.1100778212605954 
0.07990428423146723 
0.04858202655665549 
0.03698352081138830 
0.02589530064442034 
0.03194645212880273 
0.02353626255270799 
0.02008659497542890 
0.02065682997199993 
0.02028976682848201 
0.01181286399318600 
0.009318692713900347 
0.006017173337723542 
0.002098431759049987 
0.0009831798391605670 
0.0001079367489225959 
0.0001563804770560671 
0.0002527109592547785 
2.801073999256333e-06 
0 
0 
0 
-2.289632631806882e-05 
0.0005365261740269367 
0 
0 
0 
-1.988335123313416e-05 
0 
0 
3.011951703907081e-05 
0 
0.001787067396735719 
-8.387634449530008e-05 
0 
-2.861404509765479e-05 
0.006024768860481885 
-0.001950959300420998 
-0.0008764294909798029 
-0.01959505112347419 
-0.03472900141174160 
-0.02138174664842900 
-0.06403701922267872 
-0.03163525434298378 
-0.07354391726793601 
-0.06584326668843590 
-0.1315110928687193 
-0.1253622429760106 
-0.2805175439680475 
-0.08646078453893796 
0.06556544333125554 
-0.02016067361430953 
0.01343696497235312 
-0.09885520553370755 
-0.1592173714582294 
-0.1704714930968636 
-0.01703862708742372 
0 
0.1165914035558176 
0.08182451487994016 
0.09472627864650750 
0.05287556304240585 
0.02782499543069119 
0.02601224467142950 
0.02420466182657296 
0.02805511551522145 
0.01386844238427004 
0.01078081091768356 
0.01138571526410860 
0.01114149605003826 
0.005806954271788050 
0.003524538904975162 
0.002509405236419162 
0.001358006830661630 
0.0004793348278524206 
7.452443264172524e-06 
7.599159409110785e-05 
0.0001744783922342395 
0 
0 
0 
0 
-2.496426486888763e-05 
0.002064970653760328 
0 
0 
0 
-5.459150520846201e-05 
0 
8.722935591527854e-06 
0 
0 
0.003329011637659970 
-0.0002302899467847987 
0 
-2.270462274053022e-05 
0.003044731971112226 
-0.001951487349362094 
-0.0002098888899795511 
-0.01785458369738079 
-0.03223010343102020 
-0.01906918152966333 
-0.06279859460527017 
-0.02949493004108534 
-0.05733763466973496 
-0.05439465619988424 
-0.1101768109844870 
-0.07253629644620703 
-0.2688177737411377 
-0.05617683447395074 
-0.02631347695504997 
-0.02633568220120152 
0.003239702085074966 
-0.05030618198432191 
-0.1701864655976142 
-0.09301038436576176 
-0.01230539387389535 
0 
0.1040893613130274 
0.06151513572656137 
0.08016155550233126 
0.02939743212442544 
0.01174527693878791 
0.01202366149153591 
0.02116522541655391 
0.02274158730272815 
0.006749573488862916 
0.004646382181635633 
0.005165969625882763 
0.004858436863470854 
0.002233092920180422 
0.001078697279759699 
0.0009472704794123143 
0.0009150626900967014 
0.0002223036938749445 
-7.667765755019554e-19 
5.158237151261265e-05 
5.095527102133962e-05 
0 
0 
0 
0 
1.954909790166098e-05 
0.003611168254093926 
0 
0 
0 
-7.520918107207533e-05 
0 
2.842981735198007e-05 
0 
0 
0.004259419700775231 
-0.0003172639816520730 
0 
-1.119680025560376e-05 
0.0003460787978730243 
-0.001551569767356945 
1.827000703598765e-05 
-0.01388070778403305 
-0.02595752124669475 
-0.01536447375495572 
-0.05600328690567354 
-0.02121863092370851 
-0.03363900002706336 
-0.04346987901127908 
-0.09080065232031984 
-0.02115772325497618 
-0.2260990424078071 
-0.01685546089225332 
-0.1099656114491135 
-0.02612602974994248 
-0.03849771545630105 
-0.01101542366910961 
-0.1824059149527667 
-0.02073116735872072 
-0.005232501599688777 
0 
0.09131151577973971 
0.04245817944323396 
0.06333728577636170 
0.01096297277390636 
0.003896034992244161 
-0.0002544311251168335 
0.01667474155386330 
0.01698733403332601 
0.003270719543761661 
0.002621604210399112 
0.002517217626844607 
0.002441473681338455 
0.001229565326363458 
0.0008986820031236305 
0.0006282914239841992 
0.0006992634514774778 
9.786012418836771e-05 
1.253037971876768e-05 
4.319047638951457e-05 
0 
0 
0 
0 
0 
6.542661247250234e-05 
0.004564405824194331 
0 
0 
0 
-6.088618628338520e-05 
0 
3.940393253284991e-05 
0 
0 
0.003980998356582883 
-0.0002568435610190261 
-9.778832987160633e-06 
5.072232343027293e-05 
-0.0001129770588091865 
-0.0009419307314520192 
-0.0003705633482074231 
-0.008997365755126297 
-0.01627298182014441 
-0.009172257587818151 
-0.04546276770573893 
-0.009715035157326898 
-0.009071203512752545 
-0.03193757611319520 
-0.07315362096655060 
0.01846669757800343 
-0.1630326546634708 
0.02191786951497819 
-0.1542439586654202 
-0.01925271207087399 
-0.09036950753073134 
-0.003351803079423503 
-0.1931472672502234 
0.03500150075138164 
0.007529189052603817 
0 
0.07553010099012723 
0.02586834622597287 
0.04492306000122288 
0.0009692270064751537 
0.001272474216870195 
-0.009763925204301702 
0.01030233103711177 
0.01043655577641595 
0.002860287187445525 
0.002444428336337006 
0.001935427644197166 
0.001875863295996753 
0.001351396892770047 
0.001232490572933341 
0.0006572617526215556 
0.0005336105478032684 
4.942450481667747e-05 
3.419193614116387e-05 
2.517348501225622e-05 
0 
0 
-1.058791184067875e-22 
0 
0 
5.193265821255871e-05 
0.004266048748750395 
0 
0 
0 
0 
0 
2.754834431480296e-05 
0 
0 
0.002706963991736315 
0 
-2.280127370795395e-05 
8.140753013912763e-05 
0 
-0.0003215109110665610 
-0.001397575737458176 
-0.004132437495879692 
-0.01053076791112257 
-0.005869085815033474 
-0.03562605060570261 
-0.003409320348421526 
0.002049505896341703 
-0.02406842673418887 
-0.06366317201411822 
0.04209912117035171 
-0.09437409141187919 
0.05157361917806163 
-0.1457231955002882 
-0.009947649905296094 
-0.1242055239402672 
-0.01847846990045308 
-0.1982106107330352 
0.07081901067817711 
0.01832718766149077 
0 
0.05510982707208025 
0.01067470147404524 
0.02061736668656732 
-0.0007328197193899411 
0.0009701337432977988 
-0.01764358458708805 
0.002217635679627607 
0.003458986124289533 
0.002617914019566250 
0.001134443120785693 
0.001164258673515894 
0.0009719329810682171 
0.0009471126441493915 
0.0009353482426500990 
0.0004217196628059450 
0.0002624530030812014 
4.191555968429987e-05 
3.554352965344028e-05 
1.085895057551004e-05 
0 
0 
0 
0 
0 
1.999905325577217e-05 
0.002900790031918382 
0 
0 
0 
0 
0 
0 
0.0001056532104908472 
0 
0.001110569802708080 
0 
-2.217706889087740e-05 
-0.0001733195025437379 
0 
-1.111734505075649e-07 
-0.002757880803747098 
-0.001490119490914876 
-0.008941163193182193 
-0.003927719614429631 
-0.02552955107481075 
-0.005968333449851153 
-0.007648930685016749 
-0.02647789014081070 
-0.06043339640185905 
0.04262986662605948 
-0.04198126964998845 
0.06516639355408059 
-0.09902270497625114 
-0.004030370032432988 
-0.1297007245442413 
-0.02557717667111436 
-0.1915728553542927 
0.08717490841710807 
0.02035739479090117 
0 
0.03730314048203826 
0.006601152899705848 
0.007256087291997278 
0.008599972530890211 
0.002705146644837778 
-0.01879470089398462 
-0.003783129685556153 
-0.0003878533993151066 
0.002842278022206179 
0.0004221137807836530 
0.0007158994271642568 
0.0006818142553077270 
0.0008354900007472515 
0.0009553799101547611 
0.0004996524642700160 
0.0003068490185910663 
0.0001735645329402644 
7.387593896778732e-05 
2.735353997899268e-06 
1.317249525618221e-06 
1.270908904471539e-06 
0 
0 
0 
0 
0.001190089644073465 
0 
0 
0 
0 
0 
0 
0.0005393663205956535 
0 
0 
0 
0 
-0.0003182129701637731 
6.501413359280382e-05 
0 
-0.004606059447634882 
-0.0002980874997515757 
-0.009452289687306745 
-0.001997465978620604 
-0.01678674247109528 
-0.01266223526695185 
-0.02225215562900757 
-0.02989150474430539 
-0.06125382718386881 
0.01971939417263206 
-0.01478357075168861 
0.06578961226481120 
-0.03874111735227975 
-0.009902814438403794 
-0.1136721182188254 
-0.007252337065556132 
-0.1622884870018389 
0.08346859079487133 
0.02020823044277253 
0 
0.03136847422453647 
0.01605161034971276 
0.007922715700560410 
0.02155578831248850 
0.004962530276202107 
-0.01463942607571672 
-0.005217156333547401 
-0.0008911559389275526 
0.003627012646384833 
0.0007863503158552506 
0.0008595352766295409 
0.001055828668457864 
0.0009070484269488328 
0.001040990467586541 
0.0006038954532292732 
0.0003574388695597167 
0.0002215672728647361 
0.0001718222457923399 
1.062552320241672e-05 
1.403916987570776e-05 
1.402526398775363e-06 
0 
0 
0 
0 
1.081580906661113e-05 
0 
0 
0 
0 
0 
0 
0.001067401671227539 
0 
0 
0 
0 
-0.0002135157024595655 
0.0002925636011676462 
0 
-0.006321326560982331 
-0.001888669001673855 
-0.01290698919392738 
-0.002118037308644094 
-0.009627631714207543 
-0.02037392281348072 
-0.03732027518208943 
-0.03309241940210335 
-0.06043296155571796 
-0.01434092212017962 
-0.008173273839291116 
0.06279759890261576 
0.008119559601307995 
-0.02956996907957759 
-0.09269065714661126 
0.03110020815746052 
-0.1031210912484268 
0.07077131337275569 
0.01836470862639313 
0 
0.03785979048010218 
0.03494886477461379 
0.01836230805070675 
0.03173535269233163 
0.005242534470912341 
-0.007564636572653114 
-0.004144858969680251 
-0.0005054293201883673 
0.003514731978501396 
0.001964207487044876 
0.0009736022558838893 
0.001161744277104504 
0.0008518905870304637 
0.0008504258131392440 
0.0005112178329010874 
0.0002959135824252034 
0.0001664583930959940 
0.0002748907628458343 
1.006347256766166e-05 
1.750780323595790e-05 
9.410722922402651e-07 
0 
0 
0 
0 
1.420773212855157e-05 
0 
0 
0 
0 
0 
0 
0.001585863291416186 
0 
0 
0 
0 
-6.132689064210814e-05 
0.0002390225499735715 
0 
-0.007366184833297259 
-0.003133989755020086 
-0.01503885313838628 
-0.001717584134093461 
-0.002831399536006016 
-0.02762408212890064 
-0.04571546133483812 
-0.03530698359987209 
-0.05640452915150303 
-0.04821550867339942 
-0.01817380155989197 
0.05310181768323943 
0.03371650069867426 
-0.05759766120556289 
-0.07960624400677263 
0.06224440683155526 
-0.02780401823290658 
0.05377590105543113 
0.02286781195318791 
0 
0.04838900494132754 
0.05009445617154638 
0.03597767036308517 
0.03536212348401879 
0.003570824985797408 
-0.0005559527738393247 
-0.002356932942915373 
-6.374299129906849e-06 
0.002255338470903393 
0.002707480558226130 
0.0005636307629999881 
0.0006480550441402957 
0.0004132973406007364 
0.0003481209109951189 
0.0002009403315370071 
0.0001224083656329125 
5.345072983787173e-05 
0.0003523471794737572 
1.238894698632498e-05 
1.027405176859568e-05 
0 
0 
0 
0 
-6.453206529395824e-05 
8.829378986138461e-06 
0 
0 
0 
-0.0002394915949759999 
0 
3.702738224871632e-05 
0.001990972423072081 
0 
0 
-0.001010276350722065 
0 
0 
5.538064053592301e-05 
-1.746715736835722e-05 
-0.007432486173334575 
-0.003634572640444446 
-0.01652148796749061 
-0.001642138353235518 
-0.0004247104794292590 
-0.02978162995860263 
-0.04956992750224771 
-0.03764518704637233 
-0.05222574176063839 
-0.07311319836893618 
-0.03271577594953967 
0.03843190520229632 
0.03664575652707235 
-0.08501386834938253 
-0.07382786168992030 
0.06768189705596078 
0.02839962607117794 
0.02687330458355804 
0.02518649495326238 
0 
0.05593227507838386 
0.05527365552308893 
0.04914246859503342 
0.03153166199698094 
0.0003943723167839183 
0.003494089213332585 
-0.0008709473257659050 
0.0002958110581976492 
0.0005234675898181142 
0.002936467658606220 
0.0001391164009971554 
0.0001383404608514652 
5.728782032007619e-05 
3.357530611697709e-05 
2.213769356696461e-05 
3.113510607531621e-05 
6.774820653807839e-06 
0.0003892082856895542 
6.800061970201659e-07 
0 
0 
0 
0 
0 
-0.0002228318007967839 
0 
0 
0 
0 
-0.0008610632670281361 
0 
0.0003492843629686480 
0.002218685474693443 
0 
0.0001232502463190475 
-0.003632327285812183 
-0.0001111825197951042 
0.0005766982354892886 
-2.435440180246322e-05 
-8.103104629409960e-05 
-0.006493849122161320 
-0.003709547128745226 
-0.01670639922193115 
-0.001133826890194329 
-5.153632858313529e-05 
-0.02497363729312216 
-0.04347738984220941 
-0.03689114599086190 
-0.04315312522707986 
-0.07745092931993783 
-0.03780815008936837 
0.02416973253495639 
0.03399650459626425 
-0.09196771980902647 
-0.07054569345293951 
0.03972183839707037 
0.03494962539848397 
-0.01455227968982542 
0.03091939307093140 
0 
0.05504303677717287 
0.05152868569286259 
0.05618045521899458 
0.02473565084275099 
-0.0001638943261468273 
0.004526064644081657 
0.0008708332139988569 
0.0008372925874684331 
0.0001727885716354700 
0.003459319419462311 
0.0002400185860890794 
0.0002413737122703929 
0.0006358957647097574 
0.0001103456502574622 
7.109427396677463e-05 
6.657884379098156e-05 
9.033094205077227e-06 
0.0003601772037993536 
1.275915882972659e-06 
0 
0 
0 
0 
0 
-0.0004206619572795344 
0.0001320753017200107 
0 
0 
0 
-0.001666744787616817 
0 
0.0007860190863826800 
0.002302362758714863 
0 
0.0001915737524306998 
-0.007031031054711071 
-0.0003997239940583952 
0.002073348602649299 
-2.319795607548561e-05 
-8.773547299698668e-05 
-0.004770222372216504 
-0.003311579868041914 
-0.01511465069623477 
0.0007778822023410053 
0.0004865364403832150 
-0.01807024373277138 
-0.03052497758384735 
-0.02972379759271427 
-0.02864040948563284 
-0.06381329018401789 
-0.03009316085074829 
0.01240586152692258 
0.03877702086856578 
-0.07602719514468890 
-0.05841079580754998 
-0.01174806603969786 
-0.01445770409550316 
-0.07220004995127946 
0.01749365110596138 
0 
0.04831422656226160 
0.04984223245928992 
0.05551617204458015 
0.01907247602097604 
-7.911451536690665e-05 
0.004185649822996939 
0.002152187011165716 
0.002265917297872930 
0.0001996810760252029 
0.003431660384379792 
0.0002678476888105243 
0.0002614874985740898 
0.001957585105725303 
0.0001316689949950658 
7.351041044625774e-05 
6.919742108632379e-05 
7.903957429442614e-06 
0.0002726281308815621 
1.215330224461544e-06 
0 
0 
0 
0 
0 
-0.0006567977438869110 
0.0002052909581082844 
0 
0 
0 
-0.002595166207229862 
0 
0.001305738971592779 
0.002290016197669656 
0 
0.0001286089526807518 
-0.01094750337948248 
-0.0007719860349847915 
0.004004253411584447 
-1.368748449989592e-05 
-5.636054943098298e-05 
-0.002517408073340935 
-0.002365990984809467 
-0.01205894299264453 
0.003675811725511363 
0.001388613856807120 
-0.01018455944784625 
-0.01437249737569964 
-0.02044236479289661 
-0.01295127527131447 
-0.04160971252735485 
-0.01489687272332020 
-0.001962777615640296 
0.03896434805752498 
-0.04524671658217159 
-0.04490270701934518 
-0.07494254025659776 
-0.1037773488419534 
-0.1388444008152576 
-0.009117273397857150 
0 
0.03464574407120920 
0.04547611631861742 
0.04683771457025011 
0.01165654694850695 
3.866624479233129e-05 
0.003038806974864420 
0.003352832700467229 
0.004137203045659372 
0.0001218147661464941 
0.002914615071003032 
0.0001662744338306029 
0.0001609152564051924 
0.003580436807947781 
8.326606594456078e-05 
4.589158933438735e-05 
4.204216811086276e-05 
4.516547102538649e-06 
0.0001460670639453764 
7.170810029746981e-07 
0 
0 
0 
0 
0 
-0.0009177269605492689 
0.0001378177061426275 
0 
0 
0 
