solver_type L2R_L2LOSS_SVC_DUAL
nr_class 2
label 0 1
nr_feature 2999
bias 1.000000000000000
w
0.004923824279646025 
0.003029489087384615 
0 
0.008581269993350410 
0.009548395556254618 
0 
0 
0 
-0.01390829301870834 
-0.004184503540654455 
0 
0 
-0.006459984555438099 
0.009697710758087800 
0 
0 
0.005087660029867856 
0.01063276168927262 
-0.004859234323740021 
0.008204955042057389 
0.01062396914849228 
0 
0.01218932573283543 
-0.001047530852670541 
-2.476996914116694e-06 
-0.01311663419972073 
0.007082432374699819 
0.01122514649695197 
0.001655470199239220 
-0.02923129876444081 
0 
0.05437150080761536 
-0.1022696206215097 
-0.008549901231849380 
-0.0004414576289208250 
0.008942470833325207 
0.02032419055699238 
0.01534812689318053 
0.008748020211011188 
0.005243275231797136 
-0.001839294807693150 
-0.003976298439999175 
0.01348522690101871 
0.003917776994924463 
0.006919902725082379 
0 
-0.01260312889880497 
0 
0 
0 
0 
-0.004505715013489734 
0 
0 
0.008285124760865934 
-0.002077076034873475 
0 
0 
0 
0 
0.006544011525203071 
0.002712928799907526 
0 
0.006001708683904366 
0.006421670837689680 
0.002859616667442021 
-0.002399638098025917 
-0.001376929053238047 
-0.007427727401608009 
-0.003029180109233324 
0 
0 
-0.004518089447634718 
0.006754870119160976 
0 
0 
0.003452253959921066 
0.007436620415737503 
0.002234284964611304 
0.003486739739676116 
0.006286011986089060 
0.002471206822695794 
0.008035935405925315 
-0.0006588088696331755 
-0.001560853490562974 
-0.003320387130883871 
0.01198993459930905 
0.009854831104096563 
-0.001338806792965449 
-0.04401912962409066 
0 
-0.01155326112379245 
-0.07376281534447032 
0.02632220201254992 
0.02866863394119986 
0.03234946789331868 
0.01446032631416862 
0.0005494573281525247 
-0.0006805011826733565 
0.006004150716182284 
-0.002811352506499488 
-0.002690569692967396 
0.01312685894549650 
0.002775340348774883 
0.004317943140838033 
-0.0005769902195162845 
-0.008386437665651407 
-0.0001137773515295836 
-5.822245655171560e-05 
-9.379149074619292e-06 
0.002737120808220402 
-0.003260921679427820 
8.679482406074493e-06 
0 
0.005794585797096671 
-0.001351877912358391 
0 
0 
0 
0.002964005233085286 
0.007892034964199383 
0.002274333633347844 
0 
0.003612864193448237 
0.003576193139961193 
0.005269319581200604 
-0.004359572819185329 
-0.002599897663988501 
-0.001648691848406588 
-0.001945490097609759 
0 
0 
-0.002719766061277212 
0.004039596937207725 
0 
0 
0.001935099119889490 
0.004476751042222242 
0.008283470107934295 
-0.0006943894066553169 
0.002419598415940691 
0.004771242356293506 
0.004297509186684940 
-4.092195010050134e-05 
-0.003025057039888107 
0.005483492682915024 
0.01533338180112946 
0.009136166779589727 
-0.004316461820091003 
-0.05613088477823693 
0 
-0.05956017910532536 
-0.04971564368917616 
0.05531265591449908 
0.05546720016708148 
0.05427397131368142 
0.009674859709841747 
-0.01271527397502301 
-0.008995107552823792 
0.006533506198184617 
-0.003580689608838798 
-0.001556705189987421 
0.01266551275875622 
0.001681583810219095 
0.002024954553748650 
-0.001111759646636561 
-0.004554709787684109 
-0.0002053882980602960 
-0.0001085235753751863 
-1.707186808124858e-05 
0.005044423839851079 
-0.002095330532248820 
1.292881233404846e-05 
0 
0.003488181890323791 
-0.0006999842148930460 
0 
0 
0 
0.005461672884795506 
0.008695730790074222 
0.001591668708623001 
0 
0.001605453340971945 
0.001293209483905612 
0.006779194987592324 
-0.005440100786611743 
-0.003514945389763768 
0.002727283576997010 
-0.001005066925581326 
0 
0 
-0.001208586117811455 
0.001779458669201630 
-0.0001219683290641109 
0 
0.0006544467396883395 
0.001989425468746681 
0.01224398696120066 
-0.003801346240887077 
-0.0005037279696979738 
0.006728935311695052 
0.001389011182784026 
0.001035211312442221 
-0.004300914700565786 
0.01230263798663801 
0.01551822266866785 
0.009720698386583671 
-0.007269521164885640 
-0.06289055758444740 
0 
-0.07173184786038012 
-0.03113630724889953 
0.07117039387981801 
0.07957188864409560 
0.07593759795975866 
0.007540220336317721 
-0.02291707940341799 
-0.01486871987256523 
0.006629145379772993 
-0.003854087758251067 
-0.0007302973784271428 
0.01195506003783208 
0.0006949123393105628 
0.0003321009153760253 
-0.001562087488964820 
-0.001537084952092710 
-0.0002526664345932671 
-0.0001429820187421691 
-2.139172695189806e-05 
0.006492091318302316 
-0.001088143758835643 
8.317837305821390e-06 
0 
0.001550048097543683 
-0.0001946993675271811 
0 
0 
0 
0.007026665373755590 
0.008897878701195499 
0.0002799554575292668 
0.0003951520100868266 
0.0004326916041563207 
8.459398315824928e-05 
0.006940068784367114 
-0.005217145326099497 
-0.003968111788076253 
0.004759108317901400 
-0.0002795440129455946 
0 
0 
-0.0001281213386833240 
0.0001923353955148018 
-0.002914029676154997 
0.0002792971631405127 
0 
0.0005402560087964699 
0.01235712088374448 
-0.004938975205550682 
-0.001744025923093203 
0.008173114399802351 
-6.410531818216650e-05 
0.002772027950475945 
-0.005528836680914951 
0.01633729390974761 
0.01155794055631672 
0.01158624974289075 
-0.01056580311268796 
-0.06187865119460494 
0 
-0.03413484085378333 
-0.02100900505309166 
0.07014435736477395 
0.09994838075930083 
0.09550416891349442 
0.005715543108927914 
-0.02999725592508239 
-0.01706277386286693 
0.004188566383282895 
-0.003803696141424513 
0.0004035090594411884 
0.01092904705852596 
9.600186236752622e-05 
-0.0002232139321998623 
-0.001806195594268017 
1.199411680600599e-05 
-0.0001709560107418671 
-0.0002023179401530809 
-8.406246898486070e-06 
0.006651007290215743 
-0.0002959821752681174 
0 
0 
0.0001643194757527224 
0 
0 
0 
0 
0.007193411770549145 
0.007894339142712418 
0 
0.0002299776955425721 
0.002474213215669741 
0 
0.005611848711995688 
-0.003782889718016523 
-0.003811964399392086 
0.003386507542850020 
0 
0 
-0.001135781606294305 
0 
0 
-0.005779417046204232 
0.002632549574110385 
0 
0.003104263415955091 
0.008213693478269696 
-0.004382359683745309 
2.551665013680925e-05 
0.008953985735369667 
-8.001160062060380e-06 
0.006954049075498757 
-0.005665248108424694 
0.01682316611634305 
0.005850838425491488 
0.01167222674323343 
-0.01472948131969100 
-0.05581052048713188 
0 
0.04243116247151435 
-0.01948605807888796 
0.04706610930674891 
0.1259798452096032 
0.1194604238496579 
0.01431795933679217 
-0.02938936486008383 
-0.009317744710769165 
-0.003310623989961638 
-0.0006350492157621812 
0.004882169037259808 
0.009772541193775287 
0.0005198569506007047 
0.0004379695460215579 
-0.001723460327158514 
0.0002048002778972135 
0.0004325609750554163 
-0.0002099343637677823 
0.0001216008060739487 
0.005386810038726743 
0.0001220125977142271 
-0.0001281476256873230 
0 
0 
0 
0.0001510886959423486 
0 
0 
0.005816705832994445 
0.005668706112583293 
0 
-0.0002446644356525245 
0.004933027347412352 
0 
0.003440322158907683 
-0.001851691515338991 
-0.003086867777790020 
0.0006133339146358850 
0 
0 
-0.002808007478784403 
0 
0 
-0.006848145811833977 
0.005239993176491637 
0 
0.006189322060897221 
0.003214426030143541 
-0.003149453336232093 
0.002562374827429395 
0.009074339720799027 
-2.968859359453867e-05 
0.01051082045322884 
-0.004445230770358690 
0.01422176806004112 
0.0006948656688773322 
0.01032106308945683 
-0.01697968423989048 
-0.04708062224097395 
0 
0.1217882742347837 
-0.01282950812015161 
0.02004035055038216 
0.1453359438617752 
0.1470133504251016 
0.02636025321860002 
-0.01976483995026279 
0.008564918836677775 
-0.006663934064627890 
0.006419935043714487 
0.01225506985125694 
0.009729971038299673 
0.002889301392404706 
0.002762274641802855 
-0.002378901376057903 
0.0005260226514056312 
0.0007688547551683481 
-0.0001496009514355285 
0.0001679201692968083 
0.003308327320485823 
0.0001963357000932910 
-0.0005198882383267066 
0 
0 
0 
0.0003257472284517037 
0 
0 
0.003565909025010387 
0.002982096970996995 
0 
-0.001018622767166467 
0.006762758553661911 
0 
0.001194336020760157 
-0.0001749493440169723 
-0.002044640901185727 
-0.002295162696175932 
0 
0 
-0.004339622369074366 
0 
0 
-0.005128486127966910 
0.007182540807304855 
0 
0.008485326089872850 
-0.0008692234028351717 
-0.001661258866565386 
0.004872561005000942 
0.008573301488283442 
-5.066301479582180e-05 
0.01088866623626513 
-0.002680519256297359 
0.01003653887094332 
-0.001962652118214902 
0.007518275943602011 
-0.01767410326265484 
-0.03771406134228822 
0 
0.1641216603479325 
0.001787962482682351 
0.007691174975104951 
0.1547929009187330 
0.1802502726929746 
0.03809633084234776 
-0.007838570149482110 
0.02619982937831455 
-0.007258976681941914 
0.01351439725246169 
0.01833381174298275 
0.009412124095860480 
0.005297828441122972 
0.005094627122336467 
-0.003577986774293268 
0.0006856420343842415 
0.0006937875023484184 
0.0001389023515650916 
6.396897132698936e-05 
0.001145629341115036 
0.0001494629421469054 
-0.0009962432187322838 
0 
0 
0 
0.0003698651276668691 
0 
0 
0.001237934530141749 
0.0006886235724797022 
-0.0001126213554426571 
-0.001916969384519700 
0.007095846272051695 
9.877984095995792e-05 
0 
0 
-0.0009483831020389030 
-0.004338961604024547 
0 
0 
-0.005224491675121372 
0 
-7.158138457102261e-05 
-0.002107426934550785 
0.007538164121832894 
0.0004624055335347040 
0.008903898751629797 
-0.001867276808587784 
-0.0001891742671418328 
0.006065080413725128 
0.007503797487194643 
6.809067956501750e-05 
0.009552877589140765 
-0.0004738808407356983 
0.005674041294419827 
3.982681474532042e-05 
0.006732566583145920 
-0.01740290223916044 
-0.02648533883232393 
0 
0.1512975024952475 
0.03119959014681423 
0.02821327129372222 
0.1580100927486039 
0.2155570866522932 
0.04348183777883036 
0.008644383640292254 
0.03886739700101186 
-0.001006185972848801 
0.01969852183651937 
0.02220308025766310 
0.01003280160779324 
0.007788741834930752 
0.007650661665195188 
-0.004948723880118257 
0.0005642532693675179 
0.0003828073447222536 
0.0003019384819067517 
-5.868915145914666e-05 
-1.042327116086195e-05 
7.287603356725590e-05 
-0.001416942556251273 
0 
0 
-3.883579266432915e-05 
0.0001529017602936560 
0 
0 
0 
9.465363279435505e-05 
0.001865323065381111 
-0.002287088557965358 
0.005818734061867587 
0.0001644979979328584 
0 
0 
-6.119371280924667e-05 
-0.005004567426875045 
0 
0 
-0.005005346634180412 
-9.532217882468290e-05 
-0.0002016893855323362 
0 
0.006053363343341989 
0.002053389171828542 
0.007304200594830824 
-0.001052840015331714 
0.0001561341538526165 
0.005919405494685604 
0.005925022392358207 
-0.0009186632158572960 
0.008465139701243265 
-0.0004648850326303560 
0.004945000491530235 
0.005033134744666530 
0.006449720416149046 
-0.01747844812061654 
-0.02131581991307276 
0 
0.08385553358599661 
0.07326578367486397 
0.07941343299243273 
0.1560001215840136 
0.2478562663390143 
0.04609214596242842 
0.03153511688467275 
0.04856545903050633 
0.02267546307305712 
0.02811225025331085 
0.02799455038706135 
0.01339739673088627 
0.01260433954547854 
0.009771074798303024 
-0.004604069005883849 
0.001202604837167773 
0.001296368543138152 
0.001224666782697137 
0.0001067815991875298 
-2.068169082406833e-05 
0.0001456193480786618 
-0.001766435387290954 
0 
0.0001222535653549271 
-3.992888070835108e-05 
-1.777356105193155e-05 
0 
0 
0 
4.059431409751245e-05 
0.005555769395326963 
-0.002047977654984309 
0.003534126203804491 
0.0001335798512195645 
0 
0 
0 
-0.004569330935648282 
-7.106875232225558e-05 
0 
-0.003816339578605758 
-0.0001363446260279838 
-0.0002994140860509850 
0 
0.003559763344632678 
0.003701078121028938 
0.004421175544286828 
-0.0002047154505108785 
7.729273023484640e-05 
0.004482741242527377 
0.004013965318338754 
-0.003217655327758711 
0.008048188634668461 
-0.001988798173916614 
0.007354158281190257 
0.005041981829429516 
0.006633099466181683 
-0.02238225053098202 
-0.02785311934692200 
0 
-0.02574411253570212 
0.1151696736372596 
0.1449651763152349 
0.1565278493645375 
0.2719229589655212 
0.05160680964939199 
0.05856769360056453 
0.05893383527614167 
0.05873452115518035 
0.03773698524873422 
0.03029982184286319 
0.01385641496256423 
0.01688069163274835 
0.006192352394238011 
-0.004528360089554304 
0.0007492196241291099 
0.0003005311940037276 
0.001075188917093281 
-2.295347106219440e-05 
-1.128060319797137e-05 
-2.089675928695674e-05 
-0.002088161689114938 
0 
0.0001748660894497832 
-7.568190517075849e-06 
-2.598577074123692e-05 
0 
0 
0 
0 
0.009056975905261099 
-0.0009186213399663236 
0.001108885647762897 
6.495170180034598e-05 
0 
-7.610032371163423e-05 
0 
-0.003371536397090275 
-8.778711540731820e-05 
0 
-0.002173561696924517 
-9.837223255998682e-05 
-0.0001731059040174609 
0 
0.001030957754141933 
0.004841739338883464 
0.001356139261289038 
-1.378691775682670e-05 
2.721947933074034e-05 
0.002468494141610132 
0.002146079755215005 
-0.005541910654375958 
0.008791197256655012 
-0.003934926491992057 
0.01025883905962906 
0.002191939430449075 
0.008402373174994513 
-0.02948350415998668 
-0.03859910752702091 
0 
-0.1411475725447136 
0.1406770887242474 
0.2071477878234780 
0.1608313417769469 
0.2877264805643711 
0.07195737230244371 
0.08792147891579162 
0.07598424148246823 
0.09443976798059986 
0.04847120057025239 
0.02831289135099293 
0.01164639842087872 
0.01866338606330278 
-0.001782237193414901 
-0.006257873711221644 
-0.001682038045796514 
-0.001966401273046285 
0.0002806674868472620 
-0.0002801078776152413 
2.079089319608128e-05 
-0.0002363049054543535 
-0.002365077669572713 
0 
0.0001261653511351367 
1.203923783299743e-05 
-1.653612994739510e-05 
0 
0 
0 
0 
0.01126032261656130 
0 
4.009416845768744e-05 
1.992870739723782e-05 
0.0001351989989209525 
-0.0001863590828620442 
0 
-0.001850729008465928 
-6.372135289442574e-05 
0 
-0.0005988074689296918 
-3.018291106100804e-05 
4.531050171944280e-05 
-0.0001020868757599920 
-5.590787426205953e-06 
0.004895044389318546 
1.269315999521118e-05 
0.0003382748338516802 
6.149205756490784e-05 
0.0006184974297356238 
0.0006570681044810260 
-0.007008602486246344 
0.01056938345884612 
-0.005467306034655801 
0.01216067256084659 
-0.001091834663712877 
0.009544501608524667 
-0.03687077704856476 
-0.05391655111789253 
0 
-0.2336562926448039 
0.1378669332082702 
0.2455179388504105 
0.1703927225871606 
0.2972375371555182 
0.1169363645011836 
0.1157545659117512 
0.1070861918513526 
0.1243017531120540 
0.06471477714814054 
0.02565274177532518 
0.009329564358668073 
0.01920754019162758 
-0.009366306849386694 
-0.009318838702283505 
-0.006685243089576281 
-0.004096672303400822 
-0.002320435677283374 
0.0006332204912174443 
0.0002867485637872880 
0.0003734287065033545 
-0.002327385905413403 
0 
3.871049251597013e-05 
6.831241160807386e-06 
0 
0 
0 
0.0001401343560736955 
0.0001703739068007541 
0.01121498949294781 
0 
0 
0 
0.0002386965001261782 
-0.0001344910654094092 
0 
-0.0004769630542408629 
-2.320862991068374e-05 
0 
0 
0 
0 
-0.0002413195232608137 
0 
0.003800361953406057 
2.317308233364112e-05 
0.0004902746989356395 
-2.442849059092951e-05 
3.784874415316387e-05 
0.0001423143679371954 
-0.007016008762415737 
0.01063415592301784 
-0.005996747451442542 
0.01186101006313083 
-0.003254690056742609 
0.006268308269289855 
-0.04457825113731150 
-0.07478050805018334 
0 
-0.2988541318688378 
0.1151871605489516 
0.2654227023504849 
0.1863692332502605 
0.2960876984412102 
0.1961202114225314 
0.1350655426882523 
0.1462554444984188 
0.1364827919643285 
0.08241541038487084 
0.02658534459307091 
0.009830128768450708 
0.02241056097394638 
-0.01137943710990798 
-0.01146359537808307 
-0.01168421567364343 
-0.002675702727547953 
-0.005973013937781093 
0.002978639487872482 
0.0005526647235813648 
0.002205314858166410 
-0.002067224099050482 
0 
0 
0 
0.001165014249387648 
0 
0 
0.0002474099705559503 
0.0003001260479900638 
0.008911077238983543 
0 
0 
0 
0.0001718766786313234 
-2.639347365285762e-05 
-5.493408634018712e-05 
0.0001178633463648286 
0 
0 
0 
0 
0 
-0.0001096811810669444 
-2.595907728973063e-05 
0.002135991678227838 
7.567520973660742e-05 
0.0002438664963029097 
-0.0001189747083013846 
6.233374431050606e-06 
5.316146267725250e-05 
-0.005722704948269029 
0.008379363991134738 
-0.005242039508158644 
0.009142617628622788 
-0.003989200790881864 
0.002367896679250341 
-0.04750987159028967 
-0.09139487664979201 
0 
-0.3214083296715686 
0.08137541584208753 
0.2669395726961850 
0.2022761883771728 
0.2925325241930404 
0.2874601040101316 
0.1411645582273229 
0.1807610546012168 
0.1300774962004078 
0.09487398147398242 
0.03412280198525607 
0.01464976591350308 
0.03018513297915933 
-0.007009755052942802 
-0.01220201496964622 
-0.01578275424753985 
0.002708712062186575 
-0.009128465610202884 
0.004138080309536983 
0.0003687248305756369 
0.004009927543705057 
-0.001700259558069262 
0 
0 
0 
0.004214092855060712 
0 
0 
0.0001781509321542267 
0.0002440531964216396 
0.005397158503522003 
0.0001564816433473416 
0 
6.442110946190319e-06 
4.309578161808823e-05 
0 
-0.0001299275930502267 
2.955265994295366e-05 
0 
0 
0 
-3.245036424056714e-06 
0 
-5.240988092496089e-06 
-0.0001105876679150935 
0.0004865032173366367 
2.561151042063605e-05 
-3.321742585217838e-05 
-0.0001704592997978062 
-0.0003000380285784854 
-0.0001822993823679897 
-0.003839758972680724 
0.004930859284399471 
-0.003580411557520886 
0.005308300604886965 
-0.003660266526409771 
-0.0004065418001537672 
-0.04441134707882099 
-0.09761290201748135 
0 
-0.3020625915068837 
0.04583708388219887 
0.2567676976482820 
0.2091900129610242 
0.2920996638950872 
0.3611421844978267 
0.1378083858219627 
0.2010950626403775 
0.1135701504013760 
0.1008475128825692 
0.04950263429917678 
0.02331670772342730 
0.04190951919016214 
0.002166407782437330 
-0.01011468516531348 
-0.01965494490631453 
0.009171086048744781 
-0.009389031902930611 
0.003557614074020311 
-0.0002203178133134634 
0.005758740216420527 
-0.0005066800710100399 
0 
0 
-2.532748408941749e-06 
0.007380624386205422 
0 
0 
4.466896689134917e-05 
9.865867952548006e-05 
0.001832478551308487 
1.356832805015186e-05 
0.0001830764874111563 
7.636440284045317e-06 
0 
0 
-0.0001225582439157815 
-1.473469727689467e-05 
0 
0 
0 
4.044273668635869e-06 
-0.002195094165919947 
-1.109663788297620e-05 
3.029503071882515e-05 
-2.369207926720188e-05 
0.0001844949703801883 
-0.0001517463710170404 
-0.0001738200800377584 
-0.0004016215054025149 
-5.520862713988250e-05 
-0.001736477423343223 
0.001764394298232047 
-0.001261678680793834 
0.002922228850819645 
-0.001563296078905120 
-0.0007010411503408192 
-0.03502756313504094 
-0.09014893019426756 
0 
-0.2569378881576970 
0.02721576037521728 
0.2362208022200160 
0.2040067929733118 
0.2991642026881874 
0.3927232396011940 
0.1256659882152760 
0.2038602486874919 
0.09015712200372050 
0.1031628702979782 
0.07444823550067398 
0.04110559683102696 
0.05764819579081078 
0.02278877157916735 
0.0009751567602427521 
-0.01661940535777844 
0.01681738362650223 
-0.006719629494486972 
0.001228788836470847 
-0.0007864698968491502 
0.007018630759180846 
0.001401275381928237 
0 
0 
-3.002305011656515e-06 
0.009544824725441308 
0 
0 
0 
0 
0 
-0.0001517184761810826 
0.0002602896679500384 
0 
0 
0 
-6.990553602319374e-05 
-2.094910993640538e-05 
0 
0 
-6.695903936918983e-05 
1.368704530557903e-05 
-0.006812785370589546 
9.589156412056284e-07 
9.563580144278777e-05 
-5.278038934324392e-05 
0.0003189125757116674 
-0.0001256732189934240 
-0.0001439856037261483 
-0.0001733660065338158 
0.0003518923239392714 
-0.0004557871840533189 
0.0003470644731900806 
0.0004176186193753444 
0.001201069253172546 
-0.0007130763783691283 
-0.0004702164717694199 
-0.02598044718292138 
-0.07286013606430929 
0 
-0.1997820659575881 
0.01912480632509138 
0.2069209410238022 
0.1800326463133763 
0.3088415222728876 
0.3777816810781466 
0.1039426635894181 
0.1966205327090275 
0.06284232655534532 
0.1046481414420362 
0.1018023469480575 
0.06566686195811823 
0.07515874964082246 
0.05327751862952294 
0.01966790420469726 
-0.008214344627979767 
0.02280539640392220 
-0.002987288533803324 
-0.002224689722391794 
-0.001031892748214826 
0.007129204857592275 
0.003174695682070492 
0 
0 
2.372555089653476e-05 
0.009741775319204397 
0 
0 
0 
0 
1.346788801233901e-05 
-0.0001583361549393333 
0.0001813734095417694 
6.345447735526616e-06 
0 
0 
-9.048966458804945e-06 
-1.357014794054329e-05 
0 
0 
-0.0001362581016517726 
1.387460523161079e-05 
-0.01122824181798453 
-5.999666429654229e-06 
6.166023818979836e-05 
-1.458391144507957e-06 
0.0003767014245095776 
-7.910541109725211e-05 
6.319576387806927e-05 
0.0002801791317280116 
0.0009700251494105860 
0.0001294006900477987 
0.0008908767211641277 
0.001178146502612950 
-0.0002982461905805687 
-0.001478532958241188 
-0.001360264013819717 
-0.02182321714381489 
-0.05426783867030673 
0 
-0.1467927720673175 
0.01621345103462203 
0.1684946771672984 
0.1413997921571017 
0.3150380858472960 
0.3306000910598904 
0.07777313265734974 
0.1861784866657486 
0.03906562773998182 
0.1089049601068066 
0.1361241552292236 
0.08987329838056721 
0.08808208702068508 
0.08774372136321920 
0.04100352103001823 
0.0008610606063546021 
0.02628247628559978 
0.003079279328443770 
-0.003164685222636893 
-0.0009779609297567904 
0.005913530357704346 
0.003992535103428726 
0 
1.232570694026242e-05 
0.0001078881594950768 
0.007932338658295473 
0 
0 
0 
0 
1.175135124521549e-05 
-2.548564362902923e-05 
3.827801608491181e-05 
5.536694772039418e-06 
0 
-1.313908645103631e-05 
0 
-0.0001294923411189206 
4.788249745795665e-06 
0 
-8.441730557129559e-05 
1.051203535038727e-05 
-0.01369536496368207 
-3.323595851395042e-05 
-7.541315436240082e-05 
7.262992299524555e-05 
4.478975507774178e-05 
-3.348266613610526e-05 
0.0004250082657723886 
0.0005727408438813123 
0.001509876916392300 
0.0007627617734469255 
0.001185693295704000 
0.001496706663742346 
-0.001869873822317826 
-0.003174483655589342 
-0.003120525756463723 
-0.02158540040130634 
-0.04215992569619780 
0 
-0.1162810700508232 
0.006642874728342622 
0.1139230779632927 
0.09795763184661920 
0.3084428845450737 
0.2687949548140435 
0.05921621618484380 
0.1792550365995366 
0.03024148894015938 
0.1139919180726628 
0.1530041698174639 
0.1071566005278287 
0.08500236238995883 
0.1156454950269777 
0.06214740632141264 
0.006156714100680016 
0.03040739587749480 
0.007144175850458043 
-0.001586436862563245 
-0.0002533283256339569 
0.002791983536581670 
0.003304979862461571 
0 
1.075474576770383e-05 
0.0001649059312258998 
0.005190918159258195 
0 
0 
0 
0 
0 
0 
0 
0 
1.376307769131901e-05 
-1.061251852595903e-05 
0 
-0.0001620618209597330 
8.531634717151357e-06 
0 
-9.443083752003058e-06 
3.843092814107610e-06 
-0.01272669463884033 
1.197933148312267e-05 
-9.293969776700757e-05 
0.0004409378839435443 
1.761265138404397e-05 
0.0002770787189230815 
0.0005653225131777506 
0.0009112974199718482 
0.001605709412716413 
0.0009806182170116905 
0.001172437499576359 
0.0009662248289859470 
-0.003413240488922807 
-0.005627808279953313 
-0.003626267701220717 
-0.02434358040457949 
-0.03457845898018819 
0 
-0.1018037513594872 
-0.007968418168667519 
0.05688295815807147 
0.05780503109209823 
0.2835601390981649 
0.2068817971884102 
0.05750204080261301 
0.1746777256177219 
0.05232996312635832 
0.1162391704717073 
0.1533427310621446 
0.1142157221221925 
0.06693483395672242 
0.1310681814144009 
0.07400919709608915 
0.003370908983227079 
0.03537783276437168 
0.01399978462313737 
0.003574887652900395 
0.003281971070661578 
0.001174085106010454 
0.003041466297335462 
0 
0 
0.0001348340180061248 
0.002105539097126110 
0 
0 
1.426549046411863e-05 
0 
9.276127038273430e-05 
0 
0 
0 
1.660273107171613e-05 
0 
0 
-0.0001186295394864813 
3.633572828198833e-06 
0 
0 
8.707024148128621e-06 
-0.008976428977672018 
9.410280158733068e-05 
1.922653337305566e-05 
0.0007262486247953451 
1.188011606240880e-05 
0.0006867449231146786 
0.0003703258375382358 
0.001231152494615348 
0.001595883118556591 
0.0007800729671288630 
0.0009872092220459291 
-0.0001232461483355747 
-0.004722025665668258 
-0.007357225523319696 
-0.001625437556349117 
-0.02665177658396264 
-0.02821609900987443 
0 
-0.08715840307294419 
-0.03329669468121115 
0.008998326080148276 
0.01631892814864303 
0.2422251164927343 
0.1419760734441325 
0.07878909514080425 
0.1717500030718511 
0.1064745490775022 
0.1141134048156216 
0.1484136608974238 
0.1160995879077382 
0.04478063693054953 
0.1365471856270539 
0.08091807596922458 
0.0004717992285705992 
0.04292605039075475 
0.02279175466553443 
0.008941859956153557 
0.008515798613939097 
0.0007319802718606533 
0.003491780855554709 
0 
0 
0 
0 
0 
0 
1.720880366251818e-05 
2.035390267773227e-05 
0.0003988541688109426 
9.761038672366355e-06 
0 
0 
9.607882689114907e-06 
0 
0 
-4.570760906129663e-05 
0 
0 
0 
1.619329619883013e-05 
-0.004234882337238986 
0.0001165226899896487 
1.341505104869799e-05 
0.0008093975154520144 
6.518831870329053e-06 
0.0008055601577407166 
0.0005840776526656252 
0.001597507470431151 
0.001284738477490918 
0.0004956450207447106 
0.0009573613410355621 
-0.002038081176465441 
-0.006629033162768965 
-0.009035911542822541 
0.0002709971896184291 
-0.02959345196975084 
-0.02632477679155697 
0 
-0.07384118420267591 
-0.06376878210499846 
-0.01628939000984636 
-0.02038276415965935 
0.1950969422743749 
0.07734556513072724 
0.1184177093458605 
0.1623107823803835 
0.1795606685217491 
0.1067731789921180 
0.1464298536874942 
0.1063824676369744 
0.02972226959130146 
0.1320210042614124 
0.08633240320667286 
0.005573802282090078 
0.05317982636496711 
0.03317003861934640 
0.01375393639497323 
0.01329351649130784 
0.001427126622917749 
0.004718563830704619 
0 
0 
0 
0 
0 
0 
9.958612597848603e-06 
1.963112433797218e-05 
0.0003846906367107840 
1.374054357382506e-05 
0 
0 
7.002874425021622e-06 
0 
0 
0 
0 
0 
0 
3.957327723114629e-06 
-0.0002172217596375471 
2.138108280398763e-05 
-0.0002661674007397516 
0.0002674840828345600 
-0.0003001950962273350 
0.0005601060977126758 
0.0009934716678547714 
0.0004850465499537554 
-0.0003187541136756069 
-0.0005650816071624759 
-0.0002260555522143057 
-0.004383556729666058 
-0.009376032056837342 
-0.01283290586414363 
-0.001335915110376268 
-0.03500822003826327 
-0.02956928184995832 
0 
-0.07127314239597536 
-0.09317410658784353 
-0.01254031494129247 
-0.06637602246755246 
0.1483088383686857 
0.01694620864776926 
0.1599386529827216 
0.1507934895942213 
0.2504498459647711 
0.09492625173994336 
0.1444496061851884 
0.08964666824310034 
0.03323130406576721 
0.1244076197150250 
0.09445882074035485 
0.01795113207523198 
0.06503512816157478 
0.04173653432644491 
0.01486482280801755 
0.01612422474922725 
0.002220108569649147 
0.005502290512114432 
0 
0 
0 
7.504299425072534e-06 
0 
0 
0 
1.027620750714664e-05 
0.0002013721038509157 
-7.797831381288266e-06 
1.665538908549061e-05 
0 
7.720001922409167e-06 
0 
-9.123260851758783e-06 
0 
0 
0 
0 
-2.444427185610131e-05 
1.092703791245546e-05 
3.464469754908736e-05 
-0.001676872845324936 
-0.0006418716780310686 
-0.0002400861349256435 
-4.124055786858101e-05 
-6.563852489207580e-05 
-0.003108334803013315 
-0.003111029332492181 
-0.005277366989944804 
-0.003503578747431496 
-0.008083255779175482 
-0.02017481002279835 
-0.02530749096107401 
-0.01910744135920234 
-0.04961346497778379 
-0.03994776594937186 
0 
-0.08059823240354479 
-0.1241328877027889 
0.007023461433423653 
-0.1163751362267655 
0.09839307343100161 
-0.02720167343527990 
0.1831358062531997 
0.1446276952860955 
0.2979645954691899 
0.08183468193982434 
0.1358136822133059 
0.06644857298091186 
0.05318075414889714 
0.1141685040656433 
0.1037155358382278 
0.03666220333041715 
0.07237508848209638 
0.04587853281913543 
0.01347321192424318 
0.01286872515593677 
0.002275788092516073 
0.004864775857352442 
0 
0 
0 
-0.002529301024749659 
0 
0 
0 
0 
0 
-1.648756672896761e-05 
1.755708484375098e-05 
0 
0 
0 
-9.021740079636862e-06 
0 
0 
0 
0 
-5.673106632703989e-05 
0 
5.141116964794635e-05 
-0.003482605726745829 
-0.002193710780570024 
-2.271823596115859e-06 
-0.002029133842120135 
-0.003224935139112348 
-0.008570242929328079 
-0.008002434780121349 
-0.01118865096590222 
-0.008082274788280086 
-0.01310021935154404 
-0.03510883896011927 
-0.04473659152821453 
-0.04816047908227065 
-0.07063770730036736 
-0.05315014224073707 
0 
-0.09070918276221476 
-0.1429944415853991 
0.02385208656717774 
-0.1650096142324175 
0.04265262175302926 
-0.04887651286228714 
0.1791811175920699 
0.1466167069302989 
0.3125894004240146 
0.06816780983998205 
0.1096733525371074 
0.04231596409152790 
0.07795651647138237 
0.1036088873655724 
0.1134464371033698 
0.05273153820397167 
0.07577918132902367 
0.04785159508112127 
0.009726664830813143 
0.006332714774528151 
0.001481559226539043 
0.003265637836748176 
0 
0 
0 
-0.005938645170790305 
0 
0 
0 
0 
0 
-8.417858150093320e-06 
1.361996587170776e-05 
0 
6.296246123290285e-06 
0 
-5.427001548679560e-06 
0 
0.0001163649440919324 
0 
0.0005606776333297598 
6.956694942243430e-05 
-0.0002034906458057231 
-4.409472398629488e-05 
-0.006146647446864466 
-0.003077758767855640 
0.002419831813798444 
-0.002672973365520075 
-0.001211383317435171 
-0.006998346767923193 
-0.004678470931135048 
-0.008693596597650786 
-0.002490543299548024 
-0.007041065322415034 
-0.04423920125235860 
-0.06377918656747267 
-0.07926611488058133 
-0.08453331980112230 
-0.06609625546151743 
0 
-0.1011940826289635 
-0.1274581562650012 
0.02222265433824517 
-0.2070453266432265 
-0.02188321314756565 
-0.04783176873632141 
0.1457348713882374 
0.1530836950553672 
0.2945088386866184 
0.05392210660287771 
0.05884175021996711 
0.02175424331468328 
0.09483888096116685 
0.09566833608645140 
0.1196053734758105 
0.06272970809054416 
0.07629133786535160 
0.04923507381143361 
0.006518930650084445 
-0.0004009727093010883 
0.0005499584530193479 
0.001526477953176414 
0 
0 
0.001176070075388489 
-0.008472724943688734 
0 
0 
0 
0 
0 
0 
8.894685026853923e-06 
0 
1.202801621345462e-05 
0 
0 
0 
0.0002038663956649728 
0 
0.001269253352858803 
0.0002400352532198466 
-0.0004519171663954443 
-0.0001932090400878770 
-0.008786828474685955 
-0.003698890089669815 
0.004655001550348097 
-0.005330624986897566 
-0.0001559387881602162 
-0.003291464706776410 
-0.0005273727145795415 
-0.0009923098448865533 
0.005671047030306053 
-0.0002997575457455465 
-0.05209854429769854 
-0.08131707941775257 
-0.1068900917123868 
-0.08804001903572470 
-0.07731880890154118 
0 
-0.1016729540033684 
-0.09084312092005765 
0.008379204940050965 
-0.2397451793801872 
-0.08753199056558686 
-0.03382537591651161 
0.09478782187073420 
0.1506213482066951 
0.2487669128135019 
0.04006349945079724 
-0.004603219134541550 
0.01175397115775407 
0.1012230310094055 
0.08610171949421162 
0.1188543655299854 
0.06159381368285315 
0.07133808852397025 
0.04749699619406149 
0.003960291385100918 
-0.004357983803130972 
-0.0001178047181926442 
0.0001213417608444389 
0 
0 
0.002632562117638764 
-0.009526346289396170 
0 
0 
0 
0 
0 
0 
9.222169360696158e-06 
0 
1.247086347170096e-05 
0 
0 
-8.608464733983323e-06 
0.0001448230749671649 
0 
0.001899260210359294 
0.0004040559796446069 
-0.0009041289298290872 
0.0006911652835103123 
-0.01118153671098724 
-0.001543167341467449 
0.008145342201082277 
-0.006837708521404939 
-0.002984474753512000 
0.008528634355788385 
0.01014135299775895 
0.009301560069367495 
0.01266313634894354 
-2.124235557312658e-05 
-0.05126462032254079 
-0.09293786269111434 
-0.1236637731246320 
-0.07128739085007764 
-0.07492813550255496 
0 
-0.08250168773599248 
-0.03670582284761358 
-0.006157181972700309 
-0.2624753997240934 
-0.1451599073221849 
-0.01650341669619766 
0.04232472488656476 
0.1313342656648063 
0.1805373945378350 
0.02552438132008420 
-0.06948964074648463 
0.009092716769344535 
0.09169969245475647 
0.07770958186776197 
0.1088852053877384 
0.05140560840683891 
0.06259832430341140 
0.04289532505857475 
0.004391144790512977 
-0.003581368419852856 
4.649016903952060e-05 
4.524310430296728e-05 
0 
0 
0.003914725428445265 
-0.008237700507750207 
0 
0 
0 
0 
0 
0 
0 
0 
2.520605446076360e-05 
0 
0 
-1.233770441110374e-05 
0 
0 
0.002225159849053741 
0.0003962154346453397 
-0.0005720202035367269 
0.001884606581051137 
-0.01282742556596310 
0.001963706581876563 
0.008975110682490430 
-0.008499333206481170 
-0.007429273908456768 
0.01854975435493361 
0.02061680766835542 
0.02459884719140420 
0.001144580833971771 
-0.009405942977584137 
-0.05735807119737222 
-0.09857515377790964 
-0.1299040104316301 
-0.04551011145678469 
-0.05620109817432572 
0 
-0.05415482432915930 
0.01602901440759050 
-0.007621845873405461 
-0.2760469502676600 
-0.1830819785518311 
-0.001404425260739419 
0.002999424794157259 
0.1027753811107782 
0.1010593957362909 
0.01190684059343948 
-0.1195599644897440 
0.005544666790140969 
0.07429242219409900 
0.06770213140738118 
0.09383801523500664 
0.04274002287501057 
0.05338472582009014 
0.03755326425124427 
0.009599511118262261 
0.0001153702318060436 
0 
0 
0 
0 
0.004567809309502412 
-0.005367125481571171 
0 
0 
0 
0 
2.440158378577884e-05 
0 
0 
0 
9.028932294024164e-05 
0 
0 
-9.763981433257093e-06 
0 
0 
0.002058059008506846 
0.0001771194457357605 
-0.0001987394029464202 
0.003118879219212904 
-0.01352685427702206 
0.008002032529587777 
0.008549531049620352 
-0.007023343625440106 
-0.003651204549292603 
0.03399706835674728 
0.02723885824746005 
0.02868316914035491 
-0.03398170115091738 
-0.02378072367472162 
-0.07352232099050950 
-0.09593189407535707 
-0.1171277091153574 
-0.01536982119537065 
-0.02001859201534289 
0 
-0.02639671644669011 
0.05024542731205116 
0.006458911757322790 
-0.2788514805845671 
-0.1945152790425595 
0.009754855276092812 
-0.01847409189684968 
0.07563863171604930 
0.03526222787501344 
-0.0002055319609987214 
-0.1405896883382919 
-0.004605219774578573 
0.05128857862649733 
0.05184016162169447 
0.07226175697042501 
0.03807758656245615 
0.04542356276780743 
0.03153608380517902 
0.01860001822649477 
0.004352658581271728 
0 
0 
0 
0 
0.004224784616062806 
-0.001949376272507358 
0 
0 
0 
0 
2.984384769574837e-05 
6.211186871913198e-06 
0 
0 
0.0001117848903458228 
7.231720328404788e-06 
7.580503233785920e-06 
0 
0 
0 
0.001511006574440867 
0.0001670423900189673 
1.063420488920691e-05 
0.004273117184598115 
-0.01331411443447222 
0.01505164451330040 
0.007450266181781443 
-0.0007778544945434704 
0.01228600293898645 
0.04802684370584613 
0.01206021300795022 
0.01680344049319521 
-0.08684925051601203 
-0.03549780465875970 
-0.08628311230245876 
-0.09336194576489719 
-0.08904258954890450 
0.004640902536208628 
0.01528538571298143 
0 
-0.01007940730534868 
0.05685507454821239 
0.02869256016591524 
-0.2587961953195784 
-0.1802432819756598 
0.01822243778525865 
-0.01378676478204219 
0.05855826191906158 
-0.0007260931260905304 
-0.009091573742714692 
-0.1295148587439600 
-0.01487061433251086 
0.02811940426473919 
0.03419078401253007 
0.05083763472448487 
0.03715218400849655 
0.03667753204109996 
0.02465670730108249 
0.02364149280153812 
0.006581371692901616 
7.988967709202159e-05 
6.416681472893037e-05 
0 
0 
0.003101795091433743 
0.0001197889948385539 
0 
0 
0 
0 
1.952505756590958e-05 
7.118463865906069e-06 
0 
0 
2.500719903985030e-05 
8.288068111245105e-06 
8.687798236936274e-06 
0 
0 
0 
0.0008051855554890091 
0.0002246993105122768 
0.0001686652159329396 
0.005985603957901100 
-0.01407532932841371 
0.01842658232766345 
0.006956329004189512 
0.009376893321874389 
0.04345806124801165 
0.06567211417696006 
-0.0002027682428824167 
0.01242482858630546 
-0.1386938114654243 
-0.02914295269065333 
-0.09456079753311059 
-0.08889532243902110 
-0.05127594323542149 
0.009435827490167536 
0.03742964806360430 
0 
-0.01190338855971893 
0.03339274691104986 
0.04979681661690798 
-0.2149110723579610 
-0.1462259644525930 
0.02292286713138983 
-0.001315571662159350 
0.05420940312934391 
-0.005087928977147284 
-0.01590028181791961 
-0.09916583035437045 
-0.02249771468573152 
0.01116443816238890 
0.01796284868152805 
0.03130953271982286 
0.03548373828418787 
0.02484432880527011 
0.01666610981006569 
0.02199785504243309 
0.005603651338786846 
0.0002217819113325423 
0.0001982813626881140 
0 
0 
0.001652885332172261 
2.679778302276889e-05 
0 
0 
0 
0 
0 
0 
0 
0 
0 
0 
0 
3.207576804353297e-06 
0.001453937732799594 
0 
0.0001621208212784897 
-0.0003121751480615706 
0.0008912917900432521 
0.006597651769321503 
-0.01470537796065320 
0.02183223142712439 
0.009119817130458386 
0.01787736063798991 
0.08097314342987035 
0.08623881839746518 
-0.01499468889358411 
0.005526321639509873 
-0.1809747665971562 
-0.02108888458798988 
-0.1015621040968796 
-0.08528844910968517 
-0.01839047952120891 
0.004749301491875764 
0.03334748620000633 
0 
-0.03474586086600371 
-0.004871561517520917 
0.05430602260738322 
-0.1639323554511207 
-0.1139612984858535 
0.01822255622994189 
0.004829214647417814 
0.04602278747287026 
-0.003545051116375871 
-0.02548833900844351 
-0.06605394386826502 
-0.02530257971367346 
0.001691118626792709 
0.004734061202124920 
0.01569767540074720 
0.03117909021216159 
0.01490164600413969 
0.009262709604267576 
0.01539714095501012 
0.003502812895990230 
7.061674696861479e-05 
0.0001725771211225095 
0 
0 
0.0003328017072638527 
0 
0 
0 
0 
0 
0 
0 
4.147664834011476e-05 
0 
5.608762954601351e-05 
0 
0 
6.417297239398006e-06 
0.003548899282087845 
0 
0 
-0.001039124283823383 
-0.0004571059067296495 
0.005167868995031675 
-0.01537858355742489 
0.02519960782749568 
0.01736795729296817 
0.02699400871904305 
0.1124626761798893 
0.1199575199935382 
-0.01881151083215979 
-0.003017113318735260 
-0.1998217572671028 
-0.01642699761917030 
-0.1123903560859184 
-0.08145131114829662 
0.002320960687299488 
-0.001465812847616277 
0.01135968139089329 
0 
-0.06902963186116726 
-0.04177439302199303 
0.04063599348905522 
-0.1085274321481505 
-0.08640145249545303 
0.008697410271167914 
0.005222897136444917 
0.03272868880074745 
-0.002217048499043639 
-0.02415772041641373 
-0.04002017586177128 
-0.02289749477283866 
0.0005655093076539754 
0.0007027638346844782 
0.006392433957908396 
0.02422009961285825 
0.009401813794957106 
0.004978371310276760 
0.007994095288307603 
0.001169558731173811 
-7.684819326460866e-05 
6.748625310230573e-05 
0 
0 
0 
1.867518586464358e-05 
0 
0 
0 
0 
0 
0 
0.0001078579300868429 
0 
0.0001458530490868958 
0 
0 
5.413640289606570e-06 
0.005223018310321377 
0 
0 
-0.001361519940032235 
-0.003939638658469662 
0.0007086928595845999 
-0.01468924121248027 
0.03017991048236528 
0.02734231552739158 
0.03865144795403149 
0.1205624258192004 
0.1554833247066657 
-0.01008223936507580 
-0.02506691752770409 
-0.1953421827221325 
-0.02257749389296419 
-0.1236399464268061 
-0.08171479503048643 
0.005895742362746104 
-0.004199513292796818 
-0.01323729712278734 
0 
-0.1000540548132781 
-0.06884366659114262 
0.01813568191330484 
-0.06109511041930790 
-0.06538706160457246 
-0.005691927876918709 
-0.004141511627337745 
0.01729337281837699 
-0.0009460946710520041 
-0.01553490082175754 
-0.02238461517284677 
-0.01585799363419626 
0.004678457563129457 
0.004431292409082999 
0.003667674781815200 
0.01866925055613755 
0.007185672743221667 
0.004572481639323857 
0.003111030996014451 
-8.627586100379280e-05 
-9.913238600309328e-05 
1.755439964979550e-06 
0 
0 
0 
-0.0001509741765164906 
0 
0 
0 
0 
0 
0 
0.0001359844000408275 
0 
0.0004100336809381301 
0 
0 
0 
0.005590511553574913 
0 
0 
0.001381304422701888 
-0.007220052979056990 
-0.006767440972897663 
-0.009749396792311950 
0.03972733333345691 
0.03266857122807043 
0.05193816779690657 
0.09352881218220915 
0.1692912176074765 
0.004735386626019801 
-0.06768063016571282 
-0.1731561444166551 
-0.04240809889356711 
-0.1287038378575773 
-0.09881627908327874 
-0.008802674569942980 
-0.0008148287591608568 
-0.02906538560826554 
0 
-0.1153153348771234 
-0.08187314855909614 
-0.01126876029315467 
-0.03137771352245820 
-0.04609198621411473 
-0.02139822415810826 
-0.01873752873838955 
0.002208043664367800 
-0.0009599772828904305 
-0.005410541693193909 
-0.01216175559422919 
-0.006147464441543512 
0.01043213437119464 
0.01053169085835680 
0.004524133432919427 
0.01496462323859875 
0.006871191822205479 
0.006189023210982801 
0.0009702660502074810 
-0.0002256681748927555 
-2.427379467891897e-05 
0 
0 
0 
0 
-9.986154735253699e-05 
0 
0 
0 
0 
0 
0 
7.719487746587861e-05 
0 
0.001393985855683573 
0 
0 
0 
0.004370247526381514 
0 
0 
0.005025377032506754 
-0.01038598654718089 
-0.01466790623352962 
-0.002276806123620055 
0.04388626206579992 
0.03761862040511129 
0.06586260722193198 
0.04781773516175357 
0.1619104326332322 
0.01708289696173576 
-0.1275868492821626 
-0.1378367196497407 
-0.08170307669979623 
-0.1323069586830565 
-0.1359876880646824 
-0.03821728129783446 
-0.007773507894908944 
-0.03662320515345642 
0 
-0.1186563306478917 
-0.08944574061376402 
-0.03560400931914063 
-0.02019300817103053 
-0.02548468335552746 
-0.02976117815417672 
-0.03435892214693365 
-0.01168318283875316 
-0.003678937423902763 
0.001596089983673726 
-0.007230893781714618 
0.001157341621395753 
0.01226374983904348 
0.01150935899715165 
0.003522962871420909 
0.008902548880046525 
0.005682614630525738 
0.006307259408751252 
6.499155352609802e-05 
-0.0001753341457849129 
0 
0 
0 
0 
0 
0.001107815837013915 
0 
0 
0 
0 
0 
2.235646551892778e-05 
0 
0 
0.002402307382452773 
2.602976041432663e-05 
2.728516508311937e-05 
0 
0.002346392281218063 
0 
4.634989837577258e-05 
0.009090766696116460 
-0.01149830717163827 
-0.01807290621069737 
0.006168697322420354 
0.04043850365388706 
0.03704886601842839 
0.07557825594657921 
-0.001023513055434851 
0.1319843974615051 
0.01086635644723360 
-0.1928345862218217 
-0.1045649123231315 
-0.1388810339645016 
-0.1390605859807646 
-0.1781728670426992 
-0.07091355933838728 
-0.02626963678129517 
-0.04414249676458919 
0 
-0.09978457866707142 
-0.07782136433455943 
-0.04327036236876899 
-0.01155561513669336 
-0.007232388110137098 
-0.02753533603725478 
-0.03637147292005806 
-0.01556430625354484 
-0.004337862278419645 
0.005594261964577857 
-0.001697280019166999 
0.006196076653332379 
0.01296720666540093 
0.01074647559955540 
0.003344713118932720 
0.005117088492438409 
0.004394540965232793 
0.005260540862484077 
-0.0001182828380603339 
-5.120518823769836e-05 
0 
0 
0 
0 
9.514709578522117e-05 
0.002494264103723728 
0 
0 
0 
0 
0 
7.286425821557972e-05 
0 
0 
0.003073715716815487 
8.483627174936991e-05 
8.892789034062310e-05 
0 
0.0004115501378602808 
0 
8.168610021889631e-05 
0.01353274618628964 
-0.009570789766745950 
-0.01214030586290169 
0.01456208108107623 
0.02602265484617557 
0.03192246339914400 
0.07415930188937997 
-0.04028755441959362 
0.08207334731707927 
-0.02451576972379260 
-0.2530219032664829 
-0.09056621869580442 
-0.2061920715920940 
-0.1563644436473341 
-0.1985274086576887 
-0.1001916519472294 
-0.05808231259109017 
-0.04987071794981517 
0 
-0.07276261932095611 
-0.05582374898101725 
-0.03738861925412973 
0.0003499612181819689 
0.003373725702166252 
-0.02069703664731881 
-0.02563952971342375 
-0.01301899786610473 
-0.004172569761372612 
0.004489411217641138 
0.0006609692638066226 
0.005103676501331970 
0.01010296020030998 
0.008417736437031300 
0.003140956817891877 
0.003835228501907560 
0.003208429579108273 
0.003726196536022504 
0.0003042573812279741 
0.0001646679545378596 
1.150104495813919e-05 
9.237556689182199e-06 
0 
0 
0.0001676852695304093 
0.003293802185588053 
0 
0 
0 
0 
0 
0.0001009903890424709 
0 
0 
0.002872799131538587 
0.0001175836864149911 
0.0001232546993843608 
3.660263924981447e-05 
0 
0 
6.483869732928112e-05 
0.01721488589527344 
-0.005641488595503581 
0.0003128135677165110 
0.02313650349315907 
0.005168469097811469 
0.02243977323463913 
0.05933386257740860 
-0.06184594040097711 
0.02242499312717309 
-0.08337266072144926 
-0.3079580913138434 
-0.1083738201843744 
-0.2654712998502143 
-0.1914473719555158 
-0.1928521332920436 
-0.1091053037526099 
-0.09902238160044151 
-0.05540842807814561 
0 
-0.05105449227519705 
-0.02944203570675531 
-0.01807633322042281 
0.01244557547788676 
0.01102238102648256 
-0.01275687410489696 
-0.01059644220397341 
-0.008848095161030030 
-0.001813981791034529 
0.001568912327919525 
-0.0001114443186018681 
0.001574648837435893 
0.004691783357045358 
0.004409986960334782 
0.001914550039137246 
0.002252785666599592 
0.001739583705285765 
0.001855797520500671 
0.0005949544864314884 
0.0002587681476053878 
1.807336532293945e-05 
1.451639719196154e-05 
0 
0 
0.0001331009120098260 
0.003078499422197956 
0 
0 
0 
0 
0 
7.060508510181116e-05 
0 
0 
0.001953420501092942 
8.220590359765604e-05 
8.617066061178494e-05 
8.534625727469827e-05 
0 
0 
2.496911588110562e-05 
0.01852098911220843 
-0.001493224490084999 
0.01320808105494880 
0.02858260975166568 
-0.01689221025318996 
0.009775187990253445 
0.03895093955602497 
-0.06918388240971764 
-0.03675172607692338 
-0.1519977991285743 
-0.3489580832695803 
-0.1538291473544961 
-0.3056287545128246 
-0.2399778535020865 
-0.1837181962504967 
-0.1043919855216855 
-0.1413445791902383 
-0.06065877484366394 
0 
-0.03602762920587118 
-0.003619886509103990 
0.007326032485699159 
0.02428607704331488 
0.01858877727967372 
-0.003337329304701661 
0.003759707568334893 
-0.003710261931732225 
0.002211307637178464 
-0.0002089587449085761 
-0.0008605123640711641 
-0.0004355497399768245 
0.0004605571205916472 
0.0008143616769932434 
0.0006287834834726759 
0.0006286872841741561 
0.0004504031490167509 
0.0002701144345348207 
0.0004705067593660657 
0.0001769903812189468 
1.236169075683284e-05 
9.928821211986856e-06 
0 
0 
5.125661422493182e-05 
0.002093290762276008 
0 
0 
0 
0 
0 
0 
0.0002707841107524359 
0 
0.001166931882617379 
0 
0 
8.300982881054025e-05 
0 
0 
0 
0.01685787833817152 
0.0004952268484524564 
0.02109127804572597 
0.02907858321541318 
-0.03118716114854929 
-0.001958039565455035 
0.01735678122681980 
-0.06651294733205629 
-0.08515428579282920 
-0.2141377870959068 
-0.3665490789307084 
-0.2056562833934543 
-0.3209421532080358 
-0.2929244615474340 
-0.1975423840357092 
-0.09529784575108834 
-0.1780576298325852 
-0.06168457519902215 
0 
-0.03025481425174028 
0.009866639925165661 
0.02009094741273249 
0.02341386217429198 
0.01969533479109044 
0.001727270055880454 
0.01240495983465920 
0.0001445301888325033 
0.005784558631341038 
-0.001005689306387891 
8.990701826157733e-05 
-0.0008134723702296275 
-0.0001407782065654839 
-0.0001945209577212603 
3.802382463767926e-05 
0.0003025679282194739 
-5.536610350250507e-05 
0.0001560886324947604 
0.0003567442837734372 
3.985486015229749e-05 
-1.101355473327103e-05 
0 
0 
0 
0 
0.0008588017853094380 
0 
0 
0 
0 
0 
0 
0.001382370008575933 
0 
0.001827134814070028 
0 
0 
0 
4.576435997373645e-05 
0 
0 
0.01324945111002129 
0.0006188488336417603 
0.01822742258683035 
0.02280785788759643 
-0.03086120487203398 
-0.006450596857562914 
0.005517020409256485 
-0.05337072636351511 
-0.1086469783592648 
-0.2558144211214467 
-0.3544420957946796 
-0.2425562108450538 
-0.3089295127210833 
-0.3310949246048590 
-0.2304048877304155 
-0.09535399773491858 
-0.1917544133579726 
-0.06547209460437345 
0 
-0.02727689303667688 
0.005766306984129282 
0.01993113281651986 
0.01447138334100486 
0.01473091862384016 
0.003218862489963315 
0.01319975588409223 
0.001137830820691560 
0.006803034863999617 
-0.001600372492771613 
0.0005500487077319662 
-0.001520938643738958 
-0.0004816260874256631 
-0.0003813896533049500 
-7.318978399764781e-05 
0.0006057188034667577 
-0.0001549089176530550 
0.001649467825378498 
0.0003141893170845320 
-9.215393451201685e-06 
-1.215413725045301e-05 
0 
0 
0 
0 
-1.977289832232175e-05 
0 
0 
0 
0 
0 
0 
0.002735699284633212 
0 
0.003473223838716951 
0 
0 
0 
0.0002059396198818344 
0 
0 
0.008145309987775459 
0.0007838781107867555 
0.009588915942738042 
0.01094460855230400 
-0.02220594085992338 
-0.008146047942497946 
-0.0003652335686280617 
-0.03833006533803617 
-0.1149790875427350 
-0.2731758507355168 
-0.3272419396457559 
-0.2551043082530160 
-0.2783804146241569 
-0.3420431439604520 
-0.2730445232695484 
-0.1163957684613500 
-0.1883422920532640 
-0.08112917534953193 
0 
-0.02366005500581460 
-0.007008251168489636 
0.01151601515700766 
0.002970389048375862 
0.007593366138946677 
0.004809937774759065 
0.009700690036180123 
0.001058608752539098 
0.005645722769871599 
0.0002430298585350616 
0.0003566255503847807 
-0.001500686210482186 
-0.0005087475182460089 
-0.0003375404851428991 
-0.0001033853539763216 
0.0005731085641928227 
-0.0001219449140736663 
0.004275015623731194 
0.0002194677121004322 
-1.431079558321405e-05 
-8.155227461296843e-06 
0 
0 
0 
0 
-2.597383524787537e-05 
0 
0 
0 
0 
0 
0 
0.004064491548775648 
0 
0.004836872181558526 
0 
0 
0 
0.0001682513234328743 
0 
0 
0.002873981248025035 
0.0006227076432232745 
-0.0004884923760278403 
-0.001379012266480217 
-0.01130164926711780 
-0.01029217784316329 
-0.003481443058929138 
-0.02535817417150979 
-0.1110894555713602 
-0.2708926135746023 
-0.2932146330206276 
-0.2438109056919998 
-0.2365473819561382 
-0.3287533962665677 
-0.3028990542261527 
-0.1638774647851566 
-0.1855009290766157 
-0.1153975488681026 
0 
-0.01951117568522813 
-0.01890047243694707 
-0.001355571294806518 
-0.006409237519828143 
0.0005110047322525375 
0.005803480599059558 
0.004551728922381117 
0.0004590880974443061 
0.003258332415649236 
0.003093804089738455 
9.968295751732546e-05 
-0.0007654283378365407 
-0.0002618047316053512 
-0.0001461548575869254 
-5.451710108122630e-05 
0.0002918683989994943 
-5.103070743520437e-05 
0.006787661273217261 
6.945235704629315e-05 
-1.032444228496980e-05 
0 
0 
0 
0 
0 
-1.614141039907071e-05 
0 
0 
0 
0 
0 
9.489940465725616e-05 
0.005102766821845893 
0 
0.005451742215106677 
0.0001104919185279644 
0.0001158208984407997 
0 
4.811987850180459e-05 
0 
0 
0.0001507093639582043 
-0.0001070581600138249 
-0.009107734505289590 
-0.009441837726842468 
-0.001974137647667359 
-0.01113987953734037 
-0.003280028298984658 
-0.01541243680819662 
-0.09542822126710894 
-0.2492363900471475 
-0.2536226748961520 
-0.2145495576876446 
-0.1883558240070483 
-0.3008294705219266 
-0.3072912591591820 
-0.2215946598023987 
-0.1946292590587787 
-0.1554330650686640 
0 
-0.01324922690680809 
-0.02448591785724073 
-0.01390785051337155 
-0.009217538603777274 
-0.003898216147930268 
0.005831535146262210 
0.0003083509526975334 
-5.924743199875162e-06 
0.0008433649578877672 
0.005513333744727454 
0.0001066849570805364 
0.0001646110680475701 
0.0003959064099709814 
0.0003169880008310658 
0.0001077395674518263 
0.0001672370810827858 
0.0001270627507342993 
0.008434770910627411 
-5.892857814981816e-06 
0 
0 
0 
0 
0 
0 
0 
0 
0 
0 
0 
0 
0.0008951990686017998 
0.005686384450723871 
0 
0.005134037066487560 
0.001042285385366710 
0.001092554382014241 
0.0004161614855564865 
0 
0 
6.416366431599183e-06 
4.406925367585155e-05 
-0.0004845490570704515 
-0.01026483535041228 
-0.009082472871234289 
0.0004273685758685979 
-0.007372055364547630 
-0.0004593582998734790 
-0.004365002551437215 
-0.06524009729664416 
-0.1983516683441571 
-0.2025634185150906 
-0.1738551982878964 
-0.1444883845708246 
-0.2673882609262469 
-0.2855605865279388 
-0.2690526431062933 
-0.2288865227723612 
-0.2027292610632831 
0 
-0.01159680327405877 
-0.02215898687175445 
-0.02327240334762129 
-0.006516914893880353 
-0.004486806492629768 
0.004613667686204009 
-0.0006356351380107065 
0.0002593541050347046 
-9.341711459761257e-05 
0.006470484887170635 
0.0001841088428976762 
0.0004038548711888711 
0.002643886345525855 
0.0007337101597126684 
0.0002851411122932706 
0.0003677177439543573 
0.0002899214504622380 
0.008352847009724700 
3.393486385019551e-05 
1.789859899224854e-05 
0 
0 
0 
0 
1.317152038847960e-05 
9.530921092984991e-05 
0 
0 
0 
0 
0 
0.002014529216402891 
0.005900845316026984 
0 
0.003957018454847363 
0.002345527865584694 
0.002458651712534043 
0.001496186014550454 
0 
0 
6.835597460906190e-06 
8.025994875245619e-05 
-0.0004925435279990477 
-0.007848271898761071 
-0.005666675354442477 
0.0009696320380168095 
-0.005487719591852834 
-0.0003319098348571700 
-0.0006602685543829832 
-0.04041688329880511 
-0.1433001731950475 
-0.1517959930250168 
-0.1318592413484192 
-0.1136140184350181 
-0.2363207941932914 
-0.2476919160644820 
-0.2988413581590332 
-0.2880513619289012 
-0.2375551112248187 
0 
-0.01722209146975208 
-0.02044633396709424 
-0.03248244653581613 
-0.003068057118187388 
-0.003529539452236898 
0.002402477477712571 
-0.0003685597807443762 
-0.0001925318511299515 
-0.0001427778183603709 
0.006228337387165509 
0.0001447540613387033 
0.0003695628638104829 
0.006010587238291974 
0.0007203785809094973 
0.0002938801344049023 
0.0003668529289767581 
0.0002871617201024147 
0.006534563591709133 
4.535167852869937e-05 
2.223155911601185e-05 
0 
0 
0 
0 
1.403211806613190e-05 
0.0001481436648148803 
0 
0 
0 
0 
0 
0.003346546353441677 
0.005869201672280193 
0 
0.002138807350580348 
0.003896403021388832 
0.004084324941018085 
0.002889580625985051 
0 
0 
4.185204682405058e-06 
5.539410826679713e-05 
-0.0002971250109851389 
-0.003489045965848253 
-0.0006008738268679105 
0.0006902319152397823 
-0.004550107248034350 
-0.001736233089433586 
-0.001727749693544663 
-0.01905960330954835 
-0.08683591684684690 
-0.1012697727858080 
-0.08748570510849461 
-0.09143968633402379 
-0.2068214866881524 
-0.1966575809588565 
-0.3164991495258662 
-0.3641761000211871 
-0.2603616852575197 
0 
-0.02522126701350446 
-0.01652759670622831 
-0.04048584189549000 
0.001918632869740118 
-0.002046489849468847 
-0.0005732440249081572 
0.0005736546410097563 
-0.001031444913602927 
-9.318754015212983e-05 
0.005191068778008617 
7.898148049142720e-05 
0.0002148793168106101 
0.009925971632587148 
0.0004247605277383474 
0.0001686758552513446 
0.0002199387943905347 
0.0001717450859894844 
0.003557081471422388 
2.949437005292601e-05 
1.420552749436200e-05 
0 
0 
0 
0 
8.591390375209453e-06 
9.945308966593583e-05 
0 
0 
0 
