solver_type L2R_L2LOSS_SVC_DUAL
nr_class 2
label 0 1
nr_feature 2999
bias 1.000000000000000
w
0 
0 
0 
0.01385090891965515 
0 
0 
0 
-0.003442104556538894 
-1.355252715606881e-20 
0.004250996788172422 
0.004139091546236729 
0 
0 
0 
0 
0.008578893758994021 
0 
0 
2.710505431213761e-20 
-2.710505431213761e-19 
-0.01665970920230506 
0.005407525645805357 
-0.01448920601905082 
-0.01285108501729998 
-0.02797137731636465 
-0.04073705364391323 
-0.02241824920913904 
-0.04017095581092144 
-0.07360032001562367 
-0.1389615257492070 
0 
-0.05408712979122930 
-0.04819173803871748 
-0.05160462628571724 
-0.04181035644680960 
-0.01798096442288346 
-0.003057242902919824 
-0.02848280279722462 
-0.001081792708968647 
-0.003854085495903909 
-0.01227617147938537 
0.009469776717377702 
0.008294475197225057 
1.084202172485504e-19 
0 
0.001495283220570297 
0.006243916239537965 
-1.355252715606881e-20 
-0.002035937343787629 
0 
0.005003576434639748 
0 
0 
0 
0 
0 
0 
0 
0.004119106816591153 
0 
3.876541665645073e-05 
7.584967007781027e-05 
0 
0.01029371101316895 
0.0001017097178983116 
0.001739023440093063 
0.003690185449921682 
-0.002971174716155229 
0.001438564963061909 
0.002973131524657083 
0.003969628312009752 
0 
0.003322888694357577 
0.0002280950952692034 
0 
0.005396940664223308 
0.0001012571295975137 
0 
4.861831579494794e-06 
0 
-0.01133752489622865 
0.005378318191786320 
-0.009871878818900360 
-0.007368810263034035 
-0.02407624755967124 
-0.04135039615585490 
-0.03135738725487967 
-0.03683515735572733 
-0.06564343084998016 
-0.1482447030836619 
0 
-0.08811351728851674 
-0.1095299399405066 
-0.05113573887289259 
-0.04248559856012020 
-0.02036210306921225 
0.002004750189086997 
-0.01667314389146143 
0.007507588239434037 
-0.002133467066034290 
-0.006468866333829011 
0.003426355352164681 
0.008584699119900415 
0.002521006194275591 
-1.074262759131594e-05 
0.002189255987708796 
0.004696944586744003 
0 
-0.0002264704680549901 
9.973408243411755e-06 
0.004330884771629856 
0.0005531063889668510 
0 
0 
0 
0 
0 
0.0002005855809074114 
0.002981839139434411 
0.001458624563158499 
6.331465335060373e-05 
0.0001238835018927902 
0 
0.007129371149710484 
0.0001515051006193584 
0.003439187834443847 
0.006600620609218158 
-0.002412125739296340 
0.002739135137003355 
0.001789743720259666 
0.003769566914675382 
0 
0.006353645214912900 
0.0003991664167211060 
0 
0.002581329399728669 
0.0001716135966949034 
0 
1.036804712109853e-05 
1.079888890760211e-05 
-0.006462698350271112 
0.005274584087531538 
-0.005625958603102066 
-0.002378843449689671 
-0.02010043715892837 
-0.04100855303704064 
-0.03921085712140013 
-0.03380106572146791 
-0.05857883929580201 
-0.1548518281197748 
0 
-0.1213743284485618 
-0.1623906768716263 
-0.05459196906171883 
-0.04087207732031387 
-0.02308201004047084 
0.005335067648980242 
-0.007394551560375896 
0.01431722826743147 
-0.0006944018261439046 
-0.001384446707788344 
-0.002200150560688272 
0.008629314236817287 
0.004756067931206384 
-1.681214305153175e-05 
0.002763761814522693 
0.003233607845983086 
-3.388131789017201e-20 
0.001364431013771820 
1.690322910358815e-05 
0.003676433820992857 
0.001032350188534428 
0 
0 
0 
0 
0 
0.0003826950936748460 
0.001915085372689544 
0.002754153952575804 
5.943153012016129e-05 
0.0001162856571821099 
0 
0.004750747372307481 
9.747181298587976e-05 
0.005061634137310069 
0.007951555187264220 
-0.001676838489486993 
0.003763715732703871 
0.0007953108340980891 
0.003508309191126220 
0 
0.008800137387863706 
0.0004561901905384070 
0 
0.0004984017957861891 
0.0001801687387920452 
4.818322089177772e-06 
1.220008734497927e-05 
1.237546291394920e-05 
-0.002501153906553868 
0.005021796682805278 
-0.002115389447776375 
0.001626507481811532 
-0.01598870013992702 
-0.03875633865671432 
-0.04489299062948029 
-0.03137038772907801 
-0.05331060311138978 
-0.1561144336813449 
0 
-0.1531039869341229 
-0.2054743630117359 
-0.06565482744275662 
-0.03498996230976372 
-0.02673101380140619 
0.004834778334267130 
-0.003332180906191995 
0.01756738645461830 
0.0001815570337880438 
0.002254201879220935 
-0.006992825568821086 
0.008182711742217146 
0.006419240753447594 
-1.353543424954735e-05 
0.003099333760687384 
0.001937540929288261 
0 
0.002518201707786966 
1.774587519729381e-05 
0.003058464295101644 
0.001363868809303454 
0 
0 
0 
0 
0 
0.0005278524701623270 
0.0009893594267684344 
0.003723492994510722 
1.289986700282571e-05 
2.524029768293848e-05 
0 
0.004284047960226537 
0 
0.006567503302949460 
0.007067547386608673 
-0.0002223960394487759 
0.004374311961042997 
8.431032529027018e-05 
0.003155256978254873 
0 
0.01037459076722432 
0.0003421426429038048 
0 
0 
9.602189338881495e-05 
4.367596307449679e-06 
9.679446418704959e-06 
6.720197795584408e-06 
-0.0001894695355378164 
0.004738054731242077 
0.0001709092337696803 
0.003688683881640866 
-0.01196238181094398 
-0.03382803859220959 
-0.04727310869338292 
-0.02989137313072875 
-0.05057420416155761 
-0.1484997304178867 
0 
-0.1826251739756646 
-0.2375902515962331 
-0.08735279902836914 
-0.02118407786275369 
-0.03000121081177326 
0.0004492999038644595 
-0.006194369430353127 
0.01564976532473801 
-0.001329122293756846 
0.003668423332622431 
-0.009676740737920235 
0.006960721231102953 
0.007208034570740601 
3.970466940254533e-23 
0.003076504885878266 
0.0008923787486925792 
5.082197683525802e-21 
0.002927399874456733 
9.457759141293372e-06 
0.002495216906329116 
0.001473799661874661 
0 
0 
0 
0 
0 
0.0006175816422298768 
0.0002751752120829548 
0.004203546515222063 
0.0009680288038925243 
0.0006362921321087377 
0 
0.004115468308817221 
0 
0.007917936285619737 
0.004485741642948181 
0 
0.004432929032900266 
0 
0.002890447866799041 
0 
0.01100272786465936 
0.0007816287539530033 
0 
5.679415595605525e-06 
2.333251834805136e-06 
4.173636308092963e-06 
1.659386313711570e-05 
4.723241706976236e-07 
4.663234146705665e-06 
0.004677503219118183 
0.0003303179551253132 
0.002970420423759966 
-0.008432592865146835 
-0.02504902025117059 
-0.04308121584094558 
-0.02748906687016532 
-0.05061480774964323 
-0.1294190082134065 
0 
-0.2130359616683391 
-0.2448838885462955 
-0.1188539495744630 
0.007262727873925852 
-0.02660898695282255 
-0.008072082120624020 
-0.01599662379725031 
0.004196823709267782 
-0.005483898061787332 
0.003001633968475210 
-0.007488319445665284 
0.005885786358125149 
0.006980140964317698 
0.0003149538442424496 
0.002763257173189110 
0.0002501962113676368 
9.509061174155698e-06 
0.002597235609897707 
0 
0.002301697455314636 
0.001532355845819956 
0 
0 
0 
0 
0 
0.0006334065417375196 
0 
0.004038134640098815 
0.002393270067013728 
0.001573113225070168 
0 
0.003332640387467898 
0 
0.009060569375462716 
0.001525596090784486 
0 
0.004290378360330830 
5.659954509058333e-06 
0.002340638434300900 
0.0001265997071193427 
0.01046839141590686 
0.001940982560649490 
1.310390167286277e-05 
2.662717434101652e-05 
2.921705780006692e-05 
3.057667619916604e-05 
2.752897932169336e-05 
4.333967014183831e-06 
2.461784485007663e-06 
0.004501630596514036 
0.0002901860937372191 
0.001375006673387053 
-0.004703357808433741 
-0.01372002114334322 
-0.03624367156177549 
-0.02564432942672867 
-0.05224663250270589 
-0.1020399416738247 
0 
-0.2444977837178811 
-0.2339550290744002 
-0.1636277102224931 
0.04167782992804645 
-0.01536781831509820 
-0.01781422929356990 
-0.02665150687758081 
-0.01153028359188212 
-0.009167265893839933 
0.001915788189275949 
-0.002436624733044294 
0.005589180542828347 
0.005884571686924958 
0.001190735839865235 
0.002160351008697203 
0 
1.163909087716656e-05 
0.001865002897834393 
0 
0.001863877771304767 
0.001788744517694875 
0 
0 
0 
0 
0 
0.0005651926640174567 
0 
0.005313355389556568 
0.003698668324966486 
0.002431160668972481 
0 
0.002297218251839952 
0 
0.009889020206156557 
0 
8.060922392680243e-05 
0.003704765260189599 
8.435309040843825e-06 
0.001550362834486295 
0.0002599672577216520 
0.008577153757276645 
0.002999211490229213 
1.952939022292922e-05 
0.0001290006823628323 
5.643815647528395e-05 
4.989785742627172e-05 
3.355920500623734e-05 
-1.954575203049024e-06 
8.368983332527076e-06 
0.004018717524801482 
0.0002214442497659297 
-0.0001402979773209047 
-0.001236161699344036 
-0.003050926189665378 
-0.02823882404915949 
-0.02477713682650444 
-0.05333659289937488 
-0.07328477051663097 
0 
-0.2695528973175010 
-0.2190341072133884 
-0.2251362963789936 
0.06441414340158448 
0.001384612393645112 
-0.02462244284570085 
-0.03503917892379972 
-0.02415357930607976 
-0.01216092862688904 
0.001280823031199515 
0.002219592026019312 
0.005397921820234818 
0.004131487087144534 
0.002123988408036025 
0.001353096970805099 
0 
0 
0.0009811091600227767 
0 
0.001234572064744867 
0.002009795243267321 
0 
0 
0 
0 
0 
0.0004361717582905903 
0 
0.006709295780019825 
0.004452844102410747 
0.002926885704720540 
0 
0.001303716840649306 
0.0008947123978183895 
0.01028340174726354 
0 
0.0001640210543640312 
0.002829277809221317 
7.643713074733173e-06 
0.0007191179210996268 
0.0003275304305647723 
0.005583316916284413 
0.003606969928641604 
1.769669073957692e-05 
0.0002178794258119936 
5.895233257973244e-05 
4.032183386292252e-05 
1.827898086406498e-05 
-1.230711140254722e-05 
-0.0001502223936801000 
0.003376245133484647 
9.757581993326310e-06 
-0.001137537820796568 
7.798560392598098e-05 
0.003732525398676809 
-0.02038909010976065 
-0.02567482350397668 
-0.05108463935494872 
-0.04830763680011371 
0 
-0.2791246070433184 
-0.2136912833914474 
-0.3026600733504643 
0.05969399611566808 
0.02255900679566381 
-0.02195641059887276 
-0.03392879634729390 
-0.02705843726702389 
-0.01340796086800356 
0.0005175352860129994 
0.004996527839575142 
0.005142931781809955 
0.001912984183341588 
0.002849819731570359 
0.0005120930430594080 
6.450358339304473e-06 
0 
0.0001582018661396731 
0 
0.0005726420144360384 
0.002152512700359892 
0 
0 
0 
0 
5.421010862427522e-20 
0.0002779171372500040 
0 
0.007977717230125100 
0.004504952518276719 
0.003269542499184473 
0 
0.0002761443735030000 
0.002307842455639553 
0.01012382696834592 
0 
-6.651382873024330e-05 
0.001824372978984160 
6.272681808259281e-05 
9.826163772732245e-05 
0.0002660072798207955 
0.002827835159797925 
0.003445842101819735 
0 
0.0001285026378348595 
3.281947643729511e-05 
5.510557312073600e-06 
-1.243454454895208e-05 
-1.052208126993182e-05 
-0.0003383409064950267 
0.002892461631930281 
-0.0003507924197212106 
-0.001477408022791823 
-0.0001313960710737510 
0.003497181708317095 
-0.01630800954705799 
-0.02551466425067920 
-0.04369659197011454 
-0.03334390968254341 
0 
-0.2555984868466817 
-0.2360457149197558 
-0.3836440790723007 
0.01567494098551778 
0.04106847168529776 
-0.009412738491259398 
-0.02747485778951787 
-0.01879194561589695 
-0.01132152715597660 
0.004296994925033682 
0.008765903255503006 
0.005039979175554300 
-8.964422523865360e-05 
0.003080643514502349 
7.855052207789736e-05 
0 
0 
-3.913804692986375e-05 
0 
0.0001107810248704641 
0.002294127999997506 
0 
0 
0 
0 
1.084202172485504e-19 
0.0001220021135887804 
0 
0.008870381158508904 
0.003952240716095056 
0.003501645874922211 
0 
4.282966274239590e-05 
0.003756650815665132 
0.009290408838965954 
0 
-0.0002366702154408751 
0.0008542446397501495 
8.972166455748183e-05 
7.417980775407740e-05 
1.023298957923530e-05 
0.001251653894900854 
0.002624553055144348 
3.676783066202202e-06 
2.266363248689274e-05 
0.0009217703828837611 
2.699787631366619e-05 
2.048734811702327e-05 
5.340489629398995e-05 
-0.0002401879599837994 
0.002343496345313579 
-0.0003599616524171672 
-0.0006118760641520223 
-0.0001992423568700045 
0.0004781896772949777 
-0.01308517344404516 
-0.01950683487155646 
-0.02922128273715639 
-0.03100892296515220 
0 
-0.2058456571691170 
-0.2791932200466561 
-0.4540695910653441 
-0.06088980854759947 
0.05028145227686847 
0.008301917886773183 
-0.01050491397113950 
0.0007787373204223643 
-0.004706704667771125 
0.01425026194004747 
0.01755310511221801 
0.005268119074944955 
-0.0002637708422814129 
0.002762016038321652 
3.155949209552720e-05 
0 
0 
-1.678522126758596e-05 
8.232092095903325e-05 
0.0001056056329436726 
0.002110864902791255 
0 
0 
0 
0 
-1.626303258728257e-19 
0 
6.995806773566427e-05 
0.009513870122568560 
0.003003396554022633 
0.003463008046420082 
0 
0 
0.004862587454993590 
0.007736703353727419 
0.0002595087856059800 
-0.0001707568398668935 
0.001727254279051788 
6.473390780877742e-05 
6.412629499611615e-05 
0 
0.002061860126798843 
0.003634615624234088 
1.949347821854610e-05 
2.117408679121736e-05 
0.002123943777606544 
7.242250422497998e-05 
0.0001025445429878337 
0.0001573405095904426 
4.192104480509574e-05 
0.001603318353185781 
-0.0001036396183676426 
7.897303066748037e-05 
-0.0002574158357194326 
-0.002211838524396542 
-0.01120120231825085 
-0.008581746445097935 
-0.01353145487625322 
-0.03799110208041427 
0 
-0.1442928148775947 
-0.3219496323861062 
-0.4996986521613134 
-0.1470683962637936 
0.03648319026436709 
0.02213066575490584 
0.01849335658060487 
0.02283486554628789 
0.004958531784805666 
0.02792012194837126 
0.02821261724151224 
0.005155100891789411 
-0.0001279287218886120 
0.002122382633654237 
2.277007745988513e-05 
0 
2.309560777978966e-05 
0 
0.0001738423481813629 
7.619414263857647e-05 
0.001603582376822595 
0 
0 
0 
0 
1.084202172485504e-19 
0 
8.641515103763150e-05 
0.008749060492745549 
0.001954415885079160 
0.003157258360674507 
0 
0 
0.005384727041965542 
0.005710038607400191 
0.0002131177539872872 
-5.239220841733451e-05 
0.003738139071634760 
1.986188308608756e-05 
2.960132938075317e-05 
0 
0.002593305204996541 
0.005236982122698219 
3.317672117813972e-05 
2.661416553477656e-05 
0.003276966961042639 
8.741747386009500e-05 
0.0001401264584860739 
0.0001756548109992322 
0.0001887220884965581 
0.0008551358580194066 
0.0001494578450447546 
0.0003271754358471034 
-0.0003638963985839544 
-0.004562871979855566 
-0.01046459450452839 
0.003897606448444783 
-0.002273199034846982 
-0.04944065498639026 
0 
-0.08491573690932541 
-0.3430862805780990 
-0.5102870508947915 
-0.2175855244697588 
-0.002472899350428718 
0.01778305585637406 
0.04358715126686277 
0.03964544158296483 
0.01278591277586731 
0.03595689511964965 
0.03441164978231944 
0.004544720210633719 
-0.0001264607904737791 
0.001325503889809976 
6.986394482862702e-06 
6.813946203798646e-05 
0.0001176689265934727 
0 
0.0002103025127433436 
2.337815225681289e-05 
0.0009459904364882722 
0 
0 
0 
0 
5.421010862427522e-20 
0 
6.272549575350329e-05 
0.006874196570289043 
0.001440824913443164 
0.002819164702731702 
0 
0 
0.005324616441256389 
0.003531185719795629 
4.862026451647332e-05 
0 
0.005782356554740339 
0 
1.045127860946811e-05 
0 
0.002592603487884248 
0.007464692239790734 
3.595337870358057e-05 
4.197544398860409e-05 
0.004061441915033899 
0.0001006671194529987 
0.0001341254697361488 
0.0001155517942986113 
0.0001162077878748011 
0.0005686135495098095 
0.0003225718017777915 
0.0005943820389890446 
-8.483542304062683e-05 
-0.005567942801323775 
-0.007923103426069030 
0.01209461488435630 
0.001241526193693117 
-0.05449751352582326 
0 
-0.03879801070746489 
-0.3140002828185423 
-0.4950649265721637 
-0.2448192780363517 
-0.05385649217656714 
-0.009502566530259417 
0.06207610895533434 
0.05039011292343670 
0.01691799130207368 
0.03787438657121055 
0.03610318586861045 
0.003837072307102357 
0.0003681308978659041 
0.0004369471662373454 
5.834014548544136e-05 
0.0002789014165064678 
0.0001630385592676040 
5.605297286332092e-05 
0.0001338732543635031 
0 
0.0003400619155524752 
0 
0 
0 
0 
-1.355252715606881e-20 
0 
2.284591821707260e-05 
0.004430350450487194 
0.001144834072258151 
0.002240019433924153 
0 
6.986277906625025e-05 
0.004708484133617935 
0.001520915810725108 
0 
9.476167097597683e-06 
0.007338457711532525 
1.684668812696209e-05 
4.680252748242908e-05 
0 
0.002268481969138234 
0.009495442685307677 
6.515883770390310e-05 
0.0001443388568382771 
0.004278095522152421 
0.0002182817689580166 
0.0002353721161634153 
6.732459587037768e-05 
3.037359148803358e-05 
0.0005172997094157814 
0.0005621671643607095 
0.001236790081757993 
0.001155659284004964 
-0.004955689914419984 
-0.004861659351868532 
0.01189218216338525 
-0.003505588161454516 
-0.05072951712114475 
0 
-0.007124237441129269 
-0.2469058876406990 
-0.4632810175884319 
-0.2140411891913343 
-0.09851594667925784 
-0.05470293501924360 
0.07677480711101942 
0.05826425798411743 
0.01862321757236880 
0.03548464973643227 
0.03610448247246934 
0.002944184358680794 
0.002661456154854866 
0 
0.0007294227082261874 
0.0007571949626263686 
6.657483909249829e-05 
9.874139496746182e-05 
0 
3.316968195175366e-05 
4.971136187641042e-05 
0 
0 
0 
0 
0 
0 
0 
0.002016787646438611 
0.0006943335101033720 
0.001358555439556843 
0 
0.0001588558044739044 
0.003581732931458753 
0 
0 
1.099702862711364e-05 
0.007959300395339828 
7.176818849376618e-05 
9.851847887935492e-05 
-1.588186776101813e-22 
0.001498493810926577 
0.01036114200595855 
0.0001741298192440436 
0.0003423846988630102 
0.003874946613243955 
0.0004747270758607020 
0.0004526891831495623 
0.0001108064468039921 
-0.0002900933675806909 
0.0003233308159668970 
0.0002595985551465784 
0.001706086552012484 
0.002780067209393019 
-0.003324725879374303 
-0.003714365672511802 
0.002373825692303244 
-0.01233805410824110 
-0.04197596318951734 
0 
0.01301231593633872 
-0.1577469954627409 
-0.4208695133386090 
-0.1318947590602978 
-0.1216730875882969 
-0.1014924190234552 
0.09252257262474983 
0.06855911865088765 
0.02479685668494948 
0.03280122030380876 
0.03598218939621101 
0.002702911677378225 
0.006303403127126081 
0 
0.002965247596584559 
0.001238294404493568 
0 
7.583553472783431e-05 
0 
7.845141742314116e-05 
3.942926241670184e-05 
0 
0 
0 
0 
0 
0 
0 
0.0001376364150421902 
0.0002365428240110073 
0.0004628273525217678 
0 
0.0001398252201566563 
0.002178134281383105 
0 
0 
0 
0.007335064346738945 
0.0001134709899566020 
9.293061990334974e-05 
0.001764657447487770 
0.0005385372630537789 
0.009586876513233169 
0.0002766675885549308 
0.0004770795421589088 
0.002930043466803687 
0.0006322537421965156 
0.0005741709906382336 
0.0001721193722943105 
-0.0007593277773248985 
-0.0002056551329836860 
-0.0006376237465716120 
0.0008339887201530290 
0.002601161247863172 
-0.002110732258711039 
-0.005494197151545596 
-0.01409246966869724 
-0.02710545237229665 
-0.03929007797872292 
0 
0.02702056871949700 
-0.07290238589916578 
-0.3618071520374735 
-0.01809119615487936 
-0.1263489209949615 
-0.1351530672434767 
0.1097089648379978 
0.08192055775210702 
0.03523495874278885 
0.03512724665762930 
0.03411332533505688 
0.004404181298708274 
0.008680169213013136 
-0.0008521290630976930 
0.005577779149478574 
0.001571288216493481 
0 
2.717430545127389e-05 
0 
7.400173994116303e-05 
1.516247947879995e-05 
0 
0 
0 
0 
0 
1.729501752198545e-05 
0 
0.0001298298300647619 
6.691992271688210e-05 
4.398693523876214e-05 
0 
7.547132868297925e-05 
0.0008383757033132123 
0 
9.483203081551171e-06 
0 
0.005817944130054272 
0.0001091811120583299 
5.300634693962661e-05 
0.004007474963403919 
9.964822202919392e-06 
0.007558805896991229 
0.0002644254687861235 
0.0004478584511063476 
0.001745287038033646 
0.0006519775442532675 
0.0006651515803918945 
0.0002981841918587589 
-0.0006630344425951948 
-0.0005722741862209431 
-0.0009213010230112010 
-0.001097838871560186 
0.0004629426052064999 
-0.0003881557294603934 
-0.007713318452746115 
-0.03212931829008259 
-0.04314541747006683 
-0.05078432824095459 
0 
0.03796622131324288 
-0.01408257937188754 
-0.2742765881702612 
0.09235313209348410 
-0.1239543648899159 
-0.1416151885934334 
0.1296218365813995 
0.09962881638578404 
0.04854736306549348 
0.04188544469879516 
0.03246511179171307 
0.006636442038035603 
0.009708699838921898 
-0.002644703131673240 
0.007850395088947562 
0.001615476814934896 
0 
0 
0 
4.220957425590064e-05 
0 
0 
0 
0 
0 
0 
2.149279049086547e-05 
0 
7.405314871118677e-05 
0.0001609271025956202 
0.0001057785148674329 
0 
9.769434020606727e-06 
0 
0 
1.929611640481338e-05 
-1.668206640974103e-05 
0.003854538245883848 
3.244874472274358e-05 
1.981785790363374e-05 
0.006268028296168017 
5.631069844716119e-06 
0.004833043735308279 
8.019787473076356e-05 
0.0002793197685236891 
0.0007589377153232860 
0.0006254862866340361 
0.0009430056024732880 
0.0006055399673598250 
0.0005195608308301418 
-0.0003717140474081447 
0.0006250759374184068 
-0.001499873310830757 
-0.002103389840754156 
0.002866062724581126 
-0.007311940944793503 
-0.04656768568681551 
-0.05268781763420152 
-0.07309873881267150 
0 
0.05213086245930077 
0.009106987544151141 
-0.1578384764165394 
0.1700356466506484 
-0.1221190043983393 
-0.1145439616100813 
0.1500092091176053 
0.1215984171129745 
0.06742714439581836 
0.05247820904680302 
0.03054779505678332 
0.007824644807997608 
0.009066563727560713 
-0.004354237855250476 
0.009099151663999097 
0.001334997806220154 
0.0001530238273125634 
0 
0 
1.290762159233932e-05 
0 
0 
0 
0 
0 
0 
1.704305469875279e-05 
0 
9.585856814460460e-06 
0.0001404162928696274 
9.229661556924056e-05 
0 
0 
0 
0 
1.164072985147052e-05 
-1.455586961350360e-05 
0.001841251691015966 
5.518129302296923e-06 
1.637403135532166e-05 
0.008005263120284260 
1.476571697661425e-05 
0.002156346033845932 
7.308688809542250e-05 
0.0002829958433590767 
0.0007968873368810960 
0.0005406342741432949 
0.001187331184971094 
0.0007517468546387626 
0.001441687408401767 
0.001014442609153483 
0.001238334428568887 
-0.002382535651624360 
-0.008241971593601390 
0.002165015072015909 
-0.004192411625222415 
-0.06130713048851486 
-0.06882628045324744 
-0.1064804600120466 
0 
0.08560765744236122 
0.01102572068419765 
-0.02903321809442466 
0.2061590976472571 
-0.1207063956647642 
-0.06235908129329209 
0.1628717668051216 
0.1417075464613379 
0.07664877015228971 
0.06362075178383750 
0.02147414258720276 
0.006916791653338494 
0.005267792641167664 
-0.005217927385825914 
0.008709646484877818 
0.0008552703322490502 
0.001608554458802438 
0 
0.001050994568556312 
6.495037073913673e-06 
6.303176923556622e-05 
0 
0 
0 
0 
3.388131789017201e-21 
8.395545937760026e-06 
4.712974301996231e-06 
0 
6.403007000006278e-05 
4.208741475004172e-05 
0 
0 
0 
0 
0 
0 
0.0002241713195500395 
0 
9.657798630935874e-06 
0.008703167282355135 
1.959391517913688e-05 
0.0001013385689211151 
0.0001259357884956031 
0.0002665734273661106 
0.0006950999398765654 
0.0001074039549943702 
0.0009626662665935733 
0.0004642883672687916 
0.002123489935697611 
0.003382241099367629 
0.001238864223928149 
-0.005782468070258461 
-0.01502885579048568 
-0.005379736573339407 
-0.0007346311159440255 
-0.07314205922880440 
-0.09323756929898838 
-0.1438073653928227 
0 
0.1218151088596975 
-0.004902902436288896 
0.08617169061980655 
0.2086786539376297 
-0.1096476833205052 
9.142843571295509e-05 
0.1647159393346198 
0.1537580762968560 
0.07695504702878685 
0.06812612376556276 
0.009057870716615533 
0.003216039982953917 
-0.0005487561844180994 
-0.004811606934109411 
0.006943850817827763 
0.0003395290969540371 
0.003234744753626168 
0 
0.002688895356265948 
0 
8.347932771961130e-05 
0 
0 
0 
0 
-3.388131789017201e-21 
0 
6.241867094354863e-06 
0 
1.191733166171261e-05 
2.331783720421658e-05 
0 
0 
0 
0.0002139554337749696 
0 
0 
0.0001981206815075466 
0 
7.614616181727754e-07 
0.008008916012142940 
5.721183402960728e-05 
0.0001216043693657061 
0.0002996838991002215 
0.0003395747034098596 
0.0003587794149025862 
0.0002830823991672239 
0.001446345916461109 
0.001107245926992418 
0.003021897759058991 
0.002828042639176395 
0.001808038471664136 
-0.01093503645331581 
-0.01760880701005438 
-0.02081233022067261 
0.0009837778356736070 
-0.08119327226827361 
-0.1236873845367020 
-0.1574457533583744 
0 
0.1832096930065669 
-0.02628421837058276 
0.1620015209741286 
0.1949785839481314 
-0.08298217525841936 
0.05522951770440036 
0.1560590799756630 
0.1508359404037707 
0.07092250986155568 
0.06274623722494353 
-0.002572783050275303 
-0.002344016059812461 
-0.006659780239853730 
-0.003396171716719975 
0.004437102750744787 
0 
0.004328826831711262 
0 
0.004302815182157636 
0 
6.328606090319368e-05 
0 
0 
0 
0 
0 
0 
4.731988048703241e-06 
0.0002784249973388739 
5.124204740582598e-05 
0.0001002618499960493 
0 
0 
8.181083424328397e-05 
0.0002658858239185813 
0 
0 
0.0001029670190408403 
0 
9.462804760695461e-07 
0.006219529736866646 
0.0001369289943252446 
0.0001112610427809032 
0.0004705435108227051 
0.0007713039549193366 
0.0007156721001168959 
0.001184540043600988 
0.002067771003637787 
0.002715760753060347 
8.927741498927346e-05 
-0.003117822546407582 
-0.002635858098975484 
-0.01890610985212813 
-0.01151042755378061 
-0.03517797769071272 
-0.003587182282504266 
-0.08217067405508201 
-0.1381075448339506 
-0.1110214285536187 
0 
0.2334640286841523 
-0.04003436870861984 
0.1835487703072264 
0.1789402188660135 
-0.04069030220514353 
0.09078455951411114 
0.1428447477380748 
0.1310356807196691 
0.06025525054640463 
0.05052443830140106 
-0.007827621283543766 
-0.009921949313638379 
-0.01108665416253775 
-0.001611119663871517 
0.001880071607931979 
0 
0.004231742394808324 
6.696428906756468e-06 
0.005453462283578552 
0 
2.882702466238879e-05 
0 
0 
0 
0 
8.470329472543003e-22 
0 
0 
0.0003460031769739323 
4.942241396567938e-05 
9.670149625805583e-05 
0 
0 
0.0001151645199309820 
0.0002108384971747087 
0 
0 
0 
0.0001724000653626392 
3.077744537946182e-06 
0.003985101017055744 
0.0001558331377719312 
0.0003301430088826541 
0.0009752987540011741 
0.001876454426428409 
0.002143688335114930 
0.002730957554210191 
0.002802965766690638 
0.005319853536176851 
-0.007878149060581503 
-0.01237158875007210 
-0.01429899516698314 
-0.02482997389344993 
-0.003164507274769584 
-0.04991572927913583 
-0.01847878640719810 
-0.08987755966492487 
-0.1399067392853407 
-0.04413606554237136 
0 
0.2545616180913112 
-0.04575600025856638 
0.1609163370461736 
0.1618019694776034 
0.008762937450149387 
0.1052951040129904 
0.1331484130818906 
0.1007650675063773 
0.04715058058575609 
0.03782912204454519 
-0.006784649376361378 
-0.01512821246403993 
-0.01220061571335317 
-8.889228092498621e-05 
0.0003280240249799228 
4.455281054623642e-06 
0.003018617526853193 
6.458635013163664e-06 
0.005704515328697084 
0 
3.251600227775143e-06 
0 
0 
0 
0 
0 
0 
0 
0.0002743688579395536 
2.587090645812120e-05 
5.061985369208858e-05 
0 
9.849643641602180e-06 
6.573478124940953e-05 
0.0001038607802872251 
0 
0 
0 
0.001002081354011271 
6.917774434468174e-06 
0.001761320653535460 
0.0001692077773742863 
0.001476177741019961 
0.002857442504060594 
0.005631631014655810 
0.006501463512435881 
0.009418402315701277 
0.009011562086705567 
0.01201908278754773 
-0.01284343142025062 
-0.01992202739673667 
-0.02296981382117532 
-0.02788443347678728 
0.003071796658588069 
-0.06036692768892872 
-0.03928736699585950 
-0.09965935005359654 
-0.1222524348171689 
0.02066887282577124 
0 
0.2332667784922395 
-0.04782209765240840 
0.1119622908527597 
0.1404248159582087 
0.05231251120745644 
0.1025072218072258 
0.1292013780494998 
0.06948620167446713 
0.03294519182011341 
0.03094775787133954 
-0.0002945720881133257 
-0.01737717634594960 
-0.009469023773108053 
-2.710505431213761e-20 
0.0001456336731076896 
6.869909638824383e-06 
0.001373780608441363 
3.380869707998006e-06 
0.004909655046597013 
5.508704721904966e-06 
1.702099079789859e-06 
0 
0 
0 
-6.386765515385475e-06 
0 
0 
0 
0.0001448209184884612 
0 
0 
0 
9.740039910669884e-06 
0 
0 
0 
0 
0 
0.001953822758392777 
6.840795620273996e-06 
0 
0.0001261080100822001 
0.002725789267208328 
0.004677561983809062 
0.009793719288976982 
0.01151515216872369 
0.01864027046941686 
0.01823886648754272 
0.02303991324069903 
-0.009903590367986840 
-0.02272742753110120 
-0.02694968193323485 
-0.02484981821778973 
0.007476010997530911 
-0.06236026443444967 
-0.06362892184397383 
-0.1000248021164327 
-0.08990081599539379 
0.06323723958781426 
0 
0.1739869515523300 
-0.05445801638898485 
0.05815270965483468 
0.1161387551275651 
0.08393827428873939 
0.09047133091791636 
0.1259211998952056 
0.04280734503111246 
0.01741495701232905 
0.02687475196047025 
0.005748320651953015 
-0.01665220045104172 
-0.006234499466394026 
-1.355252715606881e-20 
0 
6.534639089283526e-06 
0 
0 
0.003451848932319569 
5.447405591490245e-06 
0 
0 
0 
0 
-9.262983710819727e-06 
0 
0 
0 
9.557015048555884e-06 
1.042572140009664e-05 
6.852899905213673e-06 
0 
5.859092726326208e-06 
0 
0 
0 
0 
0.0002340512770566515 
0.002778973226807222 
8.381526569391779e-05 
6.089015335710107e-06 
0.0001880765847636262 
0.003500390668761619 
0.007008026762217964 
0.01391799705126903 
0.01921909172079297 
0.02856261167295311 
0.03217005901268141 
0.03818921012871711 
0.01057647612412450 
-0.02187677857826176 
-0.02034347741994733 
0.0004723916855621526 
0.01409163214542948 
-0.05671259150317513 
-0.08374689715702437 
-0.09110390832517008 
-0.04365066018456552 
0.07839990797530670 
0 
0.1031513548448999 
-0.06706835175593504 
0.01773537360351471 
0.09041705042804078 
0.09843605350238535 
0.08194706283571178 
0.1129133684435684 
0.02654456186966056 
0.001094271006816745 
0.02515955838075791 
0.006862338020039778 
-0.01349159341303573 
-0.003725753459145240 
-6.776263578034403e-21 
-3.176373552203626e-22 
5.765786652698884e-05 
0 
0 
0.001770392650552685 
3.276871016050491e-06 
0 
0 
0 
0 
-9.738236528409493e-06 
0 
1.241730659950167e-06 
0 
5.748994651966762e-06 
1.122597162932703e-05 
7.378910001741803e-06 
0 
0 
0 
0 
0 
0 
0.0002908598394490410 
0.003228881707554674 
0.0001522550641456576 
1.163213345662891e-05 
0.0001486659303184225 
0.003658396914646578 
0.008717235929455409 
0.01647001243836157 
0.02640690723255511 
0.03626009771916318 
0.04421956082572578 
0.05341632648092153 
0.04238036251098155 
-0.01711771058543474 
-0.01121413383423645 
0.04102406586543381 
0.02851689996914473 
-0.04326095260869002 
-0.09779715385552973 
-0.07273114774280143 
0.0008581857947099973 
0.06755563519310444 
0 
0.03552572597810850 
-0.08386904639028282 
-0.005891450128222024 
0.07777565824793303 
0.1026469885074683 
0.06776491704679459 
0.09923413546083143 
0.02077487323507101 
-0.01112415267052866 
0.02300470200728685 
0.006197205133906518 
-0.008624683851283255 
-0.001420989226927339 
-2.224320385071395e-05 
0 
5.723210168794132e-05 
0 
0 
0.0003045818659842834 
0 
0 
0 
0 
0 
-6.315451438439998e-06 
0 
1.543121596831267e-06 
0 
0 
6.611096104757531e-06 
4.345519905148389e-06 
0 
0 
0 
0 
0 
0 
0.0008098401302736555 
0.003086780137429829 
0.0001578607880251781 
0.0001767143897187808 
8.686247048379160e-05 
0.003080254463145142 
0.009814243313554296 
0.01694803646712180 
0.03040288277833016 
0.04155248206284380 
0.05000017871388473 
0.06368381655048411 
0.07567278640321560 
-0.01002297525780748 
-0.007670382818893309 
0.08708191556051127 
0.05494671204195562 
-0.01884684971044962 
-0.1037912117823738 
-0.04476393143384786 
0.03822550276082328 
0.04298795762314880 
0 
-0.01204844202291648 
-0.09768746769943505 
-0.01455284545082764 
0.07456607939945803 
0.09683461166820027 
0.05406784317486244 
0.08124483257221560 
0.02260142580947053 
-0.01414753423387993 
0.02028686650892258 
0.003931357936906965 
-0.004235103687266445 
-0.0002502396343831610 
-0.0001787231159255582 
0.0002205174683118681 
3.370460366635717e-05 
0 
0 
0 
0 
4.190261430879820e-06 
0 
0 
0 
0 
2.117582368135751e-22 
1.223647203737289e-06 
0 
0 
2.948947566485822e-07 
0 
0 
0 
4.768160905837660e-06 
0 
6.461603879739982e-06 
0 
0.001725126739731624 
0.002435488456445357 
3.671358703479865e-05 
0.001107988530829797 
7.133858510838709e-05 
0.002285391803675259 
0.01083053643661317 
0.01487722111488353 
0.03114315983698643 
0.04604839670977069 
0.05042147116984411 
0.07219168706217256 
0.1029179925644029 
0.0007350318063547709 
-0.007176194087038972 
0.1234922621550949 
0.08461602148575466 
0.01730386003506255 
-0.1039958397162619 
-0.01851436400265126 
0.07026669253850189 
0.01186168560357676 
0 
-0.04542272341584301 
-0.1067337212970145 
-0.01834328999275605 
0.06504739617599295 
0.08791029772284335 
0.04153194487394249 
0.06180337562300768 
0.02466147091912480 
-0.01265141417051628 
0.01681544881540875 
0.002137619491666070 
-0.0004423753755064486 
0.0001820719798591106 
-0.0001645800513254282 
0.0003160469869588286 
4.034910294533213e-06 
9.254621664529264e-05 
0 
0 
0 
6.005508361480140e-06 
0 
0 
0 
0 
-2.117582368135751e-22 
0 
0 
0 
3.523937631013254e-06 
6.133940985221228e-06 
0 
0 
8.401560636252183e-06 
0 
8.523367392011300e-06 
0 
0.002646434554623304 
0.001521974178191724 
0 
0.002225741016060797 
0.0004400319955970097 
0.002471929740437833 
0.01261843179601201 
0.009703516392028020 
0.02511965553170958 
0.04927815075613208 
0.04914574951782220 
0.07869316044283470 
0.1187984930101301 
0.01757715086602350 
-0.001655340198993210 
0.1427158841249565 
0.1083773710153994 
0.05355863368689651 
-0.1015203704884755 
-0.008214724671853336 
0.09703163107687590 
-0.02161334057144455 
0 
-0.06888089191359331 
-0.1048346490280482 
-0.02007060387690940 
0.05066936783170298 
0.07679644842118918 
0.04038738670023319 
0.04702935668263398 
0.02480787150994777 
-0.006851173074216043 
0.01397672685784144 
0.001063753356345400 
-6.367910233890059e-05 
0.0003022972893460158 
-6.969677791904163e-05 
0.0002501175915614917 
0 
0.0001630676200228946 
0 
0 
0 
4.752721428954748e-06 
0 
0 
0 
0 
-2.117582368135751e-22 
0 
0 
0 
4.127842649367920e-06 
7.501988483400746e-06 
0 
0 
5.409528693223558e-06 
1.536204467270861e-05 
6.435640310469407e-06 
0 
0.003410213900757763 
0.0005948861457307840 
0 
0.003537209482077144 
0.0009363623147997525 
0.004766589933925532 
0.01641498211199340 
0.009255928037639964 
0.01937312876419045 
0.05672830067130383 
0.05569495234461021 
0.09150438386856444 
0.1258158401913009 
0.04158532165132838 
0.01002553962395832 
0.1403107016128807 
0.1203952346691201 
0.08717817979221386 
-0.1004004936175160 
-0.01360929329024683 
0.1162866131756101 
-0.05730938986538719 
0 
-0.08253784364148245 
-0.09360414738596534 
-0.02350063650948327 
0.03347979648487905 
0.06206808099531957 
0.03746623733868341 
0.03591457886742196 
0.02268032288839056 
0.0001883522078789158 
0.01067975498830460 
0.0003863937572782299 
0.0001693419997387737 
0.0001007237280586497 
0 
0.0001298531472252565 
0 
0.0001049946560694023 
0 
0 
0 
0 
0 
0 
0 
0 
0 
0 
0 
1.999097275377979e-05 
2.508445451069266e-06 
4.908105633378443e-06 
0 
0 
0 
1.909123667659061e-05 
0 
0 
0.003627283112711819 
0 
0 
0.004409258847588920 
0.001482324045630748 
0.006536192258434870 
0.01986631590366727 
0.01220832822087217 
0.01712324691424505 
0.06344797984672795 
0.06676548913294811 
0.1068290558073278 
0.1248271987756555 
0.06752430123577474 
0.02474260371252051 
0.1271452478573759 
0.1240422077339542 
0.1100900396861765 
-0.1008780188756170 
-0.02115931387729318 
0.1232026341952135 
-0.09037511401728854 
0 
-0.08892117684756798 
-0.07753800874569344 
-0.02888476575844082 
0.01446883525309107 
0.04347515852034066 
0.03098024051806680 
0.02517122632459384 
0.01734361444454884 
0.005423871592315792 
0.006914851425958453 
-7.391305271556177e-05 
0.0001759911633318738 
-7.373607392332109e-05 
0 
2.511280214752961e-05 
0 
5.656890796544507e-06 
0 
4.615469016404473e-05 
0 
0 
0 
0 
0 
0 
0 
0 
0 
2.484385382082033e-05 
0 
0 
0 
0 
0 
1.513940634411839e-05 
0 
0 
0.003171545103836105 
0 
0 
0.004705346720543495 
0.003404673962323920 
0.008533620063990886 
0.02171691426550809 
0.01845827399801565 
0.02161787589959450 
0.06924483386874854 
0.08498927173886638 
0.1212530734522522 
0.1224667249218388 
0.09114129814001075 
0.03730757387264848 
0.1153106427019025 
0.1244473708268260 
0.1151564041683693 
-0.09779792491263273 
-0.01791185111879652 
0.1153730049899928 
-0.1110238833989632 
0 
-0.08507665646038276 
-0.05904371185120422 
-0.03377992295088848 
0.001285285672850733 
0.02464568764654432 
0.02328618745804055 
0.01532721423973130 
0.01174809351972250 
0.007235439976595396 
0.004325041794309936 
1.690062166112936e-05 
0.0001293497672848651 
-0.0002640307094266341 
8.470329472543003e-22 
1.991452531815750e-05 
0 
-8.196195776388323e-06 
0 
0.0001928919619085759 
0 
0 
0 
0 
0 
0 
0 
0 
0 
1.970124851097114e-05 
0 
0 
0 
0 
0 
0 
0 
-1.233206334548389e-05 
0.002276507183839121 
0 
0.0007256325756401404 
0.004367250646185460 
0.005747157080187699 
0.01183737178256891 
0.02248718366032356 
0.02566147021324492 
0.02859424741053799 
0.07364298200251651 
0.1049988753661259 
0.1328760052813097 
0.1215758770459404 
0.1104189313726158 
0.04424168262887620 
0.1106627470631757 
0.1236868490676768 
0.1074617277088437 
-0.08492556166975475 
0.02404382394825659 
0.09107104025014437 
-0.1147372800309480 
0 
-0.07385413329695564 
-0.04135625491759837 
-0.03325581770850461 
-0.008076849737721612 
0.01410414017746590 
0.01324854460353594 
0.007485267871624813 
0.005887391792102127 
0.005618778597187075 
0.002297973702773795 
0.0002192650241309005 
-0.0002411697929176474 
-0.0002692248494624276 
1.905824131322176e-21 
9.810832325856870e-06 
3.011813954785087e-06 
-5.764849387580790e-06 
0 
0.0002004709556424368 
0 
0 
0 
0 
0 
-3.058406385336855e-05 
0 
0 
0 
9.705762134081242e-06 
0 
0 
0 
0 
0 
0 
0 
-1.040334466217662e-05 
0.001214746896875495 
0 
0.002136425144973358 
0.003540745039702988 
0.007932434326268209 
0.01639824360195693 
0.02266624457569845 
0.03127555742747173 
0.03422880414680744 
0.07373394966116754 
0.1201924790391066 
0.1373134573360856 
0.1215999929870003 
0.1247892534335074 
0.04707283851845681 
0.1068404663942778 
0.1212902597076677 
0.09179836682892911 
-0.05908686008603879 
0.09721222592200714 
0.05415959145144292 
-0.1071322183380246 
0 
-0.06113664263515276 
-0.03352211204832742 
-0.03066426146049204 
-0.01378659151458636 
0.007517566186911338 
0.003631849717665758 
0.001682328553351402 
0.001041838553613512 
0.002838156019684118 
0.0005879610301986681 
0.0002614322008288612 
-0.0004635881801713589 
-0.0001661462162440134 
-6.897530635399687e-06 
0 
4.308117812484406e-06 
0 
0 
0.0001267939703141259 
0 
0 
0 
0 
0 
-8.334554248060432e-05 
0 
0 
0 
0 
0 
0 
0 
0 
0 
0 
0 
0 
0.0002807869696134335 
0 
0.003526877202494475 
0.002462195207323730 
0.009544121410676145 
0.02064747656004691 
0.02224038736548492 
0.03260090097861642 
0.03493200331114849 
0.06709230355513399 
0.1248204903692573 
0.1312740046972212 
0.1176349667467897 
0.1331772158908686 
0.04944601466250139 
0.09419568135743245 
0.1168861420317275 
0.07492985198784938 
-0.02327710877538262 
0.1837285438042612 
0.01924077714999531 
-0.09102072654895242 
0 
-0.04844229657807889 
-0.03396119518058829 
-0.02432031141349319 
-0.01549157602797057 
0.002741648201028744 
-3.473363419927797e-05 
-2.057483001391777e-05 
-0.0004219975966539149 
0.0008926051880989316 
0.0004512657151179010 
0.0001628644249432830 
-0.0003671410148311906 
-8.024651910748714e-05 
-1.403186370186895e-05 
0 
3.108476563195691e-06 
4.779857740440828e-06 
0 
2.976330487214388e-05 
0 
0 
0 
0 
0 
-0.0001258346555108666 
0 
0 
0 
0 
1.423744401654397e-06 
0 
0 
0 
0 
0 
3.119645955743851e-05 
0 
2.090555096039979e-05 
7.577521967038948e-05 
0.004438732793814742 
0.001263167485102742 
0.01014100911659651 
0.02415563406894523 
0.02110229795281077 
0.03088608155563469 
0.03099258672182980 
0.05382725723914524 
0.1164738984843746 
0.1152501663307651 
0.1022474151362237 
0.1360750906743398 
0.05252890122231667 
0.06677497374234906 
0.1111611898127985 
0.06373932519902528 
0.01445237432541437 
0.2655236003846403 
-0.009644898592257997 
-0.06813767635561496 
0 
-0.03978985855492288 
-0.03697114662597981 
-0.01661283569360745 
-0.01308826087672284 
0.0004111152997406917 
-0.001729960427651074 
-0.0004904493707914569 
-0.0003584857787756060 
4.280707702076705e-05 
0.0004196732998307884 
0.0001550773252145114 
-0.0001364333236613604 
-4.038549141730223e-05 
-1.064090772138920e-05 
1.442661018637588e-05 
0 
1.170564030087729e-05 
0 
0 
0 
0 
0 
0 
0 
-0.0001371997248038636 
0 
0 
0 
0 
3.909016594190251e-06 
0 
0 
0 
0 
0 
8.565264800922743e-05 
0 
1.658810021857794e-05 
0.0001190358684871596 
0.004439934186458390 
0.0003092066576311578 
0.009791248553232478 
0.02435460612344381 
0.01624220818211508 
0.02656182926640237 
0.02447267431464684 
0.03591655293686228 
0.09798459035079820 
0.09008176230674130 
0.07756936809375607 
0.1344965867761183 
0.05226272004337171 
0.03073452432043361 
0.1091694016969716 
0.06287495615589336 
0.05032200013652506 
0.3187705220689248 
-0.01471562011150729 
-0.04253691061073846 
0 
-0.03985805441942201 
-0.03756202925073633 
-0.01111173140432346 
-0.01017941810670233 
-8.774785178038796e-05 
-0.002525145052887676 
-0.0003492518206627174 
9.678851086900125e-05 
-0.0003353626268552183 
0.0004002169290178341 
0.0001520352590341566 
-1.694714199323015e-05 
-1.075416347916809e-05 
0 
2.266287158692376e-05 
0 
8.448247675157250e-06 
0 
0 
0 
0 
0 
0 
0 
-9.658907221930415e-05 
0 
0 
0 
0 
5.385342201567132e-06 
0 
0 
0 
0 
0 
0.0001180012437618261 
0 
8.180432984504051e-06 
9.839860982008618e-05 
0.003530060112875052 
0 
0.008570926243500825 
0.02003586827310276 
0.006778254253332306 
0.01707199354181064 
0.01545713715301967 
0.01703267671342169 
0.07349647736817531 
0.06014422793834397 
0.05219649576395479 
0.1261561512380268 
0.04507005901814352 
0.0001666601616656854 
0.1056512849494255 
0.07214012718914163 
0.08621631340218072 
0.3332966209660119 
-0.005635498676244483 
-0.02216195672618843 
0 
-0.04519198168559099 
-0.03317712530211168 
-0.007596237350740859 
-0.007429217559489857 
0.0001492895251154545 
-0.002557307073713865 
-0.0001268482433241133 
0.0002126367804924842 
-0.0005022534253032707 
0.0002684681738260457 
0.0001022635074667594 
-1.171622665154975e-05 
1.245947521760381e-05 
0 
1.873380760795560e-05 
0 
-3.018048001235806e-05 
0 
0 
0 
0 
0 
0 
0 
0 
0 
0 
0 
0 
4.359746294407349e-06 
0 
0 
0 
0 
0 
9.552883846013953e-05 
-7.033896810473267e-05 
0 
4.659546000280310e-05 
0.002125345875056071 
0.0003921656641924361 
0.006995258406926723 
0.01357591168537394 
-0.003230074264528936 
0.005236325462422998 
0.006878374018626420 
-0.001034155787224678 
0.04783668484029694 
0.03063272992357162 
0.03220429503244670 
0.1100908260703881 
0.03061878204857689 
-0.01644079043342917 
0.09847259342542879 
0.08829792471655905 
0.1262162155251327 
0.3186346957816838 
0.02028549276898832 
-0.01236091155615420 
0 
-0.05051996447721274 
-0.02410664844637452 
-0.005190260729607233 
-0.004651559689394773 
0.0009913624992148652 
-0.002390470535085721 
8.637100846545181e-07 
0.0001087130921629803 
-0.0003583917705691083 
0.0001144009263914111 
5.410801286382625e-05 
-3.582493558339188e-06 
1.620986203080153e-05 
0 
8.871165809077738e-06 
0 
-9.107134487222264e-05 
0 
0 
0 
0 
0 
0 
0 
0 
0 
0 
0 
0 
0 
0 
0 
0 
0 
0 
0 
-0.0001640091477374474 
1.520291716243580e-05 
0 
0.0006902354565228420 
0.001014715242287046 
0.005241576548956270 
0.008312945897415980 
-0.009992115024659989 
-0.002801220132521088 
0.001259411927668474 
-0.01205768464790029 
0.02782749794600731 
0.01017727277217061 
0.02637349560987742 
0.08512724511302061 
0.01203970761389704 
-0.01626478275453707 
0.08839522991949039 
0.1064186634177604 
0.1703927516565720 
0.2874151276214970 
0.05053015261605056 
-0.01410076400789748 
0 
-0.05429225564934469 
-0.01303821210120187 
-0.002867383229280085 
-0.002544884348062260 
0.001748424226636868 
-0.001695306726478344 
0.0006132369673819815 
0.0003434013796581690 
5.866225168291988e-05 
0.0002713622731740855 
7.710315169165604e-06 
2.122193395702947e-05 
-1.323488980084844e-23 
0 
1.464303332217638e-06 
0 
-0.0001140534172800501 
0 
0 
0 
0 
0 
0 
0 
0 
0 
0 
0 
0 
0 
0 
0 
0 
0 
0 
0 
-0.0001595192538230289 
0.0001189253928163593 
0 
-3.986913953172188e-05 
0.002140872128741337 
0.003770124733066744 
0.005777436771886980 
-0.01186698410944056 
-0.006174562428672823 
3.600355211060028e-05 
-0.01127191605460229 
0.01824418986363159 
0.003164562388415569 
0.02922500413038122 
0.05970218688787896 
0.001197767289690588 
-0.006793242204750326 
0.07777015406568602 
0.1241798606380617 
0.2064561787446433 
0.2544644876980139 
0.07751653599575453 
-0.02032078133157349 
0 
-0.05478444180424020 
-0.006250539724914652 
-0.002281245157630803 
-0.001761676497517529 
0.002063964708940790 
-0.001707717710035663 
0.0008871533108579088 
0.0002449583958483676 
0.0004197470193743656 
0.0003604122034615666 
3.136877026336459e-06 
2.794199950319025e-05 
-1.852971570245014e-05 
2.646977960169689e-23 
1.830379165271902e-06 
0 
-4.688724311451500e-05 
0 
1.350426629162580e-05 
0 
0 
0 
0 
0 
0 
0 
0 
0 
0 
0 
0 
0 
0 
0 
0 
0 
0 
0.0001312415093818466 
0 
0 
0.004297977172597553 
0.002720258241573433 
0.005343142671971689 
-0.008706764310749938 
-0.004677807103564258 
0.001064621962782985 
-0.005631314429958195 
0.01315709426729121 
0.007227382705630609 
0.03687536537725922 
0.03788216544279845 
0.001095687489466151 
0.004558727920851771 
0.06772940767086871 
0.1375635099969050 
0.2239018509526111 
0.2331176652823879 
0.1025047981741028 
-0.02895560606527528 
0 
-0.05307129383142697 
-0.005733153639246139 
-0.007844783304898970 
-0.002049528463956094 
0.001624901536736237 
-0.002263572356899525 
0.0006575256131559494 
-0.0009271554304413356 
0.0004140009587305384 
0.0003053783995426517 
-3.573236839994689e-06 
-3.522437252109676e-06 
-2.044868467208905e-05 
7.940933880509066e-23 
1.464303332217459e-06 
0 
0 
0 
1.490279114691780e-05 
0 
0 
0 
0 
0 
0 
0 
0 
0 
0 
0 
0 
0 
0 
0 
0 
0 
0 
8.806090792935494e-05 
0 
0 
0.006425190196807630 
0.002643149133746162 
0.006214925055302889 
-0.004212565650019753 
-0.0007820114579767376 
0.001930994862322164 
0.001501050850377232 
0.01030156635323425 
0.01380662495009986 
0.04245199521090177 
0.01888764508741326 
0.009040534858609683 
0.01292524891081534 
0.05711860173289646 
0.1416662921712321 
0.2195424147485218 
0.2243711796010056 
0.1240592804716638 
-0.03029661482670863 
0 
-0.05314033734083144 
-0.008328449046798816 
-0.01599924397509252 
-0.001679149706461716 
0.0003089411504476032 
-0.002899230655014351 
-0.0005024007016368490 
-0.002527070315898959 
0.0002494188842282207 
0.0001680677160575098 
-2.397583522611240e-06 
-1.963158999062725e-05 
-1.372073322431870e-05 
6.617444900424221e-23 
7.321516661087296e-07 
0 
-8.809142651444724e-20 
0 
9.999529304869880e-06 
0 
0 
0 
0 
0 
0 
0 
0 
0 
0 
0 
0 
0 
0 
0 
0 
0 
0 
2.529322952934118e-05 
0 
0 
0.007902483816313710 
0.001936549129721167 
0.006534763367714833 
-0.0004833270479781020 
0.003738393364979563 
0.002938986395486662 
0.007594376283063635 
0.009045660674803313 
0.02161766606972284 
0.04476470040657032 
0.009761554479370002 
0.02579517987698377 
0.01853973923090179 
0.04558010792589132 
0.1366749262890069 
0.1992453921483186 
0.2253344454283154 
0.1411947630741821 
-0.02181517841912883 
0 
-0.05455588301535891 
-0.01268060041047007 
-0.02423374205026557 
-0.001136313115582297 
-0.001329693260918784 
-0.003157237409134418 
-0.001827086105343172 
-0.003903716115013012 
6.317877130785894e-05 
2.241895542026068e-05 
7.022678669755388e-06 
-1.489299519317654e-05 
0 
0 
0 
0 
0 
0 
0 
0 
0 
0 
0 
0 
-0.0003546582142857445 
0 
0 
0 
0 
1.714875996467602e-05 
0 
0 
0 
0 
0 
0.0003757560669433262 
0 
0 
5.353300626988698e-06 
3.974047239679441e-05 
0.008287573698591170 
0.0007103449356930274 
0.006940921944479784 
0.001319538922638624 
0.007324759285061207 
0.004038213893100319 
0.01260060831940243 
0.008883409953468601 
0.02586605776210434 
0.04302271213115751 
0.006914117652506806 
0.03990180514155547 
0.02288939323662746 
0.03550620601216561 
0.1217949666883744 
0.1738932414374633 
0.2334021882356927 
0.1581648856168174 
-0.004299874154937682 
0 
-0.05361291922299773 
-0.01604885955302017 
-0.02969435639204169 
-0.0005903836756869944 
-0.002390388713243773 
-0.002647374442362556 
-0.002764921486236013 
-0.004444978066939864 
1.460578922610421e-05 
2.935632513018732e-05 
1.886425671288104e-05 
0 
-3.628654343819104e-06 
0 
0 
0 
2.981555974335137e-19 
0 
0 
0 
0 
0 
0 
0 
-0.001224648989563072 
0 
0 
0 
0 
6.165630690356787e-05 
0 
0 
0 
0 
0 
0.001350985810755851 
-0.0007997338459445742 
0 
1.004455742643742e-05 
-1.678991529178264e-05 
0.007394489677373555 
-0.0005957698045368275 
0.007261313794507431 
0.0004927050552393781 
0.006506029568088530 
0.003726690887344039 
0.01491064214470998 
0.009062743599896221 
0.02349595543464915 
0.03570800985323086 
0.008415168599123220 
0.04557684763816788 
0.02083862794945496 
0.02913386281071932 
0.1006999242514978 
0.1519538399194607 
0.2450027988867241 
0.1773305456038972 
0.02525332285290527 
0 
-0.04618927202248054 
-0.01874458163118314 
-0.03064617086578534 
-0.002369473639374235 
-0.002203851495496225 
-0.004324495760523055 
-0.003197355793991641 
-0.004739534031458817 
-2.652224793957335e-05 
4.052131614508968e-05 
2.438576819800555e-05 
0 
-4.838205791758815e-06 
0 
4.235164736271502e-21 
0 
-0.0007517762772486254 
0 
0 
0 
0 
0 
0 
0 
-0.002340137062392424 
0 
0 
0 
0 
0.0001193470121073771 
0 
0 
0 
0 
0 
0.002615079105619330 
-0.002875207430752286 
0 
9.567601120575293e-06 
-0.0005235567419494649 
0.005490997596072922 
-0.002226689736714531 
0.006621632908116046 
0.0001593641456175815 
0.004749705618669100 
0.002422899811713529 
0.01254883493113297 
0.007235371332982063 
0.01671584913891619 
0.02308080385051709 
0.01027797913188322 
0.04021200775067982 
0.01738320552634843 
0.02017566568750134 
0.08066826795704306 
0.1345767295699251 
0.2585831170258494 
0.1969579421939729 
0.06981209290671549 
0 
-0.03428595637569026 
-0.01884741835738714 
-0.02734270320746687 
-0.005263168077915030 
-0.001194837698215481 
-0.006614757112187300 
-0.003058836290751004 
-0.005353917596857356 
-3.265727341973168e-05 
3.582567376217867e-05 
2.113221482883456e-05 
0 
-4.233430067788975e-06 
0 
0 
0 
-0.002058758414727166 
0 
0 
0 
0 
0 
0 
0 
-0.003639748108385791 
0 
0 
0 
0 
0.0001858264894877977 
0 
0 
0 
0 
0 
0.004071748101183444 
-0.005552881531302329 
0 
5.645169411172779e-06 
-0.001268424647736260 
0.002913900141383604 
-0.004182792932218711 
0.005209578874881442 
2.895030544617414e-05 
0.002498558581317593 
0.0005712008347101832 
0.007056939515964463 
0.003964972308215786 
0.007095673589297322 
0.007800526726190152 
0.01271527895863439 
0.02700479271387062 
0.01483103926362968 
0.009665211803423557 
0.05578025734930182 
0.1199132457039079 
0.2735090309279439 
0.2165462775978953 
0.1214762309541584 
0 
-0.01924710883570888 
-0.01715238332141563 
-0.02113310900740428 
-0.008627758410260016 
0.0003710425153712964 
-0.009042649084867170 
-0.002528465327208530 
-0.005984977382294030 
-1.493563058586606e-05 
2.055627578072543e-05 
1.202861822346659e-05 
0 
-2.419102895879432e-06 
0 
3.388131789017201e-21 
0 
-0.003673261229066316 
0 
0 
0 
0 
0 
0 
0 
-0.005062107803155172 
0 
0 
0 
0 
