solver_type L2R_L2LOSS_SVC_DUAL
nr_class 5
label 0 1 2 3 4
nr_feature 1799
bias 1.000000000000000
w
0 0 0 0 0 
0 0 0 0 0 
0 0 0 0 0 
0 0 0 0 0 
0 0 0 0 0 
0 0 0 0 0 
0 0 0 0 0 
0 0 0 0 0 
0 0 0 0 0 
0 0 0 0 0 
0 0 0 0 0 
0 0 0 0 0 
0 0 0 0 0 
0 0 0 0 0 
0 0 0 0 0 
0 0 0 0 0 
0 0 0 0 0 
0 0 0 0 0 
0 0 0 0 0 
0 0 0 0 0 
0 0 0 0 0 
0 0 0 0 0 
0 0 0 0 0 
0.01202362046087510 0.01867290842727380 -0.02801138430292240 0.02314719200207500 -0.04832228302761300 
-0.04020487045267380 -0.01812091053430720 -0.04172352810116400 0.03914213726951530 0.02402427499220950 
-0.02364143067299340 0.01873777143949830 -0.02845282213164680 0.06273632567319110 -0.04082625503360900 
-0.004281664387123310 -0.01456830999165370 -0.05651343152722870 0.02849905167306890 -0.009526324481652660 
-0.03811291403915020 -0.03090620445997080 -0.08523802037504420 0.07395343231237130 0.003208194211955320 
-0.04084085383348330 -0.02650456408087150 -0.1225151795298130 0.09275830322713130 -0.01541487003452070 
-0.04861933840950580 -0.03667095246734590 -0.1680631943726370 0.2124060794796290 -0.1367555415272550 
0.07902810244995690 -0.003943522498060940 -0.0008907265031774980 -0.3431725164234770 -0.1429864518282230 
0.02062127979046320 0.0001658919822266170 -0.06446200839373870 -0.1085315325092270 -0.008540984425062290 
-0.06233282807736740 -0.04572423468964960 -0.08278913824673710 0.1119388655387400 -0.04636560714437220 
-0.03427965091145590 -0.03240081840914440 -0.03902450301413970 -0.004007401210130670 0.02002247474214280 
-0.02222960660521250 -0.01249745168709040 -0.02260227246571010 -0.03167170018922420 0.05425206400481950 
0.008592884124557990 -0.009959591971698920 -0.03090096643848610 -0.05327718309423310 0.03543690243426870 
-0.02077925036342080 -0.008296873389059160 0.01035062309775910 -0.04179082618639140 0.02878397633867910 
0 0 0 0 0 
0 0 0 0 0 
0 0 0 0 0 
-0.01593071736058640 -0.03025263787145220 -0.01344949252983300 -0.01830806593129380 0.05457452374251460 
0.02888756431246790 -0.001600913881430740 -0.007283266502804980 -0.01946047957037290 -0.01468031862405860 
0 0 0 0 0 
0 0 0 0 0 
0 0 0 0 0 
0 0 0 0 0 
0 0 0 0 0 
0 0 0 0 0 
0 0 0 0 0 
0 0 0 0 0 
0 0 0 0 0 
0 0 0 0 0 
0 0 0 0 0 
0 0 0 0 0 
0 0 0 0 0 
0 0 0 0 0 
0 0 0 0 0 
0 0 0 0 0 
0 0 0 0 0 
0 0 0 0 0 
0 0 0 0 0 
0 0 0 0 0 
0 0 0 0 0 
0 0 0 0 0 
0 0 0 0 0 
0 0 0 0 0 
0 0 0 0 0 
0 0 0 0 0 
0 0 0 0 0 
0 0 0 0 0 
0 0 0 0 0 
0 0 0 0 0 
0 0 0 0 0 
0 0 0 0 0 
0 0 0 0 0 
0 0 0 0 0 
0 0 0 0 0 
0 0 0 0 0 
0 0 0 0 0 
0 0 0 0 0 
0 0 0 0 0 
0 0 0 0 0 
0 0 0 0 0 
-0.006265749144655470 -0.007074884810093100 -0.02422291456710170 0.006826837532576860 0.005078328371298050 
-0.04116013031266160 -0.03254271461647210 -0.04089326892952560 0.03709192249620750 0.03917075405695080 
-0.01372270872104170 -0.01221846128388740 -0.03989213255766380 0.04502582258762240 -0.01222767658002340 
-0.008557496827505780 -0.03526284677231240 -0.05412487162525480 0.02976172954759370 0.01223967949622950 
-0.02507814121493400 -0.05613180175432450 -0.06430423223792520 0.04844633912713970 0.01653321853473220 
-0.04163247711813920 -0.04312060292998440 -0.1021279458198140 0.08435577585761120 -0.003110663234444870 
-0.05134794820024050 -0.04430894912164390 -0.1586080389359400 0.2009232280885250 -0.09172144025957320 
-0.08375702735237590 0.1385422603959810 -0.09686139288024090 -0.2875274372729940 -0.1381416122004190 
0.08344330718672710 -0.01749441328122420 -0.1073153577608190 -0.1167497502336030 -0.05643839538249150 
0.01174951607790610 -0.07340146978491830 -0.08770894004241180 0.03841997531485440 -0.04802048836718850 
-0.02371597745984230 -0.04133954551787830 -0.08546755346241180 0.03794720319934220 0.01610125436289900 
-0.04297052074596440 -0.03890403429807650 -0.04683558962872330 0.03116389717717790 0.05026186076547300 
-0.01039391794478110 -0.03718999808836200 -0.04576829072848010 0.009243566888112850 0.03158362306312830 
0.009545215042707780 -0.002864726363083970 0.001240107398279580 -0.03039837840668890 0.0004581415060087130 
-0.01366114894462180 -0.01943232007875300 -0.01243064828400680 0.003828794590967800 0.02682407828118680 
-0.009008166198489150 -0.01710662387137580 -0.007605135490873750 -0.01035245914851380 0.03085965113487310 
0 0 0 0 0 
-0.01953039355706610 -0.03689552064562660 -0.02161575191851230 -0.006779104237847830 0.05481426111408590 
0.01515206156471450 -0.0008397089290347380 -0.003820207936156580 -0.01020738132643100 -0.007700098532895540 
0 0 0 0 0 
0 0 0 0 0 
0 0 0 0 0 
0 0 0 0 0 
0 0 0 0 0 
0 0 0 0 0 
0 0 0 0 0 
0 0 0 0 0 
0 0 0 0 0 
0 0 0 0 0 
0 0 0 0 0 
0 0 0 0 0 
0 0 0 0 0 
0 0 0 0 0 
0 0 0 0 0 
0 0 0 0 0 
0 0 0 0 0 
0 0 0 0 0 
0 0 0 0 0 
0 0 0 0 0 
0 0 0 0 0 
0 0 0 0 0 
0 0 0 0 0 
0 0 0 0 0 
0 0 0 0 0 
0 0 0 0 0 
0 0 0 0 0 
0 0 0 0 0 
0 0 0 0 0 
0 0 0 0 0 
0 0 0 0 0 
0 0 0 0 0 
0 0 0 0 0 
0 0 0 0 0 
0 0 0 0 0 
0 0 0 0 0 
0 0 0 0 0 
0 0 0 0 0 
0 0 0 0 0 
0 0 0 0 0 
0 0 0 0 0 
-0.02069268685847550 -0.02583879063934610 -0.01926449684363790 -0.005305267678521050 0.04551759661820630 
-0.03975469473189530 -0.04165657168081980 -0.03816913769952720 0.03490890370297490 0.04756799646133910 
-0.008918770758511040 -0.03497492459989210 -0.04591570788225840 0.03310434794344800 0.01078381119464700 
-0.01426554365945470 -0.04771277103678970 -0.05042139732822580 0.03453831684204470 0.02584906572058480 
-0.01995859996165520 -0.07274578647706030 -0.04666989799354180 0.03150314412987530 0.02853858810450320 
-0.04691021386567650 -0.05624576756618080 -0.08201270545517830 0.07629190482373090 0.01088819033362420 
-0.05322233901700340 -0.04650741757939760 -0.1473797899319080 0.1927133703302560 -0.06057356274830050 
-0.2048313787982730 0.2333997667919560 -0.1871217931056870 -0.2441812631921090 -0.1107340946751800 
0.1105270937950580 -0.02520680391705260 -0.1325953705789460 -0.1144766289200010 -0.08866589144965380 
0.06262979717921380 -0.08846254251582150 -0.09452740917362530 -0.01342544989627330 -0.05121709226023260 
0.001569437359451370 -0.05453599872086070 -0.1104525861826970 0.05113293564635360 -0.002673311892189710 
-0.02828536205520540 -0.06256787809898890 -0.07412374256808890 0.06371642580505080 0.02943749115017270 
-0.01446102908333450 -0.05903194836289030 -0.06359470146759220 0.05354493538849310 0.02074209479097310 
0.03076387207776910 -0.005161004395496030 -0.01521166157990460 -0.007630692732844480 -0.02291213206364450 
-0.02435323634904440 -0.03308815634337100 -0.02237371516604930 0.01148426436209180 0.04305289309447610 
-0.01482170591337410 -0.02814661082016480 -0.01251321070164090 -0.01703355617542070 0.05077533691453470 
0 0 0 0 0 
-0.02839016137147970 -0.03966725829606470 -0.02593170130827910 0.01010569678645450 0.05354694707515360 
0.003105483614941310 -0.0001721021465824830 -0.0007829689115724340 -0.002092049014274620 -0.001578170054629880 
0 0 0 0 0 
0 0 0 0 0 
0 0 0 0 0 
-0.001634135548358620 -0.0008819078256113670 -0.001685753890261460 0.004785148089840230 -0.001217497567104270 
0 0 0 0 0 
0 0 0 0 0 
0 0 0 0 0 
0 0 0 0 0 
0 0 0 0 0 
0 0 0 0 0 
0 0 0 0 0 
0 0 0 0 0 
0 0 0 0 0 
0 0 0 0 0 
0 0 0 0 0 
0 0 0 0 0 
0 0 0 0 0 
0 0 0 0 0 
0 0 0 0 0 
0 0 0 0 0 
0 0 0 0 0 
0 0 0 0 0 
0 0 0 0 0 
0 0 0 0 0 
0 0 0 0 0 
0 0 0 0 0 
0 0 0 0 0 
0 0 0 0 0 
0 0 0 0 0 
0 0 0 0 0 
0 0 0 0 0 
0 0 0 0 0 
0 0 0 0 0 
0 0 0 0 0 
0 0 0 0 0 
0 0 0 0 0 
0 0 0 0 0 
0 0 0 0 0 
0 0 0 0 0 
0 0 0 0 0 
0 0 0 0 0 
-0.01621081856098420 -0.03078455366602650 -0.01368596769395020 -0.01862996676778750 0.05553407812198260 
-0.03364600228327940 -0.04018897143551060 -0.03167257197608040 0.03243943670870400 0.04252888799290460 
-0.01303112497905940 -0.04145438735705730 -0.04146683488169040 0.03182981578668750 0.02202800470931450 
-0.02228933205796520 -0.04373897637447690 -0.04424612095205670 0.04594035646816720 0.02291877476188250 
-0.02930547335563210 -0.07220863509607550 -0.03597641563373950 0.03077210567177020 0.03720622280830880 
-0.06034150528546200 -0.06240510208961770 -0.06263133786473160 0.06838130670838150 0.02781633299159850 
-0.05490031352070110 -0.03939870261059790 -0.1251936540505630 0.1870911735414110 -0.05866732932191320 
-0.2465389029200720 0.2331574695902920 -0.2649774865886230 -0.2227647635975210 -0.03603920769052680 
0.07127052368054530 -0.01336457505414040 -0.1240553889259900 -0.09473361064524770 -0.09207922572235880 
0.06904420663272890 -0.07844236673030570 -0.1056563868073990 -0.02327039717921150 -0.05841696360012110 
0.05799028097184060 -0.06711505542350370 -0.1330728425714820 0.03378404468301910 -0.03898542366007460 
0.05150991979100340 -0.08046128028984190 -0.1060925150344840 0.03953999032478610 -0.02208754512949250 
0.009726502482006960 -0.07023132269833520 -0.08688835810678840 0.06255838202179480 -0.003131727671317410 
0.03690138847637060 -0.01383915173896300 -0.03474539947311460 0.01982403001597710 -0.04359035778047700 
-0.01623669491388590 -0.03596658445276970 -0.03062153436294600 0.01806460338584860 0.03164353033207820 
-0.01011816484366500 -0.02734925006393110 -0.01310557090882700 -0.01921533971188820 0.04680564470499780 
0.004936704953162060 -0.0002735862187119040 -0.001244664916386820 -0.003325674842184770 -0.002508775086797750 
-0.02911404527813650 -0.03576515063719770 -0.02727006521816910 0.02510205361104170 0.03983631072619550 
0 0 0 0 0 
0 0 0 0 0 
0.003323574711399710 -0.0001841884914179320 -0.0008379550488671580 -0.002238968888903070 -0.001689001371193930 
0 0 0 0 0 
0 0 0 0 0 
0 0 0 0 0 
0 0 0 0 0 
0 0 0 0 0 
0 0 0 0 0 
0 0 0 0 0 
0 0 0 0 0 
0 0 0 0 0 
0 0 0 0 0 
0 0 0 0 0 
0 0 0 0 0 
0 0 0 0 0 
0 0 0 0 0 
0 0 0 0 0 
0 0 0 0 0 
0 0 0 0 0 
0 0 0 0 0 
0 0 0 0 0 
0 0 0 0 0 
0 0 0 0 0 
0 0 0 0 0 
0 0 0 0 0 
0 0 0 0 0 
0 0 0 0 0 
0 0 0 0 0 
0 0 0 0 0 
0 0 0 0 0 
0 0 0 0 0 
0 0 0 0 0 
0 0 0 0 0 
0 0 0 0 0 
0 0 0 0 0 
0 0 0 0 0 
0 0 0 0 0 
0 0 0 0 0 
0 0 0 0 0 
0 0 0 0 0 
0 0 0 0 0 
-0.01029383937949890 -0.01954813383516160 -0.008690563814809650 -0.01182999395320870 0.03526403544186770 
-0.02236377663279430 -0.02474119364666700 -0.02132379226348520 0.02747569497887210 0.02221881188864680 
-0.01830959756006810 -0.02743781849401120 -0.02755811094784120 0.03375423292967660 0.01522377968916560 
-0.02918247601921600 -0.02136236036689490 -0.03702959739630380 0.06133260764213490 -2.853747701645750e-05 
-0.04527495730460810 -0.05045345469833890 -0.03652358884759880 0.04350013466193530 0.03473053628816350 
-0.07570904651295500 -0.05828886475858680 -0.04477312556917570 0.05686410879784410 0.04116538915728940 
-0.06071064068023990 -0.02132739869872350 -0.09714627494340770 0.1930875805099960 -0.08757513092503820 
-0.2198478528383540 0.1127969296894070 -0.3123825848671910 -0.2151164787387910 0.1194165124255730 
-0.01294066610549490 0.01386923861978920 -0.08441769014620180 -0.08649576119327120 -0.06697344528065920 
0.02895877763387570 -0.04167750865470070 -0.1285120315883930 0.01146861476829820 -0.07055841346189660 
0.1075739532936120 -0.08268201929933780 -0.1078293568565830 -0.01986131779248990 -0.08380239379702440 
0.1585131951831640 -0.08861356975986120 -0.09892626387152240 -0.04827811376887040 -0.09589226351289310 
0.05844336030040220 -0.06623112196733570 -0.1021933833512880 0.02784504227950900 -0.04394238522264100 
0.03424897506635280 -0.03940308283754260 -0.07116664034020980 0.05707150162107370 -0.05872284076050670 
0.01875806797432930 -0.01444562152766660 -0.04130693286185130 0.01536099173882810 -0.02199552537999850 
0.002240825740524170 -0.01054929323070640 -0.02553944352938800 0.008997257992508090 -0.002279064366704300 
0.01794245799723840 -0.004903249495306490 0.0004309949566912980 -0.01137049601781340 -0.01589882879279300 
-0.02514108662907840 -0.02492776072142440 -0.02436968537197430 0.03954468924191910 0.01612317232799100 
-0.003859012570793360 -0.002082626125313580 -0.003980909331736250 0.01130013152847020 -0.002875121602418390 
0 0 0 0 0 
0.005010902260774970 -0.0002776981437754860 -0.001263371885215690 -0.003375658813604420 -0.002546481281235690 
0 0 0 0 0 
0 0 0 0 0 
0 0 0 0 0 
0 0 0 0 0 
0 0 0 0 0 
0 0 0 0 0 
0 0 0 0 0 
0 0 0 0 0 
0 0 0 0 0 
0 0 0 0 0 
0 0 0 0 0 
0 0 0 0 0 
0 0 0 0 0 
0 0 0 0 0 
0 0 0 0 0 
0 0 0 0 0 
0 0 0 0 0 
0 0 0 0 0 
0 0 0 0 0 
0 0 0 0 0 
0 0 0 0 0 
0 0 0 0 0 
0 0 0 0 0 
0 0 0 0 0 
0 0 0 0 0 
0 0 0 0 0 
0 0 0 0 0 
0 0 0 0 0 
0 0 0 0 0 
0 0 0 0 0 
0 0 0 0 0 
0 0 0 0 0 
0 0 0 0 0 
0 0 0 0 0 
0 0 0 0 0 
0 0 0 0 0 
0 0 0 0 0 
0 0 0 0 0 
0 0 0 0 0 
-0.002656998367170080 -0.005045674190787190 -0.002243168269336320 -0.003053503504232600 0.009102190264934100 
-0.009853170177827440 -0.008412751451271400 -0.009737837470659980 0.01956807060783580 0.002155867373163040 
-0.01239133730532280 -0.009930404507618200 -0.01233580171880260 0.02655692502245040 0.0007184977883938900 
-0.02851161302239490 0.005175060572627770 -0.03204167203982600 0.07044123988486020 -0.02998960458960250 
-0.04800304923592890 -0.01908791221037160 -0.04323657906116020 0.05367737824186200 0.01533648663133350 
-0.07731777670746180 -0.04611631957085230 -0.02707104853947080 0.03916391421085830 0.03747602870926250 
-0.07380189088845060 -0.003494275440214750 -0.07219672214973540 0.2111956476980510 -0.1226470030463960 
-0.1874241158911970 -0.06255459622306790 -0.3071311717822230 -0.2012219614687390 0.3169712536937780 
-0.09651599649622390 0.01758715915715110 -0.04322843140485830 -0.1205165801204130 0.004127276028544350 
-0.04331453126019520 -0.003892389520370170 -0.1631711812642060 0.05976324303484280 -0.05882255900183070 
0.09148171471212410 -0.07920916513496720 -0.05944649402107490 -0.05736015058111540 -0.1019407224400870 
0.2186385332841000 -0.08028055555056370 -0.06442254688705310 -0.1362322533298400 -0.1439990467997240 
0.1199103256326680 -0.04580894925461720 -0.1087226060659700 -0.02805645234413950 -0.1004827315308340 
0.05766220334209190 -0.06061700731168110 -0.1167791479385200 0.08739626253224720 -0.1063463760599250 
0.07447763203365490 0.008980662403169770 -0.05653707036748500 0.003644141292855000 -0.09235979112451220 
0.02762573749348870 0.0009550898629377670 -0.05474932140683130 0.05525267430887660 -0.07489239706872430 
0.04409337429810670 -0.01407538159252040 -0.005933991368912490 -0.01750656429198170 -0.04362154209121640 
-0.005853524140956360 -0.01500633197756000 -0.02550721413843250 0.04401886386312380 -0.01558566670672820 
-0.004278699446332030 -0.006331868791495560 -0.01309150796138990 0.02776962699781630 -0.01165939913492770 
0 0 0 0 0 
0 0 0 0 0 
0 0 0 0 0 
0 0 0 0 0 
0 0 0 0 0 
0 0 0 0 0 
0 0 0 0 0 
0 0 0 0 0 
0 0 0 0 0 
0 0 0 0 0 
0 0 0 0 0 
0 0 0 0 0 
0 0 0 0 0 
0 0 0 0 0 
0 0 0 0 0 
0 0 0 0 0 
0 0 0 0 0 
0 0 0 0 0 
0 0 0 0 0 
0 0 0 0 0 
0 0 0 0 0 
0 0 0 0 0 
0 0 0 0 0 
0 0 0 0 0 
0 0 0 0 0 
0 0 0 0 0 
0 0 0 0 0 
0 0 0 0 0 
0 0 0 0 0 
0 0 0 0 0 
0 0 0 0 0 
0 0 0 0 0 
0 0 0 0 0 
0 0 0 0 0 
0 0 0 0 0 
0 0 0 0 0 
0 0 0 0 0 
0 0 0 0 0 
0 0 0 0 0 
0 0 0 0 0 
0 0 0 0 0 
0 0 0 0 0 
-0.002478579253881020 -0.001337635940048690 -0.002556871505395050 0.007257885549420520 -0.001846642534951460 
-0.003238666574597460 -0.001747838727058060 -0.003340968124015920 0.009483606906801980 -0.002412938558979920 
-0.02526788426386820 0.01744331531161530 -0.03007687720177730 0.06758486136938720 -0.04173093265141600 
-0.03782678821576810 0.007528500078625710 -0.04249435165949960 0.05626350362713630 -0.01332851104013780 
-0.06533042949066590 -0.02991747565702610 -0.004100302448687710 0.02473544702344030 0.01235331757850110 
-0.09063289180639070 -0.0006962690589379290 -0.06388722888133610 0.2312707237004530 -0.1290447529699560 
-0.1843598273224310 -0.2094656793551740 -0.2432486277030150 -0.1696534839530370 0.4689114317306510 
-0.1624065325767010 -0.04529033145207610 -0.02835045792808940 -0.1969758506984510 0.1528104084282870 
-0.1290018718146800 0.006552741637738030 -0.2025276821356200 0.07679921457795960 0.01345952490490630 
0.0007298306457550020 -0.03518479456212400 -0.02446899651133010 -0.05966129414861070 -0.08922029695522070 
0.1973994815229100 -0.02567271325555840 -0.02398865543915260 -0.1921384825105580 -0.1676079248293020 
0.1733195489194950 -0.01246592835583800 -0.1029116261361270 -0.07431301464544430 -0.1673546381385130 
0.1120903350575380 -0.06179863240100920 -0.1563636486064940 0.09621711125769160 -0.1852245658875880 
0.1315907502525820 0.005591857104428230 -0.08173223402933190 -0.01782281502722720 -0.1346794097124120 
0.06609824372959670 -0.01030084549780630 -0.09343650079537380 0.07848403754175050 -0.1252296855086050 
0.07576515388121280 -0.02708138305858270 -0.02390185837649410 -0.01125819209596220 -0.08186132148019850 
0.04371461001398990 -0.01727061729887710 -0.04305085863284710 0.02680414307474670 -0.05348400240069990 
0.01527362832264680 -0.01097872907205600 -0.02570767923918840 0.02809781996860590 -0.02909968261589770 
0.01172939632095970 -0.0006500289601405570 -0.002957269723349390 -0.007901658824808790 -0.005960740524781130 
0 0 0 0 0 
0 0 0 0 0 
0.004639978704831500 -0.0002571420088505610 -0.001169852920415380 -0.003125781385222810 -0.002357982315815180 
0 0 0 0 0 
0 0 0 0 0 
0 0 0 0 0 
0 0 0 0 0 
0 0 0 0 0 
0 0 0 0 0 
0 0 0 0 0 
0 0 0 0 0 
0 0 0 0 0 
0 0 0 0 0 
0 0 0 0 0 
0 0 0 0 0 
0 0 0 0 0 
0 0 0 0 0 
0 0 0 0 0 
0 0 0 0 0 
0 0 0 0 0 
0 0 0 0 0 
0 0 0 0 0 
0 0 0 0 0 
0 0 0 0 0 
0 0 0 0 0 
0 0 0 0 0 
0 0 0 0 0 
0 0 0 0 0 
0 0 0 0 0 
0 0 0 0 0 
0 0 0 0 0 
0 0 0 0 0 
0 0 0 0 0 
0 0 0 0 0 
0 0 0 0 0 
0 0 0 0 0 
0 0 0 0 0 
0 0 0 0 0 
0 0 0 0 0 
0 0 0 0 0 
0 0 0 0 0 
0 0 0 0 0 
0 0 0 0 0 
-0.02286597116302770 0.01170882783920310 -0.01486372920508290 0.05124496953924900 -0.03722112827710750 
-0.02664929057543470 0.01535692846352720 -0.02441642113117580 0.05011274960858060 -0.03189567944714370 
-0.05053264918289200 -0.01914343725903300 0.02464083753547910 0.02171242957222160 -0.02056338749668710 
-0.09480072313537150 -0.01063311367275680 -0.07403326236706590 0.2428831280764730 -0.1065323490748460 
-0.1867340954396610 -0.2679305362174120 -0.1410591581700840 -0.1338551137196110 0.4796656419664120 
-0.2085587452756400 -0.1657880763516180 -0.03927482363646930 -0.2694493914730230 0.3474222608750740 
-0.1995154643091430 -0.01493062265278120 -0.2290851650965830 0.03120362128382950 0.1427308261658470 
-0.09939054641861350 0.05794623020038690 -0.04247094151416130 -0.05136631341239950 -0.08387872954787140 
0.1235066869433530 0.07477241310419730 -0.003466174761710280 -0.2185731340385240 -0.1865130162744560 
0.1770152029410150 0.01190533131285550 -0.08798144155736510 -0.09057520779005000 -0.1971343719799020 
0.1479829741642550 -0.04329777283573320 -0.1687850828004240 0.08606747348514440 -0.2396541377104260 
0.1651180341382400 -0.03037698095225920 -0.09230567690128310 -0.03799548817601240 -0.1429451883201680 
0.1001974220256700 -0.04708205388888320 -0.1135906100326270 0.06352383411124340 -0.1339429802934250 
0.08245340510173050 -0.04632261013845070 -0.05374048849751470 0.03140235029521450 -0.1111229809518190 
0.06521517924962740 -0.02530399659859940 -0.06323054264242930 0.03824096892957150 -0.07881873180357990 
0.04333665532323850 -0.01350598449810870 -0.03487988473503710 0.01287545085831030 -0.04540801469630940 
0.03017323830402010 -0.001672164379319960 -0.007607416583957990 -0.02032659040533740 -0.01533368294506860 
0.001644323028298270 -0.001575352125273550 -0.003616267029049890 0.004515407787015120 -0.003961290238517680 
-0.002703724347613300 -0.001459141907078130 -0.002789128381523640 0.007917165384738970 -0.002014384803418620 
-0.003466310226356590 -0.001870693112141830 -0.003575802481503410 0.01015020313039780 -0.002582542354981950 
-0.002939869884005330 -0.001586584576528960 -0.003032733177368510 0.008608657203471870 -0.002190322849885210 
0 0 0 0 0 
0 0 0 0 0 
0 0 0 0 0 
0 0 0 0 0 
0 0 0 0 0 
0 0 0 0 0 
0 0 0 0 0 
0 0 0 0 0 
0 0 0 0 0 
0 0 0 0 0 
0 0 0 0 0 
0 0 0 0 0 
0 0 0 0 0 
0 0 0 0 0 
0 0 0 0 0 
0 0 0 0 0 
0 0 0 0 0 
0 0 0 0 0 
0 0 0 0 0 
0 0 0 0 0 
0 0 0 0 0 
0 0 0 0 0 
0 0 0 0 0 
0 0 0 0 0 
0 0 0 0 0 
0 0 0 0 0 
0 0 0 0 0 
0 0 0 0 0 
0 0 0 0 0 
0 0 0 0 0 
0 0 0 0 0 
0 0 0 0 0 
0 0 0 0 0 
0 0 0 0 0 
0 0 0 0 0 
0 0 0 0 0 
0 0 0 0 0 
0 0 0 0 0 
0 0 0 0 0 
-0.01792554801748490 -0.0006037243301456540 0.005825769685008350 0.02744396812357600 -0.02534366266028170 
-0.01795393785664680 0.004769435092139850 0.0001775962297254240 0.03089359182449090 -0.02831151723486550 
-0.03611804629458240 -0.01421432435391120 0.04719914768035930 0.02725531193947770 -0.04851542465587610 
-0.07950287676596440 -0.02324392263299770 -0.08145912286184960 0.2259393785876190 -0.07436699603360170 
-0.1581719366481230 -0.2531241757943140 -0.05240467766050660 -0.08553514375411470 0.3536904387147840 
-0.2150628630899780 -0.2617673614564990 -0.05223983487425440 -0.2875573657264950 0.4651175608468310 
-0.2282937116009520 -0.05006927221895330 -0.2230935033691540 -0.07290493366263410 0.2788948623827790 
-0.1586256329818200 0.1463647728637050 -0.09946944900541040 -0.05506862477806610 -0.08777475944673520 
0.02705222257404700 0.1738715983718130 0.002768929537913310 -0.2253654424547400 -0.1938893910342360 
0.09420515267765330 0.001882920658810570 -0.07321601140207960 -0.09183726527759290 -0.1280709102318800 
0.1141734904089810 -0.03051213930261470 -0.1441595623510670 0.05645238756458120 -0.2025784308437550 
0.1594174568789700 -0.07566730990629470 -0.09246728161046450 -0.03452410160189570 -0.1245204544830830 
0.1202006353700090 -0.07905371712979660 -0.1091493186241870 0.03209167212756960 -0.1226750976671160 
0.05262856765637590 -0.05881001219531230 -0.08381092370371800 0.1236376169168560 -0.1390292242089680 
0.03048863111301690 -0.03424046081466110 -0.07790382512843250 0.1027827402422500 -0.08404346910628810 
0.07217395924739760 -0.01360063322739450 -0.03890725285155620 -0.01224724307809250 -0.05689657932442890 
0.05820824212722740 -0.003225830389408790 -0.01467573158770680 -0.03921273162705970 -0.02958074040895290 
0.06807261815010780 -0.01144865570208680 -0.03372137326920010 -0.01677617429879030 -0.05075908591963240 
0.01629942433990240 -0.009615594978575000 -0.02290319713560010 0.02202704368876940 -0.02663060665423280 
-0.01859824565971820 -0.01003707336666340 -0.01918571871494950 0.05446020667157620 -0.01385645081025140 
0.007623652898743560 -0.009418483775542270 -0.02132778146531910 0.02894637307053820 -0.02281911048096690 
0.04024760292084280 -0.002230473483791790 -0.01014741204903360 -0.02711331581733590 -0.02045335592649990 
0.03692536619701450 -0.002046359142027070 -0.009309794339789640 -0.02487524828098420 -0.01876503450476970 
0.02069911807062530 -0.001147120092722240 -0.005218757512772490 -0.01394422734921560 -0.01051904706215180 
0 0 0 0 0 
0 0 0 0 0 
0 0 0 0 0 
0 0 0 0 0 
0 0 0 0 0 
0 0 0 0 0 
0 0 0 0 0 
0 0 0 0 0 
0 0 0 0 0 
0 0 0 0 0 
0 0 0 0 0 
0 0 0 0 0 
0 0 0 0 0 
0 0 0 0 0 
0 0 0 0 0 
0 0 0 0 0 
0 0 0 0 0 
0 0 0 0 0 
0 0 0 0 0 
0 0 0 0 0 
0 0 0 0 0 
0 0 0 0 0 
0 0 0 0 0 
0 0 0 0 0 
0 0 0 0 0 
0 0 0 0 0 
0 0 0 0 0 
0 0 0 0 0 
0 0 0 0 0 
0 0 0 0 0 
0 0 0 0 0 
0 0 0 0 0 
0 0 0 0 0 
0 0 0 0 0 
0 0 0 0 0 
0 0 0 0 0 
-0.01116802156734850 -0.01008539277526320 0.02227887954916380 0.003280381928443970 -0.01225405993006390 
-0.01501792269264630 -0.01687990180957430 0.01625767568544010 0.001806221508179890 0.0006807306703570440 
-0.03113148502866930 -0.02600579036961260 0.04454848678762420 0.02442583841844090 -0.03211590285151840 
-0.06075379224618670 -0.03278751562028990 -0.06267285582889100 0.1779019452880730 -0.04526405066359750 
-0.1301266276778040 -0.1781978500812040 0.001557419972728520 -0.005574338817547290 0.1747314744612080 
-0.1661108195906690 -0.2517348259339590 -0.04286557499099670 -0.2227191734754310 0.4015509989145000 
-0.2124675335561710 -0.08722713123694730 -0.1766039920944030 -0.1883987662897980 0.3685517406326060 
-0.1937775445705900 0.1656717893279880 -0.1478007621722690 -0.05913247494063130 -0.05588912993258080 
-0.07499431245513550 0.2157206973389130 0.01768326517699610 -0.2238534856341730 -0.1643423706200840 
-0.05333996250029670 -0.05477376898902090 -0.07256363615524120 -0.1293251738791010 0.05398013348482980 
0.01820551002582890 -0.05626611948039780 -0.1011277439929880 0.003736620422436290 -0.06433227028858610 
0.1062840786595720 -0.1055821465063270 -0.08411270145119050 -0.001419691750554480 -0.08749813389145130 
0.1078656115766820 -0.08824137026768730 -0.08608209463315660 0.01796016358779860 -0.1068118233091520 
-0.0009954537652512670 -0.07107612666433250 -0.1116702042214010 0.2264497393989770 -0.1447903328350380 
-0.02423455343294570 -0.04473669125050640 -0.09329063480624900 0.1909033010103450 -0.08472466064528590 
0.09425947249692110 -0.01405790793177240 -0.04282171836939580 -0.03003006324986040 -0.06650561195350230 
0.09311385218590450 -0.005160257088672830 -0.02347629565570650 -0.06272734518501590 -0.04731935872532510 
0.1154900696086910 -0.02100126076798640 -0.06061426294181960 -0.02248435064598620 -0.08943914102294160 
0.05969516009509390 -0.02135046926284790 -0.05397037002966940 0.02814027407719960 -0.06833192891420470 
-0.01927841238485540 -0.02148590868459780 -0.04379236119068790 0.09843619395668940 -0.03770054144137180 
0.02974557875061610 -0.01856370555767670 -0.04398825117822280 0.04404647308416570 -0.05073854323894880 
0.07895045468064450 -0.004375338726254630 -0.01990535428106630 -0.05318599012936560 -0.04012168757772090 
0.06587177058093800 -0.003650533869064560 -0.01660789587391880 -0.04437536622294500 -0.03347525495743130 
0.03421223155567640 -0.001896000501107180 -0.008625746268546440 -0.02304751020350840 -0.01738625155948610 
0 0 0 0 0 
0 0 0 0 0 
0 0 0 0 0 
0 0 0 0 0 
0 0 0 0 0 
0 0 0 0 0 
0 0 0 0 0 
0 0 0 0 0 
0 0 0 0 0 
0 0 0 0 0 
0 0 0 0 0 
0 0 0 0 0 
0 0 0 0 0 
0 0 0 0 0 
0 0 0 0 0 
0 0 0 0 0 
0 0 0 0 0 
0 0 0 0 0 
0 0 0 0 0 
0 0 0 0 0 
0 0 0 0 0 
0 0 0 0 0 
0 0 0 0 0 
0 0 0 0 0 
0 0 0 0 0 
0 0 0 0 0 
0 0 0 0 0 
0 0 0 0 0 
0 0 0 0 0 
0 0 0 0 0 
0 0 0 0 0 
0 0 0 0 0 
0 0 0 0 0 
0 0 0 0 0 
0 0 0 0 0 
0 0 0 0 0 
-0.003728875769729840 -0.005616013632205610 0.02616654789572840 -0.01520717291536940 -0.006270944593079810 
-0.01476184288006830 -0.02660222346934350 0.01616245342343180 -0.02762969766615210 0.03197312004124890 
-0.02037360179488460 -0.01637109819698260 0.02375674930705740 0.02068359856593480 -0.02038971591702720 
-0.04436155176928530 -0.02863575342817330 -0.006661764361689800 0.09586433556138600 -0.03760154027162510 
-0.08470699985550190 -0.07814017448781000 0.001193024300557980 0.06866470800092780 0.01792115821661050 
-0.09206868165809220 -0.1511294615542010 -0.02209357270382120 -0.1062300801115370 0.2185746420625100 
-0.1647843246360030 -0.1251875220878500 -0.09485845297494800 -0.2717631097011560 0.3890509472515760 
-0.2254854696645510 0.08551254395204650 -0.1414799750137120 -0.04485713564338070 0.03064550023375140 
-0.1616236893125730 0.1742904254567020 0.06227519175583360 -0.2169326750851510 -0.1020210333463690 
-0.1946432954956190 -0.1012711342731090 -0.07049130731334110 -0.2059235013585710 0.2267500846029440 
-0.09978187042182160 -0.1125840683157440 -0.05185801602409560 -0.05542256246443480 0.1076364570114230 
4.306196392057070e-05 -0.1124637425911240 -0.07306218881994600 0.05449699905078270 -0.02105091490312150 
0.04155684309640420 -0.08004465526929950 -0.05942469813308730 0.04026636164885370 -0.06987771844350090 
-0.05145034425714550 -0.06250136009071180 -0.1307334764442550 0.3005384860477920 -0.1457883931812440 
-0.05480866472548050 -0.03946199399089350 -0.1196186865685860 0.2633735543721840 -0.1135760895395470 
0.1029343377195950 -0.005011991259137790 -0.05412294591712960 -0.02548213928127950 -0.08773972661701890 
0.1307205890628670 -0.007244376969823830 -0.03295788032698900 -0.08806160759587130 -0.06643065775328340 
0.07470957009608380 -0.02398688036617610 -0.06164807860406220 0.02486149793149050 -0.07976185551015190 
0.1330819593706670 -0.03544664441601340 -0.09410737563761180 0.01669874538295500 -0.1267468844502710 
0.07369419824104570 -0.03836498352754730 -0.09252914076437730 0.08023148342185270 -0.1096435316344720 
0.06473357519541070 -0.02610650880219590 -0.06489782903967730 0.04170691700958200 -0.08032022191283950 
0.08874982087013690 -0.004918407750430220 -0.02237601586903010 -0.05978745931072250 -0.04510160960989740 
0.05730565444528810 -0.003175810071544840 -0.01444816700113920 -0.03860469181605800 -0.02912205602096870 
0.02207708111553260 -0.001223485138346340 -0.005566175937480060 -0.01487250989301500 -0.01121931158887370 
0 0 0 0 0 
0 0 0 0 0 
0 0 0 0 0 
0 0 0 0 0 
0.007967909619545850 -0.0004415719157883790 -0.002008906275437310 -0.005367684886566430 -0.004049197458026920 
0.01204693779715140 -0.0006676267247588040 -0.003037329750971720 -0.008115574727975010 -0.006122111348448520 
0 0 0 0 0 
0.01267533617877830 -0.0007024518031674060 -0.003195764461278710 -0.008538903387166570 -0.006441455975961640 
0 0 0 0 0 
0.01288415291890470 -0.0007140241743900990 -0.003248412304902230 -0.008679575472262620 -0.006547574174295470 
0 0 0 0 0 
0 0 0 0 0 
0 0 0 0 0 
0 0 0 0 0 
0 0 0 0 0 
0 0 0 0 0 
0 0 0 0 0 
0 0 0 0 0 
0 0 0 0 0 
0 0 0 0 0 
0 0 0 0 0 
0 0 0 0 0 
0 0 0 0 0 
0 0 0 0 0 
0 0 0 0 0 
0 0 0 0 0 
0 0 0 0 0 
0 0 0 0 0 
0 0 0 0 0 
0 0 0 0 0 
0 0 0 0 0 
0 0 0 0 0 
0 0 0 0 0 
0 0 0 0 0 
0 0 0 0 0 
0 0 0 0 0 
-0.002133122287041800 -0.003212669067829060 0.01496870637108100 -0.008699340356684250 -0.003587325644069910 
-0.01715043987157490 -0.03171450929285740 0.002615269132439900 -0.02607875513715670 0.04764703367401860 
-0.005642554954012520 -0.004316580968736670 0.004768357220306140 0.007305021339957370 -0.005436242798269040 
-0.03161147202182340 -0.02877573965298210 0.06496578085964590 0.007627262252922730 -0.03490719330818290 
-0.03892349984823760 0.01324679657354690 -0.01450737909573920 0.07957805659045270 -0.06049979397230640 
-0.02608306998030180 -0.03868504246720970 -0.003105295854146360 -0.01132735431593380 0.04483949878743470 
-0.1157903223343480 -0.1444899786379520 -0.02187744748680190 -0.2369664808676950 0.3028958136646880 
-0.2310712402677830 -0.02164832416425340 -0.07595966144660220 -0.02388502007332970 0.09435979318211420 
-0.1996258138237370 0.09898933921531390 0.1237749945160560 -0.2062906637209020 -0.06576419669444340 
-0.2661177874611770 -0.08415349581039140 -0.04528031179525780 -0.2644986546646130 0.2599586710266250 
-0.1928086079675610 -0.1555399245772830 -0.01815997008313310 -0.09032118789972030 0.2196538953127520 
-0.1136256564937540 -0.1208839188145110 -0.07154127265186720 0.08819554855335370 0.07939336643609810 
-0.05216219720155330 -0.08555813948843230 -0.05187596898719550 0.07193630640271630 0.003849794608454420 
-0.07254688645589810 -0.04169784390972900 -0.1350808136461510 0.3138658772802980 -0.1407177211895370 
-0.05627087605477510 -0.03294312482909470 -0.1518091391214990 0.3127502640005230 -0.1570320334713460 
0.09592066806473680 0.0009934228152248690 -0.07527341345947410 0.01286318982153160 -0.1159132747978260 
0.1609809426388930 -0.008921369172172810 -0.04058726081678620 -0.1084468843256350 -0.08180861164955570 
-0.008359850493516860 -0.02120535446961260 -0.04463472751240780 0.08772540549519030 -0.04138411984168890 
0.2061325303690640 -0.04868616398080920 -0.1323518729105020 0.002308796095425620 -0.1832261626944450 
0.1855009403121970 -0.05434679492955900 -0.1418273860748300 0.04198515189137230 -0.1870701492510780 
0.1075153345680420 -0.02953961492518300 -0.07797546997997530 0.01691065006646190 -0.1042983020567880 
0.07333833039399810 -0.004064321584843060 -0.01849039951421980 -0.04940531035846730 -0.03726967237164050 
0.03134047325082430 -0.001736851128573630 -0.007901705264616790 -0.02111291325313470 -0.01592685794393230 
0 0 0 0 0 
0 0 0 0 0 
0 0 0 0 0 
0 0 0 0 0 
0 0 0 0 0 
0.02226198383096420 -0.001233732223238890 -0.005612794466443410 -0.01499707198752890 -0.01131327696261130 
0.02851736988259980 -0.001580398153791200 -0.007189931368647630 -0.01921109332715810 -0.01449219019188860 
0 0 0 0 0 
0.03000490716254830 -0.001662835671016820 -0.007564976156970120 -0.02021319196494840 -0.01524813904927920 
0 0 0 0 0 
0.03049921570104420 -0.001690229652469470 -0.007689603515010290 -0.02054618927516850 -0.01549934080395880 
0 0 0 0 0 
0 0 0 0 0 
0 0 0 0 0 
0 0 0 0 0 
0 0 0 0 0 
0 0 0 0 0 
0 0 0 0 0 
0 0 0 0 0 
0 0 0 0 0 
0 0 0 0 0 
0 0 0 0 0 
0 0 0 0 0 
0 0 0 0 0 
0 0 0 0 0 
0 0 0 0 0 
0 0 0 0 0 
0 0 0 0 0 
0 0 0 0 0 
0 0 0 0 0 
0 0 0 0 0 
0 0 0 0 0 
0.002893444605569430 -0.0001603512010947810 -0.0007295086545032850 -0.001949206206020880 -0.001470414337164790 
0 0 0 0 0 
0 0 0 0 0 
0 0 0 0 0 
0 0 0 0 0 
-0.007717565465072560 -0.01465575642197390 -0.006515547085644240 -0.008869261450409840 0.02643838630581980 
-0.01099743720871640 -0.02088427519356140 -0.009284575593053820 -0.01263859002298140 0.03767437990826400 
0 0 0 0 0 
-0.02523987889647250 -0.03067939723703790 0.1160324163111430 -0.04976175804793420 -0.03533804989846680 
-0.01095189661891730 0.05235407768865110 -0.01881686147427600 0.02006127454327610 -0.05109963127721490 
0.003486538268482990 -0.0001932197346851040 -0.0008790421756198420 -0.002348751386971480 -0.001771817524062180 
-0.04873561835475550 -0.09847500599096890 0.04899827732002570 -0.1732668673873820 0.1377816685409830 
-0.1771693062050960 -0.07982054977374400 0.02449636064022790 -0.01817279160482130 0.05327215097865320 
-0.1811963118761480 0.04561672669441910 0.1788511919921820 -0.1830585086082950 -0.09584505343453310 
-0.2341922404521670 0.006969013421122760 0.01100764633005390 -0.2611034980537160 0.1058291561808090 
-0.2092366877529880 -0.1391547502413630 -0.01519806417915940 -0.1152636389913080 0.2107557690792240 
-0.1652123077099840 -0.1567986943852490 -0.09581758780979300 0.05558717417781690 0.1919210940177450 
-0.1121450453350840 -0.1277022618989050 -0.07921015874870690 0.05728457029385620 0.1074962906369120 
-0.07347459270407880 -0.06794039318874550 -0.1519554279533470 0.2395401374344680 -0.05571630151406040 
-0.04946458052087480 -0.05152577860362030 -0.1851124642485940 0.3242670728816720 -0.1595939953499150 
0.07008220294494110 -0.02216818979937270 -0.1087194509353750 0.05439968062392250 -0.1030166432734130 
0.1608370676651730 -0.02918204428418850 -0.05192104972082520 -0.1272544767325990 -0.05147868632188940 
-0.04223068313963820 -0.03224313002598040 -0.04226198768387930 0.09530901675253260 -0.002462023808790380 
0.2255536169587860 -0.07082896852222100 -0.1598823509335850 0.001570082351647770 -0.1860340952480500 
0.2035440817674490 -0.06125135096176570 -0.1591136532171870 0.05220038550103790 -0.2086741485634720 
0.1459209920949570 -0.02901053949739370 -0.08192592835676100 -0.01902988965746600 -0.1182191755056350 
0.05232118404025740 -0.002899576749251540 -0.01319145923780880 -0.03524683916233450 -0.02658900709629840 
0.03184087361231400 -0.001764582711489960 -0.008027868521283500 -0.02145001439833500 -0.01618115549102920 
0.007839978502712990 -0.0004344821279963260 -0.001976651689767970 -0.005281502442847340 -0.003984184377078890 
0.006087989034298670 -0.0003373889902791260 -0.001534931990919500 -0.004101252183988720 -0.003093844044328280 
0.006568975414252480 -0.0003640446738154100 -0.001656200504648470 -0.004425274850609980 -0.003338275635554790 
0.006514157388267060 -0.0003610067251049040 -0.001642379530055710 -0.004388345981729290 -0.003310417762904010 
0.006530485487528910 -0.0003619116086209710 -0.001646496246062700 -0.004399345615989600 -0.003318715509889390 
0.03443504141867440 -0.001908348354278010 -0.008681922123115370 -0.02319760893596120 -0.01749948089741200 
0.02934819952553000 -0.001626441727907870 -0.007399403986083900 -0.01977079241143590 -0.01491440799289800 
0 0 0 0 0 
0.03087907495595430 -0.001711280993025480 -0.007785375389618350 -0.02080208635218870 -0.01569238078594060 
0 0 0 0 0 
0.03138778475895060 -0.001739473075141770 -0.007913633661161650 -0.02114478525962780 -0.01595090109296230 
0 0 0 0 0 
0 0 0 0 0 
0 0 0 0 0 
0 0 0 0 0 
0 0 0 0 0 
0 0 0 0 0 
0 0 0 0 0 
0 0 0 0 0 
0 0 0 0 0 
0 0 0 0 0 
0 0 0 0 0 
0 0 0 0 0 
0 0 0 0 0 
0 0 0 0 0 
0 0 0 0 0 
0.004354066482228640 -0.0002412970992180080 -0.001097767406693920 -0.002933172935901890 -0.002212685104845020 
0 0 0 0 0 
0.003035736864791770 -0.0001682368660316100 -0.0007653840379033070 -0.002045063218182450 -0.001542725580872500 
0 0 0 0 0 
0 0 0 0 0 
0 0 0 0 0 
0.007414539143421450 -0.0004109047931739910 -0.001869387948145920 -0.004994899741755230 -0.003767981124978490 
0.004918900083819960 -0.0002725994943837980 -0.001240175870267750 -0.003313680362749360 -0.002499726862718540 
0 0 0 0 0 
0 0 0 0 0 
0 0 0 0 0 
-0.01461379582374340 -0.02775178687664420 -0.01233768281208820 -0.01679461956367990 0.05006309063798420 
-0.003641155449757930 -0.006914601192267760 -0.003074041922471060 -0.004184526818935660 0.01247365828199510 
-0.003904951655781210 -0.005881199344316070 0.02740212086467720 -0.01592524898192710 -0.006567055859260590 
-0.02979997242085720 -0.03388969303558190 0.1175690167664270 -0.04184119554644840 -0.03946176957873570 
-0.004900332815948220 0.06336783257806960 0.02525696187220230 -0.03456610011349630 -0.06038122702956300 
0.01648426184584510 0.01046368699796920 0.02103949649851570 -0.03406093941108590 -0.03033310201789040 
0.007790657545740140 -0.01121762081711190 0.08038909674052730 -0.1092881453445430 -0.02664856909344000 
-0.09684903543540610 -0.07995094541643720 0.1197267958021190 -0.04594983384503670 -0.04987857854474520 
-0.1158638898896080 0.02501274477663040 0.1936456164477550 -0.1614226742847220 -0.1655429510142150 
-0.1351640974689440 0.09059746035293620 0.06580176339682630 -0.2179453517917970 -0.09483326225830870 
-0.1540502088231980 -0.05566474464363450 -0.05159630921582230 -0.1490552811537340 0.1088115176269260 
-0.1377077778561980 -0.2116386984311340 -0.1373452862238570 -0.02689059912867170 0.2771993940849560 
-0.1195373998113740 -0.1924550658166330 -0.1288571968108550 -0.005712850043203700 0.2103078381784960 
-0.04352124128223690 -0.1035562381623730 -0.1621913961576380 0.1319907457403790 0.02194968131173600 
-0.03520526165984400 -0.08333939723916110 -0.2000446565945930 0.2992537311889860 -0.1297298660559160 
0.03883758300953190 -0.05400641147041010 -0.1343177568532560 0.09130931486038430 -0.07284557856476470 
0.1356855755279510 -0.03083469189882790 -0.05737372479313700 -0.1297965356286570 -0.02310268040179460 
-0.01229835092549080 -0.03662307544040230 -0.05442573429159010 0.05589252200672600 -0.001783656873085690 
0.1871790015420870 -0.07279982742282350 -0.1650421649356950 0.02332154483104040 -0.1615221840684020 
0.1188926226477170 -0.05670404020438800 -0.1380815013072870 0.1097723771959140 -0.1659584691940090 
0.1673984524432280 -0.02540764838089810 -0.07700140588800470 -0.05165773649900590 -0.1190397717642040 
0.03953104229625960 -0.002190762560490200 -0.009966749465722500 -0.02663059552825920 -0.02008920828952540 
0.06387028052474740 -0.003539613710485510 -0.01610327093135630 -0.04302703668129520 -0.03245812137600710 
0.04202657275331700 -0.002329061840658730 -0.01059593416222430 -0.02831174174576320 -0.02135740736125650 
0.02472573005734080 -0.001370270059778690 -0.006233965575502120 -0.01665680634887450 -0.01256532366411940 
0.02424814035580550 -0.001343802616052870 -0.006113553448067210 -0.01633507189839550 -0.01232261822470370 
0.02404578989712680 -0.001332588598328550 -0.006062535913269880 -0.01619875590703750 -0.01221978611414580 
0.02410606201228580 -0.001335928806065600 -0.006077731998084880 -0.01623935899330080 -0.01225041569042680 
0.03918488290184020 -0.002171578825450470 -0.009879474156017080 -0.02639740079607880 -0.01991329417818590 
0.01346746798530740 -0.0007463507899867240 -0.003395480400978400 -0.009072533175793270 -0.006844007994065830 
0 0 0 0 0 
0.01416996477155140 -0.0007852823123744740 -0.003572597144232880 -0.009545779179128090 -0.007201008554683780 
0 0 0 0 0 
0.01440340440656900 -0.0007982192546564030 -0.003631453026153580 -0.009703038794339600 -0.007319639817066270 
0 0 0 0 0 
0 0 0 0 0 
0 0 0 0 0 
0 0 0 0 0 
0 0 0 0 0 
0 0 0 0 0 
0 0 0 0 0 
0 0 0 0 0 
0 0 0 0 0 
0 0 0 0 0 
0 0 0 0 0 
0 0 0 0 0 
0 0 0 0 0 
0 0 0 0 0 
0 0 0 0 0 
0 0 0 0 0 
0 0 0 0 0 
0 0 0 0 0 
0 0 0 0 0 
0 0 0 0 0 
0 0 0 0 0 
0 0 0 0 0 
0 0 0 0 0 
-0.002557714004613810 -0.004857131904917250 -0.002159347543482910 -0.002939402888768550 0.008762067677925370 
0 0 0 0 0 
-0.0004962832234488710 -0.0007474460187033100 0.003482556013702280 -0.002023951791381530 -0.0008346120356131870 
-0.01810791664333200 -0.03156656937071740 -0.01949079257464600 -0.001066741893200210 0.04477869556257120 
-0.008318217934430630 -0.004489163398277220 -0.008580970077478380 0.02435777417595250 -0.006197411290626830 
-0.02440772367589650 -0.02439103359488260 0.06825776660692210 -0.009863838979791660 -0.02905839588452680 
-0.05321097974773640 -0.04412823038429060 0.07346411747291610 0.04408207683434690 -0.05458173584846590 
-0.02949537068481950 0.04344267768204730 0.08054086205461010 -0.03373685256604610 -0.09040811450643690 
0.003761215163165790 0.003787031401892880 0.05522724884717000 -0.06159872451637910 -0.04677912692868920 
0.008775739210785240 0.02401841795590420 0.04492064663888790 -0.03814198727616440 -0.08793692440056270 
-0.05141729322242520 -0.08439787908950000 0.1703658220316120 -0.09507985194000770 -0.09170156659970800 
-0.06605122796747830 0.007021381740442090 0.1679614575462770 -0.1330052855530660 -0.1937156199000730 
-0.03355963627548350 0.1283515909569800 0.09645235454399330 -0.1865558785459940 -0.2149100636144090 
-0.08599104390941460 0.06109118842890680 -0.1008108240440290 -0.1871323270408430 -0.005457158979782950 
-0.09246304813666550 -0.2409036346943000 -0.1705406458430420 -0.09027932870159600 0.3104084242030270 
-0.1182256487698220 -0.2444030854715260 -0.1754928963670820 -0.07014960363497140 0.2977892914538600 
-0.008383183886092070 -0.1097330570555420 -0.1624889256260830 0.05695971675336410 0.04601587443428680 
-0.01678453823731240 -0.1061760306098640 -0.1837741189943730 0.2333681350656440 -0.07898132199292270 
0.001807075986937570 -0.06975013984149030 -0.1358912500890130 0.1157888811018460 -0.03928506277088770 
0.08851859268910280 -0.01424334513424390 -0.05475983485217630 -0.08994277561657770 -0.01818152116319660 
0.02552855423200870 -0.02905558849214260 -0.06423933306437830 0.02250062335322890 -0.02372588105388700 
0.1211539756993000 -0.05549870480991300 -0.1455986318231580 0.05322373925233980 -0.1289950553298320 
0.03712408644667320 -0.04498299776087300 -0.1019567701461690 0.1376186050596790 -0.1092640732051910 
0.1605025839889620 -0.01963359886835960 -0.06363169222491500 -0.06743991799392070 -0.1041804716753050 
0.04227772395444690 -0.002342980336516600 -0.01065925556622160 -0.02848093298548820 -0.02148503943211990 
0.08944108856262300 -0.004956716970020880 -0.02255030148116050 -0.06025314069049460 -0.04545290367783770 
0.07011276740587950 -0.003885564784607070 -0.01767715563495270 -0.04723236832866310 -0.03563047939935120 
0.04093146625089840 -0.002268372362570390 -0.01031983083901590 -0.02757400915303980 -0.02080088718500040 
0.03145198379612980 -0.001743030908148490 -0.007929819819743300 -0.02118803376746140 -0.01598352628458300 
0.03118951734492530 -0.001728485334814650 -0.007863645562492290 -0.02101121986386180 -0.01585014393742030 
0.03126769561185720 -0.001732817879829650 -0.007883356229221900 -0.02106388565977390 -0.01588987320831440 
0.03323171385342840 -0.001841661395755890 -0.008378533604337590 -0.02238697183112820 -0.01688796405660660 
0 0 0 0 0 
0 0 0 0 0 
0 0 0 0 0 
0 0 0 0 0 
0 0 0 0 0 
0 0 0 0 0 
0 0 0 0 0 
0 0 0 0 0 
0 0 0 0 0 
0 0 0 0 0 
0 0 0 0 0 
0 0 0 0 0 
0 0 0 0 0 
0 0 0 0 0 
0 0 0 0 0 
0 0 0 0 0 
0.01100250789872390 -0.0006097456827821310 -0.002774003247862500 -0.007411981081893130 -0.005591344423152900 
0.01192174766125780 -0.0006606888388158280 -0.003005766234111210 -0.008031238781350450 -0.006058491201605110 
0.008755444188940340 -0.0004852161292849830 -0.002207463138419230 -0.005898217687216890 -0.004449413214575910 
0.01034243039351000 -0.0005731649856528460 -0.002607581450199750 -0.006967311373290050 -0.005255900839599130 
0 0 0 0 0 
0 0 0 0 0 
0 0 0 0 0 
0.002815490844621620 -0.0001560310979299320 -0.0007098545912621760 -0.001896691651455130 -0.001430799157557430 
0.02194239627721230 -0.001216021067476500 -0.005532218572270480 -0.01478177771787490 -0.01115086634652010 
0.01011537531039490 -0.0005605818675167330 -0.002550335271073810 -0.006814352793656430 -0.005140514131004170 
0 0 0 0 0 
0 0 0 0 0 
-0.006843313372052210 -0.02384780060633810 -0.01186523137374460 -0.01798641910477820 0.03964355596682240 
0.01676523488334020 -0.0009291090435963860 -0.004226928664414530 -0.01129411629899620 -0.008519894139651960 
0.02091066035142610 -0.004053340067246120 -0.01151594633212860 -0.003120666240644710 -0.01672213646545940 
0.002624163291461340 -0.02558473839433760 -0.03153674771280650 0.02361896183386480 -0.0007941970061497160 
-0.02461640758177950 -0.01328494598053140 -0.02539397964075110 0.07208285496083590 -0.01834022665486150 
-0.06287016324141840 -0.05399387126023320 0.1022511617294370 0.03863383096437020 -0.06628789891482220 
-0.09117905395691320 -0.06161599509283960 0.009287611904631210 0.1770320836370390 -0.07995906854684760 
-0.07698238571501290 0.001878121163325690 0.1095282494128270 0.03956728139562750 -0.1298401897926760 
-0.05280917859346640 -0.04552942771598630 0.06347717241324800 -0.04910652607725570 -0.001586061563620040 
-0.04604097142947380 -0.03480907276015290 -0.02986729405282170 0.01617434125283280 -0.01321861837293430 
-0.06823265795000100 -0.1267877128116220 0.1577183836362660 -0.1379581842382690 -0.01474315777793510 
-0.06515975054680460 -0.02735679747525830 0.1127700263239320 -0.09034170555851490 -0.1423464777802840 
0.02472283317288010 0.1315267179401750 0.09207176935853220 -0.1852035358998350 -0.2194125042289170 
-0.05246779444524240 0.1697366771978670 -0.1395946132425450 -0.2075143909603870 -0.07555945590298870 
-0.07432700307786500 -0.2102029069842360 -0.1820747925214810 -0.09917539282652570 0.2824306851381170 
-0.1388020236022850 -0.2521129525873480 -0.2044846085589140 -0.09698011472194830 0.3512560230805040 
0.01003015481283020 -0.06329056014370590 -0.1472589602313080 0.03823008410778530 0.001879903796566480 
-0.004894478384775380 -0.1057283753333130 -0.1408681063538660 0.1488692928788110 -0.02559546322459850 
-0.04076093725567980 -0.05351517821116280 -0.1121034777053680 0.1299919903867340 -0.01788670996350400 
0.02889532398627320 0.01285526625117270 -0.04388429626336720 -0.01215718738399280 -0.03644321874605300 
0.02419557130291000 -0.008697014910707970 -0.05795885181386370 0.02923502208664780 -0.04438600514380920 
0.05293833664235530 -0.02722344433759070 -0.1074557423469740 0.08099784636221440 -0.1003186168705000 
0.02371191874922910 -0.03171065224684710 -0.07154821272532990 0.09918637820589170 -0.07606293707751300 
0.1230015064777930 -0.01255461927232020 -0.04338947034937180 -0.06112250890469280 -0.07459174757571450 
0.05913697797387640 -0.003277299806940850 -0.01490988877066230 -0.03983838648582480 -0.03005271298507310 
0.08313971872901880 -0.004607502673878510 -0.02096157093487950 -0.05600814178419040 -0.04225062203426500 
0.06907872309592810 -0.003828259299384790 -0.01741644759450930 -0.04653577106795250 -0.03510499030732240 
0.04595288892626690 -0.002546653535000670 -0.01158585517988260 -0.03095675517936500 -0.02335271481654160 
0.01906565246319500 -0.001056595404053830 -0.004806920598680510 -0.01284382221507340 -0.009688939154156030 
0.01890654980772030 -0.001047778127284950 -0.004766806900322530 -0.01273664066307520 -0.009608085065834860 
0.01895394013060620 -0.001050404441671750 -0.004778755168009570 -0.01276856576414560 -0.009632168267593830 
0.01723573374471700 -0.0009551835215353350 -0.004345553016388520 -0.01161107391372160 -0.008758996097939510 
0 0 0 0 0 
0 0 0 0 0 
0 0 0 0 0 
0 0 0 0 0 
0 0 0 0 0 
0 0 0 0 0 
0 0 0 0 0 
0 0 0 0 0 
0 0 0 0 0 
0 0 0 0 0 
0 0 0 0 0 
0 0 0 0 0 
0 0 0 0 0 
0 0 0 0 0 
0 0 0 0 0 
0 0 0 0 0 
0.02608616535000240 -0.001445663738569060 -0.006576964822136400 -0.01757328109673790 -0.01325668079439390 
0.02772233927088400 -0.001536338518693870 -0.006989484568758910 -0.01867551072110100 -0.01408816503526330 
0.02598057135118680 -0.001439811846845990 -0.006550341974112520 -0.01750214634011810 -0.01320301917271360 
0.02435170117887770 -0.001349541831634890 -0.006139663682406320 -0.01640483698000260 -0.01237524661051100 
0 0 0 0 0 
0 0 0 0 0 
0 0 0 0 0 
0.02744716667705100 -0.004210180232381990 0.004730251307705680 -0.02667341803840450 -0.01771960532543700 
0.05002012068551400 -0.002772054600730680 -0.01261130448778710 -0.03369669821169060 -0.02541963390663150 
0.03807041796598990 -0.006003434184326050 0.007270419304796320 -0.03749544953145720 -0.02480748743779070 
-0.001962946720484650 -0.002956369753861180 0.01377453756847630 -0.008005327086622180 -0.003301137094255840 
-0.002058168697995100 -0.003099782395313440 0.01444273640081070 -0.008393663187572460 -0.003461274299645980 
0.006778811489604220 -0.04641220080099840 -0.01388988159244150 -0.05338929490718480 0.05720518699238330 
0.04310458679505460 -0.005177228067466130 0.001212983464417570 -0.03752352347224600 -0.02581582867909600 
0.04463064248577510 -0.009244335177514850 -0.02585843626149130 -0.004413599442225870 -0.03693988120826390 
0.009255941163339000 -0.02669873496473680 0.001521220935857490 0.02944921190597840 -0.05330785154320230 
-0.04852499757429400 -0.03300185649993550 0.006693147771622770 0.09269186625863040 -0.04275747661680650 
-0.1049689818692720 -0.08474954442496790 0.1257501215074340 0.1036495957656050 -0.1054419151358730 
-0.1303287294706680 -0.08121454479155030 -0.04383891428559160 0.3027621354117960 -0.1076445332412190 
-0.1180607182585760 -0.03994506712803520 0.1060386612483120 0.1308514526071630 -0.1535244331980020 
-0.1095751352285300 -0.1051512942295360 0.04136672220136920 0.008950847775438600 0.05737499172592150 
-0.1152873644510950 -0.1363313059574640 -0.07764499443455060 0.05109038792464620 0.1032303066936360 
-0.1144456051845770 -0.1758968566259950 0.09286028853202370 -0.1395185554994950 0.1101855276084150 
-0.09195605267944690 -0.06520842839383790 0.04375229768645160 -0.03500715608871740 -0.05127710960602710 
0.03674270440856800 0.1459503545283540 0.05836238745841610 -0.1939603332420010 -0.1729811986285760 
-0.05137930403844840 0.2411485465857470 -0.1602922429780840 -0.1989402381328070 -0.09873661943730890 
-0.08134888169031820 -0.1201456474352790 -0.1810747387119240 -0.07462422985033990 0.2054253549714330 
-0.1626992466762100 -0.1984289468502120 -0.2171824133090830 -0.08397879321483130 0.3372595860140540 
0.004604888612151800 0.01972846201075600 -0.1279376640686030 0.05039858065128750 -0.07191871700847780 
-0.003813157512408590 -0.08006607243751550 -0.09302749030567290 0.07249929072838500 0.01140018435914800 
-0.06763282319175840 -0.009977022712369260 -0.07985103329779990 0.1228114696924590 -0.01991473298141510 
-0.01878205792201770 0.02975633048619070 -0.03122712821792940 0.05728113698349450 -0.05172965043892760 
0.003615222477312530 0.01212602064723550 -0.04313422623884660 0.05036788353283420 -0.05539470649669580 
0.001898195616943310 -0.006688107746147170 -0.06519918702019250 0.09407118096257100 -0.07128528583509860 
0.03838500799304220 -0.01895036648023490 -0.04596773522511380 0.03787738320648440 -0.05493498921514790 
0.07421238063925350 -0.005878246001506850 -0.02251918062858070 -0.04330541920234560 -0.04143183066103960 
0.06733271666561620 -0.003731497734404130 -0.01697623636693670 -0.04535955135973140 -0.03421769048379340 
0.05719301531151370 -0.003169567746961800 -0.01441976790106100 -0.03852881101358090 -0.02906481414500230 
0.04923173847152900 -0.002728363411795910 -0.01241253391272530 -0.03316559438435000 -0.02501898738712400 
0.03942299949962920 -0.002184774959353500 -0.009939509215452350 -0.02655781110746800 -0.02003430221774950 
0 0 0 0 0 
0 0 0 0 0 
0 0 0 0 0 
0 0 0 0 0 
0 0 0 0 0 
0 0 0 0 0 
0 0 0 0 0 
0 0 0 0 0 
0 0 0 0 0 
0 0 0 0 0 
0 0 0 0 0 
0 0 0 0 0 
0 0 0 0 0 
0 0 0 0 0 
0 0 0 0 0 
0 0 0 0 0 
0 0 0 0 0 
0.02176548252423710 -0.001206216721222510 -0.005487614257521350 -0.01466259749076230 -0.01106096086904330 
0.02243595250620450 -0.001243373356846200 -0.005656656254554360 -0.01511426822511330 -0.01140168578640510 
0.02165322668165730 -0.001199995638173970 -0.005459311794594300 -0.01458697489733240 -0.01100391377713000 
0.04345882457545700 -0.002408435504667460 -0.01095704012487800 -0.02927659662320810 -0.02208526080267070 
0.04484569630554250 -0.002485294258851160 -0.01130670464855190 -0.03021088061745970 -0.02279005261786590 
0.05292973311492080 -0.002933301803071330 -0.01334488944891510 -0.03565679608036880 -0.02689826454070610 
0.03990872208773060 -0.002211693117817980 -0.01006197184391450 -0.02688502438167740 -0.02028114069395680 
0.04660133795185890 -0.009187081083432430 -0.01545425346014050 -0.03755358302868140 -0.01382313887062770 
0 0 0 0 0 
0.03025087366732350 -0.01488704598618410 -0.01503770261556910 -0.03270036321881670 0.004347467175753040 
0.08512789838825500 -0.02087204723849160 -0.002690996383702760 -0.08441889817814280 -0.03561407372750220 
0.07242040469578760 -0.01437410733336560 -0.02407096441917180 -0.05845029482679190 -0.02133692289030580 
0.08505073393940550 -0.03411165168762000 0.001741698621908400 -0.1018269595954850 -0.02281131896304180 
0.07670551374446700 -0.02077693505088760 0.004252205888814600 -0.07699350376631280 -0.03856064123224360 
0.04403432622352020 -0.02381972778342930 0.02004251413415950 -0.06227204654064180 -0.02267403014143440 
0.04846405589542310 -0.06755736392309650 -0.002554130862220780 -0.1041292611249240 0.03494938145467780 
0.07359928666760410 -0.02041046417352720 0.01076611454625160 -0.07604126013631400 -0.04184086769573330 
0.05503116317632300 -0.02639392324394930 -0.04725833615589840 0.001164665853136970 -0.03885985508674110 
-0.02228207451415610 -0.04372551234611550 0.04628468215365370 0.02919090732701410 -0.05576873343701750 
-0.07110293276849040 -0.05449963779518840 0.06096617703099790 0.09128667678358500 -0.06860546751834410 
-0.1452194974504690 -0.1186841705935730 0.1289751371058820 0.1625340548282630 -0.1191872705500970 
-0.1612630719152220 -0.1060992860235840 -0.07306274338569420 0.3679692505783720 -0.1063308854234360 
-0.1344623926715710 -0.07115686810464140 0.08978636238849880 0.1651355445429810 -0.1339419833160930 
-0.1267932077251310 -0.1408332929927560 0.001059252219581520 0.07507728419103410 0.07912093535862430 
-0.1589062443703590 -0.1859251424739990 -0.07506758041124930 0.09360286222774070 0.1384364408113190 
-0.1556496689330920 -0.1855125675196610 0.01281556458966130 -0.08761015504478560 0.1853548952748750 
-0.1196753596641620 -0.07921400248778160 -0.02123532900993840 0.02277321033089920 0.02264559554216420 
0.005099943461281080 0.1533686966446780 0.007002925180491820 -0.1734789690292710 -0.1019187244510700 
-0.07126600215514750 0.2753478114364750 -0.1654118701218010 -0.1582194204566690 -0.09720807764629150 
-0.1028500764916240 -0.006907528263520010 -0.1741643477462020 -0.03818473037815750 0.1133616739566450 
-0.1662744615394410 -0.08367914258609590 -0.2083931000300710 -0.03755231697120990 0.2306470499516110 
-0.02643620590886540 0.09591735431240800 -0.1142050517712190 0.06911684309697740 -0.1189694240804480 
-0.01582866869386010 -0.06053598669804210 -0.05840102997472600 0.03602910207293350 0.03672568379900140 
-0.04730908002331170 0.03874417572390650 -0.05697191509579490 0.07909450079687700 -0.04902660471054170 
-0.02742088931612420 0.01739797796603330 -0.03241539164192490 0.06393445490604560 -0.03708582222302460 
-0.01146104981305850 0.02120909769608150 -0.03113097817406330 0.05263057139837270 -0.04834160562827370 
-0.01902929967987660 -0.005135366382043900 -0.03541549191122610 0.07836134732883940 -0.03676651498690310 
0.03239811975907470 -0.008295475225868520 -0.02218984066322650 0.002800484008975360 -0.03015286153420170 
0.03336409053244730 -0.001848997551228430 -0.008411909025734210 -0.02247614908504190 -0.01695523631969440 
0.04640924935651180 -0.002571944478183430 -0.01170091488511960 -0.03126418825795370 -0.02358463179129740 
0.02851704404238760 -0.001580380096120670 -0.007189849216304240 -0.01921087382070450 -0.01449202460374530 
0.02518089826820710 -0.001395494931605190 -0.006348724692867840 -0.01696343627353130 -0.01279663476708340 
0.02326731943129780 -0.001289446706490620 -0.005866264334057910 -0.01567432925643670 -0.01182417662785710 
0 0 0 0 0 
0 0 0 0 0 
0 0 0 0 0 
0 0 0 0 0 
0 0 0 0 0 
0 0 0 0 0 
0 0 0 0 0 
0 0 0 0 0 
0 0 0 0 0 
0 0 0 0 0 
0 0 0 0 0 
0 0 0 0 0 
0 0 0 0 0 
0 0 0 0 0 
0 0 0 0 0 
0 0 0 0 0 
0 0 0 0 0 
0.04743116706032850 -0.002628577921558010 -0.01195856550946180 -0.03195261627433530 -0.02410395828547060 
0.05567064174201770 -0.003085199644695820 -0.01403594002607880 -0.03750324446088730 -0.02829116189715940 
0.05648471951844320 -0.003130314850628270 -0.01424118908534820 -0.03805165843464630 -0.02870486659768120 
0.06041561507942750 -0.003348160329117380 -0.01523226467952650 -0.04069975683194840 -0.03070250124381990 
0.05923092901523260 -0.003282506460040960 -0.01493357614232890 -0.03990167781427150 -0.03010045779343600 
0.07450491819519250 -0.004128972470069610 -0.01878452503353030 -0.05019119724829380 -0.03786251849875690 
0.05232452560253210 -0.002899761934591960 -0.01319230172796540 -0.03524909024877690 -0.02659070523873660 
0.09556080355544520 -0.02583108379487960 -0.03561283357239830 -0.08352891130952860 -0.01790812633508080 
0 0 0 0 0 
0.07536955194791410 -0.04530955263361460 -0.04207662856320680 -0.08913799670651040 0.02310046037369910 
0.1484772857890500 -0.04968235897521500 -0.02590851925267450 -0.1536878365652410 -0.03415061955872260 
0.07101077195866990 -0.04206300075718660 -0.03929196751947640 -0.08339889879180200 0.02082972034644240 
0.1282344906848790 -0.08601122115707840 -0.02882114665081050 -0.1805845251824460 0.02435551519999830 
0.1728872223124410 -0.05438299019069490 -0.02593298579161920 -0.1551152274142160 -0.07062043013727290 
0.09144416046644520 -0.06619907735697890 0.02183955155467820 -0.1200078710688750 -0.03897549165056650 
0.07690815106796640 -0.09539674427688340 0.03301497826938640 -0.1353162342344970 -0.01627583115709810 
0.08713804759945380 -0.05074425984995660 0.02562260182810180 -0.1045172586425070 -0.05140574994376930 
0.04374451374087510 -0.05616358440762140 -0.07357605826498820 0.01624625184604650 -0.01505951324488400 
-0.06302461328344340 -0.06912605434712020 0.07731940381245220 0.01852941908145250 -0.01899646476939490 
-0.08858312357868880 -0.07338607373220980 0.1216622990756980 0.07394051348814110 -0.09079092897440340 
-0.1780940898293020 -0.1534452027039080 0.1020854127475210 0.2053201584904910 -0.09376639442124520 
-0.1781461948522700 -0.1354897829582700 -0.07376836358017700 0.3493566117520410 -0.06354788892837620 
-0.1231797395289810 -0.08501089217904750 0.07333855228950210 0.1146789639178670 -0.06840910594673800 
-0.1252582507740690 -0.1312291205358670 -0.03803266992917770 0.1331558699154190 0.06128647636344450 
-0.1603213216330250 -0.1492276191813720 -0.04763429548173690 0.1361048791950060 0.07448897511334430 
-0.1738411190680260 -0.1432452561825660 -0.05499641097548650 -0.004172532336771750 0.1751820106510280 
-0.1321627361100040 -0.05163907000166920 -0.06866528294837730 0.06614521284781470 0.04481026517547850 
-0.04023796137504010 0.1258378685235320 -0.03729058517756070 -0.1304404456545170 -0.01677918335573260 
-0.09383467299396390 0.2797593185783160 -0.1575664443373020 -0.09681294515665960 -0.09468623211871450 
-0.1212702202504990 0.09615596452017680 -0.1615999626552880 -0.004166650542720870 0.02587575465703320 
-0.1455079341439070 0.06228154056573300 -0.1799071010205640 0.02067998236377650 0.06020840106633000 
-0.06447392081960290 0.1392095283336650 -0.1059767103397840 0.08107431480673670 -0.1258137585381260 
-0.03705002424600470 -0.05124864493439310 -0.04477398098863490 0.04686814172625500 0.04380328461643900 
-0.02515387521213170 0.07546745202605010 -0.03738839059123460 0.03668196654373490 -0.07082058317035710 
-0.03021784732839930 -0.003198079778853630 -0.03272637699537860 0.03539499467305150 0.004468242589158150 
-0.01508343617158110 0.02668548672343690 -0.02005412698269780 0.03699027659161490 -0.03690372805108660 
-0.01662900456083370 -0.008974316279366600 -0.01715427411009910 0.04869378766660030 -0.01238928595398120 
0.008669592700785480 -0.001877131596309910 -0.005198647011517120 -0.0005489562696339680 -0.007347070465063250 
0.006703778258886020 -0.0003715152844524240 -0.001690187622156280 -0.004516086522222150 -0.003406780847321490 
0.01208118530772530 -0.0006695246803804420 -0.003045964391949740 -0.008138646004343330 -0.006139515528387960 
0.006333639916345020 -0.0003510026651047320 -0.001596866628995600 -0.004266738062957190 -0.003218680918067930 
0.005680111450418420 -0.0003147849078132160 -0.001432096005448830 -0.003826480198976170 -0.002886565478845730 
0.005666496121102370 -0.0003140303627270820 -0.001428663245564350 -0.003817308057111490 -0.002879646329471660 
0 0 0 0 0 
0 0 0 0 0 
0 0 0 0 0 
0 0 0 0 0 
0 0 0 0 0 
0 0 0 0 0 
0 0 0 0 0 
0 0 0 0 0 
0 0 0 0 0 
0 0 0 0 0 
0 0 0 0 0 
0 0 0 0 0 
0 0 0 0 0 
0 0 0 0 0 
0 0 0 0 0 
0 0 0 0 0 
0 0 0 0 0 
0.04608841962676870 -0.002554164482529730 -0.01162002580778290 -0.03104805718045270 -0.02342158991605470 
0.07628271998284850 -0.004227496095305210 -0.01923275265385180 -0.05138883630829290 -0.03876597634694740 
0.08532191040804350 -0.004728437097878580 -0.02151175520748300 -0.05747820330024460 -0.04335958604384150 
0.07419534090336180 -0.004111816070917830 -0.01870647297295400 -0.04998264652044580 -0.03770519497941520 
0.06667205105705600 -0.003694884445298580 -0.01680966629393460 -0.04491448546773850 -0.03388194803307270 
0.07070139210895300 -0.003918185653847210 -0.01782556242121700 -0.04762890293728830 -0.03592961151369780 
0.05653107307598610 -0.003132883708733490 -0.01425287595895530 -0.03808288510539720 -0.02872842292755130 
0.07747332558565190 -0.03673385678074930 -0.03773094824336060 -0.08244795984683400 0.009055603345426680 
0.008589890645838560 -0.0004760413521246500 -0.002165723012396440 -0.005786690411726100 -0.004365280861436440 
0.1128912426791640 -0.07141769710257990 -0.06501612410618390 -0.1368265077711300 0.03990220936967150 
0.1827440328344440 -0.07581759310626840 -0.05508878024569980 -0.1963818595350060 -0.01127595605294920 
0.03275595853033910 -0.08087888720033590 -0.05261072929583960 -0.09580887900579150 0.1013790465992720 
0.1489683496033630 -0.1339275467239170 -0.07347572597762650 -0.2324823587089140 0.09143768652891540 
0.1885685388710090 -0.08724181519243960 -0.04557100839147710 -0.1789392915126700 -0.05194540149408310 
0.07968495817081540 -0.1113060619340890 0.04801145049465940 -0.1387501734189710 -0.03539687726311780 
0.05204402260239010 -0.1342132853204290 0.1140995982141830 -0.1561167850684780 -0.04847864242771140 
0.07322269108198850 -0.08456270964390630 0.06089105807221640 -0.1202030747901210 -0.05594078747228550 
0.008643205159784690 -0.09087868700317160 -0.05551555802904070 0.02352331628062350 0.005342602683750970 
-0.07151311481489960 -0.09689907141297310 0.07082984261471650 -0.01029067715686990 0.02893853640783390 
-0.09638712771477640 -0.07868277984735470 0.1659517345626090 0.05473119509632530 -0.1181047293185710 
-0.1898209911987020 -0.1788628748090980 0.04072216081619140 0.2346376409444420 -0.04686134715734640 
-0.1791905406924000 -0.1595158900723900 -0.04958163216726840 0.2706042254066020 -0.003196598658304790 
-0.09813595416225940 -0.07298344257402820 0.05066854706230670 0.03859757409047650 -0.003984460587291670 
-0.1185510286438140 -0.07926939782614760 -0.07396295681933110 0.1631173363917880 0.01910691193568500 
-0.1274256346727530 -0.05417105026548950 -0.04413518891389940 0.1565102080253680 -0.02758173078457560 
-0.1570411593807510 -0.06439893062599060 -0.09762716186340330 0.06617642827539160 0.09377410866435040 
-0.1145817381544870 0.01830019388665450 -0.09258733002969540 0.07499005466606180 0.002271500301944440 
-0.06213511058460330 0.04934866585880700 -0.06266969920601660 -0.06681399431572510 0.05109212485739060 
-0.08833863806809420 0.2617243006652710 -0.1303819723904540 -0.05186366843165750 -0.1143789259478470 
-0.1085059536134590 0.1682451923990920 -0.1404904199310520 0.01067711485230040 -0.05868849110564440 
-0.1030857091295430 0.1903391025007810 -0.1375352748340330 0.05031046874345720 -0.1120149216357770 
-0.07275424659074510 0.1459746650207060 -0.09868676270240660 0.07592283552040000 -0.1187704283969770 
-0.04590263636886030 -0.04578311306505360 -0.04445700477604350 0.07139095967221020 0.03026604260830380 
-0.005496406751399850 0.08864351913908790 -0.02118456100458590 0.002999593473322470 -0.07620138786338360 
-0.02482641437552060 -0.01135632841019260 -0.02924512312335010 -0.004327496516890290 0.03533317874395650 
-0.006505485661702140 0.03247642221714320 -0.01135512403778420 0.01163253175521380 -0.03136888519580350 
-0.006387814559204720 -0.003447366195524780 -0.006589589984909230 0.01870508151354660 -0.004759182120942530 
0 0 0 0 0 
0 0 0 0 0 
0 0 0 0 0 
0 0 0 0 0 
0 0 0 0 0 
0 0 0 0 0 
0 0 0 0 0 
0 0 0 0 0 
0 0 0 0 0 
0 0 0 0 0 
0 0 0 0 0 
0 0 0 0 0 
0 0 0 0 0 
0 0 0 0 0 
0 0 0 0 0 
0 0 0 0 0 
0 0 0 0 0 
0 0 0 0 0 
0 0 0 0 0 
0 0 0 0 0 
0 0 0 0 0 
0 0 0 0 0 
0 0 0 0 0 
0.01946968905963040 -0.001078986623640320 -0.004908788176607610 -0.01311600666944850 -0.009894265775233970 
0.07571050298753800 -0.004195784521387990 -0.01908848265485840 -0.05100335496321980 -0.03847518243568530 
0.09569425135097440 -0.005303259690010510 -0.02412687784392890 -0.06446566430019230 -0.04863068707100130 
0.08081015815011840 -0.004478401243655610 -0.02037423133272280 -0.05443880331164660 -0.04106676689222580 
0.06384712981952060 -0.003538330726397220 -0.01609743406833550 -0.04301144091069900 -0.03244635646133920 
0.04611943966852000 -0.002555883575732080 -0.01162784672437380 -0.03106895423090120 -0.02343735393449930 
0.04724765917969060 -0.01383833793200740 -0.01820632029826680 -0.04229379311439660 -0.007261717149764610 
0.01032005952886880 -0.03728970772355140 -0.02319944244304940 -0.04119882102457050 0.04956735919360730 
0.02995809593560550 -0.02050372385619570 -0.01812376464686540 -0.03775692392278610 0.01290498778284680 
0.1462658251829390 -0.08301675668798610 -0.07889982509856710 -0.1684030400437830 0.03749555576037910 
0.1918101781693010 -0.09451935742857740 -0.08225848328473180 -0.2131349386143280 0.01996685463858340 
-0.02233239113326460 -0.1284621889520690 -0.06712690525025030 -0.1059261842604350 0.2049634895468270 
0.1540034365585380 -0.1644301019548710 -0.1135970186121770 -0.2546197583882440 0.1469519847761350 
0.1169204076562980 -0.1134292411134390 -0.04124902744075330 -0.1508316763961100 0.01708591886761900 
0.009856016320062740 -0.1479064508997900 0.09470447160359530 -0.1086133283457190 -0.01877982052828540 
-0.02141790658057650 -0.1835392051689350 0.2168549147384970 -0.1735010092377370 -0.03524413016954280 
0.02725234690410150 -0.1133697130752930 0.1173897692575530 -0.1162826896745550 -0.05558850766597690 
-0.03988481060420610 -0.1157733644350140 -0.008084982940424490 0.03235041968455960 0.01448608624981000 
-0.05268374017317980 -0.1232569143968790 0.04552980249901780 -0.05198838676289780 0.07008900938731010 
-0.1042162344759440 -0.09835185089832650 0.1671967277256850 0.04052510850851690 -0.1089121046817620 
-0.1790216670072480 -0.1929531162486860 -0.03153707120376380 0.2413481095667080 0.004630859815035300 
-0.1642480833181120 -0.1704656434639350 -0.01568964470959970 0.1615862315471150 0.05845909045543780 
-0.07779383305748370 -0.03796612404540260 0.01380619041372790 0.0005652510522852140 0.02184050401021270 
-0.1168950144659570 -0.01078596238358810 -0.1092844919783930 0.1606078284809360 -0.01667162810338960 
-0.09509848286263270 0.04112443882230710 -0.06906179879292730 0.1454041063917640 -0.09150663404823260 
-0.1186613447444430 0.02773922725786640 -0.1098728861490620 0.1078791272426430 -0.01628966274400620 
-0.08023055080914750 0.1010959161037470 -0.09049746280049790 0.06306462024956290 -0.07200827125967880 
-0.05616004022598430 -0.01920957529268480 -0.05892662351348950 0.001390194822074740 0.06689642661134190 
-0.06565688464418070 0.2367440257679650 -0.1024555842315880 -0.009978979087012840 -0.1432299268526000 
-0.07639502020041890 0.2117362787123130 -0.1110306140280230 0.01704437519448690 -0.1309765418628470 
-0.06392754623134810 0.2625699352348930 -0.1040755615773160 0.04987311539709000 -0.2112263707622340 
-0.05833261821425770 0.1355305533434930 -0.08153283059775070 0.06503806579893500 -0.1146556838323310 
-0.04336594335875970 -0.03649724679063160 -0.04293125778682360 0.08771042793059430 0.007865025774684240 
7.589415207398530e-19 0.07756502119070590 -0.01000973548566860 -0.01598644918832040 -0.05716412392953120 
-0.01602730111250180 0.002036669365821760 -0.01772162514809720 -0.02511181561924280 0.03097354219725950 
-6.505213034913030e-19 0.03743934444504500 -0.004831532679277370 -0.007716392884663510 -0.02759217096627830 
0 0 0 0 0 
0 0 0 0 0 
0 0 0 0 0 
0 0 0 0 0 
0 0 0 0 0 
0 0 0 0 0 
0 0 0 0 0 
0 0 0 0 0 
0 0 0 0 0 
0 0 0 0 0 
0 0 0 0 0 
0 0 0 0 0 
0 0 0 0 0 
0 0 0 0 0 
0 0 0 0 0 
0 0 0 0 0 
0 0 0 0 0 
0 0 0 0 0 
0 0 0 0 0 
0 0 0 0 0 
0 0 0 0 0 
0 0 0 0 0 
0 0 0 0 0 
0 0 0 0 0 
0 0 0 0 0 
0.05668265977374320 -0.003141284460214460 -0.01429109469924450 -0.03818500343572550 -0.02880545749502710 
0.07920004653831930 -0.004389170805183880 -0.01996828253616980 -0.05335413089729870 -0.04024852720867780 
0.07519284556249630 -0.004167096572878000 -0.01895796846740550 -0.05065462837500660 -0.03821211505293460 
0.04827014790315640 -0.002675073225316040 -0.01217009324516730 -0.03251780651935490 -0.02453031842989020 
0.02752974510693090 -0.001525665183025270 -0.006940926836172560 -0.01854576718327810 -0.01399029095832880 
0.03323330149652890 -0.02901737681737810 -0.02362359142507690 -0.04773467827023130 0.02367869912806790 
-0.01862964249807080 -0.03537793154017790 -0.01572805743394590 -0.02140975295782640 0.06382034429541200 
0.06786496944949420 -0.05364690510575520 -0.04509483018512550 -0.09224656910453990 0.03998094935924090 
0.1916809288700070 -0.09169469171797240 -0.09380626288635070 -0.2047439371095780 0.02361333506898640 
0.2122528892828140 -0.1144374525401730 -0.1111113774401440 -0.2387512735532270 0.04540715640391650 
-0.03755782765535450 -0.1714435424350540 -0.08787269277840790 -0.1365449563592220 0.2781225340912730 
0.1695162291619250 -0.1783832835933670 -0.1416761648335430 -0.2595679467445060 0.1567855623311160 
0.02773045641481880 -0.1313454927102220 -0.01774662310568730 -0.1219544242239270 0.09276065748168630 
-0.06766348866313040 -0.1756355397669490 0.1383288024252910 -0.05967550026043540 -0.006830931474225860 
-0.09376400868618670 -0.2306411069073420 0.3037980834770560 -0.2013389666796500 0.005458403302418950 
-0.05089948438425220 -0.1347023869618570 0.1882996605436280 -0.09034376760714530 -0.04512551209366250 
-0.09537392012131020 -0.1317052807279980 0.05299704186551850 0.04266422191096930 0.01934914483454340 
-0.04998272203572710 -0.1415604489776050 0.03863359179407460 -0.07815326410626750 0.09989129805893730 
-0.1176531204751630 -0.1230583807148840 0.1198891963165420 0.06195820868968130 -0.07417330816927410 
-0.1669372138710140 -0.1901280098230020 -0.07697344119381900 0.2317510982314470 0.04637229269890680 
-0.1331003657301900 -0.1601473831947300 0.01022093526575670 0.05459861141443420 0.1050904730348180 
-0.07935653822181530 0.008751199987091820 -0.04229215893831200 0.03787611231097490 -0.003273066237222430 
-0.1164113008217120 0.06704847001820460 -0.1363670091738020 0.1380380905453340 -0.05439948146295850 
-0.07500063757770060 0.1143003556047260 -0.09714552215683470 0.1152962474473470 -0.1172779587863750 
-0.07301550873555570 0.1043048556691450 -0.09366962934581320 0.1118050372190400 -0.1076725692162270 
-0.04365501941474010 0.1510551816324340 -0.06743342140988950 0.04264991251023800 -0.1254380890420760 
-0.03786503937077050 -0.04045546648254900 -0.03630194808307760 0.05082431212869270 0.03321702901103060 
-0.04195964862063470 0.2062915842131170 -0.07268558091273190 0.02316987936517350 -0.1617947944705760 
-0.04130553554504780 0.2215554647525150 -0.07392659121634750 0.01508896374049540 -0.1700477049395900 
-0.03587874164241910 0.2680516057968960 -0.07405410891555930 0.02801855258376770 -0.2256019999654600 
-0.03579222678658960 0.1145909833649290 -0.05412561467947980 0.04873048472641700 -0.1046434371545220 
-0.03115184113162450 -0.02166182541440990 -0.03146746331276510 0.07667254699317560 -0.008328832742729520 
-6.505213034913030e-19 0.05505677444471430 -0.007105055093464560 -0.01134741296555860 -0.04057592235783480 
-0.006838794486876920 0.01894142631638710 -0.009893991117674130 -0.01443991407007060 -0.0001027423446942920 
5.421010862427520e-20 0.03833999839436270 -0.004947761717294750 -0.007902021127600860 -0.02825593787030370 
0 0 0 0 0 
0 0 0 0 0 
0 0 0 0 0 
0 0 0 0 0 
0 0 0 0 0 
0 0 0 0 0 
0 0 0 0 0 
0 0 0 0 0 
0 0 0 0 0 
0 0 0 0 0 
0 0 0 0 0 
0 0 0 0 0 
0 0 0 0 0 
0 0 0 0 0 
0 0 0 0 0 
0 0 0 0 0 
0 0 0 0 0 
0 0 0 0 0 
0 0 0 0 0 
0 0 0 0 0 
0 0 0 0 0 
0 0 0 0 0 
0.01675966726409780 -0.0009288004928707080 -0.004225524930465560 -0.01129036560062130 -0.008517064741383170 
0 0 0 0 0 
0 0 0 0 0 
0.02654306847338160 -0.001470984757149050 -0.006692161353679850 -0.01788107976754250 -0.01348887355938370 
0.03904093065788380 -0.002163601166167050 -0.009843180249577990 -0.02630042551383210 -0.01984013934986370 
0.05668746026062410 -0.003141550497392330 -0.01429230502022970 -0.03818823734550980 -0.02880789704570020 
0.02278336539390390 -0.001262626558967700 -0.005744247600790890 -0.01534830738917810 -0.01157823690820840 
0.02801227994155760 -0.001552406680047030 -0.007062585753465100 -0.01887083298632310 -0.01423550945591160 
0.02127833429516890 -0.04090379393996780 -0.02764900747450460 -0.05138543083989080 0.04848699851777970 
0.03032947149868160 -0.03906484443221560 -0.02861804698774640 -0.05529981863396230 0.04039336711768940 
0.1123772525496500 -0.09107107975330040 -0.07592743242423680 -0.1548374781106710 0.06954428259791080 
0.2359659951089820 -0.1142731713592300 -0.1162606819877040 -0.2533469821044300 0.03114944855349780 
0.2458285544666810 -0.1463457952078740 -0.1364323830723510 -0.2893952894212600 0.07319914830593240 
0.01151231281811580 -0.1904330020137100 -0.1093714623345590 -0.1847767230306570 0.2774734185423940 
0.2077322205564650 -0.1740114855749090 -0.1453125443908820 -0.2643504446377060 0.1083403317340180 
-0.02614939284293930 -0.1405863804561990 0.01381300504328910 -0.1164107320941380 0.1334322697115160 
-0.1177649523664110 -0.1821572442942190 0.1574058236414700 -0.01926299262245830 -0.01494474569964290 
-0.1359411109253530 -0.2564514284264030 0.3390798328721880 -0.2214392485189050 0.04169347749332780 
-0.1318558032519060 -0.1439039370729980 0.2497674310732210 -0.05199242490461630 -0.04209580842472170 
-0.1392192693861630 -0.1255611521885270 0.09230285902657130 0.05827087050863840 -0.003995684872921520 
-0.07991002251051280 -0.1452314789360060 0.07728450190597250 -0.07488944897892440 0.09975331979518270 
-0.1254729820032420 -0.1345058864195440 0.03745800146721430 0.1164803005471550 -0.03591355131391660 
-0.1569384162236860 -0.1401028345673470 -0.07458173539725620 0.2058422634340170 0.03571779168784660 
-0.08779414178489970 -0.09063222201810930 0.01124328081890080 -0.02420307813663950 0.09433013517571770 
-0.09408975661021720 0.06404163540003130 -0.09750533638833450 0.1073069355912660 -0.06178671287045520 
-0.1075103714769840 0.1537107045133470 -0.1377763365612860 0.1051935317411910 -0.1154346836141860 
-0.06138949556143200 0.1605111241830930 -0.08812094992577060 0.06778868892574380 -0.1360414479347450 
-0.03790567295997520 0.1303662110093810 -0.05856668056231160 0.07991185195477770 -0.1393953651933920 
-0.01603629510587780 0.1279170507843740 -0.03416734008050690 0.01881027930571380 -0.1125986015909080 
-0.02198113605642510 -0.006948391383906100 -0.02330966194558420 0.06335326865309540 -0.01999863962470070 
-0.02533029335004730 0.1630004269282210 -0.04892969215792920 0.03776078814077220 -0.1490754101013540 
-0.01454171482169990 0.1862715498133770 -0.04005208432791220 0.002572938324305420 -0.1538969231828160 
-0.01600594547769550 0.2107943631338310 -0.04482920264382900 0.001643451136178890 -0.1736431125069080 
-0.01490373676471170 0.07970624767557840 -0.02669854444541760 0.02555627800709840 -0.07577378655170850 
-0.01532127257729870 0.008441954649633350 -0.01796171960510420 0.04142032731579650 -0.02373034334387090 
-2.710505431213760e-20 0.03220741452707380 -0.004156354180586740 -0.006638072006172970 -0.02373632608116970 
-5.421010862427520e-20 0.02324678937808190 -0.002999989028476320 -0.004791252699726250 -0.01713249514501020 
1.355252715606880e-19 0.03782588818699480 -0.004881415997184880 -0.007796061036555730 -0.02787704724207640 
0 0 0 0 0 
0 0 0 0 0 
0 0 0 0 0 
0 0 0 0 0 
0 0 0 0 0 
0 0 0 0 0 
0 0 0 0 0 
0 0 0 0 0 
0 0 0 0 0 
0 0 0 0 0 
0 0 0 0 0 
0 0 0 0 0 
0 0 0 0 0 
0 0 0 0 0 
0 0 0 0 0 
0 0 0 0 0 
0 0 0 0 0 
0 0 0 0 0 
0 0 0 0 0 
0 0 0 0 0 
0 0 0 0 0 
0 0 0 0 0 
0.02599702071756720 -0.001440723450839120 -0.006554489264547080 -0.01751322766753390 -0.01321137854621480 
0 0 0 0 0 
0 0 0 0 0 
0 0 0 0 0 
0 0 0 0 0 
0.03375375468272570 -0.001870592267229010 -0.008510152955972430 -0.02273865135604590 -0.01715325903357160 
0 0 0 0 0 
0.02234532052512840 -0.01808843174302930 -0.01508616209715100 -0.03076923956378290 0.01379798325771180 
0.01046171994201320 -0.04437837380561720 -0.02720726943747790 -0.04789851049080240 0.06006553043040260 
0.07514760521231690 -0.04696719567667380 -0.04295745495448680 -0.09054603097448000 0.02570612324208760 
0.1164338938992170 -0.1224705552188980 -0.09443819922276830 -0.1866468121521310 0.1140199280755450 
0.2176402117956520 -0.1524423023037980 -0.1336216769454750 -0.2775490719597950 0.09895690835251270 
0.2320347496212470 -0.1840946429121260 -0.1545593450688930 -0.3160241545672140 0.1377011921667310 
0.07082644595076750 -0.1729180189873540 -0.1126567034121480 -0.2053323873798690 0.2162775364037680 
0.2372836898342520 -0.1493170720967650 -0.1267205353295720 -0.2450677186348880 0.02538810107379530 
-0.02308404732769730 -0.1396281281224120 0.03232399253487350 -0.1268966060039180 0.1207655048787580 
-0.1387006082583810 -0.1801421747639310 0.1462539433919830 0.01063858969948400 -0.02353524533177400 
-0.1571251218794330 -0.2595284572835870 0.3153907786270940 -0.2020615979490030 0.06355636051119480 
-0.1538566417781380 -0.1460694876313090 0.2614472337635620 -0.02287854124694740 -0.07239077678181320 
-0.1781203084464980 -0.1273725946393060 0.09004607534346620 0.1136282233140980 -0.04244402064923080 
-0.1053207153229510 -0.1162090813417580 0.1534018254431810 -0.06771243024805090 0.02692299488738420 
-0.1137722474489330 -0.1207326860085010 -0.02882049378740590 0.1539211036759160 -0.02357548020955120 
-0.1228185834180580 -0.05596215924902690 -0.04294207550800050 0.1636995681694770 -0.03185858887108040 
-0.03848796458106530 0.01423394012487750 -0.001992072204633970 -0.05714451591585700 0.02737991915965280 
-0.1045310648367740 0.1169757194004740 -0.1298903360786260 0.1539364197200250 -0.1210013274906620 
-0.08246597322950660 0.2361632899896660 -0.1210028965676590 0.07827701121797840 -0.1916706252594260 
-0.04256451546539690 0.1923592655155200 -0.07156767233391670 0.03284724534577350 -0.1559283859711430 
-0.02207677320026430 0.1097425941269000 -0.03847390650676300 0.03957221895561220 -0.1061072368884570 
-0.003004931080295170 0.05664291491206430 -0.01061887471687440 -0.003209388264410290 -0.04517884081950150 
-0.01772206154801970 0.03887796364318680 -0.02453330228032620 0.04191040608683280 -0.04890473424741290 
-0.01936983779429640 0.1057657471400690 -0.03497972977299520 0.03276638619126320 -0.1000829496295030 
-0.002766226217041520 0.1164747627537960 -0.01807728151759690 -0.01621339727760860 -0.08900112654644160 
-0.003025567682360640 0.1244414477654040 -0.01939097442696450 -0.01712479303700030 -0.09516880910338490 
-0.002835032569032380 0.03456600591718100 -0.007582760469955110 0.0008621410232514140 -0.02871437222572520 
-0.003042586395140180 0.03442581953884700 -0.007793234564556160 0.001475716107640750 -0.02884824448636440 
4.743384504624080e-20 0.01281493380989920 -0.001653762169265190 -0.002641207145421250 -0.009444391985102620 
6.776263578034400e-21 0.01052933079887960 -0.001358805999404760 -0.002170135574248710 -0.007759940775395600 
2.981555974335140e-19 0.03494757654733160 -0.004509971011854270 -0.007202829937417710 -0.02575577968162560 
0 0 0 0 0 
0 0 0 0 0 
0 0 0 0 0 
0 0 0 0 0 
0 0 0 0 0 
0 0 0 0 0 
0 0 0 0 0 
0 0 0 0 0 
0 0 0 0 0 
0 0 0 0 0 
0 0 0 0 0 
0 0 0 0 0 
0 0 0 0 0 
0 0 0 0 0 
0 0 0 0 0 
0 0 0 0 0 
0 0 0 0 0 
0 0 0 0 0 
0 0 0 0 0 
0 0 0 0 0 
0 0 0 0 0 
0 0 0 0 0 
0.01891271335331080 -0.001048119703528200 -0.004768360881982340 -0.01274079281490590 -0.009611217306827680 
0 0 0 0 0 
0 0 0 0 0 
0 0 0 0 0 
0 0 0 0 0 
0.01483648546136080 -0.0008222200830025130 -0.003740643427436490 -0.009994789421977420 -0.007539726488466320 
0 0 0 0 0 
0.005186579893975870 -0.03065744700328150 -0.01834427019062440 -0.03182003832407310 0.04270025418118910 
-0.002047065795366340 -0.03973328264032580 -0.02183662415500270 -0.03578590767273250 0.06052304141174900 
0.04999828753855630 -0.05225181700850240 -0.04036304222515530 -0.07983276404043790 0.04845609869209930 
0.04677253836078800 -0.1369153070827750 -0.08714354325128780 -0.1567918488060790 0.1767469505203430 
0.1048211143879530 -0.1802771336082240 -0.1242989925332670 -0.2333400113047840 0.2071751216450350 
0.1276662925741170 -0.2076415215098140 -0.1482078059042980 -0.2626936766395870 0.2266142441138780 
0.07922406897991230 -0.1323616653672900 -0.09176206747861370 -0.1727286844707300 0.1507731734586010 
0.2228432468338500 -0.1153115263868350 -0.1002491304425520 -0.1852193754580270 -0.04294378519188110 
0.03946717752184520 -0.1319491591633350 0.01457867566839850 -0.1387085747225980 0.05875167072541600 
-0.1334513942637560 -0.1790958244048580 0.1011330077468460 0.03120638851020710 -0.01408239865381660 
-0.1712310172796970 -0.2456015262714910 0.2283839353790990 -0.1221883382823090 0.07397131117065210 
-0.05809208614748650 -0.1434011161095130 0.1821926736712890 -0.02373688252670030 -0.1598850893634920 
-0.1657271509005460 -0.1580789428972850 0.01981067674448070 0.2070652639547370 -0.1208221611004240 
-0.09872558657588700 -0.06685105185276800 0.2472963378762730 -0.09253007329945890 -0.1146914843449160 
-0.07910706400238380 -0.08838837083956820 -0.02686895354326610 0.1078867995643260 -0.03999837538015360 
-0.05570950441802810 0.03160933713324000 -0.01901208757508770 0.09810281019364330 -0.1157892878584960 
0.008888092316624690 0.1158261467466400 -0.02830068284723610 -0.04819634144406930 -0.07813945360226090 
-0.09256690708029330 0.1563557974166790 -0.1218552595502670 0.1334218430093340 -0.1518449483502850 
-0.04888545823666150 0.2717730141646760 -0.08882249464232950 0.05098941632831590 -0.2338255496922490 
-0.02218628905474500 0.1982055428130310 -0.04997221102475890 0.007604118483724430 -0.1612149419437400 
-0.01583136344479800 0.08659380067377590 -0.02860891342492880 0.02674986463003620 -0.08190986634419570 
0 0 0 0 0 
-0.01223013887609250 0.08069947526357350 -0.02388246625053650 0.01782000602655400 -0.07345045844155830 
-0.01299958289140620 0.06053165157579290 -0.02212715356018260 0.02414420698500890 -0.05946641075302300 
6.234162491791650e-19 0.05375564054311120 -0.006937144275075670 -0.01107924426417920 -0.03961700842397180 
-4.878909776184770e-19 0.04665997999088110 -0.006021452070863040 -0.009616801333919430 -0.03438762521820560 
0 0 0 0 0 
-5.692061405548900e-19 0.04561193121470170 -0.005886201788395610 -0.009400794450274290 -0.03361523079084630 
0 0 0 0 0 
0 0 0 0 0 
2.981555974335140e-19 0.02873410854036280 -0.003708125408724670 -0.005922210283715310 -0.02117655763372260 
0 0 0 0 0 
0 0 0 0 0 
0 0 0 0 0 
0 0 0 0 0 
0 0 0 0 0 
0 0 0 0 0 
0 0 0 0 0 
0 0 0 0 0 
0 0 0 0 0 
0 0 0 0 0 
0 0 0 0 0 
0 0 0 0 0 
0 0 0 0 0 
0 0 0 0 0 
0 0 0 0 0 
0 0 0 0 0 
0 0 0 0 0 
0 0 0 0 0 
0 0 0 0 0 
0 0 0 0 0 
0 0 0 0 0 
0 0 0 0 0 
0.004368167884373560 -0.0002420785818725250 -0.001101322717511190 -0.002942672526984970 -0.002219851270683520 
0 0 0 0 0 
0 0 0 0 0 
0 0 0 0 0 
0 0 0 0 0 
0.002676833857273270 -0.0001483468953643480 -0.0006748957494432340 -0.001803283586988530 -0.001360335316033510 
0 0 0 0 0 
-0.01136514768915760 -0.03066645884529750 -0.01469079022729090 -0.02153370090139070 0.05249439955987350 
-0.01112087160970960 -0.02855744785199850 -0.01356169645614050 -0.01971856519161920 0.04920174492562200 
-0.009555757442353730 -0.05285525650108790 -0.02753793702545490 -0.04335452819023210 0.08454838738448660 
-0.04121473751349040 -0.1285361511038620 -0.06299470859761700 -0.09425084173338980 0.2162317936343030 
-0.02512050164966780 -0.1745330198924680 -0.09235489333462570 -0.1471621962363330 0.2753850472696600 
0.001209654534540340 -0.1986969021189420 -0.1220465382930360 -0.1555614187067300 0.2726381963042340 
0.05088629544033900 -0.08982956067939400 -0.06163923629056440 -0.1154337454001830 0.1040269917246860 
0.1677129057136520 -0.08719925050617250 -0.08546387814254150 -0.1009204558756760 -0.06493930689615080 
0.1047258970759100 -0.1162558515018990 -0.03437308248937340 -0.1166096983695430 -0.01067883765016550 
-0.1116060369259210 -0.1868995908018690 0.02271922016671920 0.04847276268825210 0.02743309457873870 
-0.1673621820095180 -0.2186967149239020 0.08568616199151800 -0.004953420493337490 0.07504801931245010 
0.06685338818104310 -0.1293490675168910 0.02957169784737100 -0.002078986593258950 -0.2444307626370680 
-0.1376920540099830 -0.2145103359778210 -0.09309160047565960 0.3389991613537270 -0.1996322134785450 
-0.06427292257675090 -0.006817932357198950 0.3411783246913640 -0.1683226545954040 -0.2918697293755670 
-0.02705601494299420 -0.05435004692939410 0.06071721756164720 -0.03971018065501420 -0.08695343433240280 
0.01303943402867160 0.08674329361682760 -0.02640133043300580 0.02267671774905800 -0.1541178779808990 
0.03679589309049540 0.1777900105460940 -0.03834043516929110 -0.05267449119144660 -0.1585128313981870 
-0.06073731338665120 0.1665716925136960 -0.07529379296161100 0.05898321661931060 -0.1468250078100620 
-0.02291873908398020 0.2194688736230620 -0.05356124022110260 0.01932904081844700 -0.1879358479127540 
-0.008562542778097520 0.1639124628244860 -0.02667688583163890 -0.01321338377415320 -0.1313984461798710 
-0.01823851671256550 0.07346551039186620 -0.02956554898135320 0.03623664135023130 -0.07498536992311690 
0 0 0 0 0 
-0.006758216117625480 0.08529727542595590 -0.01844994945537300 0.001457896108700190 -0.07058578497274370 
-0.007041955990993040 0.02939944538984970 -0.01154882013815910 0.01377795319703760 -0.02971426947563490 
1.490777987167570e-19 0.01720734159850830 -0.002220600667266350 -0.003546499284184900 -0.01268152309552610 
1.355252715606880e-19 0.006446250309116960 -0.0008318860676905490 -0.001328596981473410 -0.004750778713063710 
0 0 0 0 0 
2.710505431213760e-20 0.03692852068286810 -0.004765611073627160 -0.007611110142612210 -0.02721570239321590 
0 0 0 0 0 
0 0 0 0 0 
-2.710505431213760e-20 0.01894144712124420 -0.002444386303115620 -0.003903905101921280 -0.01395952987599010 
0 0 0 0 0 
0 0 0 0 0 
0 0 0 0 0 
0 0 0 0 0 
0 0 0 0 0 
0 0 0 0 0 
0 0 0 0 0 
0 0 0 0 0 
0 0 0 0 0 
0 0 0 0 0 
0 0 0 0 0 
0 0 0 0 0 
0 0 0 0 0 
0 0 0 0 0 
0 0 0 0 0 
0 0 0 0 0 
0 0 0 0 0 
0 0 0 0 0 
0 0 0 0 0 
0 0 0 0 0 
0 0 0 0 0 
0 0 0 0 0 
0 0 0 0 0 
0 0 0 0 0 
0 0 0 0 0 
0 0 0 0 0 
0 0 0 0 0 
0 0 0 0 0 
0 0 0 0 0 
-0.009567899609606130 -0.01816956484307180 -0.008077689875031070 -0.01099572184426860 0.03277715325628170 
-0.007646208698776110 -0.01452024900183820 -0.006455304205582140 -0.008787256079752070 0.02619393645159860 
-0.02672980696558320 -0.05076024840565270 -0.02256661335269950 -0.03071870884279120 0.09156941598155110 
-0.05451683064079950 -0.1035281649874610 -0.04602578087711530 -0.06265240335041600 0.1867605833955640 
-0.07205480159605160 -0.1368329981785860 -0.06083219568017160 -0.08280757409898850 0.2468411428976070 
-0.05708504134606550 -0.1584917896111180 -0.09254528205192710 -0.06424125245703070 0.2336805753607000 
0.02698578962022070 -0.05770055135226470 -0.03833300672530210 -0.07060161102612670 0.07018837766975760 
0.09208617736696210 -0.07182074505487240 -0.08123841004504030 -0.02094128356765000 -0.04140347504872440 
0.1020950249494890 -0.09345459927590080 -0.07828000616147030 -0.04144953384666080 -0.04031161485073060 
-0.08576021432621710 -0.1974114829354470 -0.06447973022214520 0.05927837967773820 0.08800504725600230 
-0.1286919644537370 -0.1847241300021160 -0.07226899506240400 0.09104091620044600 0.06424017608960710 
0.07946975708735580 -0.1064220732994390 -0.1148340252871170 0.09394757244551920 -0.2431358939574920 
-0.1386742136668730 -0.2637745633396680 -0.1972611976970670 0.4731566235714650 -0.2353230644652010 
-0.001656632952508850 0.04081920862384120 0.3935911273113650 -0.2711429702190480 -0.4518780921591810 
0.04237487075493480 -0.03389309672198490 0.1699518926568200 -0.2261814814008080 -0.1538361237405960 
0.05005119670844520 0.1010861938316260 -0.03612564137155520 -0.04079789555165060 -0.1488872360285280 
0.03906582774272480 0.2027764641848150 -0.05146784601586870 -0.03704884066403830 -0.2068281076565360 
-0.02503709510706010 0.1511548789248100 -0.01760902306959110 -0.02016948300441750 -0.1222488835985500 
-0.006714453643289600 0.1193927047040900 -0.02280175852283870 -0.005692582522812970 -0.09566353571071510 
5.421010862427520e-19 0.1105289288258800 -0.01426371480439850 -0.02278043733360240 -0.08145797278474830 
-0.02489593481008980 0.06540186999409390 -0.03583736678792280 0.04972687032651830 -0.07161395726027760 
5.421010862427520e-20 0.02038018775259420 -0.002630055215870630 -0.004200435079547400 -0.01501985766924550 
-0.002160655725007770 0.06263123439766390 -0.01046192123555320 -0.006821939839301410 -0.04862731558787980 
-0.002222741567705960 0.01036744804561440 -0.003785671126772850 0.004124724255937500 -0.01018072889796320 
1.694065894508600e-21 0.002870773925122580 -0.0003704722462330090 -0.0005916775471805930 -0.002115712390845550 
0 0 0 0 0 
0 0 0 0 0 
2.710505431213760e-20 0.01778636943368820 -0.002295323981719400 -0.003665839148000170 -0.01310825693019490 
0 0 0 0 0 
0 0 0 0 0 
5.421010862427520e-20 0.008233226805794930 -0.001062494681937880 -0.001696899710285000 -0.006067750517456130 
0 0 0 0 0 
0 0 0 0 0 
0 0 0 0 0 
0 0 0 0 0 
0 0 0 0 0 
0 0 0 0 0 
0 0 0 0 0 
0 0 0 0 0 
0 0 0 0 0 
0 0 0 0 0 
0 0 0 0 0 
0 0 0 0 0 
0 0 0 0 0 
0 0 0 0 0 
0 0 0 0 0 
0 0 0 0 0 
0 0 0 0 0 
0 0 0 0 0 
0 0 0 0 0 
0 0 0 0 0 
0 0 0 0 0 
0 0 0 0 0 
0 0 0 0 0 
0 0 0 0 0 
0 0 0 0 0 
0 0 0 0 0 
0 0 0 0 0 
0 0 0 0 0 
0 0 0 0 0 
-0.001654690199667320 -0.003142278044793200 -0.001396970580538530 -0.001901620409531880 0.005668541318275360 
0 0 0 0 0 
-0.02341463390531260 -0.04446469197818820 -0.01976778174330030 -0.02690881092122960 0.08021248918452580 
-0.03775417201205310 -0.07169565991064190 -0.03187392274640490 -0.04338824515763250 0.1293360437081370 
-0.04698310971014000 -0.08922153170905670 -0.03966544435960000 -0.05399442164221460 0.1609520009887880 
-0.04506589475628750 -0.1075008460721010 -0.06863075355670970 -0.01814411111847820 0.1458757934403050 
0.01987498714574510 -0.03529095209449800 -0.02419019188603410 -0.04527750255957830 0.04093747283926960 
0.02159579835513900 -0.06282902077788350 -0.07547791052991130 0.03285177873549710 0.001083149716741690 
0.04072746476116400 -0.07043112199625440 -0.09550316383048770 0.04797185560473890 -0.02487337280182060 
-0.06283174574966400 -0.1962680498897000 -0.1284540325863970 0.05761831555465100 0.1377538615080160 
-0.06907333422158960 -0.1485239377998040 -0.1903537727769520 0.1241468586718420 0.05120354128053340 
-0.006871836978076990 -0.08681568646421140 -0.1961075748618990 0.2085319058098050 -0.1587170084960620 
-0.1538461618166290 -0.2709121272506320 -0.2549754368488350 0.5311717153155570 -0.2197959593708450 
0.06753117689264070 0.06536898470897510 0.3700855562415140 -0.3360604523303540 -0.5480144466683320 
0.1061268498864720 -0.03193835591794260 0.2295462191280770 -0.3502419890280470 -0.2227229076808720 
0.05063101883338660 0.07642233266651240 -0.01027751720415240 -0.08479515929362800 -0.1393550648210930 
0.02893165284465550 0.1969774045551360 -0.02764344014731370 -0.03106470678258020 -0.2375319600686980 
-0.004968409022514500 0.1183185199460800 0.01863007546568610 -0.04619040938605150 -0.1010690124233150 
2.710505431213760e-19 0.03130664641136250 -0.004040110409441170 -0.006452420233102820 -0.02307247503842070 
-1.084202172485500e-19 0.06054946421458890 -0.007813884548511120 -0.01247947745242850 -0.04462394289456110 
-0.02501095336422860 0.06523390850560080 -0.03596129371488890 0.05701125824232680 -0.07665818674711500 
-4.336808689942020e-19 0.04724064288451290 -0.006096386388966390 -0.009736478189570220 -0.03481556406361950 
-7.047314121155780e-19 0.03301995405378980 -0.004261212087014450 -0.006805539527717400 -0.02433515412878460 
0 0 0 0 0 
0 0 0 0 0 
0 0 0 0 0 
0 0 0 0 0 
0 0 0 0 0 
0 0 0 0 0 
0 0 0 0 0 
0 0 0 0 0 
0 0 0 0 0 
0 0 0 0 0 
0 0 0 0 0 
0 0 0 0 0 
0 0 0 0 0 
0 0 0 0 0 
0 0 0 0 0 
0 0 0 0 0 
0 0 0 0 0 
0 0 0 0 0 
0 0 0 0 0 
0 0 0 0 0 
0 0 0 0 0 
0 0 0 0 0 
0 0 0 0 0 
0 0 0 0 0 
0 0 0 0 0 
0 0 0 0 0 
0 0 0 0 0 
0 0 0 0 0 
0 0 0 0 0 
0 0 0 0 0 
0 0 0 0 0 
0 0 0 0 0 
0 0 0 0 0 
0 0 0 0 0 
0 0 0 0 0 
0 0 0 0 0 
0 0 0 0 0 
0 0 0 0 0 
0 0 0 0 0 
-0.01470506066962380 -0.03309158770216930 -0.01531296737530740 -0.02171827352745820 0.05808821498326850 
-0.01891217322614200 -0.04335307223832960 -0.02013940661678600 -0.02867241916548620 0.07589249647529670 
-0.02275004177622340 -0.04979703765035310 -0.02290595615614210 -0.03229563480202610 0.08777983603523700 
-0.01726308888697250 -0.06351116845906840 -0.04699243198430990 -0.003597640771884120 0.07078422951481170 
0.01665894552792210 -0.01988582372288710 -0.01483754527662960 -0.02890888548189560 0.01984128379667260 
-0.02152580833452590 -0.05549810749297250 -0.05362906785604130 0.04224052453568140 0.03411971806389010 
-0.01562687640680860 -0.04821713522865380 -0.07448257334455970 0.07542739381072470 -0.004557519790580860 
-0.04623385383278520 -0.1708911126914180 -0.1468803448789470 0.04114191029028990 0.1511622586861210 
-0.03087569293240850 -0.1172182982000600 -0.2111259997298720 0.08369429853543680 0.05098320698042100 
-0.07499983463964740 -0.08689767769070490 -0.2047650626017870 0.2376286106923090 -0.05480359973741800 
-0.1445120567019600 -0.2172242893075860 -0.2570268461678640 0.4586451538761190 -0.1746469525806930 
0.09323393076020760 0.06303584696137300 0.2560392403785810 -0.2878445017735770 -0.5354526606407720 
0.1256696721186250 -0.04650970866907020 0.1984508710517830 -0.3319546795908290 -0.2645520532214130 
0.03747025292113260 0.02765267881842880 0.08186334874852000 -0.1156635899722090 -0.1825889245299280 
0.01466283733084660 0.1553077592160370 0.02201813950439340 -0.04156938448986470 -0.2350004465330620 
0.0002064548920812780 0.07172282128194080 0.02003593397165420 -0.03760777521920460 -0.06790782934994430 
0.003256603361458720 -0.0001804770201904180 -0.0008210699219524480 -0.002193852776889270 -0.001654967323006880 
-0.006768143408927360 0.03161580125965310 -0.01153330858136210 0.01254981972067230 -0.03103478058673930 
-0.02040682344200670 0.05812454586892900 -0.02997361414272250 0.04550662458566120 -0.06615722177640500 
-4.065758146820640e-19 0.04927013883804920 -0.006358292043761290 -0.01015476511118840 -0.03631126865341380 
-0.002264560647383510 0.009084107189379280 -0.003639122356745910 -0.005361106687084240 -0.002106380097148170 
0 0 0 0 0 
0 0 0 0 0 
0 0 0 0 0 
9.486769009248160e-20 0.003850931463106220 -0.0004969611911064750 -0.0007936917855187630 -0.002838072110621850 
0 0 0 0 0 
0 0 0 0 0 
0 0 0 0 0 
0 0 0 0 0 
0 0 0 0 0 
0 0 0 0 0 
0 0 0 0 0 
0 0 0 0 0 
0 0 0 0 0 
0 0 0 0 0 
0 0 0 0 0 
0 0 0 0 0 
0 0 0 0 0 
0 0 0 0 0 
0 0 0 0 0 
0 0 0 0 0 
0 0 0 0 0 
0 0 0 0 0 
0 0 0 0 0 
0 0 0 0 0 
0 0 0 0 0 
0 0 0 0 0 
0 0 0 0 0 
0 0 0 0 0 
0 0 0 0 0 
0 0 0 0 0 
0 0 0 0 0 
0 0 0 0 0 
0 0 0 0 0 
0 0 0 0 0 
0 0 0 0 0 
0 0 0 0 0 
0 0 0 0 0 
0 0 0 0 0 
0 0 0 0 0 
-0.004883324416077390 -0.01770363562792020 -0.008851780422783320 -0.01347483443535770 0.02931342556500660 
-0.004407991943411770 -0.02050838891781370 -0.01053022309176370 -0.01638646491817210 0.03321944772278930 
-0.005986747398959440 -0.02212899349505060 -0.01109036788855490 -0.01691605387909150 0.03657158094813980 
-0.004191885057910330 -0.02932203887237050 -0.02400905782773520 0.0003617821934485070 0.02711429400633040 
0.009527200486150330 -0.008859953586032860 -0.007076009193018320 -0.01418932577524180 0.007596256665014370 
-0.02915093249577700 -0.04552395141965500 -0.03380569997247830 0.01918617432206420 0.05201485897284290 
-0.02776753210196010 -0.02752830125738260 -0.06213952300810220 0.04792199439342620 0.01104060301143190 
-0.03854933486417760 -0.1270361514856520 -0.1164345295920000 0.01012514811885440 0.1307496280981630 
-0.03181348776317980 -0.08541990277947020 -0.1710645337879130 0.01723204954753100 0.07666504042465250 
-0.06748906026680430 -0.1066208871608860 -0.1697269960090710 0.1606378073354930 0.02746153183924610 
-0.1072241940657950 -0.1186177662288400 -0.2221447551331210 0.2879646762350600 -0.1179093835993150 
0.04671910957699720 0.04424966327346900 0.08426854371663580 -0.1228859405043690 -0.4243998775625710 
0.08923833095953430 -0.07017144341681060 0.1035016054153560 -0.1902461024081580 -0.2725537207938690 
0.02736004038667520 -0.03327527866282950 0.2259019797464300 -0.1432056034277390 -0.2802852656167400 
0.002906326907420370 0.09500119108364930 0.09272246067039980 -0.05932305708623140 -0.2225019200208990 
0.008372197311691950 0.02242812356816800 -0.01300008533919910 0.01553767198623070 -0.06070469583162320 
0.01202666142892680 -0.002809791472145580 -0.01407417518440650 0.01007608591457360 -0.01860695731661820 
-0.003068912030987030 0.01965237236525960 -0.02565560224689970 0.03552730714526340 -0.04253727183240320 
0.001082699307036400 0.04645786692750370 -0.02168149886623290 0.01382352412779180 -0.05398987587861500 
1.084202172485500e-19 0.02996798249353680 -0.003867356357215760 -0.006176516451036660 -0.02208590211000720 
-0.008063102388950420 -0.01120829664235990 -0.007336839276224180 -0.01011213876614880 0.02459779334012160 
0 0 0 0 0 
0 0 0 0 0 
0 0 0 0 0 
1.185846126156020e-20 0.003080745170484970 -0.0003975689528851800 -0.0006349534284150110 -0.002270457688497480 
0 0 0 0 0 
0 0 0 0 0 
0 0 0 0 0 
0 0 0 0 0 
0 0 0 0 0 
0 0 0 0 0 
0 0 0 0 0 
0 0 0 0 0 
0 0 0 0 0 
0 0 0 0 0 
0 0 0 0 0 
0 0 0 0 0 
0 0 0 0 0 
0 0 0 0 0 
0 0 0 0 0 
0 0 0 0 0 
0 0 0 0 0 
0 0 0 0 0 
0 0 0 0 0 
0 0 0 0 0 
