solver_type L2R_L2LOSS_SVC_DUAL
nr_class 5
label 0 1 2 3 4
nr_feature 1799
bias 1.000000000000000
w
0 0 0 0 0 
0 0 0 0 0 
0 0 0 0 0 
0 0 0 0 0 
0 0 0 0 0 
0 0 0 0 0 
0 0 0 0 0 
0 0 0 0 0 
0 0 0 0 0 
0 0 0 0 0 
0 0 0 0 0 
0 0 0 0 0 
0 0 0 0 0 
0 0 0 0 0 
0 0 0 0 0 
0 0 0 0 0 
0 0 0 0 0 
0 0 0 0 0 
0 0 0 0 0 
0 0 0 0 0 
0 0 0 0 0 
0 0 0 0 0 
0 0 0 0 0 
0.01203660967834930 0.01871757527948200 -0.02800997037301920 0.02318942197442560 -0.04838235122364530 
-0.04026236874426940 -0.01811600054615110 -0.04173683588208090 0.03919219338090870 0.02405542864117210 
-0.02367832663338770 0.01878765349396060 -0.02846650245188070 0.06282319351903720 -0.04088320622654980 
-0.004291572239696000 -0.01454876183941570 -0.05651237749699080 0.02854029022080670 -0.009533864694539560 
-0.03817176211876330 -0.03088398370978540 -0.08524809889411530 0.07404564689525950 0.003213782639137400 
-0.04090622635109630 -0.02645289682045870 -0.1225271663561920 0.09288620876679530 -0.01542932085552020 
-0.04869027739355020 -0.03655899023300740 -0.1680594419673300 0.2126916862099550 -0.1369189997787180 
0.07925534754928500 -0.003899076047807300 -0.0007336713734409240 -0.3433138923786650 -0.1429735204678990 
0.02067188959437540 0.0001991336345231160 -0.06442943905208830 -0.1085756188672840 -0.008495091604920400 
-0.06240714782216000 -0.04569083451311770 -0.08278383870311610 0.1121006909736040 -0.04640549452830230 
-0.03431287664380300 -0.03240770485011610 -0.03901620060034230 -0.003982265870373490 0.02007302011791270 
-0.02225776993733000 -0.01251162925957010 -0.02260872057954330 -0.03169681696530370 0.05433116812251040 
0.008606587337141180 -0.009967356324365240 -0.03089491604395010 -0.05332384046094000 0.03549698671713170 
-0.02079359336409460 -0.008313637699945270 0.01035580390562020 -0.04181603633870350 0.02883973048643750 
0 0 0 0 0 
0 0 0 0 0 
0 0 0 0 0 
-0.01595090044757770 -0.03028826425664260 -0.01345014766412430 -0.01833584764727880 0.05464888537753090 
0.02892680391797080 -0.001599659827980760 -0.007270811173551050 -0.01948251854223850 -0.01469480623610080 
0 0 0 0 0 
0 0 0 0 0 
0 0 0 0 0 
0 0 0 0 0 
0 0 0 0 0 
0 0 0 0 0 
0 0 0 0 0 
0 0 0 0 0 
0 0 0 0 0 
0 0 0 0 0 
0 0 0 0 0 
0 0 0 0 0 
0 0 0 0 0 
0 0 0 0 0 
0 0 0 0 0 
0 0 0 0 0 
0 0 0 0 0 
0 0 0 0 0 
0 0 0 0 0 
0 0 0 0 0 
0 0 0 0 0 
0 0 0 0 0 
0 0 0 0 0 
0 0 0 0 0 
0 0 0 0 0 
0 0 0 0 0 
0 0 0 0 0 
0 0 0 0 0 
0 0 0 0 0 
0 0 0 0 0 
0 0 0 0 0 
0 0 0 0 0 
0 0 0 0 0 
0 0 0 0 0 
0 0 0 0 0 
0 0 0 0 0 
0 0 0 0 0 
0 0 0 0 0 
0 0 0 0 0 
0 0 0 0 0 
0 0 0 0 0 
-0.006275490120958050 -0.007069529274772480 -0.02422409396268570 0.006839648251732670 0.005087831011322580 
-0.04121859950758970 -0.03255593609135950 -0.04090423856922360 0.03713111391910630 0.03922077542304050 
-0.01374552412377570 -0.01220212149530920 -0.03989565793224540 0.04507957945789810 -0.01224447326098390 
-0.008706358863485000 -0.03547117124303720 -0.05318302881778590 0.02924584192520730 0.01203352175545710 
-0.02511180961006340 -0.05614870261447580 -0.06429788085770050 0.04849873304145340 0.01656197479469250 
-0.04169375835207360 -0.04309719371397230 -0.1021328585316810 0.08446504151911340 -0.003107660265159520 
-0.05142954458199360 -0.04422481459510130 -0.1586139858608210 0.2011730246205290 -0.09183854202009130 
-0.08375863226594550 0.1387906457836200 -0.09680374495787540 -0.2874710166264920 -0.1381103970426780 
0.08357614125592610 -0.01745174637615810 -0.1072528757907110 -0.1168066871273440 -0.05644602973489170 
0.01177921469284460 -0.07340479454371550 -0.08766590759204610 0.03848506126637420 -0.04804959987696720 
-0.02375084485224310 -0.04133359605477780 -0.08546646217274840 0.03800101988150960 0.01613241572678640 
-0.04303119138763400 -0.03892339826621460 -0.04684602551033810 0.03119618623045590 0.05032795526430880 
-0.01040996740820180 -0.03720872128867010 -0.04576539654906290 0.009249552488301470 0.03162911659098300 
0.008881151758921440 -0.003237294728779020 0.0005462869355379710 -0.02842190160908370 -3.933967139779270e-05 
-0.01389582783352640 -0.01977628907249720 -0.01091391764056430 0.002945222261129470 0.02649554910208870 
-0.009186614546083290 -0.01737937795153420 -0.006430898415783370 -0.01105093709684730 0.03062040059193710 
-0.0001361659872521310 -0.0002585579051297680 -0.0001148181346496050 -0.0001565252573170900 0.0004665140663447680 
-0.01955641461677460 -0.03693221245172850 -0.02161669367678920 -0.006796034562337270 0.05488807369310370 
0.01511116882267620 -0.0009557818789311410 -0.003865511645394640 -0.01028960738234880 -0.007497081193467670 
0.0003293669173960930 -7.421338800750330e-05 -0.0002340288185578480 -0.0002170779858021390 -0.0001375669307514750 
-0.0008791360158242590 -0.0004754004785622090 -0.0009050571618546180 0.002402923480115390 -0.0005294899598375430 
-0.0009479947349449130 -0.0004899890174019070 -0.0009788815704414690 0.002591054825424130 -0.0005909788468125130 
-0.0007932645538491630 -0.0006468595194570460 -0.001291929575721070 0.003156086669647800 -0.001055199757592000 
-0.0009906246270301060 -0.0005332745727391010 -0.001020650620259130 0.002899299862075210 -0.0007381948521732710 
0 0 0 0 0 
0 0 0 0 0 
0 0 0 0 0 
0 0 0 0 0 
0 0 0 0 0 
0 0 0 0 0 
0 0 0 0 0 
5.883178654708160e-05 -3.253413194716580e-06 -1.478748956156710e-05 -3.962385113567490e-05 -2.988652691408880e-05 
9.299965822309170e-05 -5.142905441516770e-06 -2.337565380753330e-05 -6.263628608577830e-05 -4.724379373149210e-05 
0 0 0 0 0 
9.785075280856120e-05 -5.411172241821290e-06 -2.459498632750360e-05 -6.590355130040650e-05 -4.970814807802210e-05 
0 0 0 0 0 
9.946277121440090e-05 -5.500317281594760e-06 -2.500017044222240e-05 -6.698926331239580e-05 -5.052705286231880e-05 
0 0 0 0 0 
0 0 0 0 0 
0 0 0 0 0 
0 0 0 0 0 
0 0 0 0 0 
0 0 0 0 0 
0 0 0 0 0 
0 0 0 0 0 
0 0 0 0 0 
0 0 0 0 0 
0 0 0 0 0 
0 0 0 0 0 
0 0 0 0 0 
0 0 0 0 0 
0 0 0 0 0 
0 0 0 0 0 
0 0 0 0 0 
0 0 0 0 0 
0 0 0 0 0 
0 0 0 0 0 
0 0 0 0 0 
0 0 0 0 0 
0 0 0 0 0 
-0.01856062787639810 -0.02598290823620310 -0.01981087764756600 -0.006769366909438700 0.04448227206236970 
-0.03981096364155260 -0.04168235128303660 -0.03817780345276340 0.03493915829118670 0.04762815563164800 
-0.008934498106455520 -0.03498459653391310 -0.04591281965985240 0.03313434055131690 0.01079847777106800 
-0.01445538946319430 -0.04798784198865720 -0.04924495821819690 0.03388264360520310 0.02560202227257600 
-0.01997983853981530 -0.07279072651997350 -0.04665386854588690 0.03152883178836820 0.02858645461985140 
-0.04697354423533550 -0.05624710489435820 -0.08201322919275180 0.07638560732596280 0.01091087432412350 
-0.05357169886093550 -0.04683540015045230 -0.1455657228806340 0.1918742530673530 -0.06109793065147820 
-0.2050095759315680 0.2337903053988480 -0.1871425944432950 -0.2439865710230310 -0.1106637390034930 
0.1106968161258870 -0.02515240361252950 -0.1325174081071670 -0.1145265906263210 -0.08870833127697900 
0.06273060452306510 -0.08848525385913790 -0.09445946851965380 -0.01342486297907650 -0.05124067709713340 
0.001563748554422720 -0.05452825613813690 -0.1104414598681190 0.05119153922924990 -0.002668341414547660 
-0.02832977175488650 -0.06259011210708450 -0.07412375870944870 0.06377351046351030 0.02947462129586460 
-0.01448603213424550 -0.05905617591044780 -0.06358963952399660 0.05358780953270520 0.02076792978929750 
0.03018289187492090 -0.003890876489091740 -0.01336019163556370 -0.009823492408997410 -0.02424103438797320 
-0.02465688906207510 -0.03352422154478260 -0.02047917021156560 0.01038486216000050 0.04265414237575580 
-0.01504927851299160 -0.02849551811539920 -0.01104556082071010 -0.01791286453833500 0.05049289814898330 
-0.0001454301686697870 -0.0002761491361591140 -0.0001226298947733810 -0.0001671746008829380 0.0004982537910126000 
-0.02613722402344330 -0.03982864186104570 -0.02651199700336580 0.008562882120018360 0.05245256061213760 
0.003044044842456100 -0.0002966399418471690 -0.0008369934558671470 -0.002169892307326020 -0.001354781665702370 
0.0001287908649376860 -6.160261887221180e-05 -0.0002213947686924230 -4.070146287852830e-05 -7.093898886146550e-05 
-0.001223332984058310 -0.0006515329916212370 -0.001260838132010900 0.003396816177961340 -0.0007842868791893230 
-0.001319506534651520 -0.0006747066002906010 -0.001363593576929430 0.003663036503136850 -0.0008702049196758320 
-0.001409733840090080 -0.0008936137549886680 -0.001743338926396570 0.004637297888003330 -0.001334919085175280 
-0.001393406068789600 -0.0007501004979187340 -0.001435640432891960 0.004078136069732170 -0.001038340011848120 
0 0 0 0 0 
0 0 0 0 0 
0 0 0 0 0 
0 0 0 0 0 
0 0 0 0 0 
0 0 0 0 0 
0 0 0 0 0 
3.605559558562590e-05 -1.993883873095800e-06 -9.062647501480230e-06 -2.428383763171330e-05 -1.831622990083690e-05 
5.699568657174450e-05 -3.151876385498660e-06 -1.432598208724340e-05 -3.838721773793250e-05 -2.895378877114700e-05 
0 0 0 0 0 
5.996872401947380e-05 -3.316286134522480e-06 -1.507326111453020e-05 -4.038959094744470e-05 -3.046409075096280e-05 
0 0 0 0 0 
6.095666416422920e-05 -3.370919483111430e-06 -1.532158188524710e-05 -4.105497943085270e-05 -3.096596399770010e-05 
0 0 0 0 0 
0 0 0 0 0 
0 0 0 0 0 
0 0 0 0 0 
0 0 0 0 0 
0 0 0 0 0 
0 0 0 0 0 
0 0 0 0 0 
0 0 0 0 0 
0 0 0 0 0 
0 0 0 0 0 
0 0 0 0 0 
0 0 0 0 0 
0 0 0 0 0 
0 0 0 0 0 
0 0 0 0 0 
0 0 0 0 0 
0 0 0 0 0 
0 0 0 0 0 
0 0 0 0 0 
0 0 0 0 0 
0 0 0 0 0 
0 0 0 0 0 
-0.01711306456481090 -0.03129544888339540 -0.01459506710968650 -0.01607770750517960 0.05495271495239780 
-0.03369375150496700 -0.04021620304731740 -0.03167900309811190 0.03246457854577880 0.04258180978783050 
-0.01305196305382160 -0.04147500874562390 -0.04146443958992340 0.03185367180916500 0.02205619947368280 
-0.02232347384353350 -0.04375855708591480 -0.04424722690911810 0.04597911510365320 0.02294610889198360 
-0.02933792915191780 -0.07225938631860220 -0.03596362435080950 0.03079627973220090 0.03726439285899020 
-0.06041805495875210 -0.06242409437641270 -0.06263249580256330 0.06846501268134030 0.02786267910458400 
-0.05499064957807460 -0.03933863764376410 -0.1252097967658150 0.1873052806865110 -0.05875416340077830 
-0.2467946812749480 0.2335663377066810 -0.2650365559895830 -0.2225478437865780 -0.03588581968606410 
0.07139344159974600 -0.01329366556485000 -0.1239885843948860 -0.09474093674436980 -0.09212148288922540 
0.06915293832646600 -0.07844975280209130 -0.1055883429338670 -0.02327136313684270 -0.05844639916288900 
0.05805955689661270 -0.06710624010686330 -0.1330357319136520 0.03381693890722740 -0.03902120286279510 
0.05157150937934980 -0.08048203820601630 -0.1060557655471160 0.03956098820779400 -0.02210833819834900 
0.009731989840869540 -0.07025048247328490 -0.08687112279368310 0.06260776994609140 -0.003134750465276240 
0.03580920927612700 -0.01598789096733960 -0.03568733042451120 0.01853296017158950 -0.03974475821711570 
-0.01626042567469750 -0.03599051145405080 -0.03062144600913910 0.01807495713098290 0.03168485136007560 
-0.01013060330113250 -0.02738100501170100 -0.01310436357808780 -0.01924341878539620 0.04687021536150720 
0.004943410757526570 -0.0002733719087821680 -0.001242536378135690 -0.003329441165312420 -0.002511250929529060 
-0.02915514911119020 -0.03579071827684940 -0.02727541942008810 0.02512031046915890 0.03988645059905940 
0 0 0 0 0 
-3.650896317686330e-05 -1.965356120578020e-05 -3.761555577635650e-05 0.0001068522112361860 -2.720579313290680e-05 
0.002801943140246000 -0.0004672800252836250 -0.001378615782845060 -0.0007016119336941620 -0.002082742437549650 
0.0004280087723028670 -0.0003608547460089740 -0.0008355835047863020 0.0009915975520515030 -0.0009292531153757310 
-0.0007288366717413030 -0.0003923484780351820 -0.0007509278295559220 0.002133114808774790 -0.0005431153884872870 
0.0001718970109525760 -0.0003778489531302630 -0.0008384795219559960 0.001282356154790110 -0.0008649237690570640 
0.001583662007890030 -8.757692354485090e-05 -0.0003980566762490370 -0.001066613668099990 -0.0008044997440923890 
0.001502481284432290 -8.308760828935290e-05 -0.0003776517358046230 -0.001011937563732480 -0.0007632599650728770 
0.0008627262859982870 -4.770898942614030e-05 -0.0002168480118903010 -0.0005810555812353730 -0.0004382646504427590 
4.745764691770250e-05 -2.624420296138580e-06 -1.192857636322920e-05 -3.196324380208290e-05 -2.410846797504910e-05 
5.189138961885450e-05 -2.869607428002450e-06 -1.304300663570590e-05 -3.494941796192660e-05 -2.636080771084950e-05 
5.145835655583320e-05 -2.845660586275070e-06 -1.293416289195670e-05 -3.465776546192550e-05 -2.614082706684310e-05 
5.158733980011410e-05 -2.852793393443950e-06 -1.296658309352400e-05 -3.474463708643910e-05 -2.620635050966050e-05 
0 0 0 0 0 
0 0 0 0 0 
0 0 0 0 0 
0 0 0 0 0 
0 0 0 0 0 
0 0 0 0 0 
0 0 0 0 0 
0 0 0 0 0 
0 0 0 0 0 
0 0 0 0 0 
0 0 0 0 0 
0 0 0 0 0 
0 0 0 0 0 
0 0 0 0 0 
0 0 0 0 0 
0 0 0 0 0 
0 0 0 0 0 
0 0 0 0 0 
0 0 0 0 0 
0 0 0 0 0 
0 0 0 0 0 
0 0 0 0 0 
0 0 0 0 0 
0 0 0 0 0 
-8.221545697848040e-06 -1.243348406515760e-05 5.781454422232210e-05 -3.360607729393240e-05 -1.384562305171570e-05 
0 0 0 0 0 
-1.197058735138580e-05 -1.810317822875930e-05 8.417809463432320e-05 -4.893051727362370e-05 -2.015925548139990e-05 
6.404930971209910e-06 -2.666692027534750e-05 3.379308033856520e-05 -1.604457585005660e-06 -4.866664185847170e-05 
-3.665415282137420e-05 -2.803810053116560e-05 3.099296514954580e-05 4.745738151285320e-05 -3.532103390171020e-05 
-0.01031320666590850 -0.01958072070796350 -0.008646504163520940 -0.01187380225471580 0.03530143224196010 
-0.02240321856742560 -0.02476630739475290 -0.02127730691449830 0.02746962782087640 0.02223307058752920 
-0.01833706560232410 -0.02744957782186450 -0.02756063715826080 0.03378398656807810 0.01524115329503780 
-0.02922664965701190 -0.02135642820163470 -0.03703794516740160 0.06139814262129890 -3.341903480341600e-05 
-0.04533262385886350 -0.05048112168663660 -0.03652526804461610 0.04354664406670270 0.03478064756533460 
-0.07580158880871450 -0.05831417002133080 -0.04477798543750180 0.05694091956555520 0.04123191124603160 
-0.06080244032667580 -0.02125323246732200 -0.09716168643336880 0.1933199505565080 -0.08769666529947220 
-0.2200976959196270 0.1130598761090140 -0.3124414455257950 -0.2150086604737930 0.1197317951496420 
-0.01291716040778210 0.01395482975485750 -0.08437768298484040 -0.08645604275984190 -0.06697449451479850 
0.02900870404674840 -0.04162902229636890 -0.1284702433473620 0.01153507482715960 -0.07060571478258440 
0.1077293096362260 -0.08269180062042760 -0.1077495385360130 -0.01987609803775680 -0.08387095251032940 
0.1587341762831700 -0.08864005558392550 -0.09882908473976160 -0.04834492383857400 -0.09597959987170170 
0.05851852190458700 -0.06623466507744160 -0.1021520593329340 0.02786797707293230 -0.04398430293540240 
0.03429064416823720 -0.03938830613896610 -0.07114156120297000 0.05712977558396640 -0.05879377298272590 
0.01878019331617690 -0.01443398006891260 -0.04129634581746010 0.01537961267310460 -0.02201985808839170 
0.002242168809550970 -0.01054551972691920 -0.02553645918261390 0.009009008913828090 -0.002279453588921660 
0.01797024792436150 -0.004046587661884490 0.0003324713316461300 -0.01155761741605340 -0.01654633893796670 
-0.02517786847685680 -0.02371923029238820 -0.02453286878102220 0.03933122927365380 0.01524231902722150 
-0.003865035132496260 -0.001225142531486860 -0.004092612772290000 0.01113623304009760 -0.003510588743824230 
0 0 0 0 0 
0.005017708851521060 -0.0002774806128268860 -0.001261211355624400 -0.003379481743525120 -0.002548994335197270 
0.001501688800601570 -8.304378372608880e-05 -0.0003774525433771560 -0.001011403817212460 -0.0007628573835650570 
0 0 0 0 0 
0.001194686453854200 -6.606647359600210e-05 -0.0003002868772576970 -0.0008046343818480260 -0.0006069002991849800 
0.002387662750116890 -0.0001320383750295760 -0.0006001439029161600 -0.001608116953870080 -0.001212931838913800 
0.002265267827171290 -0.0001252699037549730 -0.0005693796893562260 -0.001525682635771010 -0.001150755261021940 
0.001300719096854060 -7.193010650693480e-05 -0.0003269383983753000 -0.0008760485256015300 -0.0006607648446080790 
7.155116128887050e-05 -3.956797947113380e-06 -1.798453034960000e-05 -4.819048901780320e-05 -3.634796481801240e-05 
7.823584668158870e-05 -4.326462798983790e-06 -1.966473965937630e-05 -5.269269767804680e-05 -3.974378265097600e-05 
7.758296942053570e-05 -4.290358515563130e-06 -1.950063762798410e-05 -5.225297770827970e-05 -3.941212123154170e-05 
7.777743546583080e-05 -4.301112538767580e-06 -1.954951706516690e-05 -5.238395271485290e-05 -3.951090991428780e-05 
0 0 0 0 0 
0 0 0 0 0 
0 0 0 0 0 
0 0 0 0 0 
0 0 0 0 0 
0 0 0 0 0 
0 0 0 0 0 
0 0 0 0 0 
0 0 0 0 0 
0 0 0 0 0 
0 0 0 0 0 
0 0 0 0 0 
0 0 0 0 0 
0 0 0 0 0 
0 0 0 0 0 
0 0 0 0 0 
0 0 0 0 0 
0 0 0 0 0 
0 0 0 0 0 
0 0 0 0 0 
0 0 0 0 0 
0 0 0 0 0 
0 0 0 0 0 
0 0 0 0 0 
-1.195861192414260e-05 -1.808506773113830e-05 8.409388250519580e-05 -4.888156697299270e-05 -2.013908807522270e-05 
2.675328908995510e-05 -1.479463889094570e-06 -6.724493787702630e-06 -1.801863255404820e-05 -1.359066146644170e-05 
-1.741176342019750e-05 -2.633189560546800e-05 0.0001224408649226520 -7.117166148890720e-05 -2.932255342749080e-05 
-6.093787483721350e-05 -4.565570095180190e-05 4.359679678517960e-05 8.579685922648200e-05 -5.779816589913220e-05 
-7.832480582397680e-05 -5.424593809349040e-05 1.931295484201740e-05 0.0001422257114738670 -7.001278862521070e-05 
-0.002234476872002650 -0.005089591442854990 -0.002287935478102630 -0.003388783981787400 0.008878072519359630 
-0.009878464959230200 -0.008429937598734370 -0.009665992196080900 0.01954402944131330 0.002138793099905500 
-0.01240997507727700 -0.009930568680598290 -0.01233920729007210 0.02658340601197220 0.0007165926513735930 
-0.02855551581587270 0.005212104620151340 -0.03205485264496540 0.07052954535029220 -0.03003403863957300 
-0.04806976753089750 -0.01907806743753990 -0.04325045274306950 0.05374716234055160 0.01535715115386480 
-0.07740761840091460 -0.04613772167621200 -0.02707521464599620 0.03923064242536440 0.03754244494195700 
-0.07390426174832780 -0.003400748488949940 -0.07221266401108660 0.2114632963693150 -0.1228106308369330 
-0.1876577965833870 -0.06252759764438430 -0.3071770260743640 -0.2012714707926160 0.3174888764490410 
-0.09658644768394780 0.01764997002462230 -0.04320834867692370 -0.1204822231967640 0.004234482371510930 
-0.04336839620364840 -0.003783033219918050 -0.1631703625272520 0.05991922100296950 -0.05885812094025080 
0.09164052374218370 -0.07922724210975570 -0.05934949186215830 -0.05738335697224560 -0.1020068671216220 
0.2189612903467400 -0.08031058509217930 -0.06428350360691310 -0.1363722140092210 -0.1441188540028290 
0.1200751902668390 -0.04578385487123070 -0.1086530879099100 -0.02807300425385470 -0.1005788146689770 
0.05773590669175050 -0.06058560443048320 -0.1167344559420920 0.08749423312216310 -0.1064701546789190 
0.07318297680019730 0.006393022772596890 -0.05768013587867000 0.002063191413848850 -0.08770515148052150 
0.02661858933733960 -0.0009666387393715920 -0.05561317041321440 0.05412973948244340 -0.07143356489085160 
0.04416004895003980 -0.01282835088328840 -0.006065349122684850 -0.01777927438985770 -0.04458535659544450 
-0.005865211844301320 -0.01322759491916260 -0.02573581750030570 0.04369888569478150 -0.01691569060720050 
-0.004286744448249160 -0.005081522441195190 -0.01325286452519260 0.02754268702642960 -0.01259417674299160 
0.001923103776142320 -0.0001063481421748710 -0.0004833760571380340 -0.001295231408336310 -0.0009769360432096930 
0 0 0 0 0 
0 0 0 0 0 
0.001485670627445490 -8.215797455795270e-05 -0.0003734263428783610 -0.001000615402550020 -0.0007547201572246590 
0 0 0 0 0 
0 0 0 0 0 
0 0 0 0 0 
0 0 0 0 0 
0 0 0 0 0 
0 0 0 0 0 
0 0 0 0 0 
0 0 0 0 0 
0.0002360267138911390 -1.305233905593710e-05 -5.932579601544220e-05 -0.0001589665710352110 -0.0001199014878038130 
0.0003731044901352600 -2.063277596104680e-05 -9.378057470401040e-05 -0.0002512899512806790 -0.0001895369500171670 
0 0 0 0 0 
0.0003925665527545410 -2.170903311790350e-05 -9.867240384468840e-05 -0.0002643978631303800 -0.0001994236709959580 
0 0 0 0 0 
0.0003990337948594170 -2.206667329904250e-05 -0.0001002979583404960 -0.0002687536213601060 -0.0002027090277150280 
0 0 0 0 0 
0 0 0 0 0 
0 0 0 0 0 
0 0 0 0 0 
0 0 0 0 0 
0 0 0 0 0 
0 0 0 0 0 
0 0 0 0 0 
0 0 0 0 0 
0 0 0 0 0 
0 0 0 0 0 
4.104661925678060e-05 -2.269888788463830e-06 -1.031715148258360e-05 -2.764534661465400e-05 -2.085166817377540e-05 
4.496633815911790e-05 -2.486650269712380e-06 -1.130238082465370e-05 -3.028532012889710e-05 -2.284288400021670e-05 
2.795032733782410e-05 -1.545660417515160e-06 -7.025371793183470e-06 -1.882485089486490e-05 -1.419875647616060e-05 
3.873705066862450e-05 -2.142169041031100e-06 -9.736636706583160e-06 -2.608982693225420e-05 -1.967840814172420e-05 
0 0 0 0 0 
0 0 0 0 0 
-2.765738419619610e-05 -5.251704528750220e-05 -2.332131045923150e-05 -3.179266177544970e-05 9.475610632437880e-05 
-2.164706919101510e-05 -4.110439747236050e-05 -1.825328156686490e-05 -2.488369631551610e-05 7.416435246819600e-05 
6.286189039483790e-05 -4.413469945042120e-05 -3.857445118906010e-05 -8.026858128199660e-05 2.878028585890570e-05 
-4.414248327111990e-05 -8.381966915624110e-05 -3.722190607414020e-05 -5.074258037606390e-05 0.0001512351930532760 
-5.792317061248110e-05 -5.455835897493120e-05 -5.646420009210580e-05 9.948602284277380e-05 2.850894002075940e-05 
-7.829673646232010e-05 -7.214145191115960e-05 -7.654557158087910e-05 0.0001392932587292920 3.360972364623050e-05 
0.0004833495189744330 -2.672935491144520e-05 -0.0001214908875953120 -0.0003255411829286540 -0.0002455413859679550 
-0.002424542288506910 -0.001339557096489620 -0.002572245408627750 0.007226476326340270 -0.001879288974290590 
-0.003243720994328630 -0.001746164874298930 -0.003342038704140220 0.009493525170742290 -0.002417159915636730 
-0.02530731854641830 0.01749353969239780 -0.03009101756800750 0.06767651875574520 -0.04178965802347660 
-0.03788253705961590 0.007568850085181660 -0.04251165329668120 0.05634540247724620 -0.01334682755640610 
-0.06539890053531650 -0.02992928503969300 -0.004098115697780110 0.02479459151369950 0.01239155334445220 
-0.09075621638860610 -0.0005982463711733400 -0.06390804196107860 0.2315639249591560 -0.1292181455374680 
-0.1846011931346900 -0.2096545527952380 -0.2432826064025750 -0.1698151222726760 0.4695797649125840 
-0.1625482218154950 -0.04532692972875220 -0.02833350367360920 -0.1970269753799700 0.1531299601228130 
-0.1291753929694740 0.006682866921761860 -0.2025682261123030 0.07700193184727420 0.01351821230506710 
0.0007845935992455360 -0.03516498093041820 -0.02440011984054910 -0.05962688540013350 -0.08925236300054220 
0.1977125946820820 -0.02566045806165440 -0.02385219987016440 -0.1922833064394310 -0.1677339249437230 
0.1735637175089550 -0.01240160576109700 -0.1028192429529260 -0.07435430603499170 -0.1675206777052480 
0.1122381520109880 -0.06173174525037710 -0.1562907649138960 0.09633729794664550 -0.1854385960602820 
0.1312095322760250 0.004606766812374280 -0.08214454369090670 -0.01846428725279930 -0.1329407358519490 
0.06492134542810950 -0.01261665969726390 -0.09446571052957960 0.07713455703953570 -0.1210882907395630 
0.07513470243795310 -0.02848661579459530 -0.02447733894907220 -0.01212016044874190 -0.07940772640071420 
0.04376894273201300 -0.01725474114671570 -0.04302950026904680 0.02682816677292730 -0.05355096032137250 
0.01495621747515620 -0.01160409588920730 -0.02598161868479650 0.02774056046799070 -0.02799132213089560 
0.01142474202222790 -0.001258264319549740 -0.003222538368413590 -0.008279127979328580 -0.004868269846043400 
-0.0002131522616118410 -0.0004047427947919290 -0.0001797346427584700 -0.0002450223676984420 0.0007302743535432140 
-0.0002241310799836360 -0.0004255898531234290 -0.0001889922222138460 -0.0002576427173566920 0.0007678885427078180 
0.004646281449221800 -0.0002569405802621320 -0.001167852320369120 -0.003129321329228690 -0.002360309345212070 
0 0 0 0 0 
0 0 0 0 0 
0 0 0 0 0 
0 0 0 0 0 
0 0 0 0 0 
0 0 0 0 0 
0 0 0 0 0 
0 0 0 0 0 
0.0007381491711650680 -4.081984236898320e-05 -0.0001855352999478870 -0.0004971515330536450 -0.0003749795198380130 
0.001166845759155600 -6.452687589213160e-05 -0.0002932890618520260 -0.0007858833697337150 -0.0005927572360510650 
0 0 0 0 0 
0.001227711349981100 -6.789275899577370e-05 -0.0003085877522678000 -0.0008268770102757090 -0.0006236769348246590 
0 0 0 0 0 
0.001247936981735810 -6.901124172567700e-05 -0.0003136715060683010 -0.0008404991942821820 -0.0006339515486562140 
0 0 0 0 0 
0 0 0 0 0 
0 0 0 0 0 
0 0 0 0 0 
0 0 0 0 0 
0 0 0 0 0 
0 0 0 0 0 
0 0 0 0 0 
0 0 0 0 0 
0 0 0 0 0 
0 0 0 0 0 
0 0 0 0 0 
0 0 0 0 0 
0 0 0 0 0 
0 0 0 0 0 
-3.492015035243090e-05 -6.630790187877660e-05 -2.944543351876680e-05 -4.014134241427580e-05 0.0001196388442300090 
0 0 0 0 0 
-6.982695165943350e-05 -0.0001325904560088890 -5.887961083085270e-05 -8.026733986015850e-05 0.0002392319537094390 
-5.465263248493740e-05 -0.0001037767980851720 -4.608429345862740e-05 -6.282418638746560e-05 0.0001872436893494140 
-5.252982619389300e-05 -9.974592107480350e-05 -4.429429682673100e-05 -6.038398228330260e-05 0.0001799708085450200 
-0.0001114470921629590 -0.0002116205908976570 -9.397462238921470e-05 -0.0001281104417489220 0.0003818254264258530 
-1.381312208972730e-05 -8.400823886222970e-05 -4.401141480663340e-05 -6.978096694838860e-05 0.0001336049251587570 
-5.565715395750400e-05 -0.0001056842271931750 -4.693132790550460e-05 -6.397890193095090e-05 0.0001906852492158280 
-0.0001009735760817010 0.0005479435535856670 -0.0001817798483353130 0.0001718115939939290 -0.0005190975390831430 
-3.811648262644350e-21 0.0005742388069455760 -7.412359185568760e-05 -0.0001179480242820880 -0.0004231748844791990 
0.0001440186265636930 0.0005824510694956310 4.637946068252880e-05 -0.0003409649107107270 -0.0005890548775657120 
-0.02279238236364960 0.01173914931186310 -0.01489757282785190 0.05124826737451320 -0.03732238682327510 
-0.02645048051926510 0.01538655797775640 -0.02448751328507240 0.05002946932268670 -0.03205707361051610 
-0.05038709601785830 -0.01916142716754540 0.02460474218824450 0.02164301008934880 -0.02066183120001610 
-0.09493673005288240 -0.01054663630749200 -0.07406127621465480 0.2431737844415430 -0.1066857763490590 
-0.1869674613281020 -0.2682230006492780 -0.1410734708819780 -0.1340395046965320 0.4803309940048790 
-0.2087531943383700 -0.1659828970987300 -0.03925002289895850 -0.2696244890952530 0.3480045271859200 
-0.1997828059267400 -0.01483717707057960 -0.2291534447470750 0.03136741113531520 0.1429647274680650 
-0.09946801834776720 0.05807582579658140 -0.04245813560285140 -0.05123739269973360 -0.08389231870739030 
0.1237326556810130 0.07488564647629760 -0.003368438884398720 -0.2186588598426870 -0.1866437699495440 
0.1772715203061900 0.01199403695577670 -0.08788513850407890 -0.09061206191948510 -0.1973293836566580 
0.1481807327240340 -0.04319666516722490 -0.1686977207801370 0.08619248104117430 -0.2399300139533690 
0.1653413947734180 -0.03034151378895340 -0.09222351322557850 -0.03803209703777010 -0.1431003484776570 
0.1003259172490760 -0.04704015576527450 -0.1135344951073840 0.06359174686692070 -0.1341026239083230 
0.08257080914080000 -0.04631290654941290 -0.05368264641764410 0.03143554625163140 -0.1112479938434640 
0.06529639164646830 -0.02528074592215570 -0.06319875732556890 0.03827502710142830 -0.07891722407452500 
0.04254669153417790 -0.01509827775819980 -0.03557189164779930 0.01191389006206300 -0.04256820924459410 
0.02923381854781450 -0.002363212531366160 -0.008574000318924840 -0.02097187887627930 -0.01339344340418330 
0.001107903829008320 -0.002084548177102650 -0.004135071239493100 0.003796278616406320 -0.002499599158204550 
-0.002031145893166790 -0.001837532189807550 -0.003678063415604740 0.006281216856185760 -0.001273075675889710 
-0.003471719917783260 -0.001868901605420550 -0.003576948311970220 0.01016081854230630 -0.002587060427902260 
-0.001956525124224620 -0.001639698097939110 -0.003282023927077170 0.007952276837584640 -0.002696024295258510 
0.001972553609359400 -0.0001090827308948010 -0.0004958053735915420 -0.001328536411381040 -0.001002056541125510 
0.001870978285210860 -0.0001034655888830080 -0.0004702742086598540 -0.001260124320582150 -0.0009504563121142190 
0.001074133912021670 -5.939988647917740e-05 -0.0002699857499488700 -0.0007234409275616020 -0.0005456596502518350 
5.901775098422820e-05 -3.263697076765220e-06 -1.483423210219910e-05 -3.974910021625710e-05 -2.998099678287980e-05 
6.453149934007250e-05 -3.568608804014820e-06 -1.622012399912290e-05 -4.346266998651570e-05 -3.278197901214770e-05 
6.399298470352430e-05 -3.538828803662600e-06 -1.608476724669220e-05 -4.309997449407310e-05 -3.250841376581690e-05 
6.415338669322490e-05 -3.547699075676740e-06 -1.612508461401290e-05 -4.320800698696150e-05 -3.258989792027860e-05 
0 0 0 0 0 
0 0 0 0 0 
0 0 0 0 0 
0 0 0 0 0 
0 0 0 0 0 
0 0 0 0 0 
0 0 0 0 0 
0 0 0 0 0 
0 0 0 0 0 
0 0 0 0 0 
0 0 0 0 0 
0 0 0 0 0 
0 0 0 0 0 
0 0 0 0 0 
0.0001209096973291170 -6.686337909268380e-06 -3.039089907146880e-05 -8.143400241626890e-05 -6.142208380004120e-05 
0.0001200461010198010 -6.638580807325050e-06 -3.017383237744280e-05 -8.085236086482150e-05 -6.098337717805850e-05 
0.0001139923868609630 -6.303808829838990e-06 -2.865221897444210e-05 -7.677511822566180e-05 -5.790809251041540e-05 
0 0 0 0 0 
0 0 0 0 0 
0 0 0 0 0 
0 0 0 0 0 
0.0002795764495080590 -1.546065083428360e-05 -7.027211090133870e-05 -0.0001882977938717280 -0.0001420247382098670 
0 0 0 0 0 
0.0001702941824418100 -5.755132375052580e-05 -6.976507679819880e-05 -0.0001595994136654010 -1.463218663534290e-05 
1.337832931023600e-05 -3.841367947108340e-05 -2.446491320374450e-05 -4.415654790386360e-05 4.946114682224690e-05 
-1.853012774960000e-05 -3.518581335478550e-05 -1.562500846182990e-05 -2.130071593249000e-05 6.348549605377780e-05 
-6.489851352699010e-05 -8.842308540714800e-05 -5.951051012897100e-05 2.968927470003370e-05 0.0001156250961402960 
0.0004607879629679650 -5.538542979034000e-05 -0.0001325699629816120 -0.0003382430481986170 -0.0001894256963962860 
0.0002962113474460080 -5.474686904227740e-05 -9.594343084673450e-05 -0.0002352936655092960 -9.318391105292300e-05 
-3.999794225349140e-05 0.0003800454991850250 -9.304647027257510e-05 3.458001331306430e-05 -0.0003257407953951920 
-1.016439536705160e-20 0.0003820860030899380 -4.932022462475910e-05 -7.848004806573260e-05 -0.0002815713571828090 
0.0006135889407090790 0.0003113608816906560 3.541831647068860e-05 -0.0006651583473836010 -0.0006853364572552930 
-0.01767812930398810 -0.0006079177786658500 0.005761130525615340 0.02730854890073500 -0.02550580590366420 
-0.01675038045850400 0.004720575632567020 -0.0001307502696771380 0.03011847353442160 -0.02896558012643420 
-0.03655604726038000 -0.01691020444122460 0.04580401466271990 0.02506560585430280 -0.04429489177118140 
-0.07962567883589740 -0.02318049256193580 -0.08148790545683650 0.2261899335819890 -0.07448653583864490 
-0.1583487058506030 -0.2515539314650490 -0.05262777104997080 -0.08604686321436070 0.3528292299092200 
-0.2152693412614880 -0.2620803205795280 -0.05220530475646980 -0.2878118158156200 0.4658446474290590 
-0.2285915274503870 -0.05005146415859320 -0.2231661533148690 -0.07285925085035180 0.2793195270594840 
-0.1587895558261610 0.1466128733398200 -0.09950367271443730 -0.05486714620660330 -0.08778338146343380 
0.02715827587248410 0.1740922928139250 0.002817590022765770 -0.2253664172496900 -0.1940120646835450 
0.09436108650324610 0.001949929227803850 -0.07314195124186170 -0.09185489339511160 -0.1281677374674900 
0.1143327218199800 -0.03041755314588670 -0.1440845269074010 0.05656001684134940 -0.2028003852836710 
0.1596411164803690 -0.07567546547970750 -0.09236961105923900 -0.03456796921236270 -0.1246444308406500 
0.1203643564911350 -0.07904926604742350 -0.1090711643823570 0.03211735825447350 -0.1228090695967920 
0.05203851068958560 -0.06003389922155810 -0.08432079771830060 0.1230091401818520 -0.1369394507479780 
0.03046512546939450 -0.03431075505881330 -0.07793058835834540 0.1028233528838050 -0.08397297587521180 
0.07197063645203390 -0.01415450127832700 -0.03912587285363350 -0.01260787538635720 -0.05594059402542000 
0.05725368024553380 -0.002786681537442530 -0.01584050213056160 -0.03767957077761630 -0.03020728534268430 
0.06797264149360690 -0.01104492734415770 -0.03394812629282100 -0.01717153784622630 -0.05072177797015150 
0.01611899124509530 -0.008859666526871230 -0.02320836595400430 0.02158752681570500 -0.02681114401754390 
-0.01862727098160990 -0.01002746116235160 -0.01919186658836940 0.05451716292348750 -0.01388069221525930 
0.007630950519292600 -0.009409683680518130 -0.02132297359596430 0.02897531844691180 -0.02285021888568330 
0.04030227350656510 -0.002228726273651460 -0.01013005865985070 -0.02714402161789540 -0.02047354079395490 
0.03697552400149210 -0.002044756155275750 -0.009293873385401420 -0.02490341947250250 -0.01878355321317280 
0.02072723484843890 -0.001146221512276100 -0.005209832761344950 -0.01396001917146370 -0.01052942802708810 
0.0009502912522836430 -5.255135498102110e-05 -0.0002388576447928720 -0.0006400315429123940 -0.0004827476225776300 
0.001039072453574300 -5.746097865003300e-05 -0.0002611729808450640 -0.0006998266521561370 -0.0005278484416682570 
0.001030401405630170 -5.698146742915830e-05 -0.0002589934952559440 -0.0006939866066111440 -0.0005234435523564550 
0.001032984164293780 -5.712429465926840e-05 -0.0002596426769146990 -0.0006957261227946990 -0.0005247555928509390 
0 0 0 0 0 
0 0 0 0 0 
0 0 0 0 0 
0 0 0 0 0 
0 0 0 0 0 
0 0 0 0 0 
0 0 0 0 0 
0 0 0 0 0 
0 0 0 0 0 
0 0 0 0 0 
0 0 0 0 0 
0 0 0 0 0 
0 0 0 0 0 
0 0 0 0 0 
6.646996735944470e-05 -3.675806592861750e-06 -1.670736189013880e-05 -4.476824938056310e-05 -3.376672008552480e-05 
6.599520627939850e-05 -3.649552180870980e-06 -1.658802972418800e-05 -4.444849260510450e-05 -3.352554162351760e-05 
6.266718386738290e-05 -3.465511670408170e-06 -1.575152450198200e-05 -4.220703314297590e-05 -3.183490740645540e-05 
0 0 0 0 0 
0 0 0 0 0 
0 0 0 0 0 
-2.332227709643660e-05 -4.428535518010760e-05 -1.966585346335940e-05 -2.680937800554220e-05 7.990373032387210e-05 
0.0001536968322953100 -8.499475054620930e-06 -3.863201232881090e-05 -0.0001035164961040310 -7.807793685354000e-05 
-3.787859396029820e-05 -7.192552340916920e-05 -3.194005778857370e-05 -4.354212668004180e-05 0.0001297746761320130 
0.0001071603159264970 -5.925993518933110e-06 -2.693496400809040e-05 -7.217364379246500e-05 -5.443740287398040e-05 
0 0 0 0 0 
0 0 0 0 0 
-3.112702992864930e-05 -1.675635062253830e-05 -3.207049525787220e-05 9.110069658726690e-05 -2.319527763574770e-05 
0.0002617303120943960 -1.447375476425060e-05 -6.578644785747350e-05 -0.0001762782253063600 -0.0001329589066682880 
0.0001736352360135070 -9.602073998925560e-06 -4.364357077640610e-05 -0.0001169452288891650 -8.820663894336990e-05 
-0.0009840830455132830 -0.001868619732844880 -0.0008298003187603640 -0.001131221203097770 0.003371536405293900 
-0.0003987711347289750 -0.0007572039927329970 -0.0003362525309415750 -0.0004583946089158450 0.001366217418589750 
-0.0003778987975039270 -0.0007175706900486960 -0.0003186525202904580 -0.0004344014809630460 0.001294707351285300 
-0.01117174250575280 -0.01009707931627490 0.02228842085366650 0.003291735951468190 -0.01226092219657390 
-0.01480373860367470 -0.01691078524935340 0.01620965724297380 0.001662554561322810 0.0005766335216178890 
-0.03097407374594160 -0.02603897171154270 0.04452424826031130 0.02435155563472610 -0.03222787914554080 
-0.06123772823745410 -0.03349499529615080 -0.06302105378454760 0.1776406996752780 -0.04401008432292020 
-0.1302597040099940 -0.1783828867127680 0.001582387800079410 -0.005588512293956250 0.1749992991541010 
-0.1662695914528490 -0.2520333918575170 -0.04282909431794540 -0.2229446313659650 0.4021652225291130 
-0.2127294298094870 -0.08729912418760910 -0.1766564563650790 -0.1884972908368840 0.3691078649062000 
-0.1939947004887350 0.1659561630803600 -0.1478586075060180 -0.05890769607899850 -0.05585204165545100 
-0.07501097309419000 0.2159834018946900 0.01769644873780030 -0.2237900099412230 -0.1644098594580300 
-0.05336198920587270 -0.05478750458594650 -0.07252228322953060 -0.1293572971833050 0.05414195351844490 
0.01825123163228620 -0.05624267641116830 -0.1010777939307860 0.003794921765666620 -0.06436473464402260 
0.1064421506526310 -0.1056214141816170 -0.08402398804903140 -0.001430563934749280 -0.08757430486583150 
0.1080205360846580 -0.08825856693054900 -0.08600064576019820 0.01797127271250360 -0.1069200151585620 
-0.001006264519627890 -0.07102996623512900 -0.1116463664200320 0.2266877665888720 -0.1449860592855250 
-0.02428313652722910 -0.04469436222579340 -0.09329329393668400 0.1910998479847910 -0.08485226733925580 
0.09438450744084150 -0.01404549919375310 -0.04277958345690160 -0.03006783961123920 -0.06657967888885720 
0.09233017192842060 -0.005646174706477520 -0.02437389735510740 -0.06013457695483320 -0.04804429257900570 
0.1156419829610600 -0.02098250132941460 -0.06056199922338960 -0.02251604075142240 -0.08954134622025640 
0.05977011427654650 -0.02133089221113520 -0.05394158140121890 0.02816444875630540 -0.06841658951516770 
-0.01931226624369310 -0.02146551218588430 -0.04379686048119970 0.09853805451082190 -0.03775928059551460 
0.02978023382933590 -0.01854648965498680 -0.04397256630766730 0.04408914212537010 -0.05080476541313710 
0.07905769752958930 -0.004371911365989910 -0.01987131354654270 -0.05324622320511620 -0.04016128259326440 
0.06596124791670150 -0.003647674274525550 -0.01657949422045130 -0.04442562127674130 -0.03350829078718800 
0.03425870395657170 -0.001894515295689730 -0.008610995124977240 -0.02307361148364950 -0.01740340958404360 
0.0005224215254572850 -2.889004709667460e-05 -0.0001313117161290890 -0.0003518566062620880 -0.0002653899515457250 
0.0005712288889879580 -3.158910707478610e-05 -0.0001435795465163220 -0.0003847288989523070 -0.0002901840750863710 
0.0005664619903309460 -3.132549633136270e-05 -0.0001423813768147230 -0.0003815183406155640 -0.0002877624922419420 
0.0005678818589424710 -3.140401543721710e-05 -0.0001427382636866680 -0.0003824746376413250 -0.0002884837849981770 
0 0 0 0 0 
0 0 0 0 0 
0 0 0 0 0 
0 0 0 0 0 
0 0 0 0 0 
0 0 0 0 0 
0 0 0 0 0 
0 0 0 0 0 
0 0 0 0 0 
0 0 0 0 0 
0 0 0 0 0 
0 0 0 0 0 
0 0 0 0 0 
0 0 0 0 0 
0 0 0 0 0 
0 0 0 0 0 
0 0 0 0 0 
0.0003828153567292360 -2.116978942542100e-05 -9.622142083193260e-05 -0.0002578303260491760 -0.0001944700668380840 
0.0004193720480486730 -2.319138402375360e-05 -0.0001054100197683080 -0.0002824516571334350 -0.0002130408531957960 
0.0002606746846455700 -1.441537829003000e-05 -6.552111374480060e-05 -0.0001755672486839940 -0.0001324226482948430 
0.0003230124632631820 -9.263414861387340e-05 -0.0001230715615725940 -0.0002873070466354280 -5.243602534803080e-05 
0 0 0 0 0 
-5.367289620817010e-06 -0.0001211423730244940 -6.667260925134430e-05 -0.0001096761978918110 0.0001840683862500900 
0 0 0 0 0 
-0.0001113645735435780 -0.0001684171932462250 0.0007831242808296360 -0.0004552095924359940 -0.0001875452577005120 
0.0007803188844073490 -4.315183854880440e-05 -0.0001961347433947630 -0.0005255532957403700 -0.0003964017193621810 
5.022724971400510e-05 -0.0002569601320129040 0.001086849841921150 -0.0008058225071146700 -0.0003809523468981870 
-0.0001228767129776640 -0.0001858270584309490 0.0008640785343077510 -0.0005022661754507510 -0.0002069324567724420 
-0.0001155191169652850 -0.0001099066155338040 0.0008039757086446760 -0.0004855000631177560 -0.0002422901880784270 
-0.001088554381310440 -0.002206574996489970 -0.0003398343898120700 -0.001664172096734680 0.003549491257818940 
0.0002406372734047890 -0.0005602845357348350 0.0003881743204553100 -0.0009975444515255130 0.0002476664220620780 
0.0005287414577194220 -0.0003053243091753530 -0.0002875435084488310 -0.0006136737891753470 0.0001436693370892550 
-0.002752991931722900 -0.005683204449523930 0.02593337235596620 -0.01586903084571670 -0.006761493674889120 
-0.01476972817815440 -0.02664034920657590 0.01617226665221340 -0.02765775099068120 0.03202695502521070 
-0.02038723849590680 -0.01638369550469200 0.02376754415648910 0.02071572600882210 -0.02040607870611410 
-0.04387843232914240 -0.02893797492063720 -0.006950163481143580 0.09535561175059340 -0.03751192560970850 
-0.08479556752844530 -0.07819337326435040 0.001205447162592170 0.06875430072821110 0.01796608534090160 
-0.09215710969771750 -0.1513043860401340 -0.02207063401398790 -0.1063450738915290 0.2189067074731940 
-0.1649631816139570 -0.1253489901872110 -0.09487108913369770 -0.2719835761479460 0.3896446423329910 
-0.2257426876643750 0.08570034935382990 -0.1415336337651500 -0.04466006168984550 0.03078856082528980 
-0.1617336587325380 0.1744940465928970 0.06228374090387660 -0.2168492890299370 -0.1019924560703340 
-0.1948252671819130 -0.1013545307078290 -0.07047301163787050 -0.2059884936399560 0.2271756178106350 
-0.09987128471433350 -0.1126678270938100 -0.05182852039908900 -0.05542329868364360 0.1078443397359090 
5.996289861736510e-05 -0.1125150062403730 -0.07301342536230070 0.05455600410522330 -0.02104915049024730 
0.04162678707079460 -0.08006641597772000 -0.05936868864041780 0.04031204090243170 -0.06994173762404310 
-0.05153724698753500 -0.06242767556505560 -0.1307368073291600 0.3008622757111270 -0.1459986311174480 
-0.05490377049847640 -0.03938532411910100 -0.1196354470705040 0.2636585646038470 -0.1137480624369270 
0.1030699838622170 -0.004980443100082410 -0.05407890398773120 -0.02550724730676450 -0.08783937174858790 
0.1308981542009470 -0.007238702188664590 -0.03290151808199550 -0.08816133727032350 -0.06649621638466490 
0.07480430584818020 -0.02396495285576060 -0.06161251124587290 0.02488118993946650 -0.07985951866644920 
0.1332531897489850 -0.03541443972091420 -0.09404524965827670 0.01670568558306840 -0.1268987684555170 
0.07378264806425990 -0.03832951107031620 -0.09249157100638200 0.08030772630788930 -0.1097844652978540 
0.06481385153078060 -0.02608249839297350 -0.06486611119379620 0.04174454674881240 -0.08042098763701790 
0.08887037475006000 -0.004914554984657270 -0.02233774998312130 -0.05985516854311320 -0.04514611917670180 
0.05738349594307580 -0.003173322345238710 -0.01442345876383300 -0.03864841158738930 -0.02915079579564990 
0.02210706965815460 -0.001222526738412070 -0.005556657055538850 -0.01488935299423040 -0.01123038362605780 
0 0 0 0 0 
0 0 0 0 0 
0 0 0 0 0 
0 0 0 0 0 
0.007978732879920850 -0.0004412260166173930 -0.002005470785456110 -0.005373763783839770 -0.004053193502210730 
0.01206330183122380 -0.0006671037487216860 -0.003032135523616930 -0.008124765607493490 -0.006128153095658980 
0 0 0 0 0 
0.01269255380176280 -0.0007019015473932370 -0.003190299290044370 -0.008548573685929360 -0.006447812875805340 
0 0 0 0 0 
0.01290165418942750 -0.0007134648535611380 -0.003242857099034850 -0.008689405082008180 -0.006554035799338100 
0 0 0 0 0 
0 0 0 0 0 
0 0 0 0 0 
0 0 0 0 0 
0 0 0 0 0 
0 0 0 0 0 
0 0 0 0 0 
0 0 0 0 0 
0 0 0 0 0 
0 0 0 0 0 
0 0 0 0 0 
0.0004991075703802400 -2.760077927870710e-05 -0.0001254517059615460 -0.0003361544027497510 -0.0002535464705505270 
0.0005467695073032390 -3.023649686560950e-05 -0.0001374316310343440 -0.0003682552381028210 -0.0002777587177765530 
0.0003398628247954750 -1.879450316706550e-05 -8.542521431005390e-05 -0.0002289013264193300 -0.0001726501956934380 
0.0004710243034137240 -2.604776726492960e-05 -0.0001183929195215030 -0.0003172400155622380 -0.0002392801807896570 
-2.729595853488790e-05 -5.183075450568640e-05 -2.301654844719500e-05 -3.137719646154210e-05 9.351783707417320e-05 
7.402500577563650e-05 -4.093602194736910e-06 -1.860633620782790e-05 -4.985665031307470e-05 -3.760467694889130e-05 
-5.458148255025610e-05 -0.0001036416954913990 -4.602429827961540e-05 -6.274239825476960e-05 0.0001869999247645990 
-0.0002353841407574390 -0.0003449871105987670 0.001091179505248180 -0.0006385985029779630 -0.0001515888076261220 
0.0009763044301112640 -0.0001342287464837660 -0.0002903402723777710 -0.0007324068680819440 -0.0003761438249250800 
-4.963668136040190e-05 -0.0005427926464051560 0.001540508168197430 -0.001265238378819310 -0.0002453843098843740 
-0.0006368773859748280 -0.0005656876940038530 0.0008129112812279250 0.0004531554268101120 -0.0005034855164612010 
-0.0007961008040558480 -0.0005582076093440730 0.0005507218286552690 0.0009365947504287260 -0.0006424093828013770 
-0.0008337149055486820 -0.0006191341914059170 5.932245587863770e-05 0.001731451506060480 -0.0008394923626356640 
-0.0003743728133274840 -0.0007612756238119440 -0.0001145694095247760 0.001661180324409650 -0.001298004393476530 
0.001014069540491080 -8.307543622773110e-05 -0.0003679330582266750 -0.0005723250068637330 -0.0005837691056087390 
-0.001165602168160290 -0.004164754375546600 0.01423336397058030 -0.01018483395873370 -0.002745320989972710 
-0.01716570855906820 -0.03175591699886610 0.002620786687619230 -0.02611004344770840 0.04771808882574830 
-0.005842963386358950 -0.004691112294918120 0.004605453071957050 0.007089956199994370 -0.004770029812532710 
-0.03132098111972250 -0.02886523996889690 0.06489631318226330 0.007419662773711210 -0.03502072196935540 
-0.03717848383153590 0.01319730918686900 -0.01496611943179590 0.07848617360603590 -0.06148607643683620 
-0.02610923100630010 -0.03872650697927170 -0.003099688519334150 -0.01134055684462750 0.04490800737078490 
-0.1158921905949260 -0.1446827626917300 -0.02185332314921200 -0.2371796944282760 0.3033726926388890 
-0.2297727735608990 -0.02169229799319270 -0.07637569193657190 -0.02478515850594770 0.09378607498312160 
-0.1997623604524150 0.09909510344068780 0.1238072467062920 -0.2062164500651740 -0.06567713688258860 
-0.2663673649792720 -0.08422795918645630 -0.04526766498347980 -0.2645609654578210 0.2604647474647820 
-0.1930014151103050 -0.1556954815350220 -0.01814187556552560 -0.09034576904346890 0.2200256884529530 
-0.1137617954310170 -0.1209546876742200 -0.07153880374888780 0.08830083267210250 0.07951816795002740 
-0.05221664257921380 -0.08559438833504910 -0.05185629293064000 0.07202595737249720 0.003876219995335620 
-0.07413196184460410 -0.04438397976171080 -0.1363369568686280 0.3125285799267630 -0.1359066794634870 
-0.05690666494036330 -0.03384310230168460 -0.1522782301970630 0.3124855297434460 -0.1554327746958720 
0.09538191464665300 -0.0002040919497011500 -0.07579146060218250 0.01212749423274980 -0.1137849699041170 
0.1605661595681840 -0.01011720802692680 -0.04105199237016250 -0.1092978654320790 -0.07971909422830570 
-0.008799776445567000 -0.02198511910753420 -0.04498983760753090 0.08733133167029460 -0.04000257315242040 
0.2059569656986860 -0.04948313184148690 -0.1326301586677160 0.001786399267216030 -0.1819251558507740 
0.1857379370947090 -0.05429725624732920 -0.1417399547745440 0.04201390775111950 -0.1872968358896870 
0.1076533627042460 -0.02951274730870130 -0.07792512653507860 0.01691974508604800 -0.1044237452226740 
0.07343794997845930 -0.004061137855496720 -0.01845877853565240 -0.04946126181850520 -0.03730645281000060 
0.03138304478068160 -0.001735490590586460 -0.007888192324962550 -0.02113682360434190 -0.01594257573213920 
0.001812068785235840 -0.0001002078781153850 -0.0004554671856696460 -0.001220448128603540 -0.0009205303068060190 
0 0 0 0 0 
0 0 0 0 0 
0 0 0 0 0 
0 0 0 0 0 
0.02229222353735800 -0.001232765796394290 -0.005603195860778320 -0.01501405615518030 -0.01132444173169820 
0.02855610663216000 -0.001579160171048920 -0.007177635654564520 -0.01923284986937550 -0.01450649214503540 
0 0 0 0 0 
0.03004566451777120 -0.001661533112000890 -0.007552039067712600 -0.02023608338277900 -0.01526318702804370 
0 0 0 0 0 
0.03054064450339370 -0.001688905634762130 -0.007676453296825280 -0.02056945781208930 -0.01551463668698620 
0 0 0 0 0 
0 0 0 0 0 
0 0 0 0 0 
0 0 0 0 0 
0 0 0 0 0 
0 0 0 0 0 
2.674471370445550e-05 -1.478989668031920e-06 -6.722338347064090e-06 -1.801285693820500e-05 -1.358630517361810e-05 
0 0 0 0 0 
0.0007358277143061230 -4.069146519706430e-05 -0.0001849517970307720 -0.0004955880064909590 -0.0003738002205685740 
0.0007305720721830820 -4.040082681204550e-05 -0.0001836307806619830 -0.0004920482740890000 -0.0003711303562149670 
0.0006937306049479530 -3.836348403103770e-05 -0.0001743706027182740 -0.0004672351433135770 -0.0003524149037920490 
0 0 0 0 0 
0 0 0 0 0 
-3.503130155961090e-05 -6.651896063038600e-05 -2.953915864447550e-05 -4.026911273090210e-05 0.0001200196559340710 
0 0 0 0 0 
0.001311469072928020 -0.0008345758425903390 -0.0007564879317987940 -0.001594209571794150 0.0004717244161414340 
0 0 0 0 0 
0.0004064884590703500 -0.001546290125422740 -0.0009557035409559590 -0.001695344292701330 0.002068969486989670 
-0.0004583789802552650 -0.001195097773951820 -0.0006128107549327740 -0.0006984777766301810 0.001955188798690300 
-0.0005866208906173930 -0.001113901288010650 -0.0004946515482053690 -0.0006743312900999850 0.002009803641918110 
-0.001244572792227410 -0.002363249005377360 -0.001049450962923680 -0.001430658863380690 0.004263992248585440 
0.001714222208271180 -0.001456245651752330 -0.001856640635993290 -0.0004633728269736880 -0.0003327708167670700 
0.0003358923849312730 -0.001805840956781700 -0.002001197015401790 0.0008144086524697650 0.0004341116939288420 
-0.001379300061747660 -0.0007425069305137990 -0.001421106870487110 0.004036851466911710 -0.001027828480538530 
-0.001465635527126490 -0.001144094661811470 -0.001461227029496150 0.003225584046619010 -3.420995405740740e-06 
-0.0004870759066734100 -0.0009248809384054780 -0.0004107130434375860 -0.0005599025363348750 0.001668755659370590 
-0.007727343072170670 -0.01467301546648320 -0.006515864462549940 -0.008882720179668170 0.02647441047054120 
-0.01101137018027330 -0.02090886912271330 -0.009285027851296090 -0.01265776854898120 0.03772571390618250 
-0.001413800953149450 -0.002684586805366620 -0.001192147844570590 -0.001625189685417580 0.004843779602865070 
-0.02574570612936730 -0.03173483788947270 0.1156377988094590 -0.05038290964250240 -0.03354315097923410 
-0.01096898867859350 0.05242941040603790 -0.01883133192447400 0.02012157645554700 -0.05116225520528290 
0.003491274229768840 -0.0001930683787141830 -0.0008775388996211930 -0.002351411345352750 -0.001773566083174250 
-0.04874477508844390 -0.09861783130088030 0.04904728630629400 -0.1734194320252480 0.1380313167261340 
-0.1773335828187810 -0.07987410926950680 0.02451970904842010 -0.01807820185507600 0.05342924223139250 
-0.1812924360978820 0.04565750547514040 0.1789185491477190 -0.1829889118978260 -0.09579398569860460 
-0.2343837746284110 0.006995810573084260 0.01103335724374000 -0.2611055796437230 0.1061505560552760 
-0.2094401573533810 -0.1392895617764130 -0.01517825465267100 -0.1152810817575410 0.2111340491718740 
-0.1644925442359800 -0.1569690649713000 -0.09606461847361780 0.05503040380096530 0.1917262542524780 
-0.1122780482707300 -0.1277855261963260 -0.07920625215433840 0.05735751235831240 0.1076628529359590 
-0.07359396138916880 -0.06788904221168860 -0.1519741585635950 0.2398009881146530 -0.05580505784182580 
-0.04955944354864320 -0.05141206867401320 -0.1851248815430750 0.3246276404378840 -0.1598244482283040 
0.07016677600452490 -0.02211217699945650 -0.1086861253881420 0.05446793989640720 -0.1031405004895190 
0.1610564898698230 -0.02919780403091510 -0.05184765730932060 -0.1274031803126930 -0.05151614184307890 
-0.04229454800728320 -0.03224044793380490 -0.04227393493449180 0.09540492517384070 -0.002475547268950950 
0.2258456974271140 -0.07079375099865410 -0.1597748031088320 0.001549845249482700 -0.1862503226371820 
0.2038035803990160 -0.06119547017625260 -0.1590174441289530 0.05223819206071610 -0.2089277929960630 
0.1461120921555120 -0.02898450646837940 -0.08185947496340780 -0.01906036397580260 -0.1183558196123380 
0.05239225485117730 -0.002897305406446640 -0.01316890013358220 -0.03528675616920170 -0.02661524707304990 
0.03188412486416420 -0.001763200450356010 -0.008014139826116130 -0.02147430651622100 -0.01619712423865330 
0.007850627987047150 -0.0004341417825112350 -0.001973271359306780 -0.005287483738597280 -0.003988116261599790 
0.006096258692668890 -0.0003371247013425680 -0.001532307058367340 -0.004105896847609150 -0.003096897275895060 
0.006577898423510910 -0.0003637595045227710 -0.001653368187227720 -0.004430286469546580 -0.003341570090091940 
0.006523005935113540 -0.0003607239355468070 -0.001639570848291990 -0.004393315778762190 -0.003313684725255090 
0.006539356213752190 -0.0003616281102350540 -0.001643680524181300 -0.004404327870096300 -0.003321990661064050 
0.03448181647475490 -0.001906853476342850 -0.008667074911557400 -0.02322388020275300 -0.01751675066496100 
0.02938806483778500 -0.001625167677577170 -0.007386750046688160 -0.01979318281225510 -0.01492912662144910 
0 0 0 0 0 
0.03092101974252260 -0.001709940485045580 -0.007772061389120680 -0.02082564469226980 -0.01570786717493990 
0 0 0 0 0 
0.03143042055469400 -0.001738110483289500 -0.007900100322403990 -0.02116873170584750 -0.01596664260870710 
0 0 0 0 0 
0 0 0 0 0 
0 0 0 0 0 
0 0 0 0 0 
0 0 0 0 0 
0 0 0 0 0 
6.853413618480550e-05 -3.789955669180830e-06 -1.722619493516130e-05 -4.615848964106490e-05 -3.481531712421910e-05 
0 0 0 0 0 
0.001885580729638120 -0.0001042731078818870 -0.0004739445628546690 -0.001269959226475070 -0.0009578743487573450 
0.001872112988050780 -0.0001035283382470530 -0.0004705594185333870 -0.001260888555344530 -0.0009510327407585820 
0.001777705616162570 -9.830758587139930e-05 -0.0004468299330244820 -0.001197304158722220 -0.0009030738289793600 
0 0 0 0 0 
0 0 0 0 0 
-3.860955737823980e-05 -7.331350857259700e-05 -3.255642210861300e-05 -4.438238230768860e-05 0.0001322790072306580 
0 0 0 0 0 
0.003930181049660090 -0.001057230667759020 -0.001458306666754300 -0.003430557377342210 -0.0007423449563364700 
0 0 0 0 0 
0.002180425165616440 -0.001800038268549070 -0.001488769758895060 -0.003035315635618490 0.001400236613972600 
-0.0001863773238373470 -0.001317836353423180 -0.0007189141542031870 -0.001048948850667750 0.002028753490386530 
-0.0006465410055354480 -0.001227680211080930 -0.0005451774979063180 -0.0007432105425130850 0.002215094089484200 
-0.001371699094626340 -0.002604641963328720 -0.001156646637856200 -0.001576792839980280 0.004699535730980070 
0.006547309874013200 -0.001609280140169680 -0.002670190454950470 -0.004609372984070950 -0.002198280590939360 
0.003766452182550590 -0.001828371978908850 -0.002304156374496760 -0.002717331553348100 -0.0005085138259996180 
-0.0006973815511689520 -0.0003754155091527450 -0.0007185192991736860 0.002041053876461420 -0.0005196756238706810 
-0.0008763668529495170 -0.0009788578743573860 -0.0008331985336819460 0.001045603695940210 0.0009016469513777550 
-0.0009621404057037420 -0.001697261990347890 0.001831036135814950 -0.002091775310070400 0.001581798194317150 
-0.01463231046471700 -0.02660261896152030 -0.01249083862988710 -0.01706285522996790 0.04926036275391190 
-0.003645768535002490 -0.004684055248266810 -0.003363164909562930 -0.004650700893643670 0.01084089338619470 
-0.004918342339275210 -0.006740508419719270 0.02641207953961490 -0.01733135196166220 -0.003874840306358810 
-0.03045723561441220 -0.03384564547091570 0.1168734784943680 -0.04290469409410570 -0.03818465126818550 
-0.004891983646279220 0.06343459238622220 0.02525760923437820 -0.03454525846436030 -0.06043734340646430 
0.01651909288938520 0.01047097956097150 0.02105651410136240 -0.03407813700088550 -0.03035596288478380 
0.007848641928895820 -0.01125434324360150 0.08043946829087440 -0.1093571054347130 -0.02662864745838420 
-0.09688476109969600 -0.08003008226941910 0.1198028167102230 -0.04590025943202190 -0.04984548249229830 
-0.1158720229611740 0.02503931723449060 0.1937462570813730 -0.1613580068296070 -0.1655870035518990 
-0.1352254918686660 0.09071998947182690 0.06585236846559090 -0.2178939883861240 -0.09478361124993120 
-0.1541826846557510 -0.05568477023404480 -0.05157142467811990 -0.1490545305331060 0.1090728285535870 
-0.1378755704286040 -0.2118216100564100 -0.1373409172977730 -0.02693186245748170 0.2775987552877130 
-0.1196769607050540 -0.1926049151272170 -0.1288426050558980 -0.005717709137373590 0.2106241906662740 
-0.04359387861406690 -0.1035647187785810 -0.1621900616809580 0.1321254307263160 0.02197934806356840 
-0.03527995205874640 -0.08325962087180610 -0.2000448811575680 0.2995742372673300 -0.1299166914047120 
0.03887747776945810 -0.05396949754431900 -0.1342915155980880 0.09140926920641800 -0.07293387519612550 
0.1358716592672820 -0.03085388360695020 -0.05731037380627750 -0.1299419913775510 -0.02310199970935200 
-0.01232043878660740 -0.03662480519967880 -0.05442407600118400 0.05594728348366550 -0.001787650674759180 
0.1874186237895800 -0.07276428056237960 -0.1649502730734640 0.02332993791982770 -0.1617094671011400 
0.1190370854948120 -0.05665169872937810 -0.1380217666927350 0.1098753225766920 -0.1661700961249700 
0.1676203558869810 -0.02538519541811550 -0.07692650245075460 -0.05172311777075310 -0.1191726494838940 
0.03958473953733010 -0.002189046457345040 -0.009949705032961610 -0.02666075464861850 -0.02010903378946080 
0.06395703912384710 -0.003536841003698030 -0.01607573225191380 -0.04307576475335790 -0.03249015342395890 
0.04208365981395120 -0.002327237402710910 -0.01057781374212260 -0.02834380476237820 -0.02137848441278380 
0.02475931640898780 -0.001369196677933610 -0.006223304686768950 -0.01667567016387800 -0.01257772404445810 
0.02428107797046380 -0.001342749967108850 -0.006103098479671120 -0.01635357134948510 -0.01233477908556480 
0.02407845264776110 -0.001331544733728140 -0.006052168191467520 -0.01621710098041570 -0.01223184549275980 
0.02413880663392860 -0.001334882324960280 -0.006067338289008880 -0.01625775004962990 -0.01226250529654670 
0.03923810993511010 -0.002169877749615260 -0.009862578975342120 -0.02642729582365840 -0.01993294607321110 
0.01348576160553620 -0.0007457661465565370 -0.003389673689614330 -0.009082807809709040 -0.006850762161681070 
0 0 0 0 0 
0.01418921263272830 -0.0007846671724819020 -0.003566487540292690 -0.009556589763625910 -0.007208115036560940 
0 0 0 0 0 
0.01442296936194910 -0.0007975939807914260 -0.003625242771030630 -0.009714027475179940 -0.007326863372949090 
0 0 0 0 0 
0 0 0 0 0 
0 0 0 0 0 
0 0 0 0 0 
0 0 0 0 0 
0 0 0 0 0 
0 0 0 0 0 
0 0 0 0 0 
0 0 0 0 0 
0 0 0 0 0 
0 0 0 0 0 
0.0009321788045783280 -5.154973188215550e-05 -0.0002343050441139440 -0.0006278326114554370 -0.0004735465055013760 
0.001020884605451820 -5.645518588836270e-05 -0.0002566014281174690 -0.0006875769376942660 -0.0005186090212065480 
0.0006377575570226990 -3.526815983035590e-05 -0.0001603016629409410 -0.0004295366838791440 -0.0003239806150943390 
0.0007456348568240660 -0.0003030807887070900 -0.0003340851028025290 -0.0007464713768136420 1.222667681472560e-05 
0 0 0 0 0 
-8.063370744739200e-05 -0.0004208165466825210 -0.0002179420325691930 -0.0003424337208304660 0.0006760143019646470 
0 0 0 0 0 
0 0 0 0 0 
0.001898973551967990 -0.0001050137344621730 -0.0004773108760677540 -0.001278979438667010 -0.0009646778977996100 
0.0003514259619090630 -0.0001234603151625350 -0.0003129302966059470 0.0001581668013060500 -0.0003981318538197010 
0 0 0 0 0 
0 0 0 0 0 
-0.002439015534233200 -0.004869595058313420 -0.002190102321181190 -0.003025990498316650 0.008712061688046640 
0.001317992615831230 -7.288533662755250e-05 -0.0003312801326070500 -0.0008876824293925210 -0.0006695397861849300 
0.0005929129842583970 -0.001517353452924660 0.001681970125043290 -7.109545020349480e-05 -0.002881692899638590 
-0.01813239169422340 -0.03078688900939360 -0.01959670629462850 -0.001242324746435150 0.04424191751928910 
-0.008242088045813930 -0.002482634146588200 -0.008865205088267610 0.02391096255594390 -0.007732660903722390 
-0.02428389043430650 -0.02400711465120670 0.06820006128941510 -0.01002337408622830 -0.02944619256973530 
-0.05321441113023890 -0.04364932150731010 0.07342283218031210 0.04403306106536210 -0.05501850774990540 
-0.03014941986713650 0.04204542240550850 0.07990353106406010 -0.03462755537554050 -0.08794431230902410 
0.003801182214449290 0.003782676474089810 0.05526284400275080 -0.06161927599012130 -0.04679930001881280 
0.008820229104401020 0.02405029668654770 0.04495445552480430 -0.03812452011620040 -0.08801103512318890 
-0.05137460624160490 -0.08449905813228610 0.1704770691271410 -0.09508189086893590 -0.09170620770759520 
-0.06600586862199550 0.007043043010437980 0.1680744120094560 -0.1329429320462840 -0.1938108721173980 
-0.03349907795914790 0.1285111520376120 0.09652358834102100 -0.1865052825605510 -0.2150407516233650 
-0.08604490142791150 0.06122167104627700 -0.1007924655851670 -0.1871128346403760 -0.005335960387946600 
-0.09257142198811320 -0.2411174919235230 -0.1705156098847590 -0.09040165675722990 0.3108608471895870 
-0.1183611915745390 -0.2446064279884650 -0.1754677302882760 -0.07023080762478970 0.2982345878020340 
-0.008404230110947990 -0.1097627718409630 -0.1624712619330160 0.05701246320032540 0.04608906949103850 
-0.01682952319808580 -0.1061460815465590 -0.1837619555593760 0.2336019534918930 -0.07909578659302900 
0.001796377097462430 -0.06973015704920770 -0.1358775530918820 0.1159100858842210 -0.03933473534890790 
0.08863954614128860 -0.01424107667614050 -0.05471947340994930 -0.09003241300796470 -0.01818057661978570 
0.02555828893138510 -0.02904615895010040 -0.06422312074434950 0.02252491439519990 -0.02375033773372480 
0.1213049011482770 -0.05545516126098480 -0.1455376753510250 0.05327571988965160 -0.1291477066845330 
0.03715992243026680 -0.04494097445810660 -0.1019335067474830 0.1377561522533740 -0.1094128858241580 
0.1607169532567540 -0.01961652137899660 -0.06356067357233340 -0.06752087318628890 -0.1042935372954150 
0.04233515216790200 -0.002341144995710130 -0.01064102685831590 -0.02851318761099750 -0.02150624244030900 
0.08956258143038410 -0.004952834195257720 -0.02251173754427660 -0.06032137730653940 -0.04549775992731980 
0.07020800552647580 -0.003882521081894670 -0.01764692540877300 -0.04728585893422480 -0.03566564216220630 
0.04098706576669580 -0.002266595464874580 -0.01030218259136560 -0.02760523668829900 -0.02082141502171750 
0.03149470679704100 -0.001741665529317610 -0.007916258800557590 -0.02121202919256900 -0.01599929999725290 
0.03123188382287410 -0.001727131350054750 -0.007850197709859220 -0.02103501504741650 -0.01586578601863530 
0.03131016828374900 -0.001731460501231350 -0.007869874668795240 -0.02108774048728500 -0.01590555449727940 
0.03327685436190770 -0.001840218756114990 -0.008364205226450150 -0.02241232505228380 -0.01690463033461470 
0 0 0 0 0 
0 0 0 0 0 
0 0 0 0 0 
0 0 0 0 0 
0 0 0 0 0 
0 0 0 0 0 
0 0 0 0 0 
0 0 0 0 0 
0 0 0 0 0 
0 0 0 0 0 
0 0 0 0 0 
0 0 0 0 0 
0 0 0 0 0 
0 0 0 0 0 
0 0 0 0 0 
0 0 0 0 0 
0.01101745322484480 -0.0006092680470479600 -0.002769259342941510 -0.007420375142375620 -0.005596862370744600 
0.01193794164251810 -0.0006601712974744190 -0.003000625984459250 -0.008040334150501450 -0.006064470163801900 
0.008767337201873520 -0.0004848360420310890 -0.002203688090479640 -0.005904897412307720 -0.004453804220937490 
0.009853722370773400 -0.001527372370337560 -0.003027057602943950 -0.007553129769445060 -0.003538608510486320 
0 0 0 0 0 
0.0002851131314621580 -0.001611415629278060 -0.0009654339695733990 -0.001680614273709730 0.002237901215485580 
0 0 0 0 0 
0.002819315284399420 -0.0001559088731563630 -0.0007086406479507280 -0.001898839652679510 -0.001432211174805550 
0.02197220186983320 -0.001215068514417530 -0.005522757761822900 -0.01479851806500100 -0.01116187083693340 
0.009710182133848860 -0.0007856636483225810 -0.002977605269062640 -0.005595961087742000 -0.005457768506745720 
0 0 0 0 0 
0 0 0 0 0 
-0.006851475700380030 -0.02387528103952620 -0.01186334703523890 -0.01801227275491010 0.03969863324386630 
0.01678800804607100 -0.0009283812390498430 -0.004219700068807360 -0.01130690687337340 -0.008528302194279210 
0.02093808054972920 -0.004049707322873240 -0.01150644104373070 -0.003125434756093630 -0.01674140258625090 
0.002624895063165260 -0.02559170256024570 -0.03153085681579030 0.02363787034123250 -0.0007950105980094830 
-0.02389209355707840 -0.01331440264204870 -0.02559383102872000 0.07164453349549960 -0.01875977965377510 
-0.06186619429561440 -0.05410489150297730 0.1020358275333140 0.03801678814199650 -0.06685723407340220 
-0.09114916553845440 -0.06162945646474460 0.009265189196175430 0.1771537166406680 -0.08012056486812660 
-0.07675614232262090 0.001881412378421480 0.1095007432628570 0.03952098738142510 -0.1300865179544110 
-0.05282919605476630 -0.04558272342989170 0.06351666156645400 -0.04910731054153740 -0.001533484476893220 
-0.04608008267514960 -0.03480685888000770 -0.02985074038294150 0.01623769865000830 -0.01320148184093230 
-0.06820730520067320 -0.1269429167819470 0.1578338058484550 -0.1380145024788440 -0.01463807456483210 
-0.06513683158706350 -0.02735871248416450 0.1128671725941520 -0.09027621131268780 -0.1424005755012910 
0.02484153241453700 0.1316778335918860 0.09214386481428580 -0.1851968823056300 -0.2195745842066940 
-0.05249371947437450 0.1699965722137250 -0.1396009656549860 -0.2074707231587800 -0.07553266280930680 
-0.07441534184850020 -0.2103787967268120 -0.1820525314271360 -0.09929424102111370 0.2828471690712810 
-0.1389671113257450 -0.2523236172478010 -0.2044696653833870 -0.09708270348980580 0.3517759756264900 
0.01003501230488360 -0.06327565045021170 -0.1472423695966170 0.03828378617867540 0.001899278308257420 
-0.004916189572321080 -0.1057406895257130 -0.1408506423577210 0.1490035336136170 -0.02563444367907050 
-0.04082803513671190 -0.05349133133636380 -0.1121107043214010 0.1301351376632540 -0.01791441432708490 
0.02893237959891600 0.01289491959673370 -0.04387442220306000 -0.01214922064170230 -0.03647932884164900 
0.02422319166184000 -0.008665360867099880 -0.05794712296427730 0.02927591996795370 -0.04443820790368330 
0.05299852711699070 -0.02716976490197100 -0.1074287842326780 0.08109115757139820 -0.1004440449141730 
0.02373379524662440 -0.03168100648268030 -0.07153285028616350 0.09928574398921010 -0.07616702238468550 
0.1231666358184710 -0.01254387761088200 -0.04333546627076260 -0.06119417707230270 -0.07467083849275340 
0.05921730706154990 -0.003274732580073020 -0.01488439092931510 -0.03988350341502250 -0.03008237120010870 
0.08325265209125240 -0.004603893451239510 -0.02092572393304690 -0.05607157094360860 -0.04229231803802700 
0.06917255661590270 -0.003825260486121020 -0.01738666321285310 -0.04658847277787690 -0.03513963447911070 
0.04601530932328210 -0.002544658649648930 -0.01156604186659820 -0.03099181367080570 -0.02337576098338990 
0.01909155041268010 -0.001055767734853730 -0.004798700141728810 -0.01285836782970850 -0.009698500907899980 
0.01893223163910800 -0.001046957364975010 -0.004758655042991700 -0.01275106489471970 -0.009617567026851310 
0.01897968633493850 -0.001049581622075250 -0.004770582877593100 -0.01278302615093220 -0.009641673995675040 
0.01725914601254890 -0.0009544352919119720 -0.004338121557771890 -0.01162422344225140 -0.008767640115865540 
0 0 0 0 0 
0 0 0 0 0 
0 0 0 0 0 
0 0 0 0 0 
0 0 0 0 0 
0 0 0 0 0 
0 0 0 0 0 
0 0 0 0 0 
0 0 0 0 0 
0 0 0 0 0 
0 0 0 0 0 
0 0 0 0 0 
0 0 0 0 0 
0 0 0 0 0 
0 0 0 0 0 
0 0 0 0 0 
0.02612159965752470 -0.001444531298142440 -0.006565717360256540 -0.01759318281839260 -0.01326976345651010 
0.02775999608558960 -0.001535135049449180 -0.006977531644671130 -0.01869666071660180 -0.01410206826683780 
0.02601586222443360 -0.001438683990416740 -0.006539140040751730 -0.01752196750173870 -0.01321604887761700 
0.02405400456269080 -0.001976574475044970 -0.006408080685560160 -0.01680364715498800 -0.01125420177007260 
0 0 0 0 0 
-0.0001258363795348100 -0.001042854270507420 -0.0005564021880719820 -0.0008946228305437360 0.001631581878306500 
0 0 0 0 0 
0.02748972308429680 -0.004215183557611110 0.004747685628756430 -0.02669976768494400 -0.01773332343555370 
0.05008806583248710 -0.002769883150613420 -0.01258973752334110 -0.03373485968562360 -0.02544471986039890 
0.03776877195038960 -0.006205082416197130 0.006923005941450300 -0.03647578973066860 -0.02509551864335580 
-0.001959602258825390 -0.002909082440201040 0.01377304802267980 -0.008021176238168700 -0.003340212872351730 
-0.002054661997468340 -0.002204949676807400 0.01433206828631110 -0.008583894914802840 -0.004125138418799130 
0.006795510556781060 -0.04606818554260220 -0.01392398213421590 -0.05353743401836570 0.05700023662327930 
0.04316860635143010 -0.004750863207300950 0.001181752148576110 -0.03765052828563540 -0.02615495421533600 
0.04468896514168350 -0.007664672819335660 -0.02604088062927290 -0.004744238997642730 -0.03814077894217760 
0.008448674243272510 -0.02828432512165510 0.0008455887213330960 0.02853191927608410 -0.05051192035315680 
-0.04838965799425860 -0.03321680164042250 0.006539858043772540 0.09248858263850140 -0.04260421724436770 
-0.1046470538112290 -0.08377414030734160 0.1255715173498460 0.1033311581627010 -0.1065078362277400 
-0.1304580862606930 -0.07976818235247160 -0.04404020708329920 0.3027816145102970 -0.1088649661343910 
-0.1181151725265760 -0.03994501217416630 0.1060730701117920 0.1310549702027460 -0.1536856338107840 
-0.1077667743465100 -0.1053594841566300 0.04091707139667060 0.007709063920539540 0.05652911472259710 
-0.1154177554802590 -0.1364198297106440 -0.07763318009628760 0.05116485108097900 0.1034002802960090 
-0.1144965138593690 -0.1760988960271560 0.09295070161765840 -0.1395987857607130 0.1104436889156710 
-0.09199966731677720 -0.06523909073699920 0.04381549880172500 -0.03493042568732720 -0.05124685607677150 
0.03685470301126340 0.1461087486445550 0.05841077546157540 -0.1939866900392460 -0.1731048022299930 
-0.05142123429017540 0.2414867484031560 -0.1603302281156710 -0.1988686865244510 -0.09875437408811720 
-0.08145273062166840 -0.1202153605529270 -0.1810772667337840 -0.07467193050273290 0.2057382179606030 
-0.1629039241568850 -0.1985773604525770 -0.2171949117305240 -0.08403955481613660 0.3377565640680150 
0.004496288519002760 0.01967370022820030 -0.1271965568805620 0.05007611370694320 -0.07217302035958300 
-0.003826442464644650 -0.08009302356223810 -0.09301404948921180 0.07255708751776370 0.01141481966434320 
-0.06773396795854730 -0.009924765028198770 -0.07987771000007720 0.1229664835146700 -0.01994699662634600 
-0.01992428466269650 0.02770864994333350 -0.03217840946060210 0.05609148754599360 -0.04798905467605590 
0.003614651998773460 0.01217675908729800 -0.04313519855819420 0.05043964440562200 -0.05546614550657140 
0.001891613653739400 -0.006636852667187490 -0.06519756202273610 0.09418231586534310 -0.07138183200642060 
0.03843142981148050 -0.01893286225713500 -0.04594834090255920 0.03791310504738480 -0.05500526479287960 
0.07431258735198000 -0.005873362238241820 -0.02248688432646830 -0.04335521543747890 -0.04147440420250390 
0.06742417848672430 -0.003728574717956040 -0.01694720480350830 -0.04541092100212070 -0.03425145900322450 
0.05727070380522240 -0.003167084910493140 -0.01439510822989510 -0.03857244484998610 -0.02909349742921400 
0.04929861271454080 -0.002726226186559100 -0.01239130687171310 -0.03320315438377840 -0.02504367795360530 
0.03947654998008420 -0.002183063546511760 -0.009922511367048300 -0.02658788779955020 -0.02005407353235790 
0.001889295158128460 -0.0001044785167496190 -0.0004748781920329040 -0.001272460934653480 -0.0009597612771265530 
0.001873529011272870 -0.0001036066447018660 -0.0004709153388588550 -0.001261842262458490 -0.0009517520800583360 
0.001878225116362550 -0.0001038663405424860 -0.0004720957144528890 -0.001265005140554030 -0.0009541376997954110 
0.001612358813507040 -8.916386440658930e-05 -0.0004052696768804620 -0.001085941280273190 -0.0008190777112723420 
0 0 0 0 0 
0 0 0 0 0 
0 0 0 0 0 
0 0 0 0 0 
0 0 0 0 0 
0 0 0 0 0 
0 0 0 0 0 
0 0 0 0 0 
0 0 0 0 0 
0 0 0 0 0 
0 0 0 0 0 
0.0006998451460226130 -3.870161975288970e-05 -0.0001759075050906500 -0.0004713533535452410 -0.0003555210885115780 
0 0 0 0 0 
0.02179504780494390 -0.001205271848260750 -0.005478229726230390 -0.01467920286641130 -0.01107187663415640 
0.02246642852404750 -0.001242399377754720 -0.005646982639549400 -0.01513138511737580 -0.01141293780378500 
0.02168263947893100 -0.001199055638410430 -0.005449975664181500 -0.01460349463047690 -0.01101477324400070 
0.04351785714440310 -0.002406548890472470 -0.01093830216679950 -0.02930975233691830 -0.02210705615320450 
0.04490661274046580 -0.002483347438428360 -0.01128736871883950 -0.03024509440677330 -0.02281254350850700 
0.05271707747130820 -0.003471325821611600 -0.01356200933239720 -0.03602427625990140 -0.02594991122860490 
0.03996293235253210 -0.002209960619014100 -0.01004476456855100 -0.02691547164243520 -0.02030115560682570 
0.04666494812861470 -0.009192468452273600 -0.01543284251341650 -0.03759760741729850 -0.01383243133252330 
0 0 0 0 0 
0.03029258311720860 -0.01490055534949910 -0.01502202306652930 -0.03274038669953930 0.004360457070646240 
0.08513727303834090 -0.02095666859731590 -0.002761835077420640 -0.08416363883511820 -0.03572221526711530 
0.07251926207655950 -0.01438258836775480 -0.02403767156445490 -0.05851883496655090 -0.02135115697544550 
0.08518315935613630 -0.03415052622770660 0.001799503648384300 -0.1019354652082490 -0.02280844682004340 
0.07682358697521280 -0.02071792976169450 0.004291463914682660 -0.07708943293298200 -0.03864350677223250 
0.04411236556511840 -0.02251735281794600 0.01991123722278560 -0.06260593625368190 -0.02365968251807220 
0.04855146226952910 -0.06703740012500730 -0.002578480370732640 -0.1043683285424840 0.03458982598092070 
0.07371539560998870 -0.01978738640393890 0.01073340075191000 -0.07625009253841580 -0.04234290360158540 
0.05510209183224050 -0.02406107009146660 -0.04753115293765820 0.0006794897492168840 -0.04062070517817250 
-0.02227948147245480 -0.04375766520802160 0.04632163474471390 0.02924331657132040 -0.05581289268215510 
-0.07115942415246490 -0.05453226719032980 0.06099525927049870 0.09141363339088650 -0.06866756834270860 
-0.1453319521569130 -0.1168783628099190 0.1287936353101470 0.1623785286122980 -0.1206743375624860 
-0.1614756273262140 -0.1035647660025190 -0.07340289257825950 0.3678559290309370 -0.1083383320348440 
-0.1345766812382100 -0.07117757972833230 0.08982754695000740 0.1653842128193550 -0.1340659914835730 
-0.1269273464881470 -0.1409523615187390 0.001078223527102670 0.07516326467287050 0.07925414461061690 
-0.1590897644018910 -0.1860603650696490 -0.07505640995478380 0.09370912072331190 0.1386508716628690 
-0.1557843615500460 -0.1857042928811310 0.01286362247391060 -0.08765368910345700 0.1856845653276710 
-0.1197882108352720 -0.07924854504044030 -0.02121256523150720 0.02287393914208760 0.02273656519724120 
0.005145706357828640 0.1535377019033100 0.007011839581086390 -0.1734978725124600 -0.1019727077640080 
-0.07135052670113360 0.2757202424355450 -0.1654806473140280 -0.1581091773815410 -0.09724586665630230 
-0.1029888430376650 -0.006845315133795430 -0.1742015636547620 -0.03813448494295660 0.1135505143045340 
-0.1664947637011570 -0.08369443414291560 -0.2084378924449090 -0.03751647061454570 0.2309938012239380 
-0.02655309756664870 0.09599698114220400 -0.1137310971015820 0.06899817348182750 -0.1192279832761270 
-0.01585406612684390 -0.06056946026561580 -0.05839613279131490 0.03605250087488610 0.03677412941441370 
-0.04737979946546030 0.03883353399356860 -0.05699913851440980 0.07922457733080160 -0.04909026788668000 
-0.02746302819867200 0.01744813369415980 -0.03243037063599440 0.06402388584163500 -0.03713747194642840 
-0.01148128169591260 0.02126252410224520 -0.03113998665239620 0.05270808102855360 -0.04840592661706670 
-0.01906124626994180 -0.005105254646396060 -0.03542285196497920 0.07845058032247560 -0.03682113033288940 
0.03243991839420550 -0.008287949435922280 -0.02217477284764740 0.002800883610427660 -0.03018882440762200 
0.03340941085562510 -0.001847549164912950 -0.008397523571552470 -0.02250160329934020 -0.01697196898689140 
0.04647228965360100 -0.002569929781525840 -0.01168090480483350 -0.03129959491702010 -0.02360790683077720 
0.02855578034934060 -0.001579142127523610 -0.007177553642712270 -0.01923263011433110 -0.01450632639347770 
0.02521510290046920 -0.001394401790210330 -0.006337867551177130 -0.01698264734658950 -0.01280926342213510 
0.02329892474165620 -0.001288436636486490 -0.005856232262082640 -0.01569208041720560 -0.01183584559009760 
0 0 0 0 0 
0 0 0 0 0 
0 0 0 0 0 
0 0 0 0 0 
0.001166709632181910 -6.451934803485650e-05 -0.0002932548460595000 -0.0007857916867293800 -0.0005926880835962140 
0 0 0 0 0 
0.001227568122284260 -6.788483846665020e-05 -0.0003085517516940260 -0.0008267805448567420 -0.0006236041752049420 
0 0 0 0 0 
0.001247791394469150 -6.900319071172470e-05 -0.0003136349124118380 -0.0008404011396671520 -0.0006338775903758550 
0 0 0 0 0 
0 0 0 0 0 
0 0 0 0 0 
0 0 0 0 0 
0 0 0 0 0 
0 0 0 0 0 
0.0007673697597730560 -4.243574856721730e-05 -0.0001928799545025750 -0.0005168319187950030 -0.0003898235685935150 
0 0 0 0 0 
0.04749559548578740 -0.002626518861886360 -0.01193811481322990 -0.03198880257737860 -0.02412774583431500 
0.05574626230996950 -0.003082782896797530 -0.01401193675030330 -0.03754571684429140 -0.02831908168475300 
0.05656144589408610 -0.003127862762365770 -0.01421683480709170 -0.03809475189627710 -0.02873319465932890 
0.06049768101189220 -0.003345537594652700 -0.01520621553361190 -0.04074584926212270 -0.03073280071743060 
0.05931138572189680 -0.003279935154614390 -0.01490803779250750 -0.03994686642082960 -0.03013016312654030 
0.07399081400362870 -0.005294112511268360 -0.01927124256006750 -0.05095534684434340 -0.03579179491138440 
0.05239560095248420 -0.002897490446724720 -0.01316974118297160 -0.03528900980499710 -0.02661694689133920 
0.09569156980437890 -0.02584997638377090 -0.03556753285330900 -0.08362815607573320 -0.01791227642879250 
0 0 0 0 0 
0.07547385482110690 -0.04535243260239940 -0.04203592303249320 -0.08924825620620650 0.02315034448353240 
0.1481777090838110 -0.05000903273989240 -0.02635531604707020 -0.1523469070155710 -0.03453685694409820 
0.07110901348337890 -0.04210269826938270 -0.03925374104577740 -0.08350197855712610 0.02087538466063240 
0.1284310581021520 -0.08610572353461090 -0.02873172699847250 -0.1807906817057050 0.02443876556997090 
0.1731421715726340 -0.05442710184398750 -0.02582991204255670 -0.1552846827240920 -0.07066146344988030 
0.09160414220433540 -0.06626918841883550 0.02192639145809510 -0.1201279617486380 -0.03897281246558030 
0.07706010199225830 -0.09550146106931780 0.03311284139283280 -0.1354510568318650 -0.01623184504942770 
0.08728894153045530 -0.05079778944722890 0.02570170552548470 -0.1046186928140400 -0.05142484396331160 
0.04379859840960330 -0.05618009591719770 -0.07354709188248590 0.01624842456968010 -0.01507173419213060 
-0.06306168121281600 -0.06919838230379160 0.07735875139149060 0.01857609029255030 -0.01898174576145000 
-0.08863496482838650 -0.07345033440910320 0.1217164262877560 0.07406778438228210 -0.09085789158043460 
-0.1782523670319960 -0.1535465184166460 0.1021421584975860 0.2055917996792000 -0.09383139446803420 
-0.1783753451779470 -0.1355064740768730 -0.07377995810193390 0.3497363106525130 -0.06363912136556530 
-0.1232857679586010 -0.08506243465262230 0.07337604553532400 0.1148558033414250 -0.06845081143680530 
-0.1254081727353870 -0.1313161639405590 -0.03802986077433960 0.1332934136436000 0.06137760152994840 
-0.1605070146623350 -0.1493212773121900 -0.04762910738642290 0.1362671692315880 0.07461297511740670 
-0.1740327673581470 -0.1433624342003540 -0.05499325559193030 -0.004129894086041520 0.1754661052597980 
-0.1323194217742540 -0.05163435024719730 -0.06867979796838320 0.06627966613421120 0.04490219826540650 
-0.04082419984288600 0.1256852993127770 -0.03788288275431230 -0.1288284471363720 -0.01715706690354400 
-0.09396147992931270 0.2801344472452340 -0.1576563567286470 -0.09665770064111290 -0.09474441328301810 
-0.1214382242640250 0.09633632007736940 -0.1616673366440120 -0.004027436206656480 0.02594674406451480 
-0.1457101991037880 0.06243445190934830 -0.1799782164253700 0.02083398447693810 0.06032088206646910 
-0.06457044272972290 0.1394414762539530 -0.1060297321509140 0.08128941847249530 -0.1259614233184390 
-0.03710372446493390 -0.05127875606816320 -0.04477978124136780 0.04690611893884740 0.04385713979083840 
-0.02519187633223430 0.07558210954301670 -0.03741313207653090 0.03678202624888750 -0.07090656033111530 
-0.03026161042587130 -0.003179825136847700 -0.03273838747491610 0.03544519988187210 0.004473980493087600 
-0.01323568107056870 0.02663144358583990 -0.02053595214319620 0.03579212747691850 -0.03790290435634080 
-0.01610045796446810 -0.008996385764777980 -0.01729914538784660 0.04837125232678070 -0.01269264570934530 
0.008680894324177710 -0.001875440358827440 -0.005194672866139930 -0.0005501735763497430 -0.007355654552270610 
0.006712884378440190 -0.0003712242631616540 -0.001687297182361620 -0.004521200985277680 -0.003410142907811640 
0.01209759586212010 -0.0006690002176063900 -0.003040755398240280 -0.008147863012057090 -0.006145574451316020 
0.006342243256142960 -0.0003507277120868140 -0.001594135780188810 -0.004271570139154870 -0.003221857347791480 
0.005687827065695500 -0.0003145383254678290 -0.001429646935754040 -0.003830813683623570 -0.002889414152765070 
0.005674193241910870 -0.0003137843714440140 -0.001426220046333670 -0.003821631154318250 -0.002882488175068380 
0 0 0 0 0 
0 0 0 0 0 
0 0 0 0 0 
0 0 0 0 0 
0.0004552959565258880 -2.517798556528640e-05 -0.0001144395674464560 -0.0003066468020585970 -0.0002312901860917860 
0 0 0 0 0 
0.0004790453314342120 -2.649133221389070e-05 -0.0001204090212768200 -0.0003226422655854380 -0.0002433548602084290 
0 0 0 0 0 
0.0004869372471255980 -2.692775721725860e-05 -0.0001223926703848360 -0.0003279575570440880 -0.0002473639506093410 
0 0 0 0 0 
0 0 0 0 0 
0 0 0 0 0 
0 0 0 0 0 
0 0 0 0 0 
0 0 0 0 0 
0 0 0 0 0 
0 0 0 0 0 
0.04615102412276730 -0.002552163713582530 -0.01160015405829800 -0.03108321907130980 -0.02344470405388820 
0.07638633909751110 -0.004224184545493200 -0.01919986215524510 -0.05144703410930340 -0.03880423344750060 
0.08543780796413220 -0.004724733142953610 -0.02147496731926890 -0.05754329730272470 -0.04340237645439050 
0.07429612461346320 -0.004108595137431530 -0.01867448248078020 -0.05003925181305690 -0.03774240522333610 
0.06676261545886060 -0.003691990109357320 -0.01678091958690990 -0.04496535107349100 -0.03391538521729940 
0.07068346298960900 -0.004131521523723420 -0.01789117769698860 -0.04781384951152500 -0.03557461135575340 
0.05660786241627680 -0.003130429608192000 -0.01422850169463100 -0.03812601393119840 -0.02875677423630810 
0.07758007951219340 -0.03676689246101330 -0.03769107033833070 -0.08254867529606740 0.009085902876775200 
0.008601558778070490 -0.0004756684518038490 -0.002162019345479710 -0.005793243832299200 -0.004369588839839050 
0.1130476374307690 -0.07148590904179730 -0.06495444514179310 -0.1369962136178650 0.03998449819816990 
0.1823769223224560 -0.07622885550778600 -0.05563454501076390 -0.1947678745041040 -0.01170854424364140 
0.03280415135016260 -0.08096617654058170 -0.05258082749300660 -0.09593527934143200 0.1015311602065490 
0.1491901081471950 -0.1340704374172900 -0.07337310953196480 -0.2327623537086310 0.09161593280458640 
0.1888482043203400 -0.08731438243820290 -0.04545137904650720 -0.1791407141285920 -0.05195256191242840 
0.07985241339052320 -0.1114243942579080 0.04812652791777520 -0.1388821138861770 -0.03536572127179560 
0.05220463819576080 -0.1343702459809390 0.1142382952624550 -0.1562476605230310 -0.04843943672605930 
0.07337804070689690 -0.08465583114366110 0.06099498806208310 -0.1203102557806990 -0.05594375901792150 
0.008664780055009630 -0.09093228715840230 -0.05547851424698830 0.02353813739359860 0.005368754914498580 
-0.07155786961885370 -0.09676367277540280 0.07084175692582820 -0.01033106392187510 0.02884243598849290 
-0.09642756959261920 -0.07875969839792060 0.1660259523835090 0.05485888183472630 -0.1181864640740560 
-0.1900119870052990 -0.1789718375126470 0.04076344631583720 0.2349217730519490 -0.04687869715605970 
-0.1788205617423030 -0.1596181566881130 -0.04972796863439640 0.2705030554250120 -0.003491132405577260 
-0.09815889562060500 -0.07304686023942410 0.05068137096841700 0.03864125434758280 -0.003976842741947910 
-0.1176530048680840 -0.07933974858290220 -0.07424585475496590 0.1625947749003530 0.01859705381668000 
-0.1275789508066340 -0.05415576466436550 -0.04414561256445970 0.1567236499362890 -0.02760074687998440 
-0.1572368135209000 -0.06440370621602390 -0.09765533486550050 0.06630892565538770 0.09392720466780310 
-0.1147317070777220 0.01838701746327540 -0.09262510029868700 0.07515214816246060 0.002295707868311760 
-0.06221242636177980 0.04941828118462180 -0.06269951126197590 -0.06680519038114270 0.05118971183670840 
-0.08845987032808720 0.2620760735293710 -0.1304667351257760 -0.05168784708448310 -0.1144765411230500 
-0.1086577475064500 0.1685051183553700 -0.1405663553652220 0.01086376821204100 -0.05872880809978610 
-0.1032330514533190 0.1906345351069820 -0.1376134834595010 0.05054638680416440 -0.1121301617575530 
-0.07286112143395160 0.1462081696938500 -0.09874448387246370 0.07613577343803780 -0.1189090055805510 
-0.04596973439217120 -0.04580194313317620 -0.04446770476699250 0.07145724517948460 0.03029850598902420 
-0.005736115043444820 0.08832152015524130 -0.02139789664459050 0.002800429626271890 -0.07550082257124590 
-0.02486015114664450 -0.01135897606686570 -0.02925305199267440 -0.004322652941718230 0.03538445290948130 
-0.006515638437337420 0.03252281784299380 -0.01136397614374780 0.01166898427928470 -0.03140722748387100 
-0.006397783691624930 -0.003444064756250790 -0.006591701553713030 0.01872464389495900 -0.004767508153552200 
0 0 0 0 0 
0 0 0 0 0 
0 0 0 0 0 
0 0 0 0 0 
0 0 0 0 0 
0 0 0 0 0 
0.001015795274569320 -5.617374455847640e-05 -0.0002553222144182550 -0.0006841492177302120 -0.0005160236429047580 
0.001007318474422310 -5.570497529162500e-05 -0.0002531915534091930 -0.0006784400001992630 -0.0005117174314057080 
0.001009843374429840 -5.584460292290980e-05 -0.0002538261921767150 -0.0006801405479456850 -0.0005130000797232100 
0.0008656367207251650 -4.786993722831520e-05 -0.0002175795555959970 -0.0005830157908282870 -0.0004397431502623560 
0 0 0 0 0 
0 0 0 0 0 
0 0 0 0 0 
0 0 0 0 0 
0 0 0 0 0 
0 0 0 0 0 
0 0 0 0 0 
0 0 0 0 0 
0 0 0 0 0 
0 0 0 0 0 
0 0 0 0 0 
0 0 0 0 0 
0 0 0 0 0 
0.01949613583477900 -0.001078141414592200 -0.004900393512900900 -0.01313086053268100 -0.009904030160303870 
0.07581334482762980 -0.004192497812392940 -0.01905583887663990 -0.05106111620702780 -0.03851315255954000 
0.09582423824191810 -0.005299105455864940 -0.02408561775722200 -0.06453867159462560 -0.04867867938953840 
0.08091992713902100 -0.004474893150812430 -0.02033938875769870 -0.05450045519695820 -0.04110729458115390 
0.06393385697171370 -0.003535559024617340 -0.01606990537068500 -0.04306015132056840 -0.03247837689881280 
0.04618208630078820 -0.002553881460157310 -0.01160796160010840 -0.03110413978764510 -0.02346048362941900 
0.04731236319895210 -0.01384887588046040 -0.01818370958660840 -0.04234423053935020 -0.007261494939305900 
0.01033579548704990 -0.03733045798398470 -0.02318766509603510 -0.04125379010495090 0.04964045546559890 
0.02999967119350020 -0.02052356618773760 -0.01810708718693240 -0.03780394902054190 0.01293013227240880 
0.1464680105855460 -0.08309445894639820 -0.07882181047292100 -0.1686107131774520 0.03758188980357050 
0.1920797974253710 -0.09460833485113930 -0.08215397548284020 -0.2133908356048730 0.02004380107055030 
-0.02235665918283950 -0.1286086848798110 -0.06711065029276480 -0.1060755044827250 0.2052511730811020 
0.1542248823946140 -0.1646013977900030 -0.1134946254500250 -0.2549390982922510 0.1472015946307650 
0.1171059528075750 -0.1135356379360040 -0.04115169825649370 -0.1510062245846790 0.01716405107749260 
0.009953316597447780 -0.1480677638491810 0.09482369511483200 -0.1086990614016030 -0.01871242866916130 
-0.02130801518768820 -0.1837734535130860 0.2170211891748040 -0.1736221725861490 -0.03515030007651780 
0.02737288547427050 -0.1135029739746100 0.1175084030204940 -0.1163688440165320 -0.05557090310041960 
-0.03990664470822530 -0.1158623891951590 -0.008040428519995190 0.03238820235628960 0.01453905867349920 
-0.05270469855176610 -0.1231020032253490 0.04554494585985880 -0.05209462714006880 0.07001591810154890 
-0.1042575169579690 -0.09844696097560900 0.1672816533995130 0.04064528462360180 -0.1089692905140420 
-0.1792216126837960 -0.1930618491521640 -0.03151230414414640 0.2416157394384210 0.004663854596689460 
-0.1631791553674710 -0.1706553473422330 -0.01598834220588830 0.1609198635110290 0.05792470024291940 
-0.07776055111145960 -0.03799910432954270 0.01378947334216170 0.0005391967130391800 0.02185040899706720 
-0.1162095946862820 -0.01075677934697840 -0.1095386590823910 0.1602574977075800 -0.01712483563098780 
-0.09522491978769980 0.04124878233783150 -0.06909452575229780 0.1456382534405930 -0.09161647771333220 
-0.1188233004720510 0.02784977577065370 -0.1099186067540020 0.1080786688948820 -0.01629621341199250 
-0.08034248809873990 0.1012717601074660 -0.09054581777135630 0.06324281609010860 -0.07208400188312860 
-0.05639696644558130 -0.01945102861972110 -0.05781996208788880 0.0007585009721773480 0.06672305773108370 
-0.06574950152750420 0.2370656087515760 -0.1025267560990590 -0.009793141360675760 -0.1433789363095190 
-0.07650383067584580 0.2120382685335470 -0.1111016878889070 0.01724623064672870 -0.1311142905153980 
-0.06402218559281320 0.2629385177232810 -0.1041513808486670 0.05013231386105900 -0.2114716347202860 
-0.05841884553008490 0.1357419479806920 -0.08158262003679310 0.06522494254940530 -0.1147910012821470 
-0.04343079314066870 -0.03650135325427440 -0.04294280495273680 0.08779693755264000 0.007866018590496310 
0.002084410551461090 0.07754250448793680 -0.01054810067315480 -0.01735469509786740 -0.05828736855830230 
-0.01401763555608510 0.001927399727097940 -0.01823856875579310 -0.02649205796760030 0.02999018368045680 
-0.0005386253665075340 0.03646134887172390 -0.005292685397266510 -0.008318355713834260 -0.02577787111873260 
-0.0005663683049338460 -0.001075444796536740 -0.0004775741255909370 -0.0006510505777177960 0.001940416886151180 
0 0 0 0 0 
0 0 0 0 0 
0 0 0 0 0 
0 0 0 0 0 
0 0 0 0 0 
0 0 0 0 0 
0.0007791146708150790 -4.308524522196040e-05 -0.0001958320618518310 -0.0005247422447266910 -0.0003957899792800260 
0.0007726129676457170 -4.272569933493540e-05 -0.0001941978454971660 -0.0005203632765934520 -0.0003924871163522940 
0.0007745495651939200 -4.283279368623700e-05 -0.0001946846132414380 -0.0005216675962047260 -0.0003934709072269730 
0.0006639431050702470 -3.671622749120470e-05 -0.0001668834538594810 -0.0004471729366370280 -0.0003372828643105340 
0 0 0 0 0 
0 0 0 0 0 
0 0 0 0 0 
0 0 0 0 0 
0 0 0 0 0 
0 0 0 0 0 
0 0 0 0 0 
0 0 0 0 0 
0 0 0 0 0 
0 0 0 0 0 
0 0 0 0 0 
0.002428930389153930 -0.0001343204862697380 -0.0006105166081713780 -0.001635911159721980 -0.001233895785058360 
0 0 0 0 0 
0 0 0 0 0 
0.05675965502278270 -0.003138823779062040 -0.01426665507592310 -0.03822824791042440 -0.02883388482712900 
0.07930762842194100 -0.004385732609754000 -0.01993413418617780 -0.05341455439228550 -0.04028824739884550 
0.07529498423935380 -0.004163832336185320 -0.01892554788535540 -0.05071199468633420 -0.03824982556265700 
0.04833571596354400 -0.002672977744199870 -0.01214928080910430 -0.03255463289973370 -0.02455452674210640 
0.02756714031013700 -0.001524470074588480 -0.006929056952098060 -0.01856677024436400 -0.01400409760060630 
0.03327971542430750 -0.02904642584228080 -0.02360383897995240 -0.04779488923352890 0.02371996282952440 
-0.01702311787386860 -0.03550974007303580 -0.01613855932001900 -0.02254014973955680 0.06307920003955410 
0.06795948789831420 -0.05369993222236810 -0.04505561350646320 -0.09236233044971070 0.04005325660215660 
0.1919450923782240 -0.09177733532842300 -0.09370743726728260 -0.2049941608965850 0.02369002634984100 
0.2125460074067220 -0.1145434418459730 -0.1109993706928280 -0.2390449006097140 0.04551958133092750 
-0.03760072715449010 -0.1716398722125830 -0.08785425641957100 -0.1367388725914470 0.2785112762630260 
0.1697533949139590 -0.1785601829591770 -0.1415694296124310 -0.2599006785192080 0.1570473893053450 
0.02780110175282700 -0.1314863817244930 -0.01767842971256190 -0.1220970778960940 0.09293195736228580 
-0.06765090627623300 -0.1758276973393780 0.1384436438967170 -0.05969499954234990 -0.006739475327269020 
-0.09371113468344600 -0.2309539106771150 0.3039827285157950 -0.2014690635753730 0.005636394666289840 
-0.05085673628705270 -0.1348730590514200 0.1884186562756580 -0.09038192471208830 -0.04507939570313180 
-0.09544672871179000 -0.1318255093389920 0.05304594097826480 0.04273030595103290 0.01942291020473470 
-0.04999794586262600 -0.1417217151927430 0.03869199307684360 -0.07823228287075650 0.1000777358676260 
-0.1177217800367130 -0.1231619127556670 0.1199656565864110 0.06209185258975100 -0.07419074736049900 
-0.1671396625289230 -0.1902315078321170 -0.07696467742415790 0.2319915759826660 0.04644555038130670 
-0.1332367558988740 -0.1602950869715930 0.01024610815647270 0.05465935082591150 0.1052636787105980 
-0.07945191837060240 0.008799730858562130 -0.04230962404122380 0.03797746850055200 -0.003255310235508110 
-0.1165811098665690 0.06721837147398650 -0.1364282088905180 0.1382852704271010 -0.05446328924378980 
-0.07453413955321890 0.1144734568464730 -0.09734398297407420 0.1151377832859410 -0.1177176203097750 
-0.07245331489363280 0.1044585870158480 -0.09388864872280160 0.1115730821819800 -0.1081475462012460 
-0.04293836279757760 0.1512306012473550 -0.06767638381698050 0.04229026839449950 -0.1259821995915200 
-0.03683684457355790 -0.04053633380350680 -0.03658240685498830 0.05014009576273260 0.03270547551548200 
-0.04082760628068800 0.2065074135017770 -0.07304175787020470 0.02254897433759080 -0.1625876404866370 
-0.04032535059390660 0.2217964517850180 -0.07424682428240080 0.01457304228550540 -0.1707708667729060 
-0.03514091664365050 0.2683653977365500 -0.07431857015297710 0.02770951989851680 -0.2262701267892980 
-0.03476254062339210 0.1147023127603010 -0.05443451704878770 0.04814443852543770 -0.1053200369394670 
-0.03052862870382050 -0.02169264225684370 -0.03164533058228890 0.07629902114408650 -0.008688889363615790 
-4.336808689942020e-19 0.05512261097640190 -0.007115307897367350 -0.01132212413946610 -0.04062160942449420 
-0.006847458753583830 0.01896431225105890 -0.009900218136124860 -0.01443717487097710 -9.731484805254520e-05 
-0.0001803495059367000 0.03775426208436930 -0.005268925031285580 -0.008361453996982230 -0.02723811699739300 
-0.0003452156410648000 -0.0006555104896090540 -0.0002910933689008140 -0.0003968316033834370 0.001182732602531290 
0.0006798097407155180 -0.0001978402827292610 -0.0005168528681148560 0.0001503936726236580 -0.0006836359481460220 
6.273645211512240e-05 -0.0002964272740566100 -0.0006482812659354420 0.001069735589505400 -0.0006503266130304410 
0.001044942523215460 -5.778559503762410e-05 -0.0002626484348239230 -0.0007037802082058260 -0.0005308304349853840 
0.0005348447817485460 -2.957705642125100e-05 -0.0001344343269405200 -0.0003602238051318910 -0.0002717009613807280 
0.0004808773033624050 -2.659264074102110e-05 -0.0001208694911580730 -0.0003238761186983190 -0.0002442855013048700 
0.0004854671244363470 -2.684645904775220e-05 -0.0001220231520479390 -0.0003269674133478140 -0.0002466171287992590 
0 0 0 0 0 
0 0 0 0 0 
0 0 0 0 0 
0 0 0 0 0 
4.112852340401620e-05 -2.274418109243580e-06 -1.033773825707020e-05 -2.770050995284110e-05 -2.089327545182010e-05 
0 0 0 0 0 
4.327388996778310e-05 -2.393057441749290e-06 -1.087698051927920e-05 -2.914543777746410e-05 -2.198312091312180e-05 
0 0 0 0 0 
4.398679513323250e-05 -2.432481283994810e-06 -1.105617068689430e-05 -2.962558719680930e-05 -2.234527648691770e-05 
0 0 0 0 0 
0 0 0 0 0 
0 0 0 0 0 
0 0 0 0 0 
0 0 0 0 0 
0 0 0 0 0 
0.01678243286401790 -0.0009280729300230530 -0.004218298735425290 -0.01130315192733660 -0.008525470003753260 
0 0 0 0 0 
0 0 0 0 0 
0.02657912341814840 -0.001469832481857440 -0.006680716890807550 -0.01790133007085580 -0.01350218536630150 
0.03909396215271370 -0.002161906339519420 -0.009826347136184840 -0.02633021071701050 -0.01985971905035420 
0.05676446203043510 -0.003139089607843420 -0.01426786332710250 -0.03823148548260790 -0.02883632678532910 
0.02281431332223790 -0.001261637498150200 -0.005734424193236560 -0.01536568933053830 -0.01158966315914710 
0.02705011248846410 -0.003450448320857970 -0.007893913574902390 -0.02004197293532630 -0.01082274184650790 
0.02130909615138660 -0.04094744218056490 -0.02763190523526320 -0.05145261686408330 0.04856100865840150 
0.03037241853438860 -0.03910547359054820 -0.02859750930700280 -0.05537090788908900 0.04045784855858990 
0.1125338698277550 -0.09116139755291050 -0.07586204720600850 -0.1550320365616390 0.06966878539336560 
0.2362912549196420 -0.1143764724041530 -0.1161387460082980 -0.2536568041259200 0.03124682934673850 
0.2461686859206670 -0.1464840411234040 -0.1362999031069190 -0.2897530723687360 0.07335878751130540 
0.01153682915948480 -0.1906454569860690 -0.1093286216302990 -0.1850289445852130 0.2778722343549020 
0.2080228548860100 -0.1741733871464790 -0.1451874144001200 -0.2646849735735760 0.1085450200270930 
-0.02614215795515020 -0.1399947554830710 0.01377084814649920 -0.1166979033648900 0.1330997517582450 
-0.1178086636978160 -0.1823493539337480 0.1575151018086620 -0.01922174429802450 -0.01485793297544230 
-0.1359259218046550 -0.2568059508867790 0.3392701137377430 -0.2215795177791190 0.04193472712583150 
-0.1318991580954110 -0.1440940007829240 0.2498793394176530 -0.05196581655458300 -0.04203492869337300 
-0.1393319880619890 -0.1256754698799290 0.09235335753324910 0.05838420932097480 -0.003937079333239830 
-0.07995214757567340 -0.1433216836687060 0.07707539594839950 -0.07538251164785120 0.09841055275207390 
-0.1255807768346710 -0.1345934621304080 0.03750713873340850 0.1166483959933730 -0.03590642861151040 
-0.1571338280986480 -0.1401633433339220 -0.07458732154170580 0.2060698800539380 0.03577374352972440 
-0.08787804735851580 -0.09072739553214030 0.01125988058503550 -0.02420942070852810 0.09448987914113610 
-0.09422194063791220 0.06418814792195900 -0.09755146842243060 0.1075124932574620 -0.06185631821025780 
-0.1076669694618440 0.1539765029967290 -0.1378499219298900 0.1054607366134160 -0.1155660327944160 
-0.06053874775334470 0.1607036826550920 -0.08841340075224830 0.06736223198449930 -0.1366804388495930 
-0.03683867337960540 0.1305038784343170 -0.05889035923401630 0.07933873371062830 -0.1401420153474190 
-0.01463981679736730 0.1280100405712450 -0.03455537200355230 0.01796472072061810 -0.1134549572898230 
-0.02005585204240410 -0.007055719748227940 -0.02374031741049100 0.06205383637296160 -0.02104949178378000 
-0.02351155590665950 0.1626304036434750 -0.04731155487099360 0.03517483426924810 -0.1508864800758140 
-0.01275393678608000 0.1862810583232910 -0.03998572591636960 0.001092387548744630 -0.1551784860772000 
-0.01480012338397360 0.2106662313917390 -0.04375411089131410 -4.019987283595950e-05 -0.1749337969073190 
-0.01296345696394860 0.07969839948815130 -0.02716189092376210 0.02428362715618240 -0.07688014189521610 
-0.01412502369058490 0.008402380361513020 -0.01827658581442660 0.04065313241369110 -0.02438402099344050 
-0.0001037984013896450 0.03204883101940170 -0.004249877001430030 -0.006742596543493470 -0.02340743186837970 
-4.878909776184770e-19 0.02327458773715690 -0.003004318101061240 -0.004780574921746680 -0.01715178573416370 
0.0002691340235063090 0.03785623695536760 -0.004956107410159740 -0.007959951453448170 -0.02804515580983290 
3.646066541507880e-05 0.001124034360169710 -0.0001545167400669120 -0.0002558462301161630 -0.0008483446254464880 
0.001505735007407950 -0.0002149832749437280 -0.0006628511011983850 -0.0005141715859851730 -0.001042974808309280 
0.0006061749181180240 -0.0002743202694805210 -0.0006722608407751760 0.0005057412355903040 -0.0008162809188741610 
0.001900763445919570 -0.0001051127160661830 -0.0004777607695637490 -0.001280184951802820 -0.0009655871632987050 
0.0009728893099882530 -5.380103348691350e-05 -0.0002445377126954700 -0.0006552515817212810 -0.0004942274279589340 
0.0008747217955979140 -4.837234424671060e-05 -0.0002198631076982140 -0.0005891346880340710 -0.0004443583651085640 
