solver_type L2R_L2LOSS_SVC_DUAL
nr_class 5
label 0 1 2 3 4
nr_feature 1799
bias 1.000000000000000
w
0 0 0.009811698905515790 -0.01620301038974210 -0.001363157729592680 
-0.003213633305341740 0 0.01252801393723370 -5.421010862427520e-20 -0.006193623481177070 
0 0 0 0 0 
0 0 0 0 0 
0 0 0 0 0 
-0.005014761764516140 -0.006038858235286860 0.03745539476161430 0 -0.02965560309618900 
0.02888720272487420 -0.01411021566646480 0 -0.008149133848146380 0 
0 0 0 0 0 
0 0 0 0 0 
0 0 0.01512718655200900 -0.02798110642395370 0 
0 0 0 0 0 
0 0 0 0 0 
0 0 0 0 0 
0 0 0 0 0 
0.01633752353463320 -0.004750824901295050 -0.009552692669613800 0.01577788194353220 -0.01083199317329590 
0 0 0 0 0 
0.02372750811758470 -0.01158991612845310 0 -0.006693574361448290 0 
0 0.004619019208491900 0 0 -0.0008309568614498170 
8.809142651444720e-20 -0.01129135734125480 -0.02628297441976480 0.01977745492339230 0.009846213380378050 
-0.0004445544538017130 0.01113877014195620 -0.008618761578910800 0.003730700648151830 -0.005842983233778440 
0 -0.001517401992817730 -0.03852548740970580 0 0.03630727047521310 
-0.02691365744361180 0.009486625478208820 -0.03533348149523710 -0.01661244658559320 0.06238788103619810 
-0.02401098046153210 -0.03501155801416590 -0.03609775117054210 0.04158274946057270 0.05744086960059510 
0.01131365225028420 -0.06199494193891970 -0.07782144486005850 0.01008268719984020 0.09713734707189250 
0.01011630179456250 -0.07720201287705210 -0.07279303317772570 0.03694918996934050 0.05614618634784110 
0.08320144052852530 -0.07120593839325460 -0.1359874771552810 0.05736501922665570 0.06701267140168230 
0.1060582873958920 -0.04203282005903530 -0.2897818766032630 0.1002183590671330 0.09747215699983030 
0.0004523716932785820 -0.1158507084239840 -0.2929747036350020 0.1542786729796800 0.2086308338785550 
0.03759649042107340 -0.2132065354674790 -0.6026911784329610 0.2678030484951610 0.3662582854747210 
0.03137065049510920 -0.2523119259246330 -0.5349003242988890 0.6027884671073180 -0.1908258607451950 
-0.3262300940159760 -0.3382048649587190 -0.5023314273245470 0.2759264242846680 0.5621288236728490 
-0.1345115435683020 -0.2722252164249510 -0.1226249423625530 0.3878971799094370 0.05349460859387900 
-0.02260996197515650 -0.05713750042966810 -0.2750086359221810 -0.01216250695086110 0.1983997087721320 
-0.02932901265382470 -0.1282989959678110 -0.3666040616099420 0.1726541061916450 0.1888811580319780 
-0.01383166949290810 -0.1047262787013890 -0.2723339348084070 0.09031689164635550 0.1704494820952380 
0.005120207137182690 -0.1024474989495760 -0.1999993028924740 0.06488285811938940 0.1972890892174610 
-0.006469426910131030 -0.1063628540621210 -0.1378342208234140 0.03938112793834260 0.1764998933121180 
-0.02502274180264430 -0.03814137188531970 -0.07889572961852140 0.01750315045951510 0.07690929208201340 
0.03521332920009410 -0.04810606354790140 -0.03389113707385670 0.01428213963214830 0.03731883884674090 
-0.008876038181059380 -0.03651502613271520 -0.01267099643377320 0.01072531920947170 0.003042581525760950 
-0.004221667309360910 0.01709392253009870 -0.02635234500196950 -0.009181795042243870 0.02939961691132520 
0.006519824453093920 -0.009906601253221300 -0.02055056038106010 -0.001747808996042210 0.02489323365235120 
1.694065894508600e-20 0.01115554160078490 -0.04725899177971160 -0.02881499896368650 0.04309448756894760 
0 0 0 0 0 
0 0 0 0 0 
0.02691081834335360 0 0.02468448200972640 -0.03736175119374430 -0.01257326331052340 
0 0 0 0 0 
0 0 0 0 0 
-0.003004239125595060 -0.01411451117468630 0.008717507119352200 0.002892690442568300 0 
-0.007341362021824510 0.03231412987390320 -0.002584383997624260 -0.01154254370495780 -0.02588096582499720 
0 0.01132574418886130 0 -0.003474079863280360 0 
0 0 0 0 0 
0 0 0 0 0 
0 0 0 0 0 
0 0 0 0 0 
0 0 0 0 0 
0 0 0 0 0 
0 0 0.02921999808527530 -0.02746398113794560 -0.01386380405521220 
0 0 0 0 0 
0 0 0 0 0 
-1.084202172485500e-19 0 0.005379697591162560 -0.008884016601271250 -0.0007474114753095220 
-0.001638853592362590 0 0.01075368515458020 -0.007207993827634460 -0.003764964253035270 
-0.005056932822842440 -0.001317112229134940 -0.002580235890098920 0.005838037659593130 0 
0 0 0 0 0 
0 0 0 0 0 
-0.002184038842786370 -0.002412638922386750 0.01558225176351870 0 -0.01224515666138410 
0.005902872774366720 -0.002883311641189050 0 -0.001665211435840160 0 
0 0 0 0 0 
0 0 0 0 0 
0 0 0.03344038995523890 -0.03754677512057360 -0.002581889231866210 
0 0 0 0 0 
0 0 0 0 0 
0 0 0.008998720089070240 -0.005390445447294080 -0.002140943031734160 
-0.01115638479544530 0.007666191492219410 0 -0.003836267319604690 2.574980159653070e-19 
0.001494526243892200 -0.003884904485789020 -0.01028390121522400 0.008209983418308080 -0.005939276254698770 
0 0 0 0 0 
0.004848530143223610 -0.002368308438785970 0 -0.001367779410149640 0 
-2.710505431213760e-19 -0.007239285805198280 -3.642241673193490e-20 0.01675968639888050 -0.0004237702643738810 
-6.437450399132680e-20 -0.006190462318348210 -0.01441351142993300 0.01084294702185780 0.005400278132838720 
-0.0006222814426351470 0.01605609929667410 -0.02064944144882350 0.01456496222994240 -0.0003171869334636520 
0 -0.0007738991322789510 -0.02879413186340920 0 0.02343745948437730 
-0.01601091453747600 0.03206145003695610 -0.02096964656714030 -0.02767351663248620 0.02902700847439300 
-0.02838322775641190 -0.01472405124589870 -0.01918531200323320 0.02338697535724870 0.03021282544327200 
-0.01727466742872580 -0.01153975887171300 -0.04419685691244570 0.02077349753032630 0.03103369238843660 
-0.03823400963043010 -0.05910690450195250 -0.06328080473946940 0.03973523318386360 0.06985074095926340 
-0.02188299792976270 -0.04716825600767550 -0.1388495017382140 0.1043079856649090 0.04235972552091080 
-0.006086154603866350 0.03415417261899320 -0.2060474672630470 0.06835641824026380 0.03798450168688610 
-0.08822910511142280 -0.06412241213200570 -0.2058568506068050 0.1635881291560510 0.09411792011160190 
-0.1430101254699850 -0.08345064871264300 -0.4386350871894780 0.2706605335690690 0.2402781225302460 
-0.1713214867310380 -0.1327253083744620 -0.3162469593240010 0.5897912718309640 -0.3531290230179560 
0.3188420188794130 -0.4377881809752240 -0.6916043308010360 -0.1309625745264730 0.5521811731987960 
-0.1312666014340430 0.03147986670906920 -0.5943865115092370 0.2776514026926290 0.3396427051657870 
-0.1882677182690080 0.07162093437351630 -0.2263284051875660 -0.01247625367866250 0.1068089434769980 
-0.1106581161771320 -0.06815198542307860 -0.3280280252650760 0.1391533967894730 0.1437193829200390 
-0.04529235711065970 -0.005335603820570170 -0.1757807300577640 0.06192692740937860 0.04006363305200270 
-0.02445272008669320 -0.07564009253773260 -0.1988392451935260 0.03651821589671910 0.1528575559817810 
-0.03861035875239890 -0.09851675962085190 -0.1079615132115400 0.04367459195759470 0.1675742051976140 
-0.005573270665739460 -0.03496725891528720 -0.04202764257078530 0.007309010970184480 0.06636244886598510 
0.008019964813441000 -0.02636734135206540 -0.02990603209926760 0.03306657016125630 0.02869617696353870 
-0.03068525875498270 -0.002197540314476690 0.008960327067548540 -0.005273140742358990 -0.006096669251096740 
-0.009567507800141830 -0.01113349363251330 -0.01751039557044240 0.01480678468526530 0.02148815103909450 
0.006330243890480250 -0.002539952241889630 -0.01155563348440610 -0.0004906354751642020 0.007511215846453170 
0.006543962838400490 0.007557802481784770 -0.04869466728670560 -0.008011210767936220 0.02503439538203890 
0.0005252040049345220 0 -0.0009568113842185020 0 0 
-0.007153263981537610 0 0.01168640338893500 -0.007163989508419190 -0.003305381793548430 
0.009621484199271280 0 0.01329421535339630 -0.01864920490827020 -0.005475932205807090 
0 0 0 0 0 
0 0 0 0 0 
-0.001315573891320060 -0.006180827029367890 0.005420904836941270 -0.001699226239237090 0 
-0.003157337926536120 0.01186285788536380 -0.0007744842167524620 -0.004113472299296790 -0.009501175514116210 
0 0.005775779246263850 0 -0.001771673281649070 0 
0 0 5.963111948670270e-19 0 0 
0 0 0 0 0 
0 0 0 0 0 
-0.001797150319185220 -0.008443368587614140 0.005296651015241400 0.001579120935256040 0 
0 0 0 0 0 
0 0 0 0 0 
0.01303746152310220 -0.009463778804557100 0.02726565132099120 -0.02391019632719180 -0.01045234579096480 
0 0 0 0 0 
0 0 0 0 0 
1.084202172485500e-19 0 0.001725306938647770 -0.002849166746921720 -0.0002397001285899080 
-0.0003947326117748150 0 0.008866259402496100 -0.01210050523309320 -0.001778781049443510 
-0.008489386027441620 -0.002211117795372580 -0.004331601640813750 0.009800675047759500 0 
0 0 0 0 0 
0 0 0 0 0 
0 0 0 0 0 
0 0 0 0 0 
0 0 0 0 0 
0 0 0 0 0 
0 0 0.04394553104264480 -0.04117632561453570 -0.004334377207939020 
0 0 0 0 0 
0 0 0 0 0 
0 0 0.01510670820935910 -0.009049274306203410 -0.003594133538229680 
-0.01872891345746200 0.01286971000361400 0 -0.006440179318474150 -2.778268066994110e-19 
-0.008448580130114490 -0.002984352217521710 -0.01030798254121660 0.001838013747149970 -0.001904885267000430 
0 0 0 0 0 
0 0 0 0 0 
0.01010101642072210 -0.02103017717838910 -4.573977915173220e-20 0.02625737934742170 -0.0001020737844362420 
1.524659305057740e-20 -0.001984933742666480 -0.004624539248928500 0.003476724403900960 0.001733145180366030 
-0.003038371475974800 0.01464940169122220 -0.02672062613451950 0.02498863021131890 0.004011207785218250 
0.001360985775903040 -0.0001864443442106720 -0.02040915985052340 -0.0003648477347392400 0.01261828234985370 
-0.0004386458382739660 0.04107373582646730 -0.009917388819486440 -0.03527065958418940 0.004987882658036070 
-0.02843357707729470 0.001400609936088310 -0.006055445157915120 0.007691878955975020 0.008343595292848290 
-0.02257125348338940 0.01123936303822510 -0.01579542588967300 0.03219735869606800 -0.01298143675877060 
-0.06737560808654830 -0.04033791530393090 -0.05468749524895150 0.04000605556884570 0.07210438028029900 
-0.06939268866330580 -0.03268234147609670 -0.1347134426738440 0.1354522149012760 0.01284207144119190 
-0.05305334022676590 0.06168325677997100 -0.1515533263887490 0.04615168965777860 0.006291061266041740 
-0.1128068813946510 -0.01410745634345190 -0.1554587025586270 0.1617145070427000 -0.01353899891491170 
-0.2265371507072360 -0.01546880673715330 -0.3259632831395250 0.2780447869172010 0.1338288864812960 
-0.2834717071039080 -0.05511232230163540 -0.1729160790250130 0.5513008946842780 -0.4479405878342360 
0.1406803619108870 -0.4348367299487700 -0.6659264363029210 -0.3997958583918320 0.8372624944137590 
0.1844530510523020 0.1832791899809100 -0.9196922176419110 0.1863525419343820 0.3137193071883850 
0.02409057564884490 0.09625094358374440 -0.3089795299927540 -0.07775160331571440 0.03701405237671780 
-0.03632140710836920 -0.05203648268825070 -0.3395561096214630 0.1038181073692630 0.07561594256378450 
-0.05013838484998090 0.03558695069835630 -0.1695350646226630 0.02524552795171910 -0.002260909236749660 
-0.02384290640417840 -0.05420820714028650 -0.2285948154010400 0.01324774821373810 0.1243701317387520 
-0.04515170284672690 -0.08787738132907240 -0.09207419250580280 0.04139385450040510 0.1507316470076490 
0.03472318357587920 -0.03380098591759070 -0.03567200682683580 -0.006231367456133430 0.04918192377212000 
0.009234739363139290 -0.01434724444409910 -0.02640449458270680 0.04198366136868050 0.01763897938984960 
-0.02176690344041510 0.01634899731124410 0.009792443532893760 -0.01948272159248920 -0.006624179493963100 
-0.01762403614410810 -0.02170282024633710 -0.008572412765197680 0.03078813996625740 0.01073372917108800 
0.002219745506751420 -2.371692252312040e-20 -0.003181424631645170 0 -0.001068806789693540 
0.006143334004926650 0.004038341303159610 -0.04127548273261120 0.005686988464490850 0.008924121067622510 
0 0 0 0 0 
0.0001767993654793720 -0.005769190784572300 0.01923405717958530 -0.01535853815198020 -0.005407482371305860 
0.001409123421424040 0 0.002114922650918930 -0.005272439195182520 0 
0 0 0 0 0 
0 0 0 0 0 
0 0 0.002554208621667940 -0.004724578693212380 0 
0 0 0 0 0 
0 0.001391148323155460 0 -0.0004267234272396630 0 
0 0 7.589415207398530e-19 0 0 
0 0 0 0 0 
0 0 0 0 0 
-0.002627049726415420 -0.01234240057791750 0.009645682592058430 -0.001211890412627120 0 
0 0 0 0 0 
0 0 0 0 0 
0.003481319837579120 -0.007107146440507240 0.02497806424449330 -0.01484831588356890 -0.007610356250284490 
0 0 0 0 0 
0 0 0 0 0 
0 0 0 0 0 
0 0 0.007498655932614960 -0.01238325810395150 -0.001041802331536460 
-0.008687757766872780 -0.002262785051607300 -0.004432818307040670 0.01002968771729050 0 
0 0 0 0 0 
-0.005172103479123280 0 0.01099873979610130 -0.003500729272373320 -0.004056336616305480 
0 0 0 0 0 
0 0 0 0 0 
0 0 0 0 0 
0 0 0 0 0 
0 0 0.03975444540544890 -0.03436125333808790 -0.004435658730926700 
0 0 0 0 0 
0 0 0 0 0 
0 0 0.01545970711586210 -0.009260728971936420 -0.003678117765053830 
-0.01916655254328080 0.01317043690555240 0 -0.006590667182911530 -6.572975670693370e-19 
-0.008645998356911650 -0.002199265368586450 -0.009212682723047980 -0.001433910706949540 0 
0 0 0 0 0 
0 0 0 0 0 
0.02068525232945430 -0.02878402074993050 0 0.02679379947577870 0 
0 0 0 0 0 
-0.01573305189176120 0.02778161127702400 -0.02347645793457920 0.02484456254509460 -0.01392989992302080 
0.002684490295812920 -0.001443431922350030 -0.01617887977201260 -0.001572222725518820 0.01153619271612490 
0.007952734642512510 0.03504823276606820 -0.01035674108121910 -0.03284291645709880 0.003190201841094350 
-0.02050047222279590 0.008733350228835830 -0.002312640545670370 -0.003126597836895760 0 
-0.009499255802341980 -0.003121315545663240 -0.005388321314254900 0.04049335452531350 -0.006243222586734690 
-0.06627858837303850 -0.02496160715697820 -0.05623124606094010 0.03628941702392840 0.06121382698460530 
-0.08555199894847540 -0.01085185980626190 -0.1234706487667520 0.1436007379964650 -0.01856333447949300 
-0.05505038709561460 0.01577554886594690 -0.1353419750851810 0.03788148774273460 0.04137112290436290 
-0.1161790118140700 0.03140393788086180 -0.1516013682219940 0.1418304685319110 -0.06107046854164370 
-0.2408833156786320 -0.02882985151599560 -0.2449913724348790 0.2870195018856320 0.08953085335358820 
-0.3144145805213000 -0.02045645852646780 -0.1334391796755060 0.5070332614889200 -0.4243855015735150 
-0.4681731610019820 -0.3787870117875410 -0.5424747748712590 -0.4228351871801400 1.114030974865960 
0.4877307945275200 0.1990079948567090 -0.9415166490701270 0.06177995799139750 0.1779815829379920 
0.4136705905371400 0.005428495804300360 -0.4083127709004710 -0.1607798544500250 -0.03023961210449050 
0.1930404216717110 -0.06224326188139030 -0.4462108639014540 -0.005590184852929720 0.01626930494934880 
0.08884839708826000 -0.02317872523309630 -0.2743257236478670 -0.04254980576336830 0.06070021741930120 
-0.001819847369435740 -0.008074789407987100 -0.2834923736011030 -0.02522082078360540 0.03733160090560400 
-0.03880198358963800 -0.03997561234485290 -0.1148780577576240 0.01711195865880820 0.03972294830449170 
0.06282445446546340 0.01074130669477700 -0.03745438903450340 -0.04498139924223820 -0.05853195634283260 
0.01314889319002530 0.03738091976382490 -0.04707550689090320 0.02633725426058550 -0.04112969643531470 
0.002731052178140830 -0.003742706609664990 0.004393157116480790 -0.007818153680149890 -0.01298225359274270 
-0.04409349955027810 0.02057059253698790 0.01003800336076830 0.01519099286293140 -0.04061520889129030 
0.001878995667476050 -0.001441468050820680 -0.005236047077249700 0.004284598208033580 0.003857742642036730 
-0.008363379997596130 0.02081223019952080 -0.03536828053413370 0.01023509453446740 -0.01022824218039700 
-0.0007067442712220760 -3.879527908466360e-05 -0.0001146179040639690 0.003056381973356930 0 
0.01406861669598900 -0.01220197497569370 0.01866227207421730 -0.01935471849643660 -0.005158233732868660 
0.006161344680306840 0 -0.002322873259941750 -0.001651709143004130 0 
0 0 0 0 0 
0 0 0 0 0 
-0.01216103735502870 0.02768128382506060 0 -0.008313503983807070 -0.02217043638383780 
0 0 0 0 0 
0 0 -0.004720946840440820 0.002382193648049880 0 
0 0 0.001545712506393960 -0.002859140131150270 0 
0 0 0 0 0 
0 0 0 0 0 
-0.001797449835434250 -0.008444775774348350 0.01159361775503810 -0.01006662789117810 0 
0 0 0 0 0 
0 0 0 0 0 
-0.01272524557199480 0 0.02368489380353160 -0.006799454239952370 -0.006791496176304490 
0 0 0 0 0 
0 0 0 0 0 
0 0 0 0 0 
0 0 0.004742857333919860 -0.007832340494607530 -0.0006589340640542550 
-0.005494957497744900 -0.001431198707280520 -0.002803732429706300 0.006343720577974120 0 
0 0 0 0 0 
-0.01312110949826350 0 0.02790270337592250 -0.008881000214321500 -0.01029052050470220 
0 0 0 0 0 
0 0 0 0 0 
0 0 0 0 0 
0 0 0 0 0 
0 0 0.02217264261058860 -0.01846831600523060 -0.002805528981699130 
0 0 0 0 0 
0 0 0 0 0 
0 0 0.009778177040475340 -0.005857358534208150 -0.002326388618676500 
-0.01212273574261190 0.008330226620578490 0 -0.004168559601186600 1.304430738771620e-19 
-0.005468544907865570 -0.001391022868147350 -0.005836806187529710 -0.0008887453392998790 0 
0 0 0 0 0 
0 0 0 0 0 
0.004354439170645170 -0.01638758768991290 -2.752857078576480e-19 0.02368107561083400 0 
0 0 0 0 0 
-0.01512189950926990 0.02309348584844290 -0.01414444790123040 0.01894291550998870 -0.02150346243256730 
-0.001856249493170160 -0.002920133335078430 -0.009688073765293310 -0.001227184978409160 0.01241966857585890 
-0.009654760173998670 0.02929505435799990 -0.01786943866741680 -0.01560013480141050 0.01372417347379070 
-0.01203929414626800 0.005845954966610630 -0.001805604905988700 -0.002607403302191820 0 
-0.0003863599103328680 -0.01563565093622500 -0.002097017266237160 0.03243052085581380 0.003769628356017550 
-0.04650666713176330 -0.02506451774618420 -0.04521809555892560 0.02881688151212560 0.03614763940789590 
-0.06456688112719680 -0.02042065625483000 -0.09371681888763490 0.1337261996302510 -0.02341957742286820 
-0.05499514529331330 -0.05091860847230090 -0.1407945335316560 0.02994418402729000 0.1102943799799810 
-0.1052812920422150 0.03742149328594310 -0.1722417349181050 0.1086941656243370 -0.02654274460148660 
-0.2338410442750390 -0.05427958899802010 -0.1847028886925110 0.2589695739747100 0.07937367842639520 
-0.3141868881582640 0.001271316886361620 -0.1236257655945660 0.4749337201533430 -0.3684872126395250 
-0.5146804165260430 -0.4089931906671980 -0.4891115363994140 -0.2467808357629970 0.9369913214402420 
0.09413474957464120 0.3237749546947180 -0.7043831907369570 -0.1845575118811320 0.2243432000757070 
0.5162955831062350 -0.008092856570149570 -0.4002735612878850 -0.1631364754095100 -0.1151191769917720 
0.2917467585162860 -0.07287087095346550 -0.4532516794176080 -0.1016428834468290 -0.03980464302710540 
0.3214220854108710 -0.09446658511499880 -0.3856258567496610 -0.1514275094690970 0.1326985594598040 
0.08145029091112090 -0.02395056277190030 -0.3848630705906520 -0.1097290755920980 0.06343227456126200 
0.04012599504585450 -0.06370633448303300 -0.1945873473618420 -0.05449451373566600 0.0005944283501450940 
-0.03299507628485700 0.1178379749707780 -0.06677857583056490 -0.07567154360022610 -0.2018863759588990 
-0.01623528335112270 0.05297607376206090 -0.1027075040143470 0.003583781331499050 -0.06157673227977900 
0.01682507791135330 -0.03223246842877500 -0.02858958365936740 0.03280859885063250 -0.02878864185824290 
-0.03414690626762540 0.02372358310206610 0.009885744442000050 0.01233984002430870 -0.06787804751818580 
0.02981526005190470 0.0001064661515323400 -0.02571997404869580 0.02044752991098910 0.001001063514214600 
-0.009291413296882450 0.03586930389046390 -0.02967287517586740 0.01891266934930280 -0.03383638036125690 
-0.005474627145129150 0.001574691980362000 -0.003547834846792210 0.01765074991443170 -1.355252715606880e-20 
0.001917129239195400 -0.003706018020381150 0.008577422490713580 -0.002390571012086430 -0.005414750049782260 
0.005738499086314150 0 -0.003012320413035060 -0.001380849739901600 -1.016439536705160e-20 
0 0 0 0 0 
0 0 0 0 0 
-0.01480137130437700 0.03369128373798980 2.168404344971010e-19 -0.01011848378657120 -0.02698395303929860 
0 0 0 0 0 
0 0 -0.01611062870960580 0.008129436461633460 0 
0 0 0.008937758916722740 -0.01653237914271950 0 
0 0 0 0 0 
0 0 0 0 0 
-0.0003132243283017360 -0.001471590009041890 0.008925265290595000 -0.01452647274638170 0 
0 0 0 0 0 
0 0 0 0 0 
-0.01128489962426660 0 0.02100404645804950 -0.006029837158233150 -0.006022779852426230 
0 0 0 0 0 
0 0 0 0 0 
0 0 0 0 0 
0 0 0.001212604030645780 -0.002002490689573780 -0.0001684693520691710 
-0.001404893114186460 -0.0003659138782631410 -0.0007168289083459100 0.001621895958608660 0 
0 0 0 0 0 
-0.01418840106824110 0 0.03017235291254490 -0.009603394662974520 -0.01112756753847660 
0 -0.001474602609566840 -0.001118918768884860 0.002487740968384270 0 
0 0 0 0 0 
0 0 0 0 0 
0 0 0 0 0 
0 0 0.003014875186573650 -0.001805981302092590 -0.0007172882319212110 
0 0 0 0 0 
0 0 0 0 0 
0 0 0.002499981774035110 -0.001497548011137010 -0.0005947866480571770 
-0.003099413958504120 0.002129784993544770 0 -0.001065773608292020 -4.235164736271500e-21 
-0.001398140220162320 -0.0003556421409880050 -0.001498395148046320 -0.0002159385497499690 0 
0 0 0 0 0 
0 0 0 0 0 
5.421010862427520e-20 -0.006591116001018920 -4.235164736271500e-22 0.01151290650753600 0 
0 0 0 0 0 
-0.005531938017392530 0.004514122924601960 -0.003285856288167840 0.01033680721087110 -0.009007054035232730 
-0.005309241051526720 -0.002409651190307040 -0.001929530486768720 0 0.007751845661926460 
-0.01177292289412680 0.01239812652328150 -0.01452813894290220 -0.004033991026790290 0.01703353084550190 
-0.004291593824991820 0.001524765557137570 -1.389134033497050e-19 -0.0003796612969683050 0 
-0.004123438578572390 -0.009423585473111810 -0.0006679663420226330 0.01385010837567270 0.002781182143613070 
-0.02431027247835000 -0.02750185509990600 -0.02731367490973110 0.01733510678845540 0.01338680108001280 
-0.01808154929648460 -0.05039826913705010 -0.05835759182701180 0.1062235446867180 0.001159535392453610 
-0.05738592363965050 -0.06504451818764500 -0.1247204777187200 0.02137545999211680 0.1341182484109070 
-0.07433199654682700 -0.01054152640618080 -0.1886911177372240 0.09785459326019700 0.05884055983452110 
-0.1858408142864990 -0.05915396428631170 -0.1489836300469170 0.1974027918512890 0.06760532835036890 
-0.3188225483742370 0.01322020984467310 -0.1110426698562850 0.4687485818362550 -0.2945402977809010 
-0.4386961323657240 -0.3634208513671360 -0.4561665162097510 -0.03105030466209820 0.5577389471273380 
-0.3228297690901140 0.4372412953596080 -0.4753688251135090 -0.4643495674560180 0.2644375747849620 
0.2453305826777210 0.08311324490547240 -0.3464603432136050 -0.2187005888040640 0.08334323366491220 
0.3001827058634080 -0.04236137579270340 -0.2611210580256750 -0.1316275678821530 -0.2105091918769560 
0.3448590819588670 -0.09175688796125630 -0.3855706089733620 -0.1950436304623790 0.07855527951350450 
0.2558215126214450 -0.1050764920810910 -0.4091895930087430 -0.2155903295685420 0.07259336552135760 
0.2552290527944830 -0.1522214441919180 -0.2778516670838380 -0.1516403731415250 0.07035995279948210 
-0.08605451802448650 0.2064985606429050 -0.1275539618962100 -0.1170896706299240 -0.3199380948050510 
-0.01601430901994100 0.008144226935322350 -0.1591925506157680 -0.002395208418628410 -0.04153232505889190 
0.02166365972649280 -0.009475962972555390 -0.08138332976937810 0.05716649149644300 -0.08748077752946490 
0.01832278126223460 -0.02195519743296820 -0.03254978795488090 0.02249613388178730 -0.03856831614236750 
0.01919072649667680 0.02547315369588750 -0.05564672194491850 0.02034311615640550 -0.02403710310860280 
0.03140794811266250 0.04806903336725920 -0.03940114205186510 0.01920431864510420 -0.06521912893587240 
-0.006439312653270610 0.02384298391315540 -0.02224936564207380 0.02166229302562520 -0.01892260962570410 
-0.001339802585969540 0.01818739792838430 -0.01141670401124120 0.008604771464456160 -0.01866079983383590 
0.01707414745791470 0.003382232261501470 -0.007143799157423070 -0.005941054882469400 -0.002769563483689060 
0 0 0 0 0 
0 0 0 0 0 
-0.004081272073050230 0.009289902441972240 0 -0.002790031034998290 -0.007440449381012540 
0.001994668244270910 0 3.388131789017200e-21 -0.0002197539988652810 2.710505431213760e-20 
0 0 -0.02198092657399880 0.01109159357912640 0 
0 0 0.01495837949009150 -0.02766886010185090 0 
0 0 0 0 0 
0 0 0 0 0 
0 0 0.002436740647008710 -0.004507295466814300 0 
0 0 0 0 0 
0 0 0 0 0 
-0.007610206028867940 0 0.01416451420107860 -0.004066345702889690 -0.004061586462401280 
0 0 0 0 0 
0 0 0 0 0 
0 0 0 0 0 
0 0 0 0 0 
0 0 0 0 0 
-0.005988373575495350 0 0.006151618843462460 0 -0.002262552282551450 
-0.007009142478224720 0 0.01490529619582590 -0.004744125933829120 -0.005497075106498910 
0 -0.006384538599019660 0.007509283446799020 -0.002801416321131070 1.897353801849630e-19 
0 0 0 0 0 
0 0 0 0 0 
0 0 0 0 0 
0 0 0 0 0 
0 0 0 0 0 
0 0 0 0 0 
0 0 0 0 0 
0 0 0 0 0 
0 0 0 0 0 
0 0 0 0 0 
0 0 0 0 0 
0 0 0 0 0 
0 0 0 0 0 
0 0 0 0 0 
-0.001368296461633210 -0.0006210147863825580 -5.421010862427520e-20 0 0.001730274630178600 
-0.008474899523102270 0.001178785066718190 -0.001470304129760890 -0.003835920917978300 0.01079965852268950 
0 0 0 0 0 
-0.01308749982372210 -0.006415963890399430 -0.008796846772832600 -0.005343638206563790 0.01913671249860150 
-0.02644871510476100 -0.02788614260476530 -0.008624093178270550 0.0008962063119587740 0.01081964373467110 
7.066576368392340e-05 -0.04142010777980660 -0.04248454693297940 0.06780412432124260 0.007046494419895870 
-0.06035607977103310 -0.04144164882505970 -0.07263819524033360 0.02958047413600220 0.08785204809661290 
-0.06273313678893010 -0.04503892389186900 -0.1476704683390140 0.09064356304927440 0.09032022426758500 
-0.1328236304130630 -0.05345499619874380 -0.1043955155552090 0.1420278162904390 0.04150794155714910 
-0.2882176591711700 0.01618747418515580 -0.07465285049129550 0.4332143148200080 -0.2766691761998130 
-0.4037864368684560 -0.1832480166633020 -0.4147404525923400 0.03287012275277390 0.1579290492699380 
-0.3767431047979560 0.3136284002778270 -0.3577894770485870 -0.5730475010731980 0.3727002664079980 
-0.2368121366840630 0.2375289042217520 -0.3198384132493270 -0.3283409207942860 0.4290175413425190 
0.1988111315048690 0.03997146991641910 -0.1006422998628610 -0.1327044979751030 -0.2413210259849840 
0.2658622980781440 -0.05571306967116350 -0.2485595518651950 -0.1482461046689030 -0.05443285656265310 
0.08644772900812480 -0.1049263799698550 -0.2333123801496290 -0.2416220053999750 0.01515468864766660 
0.4004605143065120 -0.1450776354236870 -0.4297736671368850 -0.2265137692418970 0.1497457944874520 
0.07920856402802360 0.1678367591473620 -0.2385672123637940 -0.1460430149007730 -0.2244507893494590 
0.08394932685147370 0.003201977763862500 -0.2059088594254010 -0.03753976733158920 -0.04021286910124870 
0.03032068111055540 0.02260173588230470 -0.1389790117567380 0.04991010630484490 -0.1067726033444180 
0.04694673042227280 -0.01944806626177470 -0.1129152028356780 0.03037489650626690 -0.02705285346246910 
-0.01169828715506860 0.05641725320114320 -0.07451250136380100 -0.02100440936558820 -0.04177350498585390 
0.04521102784314140 0.06973842395256200 -0.06343659114384720 0.01453760635753820 -0.08510405174433540 
-0.001494420449858260 0.08562103709736880 -0.05730874599331000 -0.005109325214907360 -0.08133921559679800 
0.02192693224192490 0.03552097315506720 -0.02811095341229360 0.009089394105480220 -0.03501301890008590 
0.01165868687927570 0.0003347395269874450 -0.02512534839510790 0.003482540595667450 -3.354309227793470e-05 
0.008095151322064600 -0.003053471455641220 -0.01321027090221290 0.004494976146172660 -0.0002421337337140570 
-0.003167261897041660 -0.0006243655119733340 -0.001276452090347460 0.006749590915515510 0 
1.084202172485500e-19 0.009283609611449700 -0.001279018499362830 -0.006609130512173280 0 
0.01383443110974360 0 0.002405156224837100 -0.001250568799532130 -0.003977231030257840 
0 0 -0.01588220228986890 0.008014172302867140 0 
0 0 0.01451565062970670 -0.02684993430115470 0 
-0.003180227132739870 0.007238919453950090 1.084202172485500e-19 -0.002174060498754370 -0.005797780343418540 
0 0 0 0 0 
0 0 0 0 0 
0 0 0 0 0 
0 0 0 0 0 
-0.003096434136779090 0 0.005763245454425140 -0.001654511270602960 -0.001652574834893130 
0 0 0 0 0 
0 0 0 0 0 
0 0 0 0 0 
0 0 0 0 0 
0 0 0 0 0 
-0.01178606285906070 0 0.01210735527100670 0 -0.004453059430557800 
0 0 0 0 0 
0 -0.008776053394885530 0.01765507131930910 -0.01190711623442330 1.626303258728260e-19 
0 0 0 0 0 
0 0 0 0 0 
0 0 0 0 0 
0 0 0 0 0 
0 0 0 0 0 
0 0 0 0 0 
0 0 0 0 0 
0 0 0 0 0 
0 0 0 0 0 
0 0 0 0 0 
0 0 0 0 0 
0 0 0 0 0 
0 0 0 0 0 
0 0 0 0 0 
0 -0.002249348433464120 0.007556525719301240 0 -0.006936962833828070 
-0.007084394414050960 -0.008297106146433800 0.01597272005250660 -0.005111993888569590 -0.0003091032162208750 
0 0 0 0 0 
-0.008114257740769490 -0.003924401038767850 -0.01812026796255310 -0.002013512766492660 0.02867427977188280 
-0.02493065382499290 -0.02064375874586640 0.005728208107440130 -0.01738926510324300 0.007142150067476820 
-0.005275012719709690 -0.01998810863260100 -0.02330172101496530 0.03237206582288780 -1.355252715606880e-20 
-0.05804240366346000 -0.03257297852388430 -0.02268333841329630 0.03915121438880030 0.03793508236542120 
-0.08353450867369570 -0.06167549482920340 -0.05408607018162640 0.04937373353556300 0.05933702981583010 
-0.1862081410333650 -0.05947496635778080 -0.008095588156562490 0.1174649775142330 0.002698202189468090 
-0.3096416635400490 0.01004552989228720 0.03696977464850450 0.3685078353048580 -0.3521361762459930 
-0.3348287873804210 -0.08992979064855610 -0.2469567025817630 -0.08342995672482180 -0.1050350172959600 
-0.3104540439337030 0.09063856189849560 -0.2638412386825660 -0.4275407192150010 0.4280054010741400 
-0.5224485443552670 0.3351429511799100 -0.3567388559938370 -0.3779840224036720 0.6129224813826730 
-0.1147859807801780 0.1481507725968040 -0.03128756898329270 -0.1920494670810220 0.03757479022748700 
0.2221289670309960 -0.02126285126423970 -0.1006005147988350 -0.07801946936522830 -0.1972969639346440 
-0.2126049891042460 0.05462222264689390 0.008066689498071420 -0.2933476859073100 -0.07816030037700250 
0.3358577635884440 -0.05575311870724900 -0.5449197029450000 -0.3160618674925130 0.2520367832145050 
0.2950091924725970 -0.001730108463979450 -0.2671401702873500 -0.1179538239514640 -0.03182985586941510 
0.3000399627287020 0.06646482622969770 -0.3183910734394140 -0.1480199300113140 -0.07377533296587780 
0.2155353966103190 0.06949146660537200 -0.2260666283173880 -0.05662200528093960 -0.1378686341382270 
0.1024584028990320 0.02846605894006470 -0.2160745897170680 0.03006957534105810 -0.08223124145078580 
0.03376587029872060 0.07794565241266020 -0.08788953383510930 -0.04763672443208940 -0.08935823314298110 
0.1157912061616550 0.09622929674521170 -0.1410854206272400 -0.02552672355026450 -0.08411135536985050 
-0.006339869985163700 0.1757871627639810 -0.08383816321691180 -0.07315434124982450 -0.1494382920834410 
0.06595827397108950 0.03643118929580290 -0.04861138824059950 -0.01633361873743040 -0.05172274340741850 
0.01209282203578630 0.002192208746585210 -0.04284722748870610 -0.001617926437828720 -6.955816006065990e-06 
0.02696739859730260 -0.009881129741362080 -0.04332822740803850 0.005325779588222530 0.004573408666638250 
-0.001710203212372860 -0.01019615910476040 -0.004217985779479210 0.01940156070969610 -3.457170340765850e-05 
-0.01080006337021060 0.04628086881278670 -0.003084729857538420 -0.02182328713499130 -0.02243312011400570 
0.01905935683583380 -2.710505431213760e-20 0.007466917604949520 -0.0008896502989913910 -0.01145150525646440 
0.0003878340977648910 0 -0.004525152766380650 0.002283395797678740 0 
0.009585894565334770 -0.001634991020960850 0.008053664323519860 -0.01577442909872900 -5.181247666111870e-06 
-0.01331729728166610 0.03031319410297430 2.168404344971010e-19 -0.009103944077508550 -0.02427838050063580 
0 0 0 0 0 
0.001634980354023500 -0.001648004338629680 5.421010862427520e-20 -2.168404344971010e-19 -5.222486560354070e-06 
0 0 0 0 0 
0.001497399240607030 -0.001509327276690760 -2.710505431213760e-20 -2.168404344971010e-19 -4.783022248744300e-06 
0 0 0 0 0 
0 0 0 0 0 
0 0 0 0 0 
0 0 0 0 0 
0 0 0 0 0 
0 0 0 0 0 
-0.01178061274005360 0 0.01210175657974930 0 -0.004451000243861370 
0 0 0 0 0 
0 -0.005657715027739540 0.02001000255137080 -0.01715558313220970 1.626303258728260e-19 
0 0 0 0 0 
0 0 0 0 0 
0 0 0 0 0 
0 0 0 0 0 
0 0 0 0 0 
0 0 0 0 0 
0 0 0 0 0 
0 0 0 0 0 
0 0 0 0 0 
0 0 0 0 0 
0 0 0 0 0 
0 0 0 0 0 
0 0 0 0 0 
0 0 0 0 0 
0 -0.005500512798652650 0.01847858064761990 0 -0.01696351364847700 
-0.004403633381355780 -0.01651263174971920 0.02251020871802360 -0.002964288165431490 -0.002679629096290070 
0 0 0 0 0 
-0.007993633919062370 -0.006117795229765010 -0.01524942818036510 -0.0005939894152373920 0.02923088700350050 
-0.01993011197120680 -0.01932972528233560 0.02019661821988250 -0.02929032070522350 -0.002503900773502030 
-0.003627762500717700 -0.02022253762548870 0.01177627995264610 0.0001269684077627910 -0.01404104346956740 
-0.04649457912251470 -0.05418153007836070 0.006538833235809230 0.03468794340265350 0.01917412615294820 
-0.08811850264198730 -0.1017046823953520 0.06114218000229620 -0.003893772283090690 0.01971004684304560 
-0.2207844156077140 -0.1160114290996600 0.08228687324589850 0.09427680401017620 0.002345631498052130 
-0.3269512062871270 -0.01765985688449130 0.1856003207789340 0.2275924794154110 -0.3680186412787200 
-0.3704545474196420 -0.03077846703647490 -0.08037257254452340 -0.1095613341432460 -0.2112070657371430 
-0.3289099759587540 -0.01456744608355350 -0.1488682428299140 -0.1894977944926620 0.2740482687123180 
-0.6020539853448730 0.2840487507096390 -0.3263981220945950 -0.3534445721426620 0.5970174906165950 
-0.3852778002099670 0.2011979894439860 0.005956695250232960 -0.2696441210399500 0.2645153592609150 
-0.05360267944752820 0.06258195395566520 0.05216736475994430 -0.06148278573602530 -0.2318184267325570 
0.01237579029514620 0.2402304656532810 0.07548395626420520 -0.5235325728870170 -0.1791457247364520 
0.1544209602645130 0.1374793155079420 -0.5371298835462900 -0.4443816122130840 0.2548911539940740 
0.4664198745776770 -0.09966919696790400 -0.4023723568385760 -0.06292915634139440 0.006255419875853630 
0.3154876381110750 0.1079681184242710 -0.4259255554348470 -0.1552081692797340 -0.04771869245393140 
0.3562576432387240 0.1843242267015360 -0.2919327635761190 -0.06528692168592380 -0.2443169221905660 
0.1361241510146380 0.06278137243080710 -0.2717994088079740 -0.0002123426026023320 -0.09466387427746320 
0.1707219756185970 0.06220876172449100 -0.1637631771331350 -0.05998328846289880 -0.1430524393809660 
0.2054643503951220 0.09255559463291880 -0.2163732984885380 -0.01612203518562640 -0.1023851541877540 
0.07634151045060590 0.1574737467576540 -0.1077844977875370 -0.1021778844130190 -0.1438156408447710 
0.06373092513696510 0.05899798340870930 -0.1030464053005390 -0.02911360542639800 -0.06605728245265520 
0.03922463126973060 0.03552043767604980 -0.06482214328928520 -0.03069295762348220 -0.03402892158856210 
0.06478544646812800 -0.01739258446808330 -0.06887800047219150 -0.004063009016405790 -0.001121465947184120 
0.01212776106482910 0.005420822125440270 -0.01776589213948190 0.02444966612896290 -0.02783921764012530 
-0.002476173953502930 0.06192126478152600 -0.01629011237501640 -0.02496508309080500 -0.04028837290343870 
0.02834446423929290 0.008240193655932780 0.009072512745176400 -0.002518227918194510 -0.02234937593071640 
0.001391197527905580 0.006102052690066200 -5.929230630780100e-20 -0.001974465536882860 -0.004887243374653790 
0.02075269400339200 -0.003160525075044880 -0.004049196359313540 -0.001696022745838680 -1.001562880702580e-05 
-0.002107570908601160 0.02681980142728740 -0.004126945520166020 -0.009103529176025070 -0.02731104298279540 
0.002015306863365580 -0.0003037665275455810 -0.003122440449204230 5.421010862427520e-20 -9.626289023676260e-07 
0.003160504455284550 -0.003185680513988930 0 -4.336808689942020e-19 -1.009534579485560e-05 
0.001666036589970120 0 -0.003035168736016630 0 -6.098637220230960e-20 
0.002894552805868280 -0.002917610337472650 0 -4.336808689942020e-19 -9.245837780057460e-06 
0 0 0 0 0 
0 0 0 0 0 
0 0 0 0 0 
0 0 0 0 0 
0 0 0 0 0 
0 0 0 0 0 
-0.005977473337481020 0 0.006140421460947520 0 -0.002258433909158610 
0 0 0 0 0 
0 0 0.01233134252211300 -0.01354780174262560 2.710505431213760e-20 
0 0 0 0 0 
0 0 0 0 0 
0 0 0 0 0 
0 0 0 0 0 
0 0 0 0 0 
0 0 0 0 0 
0 0 0 0 0 
0 0 0 0 0 
0 0 0 0 0 
0 0 0 0 0 
0 0 0 0 0 
0 0 0 0 0 
0 0 0 0 0 
-0.005522069880219320 -0.002953952537344440 -0.0009071825310893600 -0.002460246645488380 0.004680144069901290 
-0.01398282058283730 -0.01634984583689780 0.02950440117680510 -0.007429982439527660 -0.01598054562898340 
-0.005433249370788960 -0.02978853892526170 0.02369323197900910 -3.388131789017200e-19 0.002595434148635180 
-0.003466840308942830 -0.006114024775558780 0.03475284946599830 -0.009954473889454630 -0.02568037419790640 
-0.03791977214249730 -0.02360547108564850 0.01004803135348000 -0.01444466497070640 0.01719291539304720 
-0.04591780668115090 -0.03406056366105650 0.04858919365087050 -0.04342895318843670 -0.008975168636589210 
-0.03996904503879250 -0.05542628583481720 0.1057160628239840 -0.03470997663933520 -0.05399914179363620 
-0.06785507377379030 -0.09590526580339780 0.09543071935052120 -0.009061320413226520 -0.02235583062482350 
-0.1404939839845020 -0.1527857550031210 0.1681365501108290 -0.05118875875179650 0.008254162176160480 
-0.2324951268094050 -0.1762686319476960 0.1358616920664420 0.03984886795406050 0.05051803479406520 
-0.2778223001249280 -0.03817394335463680 0.3526402472059840 0.04583640393063150 -0.3563027890563420 
-0.3979494734073660 -0.03741540332074770 0.003489569411553910 -0.03119939741693870 -0.1580246676380520 
-0.2844029196090470 -0.01765321471375300 -0.06682035972627420 -0.04232496968986370 -0.01040579433343360 
-0.5099289634309730 0.1670526162798960 -0.2275807199803810 -0.2727998509020710 0.4059728981873600 
-0.5062155943306010 0.1603579830275470 -0.01289907180752000 -0.2968902281732090 0.3828279915621350 
-0.3757936899226460 0.1301476273402270 0.1693376177151650 -0.1996351231920800 -0.1083641862769110 
0.07877166780178540 0.2885365734894980 0.07947607621925410 -0.6309159364772840 -0.1180845772069490 
-0.004141084535151600 0.3964265870014230 -0.4231329255462880 -0.4617961081811110 0.08925606578386370 
0.1935701414365860 0.1033552635353950 -0.4883118311782530 -0.1139452038691270 -0.06025162766408660 
0.1825412171769940 0.08269949810146980 -0.4787029160725880 -0.1005346323952790 0.02361049588859250 
0.4912983428737600 0.2825596368053650 -0.3484772407559300 -0.09862709825829990 -0.3215343566748600 
0.1579556803891720 0.07430045350180080 -0.2763768759868970 -0.05408704468963550 -0.1067066891965460 
0.2591121948577970 0.04273400822556270 -0.3254405806549410 -0.03131826048030560 -0.1519281012037000 
0.1816795662459670 0.1098482267105500 -0.3052335577536700 0.08334043183772400 -0.1399848823493470 
0.1513930018845670 0.1146323350622180 -0.1383965575987980 -0.08970145521425210 -0.09965585236717090 
0.08296826130120960 0.1474406865158410 -0.1689377141109900 -0.05706399223790060 -0.1022470593634160 
0.06869703675303580 0.1349398521911500 -0.08788777863909230 -0.07758976734404350 -0.1011054053849620 
0.06527651045010030 0.03440290060379370 -0.08419759740952140 -0.04366771752272350 -0.02302387833666640 
0.02839678951787450 0.07818651906990670 -0.04532843537758290 -0.01466579632824530 -0.06914466881123760 
0.04220980577924430 0.05586284234422720 -0.04909467276661640 -0.007464766143026020 -0.05234175473044410 
0.06200237592432220 0.03009441366881670 0.005183104759676790 -0.01488010989131160 -0.04280104773224520 
0.01982835535183180 0.02471611783493940 6.234162491791650e-19 -0.01147228942686910 -0.01979955632285840 
0.009462360696912270 0.001428717628812330 -0.01246504943472020 -0.001820607195643570 -3.378654331036350e-06 
0.05309515432362390 -0.004967632648443500 -0.01308585444599500 -0.006207371410327460 -0.01113913460910440 
0.01890082649966880 -0.008937556491492570 -0.009900736764009940 -0.002517390582122740 -1.450978401014690e-05 
0.02011268378020620 -0.004699140523785150 1.084202172485500e-19 -0.004149992195093310 -3.405545917313320e-06 
0.005282723557051890 0 -0.009624012748525540 0 1.355252715606880e-19 
0.0009764432730473640 -0.0009842214595715550 8.131516293641280e-20 -2.168404344971010e-19 -3.118974401061590e-06 
0 0 0 0 0 
0 0 0 0 0 
0 0 0 0 0 
0 0 0 0 0 
0 0 0 0 0 
0 0 0 0 0 
0 0 0 0 0 
0 0 0 0 0 
0 0 0 0 0 
0 0 0 0 0 
0 0 0 0 0 
0 0 0 0 0 
0 0 0 0 0 
0 0 0 0 0 
0 0 0 0 0 
0 0 0 0 0 
0 0 0 0 0 
-0.001660928333001200 -0.004702576041464040 0 1.355252715606880e-20 0.005278823609323790 
0 0 0 0 0 
-0.002310205513332350 -0.006540870477068930 0 -1.084202172485500e-19 0.007342380260401040 
-0.002442085072330770 -0.006914260250837300 5.421010862427520e-20 3.659182332138580e-19 0.007761524732679450 
-0.004371326364539850 -0.002338378703309760 -0.0007181348663851760 -0.001947556126230500 0.003704849378289970 
-0.02643263775790640 -0.01836952284474700 -0.002126510944724180 -0.01210201315688350 0.02624037885959480 
-0.03298159385858340 -0.03578303101407930 0.04215482554079200 -0.01568064377538220 -0.008010266716119450 
-0.02702716988875660 -0.05500904550561140 0.04758235956063700 -0.007707371097094700 -0.001878738576963800 
-0.02512292094686780 -0.04036113263007250 0.09322126303288380 -0.02899171433532300 -0.04424166075276100 
-0.06003263123407890 -0.05962871363102550 0.04453929727978150 -0.02284375772131830 0.009595583926148510 
-0.09371381574326100 -0.06985013446939880 0.07554840821035260 -0.05401560456138930 0.01264758989486240 
-0.07393487434236410 -0.07928979055051090 0.1910073028292960 -0.04835163583553200 -0.09391066362283930 
-0.09082358135695590 -0.1380527184327180 0.2186968958096590 -0.05938832024670480 -0.05997387990999330 
-0.2101542960787960 -0.1920978910357520 0.2726470584422550 -0.08260665389980200 -0.002811262878019550 
-0.2364025192033360 -0.2051085943629990 0.1640675216851570 -0.006124111711997470 0.07409821960803920 
-0.2555517532952390 -0.04899479547526730 0.4245529598544700 -0.09133683682867960 -0.3066763011837670 
-0.3002484036270590 -0.04676277583998850 0.09703429718970750 -0.03300859204311110 -0.1034456684476410 
-0.1112754448352160 -0.07204964898232080 0.03999812851828060 -0.04459276753226950 -0.1929137967133690 
-0.2289941493236440 0.05662470929135820 -0.1320447476374420 -0.2149839128429560 0.2191437711251480 
-0.4589015827751480 0.08801708253030200 -0.1654762122990730 -0.2789140824197270 0.4860940197967490 
-0.3673663470843330 0.1190980576169500 0.1959791787614730 -0.4331042713788020 0.05610814509007630 
-0.2302442518907540 0.2066240528215810 0.09669068576382940 -0.4518362028856930 0.03513878435002300 
-0.1486633425444310 0.4987051244337620 -0.3281964523968590 -0.4381505140029810 -0.06199970635391280 
-0.3220597962849180 0.4789274325615880 -0.3242097027622390 -0.2563281491249030 -0.1642667407707050 
0.03351335190314510 0.1472082916662810 -0.4844097963967040 -0.03071319311185140 -0.03352304502927270 
0.3120660139946580 0.3120274073308220 -0.3857979980018380 -0.02951416295318230 -0.2803334096930170 
0.1896636727626410 -0.02131398221095070 -0.2685334370000710 0.005235799940874300 -0.1322662286636210 
0.2889461363720980 -0.02223760165952220 -0.4463020686756330 0.1112396900834440 -0.1562420160599110 
0.1859348948115830 0.1582968438297550 -0.3527071857122570 0.1852420961552750 -0.2079089011848320 
0.09679826301529780 0.1760392876354280 -0.1760149482322230 -0.02260618152477670 -0.1406412738338550 
0.07074050637437520 0.2323655464947200 -0.1789087914807520 -0.06529378855678330 -0.1745498113362570 
0.002518347785156030 0.2296962400637100 -0.09428510019079820 -0.08162449948655800 -0.1493660892220090 
-0.004178917741849510 0.1102342425133890 -0.09871617763903700 -0.06084208576532130 -0.05310484841281220 
0.01494496554423790 0.1374137759232420 -0.05452812230369660 -0.08658638159040240 -0.06877172235984260 
0.03481903751389170 0.06117135504259880 -0.06682319800615940 0.01420408632458140 -0.06371577100722400 
0.04600266328397140 0.04344545794531700 -0.006743558215461640 -0.02085979670032340 -0.04274384317833560 
0.01194775654767510 0.04247682422659790 -0.002840700415703290 -0.01663966433945370 -0.03402426081124250 
-0.004518381880417740 0.007338581665242650 -0.009473028941508520 -0.003672326870936290 8.944667923005410e-19 
0.05282519758343480 -0.01671281928882650 -0.01136174646564550 -0.003332267883493150 -0.004371970050944690 
0.03749958575685350 -0.01916900516778020 -0.008596279394671380 -0.007533362178602730 -1.940997118192280e-05 
0.03333229293569400 -0.01083627281030520 -2.710505431213760e-20 -0.008230381002949290 0 
0.004586705893071130 0 -0.008356014754875460 0 -1.084202172485500e-19 
0 0 0 0 0 
0 0 0 0 0 
0 0 0 0 0 
0 0 0 0 0 
0 0 0 0 0 
0 0 0 0 0 
0 0 0 0 0 
0 0 0 0 0 
0 0 0 0 0 
0 0 0 0 0 
0 0 0 0 0 
0 0 0 0 0 
0 0 0 0 0 
0 0 0 0 0 
0 0 0 0 0 
0 0 0 0 0 
0 0 0 0 0 
0 0 0 0 0 
-0.004957015256000030 -0.01403476641157440 -1.084202172485500e-19 -1.192622389734050e-18 0.01575456848151220 
0 0 0 0 0 
-0.006900118612992000 -0.01953626284048280 -2.168404344971010e-19 1.084202172485500e-18 0.02193021114618460 
-0.007613145648980560 -0.02155505184524200 0 -2.168404344971010e-19 0.02419637993677980 
-0.01396099979328770 -0.007468237754646000 -0.002293555750603750 -0.006220041334887250 0.01183242729805030 
-0.05749849954457260 -0.04391387769887050 -0.008694885619178520 -0.02288476615814390 0.06184778253744260 
-0.06710990677398440 -0.07042824703067230 0.05298287566079230 -0.02699263266190870 0.01454708043890060 
-0.08665137953492730 -0.1148483623764990 0.1069959182731320 -0.03219065897926750 -0.008856176792824740 
-0.06284541661210490 -0.1030801336020240 0.1453658189262190 -0.03577606020032330 -0.04350482758541290 
-0.06795300006566100 -0.08925661350061840 0.06524057923202840 -0.01983666056110430 0.008610664861819120 
-0.1398929580110170 -0.1217039224671210 0.07629257267898940 -0.05300375193658950 0.06808398077092270 
-0.1205604512359400 -0.08317728599041530 0.1840878788418820 -0.05994742857742010 -0.06394845674109520 
-0.1163504477079510 -0.1580194290460950 0.2643256026580590 -0.08529280013163620 -0.04220818545482080 
-0.2411652584074710 -0.1671265397173970 0.2986826755758720 -0.1070268966616510 -0.02546746524477500 
-0.2441272814346620 -0.1579177327327070 0.1985487625367280 -0.02986960048214520 0.004745067420339900 
-0.3123416468824690 -0.02589650015563140 0.3920686112095370 -0.1239112695895570 -0.2470475958048920 
-0.2372586847562210 -0.006498208538408320 0.2964617280502220 -0.1406597143357870 -0.1539509827798690 
-0.1068888272059530 -0.1022301402081960 0.1502646688414990 -0.06026476758355740 -0.1593508429047040 
0.07097638265187790 0.02705967927803050 -0.1045310659996330 -0.2218578715720420 0.1299631850624940 
-0.2362038297293940 0.04826513780653790 -0.4228644781307200 -0.2724027664095650 0.5403071168149000 
0.04677692985160230 0.03706984383411360 0.1577915549336270 -0.6405534886421050 0.04982669819488400 
-0.02790446183851050 0.05073929755298110 -0.06014745388667040 -0.2505187203074990 0.09620025123716140 
-0.2262652741899220 0.4487571406879630 -0.2783237244541550 -0.4832950292874070 -0.04589932852443800 
-0.4960760870366810 0.5587621562084800 -0.2875190476125140 -0.2965196035254190 -0.1199099626002370 
-0.1796295668854930 0.2556583551827540 -0.4391986352216390 0.06422989856954560 -0.1343779929055380 
-0.02900480966791100 0.2565726201927040 -0.3373937517515470 0.08968778556597110 -0.2253116120281840 
0.2987910451541730 -0.1521845628268250 -0.2630296853896100 0.1380798139603780 -0.1787067016371320 
0.3242529825636920 -0.006685665027672370 -0.4438906200686850 0.2231167874216890 -0.2092988647623560 
0.2674386922605040 0.2493812148094790 -0.2953488914338970 0.1395688671583450 -0.2807485683151290 
0.04740650836840250 0.2502385931877100 -0.1843830633495740 0.03603759472901420 -0.2251021080842540 
-0.01129711820877140 0.2763160549238490 -0.1527300173136270 -0.06736054104429500 -0.2097707093748330 
-0.08829915917548270 0.3043405919008530 -0.09806109774355730 -0.1056036576809720 -0.1554524518290670 
-0.06654401558979650 0.1440795326138900 -0.09267908505007000 -0.05981887311182090 -0.08335644901687000 
-0.04255161492811420 0.1563593849207690 -0.06410380407826460 -0.1262582462831560 -0.04375590390921000 
-0.02613851191674950 0.07944485780575440 -0.06334835331016630 0.01303996463635950 -0.06287531651233560 
0.009736631531996630 0.03682831225450360 -0.02108092570142580 -0.01601855082310520 -0.03926061488339440 
-0.001157402434491190 0.03838855891978000 -0.01146062370574380 -0.01657729035232060 -0.03777352033424560 
-0.002258185840564460 0.004097146663007260 -0.003674494583234820 -0.01027846598770340 -0.0002607996125141460 
0.03212889739166400 -0.008322245530687600 -0.006204215939905370 -0.004205696382985060 -0.001361735519251920 
0.02991697304268190 -0.01050033872877950 -0.004895772091024700 -0.005841656564249500 -1.140791037035420e-05 
0.01247468920599590 -0.003619516384541330 -0.001909399037331540 -0.003448097880794020 0 
0.008001986664248290 0 -0.004085796657048420 -0.001946793040067550 -3.726944967918920e-20 
0.005011161192393200 0 -0.001889245438949910 -0.001343372459748690 0 
0 0 0 0 0 
0 0 0 0 0 
0 0 0 0 0 
0 0 0 0 0 
0 0 0 0 0 
0 0 0 0 0 
0 0 0 0 0 
0 0 0 0 0 
0 0 0 0 0 
0 0 0 0 0 
0 0 0 0 0 
0 0 0 0 0 
0 0 0 0 0 
0 0 0 0 0 
0 0 0 0 0 
0 0 0 0 0 
0 0 0 0 0 
-0.01360809198814540 -0.001715500184714450 2.168404344971010e-19 -0.004927250132374490 0.007202274705732730 
-0.002542377584508400 -0.007198217815732700 5.421010862427520e-20 1.490777987167570e-19 0.008080278089222570 
-0.01756834886282570 -0.01553372328295510 -0.01536138858816570 -0.003236942097742030 0.04065572103685640 
-0.03197194849020080 -0.02113172293371280 -0.02618273845791620 -0.009401128745063040 0.05672186557779340 
-0.03042275947173370 -0.01943143048647210 -0.01063357374595070 -0.01040570001536560 0.03175994802469210 
-0.08727097277713820 -0.03089183749245580 -0.01772788751184820 -0.03791270303511170 0.06706051803041690 
-0.1311760961118950 -0.08423996587445350 0.06433148673011720 -0.05696376416412140 0.02593879828500850 
-0.1686168455527530 -0.1484778044956380 0.1769822139751320 -0.07111454794861870 -0.03525891475151680 
-0.07250006340519540 -0.1190602404706000 0.1749719978305610 -0.02782416473888280 -0.07304167189925360 
-0.1091170141915780 -0.03293682991608380 0.07100791807001210 -0.03440624474094340 -0.06441614450587140 
-0.1775305296516650 -0.1204786642667570 0.04829952419918710 -0.06453362679080600 0.1008050207368320 
-0.2074373159471310 -0.1029373093097170 0.04898139498790630 -0.09951600543983390 0.09941693194091110 
-0.2102508465739280 -0.1588746242381920 0.1754489884144930 -0.1180428495459200 0.08389929116745640 
-0.3106535646211820 -0.06083430507404620 0.2016619476686770 -0.1491405580295570 -0.01618285230845510 
-0.3139678838778300 -0.04814348688446990 0.1508112520118110 -0.05974425527131400 -0.01159080988488060 
-0.2712858346005020 -0.08779188512200750 0.2746311050592400 -0.05923904977356150 -0.1128032033994940 
-0.2608347815380670 0.01802279403658750 0.5445543622250520 -0.2468995485726740 -0.3152803749483110 
-0.1146952001702230 -0.06311704284693510 0.1923412341335340 -0.02110065465020480 -0.08860188091988460 
0.1426829251967820 0.1110637771206790 -0.08032284053369470 -0.2591087699175440 0.003329522687536270 
0.0006905238180072120 0.005977723923330630 -0.4516714559731690 -0.2649368629001270 0.3989932050006180 
0.1095612876862510 -0.03077347118717330 0.1751634066143150 -0.6715049655106270 0.04791506071706110 
0.04057341168689280 -0.1445478060989070 -0.1776399264443440 -0.1884859681981420 0.3032452504834760 
-0.2476087711210070 0.3657601159315370 -0.2177611927718950 -0.5546348690763420 0.2078287061049960 
-0.4100535575342780 0.2465340037774240 -0.3861842314400730 -0.04806930741955540 0.08490019711982850 
-0.1414719542820640 0.1819546288975050 -0.3733122126547080 0.08515512635123740 -0.1717042779394540 
-0.07764575899879570 0.2366406607179040 -0.2970899450636310 0.04778588352675950 -0.2354685763009680 
0.3054552031129470 -0.1471101535625160 -0.3364447909513890 0.2318557496101550 -0.2108449216273810 
0.3194314141489100 0.1031840220924210 -0.4188954216168100 0.2169830306085810 -0.3071219653673580 
0.2717148599996010 0.3585822005436010 -0.2439918958597380 0.001384090507838200 -0.3302474011437390 
0.1554085123796930 0.2113976842600270 -0.1923052276963620 0.03253107095693110 -0.2593728129329760 
-0.04544743774835540 0.2965976483153070 -0.1094244929231840 -0.1280039551241480 -0.1889910132306720 
-0.1060258760365070 0.3601920429350670 -0.1023838955405820 -0.1889780533969080 -0.1375049889823500 
-0.05750517344100640 0.1368859413810490 -0.09067426199997640 -0.08613767049241600 -0.1076785116529310 
-0.05913208182230050 0.1415537973413730 -0.06239756372646950 -0.1528872261809530 -0.03514612745667340 
-0.02909649703041060 0.07353325238393160 -0.05912329589447290 -0.02237356053103930 -0.05185837203862660 
0.04127313098207920 0.009613047053833170 -0.02449088425708530 -0.02322796791369670 -0.03700360036861820 
-0.001263091141140290 0.03404819012727830 -0.01800474781161520 -0.03012421205330200 -0.02590012190580190 
-0.01140415529324140 0.01301780031294860 -0.009216249716760350 -0.01916565722771420 -0.001464980066891790 
0.05712771399136810 -0.001037499841670290 -0.008176578809177930 -0.01071192433948120 -3.266372436344160e-06 
0.02960552053261460 -0.007673379405888880 -0.006187530091141140 -0.005780430853940990 -3.028686845332940e-06 
0.008706025707744980 0 -0.002426932628638450 -0.001725701906042730 -2.168404344971010e-19 
0.01207247152050300 0 -0.004551412513248370 -0.003236340867733890 0 
0.006369412766742760 0 -0.002401316492597450 -0.001707487220447520 0 
0 0 0 0 0 
0 0 0 0 0 
0 0 0 0 0 
0 0 0 0 0 
0 0 0 0 0 
0 0 0 0 0 
0 0 0 0 0 
0 0 0 0 0 
0 0 0 0 0 
0 0 0 0 0 
0 0 0 0 0 
0 0 0 0 0 
0 0 0 0 0 
0 0 0 0 0 
0 0 0 0 0 
0 0 0 0 0 
0 0 0 0 0 
-0.02151950931024500 0.01703328546560330 1.517883041479710e-18 -0.01043476359263160 -0.007946003329605180 
-0.008277218636113650 -0.02343523755646570 0 -1.029992063861230e-18 0.02630696116604820 
-0.03360388068708780 -0.01095735346312430 -0.01781900679043220 -0.01072607070386550 0.04456762628574300 
-0.06003394860549020 0.002186377818064490 -0.05492133460768520 -0.02401079393409280 0.06713045587053560 
-0.05584066841811170 -0.03719269351729520 -0.02043709658118280 -0.01650520447843870 0.06177201898408490 
-0.1065886338869200 0.009844712294443990 -0.02091824286973490 -0.04599456826678810 0.03916197820720480 
-0.1653968966587360 -0.03757417115696420 0.05915792677258020 -0.07304336971331890 -0.005606243409404350 
-0.1963814128693720 -0.1009946507685420 0.2021538395083680 -0.09150367261875450 -0.09621122941915050 
-0.1220121033622990 -0.07978051065827040 0.1471079371874840 -0.04497346429715900 -0.05752838635592930 
-0.1968585678748230 0.05011317922550800 0.05607627671398760 -0.06857687597622480 -0.1245661903035720 
-0.2244695908745030 -0.06821721088045380 0.004853970363117680 -0.09545508292695000 0.09976792534726520 
-0.2654483814770600 -0.1121538378214390 -0.1345838186210270 -0.1276762196364810 0.2827340934102450 
-0.3056496825110450 -0.1416843794295950 -0.01027629941809290 -0.1405498114981590 0.2758965139218000 
-0.3634159067710210 0.002648179475931860 0.04276460383587980 -0.1769443207125470 0.07408118577234890 
-0.4105319490449550 4.381340990231450e-05 0.09131166810547820 -0.08447916289467270 0.04541392808874440 
-0.2427169945301700 -0.1522549737976360 0.2512539691572530 -0.01178573013522630 -0.03856152453432890 
-0.1874748980893380 0.003953131384230280 0.6473284039499900 -0.1760731303324770 -0.5158063072224860 
0.1105597241018140 -0.07896994804598370 0.1009811752548930 0.1288596288226430 -0.1411072247575750 
0.004824795953504720 0.1553285185963830 0.03201534169205930 -0.1629437359197940 -0.1654551191981400 
0.06120805960093190 -0.09249220088904270 -0.1300550029473860 -0.1891817611423930 0.1449763900182190 
-0.1045454090000220 -0.09608481993775100 0.1872113171360100 -0.5123209876207090 0.09158442611138400 
-0.1115272923770320 -0.2877255104200600 -0.1287877368725200 -0.2302441777363200 0.4680722654531120 
-0.2531485496998780 0.2579655006215890 -0.04882271895854580 -0.4871117867590410 0.2910491237251060 
-0.1882999223405880 -0.08801121810224580 -0.4583857482053270 0.3001167654629740 0.1663173325815070 
0.02704474567292570 0.01856531239523000 -0.3012514385837270 0.09760915454252970 -0.1538022880064590 
-0.1381145377736090 0.3493047735206140 -0.2702676139108850 0.03358379545621130 -0.3033790640878120 
0.1404021520826460 0.05877554213354380 -0.3947864042152530 0.2234780478087960 -0.2737642987001330 
0.2068067207749840 0.2938168738056560 -0.3999324375551750 0.1217018655775570 -0.4057054299465110 
0.1455781968767050 0.4645777674162560 -0.2371338492266220 -0.1264995981117980 -0.3501498231371580 
0.2625309212003980 0.1373294255757030 -0.2182912145647260 -0.01417264617212840 -0.2361588515923780 
-0.03697683783272490 0.3488019964684930 -0.1012004083854170 -0.2484269024875800 -0.1612872725139500 
-0.09845987500348480 0.4155570099532260 -0.08689120071090150 -0.3080917988582210 -0.1327121400673260 
-0.02091446194297310 0.1179533013543880 -0.08384577573582260 -0.1391451083557780 -0.1306165719975130 
-0.02738842565741970 0.1176201332828230 -0.06312591438497520 -0.1499762026070600 -0.06534748898239410 
0.02386909451847360 0.05802940949687190 -0.04839447108996770 -0.06800627697987310 -0.06144932339356810 
0.06708222310371750 -0.01094670800154060 -0.01990034717599820 -0.03194025475393620 -0.02800134836543740 
-0.01491393338765820 0.04394628861518340 -0.01768689079299560 -0.04126649006166090 -0.01079089084916050 
-0.02945603048615560 0.03158143435986790 -0.01502369413600060 -0.02236833023299490 -0.002001187168390550 
0.06056608035934960 -9.451621278031460e-06 -0.007751965639830110 -0.01144381740982810 -2.168404344971010e-18 
0.02557742937900730 -0.002543064815024330 -0.004962737646387980 -0.004961502858403990 1.084202172485500e-18 
0.002815361362720010 0 -0.0005447559245822550 -0.0003873557618725790 0 
0.009250857179895320 0 -0.003487642696472030 -0.002479933549813600 0 
0.001429695781353290 0 -0.0005390060567414460 -0.0003832672438085460 0 
0 0 0 0 0 
0 0 0 0 0 
0 0 0 0 0 
0 0 0 0 0 
0 0 0 0 0 
0 0 0 0 0 
0 0 0 0 0 
0 0 0 0 0 
0 0 0 0 0 
-0.003099534979893560 -0.008775694078136170 1.626303258728260e-19 -2.168404344971010e-19 0.009851056246492060 
0 0 0 0 0 
0 0 0 0 0 
0 0 0 0 0 
1.694065894508600e-21 0 0.001197026973561530 0 -0.0006641774052816260 
0 0 0 0 0 
-0.003147778813997370 -0.008912286545070010 -5.421010862427520e-20 2.981555974335140e-19 0.01000438657713390 
0 0 0 0 0 
-0.01600113524439970 0.005324159057572300 6.505213034913030e-19 -0.006776332883086840 0.001280155155640730 
-0.01560109293820360 -0.04218326610939670 -0.004382976481289480 -5.421010862427520e-19 0.05311255195229140 
-0.06209552517328560 -0.02875239977304730 0.0007355758784388540 -0.02339090800060650 0.05685206832524630 
-0.08389145552649530 0.03842973186515160 -0.03458712864913790 -0.03664083208594700 0.02546602799535960 
-0.08228422456893520 -0.03440473197518800 -0.01019364523272540 -0.03063959350196580 0.07243257504273270 
-0.1131057307703050 0.03497125909779240 0.003116038035930170 -0.05357239671538520 0.02155042632644590 
-0.1688333468631370 0.03663145574472250 0.05283631155248840 -0.07754051891153600 -0.04246843051109280 
-0.1674133559081550 0.005743751942065900 0.1665632711492790 -0.08644840691398490 -0.1295355220827890 
-0.2431615547206120 0.008240895743643510 0.1101649173096520 -0.09834974670018050 -0.04224220369988790 
-0.3044200933254380 0.03814193717493400 0.06228232642170080 -0.1030434365809500 -0.07700040318672010 
-0.2859498955917960 -0.01746964542256360 0.04625874996709950 -0.1302530549815070 0.02959252418883200 
-0.2615210958272440 -0.1130474960027810 -0.1146547620230860 -0.1186183804236930 0.2455513452774410 
-0.3443306259259980 -0.1453286232395760 -0.1915651917777080 -0.1320534578571530 0.4520581314595550 
-0.3213835761644220 -0.1017739382624120 -0.02880238626120970 -0.1782821421885990 0.2064675057162260 
-0.4581579490512730 -0.08009550506722640 0.1305092540062740 -0.08817858748140630 0.09707434406812750 
-0.2692600882049980 -0.09559098767642950 0.2929854436812420 -0.03658455214215410 -0.1279128798443710 
0.04816112588420880 -0.09069567197840790 0.5044868702076190 0.09004768628978450 -0.6073947994952190 
0.2977458847109200 -0.2083998463029640 -0.1330946822508100 0.3869670975940430 -0.1144103475898700 
0.05385796012821380 -0.04264313163057640 0.1049995446791630 0.03815516595573400 -0.2274552096873100 
0.09357654245075270 -0.1768338521696970 0.1594424409327650 -0.1451109405489190 0.03109169717282390 
0.06297832895651350 -0.1643118677002800 0.1098766146487540 -0.3314098393782770 0.02301069693395370 
-0.1026949923023440 -0.2756387472562030 -0.03839067269367190 -0.2714972024653720 0.3589464273992410 
-0.2838771340072360 0.2015211470496410 0.1543173500801530 -0.3024199931655390 0.05265828084492500 
0.06539245490913010 -0.1619413942434690 -0.4452892824116820 0.4343395791010960 0.09931929560990800 
-0.05499875897317230 -0.04588336484648540 -0.2450859180080420 0.1859056851032590 -0.07881506438051820 
-0.2819657777573320 0.4904822882006650 -0.2774028691221840 0.1192989958365020 -0.4311980892057080 
-0.03230824397028500 0.3240310936003640 -0.3886363170576320 0.1105935605650260 -0.3808440160056130 
0.04335718103392300 0.4961030367301850 -0.3850914042924560 0.02979749185795290 -0.4543144236788460 
0.01410750885270670 0.5701782090698240 -0.2387315653713160 -0.2279343402472750 -0.3604742177557880 
0.1861769644470390 0.1758723955423760 -0.1923649242964160 -0.08168482653941240 -0.2325232145867240 
-0.1158110472018250 0.4494346348960270 -0.09573514034584550 -0.3502926725488950 -0.1785153615800880 
-0.1426044323357900 0.4835852020035720 -0.05028816164968160 -0.4062168767983980 -0.1559951455603590 
-0.1082123074839050 0.2097764687011620 -0.05592624541969940 -0.1899193489059660 -0.1706354274780990 
-0.04508572304467090 0.1164835851552590 -0.05905905287334660 -0.1213502268301050 -0.1075590775935260 
0.01884270943601200 0.07568717560158060 -0.02364806245291280 -0.08620426214905610 -0.09189820080045830 
0.02733790533950810 0.009726977355328680 -0.009463754448484560 -0.03122798082530540 -0.02305246230184700 
-0.03512146816465240 0.05981056516133920 -0.009180284153157150 -0.04984107247239880 -0.01272888553713750 
-0.03384108133057180 0.03272394569251270 -0.01078071547949330 -0.01968341240363350 -0.001124795811381050 
0.02309517143345060 0.001916108598208980 -0.004308337892672570 -0.005862548421286970 -7.199780051661550e-21 
0.02010917139487740 -5.658970318697000e-06 -0.001749980903679220 -0.003588449139942580 -1.084202172485500e-19 
0.002605423143789060 -0.003476101463880860 0 0 0 
0.003861138304750160 0 -0.001455678165467330 -0.001035078829584600 0 
0 0 0 0 0 
0 0 0 0 0 
0 0 0 0 0 
0 0 0 0 0 
0 0 0 0 0 
0 0 0 0 0 
0 0 0 0 0 
0 0 0 0 0 
0 0 0 0 0 
0 0 0 0 0 
-0.005566919547346120 -0.01576158463189320 -1.084202172485500e-19 -3.252606517456510e-19 0.01769298876649100 
0 0 0 0 0 
0 0 0 0 0 
0 0 0 0 0 
-1.084202172485500e-19 0 0.005912422600216300 0 -0.003280542200194850 
0 0 0 0 0 
-0.005653567881645820 -0.01600691152096750 1.084202172485500e-19 -1.029992063861230e-18 0.01796837769431030 
0 0 0 0 0 
-0.007245501436714480 -0.01433016455091070 0.005858287535588280 -0.002130282782704750 0.01322699270287230 
-0.02534649137459240 -0.05176849316624080 -0.02711161023076760 -0.009198571407773570 0.09716807961790780 
-0.06810949384609550 -0.04032439349342030 0.03761123818460170 -0.04435734480930740 0.04558944169795310 
-0.08094147038561840 0.05435577264322330 0.02752482732543780 -0.04663528474313740 -0.03344574059302880 
-0.09669824345095630 -0.02999269639792510 0.02905892242829970 -0.06571840552183470 0.07638150266282720 
-0.1392986971810820 0.02980676535936460 0.05027578215605180 -0.1032503099800650 0.04521608867702380 
-0.2531840991842390 0.04663056263031600 0.09451654573693110 -0.1380243773351680 0.01474558438702180 
-0.1909739898714260 0.05309734454108360 0.02459880878705870 -0.1227097957312270 0.04826277237944000 
-0.3093015777477300 0.08157460791977380 0.1242379506241560 -0.1522749965578940 -0.08235761148386470 
-0.3708860106838160 -0.03033315465326600 0.1032755304863520 -0.1613184427190260 -0.01550287602913810 
-0.3260526773887320 -0.01098788853115610 0.1857838151630200 -0.1473320969125240 -0.1157105449130620 
-0.2500899396827060 -0.1727474033447030 0.1661980064948140 -0.07599126234585900 -0.01489120809608350 
-0.3670435760548220 -0.2031134511252990 -0.3175682087735840 -0.07367516342406590 0.5828473503433040 
-0.2659925313023040 -0.2410018531825200 0.05916066521135540 -0.1557525922273780 0.2303692927589570 
-0.3874579394985470 -0.1851485059051970 0.2047524658046920 -0.08583407453002800 0.05877033799692330 
-0.1082161994926640 -0.007723548322955950 0.2298633387549140 -0.1025329775578100 -0.2809544683333310 
0.2440141052234290 -0.2182507874583890 0.2784455591134920 0.3649785607747160 -0.6545247994655570 
0.1514317899214870 -0.3827626524404500 -0.2071910147484730 0.6607254346101300 -0.03153750844932090 
0.3893521650859560 -0.3556784186904170 0.07556429335728110 0.2166788414308910 -0.2600093368310280 
0.2106210286523630 -0.1850000947693920 0.1760512542407700 -0.05886359792477500 -0.1155531089692780 
0.1750421155001220 -0.08841737670193260 -0.01540658528659330 -0.2684731290687730 0.05375703072328830 
0.01396457954880700 -0.09505120480650880 -0.03521503632743690 -0.2350634205192660 0.1293072025000920 
-0.2643335492920100 0.2146281265303920 0.1678043514347670 -0.1577406946222670 -0.08428933541942420 
0.05657411452038110 -0.01149690695739460 -0.3660039553087520 0.3872203030435800 -0.02704464499517930 
-0.02623384720694090 -0.09469401560105150 -0.2504934538841270 0.3337980555731000 -0.1102401884904730 
-0.2209255849663450 0.4809020039853290 -0.3087457095399640 0.2280293331844150 -0.4804873290776960 
-0.1970991328318160 0.5391869488837500 -0.3647213098300340 -0.01037759758000580 -0.4742066018140940 
-0.01071645885693410 0.5840379461897620 -0.3419028307812710 -0.03957169245751760 -0.4928439636330540 
-0.01686064723934710 0.6469242487530990 -0.2067526000538430 -0.2965049632299110 -0.3924504105209820 
0.006236784235826910 0.2896738553088720 -0.1030723438680280 -0.1561627179251610 -0.2562148601797470 
-0.1863256059734100 0.5100996434527320 -0.05803223947979810 -0.3899352757903630 -0.2056531670058940 
-0.1990169825994100 0.5072829546129010 -0.01580090473117580 -0.4423192990694520 -0.1591475985961530 
-0.1601173562777890 0.3001976434766780 -0.01856921998943040 -0.2460352974117070 -0.1864541022951100 
-0.08759820103416700 0.1231037697038940 -0.04341013619581840 -0.08301332452155520 -0.1206502631838360 
-0.01213109415223210 0.06911987707488090 9.486769009248160e-19 -0.07459901053959400 -0.08683248069874010 
0.01314035788495650 0.01479542910517160 0 -0.03366852658442160 -0.01458701337246420 
-0.04091293414132760 0.05762051556162810 1.084202172485500e-19 -0.05267519405007950 -0.006647738377344750 
-0.02979769587099540 0.02559752346575120 -0.002810075726285960 -0.01480749243464190 -8.267041565201970e-19 
-0.006377143758657760 0.008919084862464730 -0.0008463040207147230 -0.005556368517823030 1.592421940838080e-19 
0.008251456052496070 -3.525762498634670e-06 -1.355252715606880e-20 -0.001460468661149640 0 
0.005570070717871860 -0.007431472704336250 0 0 0 
0 0 0 0 0 
0 0 0 0 0 
0 0 0 0 0 
0 0 0 0 0 
0 0 0 0 0 
0 0 0 0 0 
0 0 0 0 0 
0 0 0 0 0 
0 0 0 0 0 
0 0 0 0 0 
0 0 0 0 0 
-0.003099534979893570 -0.008775694078136180 -5.421010862427520e-20 2.710505431213760e-20 0.009851056246492070 
0 0 0 0 0 
0 0 0 0 0 
0.0005654350963640890 -0.0005699392593485070 4.065758146820640e-20 0 -1.806123959989480e-06 
2.439454888092380e-19 0 0.01085105628144810 0 -0.006020771933095150 
0 0 0 0 0 
-0.003147778813997380 -0.008912286545070030 0 -3.252606517456510e-19 0.01000438657713390 
-0.007110838522774660 0 0.007304682598379980 0 -0.002686646670874690 
-0.006250907653419450 -0.006345829689911430 0.02868227390918070 -0.007739945724679460 -0.009979457006120300 
-0.02740473176744710 -0.04172648159170740 -0.01746480245759460 -0.02042148342024010 0.09372487369395330 
-0.03735774694946880 -0.03180753968960220 0.08803895941018800 -0.06790225477786550 -0.009471210966485790 
-0.06312885541703960 0.02284958811669050 0.1214923064310290 -0.05212482111991640 -0.07546215299301830 
-0.06136734033210500 -0.03614296479418660 0.09194173161080470 -0.1034080632151190 0.06753716815774340 
-0.1613776487140200 0.0003545729711248360 0.1351213290041260 -0.1501669567173590 0.04044491329652260 
-0.3131271096587550 -0.03478388394134600 0.2210884766289880 -0.1878226478397280 0.07519699116666280 
-0.2703573087451770 -0.009234105756923490 -0.07578902643511580 -0.2004198982152550 0.3094749412381010 
-0.3155400520512570 0.01774925553900250 0.08650066928000920 -0.1614236345623970 0.006544353700080240 
-0.3273404294271010 -0.1013385034460520 0.1905307494145850 -0.2675845260107690 0.01599374199007570 
-0.3239905699923440 -0.08770841244952530 0.3268050972013130 -0.1755027489755490 -0.2065288840976150 
-0.1718085123315110 -0.2960506154736060 0.4904917312583410 -0.08970282174759930 -0.2285684447351630 
-0.3235079458982600 -0.3009192022474800 -0.2994852914325020 -0.05635243011979910 0.6369254767602940 
-0.2490956074911690 -0.2595453354778100 0.1047957061891640 -0.1334680937086520 0.2122670054771060 
-0.2870238700863270 -0.3118915105038950 0.1521775673862220 -0.01192269416607850 0.04010489159636280 
0.1440659576062480 -0.07866335032505680 0.07405572622713440 -0.009172202974431240 -0.3157739783533160 
0.2282720215677220 -0.3088056852193530 0.1923461147381650 0.4807799399458730 -0.5320189712298060 
0.07738649837307570 -0.4882521157687520 -0.3689773685161430 0.8346867349114160 0.02239761241997220 
0.4900676463265920 -0.4495280228041930 -0.04505126607508000 0.3508975293876370 -0.3089541874657800 
0.2143431065230380 -0.1444448890381540 -0.009228321356875250 0.04746134123234240 -0.1913624466971710 
0.1151410893164240 0.06952295028441190 -0.1245068003928200 -0.2940464583571770 0.1470358359040980 
-0.02165150524729530 0.1170066988950550 -0.07525461767977010 -0.1409349058426490 -0.01169069970939000 
-0.2985088041740870 0.2970765071864350 0.07433902733040940 -0.1169954172920110 -0.09943904998604490 
-0.1533329109117780 0.07005295970355740 -0.2862960731877970 0.3510244555845720 -0.1204061806373990 
-0.01627239042112980 -0.08862270897588970 -0.2770858993464480 0.5308484894441520 -0.2150462684282980 
-0.1632545162150900 0.4290918534545030 -0.2921091631933530 0.2686466984367990 -0.4379830883638010 
-0.3383434915025840 0.6433798060174010 -0.3297263986229920 -0.04639455125340790 -0.5226559916025880 
-0.04683238900645110 0.5759454832716650 -0.2736680110825220 -0.07108232263553380 -0.5274448164581840 
-0.04865101291167340 0.6320669528690920 -0.1366826577606970 -0.3248346090770380 -0.3735383752651500 
-0.1143466057921160 0.4134985978394560 -0.04638912306367420 -0.2206731790223180 -0.2806989666016400 
-0.1891875910471070 0.5058554685112120 -0.03966336204864550 -0.3731855108467080 -0.2194824887757000 
-0.2177493634946220 0.4955548227697920 -0.004556831142169430 -0.4082705620800870 -0.1630271536564080 
-0.1683156840141040 0.3394145132384060 -0.004891581754683650 -0.2631044377538340 -0.1751272646042040 
-0.1091871260562180 0.1454619953079460 -0.01938648682786500 -0.06689896966811010 -0.1172261122445890 
-0.03384522209296420 0.06946895987430870 9.486769009248160e-19 -0.07015230518186160 -0.05977946470241870 
0.01074318396395340 0.001832813131460480 0 -0.03441420897128880 -0.005713615011027140 
-0.03008817913495360 0.04766169155437200 0 -0.04982585432344770 -0.0008462506355955750 
-0.02729687077238600 0.02081022858468690 -0.001126365637077430 -0.01121464056150790 -6.437450399132680e-20 
-0.02083285161254090 0.01431544651058770 0 -0.007163645686369040 5.014435047745460e-19 
0 0 0 0 0 
0.002605423143789090 -0.003476101463880910 0 0 0 
0 0 0 0 0 
0 0 0 0 0 
0 0 0 0 0 
0 0 0 0 0 
0 0 0 0 0 
0 0 0 0 0 
0 0 0 0 0 
0 0 0 0 0 
0 0 0 0 0 
0 0 0 0 0 
0 0 0 0 0 
0 0 0 0 0 
0.0007475480585915420 -0.0009973630989599220 0 0 0 
0.003062477899332440 -0.001385267464902260 -0.0003536148394642430 -0.0002514424155279450 0 
0.002587724511131560 -0.006102243162151870 -0.002270224423790890 -0.0003533587326397170 0.004055689202627490 
-1.897353801849630e-19 0 0.01376243759005270 0 -0.007636168850660970 
0.008755427081854550 -0.001593094516952980 -0.005740081336025420 -0.002297049369769890 0.005896646798453410 
0.002078046465568950 -0.003824721399090090 -0.008188833165474880 -0.002524927909826000 0.004294493426369080 
0.001860905103139180 -0.003916560941246680 0.01405903032921150 -0.004013793472298470 -0.003133695074403600 
0.02161636124653660 -0.009238940146561040 0.05569066357562490 -0.02729243223446140 -0.02157013300957040 
0.003807982010631440 -0.03401401505180300 0.01311269108925200 -0.03434963603360640 0.05116223168328020 
0.01620666918843820 -0.03076309296892680 0.1119420925150730 -0.1098535572984620 -0.05525456841916930 
-0.04109141570574850 -0.02146998238187610 0.1871039773049480 -0.08373143553234960 -0.09222816626275060 
0.01703265747962320 -0.05267875946733170 0.1645530968739050 -0.1320032643062970 -0.01041735370569720 
-0.1329209336259940 -0.03269354210669110 0.2352908644793460 -0.1733512036531210 -0.03960928251081730 
-0.2807543815892910 -0.1009772063687660 0.3226150801897420 -0.2050887838866550 0.07349828064073000 
-0.3296395822808110 -0.09918613308468440 0.04768504393887150 -0.2816392426287570 0.3406158331509030 
-0.2996752536241880 -0.1088676247036580 0.05181058792857440 -0.2017023384104610 0.1656742217541180 
-0.1670184349864440 -0.1413031822854150 0.2707164639714910 -0.3527904053457910 -0.02029487800002720 
-0.2520038777354990 -0.2108773043686490 0.3304466852553350 -0.1995784906478260 -0.1761602226606040 
0.05174514834525520 -0.3777482059827530 0.5802962862479370 -0.2471035858546780 -0.2378671970043480 
-0.1688049156741760 -0.3575394608108650 -0.1123192816490690 -0.1654761494840790 0.5372702420416070 
-0.1405518038314630 -0.2346254505453740 -0.08539656772629070 -0.1199737068912550 0.2756441807564540 
-0.1193681576800110 -0.3745953171457470 -0.09522109190321050 0.04710132873680200 0.09706901215553880 
0.2258710321791550 -0.1789083149929020 0.05078067476284190 0.1695775251157000 -0.3437007063630290 
0.1363384737298760 -0.3575722082925410 0.05484554355257460 0.4732203283503700 -0.2297355562422550 
0.08819067625497510 -0.4913672642911260 -0.4405464450775590 0.8005809710533300 0.04674739512696000 
0.1029119404020190 -0.3652558608449070 -0.1670095313177200 0.4323577060266050 -0.2115085345024480 
0.007196966295628430 -0.05120569087770480 -0.2183757818388940 0.1091361930299350 -0.08272400940327390 
0.02833121966743780 0.1497522488765520 -0.1927702605962770 -0.2678058249593890 0.1665868028331460 
-0.2543235432928390 0.2862928699724580 -0.1463950754544210 -0.06899512194061370 -0.03419105486845400 
-0.3573588820248180 0.3664791799734190 -0.04015341536541050 -0.1080672671988650 -0.1131014616396860 
-0.3155436807123030 0.03501273599758280 -0.2598893702566860 0.3504663234386090 -0.1606132308631580 
-0.1885530063164180 0.01592456429355540 -0.2962139667521300 0.6241250418354460 -0.2623628910342350 
-0.2525802671457350 0.4037996867331760 -0.2815002719178600 0.2471593013450600 -0.3669750368705840 
-0.3550926595746500 0.5737006587055680 -0.2914154689816540 -0.004237003623979140 -0.4935966610991480 
-0.1267758770768400 0.5270383254468630 -0.1954529467700420 -0.1102023620365270 -0.5080737563704760 
-0.1088370193143570 0.5531992611697950 -0.08207970137004260 -0.2957640401904730 -0.2888690788384050 
-0.1299802154857290 0.4591598303973780 -0.02123542676219440 -0.2567751063834510 -0.2801403161651030 
-0.1508736216226850 0.4374313654692480 -0.02951619155970440 -0.3175172205456020 -0.2035471076671350 
-0.1777226959291510 0.4285148156925170 -0.002652949825521330 -0.3313179306536840 -0.1583949340598550 
-0.1672941914865590 0.3226654155677110 -1.301042606982610e-18 -0.2232450789131390 -0.1489445262758240 
-0.07424348811708390 0.1366833063003920 -0.004022275022783060 -0.06812387095986460 -0.1075654945568200 
-0.03763663078442210 0.07767603384083880 0 -0.07672939305916570 -0.04389648839466720 
0.0004123449174878830 0.004859576585384950 0 -0.03830851302625170 -0.007139603171301980 
-0.02310158455194270 0.04211859016754520 2.168404344971010e-19 -0.04482974477608590 -0.005155252005985930 
-0.01996147868597540 0.01371667622445390 0 -0.006864012826561580 2.236166980751350e-19 
-0.01935946970006450 0.01330300134225430 0 -0.006657004244381710 4.472333961502710e-19 
0 0 0 0 0 
0 0.002971281310431440 0 -0.002112264201944700 -0.001536363138377980 
0 0.002659445434544200 0 -0.001890582143364040 -0.001375121877493330 
0 0 0 0 0 
0 0 0 0 0 
0 0 0 0 0 
0 0 0 0 0 
0 0 0 0 0 
0 0 0 0 0 
0 0 0 0 0 
0 0 0 0 0 
0 0 0 0 0 
0 0 0 0 0 
0 0 0 0 0 
0.005350627814221470 -0.006281522100256730 0 0 0 
0.01435765765035540 -0.008316696932528570 -0.001928624606412320 -0.001371373527246960 -2.168404344971010e-19 
0.004694830410464210 -0.01153185622920370 -0.007577186861789410 -0.001926166511739390 0.01150472680895560 
0.002633236751003320 -0.002654212681891490 0.01390704050043450 0 -0.007724813756642590 
0.03992092288526000 -0.009401405243295490 -0.01806294486551220 -0.01082839473667600 0.01675168077202750 
0.01551409950811460 -0.008028467738335590 -0.01454917856727140 -0.01545791187164790 0.01734766065593290 
0.04828956634184810 -0.01182037056933580 0.008171315705220350 -0.01776616473510690 0.004692275490737830 
0.03649697968236310 -0.01974603319668240 0.06448065477339450 -0.05171069568947560 -0.01081813632001520 
0.05783725738379240 -0.03540446613348320 0.03501082110467070 -0.05727869121453350 0.01453668561084870 
-0.001729852474723550 -0.02721218393510660 0.09923765928683870 -0.1463963449790640 -0.04739346623958390 
-0.1014647368423920 -0.01094504164260200 0.1961540312115510 -0.1338574521172720 -0.08118055744057510 
-0.03804209512113770 -0.03979221159741230 0.2186179788836080 -0.1544350033505230 -0.1064191240602880 
-0.07804158175601350 -0.09309629176781470 0.2503922251914130 -0.1765243915141430 -0.1158930110711300 
-0.1784618032449530 -0.1097615376913550 0.2568090627153680 -0.2391643068081330 0.09764676617481320 
-0.3953149297242840 -0.1374436076709590 0.3373075111876640 -0.2869040187557220 0.09587897839317730 
-0.2521922461149660 -0.1634203189519600 0.07685969592831510 -0.2079588788880250 0.1870723415708790 
-0.01843986947160410 -0.1713629876268500 0.2512523642191160 -0.2828158889055160 -0.08866586075154030 
-0.02712247972937480 -0.3184164172225140 0.1916673692885940 -0.1870730827710270 -0.07260836792924350 
0.07970801121075530 -0.3813954936389610 0.5622944947994120 -0.4403675174884980 -0.1051908419384500 
-0.1287571132653990 -0.2465290803566710 0.09904042396011140 -0.3088538315182830 0.3440717710949070 
0.2201862284824480 -0.2452289992991710 -0.2420993748358700 -0.1087351515520440 0.2174776076082200 
-0.002462551456880570 -0.3383974730124480 -0.2220938649969290 0.07324831139657770 0.1683869343051980 
0.1736483396909400 -0.1736073397015240 0.2161342499999400 0.2867467208592130 -0.4950346440668810 
-0.02923163661237880 -0.3337404976133930 -0.1293702243228310 0.4076213649339290 0.06802161364765370 
-0.1321580545442210 -0.4336529425567180 -0.3548944671247700 0.5921809838591270 0.1742095195061300 
-0.2123118276477320 -0.2137667213583000 -0.2432773611787150 0.3942768811349420 -0.09423899745111220 
-0.1547724031852050 0.07145987655789020 -0.3042197362680830 0.1187862249480700 -0.03120019701714430 
-0.05692146933701870 0.1607054804013710 -0.2512617156732110 -0.1458963168245200 0.1236355420509700 
-0.2759615008170090 0.3369337396436270 -0.1778841037448380 -0.1126268283048450 -0.04667498568596500 
-0.2584309151150330 0.3346741498790150 -0.1348756750285040 -0.08743179912896400 -0.1514135696660520 
-0.2734043126312930 -0.002914024578812550 -0.2390904319874320 0.3062969088596930 -0.1960140098157400 
-0.2284872508963470 0.09474137081016140 -0.2751528596135840 0.4883270785594110 -0.2784764144007120 
-0.2635198189170610 0.3777421826539100 -0.2617377526114330 0.1751237719693720 -0.3247228782375620 
-0.2702879985470200 0.4214382894956070 -0.2458077891595270 0.04976933179868960 -0.4221454823436140 
-0.1356275501197220 0.4566864686477450 -0.1424938137202890 -0.1591874208201380 -0.4470655124603590 
-0.09134780621002590 0.4597471018095810 -0.05495031814567400 -0.2626613376935950 -0.2237278927340660 
-0.09006496788465260 0.4154659120421590 -0.01309878313857850 -0.2595107987612220 -0.2581357222788400 
-0.1067053277535790 0.3475001327164550 -0.01543821604295170 -0.2662763607949080 -0.1646523302798520 
-0.09728493724151470 0.3094324712976960 -0.003585939617291190 -0.2433584401610610 -0.1339026979305320 
-0.09050914032114590 0.2271308183087170 -0.0006253392073035800 -0.1583725055516370 -0.1134184658531780 
-0.04202823492366380 0.1023665636961030 -8.673617379884040e-19 -0.05984317264051990 -0.08864990232662090 
-0.02898873679503060 0.07471353501802640 0 -0.07594428152016960 -0.03663918170792670 
-0.01695449386746250 0.02655154840643120 0 -0.04367298540008300 -0.01393778744544000 
-0.02397880370984380 0.04564616016888690 -1.084202172485500e-19 -0.03749177090208090 -0.01495015591712880 
-0.008857046106244190 0.007028219910064920 0 -0.003045609948797080 -0.0001694712888959900 
-0.01011081672785050 0.006947721739580240 0 -0.003476735205781090 4.294457042579300e-19 
0 0 0 0 0 
0 0.008682264973447790 0 -0.006172164658670150 -0.004489346672092300 
0 0.007771061549801900 0 -0.005524396180573010 -0.004018189886385560 
0 0 0 0 0 
0 0 0 0 0 
0 0 0 0 0 
0 0 0 0 0 
0 0 0 0 0 
0 0 0 0 0 
0 0 0 0 0 
0 0 0 0 0 
0 0 0 0 0 
0.003074310951519440 0 -0.001159038338636650 -0.0008241492353596890 0 
0 0 0 0 0 
0.01668833630613560 -0.01292219029309210 -0.002569979941457470 -0.0009055718154206070 -5.759824041329240e-20 
0.03118375031949640 -0.01585628594091040 -0.003050890318737440 -0.004887522173203410 -3.348409622792350e-05 
0.02294392182844200 -0.008086794011018530 -0.01189126507413380 -0.005595124899645240 0.01309444382648400 
0.02540360106364770 -0.01380300221814030 0.01160199772435560 -0.003404856108902750 -0.008135082649055170 
0.06224743691809240 -0.02156952086145580 -0.02512219401960790 -0.01481336758733170 0.01985212823344710 
0.03598094092692150 -0.02572944638281970 -0.01743992931114940 -0.02609483994199170 0.02102099118830270 
0.1190913133177250 -0.02594304553067030 -0.01284813038621280 -0.03827195422971030 0.01689300143863590 
0.05956152181229560 -0.02538341143928880 0.04168073187843740 -0.08701985054627530 0.004048591248827930 
0.08204322123472240 -0.03396922933061250 0.03627923772505450 -0.07865327214999480 0.003672322127726670 
-0.1013476983677560 -0.02266989941943490 0.04123273620748690 -0.1391564423460660 0.01983382102503210 
-0.1445474227361000 -0.004997016309824030 0.1217624921631060 -0.1632969227627510 -0.01333541990653770 
-0.08106784885431400 -0.02493025626326170 0.2212712091192650 -0.1912718192561240 -0.1578211402062250 
-0.05462973867697930 -0.1182293064032080 0.1749985376877790 -0.1477473717044330 -0.1041559627030350 
0.04518961932309670 -0.1400900319690020 0.1172858049969260 -0.3117683824043080 0.1549076233971790 
-0.2706259771372520 -0.1598948043390710 0.5932653084577290 -0.2846710404749490 -0.2290210720470700 
0.003941964234571710 -0.2153622229625700 0.1298735014137240 -0.1854801092415070 0.008081176783154030 
0.04201804765951170 -0.2009257956819800 0.1656087105001560 -0.1457499965952000 -0.06203583802225890 
0.1172038019282380 -0.3323165978288160 0.08339120043690190 -0.2587281046647390 0.07940015538410380 
0.2494097362855870 -0.3427913757460270 0.4736392370773850 -0.5857185539594670 -0.07920932125395870 
0.2070793487639840 -0.04906201864788730 0.1207564346170810 -0.4455968226142680 0.1892608154708080 
0.4817613105850710 -0.2184956715859110 -0.1682616785516220 -0.1548995961682310 -0.03951380920400990 
-0.07938619946558530 -0.2525141589779380 -0.1229076762770450 0.01984219392871880 0.2081916133131380 
-0.1026078876840950 -0.07102324887969940 0.4394946210069130 0.2816418285015180 -0.5713669339735240 
-0.2647271778131870 -0.2166060045850190 -0.1884998780816470 0.3698100632220740 0.1544468662248530 
-0.3223463681639930 -0.2651134193754890 -0.1921329292879170 0.3738429899015190 0.1129859238038280 
-0.3593054032087320 -0.04970159232810140 -0.1835445869851630 0.2723719476236440 -0.06048268116996410 
-0.2093021218580550 0.1265177560734440 -0.2627490152776500 0.1048326235805770 -0.04730472389078070 
-0.2008039941334640 0.1340675731315320 -0.2115996846400820 0.08563349489025150 0.03682968105553180 
-0.2043457769593990 0.3127469201652560 -0.1469613159867820 -0.1711078701321550 -0.09081937197020180 
-0.1517536628717660 0.2376435779167510 -0.1375660774305610 -0.05910692644884860 -0.1844095405691430 
-0.1600833901795600 -0.01447158215279730 -0.1648458918928960 0.1654235794851830 -0.2039390843373690 
-0.1684910958129800 0.08878546544150660 -0.2023970354226940 0.2349718334144380 -0.2477553892996210 
-0.1865916355686090 0.2948116404278140 -0.1982115573018060 0.06902665300670060 -0.2714208502043640 
-0.1353880084166140 0.2615592442492810 -0.1681449793955740 0.02589262244423570 -0.3333174762121320 
-0.08948694740823070 0.3560995192840090 -0.1047994194877290 -0.1866537465509780 -0.3542721956343740 
-0.05822845986037490 0.3620504074971410 -0.03742980046485990 -0.2285567810237850 -0.1836979186083310 
-0.04201679541679220 0.3017787221951960 -0.009429022856560140 -0.2280608315256550 -0.2036787065747680 
-0.05020373529647840 0.2370578411743530 -0.003345528963262960 -0.2086642240234930 -0.1200798276344980 
-0.01783738069103700 0.1697510127924150 -0.003802091992888040 -0.1520079098329180 -0.09058774148274850 
-0.01003679196108840 0.1243276692409470 -0.002191862832695240 -0.08912325308398750 -0.07424041129089620 
-0.007721852567127880 0.04914066731305760 0 -0.04228022142614460 -0.05711430573530240 
-0.01162639802619910 0.05149994331993780 0 -0.05658790139462460 -0.02659714592270240 
-0.02286473739301670 0.03502507752943540 0 -0.04042158738178030 -0.01560020873137190 
-0.02275689124237210 0.03811313074249490 0 -0.02291506711485230 -0.01714792010830780 
0 0.003301909274324770 0 0 -0.0005940101228288210 
0 0 0 0 0 
0 0 0 0 0 
0 0.01194424844945060 0 -0.008491087104520780 -0.006176023444478130 
0 0.01069069996719390 0 -0.007599947791936290 -0.005527849986937250 
0 0 0 0 0 
0 0 0 0 0 
0 0 0 0 0 
0 0 0 0 0 
0 0 0 0 0 
0 0 0 0 0 
0 0 0 0 0 
-0.009175887174049430 -0.004908509995004460 -0.001507442812587870 -0.004088131104642660 0.007776879843107870 
0 0 0 0 0 
0.006572495326480720 0 -0.002477880144211290 -0.001761928797425990 0 
0 0 0 0 0 
0.02313018350817010 -0.01440133127468260 -0.01075944279519000 -0.001936000169957750 -2.846030702774450e-19 
0.03788751874015180 -0.01680675784614510 -0.004648416258938670 -0.009048912686716110 -0.002901290237732640 
0.05620137316117600 -0.01007837865589290 -0.01091376132772570 -0.01030452194419540 0.002185889836959180 
0.07199433404703100 -0.02075372473934910 0.005437811506058800 -0.01486429539590470 -0.01203478361699910 
0.07087412733311230 -0.02503712932383610 -0.01684118151199580 -0.01114741102051650 0.005682698480082190 
0.1190001085944630 -0.05267722051937400 -0.02479357058935420 -0.03276300139118630 0.002670537542726710 
0.1522487690328710 -0.04131845507598190 -0.02261485475730360 -0.06910307922217070 0.02128671410832210 
0.05980898176673280 -0.03444946655610400 0.003487769265208840 -0.1049595025132430 0.01957312319835060 
0.05048006799068950 -0.02053949281445170 0.01872952531993520 -0.1023504634413010 0.007900181111452020 
-0.1975227444293580 -0.006725306638598790 -0.05771038049743450 -0.07973077075533900 0.08220857151686160 
-0.1013057728935810 -0.006932267676814430 0.01821824438313820 -0.1632616326361300 0.02799272258872490 
0.001115229059497250 -0.02521076940201830 0.2027520938332850 -0.2272175991868440 -0.2402613107023540 
0.04548303345364190 -0.1025968913969820 0.09785064833188250 -0.1683863094381420 -0.05942938503639190 
0.2762818109608730 -0.1633317326155720 0.1178357028925980 -0.4349260816394560 0.1903600457392830 
-0.02586498103823830 -0.2007382540287860 0.6851259605108760 -0.2496191218769810 -0.4256437039364850 
0.1967516436160280 -0.3540344831136620 0.2060987171357170 -0.05052533457021970 -0.1983443373513470 
0.07550510164548360 -0.2716566226842430 0.1021619400679570 -0.02761414676165580 0.02254281242384980 
-0.1108701523866210 -0.2359252573025300 0.2771547611537340 -0.3171519409409350 0.1013328327586800 
0.4041819649359250 -0.2859327760536260 0.4555845239908850 -0.5142941465619940 -0.1164643193747070 
0.3786260337061600 -0.009638049719319710 -0.006554677223337730 -0.3799978248945390 0.2079243619057550 
0.2902615932408000 -0.09881798810996620 -0.02213442935290520 -0.1501078411106230 -0.1877032257536680 
-0.2268423902798790 -0.1303401099683230 0.1275564114218780 -0.1063780417287920 0.1114559058657770 
-0.4483563683080180 0.05122590429350500 0.4681987929634960 0.1755454165087590 -0.4071842468038710 
-0.3582196511781780 -0.04142630066771100 -0.2003262657577390 0.2508380582232870 0.07746269342508660 
-0.3560936948928060 -0.02441462869407220 -0.08870882603026620 0.1282736440161430 -0.07346313576354820 
-0.3612056414648070 0.05997722575740800 -0.1196602261116690 0.09631345067975310 -0.06869316298718490 
-0.2519591462482210 0.09194832362366090 -0.1886401055000480 0.1061538237392250 -0.05006747339822610 
-0.2245287263266460 0.1036682310355720 -0.1688569826082580 0.1215863485973560 -0.02399056570536020 
-0.1818916520012970 0.2898804122734900 -0.1177182194534160 -0.1819192702781800 -0.1167787504076530 
-0.1307542098446480 0.1517549515266650 -0.1121813117658150 -0.03635220057445520 -0.1601891341924710 
-0.1036770267703900 0.01147499297038220 -0.09033027157894010 0.02635983200388480 -0.1658523962591100 
-0.1052565175819170 0.04572195092655640 -0.1028005434497910 0.04481886971158220 -0.1846986368924100 
-0.1014593246542800 0.1904844038991070 -0.1101572741210520 -0.01719208797901850 -0.1807136979663260 
-0.06543202851413630 0.1655937000046640 -0.08281442773592300 -0.04747692365581380 -0.2231212374261520 
-0.05610206009455860 0.2419767062172370 -0.06129206678057770 -0.1622169510858760 -0.2335815525156540 
-0.04119076458551700 0.2633613113804960 -0.02609716062232340 -0.1771798539667190 -0.1411474373596030 
-0.02771457765640500 0.1931464765497930 -0.006906812002233140 -0.1706678992475100 -0.1321191592416170 
-0.02538404937533520 0.1509516015949960 -0.005947791221430570 -0.1372416733066640 -0.07546224083154840 
-0.01117502074440770 0.09347345385900800 -0.003716718905381160 -0.09148196841750280 -0.04145976155927160 
-0.002974615864473770 0.07930878296024730 -0.003022609368738280 -0.05784897541603460 -0.03528055746588640 
-0.004780166022200500 0.02038600247484350 0 -0.02771457562761330 -0.02398875540965070 
-0.005480617820096970 0.02675396906491890 0 -0.02973328760429610 -0.01079263183825670 
-0.01719224896872350 0.02400368656581790 0 -0.02561831334117920 -0.008859458044170690 
-0.01664795550779920 0.02534841326765910 0 -0.01522775775527130 -0.009584440383983880 
0 0.004553378869527820 0 7.589415207398530e-19 -0.0008191482311783040 
0 0 0 0 0 
0 0 0 0 0 
0 0.009582188809920790 0 -0.006811914552961590 -0.004954671111367290 
0 0.008576538409210410 0 -0.006097004344482060 -0.004434678541050180 
0 0 0 0 0 
0 0 0 0 0 
0 0 0 0 0 
0 0 0 0 0 
0 0 0 0 0 
0 0 0 0 0 
0 0 0 0 0 
-0.009569823894678440 -0.005119240826141450 -0.001572159942044960 -0.004263641649870260 0.008110754757217970 
0 0 0 0 0 
0.003074313025678920 0 -0.001159039120610360 -0.0008241497913922360 0 
0 0 0 0 0 
0.03578568116000290 -0.01470590163515650 -0.01186253318341820 -0.008389508333298700 -0.0006297862403730770 
0.03678716015730510 -0.008528591453406430 -0.008191734893214840 -0.009270082218533330 -0.007634159626380850 
0.08585582735720080 -0.02906073167914690 -0.004890691812634130 -0.01343772944689380 -0.01282928263254990 
0.07969337421373970 -0.01970040119574560 -0.001716023833070550 -0.01656865156554910 -0.02460646537957630 
0.09402423432484220 -0.02455619467307680 -0.01027693738219610 -0.01962659688837710 -0.01369771652685040 
0.1465562926713000 -0.06044102757613830 -0.02207847344744590 -0.02159645437632180 -0.008303420476780890 
0.07248231331586990 -0.03574310279389670 -0.01301440699905010 -0.06467595770065230 0.02303727175207090 
0.04862203428192680 -0.06965149209841630 0.01032816371296180 -0.1015563885274460 0.02157614752180760 
0.05399805352901420 -0.01612749608345930 0.002265821046815420 -0.1219899244876070 -0.009685491981981980 
-0.1284977140835750 -0.02938040526984920 -0.1204115703664510 -0.05987502078119440 0.1175343267993620 
-0.1301702145855720 0.03698431320926420 -0.008176692260559500 -0.1419623108658780 0.007895347373724120 
0.1083161189223530 -0.05511905904762860 0.2267782462205160 -0.2209321642455580 -0.3464940416963420 
0.4090768308600430 -0.1741845781012820 0.05946077084241160 -0.2482898256804020 -0.1146479928968990 
0.3482537816084040 -0.1111348861186560 0.1572055286881330 -0.5404494678245530 0.1662137438198560 
0.01300490497675070 -0.1348430893240830 0.5833906796056720 -0.2430611517567880 -0.3931225885695350 
-0.01179417762870910 -0.3487051500225950 0.2521574431920740 0.06543324604844180 -0.1989067484682420 
0.1462639857207840 -0.3314568271642880 0.1535593883386740 0.02047958962597310 -0.04515945376562700 
-0.3107595512450380 -0.06776306833220720 0.5239505197996670 -0.3516544707007240 -0.1010015634264480 
0.02884100604397580 -0.2236320868157820 0.2817674036403080 -0.1891040486289500 0.02115335972444870 
0.005245599388159650 -0.08361151309262920 -0.1573307442548020 -0.2110007633212980 0.3847806983088720 
-0.1573407356161490 0.01353165729259300 0.01213072243450710 -0.06685527648397190 -0.05238329090774570 
-0.3514197772133280 0.006945429220258990 0.4823778353811390 -0.2688474507073600 -0.1285985368360490 
-0.4122943439916790 0.08576377112673200 0.3306449158609360 0.1272694094209680 -0.3522515890055680 
-0.3496677555570910 0.1057300462661290 -0.1845106020074560 0.1125466164132700 -0.05839451317714020 
-0.2643744714756950 0.1108162339907840 -0.05778133747594790 -0.05555380925584340 -0.1814214438135550 
-0.2162700172349290 0.03291627789118110 -0.08514491479956300 -0.01808404891007660 -0.08088196122169970 
-0.1844087517293400 0.01307878152576670 -0.1058824567041980 0.08055014390575400 -0.08923004101022380 
-0.1629831010595690 0.04652056838153280 -0.1194718132671680 0.04465248991179120 -0.04216939521567770 
-0.1056271007180760 0.1910814150981360 -0.08707525681910320 -0.1476939611042720 -0.1114599230540410 
-0.08231314041343620 0.07309749508805520 -0.06938714546076710 -0.05062310353629570 -0.1139719406054220 
-0.05085449843121450 0.009158793694258640 -0.04478513517148050 -0.05524775094482920 -0.1164873027358810 
-0.05260272297017730 0.01911876225502690 -0.04551049202757030 -0.03398556083808140 -0.1253363847689590 
-0.04710883605299310 0.1265091799180760 -0.04292189299496410 -0.06626138177484730 -0.1108731098264040 
-0.02687084723223250 0.09945281123126180 -0.02855051782588480 -0.08068126322137990 -0.1286810756632810 
-0.02647057242052640 0.1464753780404510 -0.02424282259938020 -0.1228041928293820 -0.1253907369199660 
-0.02049639488317900 0.1460219025965830 -0.01156239321733200 -0.1089567968748890 -0.08952575113469520 
-0.01643757173384170 0.1021592693927590 -0.003719448090463870 -0.09724637520857310 -0.06989897183411430 
-0.01011726857216560 0.08149088977689700 -0.006135395354891990 -0.06861405905505240 -0.04129030127730470 
-0.005716036123408630 0.05087506545956240 -0.003635038651039970 -0.04370109205134980 -0.009733849985256920 
-0.0001582408116522380 0.03890491197851630 -0.002192024745289540 -0.02385218059414190 -0.008695785887186760 
-0.01210967148791350 0.01265378531128540 0 -0.01314345526566900 -0.002496092490784190 
-0.001114228497540070 0.006925416200046520 0 -0.006080729023955240 0 
-0.006990435017391410 0.008146046623177680 0 -0.008818565118124570 -0.001879298054402160 
-0.006687947714479410 0.008385762197013420 0 -0.004994087237301830 -0.001959745273978640 
0 0.003302153185891130 0 0 -0.0005940540022717300 
0 0 0 0 0 
0 0 0 0 0 
0 0.004001536352470390 0 -0.002844665686964610 -0.002069078053037760 
0 0.003581575243777480 0 -0.002546118116599340 -0.001851928379365680 
0 0 0 0 0 
0 0 0 0 0 
0 0 0 0 0 
0 0 0 0 0 
0 0 0 0 0 
0 0 0 0 0 
0 0 0 0 0 
0 0 0 0 0 
0 0 0 0 0 
0 0 0 0 0 
0 -0.004574823792938850 0 0 0 
0.03640208387822370 -0.01210500428781860 -0.004695314938160270 -0.007785897495329190 -0.004351440183275500 
0.04593581311266040 -0.01404626228008640 -0.01469786137912010 -0.006431731548792830 -0.007736322695348610 
0.08832080198618830 -0.04006389831676080 -0.001569088190730920 -0.01153194667860460 -0.01914926350686380 
0.08187224902979340 -0.02641669494741820 -0.009843458058927960 -0.01569045346866250 -0.03024458971711830 
0.09474056263503940 -0.02785563835889970 -0.01520353989458370 -0.02240127253711640 -0.02872773879517360 
0.1046665642776050 -0.05005079588809020 -0.02842492417842270 -0.01409073925859840 0.008253006307397750 
0.001040442791497110 -0.03878148199384530 -0.01687526213706680 -0.05193681147982380 0.04719175088965090 
0.07811226930975230 -0.07543463321738480 0.007254856392628090 -0.1071445430698060 0.01899609333901030 
0.03510980876621430 -0.01501008583405310 0.003182921096082800 -0.1298143122047570 -0.01452815490410880 
0.01390352959840090 -0.06682963258495230 -0.05813748040083360 -0.09961876603714800 0.07583584665426030 
-0.1040269233316440 0.01641293390831370 0.06302437922259900 -0.1570695721174620 -0.02689902596992710 
0.1661387833391550 -0.1412529551506220 0.2726555785855910 -0.1888874300948740 -0.3827539989661850 
0.6365907482411830 -0.2747582523999750 0.04882376739769680 -0.2665628320787990 -0.2400069183581960 
0.2897847798367540 -0.09029237745355310 0.08620952295757780 -0.5214473647195710 0.05876079259779390 
0.01872983711930590 0.02384207777954270 0.2910694449766930 -0.3660695860281390 -0.2100501745089150 
-0.01500080366495670 -0.2564970256980770 0.2876292135373510 -0.02562036050464910 -0.1799755548389730 
0.1493034792731020 -0.3323341705025910 0.3258685997029730 0.1121353071850080 -0.2865682429868960 
-0.3307882610623260 0.02408289170206860 0.5026858629704000 -0.1743744703526190 -0.3179263547299540 
-0.2011720875049500 -0.1968088681806850 0.08982349590855820 0.1098390368099960 0.01605673431025190 
-0.2128235611470690 -0.06836788219536850 -0.1728592084072910 -0.1247375476236050 0.3207587056271870 
-0.4019397262593450 -0.01864468465234520 0.02431131896187920 -0.03768334952764800 0.1608590943005320 
-0.3947041013611270 0.1045688298618720 0.6067321731407510 -0.3727500098264310 -0.2830069864100680 
-0.2793221255168050 0.0001732593061758010 0.1926428472934940 0.1837014922653420 -0.3844872024997790 
-0.3276768401286080 0.1875937071451170 -0.1774844803641850 0.05298363801374820 -0.1561047251388370 
-0.1617557081827220 0.1417253055108910 -0.03521380905610920 -0.1239462023378500 -0.2345610604137080 
-0.1001761928782370 -0.02201977485150260 -0.05571895834148390 -0.02891906003075360 -0.08569497706834870 
-0.1227777531303500 0.01982995016273010 -0.03695125175719560 0.01589051865772540 -0.1396350460096500 
-0.1113421312765720 -0.02440204426322680 -0.06340848396410570 -0.01783685654344560 -0.02994216334355990 
-0.05736762909763020 0.08910631186377990 -0.05023882672363510 -0.07700852186773150 -0.1064380774269340 
-0.05633307709275720 0.03690683643532470 -0.02061339589815520 -0.05527815728879150 -0.09142734659229600 
-0.01917029390939590 -0.02474397671798820 -0.01658632077183850 -0.03118007065780250 -0.07731193547631440 
-0.02348098827016680 -0.02253191737912250 -0.01485518744394550 -0.02789706506539360 -0.07094587878686090 
-0.01972718221270760 0.05352123533248350 -0.007800415797127920 -0.05512101236927930 -0.05791133430586970 
