solver_type L2R_L2LOSS_SVC_DUAL
nr_class 2
label 0 1
nr_feature 2999
bias 1.000000000000000
w
-0.003612166388103024 
0 
-0.003633061275452978 
-0.007394145955170318 
-0.008288541642732440 
-0.006734031141328738 
-0.001320719630481970 
0 
0 
0 
-0.01131409973072844 
-0.004927974812123549 
0 
0 
-0.009236386271848892 
0 
0.006989068260343517 
0.03189480242055770 
-0.004706194534431996 
0.02531043862768852 
0.008284192141538742 
0.009100898634388320 
0.001578089748870939 
-0.02177968940983417 
-0.03151413103158098 
0.008833484678546350 
0.04597681272926157 
0.1213190609694110 
0.04808556604819185 
0.1273550421026633 
0 
-0.1587751052908625 
-0.007745659225802407 
0.1438091468963799 
0.05433888919134779 
0.07739436945575057 
0.01752715363645924 
-0.01142514220988633 
0.02092610492177057 
0.03550621766430469 
0.01398932370724160 
0.007137293500076050 
0.007365688094987462 
0.02702588056118934 
-0.004791816843200430 
0.005172187963122415 
-0.001075481371420840 
4.065758146820642e-20 
-0.003788847938678755 
0 
-0.01301888395950922 
-0.007077840431676191 
0 
0 
0.007332133752702650 
0 
-0.002224298254243486 
-0.005416837900539308 
0 
0.006389427226818744 
-0.003179254525550002 
0 
-0.009334677301817730 
-0.003467600628634582 
-0.003307303126138085 
-0.001781871029975338 
-0.006293192426781061 
0 
0.003786752714862709 
-0.0005610269876135033 
-0.01120056989333697 
-0.002326329274644110 
0 
0.001308925648813835 
-0.003829716726215067 
-1.111464541726513e-05 
0.001645750217581356 
0.005590361050634976 
0.005004743247462470 
0.001677772139442605 
0.0007937643034942396 
-0.002861000238258867 
-0.001380367787115202 
-0.0002571028216627237 
-0.01723752593976857 
-0.03576881581949006 
0.03362833769736895 
0.1102664815260536 
0.1039557959948636 
0.09537819918742695 
0 
0.3368119203696532 
-0.09529538962890591 
0.07989555159184389 
0.09603319834934157 
0.06135168399430525 
0.05747281220507640 
0.03180726434431134 
0.03041779462632259 
-0.0005054587105591422 
0.0009564914543670010 
-0.002317822730384141 
0.001887900175608882 
-0.001148276533376841 
0.01189327457798727 
0.001750525225736245 
-0.001641670532869458 
1.656580705791093e-05 
-0.001719872986204943 
-6.672806612453905e-06 
-0.005434895429651619 
-0.002575900765591398 
-0.0003408557486756069 
0 
0.002339661264689560 
-0.0002499423884086897 
-0.003107277602749221 
-0.002255356888520765 
-6.776263578034403e-21 
0.002153266479362861 
-0.001937088119715942 
0 
-0.01286303172476522 
-0.0004197078917966958 
-0.0001074595467144336 
-8.569365925449960e-05 
-0.008016353112631644 
-0.0002909937502679785 
0.003792457055446314 
-0.0008815711778048616 
-0.01006895720496803 
-8.861240464094300e-06 
0 
0.0008594691137068618 
-0.002931568454577017 
-9.526838929084033e-06 
0 
-4.434979052910620e-05 
0.006005328737417909 
-0.001736389944126961 
-0.01071416952575985 
-0.02037870477216439 
-0.001604300260045625 
0.008799860637455888 
-0.006708502741047054 
-0.04765052557022643 
0.007878769584353388 
0.06767896125285204 
0.05868149807297506 
0.04763574366799142 
0 
0.1518812893377874 
0.3257351481317810 
0.3046022481628598 
0.1757460754132194 
0.1217231890295437 
0.09114611364991683 
0.07441915352034328 
0.05090751558708470 
0.0007087468166226950 
0.006432256307138471 
0.004788536943458445 
-0.0002690474190262398 
-0.001232054415957037 
-0.0002652203382850010 
0.0006641637907117590 
-0.0009717119238329739 
0.0003375220069176886 
-0.0003855801132092204 
3.597243946457710e-05 
-0.0002445083977325055 
1.075770069007245e-05 
-6.944670139336620e-05 
0 
0 
0 
-0.003458088618790660 
-9.740245370140048e-05 
-4.235164736271502e-21 
0 
-0.002599103786860304 
0 
-0.01092271316867992 
-0.001422295701441360 
-1.389134033497053e-19 
-0.006921173097321325 
-0.005131013149809764 
-0.002871517770128397 
0.0003171052258857556 
-0.0007469067027848480 
-0.007237669017589613 
-0.0001240573664973200 
-1.373532193073272e-05 
-0.001019075102833858 
-0.007189604820620765 
-1.664837052310517e-05 
-3.125352942433767e-05 
0.0002799049869630001 
-6.248390297158247e-05 
-0.002664954279871304 
-0.01589557883812484 
-0.01360860767789168 
-0.0007812838069185308 
0.002556175573993832 
-0.01075119335811448 
-0.04315131140975317 
-0.03281449210577423 
0.01803936900061480 
-0.02536751167327961 
-0.02890302537122306 
0 
-0.1256020448871137 
0.5920781877961967 
0.5354547232773328 
0.2378359301789178 
0.2073417833770015 
0.08282896710337690 
0.07887658715678264 
0.03103111228250307 
0.005229081982042253 
0.001931052190963554 
0.001404185602059253 
-0.008359999424730556 
0.005780184292048431 
-0.005226852826664017 
-0.0005685007058524017 
-0.002454679619639300 
-3.733075602181556e-05 
-0.001712557727140585 
0.0003066725184189280 
0.0002110302083286610 
0.0005436594605881675 
3.670673362476109e-05 
-0.0002284800462154719 
0 
0 
-0.002690111292250801 
-0.002554773678875075 
0 
0 
-0.004992160130974663 
0 
-0.001530670374185448 
-0.003003278234284080 
-4.235416287978629e-05 
-0.01336745824440739 
-0.001439384113666400 
-0.003596698249435677 
-2.032879073410321e-20 
-0.0003000675785503891 
-0.002946549659832995 
0.0001068205700772180 
-6.447191926670458e-06 
-0.0005538564032645793 
-0.008579351712078931 
-7.814541265947397e-06 
7.907262796276263e-05 
0.0001629482323930034 
5.655678569093402e-05 
-0.0005007003201285366 
-0.007215095136687002 
-0.001803320528094542 
-0.0002901951613581634 
-0.002950941207603480 
-0.01592077571300096 
-0.01679650836819627 
-0.03364199169375539 
-0.01268341103560280 
-0.02380194267174646 
-0.05267541550786022 
0 
-0.1323852815681265 
0.2763279585735605 
0.5112581837079139 
0.3186060227470855 
0.4125233896273309 
0.1685480266529262 
0.07198876818794518 
0.02905967038255972 
0.01870416227603092 
-0.01203190420297775 
-0.007463980392416120 
-0.006966251347847719 
0.008755964915835643 
-0.007390804631208610 
0.002024854200527649 
-0.005318568836566996 
0.0002793181937031246 
-0.0009191470523640553 
-0.0001202486693794702 
-8.143618697587644e-05 
4.254965995971712e-05 
0 
-0.0001072457359786931 
0.0002095355699790228 
0 
-0.0008456528092642198 
-0.005394585792187812 
2.168404344971009e-19 
0.0001194652804511600 
-0.008623014126562347 
0 
-6.170316966504071e-05 
-0.003755781012562079 
-0.0001509035795412236 
-0.009958446828553975 
-2.243083208923217e-05 
-0.001263354048934129 
-0.003198745243137940 
7.411538288475128e-22 
-5.482751829994134e-05 
-0.0001628618462765174 
-7.971438371256942e-06 
6.352747104407253e-22 
-0.007711263220380962 
-3.419280735067245e-05 
-0.0005247631197982256 
1.260935708827177e-05 
8.803010436147521e-08 
-0.0001466836282490009 
-0.005442544105770799 
-0.0004988977693300562 
-0.0006164947663355791 
-0.005221696581142342 
-0.02697364722347753 
-0.01050891965797084 
-0.02468784058059785 
-0.01277571579515743 
-0.01471562090845937 
-0.04480505725334259 
0 
-0.1556317974785059 
-0.01367787805634246 
0.2704357116630613 
0.2609278357980319 
0.4602297345798455 
0.3445353502694471 
0.02061215213418943 
0.07023406430996046 
0.05363246934090937 
0.06214451378187824 
0.02982591493008681 
0.03135408004626791 
0.02511801115039193 
0.007465676908448584 
0.02594039558444963 
-0.0001132175066955133 
0.004563226345503131 
-0.0007024656999423452 
0.0001079787123658964 
0.0002343202933603135 
0.0001135995151455832 
-0.003744775208676193 
0 
0.0002099911085550538 
-0.003471154929937830 
-3.722667017478336e-05 
-0.004813930581703013 
-7.318364664277155e-19 
5.267743140648564e-05 
-0.007799630391640253 
0 
-0.0001294719607090929 
-0.004522247270298508 
-2.531539222309860e-05 
-0.002257230956060531 
-0.0001350594327927898 
0 
-0.006844876634549327 
4.235164736271502e-22 
-2.707244020551778e-05 
-0.0003882228725222262 
-2.036436789243773e-05 
0.0001640999559634751 
-0.003553029226055961 
-0.0001654681787519328 
-0.0008925948804194066 
-0.0002496800487826065 
-0.0002299875518277165 
-0.0003554729904820280 
-0.003025505061003512 
-0.001023237554546054 
-0.001217930397890388 
-0.003184908918675883 
-0.03325652223054569 
-0.01723056231667549 
-0.02049562875537953 
-0.003981023957882777 
-0.01654945849226738 
-0.02022581731970957 
0 
-0.1233008635162877 
-0.06214278818870728 
-0.05595231958597248 
0.007524781007201385 
0.1881733744828419 
0.3286514799349103 
-0.02812410552411336 
0.1199556704670619 
0.1056702962093282 
0.1363054868315743 
0.09699141659454041 
0.1086959317281154 
0.07834540739659690 
0.05692423925907544 
0.05123658014639417 
0.02951081257160739 
0.01056550750536230 
-0.003491824787660050 
0.001420308705797998 
0.001201982269074230 
0.002316050260028888 
-0.007758810226602577 
0 
0 
-0.005774309259537955 
0 
-0.001467351159243664 
3.794707603699266e-19 
0 
-0.003797744802870735 
0 
-0.0004194278986866637 
-0.004655754203780772 
6.352747104407253e-20 
-0.002364873823010361 
-0.0004607982724861504 
0 
-0.005475904378704057 
0 
-4.971802785625429e-05 
-0.002615528137846240 
-0.0001630620496386444 
-0.0002684619446461903 
-0.001111370164649330 
-0.0003660252897846808 
-0.0008230939329892647 
-0.0006406673966107719 
-0.0006193878855589453 
-0.001384851327169308 
-0.001537150308233268 
-0.001379490650322255 
-0.001185945832917388 
-0.003780115074602722 
-0.02481365715844271 
-0.02328546835507543 
-0.03156269993862464 
-0.01466571457782898 
-0.02967311182981470 
-0.03982607963034270 
0 
-0.1004127354678557 
-0.05688799737171568 
-0.2252060491138303 
-0.1763752208037915 
0.08681030860842094 
0.2888005173369285 
0.1282320524958851 
0.1969003103529356 
0.2902217713397539 
0.1514428632334479 
0.08336731344586897 
0.1033035486481744 
0.07793089170540492 
0.001389900220302203 
0.04024956329865101 
0.02401617597819599 
0.01967042188753803 
0.02870999168251477 
0.008706036340602134 
0.005836747426269043 
0.01136361222293567 
-0.005661579263957948 
-0.002955776891120071 
0 
-0.003466346566646371 
-4.787338379771169e-05 
-2.272893615646724e-06 
-2.168404344971009e-19 
0 
-0.001785513306374860 
0 
0 
-0.002709865661573829 
-4.270182198299900e-06 
-0.002124415574889110 
-0.003094462392400912 
-0.0001356282222946028 
-0.001124915866454033 
-3.019958684911322e-05 
-0.0002297451248158153 
-0.003211457518315359 
-0.0001649722568598186 
-0.0002523134471973324 
-0.003048093040019950 
-0.0002714717766472194 
-0.0005067702722277823 
-0.0007955330409934982 
-0.0009489043273487346 
-0.001795651838296467 
-0.001924031328264661 
-0.003690788322931907 
-0.001822259753884770 
-0.006351639586490757 
-0.01764460585066201 
-0.02319200585454192 
-0.04321449594147028 
-0.02127494971539775 
-0.04320036400964242 
-0.1084935682579304 
0 
-0.1002706048595373 
-0.01670151115112880 
-0.3179681081138834 
-0.2977983886961321 
-0.09589402499530310 
0.2049202781973762 
0.05570413774547771 
0.2070848866543307 
0.2800865351616520 
0.1655625506530552 
0.02480827729885715 
0.1078886084118985 
0.09064014834302140 
0.03776692527854296 
0.07762527897025370 
0.04249479434537473 
0.02313880159750316 
0.03966436424120202 
0.01503535375357841 
0.008533806734509191 
0.01495126444461086 
-0.001273433195432419 
-0.006772095492414387 
0.001865697658234746 
0 
-0.0001091622399516635 
0 
-1.355252715606881e-20 
9.235583610020439e-06 
-0.0001355015833889377 
0 
-7.400608346087164e-06 
-0.0002420524023122733 
-8.060607972052748e-06 
-0.0008488547863342269 
-0.004816538988322226 
-3.630343783423384e-05 
5.462371786781015e-06 
-1.310217227815724e-05 
-0.0002665709922809224 
-0.001208230500205213 
-1.127191915198111e-06 
5.682108529909557e-05 
-0.004600344776022391 
-0.0001857179166740561 
-0.0003930460653158885 
-0.0005982090292153513 
-0.001017862284146259 
-0.001928974213672249 
-0.002609100770971684 
-0.009318025885671327 
-0.005798732640424413 
-0.01171060436553505 
-0.02077610251705538 
-0.02829936362425317 
-0.04492891070981504 
-0.02526460953369849 
-0.06456526873446684 
-0.1760075461013506 
0 
-0.1404615379186947 
-0.05400909953059360 
-0.3342238806077642 
-0.2405270957134130 
-0.08687400079392064 
-0.2336366947327448 
-0.02190246018054029 
0.06381466759069600 
0.1628242725558959 
0.1950961121064710 
0.05774164399383926 
0.1512827705731154 
0.1183097235147312 
0.1165249797128200 
0.1512341036187436 
0.06095313667490307 
0.03811926763140146 
0.01663861219999566 
0.01909158884785147 
0.01949420710056006 
0.01045218287017587 
0 
-0.005812723286255541 
0.004946648733230892 
0 
-7.885898715785263e-06 
-0.0001374520025712619 
3.388131789017201e-21 
-7.940933880509066e-23 
-0.0002701400353865303 
0 
-1.059903036987331e-05 
-9.989487555400318e-05 
-4.102815838263017e-22 
-0.0002181625532298435 
-0.003472138095297254 
-3.904292491250291e-22 
0 
1.694065894508601e-21 
-1.295790563077163e-05 
3.820843042809442e-05 
-0.0002181524337106148 
4.320287532046261e-06 
-0.003533207597038842 
-0.0008053783827697429 
-0.001739439652705512 
-0.001975356754264621 
-0.002371987694663980 
-0.002192927905733787 
-0.006084522615492426 
-0.01768562278232960 
-0.02586174520638779 
-0.01838915693328226 
-0.03388016429018791 
-0.04321383403825305 
-0.06280337879572574 
-0.06212496959779967 
-0.1093930034483124 
-0.1951584908732624 
0 
-0.1798945352115140 
-0.1036826105360982 
-0.2302828477063070 
-0.2217351823707214 
-0.1546883928591027 
-0.3168299183566404 
-0.1668426746961687 
-0.03724803831630072 
0.1226306071454637 
0.1129617633098610 
0.1326667127179650 
0.1595647055200507 
0.04899117921444059 
0.09715235545926698 
0.1423789213890968 
0.04897134258680295 
0.04859479362764305 
0.02138142661739149 
0.02130868538181102 
0.04795275653819092 
0.01312490530437159 
0 
-0.001476831191032287 
0.003735689546312023 
0 
0 
-0.0001647420741120850 
-3.388131789017201e-21 
0 
-7.626547394784802e-05 
0 
-2.389640502818146e-05 
0 
1.266578953941196e-20 
0 
-0.0007605251578639770 
-6.220398206398768e-22 
-0.0002450980036864047 
6.873522411589306e-06 
5.263213236308210e-05 
7.815584084031948e-06 
-0.002027730225384598 
-0.002107091224981417 
-0.003184266189906486 
-0.004585687996216305 
-0.004176443805876964 
-0.007202331667555364 
-0.006514407372046324 
-0.01123990263848092 
-0.01218195561214801 
-0.02827780895510029 
-0.05471664994508617 
-0.06206528903398381 
-0.07636090767562222 
-0.09751960597056666 
-0.1266572453207245 
-0.1138302042965728 
-0.1578834753819552 
-0.1896141078875240 
0 
-0.08933050203317580 
-0.04881483025454673 
-0.1489920736526945 
-0.1723625544295031 
-0.1134386921737770 
-0.2210732173377741 
-0.2901419735241103 
-0.008383633544668140 
-0.02694949211949236 
0.03284341704309346 
0.06210238724435197 
0.1207434518706409 
0.006180665338842121 
0.1012404002814410 
0.05151698271356504 
0.05561515940562700 
0.04155506646629426 
0.03714377332158422 
0.02370819880598090 
0.04839323716306049 
0.03442092519886829 
0.008547348286596980 
-3.930232875259954e-19 
0.0002729494632727143 
-0.0001970503922026589 
0 
-1.193708580044550e-06 
1.355252715606881e-20 
0 
-0.0001070466812241653 
0 
0 
-0.0001628691539394781 
-8.470329472543003e-22 
-9.097114275257083e-05 
-4.464125151605804e-06 
-9.461164779078187e-06 
-0.0001237442208788765 
2.424846866004914e-05 
0.0001560612825593327 
0.0002725625519853869 
-0.005438625694233352 
-0.005309686981520834 
-0.006416233465843551 
-0.01067250916122105 
-0.01002588048067346 
-0.02160527772063101 
-0.02353649163802795 
-0.04081751097099699 
-0.01669883275832741 
-0.03924002365011967 
-0.09625751234162631 
-0.1644763353166783 
-0.1711164030092476 
-0.2406403331009527 
-0.2267058587919245 
-0.1187608965771690 
-0.07674229265775384 
-0.1668327262547060 
0 
-0.03502863843303072 
-0.002686626180540332 
-0.07921440222001380 
0.05444204577395063 
0.04225575809557323 
-0.02004070023560606 
-0.2363300484866597 
-0.07338330943343305 
-0.2288854089589258 
-0.1177488167947935 
-0.01143653637740940 
0.06631305662108257 
0.08332837030276130 
0.1031185350262719 
0.01122475998978252 
0.08332442940681052 
0.02384978883808805 
0.03653632050309414 
0.01635441771785701 
0.01712939567690607 
0.03428986373930281 
0.01455429095487507 
-1.219727444046193e-19 
0 
0 
-7.950641667677343e-06 
0 
1.694065894508601e-21 
0 
-7.266840058930449e-05 
0 
-5.278641382060855e-06 
-9.688319497051593e-05 
0 
-3.191524389858237e-05 
-4.401172475898703e-06 
1.640324444316337e-05 
1.033361059774979e-05 
6.135417673812121e-06 
-0.0005710634576694047 
0.0003653517226361293 
-0.005291050827441288 
-0.004783324638296714 
-0.005714607085166373 
-0.01221447885483516 
-0.01089379468734318 
-0.03244181498627818 
-0.01626449533863061 
-0.05005373029838590 
-0.09267187965567525 
-0.04540064854574269 
-0.1715429976730130 
-0.2288462941887615 
-0.2331570058855587 
-0.2295486196296504 
-0.1926825761993738 
-0.2282735511844238 
0.03873690194127200 
-0.1079836578001814 
0 
-0.006280202023354288 
-0.003748734258868690 
0.03394927615193263 
0.03554433400008904 
-0.01482970909691786 
0.1392543842357243 
-0.06547370423957630 
-0.1697953834351141 
-0.2083246599126914 
-0.2367963592967791 
-0.03470072939442839 
0.06669913911935155 
0.1089170346483644 
0.06743095990310384 
0.03983041659003583 
0.08911044802434076 
0.01891970035183078 
0.03386290254245350 
0.004070464261256322 
0.009667055350577046 
0.01232424132460613 
0.008823206376554014 
-0.0002311671346911334 
2.142929046290359e-05 
0 
-4.729462566721033e-06 
0 
0 
0 
-8.281250975778482e-06 
0 
-1.703015697680759e-05 
-8.109666026782921e-06 
0 
-0.0002602467869000928 
-0.0001263088223112437 
-4.431111043729941e-06 
3.952287342713882e-05 
0.0001196324943437938 
-0.002129148996819199 
0.007311782708489200 
-0.002741962197757369 
0.007915531295352536 
0.004660677289393574 
-0.009048272077779572 
-0.01714639265119285 
-0.04635945844064467 
-0.03013750012164135 
-0.1429674066377967 
-0.1819163633618292 
-0.1449855036955270 
-0.2529768700851389 
-0.3071161325120924 
-0.2959628486247038 
-0.2185978720632859 
-0.1072759963239096 
-0.08817644372769474 
0.02663152655083505 
0.007859243616690676 
0 
0.07792379416291216 
-0.02700768011650458 
-0.04140340551478457 
0.04419102756779487 
0.03305038141146941 
0.05437163304833793 
0.02125296974345136 
-0.2327015614615978 
-0.1374522683024359 
-0.2373779019968262 
-0.08872691069837103 
0.03556145675452709 
0.06139276491907015 
0.05503905594675706 
0.05027782965323678 
0.05550453651091310 
0.009585470159929220 
0.01801715601038535 
0.0001847360000708220 
0.004530038765872782 
7.946425674387063e-05 
0 
-0.0001465862353502757 
0.0001613198824974309 
0 
0 
-1.456684425749851e-05 
0 
0 
-1.099119135456021e-05 
0 
0 
-1.529331692465158e-06 
3.176373552203626e-22 
-0.0001410616115361212 
-0.0001383432615969215 
7.623296525288703e-21 
-1.499485125185035e-05 
0.0002740463298923429 
-0.0007461780711624869 
0.02152721600753191 
-0.005126776433676459 
0.03483034682416188 
0.02795148910830619 
0.01659459853225723 
-0.02670502910260549 
-0.05749021489397266 
-0.09953834174472220 
-0.2188300490865683 
-0.1852203473312047 
-0.2510157199806461 
-0.1876486441695240 
-0.2776327784337486 
-0.3313271047833714 
-0.2922908618994050 
-0.009231471746429815 
0.2074011353336763 
0.1672483681687373 
0.2054023675961072 
0 
0.05805227212524744 
-0.1825047862545535 
-0.1135169058992137 
-0.004497595432461601 
0.001296610446731755 
-0.1313114990864198 
-0.08144240353227440 
-0.2043059028993367 
-0.1158854447786105 
-0.1678721939860888 
-0.1213612268870402 
-0.02519667485095185 
0.01790662371351399 
0.04870895739290214 
0.02560614251513876 
0.009953195630702580 
-0.001381343738484149 
0.002787997039243661 
0.0004197556036090692 
0.001293132024066030 
0.0003427264645987185 
-1.687699967001446e-05 
4.658681209898652e-21 
0 
-1.414758163309490e-05 
-1.069814327412370e-05 
0 
8.470329472543003e-22 
0 
0 
0 
0 
0 
1.058791184067875e-22 
-6.974069348911795e-06 
-1.115864756983118e-05 
0.0002570597251986605 
-1.199812151419483e-05 
0.0002986380631974129 
0.002463677089930780 
0.02625025187145920 
-0.008454024996836963 
0.04781898926986319 
0.03961616669582940 
0.03171202618256650 
-0.02813494902962390 
-0.06226134503819196 
-0.1705026576317630 
-0.1547697988629497 
-0.1140380388204329 
-0.1315273280420420 
-0.1705285031088991 
-0.2815620633603341 
-0.4178594774792560 
-0.3677010440273514 
0.1004378405760463 
0.1323673387993022 
0.1186108066217610 
0.08125353088218455 
0 
0.01480666329443944 
-0.1861611486827783 
-0.1055850944973296 
-0.009074473346927563 
-0.05243021211629249 
-0.1593356522087706 
-0.1776195693404961 
-0.1490379178673881 
-0.09878741389325146 
-0.09312441073828790 
-0.1016591890598629 
-0.04689805629714951 
-0.01531567756470640 
0.02660492158360178 
-0.0004654174451091734 
-0.007921869658760168 
-0.005885944318177645 
-6.491119649404563e-06 
0.0005035588734606015 
1.923922915519514e-05 
0.0007292870409058444 
-1.350412147708844e-05 
2.117582368135751e-22 
0 
0 
-1.674668365378625e-05 
-9.307509418536098e-06 
-7.411538288475128e-22 
0 
-7.763156750683912e-06 
5.823351512373315e-22 
-7.936837427153887e-05 
-1.181147100894903e-05 
0 
-2.128387709937286e-06 
-1.167770815349210e-05 
-1.992889387827390e-05 
0.0003755651467592331 
0.001507839568774658 
0.003602865408901354 
0.02483285846537096 
-0.006562227731713521 
0.05199249115334644 
0.05509577224667384 
0.04560413629603623 
0.02676009915356715 
-0.06452342135912788 
-0.2191965366214791 
-0.09928385766323294 
-0.007804473749433123 
-0.07320292156960102 
-0.3504641180605533 
-0.1387548484106950 
-0.2237619065384759 
-0.1570746842537693 
-0.09419219083359417 
0.05101206334521629 
0.09755648556364706 
-0.02300096490498119 
0 
-0.02439590071895385 
-0.1136507055531837 
-0.09014382644478817 
-0.01707366301738833 
-0.1080048202699570 
-0.1205201492463318 
-0.1574553254351253 
-0.1009080701417024 
-0.06070960509271307 
-0.04099898738066309 
-0.05948131739337679 
-0.03290723611374017 
-0.02139976097625707 
0.004113103094554436 
-0.002286047345236075 
-0.001828731438109810 
-0.003586920927920384 
0.0005572236297136135 
-0.0002802236223556182 
0.0003058863509120466 
0.0006596455686284715 
0.0005016088811119054 
-1.309826271626522e-05 
1.020901207506859e-05 
0 
0 
-9.445110710781487e-06 
0 
0 
-1.466790121075108e-05 
0 
-0.0002420389521918652 
0 
0 
-0.002360410263223714 
0 
-6.914348333610329e-05 
0.0003563330155991265 
0.006981320251566609 
0.008714467834909536 
0.04793073201878888 
0.009494401010951127 
0.07398305046465646 
0.07161154047938496 
0.07154248044587240 
0.05636433123941270 
-0.09301807626557125 
-0.1716911919215274 
-0.09367831926610180 
-0.01402704591634106 
-0.1930996236258202 
-0.3548413167562955 
-0.02017650130958369 
0.01373821979912075 
-0.01381484872589226 
-0.2951689052065543 
-0.07437090671646775 
0.007377812789372265 
0.04273127122129411 
0 
-0.04240279360471081 
-0.05088897997188066 
-0.04550749930638096 
-0.03006393846530895 
-0.1008042105007377 
-0.07408251312700954 
-0.08561140241834182 
-0.04699222805900785 
-0.02109333592242928 
-0.01060600924586407 
-0.02363763151926875 
-0.01355969362066107 
-0.01134077939288715 
-0.004290525552765226 
-0.0009470547355244645 
0.0009364518533152600 
-0.0006485457410907738 
0.0006008355128810127 
-5.121814205212745e-05 
0.0001596153649746130 
8.641437557446312e-06 
0 
-1.351737194771250e-05 
7.595274819897707e-06 
0 
0 
0 
0 
0 
0 
0 
0 
-2.130084256331673e-05 
-2.683097568367137e-05 
-0.006687559048977507 
-1.252275613983045e-05 
0.004650351298018823 
-1.596798841969188e-06 
0.01555770823055175 
0.01737855418587924 
0.04093251821340634 
0.03210178662132317 
0.06243785146757728 
0.04536527599179215 
0.04062380828936725 
0.01897022407460944 
-0.1008450951523517 
-0.1208272411354527 
-0.1218917053984197 
-0.05412503874619399 
-0.2004674381050024 
-0.2511350952530331 
-0.02579049614612954 
0.1494222897414928 
-0.06259414460532871 
-0.2394818469108462 
-0.02488771895726376 
-0.02656746259328455 
-0.01887885263238524 
0 
-0.09266220963728938 
-0.06070273765025608 
-0.04776226894995963 
-0.06453269093376658 
-0.08647180025287264 
-0.04277405151096540 
-0.03914672915742454 
-0.01188180500641889 
-0.007660321882716465 
-0.008016060361857306 
-0.003606115280686002 
-0.004167855034972836 
-0.003014252827488179 
-0.0002563851651540536 
0.0002256701844187003 
0.0006960780568710703 
-0.0001051377646009720 
-4.769815422881434e-06 
5.458945199974640e-05 
-5.969959540058425e-05 
2.731230311048746e-05 
0 
-4.274869405674047e-21 
0 
0 
0 
0 
0 
0 
0 
0 
0 
0 
0 
-0.007079666429561057 
-8.903786931749121e-05 
0.006585724109706615 
0.001450054761369251 
0.02603152831007405 
0.02437052700295277 
0.03690959028043165 
0.05096205971356008 
0.03798955316340873 
0.02303671543920394 
-0.0003456109610214486 
-0.02993362552742970 
-0.03984204806048947 
-0.03293089246643169 
-0.05964521500703372 
-0.01278577319060750 
-0.1625129684060091 
-0.06159684724768378 
-0.04970407809884812 
0.1214715800205292 
-0.1758433700608934 
-0.2460558998050513 
0.05221942298474280 
0.05778636749502594 
0.02790111667551117 
0 
-0.1131441014117678 
-0.05938636894874598 
-0.07152949552200712 
-0.06132854767759297 
-0.06306158657611845 
-0.03066422773744405 
-0.01874529696032440 
-0.002724124599484936 
-0.002423346702778877 
-0.006619366667812490 
-0.001072319898809793 
-0.0006003685235135344 
-0.0001360480765163445 
8.211032288224743e-05 
-7.905108744092065e-05 
5.633477398778865e-05 
6.311768542256686e-05 
2.907306899233181e-05 
0 
0 
4.032017078055314e-05 
0 
0 
0 
0 
-0.0001958609264339265 
0 
0 
0 
-2.893403872916787e-05 
-9.317362419797304e-21 
-0.001291951113697819 
0 
0 
-0.003006937940143612 
-0.0002139209552807760 
0.0008444171080093125 
0.01023512661523588 
0.02345068733729326 
0.02673528894525668 
0.03239383575342701 
0.03879897832887061 
0.02832542656904863 
0.04777157413029940 
-0.0004888427097390947 
0.03872864401257195 
0.02331926033046759 
0.03236500228843969 
0.06984653757895090 
0.03772778427911008 
-0.09549965398650008 
0.09302189926946348 
-0.01932830672903139 
-0.1026576637167252 
-0.1996496894908571 
-0.2475334639102163 
-0.07831752650848847 
0.01728404818685219 
0.07167400864638286 
0 
-0.001774235895524290 
-0.01153898872141204 
-0.02781003055535366 
-0.01064422628612131 
-0.02578744288018836 
-0.01296309128625194 
-0.008307073798210274 
-0.002022306790763831 
-0.003125489810043848 
-0.005331278210218991 
-0.004050264481028546 
-0.0008995195236115272 
-0.0001167975214263567 
0.0002652443890614194 
-0.0002207082609509183 
-0.0002875796970534909 
3.708450477769914e-05 
1.643593204289561e-05 
-7.286823855555277e-06 
2.634216086062673e-05 
3.763387052515850e-05 
3.601389732895093e-05 
0 
0 
0 
-0.0001864978111738787 
-0.0001296368767799404 
0 
0 
-0.0002011107351034085 
0 
-0.005324705256640830 
0 
0 
0 
0 
-0.001230696207231208 
0.01572405492322179 
0.01739604340218309 
0.01427768964338441 
0.01172701152425498 
0.01153098326857679 
0.03414869636370854 
0.02058087044625702 
0.01265355728803542 
0.06551393984566667 
0.03686028826034765 
0.03283965333769758 
0.03931655974640922 
0.01189844245853780 
0.07240400563325924 
0.1265278799196496 
0.07451448688025694 
-0.1080399783130905 
-0.09915583474705014 
-0.1119889184153335 
-0.1723987532871058 
-0.1450187239321620 
-0.06365193138955348 
0 
0.1193782761381143 
0.05748204600296981 
0.05697419398790515 
0.02589903189405229 
0.008561380172239943 
0.009911259057711928 
0.001638792448807874 
-0.001639235250617561 
-0.001743124888794354 
-0.002391135978447362 
-0.005566416083042733 
-0.0007119391353326332 
-0.002417759607377076 
-0.001222142559092338 
-0.0008542051036136717 
-0.0004547309330358050 
-0.0002116336160955034 
-7.353844903254148e-05 
-1.793630234469215e-05 
-4.820162496576826e-06 
-6.395683750730553e-06 
0 
0 
0 
0 
0 
-0.0001315534191805442 
0 
0 
0 
0 
-0.005988625853544818 
-0.0003746778249873301 
-0.0003737072821837053 
0 
0 
-0.001678174646759073 
0.008017757183209483 
0.008431741271678674 
0.001405167458121433 
-0.003933030837743035 
-0.001286613253060708 
0.03409549710601213 
-0.004494106360129202 
0.007296046781852597 
0.02118298082752861 
0.02017082140074082 
0.01364642967443948 
-0.003240965928023403 
0.0002974427833160355 
0.08352747135119239 
0.1322915899644530 
0.1269335559085486 
-0.02173596339934579 
-0.05004353651388733 
0.02166983665132229 
0.007357741798506602 
-0.06473253738897750 
-0.01792766441488775 
0 
0.1378900030936708 
0.1221036219853124 
0.1384430784640460 
0.01808904964504212 
-0.02269455417782135 
-0.03874679929797784 
-0.04385918219039856 
0.0006495030984678273 
0.003275545799105871 
0.01582855213633878 
-0.006591909816281336 
-0.008188819579697693 
-0.003584875516757747 
-0.001639492298289400 
-0.002697328782906638 
7.722072014973807e-05 
-0.0001291132743898053 
7.988146343931320e-06 
2.588876850317820e-05 
3.288666555431508e-05 
-2.871656469743803e-05 
0 
-1.084202172485504e-19 
0 
0 
0 
0 
0 
0 
0 
0 
-0.002510076741824177 
-0.0006239628863468886 
0 
-9.837790866732596e-05 
-0.0002021449389151373 
-0.0009471512936793483 
0.0003540919559033339 
0.0006432094668871131 
-3.836632442030235e-05 
-0.005521595138342351 
0.0001322221541071974 
0.02249194158851440 
-0.009184748169896040 
-0.003525069406599705 
-0.02596978018622030 
-0.001162472311238499 
-0.007304248802159864 
0.01534918645324461 
0.04004028946490613 
0.01568771755575606 
0.07089096548945469 
0.03175874268642846 
0.01194723587459426 
-0.007237406423064976 
0.1814697153761481 
0.1861741853824686 
0.07657485453676889 
0.1134990296864883 
0 
0.1651808048384784 
0.07364237671554498 
0.05020449732833571 
0.01874516237400834 
-0.04561211486219768 
-0.01657172832345339 
-0.003141860390909505 
-0.02733972968092907 
0.007492035630828929 
0.02497808633266400 
0.001307152700308402 
-0.006791036508317961 
-0.002492977899742664 
-0.001923848913757137 
-0.003093283812595263 
0.0004704363435317328 
0.0003436679961770380 
0.0004148582541284659 
2.726564188943363e-05 
-1.141082687409657e-05 
1.726138828055358e-05 
0 
2.710505431213761e-20 
0 
0 
-0.0004905680709432225 
0 
0 
0 
0 
1.355252715606881e-20 
0 
-0.0003746778249873058 
0 
-0.0009065500070363947 
-0.003538377879246677 
-1.950621604366791e-05 
-1.185846126156021e-20 
0.0001601055020034695 
0.0002196387218840602 
-0.003099657438118372 
0.0004090460799694951 
0.004820823875030631 
-0.001707434200494599 
0.0002216958538066825 
-0.02582896388258435 
-0.003581681547619372 
-0.0008566072370800662 
0.02749847360363518 
0.05493017134900829 
-0.03443248903310141 
-0.05347936741959750 
-0.06323901043182535 
0.02897036364258575 
0.08071627513241313 
0.1942915974115664 
0.2868437413944311 
0.2559503200647068 
0.2440111559768896 
0 
0.3045991414427568 
0.1428606451110025 
0.03504224861825292 
-0.01835652398465327 
-0.1153035738068617 
-0.08063257843674582 
-0.01534432624498836 
-0.07489010567074171 
-0.03604614933646152 
0.01858299487467553 
0.05011828296057454 
0.03464102388946506 
0.006490656361940845 
0.004334861311047264 
0.008051176417326500 
0.01812216866145390 
1.517644463914248e-05 
0.0006613328694410483 
1.599426934094031e-05 
-9.471469888368937e-06 
0 
2.427713856570375e-05 
-8.131516293641283e-20 
0 
0 
-0.004057188992649851 
0 
0 
0 
-0.003210555065372238 
1.897353801849633e-19 
-2.043619759148981e-05 
0 
0 
-0.001089134924481202 
-0.005872318621573186 
1.311085650256597e-05 
0.0003023529324008230 
0.0003279252886863109 
0.0003588545094654421 
-5.191745326310245e-05 
-0.004794529964053920 
-0.01150992413404755 
-0.003581917415378629 
0.005021398871318774 
-0.01202594036555790 
0.01431136653508614 
0.01672543978108637 
0.009311745140465835 
0.03288753784914599 
-0.04711155395322599 
-0.08284269553396093 
-0.03893902760468049 
0.06268321453160410 
0.1362129494315778 
0.09963560437353597 
0.2844400979647307 
0.3346093232284867 
0.3262079424607519 
0 
0.3578828413903507 
0.2363582296249033 
0.06936607271481930 
-0.07794940899972493 
-0.1261679577287003 
-0.2161553339276121 
0.06403856210308273 
0.04429851618239288 
0.0006155590043526957 
0.03517034378630270 
0.06266076614097504 
0.04468823408590330 
0.02337721678631913 
0.01776774854071441 
0.02041846408093286 
0.04004032980148008 
0.0003739010583238436 
-0.001196183183170791 
-2.117582368135751e-22 
-6.213283283179773e-05 
0 
0 
0 
0 
0 
-0.006665737591186026 
-0.002091820038611756 
0 
0 
-0.005570688799152182 
-1.897353801849633e-19 
-7.684770298374239e-05 
0 
-0.006573440992120398 
-0.0007530987667409819 
-0.004131985712798143 
-0.001276444174149808 
-7.957679200501320e-05 
0.0003322770010443695 
-0.001677248302850454 
-0.001174281801846194 
-0.004855434554434306 
-0.01187815543019004 
-0.005682130487232786 
0.003455662869372691 
-0.004827856054806259 
0.01590808675026761 
0.01055044959138718 
-0.003832430939984364 
0.006346282493415083 
-0.02545727956289815 
-0.04539658273415640 
-0.005558560843482255 
0.01486158519933188 
0.06305502592363829 
0.04025415124586262 
0.1596752049703512 
0.1993301810026638 
0.2801857085807564 
0 
0.2454537125645818 
0.2079195464501379 
0.1242631153087943 
-0.002283342225927371 
-0.0003125600478002233 
-0.1345457301784525 
0.1715649929343717 
0.2465102670215964 
0.1000277259913669 
0.02462032492513925 
0.01493564332208574 
0.01117778051751990 
0.01650880660202822 
0.01169172741873959 
0.01368450871507582 
0.01905236422274149 
0.0006429685506528365 
0.001181840668208340 
0.0009509114985013276 
0.0005222279648042469 
-9.947286926868118e-05 
0 
0 
0 
0 
-0.005358891431618179 
-0.004121992942705747 
0 
0 
-0.003782787581023059 
0 
-0.0001517627419013118 
0 
-0.01094696013785756 
-0.0001229110516245281 
-0.0006743693280170023 
-0.002568808631796198 
-0.0006514892889956200 
6.945965833825298e-06 
-0.003266219126276049 
-0.001178733023782307 
-7.523982370368363e-05 
-0.004326133797368882 
-0.003884286499417464 
-0.0002827337918512707 
-0.003719851946312510 
0.009648800823411813 
-0.005047909118679773 
-0.002173700390205308 
-0.005269511858038650 
0.004763258227891630 
-0.01030728986402598 
-0.004141255665842097 
-0.01672446372102895 
-0.04532600325560898 
0.01479021658756911 
0.04037945037630816 
-0.002001150051920809 
0.1140646727914587 
0 
0.1279240687520720 
0.1803912985219417 
0.1610504297141855 
0.07608189391898378 
0.01667577390999022 
0.1523762837587703 
-0.03225036211921890 
0.1083596491898886 
0.04354411980932286 
-0.03349772917785816 
0.01314797374424004 
0.04142328269921296 
0.004373670013139431 
-0.001993483974868504 
0.01222333366151659 
-0.002162839617607272 
0.006712025922120546 
0.02448230497496214 
0.0003690076310564654 
-2.953465069533387e-05 
-0.0007669184054504381 
8.015762478327501e-05 
0 
0 
0 
-0.001733630490787479 
-0.004121992942965527 
0 
0 
-0.0004058612019861590 
0 
-2.183428472656462e-05 
-2.130084256304782e-05 
-0.006573440992126826 
-1.997670044544473e-05 
0 
-0.002399272759345596 
-0.0003749107562559216 
2.495079650511809e-05 
-0.002671322775544958 
-0.0006546654352056274 
3.896365526291499e-05 
-0.001073073206344738 
-0.003112154821493828 
-0.0002772949246895646 
-0.003135629853905734 
0.003381422476444188 
-0.006650275902079630 
-0.009610880652775260 
-0.003321426816094882 
-0.007008434666758713 
-0.007207772980430611 
-0.03188923687247994 
-0.01493991741121607 
-0.08173258957043189 
0.1295371834495063 
-0.01353372798866032 
-0.07166870911137817 
0.07852730788880820 
0 
0.1452445808802568 
0.07750131852211757 
0.05738254607886666 
-0.03412861136802624 
-0.06398117291131993 
0.2764064824858670 
-0.06532119334163668 
-0.1397896461705476 
0.01911748385495406 
0.002726002569662362 
0.01243399561681316 
0.09561762567211383 
0.03285084363342477 
0.03016407567831755 
-0.002235102009729722 
0.02973749431800950 
0.01299109389202097 
0.01508341477507031 
-3.999783712405813e-05 
-0.0001489622272522331 
-0.0006482741366884032 
0.0003595861188023097 
-5.082197683525802e-21 
0 
0 
0 
-0.002091820039131325 
0 
0 
0 
0 
-5.375884437731928e-06 
0 
0 
-7.857758856917676e-06 
0 
-0.001105335238620420 
2.898577825014260e-05 
2.956757580910486e-05 
-0.0006959944815817935 
7.165906096869639e-05 
-0.0001691759052537236 
-0.0001310092601173217 
-0.001102377728051912 
-0.0002965113048541391 
0.01292707432500051 
-0.0006254874268853607 
-0.006554370130110078 
-0.01734034709328845 
-0.002677516907120461 
-0.02148885802534953 
-0.001842366587684396 
-0.04249804983648182 
-0.005191573264627179 
-0.08401504501392229 
0.03256008182961526 
-0.02734060161562034 
-0.1046839751586193 
-0.1205093164906703 
0 
0.01414014780028535 
-0.05666864844769228 
-0.08344363972780978 
-0.2038430629220995 
-0.1178959796561163 
0.3353304002793505 
-0.004646236973086694 
0.0009822102766789524 
0.001785583635174657 
-0.03790106937337010 
0.04201436393457205 
0.1605806562748678 
0.07692302261235842 
0.06047260244739006 
0.04228255233568058 
0.05099098800671906 
0.01948238631297912 
0.008396479525186176 
0.007982263956729895 
-0.0009788842421847514 
0.004858811537830984 
-3.667819863930703e-06 
0 
0 
0 
0 
0 
0 
0 
-1.501719373849986e-05 
-1.694065894508601e-21 
-3.470715010522759e-06 
0 
0 
-3.603592364917107e-05 
-0.0001977163265187921 
-0.0003431106811598575 
1.407432193839183e-05 
1.446094700231703e-05 
4.273068671823130e-05 
-2.292285577105692e-05 
5.687075250927612e-06 
1.596185017684294e-05 
0.0003280944618057634 
0.0005634656906705113 
0.01322781000981118 
0.0001113942417482416 
-0.01186307462408301 
-0.03028423823588365 
-0.02185069783240861 
-0.03943398564859699 
-0.03046647522904877 
-0.07420592902798968 
-0.04181844743532719 
-0.06492596602750972 
-0.1076570966318453 
-0.07806771185161933 
-0.1255429069715985 
-0.2086616414698142 
0 
-0.05190081666822280 
-0.02553104942979045 
-0.2014250326996400 
-0.2937402605628232 
-0.1671277531805152 
0.1214536375933271 
-0.006040025736349550 
0.1032838683936076 
-0.003543483282199448 
-0.03226423526630442 
0.1061512873176917 
0.1312275085345805 
0.1078144475471787 
0.07874894088183042 
0.09194619835080324 
0.03019389116869872 
0.02804041035947947 
0.01431569778071021 
0.03218192588575713 
0.007716678029376975 
0.01011198832395164 
-8.618312989955921e-06 
0 
0 
0 
-2.810623792578312e-05 
0 
0 
0 
-0.0002042975090249993 
0 
-1.106873238038030e-05 
0 
0 
-2.205492637038451e-05 
-0.0001210075552953160 
-4.691087508880042e-06 
2.506588296750190e-05 
0 
2.044074872038654e-05 
0.0002816392911249753 
-9.861319435635654e-07 
0.0003174211257047840 
3.424337596207930e-06 
-0.002049944050169925 
-0.0005501297349115327 
-0.0009736157111189716 
-0.01784300206077720 
-0.04136212129286545 
-0.05470787293961683 
-0.06776678768180122 
-0.1005976055090151 
-0.1304313512024241 
0.03791274960309023 
-0.07477236258234417 
-0.1204253321171486 
-0.1181895388508083 
-0.06680388561664659 
-0.02250404591153843 
0 
0.1216178926413552 
0.1141195246325365 
-0.1473424645316917 
-0.2832734238798247 
-0.3737696071810192 
-0.1991723214798490 
0.01451882014709523 
0.01792703170765918 
-0.03659182295981459 
0.07310153475612897 
0.04424171254436343 
0.06447019194492877 
0.07450288369536952 
0.08413761009095662 
0.05799254467449760 
0.01822281573360508 
0.02273956614262143 
0.01668937728943793 
0.03718204265891907 
0.01436387558956376 
0.002567332454924591 
0.003050503727262952 
0 
0 
0 
-0.0002430843478247957 
0 
0 
0 
-6.231285306289748e-05 
0 
0 
-1.529331688724618e-06 
-0.0003737072822544777 
3.584246698396498e-05 
0 
-7.123561667262002e-05 
-3.139296342438580e-05 
0 
-1.489776357690569e-05 
3.339052291742992e-06 
0.0005131250368910640 
0.0003335365059023747 
0.0001923905045757553 
-0.004007522775215162 
-0.0004576751883086775 
-0.003497982334982904 
-0.01745298048974963 
-0.04074469136920633 
-0.08857886519318324 
-0.09519476165331359 
-0.1682726334947799 
-0.1905756028036094 
-0.02079748608578886 
-0.1141892005107312 
-0.1386123827889624 
-0.1015305784714002 
-0.04226160646773838 
-0.01460587379909019 
0 
0.1288174610683562 
0.02430402853829704 
-0.01527812030117979 
-0.1737887425420047 
-0.3142089741978994 
-0.2091954632804466 
0.03526479647256730 
-0.03766491594819471 
0.07961720974578103 
0.1550644486986097 
-0.04199243901065888 
0.02940094369509034 
0.001035352731347022 
0.06386576154405470 
0.003412309342882890 
0.02447063992479211 
0.002354450262861995 
0.02530479950844534 
0.03041291079338377 
0.007709342920047739 
0.0008538023058294635 
0.009269305148800408 
-5.293955920339377e-23 
0 
0 
-6.490709915480854e-05 
-0.0001315534215188541 
0 
0 
0 
0 
0 
0 
1.864750192308678e-05 
0 
0 
-6.806927613031524e-05 
0 
6.644094954210900e-06 
0.0003539259022425755 
-3.571629527496557e-06 
0 
-0.0002969335537113146 
0.01909105460131321 
0.01896605645872829 
-0.0001427275253704835 
0.01298741261485254 
0.001600551992512360 
0.003100530617264050 
-0.06726937263475960 
-0.09923024507857295 
-0.2024983414732267 
-0.2500592611570947 
-0.08162330144426255 
-0.01884746709470525 
-0.1268850593843072 
-0.1209888704524204 
-0.1557308619828158 
-0.1193700904914680 
0 
0.002057122818319474 
-0.1334728285261415 
-0.09863445570295630 
-0.07875954132329316 
-0.04599819087405712 
-0.02607536987105592 
-0.08785220342715301 
-0.05003171305180999 
0.1993797464923505 
0.09465378269228338 
-0.1080350890666713 
-0.05424851611076434 
-0.08139482025829667 
-0.0009595089675838860 
-0.01377714362254197 
0.02133748589570365 
-0.02482808175272658 
0.01394226033095330 
0.01561671379911679 
-0.004596968919354530 
0.007397144266221823 
0.007544243587954551 
0 
0 
0 
0 
-0.0001296368827556100 
0 
0 
-0.0002091625263382469 
3.176373552203626e-22 
0 
0 
0 
-1.385336664971699e-06 
-7.600850724865472e-06 
-1.123519517962914e-05 
0.0001364088621484937 
3.635989891657451e-05 
0.0001476158546740966 
0.01564429020804618 
0.001688733851510386 
0.02621295442685124 
0.03128367720239491 
0.02625057138475858 
0.01824694468700687 
-0.01804597037693814 
0.005171301856558907 
-0.01021172351892390 
0.09118253454135995 
0.1226213830244421 
-0.09799831135621949 
-0.2300437562317141 
-0.1034160991407617 
-0.1046166697644868 
-0.1700508918360143 
-0.003875574919626718 
-0.04921025871393070 
-0.004371293604857798 
0 
0.07582833690717115 
-0.1599042046994678 
-0.03163571141182012 
-0.01339203017949592 
-0.04485430001275948 
-0.09562660901568420 
-0.2377268314766181 
-0.1818214197996895 
-0.01133749020024552 
-0.1242477092969037 
-0.2224531226348134 
-0.1812985465203581 
-0.1607488438389039 
-0.06969801613646914 
-0.04743071476464492 
0.001957490151890728 
-0.02680392837020508 
-0.008684571801657680 
0.0004318983166423129 
-0.006135373431642617 
0.007187933769595338 
0.0008579975936694558 
0 
0 
0 
0 
0 
0 
0 
-1.385501739634299e-05 
-8.647903680936790e-06 
0 
0 
0 
-2.414681443997104e-06 
-1.324850028732877e-05 
3.364058036913933e-05 
0.0002870960815684065 
1.330943057845462e-05 
0.01329614586028134 
0.01055769103224586 
0.01691396078896385 
0.04619951682546192 
0.02427272615148252 
0.01458619696385769 
0.04386806927366000 
0.04596102837631626 
0.01921139315655083 
-0.04774652928311261 
0.06841569606828722 
0.08224450158014197 
0.02514513292727290 
-0.1348973386296454 
-0.1312576662665141 
-0.2016839808916374 
-0.06940736125281224 
0.004517632583321165 
0.1532180293253144 
0.1298802220658074 
0 
0.1572403401159463 
0.01070069022711303 
0.05680188211864312 
-0.07885265454673565 
-0.09567069656544920 
-0.2684679289661756 
-0.2953697608339856 
-0.2784691063506419 
-0.2390806539292287 
-0.3343247871705559 
-0.2450764801277577 
-0.2336990144455146 
-0.1752092235367296 
-0.1024654178603296 
-0.07195511089701008 
-0.04437007501126080 
-0.02382411875361901 
-0.01576218576326083 
-0.004144559714162757 
-0.006164022496687034 
-0.0004945438522390733 
-4.058151037359674e-06 
-7.696831556932330e-06 
0 
0 
-1.006443030209148e-05 
0 
0 
0 
-1.238953805172500e-05 
0 
0 
0 
0.0002165744402791590 
0.0004992211644271041 
0 
-1.690495357028578e-06 
-0.0001337670707812055 
0 
0.01659098342268868 
0.0002256751597177214 
0.003847344656932214 
0.01405098343530655 
0.009443434832525792 
0.01515026648695645 
0.05724970403577130 
0.1120467334122285 
0.08023314646480871 
-0.02749933335594174 
-0.04170170166876338 
-0.006243770853428559 
-0.1002052822863143 
-0.06927348245151088 
-0.2312971480958027 
-0.08891007484945211 
-0.03155903184331356 
-0.04616329584417047 
0.1321753871662028 
0.2416291715843740 
0 
0.3178948501088436 
0.1682368563511781 
0.03131597181415009 
-0.1237086802706707 
-0.1601270488939801 
-0.3384524251504944 
-0.3039985955356646 
-0.2500494326047925 
-0.2679106321146626 
-0.3312506204926664 
-0.2547661076998236 
-0.2519535849101878 
-0.1423551784474713 
-0.1179649528400001 
-0.08890352446871004 
-0.06028291317259843 
-0.02155005289239370 
-0.007285239211785339 
-0.003556766682689718 
-0.005641472689904539 
-0.007314676385254150 
-4.118146455350834e-06 
0 
0 
0 
-1.569435724371947e-05 
0 
0 
0 
-2.035940208722675e-05 
-7.690147477276652e-06 
0 
0 
0 
0 
0 
-6.461192953514308e-06 
0 
0.0002883619862325208 
0.0002844655871971067 
0.01282663276757949 
0.0002045891868019973 
-0.003344383741696300 
0.01185420160812376 
0.03108396636974499 
0.05979765755206874 
0.09007033653997360 
0.1294534035874238 
-0.03543521468100923 
0.03320901804753437 
0.01763701926269501 
-0.2026387066698371 
-0.07482045015688290 
-0.2470392129144423 
-0.1226584325487885 
-0.08284743182178209 
-0.02180950641759721 
0.02344436443862543 
0.2831669961313904 
0 
0.3575050461103125 
0.1219305570022477 
-0.02757577355209706 
-0.2032686568314009 
-0.2153397053139547 
-0.2880742803089024 
-0.2627750975891701 
-0.2087495659588353 
-0.2122473806024161 
-0.2493412696010924 
-0.2522871737076475 
-0.2528705396582560 
-0.1391318151991037 
-0.1225682095792009 
-0.09267657382923812 
-0.04999344308183788 
-0.01827958731064151 
-0.007779957296416508 
-0.001487330986508413 
-0.006313313218491965 
-0.01092838047556162 
-0.001910758808955093 
0 
0 
0 
0 
-9.445143187259191e-06 
0 
0 
-0.003679131063859650 
-1.523173996609762e-05 
0 
0 
0 
0 
0 
0.0001872603659554860 
0.002939058530953854 
0.0005011816136159395 
0.003079642856666902 
0.008862776113226504 
0.005791426421806588 
-0.0009155806633221711 
0.03919289615069218 
0.04993805156864298 
0.06526901887391817 
0.06706974781330383 
0.08117334256657147 
0.02372910336377373 
0.1007883415424933 
0.01452005187782919 
-0.1236136002271542 
-0.1849961449513859 
-0.01496161569450175 
0.02847444098230641 
0.1089986565961332 
0.07205359234168125 
0.04468633437825929 
0.1796898609546357 
0 
0.1621477897038247 
-0.05795161174326709 
-0.05018168028761555 
-0.2623087249357230 
-0.2695619918918245 
-0.3083272167686445 
-0.2452763663851201 
-0.1787627458161565 
-0.1681694813002464 
-0.2064313598384146 
-0.1659750351309088 
-0.1745324219708252 
-0.1095501709709436 
-0.08245028495782594 
-0.05594356330009575 
-0.03113211276529434 
-0.01358836220278382 
-0.006023888220020657 
0.0001390821180817616 
-0.004505881998944015 
-0.007660611349605226 
-0.003550141968827084 
-1.296976910835250e-05 
0 
0 
0 
-9.307592558318152e-06 
0 
0 
-0.006126983110901555 
-9.705027015874291e-05 
0 
-3.541269910130917e-06 
0.001556548360309037 
0 
0 
0.0004591758156450213 
0.007013988390339478 
0 
0.008496845629450096 
-0.003930374005710148 
0.01284769062362925 
0.01788705979182002 
0.05213629360399536 
0.05146747480226101 
0.1157146100684501 
0.1434875386061214 
0.1066726622117961 
0.09594387083691613 
0.07885789024874888 
-0.01840886134156886 
-0.09655174059728489 
-0.2872053072686605 
0.06127762703084936 
0.1240828540742875 
0.06426291366430865 
0.1016195476937263 
-0.02396209015614067 
-0.09313746004737009 
0 
0.08750978357929220 
-0.1330534042175967 
-0.08444425004962539 
-0.2009924832760814 
-0.2284089930102047 
-0.1321436933142062 
-0.2122617337472434 
-0.1359254397294386 
-0.1181521738246846 
-0.1599392934717341 
-0.07255984685771982 
-0.09311820800288460 
-0.06391201713133504 
-0.03776128258960949 
-0.02180712111495303 
-0.01467095446093539 
-0.009695340601681712 
-0.003444429865414163 
-0.0002779326054544475 
-0.001830112249245695 
-0.001689976723817489 
-0.001673391899660229 
-0.0001288026207076308 
0 
0 
0 
-8.858051274361881e-06 
0 
0 
-0.003688152086693900 
-7.792347120026725e-05 
0 
0 
0.006811740363635885 
0.008781255209526504 
0 
2.746326711278783e-05 
0.003963358712013681 
0.0005004543502667287 
0.007797223253663319 
-0.005019367723585189 
0.03167734930339099 
0.05461416056036297 
0.05836988321435550 
0.07946361604507740 
0.1543990946779893 
0.1937039527243461 
0.1600190999623711 
0.1460203048510936 
0.02697520339743428 
0.02550973304704094 
-0.1904060189080470 
-0.1560461582515922 
-0.01558453390948549 
-0.04225965198661417 
-0.1222672518869371 
-0.1564911389709659 
-0.1512796578512508 
-0.1406924509019059 
0 
0.05510534120379265 
-0.09661220835739881 
-0.05676185944593352 
-0.06588276256601733 
-0.1321464066851441 
0.1346935214899242 
-0.1367355998378255 
-0.09048982476709999 
-0.05413689146974367 
-0.06812872941723062 
-0.01882093459571575 
-0.03142753779261521 
-0.01871676206832587 
-0.004505555738024339 
-0.004243910492130441 
-0.002516880600189048 
-0.004667148220459664 
-0.0005390299520196892 
-0.0001046730001112630 
-4.070338614098967e-05 
-9.529120656610879e-22 
-3.997061475058408e-05 
-2.935862494953509e-06 
0 
0 
0 
-7.112294507158023e-06 
0 
0 
-0.0002329947458737235 
-7.458813195319402e-05 
0 
0 
0.005802023535253093 
0.01462401099624807 
0 
-8.546506088075075e-06 
-0.0006766356284185004 
0.01141287711233551 
0.008482657780631219 
0.01716354152130271 
0.04280481850505094 
0.08676054485460438 
0.09314477200557218 
0.1341977414179629 
0.1550956180006855 
0.1887838116109818 
0.2172280416352439 
0.1819233921168919 
0.03585371163239085 
0.2288037074186857 
-0.1194182079000076 
0.1127254912534829 
-0.05081177238505857 
-0.1488720213326220 
-0.2781486821034172 
-0.3674550239929422 
-0.3046684033797426 
-0.1563593352270026 
0 
-0.08619445473392269 
-0.1425192928395502 
-0.07248880775564350 
-0.05811598936224259 
-0.08455447093429690 
0.02304214593609178 
-0.06414496157990868 
-0.04383424684583016 
-0.01683610852338085 
-0.01520071648128725 
-0.008580689912474326 
-0.01032988868536961 
-0.004291384221925927 
-0.0005551375628095494 
-0.002108086915337531 
-0.0008539316387175585 
-0.002385259371912935 
-0.0001564023663003264 
-5.911096917690873e-05 
2.223461486542538e-21 
2.213942046956961e-05 
-4.061933638888014e-05 
0 
0 
0 
0 
0 
0 
0 
-0.0002010599259375366 
-0.0002037269494904821 
0 
0 
0.0003986385461894523 
0.008782129525962828 
0 
0.005113512121100759 
-1.577056200426977e-05 
0.02165054536984660 
0.01851666353060822 
0.03994160470057672 
0.03044978333446754 
0.08793413994695645 
0.1178813488174941 
0.1311056261907417 
0.09285450858589966 
0.1695335185997339 
0.2554747837252526 
0.1639292115165245 
0.1404780885006458 
0.3296894248676642 
0.07101732286191484 
0.2216397156238099 
-0.1747548354044977 
-0.4106908555673995 
-0.5170805881276168 
-0.2125747408342610 
-0.2420614521829410 
-0.1681266833328750 
0 
-0.1043777576734124 
-0.1291796677189888 
-0.09603284793576884 
-0.08895811213103098 
-0.06250346802093465 
-0.03601896447889861 
-0.02538963791170925 
-0.01799069330849289 
-0.005367835298713018 
-0.002622506927345896 
-0.008815901492209883 
-0.003630173873669007 
-0.0009812694343165889 
-0.001359711831770182 
-0.001536355501208499 
-0.0007310477279364864 
-0.0007038874510398960 
-0.004230882715396967 
1.303618732610650e-05 
-9.946618528582306e-05 
-0.0003359217263879062 
-0.0001109381188543969 
-0.0007925081842765781 
0 
0 
0 
0 
0 
0 
0 
-0.0008592641703856201 
0 
-2.965618187247624e-05 
-2.467539106554142e-05 
0 
0 
0.01323349543034509 
-4.037300294180058e-05 
0.01449549431397437 
0.02928326399636848 
0.03344899881411125 
0.006485609409704986 
0.04219604978335848 
0.1097170224728223 
0.05874087987030217 
0.05403513902132617 
0.1633605465560296 
0.2112039545217671 
0.1330212859008152 
0.2076381949679934 
0.2794537847453396 
0.2198247402837851 
0.1108025132422220 
-0.2544104234600647 
-0.5290518929398135 
-0.6269904772561342 
-0.2420905231527601 
0.1574265578509867 
-0.1219095125410861 
0 
0.001157153803058709 
-0.02608766233118237 
-0.08065174654524461 
-0.06978296692290466 
-0.03704410389812649 
-0.01610061325348995 
-0.008943862786020282 
-0.004831811043723841 
-0.003305476280231598 
-0.002449687467435259 
-0.009160967716809740 
-0.001659656204997810 
-0.001817052004371090 
-0.001221482089594352 
-0.0008624808832125430 
-0.0006634201591831368 
-0.0002708463676232846 
-0.007003974477695818 
-1.989670033607001e-05 
-7.087171381939652e-05 
-6.054962292029156e-05 
-6.236528696378176e-05 
-0.003078079093538951 
0 
0 
0 
-7.418131613388357e-05 
0 
0 
-0.0002094518249909754 
-0.002852331484869066 
0 
-6.006015118561464e-05 
2.377020214094875e-05 
0 
0 
0.01043894562692094 
0.0002368931690174637 
0.004203747089712772 
0.02224585628197014 
0.02676491461965655 
-0.0005451722515951218 
0.02394871556418702 
0.06389174805150280 
0.02653999989420081 
0.08682543397949415 
0.1515377008507998 
0.1836596442406576 
0.1309411936381044 
0.1263350033815457 
0.1721306970232198 
0.2481194545494520 
0.1747945836512338 
-0.1325295474597573 
-0.4565439326200868 
-0.5893118519300508 
-0.4484643949080817 
0.02132604161633869 
0.1275091656859719 
0 
0.02233482596919053 
0.001740434666977714 
-0.02568502590697536 
-0.02939632982865846 
-5.354686350692072e-05 
0.02107303125583859 
-0.001543766697356120 
-0.001772833752474168 
-0.002089913362028362 
-0.002230547789274303 
-0.005274282507022974 
-0.0007748875040657981 
-0.001068005865918066 
-0.0006846529530759035 
-0.0004195257469993218 
-0.0003838010401112368 
-0.0001696900803994121 
-0.004181934275691714 
-2.051610722086568e-05 
-1.115456209028266e-05 
0 
0 
-0.002921791257114954 
0 
0 
2.238103804331535e-05 
-0.0001502331314417210 
0 
0 
-0.001696861312347623 
-0.003180971179665250 
0 
0 
0.0001774593294970638 
0 
0 
0.01734900882116141 
-1.725884120320614e-05 
0.0006567226416287791 
0.004787494806263045 
0.01439664186569486 
-0.0009116136277389882 
0.02632575914813979 
0.02552582074893686 
0.01728219282439937 
0.06203971012798002 
0.09387927008688614 
0.1499109365067933 
0.07320156747813483 
0.02357007232096233 
0.09749041450151227 
0.2108614417271570 
0.2061806397505721 
0.07849463073174301 
-0.1840104240239788 
-0.3474403101576826 
-0.5061295925356503 
-0.1477350719776236 
-0.008347415863935462 
0 
0.02163472193790766 
0.02508037248322897 
-0.005985422862653950 
-0.003831825507868186 
-0.0006455710938292591 
0.005320646182517869 
0.009845204322275198 
-0.002602401440840431 
-0.0003495718203077535 
-0.0007425290700181603 
-0.001119824455527341 
-0.0004835613792325756 
-0.0004795916802261708 
0.0004214415419857032 
-0.0002218112268022555 
0.0003616249657744529 
-0.0001369171242099102 
-1.953199255555166e-05 
0 
0 
0 
-0.0009217034466264802 
-0.0005474267065226521 
0 
0 
0 
0 
0 
0 
-0.006690712518017899 
-0.005758841007908080 
0 
0 
0 
0.0005088386452267191 
0 
0.01022256464414148 
0 
0.0005260644526514361 
0.0001696148273006161 
-0.002924675768465036 
0.0007059276497395805 
0.01150571856677325 
0.007495657947169979 
0.009130339274672156 
0.01512486809023337 
0.03864861850072784 
0.07545368378139204 
0.03085972968734823 
-0.009298073942252925 
0.06638122168703949 
0.1153666368903637 
0.1126819186738302 
0.1727360383911868 
0.1997913878081032 
0.09549089248317559 
-0.2250578032646320 
-0.1420725548743064 
-0.1656222004978696 
0 
0.04264036684470202 
0.03203940142540437 
-0.002599454795169045 
0.01479138686420614 
0.005548804417032831 
0.008432295292315676 
0.009329038878830504 
-0.003058813926236910 
-0.0003013022121750356 
-0.0004436283986184428 
-0.004062011220546413 
-0.002737172078721849 
-0.0001936429089754816 
-9.971601565760353e-05 
-0.0002048696371925874 
-7.839319525252665e-05 
-0.0001199050791599635 
0.0002535447971578645 
0 
-8.558269443592765e-06 
-0.0004463366654082492 
-0.001883989035669479 
0 
0 
0 
0.0002666259021208783 
0 
0 
0 
-0.009062633900179643 
-9.236091358570724e-05 
0 
-0.0001241771316811124 
-0.0001047428503395044 
0 
0 
0 
-0.0002349585192459673 
0.0001617807678356058 
5.421137161950654e-05 
-0.008543501227785577 
0.0001262459278893442 
-0.006579694865035704 
0.0007788916332582883 
-0.003310587396818015 
-0.003095613369375029 
0.01363174400664035 
-0.003163778196920929 
0.02026328431738097 
0.01884317245032369 
0.03697223331104415 
0.03863628098627110 
0.07002770019992316 
0.1419442018630160 
0.2755630145968539 
0.3214703848374388 
0.1739146643803422 
-0.08616927794567705 
-0.06021649016643721 
0 
0.06002934415626942 
0.03655000621663680 
0.01007720660846642 
0.004101425083914190 
0.0003289700050578581 
0.01572925284166576 
-0.004197423325212450 
-0.002606293355190627 
-0.0001581760336676939 
-0.0001020456592903873 
-0.007089909987468082 
-0.005698343594436237 
-6.991425831154747e-05 
0.004211313662030819 
-3.090502612186266e-05 
0.003509175126124103 
-5.061026571630308e-06 
-5.278055256299676e-06 
1.058791184067875e-22 
0 
-0.0007453058615085814 
-0.002048190097161785 
-0.0001282173811941095 
0 
0 
0 
-0.0003106139260801755 
0 
0 
-0.006065457022987318 
0.01617037439556579 
0 
-0.001305041826296185 
-0.002199488832520620 
0 
0 
-0.0008306375874554792 
-0.0009576637582638091 
-0.0009671395819239715 
0.001043985689000678 
-0.006402884253887380 
0 
-0.006413598606763196 
-0.003950487898614929 
-0.006103036281542136 
-0.003644008316122710 
0.004407478699457367 
-0.01283077289862786 
0.01428715414128822 
0.03217532548601514 
0.02585308837711881 
0.02416437122974639 
0.04983269788782683 
0.1047119531062135 
0.2024029745703010 
0.2348803576946322 
0.2747371751240752 
0.1231075909996039 
0.08447091480021260 
0 
0.05100058017164152 
0.03953460758198944 
0.02591766952704048 
-0.009067438132233468 
-0.01194979125340990 
-0.007861556626482033 
-0.004740549513289779 
-0.002234536091900453 
-0.001503894652490266 
-0.0002993299658831110 
-0.007881497865952889 
-0.004618873730331854 
-0.0001692085229218848 
0.01463977274325409 
-7.463807930769145e-05 
0.01598221347121707 
-1.882270062241196e-05 
0.0009472721317752720 
9.529120656610879e-22 
-4.764560328305439e-22 
-0.0005424974660257367 
-0.001269196244698172 
-0.001498716880951875 
0 
0 
0.001223604948775815 
-0.003264402711540181 
0 
0 
