solver_type L2R_L2LOSS_SVC_DUAL
nr_class 5
label 0 1 2 3 4
nr_feature 1799
bias 1.000000000000000
w
0 0 0 0 0 
0 0 0 0 0 
0 0 0 0 0 
0 0 0 0 0 
0 0 0 0 0 
0 0 0 0 0 
0 0 0 0 0 
0 0 0 0 0 
0 0 0 0 0 
0 0 0 0 0 
0 0 0 0 0 
0 0 0 0 0 
0 0 0 0 0 
0 0 0 0 0 
0 0 0 0 0 
0 0 0 0 0 
0 0 0 0 0 
0 0 0 0 0 
0 0 0 0 0 
0 0 0 0 0 
0 0 0 0 0 
0 0 0 0 0 
-0.02011406828428310 -0.02023936604715640 -0.01289352937965460 0.04838654439302130 -0.01282799140885660 
0.03070290581114190 -0.004863489787215620 -0.006351160879616480 -0.01723524199334640 -0.005355548546904430 
0.03485888812661560 -0.005521817623397820 -0.007210861666922280 -0.01956822511122650 -0.006080482049534600 
0.03587260080488150 -0.005682394647873740 -0.007420556877694090 -0.02013727819789870 -0.006257305295336180 
0.03057277713736740 -0.01448381093180940 0.04762598074041290 -0.03337106536850220 -0.03817044619546130 
0.04673572638908280 0.01122458703094830 0.02715345491721180 -0.06747526301613730 -0.03981555469474030 
0.06868017595226020 0.008464423046228690 0.02707529776662630 -0.08294572513925050 -0.04691411289749020 
0.1378156901644890 -0.03410736141086580 0.04019139947602080 -0.09800382389140350 -0.06585449403015100 
-0.08410917174972470 -0.1991230481386400 -0.06895509071090540 -0.2805843850161700 0.2173496597080400 
0.04429058340671660 -0.07624295518536700 0.04063963129537520 -0.01619369270897880 -0.06673670788239550 
0.06145435427488580 0.004806105097684750 0.04630760562781390 -0.08226338461585220 -0.05585053025593150 
0.04485915235587760 -0.01508368033139440 0.03536374286858670 -0.03859459929595710 -0.03499760868486440 
0.03805135969976900 -0.01415296258271870 0.03759834666104000 -0.03502127868808090 -0.03431308838572630 
0.02568882575446990 -0.01210273974607010 0.03964116675888750 -0.02792693348347950 -0.03184353141936900 
0.02742910567941420 -0.004344903904694200 -0.005673947085840430 -0.01539747660868690 -0.004784495251617730 
0.01288495328133190 -0.02472340968553470 -0.01917862343479090 0.02868553425090470 -0.01806578756274090 
0 0 0 0 0 
0 0 0 0 0 
0 0 0 0 0 
0 0 0 0 0 
0 0 0 0 0 
0 0 0 0 0 
0 0 0 0 0 
0 0 0 0 0 
0 0 0 0 0 
0 0 0 0 0 
0 0 0 0 0 
0 0 0 0 0 
0 0 0 0 0 
0 0 0 0 0 
0 0 0 0 0 
0 0 0 0 0 
0 0 0 0 0 
0 0 0 0 0 
0 0 0 0 0 
0 0 0 0 0 
0 0 0 0 0 
0 0 0 0 0 
0 0 0 0 0 
0 0 0 0 0 
0 0 0 0 0 
-0.01807558227240220 -0.01818818157301870 -0.01158681813095420 0.04348274807919930 -0.01152792218974610 
0 0 0 0 0 
0 0 0 0 0 
0 0 0 0 0 
0 0 0 0 0 
0 0 0 0 0 
0 0 0 0 0 
0 0 0 0 0 
0 0 0 0 0 
0 0 0 0 0 
0 0 0 0 0 
0 0 0 0 0 
0 0 0 0 0 
-0.01883770994293310 -0.01895505681081410 -0.01207535756376090 0.04531612777355540 -0.01201397837051700 
0 0 0 0 0 
0 0 0 0 0 
0 0 0 0 0 
0 0 0 0 0 
0 0 0 0 0 
0.02322190419407200 -0.008465498405721170 -0.008288717442750930 -0.005455251035820040 -0.007389013995465940 
0 0 0 0 0 
0.03556231358616340 -0.005633243641495990 -0.007356371290274790 -0.01996309679191250 -0.006203181484594930 
0.03608683295183750 -0.005716330063147540 -0.007464872645044320 -0.02025753857058960 -0.006294674092621610 
0.04095698398353710 -0.007914441251200290 -0.0004888066645724230 -0.02538999638132140 -0.01200345479424180 
0.05048065980473510 0.01673892777903190 -0.01499595288505710 -0.05560713733111850 -0.01481341575822810 
0.04903982714100800 -0.01726102927636960 -0.01817951724622040 -0.07714653998102610 0.02048267302889090 
0.07247424168845370 -0.04088994212182430 -0.03327875745327050 -0.1259243887152580 0.05063565355509790 
0.08560028005229200 -0.1846348466495180 -0.06706045183967070 -0.1577327561611140 -0.1119370783122890 
-0.06490247618338210 -0.1248085732212200 -0.1812716223697180 0.008931598128534350 0.08504887217677310 
0.01201255038955580 -0.04087670838952100 -0.03439417426569490 -0.05041370036642440 0.009612273734306600 
0.02926055081441020 -0.04205006116915640 0.02116450489356440 -0.01669338963034780 -0.03398977296566920 
0.02907088251883640 -0.01422601027025080 0.01361466197046690 -0.05271658192201500 -0.003079701490292530 
0.01701424522361280 -0.01811012659108190 0.03604206562592990 -0.04460913000442560 -0.01373011491222480 
0.03045616429462850 -0.004824404729500680 -0.006300120268779970 -0.01709673231048210 -0.005312509097206980 
0.02544855413984910 -0.008720980801013820 -0.008678533777403580 -0.006859160847979320 -0.007709605307745600 
0 0 0 0 0 
0 0 0 0 0 
0 0 0 0 0 
0 0 0 0 0 
0 0 0 0 0 
0 0 0 0 0 
0 0 0 0 0 
0 0 0 0 0 
0 0 0 0 0 
0 0 0 0 0 
0 0 0 0 0 
0 0 0 0 0 
0 0 0 0 0 
0 0 0 0 0 
0 0 0 0 0 
0 0 0 0 0 
0 0 0 0 0 
0 0 0 0 0 
0 0 0 0 0 
0 0 0 0 0 
0 0 0 0 0 
0 0 0 0 0 
0 0 0 0 0 
0 0 0 0 0 
0 0 0 0 0 
-0.01357447303666260 -0.01365903330958390 -0.008701515001234200 0.03265484798585360 -0.008657285091854260 
0 0 0 0 0 
0 0 0 0 0 
0 0 0 0 0 
0 0 0 0 0 
0 0 0 0 0 
0 0 0 0 0 
0 0 0 0 0 
0 0 0 0 0 
0 0 0 0 0 
0 0 0 0 0 
0 0 0 0 0 
0 0 0 0 0 
-0.01414577015243920 -0.01423388924049090 -0.009067728143333070 0.03402916435305660 -0.009021636767980060 
0 0 0 0 0 
0 0 0 0 0 
0 0 0 0 0 
0 0 0 0 0 
0 0 0 0 0 
0.005244518551938980 -0.0008307572766276040 -0.001084873896444360 -0.002944038813044880 -0.0009148083208416520 
0 0 0 0 0 
0.005383240083783090 -0.0008527314427713770 -0.001113569641779610 -0.003021910894134780 -0.0009390057014694620 
0.02534662097021240 -0.006893235136020970 -0.02307313177216730 -0.02571052394201960 0.01610885720620340 
0.03538762953231130 -0.005605572836747880 -0.007320236387085380 -0.01986503695487160 -0.006172711113597150 
0.03023484255247390 0.002783470108279040 -0.04622009511378730 -0.05185778643000120 0.03323434568192390 
0.006438304514147340 -0.03565804156898960 -0.08684903423822460 -0.04054324353101790 0.08090829034428060 
0.01406629090606190 -0.03607902266332180 -0.06161331309308060 -0.1133800871320620 0.1040369969845470 
0.1430560788845310 -0.03662410011592810 -0.01314359624466940 -0.1670959267489220 -0.2049302036647870 
-0.03499925130694590 -0.2064540118802140 -0.06974463075973290 0.07724165367323990 -0.1005275589795270 
-0.03413027288292220 -0.09953931898760110 -0.1141469875206200 -0.03382839240600060 0.06092354923829820 
-0.005590850039394620 -0.07027936733134400 -0.07632406677985780 -0.07326949475052170 0.09464182395668200 
0.04423321588587680 -0.02542000141865200 -0.04928245692718610 -0.05888243607002100 0.04123958766574790 
0.03337996468696600 -0.01419894720694780 -0.06210941275163050 -0.05428835860358480 0.05774203319175250 
0.03528147884580870 -0.009001043509771950 -0.02843676130167280 -0.03341811509910210 0.01818546126974470 
0.02940307210223280 -0.01000876395248940 -0.01105414466280730 -0.03233726007119050 0.007854627320409200 
0.01647716883312070 -0.009915647116206600 -0.02628644443678360 -0.01558086782198810 0.01718215397022670 
-0.006315740915789360 -0.001987540998937710 -0.01720355473944270 -0.008374625289679010 0.02241480693886130 
0 0 0 0 0 
0 0 0 0 0 
0 0 0 0 0 
0 0 0 0 0 
0 0 0 0 0 
0 0 0 0 0 
0 0 0 0 0 
0 0 0 0 0 
0 0 0 0 0 
0 0 0 0 0 
0 0 0 0 0 
0 0 0 0 0 
0 0 0 0 0 
0 0 0 0 0 
0 0 0 0 0 
0 0 0 0 0 
0 0 0 0 0 
0 0 0 0 0 
0 0 0 0 0 
0 0 0 0 0 
0 0 0 0 0 
0 0 0 0 0 
0 0 0 0 0 
0 0 0 0 0 
0 0 0 0 0 
0 0 0 0 0 
0 0 0 0 0 
0 0 0 0 0 
0 0 0 0 0 
0 0 0 0 0 
0 0 0 0 0 
0 0 0 0 0 
0 0 0 0 0 
0 0 0 0 0 
0 0 0 0 0 
0 0 0 0 0 
0 0 0 0 0 
0 0 0 0 0 
0 0 0 0 0 
0 0 0 0 0 
0 0 0 0 0 
0 0 0 0 0 
0 0 0 0 0 
0 0 0 0 0 
0 0 0 0 0 
-0.002818644727534310 -0.004161933676280060 -0.02796526091344270 -0.01680216001682500 0.03336328755434200 
0.005738340451519820 -0.001749097254226190 -0.006391391020717500 -0.006572732765910570 0.004991559129582510 
-0.01444536528578720 -0.006444044910681690 -0.05110660896890490 -0.02672671763155600 0.06480649285024330 
-0.03044884304997060 -0.04540818172341310 -0.1161430002357040 0.009098349284808490 0.09327906678550720 
-0.03148356319876360 -0.01713711991420550 -0.07428149608097670 -0.05957383885293560 0.1130143384689690 
0.1591492618356070 0.05183577551590770 -0.03360593741355550 -0.1808422307085330 -0.1051408174446200 
0.2214457901254110 -0.2236746458148480 0.02034372993116210 -0.009885827215608850 -0.2799364849096490 
0.3232213677612830 -0.1537534622745750 -0.2683333742859110 -0.2469931672293800 0.04224999701568870 
0.04761396775734570 -0.08641322122039120 -0.1230768327103790 -0.1780369711095270 0.1131675028472080 
-0.08533878171596830 -0.06842445510920900 -0.07998879004778240 -0.06521293100660880 0.1349801873258720 
-0.08202349792241360 -0.02513023543372370 -0.07227927363159570 -0.02495952408322920 0.08369897300706340 
0.003642005039969750 -0.01316438985857670 -0.04028653067074850 -0.05863517098905590 0.05908638555764560 
-0.01330749490048390 -0.01323789006198370 0.01512955162398100 -0.04342028928385850 0.01905695753556130 
-0.01310666891320710 -0.003676757151295090 -0.03088840271689680 -0.03039379723193150 0.04619948017188730 
-0.01501280111739710 -0.006286698363002290 -0.01975517704061230 -0.02010676762771790 0.03687971374288980 
-0.002371908984800070 -0.0007464312447100520 -0.006460883465781610 -0.003145133600915110 0.008417996032409950 
0 0 0 0 0 
0 0 0 0 0 
0 0 0 0 0 
0 0 0 0 0 
0 0 0 0 0 
0 0 0 0 0 
0 0 0 0 0 
0 0 0 0 0 
0 0 0 0 0 
0 0 0 0 0 
0 0 0 0 0 
0 0 0 0 0 
0 0 0 0 0 
0 0 0 0 0 
0 0 0 0 0 
0 0 0 0 0 
0 0 0 0 0 
0 0 0 0 0 
0 0 0 0 0 
0 0 0 0 0 
0 0 0 0 0 
0 0 0 0 0 
0 0 0 0 0 
0 0 0 0 0 
0 0 0 0 0 
0 0 0 0 0 
0 0 0 0 0 
0 0 0 0 0 
0 0 0 0 0 
0 0 0 0 0 
0 0 0 0 0 
0 0 0 0 0 
0 0 0 0 0 
0 0 0 0 0 
0 0 0 0 0 
0 0 0 0 0 
0 0 0 0 0 
0 0 0 0 0 
0 0 0 0 0 
0 0 0 0 0 
0 0 0 0 0 
0 0 0 0 0 
0 0 0 0 0 
0 0 0 0 0 
0 0 0 0 0 
-0.01077734883006640 -0.003391592996802520 -0.02935660487284930 -0.01429068406563760 0.03824922468475070 
0.02328304645984860 -0.004778991010248930 -0.004056534092991140 -0.01595024921399280 -0.002999627758820120 
0.01154595235082750 -0.01899823204934130 -0.06161976692088780 -0.03322752772083560 0.05706487367087410 
-0.02176843869082770 -0.01332545817726220 -0.09940691459845570 -0.05469560750270990 0.1234429275937440 
-0.03540182753937730 -0.07202197785563280 -0.1005816842891650 0.1260435721223600 -0.02280432165108940 
0.1619543199110340 -0.06198085035720600 -0.05492269453077230 -0.1338098788981650 -0.07059888972340000 
0.2763677364499560 -0.05201485683346140 -0.2071282463077150 -0.2584577273206190 0.04781818647628350 
0.1722425089802610 -0.04893638860249650 -0.07101567976578870 -0.2361285533104940 -0.08641933664188510 
-0.2158673694490980 -0.08823331815156080 -0.07530795527689690 -0.2128191376792630 0.1771634878832800 
-0.2433579828037800 -0.09036122046221250 -0.05239636222257880 -0.02359977685618710 0.08491343223083230 
-0.03140916024815760 -0.01370208793949020 0.009459061536049970 -0.09555573078921490 0.007366719652070010 
-0.05902342318391100 -0.002260855219061940 0.05860380045428880 -0.03175818831124560 -0.02986539385860960 
-0.007454210229855680 0.01852236179357580 0.01024360370311540 -0.06855830233061960 0.003758494485539890 
0.003248701000943490 0.008167392866689440 0.0001513739978610760 -0.05457140555503640 0.008657504038574600 
0.004948309232167670 -0.006142450688474980 -0.03421923472638730 -0.02415493715286000 0.03735958038175990 
-0.009179349439934490 0.01671047084604060 -0.009197678013254370 -0.007357068791030150 -0.002579029898784690 
0.01025599854785410 0.01407018347976800 -0.01217768065503870 -0.01933977813936750 -0.005182072707376430 
0 0 0 0 0 
0 0 0 0 0 
0 0 0 0 0 
0 0 0 0 0 
0 0 0 0 0 
0 0 0 0 0 
0 0 0 0 0 
0 0 0 0 0 
0 0 0 0 0 
0 0 0 0 0 
0 0 0 0 0 
0 0 0 0 0 
0 0 0 0 0 
0 0 0 0 0 
0 0 0 0 0 
0 0 0 0 0 
0 0 0 0 0 
0 0 0 0 0 
0 0 0 0 0 
0 0 0 0 0 
0 0 0 0 0 
0 0 0 0 0 
0 0 0 0 0 
0 0 0 0 0 
0 0 0 0 0 
0 0 0 0 0 
0 0 0 0 0 
0 0 0 0 0 
0 0 0 0 0 
0 0 0 0 0 
0 0 0 0 0 
0 0 0 0 0 
0 0 0 0 0 
0 0 0 0 0 
0 0 0 0 0 
0 0 0 0 0 
0 0 0 0 0 
0 0 0 0 0 
0 0 0 0 0 
0 0 0 0 0 
-0.0009472938059826190 -0.0002981099608952030 -0.002580349805802660 -0.001256104512537110 0.003361982079156530 
0 0 0 0 0 
-0.003549317581236660 -0.001116957504276690 -0.009668046886441910 -0.004706368607144130 0.01259666433580770 
-0.01404083849247990 -0.004418601480865020 -0.03824608020084730 -0.01861804698692650 0.04983147476519520 
0.008533374845587980 -0.01453171318323090 0.03273440120514230 -0.03463337901310830 -0.01129280690138920 
-0.002227155003384130 -0.01801159631468670 0.04211660177249190 -0.04158741810282010 -0.007539098865657330 
-0.02095824610368990 -0.04007090173757960 -0.1039987776502780 -0.1299233572967920 0.1697318028695180 
-0.08565474101156050 -0.07479747726135490 0.02106134726442760 0.08667290652078360 -0.03225527982682470 
-0.07428701100748450 -0.03619604246288740 -0.01631270591048080 -0.03144795301614000 0.03809293257757590 
0.05013403633797840 -0.01587525880644770 0.007016241050509390 -0.1275313820418920 -0.01701764865895820 
0.04561399278372310 0.03980693059462340 -0.06763945403476320 -0.1938995628485960 -0.05319533222938530 
-0.3134011357201680 -0.04830375615193970 0.09722353511398110 -0.1909114992585550 -0.03864204129537030 
-0.2651331051645320 -0.09410427391596840 -0.2276023873718010 -0.2156210517163370 0.3281391348160680 
-0.1888536158715430 -0.05631430601487300 0.007447214477553560 0.1011445839042580 -0.09687211908465630 
0.08073766608441130 -0.08031525972565710 0.003709923736193930 0.01860060906937690 -0.1632555062788220 
0.04325875301923660 -0.1029564012105860 -0.01924285802621000 0.08543289317996480 -0.09249990141923500 
-0.01518878958606870 -0.01337423387444500 -0.07145611548801110 -0.0009863843188270220 0.03641826680302950 
0.04433340602326880 0.002749320966120950 -0.02973008055579200 -0.04311083709079730 0.004095202359168440 
0.02606665606900970 0.02565272863847420 -0.01823265795769190 -0.04368103243124280 -0.006819515732779110 
0.05479006611194510 0.01560624286641160 -0.02180448073087330 -0.05444388029212140 -0.01141033142959010 
0.01464534061013050 0.004530851617150740 -0.03300063446968400 -0.03514676782534000 0.02569604667070790 
-0.002462357108429770 0.008477051320230840 -0.002977382662083520 -0.006505585120496290 -0.0001876134652904970 
0 0 0 0 0 
0 0 0 0 0 
0 0 0 0 0 
0.02031401327425550 -0.003217838621022360 -0.004202128854156930 -0.01140338106078510 -0.003543400254749060 
0 0 0 0 0 
0 0 0 0 0 
0 0 0 0 0 
0 0 0 0 0 
0 0 0 0 0 
0.01655613159623910 -0.002622571864350590 -0.003424778617327420 -0.009293873885751820 -0.002887907973857650 
0 0 0 0 0 
0 0 0 0 0 
0 0 0 0 0 
0 0 0 0 0 
0 0 0 0 0 
0 0 0 0 0 
0 0 0 0 0 
0 0 0 0 0 
0 0 0 0 0 
0 0 0 0 0 
0 0 0 0 0 
0 0 0 0 0 
0 0 0 0 0 
0 0 0 0 0 
0 0 0 0 0 
0 0 0 0 0 
0 0 0 0 0 
0 0 0 0 0 
0 0 0 0 0 
0 0 0 0 0 
0 0 0 0 0 
0 0 0 0 0 
0 0 0 0 0 
-0.0006496540657680570 -0.0006611417327504500 0.004409975706237860 -0.0009198764744018530 -0.002489080144645830 
-0.001401824622046550 -0.001426612728939640 0.009515852902917860 -0.001984910984176420 -0.005370941269930360 
-0.0006085306198422960 -0.0006192911114295730 0.004130821911864260 -0.0008616478071053250 -0.002331520055166190 
-0.001502906145020920 -0.001529481650677740 0.01020201356003540 -0.002128037179917090 -0.005758224325765050 
-0.007305044073623610 -0.002298871152088610 -0.01989833453751140 -0.009686433889054160 0.02592588182026160 
-0.007422632340993700 -0.007553884853614040 0.05038624404115480 -0.01051006255235570 -0.02843902278842920 
-0.01422794453149190 -0.008878141937036140 0.02078957193435120 -0.01942926582809380 0.004294393468826700 
-0.03065502154392030 -0.009647025258673920 -0.08350173767438560 -0.04064832964182520 0.1087958481475680 
-0.01404904292338670 -0.004421183385825590 -0.03826842839056770 -0.01862892600104000 0.04986059260540950 
-0.04686258730504000 -0.01651026932248360 -0.1037976103563210 -0.06236501003456330 0.1478102370243030 
-0.05706365385153270 -0.03389280099880030 0.06018081683620220 -0.07770506468845100 0.03522378825079570 
-0.01955010999032240 -0.02916176020952340 -0.06419311780772880 -0.09195437871765570 0.1158813283946280 
-0.05548987555684070 -0.03347232343530380 0.03450476063185390 -0.08994668733255390 0.05909240556553670 
-0.08585786319235420 -0.06952007974252100 0.06071273585319570 0.02801881347170550 -0.02297987509466220 
0.02939367517691680 -0.04105670172464700 -0.01519464711945890 -0.07917352717641140 0.01865218124723930 
-0.1046879850849870 0.04812198648840290 -0.007858217509713190 -0.08806346036983640 0.02070233094648220 
-0.3440767873341630 -0.06753468154368600 0.2455920544228130 0.007839488058184560 -0.2155904046361470 
-0.2178342693892330 -0.03918017636788540 -0.005995387302000920 -0.2994112529140000 0.1674530715487130 
-0.2260637662587210 -0.06127491050720930 -0.06878180748795190 0.1906594684718840 -0.09490676480531730 
0.2598514227148110 -0.1113522435205380 -0.1552637290292820 -0.02611793866229290 -0.2109034224866890 
0.1399147973128640 -0.1288876966817540 -0.1405023080162010 0.1083318278401080 -0.1350751406814030 
0.09109461559926770 -0.04692337858582170 -0.1085958689985270 -0.01141496639434770 -0.04408973218983180 
0.1079134633835940 -0.02513110268646360 -0.07462782620660820 -0.02347825982320010 -0.05543398975574720 
0.09816117009424580 -0.0005008133843645120 -0.05889685266683220 -0.05293784277926410 -0.03969800768742230 
0.04707231861558190 0.01388517406550440 -0.04220008887005950 -0.03503614084523880 -0.02536519170055610 
0.01318353042380810 0.01745289988120110 -0.05045900167715230 -0.03702401095801450 0.01238429436061290 
-0.01416226254480900 0.02433348616959310 -0.01400561449083330 -0.009707803223618090 -0.004161816835739790 
-0.005943568059217710 0.0007507672200874460 -0.004669568072812460 0.006660615820675040 -0.002940903491298880 
0 0 0 0 0 
0 0 0 0 0 
0.02041945499466760 -0.003234541102980420 -0.004223940383459070 -0.01146257133999440 -0.003561792593767700 
0 0 0 0 0 
0 0 0 0 0 
0 0 0 0 0 
0 0 0 0 0 
0 0 0 0 0 
0.01999383288468560 -0.003167120488207240 -0.004135896779018340 -0.01122364606991140 -0.003487550765106100 
0 0 0 0 0 
0 0 0 0 0 
0 0 0 0 0 
0 0 0 0 0 
0 0 0 0 0 
0 0 0 0 0 
0 0 0 0 0 
0 0 0 0 0 
0 0 0 0 0 
0 0 0 0 0 
0 0 0 0 0 
0 0 0 0 0 
0 0 0 0 0 
0 0 0 0 0 
0 0 0 0 0 
0 0 0 0 0 
0 0 0 0 0 
0 0 0 0 0 
0 0 0 0 0 
0 0 0 0 0 
0 0 0 0 0 
0 0 0 0 0 
0 0 0 0 0 
0 0 0 0 0 
-0.001646234272383590 -0.0005180640171668330 -0.004484205700727040 -0.002182894351440760 0.005842548623133770 
0 0 0 0 0 
-0.002893000579159560 -0.0009104168992517220 -0.007880293775253840 -0.003836097163630650 0.01026737010281090 
-0.01665071492648440 -0.006841193371280590 -0.02368834092160520 -0.02228362595233200 0.04228276528586250 
-0.01080486668392130 -0.008605480168129260 0.04100036894469630 -0.01499324446055940 -0.01630115230596890 
-0.04256413118847060 -0.01927525639910940 -0.03637243189413540 -0.05719219840102540 0.08932446336313600 
-0.05633902199127080 -0.02381502943975860 -0.07112207327529910 -0.07548381561287040 0.1360612735166380 
-0.02085103896523780 -0.009100128054834440 -0.02244967034048880 -0.02797313855792380 0.04735147780521410 
-0.06233114552309550 -0.02368565361994250 -0.1419016261730230 -0.08849424037367670 0.2027879332661980 
-0.1151439470530800 -0.05438648354282230 -0.06804008482159840 -0.1550026667047030 0.2180876553645640 
-0.04174307271595230 -0.02993060215146650 0.1135377389250530 -0.05750002499892480 -0.02816930889687330 
-0.07300772455110750 -0.03672933757217820 -0.01276069145246490 -0.09856769731622030 0.1147075926547160 
-0.04670155982768800 -0.03973724602461230 0.2116109091579070 -0.06513014640095270 -0.09714596843083300 
-0.04113222724918270 -0.03296901546150730 -0.04446182172288670 -0.01431998140068410 0.06353003076564160 
-0.09274014248447010 -0.06848390207837710 0.06963738832175500 0.02610971315794880 -0.03088347348785210 
-0.2223227125991810 -0.1631251689393470 0.2241664110691390 0.1562168031058810 -0.2000042571499270 
-0.1677619170180080 0.01813394090696950 0.1629699936869200 -0.09085307234161150 -0.1655686358940890 
0.04319413293383220 0.005318153587018680 -0.08208866176966260 -0.08426849302283070 -0.06196368514711010 
0.06285400275953650 -0.0008771198738677810 -0.1893465217582670 -0.002819456041104070 -0.1357886641165370 
0.2703728374537320 0.1185749133020930 -0.1948132455752470 -0.2726838762655750 -0.1270727067593950 
0.2556626765863670 0.03129974740880710 -0.1361097132976780 -0.1855457254379640 -0.1604603038061030 
0.08265527718246570 -0.07522809406070420 -0.1567417886460570 0.1015269348277500 -0.1207621717625610 
-0.01007841942145650 -0.08401030507582520 -0.1426508493092160 0.1844581215713920 -0.1129484343461030 
-0.05678143541483310 -0.02758390616779190 -0.09488924699961720 0.1317735549044150 -0.06900399104677700 
-0.01969169969131820 -0.007638025061733240 -0.05921624542591590 0.05718533621792160 -0.04108257404203610 
-0.01416359497618210 0.01167931600892610 -0.03621444765118740 0.01715044869761150 -0.02166097936969080 
-0.007630084804500690 0.0003059517146477960 -0.02634181838751850 0.02001643618365980 -0.01749526888776430 
0.01677738295532890 -0.002657619157006200 -0.003470546369248250 -0.009418074531082460 -0.002926501141617160 
0.008346372429056800 -0.001322106035132520 -0.001726519124417810 -0.004685281239054110 -0.001455868803080430 
0.004947468883067820 -0.0007837031626053940 -0.001023426610384780 -0.002777288377156830 -0.0008629935534620770 
0 0 0 0 0 
0 0 0 0 0 
0 0 0 0 0 
0 0 0 0 0 
0 0 0 0 0 
0 0 0 0 0 
0 0 0 0 0 
0 0 0 0 0 
0 0 0 0 0 
0 0 0 0 0 
0 0 0 0 0 
0 0 0 0 0 
0 0 0 0 0 
0 0 0 0 0 
0 0 0 0 0 
0 0 0 0 0 
0 0 0 0 0 
0 0 0 0 0 
0 0 0 0 0 
0 0 0 0 0 
0 0 0 0 0 
0 0 0 0 0 
0 0 0 0 0 
0 0 0 0 0 
0 0 0 0 0 
0 0 0 0 0 
0 0 0 0 0 
0 0 0 0 0 
-0.001454193095205750 -0.001479907220439570 0.009871340086903730 -0.002059062027012650 -0.005571585479848290 
-0.002313264218119290 -0.002354169078690920 0.01570287871892970 -0.003275462196650430 -0.008863024705052950 
-0.02319082235439600 -0.01079065118652790 -0.01591174351928850 -0.03119777552962000 0.04563759654679230 
-0.02263575495639540 -0.01519877915183670 0.04761015618014690 -0.03104818582947530 -0.004445788779125390 
-0.02919143054084380 -0.01294041429288100 -0.02871999089984990 -0.03918798560713210 0.06418970017602710 
-0.02376023064665300 -0.01462144946136040 0.03194713570231010 -0.03242007410870240 0.009321374001246070 
-0.04019236105316800 -0.01911706063891540 -0.02195310374814870 -0.05412251518099390 0.07473172024403530 
-0.06279149660647400 -0.02829612042135770 -0.05554008888757840 -0.08435332254619540 0.1332341139172040 
-0.05964872854880500 -0.03741911650347380 0.08984620752312310 -0.08147999029479820 0.01591746832157720 
-0.03490793780557770 -0.02233305878320460 0.05845880092093980 -0.04773973495325590 0.004754153517741790 
-0.05098054812714350 -0.03022563731329370 0.05303312143075150 -0.06941461581025630 0.03203704377470860 
-0.1554383882991240 -0.06267494848996560 -0.2544988092871850 -0.1988007675729250 0.4145020487730330 
-0.1087328542466650 -0.07029945990496850 0.1408889704582160 -0.1588091178441630 0.05280912803848380 
-0.02108627868812210 -0.02582592422090040 0.04532994545987390 -0.04718464113934550 -0.001160372068602560 
-0.07774200801771590 -0.09323729093638650 0.1332584614880850 0.0003666726287301440 -0.07106613277717680 
-0.05722671327947510 -0.08786482555608620 -0.03016782841970240 0.1625989659538250 -0.09411305991050350 
-0.09344444144920270 -0.1268421191514540 -0.004687205813113570 0.1214863144874630 -0.06824343135473460 
-0.1213304988771460 -0.05585637338553100 -0.01347746683389330 0.08704259846968080 -0.1027684900553650 
-0.07073074887832830 -0.02657988374246400 -0.08167412248070260 0.09575526814255650 -0.1257350282349110 
0.1279469605087420 0.05565304830279250 -0.1181515589375830 -0.1235899726904510 -0.1478236368317920 
-0.2220172352725230 -0.04395102217709850 -0.1116647360468650 0.2959730628033160 -0.1363730448478460 
0.1759514537639480 0.1210661481665580 -0.1751475251955390 -0.2044456715187570 -0.1556734201188920 
0.08428162093571340 0.2549181610614100 -0.1871310311962780 -0.2801215015562500 -0.1370147707389240 
-0.09639895391756740 -0.006967307403284250 -0.2029791658825980 0.1977913280289520 -0.1366753619750740 
-0.1448980964444990 -0.06010245832130680 -0.1464090639942750 0.2736775530589120 -0.1100147264475260 
-0.06730207069453370 -0.04667321629122700 -0.07247512017675090 0.1520012198913430 -0.05805020441718500 
0.07212228414658330 -0.01990662484037410 -0.03714396234192250 -0.01863380671033020 -0.02920800291983270 
0.08370822098976310 -0.01623505660336100 -0.03278781960785520 -0.03529747085332200 -0.02555731166298270 
0.04311006496896170 -0.007260034372585190 -0.02225437101036370 -0.01668473622546640 -0.01651249191305080 
0.04627678963410350 -0.007330468821257710 -0.009572753073153770 -0.02597772578677280 -0.008072121740033670 
0.03727561481550210 -0.005904638899083920 -0.007710782426787680 -0.02092486768997630 -0.006502034888426980 
0.02631935571123310 -0.004169114105845500 -0.005444385733328010 -0.01477451247065520 -0.004590920094071480 
0 0 0 0 0 
0 0 0 0 0 
0 0 0 0 0 
0 0 0 0 0 
0 0 0 0 0 
0 0 0 0 0 
0 0 0 0 0 
0 0 0 0 0 
0 0 0 0 0 
0 0 0 0 0 
0 0 0 0 0 
0 0 0 0 0 
0 0 0 0 0 
0 0 0 0 0 
0 0 0 0 0 
0 0 0 0 0 
0 0 0 0 0 
0 0 0 0 0 
0 0 0 0 0 
0 0 0 0 0 
0 0 0 0 0 
0 0 0 0 0 
0 0 0 0 0 
0 0 0 0 0 
0 0 0 0 0 
0 0 0 0 0 
0 0 0 0 0 
0 0 0 0 0 
-0.01202040090605960 -0.01223295458636390 0.08159677398815560 -0.01702026445919400 -0.04605488182481090 
-0.03586755009688010 -0.02764753813688430 0.1236689350574510 -0.04965358288484240 -0.04446472491366970 
-0.08277535266260080 -0.05630126106060980 0.1838686948804580 -0.1136306292843690 -0.02383491557324750 
-0.08020486120038630 -0.06219202752779590 0.2815240158718290 -0.1110794834436760 -0.1032956277877990 
-0.07405613390600230 -0.05867680802129980 0.2768904517667970 -0.1027241064821800 -0.1085272866833260 
-0.08570842402212530 -0.03947861385779870 -0.06423746029043230 -0.1152490859322970 0.1728808977480500 
-0.06971676386721400 -0.04556126075716470 0.08767111977229750 -0.1036980450392180 0.03701765152995820 
-0.04501183384145370 -0.04842164734285560 0.1939812186100530 -0.05906888444310940 -0.09063807485091580 
-0.07325498709420280 -0.04496105863525370 -0.002468117320928430 -0.1193896453473720 0.1187952754109860 
-0.02071966212476000 -0.03001850751059660 0.1906346803297680 -0.04435572139564600 -0.1098096793859530 
-0.07025873777950170 -0.03968028711987400 0.06400250798479430 -0.1098318344894370 0.05464740140266700 
-0.08759431978006030 -0.04766950142988840 -0.2820222522868930 -0.1804712573172860 0.3817700656024260 
-0.09299613890813010 -0.06149142776495960 -0.03973810651389920 -0.1925758113800210 0.1922539122863540 
0.08641962922667110 -0.03244972857070830 -0.02160824479138400 -0.1013341166559330 0.01819909128841300 
0.04044034315877810 -0.1248443285847070 -0.1646060973998230 0.09057219355950400 -0.006625122174988950 
-0.02081075883708860 -0.1707256941495700 -0.1396262038080630 0.2609006669500660 -0.1309018602450130 
0.05017775034525470 -0.1010621871019400 -0.2028743959464010 0.1082629759417670 -0.06947139842903070 
0.06192122237390240 0.02328872596735130 -0.1673056694239410 -0.02676880036164000 -0.07464054257581470 
0.06090569048414940 -0.05915919945909640 -0.1676874719787500 0.09076470475868470 -0.1029762034567640 
-0.04345336867110060 0.03023228969532250 -0.2095767387715980 0.1110676469871160 -0.1409513839792200 
-0.1348278411984360 -0.1216591138138470 -0.1745429293832520 0.3537807754185900 -0.1470290763657460 
-0.09384319249667240 0.06067550689910780 -0.1777529769193980 0.1011281038158470 -0.1119131759784180 
-0.1783250671610520 0.2841983412347870 -0.2085791317665610 -0.07861417833509180 -0.08397566615849670 
-0.1855178944146060 0.08382901207053910 -0.1845788410575540 0.1557002869514670 -0.1049385380153920 
-0.1438601194334390 0.01216993013345200 -0.1122573318619940 0.1680254175006680 -0.07194021750674420 
-0.05441894917858080 -0.01268814388061770 -0.04025612768180540 0.08317900918810200 -0.02939600200893500 
0.06399887230673350 -0.009621651159213070 -0.01956126674323190 -0.03322904042457150 -0.01527425922603340 
0.06830979518563780 -0.005520712299146060 -0.01641553938512170 -0.04351544338461060 -0.01231980714422130 
0 0 0 0 0 
-0.006778790606249570 -0.006821018130087350 -0.004345343498137640 0.01630710644731110 -0.004323256062889850 
0.02995055659891310 -0.004744314008460280 -0.006195530956054530 -0.01681290669987190 -0.005224315276832170 
0 0 0 0 0 
0 0 0 0 0 
0 0 0 0 0 
0 0 0 0 0 
0 0 0 0 0 
0 0 0 0 0 
0 0 0 0 0 
0 0 0 0 0 
0 0 0 0 0 
0 0 0 0 0 
0 0 0 0 0 
0 0 0 0 0 
0 0 0 0 0 
0 0 0 0 0 
0 0 0 0 0 
0 0 0 0 0 
0 0 0 0 0 
0 0 0 0 0 
0 0 0 0 0 
0 0 0 0 0 
0 0 0 0 0 
0 0 0 0 0 
0 0 0 0 0 
0 0 0 0 0 
0 0 0 0 0 
-0.004205156491458460 -0.001323347655510680 -0.01145449771504550 -0.005576006104427780 0.01492426180245870 
0 0 0 0 0 
-0.004210474409725880 -0.001325021185303380 -0.01146898328360080 -0.005583057624337270 0.01494313529851720 
0.02433900078032200 -0.005855100072814470 -0.01742240711905040 -0.02164018935475240 0.01001815758732910 
-0.01684677709014570 -0.01234438571853850 0.04940643226490780 -0.02323990779884090 -0.01414991192174070 
-0.06716406970784930 -0.04599881072758910 0.1534653779611500 -0.09224051547617030 -0.02265587548729090 
-0.1099593431672550 -0.06431136131247490 0.1024527215554200 -0.1496067090078960 0.07835973557677650 
-0.09951430010594110 -0.08145363726594480 0.4073329165839450 -0.1383708355905020 -0.1731908251628870 
-0.09118555014400550 -0.07323464525175880 0.3542736881899400 -0.1266106479674470 -0.1439786189484700 
-0.1226674390445700 -0.05313094452054970 -0.1375583617577570 -0.1645151343180090 0.2828271770213830 
0.01617475005151690 -0.05166390983053900 -0.04245532961455260 -0.1530748019853410 0.1104926959632100 
0.08255059089141630 -0.1022860308984250 0.2849763128744000 -0.1311406716896500 -0.2098746463459850 
0.06331807415389060 -0.1025489163959920 -0.1353607147721270 -0.1636472392900920 0.1460278742400670 
0.06793712026138380 -0.08489434399080600 0.1371700661279080 -0.08260246449927080 -0.1148730662825050 
0.03300791255249510 -0.03074963125014480 0.008322763393073780 -0.1734613293480420 0.04833947661221260 
0.02439073363988080 0.01478164411058500 -0.1191299877757920 -0.1888504237571560 0.1312301025062780 
-0.01445415949832810 0.03195387110881880 -0.1215826164354470 -0.1620689043053740 0.1370838002317190 
0.03406339124535960 -0.02275890493945710 -0.02377414698289840 -0.07060773488945130 0.03671828089454450 
-0.04146833560587470 -0.07616353827215770 -0.1374975260920030 0.1523763758883840 -0.06411664752356820 
-0.04835030416354380 -0.1543754103837220 -0.1376340246534500 0.2422472800741380 -0.1181293562563450 
0.02584511223447910 -0.03424884044318740 -0.1601948159229760 0.08168590995219430 -0.08529653634921320 
0.08473559168083790 -0.02258803314888750 -0.08629486771926640 -0.0004746176411322480 -0.06261694187858870 
0.01981133842563960 -0.004160362252433520 -0.1002603087577590 0.04055941725326480 -0.06785527783789470 
-0.1120484770211720 -0.04759949271529060 -0.1576071978062200 0.2362714514387720 -0.1149391816351870 
-0.1326949062480140 -0.04889783802356130 -0.1462671723424500 0.2496423820471690 -0.1075856456774760 
-0.1580634571522940 0.04414498506761340 -0.1272704108313140 0.1496995524741240 -0.07515844127742690 
-0.1887322398057290 0.04753055330198980 -0.1513029908594860 0.1846224127890830 -0.09039513679395150 
-0.1302149637165260 0.08352951636009480 -0.1108699971379960 0.06981527566518310 -0.05596346466095820 
-0.08572930203115510 0.04182983523938630 -0.07131220476681460 0.06089892306005330 -0.03850608885920330 
-0.04716108515337890 0.03070077431160380 -0.04021198258002790 0.02477712749084150 -0.02021220408266910 
-0.04336055391460050 7.056563804250260e-05 -0.03337580929403670 0.05472586885631570 -0.02213744590966550 
-0.008675791141271640 0.02986777445740330 -0.01049041588462060 -0.02292157281491250 -0.0006610313486123630 
0 0 0 0 0 
-0.02028572170422860 -0.02041208875796860 -0.01300356273451380 0.04879947506955150 -0.01293746546279930 
0 0 0 0 0 
0 0 0 0 0 
0 0 0 0 0 
0 0 0 0 0 
0 0 0 0 0 
0 0 0 0 0 
0 0 0 0 0 
0 0 0 0 0 
0 0 0 0 0 
0 0 0 0 0 
0 0 0 0 0 
0 0 0 0 0 
0 0 0 0 0 
0 0 0 0 0 
0 0 0 0 0 
0 0 0 0 0 
0 0 0 0 0 
0 0 0 0 0 
0 0 0 0 0 
0 0 0 0 0 
0 0 0 0 0 
0 0 0 0 0 
0 0 0 0 0 
0 0 0 0 0 
0.02855602678328610 -0.004523413695050610 -0.005907060435871570 -0.01603007985647450 -0.004981065593117040 
0.02828160956572390 -0.004479944671523640 -0.005850294867570130 -0.01587603426935900 -0.004933198634210890 
-0.01100998021293170 -0.003464801258073720 -0.02999027347683370 -0.01459915154207350 0.03907484239205870 
0 0 0 0 0 
0.04753369780904510 -0.01700536849568240 -0.01830047474821180 -0.05465202014516140 0.01439888137455360 
0.03303531350794160 -0.01551350802094080 -0.02859192657500710 -0.05134945181439040 0.03009166185666460 
-0.009508924912468300 -0.02305680185699440 0.006978316722647920 -0.06188463483696030 0.03637714970221410 
-0.04336803310247750 -0.04837261913639980 0.09186273345510800 -0.1128186428696990 0.02162904397287270 
-0.04776025432727730 -0.09601700538902960 -0.02393419942718660 -0.1619272717856130 0.1348782342293880 
0.08197722760698000 -0.08994467473924110 0.1473786771769200 -0.1465323875708070 -0.09134046373207650 
0.1147132920217680 -0.08545031688381510 0.1169561285850430 -0.2236675746844640 -0.03839508295381550 
-0.01905874292249080 -0.02372284147463150 -0.1157826812303320 -0.1774067597407840 0.1809721628583660 
0.1106404196293700 -0.09249042426294930 -0.1365308874402850 -0.2066641880676810 0.1457842872406860 
0.06001766015737460 -0.1244535909555480 0.3205074378966430 -0.2657274590873170 -0.1657330352721440 
0.06193321145664290 -0.1950184502614270 -0.2529808412878690 0.08394496403791670 0.01177243755227360 
0.06881378425921410 -0.1623304191017020 -0.1202196289414460 -0.008021001772814660 0.009029257409752660 
0.1177819485826790 0.01114362534840320 0.004205577134465630 -0.1767441500192400 -0.03211335111538210 
-0.03199597588631580 0.1659180967468820 -0.1199352499402400 -0.1562044506021340 -0.06038527184538200 
-0.01133358241814330 0.1445663181741780 -0.05921183488747610 -0.1328928199789920 -0.008918040798355520 
-0.1220913690421290 0.03505071213941680 -0.01287111020078060 0.07041062941987630 -0.09841487611992520 
-0.1568971639010450 -0.04593051020760270 -0.07563765567405730 0.2302212203275160 -0.1094974139437250 
-0.1505973594251130 0.03172388209349010 -0.08692598675852160 0.1374035638406110 -0.09895485982604290 
-0.09551085579713020 0.03173096514740940 -0.08230130973377540 0.08726536055559570 -0.05472527150897190 
-0.05079954710027320 0.01457402242728740 -0.04605676470953450 0.05039001656933060 -0.03258176302354560 
-0.03795964211275820 -0.01562688768521650 -0.03331434904987880 0.06890941644548150 -0.02543133474755010 
-0.07587827041333030 -0.008951684574830540 -0.06139493195688310 0.1082398136004080 -0.04265344933640300 
-0.04645230323999940 -0.003856610053623510 -0.03525345639674160 0.06308941014443240 -0.02421226886824330 
-0.07387533987125830 -0.02382003251440890 -0.05380661946850230 0.1204011052586710 -0.04073847595416200 
-0.08840768941972600 -0.04971749161620890 -0.06168234744955000 0.1681521551767050 -0.05142981492869330 
-0.05948097342023980 -0.01032043748980670 -0.04445381952979770 0.08689084185697850 -0.03168255665450050 
-0.03713278844801050 -0.004987387684618450 -0.02793750229059020 0.05259289109750750 -0.01959507202115370 
-0.01299033468294100 0.01222543509402220 -0.01155755050639810 0.002548494145643460 -0.005091618769458410 
-0.01586842846810520 -0.0002295002877874290 -0.01218175932182530 0.02031741828376840 -0.008133750774968460 
-0.003114340617544850 0.01072160701355080 -0.003765734761524350 -0.008228135517913210 -0.0002372898038843510 
0 0 0 0 0 
-0.006778790178938360 -0.006821017700114260 -0.004345343224222400 0.01630710541936830 -0.004323255790366940 
0 0 0 0 0 
0 0 0 0 0 
0 0 0 0 0 
0 0 0 0 0 
0 0 0 0 0 
0 0 0 0 0 
0 0 0 0 0 
0 0 0 0 0 
0 0 0 0 0 
0 0 0 0 0 
0 0 0 0 0 
0 0 0 0 0 
0 0 0 0 0 
0 0 0 0 0 
0 0 0 0 0 
0 0 0 0 0 
0 0 0 0 0 
0 0 0 0 0 
0 0 0 0 0 
0 0 0 0 0 
0 0 0 0 0 
0 0 0 0 0 
0 0 0 0 0 
0 0 0 0 0 
0.06057800096441790 -0.009595850335230120 -0.01253108198478600 -0.03400578800316750 -0.01056670098377560 
0.03152328770281090 -0.004993442273677050 -0.006520863949702560 -0.01769576779884660 -0.005498648847405640 
-0.002299512031084590 -0.0007236481832092280 -0.006263680164883160 -0.003049135780933990 0.008161056464727990 
0 0 0 0 0 
0.03268323872468310 -0.01392948140162420 0.02937321674876810 -0.03557587231951270 -0.02403191827801150 
-0.01879317029307100 -0.02024058793948620 -0.005010516628032130 -0.006639357266460610 0.01623233802366880 
0.03094016515599970 -0.03799307649373210 -0.0005664653973831080 -0.07097733695501840 0.01791800991080220 
0.04040207066078320 -0.03883653126464750 -0.003576281673159550 -0.1118098178203360 0.04044144353201300 
-0.01466631007274070 -0.09541878097638680 0.001081778430582380 -0.1020018790871480 0.05466109113613650 
0.2880081038371350 -0.1205005636588440 -0.1941937875374980 -0.2114626174277190 0.06896683201726840 
0.3061963697524590 -0.1092116945867880 -0.06834561031507140 -0.2373114948369430 -0.02013174542846680 
0.1194082923606110 -0.03306930198537730 -0.06142200704501140 -0.1584305797941600 0.03687625002557290 
0.1256772540404530 -0.1773010698937920 -0.04354806453961760 -0.1356577887479500 -0.0004768366033308930 
-0.1121098207437090 -0.1594662420783630 0.3791704528009900 -0.1023964030958220 -0.2412317855220500 
-0.2085404587164490 -0.2121209228339350 -0.07556402577478270 0.2338410352325690 -0.05034181066498540 
-0.1818549837792400 -0.07787583890625020 -0.2392300614596740 0.1741668172741440 0.01584398335988170 
-0.04110022878874160 0.1162963161660960 -0.09214133534877790 -0.2078873075921080 0.08151903583915350 
-0.1437248864833460 0.1939696256656590 -0.1656265086706320 -0.1363894230189810 0.04109895759460080 
-0.1278690863066240 0.1116629072290930 -0.1294554121645370 -0.01874810046808150 0.006841066563861510 
-0.1439573631499030 0.001606994460229900 0.002433480217937530 0.1215818405166730 -0.1220657313358020 
-0.1037988026814910 0.03435170905596200 -0.08426205627864240 0.09222255833759540 -0.04867900689827690 
-0.08593208997087770 0.1179497429796660 -0.08118904514529130 -0.02520896626226610 -0.02900127634064960 
-0.05360996746065660 0.05125729417887700 -0.04779966706016910 0.009605207814736280 -0.02091117586336450 
-0.03764030167324260 0.02403949658418540 -0.03203488314283330 0.02030101382249540 -0.01619030782014520 
-0.01370270616598150 -0.01378806524916850 -0.008783715061259440 0.03296332650530330 -0.008739067327948190 
-0.009125626779152030 0.01774452237436250 -0.009288389539025950 -0.008598187261462370 -0.002421065907704400 
0 0 0 0 0 
-0.01914946810140320 -0.01926875702293850 -0.01227520092308380 0.04606609539629080 -0.01221280592354960 
-0.01865315534011950 -0.01876935255102740 -0.01195705428667660 0.04487216192061280 -0.01189627643046700 
-0.02149055501234030 -0.02162442740592540 -0.01377588554043090 0.05169783056507760 -0.01370586254225240 
-0.01174505061558920 -0.01181821475852480 -0.007528817792468180 0.02825397651918850 -0.007490548717640210 
0 0 0 0 0 
0 0 0 0 0 
0 0 0 0 0 
0 0 0 0 0 
0 0 0 0 0 
0 0 0 0 0 
0 0 0 0 0 
0 0 0 0 0 
0 0 0 0 0 
0 0 0 0 0 
0 0 0 0 0 
0 0 0 0 0 
0 0 0 0 0 
0 0 0 0 0 
0 0 0 0 0 
0 0 0 0 0 
0 0 0 0 0 
0 0 0 0 0 
0 0 0 0 0 
0 0 0 0 0 
0 0 0 0 0 
0 0 0 0 0 
0 0 0 0 0 
0 0 0 0 0 
0 0 0 0 0 
0 0 0 0 0 
0 0 0 0 0 
0 0 0 0 0 
0 0 0 0 0 
0.04514050921725700 -0.007150476470151320 -0.009337703668509800 -0.02533986863810050 -0.007873918841169650 
0.006591172323854970 -0.001044073791582750 -0.001363440844054810 -0.003699990180742530 -0.001149706922808860 
0.02328195548201180 -0.003687975119022190 -0.004816073298334720 -0.01306945144798550 -0.004061102347046690 
0 0 0 0 0 
0.02528550111843160 -0.004005346504026800 -0.005230523993810500 -0.01419415261147850 -0.004410583467426200 
-0.02376079010206920 -0.02101109731077580 -0.02395904456999700 0.04152272767156050 0.002390077149349730 
0.07491893601598470 -0.04253138881862140 -0.05888929212259270 -0.01497495294370030 -0.004276406873819820 
0.1175478355672710 -0.02632148396403710 -0.05753448650579550 -0.08193836045321240 0.01367503465906210 
-0.03953912385034930 -0.03634669293725240 -0.001429588246354020 0.009812554778229580 0.01299438165897710 
0.1558653226598900 -0.1017679567505410 -0.04471578370145470 -0.1206279300481570 -0.01289945939370370 
0.1682471262027890 -0.09920537387356020 -0.04945077918938280 -0.1009156521623940 -0.02983339644760110 
0.09859549845461350 -0.07685187414041770 -0.007610508776994140 -0.07187575145838500 -0.02963008670298830 
0.02133436847188510 -0.2016356065149700 0.06719907235601370 0.1001135480842150 -0.1753886864967220 
-0.2572210706643770 -0.2628174953974540 0.1489356214723480 0.3090402067858370 -0.2679479807267370 
-0.2740663372131340 -0.2160465382529520 0.2396684228281740 0.03508790242963940 -0.1146441215625410 
-0.3131202267282480 0.03097535602799300 -0.1966784533724630 0.09956784991146580 -0.02834447963706240 
-0.1376750695045130 0.2593636879806150 -0.08434776784823730 -0.3032974817612390 0.05451924734091400 
-0.1031977008737510 0.1276975646884060 -0.1291867883698730 -0.2459395867853070 0.1553171727476420 
-0.2019623098497220 0.02644733263447430 -0.09021497587782080 0.1270600101231690 -0.07808046176621570 
-0.03858822483806560 -0.06011762739831720 -0.001969784875969730 0.07273224742534860 -0.03358187759503040 
-0.02810266285561850 0.07846685393469340 -0.04135048547311890 -0.06784470475996140 0.01549693628963510 
-0.02147180333787880 0.06049860664752940 -0.04036039132727680 -0.05876150728718390 0.02088438743280710 
-0.009920579804566190 0.03415315505693720 -0.01199556400930290 -0.02621032349139560 -0.0007558750712696100 
0 0 0 0 0 
0 0 0 0 0 
0 0 0 0 0 
0 0 0 0 0 
0 0 0 0 0 
0 0 0 0 0 
0 0 0 0 0 
0 0 0 0 0 
0 0 0 0 0 
0 0 0 0 0 
0 0 0 0 0 
0 0 0 0 0 
0 0 0 0 0 
0 0 0 0 0 
0 0 0 0 0 
0 0 0 0 0 
0 0 0 0 0 
0 0 0 0 0 
0 0 0 0 0 
0 0 0 0 0 
0 0 0 0 0 
0 0 0 0 0 
0 0 0 0 0 
0 0 0 0 0 
0 0 0 0 0 
0 0 0 0 0 
0 0 0 0 0 
0 0 0 0 0 
0 0 0 0 0 
0 0 0 0 0 
0 0 0 0 0 
0 0 0 0 0 
0 0 0 0 0 
0 0 0 0 0 
0 0 0 0 0 
0 0 0 0 0 
0 0 0 0 0 
0.009381643918039940 -0.001486098080205910 -0.001940673961131210 -0.005266436480554450 -0.001636452580804270 
0 0 0 0 0 
0.01304770343513460 -0.002066819759462860 -0.002699029992007870 -0.007324398789653130 -0.002275928200487030 
0 0 0 0 0 
0.03908959375984180 -0.006191981996974610 -0.008086019616993860 -0.02194315456708290 -0.006818449639500730 
-0.004133608064339300 -0.004159357795111620 -0.002649727358397290 0.009943836685927450 -0.002636258761155670 
0.008982139719075200 -0.03402889779877340 -0.02559597187123250 0.04659105345631160 -0.02430562073178600 
0.06342624020330750 -0.03628065287625750 -0.03221891717858950 0.005937488368163800 -0.02935834959313460 
0.06742944179624010 -0.01448071399186070 -0.01671452556714510 -0.03183510075291410 -0.01441154827125040 
0.1487390114994520 -0.03915568730385540 -0.02237658239715260 -0.09141327694560640 -0.03061921229049140 
0.1636486901594630 -0.04001085934513910 -0.05470047091300010 -0.1179059182976010 0.001353159076089150 
0.06193317378697490 -0.09542467494037820 -0.02992958139510720 0.01477385244130750 -0.04888416803982030 
0.08303121899091630 -0.1680746196858870 0.004488618280836580 0.1293048160113520 -0.1801108214658430 
-0.3291422279311930 -0.3727377553018840 -0.1224851663623950 0.6783098337832440 -0.2542033938213180 
-0.1932827810586870 -0.1640983536448880 0.0001405360331387220 0.04637595530429890 -0.03130850353748020 
-0.2008319624488820 0.02471732634012670 -0.01737640705931950 -0.08671163773848680 -0.07701166630750200 
-0.1406686303978220 0.2872976717500060 0.008952415125636810 -0.3268617550078300 -0.1104352959202150 
-0.2197633228351660 0.1794745307036870 -0.08745204461109390 -0.2669918297137180 0.09958394844273120 
-0.1356382754797620 0.1225241812504750 0.05399692554918370 -0.1537360702388750 -0.05006149608004380 
0.01184783316200140 -0.01925210717893900 -0.04962041917759140 -0.01432585807661850 0.03526057338971020 
-0.01835201002885170 -0.005294250451240540 -0.005562538540145560 -0.02602117723112430 0.02827777160099530 
-0.01677931511925770 -0.004042821621680640 0.01976573274068200 -0.02491253268761660 0.004904156946653870 
-0.0006393543350542780 -0.0006506598745280750 0.004340059169696450 -0.0009052925897230460 -0.002449617826828190 
0 0 0 0 0 
0 0 0 0 0 
0 0 0 0 0 
0 0 0 0 0 
0 0 0 0 0 
0 0 0 0 0 
0 0 0 0 0 
0 0 0 0 0 
0 0 0 0 0 
0 0 0 0 0 
0 0 0 0 0 
0 0 0 0 0 
0 0 0 0 0 
0 0 0 0 0 
0 0 0 0 0 
0 0 0 0 0 
0 0 0 0 0 
0 0 0 0 0 
0 0 0 0 0 
0 0 0 0 0 
0 0 0 0 0 
0 0 0 0 0 
0 0 0 0 0 
0 0 0 0 0 
0 0 0 0 0 
0 0 0 0 0 
0 0 0 0 0 
0 0 0 0 0 
0 0 0 0 0 
0 0 0 0 0 
0 0 0 0 0 
0 0 0 0 0 
0 0 0 0 0 
0 0 0 0 0 
0 0 0 0 0 
0 0 0 0 0 
0 0 0 0 0 
0 0 0 0 0 
0 0 0 0 0 
-0.003295310372413440 -0.003353580504406160 0.02236919531885960 -0.004665988634815640 -0.01262562962447180 
0 0 0 0 0 
0.01905153474219420 -0.003017855873948610 -0.003940974280921940 -0.01069468191858260 -0.003323184451415390 
0 0 0 0 0 
-0.01272050588424860 -0.01279974648875410 -0.008154104581159560 0.03060053858675760 -0.008112657165778670 
0.002294148139575330 -0.01743845381111820 -0.01290557237787400 0.02575129064477500 -0.01230798191197340 
0.09750737663259090 -0.01544564326737760 -0.02017024185763570 -0.05473629247786720 -0.01700834091891160 
0.1197189136888450 -0.02460139080836570 -0.04529210654342120 -0.08687608652011920 0.006461289769988300 
0.1126274730168540 -0.04338698479037850 -0.04189618678739830 -0.02277039177261380 -0.03746121820777090 
0.04096727975886540 -0.07949017222126930 -0.03472659015297280 0.07871860959247840 -0.06957450190923150 
0.1189611250100040 -0.1365885691524150 -0.08014570259259880 0.05271120752749580 -0.08219803157808900 
-0.1815471186970000 -0.2768022721990220 -0.1391281246789880 0.4958578902681600 -0.1705570203949950 
-0.1359296796529560 -0.1199427029193860 -0.08465939855496310 0.1728881821908770 -0.05948813442766970 
-0.1063591534820800 -0.001242712494953850 0.08208832849716900 -0.06949048319846940 -0.07465250565936090 
-0.06912757425818690 0.05023594268055270 0.04081075285075930 -0.1402743380983810 -0.1500827250790400 
-0.1894980863330510 0.002618201969422140 -0.04668973024460880 -0.04112779509895690 -0.06586195457017390 
0.008718373143978200 0.07793333730548980 -0.1041690304247240 -0.3233706573691000 0.1237900193739970 
0.01208524381419180 0.04995616358125910 -0.003851070527664000 -0.1394486786964780 0.001801575828708630 
-0.05233542196074260 0.02953856935788820 -0.02735368316669840 -0.03878342811404310 0.01305122539288960 
0.006432394597773520 0.01188977729749080 0.01347395596660120 -0.02667950905514520 -0.01584169984277270 
-0.01765345760133520 0.01776422305160670 -0.01585323868506230 0.002158283130372420 -0.006774158965586720 
-0.02282889401983500 0.01524608360284120 -0.01951426301792490 0.01155685216039340 -0.009735364325422660 
-0.003774178452281420 0.02243331689141360 -0.008633726185788730 -0.01917906898359280 -0.001007947372976990 
-0.006124174213078320 0.02108343217991040 -0.007405103857265510 -0.01618016188615960 -0.0004666169428572540 
0 0 0 0 0 
0 0 0 0 0 
0.005051401477636150 -0.0008001665916811670 -0.001044925963989940 -0.002835631500423400 -0.0008811226536599610 
0.002839888080390070 -0.0004498521006699070 -0.0005874553434651540 -0.001594186511225280 -0.0004953654411689250 
0 0 0 0 0 
0 0 0 0 0 
0 0 0 0 0 
0 0 0 0 0 
0 0 0 0 0 
0 0 0 0 0 
0 0 0 0 0 
0 0 0 0 0 
0 0 0 0 0 
0 0 0 0 0 
0 0 0 0 0 
0 0 0 0 0 
0 0 0 0 0 
0 0 0 0 0 
0 0 0 0 0 
0 0 0 0 0 
0 0 0 0 0 
0 0 0 0 0 
0 0 0 0 0 
0 0 0 0 0 
0 0 0 0 0 
0 0 0 0 0 
0 0 0 0 0 
0 0 0 0 0 
0 0 0 0 0 
0 0 0 0 0 
0 0 0 0 0 
0 0 0 0 0 
0 0 0 0 0 
0 0 0 0 0 
0 0 0 0 0 
0 0 0 0 0 
-0.004755230266730620 -0.004839315789483740 0.03227941001039770 -0.006733159512451720 -0.01821915672327040 
0 0 0 0 0 
0 0 0 0 0 
0 0 0 0 0 
0.002786294966907860 -0.0004413626905245240 -0.0005763691457007180 -0.001564101727533320 -0.0004860171233647640 
0 0 0 0 0 
0.01580887707916430 -0.002504203110116090 -0.003270202575399820 -0.008874398526916860 -0.002757563378212400 
0.01437432079666890 -0.01012359117380090 0.02473960617145090 -0.02443173384765240 -0.01475657774339330 
-0.004703465645873280 -0.04887797809134440 -0.03515369434319810 0.08122065666539600 -0.03378571332536590 
0.01291526165687680 -0.04242838958779280 -0.03207100880424390 0.05669756450590190 -0.03041483805836940 
0.02556644690602260 -0.07006330144162810 -0.01916094547114300 0.05443215656578860 -0.05330376305744310 
-0.02183700841006530 -0.08507922624963130 -0.02403175291927090 0.1218183457150220 -0.06540119107859410 
-0.06859588358817350 -0.09224919926295590 -0.01574056109883440 0.1615146466528840 -0.08669188109376690 
-0.03034123158662710 -0.03252316581784360 0.02192467653133050 0.03493324092659650 -0.03904632985787820 
-0.04203072353758820 -0.1553741482495850 -0.01397665050691500 0.09734923392624650 -0.07428441374035590 
-0.07250407917359780 -0.1943087981992770 -0.09602046982978720 0.1519010009510380 -0.09823137215314990 
0.09966794439689740 -0.07221290193604550 -0.2627190091415360 -0.1934207867709600 0.1416386371813590 
0.01703756700526850 0.01051880645600510 0.06228378221491570 -0.2467683155449770 -0.04751794349284450 
-0.01614448574994240 0.1495570639621440 -0.07307667229591560 -0.1671562363719960 -0.08200104043934010 
-0.02617396145172930 0.1529808109119410 0.01965104515399490 -0.1705913818298800 -0.08778329990008110 
-0.04949272045865240 0.05573097906680950 -0.009858009406244600 -0.01887520697734050 -0.03942390123336190 
-0.03974974712804930 0.01511736562541240 -0.03251875403932320 0.03309014558618670 -0.01839391833179960 
-0.01486429676542450 0.02491007612676440 -0.007655196645701300 -0.01718622500597200 -0.004084480060946660 
-0.01161866315406950 0.02276591572470990 -0.01184808031696880 -0.01114427102246660 -0.003060546049635890 
0 0 0 0 0 
0.002864914719248000 -0.0004538164421313490 -0.0005926323195676890 -0.001608235350108800 -0.0004997308709492170 
0 0 0 0 0 
0 0 0 0 0 
0 0 0 0 0 
0 0 0 0 0 
0 0 0 0 0 
0 0 0 0 0 
0 0 0 0 0 
0 0 0 0 0 
0 0 0 0 0 
0 0 0 0 0 
0 0 0 0 0 
0 0 0 0 0 
0 0 0 0 0 
0 0 0 0 0 
0 0 0 0 0 
0 0 0 0 0 
0 0 0 0 0 
0 0 0 0 0 
0 0 0 0 0 
0 0 0 0 0 
0 0 0 0 0 
0 0 0 0 0 
0 0 0 0 0 
0 0 0 0 0 
0 0 0 0 0 
0 0 0 0 0 
0 0 0 0 0 
0 0 0 0 0 
0 0 0 0 0 
0 0 0 0 0 
0 0 0 0 0 
-0.005998145265152030 -0.001887594787536310 -0.01633845051278120 -0.007953495828673040 0.02128764778389010 
0 0 0 0 0 
0 0 0 0 0 
0 0 0 0 0 
0 0 0 0 0 
0 0 0 0 0 
0 0 0 0 0 
0 0 0 0 0 
0 0 0 0 0 
0 0 0 0 0 
0 0 0 0 0 
0.01523427006765170 -0.007604641674659510 -0.006930835482724160 -0.0003309264866542950 -0.006277757484615130 
0.02010854917325220 -0.006512469090770200 -0.006581884155232480 -0.006019305528831630 -0.005827870007747560 
-0.003924127104183170 -0.003948571902740830 -0.002515445776169510 0.009439907812124840 -0.002502659733886710 
-0.002942550361094190 -0.002960880565216800 -0.001886234997100370 0.007078619882534580 -0.001876647241062580 
0.004747351082083170 -0.03374353619122110 -0.02500058497367230 0.04957865191981650 -0.02383574601694290 
0.006743086687685680 -0.05308385706122620 -0.03926344238229130 0.07858400585919970 -0.03745096606765340 
-0.05305699393782610 -0.09849769523619570 -0.06150410057833200 0.1395477541529010 -0.03047730094964530 
-0.07211608077253770 -0.1286519948321080 -0.09744632255418790 0.1852601469558140 -0.06319709178215390 
-0.08645871756000490 -0.1713250031301640 -0.1514280829075400 0.1838600198768570 -0.04283486882919040 
-0.1018457640051560 -0.2023757368160070 -0.002367556613435370 0.08542153796568010 -0.09706057533903040 
-0.09371509634185890 0.2128611140673490 -0.1536254514765650 -0.1775814768888160 -0.1236146607823160 
-0.1126819569398490 0.2533882187673770 0.05874328176002310 -0.2988263778018020 -0.2202502952430380 
-0.05719221269226960 0.06449720113882960 0.1290292031414750 -0.09865019666839480 -0.1677779092450060 
-0.02281615775533370 -0.04225838717869310 0.08301172359431850 0.02783468163867080 -0.08175602700063880 
-0.002618803048305710 -0.03455742973601200 0.04301792084994200 0.02177737771366170 -0.05303078649211950 
0.05543846022851810 -0.03152279228905870 -0.02802391816965770 0.004890847273537250 -0.02552938834233390 
0.02538047061730710 -0.004020390135099340 -0.005250169253764880 -0.01424746425257120 -0.004427149122964850 
0 0 0 0 0 
0.04929257100121010 -0.007808183275049770 -0.01019659346005600 -0.02767065094443810 -0.008598168480291340 
0.02875106574435570 -0.004554308816219440 -0.005947405927179960 -0.01613956603061190 -0.005015086497554260 
0.007444056122234330 -0.001179174738334000 -0.001539867213872870 -0.004178761107106720 -0.001298476573967790 
0.007929689477198820 -0.001256101426535080 -0.001640324661935260 -0.004451374013661510 -0.001383186243616200 
0.008193103782717140 -0.001297827535215970 -0.001694814182980280 -0.004599243056677960 -0.001429133949993900 
0.006792215621943140 -0.001075920028973250 -0.001405028384262920 -0.003812846921892830 -0.001184775171708940 
0.01171299326712890 -0.001855395169526070 -0.002422933681879840 -0.006575152028513960 -0.002043112937177080 
-0.005615589207735030 -0.001767205769264920 -0.01529639952265500 -0.007446229353388290 0.01992994165176290 
0 0 0 0 0 
0 0 0 0 0 
0 0 0 0 0 
0 0 0 0 0 
0 0 0 0 0 
0 0 0 0 0 
0 0 0 0 0 
0 0 0 0 0 
0 0 0 0 0 
0 0 0 0 0 
0 0 0 0 0 
0 0 0 0 0 
0 0 0 0 0 
0 0 0 0 0 
0 0 0 0 0 
0 0 0 0 0 
0 0 0 0 0 
0 0 0 0 0 
0 0 0 0 0 
0 0 0 0 0 
0 0 0 0 0 
0 0 0 0 0 
0 0 0 0 0 
-0.009929694010240410 -0.003124839067245430 -0.02704766340620810 -0.01316670010466070 0.03524086519209090 
0 0 0 0 0 
0 0 0 0 0 
0 0 0 0 0 
0 0 0 0 0 
0 0 0 0 0 
0 0 0 0 0 
0 0 0 0 0 
0 0 0 0 0 
0 0 0 0 0 
-0.0008350949435870990 0.002874945583570310 -0.001009763042784400 -0.002206333606365640 -6.362808045858900e-05 
0 0 0 0 0 
0 0 0 0 0 
0.003034282966793400 -0.0004806451972753240 -0.0006276676023736970 -0.001703311130570420 -0.0005292739988086120 
-0.001164799082953320 0.004010003898358080 -0.001408427958123250 -0.003077416982486780 -8.874910611947000e-05 
0 0 0 0 0 
-0.01398983457565170 -0.01407698228493260 -0.008967770247584340 0.03365404463077880 -0.008922186959463300 
-0.001032498843131400 -0.02793253330292720 -0.02024098146126630 0.04507103810629910 -0.01941356904925700 
-0.03878517451559980 -0.06558101406449210 -0.04962340625244930 0.1382002452742080 -0.04687788211058990 
-0.08846794064911790 -0.08254293049481750 0.01493981513639110 0.1300025165592760 -0.05572621498523390 
-0.1898227000809030 -0.1567657171895900 -0.2451332768576690 0.2412773947877560 0.06700750617217100 
-0.3456736138639150 0.1331884551585690 -0.2641731392060890 0.1504931834997240 -0.08093461526522340 
-0.02037104914825160 0.07917943950578140 0.05254725130035100 -0.2250683852861350 -0.1497751241432830 
-0.1150495204986540 0.09929691180434350 0.1498723686477540 -0.1890425924498810 -0.2155185501033510 
-0.04013937473126470 -0.1147448342481520 0.2577262839149480 -0.05626472801007230 -0.1590961813315840 
0.04742354571301980 -0.03804187884782320 0.1296697248138520 -0.08731937986532090 -0.1280347316538730 
0.1214365016653120 -0.03255578203727660 -0.007219983604636320 -0.07915929635897440 -0.06472299807392800 
0.1873223640132650 -0.05987074469359860 -0.06073402668943970 -0.05733455192957930 -0.05373437073408970 
0.04243516088330650 -0.01557941227060610 0.02866035695124170 -0.03229093816486700 -0.05337155200789270 
0.1061579064445920 -0.04481712390459100 0.008241747879222380 -0.04136701941450550 -0.05971209011724300 
0.1246940143328640 -0.02891675823730560 0.02549075431200670 -0.08540572308298330 -0.05296578110235060 
0.06685171910848110 -0.01668903302501430 0.02030307975534710 -0.04778221414726140 -0.03243593736497610 
0.04192257311906930 -0.01206544204392970 0.02168433843056710 -0.03265377244641340 -0.02578946929874130 
0.05292380887594560 -0.008383389036594260 -0.01094774633387400 -0.02970906593653830 -0.009231570114753170 
0.03308526073559870 -0.005240866408043930 -0.006843971543553090 -0.01857258979650290 -0.005771105873379220 
0.02981743605291550 -0.004723227065748410 -0.006167993822950130 -0.01673817876243610 -0.005201094883587770 
-0.009296387475638080 -0.002925539773749960 -0.02532258890107120 -0.01232694036918130 0.03299323599141520 
0 0 0 0 0 
0 0 0 0 0 
0 0 0 0 0 
0 0 0 0 0 
0 0 0 0 0 
0 0 0 0 0 
0 0 0 0 0 
0 0 0 0 0 
0 0 0 0 0 
0 0 0 0 0 
0 0 0 0 0 
0 0 0 0 0 
0 0 0 0 0 
0 0 0 0 0 
0 0 0 0 0 
0 0 0 0 0 
0 0 0 0 0 
0 0 0 0 0 
0 0 0 0 0 
0 0 0 0 0 
0 0 0 0 0 
0 0 0 0 0 
0 0 0 0 0 
0 0 0 0 0 
0 0 0 0 0 
0 0 0 0 0 
0 0 0 0 0 
0 0 0 0 0 
0 0 0 0 0 
0 0 0 0 0 
0 0 0 0 0 
0 0 0 0 0 
0 0 0 0 0 
0 0 0 0 0 
0 0 0 0 0 
-0.002458926705409520 -0.002474244243905590 -0.001576222337048960 0.005915211408696070 -0.001568210379232370 
-0.005042162492870520 0.005459619394794680 -0.004577256459760270 0.0001787023456786230 -0.001886127432959680 
0 0 0 0 0 
-0.01126599985481770 -0.01133617981833320 -0.007221736451634740 0.02710156863357480 -0.007185028275095800 
-0.01184913236234080 0.008472988288342390 -0.01020017170459720 0.005363517054827650 -0.004982411028147610 
-0.01935392752593530 0.02583444809076470 -0.03984807265523530 -0.03684499763902570 0.03788537611817920 
-0.06801652344275930 0.06164580832939580 -0.05177042557822470 -0.03507272861325350 0.007524286460803760 
0.02140046918393460 0.02811488535694770 -0.03466285467952010 -0.1138005135341050 0.02971227439821700 
-0.09167571876334540 -0.02262612827958730 -0.2197820481980710 0.009120238577899630 0.1374123177692130 
-0.2692125441478010 0.1229625156097520 -0.1930223859276860 0.09433394933092610 -0.06059291919540420 
-0.03281620183798420 -0.01351393697116260 0.007710872427424440 -0.03545617946458360 -0.05962256965641270 
-0.2265888764863010 0.04193794377345920 -0.1543285039970020 -0.04048625071293420 0.01230286567516050 
-0.1283257241697360 -0.1098772169276830 0.1175259826344870 -0.1148546070600460 0.02906801132083090 
-0.09120188113184730 -0.1170865659915270 0.3093875606201130 -0.1359811386624630 -0.1864100645594120 
-0.1017675255233010 -0.09042056786962210 0.1141215729702260 0.03937182961542500 -0.1280284839467690 
0.2921584914173490 -0.1248891057682750 -0.06895184124756030 -0.06467117539268070 -0.1266473658816390 
0.1884155761331320 -0.06542654760100330 0.001786173599456580 -0.08365475782878350 -0.1105103435227580 
0.07040092331774990 -0.04402653864002150 0.06341862421905150 -0.04007584348154380 -0.07885849601873990 
0.1849495264822530 -0.04114787043727670 0.02805904848660560 -0.1237469131756330 -0.07262608331929990 
0.1287006332505850 -0.03044563553298270 0.02966590495072190 -0.08915825447261600 -0.05671039127017990 
0.07484310177631250 -0.02782158711203390 0.01882543192380400 -0.04044281216875940 -0.04386254413949040 
0.04799078079613470 -0.02115886679932580 0.008456560179065430 -0.02005805078535580 -0.02992695680652090 
0.03799167912502160 -0.006018066972562020 -0.007858906505266880 -0.02132683425735200 -0.006626938934836320 
0 0 0 0 0 
0.003434602990756610 -0.0005440578384155140 -0.0007104772520909430 -0.001928032938018500 -0.0005991023510766520 
0 0 0 0 0 
0 0 0 0 0 
0 0 0 0 0 
0.002734431739402960 -0.0004331473027415680 -0.0005656407897709610 -0.001534988024677270 -0.0004769705518640030 
0 0 0 0 0 
0 0 0 0 0 
0 0 0 0 0 
0 0 0 0 0 
0 0 0 0 0 
0 0 0 0 0 
0 0 0 0 0 
0 0 0 0 0 
0 0 0 0 0 
0 0 0 0 0 
0 0 0 0 0 
0 0 0 0 0 
0 0 0 0 0 
0 0 0 0 0 
0 0 0 0 0 
0 0 0 0 0 
0 0 0 0 0 
0 0 0 0 0 
0 0 0 0 0 
0 0 0 0 0 
0 0 0 0 0 
0 0 0 0 0 
0 0 0 0 0 
0 0 0 0 0 
0 0 0 0 0 
0 0 0 0 0 
0 0 0 0 0 
0 0 0 0 0 
0 0 0 0 0 
0 0 0 0 0 
0 0 0 0 0 
0 0 0 0 0 
-0.009927470383032360 0.03417687695620350 -0.01200389581819720 -0.02622852850503380 -0.0007564000825685280 
-0.01067765785082740 0.03675951521063130 -0.01291099217407460 -0.02821053526244630 -0.0008135588390984810 
-0.05130011018010800 0.03101755180280790 -0.04343749727131510 0.02964927272000680 -0.02228622050281650 
-0.05918300448514220 0.02454080529022000 -0.04867643499613260 0.04696131612997350 -0.02712993989668470 
-0.04566228482104300 0.1383080912624600 -0.06282899873587890 -0.1140236578995680 0.01474807520242340 
-0.08078521588709230 0.1955992973664970 -0.07443871409890040 -0.1864735460414670 0.02696963474638800 
-0.1174659806943140 0.1424129693540970 -0.1232695189797390 -0.07811084988496290 0.02347697638856920 
-0.06243103428013710 0.05375206153619150 -0.03646929000407620 -0.1120603819160610 0.06519440460246870 
-0.1006550678471390 0.1973142118527050 -0.08203098757859640 -0.2170982976917620 0.05416228345685770 
-0.08632969434783670 0.03846719123095610 -0.1096775653118480 -0.01267224553446440 -0.001164651884794850 
-0.1979675707227360 -0.1184397821478600 -0.2782278282903320 0.1481676010809210 0.1340510842136620 
-0.1168631981475910 -0.06967712545664600 -0.03958781415377130 -0.07604293482180870 0.09661259211237840 
-0.2278118141386410 -0.2409978952457500 0.1689894915837800 0.01608811338251800 -0.06875503648825840 
-0.1958481462164730 -0.2432659109173630 0.09383388696377140 0.3026866856253900 -0.2285291695354460 
0.09019708851761710 -0.1101591635506110 -0.02210764791236310 0.03072170069572770 -0.08733512329354580 
0.1134341732285190 -0.08694111285740260 -0.01287583124690670 -0.01845508927369420 -0.07260907788897910 
0.3715872507965250 -0.08945436700157140 0.02917603941687910 -0.2727816818488870 -0.1107800175304380 
0.2634181493746260 -0.06373706365830840 0.06867856648559740 -0.1848762121620690 -0.1209169270528280 
0.06861762964949980 -0.02976244995130510 0.09153067508977150 -0.07028297369309130 -0.07632003140110030 
0.07480191151553620 -0.05373705810319940 0.05431225316600540 -0.02742966832557610 -0.08521202993870670 
-0.03206792971420100 -0.03236772016746960 0.04432659006289620 0.04376740196670590 -0.04834319074897130 
0.03852069672967420 -0.006101865937171780 -0.007968338359566440 -0.02162380114677320 -0.006719216176648910 
0.03187326914444310 -0.005048881038254050 -0.006593260629494350 -0.01789223177124120 -0.005559696574051020 
0.04617010673880220 -0.007313569731153360 -0.009550684796120690 -0.02591783876733640 -0.008053512901234350 
0 0 0 0 0 
0 0 0 0 0 
0 0 0 0 0 
0.02936723416561560 -0.004651912894557690 -0.006074865679570590 -0.01648545550160840 -0.005122565571796450 
0 0 0 0 0 
0 0 0 0 0 
0 0 0 0 0 
0 0 0 0 0 
0 0 0 0 0 
0 0 0 0 0 
0 0 0 0 0 
0 0 0 0 0 
0 0 0 0 0 
0 0 0 0 0 
0 0 0 0 0 
0 0 0 0 0 
0 0 0 0 0 
0 0 0 0 0 
0 0 0 0 0 
0 0 0 0 0 
0 0 0 0 0 
0 0 0 0 0 
0 0 0 0 0 
0 0 0 0 0 
0 0 0 0 0 
0 0 0 0 0 
0 0 0 0 0 
0 0 0 0 0 
0 0 0 0 0 
0 0 0 0 0 
0 0 0 0 0 
-0.008014595858570700 0.02759150578582750 -0.009690925280992980 -0.02117468477086890 -0.0006106531407575490 
-0.008878923683864140 0.03056709015879790 -0.01073603554244730 -0.02345825209756180 -0.0006765085513700710 
-0.01982313658364880 0.06824426301621880 -0.02396933530486450 -0.05237302987396060 -0.001510376920818290 
-0.008444941236499350 0.02907303738075190 -0.01021128151306270 -0.02231166383769180 -0.0006434422871200080 
-0.004101966463870750 0.01412166420096250 -0.004959932005055560 -0.01083745810092900 -0.0003125396150532200 
-0.02172226307534570 0.07478230442321480 -0.02626568227668440 -0.05739055109540630 -0.001655076363848900 
-0.07118313251872470 0.2117003421478510 -0.08181172768817090 -0.1502186864087590 -0.009634408035996530 
-0.08263721756616250 0.2286368416151600 -0.09576153915162340 -0.1533973154900160 -0.01533093034265950 
-0.05120029631900460 0.05063909452425700 -0.04953707833702100 0.009186722549062210 -0.02220844499754900 
-0.06392008656521640 0.2200549434328300 -0.07728958437694520 -0.1688778457990130 -0.004870239536383180 
-0.02888282032362110 0.05665854381716620 -0.05216849930524750 -0.06132676248254340 0.03907031415131940 
-0.1196408846366420 0.08163504588735440 -0.1247427382452530 0.02572272785792740 -0.005067680354382030 
-0.1450548620238020 -0.004810988079421000 -0.1207137696706350 0.04073441529985220 0.05428567325677190 
-0.08860456210481740 0.004799292468666990 -0.07637183905355510 -0.02313852915876520 0.04210353133662140 
-0.03878676783709420 -0.04589941574412540 -0.01940570725974190 0.02702904520442450 -0.04034012217498850 
-0.04668975174476560 -0.1173752526317690 0.01074637314567030 0.05282718826747990 -0.04253875089062990 
-0.09827999369004270 -0.1658882843789370 0.03152901821459320 0.1309185077932050 -0.09580659109802460 
-0.2136508113329080 -0.2433914410554560 -0.1246228620638910 0.1252018339270590 0.09950604356421140 
-0.1835333991032210 -0.3065873811661250 -0.2220137184443200 0.4025378433114620 -0.04520937007900950 
0.1181074766329270 -0.09616325192025580 -0.04714517250886920 -0.1080708132656700 0.007094199890827190 
0.1776229034616440 -0.08916474643075110 -0.09250308126977390 -0.1221707423523000 0.01300428630448900 
0.1725304793113810 -0.1127853396021700 0.1331969013325080 -0.1228720879908730 -0.1611902217744200 
0.1464413069368880 -0.07673681745480680 0.2166674067295030 -0.1825252423379550 -0.1608466613273340 
0.01384774522693480 -0.05961177487395650 0.1500610410387490 -0.04689940720056640 -0.1065623060751330 
0.01033982221155520 -0.03836706818652260 0.1219837254590620 -0.04432799433380480 -0.07974195212706190 
0.04190891513197800 -0.03357441000982830 0.03841857625369310 -0.04821544314929690 -0.03314545862761910 
0.07540998528001370 -0.01194530887465160 -0.01559920586634090 -0.04233180250137980 -0.01315386366269940 
0.05128368026141190 -0.008123584677502930 -0.01060847158384730 -0.02878837088097630 -0.008945480307086980 
0.05088013560869660 -0.008059661239466200 -0.01052499489186030 -0.02856183891076310 -0.008875089478552560 
0.03422169729892650 -0.005420883493513330 -0.007079053248443520 -0.01921053459884590 -0.005969336009080910 
0 0 0 0 0 
0.02699122141965940 -0.004275540905686890 -0.005583366949958130 -0.01515166791460520 -0.004708114519921930 
0.002734431740930410 -0.0004331473029835250 -0.0005656407900869300 -0.001534988025534720 -0.0004769705521304400 
0 0 0 0 0 
0 0 0 0 0 
0 0 0 0 0 
0 0 0 0 0 
0 0 0 0 0 
0 0 0 0 0 
0 0 0 0 0 
0 0 0 0 0 
0 0 0 0 0 
0 0 0 0 0 
0 0 0 0 0 
0 0 0 0 0 
0 0 0 0 0 
0 0 0 0 0 
0 0 0 0 0 
0 0 0 0 0 
0 0 0 0 0 
0 0 0 0 0 
0 0 0 0 0 
0 0 0 0 0 
0 0 0 0 0 
0 0 0 0 0 
0 0 0 0 0 
0 0 0 0 0 
0 0 0 0 0 
0 0 0 0 0 
0 0 0 0 0 
-0.01456219271478900 0.01138529413997890 -0.01265983705432200 0.005488465130723990 -0.006000491914130230 
-0.02194155776943960 0.02607982268694090 -0.02021494851606090 -0.001856458904430120 -0.007914648164242820 
-0.03114754920122360 0.06691830386364050 -0.03251436337510130 -0.03655503661460290 -0.007461679503452680 
-0.04912859306246840 0.1550973659728370 -0.05761191902622190 -0.1138740401220210 -0.005514900151509870 
-0.07322429850047450 0.1165793255888070 -0.07123514271685070 -0.03971623495296150 -0.02268377006852250 
-0.09908107079721030 0.2182131540803020 -0.1041114490292680 -0.1223461692307340 -0.02306115543083230 
-0.1478016510622370 0.1610301714898650 -0.1323490866961010 0.003144492831051290 -0.06102537289859000 
-0.1406752957737350 0.2161040492205030 -0.1358496816085980 -0.06737985362566400 -0.04457158408930250 
-0.07869479987523590 0.007484651160823940 -0.06151301137883870 0.09097500079081990 -0.03924851388183250 
-0.05307696386484990 0.1791668127168810 -0.06561330175739770 -0.1389836091089300 -0.0006102436221257710 
-0.01850117857001970 -0.03032716024275700 -0.04702458823375120 0.03589492864099570 0.01819042433684160 
-0.1267486883752730 -0.08454854771105280 -0.08136788473773230 0.2018462958566360 -0.06201978813956810 
-0.08515396737799400 -0.06295622549498630 -0.1190890981429340 -0.004590060249741350 0.07523660656838390 
-0.03887390196841860 -0.1282725610215950 -0.01076286040915030 0.03945740111218260 -0.01986944821373450 
0.06593168418994130 -0.08218735517077830 -0.009403585298239650 -0.04049738882398020 -0.02821969360536940 
0.1039229218954520 -0.1230377124588710 0.1328400038641790 -0.02161342715332790 -0.1837420498392060 
-0.07705613306969110 -0.2182325719237600 0.2020716705508260 0.1282438692522410 -0.2352795280531690 
-0.1387713673939310 -0.1702949972021810 0.05532529497919640 -0.02764043326596410 0.03059798847728380 
-0.1184813039712530 -0.2108458208179500 -0.3374398954075820 0.2315502205714390 0.1395375061297990 
0.06967407635044430 -0.1265773423625680 -0.04163100212421830 -0.1845924025493360 0.07843485822791720 
0.05826441030726390 -0.06799715693857550 -0.1058178448266810 -0.09092037656200940 0.08680189193119220 
-0.05435321897944930 -0.08370456685379370 0.2933012703820930 -0.003615074162285520 -0.2044940763388140 
-0.02926002671024180 -0.07496751087554670 0.3014605441192640 -0.1467779674716400 -0.1319123888777650 
-0.01415019689782570 -0.06019077186086920 0.1615360604968190 -0.05585606607190360 -0.09100064803260240 
-0.02194630796214980 -0.01871369408199960 0.07430309577489610 -0.03563863336670220 -0.02311779284150550 
0.02409096203800540 -0.02836323369835030 0.03714166915580680 -0.07343675462623570 -0.002682791175110810 
0.06102649956619680 -0.01024621091250990 -0.01621261557728840 -0.03656862740732930 -0.006512700474886470 
0.06238662426418310 -0.009882345072941100 -0.01290521131371950 -0.03502106846026840 -0.01088218154266920 
0.06624598778786740 -0.01049368704812900 -0.01370355394560640 -0.03718754301743740 -0.01155537543638020 
0.04142054250771950 -0.006561215629112210 -0.008568196469926760 -0.02325164523538910 -0.007225040118473400 
0 0 0 0 0 
0.005702699714796220 -0.0009033354039214090 -0.001179652621794200 -0.003201241283300050 -0.0009947294682422550 
0 0 0 0 0 
0 0 0 0 0 
0 0 0 0 0 
0 0 0 0 0 
0 0 0 0 0 
0 0 0 0 0 
0 0 0 0 0 
0 0 0 0 0 
0 0 0 0 0 
0 0 0 0 0 
0 0 0 0 0 
0 0 0 0 0 
0 0 0 0 0 
0 0 0 0 0 
0 0 0 0 0 
0 0 0 0 0 
0 0 0 0 0 
0 0 0 0 0 
0 0 0 0 0 
0 0 0 0 0 
0 0 0 0 0 
0 0 0 0 0 
0 0 0 0 0 
0 0 0 0 0 
0 0 0 0 0 
0 0 0 0 0 
-0.003178575266375050 -0.003198375754489750 -0.002037531791341990 0.007646403057763980 -0.002027174991810300 
-0.002562699741508200 -0.002578663719555240 -0.001642742976774530 0.006164848555543730 -0.001634392893715780 
-0.02693603095142920 -0.02710382517242900 -0.01726654705228960 0.06479750585422530 -0.01717878097806930 
-0.02063428557291840 -0.01665157601708400 -0.03809495026038210 0.05774519563641380 -0.02888849858658580 
-0.01101805229211590 0.004736037737200680 -0.02536513753055230 0.01709530425691960 -0.01589687244327770 
-0.04824878762700710 0.2952374514256880 -0.1140168603450430 -0.2534272706747340 -0.01353047786317930 
-0.1089868322797030 0.2952981277743390 -0.1937466951044880 -0.1594209204322840 -0.06655917989853340 
-0.1102129999776720 0.3000503729144160 -0.2170197822312810 -0.1518659025000060 -0.08108435840669010 
-0.1894241739871660 -0.02931712386782180 -0.1420217179025980 0.2726869069509750 -0.1004487917487530 
-0.02425210670811280 0.02394183167544370 -0.1756635471711430 0.08430213391988370 -0.1179050900594420 
0.04727572491786010 -0.1162139422042080 -0.07389892837584770 0.1382738425140090 -0.1430360211572010 
0.001550419757532460 0.01146489417917310 -0.04013653579492150 -0.02618833348416330 -0.02308003103106480 
-0.009894858990163040 -0.05787868948871550 -0.09834012798678960 0.07049158958218440 -0.03763853546028900 
-0.1622903612484280 -0.1947592751238310 -0.1234867978434120 0.3514806412008470 -0.07006079369898790 
0.08021035509419550 -0.05893088609688590 0.05858998591100820 -0.1586615348924100 -0.007425470138708100 
0.05893845352445380 -0.09179881706672830 0.01782914666086700 -0.1363206433975060 0.01611438281194400 
0.05628812703347060 -0.08109542170702950 -0.1399761178297790 -0.1400910283279300 0.1406775539736280 
-0.01412631107724090 -0.1547418223019020 -0.1187795665392720 -0.01642003004817370 0.07711638588381570 
-0.03433822844515820 -0.1354971934194570 -0.007813251434821000 -0.02697557103853810 0.01670276974498870 
-0.02069373450577390 -0.07231675369578990 0.05316858273280330 -0.1887151755714130 0.08054614092417370 
-0.002572870375529930 -0.07656739359730980 0.01701414834531060 0.007652117312908760 -0.03313665602857360 
-0.09270745041300300 -0.1216079348189900 -0.1251139652914750 -0.1102362201648620 0.2028448676257330 
-0.02432260649979080 -0.05456444911960600 0.03156179534589490 -0.02774600337626570 -0.001837068710907940 
-0.02758285377054090 -0.02807059433161230 0.1872376722417460 -0.03905589084613800 -0.1056807572992770 
-0.05452245625944630 -0.03886816937162960 0.1452453545561810 -0.07507444637996440 -0.03442569937701410 
-0.008756280775907850 -0.01863165681760390 0.1072252978222320 -0.03003500728420200 -0.06074950724972650 
-0.01337479574429680 -0.01269281401591200 0.07836264659801750 -0.01882048606423300 -0.04160121876499020 
0.0005606664059642930 -0.006657844907460380 0.02388704681744740 -0.01385614550123570 -0.01106967556732940 
0.002456374321310070 -0.004714096162943610 -0.02730067062435500 -0.01863264524800810 0.03042149438604710 
0.01568823061515060 -0.002485092122732560 -0.003245245813742760 -0.008806672982771040 -0.002736518855618600 
0.01776669648167470 -0.002814331237007140 -0.003675194405002660 -0.009973431022052550 -0.003099068411016510 
0.009125621173495300 -0.001445542830776200 -0.001887713448225820 -0.005122716730209960 -0.001591794194202210 
0 0 0 0 0 
0 0 0 0 0 
0 0 0 0 0 
0 0 0 0 0 
0 0 0 0 0 
0 0 0 0 0 
0 0 0 0 0 
0 0 0 0 0 
0 0 0 0 0 
0 0 0 0 0 
0 0 0 0 0 
0 0 0 0 0 
0 0 0 0 0 
0 0 0 0 0 
0 0 0 0 0 
0 0 0 0 0 
0 0 0 0 0 
0 0 0 0 0 
0 0 0 0 0 
0 0 0 0 0 
0 0 0 0 0 
0 0 0 0 0 
0 0 0 0 0 
0 0 0 0 0 
0.01488089139627000 -0.002357205659151650 -0.003078240733016030 -0.008353468752079670 -0.002595693605815490 
0.01623720132883860 -0.002572051756974520 -0.003358805140741860 -0.009114840657709440 -0.002832276544681300 
0 0 0 0 0 
0.01431084949332380 0.01851905447751990 -0.01192227162386390 -0.02830753745344700 -0.004082454114921580 
-0.002341573076969140 -0.01438605271556710 -0.03438630071214140 0.03734140581355180 -0.02598652998893280 
0.01623801696926470 -0.01061853782408440 -0.03265225432777780 0.01592206636256170 -0.02408571696205210 
-0.03101400531039130 -0.009143231543797670 -0.01490543915751610 0.04566321212732200 -0.03496113498382580 
-0.04222799104995140 -0.02507219261357140 -0.02619624180020700 0.08045642077119520 -0.05664550166832990 
0.06379094555753930 -0.01866666304589700 -0.01411492780990550 -0.02474379708190750 -0.05209315964838180 
-0.02772984999159740 0.2888536143504970 -0.08376507285644760 -0.2789383164329650 -0.03921872425064390 
-0.01189771676878710 0.4443903559383310 -0.2175028524129680 -0.4092854993214990 -0.09502230086138620 
-0.0004611453830687610 0.1644624734422810 -0.1720488846689680 -0.1064723060885420 -0.1425271627542150 
-0.05021547649561690 -0.06044784833104730 -0.009646619073674160 0.1220597813572490 -0.1715422088474460 
0.04682758386126230 -0.008545459017928910 -0.05473492220030830 1.944256561789250e-05 -0.2101388236655990 
0.04479235603557470 -0.1815220508465310 0.008435053208304830 0.1530520389387780 -0.1961666484582530 
-0.02014467171666480 -0.1458339895286400 0.01084525852545260 0.1163791774734320 -0.1030231927164730 
-0.08130499205187710 -0.1446520578652140 -0.07184093281677370 0.1585590992977730 -0.04016727890650370 
-0.1766172545811110 -0.1688555999332050 -0.1049933987032910 0.2669130918037920 -0.01371595731550970 
-0.02094228023706700 -0.04904685197225130 0.03557817184580290 -0.1275255645996820 0.05928705326106260 
0.01337378036217070 -0.03063539813139280 -0.01001255996483220 -0.08810793408170160 0.04965136442951810 
-0.04182731642504330 -0.05928765024961820 -0.1007550704254690 -0.06613858475965730 0.1352043172460310 
-0.1403608211190590 -0.09315316720366680 -0.3298052180350200 -0.1068522430660640 0.3953379822084370 
-0.04821710367149030 -0.04184976040597040 -0.1443282088154730 -0.09341816283909550 0.1944896658865680 
-0.05232702328774570 -0.04172439454242170 -0.08345592355903220 -0.1279516281283280 0.1732097157398450 
-0.05092331208077840 -0.04364665930131860 0.06285601521662830 -0.1047621468419990 0.04463925340525000 
-0.1111135066897580 -0.05073389548395600 -0.1967812328648110 -0.1212110579482730 0.2927126534974990 
-0.01774177475295090 -0.02172568110309180 0.05472844779636320 -0.02667228159179010 -0.01744659702891620 
-0.001794431201524880 -0.005715870807656960 0.03394757437095840 -0.009080415710393610 -0.02012375250784160 
-0.01136314558354760 -0.006509909036885160 0.008747252025315340 -0.01544288293513600 0.009525437238188220 
-0.007443581277744670 -0.003928774116249470 0.001188604877229320 -0.01007312023851720 0.009763431931615540 
-0.006671507478202150 -0.006789478041642750 0.04528746521130810 -0.009446508690342340 -0.02556116812601910 
0 0 0 0 0 
-0.004436791654173190 -0.001396242409875950 -0.01208545269791690 -0.005883152600383640 0.01574634388621260 
0 0 0 0 0 
0 0 0 0 0 
0 0 0 0 0 
0 0 0 0 0 
0 0 0 0 0 
0 0 0 0 0 
0 0 0 0 0 
0 0 0 0 0 
0 0 0 0 0 
0 0 0 0 0 
0 0 0 0 0 
0 0 0 0 0 
0 0 0 0 0 
0 0 0 0 0 
0 0 0 0 0 
0 0 0 0 0 
0 0 0 0 0 
0 0 0 0 0 
0 0 0 0 0 
0 0 0 0 0 
0 0 0 0 0 
0 0 0 0 0 
0 0 0 0 0 
0 0 0 0 0 
0 0 0 0 0 
0 0 0 0 0 
0 0 0 0 0 
0.05045556897059240 -0.007992407816578050 -0.01043716962088090 -0.02832350613551900 -0.008801031757249250 
0.05203674848677290 -0.008242874351439610 -0.01076425024147720 -0.02921110979635570 -0.009076838995572690 
0 0 0 0 0 
0.04795624505135000 0.02235740462308840 -0.02283490700784190 -0.05613672673234650 -0.01065087833845020 
0.03413257576035330 0.003714380825956690 -0.04131397095889600 -0.02303467944194030 -0.01208372529811170 
0.06049702040223960 0.01576184041743380 -0.03883681753174140 -0.05060390993859020 -0.02276201860674710 
0.004931001412944220 0.0002756323860843690 -0.02107542928100080 -0.009357091610620860 -0.03877717546103680 
-0.04859258304889560 -0.01518028861264750 -0.02545688648108820 0.05638938755119850 -0.06036678591069630 
0.01136389141257140 -0.06950174421423180 -0.06754560344559360 0.1097313595307880 -0.1323659567652640 
0.1725568829717210 0.07390661034164240 -0.1122417230931660 -0.2011974951012710 -0.1330574827124160 
0.01110209990063550 0.2590164008057230 -0.1539407838794270 -0.2676232234005260 -0.08752670834320700 
0.1659370892690770 0.001119449357444320 -0.06166393119259980 -0.1177276624913120 -0.1738700875995080 
-0.003137684417116810 -0.04243407469005950 0.1810147100770990 -0.09219149324925050 -0.2094286287057010 
-0.2037240203083160 -0.02830516849720010 0.2248878592470870 0.05266939756637330 -0.3661214380467460 
-0.08086913280211530 -0.1835057454761500 0.1564416920116260 0.1456651460598670 -0.2015617500663980 
-0.1399543842016080 -0.1081173887141980 0.05754596136957080 0.1615452366662940 -0.1467757546346580 
-0.1511007987538100 -0.1413098654388930 0.05875629770990010 0.1622015081864810 -0.08158428939785260 
-0.1267038785079720 -0.08579803058109870 -0.03821891144073620 0.02140412978615240 0.07583661611681300 
-0.05282125538839730 -0.02982624008847180 0.01051508432019150 -0.05898896076166510 0.05909513651666020 
-0.01971217186639180 -0.006203349739159370 -0.05369432221150380 -0.02613819268837920 0.06995925460245060 
-0.06796784488724040 -0.03324313657113080 -0.09798856466764470 -0.05317689422737390 0.1477163234289340 
-0.1267701341580660 -0.04325015949485420 -0.3352029078877610 -0.1499865617966760 0.4295932636720190 
-0.08006355374400860 -0.02958172059183980 -0.1587394168716400 -0.1067249171882770 0.2381013168126740 
-0.08102375571939100 -0.03271075094771320 -0.1482167551633870 -0.09517219206005660 0.2224407303818770 
-0.08690011381374400 -0.03616901033936670 -0.1173401708288570 -0.1163577654009050 0.2157939546960770 
-0.06417637283637270 -0.02019607420192310 -0.1748111199921560 -0.08509739112504160 0.2277644105962960 
-0.01201298120326210 -0.003780442069949490 -0.03272236503520110 -0.01592912336504590 0.04263453140677690 
0 0 0 0 0 
0 0 0 0 0 
-0.008106028220791840 -0.002550937988461840 -0.02208014896039010 -0.01074853288661390 0.02876860530421250 
0 0 0 0 0 
0 0 0 0 0 
0 0 0 0 0 
0 0 0 0 0 
0 0 0 0 0 
0 0 0 0 0 
0 0 0 0 0 
0 0 0 0 0 
0 0 0 0 0 
0 0 0 0 0 
0 0 0 0 0 
0 0 0 0 0 
0 0 0 0 0 
0 0 0 0 0 
0 0 0 0 0 
0 0 0 0 0 
0 0 0 0 0 
0 0 0 0 0 
0 0 0 0 0 
0 0 0 0 0 
0 0 0 0 0 
0 0 0 0 0 
0 0 0 0 0 
0 0 0 0 0 
0 0 0 0 0 
0 0 0 0 0 
0 0 0 0 0 
0 0 0 0 0 
0 0 0 0 0 
0 0 0 0 0 
0.02822262797062170 -0.004470601699650640 -0.005838094015906960 -0.01584292463240830 -0.004922910396417170 
0.03054880564394310 -0.004839079570345930 -0.006319283930917370 -0.01714873703224520 -0.005328668650532540 
0.01570758169520170 -0.002488157428042060 -0.003249248751554390 -0.008817535816066460 -0.002739894290155180 
0.04821917553463990 0.006387720943820460 -0.02262913251034700 -0.03728198206350580 -0.01389128141095360 
0.03850307755424710 0.007851125168163490 -0.04527032382707780 -0.05866612589986240 0.02554406500352280 
0.03874036369400290 0.02183613116346820 -0.02477450994617450 -0.04656503597088020 -0.01202927522783010 
0.04118586848189910 -0.02381815745477930 -0.08173124484120160 -0.002401078247439130 -0.007386648629984330 
-0.04316280956396900 -0.03861108733266650 -0.1128658979120850 0.08814513622724420 -0.009128669289473050 
-0.03781007414758530 -0.1536526785428460 -0.1963262012260870 0.3163939862649620 -0.1583055055964470 
0.2094192886052600 -0.1643494328813260 -0.2359075870551290 0.07394057305952940 -0.1613112151599800 
0.02693364909316970 -0.01285496728548150 -0.2124431384604710 -0.02920399186833910 0.03619895337493360 
0.1887531910969080 -0.06520692888182660 -0.1758255019238600 -0.1672272133101530 0.02315704775326060 
-0.05892038558470050 -0.04035373471025270 0.03897946684371300 -0.1236330110706920 -0.01980978751377270 
-0.3981019666895890 -0.08919916488059550 0.4326004559743000 0.03901216932952500 -0.4118460031094840 
-0.1516752363375240 -0.08429581477138300 0.2608380695842530 0.01286198699418170 -0.2147045455633430 
-0.1124125642635130 -0.03549399535419480 -0.04418325560076860 0.1214604140486390 -0.06133924949126340 
-0.1069594506988080 -0.07248437733971660 0.1397288837184920 0.03762862083882760 -0.1130849230087720 
-0.08329404277451400 -0.04203175708309180 -0.01283349132364010 -0.1124715652926770 0.1295306514871360 
-0.004831852736269670 0.0001776089054490600 0.04463257996339540 -0.01902758128608180 -0.02836107916787750 
-0.03541320217651430 -0.02165333954069620 0.007851140400435520 -0.05571794128113850 0.04921365218403210 
-0.05378860222834310 -0.01896706949653830 -0.1591530545428480 -0.07946143621542880 0.2054489534321100 
-0.06350594240269140 -0.01998509215062540 -0.1729849230631470 -0.08420840537661690 0.2253850272527940 
-0.07124845393044570 -0.02242163274045370 -0.1940748826837980 -0.09447491784293120 0.2528634978598850 
-0.05399809903978390 -0.01699300796806930 -0.1470863458528470 -0.07160107608002570 0.1916413262007580 
-0.04511198027779050 -0.01419657828604450 -0.1228812949203490 -0.05981814896133470 0.1601041496221680 
-0.02665549140929950 -0.008388387479664870 -0.07260734911088640 -0.03534498255098880 0.09460136217846210 
-0.01475379146370910 -0.004642965222115050 -0.04018810499741950 -0.01956341730258980 0.05236177222667570 
0 0 0 0 0 
0 0 0 0 0 
0 0 0 0 0 
0 0 0 0 0 
0 0 0 0 0 
0 0 0 0 0 
0 0 0 0 0 
0 0 0 0 0 
0 0 0 0 0 
0 0 0 0 0 
0 0 0 0 0 
0 0 0 0 0 
0 0 0 0 0 
0 0 0 0 0 
0 0 0 0 0 
0 0 0 0 0 
0 0 0 0 0 
0 0 0 0 0 
0 0 0 0 0 
0 0 0 0 0 
0 0 0 0 0 
0 0 0 0 0 
0 0 0 0 0 
0 0 0 0 0 
0 0 0 0 0 
0 0 0 0 0 
0 0 0 0 0 
0 0 0 0 0 
0 0 0 0 0 
0 0 0 0 0 
0 0 0 0 0 
0 0 0 0 0 
0 0 0 0 0 
0.008420533743226060 -0.001333853548422860 -0.001741860031895100 -0.004726912093283810 -0.001468804859386590 
0.003588396626788460 -0.0005684194992557160 -0.0007422907921743390 -0.002014365826193660 -0.0006259287788108850 
0.02805121491789520 -0.004443449037408860 -0.005802635747512790 -0.01574670098951490 -0.004893010590480340 
0.001215541772183750 -0.02726950515034830 -0.01996406013401350 0.04219525133823930 -0.01909497700869170 
0.01811898978670260 -0.03647627987030220 -0.05604082467964270 0.01467905691367760 0.01326067398962250 
0.01605122345235420 -0.03838048710203670 -0.03275621093289610 0.04949555152093620 -0.03002518575750280 
0.09333102752770950 -0.07244175493957550 -0.06429071532545080 0.04049003889990240 -0.05849712302373640 
0.01709286122269730 -0.1170700072697710 -0.09177811825105620 0.1300293261944330 -0.05701888688108870 
-0.05474591379439730 -0.2146757699509020 -0.1724941362641810 0.3241639111093810 -0.09943831487370560 
0.03075516954743370 -0.2232607959375650 -0.1685380483687750 0.2851530859682500 -0.1633768265658310 
0.1085935580581210 -0.09353354280672420 -0.2008048951269480 -0.1119183579634180 0.08761558883791930 
-0.04678513606118960 -0.09884815957941290 -0.3671363256873270 -0.2155469182175400 0.3538116815565960 
-0.1009083323710620 -0.1250918311163600 -0.003048145597331290 -0.04835880368778080 0.01346650833572320 
-0.3104462359421920 -0.09666413322808530 0.2975232531416740 -0.06454613786640370 -0.2122343722705500 
-0.2347106394248740 0.2612469709924820 0.1090627067695440 -0.2249174030194010 -0.1781111030688130 
-0.03813700099400710 -0.06491757078594750 -0.1131444457143990 0.06305480505506490 0.05653444723266960 
-0.06759003331035660 -0.02192498633395310 0.04160091828857260 -0.1022548869367740 0.01331061470659760 
-0.06221565745297410 -0.04768429711512450 0.09334357003939880 -0.1090904014559100 0.03074384553940630 
-0.04693513706705170 0.03026896589798000 -0.1096900694679380 -0.07801076672818140 0.1231190670518190 
-0.02635425768095870 -0.01162499535057760 -0.02670957290407560 -0.03537184252419360 0.05855690246446200 
-0.01618746285229300 -0.009100881975515080 0.01012196512782440 -0.02197716650209860 0.01538437102722940 
-0.008478512966674210 -0.002668157601139320 -0.02309476653271240 -0.01124244487801420 0.03009056796511760 
-0.01268642559700480 -0.003992372603661240 -0.03455677174158770 -0.01682210560200420 0.04502461141022750 
-0.008856900558348930 -0.002787234818202270 -0.02412546296768290 -0.01174418399885400 0.03143348005231960 
-0.005465907427127200 -0.001720101450117150 -0.01488867875948280 -0.007247752430095160 0.01939871526687410 
-0.003074784406834990 -0.0009676236173970910 -0.008375457853682290 -0.004077141161603930 0.01091252788497470 
-0.002791832594998230 -0.0008785796977291190 -0.007604720572267110 -0.003701949172134490 0.009908321043705150 
0 0 0 0 0 
0 0 0 0 0 
0 0 0 0 0 
0 0 0 0 0 
0 0 0 0 0 
0 0 0 0 0 
0 0 0 0 0 
0 0 0 0 0 
0 0 0 0 0 
0 0 0 0 0 
0 0 0 0 0 
0 0 0 0 0 
0 0 0 0 0 
0 0 0 0 0 
0 0 0 0 0 
0 0 0 0 0 
0 0 0 0 0 
0 0 0 0 0 
0 0 0 0 0 
0 0 0 0 0 
0 0 0 0 0 
0 0 0 0 0 
0 0 0 0 0 
0 0 0 0 0 
0 0 0 0 0 
0 0 0 0 0 
0 0 0 0 0 
0 0 0 0 0 
0 0 0 0 0 
0 0 0 0 0 
0 0 0 0 0 
0 0 0 0 0 
0 0 0 0 0 
0.04038526126989260 -0.006397222039774510 -0.008354039616580980 -0.02267048452132260 -0.007044454640245840 
0.02731500698216900 -0.004326830115450930 -0.005650344786213930 -0.01533342668877890 -0.004764592864658200 
-0.006056806135253030 -0.001906055152822600 -0.01649823786050520 -0.008031279704359630 0.02149583746356680 
-0.01135309577294870 -0.01142381828825150 -0.007277566717466520 0.02731108718792860 -0.007240574754989380 
0.01517071501604370 -0.01990071736441950 -0.02680959430030630 0.008047219508655270 0.0008107389019391550 
0.03340792278140400 -0.04531710531200960 -0.03604988180633990 0.04462790505674230 -0.03374014116610510 
0.09088137023144280 -0.06537531946773580 -0.07371810569673280 0.01156133949712510 -0.02590236425727490 
0.08476265907638220 -0.09546620959438080 -0.07847894752738300 0.03693099727017980 -0.04138173876092830 
-0.1049564542135080 -0.1063749239053530 -0.1080516088518190 0.1614329056358780 0.02365027732804130 
0.04579027824353600 -0.1390629646954750 -0.1294330316387030 0.1106817019958590 -0.03894272065845880 
0.06345758434987440 -0.08017295235996750 -0.2076383500552740 -0.1174194219651730 0.1378624525560050 
-0.1531325831581710 -0.1426836957101680 -0.4324595273939460 -0.05333205690349620 0.3751324613882450 
-0.2565797832745170 -0.1773011956030380 -0.2179209101645940 0.1331117306395020 0.1613788365437500 
-0.1536006962223870 -0.09886985235000380 -0.01137026592128490 0.01428294718797930 -0.06197239901650200 
-0.05678791536567850 0.1745352275501140 -0.02474656556560490 -0.1639503579193160 -0.1775492386825700 
-0.08486057351614560 0.04121950317538760 0.08897596063210760 -0.1038486874029680 -0.1128562446877070 
-0.05180417867686010 -0.007017810588143310 0.2984447850300730 -0.1789990483463210 -0.1633498237467600 
-0.008993672805038450 0.01398199922044380 0.1477223596939900 -0.1282978735745430 -0.08800251320338780 
-0.04458566582504770 0.001843005932343830 -0.08084248055333850 -0.07830012901927000 0.1186282831394240 
-0.01622295459375120 -0.005105305586297240 -0.04418998358393090 -0.02151151664161680 0.05757588856879160 
0.0002757436246458990 -0.006032021814474140 0.03345344980322220 -0.01022272314097050 -0.02044475029053970 
0 0 0 0 0 
0 0 0 0 0 
0 0 0 0 0 
-0.002034328089022740 -0.0006401957483903460 -0.005541341087946510 -0.002697503854099250 0.007219908475306440 
0 0 0 0 0 
0 0 0 0 0 
0 0 0 0 0 
0 0 0 0 0 
0 0 0 0 0 
0 0 0 0 0 
0 0 0 0 0 
0 0 0 0 0 
0 0 0 0 0 
0 0 0 0 0 
0 0 0 0 0 
0 0 0 0 0 
0 0 0 0 0 
0 0 0 0 0 
0 0 0 0 0 
0 0 0 0 0 
0 0 0 0 0 
0 0 0 0 0 
0 0 0 0 0 
0 0 0 0 0 
0 0 0 0 0 
0 0 0 0 0 
0 0 0 0 0 
0 0 0 0 0 
0 0 0 0 0 
0 0 0 0 0 
0 0 0 0 0 
0 0 0 0 0 
0 0 0 0 0 
0 0 0 0 0 
0 0 0 0 0 
0 0 0 0 0 
0 0 0 0 0 
0 0 0 0 0 
0 0 0 0 0 
0 0 0 0 0 
0 0 0 0 0 
-0.009357409115036470 -0.002944743064661320 -0.02548880678867590 -0.01240785460732650 0.03320980413194620 
0 0 0 0 0 
0 0 0 0 0 
0.006318678784925320 -0.01955377996534410 -0.01481396706302340 0.02583229572015490 -0.01404058995199080 
-0.03133830836945860 -0.02259054343328540 -0.04702475263417930 0.02713018643443330 0.03415779249456190 
-0.02968196795377500 -0.02268788091450210 -0.04064985059068560 0.03266442772936640 0.02453424953914530 
-0.03539973985992960 -0.01683611127997070 -0.06719486086725670 0.001636930841540130 0.06633183257479110 
-0.008290033314706630 -0.02705072513622710 -0.08342112885340770 -0.01616835416589240 0.07403236097034850 
-0.08995992665148660 -0.02778410226650890 -0.1691762808000830 -0.007690073028890570 0.1632684283774390 
-0.1125825015496630 -0.1171918899171220 -0.3191252465144330 0.06801660286453510 0.2209377758869460 
-0.2706572563303690 -0.1401544897175920 -0.3926774813985170 0.1505647461419610 0.3019759024591870 
0.03816873596400940 -0.1226464245884880 -0.2361179383506990 0.03427778386827620 0.01315670568455100 
0.2337914516545060 -0.1090098557630910 -0.1580323434102630 -0.08716555606919310 -0.1425246531437300 
0.1213566842111750 0.04493549190003180 0.3013298504744080 -0.3920736739436050 -0.3223799039798040 
0.04031373898577440 -0.02056228379331970 0.5602456783142870 -0.3047159996361880 -0.3831592156137330 
-0.02529524948622790 0.06763857923052210 0.09233963126319980 -0.1177336737639140 -0.1152755269592220 
-0.01820722525901580 -0.02829396248130260 -0.01476643791346400 -0.07997827620422380 0.06949518400781130 
-0.01747289272519480 -0.006587181095068420 -0.03286588728829180 -0.02330821516632420 0.05058389232683720 
0.008315476103423150 -0.004682143185435570 -0.05385427119807230 -0.04153581064794510 0.05587409873364520 
-0.001554182134092540 -0.0004890955396227430 -0.004233463306273570 -0.002060833903493320 0.005515852050931970 
-0.002371823651094650 -0.0007464043904992220 -0.006460651023841410 -0.003145020449058980 0.008417693179813900 
-0.001647576186756290 -0.0005184863128037780 -0.004487860964246290 -0.002184673719877820 0.005847311128751680 
-0.01016020553136740 -0.003197380215635780 -0.02767555768253370 -0.01347235666026220 0.03605895942871900 
0 0 0 0 0 
0 0 0 0 0 
0 0 0 0 0 
0 0 0 0 0 
0 0 0 0 0 
0 0 0 0 0 
0 0 0 0 0 
0 0 0 0 0 
0 0 0 0 0 
0 0 0 0 0 
0 0 0 0 0 
0 0 0 0 0 
0 0 0 0 0 
0 0 0 0 0 
0 0 0 0 0 
0 0 0 0 0 
0 0 0 0 0 
0 0 0 0 0 
0 0 0 0 0 
0 0 0 0 0 
0 0 0 0 0 
0 0 0 0 0 
0 0 0 0 0 
