solver_type L2R_L2LOSS_SVC_DUAL
nr_class 2
label 0 1
nr_feature 2999
bias 1.000000000000000
w
0.008485287351958621 
0 
0 
-0.01799668248955377 
-0.004848461892067493 
0.007204905072775998 
0.004480775533265518 
0 
0 
0 
-0.003055212634254909 
0.009187753993796875 
0 
0 
-0.0004531460502359869 
0.004980829104870767 
0 
-0.01247016079203848 
0.0009913915730798196 
-0.02272879936440439 
0 
-0.003814391446760751 
-0.01234751835887724 
0.03822761844140901 
0.008587685278036689 
-0.003103699758633922 
-0.004365948026087639 
0.04462311760863397 
0.04373341998224867 
0.05675390108915684 
0 
-0.1337284282828126 
-0.01606509093271934 
0.05999052437302854 
0.02130975259645308 
0.03175719376631710 
-0.001855889632125582 
0.02849713551521204 
0.001885819035508289 
-0.001103442429216251 
-0.004580023621869391 
-0.005477639350209449 
0 
-0.01826754405056668 
0.01514111282279829 
0 
0 
0 
0.004940728076706130 
0 
0 
-0.001673935386322227 
0 
0 
0 
0 
0.003706535174858713 
-0.003953905691997161 
0 
0.01326127660838601 
0.004699870039058833 
0 
0 
-0.007969371458552282 
-0.002362719280661266 
0.006002729772502722 
0.01086569641715463 
0 
-0.002886202123312309 
-0.005216966198501003 
0.006605341598494055 
0.003868204525451343 
0 
0 
0.002370790272799705 
0.002539809666269181 
0 
-0.005597405409258758 
-0.0004158080432879108 
-0.01141580740678865 
-0.004622258052401958 
0.008243769767664490 
-0.01637752099757891 
0.01636434505948646 
0.005591509406601119 
-0.01244980342682190 
-0.02563468480059733 
0.03166329648747468 
0.008284816700015596 
-0.03818203439882865 
0 
0.07315933007811479 
-0.01258685099505543 
0.03853106524007913 
0.01897766208870480 
0.02723813609512127 
0.01848108397023568 
-0.003187470001568700 
-0.003195220753287792 
0.0005259935147481130 
0.001147785290746559 
-0.008999722151311104 
-0.0002886845379513947 
-0.008702042991250786 
-0.0001677544913127624 
-1.219303943173390e-05 
-0.0005180011623063461 
2.821473384848104e-05 
0.001879931182520976 
0 
0 
-0.001765533295921974 
0 
0 
0 
-0.0003135175942271542 
0.001402338746509170 
-0.002427976119107720 
0 
0.005298132670009468 
0.002010362723747690 
0 
0 
-0.0007583003617723397 
-0.0004544814190794306 
0.0007806624077007759 
0.01286251660707773 
0 
-0.004535241015863898 
-0.008197693048144524 
0.01148057646077741 
0.0001822213863014476 
0 
0 
0.0006290328151591418 
0.0006115762809856282 
0 
-0.0005986313608409908 
-0.0002401603045839679 
-0.002558227891296280 
-0.008291779182641366 
0.01268738254091835 
-0.01680020726899162 
0.002469183705628101 
0.001766000654680693 
-0.01689929219124251 
-0.04025071002204939 
0.01291061445218890 
-0.01560906228275814 
-0.09700937878532931 
0 
0.2187089583285089 
0.04633443690853544 
0.04968993493780947 
0.01147870039337036 
0.03348690641021621 
0.03377009430993702 
-0.02035188608014098 
-0.002537234095941383 
0.002338670859089282 
0.006005959128663882 
-0.008464069822875534 
0.0006796044279069406 
-0.002136785702218570 
-0.009771074452946202 
4.190629713717818e-05 
-0.0003918850314011415 
4.492149777201513e-05 
-0.0002654885898598069 
0 
0 
-0.0005763452840550781 
0 
0 
0 
0 
0 
-0.0009057412920059570 
0 
0 
0.001043245290530881 
0 
0 
-0.003722974372850774 
0 
-0.007748095144045562 
0.006146700906687870 
0 
-0.003842459915634086 
-0.006945453797931704 
0.008058192400998990 
0 
-0.001392562008531193 
0 
-0.004699971854050019 
0 
0 
0 
0 
-5.530858379621086e-06 
-0.008576471062787227 
0.01401215279606538 
-0.01179851407120926 
0.001899806624199522 
-0.002382858923752706 
-0.01385134933393977 
-0.03831599595226683 
-0.005893932122349427 
-0.01559379384996812 
-0.08383607481120915 
0 
0.2486082389194270 
0.2290895984902180 
0.03871187371101446 
-0.02301919731540989 
0.07738045429463593 
0.07731819417310715 
0.003087804456950725 
0.02653203899481950 
0.004507876883595872 
0.02667783208912088 
0.008867974394736805 
0.01104733102527557 
-0.002474102097561621 
-0.008691864305460739 
0.0005131835517777336 
-0.005912105237322369 
0.0002716937193131493 
-0.002024095495134271 
0.0001067864763136456 
6.102336070509977e-05 
-0.001241838868453409 
0 
0 
0 
0 
0 
0 
0 
0 
-0.001237113838715740 
0 
0 
-0.007861324399313835 
0 
-0.01572888596076318 
-0.004166741166350698 
0 
-0.001543697008290712 
-0.002790315705172227 
0.001170132401098569 
0 
-0.003925831104527283 
0 
-0.005054355002085021 
0 
0 
0 
0.0001894123132382348 
-1.315362343130839e-05 
-0.008536318814591699 
0.01375261250809030 
-0.003342749076005888 
0.0004591316943919534 
-0.006089730697112585 
-0.006573197907147016 
-0.02293328932313903 
-0.01230451888471558 
-0.005514959386278225 
-0.03011644530790223 
0 
0.1355472065803715 
0.4653213002391721 
0.07656916891013162 
-0.04875228788129184 
0.08251672505687119 
0.09883034283612126 
0.04807146337924196 
0.04387768112902456 
0.01950146452663650 
0.05393603904752311 
0.02168239137134758 
0.01022593298045018 
-0.001330482788898559 
-0.004712129360055408 
0.0004696432706378941 
-0.01170402672780792 
0.0001569445771125591 
-0.003105422181748568 
0.0003125700937049463 
0.0001525584017627493 
-0.003323786472319539 
0 
0 
0 
0 
3.193759756662114e-05 
0 
0 
0 
-0.004255523060241385 
0 
0 
-0.007240476904391024 
-5.029162545662704e-05 
-0.01146156104786283 
-0.005522554449668313 
0 
0 
0 
0 
0.0001939170088654927 
-0.004678489908434226 
0 
-0.004081772993081365 
0 
0 
-0.0002562092742806094 
-0.0001006586430203139 
-0.0005131479386562052 
-0.008830908980545725 
0.004685356271783023 
-0.0001395463120715271 
0.0007073272800352164 
-0.003917477737206954 
-0.004689080248160914 
-0.008089588056520311 
-0.004225139310678069 
0.001413001546714676 
0.002204534572917913 
0 
-0.04707867534751888 
0.5846442538826255 
0.2512189999782055 
0.01652980531738415 
0.05445286664350674 
0.1008582431285691 
0.1118071336032265 
0.03727027336458354 
0.04655749932516462 
0.06512236333769429 
0.01933003772471412 
0.001138420865302178 
0.008041800601192890 
-0.002450793511521074 
0.0005703868733045715 
-0.009235778581578251 
0.0002251983610358691 
-0.0009569408179518302 
0.0001542137567851956 
0 
-0.004298034848780994 
0 
0 
0 
-0.004354075952272524 
6.203393010917410e-05 
1.228834210248479e-05 
0 
0.0002613742084153380 
-0.003668690637964571 
0 
0 
-0.002290304273959622 
-9.320489633357481e-05 
-0.002650179549599951 
-0.003135336653960679 
0 
0 
0 
0 
4.292783663113915e-05 
-0.002736250454492872 
0 
-0.002378871133498722 
0.0001024232041488607 
-1.822948440023153e-05 
-0.0001741862571430651 
-5.670190492904032e-05 
-0.0009991349939666037 
-0.005801348176214062 
-0.006694702853821874 
-0.0002541294200606772 
6.108128642935623e-06 
-0.003255044772583314 
-0.01014509944585911 
-0.001553838205330231 
0.0002261167504157814 
0.0006060287948464731 
-0.001726713776455832 
0 
-0.1491364820107155 
0.4718897519879400 
0.4659055961163412 
0.1691846527370897 
0.08245662299586043 
0.09054499459934436 
0.1550234038447731 
0.05704256572334855 
0.03325631842349459 
0.03261009289713303 
0.01045356856520242 
0.008888088526264139 
0.01596026378549411 
-0.002352679343365489 
0.003911438089614120 
-0.004448424032716097 
0.001969192863696395 
0.001955922081804433 
0 
0 
-0.002577749219444280 
0 
0 
0 
-0.007243059326190627 
0 
-0.0001857491190672809 
0 
0 
-0.0002907219416816993 
0 
0 
0 
-1.060535824921276e-05 
-0.003385108751297372 
0.0002188923277241533 
0 
0 
0 
0.0004118137568881718 
0 
-0.0002521780254143164 
0 
-0.0009658354658705679 
3.832494748410610e-05 
-2.572990302324693e-05 
-3.296468011640813e-05 
3.632086324539320e-05 
-0.0003135954440746792 
-0.001328229896764929 
-0.005012530919426491 
-0.0005047998821059000 
-2.691479867924092e-05 
-0.005988071058165051 
-0.01042771804338174 
-0.0006289820201956279 
0.003652622580204144 
-0.0005309414529763138 
-0.01603721635367009 
0 
-0.1206568002787507 
0.2127129421577384 
0.5010572543645272 
0.3409290570643355 
0.2100294244327172 
0.06483331426496554 
0.1652539626292233 
0.09661211192655075 
-0.02421572126856215 
-0.005373101328862161 
0.01924286749797200 
0.05162228201563702 
0.02733155462100536 
0.004016155297193091 
0.01095611858140133 
-0.002291943139616199 
0.007146010215531071 
0.008293786659423406 
0.0002421052270032675 
0 
-0.0002248836850583232 
0 
0 
0 
-0.004348044536389421 
0 
-2.113554147556716e-05 
0 
0 
0 
0 
0 
0 
0 
-0.003040913931211483 
0.0002394603008877374 
0 
-0.0001553617091716660 
-0.0002808246791668725 
0.0002554783576773330 
0 
0 
0 
-0.0003014969254237285 
0 
1.460326196535791e-05 
1.863475947314030e-05 
1.884943531657518e-05 
-9.969254492821477e-05 
0.0003950793219491242 
-0.001428245562084040 
-0.0007492957355318968 
8.257515766039394e-05 
-0.007563712231809467 
-0.003934731031808378 
-0.0005435477013926898 
0.007765129961055091 
-0.002903299057414395 
-0.02869489123117107 
0 
-0.07863943197894593 
0.01606169829877135 
0.3526890644010558 
0.4295752234759987 
0.3319339124079667 
0.03761246294689582 
0.1418620583583662 
0.06168430970635151 
-0.08065726350248383 
0.01398344409882564 
0.04834256462227312 
0.09084234398154484 
0.03542386264138383 
0.01224052422536096 
0.004745171835271116 
-0.008512149965067285 
0.003916721284730385 
0.005961635294705791 
0.0005270621872543205 
0.0008641858301106634 
1.785885719032658e-05 
0 
0 
0 
0 
3.926770428961720e-06 
0 
0 
0 
-2.597902729057755e-05 
0 
0 
-0.0002086392368987610 
0 
-0.001095880891328026 
-0.0001227981365505575 
0 
-6.740409692246860e-05 
-0.0001218365451416975 
-5.628905164100808e-05 
1.366854045529435e-05 
0 
0 
0 
1.632671461075505e-05 
-2.640496643500787e-06 
1.020144270493188e-05 
4.254192873137924e-05 
-0.001979981746667466 
-1.537447776588773e-05 
-0.002061320969652871 
-0.0008690034370205214 
-0.0005333273237669625 
-0.005171088043293298 
-0.0009678436195677789 
-0.0006423616599644359 
0.004750907191355945 
-0.006089558306459831 
-0.02529759625366224 
0 
-0.07286252241968110 
-0.05754963966388490 
0.2091585018776967 
0.3372186835560319 
0.3015158498502578 
0.04792596008734783 
0.1353617130379967 
-0.007188282585635806 
-0.07605054884769397 
0.09671400229477568 
0.09065989800624548 
0.1124028229824953 
0.05080217363965264 
0.02865315588546015 
0.006250271685220177 
-0.007170682121586376 
0.004883572558784174 
-0.001670728085625862 
0.004216019673180288 
0.003347866782067801 
-1.324490416477400e-05 
0 
0 
0 
0 
0 
8.078221145310968e-06 
0 
1.876582385351708e-05 
-0.0001393756604366183 
0 
0 
-0.0002598510307725143 
-5.912125476723654e-06 
-0.0002122124575110842 
-0.0001652633668258244 
0 
0 
0 
0 
0 
-0.0001400045632497362 
0 
2.531044428166050e-05 
3.464233037798485e-05 
-6.251358070549524e-05 
-0.0001760896551021180 
0.0003942645290118787 
-0.01063533553928997 
-0.001226427432965318 
-0.01058231579398841 
-0.002197131553951764 
-0.002219020608392785 
-0.002016529847877018 
-0.001817365113431965 
-0.001751076032867889 
-0.01419440273002715 
-0.009403504487637835 
-0.01303410700043718 
0 
-0.07798378541249142 
-0.1025328886221837 
0.1729122023301782 
0.1286599428098676 
0.1843574795599865 
0.09151607555108805 
0.1435570722876348 
0.004374702576355517 
-0.03097306053622009 
0.1248069754201229 
0.05347276808762856 
0.09381927138419224 
0.04716927689808240 
0.04444457987282153 
0.02869586165576973 
0.01845663072755805 
0.01056450707683037 
-0.0008409981736191510 
0.007856262143975930 
0.005809099582791131 
-0.0001414701660329003 
0 
0 
0 
0 
0 
-1.178234344241262e-05 
0 
0 
4.190761427078135e-06 
0 
0 
0 
-5.569863476839175e-06 
0 
-0.0001489060976684265 
0 
0 
0 
0 
0 
-0.0001318994345649371 
0 
-0.0001593876328120880 
-8.416771278390376e-06 
-0.0001517860950775260 
-0.0003864978657782864 
0.0003783371535565801 
-0.01702457375197484 
0.001538027871380746 
-0.01296969286965694 
-0.0008558714878705335 
0.0005585912933755639 
-0.006041895870245125 
-0.007577250111786691 
-0.003328849455532517 
-0.03184422122412869 
-0.01151267232268134 
-0.007151241102565304 
0 
-0.06071958037671374 
-0.1790235929736981 
0.2136765259749500 
-0.03182995762910640 
0.1570750545787557 
0.08841998694699000 
0.06231896258596910 
0.09786205742241044 
0.05989381384629935 
0.05265318800254715 
-0.03509213189019980 
0.02247768405236441 
0.01222348901511238 
0.04914251465092016 
0.03014605202778667 
0.04327711879457269 
0.008895948426240148 
0.002058336807050205 
0.01080273641943719 
0.007177753666755178 
-0.0001176234465114631 
0 
0 
0 
-0.0002471720195130652 
0 
-1.110024553265029e-05 
0 
0 
0 
0 
0 
0 
0 
-0.0001302171847186542 
3.697628866569183e-05 
0 
0 
0 
3.174817223831884e-05 
0 
0 
0 
-8.699755625808668e-05 
-8.541157060829828e-06 
-0.0002323716653260903 
-8.612981422785001e-05 
0.0007902301968639647 
-0.01322014001913431 
0.01051564298110591 
-0.008731842362748064 
0.001086355102279609 
0.002191138767234625 
-0.001758153654271330 
-0.01805644106777338 
-0.005454427147128686 
-0.05687515238135978 
-0.03595540431801899 
-0.04750496655837124 
0 
-0.04812593546297494 
-0.2350376343884995 
0.2329320233940798 
-0.1032415081619527 
0.2128535229439915 
0.007795656660964617 
-0.1071243029419508 
0.1399461162169916 
0.1270724131898220 
-0.01590065905644343 
-0.07196130455175913 
-0.04041366573120737 
-0.01810260527679656 
0.03688653815764750 
0.009002296520492952 
0.04131443981912146 
0.003198388290593687 
0.003492328527072767 
0.01261217271568568 
0.007044906799364127 
0 
0 
0 
0 
0 
0 
0 
0 
0 
-1.191702748713622e-05 
0 
-1.357586394405565e-05 
0 
0 
-3.827325737173228e-05 
-8.946852186045194e-06 
0 
-1.083052326144114e-05 
-1.957675566469788e-05 
-4.101119437732046e-06 
0 
0 
0 
0 
0.0002358343440841092 
-0.0002065491008639019 
-0.0002639656250608257 
0.001126348828742028 
-0.008392642309831052 
0.01396891219408424 
-0.01691199657297076 
-0.009940007789786572 
-0.008664049366298382 
-0.006481944333719865 
-0.02324081238494308 
-0.03009229108660424 
-0.08816472253456367 
-0.09758997628006238 
-0.07195919827195818 
0 
-0.04001681486109842 
-0.1907210619533552 
0.1491580676057343 
-0.1542490081631631 
0.2004760263536589 
-0.03937874976047712 
-0.1851334889161623 
0.05811607755792565 
0.1068739116083884 
0.05350986638344522 
-0.01328968634208972 
-0.04102352343171935 
-0.005724020101626622 
0.02255887602243893 
-0.0007763677103452288 
0.02462041504435361 
0.006938229480345303 
0.006532732595392714 
0.008620254261538726 
0.005205329556991139 
0 
0 
0 
0 
0 
0 
0 
0 
0 
0 
0 
-3.630078621902351e-05 
-2.122770866810229e-05 
0 
-2.426959489812603e-05 
-8.816509532516918e-06 
0 
0 
0 
-4.041372078679435e-06 
0 
0 
0 
0 
0.0006786254207763908 
-0.0006968053904360586 
-0.0007156390327236029 
0.01233846183524734 
-0.008689969806318552 
-0.003673167831966087 
-0.03723386577116825 
-0.06094091866505643 
-0.05581543627538697 
-0.06660620836021616 
-0.05621912606509446 
-0.1047925391239272 
-0.1020700136514390 
-0.1637589453516462 
-0.03745799290330477 
0 
-0.05240943275359750 
-0.07422271071962873 
0.02455232657909053 
-0.2010250850918710 
0.07750442483319710 
0.03110019350137550 
-0.08849201863300404 
-0.04409812513465666 
0.03956632718849357 
0.1802390193176150 
0.07676816544711149 
-0.001029887271378597 
0.06124508034088345 
0.04079006822487026 
0.008261005640640955 
0.01878222308935191 
0.01707187562459106 
0.01661625105267161 
0.002826570056216497 
0.002336779265450975 
0 
0 
0 
0 
0 
0 
0 
0 
0 
0 
0 
0 
4.807383521295653e-06 
0 
-4.816897237794936e-06 
-1.423771695861919e-05 
0 
0 
0 
0 
0 
-1.206096770682362e-05 
0 
-0.0001788325415910001 
9.054596279082967e-05 
-0.0005430819985965841 
-0.0009743242304304873 
0.02094519725268682 
-0.01712017577632154 
-0.04122841965850224 
-0.06157166738444411 
-0.1118109284378565 
-0.1307187142630496 
-0.2001807202982160 
-0.1639899049716635 
-0.2348607177648806 
-0.05899873585142788 
-0.1538619511269384 
0.01665778148591339 
0 
0.03698725203919292 
0.01669687707828031 
-0.02605688885374488 
-0.1643138798198544 
-0.04445546712563610 
0.1248321923825122 
0.01735244423766425 
-0.06590358890054018 
-0.02424921192471168 
0.1780002576805690 
0.1163465622828296 
0.03204797346206761 
0.09655924371828717 
0.05559745725984908 
0.01090271896602151 
0.02062604125771028 
0.01992938110680729 
0.01688057265933220 
0 
0 
-1.075614757121336e-05 
0 
3.464379890038073e-05 
0 
-1.774615256731690e-05 
0 
0 
0 
0 
0 
0 
0 
0 
0 
-1.617673138104148e-05 
-8.283113837556964e-06 
0 
0 
0 
0 
3.521208084037744e-05 
-2.614197908944079e-05 
0 
-0.0002904679962058045 
-0.0001029841288948026 
0.001678253262309698 
0.002707393272182306 
0.02606945115841523 
-0.005406140302081424 
-0.02723952074520972 
-0.03721497761448133 
-0.1689981403151089 
-0.2042000065666043 
-0.3740004885896196 
-0.3127509379791942 
-0.3167912624753171 
0.01001707110928908 
-0.04293725524351953 
0.04295172944196297 
0 
0.2139232053415184 
0.03621176479632930 
-0.01400820971158686 
-0.07654742488369028 
-0.07954973743137335 
0.1182682911241562 
0.03926859216630757 
-0.03647346918081613 
-0.06100971356810371 
0.05905129816202237 
0.08226339028885686 
0.04262709309123729 
0.06790310246855955 
0.04742787282923394 
0.005238986270401831 
0.01621813713061042 
0.01534828137725247 
0.006335096462081976 
0.0001272006692550549 
0 
-6.257632108073728e-06 
0 
1.081650986330793e-05 
0 
0 
0 
0 
0 
0 
0 
3.362737426478008e-05 
-0.0001672352270619431 
0 
0 
-9.528685779215307e-06 
0 
0 
0 
0 
0 
6.913767823033679e-06 
-2.001555938978329e-05 
0 
-4.111958529450301e-06 
0.001454465705142211 
-0.004438027030176339 
-0.001730152158046837 
0.03421908365832431 
0.009256674435112749 
0.04079451895862100 
0.04440817423814896 
-0.2123440563815500 
-0.2826553078899715 
-0.4524000660506250 
-0.3904054582949621 
-0.2885604723678713 
0.008118408735981473 
0.06858373603971787 
0.06282918368617034 
0 
0.2768802171232812 
0.01438242773704585 
-0.02805651123461366 
-0.02315556228051956 
-0.07512787472474348 
0.04082883558650331 
0.0001123933573428182 
-0.03063955039465982 
-0.06809211150462956 
-0.03155758483980990 
0.01709725824870601 
0.02657266439563161 
0.005814006794260801 
0.01664978321108582 
-0.002487793197610882 
0.006027493434880777 
0.006845831762711256 
-2.910450960902233e-05 
0.0005370167211987862 
0 
0 
0 
0 
0 
0 
0 
0 
0 
0 
-3.437097255911740e-05 
0 
-0.0005222757080692733 
0 
0 
0 
0 
0 
0 
0 
0 
0 
0 
0 
0 
0.01017075986810946 
-0.01689058701982051 
-0.01780484850045390 
0.01448948103433421 
-0.006812924656754986 
0.08799641225567029 
0.09507106734805440 
-0.2458062690444287 
-0.3716461916112658 
-0.4365387331306587 
-0.3295700517671287 
-0.2095417991265981 
-0.05422870172555213 
0.07832329160938660 
0.1160203112515763 
0 
0.1707926404214141 
0.006835707536142811 
-0.07873844460170522 
-0.02688683665610097 
-0.06080283427549352 
0.01888585791862826 
-0.01382488779832669 
-0.03321735049689802 
-0.03364204941962889 
-0.02208918696657690 
-0.009870808414588792 
0.005401588202137811 
-0.02186860617327065 
-0.002521298158069674 
-0.004309880566530446 
0.0005932440020430523 
0.001954400290799984 
0 
0.0003370816466291088 
0.0001406939178247759 
-2.001646130737411e-05 
0 
0 
0 
0 
0 
0 
0 
0 
0 
0 
0 
6.695821451495547e-05 
0 
0 
0 
0 
5.019463388830248e-06 
0 
0 
0.0002055437623020220 
0 
0 
0 
0.01782182639948099 
-0.03360386670814497 
-0.03239525318336280 
-0.02656392872287430 
-0.03587337188836619 
0.07268217317872426 
0.07541834396582515 
-0.2564206086741794 
-0.4086529117802353 
-0.4611631587147660 
-0.1903461917596841 
-0.1581449484888723 
-0.08820416324643253 
0.02888039855645701 
0.1546278544943705 
0 
0.04640989894328153 
0.02007680326242305 
-0.09404253459159645 
-0.05707198282685820 
-0.01884469407794951 
0.03077048489058280 
0.005157013186259117 
-0.01902461939260642 
0.002550536605563823 
0.003908098407924901 
-0.005684692490185523 
-0.0002377715268565188 
-0.008868360091480110 
-0.001416881959731090 
-0.001921207983340507 
-2.304680543959355e-05 
0.0005212695746676445 
0.0004075296104899873 
0 
0.0001386442116037237 
-3.259588793462871e-05 
0 
0.0004565537319753809 
0 
0 
0 
0 
0 
0 
0 
0 
0 
0 
0 
-6.865997758085745e-05 
0 
0 
0 
0 
0 
0.0003183722978355383 
-0.0001442242813766097 
0 
-0.003793032885082592 
0.01479042597731092 
-0.03229354788831203 
-0.04965283459540850 
-0.05319217463274407 
-0.04450173615438995 
0.01076528443866000 
0.03857362492147309 
-0.2301426204551342 
-0.3411391880483999 
-0.5149911278915728 
-0.1334310123797968 
-0.1411817134444982 
-0.07897146827269803 
-0.01947038963387345 
0.1346086867268035 
0 
0.02502663692227364 
0.02247969037247279 
-0.05121716500099947 
-0.05693832813717267 
0.01984032495632891 
0.03537419679107643 
0.03134009059863455 
-0.01476803385332470 
0.007746587940884850 
0.01037151514396472 
0.004442961623245197 
-6.312029605050360e-05 
0.001237315144547372 
0.0002839741974945510 
9.882800017878504e-05 
1.457386669340736e-05 
0.0003558245995671859 
0.0004467025688536825 
0 
0 
0 
0 
0.0001534549531689097 
0 
0 
0 
0 
0 
0 
-6.780050103253624e-05 
0.0004683689027722412 
-0.002198598096868120 
0 
0 
-0.0001745535628795893 
0 
4.402354556947052e-06 
0 
0 
0 
9.489346338065041e-05 
-0.0003666599240931648 
0 
-0.007588600005169177 
0.004322847520006297 
-0.01931735345694853 
-0.06678310569330866 
-0.03486522296976832 
-0.03471326646101219 
-0.05476159670866029 
0.02312519280062976 
-0.1731123698813282 
-0.2013740667455460 
-0.4763127793370666 
-0.2308434508918062 
-0.1500277137901147 
-0.08658411340613331 
-0.07051207928549588 
0.02688470597745723 
0 
0.09073295273173775 
0.02310747732397590 
0.01340996806171216 
-0.03302730734427933 
0.02753049894535452 
0.02274798842360544 
0.03684537908277713 
-0.006869041194719701 
0.0006136043615350747 
0.002201549658797519 
0.01331560383720317 
0.0004511070239336916 
0.002205747960159928 
0.001260023311014369 
0.0002598805864099981 
0.0007587211879285560 
-2.191818686405980e-06 
2.558830770473057e-05 
9.834276355945155e-06 
0 
0 
0 
0 
0 
0 
0 
0 
0 
0 
-0.0004712583932946481 
0 
-0.01087731049039145 
0 
0 
0 
0 
0 
0 
0 
0 
9.629636161938125e-05 
0 
0 
-0.007217340992030983 
-0.002726613239394692 
-0.008335902816852233 
-0.05652515802692984 
-0.002758913085559899 
-0.02588420479371590 
-0.07119179190032757 
0.002716338562096553 
-0.1187247528955073 
-0.09316302218477662 
-0.3429800576545603 
-0.3418017300239042 
-0.1567654256068519 
-0.09255741073966106 
-0.1122695502914658 
-0.06808284473092827 
0 
0.09393913245545545 
0.008126018591394928 
0.04165997424928272 
-0.02191170594262773 
0.01022703584139056 
0.0005340631975489259 
0.02232203442537112 
-0.003761430833254773 
-0.005210622315014893 
0.0007608981674327107 
0.01267103158380519 
0.0003855896869870916 
-0.0002628642235133466 
0.0007325968952550898 
-0.0006775245170805987 
0.0002175516370846800 
0.0003764208462847543 
0.0003470176096864387 
4.299945748683812e-05 
0 
-0.0001093170075437083 
0 
0 
0 
0 
0 
0 
0 
0 
0 
0 
-0.01336632054633705 
0.001177782433015279 
0 
0 
0 
0 
6.991210618561034e-05 
0 
0 
0.005352938620670288 
0 
0 
-0.003152525614940173 
-0.003546405332435581 
-0.002965506454057400 
-0.02244975135826248 
0.009455328731647690 
-0.02015846369170450 
-0.04358168225114240 
-0.02061495750626897 
-0.09001513465536220 
-0.04192285719974337 
-0.1685499936176493 
-0.2842587861775375 
-0.1154802946209150 
-0.05176883370700108 
-0.08724112600332876 
-0.07653045356805380 
0 
0.007988416518185439 
-0.03996641187930883 
-0.01030261936263927 
-0.05110480938441488 
-0.01941761662019428 
-0.01588496739401775 
0.01505597847988066 
-0.01536105720618837 
-0.01855685215965845 
-0.001978412849061363 
-0.003634261487271022 
-0.001825831287618700 
-0.006481400829993900 
-0.001522886535016442 
-0.005563288991490320 
-7.160541166446933e-05 
0.0002057436101066756 
0 
1.162154756455140e-05 
1.010136881970665e-05 
-0.0004908324179257052 
0 
0.007577159961739028 
0 
0 
0 
0 
0 
0 
0 
0 
-0.006355954700449021 
0.001961398506617586 
0 
-0.0001649446603274640 
0 
0 
0 
0 
0 
0.01078560535962633 
-0.0003464758647003969 
0 
-3.159815965017115e-05 
0.0009133949080467504 
0.001107459860055968 
-0.002263003710720523 
0.001353284939380545 
-0.02978666889504988 
-0.01470453026542995 
-0.02963690197415122 
-0.09081193327905099 
-0.03064421617471101 
-0.04743481421004701 
-0.1178217735571397 
-0.05450526436805962 
-0.01066179241041650 
0.009295020401192157 
-0.04806927344527547 
0 
-0.06303257255446501 
-0.1009888606431195 
-0.06447042851255344 
-0.08471583246199620 
-0.05369992852227939 
-0.05617020973169579 
0.009403712319812317 
-0.01590736555232689 
-0.01634521980831170 
-0.003831193054811285 
-0.01920959568499517 
-0.003517733911307441 
-0.009375810181986632 
-0.003819053600736380 
-0.008594924904170116 
0.0003887118226640987 
4.929776030069215e-05 
2.290804329961206e-05 
0 
9.954206534158269e-06 
0 
0 
0.01500766986361669 
0 
0 
0 
0 
0 
0 
0 
0.008238521141263470 
0 
0.001177782433015202 
0 
-0.002887218154136288 
0 
6.131688896082853e-05 
0 
0 
0 
0.006498889089326537 
-0.006064769872192657 
0 
0 
0.01320942133045362 
-0.001690281561909836 
-0.005158854764448092 
-0.008487803281518795 
-0.03355613968460691 
-0.005282037580316537 
-0.03811793815078070 
-0.09357981803514816 
-0.04045391301717151 
-0.008766980039547779 
-0.006714523750155741 
0.006209777864980947 
0.004761487166810885 
0.06817536868208403 
0.005539779365771110 
0 
-0.05704746482495719 
-0.1484995733959486 
-0.07560435954637670 
-0.06125852054118715 
-0.05331864420363638 
-0.1385897513911218 
-0.01336140383211950 
0.002692667167867134 
-0.003885525754080409 
-0.005824527972434983 
-0.02816438539877243 
-0.004601609088462983 
-0.005090200747790957 
0.004502429079303824 
-0.004238842006895720 
0.0001207076600780821 
0.0001148376846063348 
5.049327947216854e-06 
0 
0 
0 
0 
0.01163087955797021 
0 
0 
0 
0 
0 
0 
-0.007523223565929234 
0.01371987101373502 
-2.925261831607299e-05 
0 
0 
-0.004791649029494939 
0 
0 
0 
0 
0 
0.001531200482173531 
-0.01006513783191954 
0 
0 
0.01863533448776604 
7.924472248113929e-05 
-0.007080729559315228 
-0.01384156873216984 
-0.02697892687888169 
-0.007971082017443721 
-0.03719598263340349 
-0.07634650147937097 
-0.04905906635876187 
-0.03124128721780496 
0.01432853735018229 
0.01026739094276169 
-0.01441321519567780 
0.03888825044132669 
0.03114854506832620 
0 
0.01206584537453352 
-0.1532835173918002 
-0.05701610864232484 
-0.02885679313518861 
-0.05168177873723238 
-0.1932771445551301 
-0.08031000743056249 
0.01102579510525715 
-0.004036676933802177 
-0.01163013510549604 
-0.04304656032987991 
-0.008213568921375923 
-0.0004983995368900129 
0.006920408715296721 
-0.0006627686635069977 
-0.002990680398152258 
0 
0.006854524547469830 
0 
0 
0 
0 
0.002628997456979840 
0 
0 
0 
0 
0 
0 
-0.01305367339880235 
0.008238521141264011 
-0.0001100007236564637 
0 
0 
-0.003371585672800570 
0 
0 
0.001229740833415324 
0 
0 
0.003017275609222886 
-0.007082212052671964 
0 
-0.0002501291146465386 
0.01188953497605732 
-0.0003347018672801408 
-0.003780816810573913 
-0.005366846894456381 
-0.01223966488804487 
-0.01769919931577012 
-0.03531200904181744 
-0.05392812321437453 
-0.05167816522297180 
-0.03863553002552503 
0.01716338593788557 
-0.03508722173366101 
-0.02574374089946492 
-0.007378761151489701 
8.124102445006042e-05 
0 
0.07046808135217347 
-0.06389115273538414 
-0.06820125266950430 
-0.04966920370711593 
-0.07516841722311829 
-0.2031078923646727 
-0.1561359899339032 
-0.03933587931778339 
-0.01760558329661941 
-0.01611050557161210 
-0.03562630928943254 
-0.01083851540878241 
0.001960912815108065 
0.002518161109453164 
0.001618590263100269 
-0.004684695824722860 
-0.0001598742390063538 
0.01246698988428148 
0 
0 
-0.006680863101173967 
0 
0.0001440030303972847 
0 
0 
0 
0 
0 
0 
-0.008864123522253796 
0 
-0.0003903107232915808 
0 
0 
-0.0005502666568947383 
0 
0 
0.002047926481644871 
0 
0 
0.003241817870659277 
-0.001155867158020758 
0 
-0.0002898811257254247 
0.001880220208277070 
0.0001198107866966636 
-0.0007265558813456215 
0.005258072735764895 
-0.002033502155122289 
-0.01904241294487364 
-0.02571887178961087 
-0.02936762844338620 
-0.04026875074693887 
-0.02962549223103739 
0.03152474287021774 
-0.06576307951911564 
0.002986416851780645 
0.004100510991790159 
-0.01077163734002805 
0 
0.08638852327183535 
0.02885420830507478 
-0.1194342030505999 
-0.1059396973607848 
-0.1314809118555119 
-0.2259361374058239 
-0.2119646161549388 
-0.1455605137429919 
-0.06804286503827808 
-0.04437432011326819 
-0.02154623008478067 
-0.01525067390668724 
0.001052521357122819 
-0.002362371758941605 
-0.0008017930789416336 
0.003659439892805373 
4.752946791423864e-05 
0.008529474942940743 
0 
0 
-0.01310840691653302 
0 
0 
0 
0 
0 
0 
0 
0 
-0.0009510456905758199 
0 
-5.615446424736802e-05 
6.695821451411019e-05 
0 
0 
0 
0.001078552574757102 
0.001229740833416524 
0 
0 
0.001801565475021774 
0 
0 
-0.0004401055893055586 
0.0001865440291035935 
-0.0001313967824465911 
-0.0001045010333697980 
0.007108314926127172 
0.002483764493431997 
-0.01040621141093431 
-0.006964593216101702 
-0.007330062714963996 
-0.005510088395762121 
-0.009359222342792387 
0.04329741558618901 
-0.009606554822340956 
0.05710262742406434 
0.05503176368284204 
0.05876037455986739 
0 
0.04071441877637323 
0.006614131916456611 
-0.1939586467090785 
-0.1381622827421543 
-0.2138102029074057 
-0.2787232062795260 
-0.2302633647641607 
-0.1989168962840163 
-0.09227889858125081 
-0.08380720519248452 
-0.03347039156536936 
-0.01927552073230539 
-0.004700730512363972 
-0.005671583663748460 
-0.0007160706187124482 
0.01246407802541645 
0.002668058548057962 
0.0009152030600612477 
0 
0 
-0.01073186817364609 
0 
0.0004225830699916419 
0 
0 
0 
0 
0 
0 
0 
0 
-7.695105455125150e-06 
0 
0 
0 
0 
0.001796147870899599 
0 
0 
0 
0 
2.131041337878169e-05 
2.184325569282737e-05 
0.0001757756921616239 
0.0003062690173944467 
-8.909797765042929e-05 
7.764266261894180e-05 
0.009764800135773430 
0.01081120821871711 
0.004439671587145430 
0.02139459868950453 
0.01278790514802456 
0.03954373573200704 
0.02531988028903609 
0.05071712426072312 
0.04547640342003491 
0.07305658852223189 
0.07723193906090464 
0.09051278136482548 
0 
-0.04733327826502502 
-0.1141647066848401 
-0.2545278456035687 
-0.1261349732968786 
-0.2871919037443725 
-0.2916133943436519 
-0.2389487937900226 
-0.1690013826835905 
-0.09875175279070442 
-0.1046584317421450 
-0.06622885281299591 
-0.01710108419817241 
-0.01037029083718328 
-0.008058894157314658 
0.003533976103871348 
0.01175404392567456 
0.003100608161373919 
-0.005297070726277526 
0 
0 
-0.002794633649534915 
0 
0.0001534549531689090 
0 
0 
0 
0 
0 
0 
-1.883695872041955e-05 
0.0004683689027781542 
-4.968023089039142e-06 
0 
0 
-0.0001613310355127274 
0 
0.001078552574771811 
0 
0 
1.953318062035471e-05 
1.890391567883723e-05 
-0.0003236331834135886 
1.563341189269832e-05 
0.0004068320081845972 
0.0008673713096974644 
0.0001548400295818865 
0.0006845016838670251 
0.02053275454105205 
0.02238491193414457 
0.01831097215722281 
0.04571833202859246 
0.02762310560110548 
0.05981438916238376 
0.05634192462621245 
0.05353391345939101 
0.04669811633569212 
0.09223095463792665 
0.02810054142990990 
0.05440452691247149 
0 
-0.06711503309203025 
-0.1905046276348154 
-0.2837767009529386 
-0.06860289683700901 
-0.3131759458440689 
-0.2735697091084490 
-0.2728448256100127 
-0.1057311438452874 
-0.1089469830046146 
-0.1158101239733321 
-0.09159599395885569 
-0.01663959555008233 
-0.01396382639605499 
-0.009178425917684604 
-0.001775309831502409 
0.005306121847120282 
0.0009489520303800435 
-0.01098975366622521 
0 
0 
0 
0 
3.397066197839947e-05 
0 
0 
0 
0 
0 
0 
-0.0004787258910257363 
0 
-2.846709862501393e-05 
0 
0 
-9.873880697860054e-05 
0 
0 
0 
0 
3.550665926891634e-05 
6.118772305091802e-05 
-0.0002169061258738549 
0 
7.205110139237280e-05 
0.003190628458331307 
0.0003631323451169509 
0.0007531661855367352 
0.02295420846410818 
0.01627422012627369 
0.04199637091048420 
0.04656254511637083 
0.02716287537667805 
0.05969568681332964 
0.04880120914081012 
0.01530704845258755 
0.04458630208428649 
0.1080271826832281 
-0.03510268313140861 
-0.009803816492407368 
0 
-0.05226867664785802 
-0.1901133226719981 
-0.2182873652280009 
-0.01247556715183500 
-0.3011002955435869 
-0.2613315161168135 
-0.3317255566807834 
-0.06263645772330839 
-0.1082412841523680 
-0.1161361375501409 
-0.08811583054321374 
-0.01686441911436609 
-0.02415303835505905 
-0.01121357824069622 
-0.01910048662046372 
0.006439857441692599 
-0.001561095755714126 
-0.008272598367719023 
0 
0 
0 
0 
0 
0 
0 
0 
0 
0 
0 
-0.0001460163476650176 
0 
0 
4.807383509537440e-06 
0 
0 
0 
0 
5.778161607376198e-05 
0 
0 
9.629636333101102e-05 
-7.061118743776703e-06 
0 
-0.002174734616203600 
0.009802800963822526 
0.0001495489849034018 
-0.002523718505960254 
-0.001697568804197781 
0.01103498465804667 
0.05972966444896009 
0.02796469198701944 
0.04957272379644810 
0.06124863351931948 
-0.0008501934982981085 
-0.03463265668525911 
0.02175411860086029 
0.1086709589124394 
-0.02632454636414242 
-0.06736493427089592 
0 
-0.02247518145498887 
-0.1751755230226330 
-0.07551456535688765 
-0.003229081761083422 
-0.2807302434255726 
-0.2650458888569212 
-0.3974525157210968 
-0.06362159782002777 
-0.05545284735830179 
-0.07499460801359263 
-0.05369586863872949 
-0.01759859717567735 
-0.04283047591552825 
-0.01662970677652510 
-0.01649715734913978 
0.009300636892875436 
-0.006384331381681546 
-0.001664145965597832 
0 
0 
-0.0006294571799025779 
0 
3.034009937136864e-05 
0 
0 
0 
0 
0 
0 
0 
0 
0 
0 
0 
0 
0 
0 
0 
0 
0 
9.489346775480676e-05 
0.0002410081029573251 
0.0002360754843792524 
-0.003462281847710847 
0.01598054997855050 
-0.0001037955271857992 
-0.01545767223877738 
-0.03305466694303444 
0.008348955558280236 
0.02968634159036045 
0.01974518075563776 
0.1164882449734232 
0.04037291826910198 
-0.07088458113164410 
-0.05039618269122105 
-0.02284771072320473 
0.09394043108841854 
0.04566402794228226 
-0.1359208098410539 
0 
-0.01462717164012939 
-0.1640521758801409 
0.05438047925937591 
-0.03856185448129587 
-0.2399820142095220 
-0.2816736497686303 
-0.4153862679958089 
-0.09967363062783051 
0.02086359316869592 
-0.03533736175552332 
-0.02112687449251414 
-0.02253083621517486 
-0.04486632836973647 
-0.03173322927894554 
-0.0002630507181611194 
0.007962179691497290 
-0.009541452651467556 
0 
0 
0 
-0.0003562721170340488 
0 
1.081650986330803e-05 
0 
0 
0 
0 
0 
0 
-0.0002623649892983141 
3.362737434702819e-05 
0 
0 
0 
-6.202083256405536e-06 
0 
6.131688912262364e-05 
0 
0 
9.473886154527154e-05 
9.168577126896459e-05 
0.0002881760347311248 
0.0002898983034338895 
1.477185517505887e-05 
0.01959342759184610 
0.001444901820899754 
-0.02002468413479967 
-0.03376829043964668 
0.002372399072481870 
-0.007423391209863911 
0.05502874710427254 
0.1781253210304110 
0.01527131491680212 
-0.08220349946495747 
-0.03318786392294900 
-0.05367131532425144 
0.09339309749295414 
0.08208915744618492 
-0.1841720279605027 
0 
-0.04309362110468408 
-0.1765309673101327 
0.04200340167463345 
-0.08480850742055411 
-0.1717991842799809 
-0.3339276014130852 
-0.3432871917796221 
-0.1369124667776092 
0.04319048389700629 
-0.008587379845955272 
-0.01386766129681857 
-0.02759693852779882 
-0.02846631821376922 
-0.03147558001779392 
0.004318556182344792 
0.002024695642979487 
-0.008153982323689636 
-2.103646779531512e-05 
0 
0 
0 
0 
4.303699454803891e-06 
0 
0 
0 
0 
0 
0 
-3.246615967025687e-05 
0 
0 
0 
0 
-1.081040856857242e-05 
0 
0 
-6.717985138014077e-05 
0 
0.0005153943964438261 
0.0004987850709465390 
-5.690464971901336e-05 
0 
-0.0004865515295204052 
0.01692560361342459 
0.004509111402590317 
0.001169746076827409 
-0.006833167657117513 
-0.009772059885567760 
-0.0008228871448785914 
0.1078994810753912 
0.1520645469785078 
-0.007756630905953932 
-0.06672116211751630 
-0.02167233537258531 
-0.07662639057305383 
0.09910262168043744 
0.02121589849683213 
-0.1723673511956405 
0 
-0.04294758786159322 
-0.1693860634092197 
-0.05683721816022009 
-0.09678391551214460 
-0.09426954795868099 
-0.3753014605217227 
-0.2598348979196271 
-0.1378031339286387 
-0.005004008037793141 
-0.01082112398659119 
-0.02483656190792261 
-0.03524350410787176 
-0.01573052455881543 
-0.01357438042931962 
0.0005737987512553042 
6.163466043419728e-05 
-0.003532546204109961 
-0.0003597027632363251 
0 
0 
0 
-8.249546610301633e-06 
0 
0 
0 
0 
0 
0 
0 
-1.639140163997630e-05 
0 
0 
0 
0 
0 
0 
0 
-0.0001868960036278996 
0 
0 
0 
-0.0001499527426479816 
0 
-0.001884118846534311 
0.01203491525072248 
0.009143276869618211 
0.02083192801782589 
0.01639175491084641 
-0.01342348882039556 
0.03160285379013273 
0.1193944371288396 
0.08705457407665732 
-0.02132950256130409 
-0.09725465159624427 
0.003741872380578241 
-0.04773637642324956 
0.07384885070215338 
-0.07297605163162126 
-0.1174631279936637 
0 
-0.01834452160558455 
-0.1298170352120387 
-0.1130889241641624 
-0.07808787688900407 
-0.01762544188833266 
-0.3212590189806127 
-0.2059777881888492 
-0.1001800916926764 
-0.04630726474316330 
-0.02245886385379112 
-0.03129617117919456 
-0.03487607839844113 
-0.01092600710093533 
-0.0001970791997091845 
-0.0005768313710470172 
0 
0 
-0.0001816054785382394 
0 
0 
-0.004513766774288028 
-8.371507324076495e-06 
0 
0 
0 
0 
0 
0 
0 
-2.748086576121795e-05 
0 
0 
0 
0 
0 
0 
0 
0 
0 
0 
2.007652195428329e-05 
0.002593288777696645 
0.002692906295523207 
0.005135226780826178 
0.01817942970304155 
0.01399387446276875 
0.01081243875502157 
0.02498210193626032 
0.0004319194924763871 
0.03782897243365683 
0.04613148804792788 
0.05165713393866181 
0.01110690459341395 
-0.1737259217155314 
0.1081628162776873 
0.06833266759726345 
0.0004214130624141039 
-0.1255641298079953 
-0.01639915512439372 
0 
-0.003955102629605021 
-0.09517245958711634 
-0.07804340857651731 
-0.04555370104436286 
0.001451445864142139 
-0.1956678653336679 
-0.1554504314365704 
-0.06034477126636349 
-0.02592020930106012 
-0.01751474726890810 
-0.02481524579413639 
-0.02426972138963760 
-0.009502864879963258 
0.0001059583396611976 
-0.0007956284311198765 
0.0003261802030234168 
8.041678265305648e-06 
0 
0 
0 
-0.007550737686541850 
0 
0 
0 
0 
0 
0 
0 
0 
-0.004614952779044365 
-6.000517068814402e-06 
1.757317359784183e-05 
0 
0 
0 
0 
-3.125528025772518e-06 
-5.892476135678971e-06 
0 
0 
6.813105310258774e-06 
0.008745081800015417 
0.008757753109032205 
0.008649158344481347 
0.02075485458169716 
0.03426300857587396 
-0.009447633638340771 
0.02888335046079495 
0.01114654124337858 
0.03161798113215325 
-0.07107026248701943 
0.04268128964532489 
0.03748953797018875 
-0.1988091291613074 
0.1956409454249234 
0.1901409265157288 
-0.05720307440934684 
-0.07747761943854256 
0.07584258321037242 
0 
-0.007860940135761753 
-0.07554776180572252 
-0.01543152357103341 
-0.01070072445463090 
-0.02893986780882338 
-0.06616584030846995 
-0.07673516939068688 
-0.02420628930669451 
-0.001786711917982993 
-0.006312321520853524 
-0.01070142945996990 
-0.008140707482809555 
-0.005189914243401180 
-0.0002435874356644711 
0.0001505767415294704 
0.0002068354396691461 
0 
-0.0002930001987002950 
0 
0 
-0.004513769090892435 
0 
0 
0 
0 
0 
0 
0 
0 
-0.007685439100707084 
-6.369242259450258e-06 
0 
-9.269561251857957e-06 
0 
0 
0 
-7.990465097202540e-06 
-0.002476338467358718 
0 
0.006700818483305638 
0.006484874781937007 
0.009437721328312757 
0.009455053468805874 
0.008566088405769766 
0.02484851931360305 
0.05417441387436341 
-0.007184992604560465 
0.02000010383818748 
0.002497572458724340 
0.02601653258717222 
-0.1669255205421411 
0.01403719567311438 
0.03448109093511967 
-0.1500106386155270 
0.1324007490670002 
0.2144278680292749 
0.008029860789865997 
0.08997144725262123 
0.04796064014383226 
0 
-0.01070427221153875 
-0.05519893930983592 
0.01187717484404194 
0.002857333836562821 
-0.05314419345187608 
-0.01340494203461932 
-0.02830466607050683 
-0.01549788616257084 
-0.0002509649364157429 
-0.002105092506253879 
-0.002293753758720977 
-0.0005748644326244733 
-0.0008802886547205654 
-0.001178928165693813 
6.208484904553849e-05 
2.636668420235441e-06 
-0.0002881832997806006 
-2.391773219459172e-05 
0 
0 
0 
0 
-9.571154315285150e-06 
0 
0 
0 
0 
0 
0 
-0.004614985768543990 
0 
0 
0 
0 
0 
0 
0 
-0.005315264286467804 
0 
0.01375609269667151 
0.01331278243606062 
0.002714123184373736 
0.003784694243058987 
0.002578334642604953 
0.03015606112493096 
0.04881771930930152 
0.01855234701883400 
-0.004506382961245189 
-0.02714039109257208 
0.01593963357573736 
-0.1947927094073018 
-0.05164887693920599 
0.03717832100914439 
-0.08857112504368136 
0.01385166262404895 
0.2141627352320261 
0.1911378886558605 
0.2353538405525412 
-0.07698342029954178 
0 
-0.01376694198461519 
-0.03439726080358974 
0.005895777301423016 
0.009826079677053822 
-0.06000172899821642 
-0.01382158762060684 
-0.02123159910366902 
-0.01255468540023951 
-0.003159604777590815 
-0.003775955902231868 
-0.003937001269027188 
-0.0002901996863459424 
-0.0004389107808954005 
-0.0002135439121275332 
4.153723829345253e-06 
-2.683067404998307e-06 
-0.0002957914433090277 
-1.913790113154674e-05 
0 
0 
0 
-0.0001149013617459111 
-7.684858232960276e-06 
0 
0 
0 
0 
0 
0 
-0.0002705805716507409 
0 
7.903523874117062e-05 
0 
0 
0 
0 
1.634321237936418e-05 
-0.002914455147749109 
0 
0.01166613788351583 
0.01141511832429173 
-0.003259186915981817 
0 
0.002721146677666749 
0.01717370500711159 
0.02888818508530786 
0.02610181256782045 
-0.02012330185082596 
-0.03964089728871717 
0.008310178487753781 
-0.1492993144299597 
-0.1101130786990725 
0.07642820269665428 
-0.02667338054489548 
0.03041191216025368 
0.2259780715171451 
0.3648066446229443 
0.2853637445416445 
-0.1291996755337644 
0 
-0.01475677212448170 
-0.02118988348651874 
-0.007968132138380843 
-0.002581813907620182 
-0.04297188517782532 
-0.01303456052119353 
-0.01256348324788908 
-0.007033716315375948 
-0.005929848521530686 
-0.004084987873029982 
-0.004036665440635495 
-0.0003238593004054842 
3.443869900376355e-05 
-6.319999522169667e-06 
-7.530954495870008e-05 
1.708448050134778e-05 
-2.409045323382238e-05 
0 
0 
0 
0 
-0.0001166000553534788 
0 
0 
0 
0 
0 
0 
0 
-0.0003564585605889185 
-1.142534883663116e-05 
0.0002591231441210904 
0 
0 
0 
0 
-1.433354979817407e-05 
-3.205893154965505e-05 
0 
0.003317009372155703 
0.003380849692006900 
-0.004195210857146761 
-0.0003938300713477830 
0.01068253381214275 
-0.004446693763493287 
0.02325455808570786 
0.01099455521913479 
-0.002332141617363267 
-0.01392481327039612 
0.02841867807285392 
-0.06000249358860942 
-0.1293252375331542 
0.1301897190911324 
0.07574306229976540 
0.1790856546651614 
0.1310414205854471 
0.4640115364885480 
0.2508353683339843 
-0.09593237647662702 
0 
-0.01412457689582493 
-0.02076717860093452 
-0.01120739756978133 
-0.02975251984192047 
-0.01107204971877947 
-0.004936581349053761 
-0.005681378739090320 
-0.001699295263997738 
-0.001725867857301993 
-0.001327266914728714 
-0.006900271057244087 
-0.0007666635305095828 
-0.0003078391660326830 
9.601966214762790e-06 
-4.576934512379174e-07 
1.763279805129922e-05 
0 
-0.005154215738616365 
0 
0 
-0.0002566380342110479 
0 
0 
0 
0 
0 
0 
0 
0 
0 
-0.0001004113608299930 
0 
-7.762746171273778e-05 
0 
0 
0 
-0.0001259700041844414 
-0.0009060367426943255 
0 
0 
0 
-0.002437637947550430 
-0.004055378840842369 
0.01183217455388930 
-0.01493232709870521 
0.01639376192439534 
-0.01478347325650957 
0.01782482648964115 
0.01946242034352249 
0.04876889854625635 
0.008847734113456213 
-0.09785822801506237 
0.1134674252712779 
0.1681830391203399 
0.2652541221670509 
-0.07147261769384368 
0.4990379188209950 
0.1908202259072727 
-0.08133571284801745 
0 
-0.01468816134063342 
-0.02253770048548667 
-0.004653799901879304 
-0.03809396038479925 
0.001720691032141550 
-0.001474529494507065 
-0.003003251941378170 
0.0003895287445000454 
5.210209277222076e-05 
-0.0001914046274569815 
-0.009354700801390729 
-0.001203802393010591 
-0.0003381089536344035 
-7.674055032818016e-05 
0 
0 
0 
-0.008585995396860438 
0 
0 
0 
0 
-8.015316259043656e-05 
0 
0 
0 
0 
0 
0 
-0.0002627278737941936 
-5.418009942716643e-05 
0 
-0.0001572123177107171 
0 
0 
0 
7.190437928559262e-05 
-0.005378040762106157 
0 
0 
-3.991144349144582e-05 
-9.773224552672945e-05 
-0.007001697520056311 
0.005174457305745978 
-0.01220715567409070 
0.004473078412747114 
-0.02616393852462073 
0.02054765432788084 
0.04038984051045291 
0.04617882824855154 
0.03406857013375861 
-0.03790353699016610 
0.07514496691790486 
0.1777861928131188 
0.1839794649702264 
-0.1658106217026956 
0.4859810207828249 
0.1784993234339603 
-0.09393526726868805 
0 
-0.009139690431702444 
-0.01098995013094177 
0.005042596561116300 
-0.02015210743987021 
0.002298534231123347 
-0.0001612497976320823 
-0.0005759960073078814 
-0.0003074949744617822 
6.981543492863457e-05 
2.933214912233124e-06 
-0.005103165461970960 
-0.005544293233902459 
-4.423227947233833e-05 
-4.811397773815410e-05 
0 
0 
-1.272548538433434e-05 
-0.005161365439685576 
0 
0 
0 
0 
-0.0001623274058549423 
0 
0 
0 
0 
0 
0 
-0.001835565090012609 
0 
0.0005159344838177100 
0 
0 
0 
0 
0.0001621015326629829 
-0.007237892546240629 
0 
0.0003692089972217456 
0.001190252670413189 
0 
-0.006131027197201843 
0.0002841896510367665 
-0.006508153811850582 
-0.007560826535758834 
-0.02042572682255869 
0.01106882045340936 
0.03959411303924142 
0.03348021443917230 
0.03253956451836348 
0.01654760608638063 
0.05068269737351586 
0.1444237383150148 
0.05120825663097509 
-0.1046436779374447 
0.4532375225482769 
0.1991420497392104 
-0.07557189868819879 
0 
-0.002753029210743977 
-0.002168915289074566 
0.009498611375446617 
-0.001855819643781243 
-0.002243494056517439 
-0.0004669597047392212 
-0.001107125057625592 
-0.005307266387993733 
-0.0002370159620982621 
-0.0001349204403374161 
-0.0001008607493059814 
-0.007562964381264464 
-2.621637433234203e-05 
0 
0 
0 
-2.497588598098418e-05 
0 
0 
0 
0 
-0.001873669923524559 
0 
0 
0 
0 
0 
0 
0 
-0.008816469264523279 
0 
0.005194335520881142 
0 
0 
0 
0 
0 
-0.003842492735526892 
0 
0.0004071188496149824 
0.004616893739376056 
0 
-0.002174784222512737 
7.671380560689564e-05 
-0.002912324375989392 
-0.004395372033296441 
-0.005303538395465467 
0.01330677262419322 
0.03108752843117310 
0.03015849499365242 
0.04252104463430947 
0.06350290329478922 
0.07432080485835563 
0.1126815054538842 
0.01386399595480913 
0.007394056366163875 
0.4369481992781522 
0.2227717426125806 
-0.0005933307853789733 
0 
0.009829134506578007 
0.0007804772121905209 
0.009941094823742305 
0.004222669880599574 
-0.001841788708978392 
-0.0004871241574805575 
-0.002285616656729517 
-0.01046645818013917 
-0.0002127456702706465 
-0.0001482231602083311 
-0.001787016491083181 
0.0005005198808208157 
-5.834655956914583e-06 
0 
0 
0 
0 
0 
0 
0 
-1.877839274714985e-05 
-0.003810432513161683 
0 
0 
0 
0 
0 
0 
0 
-0.01245750043211681 
-0.0004896212490639090 
0.009604141101349321 
-0.0003250437152234887 
0 
0 
0 
-0.0006142491276241015 
-0.0004776316204505201 
0 
0 
0.005966868749897185 
-0.0001206651207036609 
0 
0.0003437587147336162 
-0.003048740773341151 
-2.844741659154876e-05 
-4.334186541779515e-05 
0.01287391178881336 
0.02114248880752031 
0.02201259890379055 
0.04439222671886270 
0.07041556957803291 
0.09042007731392905 
0.07546673811096262 
0.02330471075723755 
0.07345032931159666 
0.3997179537462948 
0.2953586436019208 
0.06226401155940587 
0 
0.02193760579861782 
0.004441451547770590 
0.007076699880459304 
0.005418628680092034 
0.0005951331029335329 
-0.0001098620554669854 
-0.005616044831365825 
-0.01125544804826503 
1.889425038687348e-06 
-1.758680718449481e-06 
-0.004701460423662950 
0.01070176384801771 
-2.375655050927110e-05 
0 
0 
0 
0 
0 
0 
0 
0 
-0.004163630066437280 
-0.0003356193960622675 
0 
0 
0 
0 
0 
0 
-0.008450330402359915 
-0.002545401234945693 
0.01090142201902633 
-0.003416052843213481 
0 
0 
0 
0.0007340513984215704 
-0.001999198601299548 
0 
0 
0.002915467487034932 
-0.0001374373509278087 
3.213004282667110e-05 
0.001712354517730869 
-0.003304393609957792 
0.005488642224746031 
0.0008106359889795961 
0.004587394720845052 
0.02068747850996810 
0.008434913849340137 
0.03251626997380970 
0.05230669199669431 
0.07358923607811402 
0.03409889265914438 
0.05829855991748596 
0.06792983319957249 
0.3311494676990702 
0.4531297353849155 
0.06786741575191339 
0 
0.02687153699794652 
0.005644831754442458 
0.007159557998229740 
0.004759562351945692 
0.002472486120874877 
-0.003387308462042821 
-0.01010909865122951 
-0.007000703115637652 
-0.001533902461500440 
-6.931959897012381e-06 
-0.004312171050851229 
0.008489454644580624 
-2.771597559415021e-05 
0 
0 
0 
0 
-0.0003716469104616384 
0 
0 
0 
-0.002580065030075759 
-0.003527198153595816 
0 
0 
0 
0 
0 
0 
