solver_type L2R_L2LOSS_SVC_DUAL
nr_class 2
label 0 1
nr_feature 2999
bias 1.000000000000000
w
-0.002490038607474552 
0 
-0.003926694741681612 
0.009944277155661384 
-0.01305376843927785 
0.005750123417022774 
0 
0 
0 
0 
0.004285777721874974 
-0.006285133506332055 
0 
0 
0.005194952799901352 
0 
0 
0.004807549062042654 
0.004212493595511493 
0.02292332192259315 
-0.006933770812705025 
0.005804924953312320 
-1.084202172485504e-19 
0.004644949349670156 
-0.008572997786647414 
-0.01898617891008056 
-0.04924548772056989 
-0.04598211738500441 
-0.09996504559046908 
-0.1935107892676532 
0 
-0.07457317180336154 
-0.1337655666842091 
-0.07800341825111705 
-0.03577078553070807 
-0.04455083243760911 
-0.02614865654300707 
-0.02563234932011539 
-0.006363167348793246 
-0.001407526591390279 
0.005720952412289514 
0.009626400137424726 
0 
0.01035166110404386 
0.001219881961624514 
-0.006239423501898356 
0 
0 
0 
0 
-0.01454822555557126 
0.007658498565232505 
-0.001107361387282377 
0 
0 
0 
0 
0 
0 
0 
-0.001997942371504397 
0 
-0.006271202662029919 
0.004133593748234039 
-0.007648915920655537 
0.001439566285718017 
-0.001071806043384714 
-0.0006888594018450784 
-0.0006712204678293800 
0 
0.005083617486884480 
-0.002511030585412227 
0 
-1.084202172485504e-19 
0.007526031607993473 
-0.002183029498913389 
-5.929230630780102e-21 
0.002123372150118056 
0.001419589996123848 
0.004298100184191377 
-0.02156305396884090 
-0.006082729875655103 
0.009474156860941840 
0.005183075175753313 
-0.002679129925381130 
-0.02965446624996189 
-0.03481825616010198 
-0.02966724910144438 
-0.08411882452386960 
-0.1290493605338417 
0 
0.04775085300279765 
-0.09187976515970192 
-0.09091271370572657 
-0.06420537882463495 
-0.04350340452076645 
-0.03039793337770650 
-0.006231432482558829 
-0.0004399417350388086 
-0.001796249923319961 
0.003393717952694494 
0.008025217455840820 
0.0002792236889561210 
0.004065656647860139 
0.008233698640355910 
-0.003340908928351758 
0.0004902436996730011 
4.413172726662269e-05 
0.0001784696643347931 
-7.324602025524932e-06 
-0.006125056457687276 
0.003132828013974574 
-0.0006060606676576111 
0 
0 
2.464747401991971e-05 
-0.001800868532832142 
-0.0006756363833268877 
-4.404017546164708e-05 
0 
-0.001482042269004299 
0 
-0.007968716873588643 
0.0001662652933959861 
-0.003247090869031066 
6.975459173177145e-05 
-0.0002562109629684428 
-0.001341754005692376 
-0.0007802958612294514 
0 
0.005170152925173173 
3.970466940254533e-23 
0 
2.168404344971009e-19 
0.007944582561377420 
-0.002873125082042809 
0 
0.0001985312274236487 
-0.0001368340472751077 
-0.007714434526749015 
-0.02673408085306736 
-0.01213081940525530 
0.01432415299035238 
0.003675277301665347 
0.001954660228005543 
-0.03126710633420365 
-0.02323025155851551 
-0.01570529483867816 
-0.06804858107119840 
-0.08151404887932155 
0 
0.1409917294602398 
-0.06086821396507593 
-0.1304487232863258 
-0.08093280597861767 
-0.05032744946418543 
-0.03493144434545181 
0.002569354890503596 
0.003907398913954140 
-0.0004131252598602476 
0.002534906907693665 
0.006092684974417856 
0.0009860716006841199 
-0.0006672351950784423 
0.01235867767155013 
-0.0009671570945900530 
0.0006054739324356138 
8.254420851581160e-05 
0.0004558522071245392 
-4.098289228567512e-06 
-0.0002885360046374888 
0.0001950200195643662 
-3.334214577122661e-05 
0 
0 
0 
-0.002748588051319972 
-0.0009282177121138808 
-8.972842401749299e-06 
0 
-0.003048373164849827 
0 
-0.007212989181711407 
-7.906829984312862e-06 
-0.001506944852099339 
0.001435422480999405 
0.002288953502912207 
-0.004437477015425132 
-0.0004782420126573172 
0 
0.003813092743123315 
0 
-2.568485744880917e-05 
-2.811606427567965e-05 
0.004306702710361600 
-0.001459268523949176 
-0.0004400412850940291 
-5.945704121096464e-05 
-6.443299253085583e-05 
-0.006735242338030137 
-0.01710859709203228 
-0.008434219787519610 
0.01072733544657280 
-0.001203012955173326 
0.003866320904180036 
-0.01848444898426641 
-0.01666902925105593 
-0.01024300640015338 
-0.04881936663585484 
-0.07211784772969437 
0 
0.1669444533843728 
-0.08149397341186199 
-0.1615026553075511 
-0.08581210340821112 
-0.04371241233330159 
-0.04347089233835910 
0.002374051749176481 
0.006464742476348042 
0.005003207512055811 
0.001064371709027796 
0.003517486501192248 
0.0003063903547197606 
0.001233599867470818 
0.01170798028889466 
0.0003204906008349056 
0.002419672180721236 
0.0003981630624207595 
0.002938036149831375 
1.517247563581264e-05 
0 
2.710505431213761e-20 
0 
-0.0001096958509747240 
0 
0 
-0.002138177637907747 
-0.001408505286827716 
-0.0002318286856756877 
0 
-0.004615346390533471 
0 
-0.001138983679161003 
0.001269608695187244 
-4.311363923294786e-05 
0.002994791306882091 
0.002520973302594481 
-0.004886793685390585 
-5.032905338353718e-05 
0 
0.001700676254233781 
0 
-1.205615757801253e-05 
-1.319733629266609e-05 
0.001394589566755955 
-2.393105042699691e-05 
-0.0007603960403956525 
-4.191001257647722e-05 
4.156760517898947e-06 
-0.0007494111850015044 
-0.001959080388777782 
-0.001747310239340056 
0.002926115237097596 
-0.006672792958464963 
0.009233260473089295 
-0.003668536938754822 
-0.008363342097543702 
-0.01375946161077873 
-0.02507509417863611 
-0.08351036339445614 
0 
0.1237284685369968 
-0.1076207612970725 
-0.1615437778582414 
-0.06172397641178278 
-0.003734615475560196 
-0.05427200028899613 
-0.0006797705592171067 
0.02107245049501402 
0.01943138656819460 
0.002438168888333896 
0.003267382895323459 
-0.001293859087933309 
0.003421328980643981 
0.008120667777129264 
0.001093165862938591 
0.003422745808478228 
0.0001139840781499638 
0.003538949565911324 
5.068774148092124e-05 
0 
4.471162776189179e-05 
0 
-5.148988923303475e-05 
0 
0 
-0.0006569155813869382 
-0.001864128014719945 
-0.0004895227097056660 
0 
-0.002608720110000202 
0 
-6.952236283629385e-05 
0.001049766854909437 
-0.0005866629135304478 
0.002348737466972072 
0.0003409029391046858 
-0.001716505016708753 
-0.001597403371253422 
-1.511160405898990e-06 
-2.609085741411561e-05 
-0.0001257273417576048 
-1.290751356082971e-05 
-1.698305444940741e-06 
0.002343368882107846 
-7.961709715594062e-06 
-0.0005603689125753140 
6.319746097877158e-05 
1.547606346843125e-05 
0.0001968700714545337 
0.001680550235473679 
-0.0002052331964233458 
-0.0001892685207158784 
-0.006755201933323739 
0.007564229036798930 
-0.003143968991999060 
-0.008079962302294805 
-0.01432275360651869 
-0.01719822986453622 
-0.07159900317497876 
0 
0.08108497472597373 
-0.06252382434230722 
-0.1467530591996363 
-0.02799516336628511 
0.02594625828101952 
-0.06042397298156169 
-0.01659776798582711 
0.03173178109668694 
0.01164768668397057 
-0.007881971460377480 
-0.004329924077589554 
-0.009301293498985331 
0.003461675833697738 
0.004687091725465928 
0.0002900173806355970 
0.0004425443537623736 
0.0001372536561314322 
0.001243846538051545 
-1.007230326115464e-05 
-0.0003070552809687330 
0.0001329081240204090 
-0.001819734505839381 
0 
0 
0.0003422996855373908 
0 
-0.001629939326754994 
-0.0009118670969987472 
0 
-0.001422150594800365 
0 
-9.914717557516812e-05 
-0.003908756055867067 
-0.0008019221436799367 
0.001476093657337645 
-0.0004771949062322994 
0 
-0.003309664511817744 
-1.080251981116315e-06 
-1.327906647152324e-05 
-1.322465818490158e-06 
-2.971128415823504e-05 
-1.214032484092976e-06 
0.002608025054419104 
-0.0001250520410965285 
-0.0001274271675482634 
-2.029543673824898e-05 
-0.0001256822512829680 
0.0004322375555393838 
0.001118233021926167 
4.580537187029585e-05 
-0.0004080639160069807 
-0.002583120780788531 
-0.001433702689276624 
-0.003396535743188544 
-0.006997773770660763 
-0.009712133169927445 
-0.01778467870099239 
-0.04409632486982693 
0 
0.07501478722808631 
0.006551022494152771 
-0.08248524960361363 
0.01605425707971725 
0.03077008058137603 
-0.05481508192624959 
-0.05347773247152988 
0.004477395627565599 
-0.005889943797470636 
-0.007308326618219444 
0.003136217587984928 
-0.004799949166207161 
0.01107387298565377 
0.008972008941891823 
0.0005474052519458417 
0.005877240891584381 
0.003062417029184478 
0.003024266044932035 
-9.112946416172577e-05 
-6.797350585836184e-05 
4.657889600774122e-05 
-0.003725092429103886 
0 
0 
0.0005694197705461931 
0 
-0.0005001484935234135 
-0.001133814708437082 
0 
-0.002199028180934624 
0 
-0.0002609226726387268 
-0.006502808659686481 
-0.0006276496098990436 
0.003857681321520363 
-0.001099313856936761 
-2.998806977104104e-05 
-0.002654363764944484 
0 
0 
-8.720068340630033e-06 
-0.0002948373840580188 
-0.0003227452929248338 
0.0002295562502911727 
-0.0005205015817593743 
-0.0004958379828855072 
-0.0007099265367681184 
-0.0006698529485519728 
-0.0006626202060551651 
-0.0007428731879684880 
-0.0004184906473862339 
-0.0001953279209682816 
-0.001162427814228027 
-0.006283021189648208 
-0.006710121738845834 
-0.01529077253411309 
-0.01204590373499010 
-0.02148836840108817 
-0.03291437308512729 
0 
0.04617767278392324 
0.02043759246102090 
0.03368712285270940 
0.06711733763373331 
0.03110464253917274 
-0.04488224276383773 
-0.1101205721525209 
-0.06213915974329105 
-0.01087148902680086 
0.01244473900785807 
0.01482103012209717 
0.01105963265392073 
0.02654762031558755 
0.01585418621580735 
-0.001080368937109827 
0.01819994485190875 
0.008312808731808540 
0.007712149060349079 
1.087125151096752e-05 
0 
1.694065894508601e-21 
-0.002959040159666989 
-0.001419101872279313 
0 
0.0003418255202305008 
-3.805113899269078e-05 
-2.941243299981429e-05 
-0.0007963195049087549 
0 
-0.001419177204629020 
0 
0 
-0.003855856071031635 
-0.0001184747402330751 
0.003465435746573765 
-0.004159725623424013 
-0.0001842765487413371 
-0.0005509294943594016 
0 
8.325711990035243e-05 
-7.099375521625636e-06 
-0.0002856689859631201 
-0.0003161806080011184 
-0.004226233040104877 
-0.0004952166689668435 
-0.0007090738239341840 
-0.0009611872497516722 
-0.0009070551279647165 
-0.001085941122486877 
-0.001410879543953048 
-0.003368692335755395 
-0.0004922874657765243 
-0.003353439718211052 
-0.006744448235402645 
-0.01307805047949111 
-0.02569264694765317 
-0.01578628693484721 
-0.02837797607320345 
-0.06109996090526435 
0 
0.01299487891492106 
-0.009764215656105002 
0.1202175580528499 
0.09934770228190413 
0.04790880444922125 
-0.03032721197136306 
-0.1476772690057688 
-0.1095641077919615 
-0.007055378560984326 
0.02494179834928808 
0.007460525959238708 
0.02925344787409968 
0.04045645976210325 
0.02096354820844799 
-0.001885828148766336 
0.02154921451200924 
0.008885656641509337 
0.009231643819520130 
5.908575447258702e-05 
0 
4.507863783490332e-06 
-0.0006113896611377778 
-0.003251359539825686 
0 
0 
-8.489229686014584e-05 
0 
-0.0001645335940010885 
0 
-5.110689305593872e-05 
0 
-6.977169799899299e-06 
-0.0001840009818225345 
-1.507322272874207e-05 
0.0006991706624122466 
-0.006510586745298706 
-4.932507496122002e-05 
-8.470329472543003e-22 
-1.706079397432342e-05 
3.049910961834799e-05 
-3.141126429253087e-05 
-2.285641546349816e-05 
-2.260642306061411e-05 
-0.006365156205772419 
-0.0001841138074728271 
-0.0003102086628055794 
-0.0003757375467334222 
-0.0004995924139219268 
-9.278162658037180e-05 
-0.001053039965898863 
-0.008561136615831392 
-0.001696837056433066 
-0.004007053996640906 
-0.004474094608447990 
-0.01459198707647512 
-0.03132901652396033 
-0.02047987382335153 
-0.03937604941559550 
-0.1054641713111969 
0 
-0.02912807462490893 
-0.03083979757269257 
0.1396140167408846 
0.1134150210731408 
0.08643088079189719 
-0.03452693211792932 
-0.1420000937897306 
-0.09149265564968882 
0.02287253521856437 
0.03496536285212502 
0.02049969617470830 
0.04744015559038053 
0.05180273981111069 
0.02754783652204892 
0.01090689164911100 
0.009179876233322400 
0.004634141910400222 
0.007088017290977703 
0.0006998586157357566 
-2.164326664528986e-05 
4.481725696042191e-06 
-1.567009674075156e-06 
-0.002790754107100743 
0 
0 
-6.267938556099511e-06 
-4.535660635476891e-05 
-1.191071035385697e-05 
0 
-0.0001117300899862527 
0 
-8.166056655721831e-06 
0.0001337191821134148 
-6.028563050628265e-06 
3.073846052309814e-05 
-0.004825798686830763 
-2.900934504624423e-06 
0 
-2.132185230240857e-05 
-4.128666527665552e-05 
-7.355401258079726e-05 
-0.0003389391946128911 
-4.147620879289123e-05 
-0.004814301915043799 
-0.0003556748532399940 
-0.0009432210950011697 
-0.0009432372948945401 
-0.001399355562435255 
0.002333314420811149 
-0.002590185947637802 
-0.01179499557575101 
-0.01381554961739209 
-0.008971056306677562 
-0.01080224747992041 
-0.01597441620643559 
-0.04151123069511740 
-0.03726751696303531 
-0.07318116079934880 
-0.1408053712055219 
0 
-0.09865784921373018 
-0.01877285675753175 
0.1400847255735316 
0.1261875103985155 
0.1371634179349740 
-0.05337060738405265 
-0.09167590957401649 
-0.009487909286679239 
0.1164164394240437 
0.08463250057908270 
0.08203025921889498 
0.06827971951688627 
0.06704864476253439 
0.03762325079588681 
0.02743579730552888 
-0.004681925882852175 
0.006444994251707512 
0.005276029636956167 
0.0001389711118503285 
0 
5.623392625141542e-06 
0 
-0.0007090433362987108 
0 
0 
0 
-5.648966649471197e-05 
-1.483426803014665e-05 
0 
-7.308945882903167e-05 
0 
-1.410716573741004e-05 
0 
-2.893192342686682e-05 
0 
-0.001068547088391381 
-9.166181629572668e-06 
-0.0001193914828478754 
0 
0 
-0.0001147157702672303 
-0.003718983538466141 
-0.003773540694714751 
-0.005506984410744481 
-0.005423482690875215 
-0.006090468595431148 
-0.007663774239044990 
-0.007399886205739354 
-0.001615706595033756 
-0.009268264275370516 
-0.01556819107825198 
-0.03494824064389215 
-0.03354660205279228 
-0.03260956900502727 
-0.03097085590298138 
-0.05617155375082574 
-0.06382842153875591 
-0.1182172942033476 
-0.1697276552040025 
0 
-0.1136254532721368 
0.05420114893311627 
0.1722414715315276 
0.1537963812546317 
0.1590778467229008 
-0.07304820878204127 
0.007097723198935636 
0.1077891504159179 
0.2394279675747552 
0.1686895165629913 
0.1368265545281040 
0.09424503175711163 
0.07927181727898845 
0.04513659521371066 
0.02540023440174659 
-0.007881401215908697 
0.01179603061862719 
0.002998010016014930 
-0.0009121611056198629 
0 
-1.694065894508601e-21 
-0.0001324447590397699 
0 
0 
1.943165564413390e-05 
0 
-2.111717679124687e-06 
-3.564275550696761e-05 
0 
-8.508377354687160e-05 
0 
0 
-0.0002339352663764718 
-1.248228217439727e-05 
0.0001483959417958416 
-1.301554969784647e-05 
-1.285477876997142e-05 
-6.027795331816321e-05 
0 
0 
-7.134571226536830e-05 
-0.009947854748797601 
-0.01097046822797749 
-0.01302733447256354 
-0.01477717801048472 
-0.01712094734133730 
-0.02487457230362700 
-0.02379009929562159 
-0.01830707755143161 
-0.02235613288528195 
-0.02937491817560875 
-0.06823831325860940 
-0.07253799549437070 
-0.05754838724810631 
-0.06799435117617106 
-0.06925454090234032 
-0.06980762828038363 
-0.1476152556466630 
-0.1780865684077825 
0 
-0.07280070945044646 
0.1658906262090240 
0.2085834888331982 
0.1739042029349026 
0.1344526927947491 
-0.06130422639928044 
0.1360341456052286 
0.2356551956828038 
0.3258594924298131 
0.2326828764171045 
0.1167459621037694 
0.1057563465005175 
0.06031209814517720 
0.03547649504240249 
0.01707394934845923 
-0.002536754881911589 
0.01369277261329354 
0.0008839551133162698 
-0.001023059347402189 
0 
0 
-6.686824564200215e-05 
0 
0 
0 
-6.319398111823674e-06 
0 
-1.799518945013203e-05 
0 
-4.046282419828178e-05 
0 
4.740542681250317e-06 
-0.0001387915570515794 
0 
7.581049303928854e-06 
9.647998420900947e-06 
-1.294867194843884e-07 
1.323488980084844e-22 
-0.0001859767307842757 
-0.0004962410580154065 
-0.0003482791739079758 
-0.01020593073879961 
-0.01110838950322564 
-0.01381201395966869 
-0.01733107321764459 
-0.02090064208321311 
-0.03605908817619085 
-0.04004579844869960 
-0.04557311359100178 
-0.04990271983235436 
-0.05211238699298181 
-0.1066347277169474 
-0.09960384441513577 
-0.07642076695866305 
-0.1073652522903397 
-0.09360759728454027 
-0.09518754494472745 
-0.1359480981802069 
-0.2149521118521137 
0 
-0.05050892692634802 
0.2488240546307128 
0.1869551576267232 
0.1626133313169624 
0.1093195278474696 
0.002412402599687996 
0.2352182975654314 
0.3265974732820656 
0.3514952650647232 
0.2414908129690407 
0.07427737285090429 
0.09275040830836495 
0.02655910184582573 
0.02450441728176885 
0.009007985107957300 
0.0007880363428097859 
0.008339960909664991 
9.561654882514482e-05 
-0.0003253941411224479 
0 
0 
0 
-0.0001109859525037830 
0 
0 
-3.759112542523725e-06 
0 
0 
0 
-1.156663092622000e-05 
0 
2.011467233509203e-05 
1.085061413707395e-05 
0 
-0.0001997778512398516 
-0.0001608535869961973 
-5.836191035258525e-05 
0 
-0.0006190509563798328 
-0.001925117717182939 
-0.001781246585612406 
-0.005903892225471216 
-0.004761967474796512 
-0.008315487038040395 
-0.01656725726759264 
-0.02552559682850331 
-0.04542744627783758 
-0.05668796315756916 
-0.07721787647710422 
-0.08715105630154753 
-0.06633783629834451 
-0.1110356586728935 
-0.1250996078986197 
-0.09149667864127377 
-0.1127612235570963 
-0.08881013154216251 
-0.1180502204558823 
-0.08761590908620226 
-0.2539719247914574 
0 
-0.03545705399592174 
0.2446373810161562 
0.1302268788521414 
0.1217958538584534 
0.09835324198707570 
0.08406987918263813 
0.2352112449774823 
0.3029937684669063 
0.3153101279708502 
0.2031267648959609 
0.02928064176974897 
0.07449370557556520 
0.01563191318107064 
0.02103237005981654 
0.005708647279454645 
0.006178992206439714 
0.003562940267755592 
0.0003182737740701775 
0.0001269214811049264 
0 
0 
0 
-7.037770735027442e-05 
0 
0 
0 
-5.033651055432125e-06 
-1.321844039095194e-06 
0 
-1.311914607194118e-05 
0 
0 
8.229304180929490e-08 
-1.512555197805264e-06 
-0.0001118839924056524 
-0.0001930235783072874 
-8.323474457534490e-05 
-7.199197459719982e-06 
-0.0006680800934307380 
-0.002167613847511882 
-0.003917017970515153 
-0.008678929549684036 
-0.001532655984312361 
-0.008262974089029125 
-0.01902460802828404 
-0.04252414271478497 
-0.06321811466301820 
-0.08775355402381625 
-0.1175574705119297 
-0.1260017887723552 
-0.09498801716284552 
-0.09094597881043615 
-0.1532314077638071 
-0.08853172726891748 
-0.1144342545776547 
-0.05025589260489145 
-0.1475517679852920 
-0.07421623913759602 
-0.2337531141132681 
0 
-0.07253982611255755 
0.1885256244741137 
0.07546903422229558 
0.07028422244104100 
0.06618271898001930 
0.1329020559161893 
0.1735983008922604 
0.2066566016241970 
0.2364120272111438 
0.1499176466345083 
-0.01576428640857950 
0.06020145573185596 
0.01917186890215899 
0.009465516228101307 
0.0009141005096513545 
0.007681235099516577 
0.001548095971805629 
0.0003473902360322182 
0 
0 
1.323488980084844e-22 
-8.102838175008236e-06 
0 
0 
1.395130105647483e-06 
-1.505903203098095e-05 
0 
-2.180588209591746e-06 
0 
0 
0 
0 
0 
-1.210270162430264e-06 
1.922247039845027e-05 
-4.081710944011363e-06 
0 
-5.760433663237854e-06 
-0.0002613744097010354 
-0.001282845863922352 
-0.003315219479288893 
-0.01114307167922885 
-0.003022513081187662 
-0.01182653462474085 
-0.02494841782654452 
-0.05963583213721231 
-0.08304904989823102 
-0.1189083253228676 
-0.1518452767004857 
-0.1613321522928564 
-0.1166699260487661 
-0.03252952183039700 
-0.1252375712058497 
-0.05203884986499644 
-0.09650126036165514 
0.01980352096751153 
-0.1545788715567887 
-0.09830468256545638 
-0.1877945650052174 
0 
-0.1301661374892570 
0.1228654423343298 
0.03243211156868776 
0.02578208615407284 
-0.001046530930025535 
0.1215434815234753 
0.1152535624462897 
0.1209315240166890 
0.1489722205149556 
0.09697021038038951 
-0.05516183830668387 
0.04283791068050920 
0.02444814586318933 
-0.001956806653471113 
0.002716925029513947 
0.005449351398243179 
0.001861711031742010 
0.0002737158787669648 
1.115892330155033e-06 
0 
0 
-6.483481256381812e-06 
0 
0 
0 
-2.357314153429389e-05 
0 
-1.744796388551948e-06 
0 
-6.170379720608740e-06 
0 
9.499288050111007e-05 
-1.649737778215542e-05 
0 
1.168296291080617e-05 
-4.035294600036324e-06 
-1.153481457261337e-06 
0 
0 
-0.001123522013552158 
-0.002594637919551863 
-0.007749546505895657 
-0.004147151445174103 
-0.01556691318143734 
-0.03301697442010058 
-0.06230166022382173 
-0.1005332048431326 
-0.1443946232956744 
-0.1669925759557778 
-0.2167844563550632 
-0.1321249231769292 
0.01204295632086852 
-0.03234678035805366 
-0.001805407607697879 
-0.07395413899389935 
0.08946778520877482 
-0.1069748675785520 
-0.1175294851993985 
-0.1433590114100993 
0 
-0.1087127843318998 
0.09574680587245181 
0.02141111982369149 
0.008520993058996408 
-0.03852743228256379 
0.07056085677927626 
0.05895531775418113 
0.05533398544262849 
0.06914768701996267 
0.04775437688944078 
-0.06730821556529515 
0.01782563023634792 
0.01751292832515250 
-0.002942973848489469 
0.005486354412544131 
0.001562377275486918 
0.001503776197356956 
5.218555702769631e-05 
-2.612152385737158e-05 
0 
0 
0 
-6.288623880950157e-06 
0 
0 
0 
0 
0 
0 
1.352644364199783e-05 
0 
0.0002817913972790527 
0 
0 
-0.002012028616488886 
0 
-0.001176937031408940 
0 
0 
-0.004532163562742290 
-0.003769421669543978 
-0.002236748268027007 
-0.005745510968955297 
-0.02700236896617092 
-0.05699945287179358 
-0.07090478487863895 
-0.1297556164700678 
-0.1667746363566079 
-0.1857948194463281 
-0.3061761538574860 
-0.1559773755285649 
0.004105716821352268 
0.007519253402371642 
0.03359181866864453 
-0.06990092702123481 
0.1193296474495746 
-0.03519021123140161 
-0.08530542631384050 
-0.1013639116628927 
0 
-0.01989172018606427 
0.07657261345924943 
0.04252551072559523 
0.01009536597084042 
-0.008092662761048306 
0.03020740084898984 
0.02960311509488550 
0.02132723332477979 
0.02732136222547073 
0.02026472989028344 
-0.03045526971778245 
0.005880509792581290 
0.009829993813418827 
0.001251118816931486 
0.005055463707561655 
2.298995962289801e-05 
0.0005202309334532425 
0 
1.374784086583275e-05 
0 
6.773041757725961e-06 
0 
-6.489842956998553e-06 
0 
0 
0 
0 
0 
0 
0 
0 
0 
1.146194207752709e-06 
-1.583958007154584e-05 
-0.005700517571307754 
-1.749084756302268e-05 
-0.002748619450319998 
8.592343604112968e-08 
-1.503786720240775e-05 
-0.005699509915280834 
-0.004972169935124616 
-0.0008623615377737918 
-0.009035980980414830 
-0.03689998683893575 
-0.07250397416165331 
-0.07771966595020219 
-0.1301914318272956 
-0.1471266713678532 
-0.1884014018969880 
-0.3242863886874542 
-0.1891979427719817 
-0.02877080573944585 
-0.007203822980853232 
0.06495315181436373 
-0.03368318885703312 
0.09997032026128921 
0.008176264863335230 
-0.04292329529121005 
-0.07199553863960542 
0 
0.02580162544758231 
0.02427294944936619 
0.06316444852375937 
0.01873903122563031 
0.02105488633616531 
0.01511860646118182 
0.01658522774124923 
0.01303975570616572 
0.01299869130556514 
0.01117494245603841 
0.004081233756742918 
0.003107540707155748 
0.005000313151070438 
0.002539673480769574 
0.001994258179275969 
2.086601359870022e-05 
0.0001768302473406339 
7.731445528273782e-06 
0 
0 
1.102958743412167e-05 
0 
0 
0 
0 
0 
0 
0 
0 
0 
0 
0 
0 
0 
-0.005937496741190547 
-3.591075809260748e-05 
-0.002051864972515359 
0 
-2.101115102905660e-05 
-0.002719220511247160 
-0.006856047128608725 
-0.0009000188593040998 
-0.01300143228613595 
-0.03526664558364191 
-0.06138939732927078 
-0.06513511796851056 
-0.09546585995344926 
-0.09800452690983814 
-0.1632309561551359 
-0.2319079683149119 
-0.2041827759427970 
-0.06163058316060133 
-0.03935606708699785 
0.06546727708666979 
0.04051515524617235 
0.05626488970709797 
-0.03238777517928507 
-0.04522993519158511 
-0.04535526105228756 
0 
0.01338771000499081 
-0.001006580431925573 
0.03936763140553698 
0.03694035401900072 
0.03043828821625043 
0.004728010187759298 
0.01119891243447271 
0.007657745130180749 
0.003919112597324173 
0.001687705919279746 
0.001017465015945570 
0.0007234351000096848 
7.285194537896816e-07 
0.0003734065100281702 
6.633770240399437e-05 
1.383332768722668e-05 
0 
1.080250061268498e-05 
0 
0 
0 
0 
0 
0 
0 
-0.0002756998003494862 
0 
0 
0 
2.668238888318984e-05 
0 
0.001882931993526921 
0 
0 
-0.002315880872505237 
-7.392153189074054e-05 
-0.0002128765252680589 
0 
0 
-0.0007788319596625042 
-0.004914384130687359 
-0.001431408289076329 
-0.01378144241607166 
-0.02482266786122550 
-0.03543175259264657 
-0.03324876830217829 
-0.05763242615070237 
-0.06090632389650080 
-0.1221572275762485 
-0.1089629998216877 
-0.1718158450167148 
-0.08021757458518590 
-0.08299664668014366 
0.04004672252990196 
0.04335107504691415 
0.01721665863365602 
-0.1160507178995502 
-0.05468625693642507 
-1.920523979034120e-05 
0 
0.003979600604412073 
0.01226777501249333 
0.02135652013968613 
0.03724667327504858 
0.02499643507499136 
0.005859642944812593 
0.006340143839613168 
0.004448178204930140 
0.002509549759374728 
0.002270751468536109 
2.373990234039965e-05 
0.001130955194143445 
0.0004690215893844819 
-0.0001045017210313184 
2.124056032453438e-05 
0.0002794899200920106 
2.190457446712434e-05 
9.591777846262878e-06 
-5.350188137307734e-06 
0 
0 
0 
0 
0 
0 
-0.0002625199943777460 
0 
0 
0 
0.0001854602771787902 
0 
0.006592960934947581 
0 
0 
0 
0 
-7.927993766676426e-05 
0 
0 
-1.915961867233786e-05 
-0.0006090675465081866 
-0.0009569486864508081 
-0.01026574153361533 
-0.01417735524720125 
-0.01653521545402829 
-0.009952484503596126 
-0.04722447650322096 
-0.06302952143580676 
-0.09015904087168024 
-0.03966636739945562 
-0.1058977618828551 
-0.05952100921218417 
-0.1182930838833030 
-0.009002177283684016 
-0.03581245267500898 
-0.01358818477576629 
-0.1537477916529249 
-0.02955325282098511 
0.03276133540298598 
0 
0.02132875236716935 
0.04407594619027095 
0.03116787623305918 
0.01952765376365160 
0.01959080869756704 
0.01081987446255760 
-0.007246050741169708 
0.001561598594784341 
0.001999417869889988 
0.0001764532699184539 
-0.0008693528498475349 
0.0001251575723067545 
0.001321950219448340 
0.0001635683110512068 
0.0006376625777686302 
0.0003351314848841916 
0.0001043050091930054 
1.021444304972380e-05 
4.294985676359100e-07 
-2.789902989472616e-07 
3.698998766832040e-05 
0 
0 
0 
0 
0 
0 
0 
0 
0 
0 
0.006686775138440345 
2.016134110645216e-05 
-0.0002206168903157311 
0 
0 
-0.0001446813885863042 
1.196759079408268e-06 
0 
-0.0001681281591661434 
0.001292341441529543 
-0.0001842844377299460 
-0.005198023681885538 
-0.01013967044832461 
-0.01281062383596507 
-0.01049029894919242 
-0.03861751277179667 
-0.05705983024927600 
-0.05558459199367052 
-0.01784683527658419 
-0.04521602778407777 
0.0001867893654682913 
-0.1111026942152610 
-0.08371519188819158 
-0.1090559260872543 
-0.04755647906238452 
-0.1089086526944641 
-0.007761789624476470 
-0.004114275494788422 
0 
0.01676019593720135 
0.05991452626689377 
0.04356451158151736 
0.02510150831983065 
0.02699371304112653 
0.02094482707509809 
-0.004719458582222284 
0.01176328933076891 
0.01174773169419344 
0.0002466622732301449 
0.006329989891146141 
-0.001548797881432166 
0.004041498780625014 
0.002520461697725674 
0.003134863695148058 
0.0001628250574441740 
5.667467659815918e-05 
-1.985563762397917e-05 
1.929175103943210e-06 
0 
0.0001660847245477738 
0 
0 
0 
0 
0 
0 
0 
0 
0 
0 
0.002318222805897084 
3.357532191778760e-05 
0 
0.0001497832288312369 
-6.985226636144308e-05 
-0.0001580998176279504 
0 
-1.732719728312194e-06 
-2.855969618018816e-05 
0.002623228520917844 
0.0002103725316744511 
-0.001974744436654769 
-0.007343084287160216 
-0.01410901199617096 
-0.01755250543831524 
-0.01933032414058509 
-0.03087559282760974 
-0.01316106542240551 
-0.02726656750204140 
-0.02609985035987272 
0.001595052618177694 
-0.07352491162960588 
-0.1368161790174674 
-0.1521184138595129 
-0.06999619704885525 
-0.02681647261927349 
-0.02430675243956574 
-0.06984273848802827 
0 
-0.03957253673199564 
0.02780693617291185 
0.04332029877100898 
0.04316050121570993 
0.05979530672976719 
0.04558238617363730 
0.01795019289004189 
0.02863900908128039 
0.02433388390216042 
0.002549651804943805 
0.01173577742577506 
-0.001486194459474022 
0.004585614762466892 
0.004004598400582563 
0.004142479784516754 
-5.942095123338530e-05 
-5.559969530414672e-06 
8.908462892308377e-07 
0 
0 
0 
0 
0 
0 
0 
-0.0006905385452800118 
0 
0 
0 
0 
0 
0 
2.016134110645078e-05 
0 
0.003316944244436446 
-0.001222705428268669 
1.049625702737633e-06 
0 
0 
-6.433478255851369e-05 
0.001422908524100152 
0.003682395000700447 
-0.004726451582444983 
-0.001041556655593567 
-0.009908378029882998 
-0.01460507307197354 
-0.006077451745603284 
-0.004597613661787732 
0.01029537289846459 
-0.03549548105186275 
-0.03049094410854957 
-0.05297306811188612 
-0.04503797621290788 
-0.1275360421950129 
-0.1357255751834846 
-0.07645269209244268 
0.001541978154279468 
-0.04651343886485259 
-0.09957885633147007 
0 
-0.1128408039481762 
-0.02041570826744104 
0.03880435758549979 
0.05835230591052137 
0.1011749240567150 
0.1036598191442965 
0.05851704569192821 
0.05232686765988090 
0.03922054644897242 
0.01189131343996604 
0.01529914449023258 
0.003762222415843573 
0.002490328368310116 
0.003612968634249685 
0.002270609572203221 
-1.857709282835078e-05 
-6.333603626984656e-06 
5.929230630780102e-21 
-1.956609367579960e-05 
4.235164736271502e-22 
-2.323679011418562e-06 
0 
0 
0 
0 
-0.005711022691557851 
0 
0 
0 
0.002960709342619337 
0 
3.333638224775777e-05 
0 
0 
0.005858900192019207 
-0.002029211152724417 
0 
0 
0 
-8.154536014276590e-06 
0.0003016537395548800 
0.002811228529507641 
-0.01218777910823982 
-0.003396417129881485 
-0.007096849301663070 
-0.008629302647348190 
-0.003222283055881583 
0.008391831687442066 
0.003993255547987133 
-0.01344704919617528 
-0.02212285988570836 
-0.05483437329892883 
-0.02492095033243583 
-0.08364869881759279 
-0.08818568975569406 
-0.05295816425671246 
-0.01727147451189686 
-0.05574395127156689 
-0.1087485893978811 
0 
-0.1409340711500950 
-0.03869427058654554 
0.03798960032871028 
0.04663395519624706 
0.1124401767561368 
0.1589418817633015 
0.09691053207594802 
0.07676327811087080 
0.05872911038409000 
0.02268284601019225 
0.02315278622837697 
0.01547974473970503 
-0.0008645352696724711 
0.004773354670867893 
0.0004474182207374157 
0.002146165141848069 
-2.995081499550675e-07 
0.0001162092613391343 
-2.299482387819894e-06 
-3.596239259256095e-06 
0 
0 
0 
0 
0 
-0.009382895080362103 
0 
0 
0 
0.005137177228437448 
0 
0.0001253571947550069 
0 
-0.003880609716464309 
0.004133845031584023 
-0.001427829794607041 
-0.0005657147438430583 
2.105076771398701e-05 
0 
-1.140509558344996e-05 
0.0005944175706487680 
0.001231792816805595 
-0.01115669139815764 
-0.003153004279393338 
-0.003161135364114852 
-0.003225963308507229 
-0.004872856106925332 
0.007726844303388803 
-0.001404793404926464 
0.005702973465185000 
0.0003058610601356055 
-0.02461005027073569 
-0.002568963305372646 
-0.02978788363998523 
-0.05997316789207019 
-0.01723146838694183 
-0.02582218550690672 
-0.05128924959139108 
-0.1187850358885664 
0 
-0.1318792248604179 
-0.04669423970269445 
0.05578803255737980 
0.06676651173735328 
0.06146033382097129 
0.1763037737091550 
0.1418507353449963 
0.09866231432505917 
0.05892817041225620 
0.01787196667063007 
0.02833417998403573 
0.02271576140827089 
0.002544239978938151 
0.007836520729167747 
0.002201141997230598 
0.002878661438577100 
1.322111084692427e-05 
-0.0002011886706700195 
0 
-8.671688352343143e-07 
0.002260627593811087 
0 
-4.065758146820642e-20 
0 
0 
-0.007543338657136999 
0 
0 
0 
0.003488410665518628 
0 
0.0001362922205421474 
0 
-0.006462502656924956 
0.0006746727820091832 
-0.0002330319333218961 
-0.001120106320580289 
3.505651230649912e-05 
0 
-4.336808689942018e-19 
0.0006356150868784985 
0.0007018171396222594 
-0.003449415565022900 
-0.0001535530958205144 
-8.560318919645828e-05 
-0.0003396324099703932 
-0.003894152378899911 
0.001839700539439137 
-0.004092112772325109 
0.008760322146217655 
0.01448361870966244 
-0.005847009150461691 
0.003858253990951844 
-0.001883991829357739 
-0.05398065858944041 
-0.01327936238975436 
-0.03133804743267590 
-0.03630230184458826 
-0.1071184696430907 
0 
-0.1190275868424386 
-0.05348179991949442 
0.07778652853800501 
0.1106885649624489 
-0.03657353838010698 
0.1434899100778016 
0.1785329265877183 
0.1255220204616642 
0.05624015297584646 
0.009370383936596373 
0.02278520007954225 
0.02538212946803992 
0.008823872130704670 
0.01202370624861863 
0.003661884428820565 
0.002865156158552156 
0.0001099029075326662 
-0.0001579027397372420 
0 
-7.797138208889994e-06 
0.004435538632906799 
0 
0 
0 
0 
-0.002440311035448561 
0 
0 
0 
0.0003742770418385005 
0 
1.960852256654744e-05 
1.146194207738231e-06 
-0.003880609716468104 
-1.702826563055475e-05 
0 
-0.0008892541615914757 
2.105076771400750e-05 
0 
-4.912030653884344e-06 
0.0003543409737464005 
0 
-0.0007281930397229694 
1.634904306414053e-05 
-2.632379214046161e-05 
-0.0002235578522794937 
-0.0008175774891659234 
0.001992618088993908 
-0.008188956675665089 
0.004725856626658220 
0.0006672296638742313 
-0.001749453370657647 
0.0009114008588912016 
0.005866949791892841 
-0.02265239712287587 
-0.01490078323845230 
-0.01361667777769652 
0.001100787802864807 
-0.06827154404823793 
0 
-0.08874294870083128 
-0.04288830957402641 
0.1040625105461352 
0.09723900636068367 
-0.09465139819118178 
0.03795986913342461 
0.1723400091828097 
0.1597648677670844 
0.05648245088942776 
0.009776305023887209 
-0.002549131644914024 
0.01361180040383633 
0.008374009742649942 
0.01358579896756482 
0.0007740285691407874 
0.004922057331825344 
-0.0002601672613533823 
-1.170837153119299e-06 
-0.0002690713998361514 
-1.602120146836648e-05 
0.003585008697084864 
0 
0 
0 
0 
0 
0 
0 
0 
0 
0 
8.769368065350515e-06 
0 
0 
-6.698003278461821e-06 
0 
-0.0002058943716750191 
0 
0 
-1.932128505476603e-06 
0 
-0.0001482677996488490 
-0.0001810198655188927 
-0.0001659368479116628 
-0.0003769769561166849 
-0.0002138639541206989 
9.273854234606387e-05 
0.002188836859216722 
-0.005020069897561522 
0.001148441297721106 
-0.0007391185764283976 
0.001525140278096940 
0.006530809786213743 
0.01124244700411336 
0.01849317619920050 
0.005672027309565244 
0.01940449675769608 
0.02363176332030628 
-0.01022187001018762 
0 
-0.06630114570293832 
-0.01318355266482732 
0.1273728027376935 
0.04653774236667449 
-0.03405289871245222 
-0.1191110515460086 
0.1174972045871700 
0.1721500573160885 
0.04795758331246724 
-0.03454004401298826 
-0.04275301185590025 
-0.03731663706775306 
-0.01594615098905105 
-0.002859454426311343 
-0.004533691136238561 
-0.0006825884128556282 
-9.664328531758881e-05 
0.001660868168350384 
-8.337210665517293e-05 
-5.007811037254195e-05 
0.0009456302048191157 
-4.983425827568099e-06 
0 
0 
0 
0 
0 
0 
0 
1.480884834614582e-06 
0 
5.661575826219179e-06 
0 
0 
0.0001978052952872547 
-6.832193562755832e-05 
1.846271921847792e-05 
0 
0 
0 
-9.590482672307311e-06 
0.0002050108548340403 
-3.220902408844225e-05 
0.0001053405819014134 
-4.828899556183717e-06 
-5.391213648960384e-05 
0.0003819225806284772 
0.004458934203293062 
0.008043976918356923 
0.008685744861566846 
0.01631384174800787 
0.02581177808184498 
0.02968271918096078 
0.03223035152140865 
0.03990847479769585 
0.03573898474597379 
0.04781951028846239 
0.04722916052586394 
0.05350200820225808 
0 
-0.05925716037490045 
0.02896446802004795 
0.1281451886678993 
0.01855733183372381 
0.08414084240884512 
-0.2084904382538852 
0.03503385460362363 
0.08640401021303020 
-0.01263843893683403 
-0.09409739313500359 
-0.09856593185665331 
-0.1034018202205375 
-0.05657757485157928 
-0.02915913573012304 
-0.008777790561762195 
-0.01310679108914790 
-0.002068251323136080 
0.001521383899417103 
-1.995666709236946e-05 
-0.0001245285407952312 
0 
-1.170960547069643e-05 
0 
0 
0 
-3.956319581347249e-05 
0 
0 
0 
0.0001883990560286635 
0 
9.940398386382617e-06 
0 
0 
0.0001210620065050814 
-4.181480886733444e-05 
-2.715194575742348e-07 
0 
0 
0 
-1.066196400589404e-05 
0.0001259327386370955 
-0.0002814243236754983 
2.188392639134514e-05 
0.0009308985390812450 
0.0001253489989269910 
0.0002562887539412573 
0.003322850652653676 
0.01571023009016581 
0.02369121300284248 
0.02895630386785107 
0.05481309626964832 
0.05946313937111017 
0.04896663621349671 
0.04201760732683516 
0.04410733958558723 
0.07625137216302376 
0.08096563371636217 
0.09891501608951288 
0 
-0.03492458525231048 
0.05599108882981969 
0.1029901791590881 
0.01438110510976135 
0.1461873632070836 
-0.1342574327523807 
-0.06195955001917287 
-0.05265380925647901 
-0.1111703739162398 
-0.1379340424735386 
-0.1781939626473719 
-0.1550537588348084 
-0.1006736656320430 
-0.04128711580382408 
-0.02027865206472069 
-0.02583641656072835 
-0.006171859158571848 
-0.004193610730997217 
-0.0001001153503013421 
-0.0003050210711404584 
-7.265390640205405e-05 
0 
0 
0 
0 
-0.0003421729253690108 
0 
0 
0 
5.746366047990407e-05 
0 
0 
8.229304160801621e-08 
-0.0002206168903575113 
0 
0 
-3.157132873852101e-05 
1.152806979873857e-05 
0 
-6.776263578034403e-21 
1.897083918305798e-05 
-1.023619569796192e-05 
-0.0001833308069964502 
0.001063707177620820 
0.002608159369587811 
0.0004520221473349077 
0.001883687450677358 
0.004039083872674725 
0.01537160429004984 
0.04673410340750609 
0.05533126795336706 
0.07624301645156879 
0.09956316903945128 
0.08283636255072634 
0.06899147611902082 
0.07864176195019934 
0.1140714736479433 
0.1205865550085062 
0.1410163970244167 
0 
-0.01244548343428708 
0.06460248005669719 
0.08144543196861105 
0.03875916899758391 
0.1294277627241813 
0.001803906715077192 
-0.1473831622194156 
-0.1650243404398989 
-0.2224010636716838 
-0.1925950523730668 
-0.2810502287628421 
-0.1912968285330508 
-0.1352728914040063 
-0.05312136316796291 
-0.04350443979162143 
-0.03605164397338562 
-0.009163737700160894 
-0.009737339692258241 
-0.004173626733735834 
-0.0001765827729793288 
-0.0005206099902885775 
0 
0 
0 
0 
-9.136520797721149e-05 
0 
0 
0 
0 
0 
0 
0 
0 
0 
0 
-3.016801979239892e-05 
0 
0 
1.016439536705160e-20 
1.869446211702787e-05 
0 
-0.0001855422466509277 
0.004941590790592962 
0.003460832014509598 
0.0003451947999927919 
0.009427427346798424 
0.01575378842969686 
0.01515498792960520 
0.07136148828393790 
0.09704984156360874 
0.09612743554548045 
0.1364252125419568 
0.1232734807037711 
0.1242494477768500 
0.1286247025745817 
0.1486759423246394 
0.1381744973361568 
0.1479230930757485 
0 
-0.02388347411296037 
0.06210480653924866 
0.07081461338177310 
0.05258861342664424 
0.05447280929916404 
0.06546068098142010 
-0.1753227963769543 
-0.1819641783815021 
-0.3081308287910241 
-0.2663160543070220 
-0.3576085744899609 
-0.2327453569651501 
-0.1587384358493242 
-0.07104777600885599 
-0.06179903808643378 
-0.04618243026358991 
-0.01245716303757703 
-0.01211590514423948 
-0.007928120649561247 
-2.120649286137300e-05 
-0.0008275012140751602 
-0.0001282039717112682 
0 
0 
0 
0 
0 
0 
0 
2.062606493714484e-05 
0 
0 
0 
0 
7.604270970123740e-06 
-2.626514679300300e-06 
-2.260338415919725e-06 
0 
0 
0 
-4.651474411920475e-05 
7.910216394489191e-06 
0 
0.008096211870576740 
0.003382056421390779 
-0.0001328068030087550 
0.01850286294225322 
0.02891377837199786 
0.02852702153291841 
0.08544415597886877 
0.1252552558266773 
0.1186789405610890 
0.1575556521059433 
0.1511647304635591 
0.1719776687089661 
0.1570145340106180 
0.1701593047338025 
0.1411583883613887 
0.1488154205047010 
0 
-0.04918624179335558 
0.05004251163173380 
0.07943177324899234 
0.02560389872532757 
-0.06023217330394998 
0.06357248326368281 
-0.1741335666609157 
-0.1607597229367540 
-0.3404944908364923 
-0.3391024327165827 
-0.3784953312197035 
-0.2806987814270562 
-0.1806873024022985 
-0.09875696390471114 
-0.07080345031674130 
-0.04759886860869849 
-0.01687391500991738 
-0.01351601053558919 
-0.006382240240639390 
-0.0007079425399988461 
-0.0005692885375892646 
-8.732771920674870e-05 
0 
0 
0 
0 
0 
0 
0 
1.277681852896366e-05 
-4.235164736271502e-22 
0 
0 
0 
1.325446187267322e-05 
-4.578090235287329e-06 
-7.949020377311878e-06 
4.817575401259457e-05 
0 
-9.539605803815456e-06 
-0.0002669932225947948 
1.378773350098618e-05 
-1.153357766672646e-05 
0.005958517603958898 
0.006608171558712867 
0.001892169658986452 
0.02137147932657815 
0.02921219175613668 
0.04981901505489551 
0.08594612005252260 
0.1276882464012912 
0.1441295421904029 
0.1786653201415732 
0.1817407131393080 
0.2033976762943808 
0.1600985720838437 
0.2010099591634504 
0.1596289322143424 
0.1934226953432426 
0 
-0.08185137938382689 
0.01637501180722997 
0.04300114961261393 
-0.06853693625107482 
-0.1767730716225871 
0.01353490201089808 
-0.2016088697956242 
-0.2096266758688544 
-0.3241741437597666 
-0.3538581347764627 
-0.3263580401184129 
-0.2713583423245523 
-0.1680138047991910 
-0.1045244734734938 
-0.07726548213913714 
-0.04968040225736151 
-0.02264681034407078 
-0.01144346336641044 
-0.004329593034459981 
-0.006016121956470558 
-0.001983868673160401 
8.896046454582266e-06 
-1.045759895366073e-05 
0 
0 
-1.416699836684374e-05 
0 
0 
0 
5.663325366439233e-06 
0 
0 
0 
-1.583958065266857e-05 
0 
0 
4.235164736271502e-22 
0.0001492805031906733 
0 
0 
0 
-1.641126335305207e-21 
-8.437419845496786e-05 
0.001324036128944466 
0.008659098492652492 
0.004636217364457639 
0.01939674397900438 
0.01958904013099182 
0.05277166664040810 
0.08088634923941833 
0.1245707055620124 
0.1576252682139803 
0.1996592153328479 
0.2122455148778453 
0.2060502557098489 
0.1710635274280846 
0.2491075282358793 
0.1744446974735502 
0.2116521328543269 
0 
-0.1289373652954204 
-0.05899025885610409 
-0.04412566789914307 
-0.1936636933010380 
-0.2546567216678070 
-0.06852200633675073 
-0.2253422353996309 
-0.2591849783318836 
-0.2735391273080562 
-0.2807418866810292 
-0.2651694150519448 
-0.2229500423725365 
-0.1371658519232636 
-0.08831839439788203 
-0.07963709933343444 
-0.05111307873897568 
-0.02305679779627161 
-0.007077535385460454 
-0.005145933442401501 
-0.01048604099722407 
-0.004719788341789618 
9.027564976342035e-06 
0 
0 
0 
-2.209185485583136e-05 
0 
0 
0 
1.386120125207662e-05 
-3.692126667575336e-06 
0 
0 
0 
0 
0 
-2.863573817517329e-06 
0 
0 
-4.235164736271502e-22 
1.362049655552056e-06 
0 
-0.002557702824450888 
0.0007707646837963710 
0.007464724892107687 
0.01060515413567568 
0.03037128658849821 
0.01924887702594413 
0.04467643815611043 
0.1009814275054624 
0.1559418228385007 
0.1832762051524466 
0.2187713357636463 
0.2374910096532202 
0.1912156381832227 
0.1973488034877654 
0.2762013860477132 
0.1933262122891401 
0.1502726406353806 
0 
-0.1936902441334427 
-0.1446815959607878 
-0.1494092165426387 
-0.2804067352097684 
-0.2650069173971617 
-0.1315131316267135 
-0.1937538738580039 
-0.2048708127257553 
-0.2075981516270859 
-0.1848150860506208 
-0.2299219404902602 
-0.1763078786032899 
-0.1153265175578887 
-0.06740997387714402 
-0.06863197801583483 
-0.04340409485673073 
-0.01384458911611896 
-0.004750757698394781 
-0.003231781750723543 
-0.009352343183301505 
-0.006193098244262775 
-0.003044221474875925 
0 
0 
0 
0 
0 
0 
0 
0.0003628087572088175 
-6.562282222559796e-06 
0 
0 
-2.058654070112113e-06 
0 
0 
-6.466683042806110e-05 
6.354257259430269e-06 
0 
-0.0001391516288294450 
-2.215734297278167e-05 
0 
-0.005926303899000974 
0.001419621107188612 
0.005999992404285270 
0.01384793263315689 
0.04728044861535475 
0.01322540963631404 
0.03851631140798998 
0.1103442879010759 
0.1803413673002970 
0.1771920676607145 
0.2274790251815955 
0.2361749496780450 
0.1932216157885738 
0.2173126410012067 
0.2544733401323896 
0.1904005402441286 
0.03606695509477551 
0 
-0.2307718872932479 
-0.1876119622051630 
-0.2007789566650066 
-0.2841467567731318 
-0.2444980637221772 
-0.1881939247276051 
-0.1733237484638234 
-0.1373659458701125 
-0.1613728844984396 
-0.1498626882545658 
-0.1805985472254718 
-0.1331821357145196 
-0.09020992104449828 
-0.04568752360275381 
-0.04457397242976467 
-0.02975045875529837 
-0.007711217508550809 
-0.001951858931578656 
-0.0008111729037915174 
-0.006078519243326528 
-0.005512098581499335 
-0.004823538187621474 
-1.762188023129695e-05 
0 
0 
0 
0 
0 
0 
0.0006041978633872356 
7.967746920370951e-07 
0 
4.738167172749059e-06 
0 
0 
0 
-9.308850393576446e-05 
0.002021495694573830 
0 
0 
-0.003516706232941323 
0 
-0.008726854893885248 
0.001831929634605781 
0.004343731603450553 
0.008585574517082367 
0.04470463615889140 
-0.001250493877792243 
0.02674745789484447 
0.08116851013049685 
0.1454726006653752 
0.1254713752270025 
0.2092798636624172 
0.2003380645958206 
0.2219465204821262 
0.2164049888689588 
0.2041974558366132 
0.1525080787938616 
-0.01479212765238850 
0 
-0.2053277588970424 
-0.1746659143058570 
-0.1648755980703825 
-0.2100066442617923 
-0.1677267152115258 
-0.1624699797149375 
-0.1451157393418679 
-0.08311173928165665 
-0.1003387903055497 
-0.1404418983479850 
-0.1206458283177246 
-0.09325204856629637 
-0.05737212190328321 
-0.02346859000637937 
-0.02351408879653355 
-0.01448319702683213 
-0.004378624318161426 
-0.0006676136028668210 
-0.0004263513729470954 
-0.002176691346644884 
-0.002296152473648338 
-0.002273618858553513 
-0.0001651423231889054 
0 
0 
0 
0 
0 
0 
0.0003614984573479031 
-1.398982696523413e-06 
0 
0 
-1.469215496009708e-05 
0 
0 
-1.270549420881451e-20 
0.004306857650281123 
0 
0 
-0.006753945131916175 
1.355252715606881e-20 
-0.009324114147882792 
0.004698576749631531 
0.002248607796968769 
0.002569009400573333 
0.01908463088539882 
-0.004239467122422238 
-0.006484946317101708 
0.02243345091874442 
0.06933613109821250 
0.07152755468041778 
0.1894724341656209 
0.1911226826050775 
0.2443176467248636 
0.1909390962438357 
0.1576927266140243 
0.1150715967674114 
-0.0001076615055102502 
0 
-0.1643344059125949 
-0.1301149483741913 
-0.09476404744870799 
-0.1335738386143108 
-0.09131962852891735 
-0.08947153058264440 
-0.08654553601495826 
-0.04793572839746590 
-0.03725905726397497 
-0.09712003320518058 
-0.07333666797086333 
-0.05000718598532009 
-0.02484592552679835 
-0.008030111371357057 
-0.01396235415348857 
-0.003064644025819339 
-0.002517342568390546 
-0.0001374842324866554 
-0.0002161132533264205 
-0.0001107741354866232 
0 
0.0001239059429653932 
3.928140935402350e-06 
0 
0 
0 
0 
0 
0 
0.0001317307671034538 
-4.115541025014682e-05 
0 
0 
0 
0 
0 
4.125290571825184e-06 
0.002482186737534391 
0 
-0.002700461934199659 
-0.005722508034915564 
2.710505431213761e-20 
-0.006329659650845716 
0.006870405095322473 
0.009671833071268824 
0.0004400208659323095 
0.001510585658232591 
-0.001834627863444619 
-0.03009921451363336 
-0.03089128901544034 
-0.0005586989543165993 
0.04058459075332250 
0.1647188988905881 
0.2034821517041737 
0.2162877426782262 
0.1484018611718072 
0.1423856554524031 
0.08817515223913984 
0.007521699417508681 
0 
-0.1385940486792686 
-0.09327049136509392 
-0.05368081604120430 
-0.07444615415875501 
-0.06759660189517120 
-0.05723913278496774 
-0.03953700879506779 
-0.03130008795871331 
-0.01370898857198717 
-0.05628202417730957 
-0.05068638314474457 
-0.02687880929780170 
-0.009232989894859597 
-0.004294573936819071 
-0.01152565509702114 
-0.0007101771029631728 
-0.001968390095947622 
-9.690247908360639e-05 
-0.0001147530811932597 
-3.364959207576296e-05 
0 
0.0001257377596650107 
0 
0 
0 
0 
0 
0 
0 
0.0001889950839237652 
-0.0001064026670413665 
0 
0 
-2.867335226935536e-05 
0 
0 
-0.001322469087476374 
3.457132347053632e-05 
0 
-0.003551730475047251 
-0.003064503246367774 
2.710505431213761e-20 
-0.001663057136031167 
0.006384292761123228 
0.01846150526296063 
0.003079842085783339 
-0.0007423990976802721 
0.006564887896679400 
-0.03040106368049860 
-0.05488810176422097 
-0.04807673466198262 
0.04021937838477312 
0.09844297109102270 
0.1333599381221062 
0.1648032966599933 
0.1493029599716233 
0.1420605929909007 
0.08506952463826603 
0.01499949830551768 
0 
-0.1150876202972830 
-0.05470374604604220 
-0.03973808456159686 
-0.02363925920800726 
-0.06308883722285683 
-0.04878484184316647 
-0.01678798388946424 
-0.01774558931137423 
-0.01345363931394299 
-0.03194108120747471 
-0.03278699391054958 
-0.01399676594677452 
-0.003219284668067684 
-0.001517014036456362 
-0.007568381404524088 
-0.002132488553941892 
-0.0005547528296132643 
-0.002127811545131431 
-0.002119741266724312 
-0.0001351435935002095 
-0.0001284901854314663 
-0.0001507303813356702 
-0.001076772006423054 
0 
0 
0 
0 
0 
0 
0 
1.256118512114008e-05 
0 
3.967953615036586e-05 
-4.614263176416441e-05 
0 
0 
-0.003088922333036215 
8.850338648679818e-05 
0 
-0.0002897431041219827 
-0.005521602777907356 
-6.776263578034403e-20 
0 
0.003059807338495705 
0.01673685072811900 
0.006346627385930597 
0.003846608155475057 
0.008677255568415533 
-0.01262291186132589 
-0.03610406887815413 
-0.06053797935330869 
0.03963522603723829 
0.03061680703727739 
0.01328491562260613 
0.1107314495304464 
0.2285109876417219 
0.1518883811887823 
0.08645586850765294 
0.03590486179289241 
0 
-0.09964520512027390 
-0.04185734705928006 
-0.03726086651390366 
-0.005282045995769973 
-0.04945706924598056 
-0.03802652849976989 
-0.01514469150877673 
-0.006481283973210289 
-0.01311099546261513 
-0.01948472068308028 
-0.01774365232067286 
-0.01169189157067322 
-0.006686980428043291 
-0.0006881013153649957 
-0.002997845752978932 
-0.005159258543527156 
-0.0001028094987388909 
-0.004741838982455689 
-0.004670584505749683 
-7.612712859013593e-05 
-8.226809546396828e-05 
-8.473501789314646e-05 
-0.004099576562182447 
0 
0 
0 
0 
0 
0 
2.065459343554209e-05 
-8.344929832814827e-05 
0 
8.035960092279555e-05 
-0.0002084391349602133 
0 
0 
-0.002278223089399665 
0.0001272162085772090 
0 
0 
-0.005136065616478757 
1.355252715606881e-20 
-7.720977294393948e-05 
2.695613182651102e-05 
0.008789768930826320 
0.005853022235296899 
0.008561312701632786 
0.007209786344696237 
0.009076890703321731 
-0.01068896133178906 
-0.03830387451265237 
0.009734355385170382 
-0.01767979142897607 
-0.09935366889581496 
0.03491663344637903 
0.2707827963403571 
0.1647147827699576 
0.06558654257024892 
0.04495931541272384 
0 
-0.08893360254171268 
-0.04705338617949251 
-0.03746215316316113 
-0.01766770291577936 
-0.03385931121860859 
-0.02504448649650798 
-0.01519851207388504 
-0.001191714383859453 
-0.009305965606106763 
-0.009517623137639640 
-0.006811932790830010 
-0.009583600505103242 
-0.007745922425514288 
-0.0003291566785245354 
-0.0002973001217472654 
-0.006182629683823419 
-1.016292573860387e-05 
-0.005818327561534645 
-0.005384062155166972 
-8.147367131504373e-06 
0 
0 
-0.003802572800567790 
0 
0 
0 
0 
0 
0 
0.0008766642490725473 
-0.0002963203524255859 
0 
0 
0 
0 
0 
-0.0001923118295401991 
7.551829203216426e-05 
-4.625334904997507e-05 
-0.0001378750106599165 
-0.001120430134355923 
-2.981555974335137e-19 
-0.0002725717658902690 
6.585919015268501e-05 
0.006013919224284829 
0.002783045413465760 
0.006670757289267909 
0.01174193301448610 
0.02019997600046396 
0.004724962590187817 
-0.006519215592740889 
-0.02649516919514687 
-0.04238944844249207 
-0.1273256919192971 
-0.01249075103582370 
0.1906457688655433 
0.1321376256859724 
0.04258291186617461 
0.05359280139624148 
0 
-0.06919941624989528 
-0.03720058672399092 
-0.02843215136838553 
-0.02152522975552408 
-0.01299555032973622 
-0.01243313101872151 
-0.008655216586226722 
0.001915931749370814 
-0.004011749523587751 
-0.003523397464316511 
-0.002482786512441207 
-0.005683188402846416 
-0.005171517784491375 
-0.0002541768583989010 
-2.575663814835109e-05 
-0.004033215593130378 
-7.567950794891724e-05 
-0.004018288725889019 
-0.003468513389805930 
0 
0 
0.002020505546257969 
-0.0007437825436339551 
0 
0 
0 
0 
0 
0 
0.004423776666746074 
-0.002036702978369785 
0 
0 
-0.0005365186849663198 
0 
0 
-1.084202172485504e-19 
0 
-1.808365149231141e-05 
-9.854564637755137e-06 
-0.0001998865835599769 
-1.084202172485504e-19 
-0.0002018931990706534 
2.020798066166665e-05 
0.004341874676388662 
-0.005465814229569671 
-0.008527561506431061 
0.005524168200370567 
0.008120156161449349 
-0.002070899646558287 
0.002797130306651702 
-0.04299803969476065 
-0.04255590271821263 
-0.05717120665654171 
0.01340966542316791 
0.03535836856178337 
0.02037454467429724 
0.008521033657988716 
0.06173484268404149 
0 
-0.05466096337688561 
-0.02849645266123919 
-0.008858948536750660 
-0.01109538115026512 
0.002819519117798789 
-0.003355424970166928 
-0.0009535828588657650 
0.004196570353331242 
-0.0008728480926432540 
-0.001000720424640808 
-0.0009060956140010319 
-0.0003546418618640849 
-0.001352908110892540 
-0.0002212095531284195 
-6.602400394919351e-05 
-0.0009687948551540380 
-0.0001007823408051460 
-0.0009107011983427064 
-0.0007796468071865210 
-1.162802497579059e-05 
-1.111528720082251e-05 
0.004096079056546772 
0 
0 
0 
0 
0 
0 
0 
0.006307813343058736 
-0.003135658456866997 
0 
0.0001661471799295389 
-0.001293070904569758 
0 
0 
7.684087675744744e-05 
0.0005150626191261523 
0 
0 
6.776263578034403e-20 
2.117582368135751e-21 
0 
0.0001994472110153508 
0.005742358458901321 
-0.007283583810642988 
-0.01439067917048941 
0.003026038596876887 
-0.001447622236697979 
-0.01021950891864110 
0.0008529180718798205 
-0.03674287468998048 
-0.03023580109264814 
0.01850092172570262 
0.05274568731824984 
-0.07479260148714344 
-0.08486738557266355 
-0.02852755325717407 
0.07288925086964437 
0 
-0.04839784614648159 
-0.02586497575522033 
0.006781402271608818 
-0.0004558387192366738 
0.006734431559181801 
-0.0001857219185439552 
0.004140048128076253 
0.004066586377681537 
-0.0001430144091185550 
-1.694126493965482e-05 
0.0009679106872564964 
0.002744397951897020 
-5.435993054155528e-05 
-2.585385429137284e-05 
-0.0003003210658324620 
-1.457576644609558e-05 
-5.740813758331445e-07 
-7.644945790998577e-07 
-5.333990222754218e-07 
0 
-5.421010862427522e-19 
0.004489925112304709 
0.0001715529744885565 
0 
0 
0 
0 
0 
0 
0.004280795828006983 
-0.004302138384398449 
0 
0.001746126812511861 
-0.005417515511368693 
0 
0 
0.001250684878576045 
0.002152207407290956 
-0.0008662434057942767 
-1.208962053497683e-05 
0.001003076145757735 
-2.117582368135751e-21 
-0.002167859929355022 
0.0001969692857511734 
0.006150520842851133 
-0.007024838554295159 
-0.01571168165847445 
-0.003674349856558542 
-0.008286576708721986 
-0.01624075534083029 
-0.01213163005304822 
-0.03840979650928315 
-0.04933826256379140 
0.03059688610030729 
0.03994800311568876 
-0.07297402137242591 
-0.07899669483011837 
-0.07057747015368270 
0.08277803257412991 
0 
-0.05796809121443509 
-0.02873536358632359 
0.001871450830309912 
0.001991660554116224 
0.0004996876113143178 
-0.0009716985239561883 
0.003913100831300129 
0.002142957113560681 
0.0009737532594719175 
-0.0001405183793222849 
-0.001689420684526343 
0.002150153611133841 
-0.0001151325774483569 
-5.454341956324849e-05 
-0.0003275858324101142 
-3.201579305141428e-05 
-1.811000013026122e-06 
2.725536001274636e-05 
-1.368918584511094e-06 
0 
-5.421010862427522e-20 
0.002782259371046565 
0.001597486367067618 
0 
0 
0 
0 
0 
0 
