solver_type L2R_L2LOSS_SVC_DUAL
nr_class 5
label 0 1 2 3 4
nr_feature 1799
bias 1.000000000000000
w
-0.004426679205186260 -0.005042732096306840 -0.01938333980051210 0 0.02831325742385890 
-0.006265296478410230 0.02967582056234800 0.01255832014883750 -0.04291701692916940 -0.005072387486382430 
0 0 -0.01267028049275240 -0.004574264739282980 0.01746815829608180 
-0.008539815503538770 0.01077506740326190 -0.002613170584787660 -0.005316232464623660 0 
-0.002567431461281190 -0.02440387615912550 -0.005930992259967180 0.02115619031576360 0 
-0.006434538085854920 -0.004253521161342120 0 -0.005822682560518520 1.151964808265850e-19 
-0.003601729706400910 -0.02253095973609680 0.005706045229278350 0.04243341562508940 -0.01355108030174570 
0 0 0 0 0 
0 0 0 0 0 
0 0 -0.01282563804578090 -0.004630352414469500 0.01768234537192010 
0 0 0 0 0 
-0.004410268842316100 -0.02388655061337700 -0.01931148285651000 0.01593544889803540 0.02820829593764650 
0 0 0 0 0 
-0.009164900273553160 -0.04251012802858000 0 0.03261728308191170 -4.743384504624080e-20 
-0.0005595844369851200 0.01177455233171290 -0.0002986715540327960 -0.006627907820704630 -0.0007482812974361960 
-0.0008371113949204800 -0.002351307429263670 -0.002956911424003940 -0.003507413758873410 -0.02022173822919930 
0 0 0.005266109142648450 0 -0.009798528727066900 
0.005525998243254230 0.004726497869404300 0.01295226407931890 -0.008582826877294190 -0.008752801526868490 
-0.002657008963240600 -0.0008063855409449850 0.02075637379469850 0 -0.01262054503044520 
-0.008534155576744350 0.02102794803132990 0.02026611163909280 0.007697454425498040 -0.02781394796284850 
-0.02115902114463900 0.02934153771028700 0.01220189386575130 -0.02133192245589730 -0.02861048340247530 
-0.007478084396487530 -0.04080933272382600 0 0.04557567602529350 -0.002447805597405890 
-0.02266111667032700 -0.01132818210215600 -0.01928592905211780 -0.006885010601560450 0.06166844589866190 
0.02530467574812350 -0.007797574361009000 -0.002723206858875580 -0.02689656683466090 0.03579573249482390 
-0.007912723277700610 -0.1023337237750280 -0.03980277917184440 0.09591021968936340 0.1019358357539390 
0.03570498435576310 -0.04929929901819270 -0.06859619331716810 -0.02737809021140430 0.1267353144243120 
-0.01007114748416550 -0.06986149947863610 -0.1143697268983950 0.08086292134515720 0.1606906438518380 
0.06936764912316440 -0.1164291679049880 -0.1550025083601870 -0.0006458856737564940 0.1803849370695960 
0.02493841473476480 -0.2742960237597810 -0.09054580186248360 0.1814072133039130 0.1876310117376960 
-0.04850238152363630 -0.3669076670226100 -0.2465835931689170 0.3150614620293590 0.4176654704034300 
0.3016615487845640 -0.4035892289777750 -0.8833937710056960 -0.2319396030477330 0.4839303447281540 
0.1362632269430040 -0.3019884803584370 -0.2401885030751370 0.1758702635891170 -0.06081647812605460 
0.07780686282376390 -0.1736118157069830 -0.09833296872378180 0.08303889310745790 0.05582682187670320 
0.04716916054049090 -0.1370112519340190 -0.07459189006406010 0.08309315351915810 0.04107708861190950 
0.02915450001716640 -0.02536732535370950 -0.06062405508493460 -0.03146323346457000 0.05646496555554040 
-0.01155387496747740 -0.03250244699523590 -0.08251744815281770 0.02111490720927400 0.1136019249224860 
0.04100552110071710 -0.03684841514056010 -0.08892119154208560 -0.04241838584658280 0.1371157614052580 
0.01283728830730170 8.056752398308060e-06 -0.01244868251828580 -0.04052808592501930 0.06465646414632900 
0.01672386267511170 -0.03207183091350490 -0.007969029537503060 0.03764439469069690 -0.007122277539129660 
-0.01911602303811480 0.01736077540133830 0.02069953002793900 -0.004749740477505270 -0.02925118058246990 
-0.009552255255075170 0.03559008531109770 0.002138260800159950 -0.02748372112579660 -0.002425201146027280 
0 0 0.003594400593885390 -0.0008845282268319870 -0.008626067897135270 
0.01235717017366660 0.009129352443843050 -0.01780031951163350 -0.02774295661071760 0.01287382608765080 
0 0 0 0 0 
0 0.01240608816456840 0 -0.02366160538222950 0 
0 0 0.01423233805876750 0 -0.01233390762104510 
0 4.065758146820640e-19 0 0 0 
0 0 0.008158683903114270 0 -0.005815405472646790 
0 0.006442772016639330 0 -0.009174307908417060 0 
0 0 0 0 0 
0 0.0008469367635342270 -0.003128516790718000 -0.01501371463300700 0 
0 0 0 0 0 
0 0 0 0 0 
0 0 0 0 0 
0 0 0 0 0 
0 0 0 0 0 
0 0 0 0 0 
0 0 0 0 0 
0 0 0 0 0 
0 0 0 0 0 
0 0 0 0 0 
0 0.001765744559964500 0 -0.003367729652528370 0 
2.168404344971010e-19 0 0.01183096752472680 -0.0005618598315137650 -0.006631912561786660 
-0.0008406497287258170 0.001060685384338920 -0.0002572375412918150 -0.0005233238794652340 3.388131789017200e-21 
-0.02490719239534510 -0.008122362650905020 0.002251113340264930 0.01079919437430110 -0.009658292763127720 
-0.001131460852336030 0.002061648628291890 0 0.006275743792984980 -0.002250462293896790 
-0.0005354023955209760 -0.003349260160931720 0.0003971542914925050 0.006307789375597640 -0.001175115217515930 
-0.002267075765142220 -0.008202529804278800 -0.0002914589225497560 0.02214826998077700 -0.001304451208296280 
0 0 0 0 0 
0 0 -0.001575381234403290 -0.0005687491161368610 0.002171933667528090 
0 0 0 0 0 
0 0.004812528283600320 0.004224936708956050 -0.008657647419870280 -0.008606888173260070 
0 0 0 0 0 
-0.004718193328167760 0.005929705509725000 0 -0.005434687200671480 1.609362599783170e-20 
-9.839834299530110e-05 0.002878045192360160 -0.003035679156742980 -0.01548161347556410 -0.0001315791414049880 
0 0.0001189926135572000 -0.01488985855771160 -0.003357753729469300 0.01217330873994870 
0 0 0 0 0 
6.776263578034400e-20 0 0.001638845712049340 -1.355252715606880e-20 -0.001074530795683380 
0.001867552137400280 -0.0001200829265856650 0.003090936015113210 -0.006896723581697800 -0.002584304196948260 
-0.001316146816753740 0.002582364878271210 0.003402864349845300 0.002482234290878470 -0.004158075055799460 
-0.01538215409271860 0.006103470531105450 -0.006935442805128690 0.009797597092171250 8.131516293641280e-20 
0.006930224212121380 0.005732699074649220 -0.003703395427909060 -0.006551662743281740 -0.003781394770894970 
-0.02080148718139420 -0.01146277460149010 -0.01074985725456310 0.01636194722942000 0.02706028908511960 
-0.01279665349272540 0.01058819869473680 -0.01161595285465190 0.008524203093924090 0.01718313310724540 
-0.03385067291058830 -0.001468556097635530 0.01334617490920590 0.02465503504225150 0.02507714127401820 
-0.01719759664960010 -0.001605647007352390 -0.02349942016021260 -0.005997532082274510 0.06226534266001440 
-0.02619850982709580 0.01500181929170540 -0.07193280995297230 0.006875202312393040 0.09334764297768540 
-0.01793551064903020 0.03695300404511050 -0.1047580800193150 -0.04912293314712070 0.1057089721799980 
-0.08625712436094300 -0.1282515758091060 -0.1206968407615410 0.1544221502942440 0.1491948353201380 
-0.1031728062763230 -0.1298365582041440 -0.2770790285155000 0.002203478175480440 0.4805965637860530 
0.7043371165851890 0.1119136578059720 -0.8834396117421470 -0.9785848059732090 0.7079925319847460 
0.4226352624298910 -0.2306333864087510 -0.3124372038265700 -0.07531324221276970 -0.2216699996578710 
0.1261470556572910 -0.1191821449100930 -0.1022618963560370 0.01593525676055180 -0.09327790368565010 
0.08810776966665960 -0.02954524406948470 -0.09844609186674140 0.05326636241853800 -0.01709474943078660 
0.06494880418054050 -0.04166363150112690 -0.1119263815044940 0.09252365018370440 -0.01561976453926930 
0.02553649997032920 0.007234367763686260 -0.05411925949875430 -0.003053015604659290 0.03860067602185040 
0.03832841564356400 0.01199034597359290 -0.06383832580752640 -0.01067004843073820 0.05177237646805530 
0.01763239622523000 0.001115557398081960 -0.04637382184312690 -0.02810866508850430 0.06440841394469030 
0.01742295239206230 -0.004887657180872510 -0.02267541680499890 -0.005114654958996470 0.03740968477735250 
-0.006845805057634680 -0.009992623878142580 0.008800547296453550 0.02025348881326200 -0.01271411764654140 
-0.01157036367481510 -0.01491567886418020 -0.002760108822434290 0.01970862608122840 -0.001231893339266540 
-0.006586692228527030 0.02110680745637120 -0.01523030132606840 -0.01453329207111110 0.01255510194394030 
-0.01415993642552580 0.0003261547963726170 0.03193645643160920 -0.009640441119537020 -0.01814100899178430 
-0.002345307925361810 -0.01467129483402540 -0.0003015165754420540 0.02763100900904090 -0.001349465158643750 
0 0.001783845648795010 0 -0.003402253090957540 0 
0 0 0 0 0 
-0.006775199684492250 -0.03280975428934110 0.009122135176873410 0.02453496529038530 -0.01017041859537280 
0 -8.456506014082410e-05 0.009841734134112890 -1.355252715606880e-20 -0.01357343346065180 
-0.01018190615797570 0.0007913697623714800 0.01574191136623430 -0.001126886043873070 -0.006770029208786110 
0 0.0009997450243409990 -0.003692978306946740 -0.01772255869327110 0 
-0.009325115173649560 -0.01265015831461390 -0.003172486670768860 0.02519342679649610 2.032879073410320e-20 
0 0 0 0 0 
0 0 0 0 0 
0 0 0 0 0 
0 0 0 0 0 
0 0 0 0 0 
0 0 0 0 0 
0 0 0 0 0 
0 0 0 0 0 
0 0 0 0 0 
0 0 0 0 0 
-0.003086161056970900 0.01224257814840620 -0.007820468178661630 -0.01126095754922510 0 
-4.336808689942020e-19 0 0.006024386757639390 2.168404344971010e-19 -0.003949968595942940 
-0.001597371406459680 -0.02017240189399490 -0.003690068300120310 0.01696836968409650 0 
-0.01579009064639910 0.009454274780949970 -0.005753922546897540 -0.002947278024383580 0 
0 -0.0004619860514002410 0 0.006338972256069820 -0.001690061170265580 
0 0 0 0 0 
-0.001239331275804930 -0.005061975080365070 -0.0001593304308052800 0.01254853678201630 -0.0007130979939268560 
0 0 0 0 0 
0 0 0 0 0 
0 0 0 0 0 
-0.009475534503072590 0.001307988362310700 0.01579810121464550 -0.002353046341310620 -0.008639607736434210 
0 0 0 0 0 
-0.001112527145200170 0.003980155736872210 0 -0.003726849923666570 0 
0 0.0004414794040468740 -0.001630789673780650 -0.007826140125326990 0 
0 0 -0.002772455818369060 -0.0002395124742735510 0.002335587415066160 
0 0 0 0 0 
-0.008333637539315880 -0.01141766335076590 -0.002419565202551150 0.02450929390131310 2.710505431213760e-20 
0 0 0 0 0 
0 0 0 0 0 
-0.001983093587627260 -0.004051811397899920 -0.002056258504521990 0.01331851235833790 -0.0009288159871926610 
-0.002714007665543340 -0.01070704269262730 -0.01389443656010650 0.009014880039504680 0.008834760798802810 
-0.007738740708706200 0.006316119295733020 -0.003725317931141670 -0.001889067913420750 0.008722243558018860 
-0.02234253004750920 0.03901686006877210 -0.01322314870620180 -0.01571701407730470 0.01628020638591950 
-0.01165335543795330 0.005808699140701240 0.003599860002007560 0.0007333516973539840 0.02235861491469840 
-0.01562327988282170 0.01024362955116970 -0.06400639954317590 -0.04825673015484270 0.1024041464771970 
-0.02772051086433930 -0.003411306909611930 -0.03083810159095610 -0.001118779802154830 0.05322035815389780 
-0.05427966981794440 -0.01971932443329660 -0.1456158596141050 -0.001277847142410140 0.2256595410235890 
-0.04681606241113520 -0.06274509426822690 -0.1026915850090220 0.04870117965361490 0.1672198650645940 
-0.02489333646659360 -0.1582766191398420 -0.2726630248638370 0.05007242527163960 0.4404533680109750 
-0.2055010626423080 0.5044749431625420 -0.1915503451259510 -0.7961352155513580 0.4200273344451670 
0.5615686058059120 0.1377211846463230 -0.1100210705198780 -0.4177782458541890 -0.08275808878958820 
0.4008059849685270 -0.06202001307823350 -0.1161561523333830 -0.3688610100843570 -0.1446441411540430 
0.2392364433758090 -0.1387011053368420 -0.2817447395147910 -0.2258836489910820 0.2320089029843570 
0.08305037878923230 -0.06552932074997690 -0.1437901764169900 -0.1105617629327270 0.08598077513243870 
0.1597333130912260 0.02651021059177570 -0.1175911470148790 -0.1280758180785220 -0.1165747623296840 
0.1365081887732880 -0.01560037301902660 -0.1702229620687470 -0.06015341807745570 -0.03124457296685090 
0.1038715131220110 -0.02286976376257490 -0.08468795322520340 -0.05624848844581110 -0.004414283679080570 
0.05252285931972100 -0.01915944331431450 -0.06306268186068820 -0.02954367608142200 0.01605893817128240 
0.01926087548367370 0.003227216756096380 -0.01764614204067980 -0.01834623802855050 -0.01931429053084530 
0.02856354061861720 -0.02558264132864200 -0.03578047384846160 0.03410246679082530 -0.01183346067877070 
0.01268291669634710 0.01364598786949870 -0.01748588604739700 -0.01544255734296110 0.0002647282826779250 
0.009700426031868150 -0.03362063732561110 -0.01097603652769580 0.02219264283900190 -0.008553173829857410 
0.01886559613898070 -0.008816858175737440 -0.03822966325261690 0.004131016012517950 0.01515089369473910 
1.084202172485500e-19 0.004404984891338960 -0.01224068270587250 -0.003360112467584540 0.01133795134126560 
0 0.0004759547599758120 -0.001758138886299870 -0.008437287471946450 0 
-0.01079876052458660 -0.02901016877412040 -0.005685459414226040 0.04145827521345360 4.065758146820640e-20 
0 -2.298378482178290e-05 0.002735901644644920 -2.541098841762900e-21 -0.003732603564489440 
-0.001953514232815970 0 0.003020264322665880 0 -0.001298906924769070 
0 0.0005465257471968220 -0.002018822479177760 -0.009688304914009600 0 
-0.01197831389876930 -0.01641112358927660 -0.003477750425065420 0.03522831589472030 -2.710505431213760e-20 
0 0 0 0 0 
0 0 0 0 0 
0 0 0 0 0 
0 0 0 0 0 
0 0 0 0 0 
0 0 0 0 0 
0 0 0 0 0 
0 0 0 0 0 
0 0 0 0 0 
0 0 0 0 0 
-0.001108965458777520 0.004399185927870040 -0.002810167363759280 -0.004046455361311450 0 
0 0 0 0 0 
-0.002038480088855510 -0.02574294208535880 -0.004709068113960900 0.02165412727527950 0 
-0.004558623308929190 0.009258834571167710 -0.001394931814754640 -0.005512991816414200 0 
0 0 0 0 0 
0 0 0 0 0 
0 0 0 0 0 
0 0 0 0 0 
0 0 0 0 0 
0 0 0 0 0 
-0.003404890500975960 0 0.005264189597358510 0 -0.002263938381151650 
0 0 0 0 0 
0 0 0 0 0 
0 0 0 0 0 
0 0 0 0 0 
0 0 0 0 0 
-0.006178951386055020 -0.008465593380308690 -0.001793979602715150 0.01817234488640600 2.032879073410320e-20 
0 0 0 0 0 
0 0 0 0 0 
-0.002059876574831050 -0.009718949031740250 -0.0002648210599384510 0.02185259811827650 -0.001185231004756910 
-0.002006326875674270 -0.02033700994708700 -0.01036856352616970 0.01749867271075280 0.005310915355897790 
0 0 0 0 0 
-0.01776192171939250 0.02487108161641940 -0.01431634483710130 -0.01507090609852810 0.01012025112624560 
-0.003799790421942710 -0.005337503304636460 -0.01487973891673210 0.01364910495977010 0.01605202793206700 
-0.008725908393241310 0.01188416749457650 -0.04754301843172920 -0.03833872537544650 0.06293503394398750 
-0.009429996308464680 -0.02520486825892710 -0.01438428107487780 -0.003330047772520270 0.02211096233259980 
-0.07501426262465730 -0.02131301720892970 -0.06585081272310710 -0.04573379259221150 0.1872353505447740 
-0.04137746406861440 -0.07892528496364690 -0.08603411516345680 0.01456832861188910 0.1442820332356730 
-0.04813485436266220 -0.1208818142542980 -0.06330122836547930 0.01457811774631920 0.1844782626230260 
-0.2637937290359190 0.06213186156867600 0.07823638530011560 -0.3035539614238320 0.2053163532574750 
-0.1893140029045210 0.2069760894876400 -0.1302789174224150 -0.1778591486723770 0.1533187711902870 
0.06241141742081780 0.3109897749344770 -0.1710270247892550 -0.6228423000481470 0.1795630947287250 
0.4404566739513970 -0.1599439161394020 0.2966215576985490 -0.7469405337335400 -0.2192519989466720 
0.2145686458019590 0.002152271830289370 -0.2050372802002360 -0.3603872958224890 -0.1219838257152120 
-0.06956761090324510 -0.03076187037013910 -0.2549850788502230 0.08105392834997860 -0.06157138431337760 
0.1719890675928960 0.01959108549218210 -0.3177176237672210 -0.1463137081016470 -0.001711205529872090 
0.2026524443467370 -0.09882763724874240 -0.1304024409642510 0.02234675397763710 -0.1493878760814650 
0.1297509647016330 -0.05316315279342490 -0.06612598884317720 -0.01722030842721840 -0.06181150363395870 
0.1204332238227410 0.002999518972220640 -0.1241393511188700 -0.02227728463556890 -0.006381327987917540 
0.06637440181416290 -0.005500060568108180 -0.03874787333034070 -0.04149974922166280 -0.01880253329347700 
0.08982254973362250 0.01263925826838300 -0.04090585675907580 -0.06184556922589820 -0.004648011713043170 
0.05094544088147440 -0.04717272339169560 -0.02554919628684630 0.01917165119569950 -0.008611235132200920 
0.03850205079306800 -0.0006503407566498600 -0.02770892008480040 -0.02266506640524800 0.003000428506463270 
0.01683021747607950 0.01170545873656240 -0.01719709864231820 -0.02959672317344920 0.002882483060367990 
0.006641011273972140 0.0006073880485672670 -0.002243642961600330 -0.02208420266078780 -0.001125978055275790 
-0.005357947869452640 -0.009683777297069510 -0.002052130095048960 0.01763787504592890 -0.0003783872206461860 
0.007249239407236030 0 -0.002118759610441200 -0.005875330092128730 -0.001330213626431360 
0 0 0 0 0 
0 0 0 0 0 
-0.004855655652737680 -0.006652586140043880 -0.001409777590818920 0.01428052167076730 -1.694065894508600e-20 
0 0 0 0 0 
0 0 0 0 0 
0 0 0 0 0 
0 0 0 0 0 
0 0 0 0 0 
-0.0007960210474581990 -0.01005255034644370 -0.001838878561100750 0.008455879049149200 0 
0 0 0 0 0 
0 0 0 0 0 
0 0 0 0 0 
0 0 0 0 0 
0 0 0 0 0 
0 0 0 0 0 
0 0 0 0 0 
-5.421010862427520e-19 0.006529722777520310 0 -0.004980857700047090 0 
0 0 0 0 0 
0 0 0 0 0 
0 0 0 0 0 
0 0 0 0 0 
0 0 0 0 0 
0 0 0 0 0 
0 0 0 0 0 
0 0 0 0 0 
0 0 0 0 0 
0 0 0 0 0 
0 0 0 0 0 
0 0 0 0 0 
0 0 0 0 0 
0 0 0 0 0 
0 0 0 0 0 
-4.336808689942020e-19 0.006232056612573560 0 -0.004753798625682910 0 
0 0 0 0 0 
0 0 0 0 0 
-0.01286323375300740 -0.01971727185742430 0.009519679890557940 0.01672790940057460 -0.009698563739377700 
-0.009411148104193940 -0.0006832228291811460 -0.009480824275762410 -6.256377918758740e-05 0.01591000251017190 
-0.01471215660974220 0.002778924476664620 0.002174774678480750 -0.03103523911304630 0.01843509539424260 
-0.02064880838052140 -0.01164837021325160 -0.01577679863180190 -0.03543893565623140 0.04817679150011310 
-0.02453669816080730 -0.01916720015803860 0.01449829361801630 -0.05583784978582200 0.03581059386940170 
-0.05934157090942260 -0.04469123087034290 -0.01881179273651860 -0.05814757167878560 0.1325133435221790 
-0.08067799134478470 -0.1052717008587750 0.01144251729315550 -0.06527653183640120 0.1324990248770530 
-0.2972900643944370 -0.4701076109974340 -0.03083498725772730 0.3746541640526260 0.2360953909736480 
-0.3265264908748880 0.01991255913553820 -0.1713492869152110 -0.1631158034697450 0.1449158643055920 
-0.3105966675587090 0.5323065169933740 -0.1967522034685650 -0.6143230773422020 0.3982633662972180 
-0.09072899232524110 0.2200895418556920 0.2482638639122860 -0.8413760937147940 -0.1565311522039330 
-0.3435517401429960 0.2210960922250750 0.03178445768050240 -0.2745751082565710 -0.2501532942724070 
-0.03571030374282430 0.3040591517532210 -0.2401532812824950 -0.3640720939102600 -0.1851781382217150 
0.3891270492570730 0.1856626678268420 -0.2268646293367460 -0.3663303664778910 -0.1918066454997530 
0.2677518778450740 -0.02026890555797070 -0.1717521111278020 -0.09342528094782910 -0.1923912781781560 
0.1021183254191430 -0.03136151993943240 -0.09352658363808760 0.03337676526255670 -0.1568407499820190 
0.04301851601750550 0.008230719154246300 -0.07191522223657400 0.001985944647158250 -0.09117775004351100 
0.1716776087336860 0.03281544914359280 -0.1001557035832430 -0.1456623634865440 0.0002142644474160780 
0.1283997818490010 -0.01314072749098500 -0.08837812750220860 -0.04906919147225090 -0.02743884879376870 
0.08418356161993390 0.01148115374357580 -0.03303637462409280 -0.06809025486813130 -0.02589083688737950 
0.1122587529759830 0.001270432195541540 -0.06526942028893830 -0.04556932750252620 -0.01327283146330120 
0.06394992681156880 0.004999511759303550 -0.005104282092107120 -0.06059227207863190 -0.003385405846563160 
0.03625551413623230 -0.003076306475124610 -0.01328842163400570 -0.03237121389132730 -0.002595102976091660 
0.03659313462673840 -0.001305581895168640 -0.02399934125633700 -0.03140936405211320 -0.003641721058618970 
0.02408411889337240 -0.0005810516079933510 -0.01641386113676790 -0.01188877171554620 -0.007280127458192230 
0.01240658916196750 -0.001440185767299610 0 -0.004331711438065580 0 
0.005337714664858690 -0.0005534615153183480 0 -0.0003605568261539460 0 
0 0 0 0 0 
0.001060312291133410 0 0 -0.0003230475205902000 -0.002060169876816950 
-7.940933880509070e-20 0 -0.0008099598058623430 0 0 
0.001071373552187350 0 0 -0.0003264175776837180 -0.002081661730691990 
0 0 0 0 0 
0 0 0 0 0 
-0.002354767006888520 -0.02973717085305390 -0.005439718684802820 0.02501394286339140 0 
0 0 0 0 0 
0 0 0 0 0 
0 0 0 0 0 
0 0 0 0 0 
0 0 0 0 0 
0 0 0 0 0 
0 0 0 0 0 
0 0 0 0 0 
0 0 0 0 0 
0 0 0 0 0 
0 0 0 0 0 
0 0 0 0 0 
0 0 0 0 0 
0 0 0 0 0 
0 0 0 0 0 
0 0 0 0 0 
0 0 0 0 0 
0 0 0 0 0 
0 0 0 0 0 
0 0 0 0 0 
0 0 0 0 0 
0 -0.0005623268266268870 0.0008143007556561760 0 -0.001311066053029630 
0 -0.01447113140211400 0 0.01222551729262350 0 
0 0 0 0 0 
-0.002975176361257090 0 -0.002345395719647870 -0.004447936986093810 0.008023319921509210 
-0.003037239699778510 -0.003852089445824850 0.005357575818300130 -0.004225156128589660 -0.001819906305130430 
-0.007828350070811750 -0.009119148075820950 0.03133757490344750 0.006656091736319730 -0.03429338484509460 
-0.01889258411347920 -0.003711646379217740 0.04954190124353160 -0.02619397013606460 -0.03607006576461800 
-0.02744122879562460 0.006055873123386510 0.06462292788578860 -0.06288185610641900 -0.02337487736543050 
-0.05152570614075340 -0.01567444178004590 0.007991683377718310 -0.09522670987947580 0.05518098254280540 
-0.06749624116614620 -0.01347125046853610 0.1196029603215730 -0.09730409245375560 -0.007804211233620570 
-0.1008302923338460 -0.04310727581854350 0.1448983595831030 -0.1758729386837200 0.001224648297480340 
-0.2081118408182860 -0.06100670710216530 0.1366830013004180 -0.1895537270425320 0.05531178136787650 
-0.1994278943587440 -0.2905512580144490 0.01132660110694140 0.1792772816904300 0.08939425914474020 
-0.2336955979509190 -0.2995777607213420 0.1060319917539890 -0.02444031502785870 0.05019539143970460 
-0.4284853863806030 0.2191976506204050 -0.04306239828528630 -0.3148062666911380 0.2348899835831900 
-0.4548714993683910 0.2716604102189720 -0.01831375568801120 -0.4459847338469600 -0.08630371683398980 
-0.5876389620354320 0.2841453746117770 0.07468939870414510 -0.3317807035507690 -0.006369811585642430 
-0.6006765065298670 0.8150231234483250 0.1026094053561000 -0.6814155687200210 -0.2797103331910800 
0.05227439271732760 -0.1086599102309850 -0.3321034538091660 0.1714667261360820 -0.1284598126942420 
0.2407936104702220 0.09529069011033450 -0.1912841588257650 -0.03024799561106970 -0.4851610209720500 
0.1964624218902710 -0.03060667008015980 -0.2943042374396480 0.07814438871337910 -0.1611679405488860 
0.1865002555524750 -0.01338593701068200 -0.2276304572942740 0.1165296245030680 -0.1319387543913220 
0.08136902632747810 0.06176114671869910 -0.1235745066005100 0.01445043037556010 -0.1068417331477960 
0.03519217264708200 0.01841339079542770 -0.06343884470956320 0.05668800630894780 -0.1098484345430380 
0.08552521942756570 0.1420605058477280 -0.05947207724027670 -0.1191216664860260 -0.1098220855598510 
0.08734926402622000 0.01490667531008030 -0.07858407931115830 -0.02303857169415740 -0.06734399148768780 
0.09846202671653800 0.02033801717314370 -0.05864878266109850 -0.08296942697657050 -0.02328930459882270 
0.08854709567997290 0.02008536110295990 -0.02230626272050610 -0.08715231358086470 -0.03517697971531300 
0.07979627219015850 -0.001721098824538580 -0.002659832235921870 -0.06896827640916090 -0.03324000233866980 
0.04730197527430810 0.01390202479095760 -0.02084233791056250 -0.05396477320403120 -0.01666792500462710 
0.03212917768184950 0.01236201130888910 -0.01856950891862340 -0.02625151520462550 -0.01593083112216310 
0.01153539928363380 -0.0003820374425475810 0 -0.002016334056083160 0 
0.003228845054458430 -2.783331056794050e-05 0 -0.001294646475750220 -0.003140694241773330 
0.002377651536580720 -6.367877851206470e-05 0 -0.002382553251423190 -0.001211667886462990 
6.157929526538760e-19 -5.421010862427520e-20 -0.002229871442837720 -0.0003568484755109330 0 
0.0006301174200240670 0 0 -0.0001919791668187470 -0.001224308100968590 
0 0 0 0 0 
0 0 0 0 0 
-0.0003971297977376420 -0.005015152926644550 -0.0009174047261261340 0.004218583851778020 0 
0 0 0 0 0 
0 0 0 0 0 
0 0 0 0 0 
0 0 0 0 0 
0 0 0 0 0 
0 0 0 0 0 
0 0 0 0 0 
0 0 0 0 0 
0 0 0 0 0 
0 0 0 0 0 
0 0 0 0 0 
0 0 0 0 0 
0 0 0 0 0 
0 0 0 0 0 
0 0 0 0 0 
0 0 0 0 0 
0 0 0 0 0 
0 0 0 0 0 
-0.0005942639955292130 -0.0004986455667730150 0.002058324560998890 0 -0.002532952395926810 
-0.0006037939682659380 -0.0005133584437670840 0.002155890667510520 0 -0.003140464976413920 
5.421010862427520e-20 -3.268670676890990e-05 0.0003141871636598180 0 -0.002758938335121880 
-0.001174960206719710 -2.350661283161040e-05 0.002728714589818860 3.388131789017200e-21 -0.003639631593554830 
-0.01421746123613150 -0.005775622468924830 0.02884436748792440 -0.004325471953671460 -0.02168970457645290 
-0.01440649958623300 -0.002251345977372660 0.03706140428696460 -0.004472743052406170 -0.03044061742392540 
-0.007052654192657720 -0.003610164543632680 0.05113425855551490 -0.01822943989825690 -0.04062756732291280 
-0.01752122740497710 -0.01330507357098660 0.06156905529931290 -0.03272448991279110 -0.04659325984048580 
-0.02659870292552490 -0.004450978695520950 -0.001274223262046600 -0.04966609202863140 0.04110514157260850 
-0.04525965177442700 -0.01463824702302030 0.07120226931608490 -0.05176588664052190 -0.06089103332888580 
-0.07883256217913290 -0.02666857873396400 0.08962193950439120 -0.09119835431600770 -0.04168954235407060 
-0.1000634507136590 -0.03771569868733850 0.05193152932934010 -0.1225946508355210 -0.009842157506237590 
-0.1324940611888760 -0.02283295994019350 0.1661588729684730 -0.2002604406687590 0.01014855056576070 
-0.2144057712672080 -0.06698935857205610 -0.02882452555893790 -0.2355591353045500 0.2792481556063090 
-0.2495461650912870 -0.05761426404650480 0.1438440873987700 -0.1232314625852540 -0.09656660200032910 
-0.1996995996434910 -0.1078438685858320 0.01858931837746730 -0.1952879755443500 0.1584925443820860 
-0.2978747636262400 -0.2033386005907020 0.2006087727197130 -0.07388166778259470 -0.05370297129033910 
-0.2451275765256540 -0.1347820518172090 0.2636067306723370 -0.1372958726642740 -0.1432606975256810 
-0.2375211659065440 0.03270356112387090 0.006692988362062260 -0.01736834375405100 -0.1136534525457040 
-0.03889336449968970 -0.2124145856279750 -0.2139368110635650 0.001101575379011710 0.3541683293742150 
-0.08377887996401200 0.1323140126931780 0.2465176655978850 -0.4723662056930000 -0.1337081878698210 
-0.3357623635529190 0.2984285099280320 -0.2121301338904650 -0.01140734596445470 -0.1112402400387340 
-0.08684695094539270 0.03754030627312250 -0.1986932840473070 0.3534252842949590 -0.4195416477635680 
0.1058347805996290 -0.02849570781997400 -0.1966102518756400 0.2900076515642140 -0.2609634596612150 
-0.002922858463610130 0.1982883891345310 -0.1815344271455770 -0.1818461954914340 -0.1912400485567940 
-0.01100419305107300 0.1928958171347310 -0.2110346790198400 -0.1165466148016340 -0.1517785078162190 
-0.1388728297718560 0.1503236876471970 -0.09252334218969980 -0.008943821245160380 -0.1399427221159760 
-0.01251697673102620 0.1126909568655320 -0.07736153661388150 -0.03716430494638690 -0.1315611379509840 
0.09049565819284490 0.03687691790425130 -0.09875796978865340 -0.02185030649607840 -0.05052691035969430 
0.09795894063880970 0.03996161355324700 -0.08713014520238050 -0.06095165336612770 -0.02270744847073150 
0.08072319911269670 0.02186804500618710 -0.03198726419849710 -0.02734121581440810 -0.03321166321373390 
0.07739860595712110 0.02062520481130790 -0.02893427236089530 -0.04274000556022600 -0.02091635107224110 
0.04117899734622440 0.01877635260932710 -0.03822493472773670 -0.03572575851671730 -0.009232689956349530 
0.03865619089538310 0.03007980127146920 -0.01777056877924690 -0.04969546172613160 -0.01097087777403760 
0.03238777834988280 0.01160478461378890 -0.01177969087378220 -0.04597249101732600 -0.004099890800883840 
0.01044709915330040 0.008595423392718390 0 -0.02565926433179330 -0.0008119430356788310 
0.01839017338017510 -0.001232342337843460 -0.002307214981489370 -0.01199341445116730 0 
0.008236896692937660 -0.0008254290398356330 -0.002925066080362180 -0.001433682291919170 0 
0.0003431809085899830 0 -0.003633598534415430 -0.001435654798849930 0 
0 0 0 0 0 
0 0 0 0 0 
0 0 0 0 0 
0 0 0 0 0 
0 0 0 0 0 
0 0 0 0 0 
0 0 0 0 0 
0 0 0 0 0 
0 0 0 0 0 
0 0 0 0 0 
0 0 0 0 0 
0 0 0 0 0 
0 0 0 0 0 
0 0 0 0 0 
0 0 0 0 0 
0 0 0 0 0 
0 0 0 0 0 
0 0 0 0 0 
0 -0.003608598487636340 0.01453145661447000 0 -0.01647803269606460 
0 0 0 0 0 
-0.0009417454657596740 -1.217609861678060e-21 0.01023544669984540 -0.008302155763603430 -0.001849468490674160 
-0.0007418140820134530 -0.003095120122986620 0.01329198385226420 -0.006539618485491940 -0.01618778013437610 
-0.001500693105034260 -0.003339930245635540 0.01241719586061490 -5.421010862427520e-20 -0.02792893981648030 
-0.008522079655858920 -0.008514149741829320 0.03982866106464820 -0.01372419208143590 -0.03699281810733180 
-0.008264834508446660 -0.01457152188678280 -0.008638628167033970 -0.01322171562259540 -0.01060448695989660 
-0.02200032907990990 -0.01951670171600800 0.07498205961598680 -0.03355245657672630 -0.08384259945388300 
-0.02466784158686740 -0.02542697047332890 0.02875045936834320 -0.03907825748090550 -0.009717685654051680 
-0.03979271659010920 -0.02171680663095540 0.1380112602389970 -0.04226395959411610 -0.1436280522418280 
-0.05304648880633030 -0.01115194631551270 0.02458715041600220 -0.1011152534047450 0.02762619941098860 
-0.09735972969201180 -0.03936807663959760 0.01741674461561220 -0.1332722479032110 0.05757620583316730 
-0.1240101784027650 -0.08450723529471790 -0.03280182564853180 -0.1553197515522860 0.1432621397965250 
-0.1591857762512920 -0.07871230154445950 -0.1550278658880370 -0.1787529751740940 0.2993239033872230 
-0.2261943690990950 -0.1057408950011540 0.1426421445258800 -0.1574846794625660 0.02467668716116660 
-0.2095628760204260 -0.1152138461668410 0.05373279963158000 -0.06405581553486500 -0.1002890813382110 
-0.3359722392229010 -0.1100254152260190 0.04667487815793740 -0.1409441219891720 0.1732736322897620 
-0.4119125388352190 -0.1544064906273830 0.2523212903618150 -0.1152678894838240 0.1284546923973720 
-0.3564676498386440 -0.2159273859526290 0.2064993036280330 -0.1630863522501000 0.2634985798747350 
-0.3970362565968130 -0.3526013542694780 0.2842100920086310 0.3844502046684850 -0.2137129464015310 
0.05997492491376750 -0.1887971891945220 -0.08904739654271890 0.1610370767184330 -0.2941536704986250 
0.1437861668779120 -0.4137970174744780 -0.02671461934879080 0.4083010939726420 -0.02907039577051830 
0.2545601848093360 -0.3165407797586380 -0.3760678601420330 0.08159449399446710 0.3375542520151770 
0.08663547828925330 0.1553906212654340 -0.2491330619246060 -0.09955201069617340 -0.003107894971348360 
-0.1484735958171900 0.3701422014386650 -0.1130248912657920 -0.04107059747047650 -0.2121430922590480 
-0.2227154817572660 -0.1517729634268740 -0.1902888498749850 0.5023614354220050 -0.2713843169996510 
-0.2660294911375970 0.1941088058490150 -0.1717993420875350 0.3061790751914300 -0.3268699425198130 
-0.1379569570220860 0.4251602395154510 -0.1714319523672830 -0.3255673795894720 -0.2357733201274560 
-0.1660509954372030 0.4477105008379890 -0.1639827069012460 -0.3707029780509220 -0.1795685060721750 
-0.07813016357863680 0.2626416727690790 -0.1183416544573150 -0.1784118497390110 -0.1309684456426830 
-0.08658799021661000 0.1771484008167140 -0.1026407584549420 -0.06443675428573630 -0.08590845786830280 
0.03632415176041080 0.1866464290598610 -0.08517283875175150 -0.1388784714997860 -0.06893625959473470 
0.01925595126470780 0.1389823889547610 -0.07998501245950540 -0.09323562979361210 -0.03830608549666270 
0.06014457869167930 0.07521001820351520 -0.04074044563169720 -0.06647048115776740 -0.03441496725146570 
0.06950611345883720 0.04810854434262020 -0.03867504693786970 -0.09622110062925390 -0.01291753183214700 
0.02994231398930060 0.05051503046991030 -0.02842425729924800 -0.07639065902243100 -0.005386588969447150 
0.001736781603494790 0.04669090097544070 -0.008915315184013320 -0.05131945964629790 -0.002720349721584790 
0.01473075895728480 0.01681472456286930 0 -0.04859342020895450 0 
0.006843496137533930 0.01354879448529480 0 -0.02806407542575600 0 
0.0002305029568924710 2.371692252312040e-19 -0.002440564685792530 -0.001176923092938100 0 
0.0002285335172485430 0 -0.002419712264155210 -0.0009560416460343330 0 
0 0 0 0 0 
0 0 0 0 0 
0 0 0 0 0 
0 0 0 0 0 
0 0 0 0 0 
0 0 0 0 0 
0 0 0 0 0 
0 0 0 0 0 
0 0 0 0 0 
0 0 0 0 0 
0 0 0 0 0 
0 0 0 0 0 
0 0 0 0 0 
0 0 0 0 0 
0 0 0 0 0 
-0.003647157097541340 -0.002974558457624850 0.01180813003531430 0 -0.008306555897571570 
0 0 0 0 0 
0 0 0 0 0 
0 0 0 0 0 
-0.004149447876012310 -0.01155680169098410 0.03457488435774590 0 -0.03656951671248500 
-0.006808153332477890 -0.004395969570075390 0.02440813184226750 0 -0.02170995843299020 
-0.006320839548710290 -0.004201884711006680 0.03824656603899550 -0.008302155739496520 -0.02274332956808640 
-0.02471227776384080 -0.02022605204137030 0.1205605902731260 -0.02288454242044040 -0.09110508124584830 
-0.03888342387364290 -0.02460592603726670 0.1291308584690860 -0.001094538909176810 -0.1171218033073090 
-0.05220955561706490 -0.03817363008370660 0.1540515359328880 -0.02855992040707920 -0.1009083694318940 
-0.03517832581687610 -0.02796209019002910 0.1873021010380760 -0.04100751124236840 -0.2119960024371190 
-0.02362801524176300 -0.07936319030096430 0.1051366107479140 -0.05437590012703780 -0.1154042288608020 
-0.05712073902572920 -0.06190596994116890 0.1783642443933900 -0.09949561617186710 -0.1892106643873120 
-0.1186941068027580 -0.01824662298875760 0.3949737309433570 -0.1762705198857100 -0.3000475534241630 
-0.1536847345889530 -0.06709999809969090 0.2444382839880220 -0.1124240072042670 -0.06246930373533640 
-0.2096647407508560 -0.08816697245756480 0.1564763197244580 -0.1592250889464220 -0.02631578854845200 
-0.2727060888143050 -0.1167848725187290 -0.1496965787164310 -0.2054828084044430 0.4816339918472050 
-0.2670812908195770 -0.2595014045866050 -0.1704567310537570 -0.1593689123100090 0.6220099389095120 
-0.08490499960917310 -0.2350450590871080 0.08372924303281290 -0.2944821101933560 0.2817689708087240 
-0.03026925323984200 -0.2347070609243900 0.1623790213781540 -0.1604054675968060 -0.1299525403404490 
-0.07780524750801100 -0.09679056963482320 -0.2213202605637140 -0.2817459145667910 0.5114628066744420 
-0.2010967525543880 -0.2931106759490680 -0.4015287087873730 -0.02732052637204340 0.7359902512237410 
-0.1114280063116330 -0.5313591217274570 -0.2514836393471820 0.3438906712794140 0.5329952404834740 
-0.1628292979458400 -0.4867628322666500 -0.0007479072676545910 0.3860088980701110 0.09791642049965480 
-0.01264669547948240 -0.6348695693858280 -0.1558989214990350 0.8594460133654680 -0.2451635336462670 
0.2222639228168360 -0.4510158526977530 -0.3580582335878070 0.4834125541842840 0.05891241838501530 
0.1540119113921580 -0.01434383986828570 -0.3356586145000160 0.03040202676266680 0.03181212384434420 
-0.1256104917292070 0.3475597962777170 -0.3337047110761960 -0.02642395146571160 -0.07563374156814020 
-0.1535710408521050 0.04950898559182540 -0.2723208889102640 0.4016816862513620 -0.2733467871658590 
-0.2844389975862100 -0.01486131955747930 -0.2012253911092770 0.4035046409807110 -0.3172699459180470 
-0.2500488118066600 0.3679105498730510 -0.1668633234543610 -0.1956309085950550 -0.2813005664688230 
-0.2460679003245740 0.5312264619535770 -0.1259795039982480 -0.3752093991951470 -0.2332182332339190 
-0.2254435081942890 0.6623074475608390 -0.1798464931752880 -0.6154447124841660 -0.08032431232475430 
-0.1342671482272710 0.3875289747664340 -0.1638839567626300 -0.2803226178381670 -0.08676156343043110 
-0.1153128115157050 0.2721535681229590 -0.09608248994604130 -0.1873793514481470 -0.07215296116705830 
-0.08269808939052390 0.2505260713617350 -0.06610146854235340 -0.2061213990264900 -0.03929392804493100 
-0.02183637438810750 0.1891439344127360 -0.06167515871977090 -0.1710604829313950 -0.01320759648537310 
0.01001717857743600 0.08884824551048200 -0.03165781823285300 -0.08815279663505490 -0.01495799176870330 
-0.002629957006096320 0.06066440780628150 -0.008692170781787970 -0.08052530402846190 -0.007121391646845090 
-0.001771680512695380 0.05506131881486110 -0.02276102448699340 -0.08253543365849100 -0.005979017186416060 
0.008436337846247080 0.02597376179679030 -0.01474401790074430 -0.03510260383793050 -0.005598311107482610 
0.001290709694357260 0.008002328319996060 0 -0.008547893617335340 0 
-0.0007060192677730830 0.007229974642075330 -0.001789083950971990 -0.005954782378220070 0 
0 2.710505431213760e-20 0 0 0 
0 0 0 0 0 
0 0 0 0 0 
0 0 0 0 0 
0 0 0 0 0 
0 0 0 0 0 
0 0 0 0 0 
0 0 0 0 0 
0 0 0 0 0 
0 0 0 0 0 
0 0 0 0 0 
0 0 0 0 0 
0 0 0 0 0 
0 0 0 0 0 
0 0 0 0 0 
0 0 0 0 0 
0 0 0 0 0 
-0.001406506499627200 -0.001147122455183190 0.004553741777207450 0 -0.003203378562258000 
0.0003243081347905670 -0.001913443040841740 0.002770840799840260 -9.880762462852870e-05 -0.005091321580910750 
0 0 0 0 0 
0 0 0 0 0 
0.01330914310210070 -0.004103348980009350 -0.003343459327047590 -0.002222545478432240 -0.01862917858179280 
0.01460664453752060 -0.001695281998311100 -0.01391851988817710 -0.002587646108436170 -0.01391509991353560 
-0.009134631143306500 -0.009824592000140450 0.06427271142180800 -0.001257076051352220 -0.06146694512788030 
-0.01476938402530650 -0.01070802983755800 0.09805990738934200 -0.007938287186949190 -0.09972050050890910 
-0.08399567956420890 -0.05186920374901680 0.2793911599489650 -0.01302029912964520 -0.2248176985198090 
-0.07501180015862130 -0.07706497705058740 0.2769349031232330 -0.04057097884509520 -0.1963565931779180 
-0.07805213702012420 -0.06525656834748680 0.2699819519870530 -0.07947173911954680 -0.2494988958087530 
-0.1576744417911840 -0.1354631047825330 0.3031529146970900 -0.08500822585108010 -0.2378004974162480 
-0.04845081538909730 -0.1448754067025850 0.2402195295470020 -0.2249084356638400 -0.1679124062603030 
-0.1010598851781510 -0.1043535252248110 0.8626905573317180 -0.2820070984747160 -0.7255131731280850 
-0.1909694672197850 -0.1748737193367210 0.7752725352107850 -0.3510226500106710 -0.2756624153501040 
-0.3843994277982570 -0.1699872813411970 0.6246821709503930 -0.1062706492924810 -0.3093459883847970 
-0.2719264743018980 0.06420949547048590 0.2256143779129430 -0.2866056554042550 0.04944366190125160 
0.1579164071758530 -0.3632997084332130 -0.03581914627570770 0.004926934160411810 0.1203637806515220 
0.02558415513991060 -0.1557100551105410 0.2053922870496080 0.04069304107634270 -0.08023977422009790 
0.06939765064322620 0.08402720596742570 0.2552473056982830 -0.3537553666314420 -0.3926006606180440 
0.2829940633917540 0.009372375185815790 -0.5007228261112740 -0.4692328952065840 0.5218318126805930 
0.1610506234378730 -0.4285909161527180 -0.9521532339814530 0.1141104055287130 0.8648697883217090 
-0.02996997980852050 -0.7654077168151230 -0.4419024273429490 0.7579458019317450 0.5878203293629190 
-0.1319196764258480 -0.4122136524945890 -0.3701581958162750 0.4123047632994800 0.3677383583242980 
-0.2589029191202150 -0.7405459482227570 -0.2740596906714150 1.131154083215020 -0.006113077013143440 
-0.1321711812257470 -0.2266232948872250 -0.2147422795804460 0.3113109557221560 0.1356783034923320 
-0.2387642442073530 -0.04557733890053240 -0.2366281938185150 0.2465493713517310 -0.03323902206723390 
-0.2447446212300440 0.3341707650941920 -0.2240043970591060 0.009591100160457090 -0.2260232396700350 
-0.3085086045716270 0.1592021948529240 -0.2074625603923400 0.2773333527515280 -0.2695030400114960 
-0.2644111907747940 0.1379512924950110 -0.1487215969824770 0.1894135623854170 -0.2041722975866250 
-0.2711265206706180 0.2568801512293240 -0.1459033930858200 -0.1864924437587550 -0.2069829243519200 
-0.2496252158288360 0.6064224994468640 -0.1241754381950880 -0.5418974407643880 -0.09504053992655130 
-0.2275595512316840 0.5386322097322160 -0.08968048474649410 -0.4306903028660220 -0.04106237477850980 
-0.1397474004947490 0.4164574865733140 -0.1175662333086330 -0.3689893685554970 -0.03900318163095120 
-0.1221580277207000 0.2242806192647450 -0.07694385912567850 -0.1799413703045150 -0.02437373709314170 
-0.1395819542709300 0.1180282241413280 -0.06309171004875210 -0.001529965320923040 -0.01361415668418180 
-0.06960597025524430 0.1479928587341670 -0.03041348105985020 -0.1135579138338110 -0.002438272033945560 
-0.03767019478032080 0.07829340682320900 -0.01933041378341710 -0.05426139936481320 2.168404344971010e-19 
-0.01784070706071340 0.02960920494928740 -0.004946337537958400 -0.01976489191626290 0 
-0.004213096697073760 0.03859721257832810 -0.004977074193814150 -0.06934547645281830 0 
-0.003642145278130800 0.02432646166698010 -0.001378654617047060 -0.03415338328549890 0 
-0.0003295195738978700 0.01172487363495410 -0.0001758771629721340 -0.007557699471061140 -0.0004406365116503020 
-0.003341631742166940 0.01325601191625020 -0.008467842157943690 -0.01219313331321060 0 
0 -5.251604272976660e-20 0 0 0 
0 0 0 0 0 
0 0 0 0 0 
0 0 0 0 0 
0 0 0 0 0 
0 0 0 0 0 
0 0 0 0 0 
0 0 0 0 0 
0 0 0 0 0 
0 0 0 0 0 
0 0 0 0 0 
0 0 0 0 0 
0 0 0 0 0 
0 0 0 0 0 
0 0 0 0 0 
0 0 0 0 0 
0 0 0 0 0 
-0.001318474838811130 -0.0005906094988315220 0.01520229580267610 -0.0001912001344679660 -0.01046282637377030 
0.001254462825792620 -0.006430486165450310 0.009311933017979900 -0.0003821997622150480 -0.01743009184946030 
0.01240229966071780 0 -0.01464540714818600 -0.005536094766325430 -0.002886371941353380 
0.01317872087369010 -2.710505431213760e-20 -0.01639807606275820 -0.005861853566565910 -0.003983470407602310 
0.03883672510850920 -0.002757504635024250 -0.01415994448374610 -0.01990926821821320 -0.01616090567868820 
0.05574178115239050 -0.004388653365853550 -0.04443292662626670 -0.01862950222134660 -0.001773494114927220 
0.09366950790197210 -0.01875860907741700 0.01457381634077520 -0.02505102184116100 -0.08950789777747510 
0.05545178697976370 -0.02625410208931700 0.1085646312864930 -0.02957864629750820 -0.1373384158908540 
0.1010919610995660 -0.06324193418883620 0.2131913560642100 -0.07025109120341580 -0.1823817925698050 
0.09707925997573070 -0.09863451486821910 0.2664164637200870 -0.08803337087384480 -0.2209098539979650 
-0.06961963735607050 -0.08350203049979000 0.3310771810006400 -0.1598782983293780 -0.2252901814916170 
-0.1790245201663360 -0.1644110838015050 0.5485923179059870 -0.1305317416771260 -0.3065039627109370 
-0.04970750440535480 -0.1218424674274920 0.1065011611531830 -0.3159555407012920 0.1640115073476620 
-0.1524798826292280 -0.1088053359367200 0.6509079625785840 -0.3543402419389480 -0.5906232103406820 
-0.2749021286966360 -0.1150307532601160 0.5314882369893200 -0.4017812177079560 -0.1082944962700760 
-0.2230344854447660 -0.1297495338152560 0.3940995599303580 -0.2353815516771380 0.08196607087916890 
-0.04674608262217260 -0.1782058222814770 0.1674987755795800 0.2429387765195760 -0.3312370845893760 
0.5704803020263660 -0.5287209566768090 -0.2911022389811350 0.2626912223925830 0.1182785950449630 
0.1313719339321900 -0.3663760877059280 0.05105367000627930 0.2727979595955350 -0.1597875209327950 
-0.02812403110495090 0.08980624536074190 -0.4106619202944660 -0.2244434221914840 0.1040995966751610 
0.01978626482208310 -0.1088625500676230 -0.4794977677007140 -0.08984466747766350 0.3425455430631010 
0.1152880587952330 -0.3178563495653570 -0.3908931818308690 0.1854773716027940 0.2947974898797180 
-0.1620273663096620 -0.4931083559963090 -0.2665579809815960 0.5931475619633610 0.1782930957618100 
-0.2688770185424410 -0.3514370367076590 -0.1836859583440390 0.3687990936158790 0.1094051623203150 
-0.2824892581682300 -0.1679688200250770 -0.1856338027727320 0.3868857372181550 -0.02537124233730410 
-0.2322973633138400 -0.2358575044383210 -0.1483555749938190 0.2218259512929730 0.01433358070628630 
-0.1982582832842860 0.07050219611190700 -0.1024873617897260 -0.008790419782679610 -0.06965747856592040 
-0.2466644911955050 0.06340346931642760 -0.1092894511917560 0.1456815825042990 -0.1997141713680230 
-0.2573555636065370 0.4441500738002380 -0.06865091191397230 -0.1458803345884910 -0.1718540056565970 
-0.1835357725145040 0.1343310743379820 -0.06207342477468470 0.02391025638750960 -0.1324108669698640 
-0.1926104742299770 0.1364686591950140 -0.08016605074478300 -0.05332058383013940 -0.1053319030514740 
-0.1647604301945310 0.4215895299616310 -0.05770449011802840 -0.3564751070342890 -0.06763459257395060 
-0.1094944307597910 0.3278778685559530 -0.03653633352225900 -0.2490744951066850 -0.03606715986927080 
-0.07712091307945650 0.2293102567104960 -0.04722953786669620 -0.2179766798967370 -0.02851764342164890 
-0.07858590165298730 0.1219525233507240 -0.04743444034054410 -0.1011187504333780 -0.01908722403764660 
-0.06150860432942250 0.07562691874461610 -0.01871644884990040 -0.02269734324061330 -0.01806423937058580 
-0.04446860352053030 0.08336726840177080 -0.01333981374773310 -0.06432915847612990 -0.007360069005018020 
-0.02214264891165900 0.07012666864764130 -0.007085051876828860 -0.05728316327253670 -5.421010862427520e-20 
-0.007611735962918560 0.01711818046081200 -0.002329179653732190 -0.01047022948797600 0 
-3.252606517456510e-19 0.02621069686183060 -0.0009543915511931870 -0.03450160145530840 0 
-0.007035350738447660 0.01457820742157140 -0.002152806649717110 -0.01525368857332420 -2.710505431213760e-20 
-0.0006717289157050570 0.01413425168381560 -0.0003585273390076950 -0.007956185053647900 -0.0008982418940692500 
0 0 0 0 0 
0 0 0 0 0 
0 0 0 0 0 
0 0 0 0 0 
0 0 0 0 0 
0 0 0 0 0 
0 0 0 0 0 
0 0 0 0 0 
0 0 0 0 0 
0 0 0 0 0 
0 0 0 0 0 
0 -1.355252715606880e-20 -0.004315428330956600 0 0.003630185561164000 
0 0 0 0 0 
0 0 0 0 0 
0 0 0 0 0 
0 0 0 0 0 
0 0 0 0 0 
0.0002267614908719920 0 -0.002400950053660350 -0.0009486285933046890 0 
0.007792856343472990 -0.0005054870292931140 -8.788907654404750e-05 -0.001244901819060850 -0.01217016262870780 
0.001751192243349630 -0.004173284576109920 0.006043298350675000 0 -0.009730020831818240 
0.06547132364401770 -6.505213034913030e-19 -0.04295843368566110 -0.02158889456320860 -0.007494992401065400 
0.04559815742681220 -0.0006058570366447460 -0.02319992761284160 -0.02765732991263990 -0.02072411350822450 
0.06599672745037860 -0.008383620997730870 -0.008364626374679690 -0.03018800235932320 -0.03047117818399180 
0.06943707429592160 -0.01000928311705700 -0.005025763118949030 -0.03424736495615210 -0.04722769773746050 
0.1369213922187160 -0.03010326884439070 0.01957113276428010 -0.06458280719461150 -0.07754308535981640 
0.1672933113411100 -0.03891009559766740 0.1228844066236730 -0.1408998003890640 -0.1505521576709640 
0.1114628888786490 -0.02050244427165700 0.1143568531515310 -0.1121604410947570 -0.1339510239514240 
0.05969421214614520 -0.1009407920256850 0.2150903159597880 -0.04265233367978200 -0.1816351214800080 
-0.01967722276491110 -0.1113166997842410 0.4087638507920550 -0.1009819815884890 -0.2266255111008430 
-0.07992861472050000 -0.1713129754762210 0.4833282003676570 -0.1296242475690090 -0.1520006098982090 
0.07754698987744170 -0.07260851670072450 0.1571606089651890 -0.3251192840962520 -0.02419678852281790 
0.02943116087975460 -0.05605699230717190 0.1268460913706170 -0.4169708393863000 -0.06845362969117780 
-0.3589039729209020 -0.04001635798251140 0.2533751458063920 -0.2332281956793450 -0.1505426324313110 
0.09714004176158520 -0.1667408142625660 0.4627241780240680 -0.3428364270752160 -0.1378650609371870 
0.1921404689350420 -0.3853149874002950 0.09157809723743770 0.2072629705653550 -0.2233484547955160 
-0.1272174240481270 -0.6656701618795130 0.06430201587081460 0.6329198463932200 -0.2798719696380270 
-0.07516108371298210 -0.4800745051486210 -0.5568681971449350 0.4928884716994050 0.3037569771244580 
-0.3619044170159260 0.1824423878742490 -0.5839874728547060 -0.06618952630693660 0.3659032884090270 
-0.1948502961799640 -0.02674059216427550 -0.4510929305709690 0.02690938904761710 0.3081348067288960 
-0.03934381432233750 -0.1467653843661330 0.006438832017676530 0.08398241695640360 0.02013786042109290 
-0.1951889254603540 -0.2313740823673210 -0.04402493415648610 0.1769513583456320 -0.004466762654635070 
-0.1463727738415580 -0.2591639920525970 -0.07713755899512110 0.3176168904564960 -0.03962413175218430 
-0.1785347291998140 0.05937917331768950 -0.1300768645105510 0.05707636261339090 -0.04907581456572070 
-0.1705045826899020 -0.1913381499913960 -0.1208528174744220 0.2006299629319410 -0.07843430656369220 
-0.09425086480357470 0.1004827814929880 -0.08102694844449950 -0.1225428200705490 -0.03046436147832400 
-0.1556533070380410 0.008370515399948900 -0.08659628056329430 0.08127550219065100 -0.06565098575260240 
-0.1055504508644670 0.2076420449849490 -0.04355007925552400 -0.1237981612993210 -0.04512753247298410 
-0.1019907265141240 -0.01304292380970610 -0.04318842586187900 0.04620295349198980 -0.03551980495319410 
-0.06504101754612730 0.07519141313344270 -0.03222250782927050 -0.04510911461944940 -0.02977889885485860 
-0.05573019632821530 0.08717478884120860 -0.03191296515905160 -0.04667205679103860 -0.03717623501874440 
-0.04536615927481450 0.1208827695535720 -0.03022872658504120 -0.1043945552455410 -0.01689257967070870 
-0.03002891350281010 0.07965560628210440 -0.02590822765102740 -0.07934159555262730 -0.01020660912838260 
-0.02170725570363030 0.01003415558924500 -0.01984254381026450 -0.005867170397341770 -0.003443288725472970 
-0.005873195261270720 0.03708553896356450 -0.006349322161371720 -0.04378038723510410 -0.001912673251020300 
1.355252715606880e-20 0.009344771330621180 -0.002495474372658480 -0.02096821571052840 -0.0004978622495154590 
2.032879073410320e-20 0.02194436623942780 -0.0002646200012653990 -0.02503082218185300 0 
-1.355252715606880e-19 0.001523980682671690 0 -0.001162489002464350 0 
-1.084202172485500e-19 0.001373192697073510 0 -0.001047468269619930 0 
0 0 0 0 0 
-0.0005501615726724440 0.01157628018254090 -0.0002936422120037900 -0.006516300220593540 -0.0007356809592791120 
0 0 0 0 0 
0 0 0 0 0 
0 0 0 0 0 
0 0 0 0 0 
0 0 0 0 0 
0 0 0 0 0 
0 0 0 0 0 
0 0 0 0 0 
0 0 0 0 0 
0 0 0 0 0 
0 0 0 0 0 
0 -1.084202172485500e-19 -0.02582357124444630 0 0.02172307087034820 
0 0 0 0 0 
0 0 0 0 0 
0 0 0 0 0 
0 0 0 0 0 
0.0003068729132868470 0 -0.003249169578087150 -0.001283764800342340 0 
0.0003228963002565110 0 -0.003418825156098640 -0.001350796653866310 0 
0.01237971089483150 0 -0.01011163589327340 -0.001777953785881720 2.710505431213760e-20 
0.009160726223724680 0 -0.01207501231913740 0 -0.002450296970489940 
0.04346618083831520 0.009172562911998660 -0.03452790174359400 -0.02336203013959840 -0.008230893040176250 
0.04179230062569370 -0.0008307298496093050 -0.01983932678677890 -0.03685884064376300 -0.006145803210990110 
0.03588727871785840 -0.01564415670327380 -0.03461465495611760 0.01187103854306330 -0.009165784307633020 
0.04597515777251130 -5.512208520105620e-05 -0.02243455040504570 -0.01848523274707150 -0.01190804733315350 
0.03303615369049960 -0.02859637672486980 0.03633109679966600 -0.01734655589971620 -0.04610004074971670 
0.05100815430092550 -0.01911903371596910 0.02670805394123990 -0.05923890523958050 -0.06134030268582180 
0.02678289708802140 -0.03157063601863890 0.1204389080053910 -0.05927070121588300 -0.1163631093499790 
-0.02614492883195170 -0.06033946399507680 0.1484962158317530 -0.01135210020265230 -0.1186468285825170 
0.01556297412472170 -0.1137449712091880 0.2271520886065850 -0.009176241154585240 -0.2212251735065310 
0.1879801707821010 -0.08263378778080990 0.05818020639471590 -0.1604170066766040 -0.08711549184396620 
0.2453179884146280 -0.06760620181715510 0.08128042050538460 -0.3143361981511330 -0.1116282575255960 
0.1974398850064940 -0.0008283145089335460 0.02987259755885330 -0.5169408052686300 -0.1178334561118450 
0.2285090543369900 -0.1261428727875910 0.1828105332997410 -0.4034044929120420 -0.1814625084475330 
0.07993621151622240 -0.2846269060444780 0.5450651616713510 0.02686674855808830 -0.5977185055649050 
-0.2001232522157610 0.03944537703623080 0.2992032058584270 0.1317245319538290 -0.3455137733895960 
-0.4569501030707270 -0.5630781918638670 0.3607442793064650 0.6666107152974350 -0.5061258093367360 
-0.1683898596148850 -0.3422833335393780 -0.3194871942676620 0.2531238507220600 0.1425484809276120 
-0.3403054311985330 -0.1444463965091280 -0.3666062651374750 0.1667323693470990 0.1629145356103130 
-0.2258990874556330 0.1503702717931130 -0.2900886162087920 -0.1820434137362620 0.2182331127525590 
-0.004187829598481730 -0.1749800925891750 -0.06694828312714740 0.1038819793562960 0.06496503055442790 
-0.1916006440000570 -0.1582390574330560 0.05211035916781110 0.1920316773924540 -0.1242712032129460 
-0.1466430174438340 -0.09790651121904390 -0.09409752990268360 0.2028010226590150 -0.01033482729231020 
-0.1260265027285780 -0.07096006390936350 -0.1019185730824440 0.1158016692288120 0.01813349788220660 
-0.06928945982304610 -0.02061491294797710 -0.06082637009680520 0.08742531810618460 -0.07532613760414290 
-0.08328513708855130 -0.05956681034455410 -0.07369176184111220 0.06946647779376000 -0.02194253939408410 
-0.06493855402114930 0.04542581325294640 -0.04615285666210100 -0.02201826017597340 -0.0002107483990146090 
-0.06044163336774230 0.01161305498658990 -0.04326720131455350 -0.01882897468483460 0.0003624411634576580 
-0.04108677623446930 -0.001225658507440190 -0.02482927525851340 0.003855874203800670 -0.005571081203789010 
-0.02230924408730110 -0.06309843773610200 -0.01695487543106530 0.05545894545408800 -0.004050124899562160 
-0.01166317527656840 -0.02885083268474640 0.008873841526098530 0.01613913836769020 -0.02788114672392810 
-0.01064064147609420 0.001479626336450500 -0.01229801651510960 0.003023361370193080 -0.003946415361074920 
-0.005963040922166360 0.01166030567939320 -0.006456691088495170 -0.01244956495323440 -0.001485495118919900 
-0.007242502869808560 -0.01616989762067730 -0.007725297746641750 0.01807795637804840 -0.0006910567525010260 
-0.006917700464995400 -0.003613211978050110 -0.006694692418307980 0.009269778962305570 -0.001102569605403860 
0 0 0 0 0 
0 0.002428752978283750 0 -0.002603534856538390 0 
0 0 0 0 0 
0 0 0 0 0 
0 0 0 0 0 
-9.045257660248220e-05 0.001903267007356950 -4.827798958399600e-05 -0.001071350988773870 -0.0001209539917536200 
0 0 0 0 0 
0 0 0 0 0 
0 0 0 0 0 
0 0 0 0 0 
0 0 0 0 0 
0 0 0 0 0 
0 0 0 0 0 
0 0 0 0 0 
0 0 0 0 0 
0 0 0 0 0 
0 0 0 0 0 
0 0 -0.004315428330812990 0 0.003630185561043200 
0 0 0 0 0 
0 0 0 0 0 
0 0 0 0 0 
-0.003082147820433510 0 -2.981555974335140e-19 0 -2.066760391300490e-19 
0 0 0 0 0 
0 0 0 0 0 
0 0 0 0 0 
0.009047735384727260 0 -0.007390108431954100 -0.001299420924898000 5.421010862427520e-20 
-0.0002418579263785470 0.01703408452576880 -0.003628674310338510 -0.01135199790822700 -0.002052225462168810 
0.008276748277204250 -0.0001621997435132240 1.626303258728260e-19 -0.01681636429033980 -0.001186352684130560 
0.0009578542279916740 -0.01869842100991240 2.168404344971010e-19 0.01338177353819840 -0.003411838710421450 
0.02584114957795220 -0.0002421745383030930 -0.008563327414328550 -0.02258014920002030 0.01156960242637840 
0.02462108503556860 -0.05082417793013020 0.008046165467206800 0.03566900814262140 -0.02246164584029800 
0.03316854630221700 -0.03936524211282340 -0.009153958235757720 0.02515913225094700 -0.03715812878323590 
0.07287465482456160 0.01031823866447970 0.03167877318367120 -0.04002340520934030 -0.06666181599563970 
0.07561546324314190 -0.05629454768324410 0.004877587763737580 -0.0001671679201473710 -0.08338919617115040 
0.1734908913404110 -0.1018832519083130 0.02252113375594300 0.01651443740417640 -0.1583947815187510 
0.1547159465460170 -0.1211558338096350 0.07554792245932840 0.01146932862794570 -0.1884331737933550 
0.2044227397831880 -0.2041628536296340 -0.005849985870273100 -0.03454595861323630 -0.09583493101065460 
0.1995079398689640 -0.2291978648033320 0.05060867048149030 -0.1652805979604660 -0.1371957369957270 
0.1822438519642610 -0.3114247055955180 0.1386968130628660 -0.1776517446061930 -0.2694145782735450 
0.03872509507052180 -0.1226907771504710 0.2826957910275150 -0.1404089942671610 -0.5968943770854980 
-0.2555119020951210 0.3381833337819740 0.2198746714921140 -0.1880659732657450 -0.4422851347694890 
-0.2428854811639360 -0.08291464106261770 0.1882540367169410 -0.08634227577827070 -0.2348527393601980 
-0.3173174785603160 -0.3343261807876650 0.07487774769373680 0.2765027704871400 -0.1119021954585040 
-0.3476287946222660 -0.6175012286583700 -0.2847655220656710 0.6637476060516760 0.2650397080816420 
-0.1936655048310260 -0.2323214723616650 -0.07686750822318450 0.2247705506326880 0.07938460583343550 
0.1382521644091410 -0.1091677288744750 -0.1069936995963780 -0.1365064130128100 0.2535042905707180 
-0.01166989180586120 0.09900738586460360 0.006388135978286680 -0.09597580336557770 -0.08667071647520890 
-0.01476072755201220 -0.01669492088915520 -0.03388757693999720 -0.01586862302459960 -0.1019302114692240 
-0.07387725383805680 0.1413704362393830 -0.03892537342725790 -0.1317848368345590 -0.1067529816569270 
-0.08015991556091120 0.09827221711272860 -0.001903380297327460 -0.05846203994034250 -0.1250973636813010 
-0.09743482946482800 0.04034793854346580 -0.03014246290510980 0.03653436369583010 -0.05710663930152620 
-0.01059381724716080 0.06053419526029170 0.01128351070344350 -0.08280070683158230 -0.007962705289386030 
-0.02174059289909500 0.05710460851807660 -0.001413905663173670 -0.05560558257355790 0.02310806247905550 
-0.01039482185251170 0.05421213975784380 0.006939234609784220 -0.04247262930727520 -0.01027459116475670 
-0.01143710304346390 0.02625164551643720 -0.002313490903216590 -0.01225132017010200 -0.001212704356341400 
-0.007442326613589700 -0.009469098705291590 0.03490118553869520 -0.003252146923630890 -0.03629366124047910 
-0.0001460125852068830 0.006158445963731080 -7.793248498304030e-05 -0.004400374865463700 -0.0001952493305376280 
1.694065894508600e-21 0.001920183915612580 0 -0.001661873328636190 0 
-1.016439536705160e-20 0.001587033664802660 0 -0.001373539741552250 0 
-0.0002467731545328520 0.005192502203534650 -0.0001317122433836770 -0.002922864920404730 -0.0003299872620495620 
0 0 0 0 0 
0 0 0 0 0 
0 0 0 0 0 
0 0 0 0 0 
0 0 0 0 0 
0 0 0 0 0 
0 0 0 0 0 
0 0 0 0 0 
0 0 0 0 0 
0 0 0 0 0 
0 0 0 0 0 
0 0 0 0 0 
0 0 0 0 0 
0 0 0 0 0 
0 0 0 0 0 
0 0 0 0 0 
0 0 0 0 0 
0 0 0 0 0 
0 0 0 0 0 
0 0 0 0 0 
-0.0006828364657541170 0 0.003349911124143690 0 -0.004542388072541040 
-0.001727311161922360 0 -3.726944967918920e-19 0 1.406074692442140e-19 
-0.001383361450203820 0 -0.002258077145192970 0 0.004566936192140370 
-8.131516293641280e-20 0.001310422773685090 0 -0.0009995875146639990 0 
0 0 0 0 0 
0 0 0 0 0 
7.962109704190420e-20 5.421010862427520e-20 0 -6.108732182377450e-05 0 
2.371692252312040e-19 -3.252606517456510e-19 0 -0.0006146208220603900 0 
-0.0009414473920066110 -0.002691226562636570 0 0.003061016002018480 -0.0003081645075976120 
0.002077778300010350 -0.0002916080235398230 -0.02032548997140400 -0.009376584697317930 0.02811676330845850 
0.01103255344474000 -0.01189464453598940 -0.003871707186102790 0.005482602423072750 -0.0007037482530206670 
0.008159291240371110 -0.01286745508689000 -0.01403821202704690 0.006311305439092230 0.007829829842989440 
0.03238435792012350 0.01651657860092790 0.002548272078468160 -0.03975861222733310 -0.01090314250732810 
0.03085419515234720 -0.02247204974795210 -0.02759580300841050 -0.02870410142904910 -0.003221115253834590 
0.08714363623651970 -0.05448621962467850 0.003479971871816360 -0.02492610637942290 -0.04954921488932320 
0.06699659872391460 -0.1497613151326570 0.04960743045580880 0.08947573982444210 -0.09928322756460140 
0.03306325105018770 -0.1533659976845080 0.01622150106227870 0.01831054365741390 -0.04654960800105370 
0.007290278183096020 -0.2288875153378380 0.04642880578418270 0.09332703412392340 -0.09636777446901780 
-0.02000646198403420 -0.2674197759411260 0.1166565306308510 0.1484825559997630 -0.2967200212091880 
-0.1249539497834930 0.07909935256591900 0.2902634929146180 -0.2149508198385080 -0.3616061708580800 
-0.1408964178032740 0.06232302183183730 0.1058251947689560 -0.1377068094165560 -0.3078243232650700 
-0.2505152004795750 -0.07894520927324270 0.2101351193771670 0.2216381328136890 -0.4588226357420010 
0.05718291108128200 -0.3472071314422220 0.5025381899155110 0.1440840781940990 -0.6513589389306190 
-0.09296654417024790 -0.3843034566216780 -0.3695652914739480 0.3548084215663660 0.2829625285965200 
-0.2016180232610550 -0.6482543442045780 -0.1643672621587750 0.7321241189051860 -0.1512751415799150 
-0.05843878915878240 0.01986413390411160 -0.1185369067130280 -0.2528963846334750 0.2100585496843080 
0.2245180521721680 -0.08181364834445870 -0.1166076368789350 -0.1320296453686570 0.08762790904594070 
0.2503843386936070 -0.1746183336315400 0.03121353731852530 -0.07122713488465290 -0.01779708907395490 
-0.04609284682279100 0.06456404249183870 0.01361315299443930 -0.07402926100367990 -0.1237016874197170 
-0.04619079071565190 -0.01624376169400350 0.009022593004254300 0.05621210345848490 -0.09697333422137780 
-0.09115435041705220 0.2058352541280010 -0.02434339713894820 -0.1069640902479390 -0.1231608658762450 
-0.09765148761228910 0.1311900436337820 -0.03085623209920750 -0.03255700258887990 -0.04143151986487860 
-0.06779246266090560 0.04749367582105500 0.003691834410491170 0.02395647108962810 -0.02821991305965580 
0.002350409049211290 0.01814826699007260 0.002500389904216210 0.01546806138590220 -0.01957385095700440 
-0.01128109166735320 0.02535221304514090 0.0003974065154464000 -0.006705453996501480 -0.009581248951714230 
-0.003838469374990360 0.002533271540800220 0.008226373976926930 -0.002508300501512020 -0.006530649749009940 
-0.005114451028847200 -0.005141123145892480 0.008303163749198350 0.004593279685013080 -0.006328793453957350 
-0.0006393114630327260 0.002388240862703290 -0.0005040690085875540 -0.0009431802340286540 -0.0002850802154291610 
-0.0005831227552373800 0.002178339780462760 -0.0004597666804267870 -0.0008602846789938930 -0.0002600246832680500 
-0.0006112239400146930 0.002283315839326450 -0.0004819232303557390 -0.0009017425341510940 -0.0002725554953578700 
0 0 0 0 0 
0 0 0 0 0 
0 0 0 0 0 
0 0 0 0 0 
0 0 0 0 0 
0 0 0 0 0 
0 0 0 0 0 
0 0 0 0 0 
0 0 0 0 0 
0 0 0 0 0 
0 0 0 0 0 
0 0 0 0 0 
0 0 0 0 0 
0 0 0 0 0 
-0.001864383597988940 0.004410779871584540 0 -0.003567653652275780 0 
0 0 0 0 0 
0 0 0 0 0 
0 0 0 0 0 
0 0 0 0 0 
0 0 0 0 0 
-0.003300441046001030 0 0.01619155497556650 0 -0.02195530671450460 
-0.002305424326946640 0.01168628596287360 0 -0.008167413064871800 -0.0001708916394551920 
-0.006686378277507350 0 -0.01091425380570600 0 0.02207395828862390 
-0.001747909387085000 0.007399792601624990 0.007511696212415090 -0.01068673227837970 -0.01209421683126490 
0 0 0 0 0 
-0.001614230128873210 0.001281783565682970 -0.01773995428696020 -3.401557009972040e-05 0.01492304377905330 
0 0 0 0 0 
0 0 0 0 0 
0 0 -0.006587716947974880 -0.002133140375474760 0.01033448633824930 
0 0 0 0 0 
0 0 0 0 0 
-0.002806601130275930 0.01422677075485200 0.01331227859737700 -0.009942929148170740 -0.02019443576251550 
0 0.01190112937366620 0 -0.01290272194079900 -5.421010862427520e-20 
-0.006291759943935190 0.01183177562856030 -0.006895001817906440 -0.02081252701709920 -0.0005973178965883190 
0.01234444615196540 -0.02337535648505430 0.01757628678118860 0.01190264957038130 -0.02038855933429710 
-0.001523555543305830 -0.07056529665657200 0.009769166167738170 0.08588127161845410 -0.02867435270337840 
-0.02183156240474770 -0.02908732403060780 0.01842638241032330 -0.0002940620779180000 -0.01597622287019430 
0.003894355778925320 -0.04848580905107040 -0.02603006965383570 0.02751785825009940 -0.006273748974737860 
-0.01900657991924630 -0.1059098738364530 0.01094126244544080 0.05707124085753780 -0.06846689643046170 
0.006153194791610320 -0.06782762747304170 0.04215858750707320 -0.05421806280638720 -0.05162177337410460 
-0.05244971238995440 -0.2308208368107300 -0.02152112614233630 0.1551814484234960 -0.1186067789914550 
-0.08129417764779750 -0.1843279678885520 0.2756284320728480 0.2467633054570240 -0.5451581571205430 
-0.08629673716592230 -0.09441329648502210 0.3278467787412340 0.1412628477275400 -0.5103687937176760 
0.05764428355996620 -0.1346793392593440 -0.1341193588348660 -0.2122833054668600 0.03989993711454360 
-0.04920528812472380 -0.5469288652459600 -0.2008388528393510 0.5121729710123520 -0.01715912020738990 
0.1880931954587780 -0.4537041376133650 -0.04215705587987690 0.04687674797083940 -0.1465015194996960 
0.2641448199323410 -0.1824328768675960 0.1655853782588710 -0.06712171926132730 -0.1018123927574550 
0.02224960056643310 -0.08659682707030320 -0.0004510506070896350 0.1025878965137800 0.04233081352194070 
-0.01555081154775920 -0.03061509197126210 0.03868620177277910 0.03566515740777770 -0.07846843369654890 
-0.05656319757293970 0.1478753548729350 0.1014370918277340 -0.1601880293176380 -0.1357072322127180 
0.1942456300935070 0.03799059265775390 -0.003686430243886840 -0.1008298095361880 -0.09414476706269660 
-0.06604863900341660 -0.06738113526029430 0.007318089130789990 0.2041342118121910 -0.1023234043369040 
-0.08265344268462600 0.01276765666058470 -0.01731814061449010 0.09513106100205640 -0.08526670831363780 
-0.09359066351741160 -0.08552819235807680 0.01184304896611430 0.1831275553109620 -0.04911576338210190 
-0.05831360614403910 -0.05392990383516350 0.01727805183388220 0.1106722710147130 -0.03723167626368920 
0.01414649386677700 -0.01192502340969080 -0.007059710202753030 0.01982298637196980 -0.005799249099460980 
0.02032794345388110 -0.04795831246324630 0.004232620744537180 0.03200948612954660 -0.008791522408729020 
-0.01073209601670660 0.001975213179386400 -0.003904352128757650 0.01225540413696690 -0.003787305193187880 
-0.004512073211328130 0.01685550508931050 -0.003557571546612800 -0.006656690069699300 -0.002012012731659280 
-0.009469614895603160 0.004151448560337630 -0.003733048212961030 0.01189538242862010 -0.003661160062184730 
0 0 0 0 0 
0 0 0 0 0 
0 0 0 0 0 
0 0 0 0 0 
0 -0.001742894117846200 -0.0004806439724502590 0 0.005940546558620720 
0 0 0 0 0 
0 0 0 0 0 
0 0 0 0 0 
0 0 0 0 0 
0 0 0 0 0 
0 0 0 0 0 
0 0 0 0 0 
0 0 0 0 0 
0 0 0 0 0 
-0.006413756913071690 0.01517373888288230 -0.006812028345617590 -0.01447903295665010 0.01068637502635760 
0 0 0 0 0 
-0.0006880885418030670 -0.004304402743682390 -8.846177445691750e-05 0.008106645823339080 -0.0003959188058779000 
0 0 0 0 0 
-0.0006966210685474940 -0.004357778769147100 -8.955872987843230e-05 0.008207170927439760 -0.0004008283307348650 
0 0 0 0 0 
-0.0006828364657541030 0 0.003349911124143620 0 -0.004542388072540950 
-0.006099599806548530 0.01793815447231800 0.01256312243954840 -0.01253677324535310 -0.01729756556800130 
-0.001383361450203800 0 -0.002258077145192920 0 0.004566936192140280 
-0.002329508838644780 0.009644423803932650 0 -0.008803195370784720 0 
0 0 0 0 0 
-0.002329381787690160 0.001849651570898770 -0.02364274750966750 -4.908547305054700e-05 0.01988853806704650 
0 0 0 0 0 
0 0 0 0 0 
0 0 -0.009506270268776400 -0.003078184610942630 0.01491296924203390 
-0.001985011495025310 0 -6.776263578034400e-20 -5.421010862427520e-20 -1.067261513540420e-19 
0 0 0 0 0 
-0.006284964669194400 0.01798396103888650 0.03419618367461870 -0.01526214569229510 -0.03572429400459530 
0 0 0 0 0 
-0.01266093649256630 0.03496353705539940 -0.002348077080534540 -0.02244591438433440 -0.0003696987402071840 
-0.0002464223822622450 -0.0004803757336191820 0.002605625389520610 0 -0.001925585061355580 
-0.004595583410327640 -0.006541662798643150 -0.01187443289783270 0.01468127907464200 0.01106435527668950 
-0.01715382984656480 0.03328383005633190 0.005989884356171300 -0.02315971065232710 -0.002201218549086060 
-0.007640301324006590 0.03877865314770970 -0.008657787715316070 -0.02918069118673810 0.01264117008135910 
-0.04200481108241320 -0.0007221140230386120 -0.005572851156192300 -0.007877765110716420 0.01389111694022970 
-0.06142387881772810 -0.1154912956024060 -0.002286710137815150 0.1006316823397340 -0.002678388289079900 
-0.07107965669905490 -0.1116809341103360 -0.004475214655893070 0.1073060947746920 -0.03213386153019800 
-0.03473633796653330 -0.1181420566055630 0.04441170961758170 0.02428801824189450 -0.03184963380309600 
-0.09903296952286090 -0.05962620447897810 0.01562246109204590 -0.0001136198820331540 -0.06331610149570040 
-0.05721588564182900 -0.1835816370611920 0.03493183409273180 0.07321623060999890 -0.06941548040656440 
-0.01367035918766140 -0.2174337704664360 -0.009956102905276720 0.2141990772608120 -0.1001584414676330 
0.04109711542798520 -0.4129342057479960 -0.1187683275037690 0.09717149942182950 0.08262505380228810 
0.2509282157047620 -0.3884905897357510 0.06927289462718560 0.08798724527119510 -0.1944463137799360 
0.002665530734375150 -0.1093330752037600 -0.03874392683665100 0.1678591227258430 -0.2845823202375170 
-0.07578289700282050 0.05600385196987150 -0.02495107411936580 -0.01561798306225400 -0.2404097269384300 
0.04433738881847990 0.1473070070232340 -0.1017006007224190 -0.02474458653178250 -0.1919650359873410 
0.3276143933817990 -0.1609272112873780 -0.02701110406253670 0.09312085154220560 -0.1532680226678930 
-0.2157166255295140 0.1188451570307960 0.04340387507491100 0.2248359710068410 -0.2221399749771740 
-0.1081403307656500 -0.1352327426494830 0.08822825816820300 0.1671423714780750 -0.07408765683787250 
-0.02516442757058570 -0.1355694040386330 0.1479127751909460 0.05021501759642020 -0.06532069899673400 
-0.01262185058165760 -0.09718261176664940 0.08033099274567610 0.05805716585558110 -0.03015511402584230 
-0.01831324760400510 -0.05497560426973480 0.02703045059618680 0.04106612485158030 -0.001611193003407830 
0.02966986307504200 -0.05005090784333000 0.01567115860772310 0.01537170132472250 -0.009597644642745880 
0.04617891206497440 -0.04453821426855810 0.004141439867995030 -0.0004368134251758000 0.009638950162060660 
0.04190683482969400 -0.01575430148656240 0.01622716516550740 -0.01020087991739990 -0.01326353211106780 
0.04436800766644630 -0.03147524821274990 -0.002965040294058920 0.007253550328465970 -0.003582704269745870 
0.006262759379744520 -0.002383304424811960 0.001797862634799620 -0.002654672975604660 -0.0003248603007890760 
0.03358921970202950 -0.007820977859502420 -0.0003857498676383480 -0.01458535717905940 -1.694065894508600e-20 
0 0 0 0 0 
0.03192279353414450 -0.01515024075100220 0.009045763552711630 -0.006461381402264910 -0.006363339526419330 
0 -0.002515047726693830 -0.0006935834586176430 0 0.008572384268552740 
0 0 0 0 0 
0 0 0 0 0 
0 0 0 0 0 
0 0 0 0 0 
0 0 0 0 0 
0 0 0 0 0 
0 0 0 0 0 
-0.0007385984470486020 -0.0002241599921206140 0.005769880968872150 0 -0.003508273810647930 
0 0 0 0 0 
-0.001864383597989000 0.004410779871584670 -0.009829958245536560 -0.006750650278934390 0.01542075501973220 
0 0 0 0 0 
-0.002361455617972730 -0.01477230824749750 -0.0003035925488887320 0.02782125142249230 -0.001358756368695650 
0 0 0 0 0 
-0.002390738452945280 -0.01495548978234540 -0.0003073571974556360 0.02816624419217830 -0.001375605399526300 
0 0 0 0 0 
0 -5.488259020618440e-05 0.0005275357188196840 0 -0.004632393318823060 
-0.001299565245383690 0 0.006375506128328220 0 -0.008645012336299900 
0 0 0 0 0 
0 0 0 0 0 
0 0 0 0 0 
0 0 0 0 0 
0 0 0 0 0 
0 0 0 0 0 
0 -6.737259327054620e-05 0.0006475905981514490 0 -0.005686618466179710 
-0.003541978415816270 0 2.168404344971010e-19 1.084202172485500e-19 -2.236166980751350e-19 
0 0 0 0 0 
-0.001036474035326420 0.0009440605287559650 0.007221327978734920 -0.001541768445150290 -0.01231356425507420 
0 0 0 0 0 
-0.0005097997505560400 0.002584194848282000 0 -0.001806064547203920 -3.778936230873990e-05 
0 0 0 0 0 
-0.01159099918795660 -0.008327238619636940 0.003386028712136320 0.02793699347067210 -0.01094371970693390 
-0.01593546771820190 0.05200730506566780 2.168404344971010e-19 -0.04349548344797140 -0.01781550448145770 
-0.03048421198989590 0.09102284551152210 -0.02437175153985690 -0.07179516075530800 -0.01952974795186360 
-0.03141953334068750 0.05609572797147190 0.004415865754186050 -0.04701712737620620 -0.02760782391879180 
-0.03708469357479960 0.07336018532400350 0.01871557152583850 -0.02504839409448460 -0.04452658652134230 
-0.07102910278741480 0.06163287745567990 -0.03987110198555470 -0.03638354222173650 0.0006841355262434050 
-0.1185797065662590 0.1721668730426220 -0.05863327102762360 -0.1001696896492550 -0.01876521426700080 
-0.1425069217460230 0.1529002412816810 -0.06023301002673060 -0.08706302894216750 -0.01578327718569510 
-0.1103080859538550 -0.1300137256903950 0.008396253501596900 0.2058851101772440 -0.01984979598974090 
-0.1452320657901370 -0.08510973558250900 -0.08515397943469740 0.2066476381297690 0.04196414375317710 
-0.1525920660511310 -0.2238140045236730 -0.02177881765396030 0.06571278862023830 0.1900881803363280 
-0.3243641077374520 -0.4667652594616870 0.1151708814858520 0.6993653882552490 -0.1673034611913780 
-0.2326268931368190 -0.3115723995823370 -0.2443574669147770 0.3568574935519260 0.03530299676926890 
-0.1637471564641200 0.1272206602107060 -0.1270442061873790 -0.1883739643998000 -0.1474904904622650 
0.2400294693496910 -0.07298327197054710 -0.1529169086226780 -0.1061170936527080 -0.2344809372889340 
0.5970394475819500 -0.3625949331717350 -0.04949472903537370 -0.1107338662144810 -0.2109411764121940 
0.3240525041358870 -0.1619110501649920 -0.08955949957514530 0.01377558601179400 -0.1638283052769520 
0.1645312456145710 -0.3508003119829570 -0.09014455291220170 0.2774783930897830 -0.1178004057649760 
0.08365882150985110 -0.2944075030828300 0.1264425325930570 0.04934651618827580 -0.1145555301985850 
0.1556165887234010 -0.1144828685314640 0.04261707858622150 -0.02821677978642670 -0.08819411768116260 
0.08833880218846420 -0.09956412621974630 0.08051670593679850 -0.02021433953770990 -0.06348711062318380 
0.08103065746159740 -0.02019581423538840 0.08032430246507870 -0.09669447868437240 -0.03974897815809490 
0.1061203652778560 -0.03561017889814920 0.04552918740130370 -0.08205083592266920 -0.02317356897109050 
0.02816206400269100 -0.03585439380339990 0.07785871890184880 -0.04500037144772860 -0.02490248247178460 
0.01932086927280930 0.002378595428069920 0.03500882492251670 -0.05343665080824760 -0.01080170819030360 
0.03304694918192080 -0.008597885209853040 0.02299204163922140 -0.03441105790390860 -0.009351781978709280 
0.02350162169787160 -0.005030178709560680 0.005604458212821800 -0.01852583844129100 -0.004889780014160940 
0.003019693052948310 -0.0006037431505115610 0.02091069901368550 -0.01849293994578410 -0.003778406558881990 
-0.003452149218572010 -0.002815513393160060 0.01117676748876180 0 -0.007862417133102770 
-0.0001956557036655410 1.985233470127270e-22 0.002126501904390840 -0.001724844118637130 -0.0003842429532253700 
-0.0001944733726967530 -2.646977960169690e-23 0.002113651632154230 -0.001714421030633100 -0.0003819210053617220 
0 0 0 0 0 
0 0 0 0 0 
0 0 0 0 0 
0 0 0 0 0 
0 0 0 0 0 
0 0 0 0 0 
-0.002534800895882430 -0.0007692961596640650 0.01980169266192590 0 -0.01204006809622510 
0 0 0 0 0 
0 0 0 0 0 
0 0 0 0 0 
-0.0004897407865817660 -0.003063619661405520 -6.296186663917560e-05 0.005769831730751510 -0.0002817916236551000 
0 0 0 0 0 
-0.0004958137352002620 -0.003101609564023570 -6.374261472367380e-05 0.005841379562989030 -0.0002852859334991390 
0 0 0 0 0 
-2.168404344971010e-19 -0.0001165722954264770 0.001120501955742920 0 -0.009839344689541080 
0 0 0 0 0 
0 -0.002744803015054480 -0.0007569438735495510 0 0.009355490926392880 
0 0 0 0 0 
0 0 0 0 0 
0 0 0 0 0 
0 0 0 0 0 
0 0 0 0 0 
0 -3.636110984810340e-05 0.0003495058113827710 0 -0.003069078221209100 
0 0 0 0 0 
0 -7.301219625036510e-05 0.0007017988999214510 0 -0.006162632062957470 
-0.006322029323097440 -0.007764060958441790 -0.0008467601495166920 0.01212023221250850 -0.004476856655965530 
0 0 0 0 0 
-0.01025894960087430 0.03183119867951650 -0.002629843415439300 -0.02099966556095580 -0.009411385643806760 
-0.007576389805995030 -0.009246112114172010 -0.001576346009937110 0.01452502022501720 -0.0004337779872005330 
-0.01457447691168340 0.01841676658824060 0.01803674017172910 -0.01025509719001080 -0.02985624182851660 
-0.02475058633304310 0.05183233305877570 -0.004684928501947010 -0.03305272545296030 -0.01823098175589220 
-0.03050647408465760 0.03399640498936430 -0.002845356419914940 -0.01438995506970790 -0.02460149640660690 
-0.1065198120006160 0.2602075663761870 -0.006285586414164260 -0.2010650183749260 -0.1127631309006240 
-0.08155762539125830 0.1584704138301580 -0.01190667871827680 -0.1044705784752100 -0.07019653072869180 
-0.1439004213121610 0.2039749656075300 -0.05389765654263370 -0.1181652461074640 -0.07314143293351300 
-0.1335843803716800 0.1667751487023960 -0.08297173913775350 -0.07492172848651490 -0.01220439624913680 
-0.1292163049439600 0.2177024923903870 -0.05645288950505470 -0.1334783982886540 -0.05671102152224570 
-0.1358344656752970 -0.04199417986148630 -0.08554655116123520 0.1317438354294970 0.02323456548296780 
-0.1663672168217580 -0.04099527495602940 -0.2491221123061020 0.1566052728561770 0.1774493155516150 
-0.1577819668672790 -0.1876209808323020 -0.2074205697114570 0.1494963890591770 0.2178797101811290 
-0.4360428680917890 -0.3532722547629010 0.1182791077140570 0.4817304525744070 -0.1428209870673020 
-0.1429746945338860 -0.3434470659024110 -0.2847562216178030 0.5213700622492870 0.1233216878290400 
-0.08004159873305300 -0.1669749707425330 -0.2793279213298970 0.2604441007625770 0.06823184924576920 
-0.04380684237563080 -0.09880778375421600 0.1057171832753080 0.06813418718999520 -0.4825729410431460 
0.1972222555858330 -0.1249832385616640 0.2777271360955440 -0.1736173753357480 -0.3434892245200560 
0.1918934368602270 -0.1493989978927730 0.2322325599990120 -0.1947486682642650 -0.4635099745426230 
0.04711985181296220 -0.1634036661757510 -0.04495648787002890 0.1428685957189460 -0.2367381762338500 
0.1869822826131080 -0.3189658248647340 -0.06026746747135200 0.1962195964749080 -0.2435424001575430 
0.08598097552301150 -0.1278252404434050 0.09440453551250020 -0.01053031021356080 -0.1968723619473940 
0.2004665486119060 -0.1585911560271350 0.006118493157397370 -0.02076614637672690 -0.08034694189415500 
0.2187224862924410 -0.006600499493322270 0.2288341985680450 -0.3581273482078220 -0.1411657454228560 
0.1260570074455080 0.03516742332706590 0.1731938102235360 -0.2358928536567680 -0.1000333332454850 
0.1260174593395500 -0.05560538139974930 0.06448583576874610 -0.07518093717089710 -0.03598759298764900 
0.05866282024888430 -0.01456953011114360 0.004992262334916540 -0.03363953915459240 -0.01161597959733890 
0.06327618975283390 -0.003919482415737400 0.006171234909519900 -0.05187871764035360 -0.005733970446716370 
0.02500987306822330 -0.003687745554544940 0.01000579827560090 -0.01659762780946850 -0.01146081643903680 
0.03680640024776480 -0.002693601365281260 -6.505213034913030e-19 -0.02504449191619730 -0.001278151929570000 
0.009271695918898230 -0.002761742999063430 0.01215927056041300 -0.003523441259272360 -0.008985831133776140 
0.006018181589544660 -0.0001908811663725360 0.01518274912358030 -0.01717399508704570 -0.002743408952175660 
-0.001388501541282810 3.246253770352110e-19 0.01450473347315550 -0.01224062816637450 -0.002726840683839720 
0.0008519611884073300 0 0 -0.0002595687627650440 -0.001655347006020050 
0 0 0 0 0 
0 0 0 0 0 
0 0 0 0 0 
0 0 0 0 0 
0 0 0 0 0 
-0.0005256907540965540 -0.0001595438438396950 0.004106660513157250 0 -0.002496982105048140 
0 0 0 0 0 
0 0 0 0 0 
0 0 0 0 0 
0 0 0 0 0 
0 0 0 0 0 
0 0 0 0 0 
0 0 0 0 0 
0 -6.004052491344210e-05 0.0005771141877511960 0 -0.005067751456750990 
0 0 0 0 0 
0 -0.001526016488887950 -0.0004208348744386680 0 0.005201332604567160 
0 0 0 0 0 
0 0 0 0 0 
0 0 0 0 0 
0 0 0 0 0 
0 0 0 0 0 
0 0 0 0 0 
0 0 0 0 0 
-1.084202172485500e-19 -6.475753478517670e-05 0.0006224544529248410 0 -0.005465893106635850 
-0.01151154286459430 -0.01404851369301440 -0.002395095174282700 0.02206927008917610 -0.0006590809107294310 
-0.006847085537289820 0.01964473298101690 -0.001056446117097990 -0.01645439989239240 -0.007359432851942520 
-0.007324993905785170 0.01497131338948450 -0.004010042151549490 -0.005343875689001770 -0.002748742562171610 
-0.01991773123469720 0.004923205769430020 -0.003579955523498620 0.007311245516508670 -0.008514997531830800 
-0.03458217340036020 -0.006983538427975080 0.0004694663454343960 0.02346018088088990 -0.02214987530758190 
-0.06657709876700620 -0.03028028214878480 -0.001205494512832610 0.07145363317702990 -0.02963348429754460 
-0.05010603244915280 0.01849558858942700 -0.01476420126513000 0.008054184430052610 -0.02188871450040140 
-0.1908342569730960 0.3623783852592000 -0.01451504451659500 -0.2511101137801750 -0.1745265536522680 
-0.1753743666002780 0.3032651538764080 -0.05584308788306360 -0.1940315004889700 -0.1149592304835530 
-0.1374038463417940 0.2279758830154030 -0.03616468764041340 -0.1613694248441900 -0.1135993030806860 
-0.1398916077985520 0.05456281549903500 -0.04920161424062720 0.03189674540465760 -0.05171088065268960 
-0.07855619975601190 0.2169930390559860 -0.1223498415582010 -0.1530589540952170 -0.002312581253639580 
-0.2045138136405060 -0.03566327083630260 -0.1345886869459510 0.2380068790180200 0.01518985158974830 
-0.1764050941417360 -0.1612259053517590 -0.1806668340591200 0.3156672126311270 0.1114321541769190 
-0.05878581802509370 -0.4442885530960770 -0.1295426668160360 0.3810535585458220 0.1746967480998430 
-0.1271783813464210 -0.1280602729610240 -0.2640914756991220 -0.01543377725869040 0.2224225050096760 
-0.1530417223314170 -0.09558742783166130 -0.07203885313453880 0.05567240367854640 -0.03334308145188440 
-0.1416689856317720 -0.1588333970600720 -0.1802756427344480 0.3381112580750010 -0.2331156053237980 
-0.3121589954244400 -0.3284472258864270 0.06666143487476880 0.4432894039161310 -0.2067379496129730 
-0.3103692060048480 0.06893807743427360 0.2603341643978400 0.1776532587535140 -0.6182335553960300 
-0.3495845585140800 0.01244628276874040 0.6560591156547160 0.2329405830617790 -0.8578408751457160 
0.2118128657088670 -0.04916058423584130 0.2327266286994470 -0.1919768848035050 -0.4656164052959360 
0.4117856104223000 -0.2189649355697670 0.2046958671324920 -0.1289282306100930 -0.3606748279468370 
0.2810778586252040 -0.1863802549251140 0.1370077776208610 -0.1190263255783800 -0.3166073486035110 
0.1911896340478810 -0.2515430087292390 0.1563705499846360 -0.06443282650706560 -0.1004680263397730 
0.1484069111996510 -0.07522116114466460 0.1690455299668880 -0.1584280049655600 -0.07630914874889710 
0.1056157763254270 -0.002600666163442790 0.1871469575379460 -0.2329291996756310 -0.09738212961813560 
0.1061297509415390 -0.06186148597604890 0.1067613070419990 -0.09338819112773090 -0.09976812409611560 
0.07349136080855290 -0.03795896917179050 0.02546726683765750 -0.04732245540646740 -0.04043968246255400 
0.09257153826713430 -0.008188714175595570 0.01003975162673740 -0.03627335225639100 -0.02535382370115320 
0.06922361394355380 -0.01062009708838030 0.04120874115048540 -0.08979355581424820 -0.01829447235929910 
0.03714892759047980 -0.02160882321897490 0.008970743383674290 0.005955466741166250 -0.02538036290371950 
0.08373009479705830 -0.006431376593123430 -0.002494818165566870 -0.04618529311748150 -0.03090028140770070 
0.05334379866087240 -0.0009658544203082810 -0.01970268053931920 -0.01314029539231630 -0.007756392152193430 
0.01623075136377430 -0.0001916889923971240 -0.01017921654797090 -0.007337981676232320 -0.002904108671862840 
0.0007140453939971830 0 0 -0.0008495207843423960 -0.001387378816311200 
0 0 0 0 0 
0 0 0 0 0 
0 0 0 0 0 
0 0 0 0 0 
0 0 0 0 0 
0 0 0 0 0 
0 0 0 0 0 
0 0 0 0 0 
0 0 0 0 0 
0 0 0 0 0 
0 0 0 0 0 
0 0 0 0 0 
0 0 0 0 0 
0 0 0 0 0 
0 0 0 0 0 
0 0 0 0 0 
0 0 0 0 0 
0 0 0 0 0 
0 0 0 0 0 
0 0 0 0 0 
-0.005952580235614210 -0.01701607777803260 0 0.02373548943627010 -0.001948461457133070 
0 0 0 0 0 
0 0 0 0 0 
0 6.776263578034400e-21 0 0 0 
-0.003450489842073650 0.01368784414100880 -0.008743693382359550 -0.01259034085335820 0 
-0.01596054130879700 0.04502090539670480 -0.01197854210935160 -0.03713979980265820 -0.01103033274126630 
-0.03260767090084890 -0.01049557512844450 -0.01206069340590250 0.03392739541215030 -0.01153722082245420 
-0.02299506248815800 0.02933751411378190 -0.005151281503463690 -0.02730981325389810 -0.01686197432972050 
-0.09752993758634280 -0.04658746721182860 -0.003298510661022840 0.09013097518175150 -0.04083525395529550 
-0.1546484192049260 -0.1283222715857580 -0.02033132086541180 0.2211191875537600 -0.05086015389368280 
-0.08173692085730100 0.07923838667610770 -0.03329367991063050 -0.03702088917806400 -0.05817356286016900 
-0.2018406360543100 0.2476997760883910 -0.02877443000537090 -0.1122596506646230 -0.1415648277428440 
-0.1980220118695140 0.2037473123086890 -0.09019343834734330 -0.07898620755182110 -0.06241504591972780 
-0.1939347879559600 0.2432182880524980 -0.05455755268361810 -0.1515356684385560 -0.1722010736072430 
-0.2836414676848580 0.1194648106192100 -0.1024766247194360 0.07488244763122510 -0.1246202865869430 
-0.3225374628557650 0.2946250033720730 -0.1647723051766550 0.01695307285640990 -0.07885778227093360 
-0.2495788047877750 0.07605252421016500 -0.09761021480778640 0.1462077704240480 -0.05402898715620670 
-0.1207838599733240 -0.3046294405314010 -0.05469219517687620 0.4105172619489910 -0.07671655263502920 
-0.01007681307822450 -0.4533851872985990 -0.07537234413398380 0.5224737006199880 -0.08244535060057140 
-0.08037201646358170 -0.4302922393588090 -0.2180877276243970 0.4384183389717890 0.1252926131715520 
-0.2959136856563600 0.08322294082042590 -0.2664276531156640 -0.04953840017477680 0.09578127243770680 
-0.3322593470264960 0.1835908534484830 -0.3124514194956290 -0.1161396949550910 0.1487453502303220 
-0.2562702064465020 -0.3002161632636640 -0.2239985551083190 0.3108731398784800 0.1330632736501180 
-0.03262339048250520 -0.3099382273823900 0.1997493196645300 0.6993896473339850 -0.5973774432822150 
-0.09422115361412530 0.04745899052665950 0.7496243913865780 0.2448390522045670 -1.002334334225480 
0.3066456290734430 -0.2655392898197750 0.3811914280666420 -0.1755235361026560 -0.5181511285341480 
0.3932760600254840 -0.1389930336085340 -0.08266205262270880 -0.3121858179499770 0.05644769952456540 
0.1468488986700190 -0.09407851764111550 0.3062489476004320 -0.2734211019420590 -0.2469681081919920 
0.1264023200902610 -0.1192364318695250 0.5552124435632930 -0.1638315545793210 -0.3566714193562990 
0.08464760654667640 -0.09956131336014090 0.2366236144137320 -0.1717245917189300 -0.08770387316598200 
0.08657656622195480 -0.1063704900851130 0.2121215755556080 -0.1637983283944970 -0.1403659584515810 
0.1054267684621160 -0.08595714322470190 0.1485877774497280 -0.1295492609207550 -0.09928783924065220 
0.1642651550733270 -0.05137403944135710 0.04523416968780080 -0.1572801729586370 -0.04820162685640150 
0.1392465347944950 -0.01722336611557920 0.04093372038347760 -0.1455161715086390 -0.02151804538603930 
0.09710882239324880 -0.01908844993450590 0.01456214479506320 -0.1125309148632090 -0.009792124854732430 
0.05547087956603470 -0.01843524186930420 0.01223596964663870 -0.06143832596866340 -0.03593551434100680 
0.04300864004372290 -0.007953767355227580 0.005638948686876580 -0.03729179135896860 -0.01931590799566190 
0.04678428291308230 -0.0007798483625629250 -0.01430671036726730 -0.01425484454232010 -0.007601818160111650 
0.007877022319531930 -9.496476185552210e-05 -5.421010862427520e-20 -0.01189797577376930 -0.005726321155755650 
0.006190508967970390 0 0 -0.01038880396141250 -0.002503124533342760 
0.005219426232298600 4.336808689942020e-19 0 -0.01210963408291450 0 
-1.409462824231160e-18 -6.505213034913030e-19 0 -0.001524586161937290 0 
-5.895349312889930e-19 1.084202172485500e-19 0 -0.0006659103703141820 0 
-3.388131789017200e-20 0 0 -0.0006888450257017760 0 
0 0 0 0 0 
0 0 0 0 0 
0 0 0 0 0 
0 0 0 0 0 
0 0 0 0 0 
0 0 0 0 0 
0 0 0 0 0 
0 0 0 0 0 
0 0 0 0 0 
0 0 0 0 0 
0 0 0 0 0 
0 0 0 0 0 
0 0 0 0 0 
0 0 0 0 0 
0 0 0 0 0 
0 0 0 0 0 
-0.006208134809555660 -0.01231017769826970 0 0.01701318740554330 -0.002032112280441560 
0 0 0 0 0 
-0.003420435408124380 -0.01472490210299970 -0.002091275855592400 0.01803565241379690 -0.0005754760855810660 
0.02873760217399730 -0.01065472348307050 -5.421010862427520e-20 -0.005348560700635600 1.321371397716710e-19 
-0.008321230909268550 -0.006669651915233540 -0.006271155116946890 0.01105564133122280 -0.0005220934062702210 
0.01714385840243930 -0.01980880255105320 -0.005548350187183120 0.01465658131634070 -0.003994147471988590 
-0.008671102502935160 0.01322042859456440 -0.01142771783512490 -0.004848333751973460 -0.01692703341258890 
-0.05578045542880590 0.02707639423232270 0.004506731589843910 -0.03487019730157100 -0.02171435413852630 
-0.1415049169721070 -0.04110928600194110 -0.03789203674656190 0.09643248318042480 -0.04028932275753380 
-0.2078538874277330 -0.1398711773906150 -0.06993788144862950 0.2448291222036090 -0.05375123895497620 
-0.1374287464186730 0.1014327246668930 -0.08271628462324400 -0.03284463667177590 -0.07307540249342170 
-0.09467975254596160 0.1637073597861930 -0.07582046409052820 -0.1388122806722900 -0.1016004861603160 
-0.1886744190478980 0.3966039505881780 -0.07654837958796090 -0.3658198697962020 -0.1277282684063310 
-0.1921809939846990 0.05854985487407750 -0.04680000701967510 0.01934878788248890 -0.1565359364567370 
-0.1712112065280230 0.1095104313693700 -0.04425298912791850 0.02608576356711210 -0.2379999958863360 
-0.3271651614045910 0.2187707635784740 -0.1494837410437800 0.1896196294569510 -0.2252730389582240 
-0.1903020203953280 0.2698913293834090 -0.05896412513517590 -0.02564129378037260 -0.2039038859303970 
-0.3511278041947730 -0.2729236830023160 -0.06415630233571660 0.6090303972906640 -0.2776414196498380 
-0.3058377458522610 -0.2539614288668840 -0.08722707825460360 0.6851867380847860 -0.4950121636806440 
-0.3639303208155350 -0.3541977946354340 -0.2662540881821540 0.8172425805152280 -0.005558689929717440 
0.03886211981233170 0.1540665505617650 -0.3924875790629360 -0.04979049939040220 0.1193852345290540 
0.1685359683366820 0.2384306591140020 -0.4917745318872980 -0.4232143486468630 0.3722960279550800 
0.08342128162303260 -0.2275864102697260 -0.2795199511342710 -0.04903549634904660 0.3809121112105150 
0.09409891790636030 -0.4241948400190240 0.1928359850129610 0.6527877649194960 -0.3166309803844080 
-0.08359462285562150 -0.2004235562857060 0.09794260385969230 -0.08030898565515100 0.1741263542687990 
-0.1540499304638660 -0.3953027244325360 0.01395987159174020 0.2320626358907660 0.07502782737194560 
-0.1074209561123100 -0.1452188666591380 0.08303024371774730 -0.2519653490941590 0.1559184946621150 
-0.04142810118613620 -0.05213329609989640 0.3042315606055980 -0.2852840123142680 0.07500957536976610 
-0.02658114531421800 -0.1102608600768570 0.6481500440928680 -0.3300103191927250 -0.4228021026067150 
-0.09917945318749020 -0.06287781978209500 0.8140408637895890 -0.2793104501588080 -0.6442008355268710 
-0.03906052817149560 -0.1460392487102300 0.4677828216340490 -0.2302340226773170 -0.3409903254969030 
0.01415700659596800 -0.06921767851471670 0.1731406135834940 -0.1400055097283800 -0.08075938169112640 
0.1041987148557570 -0.02870504805385130 0.1076498925495290 -0.1513827549346820 -0.08510941714147890 
0.07429945779146350 -0.04855445554605550 0.08073204509769260 -0.09297065749776490 -0.08971709628650640 
0.04548126887435170 -0.02520261870400910 0.04186154968473090 -0.04791177983440640 -0.04896670726198250 
0.04170777960007900 -0.01382766106837010 0.01632842763454970 -0.03618420946611190 -0.05413285477701610 
0.03049743351864670 -0.01463378095508030 -0.01290564485993000 -0.02593212217815890 -0.007736888823766690 
0.01896894625091740 -0.008071541009001630 -0.004162934934538650 -0.004205254789260270 -0.01272327697962780 
0.0002392954420705880 -0.004550107944403340 0.006588973106031870 -0.001043955430189910 -0.01107353245192620 
0.009573876478382140 -1.633530603998660e-05 2.710505431213760e-20 -0.01128561752254580 -0.0007730796200653730 
0.002109789124156910 2.602085213965210e-18 0 -0.002355793349999560 0 
-6.844026213814750e-19 -0.004845385127041990 0.007016561514703370 -0.0008635554530891990 -0.01129702452935700 
8.809142651444720e-19 -0.004333999779359620 0.006276028686939920 -0.0008003217174559530 -0.01010472863021790 
0 0 0 0 0 
0 0 0 0 0 
0 0 0 0 0 
0 0 0 0 0 
0 0 0 0 0 
0 0 0 0 0 
0 0 0 0 0 
0 0 0 0 0 
0 0 0 0 0 
0 0 0 0 0 
0 0 0 0 0 
0 0 0 0 0 
0 0 0 0 0 
0 0 0 0 0 
0 0 0 0 0 
0 0 0 0 0 
0 0 0 0 0 
0.01386258891122220 0.002661394422851220 -5.421010862427520e-20 -0.01368855270414310 -3.049318610115480e-20 
0 0 0 0 0 
0.01350273164283400 -0.01312238207971850 -0.001061276182608380 0.006316542940810420 -0.0002920413687437140 
-0.008143688277670200 -0.002087438049129810 -0.001720923248940230 0.009886334429249290 -0.0005705830268074600 
0.0003438226982521830 -0.03811324818752910 -0.01654100035236750 0.02146321643049160 -0.005759740291182480 
0.01340639701489220 0.02829716285037650 -0.002665162094524650 -0.03086161586361010 -0.006128746108908650 
-0.04331070549833520 0.08422574175201800 -0.02696984290158460 -0.06086435355148640 -0.01871446754576120 
-0.08969424167287420 0.1156221522433330 -0.03856010326539630 -0.08612828678017140 -0.02541304239918940 
-0.1269614009031130 -0.05482166573305300 -0.07331879726191680 0.09433200282258300 -0.03853418262742900 
-0.1301736508508180 0.07621954346303420 -0.1775811079184940 -0.08874897567664440 -0.07764604225704250 
-0.08170129443444500 0.2234660427935990 -0.1814151685205490 -0.2519558030848850 -0.06771088111635170 
-0.09839973267348920 0.1150196074763340 -0.1193739680361550 -0.2036452479985170 -0.1337346634354310 
-0.07235051462329480 0.3807645678008970 -0.06556185958328020 -0.3076489881746020 -0.2556295726908550 
-0.1176512424571210 0.2148611156985380 0.02474673965940570 -0.1615341723505380 -0.3048343286319220 
-0.2994084937946200 0.1222476826802930 0.06848743033974580 0.1281031637760510 -0.3788810460542040 
-0.4341234999691280 0.06718823882347670 -0.05167527022203530 0.2884742451572690 -0.2577923357997330 
-0.4178261046599200 0.2945374239921770 -0.1804109733939420 0.1992489869684170 -0.1920203304120150 
-0.3588948954308690 -0.3326498643719430 -0.1179168257046510 0.7896943536110210 -0.2861840084640090 
-0.2993101805547930 -0.4835748617201840 -0.08068199601684470 0.7504694621552840 -0.3328150026610690 
-0.09691047107979790 -0.3111244871280400 -0.1651622429203850 0.4390297664244620 -0.003327573005058010 
0.5671112787118880 -0.07737661080865470 -0.2828090875037070 -0.1014316911116800 0.004163166598008240 
0.6758918174951170 0.006465050215212860 -0.3944223208311540 -0.5511339337717960 0.2726174624639210 
0.1489364831035110 -0.2053910888377640 -0.1242875925526190 -0.1624910625240260 0.2866523918035660 
0.1221811644683990 -0.3269372092090140 0.06442540889296080 -0.08128448840025680 0.1430221493360960 
-0.02050587402824770 -0.3066765334111810 -0.1484369283120710 -0.02379100481456080 0.4746584653377970 
-0.1554950440784350 -0.2975359445905620 0.02271332949576290 -0.06279347810338440 0.1014396074852720 
-0.1526179020576650 -0.1603139073209640 0.08877457242883750 -0.2312353969882810 0.2013335954004480 
-0.2799186912425140 -0.1265065833877030 0.5675898039140400 -0.2447407466439330 -0.1665804482203210 
-0.1843830694863500 -0.1300903824988090 0.2098340563056560 -0.2248935561629890 0.07458454382386120 
-0.1537382928352220 -0.05090775894460460 0.6077483590990690 -0.1202917005982250 -0.5187136517699850 
-0.2295890410765710 -0.1200953641914250 0.4645420460664450 -0.08395584647182170 -0.2980996100281970 
-0.1850845113455770 -0.07189286864215780 0.2166502242658930 -0.05157331323408660 -0.06462187629241200 
-0.02603349554140080 -0.03497890819601500 0.1836690989417350 -0.04462022992315410 -0.1714361972019370 
-0.03267482815082360 -0.05773216778196870 0.1704069568503900 -0.02008989155670010 -0.1845568165643780 
-0.01590026419528350 -0.02582070687156210 0.09864201167553210 -0.01362498846668400 -0.09954753069100160 
-0.01888506864294550 -0.01883042879593880 0.08831420354913760 -0.002993600641432220 -0.08661403127468250 
-0.001017424909185180 -0.01329957315300900 0.03519015746609000 -0.002224378295164850 -0.04211184119767950 
0.006451441961066970 -0.01492297770364070 0.02076262307237700 -0.001931731877566560 -0.03065055341746670 
-3.320369153236860e-19 -0.003715193328995130 0.01120315343932590 -0.0004517949754361510 -0.02014236976699440 
0.005267173660247280 -4.235844440110500e-05 0 -0.0006180320749023510 0 
-3.252606517456510e-19 -0.003985031968487620 0.005770691330375750 -0.0003688137490415960 -0.009291109523374360 
0 -0.003720235640058840 0.005387241990731120 0 -0.008673736386025860 
0 -0.003327599359067640 0.004818668689281110 0 -0.007758304159035710 
0 0 0 0 0 
0 0 0 0 0 
0 0 0 0 0 
0 0 0 0 0 
0 0 0 0 0 
0 0 0 0 0 
0 0 0 0 0 
0 0 0 0 0 
0 0 0 0 0 
0 0 0 0 0 
0 0 0 0 0 
0 0 0 0 0 
0 0 0 0 0 
0 0 0 0 0 
0 0 0 0 0 
0 0 0 0 0 
0 0 0 0 0 
0.04173377392276100 -0.03616945282328280 -0.004348389581498300 0.006505463826417960 -4.065758146820640e-20 
-3.688828485292480e-19 1.626303258728260e-19 -0.001384423005450640 -0.0001562474483552730 -1.084202172485500e-19 
0.01931987039890450 -0.006676068653835910 -0.001392867955092030 -0.006365627327206300 -1.185846126156020e-20 
0.008615481910949090 -0.01308581285905150 -0.004704957306793220 0.01596223337862740 -0.003102449261294270 
-0.02007187157905620 0.02878536016591880 -0.01496486207706170 -0.02317939877580890 -0.003324731262047490 
0.01356129727044210 0.03466830147319240 -0.01275045656682480 -0.04047987660794430 -0.003957104598148150 
-0.03780407612439590 0.009209345862817610 -0.03466158419783430 0.01768184857303330 -0.01665498681109510 
-0.1350152788794440 0.1027253585895190 -0.07460004171217280 0.01095340462296340 -0.02471693174347830 
-0.1633183454553710 -0.09214355013819640 -0.1539885783224740 0.1960099032974990 -0.07530547363154230 
-0.1088418019365240 0.2422639397274990 -0.1805960320243070 -0.2217523177244050 -0.1376907755103360 
-0.2726994158940950 0.3713807959395590 -0.1713618607135860 -0.3436199270640760 -0.1280342677325950 
-0.1550412721951610 0.1078280910204820 -0.1578038962359690 -0.08782048008028750 -0.1746418724697660 
-0.09266826613973330 0.3702577763580080 -0.1564597577070580 -0.1166878663816120 -0.2741957848086780 
-0.2778967414177140 0.6943822993217330 -0.2391322923212170 -0.3341344438402370 -0.2464379386624620 
0.01138071874183490 0.3265225015430670 -0.2619993224145530 -0.09615942003866070 -0.3878448591225750 
-0.1865099526915430 0.3916394389562040 -0.1771203630498570 -0.1167919710511990 -0.2773375548369060 
0.1087422407818190 0.05554090678497240 -0.3309824991703860 0.2778393702238750 -0.04270587939400620 
0.06722561155339980 -0.3848056119942480 -0.1647589602459170 0.5269642627842940 -0.2319250933767270 
-0.04353116110411840 -0.4671395221212140 -0.2669445349699770 0.6943269801200690 0.08772491619839800 
-0.01633283410382980 -0.3102981442600100 -0.3022029087458700 0.1189578109940480 0.3124544100581870 
-0.03796500604460230 -0.2549346724038280 -0.3665217166946250 0.1870534104258690 0.4824359424266630 
-0.002503699600931240 -0.09168549355171710 -0.03425782043795670 -0.1585979778444330 0.1214652868704450 
0.0002147549766704020 -0.1079262394582000 0.1212754080236830 -0.2719070136914720 0.08102085921070310 
-0.08390707470780680 -0.1818807719544820 -0.008379926404752360 -0.08819147840320840 0.1920482358243110 
-0.1077837170842730 -0.1743785204605650 0.1324437210426010 -0.2164412221157300 -0.009172779314156460 
-0.2319835729370810 -0.1581758627143980 0.2882018065379630 -0.2818358187532530 -0.06347671227995830 
-0.1255550535314390 -0.09256186026715660 0.3013753598670930 -0.1362667085935820 -0.2191700208838050 
-0.2485022709750760 -0.1054272308277710 0.1944605150194500 -0.2663390239239040 0.09463036536590080 
-0.2338538562073130 -0.1222459055555830 0.2391061228966270 -0.1847531602098590 -0.05525260589526720 
-0.1422906204394420 -0.06198612402350580 0.2619505512461650 -0.09798754868779630 -0.2239942979417140 
