solver_type L2R_L2LOSS_SVC_DUAL
nr_class 2
label 0 1
nr_feature 2999
bias 1.000000000000000
w
0.001374817958071861 
0 
0.004582986806129281 
0 
0.01904114227223605 
0 
-0.007978089407698310 
0 
0 
0 
-0.008997959788897569 
-0.004606008408365091 
0 
0 
0 
0 
0 
0 
-0.009141085624616144 
0.005432825846134296 
-0.001997605573053708 
0 
0 
-0.01150850816909196 
-0.03407094043750399 
-0.05577116923993782 
-0.04985630226016750 
-0.1026857118494380 
-0.1034605115307128 
-0.2784980274829131 
0 
-0.4051770562350975 
-0.1484629566785638 
-0.1214676343259958 
-0.06512647229208944 
-0.08519697600334976 
-0.03755417467313697 
-0.03063340586210695 
-0.001833215850591964 
-0.01117755363599516 
0 
0.01492444520047792 
0 
-0.01234154224350555 
0 
-0.001797565494549708 
-0.006496675251490174 
0.006057536567042927 
0 
0 
0.01270370181793276 
0 
0.003410665841737791 
0 
0 
0.006598835133218973 
0 
0 
0 
0 
0.008353747659729740 
0 
-0.001386272765613777 
0.0001308142659258916 
0.01171001864714049 
0 
0.0006323881553664258 
0.002121682459417218 
0.004476661190583186 
0 
-0.003984516811276993 
-0.001840188116675398 
0 
0.005111838472939985 
0 
0.003840535611163014 
0.0002143583824733499 
-3.874728415218358e-05 
-0.004262523415075218 
0.003037411840153527 
0.01011104543790961 
0.0009641208984817772 
-0.004320313147239989 
-0.01567655147362950 
-0.03080742794162008 
-0.04680903365087692 
-0.05383475559347235 
-0.1046834900018002 
-0.1553971891593803 
-0.2688467260876721 
0 
-0.2741089272147201 
-0.1860581082251868 
-0.1097016978597572 
-0.02648798434912133 
-0.1132491820554130 
-0.05326989960869450 
-0.02402051362106388 
0.003068428621977246 
-0.01035319228227824 
-0.0004253142757437781 
0.007274211708399781 
-0.001090662983681983 
-0.006243859640824159 
-0.0006540102471802993 
-0.001247633019096465 
-0.007188808138042205 
0.002550328445618204 
0 
3.507421390728611e-06 
0.005348479823827373 
0 
0.001523707056350282 
0 
0 
0.002922125697382973 
0.004703708673813310 
0.002080955648727765 
0.0003629555238130807 
0 
0.01065095682404996 
0 
-0.0003034706225977087 
0.0002542964518455281 
0.005634163370348926 
0 
0.004651344142946175 
0.003316696378729638 
0.006215795978548195 
0 
-0.0003791341080276426 
9.375651105188378e-06 
0 
0.007557300355420016 
0 
0.005076396032940755 
0 
-3.252044654634152e-05 
-0.0006177067852948608 
0.001259705023662440 
0.01510741680888913 
0.0005306405107356223 
-0.006260067455829250 
-0.01593839451999334 
-0.02536158435091222 
-0.03929844443287702 
-0.04706703377343099 
-0.09663317202942838 
-0.1671428083038435 
-0.2384305901770069 
0 
-0.2431866844657553 
-0.2384393217864917 
-0.09287925024598762 
-0.01693361914389505 
-0.1219437353834273 
-0.07553346625754090 
-0.01543505918367216 
0.002239281493422095 
-0.009552460506875016 
-7.003049120888919e-05 
0.006040194510790211 
-0.0009744551654938946 
-0.0005931433098114676 
-0.0005515659484028689 
-0.0004842137734957270 
-0.007093075752293460 
0.0001201395587608771 
0 
1.962485778145767e-06 
0.0002519534325784936 
0 
3.281901212410222e-05 
0 
0 
0.0002780456382280621 
0.008085710170654806 
0.002858904492030592 
7.394935828208298e-05 
0 
0.01098768801615260 
0 
0.007175428988565858 
0.003403388229509165 
0.002683903457671302 
0.001690377499478160 
0.002260008787760419 
0.005616150683317168 
0.003941414365267989 
0 
-1.054419295257439e-05 
0.0001312591154726372 
2.156336038735648e-05 
0.005372224549272347 
0.004263530811167873 
0.002557044786808321 
0.003195713572238533 
3.271272975543094e-05 
-3.387127105843483e-05 
0.0006902845449032738 
0.005296719151676924 
-0.001202563111130734 
-0.004305402079442545 
-0.01047481449047828 
-0.01728655822674216 
-0.03594412672751628 
-0.02065049390436719 
-0.06699014610259395 
-0.1183197988881550 
-0.1645668308675068 
0 
-0.3345771036640178 
-0.2276955815968910 
-0.1167977720967131 
-0.06198045052849183 
-0.06369059877904731 
-0.04839235247250888 
-0.01690259974031851 
-0.008647508607363873 
-0.008445502026171683 
-0.0009203868549153649 
0.003094485508820856 
-0.0008205602574201750 
2.041337418916042e-05 
-0.0008468448737126118 
-0.0004112790449919273 
-0.001652851719591514 
0 
0 
0 
0 
0 
0 
0.0001079747382728432 
0 
0 
0.008980693738449928 
0.004930921888901907 
0.001844573248539991 
0 
0.01040096203570391 
0 
0.003000140074377290 
0.004895557632245612 
0.0001554522611001121 
0.003145063978832133 
0.0001056825394492206 
0.004966759835203036 
0.0004147850852625793 
0 
-2.636048238143594e-05 
0 
1.012157732467753e-05 
0.001124735449656550 
0.008893070964274831 
3.788377623804931e-07 
0.005897207656955750 
1.733631616008859e-05 
-7.453777712413609e-05 
-0.0001034437745983580 
-0.006250221579333607 
-0.0007069168127198858 
-0.0008406104985403555 
-0.0009189055565322978 
-0.005042118446256285 
-0.02633021864282579 
-0.004864971610764382 
-0.02013061615397646 
-0.06392000210797794 
-0.08833729314461856 
0 
-0.3781672054393664 
-0.1620712671547541 
-0.1965753265409823 
-0.1458195769998360 
-0.05462063899832231 
-0.05342890307723093 
-0.02123399298579176 
-0.02570316406045549 
-0.01524747451976468 
-0.01249222454759339 
-0.006137263722183873 
-3.341026688258774e-05 
-0.0006763593972230872 
-0.001146536683188096 
-0.0002806037679188987 
0.005242404829004539 
0 
0 
0 
0 
0 
0 
5.068202000562129e-05 
0 
0 
0.007471202057733551 
0.006993103682364618 
0.003894947220375734 
0 
0.01194493422861710 
0 
8.655961400403212e-05 
0.002975939308439211 
0.003079630138663671 
0.002300180340837601 
0.002748630432789263 
0.001744593433400113 
0.001572340333701300 
1.245417419297772e-05 
-0.0001686091290530272 
-7.553585072024192e-05 
2.001194397119714e-05 
1.399652330858404e-05 
0.007685918593881654 
3.968369887124707e-05 
0.007375085464347172 
-4.072210078561529e-05 
-0.0001129669997154170 
0.0002414436265094824 
-0.003928588378533698 
-0.0003859814194132923 
-0.0005351949255178055 
0.003679229717490431 
0.009049197238209036 
-0.01715609051404087 
0.0008175730136096838 
-0.004113869364216565 
-0.03779967102413152 
-0.05752702634544397 
0 
-0.3070813750738580 
-0.1897420811522887 
-0.2243725499633432 
-0.2199722564058694 
-0.09458822367558371 
-0.1153560861839978 
-0.001403221801979934 
-0.01176265599643100 
-0.01523265230450303 
-0.01945117180093585 
-0.009835595380478323 
0.002352135689708784 
-0.003054087295127165 
0.0004408275349372297 
4.643858557048441e-05 
0.008138195710007640 
0.0001278505468221481 
0 
1.708159768211987e-05 
0.0002681247081404067 
0 
0.001836922730913902 
0 
0 
0.0001344809855819174 
0.004464744048440369 
0.006114566498628405 
0.007393200606822736 
0 
0.008385672204399584 
0 
0.0001663879639409097 
0.002464837452335534 
0.005876019270538046 
0.0003624761905171643 
0.006012878094110699 
0 
0.003257736334228182 
8.902857891600383e-06 
-7.999078977710237e-05 
0.0004216589496679992 
2.423103837038725e-05 
1.000540510048145e-05 
0.002328747882031788 
-0.0002709468001748874 
0.005706656449980945 
-0.0004388931795982207 
-0.0001908916357577293 
-0.0004941819874033214 
-0.001138120653145724 
-0.001147505665656147 
-0.001376660912104792 
0.001247629437519747 
0.02086092601374967 
-0.01558529895832166 
-0.01449620139806512 
-0.01654320897348017 
-0.04985090154069709 
-0.07445432830513402 
0 
-0.2112720998175950 
-0.2157211685045833 
-0.2204238168818694 
-0.2536609603545371 
-0.1552185104977054 
-0.2089534255564193 
0.01283901744418609 
0.03030028597233854 
-0.01941358611797504 
-0.02999273861295260 
-0.01973425214994530 
-0.01236747638094382 
-0.02329168868710001 
-0.006228013524140716 
-0.003792074221089146 
0.005038670016662613 
2.830255798236324e-05 
0 
4.363778821192222e-05 
5.935535895052504e-05 
0 
0.003666646245055522 
0 
0 
6.640330538085752e-05 
0.001207318290759621 
0.001876260774029060 
0.009306882123049011 
0 
0.004071502771915915 
0 
2.573132058172188e-05 
0.003150878406986444 
0.004686369851413414 
0 
0.005059062627590328 
9.236305907211311e-05 
0.002796469898603082 
0 
0 
0.002782894802683792 
0.0002585120418805033 
0.0005017396212522207 
0.0006156572693986175 
0.0001045879335089180 
0.003402038045956850 
0.0002347609805631748 
7.443919971699110e-05 
-0.001009161500595205 
8.465493471042495e-05 
-0.0002276891012961058 
0.0006366211555592689 
0.001107073959612199 
0.01692663875112689 
-0.006735210871967109 
-0.03060399157039074 
-0.02021170181056887 
-0.07921850553472329 
-0.09194717530183719 
0 
-0.1483745542065991 
-0.1429042585472229 
-0.2395542303077820 
-0.2456948974782306 
-0.1752966460444886 
-0.2664523690224354 
-0.04575262976708632 
0.1034944697286570 
0.004706167870801805 
-0.02988353409878868 
-0.01123568183942059 
-0.04480115011450124 
-0.05273155427613121 
-0.01583056531340664 
-0.01166863186398976 
-0.0008253618108738918 
0 
0 
0 
0 
0 
0.002912613229578706 
0.001396836360539899 
0 
0 
1.822097342346549e-05 
9.059010157565433e-05 
0.006562838589924203 
0 
0.0007486203714977586 
0 
0 
0.001960265806811278 
0.0009562545317100168 
0 
0.003003773520764753 
0.0001872919995772554 
0.0005983319709209264 
0 
-0.0001412921855644966 
0.003407488859876540 
0.0002646910266042440 
0.0004413991597456452 
0.002359562992089651 
0.0002562866319069940 
-0.0002410292440223905 
0.0003754971820715828 
-0.0008242351664494940 
-0.002481088187959434 
-0.002227588419990525 
0.002234975234510397 
0.001213146467892474 
0.002909019961276615 
0.009177647403945150 
-0.0003200400985544421 
-0.02882878893504926 
-0.03058240479113555 
-0.09312957503234004 
-0.1002160589911407 
0 
-0.1437570047943490 
-0.06117364230595974 
-0.2084410791175895 
-0.2066796145582190 
-0.1422260858918320 
-0.2472837897038947 
-0.1674981567669266 
0.1024991343416569 
0.05479877842117317 
-0.01428252332665314 
0.002063511734714390 
-0.07489608083709741 
-0.08490753390010233 
-0.03805363166011395 
-0.01800044190332892 
-0.005641910896384219 
0 
0 
0 
0 
0 
0.0006017970420712164 
0.003200346159167701 
0 
0 
4.065109024049941e-05 
0 
0.001355997703676734 
0 
0.0002157745586310348 
0 
1.903389418568348e-05 
0.0002258571554439495 
1.265451188687937e-05 
0.0001136635420140192 
0.003218810910579701 
5.013221694178924e-05 
0 
0.0001406059205874476 
-0.0002036541873466052 
0.001453420278058014 
0.0001635658718617585 
0.0001703962256917743 
0.003419653227848832 
0.0002766443526548820 
-0.0001015368047821266 
0.0004149411326376182 
0.0003831309922640195 
0.0004698137507804785 
-0.002059950153334978 
0.004042659195923849 
-0.0008048026091849260 
0.004318054207064402 
0.002467313011262790 
-0.01605016801240265 
-0.01602388978869211 
-0.05413272208374463 
-0.09949410631267120 
-0.1469891979306671 
0 
-0.1208279849937816 
0.02059418171716364 
-0.1255721788911639 
-0.1430516428159301 
-0.08131488035886562 
-0.1887724228306632 
-0.2610459815097888 
0.03425690259564764 
0.1196705738895694 
0.02812214976653235 
-0.001467378106312036 
-0.06872904665641964 
-0.08730054464515735 
-0.04613497419414035 
-0.01734180405825157 
-0.01068634872282130 
9.011743640714728e-06 
0 
0 
1.889918497465693e-05 
0 
4.826379563547075e-06 
0.002746967561858809 
0 
6.366560863723915e-06 
0.0001102577661310456 
0.0001701511100173818 
9.476902146858404e-05 
0 
0.0003299669199634445 
0 
1.207909377289982e-05 
0 
1.073700951553074e-05 
4.279827931201775e-05 
0.002342957505754277 
5.166631105705671e-06 
0 
0.0001757232797091226 
0.0002258566406115831 
0.0002996359100772539 
0.0003583457983514888 
0.0002918710325517183 
0.002526678394390633 
0.0008077072776126781 
0.001533191385743408 
0.0002869325406311537 
7.464457581169487e-06 
0.003128948128537518 
-0.005829109790744775 
-0.01135836498330777 
-0.01351558617762400 
-0.01024814010562397 
-0.01804116032213648 
-0.06035980365361723 
-0.02027715685976916 
-0.06668227777779562 
-0.1166511536956141 
-0.2282559903173048 
0 
-0.05032492395655674 
0.1065700668403551 
-0.01536857551818684 
-0.03407021112897360 
-0.0002793048277896486 
-0.1638498041686371 
-0.2482996203265681 
-0.03341486717268390 
0.1576039896851442 
0.07048562112015376 
-0.001639526588121026 
-0.04022959482778294 
-0.05015873580018557 
-0.04189146389253148 
-0.02866478509693486 
-0.01107386396657629 
0 
0 
0.0005579459909970702 
0 
0 
0 
0.0006979185446001731 
0 
7.929272686254143e-06 
0.0001335830649278449 
0.0002119157545299096 
0.0001180306651453797 
0 
0.0002029085893141692 
0 
-1.033832040946270e-05 
0 
0.0002112527286054309 
0 
0.0007271634334997110 
1.912192425627727e-05 
0.0001299799616778969 
0 
0 
0.0002043114265533521 
0.003060522402681532 
0.003356319962786436 
0.004084709506618136 
-0.002756249356970021 
0.005071410445288587 
-0.003263580146104336 
-0.006601479445484194 
-0.01143863826302220 
-0.02068403105532095 
-0.03779558905378770 
-0.02901487340811444 
-0.04266077918001537 
-0.03374881159707357 
-0.1050056542432006 
-0.05831550979515937 
-0.05970267905674496 
-0.1380671652833003 
-0.2705347984687114 
0 
-0.05538931626063478 
0.1472694177593829 
0.1073999094738992 
0.06583404732388443 
0.07595783416452215 
-0.1522478598906002 
-0.1738543407679406 
-0.04233325902297754 
0.1437457484129343 
0.09362313129149322 
0.0002634269946542626 
-0.01719058382600660 
-0.009077091790741247 
-0.04200418303491661 
-0.03096894071802538 
-0.002589851399358611 
0 
0 
0.001131593763114188 
0 
0 
0.0001303667191225317 
0 
0 
0 
0 
6.504076662145505e-06 
0.0002937484889550251 
0 
4.849307386323938e-05 
0 
0 
0.0001217159500144658 
0.0001028722800829097 
0 
0.0001072671852184390 
1.306513083946814e-05 
6.562382739060149e-05 
0 
0 
0.0001772922883335784 
0.008688005147613250 
0.009445635079120175 
0.01335673227609206 
0.0004784833838827189 
0.01097222319377311 
-0.003422435190091079 
-0.01630668070629204 
-0.04257248974096959 
-0.03750183659495378 
-0.01187186937187726 
-0.01396274638004530 
-0.02546836158239282 
-0.04013758079383635 
-0.09182096172673128 
-0.1128641385100340 
-0.04223678064259395 
-0.1161904856961443 
-0.2633625017472886 
0 
-0.04351205775265052 
0.1112159772864086 
0.2071619484755695 
0.09887361289973923 
0.08887149913089340 
-0.1101577704797787 
-0.1272642390256372 
0.005306939141238290 
0.1031607922966325 
0.08785534826201084 
0.006857711098153323 
-0.008443989592247087 
0.0005938913926754293 
-0.02728170609036403 
-0.02527651069664064 
0.004145598892289766 
0 
0 
0.001018753500847729 
0 
0 
6.581909213342093e-05 
0 
0 
0 
3.026074595821045e-06 
0 
0.0001483067073308164 
0 
2.423596231772505e-05 
0 
0 
7.175208434981570e-05 
0 
7.363732269449239e-06 
0 
-7.612128257598994e-06 
0 
0.001532720545076743 
-0.0002239863731694042 
0.001900489306373203 
0.01017317502825921 
0.01089504284223157 
0.01731466759944345 
0.004625384161635836 
0.001788900569970044 
-0.01337008443623327 
-0.03744272201416825 
-0.07339346579924817 
-0.06415771318241423 
0.01742668957744812 
-0.03296815189965729 
0.01275485467831082 
-0.06064251388694037 
-0.08124686402994463 
-0.2075400981499579 
-0.09259945282940023 
-0.08298555097995203 
-0.2761183722521824 
0 
0.03571320088032456 
0.06094661466688153 
0.2302243474236101 
0.08409203379027465 
0.04522051439943337 
-0.04709602985763728 
-0.08489079576745501 
0.07975898954878177 
0.06955537553994640 
0.06173937591843753 
0.02833029766956243 
-0.004360504684595007 
-0.01271511963914938 
-0.006193195660890343 
-0.01728250187244966 
0.001452601920509577 
0 
0 
0.0003673562730648179 
0 
0 
0 
0.0001092445982876731 
0 
0 
1.800069368391250e-06 
0 
0 
0 
2.505776441631623e-05 
0 
0 
0 
0 
-2.428088619982715e-05 
8.254692900595251e-05 
8.840991468867907e-05 
0 
0.005101886216041601 
-0.0007347103276179661 
0.008068514917539927 
0.009791641004102160 
0.01147007758746513 
0.01871641665676252 
0.02285659597776962 
0.01713699492708988 
0.008646639763281708 
-0.002789897373517134 
-0.01188390351810396 
-0.01346411987875544 
0.02255442100361846 
-0.09431406404028206 
0.09193371437312164 
-0.001818859596734650 
-0.1167289134175248 
-0.2654890486179765 
-0.1665163051584215 
-0.07205254021265996 
-0.2919233040522536 
0 
-0.0006693511028504096 
0.06530168046015916 
0.1937608466963664 
0.07532647978900366 
0.02991752892595524 
0.02912615543810414 
-0.002769381482576578 
0.1291579336414665 
0.05815158998260585 
0.03603451333585094 
0.07835857569451297 
0.004926257844096094 
-0.01637360995913938 
0.002677551150331550 
-0.007861887222176907 
1.961707726873245e-05 
0 
0 
0 
0 
0 
0 
6.927349087377599e-05 
0 
0 
1.190324846093484e-05 
1.888327596255201e-05 
1.051741352089608e-05 
0 
1.675420606214945e-05 
0 
0 
0 
1.246566932036187e-05 
-1.660921062632813e-05 
0.0001066249042581720 
0.0001482429953909352 
7.086243049127673e-06 
0.005505958087551562 
-0.003237995593134103 
0.01223239318601924 
0.01061346694500555 
0.01516160747548809 
0.01603521238566341 
0.03270368000394291 
0.04773777350323645 
0.04957016383379695 
0.03438566852330570 
0.08839605799850306 
0.06531891405409904 
-0.03039208775799785 
-0.09988824338289579 
0.1266532374129971 
0.1089143451405272 
-0.1628449265525205 
-0.2197248743182191 
-0.2065706086121457 
-0.07619219211734646 
-0.2644357331731525 
0 
-0.04257997759677155 
0.09430289281169521 
0.1457884044357438 
0.09390893365297334 
0.04262629289530301 
0.05357608353298685 
0.03818592051719696 
0.1056156337500879 
0.03922059863338150 
0.01872124082700967 
0.1070873111167580 
0.01153259487269078 
-0.006570368281232522 
0.002012766061108618 
-0.002827729187975598 
-0.0003279688226144130 
0 
0 
0 
0 
0 
7.975705766805260e-06 
0 
0 
0 
-1.153946383298890e-05 
0 
1.797123938623383e-05 
0 
0 
0 
0 
0 
9.974398061669083e-06 
0 
2.486568994655178e-05 
0 
5.670053257251263e-06 
0.002154107807017945 
-0.004619974137072359 
0.007925448138514387 
0.01228069207753772 
0.01995745756008364 
0.01226000872435533 
0.02736181111888777 
0.06734975488451184 
0.09801653385515790 
0.06353547461768015 
0.1611474357115656 
0.09911105534074992 
-0.06092048571089957 
0.003287003525110412 
0.1313148387239529 
0.1573730591485527 
-0.1735641475566212 
-0.1178611989515726 
-0.1961997319140175 
-0.09204314825284966 
-0.1946434784447479 
0 
0.01019361610090767 
0.09500309776750603 
0.1219993796516016 
0.1048554259685972 
0.08332924284642583 
0.04358472979868409 
0.03997544967447896 
0.05440842132551942 
0.03958032556638819 
0.01974930422152769 
0.1135684815294721 
0.01255050937111223 
0.007200200980288543 
0.007284254839733798 
-0.0003713720896034812 
0.0001218741361819752 
0 
0 
9.576809791551279e-06 
0 
0 
6.381756333847265e-06 
0 
0 
0 
-1.806367192826758e-05 
-7.393649673011947e-06 
1.437967675005170e-05 
0 
2.954716412654532e-06 
0 
0 
7.993658455298538e-06 
0 
0 
1.513803413934507e-05 
-6.780964743256237e-05 
0 
0 
-0.001186912378500941 
0.0005595394021210791 
0.01297480110363052 
0.01786640050786385 
0.01189381366855647 
0.03865369251313003 
0.06015478329041311 
0.1314445837837253 
0.1149504824016923 
0.1637012561283774 
0.06564471540975420 
-0.01960931803441231 
0.09799528407585617 
0.1794656068441101 
0.09393400606346965 
-0.09924637639784087 
-0.07937162083731471 
-0.1487931066531953 
-0.09471521822456609 
-0.1692674202492335 
0 
0.04208533296791358 
0.01511654028387889 
0.09784457217358744 
0.08102031457100399 
0.1293652929442309 
0.04096801399553227 
0.04276219698809965 
0.02296427235901251 
0.02330305264748226 
0.01136235550806754 
0.09183658081473725 
0.008918588279143930 
0.008539976478482886 
0.007696048386369879 
-0.0006471699327941054 
6.627402931128536e-05 
0 
-2.087130997631295e-05 
4.159379511056585e-05 
0 
0 
0 
5.587333408228957e-06 
0 
0 
0 
-7.502956653393830e-06 
0 
0 
-8.107202322857540e-06 
0 
0 
0 
0 
-0.0002847171746014566 
0 
0.001851367566497206 
0 
0 
0.006203930644980672 
-0.0002150145280635201 
0.01116390633961280 
0.01500783485118417 
0.02913666905959705 
0.08980020155272929 
0.06872409167985832 
0.1523634053724179 
0.1816732413062661 
0.1270059574352861 
0.05501369179999921 
0.03869902366855500 
0.09857351063639000 
0.2628432945341650 
0.04474762324464521 
0.01973920122552885 
-0.1134982716625678 
-0.08102084142169202 
-0.09604620204035558 
-0.1861820275186220 
0 
0.03211906614856563 
-0.02372920745874837 
0.04783731238879405 
0.06918987108692073 
0.1262035903984030 
0.03951297738634602 
0.03726606068813255 
0.01609115906613107 
0.01225897684154126 
0.002608362910141514 
0.04280923007901645 
0.003246049855438340 
0.003751184329430896 
0.003541783651692626 
-0.0003518649785646530 
0 
0 
-9.355114006524115e-06 
6.174121939092009e-06 
0 
0 
0 
4.412272638032213e-06 
0 
0 
0 
0 
0 
0 
-1.324649735884664e-05 
0 
0 
0 
-1.160790600883980e-05 
-0.0008066660898198340 
8.475035448586723e-06 
0.004869653363241625 
0 
0.0001239340422754375 
0.01043571940412661 
0.003955311696648803 
0.009665627263054205 
0.01514542009944958 
0.04571676480716318 
0.1174223706860404 
0.09327579289164713 
0.1473644825448812 
0.1882067687763013 
0.1042171878606865 
0.1002974845963212 
0.08364532622232872 
0.06375627922068865 
0.2624729093248396 
0.1009674806709260 
0.05267770407816073 
-0.1176529572753444 
-0.03966939402143752 
-0.1058735903795260 
-0.1855072770296940 
0 
0.01046752402137170 
0.01839018314998583 
0.0004682405284192327 
0.07479654497427914 
0.09410660989644529 
0.02212423292482424 
0.02021531519134127 
0.001386166628807264 
-0.0007654887251985296 
-0.007790868066721891 
0.0005838179312246030 
-0.0002245954880365860 
-0.0008084955441139221 
-3.349455497940237e-05 
-0.0002347516539255374 
-6.737091249817386e-06 
0 
0 
0 
0 
0 
0 
0 
0 
0 
0 
0 
0 
0 
0 
0 
0 
0 
0 
-0.0008521129306410859 
0.0001123901018406743 
0.003654418731207542 
0 
0.0001731626463275171 
0.007694553647193173 
0.01101733623920382 
0.01557593885990438 
0.01917262638878216 
0.04986036359429448 
0.08976684850828681 
0.1002898682482409 
0.1113372669762018 
0.1292788978073715 
0.1010985911734506 
0.1440948935855688 
0.1357126436007147 
0.08339116118955707 
0.2033465751481809 
0.1864057751250170 
0.001466236305672445 
-0.06453934598579020 
-0.008998135285423871 
-0.08775960156743719 
-0.1537672491257715 
0 
0.009322823289312792 
0.005849616231983127 
0.01323874982409887 
0.03701184086557876 
0.04204260551724182 
0.02006946603546137 
0.006277295543526125 
-1.132046464866374e-05 
-0.0006555257203160005 
-0.008290329676845420 
-8.622118866780081e-06 
-3.005946515279037e-05 
-0.0002670026747587576 
1.759429436373186e-05 
-8.217065289085783e-05 
2.957591883677053e-05 
0 
0 
0 
0 
0 
0 
0 
0 
0 
-0.0002112637696998057 
0 
0 
0 
0 
0 
0 
0 
0 
-0.0003579995979380969 
0.0002773097838717011 
-7.577190542258199e-05 
0 
0 
0.002376075636534781 
0.01248561425060669 
0.01948211878063794 
0.02363531413376017 
0.04425007259670989 
0.05629371381904155 
0.07617989003943107 
0.07887151085878151 
0.07768770253879119 
0.09238393603583095 
0.1432703375576927 
0.1775995518008823 
0.1807019317683030 
0.2260017936000507 
0.2064582654547601 
0.06965042755446893 
-0.02684635586506348 
0.01375174796615941 
-0.08300260828041223 
-0.1721558965352181 
0 
-0.03837713383427488 
-0.02131859814128695 
0.01177798694466110 
0.002499016925253085 
-0.0005006534582320580 
0.01502309543665918 
0.004788933196133539 
0.0005434945523341608 
-0.002198144528839753 
-0.005947765731669160 
0.001453088468418241 
5.303283763919654e-05 
0.0001098361328387100 
0.0001016168220236976 
-6.182683912041039e-05 
5.170388640391082e-07 
0 
-0.0001405791660793707 
2.773420495500748e-06 
0 
0 
0 
-3.897374162388149e-06 
0 
0 
-0.0002011643228015047 
-0.0001029802505174418 
0 
0 
-4.449885848448286e-05 
0 
0 
0 
0 
0 
0 
-0.004186330046412288 
0 
0 
-8.530968417190624e-05 
0.008341926661258400 
0.01382200961078346 
0.01799597572116743 
0.02245556329344225 
0.03801416220627999 
0.05822302120883779 
0.08095779433079307 
0.08784270178276207 
0.1083576002560937 
0.1064074603519715 
0.1471335339131192 
0.2443145551644346 
0.3445393228564553 
0.2074460642324559 
0.2108325417506688 
0.0009769589553828810 
0.03353238087500760 
-0.1127215373262734 
-0.2190457919638623 
0 
-0.1170699094558603 
-0.02800565912121566 
-0.02045052932584537 
0.01218528703419627 
-0.01083357518922822 
0.001937093885067385 
0.01579020920064643 
-0.0003737096275283654 
-0.004379326704189202 
-0.004479897028318874 
0.002035566842316081 
0.0002883946961455992 
0.0003024085607143502 
0.0002415038050920595 
-0.0002002862409652892 
1.350850715167434e-05 
0 
-0.0003133415158772158 
2.015773758493648e-06 
-1.640098650015210e-05 
0 
0 
-2.708933205307326e-05 
0 
0 
0 
-0.0001045027032441957 
0 
0 
-0.0001998048679958433 
0 
0 
0 
-0.0001616772739668722 
0 
0 
-0.006375738414988078 
0 
0 
0.0004221174121989622 
0.003799128636931144 
0.004048670633154295 
0.007493753852116827 
0.003315849733597933 
0.02756907337378708 
0.04678337991375926 
0.06593218345535660 
0.08920583821959657 
0.1157336620093651 
0.05494953256567724 
0.06037801789152768 
0.1516521160186449 
0.4260764289584025 
0.2121258983963175 
0.1994758806074594 
0.08678527868882721 
0.07832341366908709 
-0.07798276108246538 
-0.1559014242105874 
0 
-0.1294271050173024 
-0.04100090269108988 
-0.01833906804188469 
0.01339462874595504 
-0.01768280775401574 
-0.003195757302031060 
0.01724072260280684 
-0.0003126045202358177 
-0.003672130564670610 
-0.003546627909732631 
3.931594663390416e-05 
-0.002778527562168598 
-4.278884671529888e-05 
-4.549049209853569e-05 
-0.0003028623484670813 
0.0003210549824076202 
-1.003999874220064e-05 
1.666974200110554e-05 
0 
0 
0 
0 
0 
0 
0 
0 
0 
0 
0 
0 
0 
0 
0 
0 
-7.422447349639140e-06 
0.0002620443109359679 
-0.003318035859753459 
0 
1.428014738857016e-05 
8.525186029550851e-05 
7.481733004514270e-05 
0 
0.0003331462505454112 
-0.004358607886009688 
0.01174325285574152 
0.03313486773132346 
0.03430131738832194 
0.04835131431568378 
0.08100146653368917 
0.05878439765868632 
0.03253415494896132 
0.1214476339052629 
0.3688595834097241 
0.1809829277640962 
0.1348437489685438 
0.2159079756685609 
0.1556918110806423 
0.02874546651749942 
-0.07115008917388198 
0 
-0.1171917966487101 
-0.04194758800752566 
0.003707733424773681 
0.01489532976368746 
-0.01392495563041611 
-0.007668274854445987 
0.008955153226324230 
-0.0004151565204071626 
-0.005893352803722391 
-0.004409901433971025 
0.0001587355555569957 
-0.004912167346357753 
5.616786682783489e-06 
-1.381553108588123e-05 
-0.0002481956195155396 
4.066843173223941e-05 
-3.532956220819511e-05 
-7.776357567744878e-06 
-3.187859994992277e-05 
-1.957895575844445e-05 
0 
0 
0 
0 
0 
-0.0005291471956597200 
0 
0 
0 
0 
0 
0 
0 
0 
-3.155983306574230e-05 
0.004586866226650969 
0 
0 
0 
0.0002413459812102331 
0.0002833465972815593 
0 
-0.003273852799983412 
-0.005044257174553408 
-0.0008033742485499411 
0.02769418548859064 
0.01725291060530253 
0.01106788761951923 
0.02982151825376652 
0.07493173329272496 
0.08403360218117259 
0.2128041056857918 
0.2250103668009802 
0.1123983591797375 
0.1064959874226435 
0.2601030818927779 
0.1984093029366581 
0.08852460769810312 
-0.07261232857812443 
0 
-0.1240849997916865 
0.01516511847260785 
0.03536275954273414 
0.04253715672688398 
0.003010777759261521 
-0.003254135650782048 
0.002299016688946253 
0.002602007385582509 
-0.007269395722083087 
-0.006006548012903794 
-5.186721955815540e-05 
-0.003746614546470840 
-8.183543099128006e-05 
0.0002166049938372994 
2.453633850410847e-05 
3.487714923673246e-06 
4.690773503812282e-05 
0.0001614562791367087 
6.033625894262711e-06 
1.929037624108116e-05 
7.156916181498915e-06 
0 
0 
0 
0 
-0.004376253378240398 
0 
0 
0 
0 
0 
0 
0 
0 
-2.272733368157499e-06 
0.007612397792618527 
0 
0 
0 
-8.584228485928836e-06 
0 
0.01216953539863138 
-0.0006342539838041973 
0.008021843327545833 
0.005204792051515564 
0.01639184821594201 
0.01394753468308260 
-0.001113721611077128 
0.01739356917835298 
0.03876288328882739 
0.09951542046666641 
0.2022398807359839 
0.08951390898740225 
0.05900309650942670 
0.05222785124587338 
0.1722403746251466 
0.1325955536528717 
0.05477895632918156 
-0.09259207208190863 
0 
-0.1482115674377622 
0.07875684412246440 
0.08389188774015431 
0.08312922497389670 
0.02369064952828929 
0.01138047871813845 
-0.0009826618764360130 
-0.003355828044731957 
-0.008490372064140970 
-0.001540909348199687 
-0.004271233929592130 
-0.0005350105818707189 
-0.0003873415107786223 
0.0001359888376472473 
-0.0003738667097677215 
0.0006341599157322880 
-3.907582340010935e-05 
-0.004551518526602379 
1.895110148452868e-05 
-0.0002114119084603935 
0 
0 
-0.0004324572340498142 
0 
0 
-0.007189942766959838 
-0.001661688841665893 
0 
0 
-0.002719637175288128 
0 
0 
0 
-0.002843872921014376 
0 
0.005356371298328717 
-0.004269144848357036 
0 
0 
0.003419769553160824 
0.0002773022698374946 
0.01403946507302081 
-0.004838227292909498 
0.01239774532071283 
0.006781181834652561 
0.01184914709443434 
0.01564428670718094 
-0.0002901611635307405 
0.01146364304154030 
0.007881102261140570 
0.04863204335903474 
0.1143922519672840 
0.02483836354649084 
0.02487052207253773 
0.02740411362735730 
0.05845821745916219 
0.01709190590151664 
0.006907466099199043 
-0.1043438833313511 
0 
-0.1435667904201459 
0.1216496081324317 
0.1369361611772501 
0.1169780647350748 
0.04340006303647000 
0.03124876132395404 
-0.001363681384551439 
-0.005418085907490681 
-0.008075336944734031 
0.001443637071696426 
-0.007888507518531757 
0.0003524624624984166 
-0.0008996737593558053 
-0.0006089020452009654 
-0.002597606873332384 
0.007764806702779295 
-2.809400283994408e-05 
-0.008352921420668733 
0 
-5.097820395080906e-05 
0 
0 
-0.0007503639155163746 
0 
0 
-0.005780323956741679 
-0.003274406761523030 
0 
0 
-0.005336153848510342 
0 
0 
0 
-0.004735991931896041 
0 
0.0008741977257751371 
-0.008583861661125444 
0 
0 
0.006709770892449638 
7.604815025865995e-05 
0.003927796154082923 
-0.01120444268066758 
0.007158830580226484 
0.0003412432972609906 
0.01007936881537733 
0.01039719130699027 
0.0003586295230442289 
-0.001918063558104073 
0.0001545741324149013 
-0.01193756069214271 
0.03917971701215611 
0.01382437976059688 
0.01227660843644884 
0.05704117452349244 
0.02750351726287316 
-0.02651294229871170 
-0.004081147506712049 
-0.1312675612553341 
0 
-0.1192860876813034 
0.1079025862017788 
0.1641502350434343 
0.1149273344030745 
0.1149357475217537 
0.05098703438057563 
0.007073482686644295 
-0.001999047461992595 
-0.009664823137345206 
-0.003186077955091590 
-0.009884923886909269 
0.001030536301795178 
0.0009417024132907752 
0.0003439720143939048 
-0.008339782930421195 
0.01020719009612358 
-0.0003157762118921111 
-0.007328340697526415 
-0.0002904890856028610 
-0.0001645234919226484 
0 
0 
-0.0005095361459242095 
0 
0 
-0.001869966202134974 
-0.003274406761729394 
0 
0 
-0.004361215538277802 
0 
0 
0 
-0.002843872921017157 
-2.409627596229281e-06 
0 
-0.006877495491682741 
0 
0 
0.005502293855438612 
1.837553250211152e-05 
0.0004151054936547965 
-0.004938775442724903 
0.005387681943319798 
-0.0001868307532406954 
0.01124150542565349 
0.002411426851305671 
5.305932719407561e-05 
0.006170631219328099 
0.0001361780106443527 
-0.002486146359814689 
0.01191352090595040 
0.01827120087220637 
0.004409720161056035 
0.04925646164541262 
0.02443846481286121 
-0.02138167606360048 
-0.004683349546692731 
-0.1342029203917430 
0 
-0.1256846788920530 
0.03789647832276175 
0.1332875143351947 
0.1119092760908418 
0.2290755449518572 
0.08569717613705238 
0.04185585482623826 
0.03275603389947655 
-0.006548090202287833 
-0.001396880385630212 
-0.002414276887432579 
-0.0008434157313153474 
0.003543276287926216 
0.005137838412671086 
-0.01313360306372363 
0.003914848015233185 
2.953973636127680e-05 
0.0002119363229219446 
-0.0003598927373612578 
-3.257291790730085e-05 
0.0001090554490830435 
0 
-5.466893083757621e-05 
0 
0 
0 
-0.001661688842078626 
0 
0 
-0.001137635995389268 
0 
0 
0 
0 
-9.478178159527568e-07 
0 
-0.001785801758099252 
0 
0 
0.001437731111723487 
0 
0.0004096137682465540 
0.0004789470209664107 
0.001840724710235707 
-0.0001081064730313631 
0.005642117291858779 
3.223739683400570e-05 
-0.0001973584990245953 
0.007043730081029224 
0.0003324970673208963 
0.006012058707810370 
0.004984148592930635 
0.01084519756287655 
-0.003601575812772768 
0.01121564141216811 
-0.002393760824869500 
-0.01126849617527114 
-0.01424506574401098 
-0.1498215790363149 
0 
-0.1356404639131441 
-0.02837226933918530 
0.06164283088712795 
0.1206543785893823 
0.2630541754614210 
0.1681569863913268 
0.1397031264613445 
0.05726635373962800 
0.03267711708008328 
0.05379424170517585 
0.01454460555168700 
-0.005988235506394043 
0.01055540811845165 
0.01966435640856031 
-0.01323591960260647 
0.005655122358992258 
0.0002807214466556921 
0.004945684586262907 
0.0004542816574957289 
-0.002698471397784278 
0 
5.064973239217153e-06 
0 
0 
0 
0 
0 
0 
0 
0 
0 
0 
0 
0 
0 
0.0002563034168525897 
0 
0 
0 
0 
1.776636105032779e-05 
2.372229079525351e-05 
4.020441989034679e-06 
1.650009063935668e-05 
-0.0001974728824055460 
0.0004074478393373196 
3.163799493889985e-05 
-0.0001844837587966744 
-0.0003444356459154998 
0.0002182288043495360 
-0.003363133777448497 
0.0002138599552817556 
-0.001285764688730516 
-0.003893131360558449 
-0.009945456221100563 
-0.02336328136266881 
-0.006373427128491566 
-0.02759296541750439 
-0.1582554464329449 
0 
-0.1348961109782851 
-0.06042212380557178 
-0.002509733320472235 
0.1263290581547319 
0.1959018423460875 
0.2579005217198397 
0.2583924303043296 
0.06037206005489488 
0.1163156784700352 
0.1319887616322413 
0.05379256520390530 
0.01053549158596353 
0.01136498509704040 
0.02129998094730166 
-0.01343516695755660 
0.01387292831863624 
-0.0006055481938531699 
0.005088942818427013 
0.0001732566996896550 
-0.005831111427015753 
0 
1.190121823882162e-05 
0 
0 
0 
-3.031656126820024e-05 
0 
0 
0 
0 
0 
0 
0 
0 
0 
0.0001568643846122659 
-1.596179858227057e-05 
0 
0 
0 
9.237162222006771e-06 
0.0002196722657590773 
-0.0001945281978049887 
-6.237254064555760e-06 
4.819383108625404e-05 
6.244038404330187e-06 
0.0001746645612896617 
4.680563094028445e-05 
-7.732203269227685e-05 
0.0001703879468840985 
0.0002788668963970160 
0.0009900603182062212 
0.0002708184594322835 
0.0002204357131874748 
-0.008536446034096807 
-0.01980848798166014 
-0.008205675513192495 
-0.03403311147717310 
-0.1246109544373924 
0 
-0.1878598648858576 
-0.05265497123476204 
-0.03464687366630526 
0.1374251857150768 
0.1186931938453859 
0.2962979416190257 
0.3176144986988153 
0.1450519742386426 
0.1977404956225155 
0.1716004777840935 
0.1313638132519891 
0.06635253734167863 
0.008312010173126091 
0.01903722122197309 
-0.01267322067787326 
0.01179306236702745 
-0.0008318887498777000 
0.005595498185825073 
-0.0007943054150972929 
-0.004250931927794095 
7.384279497354736e-05 
0 
-2.751858600063437e-05 
0 
0 
-0.0002622009229278799 
0 
0 
0 
-0.0001517771283937835 
0 
0 
0 
-0.0001616772739974906 
0 
0 
-0.0002382518343506972 
0 
0 
0.0001908471508032882 
-1.698641996888875e-05 
9.069480385151291e-05 
-0.0003454522054642999 
0.0001749862872862329 
-2.367586470098724e-05 
0.0001503156592773245 
8.815207287068436e-05 
0.0001285913722630202 
0.0002222323613380813 
-0.0003508370994320761 
6.708017084125869e-05 
0.0007970299751444241 
-0.0003459086458690401 
-0.003357348288251647 
-0.004393869581105049 
-0.01528227795190418 
-0.008202631594575571 
-0.02355357815391711 
-0.1004422424270257 
0 
-0.1858166751926677 
-0.03998607184533930 
-0.05871097452456502 
0.07736151449994547 
0.06253922786849928 
0.3050964215834382 
0.2729723217167799 
0.2759440244340327 
0.2167932130146937 
0.1781977042467967 
0.2267421564997983 
0.1246927047424377 
0.01598684640711189 
0.01884797786051347 
-0.01057246741994261 
-0.005262610216101620 
-0.004206890275858877 
0.0003329323212843498 
-0.008976420756622016 
-0.003542487844039119 
0.001852659049845337 
0 
-8.393453322753834e-06 
0 
0 
-7.001150610992250e-05 
-0.0001045027051016898 
0 
0 
-0.0001450308110672071 
0 
0 
0 
0 
0 
0 
-0.0002276618166373662 
0 
0 
0.0001823642162938703 
0 
0 
-0.0003346543915123839 
0.0001728094471500665 
-1.215319618369162e-05 
0.0003628183068181646 
1.564154246167643e-05 
-8.257355502972415e-06 
-0.0001252387957393590 
-9.658239304571755e-05 
-0.0007858618165693104 
-0.0004425309934548804 
0.0004479372587887484 
-0.004279119309901951 
0.001052908954265510 
-0.01253360782634061 
-0.007102471976821304 
-0.02188228303244382 
-0.07955187136430336 
0 
-0.1483953062819269 
-0.02727508418830130 
-0.08519184661922584 
-0.02533071852780037 
0.03164965132258286 
0.2868231656142873 
0.1402197352558375 
0.2580334564563381 
0.1724888151015057 
0.1906192395295510 
0.3128034470815389 
0.1868717999063568 
0.05501203343985203 
0.04317001125237988 
0.005987479780780917 
-0.009275405678080124 
-0.002186651380336895 
-0.007382212693657230 
-0.008300023539277370 
-0.002573070220574369 
0.002920001014085227 
0.0001303018662958223 
0 
0 
0 
0 
-0.0001029802552643623 
0 
0 
0 
0 
0 
0 
0 
0 
9.853126679370822e-06 
5.895122265350327e-06 
0 
0 
0 
-6.582185966142221e-06 
0 
-1.814609293497527e-05 
0 
-0.0002746915450163940 
5.195199358924704e-05 
-0.0001488912998727082 
-0.0008936780373682303 
-0.0002146799353728867 
-0.0005183654387701515 
9.149546786978357e-05 
-0.0007915978818804726 
0.0002246963243788265 
-0.001654736438980816 
0.0007378293851465072 
-0.02045467755638962 
-0.02080966606279945 
-0.03820224021374672 
-0.07462778387153532 
0 
-0.1491202032993140 
-0.02688594056956376 
-0.1081714012374014 
-0.1376577700206927 
0.005770407880415866 
0.2310302951459385 
0.02895291056382608 
0.1476891058172016 
0.1475403175693415 
0.2026739853020041 
0.3489951174234943 
0.2650082936716443 
0.1497591647665186 
0.08444919474415415 
0.03047590957579538 
0.0001095317314993058 
-0.007615634747897978 
-0.008168631229273924 
0.002642703561613161 
-0.001384570358082761 
0.001753404978309438 
8.875672602112339e-05 
0 
0 
0 
0 
0 
0 
0 
0 
1.761303342227374e-05 
0 
0 
0 
0 
1.717428171766147e-05 
1.415738820571027e-05 
0 
0 
2.512779962472426e-05 
-2.361299864287677e-05 
1.417059282276702e-05 
-2.483666258809364e-05 
0 
-0.0002211914888386696 
-0.0001105699388787488 
0.0001930804859874749 
-0.0003158110747443879 
0.0005453844486534367 
0.001180454248649881 
0.005686481323946837 
0.008086614698301720 
0.004105350682118637 
0.007309094556484907 
0.005051253320825285 
-0.03315352189514056 
-0.04694276101909195 
-0.03704919003523432 
-0.07463893150769822 
0 
-0.2093516122516899 
-0.05642927907745122 
-0.07718408773054160 
-0.2190710947293437 
-0.02374062351964551 
0.1902553741178791 
0.06295377945867682 
0.1880164279487570 
0.2031641798845714 
0.2058732100989545 
0.2398198557779597 
0.2587596755584130 
0.1772332714072341 
0.1037741219348956 
0.05768116287061879 
0.03540520224102581 
-0.004211844487805486 
-0.0005342552917009175 
0.01101247933208481 
0.005851033551403545 
0.002016332155300121 
0 
8.762472950768789e-06 
0 
0 
-1.085591457272152e-05 
0 
0 
0 
-9.006474932569960e-06 
0 
0 
0 
-1.160790643471081e-05 
0 
0 
1.099650562663555e-05 
0 
0 
0 
-0.0001393305403238943 
2.161378968915576e-05 
-2.264715025133640e-05 
-0.0001613291829895124 
-0.0001301341657470500 
-0.0007089455145997513 
0.0006778697158730501 
-0.0003653237622333595 
-0.003527361642079826 
-0.005129011129251948 
0.002346909896013422 
0.01502126738364836 
0.0005246926089781598 
0.007155061951086962 
0.001531019188565462 
-0.03921509841960637 
-0.06666645721533890 
-0.03142290293277634 
-0.08544626560980047 
0 
-0.2700138988796026 
-0.08880944434691725 
-0.02552922379142795 
-0.2406540543535448 
-0.06998951782247571 
0.09409370592364781 
0.1302377517127246 
0.2554426254974030 
0.2213770866713460 
0.1656592882650457 
0.09561986079430831 
0.1796791182923831 
0.1389496386199409 
0.1106931115236123 
0.07907886662207152 
0.06838705950282487 
0.01069307494336037 
0.007153222990322173 
0.007039061163187818 
0.01112807873509311 
0.005157682320603694 
0 
-9.422264476528597e-07 
0 
0 
-1.692858874249305e-05 
0 
0 
0 
-2.890712143082883e-05 
3.634197711757481e-06 
0 
0 
0 
0 
0 
-2.160985115554224e-05 
0 
0 
1.731016482436710e-05 
-0.0002342268669751196 
0 
-0.0004055331605692476 
-0.0002532055395216941 
2.695321841129705e-06 
-0.001445187746792503 
0.002315872038560866 
0.0005680369747699305 
-0.009373974399023600 
-0.01258955236991248 
-0.005800487179234232 
0.008408433513590058 
0.008725746849053721 
0.03039650829107851 
0.01624869051785100 
0.01948873097048743 
-0.03126867907798019 
-0.04529678503627492 
-0.07950621808172004 
0 
-0.2409624253161023 
-0.07837083347826283 
0.02309877137515458 
-0.2067688940868943 
-0.1393726906508166 
-0.08945084546284518 
0.09391047416468773 
0.1992764718397053 
0.1425669615198421 
0.09600527144509718 
0.04217423525380269 
0.09468015722901592 
0.09763694160946544 
0.1169375316117821 
0.09048005495485205 
0.08359316477628868 
0.02851605407748011 
0.01936887610924424 
0.006391486533605993 
0.01181681869421335 
0.006906690371261136 
0.003094036279059283 
0 
0 
0 
0 
-7.502982451884913e-06 
0 
0 
0 
7.198191542417617e-06 
0 
0 
6.340641092893197e-06 
0 
0 
0.0001169845514006167 
0 
0 
0.0003665323618803842 
2.054976099200221e-05 
0 
-0.001045334078379095 
0 
-0.001554371505597892 
0.001396634759629545 
0.003043863588967381 
-0.002731935699934041 
-0.01259992765878000 
-0.01627503182806356 
-0.01710441741616975 
-0.05359455154347878 
0.01471537778876005 
0.04299267791517527 
0.03215133769478720 
0.07725617355334480 
0.001748630861394580 
-0.04196980741649188 
-0.06434313901725988 
0 
-0.2068182843307410 
-0.03584731237112594 
0.007694460700875368 
-0.1477442516286723 
-0.1725838303483510 
-0.1742679217109465 
0.02006480976844475 
0.1136787018539827 
0.09585622268770357 
0.08038603317591045 
0.03213247917414740 
0.04337654705462608 
0.06273954695777507 
0.1095527880052703 
0.07103927874359818 
0.07098537205270483 
0.03588228915989768 
0.02333335686080375 
0.008121127379605600 
0.01170686709024597 
0.006040776267734606 
0.004902469241840225 
1.791023983992248e-05 
0 
0 
0 
-7.393715717148431e-06 
0 
0 
0 
0.0001976605793742453 
0 
0 
0 
0 
0 
0.0001675730518171062 
0 
0 
0 
-0.0002582373262932875 
0 
-0.001553646054268833 
-1.193706338579279e-05 
-0.004002903541821931 
-0.0009574606310422817 
0.002523210514510717 
-0.002244703283534901 
0.01700527900781786 
0.02515034024411331 
0.02834960884478616 
-0.08679749687623364 
0.03473198319774256 
0.04155687738405415 
0.06357028548019540 
0.06143992824147136 
0.002383108881152511 
-0.02158090109767988 
-0.08000820960540712 
0 
-0.2246539898287581 
-0.003671028413155733 
-0.05383042054485560 
-0.09627518899919557 
-0.1391989433995694 
-0.1401891066785180 
-0.008418107626709245 
0.07103623044298460 
0.06861259364906414 
0.06736207551368154 
0.03127467590570516 
0.02994492957026491 
0.03380072198934486 
0.07057617355136450 
0.03319771799972598 
0.03480382481299789 
0.01846160095088570 
0.01501056247631497 
0.008193402016307324 
0.008273875068828688 
0.002333726082137053 
0.002310823733153201 
0.0001728170509896443 
0 
0 
0 
3.371225962895136e-07 
0 
0 
-1.501738265236824e-05 
0.0001630142216982479 
0 
0 
1.233459180775592e-05 
0 
0 
0.0001531615651906479 
0 
0 
0 
-0.001181237227256685 
0.0002013933243155472 
-0.001319432245690091 
-0.0002695030099307848 
0.002412722525891344 
-0.008939827802665723 
-0.004137556982181111 
0.01263789762610912 
0.05785107729354744 
0.09616097849406871 
0.08205937472339175 
-0.06118805520637829 
0.05727620621969681 
0.003765184355505675 
0.07575856080855119 
-0.03329273159680542 
-0.01126877924218528 
-0.03610658600651083 
-0.09046301099267241 
0 
-0.1935471999825845 
-3.085370336552778e-05 
-0.1034116848811888 
-0.07438120130737379 
-0.08090285068155781 
-0.1001072546461066 
-0.008382689127913501 
0.03644564004958804 
0.01698287350505680 
0.003158233025460921 
-0.005791807761066134 
-0.01008489559540730 
-0.007381205458391668 
0.01120767113574055 
0.003234766487524700 
0.004289873303260729 
0.001930867813618558 
0.002552517705090387 
0.002990227453975941 
0.002541394668938381 
0 
0 
0 
0 
0 
0 
2.706820174735875e-07 
0 
0 
-0.0002033938422939294 
4.077462813265139e-05 
0 
0 
0 
0 
0 
0 
0 
0 
0.007113152028737333 
-0.004707666539367926 
0 
-0.0007271947331279074 
-0.004512448349025817 
-0.004756311708856426 
-0.03018619429753615 
-0.02323186365236011 
0.03559359747426780 
0.06530722757869996 
0.1493668146074373 
0.05798192462180532 
-0.01356846313915162 
0.07094380691275426 
-0.09402809626661923 
0.004051467993305405 
-0.1336313685677853 
-0.04602749765171974 
-0.08438452580769712 
-0.05304463836153442 
0 
-0.1267762995929360 
0.003108534381346069 
-0.08062591306163575 
-0.05418139528420426 
-0.06424275714927201 
-0.06658475562635222 
-0.01510673164756714 
0.01087485832054481 
-0.009956435565193338 
-0.01696325408689129 
-0.01210742713171162 
-0.01410950127975189 
-0.01069128890119130 
-0.004873017164915013 
-0.003283994715350945 
1.383872674684708e-05 
0.0001700161357765864 
-1.011091586028381e-05 
0.0001166308690993818 
5.993069779265924e-05 
0 
0 
0 
0 
0 
0 
0 
0 
0 
-9.116689793578867e-05 
0.0001061400784594857 
0 
0 
8.831373775205273e-05 
0 
0 
0.002358541406324158 
0 
0 
0.009355436014171450 
-0.005670353852003750 
0 
-0.0003684012348546135 
-0.007752727623449448 
-0.01126993241239766 
-0.05437927132892843 
-0.02668466832418369 
0.02919258916226495 
0.05756386282598628 
0.1563094153018795 
0.01026441392409228 
0.03927691317359336 
0.06595978449225226 
-0.2113228301480248 
-0.1103991252636721 
-0.1680392529387802 
-0.08555104566988390 
-0.1441198410720462 
-0.02469600323736625 
0 
-0.1111868985381549 
-0.003336539407920172 
-0.03653073314510510 
-0.04295602952503843 
-0.05656281241124293 
-0.01807383286845970 
-0.004681295691859255 
0.004630135872714393 
-0.01143585178115716 
-0.005448539986484785 
-0.006186601954329602 
-0.002490275422376631 
-0.0003878901443831560 
0.0005905639842611001 
-0.001554333358053579 
0.0004802370020122291 
0.0007280920164829297 
-0.0005149309042087704 
-0.0006173752777217305 
0.0001373550461498965 
0.0003095174790607583 
0.0001531968919009127 
0.001094392007823337 
0 
0 
0 
0 
0 
0 
0 
0.001750048232489658 
0 
0 
3.873839673569572e-05 
0 
0 
0.005529508006981117 
0 
0 
0.0007631978524847278 
-0.0003336222408823024 
0 
-0.005097832316672397 
-0.006184683162939623 
-0.01549598141390927 
-0.06028886986719195 
-0.01044513943284902 
-0.0005200179745067808 
0.04198623855518518 
0.1322127995309059 
0.01659265098664738 
0.09110117561683076 
0.04052897184545548 
-0.2869462381222571 
-0.2223138632913037 
-0.1703407760088806 
-0.1165097341547342 
-0.1686972431636688 
-0.06881703516594020 
0 
-0.1431327710687375 
-0.02161477146216541 
-0.02293834744733481 
-0.02776323602021276 
-0.04597937653510682 
-0.008095241618240240 
0.002485721210268889 
-0.004225628015778474 
-0.007907912598403630 
-0.003978587449284268 
-0.006363931013374042 
-0.003561249103102824 
-0.001119053402007332 
0.001103529756877310 
0.0004156125704950843 
-1.243134320098313e-05 
0.0008335284220195470 
-0.0008816495424438911 
-0.001104230446156336 
0.0002056294608169668 
8.361430798493557e-05 
8.612159845525635e-05 
0.004208301894703602 
0 
0 
0 
2.823216655294138e-06 
0 
0 
0 
0.005835165091203782 
0 
0 
0.0001749921406001145 
0 
0 
0.006832583102823669 
0 
0 
0 
0.003276197904213711 
0.003546291746514379 
-0.01044061136364915 
-0.001764200605764602 
-0.01811922925338856 
-0.03169785417691513 
0.002079677066523248 
0.001419448163082878 
0.02993072989831053 
0.1283466772857422 
0.07076284088012490 
0.1093673540050548 
0.03200375266145206 
-0.2552802991021269 
-0.2710366442775481 
-0.1847625897123402 
-0.1126723043032490 
-0.1198101076407844 
-0.1273164664156466 
0 
-0.1565703292190014 
-0.04118151742851696 
-0.01834267541615374 
-0.01807567303592636 
-0.01877060672276808 
-0.003786454677743754 
0.004048064788657534 
0.001459930080562838 
-0.0005602459762508064 
-0.0003208314069219218 
-0.001100484583766744 
-0.001587309105031298 
-0.0004924610899573532 
0.001233844271039290 
0.0009944947444593293 
-0.0009510465092150689 
0.0003054681147135610 
-0.001337228225252043 
-0.001264457818931116 
0.0002006915853501255 
0 
0 
0.003949129019824535 
0 
0 
0 
5.717621376490087e-06 
0 
0 
-0.001573907045784855 
0.006816989682483158 
0 
0 
0 
0 
0 
0.004925175295258159 
0 
0.0001218336387060515 
0.0003631696856628443 
0.0008417106534954176 
0.005929956769813211 
-0.009659481537939241 
0 
-0.01685490836543530 
-0.01352623409949863 
-0.0009400430257123265 
-0.008214720318902484 
0.006514729104996052 
0.09448307256249414 
0.08831088661092894 
0.06607676663562170 
0.04399343060279343 
-0.1678315077880764 
-0.2545937398500367 
-0.2164950541868934 
-0.09200775495224549 
-0.08345422248476271 
-0.1764985937247260 
0 
-0.1455355568300923 
-0.05921835775708727 
-0.02511905574686249 
-0.01449775421955093 
-0.01150337592498786 
-0.007723747966972051 
0.0001897868550259807 
0.0001112840780511120 
-0.001336900795651812 
-0.002187643112219476 
-0.0005598800269726346 
-0.002336001819896889 
-0.002353948499666169 
-0.0002541512598923310 
-0.0001285419391283127 
-0.001202997879140390 
-4.225797108145643e-06 
-0.001174153023835424 
-0.0009992718053201239 
0 
0 
0 
0.0007559535969137224 
0 
0 
0 
0 
0 
0 
-0.005122869581411770 
0.005093770201624636 
0 
0 
0.001652474046218559 
0 
0 
0.002749294717575192 
0 
4.763324402779879e-05 
2.595741697286539e-05 
-2.828545421548131e-05 
0.003615068845806287 
-0.003660264682704316 
0 
-0.01438450622961483 
-0.009487527978269027 
-0.003719174851080277 
-0.01512464733907298 
-0.01290911912552623 
0.02259994783851717 
0.06817315251197373 
0.01174284523807438 
0.04704650153725119 
-0.09801967740510399 
-0.2081814258720488 
-0.2393848291910547 
-0.07855336460579126 
-0.07872292584142543 
-0.1814529735818577 
0 
-0.1041205217774962 
-0.06258067624109048 
-0.03861116105060480 
0.001633717172059416 
-0.006653527257188784 
-0.002657933756485679 
0.001477383837193189 
0.003661394970546085 
-0.0002019101924612517 
-0.0008059792809912429 
0.0007160435883937039 
-0.0008692266246042387 
-0.0008788412583964574 
-0.0001730075375443549 
-2.020995136755474e-05 
-0.0002049664843120108 
5.970955082741838e-05 
-0.0002546602819424431 
-0.0002246146936664807 
1.181830278310151e-05 
0.002758508177408792 
1.318136686393900e-05 
0 
0 
0 
0 
0 
0 
0 
-0.006585354682559028 
0.003146749673750866 
0 
0 
0.003543816794706437 
0 
0 
0 
0 
0 
0 
0.0001611229642143875 
0 
0.0002990696158491750 
-0.0007063431260651238 
-0.01217871296609561 
-0.007466125980825106 
-0.003992973091988865 
-0.01583227299735551 
-0.02294886955186686 
-0.03468544533391030 
0.02377255426405266 
-0.02195328164078824 
0.02330533198828999 
-0.06118093168794003 
-0.1671667210600239 
-0.2410276700711723 
-0.09087496987959363 
-0.07359802082818766 
-0.1715380470526432 
0 
-0.08668445517874054 
-0.06530476870992223 
-0.04998108367997021 
0.006521019070504334 
-0.006096802366808932 
-0.0007559408901535361 
-0.0003159249285507303 
0.005829618720860619 
-0.0002861006993364671 
2.775418033459335e-05 
0.001597643904726870 
-3.737819045692575e-05 
-1.802897473684991e-05 
1.782400413479162e-05 
-4.645612994419937e-05 
4.178885788556185e-05 
2.538858821404777e-05 
2.460354206461747e-05 
4.244054459520295e-06 
0 
0.004848141147248956 
0 
0 
0 
0 
0 
1.182144581922970e-05 
0 
0 
-0.004314709153910444 
0.005439470264381007 
0 
0 
0.007370340818937374 
0 
0 
0.0002495521798423748 
0 
0.002281728529949473 
3.184466618320305e-05 
0.003289539643218672 
0 
0.002111116645523038 
-0.003984313335361617 
-0.007389497036718064 
-0.006545843659896549 
-0.001283819049193417 
-0.01138033414520429 
-0.01773237454112704 
-0.03190769636246769 
-0.002421235546879054 
-0.03182445182751563 
0.001547983518432443 
-0.05667027265318249 
-0.1328709368678424 
-0.2202019532897765 
-0.1487045530675629 
-0.06924603898788186 
-0.1460308876564375 
0 
-0.09288869232161176 
-0.05621322102686781 
-0.03656302181456998 
0.006417119933136769 
-0.001206007927674296 
0.0009308992251869382 
0.002029787213646813 
0.005988985814830238 
-0.0002138166471289887 
0.0001772986597952642 
0.005429789535605959 
2.831774381079435e-05 
9.178092458596284e-05 
0.0001262942975736792 
3.222943564414489e-05 
9.813357548984164e-05 
4.530661069913433e-05 
6.314268412675200e-05 
2.894610756896187e-05 
2.051235358178214e-05 
0.003528892530100389 
0 
0.0002088147140578071 
0 
0 
0 
0.0001242377000722692 
0 
0 
